nep4 2 Te Pb
cutoff 8.0 4.0 100 30
n_max 4 4
basis_size 8 8
l_max 4 2 1
ANN 30 0
 -1.1150728e-01
  2.1178731e-01
 -1.4220799e-02
 -2.6891491e-01
  1.7075987e-01
  1.3766082e-01
  4.1975424e-02
  1.0746694e-01
 -3.7022199e-02
 -1.4462760e-01
  5.3350542e-02
  1.0584357e-01
 -1.2455023e-01
 -1.2976903e-01
  4.2368855e-02
  6.0414866e-02
  1.2985863e-01
  4.4976745e-02
 -1.6861102e-02
  8.6236440e-02
 -1.8444237e-01
  1.0634327e-01
  6.6125780e-02
 -1.2240473e-02
  4.5335270e-04
 -4.7354769e-02
 -2.2940291e-02
  2.1987900e-02
 -4.1565318e-03
 -2.6093012e-02
 -5.0941780e-02
 -1.9593193e-05
 -2.8623713e-02
 -1.3868243e-02
  3.4757537e-01
  4.7242969e-02
 -1.6067846e-01
  2.8256494e-01
  2.3155276e-01
 -1.6028240e-01
 -2.4443951e-01
 -9.6432589e-02
 -3.9985880e-02
  9.7729489e-02
  2.1317554e-01
 -1.0234336e-01
 -1.4076841e-01
  8.9718662e-02
  5.9100222e-03
 -2.3971353e-01
 -1.7195712e-01
 -7.6814322e-03
  9.3291476e-02
  1.5418114e-02
  2.8524238e-01
 -7.2406292e-02
 -2.2358444e-02
 -6.0752369e-02
  2.4570782e-02
  8.6480826e-02
  1.3874406e-02
  8.8522639e-03
  1.1849243e-02
  2.4515543e-02
  2.3877410e-02
  6.2294181e-02
 -9.2936292e-02
  3.2240666e-02
  1.7900357e-01
 -5.2713096e-02
  7.4435130e-02
 -1.4566529e-01
  1.4873093e-01
 -1.0989530e-05
 -1.5339324e-01
  1.3152125e-01
 -2.0091259e-03
 -9.9191740e-02
 -2.5877416e-02
 -3.6961801e-02
 -1.0980817e-02
 -1.7502791e-01
  1.3453215e-01
  2.7540155e-02
  1.6365701e-03
  7.5478636e-02
  1.0957228e-01
 -2.9152630e-02
 -1.1172128e-01
  1.6176347e-01
  2.5181428e-01
  2.7172697e-01
  2.4312185e-01
  2.7647370e-01
  2.2058317e-01
  1.1091725e-01
  8.6535781e-04
 -8.5653126e-02
 -1.1296630e-01
  1.4722215e-01
 -4.7673110e-02
  4.8158590e-02
  7.1578659e-02
 -5.6582419e-03
 -1.3287187e-01
  1.9933373e-01
  4.8788391e-02
 -1.0160869e-02
  1.7660893e-01
  5.6691244e-02
 -8.2126535e-02
 -1.1831787e-01
 -1.3020925e-01
 -1.0942312e-01
  1.0934372e-01
 -8.8800542e-02
 -2.2702259e-01
 -1.0720508e-01
  9.7634465e-02
 -2.4560234e-01
 -3.3802345e-02
 -1.2262789e-01
 -1.4395268e-01
  4.0058851e-02
 -1.2208294e-01
 -1.2323407e-01
 -6.1344341e-03
 -1.5227582e-01
  1.8022975e-01
  2.2298923e-02
 -1.0792945e-01
 -8.1474483e-02
 -1.0039711e-01
  5.5775531e-02
  1.4783716e-02
  7.5892899e-03
 -8.0824420e-02
  3.7240267e-02
 -1.4620362e-01
 -2.1201253e-01
  4.8259325e-02
 -1.6867687e-01
 -8.1773959e-03
  1.0647576e-01
 -7.2647370e-02
 -1.8468472e-01
 -6.9099113e-02
  6.4211763e-02
  1.9752894e-01
  3.3774242e-02
  3.9278042e-02
 -5.7317425e-02
 -1.0171027e-01
  1.1120262e-01
 -2.4678940e-01
 -5.6593891e-02
  3.0429168e-02
 -9.0088561e-02
  8.9717284e-02
  1.1220216e-01
 -6.6316724e-02
  1.0567666e-01
  2.0867322e-01
  8.5982986e-02
 -5.3261418e-02
  1.2990333e-01
 -5.3791694e-02
  8.8763177e-02
 -1.1317166e-02
  2.4134360e-01
 -8.0421165e-02
 -7.8223914e-02
 -5.0198697e-03
  8.7907396e-02
 -2.7054441e-01
  1.2628709e-01
 -1.0902423e-01
  1.6097218e-01
  1.3932025e-01
 -2.4015787e-01
 -1.0955770e-01
 -1.2121416e-01
  5.9501246e-02
 -4.6069857e-02
  1.7905931e-01
 -5.6542981e-02
 -4.0781122e-02
  2.1217316e-03
  1.0468926e-02
 -2.1070571e-01
 -1.3908836e-01
 -9.8207355e-02
  8.6626254e-02
  5.6476310e-02
  1.0916169e-01
  1.4176650e-01
 -1.6895467e-01
 -1.0732125e-01
  2.2633633e-01
  1.6360109e-01
 -9.0098910e-02
  1.6344284e-01
  4.4090055e-02
  8.0661617e-02
 -1.6785586e-02
 -1.6912031e-01
  1.3813913e-01
  1.1019844e-01
 -7.9612114e-02
 -1.4187346e-01
 -2.2763507e-01
  4.3618690e-02
 -3.8260404e-02
 -1.9579740e-01
  1.6054544e-01
  1.3301359e-01
 -3.0038357e-02
 -1.3735224e-01
 -1.9990647e-01
 -1.8738709e-01
 -5.4953918e-03
  1.7123526e-01
  4.9128175e-02
 -8.0166146e-02
  1.2271558e-01
  8.3885193e-02
  1.3843456e-01
 -1.5333389e-01
  1.2154470e-01
  6.6538309e-03
 -1.9900967e-01
 -4.4404831e-02
  1.2281304e-01
 -1.7927532e-01
 -1.0336336e-01
 -1.0245178e-02
 -1.0406645e-01
 -7.5175710e-02
 -1.4118516e-02
 -2.6611894e-01
  3.7273563e-02
 -9.1737747e-02
  3.7078556e-02
  6.6971295e-02
  1.8205421e-01
 -2.0005114e-01
  2.7969328e-01
 -1.7913774e-02
 -1.1016598e-01
  2.2682546e-01
  4.0043194e-02
 -4.7310935e-03
 -3.8902629e-02
 -1.9324954e-01
  2.2493079e-02
  6.2308978e-02
  1.2348196e-01
  1.6031023e-02
 -2.2227030e-02
  1.2989607e-01
  1.1639094e-01
  8.0383383e-02
 -2.6768653e-02
  5.8683433e-02
 -1.4941739e-01
 -2.7109295e-01
 -1.4561072e-01
 -7.0061304e-02
 -2.3641492e-01
 -2.8985029e-01
  9.0103000e-02
 -1.6414659e-01
  1.0550584e-02
  7.9244539e-02
 -1.3554294e-01
 -1.3025741e-01
  9.6951194e-02
 -1.2345756e-02
 -2.0212334e-01
  2.9241309e-01
  3.0680126e-01
 -1.3121293e-01
  3.2190137e-02
  1.0760704e-02
 -2.5299039e-01
  1.2211896e-01
  8.1928104e-02
  1.7462330e-01
 -1.1081191e-01
 -4.4268634e-02
  8.2379818e-02
  1.1180934e-01
 -8.4236838e-02
  1.2725116e-01
 -1.0277942e-01
 -3.0647418e-02
 -1.5084769e-01
 -8.9129992e-03
 -1.1242994e-01
  2.4357700e-01
  4.5744982e-02
 -7.6664962e-02
  1.0571862e-01
  3.0294979e-02
 -3.9283965e-02
 -9.1457199e-03
  4.9952656e-02
 -7.5504549e-02
 -4.4564571e-02
  1.6713567e-02
 -9.5472887e-02
  1.7392513e-01
  6.7869690e-03
 -7.7012688e-02
 -2.5373691e-01
  2.2791466e-01
 -1.7113651e-01
  7.6633446e-02
 -2.0511782e-02
 -2.8304762e-01
  1.3705246e-01
  9.7580470e-02
 -1.2037162e-02
  1.1928982e-01
  1.3449496e-01
 -4.5655601e-02
  7.3896050e-02
  4.3282114e-02
 -1.0550139e-01
 -2.1760796e-01
 -5.2726706e-03
  1.2920214e-01
  1.3135558e-01
  6.0747329e-02
 -2.6418777e-02
  1.5321083e-01
  1.2019570e-02
  2.4372104e-01
  3.1218252e-01
  1.0958413e-01
  5.5461038e-02
  2.1429335e-01
  1.5396139e-03
  8.5435987e-02
  1.5750001e-01
 -9.0262122e-02
  7.0604980e-02
 -1.8226501e-01
 -2.7482226e-02
 -1.1216589e-01
 -3.2208732e-01
  3.0615091e-01
 -2.4367636e-01
 -3.9452314e-02
  5.0045136e-02
  1.0173651e-01
  1.8056525e-01
  1.1462585e-01
 -2.1923961e-02
  2.7130308e-02
  1.6942517e-01
  6.6430375e-02
 -1.7942970e-01
  1.0462597e-01
  3.6748011e-02
 -1.1048417e-02
 -2.9438164e-02
  7.7086359e-02
 -5.3406462e-02
 -1.7378552e-01
 -1.4936848e-01
  2.4555666e-02
 -3.1103775e-01
 -3.0048770e-01
 -2.7551243e-01
  1.4215611e-01
  6.0552411e-02
 -3.4729713e-03
  1.6744898e-01
 -3.4219694e-01
  1.3405609e-01
  1.0123415e-01
 -1.5979946e-01
 -1.3812055e-01
  1.2360068e-01
 -2.1593800e-01
  2.5838909e-01
 -1.9726512e-01
 -1.2755749e-01
  2.5877384e-02
  1.9701724e-01
  7.8812599e-02
 -4.2989276e-02
 -8.4878420e-03
  8.5405163e-02
  1.9653945e-01
 -4.4142086e-02
 -1.5082693e-01
 -5.5839021e-02
  1.7166109e-01
  1.4351568e-01
  1.2765393e-01
  1.4521960e-02
 -1.4470889e-01
 -2.0955327e-01
 -7.9824887e-02
 -1.7598156e-02
 -2.4615370e-02
  5.7687551e-02
 -2.0961098e-02
 -3.2808207e-02
  1.2385032e-01
 -1.1932381e-01
 -8.5626364e-02
 -1.3027881e-01
 -1.7926162e-02
 -1.1661223e-01
  1.0070616e-01
 -9.9382199e-02
  1.4863017e-01
 -7.4366382e-03
 -1.0473461e-01
  9.2152476e-02
  2.2180550e-01
 -1.3799438e-01
  3.5814948e-02
  3.6932338e-02
 -3.0773459e-02
 -7.6902539e-02
  1.3439631e-01
 -1.4001331e-01
  1.0522261e-01
 -7.7930376e-02
  2.7468173e-02
  9.7403541e-02
  5.8261644e-02
  8.1997305e-02
 -5.9594947e-04
  7.1876235e-02
  2.5939742e-01
 -1.8890667e-01
 -1.9190304e-01
 -1.4331061e-01
 -1.7988329e-01
  8.5367069e-02
 -4.6602752e-02
  7.2546452e-02
 -1.1340063e-01
 -7.6448014e-03
  3.7098367e-02
 -3.6031269e-02
 -1.3976213e-01
 -8.4305331e-02
  1.9614044e-01
 -2.5559843e-01
  1.8406203e-01
 -8.6799227e-02
  3.9138995e-02
  1.4678791e-01
 -8.0350660e-02
  1.6863005e-02
 -8.7998465e-02
 -9.4710171e-02
  1.7378926e-01
 -9.7911574e-02
 -1.9878429e-01
  9.4352923e-02
 -1.4984635e-02
 -9.0487383e-02
 -2.5691546e-02
 -6.5724298e-02
 -1.5478437e-01
 -6.7990094e-02
  1.3198851e-01
  6.9312632e-02
  6.0019854e-02
 -1.0520484e-01
  1.3797477e-01
  3.7191540e-02
  3.4328559e-03
 -1.2750475e-02
 -1.9982679e-02
 -4.9100660e-02
  2.3023415e-02
  1.4182785e-01
  1.3319803e-02
 -8.5383030e-03
  8.0133535e-02
 -6.9559938e-03
 -3.1525648e-01
  5.1669888e-02
 -7.7460371e-02
 -4.2789623e-02
 -1.4364412e-01
 -7.4665919e-02
  3.8363349e-02
  5.6403659e-02
  2.8334660e-02
  4.4935033e-02
  1.1536750e-01
  1.6644043e-01
 -5.1217053e-02
  1.0536849e-01
  1.1383849e-01
 -4.3653648e-02
  6.4952397e-03
  7.4044593e-02
 -9.9364214e-04
 -5.1857051e-02
 -1.2131286e-01
 -1.3881987e-02
  5.6039281e-02
  9.0231746e-02
  1.4187384e-02
 -2.4430444e-02
  5.3864431e-02
  8.9307934e-02
  2.0384061e-01
 -5.0836239e-02
  5.8442485e-03
 -4.6140157e-02
  1.1329805e-01
  4.9379848e-02
 -1.2842116e-01
  1.1059029e-01
  6.8706326e-02
 -1.4892745e-01
  7.9261996e-03
  1.1147498e-01
 -2.9030469e-01
 -3.2593589e-02
  1.0818547e-02
 -8.2093529e-02
  1.0369554e-01
  3.7316643e-02
 -2.2136524e-01
 -9.6738338e-02
 -5.7106860e-02
  5.5356640e-02
  3.0582096e-02
  6.5029427e-02
 -1.3724139e-01
  1.5641209e-02
 -8.7899631e-03
 -7.8185340e-03
 -7.7582528e-03
 -2.0353273e-01
  1.1852612e-01
 -6.8248548e-02
 -5.4638222e-02
 -6.5645270e-02
 -5.2344430e-02
 -4.2130228e-02
 -1.2784261e-01
  1.6517353e-01
  4.7477860e-02
 -1.0606762e-02
  1.4259298e-01
  1.8113197e-01
 -7.6439925e-02
 -1.8704968e-02
  2.3022324e-01
 -1.5892151e-01
 -2.0856846e-02
  2.4368547e-01
  2.4418916e-01
  1.4053770e-02
 -8.8128261e-02
 -1.3568380e-01
 -5.0351545e-02
  1.0322727e-01
  9.7300641e-02
  6.6215277e-02
 -9.5766857e-02
  2.4714236e-01
  1.6589476e-01
  5.4907933e-02
 -1.0541186e-01
 -7.8352869e-02
  9.0138160e-02
  6.3451841e-02
  1.1432946e-01
  1.3945228e-01
 -4.8099313e-02
  9.2798471e-02
 -8.6878411e-02
 -4.3838698e-02
  3.5225800e-03
 -6.0980725e-03
 -3.8257930e-02
  1.4852454e-01
  7.1474843e-02
  4.7863917e-03
 -5.0188027e-02
  2.1457343e-01
  9.7518209e-03
  2.6170486e-01
 -2.2218750e-01
 -9.8870859e-02
  1.1459854e-01
  1.4375040e-01
 -2.4503073e-02
 -9.3278930e-02
  3.8497705e-02
 -8.8080242e-02
  1.0770661e-01
  1.7053241e-01
  4.8084084e-02
 -1.2599750e-01
 -1.0280821e-02
 -4.4373620e-02
  2.3287658e-01
 -1.3580497e-01
 -6.6573262e-02
  2.1701157e-03
  5.5137802e-02
  2.5629818e-01
  2.3269518e-01
  1.5794328e-01
  1.1022353e-01
 -1.4250647e-01
 -5.6151733e-02
  1.4623813e-02
 -1.1194082e-01
 -3.4833884e-01
 -4.6407890e-02
  4.6056747e-02
 -1.3649485e-01
 -3.3229157e-02
  1.1657336e-01
 -5.9351455e-03
 -8.3188869e-02
  2.5616506e-01
 -3.2326739e-04
 -2.6199412e-01
  1.1687694e-01
  7.1293831e-02
  1.6925026e-01
 -3.4251362e-02
  1.6243649e-01
  1.0370859e-02
  2.4007050e-02
  9.8718502e-02
 -2.6156031e-02
 -3.0362116e-02
 -1.4530371e-01
 -3.6468919e-02
  6.6415273e-02
  8.6258985e-02
 -6.4890660e-02
  3.3034667e-02
  8.2260683e-02
  5.5659190e-02
  1.7162125e-01
  1.6347791e-01
 -1.4935052e-01
  1.3168927e-01
 -5.1860102e-02
  6.6235989e-02
  4.4540007e-02
 -1.8153948e-01
  6.8299636e-02
 -2.6002913e-03
  7.6071471e-02
 -1.6065784e-02
 -3.1900486e-01
  6.9779180e-02
 -3.1548905e-01
 -1.9438523e-01
  1.2182706e-01
  1.6018266e-02
  9.4835013e-02
  1.7541952e-02
 -4.0409058e-02
 -9.4069712e-02
  8.0386586e-02
  4.0368520e-02
  7.2316930e-02
 -1.4800923e-01
  9.6770145e-02
 -1.3660617e-01
 -2.5199687e-02
 -1.8321954e-01
  1.0782646e-01
 -2.3133215e-01
 -2.0625480e-02
 -6.0802970e-02
 -3.0504405e-01
 -1.4212939e-01
 -2.6326567e-01
  1.0598356e-01
  3.1752184e-02
 -7.4956514e-02
 -3.5717599e-02
 -2.3859161e-01
 -6.3141100e-02
  7.2074062e-03
  1.2840866e-01
 -1.6029988e-01
  2.4959470e-01
 -2.2373235e-01
  2.7761653e-01
 -1.8288621e-01
 -1.0785717e-01
  3.8836136e-02
  1.5004833e-01
  1.5842907e-01
 -1.6053501e-01
  1.0355855e-02
 -1.5867843e-01
  6.4630821e-02
  2.2086199e-02
 -1.4389482e-01
 -6.2530838e-02
  2.5616243e-01
  5.0733320e-02
 -2.5447842e-02
 -6.7581851e-03
 -1.5319502e-01
 -3.4541238e-02
  2.1178102e-02
 -1.8082634e-01
 -1.2358718e-01
 -1.9346665e-01
  4.1653059e-02
  1.2158056e-01
 -9.5882140e-02
  1.8360889e-01
  4.5883913e-02
 -1.2277526e-01
 -1.3433312e-01
  4.6755608e-02
  1.2116759e-01
 -1.6739978e-02
  4.9193326e-02
 -7.0410877e-02
  2.1172908e-01
 -7.9595149e-02
 -1.1619054e-01
  1.2158395e-01
  2.9304568e-02
 -6.1225649e-02
  1.4829583e-01
 -1.0364285e-01
 -1.9599520e-01
 -5.5041391e-02
  2.0816913e-01
 -1.6990171e-01
 -7.5088844e-02
  1.7876903e-02
  1.2739734e-01
  9.0933658e-02
 -7.7651195e-02
 -4.1743148e-02
 -2.0652626e-01
 -9.2811629e-02
 -9.5535748e-02
 -2.4941963e-01
 -8.4917374e-02
 -2.0632298e-01
 -1.1130074e-01
  6.8022177e-02
  4.1736379e-02
  1.0884870e-01
 -2.3728625e-01
  1.9608146e-01
  1.7751601e-01
 -1.5975788e-01
 -1.8236180e-01
  1.8257397e-01
 -3.0081078e-01
  1.7535062e-01
 -7.7410974e-02
 -1.2718138e-01
  2.7364621e-01
 -9.0141678e-03
 -9.3108341e-02
 -4.8017051e-02
 -1.6157005e-02
  5.6615382e-02
 -3.8229011e-02
 -5.4650076e-02
 -1.1445118e-01
  3.2615487e-02
  2.3747813e-02
 -1.4456257e-01
  1.1664063e-01
  6.2193491e-02
 -1.0700432e-01
  6.8190016e-02
 -1.4631172e-01
  8.6614743e-02
 -8.6077914e-02
 -2.8538292e-02
 -2.4437650e-01
  8.1641160e-02
  3.1973865e-02
 -1.3074733e-01
 -8.9503005e-02
 -5.5513158e-03
 -1.6901925e-02
  9.0632197e-03
 -6.4776294e-02
 -1.7937946e-01
  2.7346438e-01
 -2.5588632e-01
  1.7303059e-01
 -1.8396932e-01
 -2.6515177e-01
  7.8766473e-02
  1.7140138e-01
  9.8132297e-02
 -1.0400498e-02
 -1.3514049e-01
 -2.0274697e-01
 -4.8343191e-04
  8.7499782e-02
 -2.6406765e-02
  6.8058513e-02
  1.8692462e-04
  4.2488754e-02
  1.3174346e-02
  4.0854132e-03
 -1.3140531e-01
 -1.0690882e-01
 -7.6253422e-02
  1.4780670e-01
  1.8300441e-01
  1.1797595e-01
 -1.1340806e-02
  3.9216327e-03
 -8.6018257e-02
  1.3838546e-01
  4.3555554e-02
 -5.5934191e-02
  8.7350614e-02
  1.5859845e-01
  3.6176421e-02
 -5.7761978e-02
  5.9633885e-02
  8.3961219e-02
 -2.9891762e-01
  2.7856043e-01
 -1.1291089e-03
 -3.0026931e-01
 -1.8896733e-01
 -7.9881296e-02
 -2.4176059e-02
  4.9661626e-03
 -8.0278488e-03
  1.2283967e-01
 -8.9411989e-02
  1.3557294e-02
  1.1293443e-01
 -2.7900785e-01
 -1.1118487e-01
  4.1169789e-02
  9.6092105e-02
 -1.3568480e-01
 -2.2663813e-02
  2.5634223e-01
  1.1778485e-01
  2.5061974e-02
  1.8533762e-01
 -1.9104693e-02
 -3.8243614e-02
 -2.8350772e-02
  1.4144365e-01
  8.0687702e-02
  1.7830239e-01
  5.6768771e-02
  8.7263063e-02
  1.2804294e-01
 -1.2495222e-03
 -3.3991486e-01
 -2.1570884e-02
 -7.7426746e-02
  6.8720065e-02
  1.1207318e-01
 -2.5320894e-01
 -8.7054029e-02
 -2.4020424e-02
 -6.8610199e-02
  1.7897606e-01
  2.2197096e-01
 -1.7981274e-02
  6.3542373e-02
  3.4973521e-02
 -1.1634327e-01
  4.3103684e-02
  1.3570294e-01
 -1.3967489e-01
 -2.3943158e-03
  1.5120670e-01
  8.2040958e-02
  3.0430590e-03
  9.4623975e-02
 -1.9606026e-01
 -7.2530821e-02
  6.0901523e-02
  9.7481504e-02
  6.5030389e-02
  8.3110869e-02
  1.1281203e-01
  7.6644562e-02
 -9.3077801e-02
 -5.0808553e-02
 -6.8177812e-02
  3.6058843e-02
 -8.9372955e-02
  2.6271198e-02
 -1.5726473e-02
 -2.2442940e-01
 -6.2328979e-02
  1.7626725e-01
  2.1602021e-01
  2.0736583e-01
 -6.8106703e-02
 -2.4789911e-02
 -1.4369491e-01
  1.5260865e-01
 -1.1296153e-01
 -5.4701820e-02
  1.3486183e-01
  1.0580288e-01
  1.6514319e-01
  1.2910929e-01
 -1.5645628e-01
  1.3834983e-01
 -1.4488071e-01
  2.8079022e-02
  1.2931451e-01
  2.2396880e-01
 -2.1109443e-02
  5.0477359e-02
  1.5799688e-02
  1.2316122e-01
 -1.2227619e-02
  5.9854127e-02
 -2.5146726e-01
 -9.4931111e-02
  1.0213947e-01
  4.9707536e-03
  3.4084819e-02
  1.5139788e-01
  2.8492221e-01
 -1.6122483e-01
  2.9602844e-01
  2.0438379e-01
 -1.8592827e-01
  9.2627019e-02
  8.2093515e-02
 -1.7273077e-01
  1.6746101e-01
  2.2366653e-01
  5.4069228e-02
 -3.6661871e-02
  1.8675448e-01
 -1.1981775e-01
  1.2161513e-02
 -8.4557734e-02
  8.6214438e-02
  4.8672996e-02
  2.0692050e-02
  3.7106007e-02
  5.7644628e-02
 -8.4948741e-02
  4.0672909e-02
  9.9996530e-02
  1.0077725e-01
 -1.2879403e-01
  1.4039868e-01
  1.7941689e-02
  1.4132403e-01
  8.1490986e-02
  9.6751787e-02
 -7.9076225e-03
  8.8060647e-02
 -6.9886699e-02
 -9.2406429e-02
 -1.7550942e-01
  3.0447036e-01
 -2.9306987e-01
 -1.3437812e-01
  1.3699648e-01
  3.3637330e-02
 -9.4207391e-02
 -1.0030729e-01
 -5.8764819e-02
 -8.2501225e-02
 -3.4622855e-02
 -2.0111151e-02
 -1.2761456e-01
  1.7660381e-01
  3.3040461e-01
  4.8993252e-02
  1.5097266e-02
 -4.4492716e-03
 -2.5143975e-02
 -1.7113940e-01
 -1.1414807e-01
 -2.6493618e-01
 -2.7307630e-01
 -2.4202387e-01
 -3.0034034e-02
  1.0717990e-01
 -2.4147919e-01
  1.4383234e-01
 -2.5670893e-02
 -7.1383268e-02
 -1.1883058e-01
 -1.5307416e-01
  1.2470576e-01
 -6.3001819e-02
  1.9686021e-01
 -9.3011916e-02
  1.6531274e-01
 -2.1716714e-01
  1.3044214e-02
 -6.8046930e-03
 -7.7115327e-02
  9.9417949e-03
  1.1698938e-01
  1.9070683e-02
  1.0277475e-01
  6.3207120e-02
  3.7232436e-02
  8.4546417e-02
 -1.5389781e-01
  1.9792588e-01
  1.3833930e-02
  9.3348578e-02
  5.4408431e-02
 -3.3643991e-02
 -1.9267693e-01
 -1.7780155e-01
  1.9695476e-01
  2.2551807e-02
 -6.2187403e-02
 -5.8110781e-02
 -1.7278719e-01
  1.3516683e-02
 -1.3892889e-01
 -9.1122873e-02
 -9.0996794e-02
  7.2211556e-02
  2.5141191e-02
  8.7281488e-02
 -2.2453826e-02
  9.1574438e-02
  4.3860637e-02
 -1.9696929e-01
 -1.1577469e-01
 -7.1638957e-02
 -2.1830621e-01
 -1.9959384e-01
  6.9067627e-02
  1.6640761e-01
 -3.0485841e-02
 -2.2102022e-01
  1.7351770e-01
  2.9169601e-01
 -1.5587798e-01
 -1.3189949e-01
 -3.7988196e-03
  1.8878385e-02
  1.2347114e-01
  1.5398596e-01
 -4.9321100e-02
  1.7225569e-01
  1.7254333e-01
  2.6396483e-01
  1.0249931e-01
  1.8901351e-01
 -2.0032269e-01
 -2.4184771e-02
  2.1405292e-01
 -4.9967855e-02
  2.8124472e-01
  2.6917207e-01
  2.3005256e-01
 -1.2404463e-01
 -2.4225031e-01
 -1.2611513e-01
 -2.5704262e-01
 -2.3496124e-01
  2.3119631e-01
  1.3105772e-01
 -2.6696640e-01
 -1.3998547e-01
  1.1186946e-01
  1.6737223e-01
 -1.1202774e-01
 -2.5541350e-01
  2.1843581e-02
 -1.8057390e-01
  2.7022547e-01
  1.7186663e-01
 -2.4758671e-01
  1.3129337e-01
  1.7672552e-01
  1.5461539e-01
  2.4418581e-01
  2.5314546e-01
 -1.7209882e-01
 -2.6661322e-01
  2.8734055e-01
 -2.2771962e-01
  1.2530342e-01
  2.5685558e-01
  2.6116893e-01
  4.6840213e-02
  3.7289515e-02
 -1.7497187e-02
  1.0649702e-01
  1.0113691e-01
  1.1168043e-01
 -2.7711105e-02
 -4.0702347e-02
 -1.2427819e-01
 -8.1213959e-02
 -1.4996433e-01
 -9.2882082e-02
  1.8722950e-01
 -5.8044970e-02
  1.4051835e-01
 -1.9314267e-01
 -3.7849415e-02
 -1.1997614e-01
 -7.1166322e-02
  2.9577574e-02
 -1.8469459e-01
  2.6276362e-01
 -1.2785843e-01
 -7.7322680e-03
 -2.0092377e-02
 -1.7565998e-01
  5.4795615e-02
 -4.6431486e-02
 -3.7782807e-02
  1.0934351e-01
  5.9108868e-02
  1.2645744e-01
  2.4009921e-02
 -1.0893585e-01
  8.3552785e-02
  6.1998181e-02
  4.5777563e-02
  1.6711730e-01
  1.3615766e-02
 -9.8114774e-02
 -1.1762456e-01
 -1.6212586e-01
 -3.8716272e-02
 -8.3808387e-03
 -1.3231622e-01
  2.2203228e-02
  3.1000260e-02
 -4.4821769e-02
 -1.6263114e-01
 -3.7916038e-02
  6.1377067e-02
  6.8316117e-02
  3.9285023e-02
  9.5125757e-02
  1.0826340e-01
 -2.1533934e-02
  2.4777219e-01
 -2.0541909e-01
  5.9009880e-02
  9.9410899e-03
 -2.3359615e-01
  1.1218362e-01
  1.5860805e-01
 -3.0057771e-02
  1.4221235e-02
  7.8613788e-02
 -6.5879524e-02
  8.9047700e-02
 -1.8798238e-02
  9.8687559e-02
 -1.1803283e-01
 -1.9073409e-01
  2.8978646e-01
  2.7740160e-01
  6.1189890e-02
 -2.6474634e-02
 -3.0006772e-02
  3.5120014e-02
  1.3684234e-01
  1.1340773e-02
  8.9362770e-02
 -1.4718035e-01
  3.1498931e-02
  1.6290446e-01
 -8.3399482e-02
  4.6626598e-02
 -9.5677756e-02
 -5.9700213e-02
 -1.0272134e-01
 -1.4506137e-01
 -2.9147962e-02
  1.5551408e-01
  9.5369957e-02
 -1.7209242e-01
 -1.2176635e-01
 -6.2551469e-02
  8.5746646e-02
 -7.9999693e-02
  2.6767425e-02
 -6.6730849e-02
  1.8269837e-02
  6.9377832e-02
 -7.0348516e-02
  7.1457915e-02
 -6.9398782e-03
  5.6488807e-03
  2.6102531e-01
 -2.9511929e-01
 -9.8530516e-02
  6.5681733e-02
 -9.3940020e-02
  6.8494327e-02
 -3.1526715e-03
 -4.2437576e-02
 -5.3934809e-02
  2.2156816e-02
  1.5134048e-01
  1.0157201e-02
  4.6458744e-02
  1.6437292e-02
  1.4488800e-01
 -3.5103861e-02
 -2.8755767e-02
  1.7277005e-01
 -7.3851593e-02
  6.3131802e-02
 -2.1675991e-02
  1.3704075e-01
  6.4111128e-02
 -9.3763694e-02
  2.9502526e-01
 -7.8931443e-02
  4.5505788e-02
  6.9615684e-02
  2.1150326e-02
 -2.1523391e-01
 -1.6929898e-01
  8.0437429e-02
 -1.3651913e-01
  2.2194913e-01
 -1.1135840e-01
  8.0151875e-03
  1.6981250e-02
  5.3093292e-02
  1.2120110e-01
 -9.0831853e-02
 -2.3169085e-02
 -7.9257749e-02
 -1.1158440e-01
  1.8874538e-01
 -1.3343449e-01
  1.9429578e-02
  9.3309022e-02
 -8.5991137e-03
  1.4893348e-02
  1.0930537e-01
 -5.9401281e-03
  1.2330197e-02
 -7.2585665e-02
  1.1535764e-01
 -2.4399376e-01
  2.7798739e-01
 -4.0260952e-02
 -5.7901334e-02
 -1.2569553e-01
  6.0173530e-02
  1.7246116e-02
  2.9887306e-03
  7.6706298e-02
  7.6592728e-02
 -6.8778738e-02
 -1.7928980e-02
 -1.9922512e-02
 -1.2585212e-01
  2.8651494e-01
 -4.2352717e-02
 -7.3583536e-02
  1.6688298e-01
  2.8963518e-01
  6.8798184e-02
 -5.2710734e-02
 -1.4690357e-01
 -4.8624882e-03
  6.6290133e-02
 -9.4369397e-02
 -8.2785577e-02
 -7.8195632e-02
 -1.0117037e-01
  3.2302249e-02
  4.2398773e-02
 -1.3792890e-01
  1.1580852e-01
 -1.1048383e-01
 -3.9644025e-02
 -1.2287710e-01
 -1.9461779e-01
  1.7362177e-01
  1.1521618e-01
  2.4857206e-02
 -4.1277662e-02
 -2.0172206e-01
  3.3715826e-02
  1.4940615e-01
 -6.1087240e-02
  7.0457414e-02
 -2.1832496e-02
 -4.5452649e-03
 -1.7946152e-02
 -8.1375137e-02
 -1.3682796e-01
 -4.2777203e-02
  1.4398184e-01
 -5.7928570e-02
 -2.5567877e-01
 -7.2515927e-02
  2.2105907e-01
 -5.1927101e-02
  2.3219254e-02
  7.9897314e-02
 -1.0407857e-01
  1.3687085e-01
 -8.5733406e-02
  1.6548363e-02
 -1.6173014e-01
  1.5183757e-01
 -6.2702626e-02
 -8.6505435e-02
  1.0331039e-01
 -1.9996405e-02
 -5.5465632e-04
  4.5944322e-02
 -2.3710229e-01
  2.1273535e-01
 -9.8423705e-02
  1.1555389e-02
  1.9445901e-01
 -1.2507172e-01
  4.3525394e-02
 -1.0087092e-01
  1.5366806e-01
 -3.3211451e-02
  1.0294247e-01
 -6.7443132e-02
  2.5516611e-02
 -1.3092397e-02
  1.0479188e-01
  2.3618117e-01
 -1.2752809e-01
 -2.7695575e-01
  1.8409172e-01
  1.3983190e-01
  1.5752205e-01
  2.7855488e-02
 -4.6557661e-02
  8.3592124e-02
  1.0836376e-01
 -1.5693178e-02
  2.4116842e-02
  7.9108961e-02
  1.8432486e-01
  4.1579869e-02
  2.1619554e-01
 -1.1396748e-01
 -9.5980205e-02
  2.4679172e-01
  1.0284758e-01
  7.9993747e-02
  1.0126043e-01
  7.1860284e-02
  2.4002865e-02
  8.5546374e-02
  1.0427515e-01
  1.0503744e-01
 -1.4746488e-03
  2.5901798e-02
 -7.4125737e-02
  8.3911940e-02
 -4.7101974e-02
 -8.5286893e-02
  2.9627553e-03
 -1.3545513e-01
 -9.5340349e-02
  1.8758707e-01
  6.7162625e-02
 -7.0474647e-02
  7.2914682e-02
  6.4219788e-02
  4.2074837e-02
  1.1974179e-01
  1.1559378e-01
 -1.7843598e-01
 -6.2704623e-02
  1.8672417e-01
  1.9322271e-02
 -1.4745735e-01
  8.5202053e-02
  9.1015339e-02
  9.9966891e-02
  5.0219097e-03
  4.9996126e-02
 -2.7786210e-01
  8.2258210e-02
 -2.1554306e-02
 -2.1286613e-01
  8.9751646e-02
 -1.2878205e-01
  1.4877941e-02
 -4.9729947e-02
 -7.8178486e-03
 -1.6434985e-01
  1.7770803e-01
 -8.8655502e-02
 -1.2685525e-01
  1.3930134e-01
  4.2921249e-02
 -1.7602465e-01
 -2.0563455e-01
  1.3808340e-01
  2.4153307e-01
 -2.3264255e-02
  1.4616549e-01
  1.2427266e-01
  1.0452675e-02
  1.8761916e-01
  5.0463472e-02
  1.5103678e-03
 -1.1320190e-02
  3.0612102e-02
  1.9455988e-02
  5.0119959e-02
 -1.7125107e-01
  4.8663002e-02
 -2.6213733e-02
  4.2441521e-02
  9.6656360e-02
 -2.9696977e-01
  2.2503942e-01
  6.5407656e-02
 -1.9551994e-01
  3.5957623e-02
  4.4637624e-02
  1.9385617e-02
 -1.4072520e-01
  5.0497755e-02
 -3.8480300e-02
  2.2293045e-01
 -4.2627030e-03
  1.7654781e-01
 -1.1627929e-01
 -8.1552193e-03
  3.4518048e-02
  2.5309935e-01
 -6.5810300e-02
 -2.6693878e-01
 -1.1431829e-02
 -1.1196522e-01
 -6.3458823e-02
 -1.2734315e-01
  1.6600749e-02
 -1.2570389e-01
 -3.3379249e-02
  1.5072517e-01
 -1.2153502e-01
  9.9227838e-02
  6.2483817e-02
  9.8636247e-02
  1.9652615e-01
  5.1489774e-02
  7.2463758e-02
  2.1372135e-01
  1.5211827e-01
 -1.2200519e-01
  1.2499187e-01
  2.5859666e-01
 -6.8188339e-02
  6.2420543e-02
 -8.1399903e-02
 -5.2142389e-02
  1.9799238e-02
 -1.1644843e-01
 -1.4894111e-01
  6.3517675e-02
 -8.7941453e-02
  1.0148469e-01
 -1.7554390e-01
  2.9999709e-01
  3.1784058e-02
  5.6917034e-03
 -2.5739798e-01
  1.5774240e-01
 -8.5989214e-02
  1.4854828e-01
 -6.6788353e-02
  8.3617792e-02
  6.9799036e-02
  9.2785932e-02
  7.4001424e-02
 -1.5202408e-01
 -1.9066676e-02
 -1.3656905e-01
 -8.8304870e-02
  2.3621593e-02
 -1.1788946e-01
  1.8092266e-01
  2.0539346e-01
  2.7183554e-01
 -3.7770033e-02
 -7.8537866e-02
  1.4923422e-02
  2.0691660e-01
  1.1900295e-01
 -1.6094522e-01
  6.4473309e-02
  3.1107740e-02
  1.7291939e-01
 -6.3390642e-02
 -3.9166268e-03
 -1.5709117e-01
 -1.1275888e-01
  2.3060209e-01
 -2.2491224e-01
 -2.2359441e-01
  4.2333677e-03
  4.6458658e-02
  5.0376942e-03
 -8.5999817e-02
  1.4383782e-01
  1.0418860e-01
 -1.2741818e-01
  9.6066587e-02
 -1.3028543e-02
 -2.0948945e-01
 -4.0066533e-02
 -8.4074304e-02
 -1.2509151e-01
 -1.6710284e-01
  9.7625799e-02
 -5.6207269e-02
 -6.6812530e-02
  4.7544252e-02
 -5.9073746e-02
 -1.4231411e-02
 -1.6896471e-01
 -5.7175733e-02
  9.3629479e-02
 -7.1957015e-02
 -3.6055759e-02
 -1.2107303e-01
 -8.6430572e-02
 -1.2429839e-01
 -4.7595434e-02
  1.3720456e-02
  1.4525504e-01
 -7.5673178e-02
 -1.0410093e-01
  2.1485542e-01
 -2.6817808e-02
 -1.2746772e-01
 -1.1846854e-01
  1.0669672e-01
  8.4069215e-02
  1.3166977e-01
  8.9306235e-02
  2.2417285e-02
 -1.5773013e-01
  1.8303387e-01
  1.5719803e-01
  1.0717243e-01
  5.9417836e-02
  9.0355396e-02
 -1.0018288e-01
 -3.5295531e-02
  1.5796620e-01
  1.4830178e-01
 -2.7352927e-02
  2.4722068e-01
 -1.3289474e-01
  1.9530238e-01
  2.1806489e-01
  1.8668245e-01
 -5.1389039e-02
 -1.7025088e-01
  5.6033820e-02
  7.7628843e-02
  8.1930310e-02
 -6.8324588e-02
 -4.0298302e-02
  3.5756040e-02
 -6.6952735e-02
  2.5583461e-01
 -2.7465308e-01
 -1.3950399e-01
  2.5606883e-01
 -3.6012143e-02
  7.6402746e-02
 -1.0073768e-01
 -1.3197460e-02
 -3.1977281e-02
  1.2899645e-01
  5.0624341e-02
 -1.5055421e-01
 -6.0463890e-02
  1.2823950e-03
  1.5356822e-01
  5.0504074e-02
 -1.9234103e-01
 -1.3902768e-01
  6.2391408e-02
 -2.0267179e-02
  1.0248412e-01
  1.4247926e-02
  1.5557390e-01
 -6.8745546e-02
  2.6999550e-02
  6.3115381e-02
 -2.1127155e-01
  1.8557899e-01
 -1.4881040e-01
  8.0803365e-02
 -1.0681853e-01
  1.1713896e-01
  1.0949478e-01
  4.6962496e-02
 -6.1203737e-02
 -6.7959242e-02
  1.1677826e-01
  1.2913768e-01
 -2.9332042e-01
 -2.4543396e-01
  1.4653569e-01
 -4.9395910e-03
  9.2618510e-02
  6.2385682e-02
  8.9271531e-02
 -1.4359772e-01
  7.4553475e-02
  2.3336008e-01
 -8.9335576e-02
 -7.5945683e-02
  7.9591259e-02
  9.7442932e-02
  2.7080832e-02
  1.5395458e-01
  5.2497026e-02
  1.7997694e-01
  6.9100693e-02
 -1.8038093e-01
 -1.6899092e-02
  2.0565481e-01
 -2.3797005e-02
  1.8132994e-01
  8.0721922e-02
 -1.6526890e-01
 -3.9826043e-02
 -9.7468108e-02
 -1.4299795e-01
  3.1409007e-02
 -1.5586765e-01
  6.7644142e-02
  2.2387452e-01
 -1.9864418e-01
 -2.8107682e-01
  1.9888400e-01
  2.2587176e-01
  2.6423132e-02
 -2.8164912e-02
 -5.8382135e-02
  2.3902738e-01
  7.3739022e-02
  9.3386464e-02
 -1.9510508e-01
 -4.9272779e-02
  3.7194155e-02
  1.2486001e-01
 -1.7008688e-01
 -9.2773028e-02
 -1.3018034e-01
 -1.0981141e-01
 -2.1946862e-02
 -3.8018633e-02
 -1.0831884e-01
  3.3058386e-02
 -7.8970060e-02
 -2.1476847e-01
 -1.5039790e-01
 -1.6263343e-01
 -4.4053756e-02
  7.8252293e-02
  2.2929412e-01
 -1.4391246e-02
  1.4741679e-01
  7.1163595e-02
  7.3487093e-03
 -8.9300953e-02
  1.1382512e-01
  5.3092163e-02
 -3.2837827e-02
  1.4541839e-01
  1.1076863e-02
 -6.2277894e-02
  5.5437829e-02
  3.0418031e-02
 -1.2626575e-01
  1.6776966e-01
  1.1971705e-01
 -6.3958839e-02
 -2.1589819e-01
  1.7733426e-01
  1.4159709e-01
 -9.7695470e-02
 -6.7827038e-02
  8.7716773e-02
  3.0788496e-02
 -9.1085285e-02
  4.6973240e-02
 -2.3207251e-02
  8.6894423e-02
 -4.4591174e-02
  6.0535293e-02
  9.1518406e-03
 -3.9784137e-02
  1.3659199e-01
  1.3484873e-01
 -8.8926651e-02
  7.7233396e-02
 -2.1777306e-02
  9.0486512e-02
 -7.9512097e-02
 -6.0426936e-02
 -7.6669375e-03
 -1.3292477e-01
  4.3712113e-02
 -5.3314734e-02
  1.2844992e-02
  9.4055310e-02
 -1.4426789e-01
 -1.7572264e-01
 -7.6977760e-02
 -4.4925984e-02
  8.1816755e-02
 -1.4377126e-01
 -1.0714421e-01
  1.7819554e-01
 -4.4788979e-02
 -1.6365947e-01
 -1.6601339e-01
 -1.5564227e-01
  1.5852276e-02
 -1.6003087e-01
 -1.1353394e-01
 -4.4148300e-02
 -5.3531423e-02
  8.9219093e-02
  4.8723888e-02
 -3.4227770e-02
  7.4013215e-03
  7.0352383e-02
 -8.8716239e-02
  7.8403041e-02
  1.7611215e-02
  2.4046959e-02
  1.0947200e-01
 -1.3800900e-01
 -5.8492564e-02
  2.8712654e-01
 -2.4317414e-01
  2.4108708e-02
  1.5288016e-01
  1.8806647e-01
 -1.1941455e-01
 -1.6343637e-01
 -6.4598925e-02
 -1.5433842e-02
  5.2358359e-03
  1.0358594e-01
 -6.2694833e-02
  7.2688689e-03
  1.1730773e-01
  1.1248673e-01
  9.3127772e-02
 -6.6965357e-03
  1.4726575e-01
  1.8193990e-02
 -1.4299728e-01
  3.6503382e-02
 -3.0125489e-02
  2.5484142e-01
 -1.5129970e-01
 -1.8910108e-02
  5.0582923e-02
  2.2980234e-02
 -8.2956053e-02
  1.3590179e-01
  5.6426311e-03
  5.2461751e-02
  9.7364634e-02
 -5.5762675e-02
 -1.0031560e-02
 -1.1887933e-02
  2.2280486e-01
 -5.7947993e-02
 -2.2887245e-01
  8.5141726e-02
  1.9680898e-01
 -8.6660005e-02
  7.6885089e-02
 -1.7866775e-01
  6.8860601e-05
 -1.2116524e-01
  1.1693175e-01
  5.2431315e-02
  5.7203121e-02
 -1.2967658e-01
  1.0750882e-01
 -1.7557380e-01
 -1.0372961e-01
 -2.5582151e-02
  3.0592863e-02
  9.1842704e-02
  3.2246433e-02
  2.5791470e-02
  3.8616106e-02
 -1.9763528e-01
 -1.8633285e-01
  4.1215349e-02
  4.1273754e-02
 -1.0456301e-01
  6.2515937e-02
 -2.9930361e-02
  6.4874247e-02
 -5.2087523e-02
  2.6607864e-02
 -5.1502015e-02
 -3.8257938e-02
 -2.2747399e-01
  1.8237288e-01
  2.1941103e-01
 -2.3455271e-02
  3.2093573e-02
 -3.6454536e-02
  1.4398903e-01
 -1.2154984e-01
  1.1301585e-01
 -2.3411281e-02
 -4.9603466e-02
 -1.0792211e-01
  7.0699371e-02
 -4.9360517e-02
 -9.4233029e-02
  5.0473470e-02
 -1.1959491e-01
 -1.2263402e-01
 -1.8130587e-02
 -1.2444277e-01
  3.5956305e-02
  1.6275194e-01
  1.7839478e-02
  8.0671504e-02
 -9.2783488e-02
  1.8898329e-01
  2.2827929e-01
  3.1057347e-02
  4.1138008e-02
  8.0517888e-02
  1.6021328e-01
  9.9107109e-02
 -8.0626898e-02
  1.5730029e-01
  1.4027469e-01
 -1.8127442e-03
  1.6722561e-01
  1.0832805e-01
 -3.0553120e-01
 -1.6498691e-01
 -7.5619079e-02
 -5.7122085e-02
 -6.5950379e-02
  4.0412754e-02
  1.3411525e-02
  1.3772380e-01
 -1.0497946e-01
  2.3199773e-01
 -6.4056732e-02
 -4.6034183e-02
 -1.2200084e-01
  1.7079082e-01
  9.0811446e-02
  1.3686702e-01
 -6.5181911e-02
  2.3735271e-01
  1.5859108e-01
 -1.3136902e-01
  8.6481027e-02
  2.4090212e-02
 -9.7255610e-02
 -5.1493045e-02
 -8.1510693e-02
 -1.5962751e-01
 -2.5307579e-02
 -8.1808351e-02
 -1.7878233e-01
  1.6163677e-01
 -1.4180672e-01
  9.0777755e-02
 -2.6405609e-01
  7.0177719e-02
  1.2107439e-01
  5.4454919e-02
 -1.5475859e-01
  1.8556166e-01
  1.6409248e-01
  1.4552701e-01
 -4.6814445e-02
 -1.4205982e-01
 -8.6769670e-02
  1.7300215e-01
  2.3981372e-01
 -1.3343719e-01
 -1.1978526e-01
  1.8220074e-02
 -3.3087272e-02
  2.5006423e-02
 -6.5649312e-04
 -4.2508930e-02
  9.8242186e-02
  2.3836909e-01
 -7.6370053e-02
  1.8443255e-01
 -1.0100929e-01
  8.3063155e-02
  1.2569591e-01
 -1.0371336e-03
  1.1928732e-01
 -2.3922934e-01
 -8.4703870e-02
 -4.5575555e-02
  8.9422628e-02
  2.4054753e-02
 -4.8093002e-02
  1.8977414e-01
 -1.6529385e-02
 -1.5743616e-01
  2.3189457e-01
  2.4112129e-01
 -2.3657342e-02
  8.7978445e-02
 -3.9370313e-02
  3.5799414e-02
  1.2973821e-01
  1.0740277e-01
 -9.3764290e-02
 -4.2305481e-02
 -6.9518819e-02
 -1.5627712e-01
 -1.2437746e-01
  8.7981924e-02
  7.4443653e-02
 -1.4987259e-01
  1.1706704e-01
  1.1502147e-01
 -2.5458077e-01
  2.0754772e-01
 -7.3833257e-02
 -3.0625431e-02
  3.7084099e-02
  2.2296648e-02
 -4.7025848e-02
  5.1620480e-04
  5.6481868e-02
 -3.9138421e-02
 -6.4626247e-02
 -9.3432866e-02
  1.5624523e-01
  1.1409048e-01
 -2.4067840e-01
 -4.3724548e-02
  2.5142068e-01
 -1.8481293e-01
 -2.5460160e-01
  9.0937361e-02
  1.4708576e-01
  1.5777875e-01
 -6.8168610e-02
 -1.4639890e-01
  2.3679448e-02
  2.4004349e-02
  3.9986499e-02
  9.3426043e-04
  1.0293201e-01
 -1.1579414e-01
  1.5306510e-01
  1.3611446e-01
  1.1811025e-01
 -7.8158945e-02
 -3.3050408e-03
  7.7655464e-02
 -4.7851827e-02
 -6.6558972e-02
  2.4527822e-01
 -4.1740589e-02
 -1.6375931e-02
 -7.0376113e-02
 -1.0211124e-01
  1.0555681e-02
  1.6266547e-01
 -5.0804213e-02
 -6.6927411e-02
 -1.2577787e-01
 -5.5665568e-02
  6.6551454e-02
 -1.9707438e-01
  4.0679448e-03
  2.0981416e-01
 -6.0950890e-03
  1.0051492e-01
 -7.2752461e-02
  1.4065562e-01
 -1.1582866e-02
  6.3639276e-02
  1.7080817e-01
  1.7467545e-02
 -8.2155414e-02
  3.8975831e-02
 -8.2057737e-02
 -8.9959435e-02
 -1.5814281e-01
  5.7835761e-02
  7.1564108e-02
  9.9324062e-02
  1.2471865e-01
 -2.0270690e-01
  2.5390556e-02
 -1.9873253e-01
  1.0443618e-01
  3.9657045e-02
 -2.2178948e-01
  1.2366824e-02
 -4.0588472e-02
  1.8770464e-01
 -7.7496544e-02
 -3.8270526e-02
  5.7577394e-02
  1.4044215e-01
 -9.0340242e-02
  5.2821886e-02
 -1.8173569e-01
  4.0994931e-02
 -1.4911576e-02
 -2.9069800e-02
 -1.5222095e-01
  1.2497529e-02
 -3.0504549e-02
 -1.1470638e-01
  1.5466180e-01
  1.6775973e-01
  1.6226453e-01
 -1.1472616e-02
  9.7472042e-02
 -1.0969146e-01
  5.4436620e-02
  1.2313683e-01
 -1.3602608e-01
 -1.4029408e-02
  3.4550101e-02
  5.0665807e-02
  8.4471688e-02
  1.5595028e-01
  1.1773366e-01
 -1.5114610e-01
  3.6695633e-02
 -3.9784335e-02
 -1.4077969e-02
 -7.9280540e-02
 -1.2884472e-01
  1.0820521e-01
 -1.2402004e-01
 -8.0591545e-02
 -3.5445061e-02
  1.2753132e-01
  9.9516720e-02
 -1.2487981e-01
  3.1605188e-02
  9.6873730e-02
  1.5505956e-02
 -1.1799731e-02
 -2.9586250e-02
 -1.0262304e-01
  1.5559965e-01
  4.1895904e-02
  1.7982976e-01
  1.2883621e-02
 -1.3429527e-01
 -4.1417334e-02
  5.6450527e-02
  1.2095910e-01
  1.1842848e-01
  5.2550446e-02
  1.3904363e-01
 -6.0696479e-02
  8.0236018e-02
 -2.9608068e-01
  9.1348000e-02
 -6.2673040e-02
 -6.3869461e-02
  3.8530994e-02
 -2.2796535e-01
  3.7487615e-02
 -1.0087447e-02
 -4.9600564e-02
 -5.2072448e-03
 -8.0135368e-02
  9.7625919e-02
  4.9725380e-02
 -6.8143114e-02
  1.6746403e-01
  3.1790886e-02
 -2.7339287e-02
  8.3264112e-02
  2.5665838e-01
 -1.5109625e-01
  1.1990564e-01
  1.8468319e-02
  1.7652062e-01
 -1.3951492e-01
 -7.8945570e-02
  1.5601337e-02
 -1.0995291e-01
 -1.2680414e-01
 -1.5547463e-01
  9.4165858e-03
 -9.9714316e-02
 -1.1882804e-01
  1.0881810e-01
  1.3410376e-01
 -8.7953016e-02
 -1.7349467e-01
  2.4154826e-01
 -1.1383184e-02
 -9.7444504e-02
  1.1324996e-01
 -2.1733217e-01
 -4.5766663e-02
 -8.0125600e-02
 -1.1645216e-01
  1.1958827e-01
  4.3555390e-02
  7.3404133e-02
  1.5061551e-01
  1.3474050e-01
  1.7951323e-01
  2.5609034e-01
  5.0248932e-02
 -2.2238092e-01
  1.4488895e-01
  2.0071566e-01
 -2.7186447e-01
  3.7944358e-02
  8.1907362e-02
  6.8320171e-03
 -1.8162082e-01
 -1.1839714e-01
  3.5521291e-02
 -1.0194118e-01
  2.1923344e-01
 -1.4004725e-01
  2.1709622e-01
  2.5794852e-01
  1.4125606e-02
  6.1841598e-03
  1.1220554e-01
 -2.7036417e-01
 -2.5891992e-01
 -2.5318536e-01
  5.6068711e-02
 -1.1085992e-01
  1.6345590e-01
 -4.5644179e-02
  1.7593160e-01
  2.2802988e-02
  2.1828601e-01
  1.8739899e-01
  1.8628427e-01
 -1.4476551e-01
  1.5486963e-01
  1.9779262e-01
 -2.0995961e-01
 -2.1509819e-01
  2.2993782e-01
  2.7521574e-01
 -1.4841160e-01
 -1.6069180e-01
  1.1523856e-01
 -1.4882654e-01
  1.7538270e-01
 -1.5998478e-01
  1.0812378e-01
  2.1046540e-01
  7.3026471e-02
  2.1212523e-01
  2.5822535e-01
 -2.9697856e-01
 -1.4419349e-01
 -1.0707751e-01
  2.2927248e-01
 -2.3155907e-01
  1.3826197e-01
 -1.5923033e-03
  1.8212807e-01
  2.0770343e-01
  1.0394967e-01
  5.8813727e-01
  1.4582964e+00
 -6.8674159e-01
 -1.7855848e-01
  1.7781085e-01
 -6.6767955e-01
  7.2131258e-01
 -2.5597540e-01
 -1.1572032e+00
  6.7242235e-01
 -2.0025806e+00
  7.0003039e-01
  1.2504533e-01
 -2.7204886e-01
 -6.8646049e-01
 -1.7699151e-01
  4.6578443e-01
  4.3357790e-01
  8.8367164e-01
 -6.1153692e-01
 -7.6106668e-01
  1.2664232e+00
 -1.0218643e+00
  8.2368135e-02
  8.0705392e-01
 -8.0973244e-01
 -5.9036154e-01
 -1.2660474e+00
  3.5960189e-01
  1.5473926e-01
 -1.2789803e+00
  1.4059951e+00
 -4.0577593e-01
  4.5124444e-01
 -5.4607320e-01
 -1.0034988e-01
  9.8263055e-02
 -1.2109576e-01
  1.1118189e+00
  1.5213478e-01
  3.0529061e-01
 -1.1643434e-01
  1.2605224e+00
 -1.3675205e+00
  8.9784104e-01
  1.1292589e+00
 -3.5572436e-01
 -1.8694524e-01
  9.4859160e-02
 -5.0350342e-02
 -1.6868122e+00
 -1.1172537e+00
 -1.4788464e+00
 -2.1601881e-01
  9.2339420e-01
  4.8872533e-01
 -1.4769342e+00
  1.9280222e-01
  1.4918607e+00
  6.2572616e-01
  4.4772065e-01
 -6.8356469e-02
 -2.8788188e-01
  1.1554936e+00
  1.1024784e+00
 -1.8866297e+00
  1.8274392e+00
  1.5467758e+00
 -9.3281555e-01
  1.9178159e+00
 -1.8376282e+00
 -3.6804992e-01
 -9.2413396e-01
  1.3630879e+00
 -2.8968406e-01
 -5.5741811e-01
 -3.5594290e-01
 -1.1368448e+00
  1.6553912e+00
  6.3085908e-01
  2.3579244e-01
 -9.2095876e-01
  1.8903213e+00
 -5.7880175e-01
  9.9290431e-01
  7.6167434e-01
  3.1198339e+00
  1.4788404e+00
 -2.2044547e+00
  6.0975432e-01
  1.4142419e+00
  1.1088582e+00
 -1.6191025e+00
  1.4049755e+00
 -1.8596116e+00
  1.5158591e+00
 -4.4387671e-01
  1.2470200e+00
 -9.0579438e-01
  1.1836478e-02
  1.5362149e+00
 -6.1631781e-01
 -7.7153832e-01
 -1.6039448e+00
  8.0274159e-01
  2.4572170e-01
  9.2902440e-01
  1.8073605e-01
  9.2903215e-01
  7.2073317e-01
 -6.5048367e-01
  1.2266456e+00
 -2.4338616e-02
  9.8379564e-01
  1.5223824e+00
 -8.8069928e-01
  3.1714222e-01
  9.8908171e-02
  1.9956893e-01
 -1.2541161e+00
 -7.6415235e-01
  6.5235776e-01
 -3.8878763e-01
 -1.1656713e-01
  3.4713463e-03
  6.6504610e-01
 -1.6432534e+00
 -7.7000181e-03
  1.5629992e+00
 -6.5325540e-01
  6.8313181e-01
 -8.8544250e-01
 -1.0600469e+00
  2.7538707e+00
  9.4988942e-01
 -3.5632926e-01
 -1.8261179e+00
 -9.8668194e-01
 -8.2596016e-01
 -2.2848539e+00
  5.5757725e-01
  1.5354076e-01
  1.1076802e+00
 -6.8363082e-01
 -1.0782673e+00
 -1.0413553e+00
  4.2297161e-01
 -7.9206270e-01
 -6.7721903e-01
 -1.2303754e+00
  1.7403363e+00
 -1.0239775e+00
 -8.1579268e-01
  4.0947244e-01
 -6.6555893e-01
 -8.8394094e-01
  1.0181358e+00
 -1.5589120e+00
  1.7943736e+00
  4.5082787e-01
 -1.0095470e+00
  8.6403805e-01
  8.2549989e-01
 -6.6859871e-01
 -1.0404354e-01
  5.1029157e-02
  1.2128782e+00
 -1.3682755e+00
  4.8644565e-02
  1.5898062e-01
 -7.3018014e-01
 -9.7381365e-01
  8.2361555e-01
 -1.9953521e-01
 -1.3262883e+00
 -5.0007749e-01
 -6.9844240e-01
 -4.2810491e-01
  3.1815645e-01
 -1.7429146e+00
  1.6453356e+00
  1.4110562e+00
 -1.2438654e+00
  1.5287498e+00
 -1.1889953e-01
  2.9490587e-01
  6.2184042e-01
 -2.2534444e+00
  2.3275805e-01
  1.2342588e+00
 -5.1987481e-01
  2.2815473e+00
 -1.0940232e+00
 -4.9915141e-01
 -1.1086742e+00
  4.1960496e-01
 -1.9139075e-01
 -1.6389474e+00
 -9.6690160e-01
 -9.7311896e-01
 -6.2623507e-01
  2.5278272e-02
 -5.6538486e-01
  1.5083214e+00
  2.3152874e-01
  7.4720478e-01
  3.9714313e-01
  4.3522978e-01
  6.9358313e-01
 -7.0420235e-01
  3.9576548e-01
  2.1623504e+00
 -1.1033572e+00
  4.8181188e-01
  1.3396480e+00
  6.9276917e-01
  1.2629069e+00
 -2.7490480e+00
  1.3745581e-01
 -5.9396082e-01
 -1.4760798e-01
 -2.4430566e+00
 -9.3606913e-01
 -7.3044932e-01
  1.0942780e+00
  1.0743392e-01
  1.1747984e+00
  8.4125525e-01
  6.2066931e-01
 -2.0421679e-01
  8.8496119e-01
 -2.6853812e-01
  1.1763941e+00
  1.2644408e+00
  1.5675923e+00
 -2.1283772e+00
  2.9416415e-01
 -2.7473107e-01
 -1.8611505e+00
  7.0993739e-01
  8.3650720e-01
  1.7960567e+00
  2.1632297e+00
  1.3694549e+00
 -2.7253085e-01
 -6.4185798e-02
  1.2994245e-01
 -6.4558733e-01
  1.5657380e+00
 -3.2734704e-01
 -4.8028037e-01
 -2.1913362e+00
  1.1602503e+00
 -2.3404476e-01
  8.4177688e-02
  1.5127861e+00
 -1.4585193e+00
 -1.4326544e+00
  9.2152548e-01
 -1.7794210e-01
 -6.0250223e-01
 -6.4547527e-01
 -5.4285818e-01
 -6.8807089e-01
  8.6396497e-01
 -9.2861944e-01
  7.3411751e-01
 -7.7414280e-01
  3.4738141e-01
  6.0085416e-01
  1.2360575e+00
 -6.1091983e-01
  3.5902172e-01
 -1.0635735e+00
 -1.3642009e+00
  1.7467562e+00
 -9.0562856e-01
  5.7394105e-01
 -1.6270782e-01
  6.5916985e-01
 -1.2499657e+00
 -4.7751039e-01
 -3.3468121e-01
  4.2771342e-01
 -2.0010433e-01
  1.7345556e+00
  1.4758879e+00
  7.1804494e-01
  3.3558038e-01
 -2.8400096e-01
 -9.8121637e-01
 -5.1388061e-01
 -4.7361243e-01
 -1.8367546e+00
 -8.6043596e-01
 -8.9452378e-02
 -6.1793798e-01
  8.7098742e-01
  4.5140374e-02
 -2.7689931e-01
  2.0898515e-01
  4.6079379e-01
 -5.8305144e-01
 -3.5365641e-01
  2.2105323e-01
  4.2260265e-01
 -1.9762326e+00
 -8.4385715e-02
 -1.1359762e+00
  8.4633523e-01
  9.0763694e-01
  9.0481877e-01
 -3.2899719e-02
  5.7339883e-01
  4.3116197e-01
  1.3705013e+00
  6.4554095e-01
  1.2918194e-01
  1.0896590e+00
  7.9402280e-01
 -4.6491149e-01
  2.6882112e-01
 -1.3471893e+00
  6.7192137e-02
  1.0105675e+00
 -2.2919415e-01
  1.4179171e+00
 -1.2132127e+00
 -1.2299109e+00
  1.0820274e+00
  5.4227197e-01
 -1.0454527e+00
 -3.5807520e-01
 -5.9712124e-01
 -8.6186874e-01
  1.0289598e+00
  1.7755599e-01
  1.4659355e+00
 -5.9874177e-01
  2.5283533e-01
  9.1916227e-01
  7.2048771e-01
  3.5451105e-01
 -5.3792125e-01
  4.1209441e-01
  8.8839221e-01
 -5.5418003e-01
 -8.6173004e-01
  1.2684178e+00
 -3.0286688e-01
 -1.5257933e+00
 -4.9020785e-01
  6.3972622e-01
 -1.3479944e+00
 -8.0576617e-01
 -1.0106099e+00
  1.4966331e+00
 -1.3157810e+00
  1.9442062e+00
  2.8405312e-01
  4.7318406e-02
  8.4686376e-02
  5.9693355e-02
  4.6828512e-02
  9.2595242e-02
  1.8104240e+01
  7.1285677e+00
  2.1342363e+01
  3.7775429e+01
  6.5690544e+01
  9.0683975e+00
  3.5207155e+00
  1.0442257e+01
  2.0615690e+01
  2.5579865e+01
  3.2496378e+00
  2.4822783e+00
  5.9867959e+00
  1.1449164e+01
  2.5496002e+01
  9.8680753e-01
  7.2423202e-01
  1.9771972e+00
  2.8937669e+00
  1.6896320e+01
  9.1538261e+01
  3.4212696e+01
  9.8821938e+01
  4.4451282e+02
  5.4022363e+02
  7.0235016e+02
  1.0889211e+02
  9.7605725e+02
  3.0578071e+03
  9.2469590e+03
