nep4 2 Te Pb 
cutoff 8 4 73 8
n_max 4 4
basis_size 8 8
l_max 4 2 0
ANN 30 0
 -5.4891508e-02
  8.5159487e-01
 -3.5281712e-01
  7.6167986e-02
  4.2853177e-01
 -2.2779861e-01
 -4.6309602e-02
  1.2628600e-01
  1.2167643e-01
 -1.9067175e-03
  4.7089208e-02
  9.7391400e-03
 -5.5811703e-01
 -7.0818412e-01
 -1.2736462e-02
  1.4497577e-01
  4.6948131e-02
 -7.7769434e-01
  5.6565171e-01
 -9.7704986e-03
 -2.2082196e-03
 -1.8001767e-02
 -3.9481640e-01
 -1.0097792e+00
  4.7916636e-02
  8.5317120e-02
  2.2173407e-02
  4.4301996e-01
 -3.3798423e-01
  2.9304061e-02
  4.5790061e-01
 -1.4375642e-01
 -8.5761674e-02
  2.0998435e+00
  1.6931473e-01
  5.8282340e-01
  3.3521853e-02
 -5.4867029e-02
 -4.2477229e-01
 -8.0488332e-02
 -1.8209670e-01
  7.8623351e-03
  9.9911056e-02
  1.1918638e-02
 -4.3715339e-02
  1.7703576e-02
 -2.2851747e-02
 -3.0050692e-01
  2.3983782e-03
  2.5652653e-01
 -5.0886404e-03
  2.6283082e-02
  2.4320731e-01
  1.4148816e-02
  1.3430306e-03
  6.4187013e-03
  8.8103293e-03
 -6.2659562e-02
  4.1796409e-02
 -1.8577185e-02
  3.9924040e-02
  9.3990974e-02
 -2.1788901e-02
  6.5184921e-02
 -4.0526625e-02
 -3.1456754e-02
  4.1319631e-02
 -1.5931752e-02
  3.7891932e-02
  4.5103196e-02
  3.7050847e-02
  1.3458258e-02
 -1.1412863e-02
 -1.2199300e-02
 -4.4508342e-02
 -7.8651085e-03
 -9.3420474e-03
  4.9255383e-03
 -3.2202080e-01
 -7.0465639e-02
 -2.4771228e-02
 -7.8862973e-02
 -6.0236141e-02
  8.1481561e-02
 -4.6370975e-03
 -4.2223509e-02
 -1.1963546e-02
  2.3798009e-02
  3.1850174e-02
 -1.3038930e-02
  8.7490952e-01
  2.2151557e-01
 -1.5034295e+00
  6.7018270e-01
  2.3220720e-02
 -1.9674839e-01
  4.0071495e-02
 -9.4012862e-01
  8.5236467e-02
  3.2445017e-02
 -2.4798217e-01
  2.7949337e-02
 -8.6810672e-01
 -3.0428737e-01
  1.4649116e-02
  5.8100834e-03
  1.0925043e-02
 -5.8042324e-01
  5.5468235e-02
 -2.4237728e-03
 -5.2246626e-02
  1.8259700e-02
 -1.6207901e-01
  4.5627873e-02
  8.5243933e-02
 -1.2363102e-02
 -3.1600122e-03
  4.2624503e-02
 -4.6847630e-02
  9.4601102e-03
  2.9625986e-03
 -3.2033801e-02
 -9.3644314e-02
  5.6611029e-03
 -1.6792499e-03
 -7.0068903e-02
 -3.3087358e-02
  1.1909534e-02
 -6.2013473e-02
 -6.3427031e-02
 -5.9465338e-03
  9.7625209e-03
  4.2475697e-02
 -1.0701710e-02
  1.8917758e-02
 -7.9347063e-03
 -1.4685456e-02
 -9.9025154e-04
  1.7555844e-02
  6.6483937e-02
  3.6751468e-02
 -1.6356364e-02
  1.4651860e-02
 -1.2205858e-02
 -5.5251472e-02
 -2.5598180e-02
 -6.8414636e-02
 -5.0611090e-02
  1.5079838e-02
 -1.3338677e-02
  1.5947862e-02
 -4.2929053e-02
  1.0213177e-02
  7.5639975e-03
  4.2641452e-03
  2.2441279e-02
  3.0754648e-02
 -2.8326442e-03
  3.5217728e-03
 -2.8353579e-02
  2.5546618e-02
  4.1271754e-02
  1.8594969e-03
 -5.7076998e-03
  3.9649643e-02
  9.2471400e-03
 -5.6344215e-03
  3.0904574e-02
 -8.2311556e-02
 -2.5193930e-02
 -9.3209818e-03
  4.7547422e-02
 -1.5283750e-03
 -4.5423504e-02
 -4.7598697e-02
 -6.1039682e-02
  6.0059376e-02
 -4.6646345e-02
 -7.3105663e-02
  2.3553114e-02
  1.0288642e-01
 -3.4196902e-02
  1.6449487e-02
 -5.3596791e-02
 -3.7658833e-02
  1.1554760e-02
  1.7442629e-02
  2.0693637e-02
 -6.8340744e-03
 -1.0146924e-02
  6.7554810e-03
 -6.2695473e-02
  7.4176015e-03
  2.0955933e-02
  4.1366387e-02
  3.9592590e-02
  2.1198595e-02
  4.1718334e-02
  4.5242410e-02
 -2.8201360e-03
 -1.3338891e-02
  3.6724202e-02
  5.6773566e-02
  1.6074399e-02
 -1.1857359e-03
 -3.8629936e-03
  1.3235996e-02
  2.1478219e-02
  6.1957795e-02
  3.6014516e-02
  1.2562804e-01
 -2.8671995e-02
 -3.7516917e-03
 -4.5698946e-03
 -5.0745509e-03
 -7.9380631e-02
  1.3659305e-02
  6.6020475e-03
 -2.9247252e-02
 -4.8512337e-03
  3.1441174e-02
 -2.6036352e-02
 -1.2306605e-02
  6.1593637e-02
 -1.5220834e-02
 -3.8715040e-03
  1.5404001e-02
  2.8449494e-02
  2.1778703e-02
 -2.9437341e-02
 -2.6352061e-02
 -5.4715160e-02
  8.3108090e-02
  8.5492462e-02
 -1.2724175e-02
 -1.5901205e-04
 -4.4758096e-02
 -2.0340487e-02
  2.6939217e-02
  8.1820441e-03
  1.1952495e-01
 -2.8259259e-01
  3.7475964e-01
  9.7267908e-01
  4.5128754e-01
 -5.4459268e-01
  1.7593324e-02
 -1.1073072e-01
  4.4340756e-02
 -9.6211927e-03
 -6.3347645e-02
 -3.3379503e-02
 -5.7182890e-01
 -4.9743503e-01
 -9.2591224e-03
  1.0761069e-01
 -5.7062679e-03
 -9.8192114e-01
 -2.0746188e-01
 -3.2100496e-03
 -7.2751716e-02
 -4.6163951e-03
 -8.2318705e-01
  1.2152158e-02
  1.6818596e-02
  5.1692411e-02
  3.5677236e-03
 -9.3310483e-02
 -9.6023038e-02
  6.0447459e-03
  2.6730448e-01
  1.4139253e-02
  1.8276693e-02
 -2.0095250e-02
  9.7397827e-03
 -8.3636371e-03
  1.0874701e-04
 -1.5480992e-03
  3.2442290e-02
 -4.5433022e-02
  1.3072352e-02
  7.2037414e-02
 -1.2921211e-02
  2.9786466e-02
  1.1705223e-02
 -4.2897109e-02
 -3.8750138e-02
 -5.9721167e-03
 -2.0439252e-02
  7.2042711e-02
  1.8305281e-02
  9.9563403e-03
 -1.2752561e-01
  6.6662237e-02
  7.8592757e-03
 -1.2945868e-02
 -3.6650067e-04
  1.1532018e-03
  5.9384234e-02
 -3.7256390e-02
  1.2204307e-03
  9.7201131e-03
  1.9075457e-02
 -1.6497307e-02
 -3.2561332e-02
  4.4952024e-02
  1.1355619e-01
  1.6587628e-03
  2.4396075e-02
  5.0816331e-02
  3.6575783e-02
  4.0328350e-02
 -2.3589315e-01
  4.0718957e-04
  9.1704996e-03
 -1.9986426e-02
 -1.6925192e-02
  6.8794154e-02
 -5.2494979e-03
 -2.0380482e-02
  4.0334254e-03
 -2.7367758e-02
  3.7912123e-02
  5.3350519e-02
  2.6417109e-03
  2.6341965e-02
  2.7371239e-02
 -9.5943492e-03
  2.3677694e-02
 -4.5191657e-02
  4.6611144e-03
 -1.2332820e-03
  6.2686801e-02
  1.9053666e-02
  2.7532538e-02
 -8.6009122e-02
 -2.1830656e-02
 -7.0129889e-03
  2.6066720e-02
  1.5058543e-01
 -9.5054768e-03
 -2.3549123e-02
 -5.0141092e-02
  2.5346247e-02
 -4.7920886e-03
  3.0071978e-02
 -1.4244818e-02
 -3.3276897e-02
  9.2664674e-02
  1.6236046e-02
  3.7044894e-02
 -1.5066813e-02
 -3.0818552e-02
  3.5845384e-02
  7.1658537e-02
  2.1420417e-02
 -8.6202890e-02
 -1.5374560e-02
  2.1976927e-02
 -7.0961444e-03
  4.0824838e-02
 -4.6462673e-03
  1.9681090e-02
  2.2225194e-02
  1.5408760e-02
 -1.1973611e-02
  1.1984231e-02
 -1.2135762e-02
 -1.2164503e-02
  9.7676669e-04
  7.6811467e-03
  3.8374551e-03
 -2.1141367e-02
 -9.5193060e-03
  2.1207513e-02
 -1.5705032e-02
  1.3421308e-03
 -2.4532531e-03
 -1.2094553e-02
  5.1458001e-02
  3.7350886e-02
 -1.4350467e-02
  4.9801983e-02
 -4.0697061e-02
  6.7017540e-02
  3.7771605e-02
 -4.9196057e-02
  1.4778255e-02
 -1.3061278e-02
 -2.0468138e-02
 -1.7422536e-02
 -1.3636297e-02
  7.4548505e-02
 -2.4956299e-02
  5.0240983e-03
 -5.1061437e-02
  9.1215977e-03
 -1.6266240e-02
 -1.9274140e-02
  1.0845792e-01
  4.4073414e-02
 -6.4026602e-02
 -1.3637614e-02
  2.4175846e-03
  2.9754285e-02
 -6.7310329e-03
 -7.5037859e-02
  1.7471485e-02
 -5.5618109e-03
  2.7289858e-02
  4.8488773e-02
  9.7867576e-03
  1.8735345e-02
 -2.7972697e-03
  7.5274155e-02
  3.0960350e-03
 -9.2346510e-03
 -1.5001697e-02
  3.8767546e-02
  3.8657531e-01
 -7.6638930e-02
  1.0289489e-02
 -6.7077819e-03
 -2.5628647e-03
 -3.9984562e-02
  2.4575375e-02
 -1.3355969e-02
 -1.6766740e-01
 -1.1423393e-01
 -4.2301469e-02
 -4.7753402e-03
 -8.8208579e-02
 -3.7706338e-02
  7.4842371e-02
  3.6127158e-03
 -1.4271264e-02
 -4.6976473e-02
  2.0408268e-01
  3.1427068e-03
 -1.5000680e-02
 -1.6014427e-02
 -4.3953080e-02
  3.8632032e-02
  2.2555327e-02
 -4.4792105e-02
  9.0819430e-03
  4.6551935e-02
 -2.0176204e-02
 -2.6965830e-03
  1.7987130e-02
  5.7891747e-03
 -7.1725845e-01
 -1.2529488e-02
 -5.1103931e-02
 -4.0752417e-03
 -7.7200696e-02
  2.6756211e-03
 -5.1784761e-02
 -2.0354034e-03
  2.5588877e-02
 -1.4554106e-02
 -2.6528811e-02
  1.3219512e-02
 -5.5717812e-03
  2.9834557e-02
  3.5444636e-02
 -1.1244368e-01
  8.7431613e-03
 -2.1149380e-02
  1.1239308e-03
  5.6968249e-02
  7.6532595e-02
  3.1213330e-02
  2.0137893e-02
  6.6289790e-02
  1.8535368e-02
 -2.7826319e-02
  1.5202327e-02
 -9.6822917e-02
  4.6372410e-02
  7.6299325e-02
  5.0304014e-02
 -3.6550149e-02
  1.5281973e-02
  4.7257114e-03
 -2.3003945e-03
 -3.1438962e-02
 -4.2806454e-02
  3.3799298e-02
 -1.2618612e-02
  3.3324614e-01
 -9.5819617e-03
  4.0878784e-02
 -4.1541806e-03
  2.1653518e-02
 -8.9483224e-02
  1.4334047e-02
 -1.2145567e-03
 -4.2344447e-02
 -1.4171086e-02
 -1.0820684e-02
 -1.6854769e-02
 -5.2721560e-02
  5.2480098e-02
  2.2964520e-02
 -2.5295643e-02
  5.9319522e-02
 -5.9418017e-03
  2.6292676e-02
  3.2185413e-02
  3.5956156e-01
 -1.0904150e+00
 -1.7101477e-01
 -4.9658611e-02
  9.1983244e-02
 -5.2449524e-02
  1.9156551e-02
 -1.0434000e-01
  2.3905901e-02
 -2.5428605e-04
  1.5424983e-02
  3.3995898e-03
 -7.1058185e-03
 -4.0983483e-02
 -9.6259773e-02
 -5.3384852e-02
  4.1081909e-02
 -2.5335556e-01
 -5.5108245e-02
 -2.1191932e-02
 -1.0530597e-02
  6.9298041e-03
 -1.5176620e-02
 -1.1617395e-02
  8.4071476e-03
  6.4937552e-03
  1.6202761e-02
 -1.6621234e-02
 -5.4270023e-04
 -7.5515762e-02
 -2.9682061e-02
  1.0149660e-02
  2.2442153e-02
 -1.0175491e-02
 -3.4104515e-02
 -4.0188216e-02
 -1.5564581e-02
 -1.8713083e-02
 -3.9341990e-02
 -1.1952539e-02
 -5.8072554e-03
 -3.3846169e-03
  5.8900472e-02
  8.1496816e-03
  1.8722335e-02
  4.3797776e-02
 -2.6786830e-02
  3.5586271e-02
  8.9734770e-02
 -9.1109820e-02
 -4.6596948e-02
  3.8444132e-02
 -1.3276643e-02
 -7.3337060e-04
  7.5593437e-03
 -2.7151452e-03
  2.1810202e-02
  2.0193320e-02
  2.9117838e-03
  1.4831910e-02
  2.7374856e-02
  4.3968048e-02
 -4.0229894e-02
 -1.1419043e-02
  3.2503229e-02
 -3.8047489e-02
  6.0168870e-02
 -9.0883985e-02
 -4.2748570e-02
 -5.3779021e-02
 -1.3708608e-03
  1.7372075e-02
  8.8050840e-03
 -2.1384424e-03
  1.5576190e-02
 -1.7689124e-02
  1.9341888e-02
  1.0236118e-02
  5.2319868e-03
 -1.7582366e-02
 -9.5111076e-03
  8.5628554e-02
 -1.2746725e-03
 -1.6601187e-03
 -2.7472831e-02
  1.3792647e-02
 -4.9075126e-03
 -1.9501811e-02
  4.5951519e-02
  3.4674540e-02
 -4.4658128e-02
 -2.9016994e-02
 -3.2960534e-02
 -1.1474024e-02
  1.0826236e-02
  8.5886009e-03
  2.0300021e-02
 -2.6446765e-02
  2.2307020e-02
 -2.2706812e-02
  4.3151874e-02
 -6.3477573e-03
  3.7667312e-02
  1.3382772e-03
  4.3691698e-02
 -6.0455177e-02
  2.7576501e-02
 -4.9681190e-02
 -3.2497086e-02
  7.0961691e-02
  3.8703080e-02
 -1.2015659e-01
  2.6522746e-02
  1.8879835e-02
  3.8640898e-02
  7.1506381e-01
  5.6368532e-04
  1.7347960e-02
  4.4864314e-03
  2.1444203e-02
 -1.1205886e-01
 -5.9142806e-02
  7.7328339e-02
 -1.8292516e-02
  2.7399559e-02
  3.7033293e-02
  2.0343475e-02
 -1.4801495e-02
 -2.5692202e-02
  4.7828857e-02
 -2.0026645e-02
  6.4683244e-02
  1.0597784e-02
 -5.6427673e-02
  4.3979190e-02
 -3.9168768e-02
  4.4610143e-02
  1.0215736e-02
 -1.8742928e-02
  6.1721494e-03
  3.1964190e-03
 -3.8698893e-02
 -7.2345883e-02
  1.3725537e-02
 -2.0805751e-03
  5.9658578e-03
  4.6854064e-02
  2.6600456e-02
  7.5742543e-02
  3.3854395e-02
  1.8614672e-02
  3.6310088e-02
 -1.5176373e-02
 -5.1088096e-03
 -9.6062340e-02
 -1.3994127e-02
  1.2657083e-02
 -2.4543231e-02
  5.1714857e-03
  6.8548061e-03
  9.0623587e-02
  5.1231466e-02
  2.1002632e-02
 -2.2122122e-02
 -3.0133698e-02
  3.3950172e-02
  4.5422767e-03
  5.1693590e-03
 -3.3113413e-02
  1.1450837e-01
 -3.4796547e-02
  1.6625576e-02
 -1.3736142e-02
 -2.4506181e-02
 -1.7290873e-02
 -1.9696260e-02
  4.1813716e-02
 -3.3289522e-02
 -4.4074538e-03
 -2.3060376e-02
 -9.6552962e-01
  6.7762703e-01
 -1.0628102e-02
  9.2842704e-01
 -4.5890531e-01
  4.1373793e-02
  6.8470584e-03
 -6.6161584e-03
 -7.7673816e-03
  1.4999406e-02
 -1.7384302e-02
 -1.4152609e-02
  1.2407509e-04
 -1.1214739e-01
 -4.1609935e-02
 -2.8443784e-02
 -4.5249225e-03
 -1.7211854e-03
  3.2150466e-03
 -1.4812505e-02
 -1.9282652e-02
  2.8411481e-03
 -4.7243632e-02
  1.3849261e-02
  1.0769840e-01
  1.8745897e-02
 -1.8095059e-02
  1.2719269e-03
 -4.8379228e-02
  3.0946102e-02
  5.1517838e-01
 -8.4646352e-02
 -1.3005962e+00
  2.2290365e-01
 -4.2090750e-01
  7.7444620e-02
  1.1775321e-02
 -5.3296820e-04
 -3.7027085e-03
  8.1605889e-02
  1.4109487e-02
 -3.3627521e-02
 -2.2945182e-01
  3.6335494e-02
  1.5841860e-03
 -3.0431449e-02
 -3.2145355e-04
  4.6349919e-01
  1.7114250e-01
  1.0614417e-02
 -2.9144227e-03
  1.4941656e-03
  2.5648642e-02
  2.6291203e-02
 -2.1666603e-02
 -8.5318321e-03
  3.8108923e-02
  4.8208532e-01
  4.3379143e-02
  4.2980574e-02
 -2.3181455e-02
 -1.1323249e-02
 -2.2925453e-01
  4.0954826e-03
 -1.2474562e-01
  6.9078486e-03
 -1.7665550e-02
  3.6617354e-02
 -3.3296391e-02
  1.6780995e-02
  2.5835820e-02
 -2.5627891e-02
 -9.7653959e-03
  2.2711793e-02
  7.8934193e-01
  4.6303030e-03
 -4.3498266e-02
  2.1280406e-02
  4.0217566e-01
 -1.5780309e-02
 -6.3868418e-02
 -1.2656169e-02
 -3.4471799e-02
 -1.9865438e-02
 -8.1780322e-02
 -8.4118262e-02
  6.7261234e-02
 -6.7339153e-03
  2.6762221e-02
 -2.6757596e-02
  9.3701363e-02
 -3.6276963e-02
  2.4978314e-01
  2.2698488e-02
 -3.1003194e-02
 -6.1240220e-03
 -5.0825063e-02
 -8.5259005e-02
  3.7252653e-02
  1.5515720e-02
  2.6120606e-03
  1.7136998e-02
  1.2644238e-02
 -3.7928652e-02
  1.4084891e-02
  2.0352429e-02
  7.0207812e-02
  6.2681520e-03
 -6.7581981e-03
 -1.7182754e-02
 -4.9141511e-02
 -4.8677452e-02
  2.7954618e-03
 -2.1872982e-02
 -1.9395702e-02
 -4.2333966e-03
 -3.9693862e-02
  8.3748512e-02
 -6.2266007e-02
  2.4180656e-02
 -7.4506975e-03
 -4.0106442e-02
 -2.9026193e-03
 -6.7743883e-02
  3.2024814e-03
  1.4361395e-02
 -2.9945401e-03
 -7.7695632e-03
 -7.4246866e-03
  3.1318648e-03
 -2.7891777e-02
 -5.4170419e-03
 -1.1277974e-02
 -4.2289555e-02
 -3.8122050e-02
 -8.8928826e-03
 -2.8174780e-02
 -1.4163710e-02
 -2.5962466e-02
  1.6815133e-02
  1.3543052e-02
 -2.5955722e-02
  3.0686706e-02
  7.5602815e-02
  8.7740291e-03
 -1.6662007e-02
  4.6380132e-02
 -2.7710231e-02
 -1.4636951e-02
  4.4656172e-02
  3.4435444e-02
 -8.6903505e-02
 -2.2192400e-02
  2.3909775e-03
 -4.5034815e-02
  3.4880556e-02
  1.9364167e-02
 -9.1329135e-04
  7.3108830e-02
  5.6093678e-02
 -2.8310763e-02
  5.2902024e-02
 -7.5368984e-03
 -2.0325156e-03
  8.7334607e-03
 -4.1546632e-02
  2.6213111e-02
 -2.1513833e-02
  8.2265511e-02
  6.3869073e-03
 -5.4868907e-03
 -9.7237147e-02
 -2.7521590e-02
 -1.9184953e-02
  5.2043460e-02
  8.1476964e-02
 -1.0596469e-02
 -3.8261712e-02
 -7.9145178e-02
  3.3582371e-02
  1.0332980e-02
  4.7482405e-02
  6.2675051e-02
 -7.7770218e-02
  3.2156922e-02
 -2.5428368e-03
  5.1021803e-02
  1.8902360e-02
  1.0033304e-02
 -1.9340351e-03
  2.1775821e-02
  1.6707253e-02
 -9.2919050e-03
  4.0897816e-02
  1.1511904e-02
  1.8330844e-02
  9.8512225e-02
  5.8361121e-02
 -2.1586068e-02
  1.5274737e-02
 -2.0596756e-02
 -2.3763878e-02
 -4.3756001e-02
 -3.2604359e-02
 -9.0941023e-03
 -6.4356378e-03
  1.2383440e-02
 -2.2605488e-02
 -5.1457290e-02
  5.9965160e-02
 -4.1953602e-01
  1.8543717e+00
 -3.3728793e-02
 -9.5171571e-01
  1.1973605e-01
 -1.4793294e-02
  5.6700828e-03
 -7.7913485e-02
 -7.8684010e-02
  2.2093350e-02
  4.0897574e-02
 -2.3427309e-02
  3.7930403e-02
 -4.5965765e-02
  4.9778637e-02
 -5.9411179e-02
  5.2246638e-02
  6.0232966e-03
 -2.2926845e-02
 -9.7125228e-03
 -1.3619887e-02
  1.9582042e-02
 -4.9181558e-02
  2.4927249e-02
  3.6340094e-01
 -5.8603808e-03
  3.5522878e-02
  3.4722018e-03
  4.4292994e-04
  4.2184506e-04
 -5.2006453e-01
  7.8358752e-01
 -5.5516288e-02
 -7.2559208e-01
  2.5921946e-02
 -2.1072842e-02
  1.2402859e-03
  4.7105614e-02
 -7.0904356e-01
 -8.1705399e-02
  7.2975852e-02
 -5.5076320e-02
 -1.8659318e-02
  4.7890540e-02
  1.7635037e-01
 -3.0212203e-01
 -6.5147369e-03
 -3.0636454e-01
  8.7374046e-02
  1.5414841e-03
 -6.4656354e-04
  1.2787236e-01
 -8.0320388e-02
 -4.6235579e-01
  5.1873380e-01
  1.0371626e-01
 -1.0358841e-01
  1.1027348e-02
  4.3357452e-03
 -1.6332028e-02
  5.3367186e-03
  9.4814509e-02
  2.7569098e-02
 -1.5515088e-03
  3.8581949e-02
 -6.4777166e-02
  9.9260854e-03
  9.1694914e-02
  1.5038955e-02
 -6.2521420e-02
  1.2518973e-02
  8.9024611e-02
  1.6426501e-03
  1.7770076e-02
  3.8521923e-03
  2.1597687e-02
 -3.3703239e-03
 -6.3791417e-02
  1.8308599e-02
  3.8863812e-02
  3.9245740e-02
 -6.8283543e-02
 -9.0817042e-02
 -9.2784707e-03
 -6.4178333e-02
  1.4549459e-02
 -4.9233936e-02
  6.5919675e-02
 -2.8379779e-02
 -2.6939768e-02
  2.3080381e-02
 -3.3344507e-02
 -2.0354046e-03
  4.2851750e-02
  7.1387435e-03
 -7.0444117e-03
  1.6637448e-02
 -4.9858149e-02
 -1.0713647e-02
  1.9996348e-03
  4.0702101e-02
  2.6162539e-02
  3.9183725e-02
 -3.0654380e-03
  1.2051697e-02
 -6.8437316e-02
  1.6877806e-02
 -4.6676978e-02
 -1.4968724e-02
  3.4608394e-02
 -1.3979333e-03
  5.2845334e-03
 -3.6486264e-02
 -2.8662859e-02
  3.4423109e-02
  2.1401318e-02
  3.6398709e-02
  9.4746379e-03
  1.5365859e-02
 -3.1574906e-03
  2.0423485e-02
 -1.1399252e+00
  4.0154908e-02
  2.4012184e-02
  3.9886799e-02
  5.2077979e-02
 -3.2365598e-02
 -3.5482164e-02
 -5.8768187e-02
  1.1406209e-01
 -1.1781567e-03
 -1.9738819e-02
  3.6193311e-02
  1.2776144e-02
  5.2096374e-02
  9.0207621e-02
  2.2070682e-02
 -3.7746202e-02
  1.4601525e-02
 -2.9535040e-03
  3.3758860e-02
  4.9345128e-02
  4.8226390e-02
  4.4816047e-02
  1.6896447e-02
  3.0895939e-02
  6.8531344e-03
 -4.3225340e-03
 -4.7096498e-02
  3.8149435e-02
  3.3608027e-02
 -1.8124729e-02
  1.5500520e-01
 -6.8916902e-02
 -3.5402719e-02
 -7.8231521e-02
 -7.2806678e-03
  5.7562504e-02
  3.6710617e-03
  1.1547637e-01
 -1.7443398e-03
  2.8571166e-02
  3.7023552e-02
 -2.7056642e-02
 -3.5754938e-02
 -3.4383461e-03
  2.5534047e-02
  4.5889426e-02
 -4.6864614e-02
  3.4429340e-03
 -1.8503556e-02
  7.3557617e-03
 -2.7352033e-02
  3.4670627e-03
 -2.5362492e-02
 -2.9971826e-04
  7.2888373e-03
 -1.2113683e-02
  5.5607300e-02
 -2.7698169e-02
  8.0532409e-02
 -1.1187715e-02
 -3.0653104e-02
  2.2594670e-02
 -3.4387607e-02
 -1.6120562e-03
  1.0950593e-02
 -5.2798010e-02
 -1.1519278e-02
  5.2802417e-02
 -6.0867504e-03
 -4.7706921e-02
  1.2780497e-02
  5.6812000e-02
 -3.4562696e-02
 -1.2546529e-02
  1.4482135e-03
  4.7444347e-02
  3.1248914e-02
 -1.9557315e-03
 -2.2453589e-02
  1.0573416e-03
 -1.0870413e-02
 -1.2256278e-02
 -6.3317999e-02
 -7.8594638e-03
 -9.7644133e-03
  1.0465442e-01
 -3.7595399e-02
 -6.5650105e-02
  6.2133633e-02
 -1.2050420e-02
  1.7212570e-02
 -2.9092169e-01
 -1.1848173e-02
 -1.7161060e-02
  8.4000006e-02
  7.8178570e-02
  5.4833252e-02
  2.9215451e-02
  4.9170507e-03
 -8.1044227e-02
 -3.8895909e-02
 -2.6929930e-02
 -2.8088880e-03
 -6.3132928e-03
 -6.7448959e-02
 -4.4618350e-02
 -1.0179049e-02
 -8.1595175e-02
 -5.4309266e-03
  1.9335208e-02
  2.5911208e-03
 -8.5834740e-03
  5.5676827e-04
  1.3051134e-02
  2.5099190e-02
  6.5793893e-03
 -2.1115324e-02
  1.0008925e-02
 -4.6399310e-03
 -2.1324538e-02
  9.7612673e-03
 -1.0702388e-02
  2.4843652e-02
  6.9827333e-02
  2.7402344e-01
 -4.8769577e-03
  4.5724355e-02
 -5.8054335e-02
  9.7913191e-02
  3.0885603e-02
 -2.6426069e-02
  1.2202821e-02
  1.1469217e-01
 -1.6399410e-02
  1.1712001e-01
  3.0481076e-02
  1.2615701e-02
 -1.6768351e-02
 -1.0646709e-02
  5.1497109e-03
 -7.5930492e-03
 -3.8731229e-02
 -1.0395847e-02
 -3.0104289e-02
  1.8067324e-03
  6.7582496e-02
 -1.0492173e-03
  2.0603929e-02
 -2.0719606e-02
  4.2733457e-02
 -5.1971719e-02
 -1.9503847e-02
  8.0253091e-03
  1.1357761e-03
  3.3915170e-02
 -2.5220579e-03
 -8.4520847e-02
 -1.1706319e-04
  1.0351676e-01
 -2.0282477e-02
 -2.1458918e-02
 -2.0132480e-02
 -3.4461726e-02
  1.3119284e-02
  1.2677645e-02
  6.5141134e-03
 -1.4867155e-02
 -5.4015097e-04
  1.0398048e-02
  3.1359166e-02
 -5.8553545e-03
  6.1058462e-02
 -1.2684823e-02
  1.3598052e-02
 -9.6694846e-03
 -8.5743442e-03
  8.4662378e-02
 -5.7177037e-02
 -3.7733786e-02
  2.9318629e-02
  6.7318805e-02
  1.2221281e-02
  9.2882410e-02
 -2.3252532e-02
 -1.8757982e-02
  7.0791007e-03
 -3.2931021e-03
 -2.4298770e-02
  2.6589904e-02
  1.7460380e-02
  1.4061086e-03
 -4.4650468e-03
  1.4387831e-02
 -2.5458146e-02
  6.5115258e-02
  1.4865464e-02
  5.2840922e-02
  7.8458954e-03
 -8.5104647e-04
 -9.6904365e-03
  4.3847978e-02
  6.0327549e-02
 -8.6743943e-02
  5.6868903e-03
  5.3971570e-02
  1.2154790e-03
 -4.2181373e-02
  5.4329466e-03
 -9.7017046e-03
 -2.7547179e-02
  4.7453564e-02
  4.1163612e-02
 -5.5306341e-02
  2.5608849e-02
 -9.3219616e-03
 -1.8917994e-03
 -3.0666855e-03
  1.5481940e-02
 -1.2522468e-02
 -4.5712929e-02
 -2.0441091e-02
  1.4723448e-02
 -2.8285296e-03
 -5.6123838e-02
  2.5844224e-02
 -1.4696818e-02
  1.3521994e-02
 -1.8919406e-02
  5.4499067e-02
 -1.0319611e-01
 -1.8507807e-02
 -3.0219646e-02
 -2.1678083e-02
 -1.4591250e-02
  1.9805806e-02
 -1.2405881e-02
  1.7949667e-02
 -7.9900566e-03
  2.4979413e-02
  1.1598491e-02
 -1.9138518e-01
  4.4856784e-01
  5.5007778e-02
 -1.1686971e-04
  3.0960010e-02
 -6.6813794e-03
  1.0772009e-02
 -3.0087769e-02
  4.8126839e-02
 -2.3855131e-02
  9.3482070e-02
  5.6984685e-02
  1.8277528e-02
  3.5889171e-02
  3.9861603e-03
 -2.2564942e-02
 -9.6307173e-03
 -2.9699475e-02
  2.1941263e-02
  1.5970187e-02
 -7.9119923e-03
  3.7380747e-02
  2.1893871e-03
 -1.3758211e-01
 -7.8258127e-02
  7.3562682e-02
  2.9676349e-03
 -9.1930237e-03
 -6.8570545e-04
 -3.0397129e-01
 -5.9444081e-02
 -1.3397579e-02
  3.3908852e-03
  6.4461417e-03
  2.8213873e-03
 -6.9370754e-02
  3.1620663e-02
  4.8553534e-03
 -4.4165757e-03
 -2.6747155e-01
  5.3386344e-03
 -5.2737154e-02
  1.4035055e-02
  4.3483227e-03
  5.0172884e-02
  2.5592563e-03
 -4.2503001e-03
 -3.8048666e-02
 -1.8283434e-02
 -3.8104359e-02
 -1.0093477e-02
  3.4032088e-02
 -4.8267832e-03
  5.6041285e-02
 -4.2387161e-02
  3.2623142e-02
  3.2147925e-02
 -3.2299425e-02
 -1.0769587e+00
  7.2559303e-01
 -1.6724905e-02
 -2.7687725e-01
  1.2562731e-01
 -2.2161741e-02
  2.3951618e-01
 -3.1262554e-02
 -7.1330002e-04
  2.7312312e-01
 -1.9289011e-02
 -1.9806507e-01
 -7.0464827e-02
 -5.9062514e-02
 -2.1299884e-01
 -1.0644328e-02
  1.5100546e-01
 -2.6704656e-02
  1.3136813e-02
  6.1897687e-03
 -4.3352801e-02
 -3.5839435e-01
  1.0683415e-02
 -2.3782371e-02
 -2.2531005e-02
 -1.6054153e-02
 -1.2170675e-02
  4.4500016e-02
 -1.1179435e-02
 -1.3349514e-02
  1.0827723e-02
  1.4730727e-02
 -2.4808455e-02
  3.3657413e-02
 -4.7463376e-02
  9.0245955e-02
  4.5713361e-02
 -3.0738886e-02
 -5.7234801e-03
 -3.8188044e-02
  4.3601473e-03
 -2.0854769e-02
 -4.4276122e-02
  8.4557856e-04
  5.5602990e-02
 -6.7254663e-02
  1.5651472e-02
 -2.7865943e-02
  1.8495771e-03
  6.4609878e-02
  4.3165624e-02
 -2.5625976e-02
 -7.9114269e-03
  5.3994032e-03
  7.6182662e-03
 -1.0436726e-02
  7.1478314e-03
 -1.8818155e-02
  2.4170814e-02
 -9.0790046e-03
 -2.8735742e-01
 -3.3649084e-01
 -1.4351805e-01
  7.8125983e-01
 -4.7749358e-01
  2.6457831e-02
 -9.3809330e-01
  1.6242370e-02
 -5.2586760e-02
  2.3658203e-02
  2.2510795e-03
  1.7353228e+00
 -4.3649171e-02
 -6.4365240e-03
  6.5405363e-01
 -3.9802711e-03
  1.9536354e-01
  2.0336680e-02
  1.9525638e-02
  1.3633630e-01
  1.2091250e-02
 -5.5765784e-01
  3.4119282e-02
 -3.1876990e-03
  6.6508365e-01
  1.7411321e-01
 -1.6722488e-01
  1.7269352e-02
  2.5747237e-03
 -2.4790024e-02
  2.6544085e-02
  6.2825955e-03
 -1.2592430e-02
 -1.3711869e-03
 -1.0667973e-02
  1.9835131e-02
  2.5481183e-02
 -3.9331339e-02
 -1.6208716e-02
  3.2348022e-02
  1.2571041e-02
 -2.9119620e-02
 -5.1971085e-02
 -7.0185997e-02
 -1.3970467e-02
  1.3553681e-02
 -1.5489334e-02
 -2.3632876e-03
  2.8628611e-03
  8.0178127e-02
 -7.8677051e-03
  3.1133629e-02
 -5.7550699e-02
  4.1805316e-02
  2.8337263e-02
 -4.6074290e-02
 -1.3274788e-02
  3.4188569e-02
 -2.9512332e-03
  8.5532973e-03
 -2.1241337e-02
 -4.1395083e-02
  6.3947355e-03
 -9.0922564e-03
  1.4088911e-02
 -7.8318352e-03
 -2.6271190e-02
 -1.6341649e-02
 -4.8720106e-03
 -2.1492505e-02
  5.4261133e-02
  1.0099404e-02
  4.2571299e-02
 -5.9459288e-02
 -2.9526854e-01
 -8.4990106e-04
  8.0127612e-02
 -1.3372439e-02
  6.0745087e-02
 -1.3817662e-02
  6.0271159e-02
  3.7487652e-02
 -5.1404689e-02
  4.7610267e-03
  7.0740096e-04
  1.7203035e-02
 -3.7397444e-02
 -4.5100454e-02
 -1.3496829e-02
 -3.0289900e-03
 -6.4796180e-02
  3.9118960e-02
 -2.5095629e-02
  1.6204583e-02
 -2.4615789e-02
 -2.0775458e-02
 -9.7087689e-02
 -7.1224291e-03
 -4.6722334e-02
 -9.3236901e-02
  1.8168399e-02
  3.4081817e-02
 -1.8853677e-02
  1.2003905e-01
  8.6160460e-03
  3.1160029e-02
  4.4650741e-02
  1.6345026e-02
  2.5772387e-02
  4.5690057e-03
 -5.5477053e-02
 -4.0166382e-02
 -1.0185597e-02
  3.4472561e-03
  9.1523388e-03
  1.2859412e-02
 -5.3176335e-03
  6.9933794e-03
  2.8638167e-02
 -1.9624801e-02
  6.1614318e-03
  1.8561969e-02
  6.4170241e-02
  4.4005387e-03
 -1.2534227e-02
 -7.1230330e-02
  1.8322853e-02
 -2.0138528e-02
  3.5417218e-02
 -1.0550764e-01
  1.9718707e-02
  9.6512316e-03
  1.1972735e-02
 -8.3053485e-02
 -1.6604763e-02
 -2.5634751e-02
 -4.7910935e-03
  7.9227954e-02
  2.5323166e-02
 -3.7350187e-03
 -2.3781222e-03
 -1.0870927e-01
 -9.0915756e-03
 -4.4742408e-03
  4.7304496e-02
  2.3945371e-02
  1.5714617e-02
 -4.7558624e-02
 -9.9936360e-04
  4.5569237e-02
  1.9606911e-03
 -4.2514779e-02
 -8.1505505e-03
 -2.6465835e-02
 -9.8255472e-03
  7.9487925e-03
 -1.2476102e-02
  1.8116934e-02
 -4.0768616e-02
 -6.5942639e-03
  1.7449487e-02
  1.0344194e-02
  3.1436570e-02
  1.8894576e-02
  1.2471137e+00
  7.1777552e-02
 -3.0895852e-02
  1.1592809e-02
 -2.2639360e-02
  3.1148435e-03
  4.3649212e-02
  3.8939053e-03
  1.3675039e-02
 -1.5112855e-02
 -1.8387866e-03
 -2.9896108e-02
 -8.3904164e-03
 -1.8795071e-02
 -9.3680266e-03
  1.8768378e-02
 -2.9759372e-02
  4.0579095e-02
  3.9787266e-02
 -4.7377627e-02
  4.1475119e-03
 -9.5950469e-02
 -9.2812711e-03
 -2.1606836e-02
  2.5711440e-02
  4.6078999e-02
 -2.3811672e-02
 -6.7976662e-03
  1.7352974e-02
 -4.5818659e-03
 -6.9061384e-02
  8.7393913e-03
  2.0653498e-01
  1.4362572e-02
  6.8603598e-02
 -1.6467389e-02
 -7.3008887e-02
 -3.1961624e-03
 -3.7745003e-02
  2.6240284e-02
 -3.0394634e-02
  2.1179823e-02
  7.0299357e-02
 -8.9517571e-02
  3.4049485e-02
 -1.2562873e-02
 -4.7196293e-01
  9.4908577e-01
 -1.4737135e+00
  5.8115470e-01
 -7.5322372e-01
  4.6220075e-02
  2.1436966e-03
  1.2390293e-02
  1.1174784e-03
  6.7248702e-01
 -1.8443763e-02
  9.6792653e-03
 -8.3035929e-03
 -4.1574802e-02
  1.2313212e-01
 -5.1307574e-02
  2.3071754e-01
  2.6824282e-02
 -4.3378770e-03
  3.3843804e-02
  4.0000170e-03
  1.3852130e-01
  2.3977283e-02
  5.2125748e-02
  3.8833129e-01
  5.1589601e-02
 -2.1704378e-02
  3.0186027e-02
 -1.9688411e-02
 -4.1928880e-02
 -3.1092502e-02
 -2.0469205e-02
  1.5203318e-02
  2.0490194e-02
  2.1744328e-02
  1.3478088e-02
 -1.9180305e-02
  2.5934083e-02
 -1.2930362e-03
  1.5790040e-02
 -9.7400621e-03
 -4.0326513e-02
  1.0719063e-02
 -1.0448463e+00
  6.2317289e-02
  3.8032066e-02
  6.9108181e-02
 -5.2612340e-03
  8.7115355e-03
  7.7993937e-02
  1.7700933e-02
 -5.0326381e-02
  4.9202539e-02
  8.5759880e-03
 -4.1815743e-02
 -7.2355042e-03
  7.8888293e-03
  2.8451963e-03
  1.6346414e-02
  3.1093786e-02
 -6.0071964e-03
 -9.0905102e-03
  4.2126607e-02
  1.8413343e-02
  3.4434885e-02
  4.0162053e-02
  1.2723124e-03
  4.8656462e-04
 -4.0144622e-02
  3.9515056e-02
  2.5151815e-02
 -4.7396370e-03
  4.1703720e-02
  5.2334432e-02
  1.4469908e-02
 -3.8147897e-02
 -1.0484444e-02
 -2.3016093e-02
 -4.6431506e-03
  1.0471443e-02
  3.3225089e-03
 -3.8271233e-02
 -3.5765532e-02
 -9.2235935e-04
  2.6338222e-02
  4.5264680e-02
  6.0753614e-02
  1.5437605e-02
  5.6875397e-02
 -1.4788875e-02
 -1.4800880e-02
 -1.7460844e-02
  2.3453701e-02
  1.4099892e-02
 -2.4994722e-02
 -5.3712184e-04
  1.0580271e-03
 -5.6814201e-02
  8.6821914e-03
 -3.6532789e-02
 -1.5484300e-02
  8.8733539e-02
  1.1380395e-02
 -4.3032672e-03
 -3.9167810e-02
  8.1670498e-03
 -1.9493597e-02
  3.9779209e-02
  9.5906509e-03
 -2.3464805e-03
  5.3036127e-02
 -2.8365843e-02
  9.1593815e-03
  1.7931014e-02
  1.3567430e-03
 -1.1456117e-02
  6.7783510e-03
  5.2693874e-02
 -2.1252438e-02
 -1.1343893e-02
 -3.3643343e-02
 -1.4364360e-03
 -6.0906462e-02
 -2.7807048e-02
  2.1934911e-04
  3.2276995e-02
  2.6115462e-02
  9.7010462e-03
  4.0422915e-03
 -1.7386526e-02
  1.2862044e-02
  5.9070426e-01
  1.8088493e-02
 -2.3564270e-02
 -2.8656209e-02
  5.8545535e-03
 -2.1985188e-02
 -7.4405916e-02
  3.7509292e-02
 -1.9436002e-02
  2.6273131e-02
 -2.6240394e-02
  1.4565052e-02
  3.0678090e-02
  7.0687183e-03
 -8.7538380e-03
  4.8406646e-02
  4.4366438e-02
  1.3603077e-02
 -1.3408891e-02
 -3.1114643e-02
 -3.4241769e-02
  2.4228584e-02
 -1.1438826e-02
 -3.7336214e-03
 -2.2076091e-02
  1.8019107e-03
  5.5803124e-02
 -7.1033472e-03
  3.9244857e-02
 -2.4976744e-03
 -6.5044467e-03
  2.2025066e-03
 -1.4864549e-01
  1.2716444e-01
 -6.6159725e-02
  1.5093083e-02
  7.5687636e-03
 -8.7517291e-02
  2.0184763e-02
 -2.9382022e-02
  1.0450786e-01
  2.7712503e-02
 -1.3557437e-02
 -2.0217286e-02
 -7.6200655e-03
 -2.1026852e-02
  5.7341121e-03
 -3.8579181e-02
 -4.7159024e-02
  2.0229179e-02
 -6.3613966e-02
  4.3200381e-02
  3.0708894e-02
  7.4354798e-02
 -1.6013740e-02
 -2.3270626e-02
 -6.3732412e-04
  1.0806633e-02
  2.6384845e-02
  1.5276941e-02
  2.5064409e-02
  3.9165944e-02
 -9.2298545e-02
  6.1820102e-01
  7.6618502e-03
  2.9279530e-02
  1.6031234e-02
  1.7490372e-02
  1.2481494e-01
  2.6867904e-02
 -3.2063128e-04
 -3.2143343e-02
  1.8231513e-02
 -3.5355043e-01
 -2.0563239e-02
 -2.7218731e-02
 -1.8537723e-02
  9.6882787e-03
 -4.3263882e-02
  4.7265156e-04
  3.6962327e-02
 -9.4436863e-03
 -2.7892666e-03
 -1.0386190e-03
  1.2062032e-03
 -1.5419410e-02
  3.8247295e-03
 -1.6368898e-02
  8.6984597e-03
 -3.4959748e-02
  5.4636346e-03
  6.9225826e-03
  2.0798361e-02
 -1.4770702e-02
  2.7969936e-02
  5.7171483e-02
 -3.0737057e-02
 -3.6929476e-03
 -1.3918755e-02
 -1.9183420e-02
 -3.8241975e-02
  1.6022125e-02
 -1.3203003e-02
 -2.2616569e-02
 -2.3369998e-02
 -5.1259242e-02
  2.3153141e-02
  9.4624348e-03
  3.2860436e-02
 -4.8347726e-01
  2.6811925e-01
 -5.6698710e-01
 -3.0108598e-01
 -8.2008988e-01
 -9.2656268e-03
  6.0692453e-01
 -3.7581876e-02
  5.5081123e-03
 -3.7134457e-01
 -1.2552231e-02
  3.4802639e-01
  1.6564922e-02
  6.8349220e-02
  1.8209828e-02
  1.9336676e-02
  8.5291499e-01
 -6.7783352e-03
 -3.7060030e-02
  1.0399902e+00
  4.9879208e-02
  7.4074626e-01
 -1.0059621e-02
 -8.0608623e-03
  4.7150320e-01
 -1.0933605e-01
 -3.3324916e-02
  3.9073285e-02
  4.0433157e-02
 -1.0037182e-01
  5.6856666e-03
 -6.1346237e-03
  1.5475929e-02
  2.7601123e-03
 -6.2076285e-02
 -8.3159059e-02
  5.3224899e-02
  1.8185126e-02
 -9.7337486e-03
 -3.5884738e-02
  1.6603185e-02
 -3.2902097e-03
  2.0320778e-01
 -9.2502296e-02
  2.1374458e-01
  2.3426929e-02
 -3.7050121e-02
 -1.3038133e-03
 -1.1931775e-02
  1.0057839e-02
 -1.4394349e-01
  9.3597837e-02
 -1.2464212e-01
 -1.1271908e-02
  6.5998979e-02
 -2.8712101e-02
  4.7658447e-02
  4.9738571e-02
 -5.7414770e-02
 -5.3659391e-01
  6.1302993e-02
  5.8492202e-02
  3.8761407e-02
 -3.9141332e-03
 -6.1819620e-02
 -2.1764937e-01
  9.4279543e-02
  5.2296980e-03
  1.1540789e-02
 -1.2076551e-02
  1.2503660e-01
  4.9882278e-02
  8.0676293e-01
  5.9537470e-02
  5.5134243e-01
  4.7049269e-02
  1.4652466e-02
  3.2697164e-04
  7.9487422e-03
  4.3987535e-02
 -3.7982378e-02
  4.9808562e-01
  7.6096930e-02
 -1.9409718e-02
  3.3428900e-02
 -2.0435790e-02
  2.5161071e-02
  9.8299444e-02
  3.1454057e-02
 -9.6762437e-01
  3.0920231e+00
  3.3475488e-01
  1.3537048e+00
 -2.8960207e-01
 -1.1987444e+00
  3.0138850e-02
  8.0764383e-01
  1.6982503e-01
 -1.1428302e-01
  9.2476946e-01
  1.4306745e-01
 -3.3505565e-01
  3.8893670e-01
  5.1868623e-01
 -6.9105107e-01
  2.2937363e-01
 -9.8421353e-01
 -1.6814624e-01
 -5.1837671e-01
 -1.2509139e+00
 -3.0841032e-01
  9.8326129e-01
  4.1984031e-01
 -6.9084281e-01
  9.9189913e-01
 -1.1862069e-01
 -2.8512180e-01
  5.8696288e-01
 -4.1004595e-01
  5.6947652e-02
  2.3303470e-01
  2.8970826e-01
  4.4453350e-01
  6.1375564e-01
  6.4085454e-01
 -6.3579701e-02
 -5.9448105e-01
  4.1252092e-01
 -1.6258641e-01
 -1.9854437e-01
  1.2383521e-01
  2.9626514e-03
 -2.7423564e-01
  9.6774958e-03
  3.3925541e-02
 -4.0806520e-01
  7.8025854e-01
  1.8323931e-01
 -4.9005058e-01
  5.5909777e-01
 -1.3165395e+00
 -1.2625327e+00
 -8.4290171e-01
 -1.4426091e-01
  1.2696503e-01
  1.9177675e-01
  6.8148233e-02
  3.8747481e-01
 -3.9805433e-01
  3.4960527e-02
 -5.6820446e-01
  1.0411457e+00
  6.9460690e-02
 -1.4788962e-03
 -4.3862286e-01
 -3.6038387e-01
  1.4086035e+00
 -3.4261638e-01
 -3.1527680e-01
 -4.1317087e-01
  2.4694832e-01
 -1.4592618e-02
  3.7624754e-03
 -1.2643629e+00
 -8.4235929e-02
 -7.3945141e-01
 -8.9798406e-02
  9.8312509e-01
  1.2522157e+00
 -1.0818550e-01
  6.5899957e-03
  7.7695060e-01
 -3.8378444e-01
  4.7497439e-01
  8.1369221e-01
 -7.1417511e-02
 -4.6760965e-02
 -1.2273618e+00
  4.3461423e-02
  7.5851512e-01
  1.6366392e+00
 -5.0158882e-01
  1.2149620e-02
 -3.7685338e-01
 -1.2090212e-01
  6.0874087e-01
  5.1048372e-02
  9.0190351e-01
 -5.1814133e-01
  2.8697872e-01
 -4.2257035e-01
  1.7222730e-02
  1.0318735e+00
 -4.8426944e-01
  4.1490930e-01
  8.7869185e-01
  1.0026450e+00
 -3.1261945e-01
 -1.0465012e-01
  5.2107388e-01
 -9.9332756e-01
 -8.7793273e-01
 -2.1940011e-01
 -7.1301460e-02
 -1.6048791e+00
  4.2885859e-02
 -3.6033362e-03
  2.3164229e+00
 -1.3346718e-01
  7.6174751e-02
 -1.0782990e+00
  1.6815031e+00
 -6.8650985e-01
  2.1870427e-01
  2.1417190e-01
  1.6911922e-02
 -1.3932304e+00
  6.2019215e-03
  9.9887632e-02
  3.1978752e-02
  2.0413345e-01
  7.0985341e-01
  3.3567925e-03
 -4.2480037e-02
  5.8128107e-01
  5.0071917e-02
 -6.2863296e-01
  2.6638609e-01
  4.5003018e-01
  1.4086410e-01
  1.3133454e+00
 -5.9923172e-01
 -3.8387126e-01
  1.0278737e-01
  8.8102691e-02
  9.6152204e-01
 -1.0460914e+00
  1.8238175e-01
 -1.0582338e-01
  1.0682646e-03
 -3.0437033e-03
 -1.1008046e+00
 -1.2045773e-02
  8.8352777e-02
 -6.6618437e-01
  3.1004566e-01
  1.7177385e+00
 -4.3813378e-01
 -6.0383475e-01
  7.5135015e-02
  1.4667106e+00
 -4.2756331e-01
  3.5316564e-02
 -6.9513988e-01
 -1.9821055e-01
  3.2707116e-01
 -3.3384225e-01
  5.8409524e-01
  6.9679552e-01
 -7.3941082e-01
 -3.7860933e-01
  4.3423873e-01
  6.0424787e-01
 -1.3374389e+00
  6.5930194e-01
 -2.4223034e-01
  6.8638153e-02
 -2.5968093e-01
  6.4094931e-01
 -2.8242469e-01
 -2.4243166e-01
  5.8063935e-04
  8.7086231e-02
  5.4161776e-02
  1.6402395e-02
 -2.5386384e-02
 -1.9238241e-02
 -2.1999232e-02
 -7.1181413e-03
  4.8133630e-02
 -7.4477494e-02
  5.7747159e-02
  1.8898724e-02
  3.9839495e-02
  6.8928200e-01
 -4.1085802e-02
 -1.4873622e-02
 -2.3335079e-02
 -8.2572073e-01
  1.0036302e-02
 -5.2275255e-02
  4.8747618e-02
  1.1196852e-01
  2.6719226e-02
  9.1290966e-02
  5.6980378e-03
 -4.0544984e-01
  1.8717760e-02
  3.8915357e-01
  1.8504451e-03
  4.6545601e-01
  9.1567100e-04
  1.7540744e-02
  1.9638799e-02
  8.3668798e-02
 -2.4553053e-02
  1.3304530e-02
 -2.7367141e-02
 -2.6637398e-02
  2.6331481e-01
 -1.5374145e-01
 -1.1679005e-02
 -6.1588816e-02
  1.7166415e-02
  3.7948031e-02
  6.9789216e-03
  3.8550347e-03
  5.6273764e-01
 -2.3964623e-01
  1.1522398e-02
  2.2080123e-02
  4.4605669e-01
  3.3863354e-02
  5.8981787e-02
 -2.6398253e-01
  1.0884709e+00
 -5.3286292e-02
 -1.5476525e-02
 -2.3151888e-02
  9.9844772e-01
 -6.6041790e-02
  1.0496137e-02
 -9.4186645e-03
  7.9127574e-01
 -5.8911081e-02
 -1.1842271e-02
  1.8394813e-02
  1.4213723e-01
 -1.1916107e-01
  5.0861342e-03
  2.5947837e-02
 -8.2738206e-02
  1.6335341e-03
 -2.4288265e-01
  6.0295260e-01
 -5.9385737e-03
 -4.9319123e-03
  1.8152719e-02
 -4.4989479e-03
  3.4026626e-02
  3.9380365e-03
 -1.7570350e-01
  8.5631269e-01
 -3.5938967e-02
 -3.8396925e-02
 -1.6690940e-02
  8.0594712e-01
  1.1489362e-01
 -4.6477006e-03
 -1.2754955e-02
  7.0144460e-02
 -2.3325071e-02
 -8.7326979e-03
 -2.8734043e-02
  1.2603440e+00
  3.5465282e-01
 -6.1985403e-03
 -2.9258894e-02
  8.2426411e-01
 -2.0594318e-01
 -1.2820899e-02
 -3.8040776e-02
 -7.8974682e-01
  6.0083348e-02
  1.9508839e-02
 -2.5368556e-03
 -7.7296549e-01
 -6.2838718e-02
 -3.5472617e-02
  3.8985718e-02
 -4.1729262e-01
  3.0775415e-02
 -1.0218424e-02
  3.8383849e-02
 -4.6481293e-02
  1.9017581e-02
 -6.7976182e-03
  1.1325309e-01
 -1.1895974e+00
 -4.5808442e-03
 -4.3329396e-03
  5.7262108e-03
  3.0671874e-01
 -1.0130107e-02
 -8.3026476e-03
  5.2378848e-02
 -7.7927512e-01
  2.2917141e-03
  1.2323475e-03
 -1.6776697e-01
  5.2065253e-01
  1.0777320e-02
  2.1150401e-02
  6.1512016e-02
 -4.9493846e-02
 -1.4605793e-02
 -3.9613150e-02
 -2.2310400e-02
 -5.2109808e-01
  3.6241122e-02
  2.7519640e-02
  3.0476004e-03
 -3.7281063e-01
 -2.9273631e-02
 -3.1379774e-02
 -1.9101832e-03
  2.6534110e-01
  1.4609702e+00
  1.0196695e-01
 -6.1572623e-02
  1.4353838e-02
  1.1505974e-02
 -1.9570780e-03
  3.5869095e-02
  2.4656497e-01
  1.5135939e-02
  1.0527198e-01
 -4.2566955e-02
 -2.5482742e-02
  6.7480236e-01
  1.4353885e-02
  2.1786025e-02
  6.0886592e-02
  1.7264342e-01
  2.2525920e-02
  2.0972161e-02
  3.2270793e-02
  3.1656530e-01
  2.0551665e-02
 -4.6430029e-02
  1.0119632e-02
  1.9090014e-02
  2.7166033e-02
  6.2602080e-02
  5.6294199e-02
 -1.2095658e-01
  3.9921787e-02
  1.8379452e-02
  4.7486730e-02
  6.1652499e-01
  3.2067373e-02
  1.7445830e-01
  1.7445830e-01
  1.7445830e-01
  1.7445830e-01
  1.7445830e-01
  3.1867151e+00
  3.1867151e+00
  3.1867151e+00
  3.1867151e+00
  3.1867151e+00
  1.6190689e+00
  1.6190689e+00
  1.6190689e+00
  1.6190689e+00
  1.6190689e+00
  6.9877112e-01
  6.9877112e-01
  6.9877112e-01
  6.9877112e-01
  6.9877112e-01
  2.2210346e-01
  2.2210346e-01
  2.2210346e-01
  2.2210346e-01
  2.2210346e-01
  9.7094488e+00
  9.7094488e+00
  9.7094488e+00
  9.7094488e+00
  9.7094488e+00
