nep4 2 Te Pb 
cutoff 8 4 73 8
n_max 4 4
basis_size 8 8
l_max 4 0 0
ANN 30 0
  1.0989742e-01
  8.2858104e-01
  1.2398616e+00
 -6.0968488e-01
  1.1595193e+00
 -1.0125703e+00
 -4.8275492e-01
  7.7293307e-01
  2.2754408e-01
 -3.7454590e-02
 -1.3823702e+00
  1.9097134e+00
  1.0466841e+00
 -8.1497473e-01
  1.1108612e+00
  1.0824466e+00
  1.8434237e+00
  1.5078356e+00
 -3.3681741e-01
 -5.0423139e-01
 -5.2866101e-01
  8.9620167e-01
 -3.7226292e-01
 -1.2999365e-01
  1.1007151e-01
  3.2403922e-01
 -3.3137652e-01
 -8.1134334e-02
 -4.6822983e-01
  4.4393617e-01
 -6.5943491e-01
 -1.2313048e-01
  7.3541552e-01
 -4.1253102e-01
 -1.1869167e+00
 -3.8568124e-01
  2.5647473e-01
  3.1413448e-01
 -3.6096457e-01
  8.9817381e-01
 -1.9492323e+00
  1.2756176e+00
  1.0863812e+00
  6.2604946e-01
 -1.1831074e-02
 -4.8629975e-01
  3.6732835e-01
  6.2938917e-01
 -4.6379173e-01
 -2.0633242e-01
 -1.8144681e+00
  1.3227831e-01
  2.2815759e-01
  8.3353126e-01
 -4.5940018e-01
  4.6803215e-01
  5.8290035e-01
  1.2035300e+00
  5.1110971e-01
 -1.6137824e+00
  9.5114321e-01
 -1.3204963e+00
  7.8371584e-01
  9.3932909e-01
  1.2908984e+00
  2.1397533e-02
  5.2978230e-01
  4.5949760e-01
  1.5935061e+00
 -1.6172448e+00
 -1.0705818e-01
 -4.0473801e-01
  1.5243026e+00
 -5.0402671e-01
  3.9224589e-01
  1.0159928e+00
  1.1673918e+00
  1.3462837e+00
  1.1372420e+00
 -4.8272809e-01
  1.3508312e+00
  1.1521142e+00
  1.0553458e-01
  1.4287817e+00
 -1.3806895e+00
  1.1176114e-02
  8.4729040e-01
 -1.1142360e-01
  3.3988360e-01
 -1.2395301e-01
 -5.7496518e-01
  1.3166373e+00
 -3.4054840e-01
  1.7713144e-01
  7.7104199e-01
  3.9872825e-01
  1.6066041e+00
  1.6596001e-01
  8.7174821e-01
  4.2146283e-01
 -5.0538403e-01
 -5.3710461e-01
  8.7430038e-02
  5.2182531e-01
  1.9847356e-01
 -3.2203831e-02
 -2.2758326e-01
 -9.2105740e-01
  1.6430801e+00
 -4.5219871e-01
  1.5454207e-01
 -9.5355296e-01
 -2.6330981e-01
 -1.3475525e-01
  1.0363081e+00
 -1.8659715e-01
  1.0769769e-01
 -2.3760255e-01
 -1.2663363e-01
 -3.1920791e-02
 -7.5663966e-01
 -3.7360795e-02
 -9.3113160e-01
 -5.7355917e-01
 -4.8531261e-01
  9.9446017e-01
 -5.7633537e-01
 -9.1572136e-01
 -4.5984462e-01
 -1.2858306e-01
  2.4212314e-01
 -4.3863076e-01
  5.3808153e-01
 -1.0944865e-02
 -2.2857375e-01
  8.6119908e-01
 -8.6514193e-01
  2.1875465e-01
  2.5064370e-01
 -1.1487035e+00
  9.7296417e-02
 -5.8909482e-01
 -6.1707354e-01
  1.0902923e+00
 -2.7030051e-01
  1.3315940e+00
  4.2376083e-01
 -5.3937268e-01
 -4.1963974e-01
  6.4772737e-01
 -5.9226853e-01
 -1.2792126e+00
  1.7428446e-01
  5.8405221e-02
  1.2139515e+00
  2.0698379e-01
 -9.4463700e-01
  1.6622348e-01
 -1.0442670e-01
 -7.1545821e-01
  1.2315369e+00
  6.4603662e-01
 -4.6782619e-01
  7.5567520e-01
  2.1410331e-01
  1.2249693e-01
  1.8467712e+00
  7.8206748e-01
 -7.1788967e-01
 -6.6963559e-01
 -2.6571345e-01
  1.4847738e+00
 -5.2728999e-02
 -4.0301213e-01
  4.1351727e-01
  3.1556436e-01
  1.8573704e-01
 -3.3053273e-01
 -1.3830941e+00
  5.3533882e-02
 -2.1103582e-01
  1.5635343e+00
 -1.3366932e-01
  4.4580248e-01
  6.4840972e-01
 -6.5593654e-01
 -9.2376769e-01
  7.0947304e-02
 -3.3510494e-01
 -1.3386463e-01
 -6.3380021e-01
 -3.7751573e-01
  6.4769542e-01
  1.3780848e+00
  7.7388752e-01
 -4.1666463e-01
 -5.8747548e-01
  7.5104690e-01
 -1.0812497e+00
 -3.9776850e-02
  4.3650505e-01
 -5.1826453e-01
  8.9870191e-01
 -5.4063495e-02
 -9.0946972e-02
  1.1116529e+00
  2.0374817e-01
  6.6013461e-01
  1.9850880e+00
 -1.1599281e-01
 -9.7598925e-02
  2.0871881e-01
 -1.7712010e-01
  1.6661552e+00
 -4.3063529e-02
 -2.5681634e+00
 -3.0820450e-01
 -4.2254034e-01
 -1.4338810e+00
  1.1244109e+00
 -4.2201293e-01
  3.0144370e-01
  1.0297127e+00
  5.3529151e-02
  1.5148958e+00
 -8.0368108e-01
  2.0097540e-01
  4.0302135e-02
 -9.4475336e-02
 -2.6002613e-01
 -1.3077977e+00
 -4.3353888e-01
  2.1729051e-01
 -2.2930914e-01
 -1.0360471e+00
  6.3612932e-01
 -1.3806139e+00
 -9.5829380e-01
 -6.4471722e-01
  2.5459228e-02
 -3.7886292e-01
 -9.3818688e-01
 -2.1134293e+00
 -1.5636179e+00
  1.0385269e+00
 -8.0037612e-01
 -1.1772101e-01
  2.7861378e-01
  8.8725364e-01
  5.6149101e-01
 -1.5020343e+00
 -1.0757976e+00
 -1.7132108e+00
  1.7253695e+00
  1.1744072e+00
 -1.9037160e-01
 -1.5990767e+00
 -4.4232938e-02
  5.9946424e-01
  6.3606896e-02
  9.5511889e-01
  5.7297027e-01
 -9.5690066e-01
 -6.6129223e-02
 -1.0010420e+00
  2.6322171e-01
  5.7836175e-01
  2.9922310e-01
 -4.4249919e-01
 -3.6700475e-01
  1.0604415e+00
  8.3788198e-01
 -1.0004986e-01
 -8.7399107e-01
 -8.3397156e-01
  5.1385188e-01
 -1.0155574e+00
  2.2930485e-01
  1.7249195e-01
 -1.4847609e-01
  1.4579793e+00
  3.4596163e-01
 -7.7883381e-01
 -4.2572457e-01
  1.0503539e+00
  1.2774748e+00
 -9.4909829e-01
  1.0117240e+00
  2.5482435e-02
 -6.2684298e-01
  2.8607664e-01
  4.3712955e-02
  3.9526674e-01
 -9.8449081e-01
  4.7117114e-01
  7.0337933e-01
  9.3230951e-01
 -9.6845824e-01
  7.2532183e-01
  4.6682125e-01
 -9.3163729e-01
 -1.7888832e-01
 -1.1675026e+00
  2.8427458e-01
  3.1008700e-01
  9.4833069e-02
 -3.9806744e-01
  8.5673934e-01
  1.2972727e+00
  1.9963342e-03
 -1.1594495e+00
 -1.0120515e+00
  1.2005574e+00
 -1.1111633e+00
  1.0482821e+00
 -1.1715635e+00
 -1.3028657e+00
  1.0720211e+00
  1.5958585e-01
  2.7979904e-01
 -1.4164220e+00
 -9.0279835e-01
 -1.1106315e+00
  5.9504066e-02
 -1.7826624e-01
 -5.9537381e-02
 -1.8696172e+00
  1.1379662e+00
 -7.8134881e-03
  8.9727245e-02
 -1.4914167e+00
 -2.5602427e-01
  4.5096904e-01
  9.1655940e-01
  1.3346465e-01
 -2.5583652e-01
  8.9215904e-01
  1.0934462e-01
 -7.3909158e-01
 -6.1676824e-01
 -7.5151545e-01
  1.1048397e+00
  1.1259928e+00
 -3.8885257e-01
  8.0728346e-01
 -2.6217131e-03
 -6.2239546e-01
  7.5884700e-01
 -1.5945922e-01
 -1.3634467e+00
  2.8379826e-02
  5.0683266e-01
 -1.8844275e-02
  5.8867030e-02
  1.1981187e+00
 -2.0458110e-01
 -3.7439707e-01
  4.2038396e-01
 -9.4455522e-01
  1.7583552e-01
  5.9137625e-01
 -6.3548964e-01
 -3.7320909e-01
 -2.0317626e-01
  1.8164598e+00
 -2.3556601e-01
  1.0350625e-01
  6.3429403e-01
 -6.9673556e-01
  3.5793227e-01
 -1.7119946e+00
  1.4426486e-01
  4.1453364e-01
 -4.3613571e-01
  1.3781302e-01
 -1.2075994e+00
 -4.8718584e-01
  8.4627795e-01
  1.9409466e+00
  1.1630099e+00
 -6.9821161e-01
  1.4878613e+00
  1.6281897e+00
  1.8796887e-01
  6.9009513e-01
  9.1768330e-01
 -1.2256543e-01
  5.7984108e-01
 -9.4889957e-01
 -5.1599711e-01
  7.9906613e-01
 -2.8251985e-01
  6.6454148e-01
  7.3245299e-01
  8.7124223e-01
  1.0686456e+00
 -5.3410369e-01
 -8.4927253e-02
  7.6738518e-01
 -2.2706518e-02
  2.0936173e-01
  1.5673187e+00
 -7.2599959e-01
  1.2531668e+00
 -8.2931179e-01
  6.9768625e-01
  1.0941076e-01
  8.6769950e-01
 -1.3440529e+00
  5.7031013e-02
  5.6770712e-01
  5.9621596e-01
 -1.0058162e+00
 -1.5717375e-01
 -3.2521081e-01
 -1.4091352e+00
  5.9490710e-01
 -8.2553554e-01
 -9.2607200e-01
  1.6291688e-01
 -5.4402590e-01
 -1.0822703e+00
  3.9369568e-01
  8.4354562e-01
 -5.5232608e-01
 -1.8222125e-01
 -3.8208729e-01
  1.1777399e+00
  4.2188414e-03
 -6.3414830e-01
  2.8464454e-01
  2.9754612e-01
  6.9378012e-01
 -4.1011325e-01
  6.9821799e-01
 -9.6456505e-02
 -5.7955468e-01
 -5.0167489e-01
 -1.1685288e+00
 -7.3568267e-01
 -2.2002783e+00
  4.0456783e-02
 -2.9624453e-01
 -1.0911852e+00
 -9.2600507e-01
 -5.0475383e-01
 -1.4111854e+00
  1.0565307e-02
 -4.7898650e-01
 -1.6820845e-01
 -3.5408479e-01
  4.5006776e-01
 -7.2589320e-01
 -9.8879385e-01
  7.4296451e-01
  2.9985359e-01
 -3.6667475e-01
  4.2991352e-01
 -5.9593982e-01
  1.2414337e+00
  6.5368593e-01
 -1.3070980e+00
  1.1240383e-01
  1.3715383e-01
 -1.0844487e+00
 -7.4397993e-01
 -8.1250215e-01
  3.5462490e-01
  2.9487684e-01
 -1.6316937e+00
  1.9669232e-01
  4.3438730e-01
  1.5789278e-01
 -1.6754845e+00
  1.1185395e+00
 -1.8345813e-01
 -2.5378268e-02
 -1.8035111e-01
  1.6340412e-01
 -1.1189560e+00
  6.2648582e-01
  2.8381789e-01
 -8.6696976e-01
  3.5734633e-03
  1.1898562e+00
  4.1298079e-01
  1.6631179e+00
 -6.8072563e-01
  3.3369040e-01
 -1.0383530e+00
 -2.7199766e-01
  9.0515202e-01
 -8.2444526e-02
 -1.4647640e-01
 -2.3184475e-01
  1.3177116e+00
  9.2727792e-01
  1.2223992e+00
 -6.5892309e-01
  7.7164936e-01
  1.1938277e+00
 -1.0356041e-01
  1.2434443e-01
  2.2916603e-01
 -2.6258531e-01
  5.7526922e-01
  3.6157674e-01
  6.0532248e-01
  5.9212387e-02
  1.4991660e-01
  5.5600399e-01
 -7.0094174e-01
 -9.4680816e-01
  3.1893530e-01
  7.7764004e-01
 -7.7202374e-01
 -1.5073648e-01
 -1.4731048e+00
  1.9356847e-01
 -2.8846127e-01
 -4.8522100e-01
 -7.5082070e-01
 -1.0635880e+00
 -1.2846709e+00
 -2.1509728e-01
 -3.4822667e-01
  3.1118456e-01
 -5.4852337e-01
  1.6037196e-01
 -1.8560474e+00
  3.1492823e-01
 -8.0563706e-01
  1.7305271e-01
 -4.6684816e-01
 -2.5197104e-01
  6.3778853e-01
  3.0633744e-02
 -9.1605490e-01
  1.0207027e+00
 -1.2387303e+00
 -7.6117736e-01
  7.6793426e-01
  8.2437940e-02
 -6.8349636e-01
 -4.7851339e-02
 -1.3267328e-01
 -1.1520827e-01
 -3.2132357e-01
  1.2982244e+00
  3.4891099e-01
  9.4083458e-02
  9.2621231e-01
  2.1994954e-01
  8.5622722e-01
 -6.1105019e-01
  1.2118367e+00
  2.3742414e-01
  2.3492184e+00
  1.5698291e+00
  1.6903788e+00
  6.8048900e-01
 -8.6488432e-01
 -3.4066069e-01
 -5.1012361e-01
 -1.4897722e-01
  4.4985867e-01
 -8.5188675e-01
 -3.7291810e-01
  9.5019758e-01
  1.1033541e+00
  4.0783557e-01
 -1.1959314e-01
 -1.0217354e+00
 -6.4018261e-01
 -5.2112097e-01
  3.8951689e-01
  5.0763375e-01
 -6.1243296e-01
 -3.5305181e-01
  1.7583925e-01
 -1.0484551e+00
 -1.4405440e+00
  6.0197783e-01
  8.7699908e-01
  1.8259048e-01
  7.4723566e-01
 -2.7250367e-01
  7.8352582e-01
 -4.9939615e-01
 -1.6277777e+00
  1.1629383e-01
  5.8465409e-01
  4.9676654e-01
  3.8058588e-01
 -1.7523269e-01
 -6.3082296e-01
 -9.3159741e-01
 -3.2547051e-01
 -3.0293947e-01
 -4.1788697e-01
 -7.0373684e-01
 -4.9516920e-02
  1.4026029e+00
 -2.2950010e-01
  1.1992658e+00
 -5.9741598e-01
 -4.6947289e-01
 -5.3713083e-01
  9.4865449e-02
 -1.5517175e+00
 -8.4869659e-01
 -6.7725420e-01
 -1.9334204e-01
 -7.6359218e-01
 -6.0569286e-01
 -4.3453568e-01
 -1.3455619e+00
  2.2319035e-01
 -1.0628322e+00
  1.3161222e+00
 -3.1023243e-01
  1.4437524e+00
  7.2094458e-01
  1.1272992e+00
  1.1288439e+00
  8.0679661e-01
 -3.5883364e-01
 -5.1530349e-01
 -7.9061550e-01
 -1.3957500e+00
 -1.6561657e-01
  4.0420020e-01
  1.2060171e-01
  4.6587598e-01
 -1.6901609e-01
  1.0916140e+00
 -5.3710461e-01
  6.9897157e-01
 -2.0252044e+00
 -1.5866978e-01
  2.8056502e-01
 -1.8864232e+00
  1.3746818e+00
  1.5871178e+00
  9.7763026e-01
 -6.8551415e-01
  3.5837510e-01
 -9.9941814e-01
 -5.9574848e-01
  1.3513967e+00
 -8.1041992e-01
 -8.0971968e-01
  2.0074762e-01
  5.6899953e-01
  1.3559093e+00
 -7.7725434e-01
 -2.4714579e-01
 -9.4808298e-01
  1.9986950e-01
  3.5377201e-01
  1.4616203e+00
 -1.4617252e+00
  1.2917974e+00
 -1.2534223e-01
 -4.9949650e-02
  1.5796050e-01
 -6.9389507e-02
  1.8001534e-01
 -1.0074769e-01
  6.8291342e-01
  3.0836639e-01
 -1.5549566e+00
 -7.2791672e-01
  1.2824780e+00
 -4.3339366e-01
 -5.7560575e-01
  5.6560439e-01
  5.5886215e-01
  1.4241134e-01
  1.2431144e+00
  1.0676407e+00
  1.6437367e+00
  4.8536384e-01
 -7.4054813e-01
  7.4212068e-01
 -3.0382809e-01
 -1.3381847e+00
  3.1535482e-01
  6.9488007e-01
  7.2593945e-01
 -5.4213983e-01
  7.0825857e-01
  4.9730867e-02
 -1.2268777e-01
  4.5157832e-01
  2.1486592e-01
  1.1629361e-01
 -1.0939974e+00
  3.8267002e-01
 -3.7842181e-01
 -8.3540505e-01
  9.9183744e-01
  2.4916224e-02
  1.3304099e-01
 -1.0004849e+00
 -3.6889073e-01
  9.3953900e-02
 -3.0218372e-01
  5.0282258e-01
 -9.6744967e-01
 -1.3249884e-02
 -5.2281350e-01
  9.8324615e-01
  3.8000356e-02
  2.2361542e-01
  6.8393099e-01
  1.5127702e+00
  4.8212379e-01
  2.0330627e-01
  4.4790122e-01
 -1.0103354e+00
 -1.5451096e+00
  2.6150131e+00
  1.7372209e-01
 -1.2844412e+00
  1.1317673e+00
  8.7666303e-01
 -6.2427932e-01
 -3.6664372e-03
 -1.6232634e-01
 -1.2929323e-01
 -7.3001361e-01
 -1.0839728e-01
  2.6456257e-02
 -8.7794811e-01
 -1.0312150e+00
 -4.8047397e-01
  7.8699720e-01
 -1.6257985e-01
  9.0741682e-01
 -5.4458064e-01
  1.8332027e-01
 -6.0984451e-01
 -3.9577323e-01
 -2.4843082e+00
 -1.5339088e+00
 -1.7795896e-02
 -8.1896555e-01
  1.0360932e+00
 -5.8648396e-01
 -4.3167314e-01
 -7.2867072e-01
 -1.9504760e-01
  1.5718179e+00
 -8.0788779e-01
 -7.1664715e-01
 -2.4222042e-01
  1.0530473e-01
 -5.9997338e-01
  1.0866178e+00
 -1.3000822e+00
  1.1534910e+00
 -1.0307637e+00
 -3.4059432e-01
  1.0732491e+00
 -7.6919995e-02
  9.1793269e-01
  3.4557018e-02
  2.1598504e-01
  5.5692267e-01
 -1.3409196e+00
  1.0032611e+00
  1.1954273e+00
  1.1642120e+00
  1.0906779e+00
  4.3640158e-01
 -2.4119413e-01
  1.3921201e-01
 -1.2042183e+00
  6.8772137e-01
  9.7108060e-01
 -1.8139824e-02
 -1.2239621e+00
 -5.7430321e-01
 -3.6865723e-01
  1.2318878e+00
  1.3077138e-01
 -2.5436059e-01
 -1.6079447e-01
 -8.0926949e-01
  6.2948012e-01
 -2.8543631e-02
  6.5187252e-01
  4.9671319e-01
 -1.1612173e+00
 -3.1426147e-02
 -6.7266679e-01
  1.8649413e-01
  8.1909037e-01
 -5.7240182e-01
 -3.5918823e-01
  1.5039636e+00
 -4.6465030e-01
 -7.1584508e-02
 -6.4723533e-01
  9.0533769e-01
  3.6607936e-01
  3.8141945e-01
  2.6114464e-01
 -4.6151152e-01
  9.5868093e-01
 -7.2770226e-01
  2.1958263e-01
 -9.4226845e-02
  5.5347346e-02
 -8.3287162e-01
 -6.5719706e-01
  4.0672091e-01
  7.2480500e-01
 -8.3684367e-01
 -9.0920091e-01
  6.3357937e-01
  3.3141202e-01
  7.3341995e-01
  3.4442723e-01
  2.9537404e-01
  2.4828392e-01
 -1.4463984e+00
  2.5248691e-01
  2.1307169e-02
  6.4367509e-01
 -4.2485222e-01
  1.3293085e-01
 -1.1027154e+00
  1.1690609e+00
 -4.2422163e-01
  1.1510762e+00
 -1.2165935e+00
 -1.6864295e+00
  2.0221013e-01
 -6.8859339e-01
 -2.6510105e-01
 -1.6310298e+00
  2.2716504e-01
  1.7667419e+00
  1.0860752e+00
 -4.0821418e-01
  4.8433292e-01
 -1.2250575e+00
 -6.6319868e-02
 -4.4591081e-01
  1.9131035e-01
 -3.1311795e-01
  4.8167855e-01
  6.2198919e-01
  8.0507886e-01
  1.1035930e+00
 -1.0388588e+00
 -6.4247757e-01
 -1.8246865e-03
 -7.6873064e-01
  4.1463149e-01
 -2.5764367e-01
 -1.5207685e+00
 -1.1062045e+00
  4.0347856e-01
 -5.3580397e-01
  6.2641144e-02
 -4.2134798e-01
 -8.7708980e-01
 -4.1611120e-01
  4.1832227e-01
 -1.3160466e+00
  4.6931162e-01
 -9.9604183e-01
  2.8177550e-01
  1.0311339e-01
  3.5703054e-01
 -3.1503648e-01
 -1.5455972e-01
 -9.9881846e-01
 -1.4314655e+00
 -5.2993566e-01
  1.7288195e+00
  1.2431363e+00
 -1.4254028e+00
  1.0792841e+00
 -4.6462813e-01
 -6.1700481e-01
  8.2070154e-01
  4.9719945e-01
  7.7822119e-01
 -1.5367626e+00
 -9.2118971e-02
 -6.6311900e-03
  1.1235099e+00
  2.4774627e-01
  2.8495091e-01
 -4.2580447e-01
 -1.7283367e+00
 -1.0370083e+00
  1.4776368e+00
  1.2385547e+00
  4.7769105e-01
 -7.2808035e-02
 -4.9132818e-01
  4.9793810e-01
 -2.9994774e-01
 -1.1616965e-01
 -1.2597475e+00
  1.4754733e+00
 -6.9691634e-01
 -1.5173994e+00
 -1.9869674e+00
  1.1059266e+00
  5.0773495e-01
  2.6632816e-01
 -8.5306591e-01
  9.2654638e-03
 -4.4439337e-01
 -2.2906461e-01
 -8.0870259e-01
 -4.8716784e-01
  1.3169919e+00
  8.9266652e-01
  9.4851774e-01
 -3.5590446e-01
  6.8100756e-01
 -2.0532360e+00
 -2.5666371e-01
 -1.2345541e+00
 -4.7562844e-01
  7.9328781e-01
  6.0112369e-01
  1.3301429e+00
 -1.7183895e+00
  6.3905686e-01
  2.8647500e-01
  1.2799002e-01
  5.2088324e-02
 -3.0484921e-01
 -2.9342520e-01
  1.2464079e-01
 -1.5670160e+00
  8.0248106e-01
  2.4503735e-01
  2.1302050e-01
  3.2293925e-01
  5.2129829e-01
 -7.3718734e-02
 -5.0542831e-01
  1.2726178e+00
 -6.6903394e-01
 -7.6210789e-02
 -3.8308505e-02
  2.7454633e-01
 -1.5700114e+00
 -4.6140340e-01
  4.3612751e-01
 -1.6509320e+00
 -2.5514492e-01
 -1.0441037e+00
 -1.2581526e-01
 -1.7673105e+00
  7.8364618e-02
 -2.8797337e-01
 -3.4074429e-01
  9.2378461e-01
  3.2589102e-01
  4.0752181e-01
  4.8972934e-02
  9.8062575e-02
  1.4761144e-01
  6.5821707e-01
 -8.2227254e-01
 -6.0391968e-01
  8.6053145e-01
 -1.4378722e+00
  5.0763416e-01
 -2.9340732e-01
 -9.6656901e-01
 -7.2986698e-01
  6.3653415e-01
 -1.1498160e+00
 -1.7383817e-01
 -3.9610546e-02
  9.1294354e-01
  5.6892949e-01
  3.2314837e-03
  9.5092380e-01
 -1.2246997e+00
 -2.5945038e-01
  1.0958030e+00
 -3.2869574e-01
 -6.7703706e-01
  1.4462095e+00
 -9.1480333e-01
 -4.2973831e-02
  7.2916806e-01
  4.2180443e-01
 -1.0801916e+00
  1.1063594e+00
 -3.3149573e-01
  2.3830526e+00
 -7.0853049e-01
 -2.6709145e-01
  1.1661352e+00
 -1.9161128e+00
  5.0462306e-02
 -8.1068743e-03
 -6.1331820e-03
 -6.9072396e-01
  8.7121427e-01
  8.7648189e-01
 -7.0453966e-01
 -2.1166156e-01
  1.2658538e-01
  5.2593255e-01
 -4.8652574e-01
 -5.6884789e-01
  1.6675812e+00
 -4.4183362e-01
  8.0884403e-01
 -5.5474102e-01
 -4.4265050e-01
 -2.1920042e-01
  1.4479786e-01
 -5.7120246e-01
  1.3638011e-01
  1.4236597e+00
 -7.0327915e-02
 -6.7453466e-02
  1.1682383e+00
 -1.6809154e-01
  2.3249786e+00
 -7.6785505e-01
 -7.1753633e-01
  1.5463814e-01
  1.5518571e-02
 -3.2006142e-01
 -1.4829521e+00
  6.1357951e-01
 -1.4650596e+00
 -1.3773585e-02
  3.4635287e-02
  3.0816904e-01
 -6.3170236e-01
  1.2402210e+00
 -6.4765823e-01
 -1.1747767e+00
  2.6083580e-01
 -7.2852826e-01
  5.3297555e-01
  2.0302382e-01
  1.0487181e+00
 -1.1906793e+00
  4.8978254e-01
 -1.5683815e-01
 -1.2483218e-01
 -1.7655224e+00
 -9.6120751e-01
  4.0873167e-01
 -4.2348152e-01
  7.8536314e-01
 -3.7540559e-02
 -1.2508233e+00
  1.5611962e+00
  1.0088100e+00
 -6.7490226e-01
 -6.1879468e-01
  5.8004774e-02
 -1.5413561e-01
 -1.2025527e+00
 -1.9373941e+00
 -8.3102924e-01
 -7.6776314e-01
 -1.4441123e+00
  4.2969763e-01
  3.5101140e-01
  6.0477751e-01
 -1.3553353e-01
 -2.0651509e-01
  1.0271358e+00
  3.0690679e-01
  5.1587421e-01
  2.8346676e-01
  7.4908638e-01
 -1.2686700e+00
  2.3174312e-02
  2.9662323e-01
 -8.2064819e-01
 -9.8260276e-02
  7.1204448e-01
  2.2422926e-01
  4.9178800e-01
 -1.8389022e+00
  6.6594523e-01
 -8.0748159e-01
 -9.9512172e-01
 -9.5039022e-01
 -1.4499452e+00
  2.0392280e+00
 -1.1931353e+00
  5.1059693e-01
 -1.8168788e-01
  6.1336148e-01
 -4.3912995e-01
 -5.3076926e-03
  5.5377120e-01
  3.9451256e-01
  3.0511741e-02
  1.1870567e+00
  8.2457826e-02
 -6.8913573e-01
  2.0927340e-02
 -4.9534175e-01
  6.5565944e-01
  3.4223503e-01
 -2.0617783e+00
 -8.0038851e-01
  5.4376704e-01
  5.7700905e-03
 -5.3759557e-01
  6.9253474e-01
 -2.3358810e-01
  5.7436353e-01
  4.4439641e-01
 -9.7345531e-01
 -1.7061305e+00
 -5.4775017e-01
  7.0227087e-01
  1.1769114e-01
  2.4498394e+00
 -5.1443111e-03
 -6.0845572e-01
 -2.1000870e-01
 -3.1503089e-02
  6.8019128e-01
  4.9768794e-01
  6.1020273e-01
  4.4495994e-01
 -1.4520802e+00
 -2.4886314e-02
 -1.1228904e-01
 -1.3221897e+00
 -4.9665904e-01
  2.6411760e+00
  8.1474721e-01
  1.2002766e+00
  6.1704236e-01
 -6.1183089e-01
  7.4033999e-01
 -9.1121398e-02
 -7.7686363e-01
  1.0270776e+00
  4.9154845e-01
 -1.6125656e+00
 -1.2073569e+00
  5.6937939e-01
 -1.3327328e+00
 -1.0042373e+00
 -3.9731523e-01
 -6.2797809e-01
 -9.5483434e-01
  2.3180160e-01
  6.2113738e-01
 -5.7122356e-01
  2.6366600e-01
  1.1046124e+00
  2.8462663e-01
  9.9964660e-01
  4.8044199e-01
  8.9308149e-01
  9.8404521e-01
 -4.1577879e-01
  1.5659219e+00
  3.8265294e-01
 -4.0204734e-01
 -7.4916506e-01
 -4.2825934e-01
  2.8174597e-01
 -1.4370939e+00
 -1.0096699e+00
 -6.0729057e-01
  1.0785948e-01
 -9.3924570e-01
  6.1637419e-01
  1.4500181e-01
 -8.5805923e-01
 -1.9663448e+00
  1.4687079e-01
 -1.3097848e-01
 -3.1066358e-01
 -7.5493467e-01
  7.2351378e-01
 -7.9880905e-01
  2.3774727e-01
 -5.6490928e-01
  1.6076365e-01
 -1.3593707e+00
  2.9253930e-01
  1.0550948e+00
 -3.5238177e-01
 -1.2147821e+00
 -7.1533149e-01
  1.2126927e+00
 -6.3194776e-01
  2.1640562e-01
 -2.7246583e-01
 -8.1417680e-01
  4.2817441e-01
  3.4849042e-01
 -6.1220229e-01
 -1.1975213e+00
 -1.7655510e+00
  4.7380325e-01
  7.0274228e-01
 -2.1548909e-01
 -5.6677282e-01
 -7.2624129e-01
  1.3654990e+00
  9.0054047e-01
  9.1114771e-01
  5.6811112e-01
  2.3868613e-01
  1.1904392e+00
 -4.6378243e-01
 -1.4798155e+00
 -2.0704727e+00
 -1.1657515e+00
  1.7146657e+00
  8.5078633e-01
 -4.9933724e-02
 -3.5103279e-01
 -1.0898569e+00
  5.2766937e-01
  1.2743394e+00
  2.8055236e-01
 -1.9943592e-01
  8.9815831e-01
 -7.5864762e-01
 -3.2560118e-02
  1.3092161e-02
 -7.6111102e-01
 -4.1638267e-01
  8.6787498e-01
 -3.4762383e-01
  4.9945864e-01
 -8.0901319e-01
  1.7455566e-01
 -4.3232444e-01
 -6.7548037e-01
  5.5700317e-02
 -4.2611948e-01
 -4.6457449e-01
  9.2656559e-01
 -4.6288099e-02
 -7.7542275e-01
 -1.0369194e+00
  1.9533631e+00
  6.1554903e-01
  7.3407698e-01
  2.5507304e-01
  9.4244695e-01
  1.2574093e+00
 -4.4937012e-01
  5.9863257e-01
 -7.0050173e-02
  1.5335029e+00
 -8.4062290e-01
 -1.5226994e+00
 -7.7897894e-01
 -1.9037963e-01
  9.0341859e-02
  2.1527824e-01
  2.1715109e-01
 -7.1607381e-01
 -4.5082191e-01
 -1.0051392e+00
 -1.3546152e-02
  4.7776210e-01
 -1.0709766e+00
  1.3986157e+00
 -2.6268059e-01
 -5.1135540e-01
 -1.3314615e+00
  1.1963289e+00
  1.3098675e+00
 -1.1763110e+00
  6.2295562e-01
  2.7199075e-01
 -8.9901954e-01
 -3.9099127e-01
  8.1722236e-01
  8.1347696e-02
 -1.0282835e+00
 -1.0164478e+00
 -1.1034034e+00
 -1.0838072e+00
  7.9296118e-01
  1.4437170e+00
 -5.4984212e-01
  1.3317420e-01
  1.7227250e+00
 -5.4373962e-01
 -1.0595151e+00
  2.2449455e-01
 -1.8010837e+00
  1.3129632e+00
  8.7871470e-02
  8.8104701e-01
 -1.6886015e-01
 -1.4015344e+00
 -4.2232466e-01
  1.8592763e-01
  9.2497480e-01
  1.2990002e-01
 -1.6392236e+00
  1.1760254e+00
 -4.8606213e-02
  2.0374681e-01
 -7.7625602e-01
 -3.0925095e-01
  4.2322308e-02
  1.0324731e+00
 -1.0015205e+00
 -2.8131035e-01
  7.5180733e-01
  4.1109005e-01
  1.0370803e+00
 -5.1868683e-01
 -4.5855823e-01
  4.1458985e-01
 -1.1079570e+00
  2.3152031e-01
 -2.7625364e-01
 -4.4237915e-01
 -6.7568040e-01
 -4.2098483e-01
 -2.4894750e-01
 -1.4185581e+00
  5.4584229e-01
  9.4158363e-01
 -2.8004783e-01
  1.3261890e+00
 -1.4156064e+00
 -1.0521339e+00
 -1.2030303e+00
 -7.0349389e-01
  6.6068090e-02
  5.0130552e-01
  4.6294844e-01
  3.2873860e-01
  1.7293541e-01
 -1.3260061e+00
  7.4825037e-01
 -6.6635114e-01
  4.0957296e-01
 -2.3658696e-01
 -4.2660803e-01
 -2.4811813e-01
 -6.2964243e-01
 -1.4258909e+00
 -1.7149918e+00
  3.9154792e-01
  9.2567146e-01
  3.0750018e-01
 -5.6139034e-01
 -1.5103740e-01
  2.7471403e-02
 -1.2390828e+00
 -2.1398407e-01
  1.2079136e+00
  3.3954769e-01
  9.2863524e-01
 -4.8551437e-01
  2.4854968e-01
  1.6614404e+00
 -1.6218464e+00
 -1.1198446e+00
 -1.9739063e+00
  1.4942981e-01
 -8.5340673e-01
 -3.4783474e-01
  4.6158525e-01
  6.7282861e-01
  7.5138187e-01
  7.9819632e-01
 -3.3843565e-01
  4.7657296e-01
  1.2833613e+00
 -7.7380008e-01
  7.4083626e-01
 -1.6549705e-01
 -4.3508863e-01
 -3.8994938e-02
  6.0232669e-01
  1.2559534e+00
  2.6124051e-01
  1.2053733e+00
  5.7075357e-01
 -4.4220594e-01
  4.9023670e-01
 -1.1870484e+00
  3.8665166e-01
  1.5872806e+00
  5.8021810e-02
  1.8590218e-01
 -6.5531528e-01
  2.7451104e-01
  1.2948320e+00
  1.4513659e-01
 -5.2865809e-01
  2.2525853e-01
  2.0874611e-01
  1.1269869e-01
 -1.3411164e+00
  1.4060777e+00
  3.1132230e-01
 -3.1389460e-01
  1.1467419e+00
  2.6491931e-01
  1.2859312e+00
 -7.7509150e-02
 -9.0997177e-01
  7.9636747e-01
 -1.0298352e+00
  8.5521376e-01
  5.1756710e-01
 -5.2483982e-01
  1.9096707e-01
 -1.6010702e-01
 -6.5428209e-01
  3.2399413e-01
  6.9556445e-01
  8.6755675e-01
  3.4728998e-01
  1.9076806e-01
  2.6154926e-01
  1.0823280e+00
  4.9207982e-01
 -1.8180054e+00
  1.9676232e+00
  1.5865703e+00
  1.0976326e+00
 -1.3730769e+00
  3.9240390e-01
 -1.3621789e+00
  7.4304485e-01
 -1.4369060e-01
  1.3871057e-01
  1.0986222e+00
 -2.6470652e-02
 -6.5674448e-01
  7.9369523e-02
 -1.3256167e+00
 -1.9043265e-01
  1.0327328e+00
  4.7217053e-01
 -1.0703034e+00
  8.2387465e-01
  1.4809110e+00
 -7.9300903e-02
  3.2652193e-01
 -3.9877528e-01
 -2.4125680e-01
 -1.1864491e+00
 -9.3004382e-01
 -1.9764422e-01
  3.8266313e-01
 -1.1670724e+00
 -1.5600476e-01
  2.5576219e-01
 -1.3205318e+00
 -5.7532340e-01
 -8.4065413e-01
  2.0045009e+00
 -4.2371597e-02
 -7.0125592e-01
 -5.4426932e-01
 -8.4900957e-01
 -1.5881864e+00
  9.6256196e-02
 -6.6247982e-01
  9.1747707e-01
 -1.0618298e+00
 -2.4707070e-01
  4.3875995e-01
  1.2098989e+00
  3.3283994e-01
  8.1619412e-01
 -4.9863717e-01
  5.6583649e-01
 -9.1903675e-01
 -1.8327346e-01
  4.0849313e-02
 -2.0311520e-01
  6.1258499e-02
  7.4628901e-01
  8.0317587e-01
 -1.5134990e+00
  1.7616412e-01
  1.1952519e+00
  5.0868940e-01
  1.1742975e+00
  9.7376645e-01
 -5.3769749e-01
  7.2259015e-01
 -6.7010516e-01
  2.3612571e-01
 -5.2230972e-01
 -9.7330332e-01
  6.2781227e-01
 -3.2385048e-01
  2.3746004e-02
 -5.9451122e-02
 -9.2945635e-01
 -1.2031660e+00
 -4.0102080e-01
  7.8891981e-01
 -4.3256828e-01
  4.5777872e-01
 -1.7422900e-01
 -6.7287517e-01
  3.3766210e-01
  1.4977503e+00
  6.9875288e-01
 -4.6240479e-01
 -1.2041479e+00
 -3.0323318e-01
 -4.0027112e-01
  8.3714062e-01
  6.0759217e-01
 -1.9245372e+00
  1.5865003e+00
  2.8522813e-01
 -1.7199661e+00
  6.7807245e-01
 -5.9771782e-01
 -2.9303622e-01
 -2.0237403e-01
 -9.5907904e-02
  1.4853938e+00
 -3.0505556e-01
  1.1981421e+00
  6.1200831e-02
  1.1115172e+00
  6.0576218e-01
 -4.1356197e-01
  2.4220973e-01
 -3.3343232e-01
  1.3800056e+00
  8.6186796e-01
  1.9750887e-01
  5.2063966e-01
  2.1804456e-01
 -1.0618126e+00
 -3.1052860e-02
 -9.9064803e-01
  4.0334037e-01
  2.3180938e-01
 -1.5393465e+00
 -5.9661108e-01
  5.2650273e-01
 -1.4607677e+00
  1.7857565e+00
  1.8980971e-01
  1.6559194e+00
  2.1348159e-01
  1.1574663e+00
  6.8903506e-01
 -1.3281804e+00
 -5.6640744e-01
  9.2999917e-01
 -9.2101210e-01
 -1.1157292e+00
  8.1252992e-01
 -5.8252889e-01
  4.1136179e-02
 -1.5452595e-01
 -7.2988665e-01
  1.3776109e+00
  3.9173609e-01
 -1.3196252e-01
  5.7510293e-01
  6.7604393e-01
 -7.0521271e-01
 -6.8151201e-03
 -1.9371431e-01
  1.1307012e+00
  3.8939881e-01
 -1.2474354e-01
 -5.9839904e-01
 -3.1176656e-01
 -1.1461868e+00
  1.1325728e+00
 -4.1328806e-01
  2.6225665e-01
  3.6518168e-01
 -5.5234265e-01
  8.3777726e-01
 -4.7442205e-02
  1.0789917e+00
  4.8049068e-01
  3.2795349e-01
 -2.1250740e-01
  5.4900247e-01
 -6.2150580e-01
 -1.8095139e+00
 -8.1083161e-01
 -5.1172435e-01
 -2.9296151e-01
 -4.1386274e-01
 -1.2233304e-02
  5.5225676e-01
  3.3475679e-01
 -8.2254547e-01
 -5.1416087e-01
  4.1834738e-02
 -5.2939951e-01
  5.0054379e+00
  6.4270008e-01
  8.9351016e-01
  1.2552217e+00
  6.6280723e-01
 -1.6197996e-01
  1.1643957e+00
  7.9191941e-01
  6.9096720e-01
  7.8733386e-03
 -8.7113386e-01
  1.7648356e-01
  9.6454513e-01
  6.5592408e-01
 -3.9771408e-01
  1.2053707e+00
 -1.4294980e-01
 -1.1523865e+00
 -1.4224072e+00
  7.3833293e-01
  8.8841307e-01
 -2.3197092e-01
 -6.4422108e-02
  7.4180484e-02
 -1.8540233e-02
 -1.4131401e+00
  6.3375670e-01
 -1.2664233e+00
 -2.9172871e-01
 -3.7420112e-01
 -2.8219664e-01
 -8.1506097e-01
 -4.3342027e-01
  5.5534565e-01
  2.1794232e-02
 -2.5558951e-01
 -4.7894251e-01
 -6.5100449e-01
  5.8696431e-01
 -3.7265632e-01
 -7.7954251e-01
 -7.1963841e-01
 -1.2750125e-01
  6.6661042e-01
 -7.8535402e-01
  5.2522827e-02
 -5.3966206e-01
  1.1444980e+00
 -1.0017982e+00
 -1.4869239e+00
 -4.5284337e-01
 -7.5259823e-01
 -1.2918518e+00
  9.7054023e-01
  1.0990355e+00
 -9.5626926e-01
  2.9673758e-01
 -1.1504151e+00
 -1.3104377e+00
  8.5965537e-02
  5.7139337e-02
  6.3559747e-01
  3.3182117e-01
  1.8792564e-02
 -4.4163069e-01
 -7.7664989e-01
  1.6946841e+00
 -4.2028886e-01
 -1.0448685e-01
  3.2584837e-01
  8.6333609e-01
 -8.3392572e-01
  2.8739575e-01
  3.9492941e-01
 -7.1819490e-01
 -2.4179545e-01
  1.1518359e-01
  8.4002137e-01
 -1.7941934e-01
  6.9717050e-01
 -3.8735467e-01
  8.1290108e-01
  1.7471247e-03
  1.0083017e+00
 -7.1420145e-01
 -1.7937133e-01
  6.3193664e-03
 -4.2091256e-01
 -3.0288070e-01
 -6.2130302e-01
 -1.2857724e+00
 -1.1090045e+00
  6.7299962e-01
  7.4377644e-01
 -7.9627806e-01
 -9.5125860e-01
  3.4816097e-02
 -9.1499075e-02
  6.3116455e-01
 -2.3923713e-01
 -6.3459015e-01
  5.3679246e-01
 -6.1876661e-01
 -3.4762508e-01
  6.7651671e-01
 -2.6719030e-02
 -8.0243427e-01
 -8.4710830e-01
  1.9308831e-01
 -7.1767974e-01
  1.5297026e-02
 -1.1053641e+00
 -6.7661136e-01
  1.0161401e-01
  1.5326187e-01
 -3.6894390e-01
  2.1013750e-01
 -4.1080024e-02
  6.6493988e-01
  4.9061704e-01
 -1.0189348e+00
 -3.8559994e-01
 -7.1730977e-01
 -2.5172713e-01
 -6.1264074e-01
 -9.0708035e-01
  4.2036849e-01
  1.3039224e-01
 -9.8514956e-01
 -1.2931448e+00
 -6.4551789e-01
  6.0001377e-02
  1.6192377e-01
  3.8730413e-01
  4.6533808e-01
  1.2752967e+00
  4.5863947e-01
 -8.7586433e-01
  5.6570292e-01
 -9.1748559e-01
  1.0695112e+00
 -2.7768862e-02
  6.8772393e-01
 -4.9525443e-02
  6.0501069e-01
  4.0064207e-01
 -8.0000190e-03
 -1.5107455e+00
 -4.1742438e-01
  3.1288692e-01
  6.5643793e-01
  5.2281231e-01
  1.8614255e-01
 -2.4778651e-02
  1.5277742e+00
  1.0980637e+00
 -9.0973485e-01
  1.1247281e+00
  9.0676773e-01
 -1.4438401e+00
  7.6052284e-01
  1.3429918e+00
  6.9418997e-01
  7.5089532e-01
  7.1107966e-01
  2.5818741e-01
  5.6937242e-01
  6.5546982e-02
 -4.7771428e-03
  1.1453555e+00
  6.0574889e-01
  3.1324914e-01
 -1.4825001e+00
 -1.0853715e-01
 -1.4428711e+00
  1.0582927e+00
 -4.6779388e-03
  8.4697592e-01
 -4.4941092e-01
  3.3021438e-01
  2.0418976e-01
 -1.2959675e+00
  1.3922261e+00
  3.1372562e-02
  3.2530062e-02
 -6.7479581e-01
  4.3043688e-01
  7.9925674e-01
 -3.4191620e-01
 -2.2462854e-01
  3.8893250e-01
  7.7613629e-02
  1.3612859e+00
 -1.4099820e-01
  5.1230127e-01
  9.7371012e-01
 -6.8181902e-01
  3.8088953e-01
 -3.4446061e-01
  5.4636222e-01
 -1.0816437e+00
 -2.0389071e-01
 -5.9509575e-01
  9.6752650e-01
  5.9997004e-01
 -7.3290503e-01
 -5.8897823e-01
  1.1713886e+00
 -8.7276652e-02
  3.9960590e-01
  1.9771004e-01
 -1.2183673e+00
 -6.5701360e-01
  8.4339988e-01
  1.2835245e+00
 -1.0752859e+00
 -1.4834008e-01
 -2.4475249e-02
 -2.8770423e-01
  1.3957782e+00
 -8.7156278e-01
 -2.0999732e+00
  6.6526598e-01
  5.4147035e-01
  1.7492147e-01
 -1.5289118e+00
  1.0701946e+00
 -1.3700470e+00
  1.5101100e+00
  1.2664633e+00
  4.0646695e-02
  5.4553616e-01
 -4.4937256e-01
  8.5225433e-01
 -3.8892621e-01
  1.2190623e+00
  1.4062208e+00
 -2.1157632e+00
 -7.7785216e-02
  2.1727243e-01
 -4.1895005e-01
 -6.4232278e-01
  1.5337694e-01
 -1.4796625e+00
  6.0114384e-01
  3.0280122e-01
  5.8920676e-01
  2.5465810e-01
 -1.8402729e-02
 -1.4161475e+00
  2.1353056e-01
 -7.3708332e-01
 -7.3715270e-01
  1.2638082e-01
  9.1544425e-01
 -4.8493326e-01
 -5.9673496e-02
  1.7126492e+00
  3.2922086e-01
 -1.1644697e+00
  7.5294852e-01
 -7.9344189e-01
 -6.3720667e-01
  5.5993193e-01
 -6.8422014e-01
 -4.5426512e-01
 -6.2289447e-01
 -9.6522234e-02
  5.6774437e-01
  5.7783210e-01
 -3.0559388e-01
 -6.2461444e-03
  4.5432937e-01
  8.5623717e-01
 -9.0116757e-01
 -1.7133927e-01
 -5.2063262e-01
 -5.4274086e-02
 -7.2034413e-01
  3.4873435e-01
 -3.3073649e-01
 -9.1329671e-02
 -1.3060983e-01
  1.4116156e-01
  5.3178030e-01
  3.8386121e-01
 -9.9562818e-01
 -3.9612210e-01
 -5.5777466e-01
  1.9405600e-01
 -6.3473821e-02
  8.9283192e-01
  2.6414451e-01
 -8.4279186e-01
 -1.2966181e+00
 -5.1973939e-01
  8.9762396e-01
  3.3078587e-01
  3.8779467e-01
  3.4164700e-01
  1.2520580e-01
 -1.1194909e+00
  4.5558855e-01
 -2.0093665e+00
  2.5521570e-01
  7.4394083e-01
  2.1436669e-01
 -6.4729816e-01
  9.5855963e-01
 -5.0523441e-02
 -1.0559510e+00
  1.0283337e+00
 -7.6797503e-01
 -2.0205006e-01
  1.6021508e+00
  1.3244159e+00
 -7.0485842e-01
 -3.1724653e-01
  6.2636837e-02
  6.7233127e-01
  9.6125752e-01
 -5.2041489e-01
 -5.2314252e-01
  2.5714483e-02
 -1.1273275e-01
 -7.1073943e-01
  1.3026632e-01
 -1.4552959e+00
 -1.6630219e-01
  9.1101551e-01
 -5.2661920e-01
  1.1038250e+00
 -2.8563488e-01
  7.9336828e-01
  6.2747389e-01
 -5.4427946e-01
 -1.7868624e+00
 -6.2791163e-01
  1.0845301e+00
 -1.0948625e+00
 -1.2118258e-01
 -4.3075886e-01
  1.3110857e+00
  8.2005602e-01
 -1.8439375e-01
  1.4085433e+00
  3.3201972e-01
  3.4560955e-01
  1.2049495e-01
  8.6847556e-01
 -8.6428958e-01
 -7.2124958e-02
 -3.1567106e-01
  5.3221703e-01
 -1.3357736e+00
 -1.9210687e-01
  1.0972393e+00
 -2.5371251e-01
 -6.5496981e-01
 -4.3767914e-01
  2.7521604e-01
  1.7445830e-01
  1.7445830e-01
  1.7445830e-01
  1.7445830e-01
  1.7445830e-01
  3.1867151e+00
  3.1867151e+00
  3.1867151e+00
  3.1867151e+00
  3.1867151e+00
  1.6190689e+00
  1.6190689e+00
  1.6190689e+00
  1.6190689e+00
  1.6190689e+00
  6.9877112e-01
  6.9877112e-01
  6.9877112e-01
  6.9877112e-01
  6.9877112e-01
  2.2210346e-01
  2.2210346e-01
  2.2210346e-01
  2.2210346e-01
  2.2210346e-01
