nep4 2 Te Pb
cutoff 8.0 4.0 100 30
n_max 4 4
basis_size 8 8
l_max 4 0 0
ANN 30 0
 -3.4019858e-01
  4.0511582e-02
 -2.2668734e-02
 -3.3168197e-02
  4.6746461e-03
 -2.5353277e-01
 -2.4024045e-01
 -1.4934810e-01
  3.8737610e-01
 -7.1578252e-01
 -5.9945703e-01
 -2.5486577e-01
  8.1537026e-01
  1.4982598e-01
  1.5777651e-02
  2.0771941e-02
 -8.5710399e-02
  5.4568624e-01
 -4.7307264e-02
 -1.3546421e-01
 -1.5641010e-01
  3.4191772e-01
  1.0797945e-01
 -2.4811693e-01
 -2.2326055e-01
  1.2241456e-01
  2.7815199e-01
 -1.8191648e-01
 -1.3397539e-01
  5.4697149e-02
  2.1849915e-01
  9.9650934e-02
  2.2558320e-01
 -6.5300949e-02
  1.3866335e-01
  1.7988211e-01
  6.8140388e-01
 -1.2010146e-01
 -1.8770586e-01
 -5.5177383e-02
 -7.4164182e-02
  5.0177068e-02
 -2.5076518e-02
 -6.1316174e-02
 -1.8403414e-01
  1.4181226e-01
  9.8341458e-02
 -1.1666537e-01
 -1.0735118e-01
 -2.2453091e-03
  2.8336430e-01
 -1.9250233e-01
  2.7059981e-01
  4.1075710e-02
 -1.4314003e-01
 -6.5605998e-02
  4.4936630e-01
  1.7233850e-01
 -3.0033383e-01
  7.1731859e-01
  8.7750137e-01
  1.8607946e-01
 -6.8180162e-01
  3.6223912e-01
  2.2762439e-01
  1.7905745e-01
 -2.3627856e-01
  1.9146839e-01
  1.1152378e-01
  2.4043120e-01
 -2.3055734e-01
  2.0713419e-01
  1.2439368e-01
  2.2016801e-01
 -5.1704878e-01
  3.5726625e-02
  6.0812615e-02
 -7.9559252e-02
  1.2688887e-01
 -7.8669704e-02
  1.1238659e-01
  4.9149531e-01
 -8.0362323e-04
 -3.2537955e-01
  8.0038631e-01
  7.1221679e-01
  5.9021819e-01
 -6.3615942e-01
  8.2418218e-02
  3.4407365e-01
  3.1402689e-01
 -5.5909123e-02
 -3.6441350e-01
  1.6318309e-01
  1.6276872e-01
  1.0990701e-02
 -2.4961869e-01
 -2.1763019e-01
  1.8983059e-01
  1.2359445e-01
  1.7647645e-01
  1.8711725e-01
 -2.8023091e-01
  6.5857016e-02
  2.6852444e-01
 -2.2255456e-01
 -2.4808699e-01
 -9.7937780e-03
  1.9621561e-01
 -1.6139742e-02
 -2.7189097e-01
  2.5239268e-01
  2.9700467e-01
 -2.2942387e-02
 -1.7051212e-01
 -1.6844019e-01
 -5.4260711e-03
 -1.3477699e-01
  2.2614349e-02
 -2.8072613e-01
  2.8533894e-01
 -1.9773476e-01
 -1.6206393e-01
 -1.5920033e-01
  2.3472069e-01
  1.3972390e-01
  2.2576407e-02
  3.5704840e-02
  6.4541817e-02
 -3.4478907e-02
  4.0849414e-01
  4.0747625e-01
  4.5517672e-02
 -3.9503652e-01
  8.9356345e-01
  4.0559876e-01
  3.3165008e-01
 -7.8432959e-01
 -3.8108628e-02
  2.9063638e-02
  4.1068163e-02
 -1.3541578e-01
 -2.7336171e-01
  1.7097476e-01
  2.1814737e-02
  3.8713938e-01
 -4.2016315e-01
 -3.9418986e-01
  7.1900442e-02
  8.3507091e-02
  1.2346327e-01
  2.4126652e-01
  1.4518820e-02
  1.0931627e-01
  2.2779119e-01
 -5.8003612e-02
 -1.3316400e-01
 -2.7008769e-01
  1.2353136e-01
 -3.7572050e-01
 -1.9851958e-02
 -1.1749972e-01
  3.1555870e-01
  2.6193756e-01
 -1.5893161e-01
 -1.1550757e-01
  5.7670109e-02
 -1.2156834e-02
 -4.6327263e-02
 -2.8682446e-01
  6.0780283e-02
  2.6234499e-01
  4.0449392e-02
 -3.5499248e-01
 -1.0677016e-01
  1.7666160e-01
 -3.8796429e-02
 -1.3536456e-01
 -1.4595151e-01
  3.4641832e-02
 -4.9928296e-02
 -4.2403153e-01
  1.3634330e-01
 -1.8851284e-02
 -6.4623910e-01
 -4.1445708e-01
 -4.3404099e-01
  2.8100434e-01
 -1.6218701e-01
 -1.4851534e-01
 -2.4119360e-02
  9.6400142e-02
  2.4565788e-01
 -3.1593896e-02
 -1.8123105e-01
 -2.0632046e-01
 -5.3172659e-02
  1.7614821e-01
 -1.9278404e-01
  1.0674848e-01
  2.1019913e-01
  1.2133677e-01
 -1.4869089e-01
  2.4773292e-02
  5.7449136e-02
  3.4268156e-02
 -1.0382985e-01
 -1.7245632e-01
  4.9614683e-03
 -4.6670994e-01
 -8.1532314e-02
 -1.9932887e-01
  5.1939791e-01
 -3.5168428e-02
 -2.5256161e-02
  6.2261257e-02
  1.5166244e-01
  4.6609941e-01
 -1.2908043e-01
 -8.7687790e-02
 -1.3626868e-01
  2.3051418e-01
  1.5190537e-01
 -1.8103702e-01
  2.1830274e-02
  1.6976929e-01
 -2.7027941e-01
  1.0280181e-01
  1.4745724e-01
 -3.3243395e-02
  6.9612563e-02
 -3.0535590e-02
 -1.2707244e-02
 -2.8162190e-01
  7.4358714e-01
  2.3662214e-01
  2.1133888e-01
 -6.5049070e-01
  1.9665433e-01
  3.1641534e-01
  8.0557898e-02
 -1.2937531e-01
 -5.7122905e-02
  6.4219937e-02
  1.0914250e-01
 -6.0360633e-02
  3.5352025e-02
  3.4283092e-03
  3.7686041e-01
 -3.1012416e-01
  2.2091736e-01
 -1.1276341e-01
  1.0480656e-01
  7.4608019e-03
  2.0812067e-01
  1.1963519e-01
 -9.4651058e-02
  1.3723318e-01
  6.2639110e-02
 -5.5013692e-01
 -5.6911635e-01
 -6.6821501e-02
  3.6413959e-01
  2.2894678e-01
  2.4192587e-03
  2.0940373e-02
 -1.8762311e-01
  3.6319181e-01
  2.6039770e-02
 -1.2036849e-01
 -1.0450429e-01
  3.1404349e-01
  3.6876187e-01
 -1.1422464e-01
 -5.5935632e-02
 -4.2839155e-02
  2.8566886e-02
 -1.1293261e-01
 -1.6862221e-01
 -7.1722232e-02
 -3.7011251e-01
 -1.5694377e-01
  2.5444850e-01
  1.3314052e-03
 -3.1502917e-01
 -5.5296493e-01
 -2.3798855e-01
  2.9163894e-01
 -1.0679284e-01
 -2.5202256e-01
 -1.4824063e-01
  2.8964692e-01
 -8.7414598e-03
 -2.8352180e-01
  2.1111001e-01
 -1.2494820e-01
  1.9347380e-01
  2.3690201e-01
 -1.0570285e-01
  1.1931349e-01
 -7.7355415e-02
 -7.0462242e-02
  6.6755645e-02
  7.9704158e-02
 -8.8467978e-02
 -3.7373874e-02
  4.0555778e-01
 -2.9538516e-02
 -1.7448080e-01
  7.0200342e-01
  6.0174141e-02
  2.9956502e-01
 -6.2206775e-01
 -4.3846375e-01
 -1.6268390e-01
 -7.8356672e-05
  2.6800576e-01
 -7.9804885e-01
  4.6839353e-02
  9.0034530e-02
  4.4374645e-01
 -6.8181854e-01
 -4.0672681e-01
  1.3552361e-02
  5.3545111e-01
 -6.5773644e-02
 -1.6215824e-01
  1.3753588e-01
  1.2756068e-02
 -2.2527876e-01
  3.4051355e-02
 -1.5812205e-02
 -4.9751684e-02
 -2.2804603e-01
  2.2766332e-01
 -8.0552265e-02
 -1.8092470e-02
  7.7467258e-03
  2.2286028e-01
 -4.3339945e-02
  1.6563468e-01
 -2.4084541e-01
  1.4030498e-01
  2.1614604e-01
  5.0786208e-02
  1.5986301e-02
 -7.0921741e-02
  2.2040993e-01
 -3.5836577e-02
  1.0329925e-02
  1.1039910e-01
 -9.2072353e-02
 -2.5410396e-01
 -8.8791698e-02
 -7.2628804e-02
  9.2131630e-02
  3.0969527e-01
  1.0757625e-01
 -2.8027034e-01
  9.8488307e-01
  4.7841942e-01
  4.7824821e-01
 -5.1712269e-01
 -2.1870372e-01
  1.8212313e-02
  3.4663480e-02
  8.6338271e-04
 -4.0295258e-01
 -3.8072503e-01
  1.5667407e-01
  3.8977164e-01
 -5.3999263e-01
 -3.5441446e-01
 -7.3311254e-02
  1.0603821e-01
  1.0302101e-01
 -1.0615807e-01
  2.3239110e-02
  4.5110043e-02
 -1.9977279e-01
 -1.5414730e-01
 -6.6498540e-02
  1.6953343e-01
 -1.5369530e-01
  5.6697595e-01
  3.1447381e-01
  3.3550018e-01
 -4.0674919e-01
 -2.7611363e-01
 -5.9160445e-02
 -5.9891457e-04
 -1.9085409e-01
 -7.3655926e-02
  2.6885119e-01
  2.3198934e-02
  1.8296039e-02
 -3.3971956e-01
 -1.8993503e-01
  9.5492259e-02
  1.6923496e-01
  1.4057393e-01
  3.6751747e-01
 -1.2409726e-01
 -2.7763534e-01
  2.0613888e-01
 -4.7685292e-02
 -3.1288239e-01
  6.0268309e-02
  2.8606156e-02
 -1.7116012e-01
 -2.2055669e-01
  2.8878140e-01
 -4.1676797e-02
 -5.6465011e-02
 -3.3478770e-02
 -1.8527873e-01
  1.9778225e-01
 -1.0020434e-01
 -9.7313769e-02
 -4.4236618e-01
  1.0893244e-02
  1.5016648e-01
  1.1511288e-01
 -3.2286960e-01
 -8.2385816e-02
 -2.8669378e-01
 -1.4736742e-01
  1.1459069e-01
  1.4110650e-01
  8.0374770e-02
 -1.2191591e-01
 -4.2973455e-02
 -7.7817589e-02
  2.2003993e-01
 -4.0561978e-02
 -6.3269198e-01
 -2.0955507e-02
 -5.8155291e-02
 -3.1082791e-01
  5.5347200e-02
 -5.4401472e-02
 -9.3443319e-03
 -3.5608000e-01
  4.3795651e-01
  2.3305815e-01
  2.6152533e-02
 -9.7379535e-02
 -1.9522986e-01
  1.1880573e-02
 -2.3583656e-02
 -1.4086404e-01
  1.6374706e-01
 -3.3840123e-01
 -1.4282972e-01
 -5.0371565e-02
  3.5446632e-01
  4.4931296e-01
  8.9635605e-01
 -2.4511504e-01
 -1.2073418e-01
 -1.2532820e-01
  5.2002966e-01
  9.9156208e-02
  3.3083614e-02
  2.8348064e-01
  1.3468586e-01
 -1.7163223e-01
 -1.2181418e-01
  2.5476620e-01
 -7.2175160e-02
  2.5669047e-01
 -2.4565774e-01
  1.7207390e-01
 -3.1111452e-01
  1.1458362e-02
 -7.2493024e-02
  9.7320445e-02
 -2.6934402e-02
 -5.6871690e-02
  1.1625791e-01
 -2.0938943e-01
 -2.4813804e-01
 -1.5686402e-01
  1.0507077e-01
 -4.9142969e-01
 -3.7068024e-01
 -2.4603827e-01
  5.4512930e-01
 -2.1016583e-02
  1.4958477e-01
 -9.7883604e-03
  1.7195627e-01
  4.2493865e-01
 -1.3162935e-01
 -1.2804919e-01
 -1.5751188e-01
  5.7855640e-02
  4.8553474e-02
 -1.2684239e-01
 -8.6431369e-02
 -2.6411527e-01
 -2.2432248e-01
  1.3097055e-01
 -9.1957778e-02
 -2.5616437e-02
 -6.8141878e-02
 -2.4964724e-02
  2.7858591e-01
 -7.2926879e-03
  5.9357864e-01
  2.9773021e-01
  2.0932490e-01
 -3.5581455e-01
 -1.5290435e-01
  5.9388727e-02
 -2.2419866e-02
 -2.0674754e-02
 -4.8111624e-01
 -1.4023103e-01
  9.2880860e-02
  1.0053750e-01
 -9.2863560e-02
  2.7118269e-02
  4.9533963e-02
 -1.8035576e-01
 -1.8191008e-01
 -1.2085049e-01
  2.1760237e-01
 -6.1018988e-03
 -3.0557211e-02
 -1.0509469e-01
  1.6522913e-01
 -9.3471646e-02
 -1.2393638e-01
  2.9498404e-01
  1.6986407e-01
  3.3583462e-02
 -3.0682576e-01
  2.3275370e-02
  6.4695753e-02
  1.9829239e-01
  2.7817348e-02
 -5.1234227e-01
 -1.8580224e-01
 -2.4905562e-01
  1.5859874e-02
 -3.8439080e-01
 -3.5101405e-01
  2.1266960e-01
  1.7787078e-01
 -5.5207100e-02
 -1.7422730e-02
  1.0738899e-01
  1.7805593e-02
 -1.6608246e-01
  1.5810153e-01
  2.3027089e-01
 -1.1728880e-01
 -1.8430583e-01
  2.6917639e-01
  2.5600064e-01
  2.1920949e-01
 -3.0556798e-02
  4.7515586e-02
 -1.6592372e-02
  1.8919909e-01
  1.2286911e-01
  7.3087290e-02
  1.1668742e-01
  1.7437206e-01
 -1.3347577e-01
 -1.7763039e-01
 -1.1921401e-01
  2.1553084e-01
  3.4594002e-01
  1.5990721e-01
 -4.7964782e-02
 -8.7730614e-03
  1.6527317e-04
 -1.9102743e-01
  6.3715853e-02
  2.1706380e-01
  2.1057019e-01
 -1.8340968e-01
  3.3200872e-01
  2.4358740e-01
  3.5321537e-01
 -2.5120914e-01
 -8.7849684e-02
  2.2515014e-02
  1.5065204e-01
  1.9417863e-02
 -2.9919451e-01
  2.0405786e-02
  2.9316232e-01
  1.5863079e-01
 -8.9947402e-02
 -2.5992858e-01
  2.7130780e-01
 -7.8533925e-02
  5.0202894e-01
 -1.4132516e-01
  7.5722285e-02
 -2.7518896e-02
 -4.4929788e-02
  1.7851499e-01
  4.1865936e-01
  9.1544127e-01
 -8.0769104e-01
  1.4791766e+00
  1.4148841e+00
  6.2590677e-01
 -1.5790802e+00
  6.8988001e-01
  5.0750870e-01
  8.9247209e-01
 -5.6308216e-01
 -1.9779967e-01
  3.6209844e-02
  9.7076768e-01
 -4.6427658e-01
  5.3268576e-01
  2.5143021e-01
  7.1643049e-01
 -6.3536757e-01
  5.6401670e-02
 -1.4634152e-01
  4.6594460e-02
  1.6566288e-01
  1.0367669e-01
  2.1895742e-01
 -3.1280905e-02
 -1.2939024e-01
 -1.3637489e-01
  2.4954887e-01
  1.2755939e-01
  4.0279391e-01
 -1.7751004e-01
 -5.5165533e-02
 -7.3121093e-02
  1.1864155e-01
 -3.5026293e-02
 -2.9010436e-01
  1.3111441e-01
 -2.5668493e-01
  1.5527786e-01
  1.1284723e-01
 -1.2639095e-01
  1.9827670e-01
 -1.3824013e-01
 -1.2764113e-01
  1.0670325e-01
  2.4781412e-01
 -4.8729468e-02
  1.8691290e-02
 -1.0258688e-01
 -3.4747076e-01
  2.8433902e-02
  9.7524501e-02
 -6.6530180e-01
 -3.0626667e-01
 -3.0628991e-01
  5.0486070e-01
  2.6677656e-01
 -9.8715711e-04
  1.9848524e-02
  2.7033038e-02
  5.0304180e-01
 -4.1747410e-02
  1.4356451e-02
 -2.7608833e-01
  4.7977906e-01
  4.2911708e-01
  8.6284332e-02
 -3.3387080e-01
 -8.2292154e-02
  6.5121129e-02
 -1.1579397e-01
  2.4096174e-02
  2.1114525e-01
 -6.6765778e-02
 -1.2670442e-01
 -5.4477829e-02
  1.9388564e-01
 -3.3789149e-01
 -2.1989727e-01
 -2.5909591e-01
  1.0444544e-01
 -1.5035345e-01
 -3.2979250e-03
 -1.7841111e-01
  6.0553566e-02
  2.3086023e-01
  2.5853449e-02
 -7.6897629e-02
 -2.6386971e-02
  3.2438126e-01
  2.1634832e-01
 -1.0037662e-01
 -9.8616771e-02
  2.0099801e-01
 -3.7881799e-02
  1.9374855e-02
  2.7619801e-02
  1.2729801e-01
 -2.3743074e-01
 -3.1745350e-01
  1.0373807e-01
  2.6422057e-01
 -6.9729435e-01
 -2.3921487e-01
 -3.9096665e-01
  3.8994402e-01
 -5.5530511e-02
 -1.3945992e-01
 -2.4569589e-01
  2.0323338e-01
  1.6001692e-01
 -7.4010730e-02
 -4.8776504e-02
 -2.9275045e-01
  3.9537615e-01
  3.3599669e-01
 -8.0778271e-02
  1.7838003e-02
 -2.1219240e-01
  9.7890951e-02
 -1.5908450e-01
  8.6577311e-02
 -1.8826236e-01
 -4.2216167e-02
  4.0675346e-02
 -2.7186814e-01
  8.7380810e-03
  7.9958123e-01
  3.2169044e-01
  2.3350044e-01
 -4.1293699e-01
 -1.8676163e-01
 -1.0625376e-01
  1.1559739e-01
  1.6964906e-01
 -5.0993866e-01
  1.0277904e-01
 -1.4630891e-01
  1.1860713e-01
 -3.7443510e-01
 -3.6058444e-01
 -1.5123498e-01
  2.4652661e-01
 -2.9422348e-02
 -3.0763471e-01
 -3.2483407e-03
  2.8779322e-02
 -1.1718097e-01
  1.1921071e-01
 -1.7181749e-02
  7.2257809e-02
  1.1279706e-01
  1.6186336e-01
  4.4548769e-02
 -9.3731180e-02
 -1.7547440e-02
  2.1567626e-01
  5.3787049e-02
 -1.8910997e-02
 -4.7215372e-01
 -6.3928038e-02
 -1.4428194e-01
 -2.0308623e-01
  4.1027390e-03
  1.0896909e-01
 -5.9471942e-02
  8.0712460e-02
 -4.5701407e-02
 -3.8571339e-03
  1.3968897e-01
 -1.9883941e-01
 -1.0958085e-01
 -4.7210746e-02
 -3.9739769e-02
 -2.6256993e-01
  7.5198308e-02
  9.8383650e-02
 -9.5807768e-02
  1.6264594e-01
 -2.3617227e-01
 -2.1850467e-02
 -2.1099594e-01
  9.0316966e-02
 -9.7603627e-02
 -8.8981777e-02
  1.0981821e-01
  2.6786959e-01
  6.8337925e-02
  1.5695579e-01
 -9.2598304e-02
  1.0650004e-01
 -1.3746622e-01
 -6.4912178e-02
  1.3417280e-01
  5.9069298e-02
  1.4001866e-01
  1.2692818e-01
  1.2761493e-01
  2.5182146e-01
 -7.2085992e-02
 -2.6009348e-01
 -1.6277060e-01
  7.0978507e-02
 -5.4551370e-02
  8.5130803e-02
  2.2854915e-01
 -1.4396754e-01
 -2.5490865e-02
  4.6369344e-01
  1.6123439e-01
  2.6318867e-02
 -5.0068714e-02
  6.8484217e-01
 -3.7799186e-01
 -5.8668447e-01
  2.4950510e-01
  3.7647766e-01
 -2.3298039e-01
  2.3537433e-02
  1.6245767e-01
  5.3610170e-01
 -2.4265176e-01
 -2.3573553e-02
  1.8400548e-02
  1.4082356e-01
 -2.1281584e-01
  3.0043185e-01
 -1.9098334e-01
 -1.2956408e-01
  1.9518897e-01
 -2.6503457e-02
  8.6141922e-02
 -5.0347908e-03
 -6.1979705e-01
 -3.6878597e-02
 -1.8186651e-01
  1.5923265e-01
  1.2678711e-01
  1.8830670e-01
 -2.1789062e-01
  3.2782342e-02
 -2.6412666e-01
  8.1126057e-02
  8.0007305e-03
 -8.9276701e-02
 -2.0735565e-01
  7.2417535e-02
  5.9482560e-02
  1.3490799e-01
 -6.8752962e-01
 -5.6372833e-01
  2.1610999e-01
  1.9468662e-01
 -4.4120446e-02
  9.2396028e-02
 -2.3415957e-01
 -9.7650953e-02
  2.5068450e-01
 -8.9011848e-02
  1.9344614e-01
  2.0009333e-01
  4.7874697e-02
 -1.1783900e-01
  1.1269137e-01
 -1.3380688e-01
 -1.5258121e-01
  2.7632790e-03
  1.5911201e-01
  1.5127729e-01
 -8.6237617e-02
  8.6769991e-02
 -1.2069936e-02
 -1.2200167e-01
 -1.1319163e-01
 -1.8683206e-01
  3.0362058e-01
 -2.9363666e-02
 -2.2129054e-01
 -2.0251267e-01
 -2.2066098e-02
  1.6196711e-01
 -7.3364981e-02
 -4.0376820e-02
  8.6993396e-01
  3.2773685e-01
  2.8122503e-01
 -5.2596247e-01
  1.8369688e-02
 -2.5663218e-01
  1.8437286e-01
  6.0380515e-02
  4.6733230e-01
 -2.6048279e-01
 -2.6627190e-02
 -1.2916805e-01
  5.3576779e-01
  7.7232718e-02
  4.3971274e-02
  7.7020854e-02
  7.7096677e-01
  7.1532446e-01
 -1.4446998e-01
 -4.8153040e-01
 -3.5025358e-01
 -2.0860866e-01
  3.1153604e-01
  4.2062026e-01
  1.1291149e-03
 -8.3514422e-02
  1.5573375e-01
  6.3274905e-02
 -1.1507937e-02
 -1.5282330e-01
  4.8011608e-02
  1.2391224e-01
  3.1756196e-02
  8.8367708e-02
 -1.6810530e-01
 -1.5560666e-01
  1.2644643e-01
  1.2032251e-02
  8.1173526e-03
 -8.9594088e-02
  5.5966984e-02
  3.9780207e-02
  1.1955254e-01
 -8.2107194e-02
 -1.4627451e-02
 -8.9097962e-02
  3.7324771e-02
 -5.0959250e-05
  2.7279395e-01
 -3.1462038e-01
 -1.1121954e-01
 -4.6351585e-01
  1.0515235e-01
  3.3362582e-01
  1.0446081e-01
 -1.9317020e-01
 -1.8654720e-01
  4.3101162e-02
 -1.5580723e-01
 -1.2299613e-01
  1.4286447e-01
 -7.8900501e-02
 -9.8681070e-02
 -1.4610142e-01
  1.1222512e-01
 -5.8063108e-02
 -1.1042734e-01
 -1.6690762e-01
  9.3252607e-02
  1.9064195e-01
 -7.6205097e-02
 -1.9300629e-01
  3.4915787e-01
  3.5946658e-01
 -1.7775835e-01
  1.9754680e-01
  1.7125165e-01
 -1.8317249e-01
 -5.3388961e-02
 -1.5073054e-01
 -1.5821646e-01
  8.6468026e-02
  8.2564227e-02
 -1.4103587e-02
 -4.1358169e-02
 -8.6706616e-02
 -9.7008385e-02
 -2.6374286e-02
 -2.5494149e-02
  2.6634870e-02
 -1.1283758e-01
 -3.5672178e-03
 -1.8644817e-01
  5.6676973e-02
  1.6247532e-01
  3.9462364e-01
  3.1907710e-01
 -4.5063213e-01
 -3.3843946e-01
  4.3398235e-02
  2.1573301e-02
 -2.0148225e-02
 -3.3653252e-02
 -9.7379591e-03
 -1.2697144e-01
 -1.0099465e-01
  8.6726144e-02
 -1.0734852e-01
 -5.2964784e-02
  3.7743155e-02
 -9.2675418e-02
 -4.9517979e-03
 -7.0870444e-02
  1.2772617e-01
 -1.5868006e-02
 -1.4838092e-01
  1.3258396e-01
  3.0602960e-02
 -9.8586492e-02
 -1.6388661e-01
 -1.3830516e-01
  2.7007562e-01
  8.0238372e-02
  6.2718064e-02
 -9.2393912e-02
 -7.1524566e-01
 -2.5454432e-01
  3.0448449e-01
  3.5840273e-01
  1.2026757e-01
  4.8620615e-02
 -6.2334683e-02
  2.2976678e-02
  3.1904783e-02
 -1.0632816e-02
 -1.3213228e-01
  4.0241913e-03
  4.2493179e-02
  5.4966412e-02
 -1.5825635e-01
 -1.8765387e-01
 -3.2229918e-01
 -1.8674828e-01
  5.4555708e-01
  6.0898241e-02
 -8.2358131e-03
  5.1548429e-02
 -7.2437979e-02
 -6.1509065e-02
 -2.4209963e-03
 -5.2326453e-01
 -1.3146672e-01
  2.2430132e-01
  2.7876109e-01
  1.8417285e-01
  7.0437267e-02
  6.0196534e-02
  8.1810750e-02
  5.8523528e-02
  8.7061837e-02
  1.6868503e-01
  2.8303623e-02
 -1.5563483e-02
 -9.0673082e-02
 -1.5729234e-01
 -4.6174023e-02
 -4.7457653e-01
 -1.9145344e-01
  4.3848082e-01
 -1.3391504e-01
  2.7100378e-01
  4.6417379e-01
 -4.5360222e-02
 -3.7158248e-01
  2.5641134e-01
 -2.8979125e-02
  2.0778725e-01
  1.9748856e-01
 -1.4298387e-01
  5.5334371e-02
  1.0556003e-01
 -7.0695154e-02
  1.1146772e-02
 -1.8178441e-01
  2.2631331e-01
  1.2225769e-01
 -2.0134288e-01
  1.0433746e-01
  2.8747084e-02
 -5.5846971e-02
  2.8899640e-02
  1.2848783e-01
  6.6361077e-02
  2.5429878e-01
 -2.3716293e-02
 -1.3934273e-01
  1.8911947e-01
  4.1443508e-02
  4.0533684e-02
 -4.3638662e-02
 -3.7049490e-01
 -1.3057920e-01
 -2.8728673e-01
  1.9369981e-01
  2.8496072e-01
  3.8491067e-02
 -2.3392639e-01
 -1.3258800e-01
  7.0242375e-02
  7.1102373e-02
  5.7025395e-02
  8.6569227e-02
  4.0524948e-02
  2.1325526e-01
 -1.7032978e-01
 -1.5486863e-01
 -2.6668730e-01
 -2.9709980e-01
  1.2284300e-01
 -5.6793630e-02
  8.3918404e-03
 -3.8373145e-01
  6.0481589e-02
  2.2375128e-01
 -2.3856156e-01
  2.2922523e-01
 -2.6616409e-01
 -1.6983021e-02
  7.9120994e-02
  7.4777730e-02
 -1.5509173e-01
  5.9771884e-02
  4.8220525e-03
 -1.3267454e-02
 -1.6693705e-01
  2.2999819e-02
 -2.2572227e-02
  6.6915698e-02
  6.4516895e-02
 -1.3360642e-01
 -2.1764891e-02
  7.8047805e-02
 -1.7824560e-01
 -1.9393538e-01
  6.6773079e-02
 -7.0962623e-02
 -4.4490039e-01
  1.0624888e-01
  3.2431868e-01
 -3.0759284e-01
  6.7265809e-02
 -3.6441779e-01
 -6.0879167e-02
 -4.1145582e-02
 -1.9628514e-02
 -2.3378772e-01
 -6.9174796e-02
  2.6151562e-01
  3.8609516e-02
 -1.6666837e-01
 -1.2515171e-01
 -1.1254288e-01
  7.6929569e-02
 -2.0062560e-01
  7.0326068e-02
  1.8432708e-02
 -6.3163333e-02
 -1.8563604e-01
 -9.3804836e-02
  1.2160436e-01
 -5.9718527e-02
  1.5217535e-01
  6.8398781e-02
 -7.7831033e-03
 -6.2005218e-02
 -6.1874026e-01
 -5.2916121e-02
  2.7371123e-01
  2.7896529e-01
  2.7639034e-01
  9.8305531e-02
 -2.4214505e-01
  4.9580943e-02
 -1.3325781e-01
 -1.6432105e-03
 -1.3565283e-01
 -6.9865800e-02
 -1.0981038e-01
  5.2787788e-02
 -1.8132792e-01
  2.8570307e-02
 -9.3740207e-01
 -5.0589341e-01
  3.0697310e-01
  4.9205971e-01
  9.3041383e-02
 -1.2896442e-01
 -2.2071198e-01
  3.9219923e-02
 -7.5410567e-02
 -5.3069109e-01
 -1.5041515e-01
 -1.8967496e-01
  2.8255036e-01
  5.6354441e-02
  3.4042889e-01
 -3.0296570e-02
 -2.5081462e-01
 -1.9566256e-01
 -1.1169598e-02
 -2.3076473e-02
  8.4863968e-02
 -2.9041845e-01
  1.2570894e-01
 -8.5542381e-02
  1.7079392e-01
 -2.9004407e-01
 -2.9972309e-01
  2.3781635e-01
  1.3150527e-01
  4.0703405e-02
  7.6870248e-02
 -1.7961289e-03
  5.4868240e-02
  1.0178008e-02
 -7.4097496e-01
 -2.0980796e-01
 -1.2281816e-01
  4.6931165e-01
  1.4116888e-01
  1.1877907e-01
  1.3790624e-01
 -4.0167323e-01
 -3.7357685e-01
  2.9955089e-01
  1.6678254e-01
 -1.3440220e-01
 -8.0053151e-02
  1.6658145e-01
  3.7465136e-02
 -8.0753528e-02
 -5.4425979e-01
 -2.3204406e-01
  3.1544107e-01
  2.7708513e-01
  2.5971490e-01
 -3.5085354e-02
  1.6111845e-02
 -6.4203166e-03
 -2.3084883e-02
 -1.0427060e+00
 -1.5869024e-01
 -7.6306216e-02
  4.1866836e-01
  1.4032024e-01
  1.8473174e-01
 -1.8132092e-01
 -1.4091797e-01
 -1.7260621e-01
  2.2732976e-01
 -1.2881377e-01
 -1.7673543e-01
 -3.5934407e-01
  2.5433815e-01
  1.6145448e-01
  1.4816606e-01
 -7.2210413e-01
 -3.6721706e-01
  1.0842445e-01
  1.0693765e-01
  2.9886115e-01
  4.2976391e-01
 -7.6025426e-03
 -2.2138615e-01
  8.4349334e-02
 -3.1198904e-01
  5.2325886e-02
  8.4772870e-02
 -4.3849457e-02
  1.6851377e-01
 -1.1316161e-02
 -1.8749489e-01
  4.1453905e-02
  1.4343944e-01
 -1.3586840e-01
  2.9380586e-02
 -2.3973504e-01
 -1.9100347e-01
  1.4467174e-01
  1.0004041e-01
 -2.8650867e-02
  1.5295659e-02
  1.5266396e-01
  1.9825172e-01
 -1.3508938e-01
  8.1894204e-02
  1.2567681e-01
 -2.0298366e-01
 -1.6262724e-01
  2.1809635e-01
 -9.7273193e-02
 -1.5769981e-01
  1.9668950e-01
 -2.0388706e-01
  2.0288119e-01
 -6.5097176e-02
  6.4366288e-02
 -2.5055099e-01
  2.1457349e-01
  5.9462309e-02
 -3.1428229e-02
 -7.1674176e-02
  4.6227265e-02
  6.3936517e-02
 -4.7107320e-02
  1.3141488e-01
 -2.8425552e-02
 -7.8225806e-02
 -1.1925420e-01
 -2.2157688e-01
  1.3099164e-01
  2.9835039e-01
  7.7536806e-02
 -8.8189811e-02
 -8.9310244e-02
 -3.2780716e-01
 -1.2484951e-01
  2.2082141e-01
  2.5751191e-01
  3.4576524e-02
 -1.0803408e-02
 -1.6062421e-01
 -2.3422901e-01
  1.1743858e-01
  7.8396928e-03
 -3.0280674e-02
 -1.1676534e-01
 -3.4947654e-03
  9.7426474e-02
 -1.9433135e-01
  1.1439975e-01
 -1.4535923e-01
 -3.3850643e-01
 -8.1450202e-02
  3.3680326e-01
  1.0307769e-01
 -2.1155801e-01
 -1.1119120e-02
 -5.2074365e-02
  2.6591657e-02
  8.8158876e-01
  2.3071428e-01
 -1.2061800e+00
 -4.0736863e-01
  9.3295053e-02
 -2.0889141e-02
  2.6536584e-01
 -1.6938716e-01
  2.7607235e-01
  2.7831978e-01
 -1.7827621e-01
  6.3730448e-02
  2.5597820e-01
  2.9569066e-01
 -4.2489415e-01
 -2.1737428e-01
  1.3780174e+00
  8.1678140e-01
 -9.6175939e-01
 -8.5429275e-01
 -1.2276954e-01
 -2.3136725e-01
  2.4280596e-01
  3.1904068e-02
 -2.6324856e-01
  2.6408929e-01
  2.3530200e-01
  1.2402865e-02
 -1.0289323e-01
 -2.2514865e-01
 -2.2166252e-01
  1.3274378e-01
  9.6449502e-02
  1.5694322e-01
  1.0869209e-01
  1.4943016e-01
  8.8517845e-02
 -8.6607233e-02
  1.6380312e-02
  8.5920945e-02
  2.0633267e-01
  1.2612319e-01
 -1.2614903e-01
 -9.1790639e-02
 -4.2651787e-02
 -3.5716951e-01
 -8.8965185e-02
  2.3287253e-01
  3.4226051e-01
 -1.3949721e-01
  2.3900476e-01
 -2.7488416e-02
 -2.4747428e-01
  4.8461627e-02
 -8.1720576e-02
 -3.8598832e-02
 -1.1497152e-01
 -8.4152095e-02
  1.0080247e-01
 -2.8067183e-02
  9.0222403e-02
  5.4050251e-03
  2.3161368e-01
 -2.5644410e-01
 -1.8538734e-02
  1.1850367e-01
  1.5469325e-01
 -9.3114525e-02
  9.9113546e-02
  1.7255242e-01
  7.9484172e-02
  2.4264617e-02
  3.5861179e-02
  1.1578677e-01
  1.0745914e-01
  4.1769287e-01
  9.1978170e-02
 -7.0266157e-02
 -2.4894540e-01
  2.4392806e-02
  9.1861514e-03
 -1.1563909e-01
 -1.3514444e-01
 -1.3574691e-01
 -1.3263869e-01
 -2.7199797e-02
 -9.4299048e-02
  7.9895131e-02
  1.1350008e-01
  5.9978622e-03
 -7.5800844e-02
  1.8067871e-01
  2.8326547e-01
 -6.1593181e-01
  1.2286606e-01
  1.0504606e-01
 -7.2931439e-02
  2.4312925e-02
 -4.8157874e-02
 -3.2864999e-02
 -9.8897606e-01
 -1.6788028e-01
  6.6543957e-03
  4.2222685e-01
 -2.1452785e-01
  2.4488302e-01
 -2.8478637e-01
 -1.9518161e-02
 -1.9539103e-01
  2.1949488e-01
 -1.4026372e-01
 -1.6141270e-01
 -3.9433464e-01
  1.3459620e-01
  1.1739068e-01
 -1.0433461e-01
 -6.9661927e-01
 -3.8097879e-01
  1.6253287e-01
  2.8027144e-01
 -2.3499303e-01
 -2.4428618e-01
  1.9116594e-01
  2.6255852e-01
 -1.0349838e-01
  3.8471997e-02
  1.1750587e-01
  8.2947485e-02
 -1.7681321e-02
 -4.2334467e-02
 -8.2311578e-02
  7.9580031e-02
  1.4848442e-01
 -5.4902382e-02
 -2.2394432e-01
 -1.6999704e-01
  2.3450261e-01
 -8.9198865e-02
 -4.1678205e-02
 -7.3194015e-03
  1.0227142e-01
  1.4875422e-01
  3.6584605e-02
 -6.8498150e-02
  1.0851891e-01
  3.1462654e-01
  2.7804196e-01
  5.3179953e-03
 -2.4928050e-01
 -2.9574107e-02
 -6.9534935e-02
  7.6527186e-02
  1.4580140e-01
  3.5738075e-01
 -2.8779214e-02
  1.4333326e-01
 -1.2690282e-01
  8.5614130e-02
  1.5609455e-01
 -1.7092200e-02
  1.7571449e-01
 -7.3320344e-02
  4.1558273e-02
 -1.4891866e-02
  9.2614055e-02
 -1.2386822e-01
 -1.8960366e-01
 -1.1439262e-01
 -1.2027957e-01
  8.2232542e-03
 -1.4560354e-01
 -2.4103852e-01
  1.5555195e-02
 -1.1976883e-01
 -2.7029568e-02
  7.5586897e-01
  1.5492752e-01
  2.3238081e-01
 -4.8192692e-01
 -2.0835741e-01
 -1.5829925e-01
  3.4021097e-01
  2.0259875e-01
  1.2578243e-01
 -2.1882311e-01
  2.1437329e-01
  1.6115044e-01
  3.9259341e-02
  7.2566313e-03
  1.5867136e-01
 -1.6840686e-01
  5.3363723e-01
  2.7986729e-01
 -4.2844575e-02
 -1.5590245e-01
 -9.7255394e-02
 -3.7298727e-01
  1.0195792e-01
  2.1865246e-01
 -1.2041572e-03
  1.4760345e-01
  2.3202008e-02
 -1.7574249e-01
 -8.8243462e-02
 -1.8903320e-01
 -2.4022266e-01
  1.8939953e-01
  2.4318416e-01
  1.6201973e-01
  5.2795693e-02
 -6.6400841e-02
  8.1171773e-02
  8.2779892e-02
  6.5468818e-02
 -4.5209542e-02
 -5.9014075e-02
  2.1251494e-01
  4.8240568e-02
  1.0756498e-01
 -6.8250217e-02
 -5.2860803e-03
 -2.9829072e-03
  2.5654513e-01
  6.3095808e-02
 -5.2829623e-01
 -2.3083615e-01
 -3.8963622e-01
  4.7194102e-01
 -7.5150572e-02
  1.6551457e-01
  7.1871829e-01
  2.5706604e-01
 -2.6992148e-01
 -4.7186872e-01
  1.5485893e-01
 -8.5244529e-02
  9.1520056e-02
  1.4266039e-01
  2.8336623e-01
  4.9286506e-01
  4.7751299e-01
 -6.0552496e-02
 -5.3739542e-01
 -5.0813234e-01
 -2.0102601e-01
  1.5989405e-01
 -2.9216972e-01
  5.8644575e-01
 -1.9879426e-01
 -6.2812185e-01
  2.6652262e-01
  2.1572237e-01
  2.1766640e-01
 -1.4391758e-01
 -1.5617685e-01
 -1.8998100e-01
 -1.9280764e-01
  1.4463373e-01
  4.5303866e-02
  1.2411834e-01
  1.1962863e-01
  1.0969671e-01
 -1.9284658e-01
 -2.6319692e-01
  6.7191355e-02
  3.9285462e-02
  1.0876035e-01
  1.3603124e-01
  1.9956923e-01
  7.4023604e-02
  2.3819607e-01
 -1.1338534e-01
 -7.6106451e-02
 -2.3179977e-01
 -1.5200065e-01
  5.6431618e-02
 -1.8291427e-01
  1.5402620e-01
 -1.5741178e-01
 -2.1260589e-01
  8.7179206e-02
 -1.2264719e+00
 -9.3284887e-01
 -6.0845637e-01
  7.4836981e-01
 -4.0776804e-01
  7.4547529e-01
  8.9549243e-01
 -9.7265226e-01
  1.0494285e+00
  1.5059750e-02
 -1.2199082e+00
 -6.8069738e-01
 -4.4055887e-02
  1.2808862e+00
 -9.7390175e-02
  4.3614763e-01
 -2.0543542e+00
 -2.4704955e+00
 -1.8518233e-01
  1.2238649e+00
  2.3592172e+00
  1.2481381e-01
  1.3687518e+00
 -1.0008680e-01
  1.5224147e+00
  3.4245777e-01
 -9.2046976e-01
 -1.3733053e+00
  4.8855954e-01
  3.0742866e-01
 -1.2792322e-01
  5.1139188e-01
 -8.7622637e-01
  6.8841927e-02
  8.5923338e-01
  5.5568767e-01
  4.7199253e-02
  2.6901740e-01
 -1.2828710e+00
 -7.9377875e-02
 -9.3985486e-01
  9.0664846e-01
  4.6765283e-01
 -2.9787421e-01
  8.3103979e-01
  1.4986671e+00
  4.1711521e-01
  2.5642851e-01
  1.5194899e+00
  4.3217465e-01
 -2.0493126e+00
 -1.1349039e+00
  2.9058477e-01
  1.6333600e+00
  1.4110298e+00
  6.2423660e-03
  3.6543259e-01
  1.0273744e+00
  1.0680592e+00
 -9.1388923e-01
  7.8758264e-01
 -9.3880755e-01
  6.5770291e-02
  6.3426994e-02
 -1.2649539e+00
 -9.9405652e-01
 -7.4564612e-01
  1.6034226e+00
 -3.1777301e-01
 -7.6389724e-01
 -1.0379824e-01
 -2.2949205e-01
  6.2768388e-01
 -4.9807984e-01
 -3.5823417e-01
 -1.9110288e-01
  1.2290984e+00
 -5.1051146e-01
  1.4288089e+00
  1.2508572e+00
 -3.0596968e-02
  1.2820439e+00
  2.6525030e-01
  1.2587738e+00
  1.3086425e-01
  1.0663764e+00
 -5.8433110e-01
  1.8228624e+00
 -6.1849575e-02
 -2.4074072e-01
 -8.9739114e-01
 -4.2634326e-01
 -1.4430088e+00
 -4.0802181e-02
 -2.7032692e+00
  3.3917448e-01
  8.9550346e-01
 -1.7221245e-01
  9.7462619e-03
  2.4213617e+00
 -2.6954141e+00
 -1.9572463e+00
  1.2049392e+00
 -1.7970200e+00
 -2.6073441e-01
  3.3579287e-01
 -9.5999110e-01
 -2.0041136e-01
 -2.6045877e-01
  6.5580291e-01
 -9.5898563e-01
  1.4394450e+00
  2.8355900e-02
 -8.2348871e-01
  1.4848421e+00
 -1.2509162e+00
  1.8654740e-01
 -2.0672049e-01
  4.5776254e-01
  6.3131317e-02
  5.6477469e-01
 -3.0203965e-01
  9.6157789e-01
  6.2974674e-01
 -5.5708653e-01
 -7.6596177e-01
  4.4613376e-01
  4.6324170e-01
 -1.1823895e+00
 -6.6938496e-01
 -1.8389076e-01
 -2.5030732e-01
  5.7841653e-01
  1.3985612e+00
  1.3292247e+00
  2.8653820e+00
  7.0130080e-01
  3.3408424e-01
  1.0333363e+00
 -1.9293575e+00
 -2.1695862e+00
  1.5158107e+00
  1.0011914e+00
  8.5998726e-01
  1.1697205e+00
  8.4687656e-01
  2.5299694e-02
 -8.1497234e-01
 -3.2445765e-01
  4.0160108e-01
 -3.7358239e-01
  8.1804895e-01
  1.3046538e+00
 -1.2946851e+00
 -2.5148940e-01
 -9.5633495e-01
  1.7617676e-01
  1.5156926e+00
  2.3167545e-01
  1.2771134e+00
  1.0003295e+00
 -9.2226654e-01
  1.9157931e-01
  7.0447773e-01
 -7.6673043e-01
 -1.7116658e-01
 -2.7544793e-01
  4.1124964e-01
 -3.3827090e-01
  9.6681362e-01
  4.6552366e-01
 -9.8509449e-01
 -8.1499141e-01
  2.9561067e-01
 -1.4988306e+00
 -8.0044430e-01
  4.9173814e-01
 -1.9219744e+00
 -2.2108443e+00
  2.4305022e+00
  1.1515115e+00
  1.9846905e+00
 -9.3916589e-01
  7.8048831e-01
 -1.0188962e+00
 -2.4502362e-01
  4.2256820e-01
  2.7950408e+00
  1.3024683e+00
 -1.1928046e+00
 -1.1054332e+00
  4.3055475e-02
 -1.1352121e+00
 -7.0106179e-02
 -1.4062093e-01
  9.5976228e-01
 -5.3620571e-01
 -1.0524016e-01
  3.4506741e-01
 -2.0519689e-01
 -5.3761935e-01
  1.6176580e+00
 -1.0740271e+00
  2.8687572e+00
  2.5500238e+00
 -9.7410023e-01
  4.2373252e-01
  6.6860777e-01
 -1.6232253e+00
  1.2325034e+00
  7.3216861e-01
  1.0984303e+00
  1.5282518e+00
 -1.4124757e+00
 -1.5498742e+00
  1.8563846e+00
 -1.3134923e+00
 -5.9797859e-01
 -5.9261054e-01
 -2.0644457e+00
 -3.4101886e-01
 -1.4316105e+00
  1.2754626e+00
  6.5008968e-01
 -3.1013412e+00
  3.3600707e-02
 -1.7577031e+00
 -1.1038892e+00
  1.9224216e+00
  1.5650846e+00
 -1.1321259e+00
 -7.8013098e-01
 -2.4750731e+00
 -7.3981100e-01
  7.6184821e-01
  1.3742115e-01
  9.0827532e-02
  6.6625220e-01
 -1.0552076e+00
 -2.5797263e-01
 -3.0091746e+00
 -1.4521486e+00
 -1.0265486e+00
 -1.8101605e+00
 -2.3126256e+00
 -1.4781375e+00
 -6.3526028e-01
 -1.1098000e+00
 -1.2898238e+00
  1.0439913e+00
  1.4483526e+00
 -2.4951823e+00
 -6.9902384e-01
  1.3538241e+00
 -2.5132787e+00
  1.1700460e+00
  6.4616299e-01
  3.4116131e-01
 -1.2200110e+00
 -5.9492409e-01
 -1.7085586e+00
  1.2077838e+00
 -1.0901778e+00
  1.8841525e+00
 -1.3057100e+00
  7.9853451e-01
 -5.5706829e-01
  5.3849488e-01
 -1.8328689e+00
 -1.2297747e+00
  7.4507904e-01
 -1.0612010e-02
 -1.5695873e-01
  4.6162602e-01
 -1.3940588e+00
 -7.0816928e-01
 -1.5662388e+00
  5.1065940e-01
 -6.2082034e-01
 -1.1063499e-02
 -3.7050560e-01
  2.5567977e+00
 -9.1451305e-01
 -1.0971994e+00
 -2.3295817e+00
  9.7191501e-01
 -2.1113183e-01
  2.1291821e+00
 -3.6798966e-01
 -4.2069435e-02
 -4.5961273e-01
  1.7059422e+00
  8.4282696e-01
  8.2794303e-01
 -3.4050173e-01
 -2.0333456e-01
 -2.3079689e-01
 -3.9162490e-01
 -1.5335734e+00
  1.0079385e+00
  7.0678872e-01
  5.5618769e-01
 -8.4760582e-01
 -6.0274452e-03
  4.3230701e-02
  2.6823324e-01
 -2.7737167e-01
 -1.3351771e+00
 -2.4470097e-01
  2.3419623e+00
 -1.0584645e+00
  1.0925636e+00
 -1.4545453e+00
 -1.4448265e-02
 -4.7639385e-01
 -1.8617782e-01
  1.7055262e+00
  5.3870700e-02
 -6.1961150e-01
  5.5229944e-01
 -1.4241668e+00
  9.5100701e-01
 -1.2106283e+00
  8.2788062e-01
 -8.3652377e-01
 -2.2444831e-02
  6.4573461e-01
 -1.2553221e+00
  5.3962195e-01
 -7.8413457e-01
 -2.3657306e-01
  1.1861185e-02
 -1.4871128e+00
 -8.6679530e-01
  7.1698338e-01
 -6.0645854e-01
 -1.0366511e+00
 -1.0927317e-02
  2.3543565e-01
 -6.9436991e-01
 -1.6721890e+00
 -1.5574743e-01
  1.1526107e+00
  9.1954805e-02
 -9.0437233e-01
 -1.1736050e+00
  6.6556245e-01
 -2.1837029e+00
 -1.3654523e+00
 -5.6613714e-01
  1.0598431e+00
  5.9933841e-01
 -1.3610682e+00
 -8.3752632e-01
 -1.1087182e+00
 -2.9409567e-01
 -5.8328485e-01
 -2.4691503e+00
  1.5398782e+00
  1.6827436e-01
  1.0000000e+00
  1.0000000e+00
  1.0000000e+00
  1.0000000e+00
  1.0000000e+00
  1.0000000e+00
  1.0000000e+00
  1.0000000e+00
  1.0000000e+00
  1.0000000e+00
  1.0000000e+00
  1.0000000e+00
  1.0000000e+00
  1.0000000e+00
  1.0000000e+00
  1.0000000e+00
  1.0000000e+00
  1.0000000e+00
  1.0000000e+00
  1.0000000e+00
  1.0000000e+00
  1.0000000e+00
  1.0000000e+00
  1.0000000e+00
  1.0000000e+00
