nep4_zbl 16 Ag Al Au Cr Cu Mg Mo Ni Pb Pd Pt Ta Ti V W Zr 
zbl 1 2
cutoff 6 5 200 134
n_max 4 4
basis_size 8 8
l_max 4 2 1
ANN 50 0
  2.4371774e-01
 -1.9792630e-01
 -5.5482161e-01
  5.3097570e-01
 -1.5972296e+00
  3.7948048e-01
 -5.9645735e-02
 -5.5043799e-01
  1.5499263e-01
  5.5567968e-01
  1.1569835e+00
  2.0448355e-01
 -2.4611050e-01
  4.7929844e-01
  6.1160374e-02
 -9.9778205e-02
 -6.8275876e-02
 -1.6996433e-01
  1.5044442e-02
  3.2567659e-01
  7.3241806e-01
  5.0662303e-01
  1.9484800e-01
 -3.9237272e-02
 -6.1998504e-01
 -2.0708500e-01
 -1.9989648e-01
 -8.5025281e-02
 -1.1955419e-01
  1.5040651e-01
 -1.5772919e-01
 -5.4802109e-02
 -1.8736267e-02
 -3.2209177e-03
 -3.1915262e-02
 -2.2583683e+00
 -1.5561495e+00
 -9.7583437e-01
 -7.8945655e-01
  6.5642822e-01
 -3.1786218e-01
  9.3459949e-02
  1.3290001e-01
  4.1170225e-01
 -2.0295723e-01
 -7.0417982e-01
 -3.1992975e-01
  2.3760332e-01
 -1.0759196e+00
 -2.7358517e-01
 -1.2984620e-01
 -5.5958901e-02
 -8.5492983e-02
 -1.2055314e-01
 -1.2391877e-01
 -6.2516701e-01
  1.5306522e+00
  1.1108402e-01
 -4.2385584e-01
 -8.8640559e-01
  1.0329261e+00
  1.7834176e-01
 -6.7816228e-02
 -3.4821036e-01
  1.6323090e-01
  8.3717071e-02
  2.5099793e-01
 -9.3184084e-02
  2.3951070e-01
 -5.4114986e-02
  9.4419056e-01
 -6.4487731e-01
 -1.3396108e+00
  9.6037358e-01
 -2.0130517e+00
  1.6011243e+00
 -1.7893523e-01
 -1.1867072e-01
 -8.9474156e-02
  9.3749422e-01
 -3.3082253e-01
  4.3526378e-01
 -4.0237653e-01
 -8.0268961e-01
  7.7210993e-01
  7.7593219e-01
  1.7591251e-01
  1.3249137e-01
 -3.6718199e-01
  3.9807951e-01
  4.8639321e-01
 -6.5035367e-01
 -1.9350380e-01
 -3.5678324e-01
 -3.0181983e-01
  1.2734282e+00
 -1.8402320e-01
 -1.5352753e-01
 -5.0394189e-01
  1.0140412e-02
 -2.0504467e-01
  6.0929149e-02
 -5.0295606e-02
 -2.7911997e-01
  7.7319556e-01
  8.9114451e-01
  1.3366722e-01
 -8.1225920e-01
 -5.0033116e-01
  7.5804907e-01
 -3.4168795e-01
  4.1011170e-01
  7.6419592e-02
 -5.8079727e-02
 -2.1827485e-01
 -5.9776264e-01
  3.1053337e-01
 -9.4017079e-03
 -9.9733807e-02
  1.8598925e-01
  5.4188508e-01
  9.0554225e-01
 -4.3691540e-01
  2.3123170e-01
  8.6986236e-02
 -3.6171326e-01
 -1.1791621e-01
 -8.3743818e-02
 -2.4682060e-01
 -3.4454644e-01
 -1.8258713e-01
  2.2175219e-02
  1.7817786e-02
  7.2989859e-02
  1.3921814e-01
  7.8469500e-02
 -1.3524684e-01
 -2.3832692e-01
  5.2882779e-02
 -7.5077587e-01
 -2.8740008e+00
  1.0460573e-01
  1.7101935e-01
 -5.7139480e-01
 -9.4963253e-02
 -7.1525055e-01
 -7.7752572e-01
  2.9712340e-03
  7.0584722e-02
 -5.4492176e-01
 -5.1985490e-01
  2.6270673e-02
  3.2988852e-01
 -3.9623460e-01
 -1.2688841e-01
 -9.7155470e-01
 -8.5552883e-01
 -1.1739689e-01
  9.4189085e-02
 -2.4491967e-01
 -2.0209882e-01
 -2.0263954e-01
  1.8606085e-02
 -4.7429171e-01
 -1.3308970e+00
  3.8481572e-01
  2.4751963e-01
 -1.9961922e-01
  2.0634687e-01
 -1.2769274e-01
 -2.4689169e-01
 -2.4533772e-01
 -1.9776079e-01
  7.0625789e-02
 -2.2257325e-01
 -2.4738682e-02
  3.1961453e-01
  1.0409704e+00
 -6.6832042e-01
  5.1474023e-01
 -1.6602187e-01
  7.9712644e-02
  2.9019991e-02
 -1.6241589e-01
 -2.3082687e-02
 -5.9989589e-01
 -1.7582867e-01
  1.1056633e-01
  4.3778375e-02
  8.9931555e-02
  1.2088140e-01
 -1.2337229e-01
 -2.6801577e-01
 -8.6176954e-02
 -1.4589550e-01
 -2.3614275e-01
  2.1455052e-01
  2.5567004e-01
 -8.1373292e-01
  2.0400357e-01
 -1.5089263e-01
 -2.8454727e-01
  2.2103220e-01
 -6.3014857e-02
  2.0372593e-01
 -3.4102422e-01
  1.7584281e-01
 -1.3722002e-02
  3.6189637e-01
  3.2020122e-02
  4.6932418e-02
 -1.1542662e-01
 -1.6382769e+00
  2.4805120e-01
 -1.1139876e+00
  4.3474460e-01
 -8.8917114e-02
 -7.5536078e-01
 -7.6752269e-01
  4.1275808e-01
  2.2830135e-01
  5.9300250e-01
 -1.7312731e-01
  2.1198566e-01
  1.6123858e-01
  1.1156154e-01
 -6.5800869e-01
 -4.2694989e-01
  1.4277129e-01
 -2.9172182e-01
  3.8924068e-01
  4.0753981e-01
 -3.9625701e-02
 -6.1912883e-02
 -2.9431883e-02
  1.1935075e-01
 -2.1500008e-01
 -2.6257753e-01
 -5.7356071e-01
  1.9099315e-01
 -5.6855064e-02
  7.9505602e-03
  2.3838368e-01
  4.5081563e-02
  1.5138213e-01
 -1.1760213e+00
  5.1950264e-01
  2.3950539e+00
 -1.3657864e+00
  1.0722537e+00
 -3.7135464e-01
  1.9920084e-01
  3.7244278e-01
  4.5152253e-01
 -8.1198734e-01
 -1.5591043e-01
 -3.4173548e-01
  1.4613387e-01
  6.4798158e-01
  2.6723632e-01
 -4.9602486e-02
  8.4977233e-01
  5.2211165e-01
 -4.8249032e-02
 -2.6185104e-01
 -1.1397514e-01
 -1.3854304e-01
 -5.1956445e-01
  2.4571829e-01
 -3.8806298e-01
 -2.0132351e-01
  3.4174123e-01
 -6.4091110e-01
  3.5838705e-01
  7.1534827e-02
  8.3386861e-03
 -1.0825807e-01
 -3.8603574e-01
  4.0638581e-02
 -3.4174377e-01
  6.7072260e-01
 -3.0345674e+00
 -2.9727826e-01
  5.0484121e-02
 -1.6444503e+00
  4.3911833e-01
  3.7176558e-01
 -5.9115671e-02
  2.8822869e-01
 -2.9726428e-01
 -5.4949838e-01
 -1.0445805e+00
 -7.7670522e-02
 -1.9887191e-01
  8.8228829e-02
 -4.7240954e-02
  4.4037050e-01
  7.1906075e-02
  3.5197586e-01
  8.1584197e-01
  6.1069000e-01
  6.2300515e-01
 -1.3236895e-01
  2.2626109e-01
 -2.8062680e-01
  1.1322483e-01
 -5.1119696e-02
  1.8523706e-01
 -3.0910927e-01
 -1.6765309e-02
 -9.7971328e-02
  3.2466736e-01
  1.8612581e-01
  3.7746646e-02
  1.5112597e-01
 -3.2868692e-01
 -4.0443635e-01
  1.8128994e-01
  2.7313560e-01
  2.9174296e-02
 -2.2098841e-02
  9.7098581e-02
 -8.6006463e-02
  5.2845591e-01
  2.6834598e-01
  2.1730557e-02
 -2.0438105e-02
  1.5201707e-01
 -9.4838291e-02
  2.4505088e-01
 -9.0417996e-02
  1.1746772e-01
 -1.4922938e-01
 -2.5948995e-01
  5.9152640e-02
 -2.8972143e-02
  2.3782325e-01
 -6.5976650e-02
 -3.9982300e-02
  3.2994834e-01
  1.4782208e-02
  1.8384153e-01
  1.0850496e-01
  1.7186823e-01
  2.2793360e-01
  3.0358535e-01
 -1.3418594e-01
 -1.8840401e-01
 -2.0759536e-01
  3.5947405e-02
  3.7840444e-01
 -3.6885840e-01
 -6.9173837e-01
 -1.4883117e-01
 -6.2428635e-01
  8.1312947e-02
  3.5791984e-01
 -7.8768648e-02
  4.3507227e-01
  3.5867658e-01
  3.5271513e-01
  3.2093704e-01
 -1.2159509e-01
 -2.2596518e-02
  5.9035025e-03
  1.4899415e-01
 -5.6235213e-02
  1.8260597e-01
 -3.1086866e-02
 -6.8875842e-02
  5.3203076e-02
  1.6759169e-01
  1.3012083e-01
  6.4914823e-01
 -6.0682658e-02
  1.3954276e-01
 -1.8368298e-01
 -1.8061391e-01
 -1.8627676e-01
  8.6013190e-02
 -9.8297149e-02
  1.5560269e-01
 -3.0761236e-01
  3.3421096e-01
  2.3250878e-01
 -1.8428619e+00
 -6.7975688e-01
 -1.9882729e-03
 -1.0469726e+00
  3.0225936e-01
  1.1229560e+00
  2.8129986e-01
  3.5637919e-02
  2.5239122e-01
  7.1305209e-01
  7.6170123e-01
  2.5028387e-01
 -5.5545140e-02
  3.6572501e-01
  2.4863094e-01
  4.6903002e-01
  6.4312232e-01
 -6.1468828e-01
  5.1957405e-01
  3.6869836e-01
  1.5266899e+00
 -9.9648917e-01
 -5.9652179e-01
 -4.0216979e-01
 -3.8278678e-01
 -2.6182157e-01
  2.3541312e-01
 -1.0388932e-01
 -5.6301344e-02
 -3.5623457e-02
  3.2493517e-01
  1.5142037e-01
 -1.0009242e-01
  3.1323895e-01
  9.0052396e-02
 -5.5835102e-02
 -7.0334101e-01
 -4.6642444e-01
  2.4915677e-01
 -6.2524873e-01
  1.9574867e-01
 -9.4839975e-02
  3.2266480e-04
 -2.2222696e-01
  4.7590163e-01
  2.9828075e-01
  3.1373325e-01
 -2.5976768e-01
 -2.4383809e-01
 -5.2517843e-02
 -1.9161560e-02
 -1.6011864e-01
  1.0096678e-02
 -3.4756038e-02
 -4.9598187e-02
  2.7887529e-01
 -5.0198767e-02
  1.6204730e-01
 -2.1368470e-02
  2.7267998e-01
  9.2811994e-02
 -2.6644832e-01
 -7.8688547e-02
 -1.9184481e-01
 -4.0619203e-01
 -6.7092985e-02
 -1.5820533e-01
 -1.2931302e-01
  1.0205725e-01
  8.2100824e-02
 -4.2605239e-01
 -6.6058713e-01
 -8.3532751e-01
 -3.6776781e-01
 -1.5810975e-01
  1.0630147e-01
 -6.9351046e-04
 -2.6262540e-01
  1.3709445e-01
 -4.1500937e-02
 -3.5543537e-01
  1.7711571e-01
  6.0866650e-02
 -6.7570269e-02
 -2.1066752e-01
  1.1931748e-01
 -1.0094174e-01
 -2.5157812e-01
  9.9874875e-03
 -3.0066887e-01
  2.5577509e-01
  1.0038704e-01
  5.9652836e-03
 -6.8571009e-02
  1.9120997e-01
 -3.4356974e-02
  6.4829007e-02
  2.2838207e-01
  2.1464053e-01
 -1.1785793e-02
  2.5430197e-01
 -5.5559772e-01
  1.0461038e-01
  3.2379612e-01
 -4.9300935e-02
  1.5415903e+00
 -1.5229790e-01
 -3.0463022e-01
 -1.5305041e+00
  1.2003196e+00
  3.7955406e-01
  1.1179832e+00
  7.9737628e-01
 -1.5925616e-01
 -1.6569871e-01
 -2.2901239e+00
 -4.8956901e-01
  6.4596665e-01
 -1.5477256e+00
  8.7950754e-01
  1.8083060e+00
  5.4669738e-01
 -6.1278135e-01
  8.2781196e-02
  7.1965915e-01
 -5.2203798e-01
 -1.2124969e+00
 -3.7732747e-01
 -5.9835595e-01
  3.9460871e-01
  3.2770994e-01
 -1.1727862e-02
 -7.4458346e-02
  8.7654315e-02
 -1.4041641e-01
 -5.7933200e-02
 -1.2791653e-01
 -3.1644881e-02
  1.5651256e-01
  6.7803770e-02
  3.8511894e+00
  3.0261674e+00
  6.2862355e-01
  9.1453600e-01
 -1.8121958e+00
  2.7149865e-01
  5.5136371e-01
  2.5335521e-01
 -7.9423279e-01
 -2.2909981e-01
  3.1957877e-01
  2.3344353e-01
  6.0567744e-03
  2.9396686e-01
 -1.5371141e-01
  6.9987816e-01
  1.4793776e-01
 -3.2789234e-02
  1.1058877e-01
 -6.0998399e-02
  4.8723313e-01
 -8.3619940e-01
 -4.3405473e-01
 -1.4365332e+00
  6.7922717e-01
 -6.4419955e-01
  1.9296263e-01
  6.3093752e-02
  1.4385704e+00
 -7.9075702e-02
  1.8428256e-01
  1.8750492e-02
  1.4532986e-01
  6.0560066e-02
  3.5150215e-02
  5.7403958e-01
 -7.1617460e-01
 -1.0151948e+00
  4.0484017e-01
 -8.5317564e-01
  5.1115763e-01
  2.1202062e-01
 -5.3534758e-01
  4.0566641e-01
  4.4777048e-01
  3.2111853e-01
 -6.2284034e-01
  1.2531205e-01
 -3.0375305e-01
 -1.0553535e-01
  2.0673491e-02
 -5.4835618e-01
  2.3662882e-01
  2.5279135e-01
  3.8709813e-01
  8.1936342e-01
 -6.0718769e-01
 -2.3424681e-01
  3.1647167e-01
 -1.1817333e-01
  1.2950867e-01
 -5.4127737e-03
  3.2770145e-01
 -7.2716594e-02
 -1.3517186e-01
  3.2492388e-02
  3.2599288e-01
 -1.2672162e-01
  2.4297751e-01
  8.2888074e-02
 -1.8213551e+00
 -4.3962502e+00
  3.2585475e-01
 -5.0310516e-01
  5.6806201e-01
  7.4441200e-01
  3.4185725e-01
 -4.2814538e-02
  6.2123831e-02
  1.3486089e+00
  9.1510707e-01
  7.7810591e-01
  6.6575348e-01
  2.3634578e-01
  3.1198940e-01
  4.9229535e-01
  8.9288133e-01
 -2.9983285e-01
  5.7327652e-01
  4.0751088e-01
  3.8510564e-01
 -1.4963639e-01
  2.3425214e-02
  9.0624493e-01
 -1.2813213e-01
 -4.0642580e-01
 -1.6904056e-01
 -3.7261385e-03
 -1.6889157e+00
 -1.1779062e-01
  2.6014125e-01
  6.2873460e-02
 -6.2462859e-02
  2.6096309e-02
 -8.6397789e-02
  6.4030123e-01
 -9.8281398e-02
  3.3462673e-01
 -1.8606272e+00
  1.4222206e+00
 -3.1896532e-01
 -1.2071635e-01
  3.1630713e-01
 -1.6069664e-01
 -4.0556005e-01
 -4.1125095e-01
  7.8631550e-02
  1.1924067e-01
 -4.7001806e-01
 -7.1374334e-02
 -2.3081106e-01
  2.7399507e-01
  1.5674800e-01
 -5.0816470e-01
  1.2886955e-02
 -9.6443546e-01
 -9.2857736e-01
  7.8403497e-01
 -2.5103563e-01
  5.3515255e-01
 -2.9524624e-01
  6.3356221e-01
  1.0497619e-01
 -7.2263770e-02
  1.0367401e-01
 -2.2760518e-01
 -5.6519065e-02
 -9.4056666e-02
 -3.8656525e-02
 -2.2740568e-01
  1.7108927e+00
  2.3925581e+00
  4.1942272e-01
 -2.9099327e-01
  3.1790656e-01
 -2.1454512e-01
 -1.5237477e-01
  2.4176409e-02
  1.1367918e-01
 -3.0959037e-01
 -1.6421758e+00
 -4.4840041e-01
 -5.1185411e-01
 -9.8771513e-01
  5.6502603e-02
 -1.6335309e-01
 -1.7973597e-01
 -1.9553337e-01
 -4.0708175e-01
  1.0869052e-01
 -1.1118876e+00
  1.3133511e-01
  1.8082764e-02
 -1.9531469e-01
 -9.7517145e-01
  3.5877824e-01
 -4.2965809e-01
  8.3310485e-02
 -8.5526615e-01
 -8.6288400e-02
  2.0469550e-02
 -1.2259603e-02
  2.2816260e-01
 -1.9662628e-01
  8.0607019e-02
  3.3175080e+00
  4.1953473e+00
 -1.9100693e+00
  1.0579332e+00
 -1.4925275e+00
  8.5845041e-01
 -2.1036743e-01
 -9.7046214e-01
 -5.8215630e-01
 -5.3524238e-01
  1.6192516e+00
  9.1985732e-01
  1.2692742e+00
 -2.6876605e-01
 -6.6720378e-01
  6.2094367e-01
 -5.7633674e-01
 -2.5021031e-02
 -1.0699719e+00
 -1.0601976e+00
  1.5677000e+00
 -7.5680069e-03
  1.5242809e-01
  7.9119629e-01
 -1.0032517e-01
 -2.4906351e-01
 -3.0861750e-01
  4.4740889e-02
 -4.8683116e-01
  1.0588012e-01
 -1.9801089e-01
  4.3857297e-01
 -9.8849118e-02
  1.5795000e-01
  3.1112984e-01
 -2.1004306e-01
 -2.0524566e-01
 -5.0205213e-01
  5.5778253e-01
 -5.1465589e-01
  7.3635444e-02
 -3.6400670e-01
  6.5328605e-02
 -2.2473215e-01
 -8.7121412e-02
  1.7225070e-01
  1.5438505e-01
 -1.1038824e-01
  2.0254244e-01
 -4.9959645e-01
  6.2201239e-02
  3.2141501e-01
  1.6605783e-01
  1.5326253e-01
 -2.4037454e-01
  1.0086947e-01
  3.5549060e-01
 -1.9314963e-01
  2.3283109e-01
  5.5226456e-02
  4.3789901e-02
  2.7047180e-02
  1.2977061e-01
  8.3138593e-02
  4.3288670e-02
  2.4191137e-01
 -1.8345852e-01
 -1.6350394e-02
 -1.5872050e-03
 -1.1816681e-01
  2.7179158e-01
  6.5853477e-01
  2.0965710e+00
 -1.2012518e-01
  2.5241312e-01
 -2.6525691e+00
  3.8949713e-01
  1.7996316e-01
 -5.7597101e-01
 -3.0297634e-01
 -3.1625311e+00
  8.0294812e-01
 -7.5099558e-02
 -1.4570135e+00
  4.2073041e-01
 -3.2877340e+00
  4.5667139e-01
  9.0440148e-03
 -1.4319476e+00
  8.0973558e-02
 -1.8165127e+00
  5.8829194e-01
  2.4133112e-01
 -1.3071952e+00
  3.5916138e-01
  3.9165568e-01
  2.9561406e-01
 -2.1661431e-01
  2.0468584e-01
  9.1274507e-02
 -2.3387133e-01
  2.7458626e-01
 -1.4310053e-01
 -1.3386081e-01
  2.9895735e-01
 -3.9851446e-02
 -2.3485708e+00
 -6.2559760e-01
 -4.0259965e-02
 -1.2007152e+00
  3.0359959e-02
  6.2990588e-01
 -3.8743937e-01
  1.0069867e+00
  2.0303366e-01
  8.8181160e-02
  6.3980108e-01
  1.2695831e-01
 -2.8401876e-02
  1.4087360e+00
  1.2428582e-01
  1.0038832e+00
  6.0288078e-01
  9.3802601e-01
  1.3532784e+00
 -1.2660359e+00
  1.7865069e+00
  2.5148538e-01
  6.4227641e-01
  2.1218961e-01
  2.7312416e-01
 -3.6424786e-01
 -5.3371109e-02
 -2.0762751e-01
  5.7304308e-02
  3.6506826e-01
 -9.0252243e-02
 -2.5547288e-02
  7.0030577e-02
 -5.1019675e-01
 -5.3453404e-01
  1.1530534e+00
  1.5758870e+00
 -1.4105777e+00
  1.1378057e+00
 -1.1080242e+00
  4.7634938e-01
  2.9295328e-01
 -5.0952488e-01
 -7.8420025e-01
  1.1804999e-01
  1.1138889e-01
  5.9908032e-01
  6.6744214e-01
 -1.5943588e-01
 -4.5838052e-01
 -1.3986243e-01
 -3.0448487e-01
 -9.4785899e-01
 -5.2430815e-01
 -7.4151993e-01
  9.1406053e-01
  7.6036757e-01
 -1.7284559e+00
 -1.7445290e-01
 -4.7852674e-01
 -1.0489424e-01
 -4.3203074e-02
  1.8119203e-01
  1.0263894e-01
 -2.7224535e-01
 -7.9362668e-02
 -6.0113784e-02
  6.2845252e-03
 -3.3861348e-01
  1.2205343e+00
 -3.7255309e+00
 -1.7703046e+00
  1.2970674e+00
 -8.7401980e-01
  5.0753349e-01
  3.5800055e-01
 -1.6718914e-01
  6.2934071e-01
  9.1113633e-01
  2.0186020e-01
  7.8945583e-01
 -5.8967894e-01
  4.1379309e-01
 -6.0848575e-02
  3.0471259e-01
  1.3056693e+00
  5.9564674e-01
  5.0537562e-01
  9.2970538e-01
 -4.0150169e-02
  9.2276877e-01
  8.4456068e-01
  6.5831429e-01
  7.4690717e-01
  4.9223255e-02
 -3.7138304e-01
 -1.3212687e-01
 -4.4752288e-01
 -3.6252576e-01
  9.5243007e-03
  6.4678118e-02
  1.4887182e-01
 -2.8496566e-01
 -2.4371669e-02
 -1.4811279e+00
 -3.2045324e+00
 -6.4538091e-01
 -2.1230446e-01
  1.8197367e-01
  1.3236359e+00
  5.8739102e-01
 -4.4645256e-01
  7.6658756e-01
  4.1729140e-01
  5.3306270e-01
  3.8549671e-01
  3.0431668e-03
  5.0157481e-01
  3.4786814e-01
  1.1342956e+00
  8.3499604e-01
 -9.4848555e-01
  1.4272914e+00
 -2.4783468e-01
  1.0185531e+00
  8.3501995e-01
 -6.3297087e-01
 -1.3098929e+00
 -1.5095422e+00
 -2.4873488e-01
 -4.4963279e-01
  3.3265073e-02
 -1.7553592e-01
  2.0456766e-01
  8.8659054e-01
 -4.4019889e-02
  1.1656697e-01
 -1.5361761e-01
  2.1865562e-01
 -6.1238694e-01
  3.7203559e-01
  9.9302441e-01
  6.9340378e-01
  7.1541744e-01
 -8.0003560e-02
  1.4017771e-01
 -9.7657010e-02
  3.3575900e-02
 -1.2124339e-01
 -1.7190470e-01
  6.2565410e-01
 -1.3959108e-01
  1.5988151e-02
 -3.3490050e-01
 -5.1096189e-01
  7.7716030e-02
  2.4217224e-01
  1.3069062e-02
 -6.1423585e-02
 -3.2031852e-01
  3.9918429e-01
  5.1040314e-02
 -2.5267589e-01
  1.6810097e-01
 -1.7641591e-02
 -3.3738554e-01
 -1.3712881e-02
  1.1071581e-01
  8.0535136e-02
 -3.3336693e-01
 -2.2136162e-01
 -2.5432763e-01
  6.7791425e-02
  7.1962625e-02
  2.7708581e-01
 -4.7350265e-02
  5.6266969e-01
  7.9815751e-03
  9.0222114e-01
  6.1125088e-01
  1.9661637e-02
  6.7835547e-02
 -1.7132369e-01
  4.5479956e-01
 -4.2724678e-01
  1.3273135e-01
  5.3395457e-03
  3.9082918e-02
 -1.1739543e-01
 -2.2670080e-01
 -1.0261911e-01
 -3.2146803e-01
 -2.2390932e-02
 -9.6912600e-02
 -2.6066408e-01
 -1.6860968e-01
  2.0034692e-01
 -4.9906546e-01
 -1.8272680e-01
  1.4274240e-01
  1.5206972e-01
  1.3150048e-01
 -2.9775325e-02
  7.4567363e-02
 -8.4450476e-02
 -1.4787887e-01
 -2.8310528e-02
  1.8053065e-01
  5.2202981e-02
 -1.5663741e+00
 -4.4217053e-01
 -1.4230448e+00
 -4.3237635e-01
 -1.2103356e-01
  2.2884604e-01
  5.5811614e-01
 -4.2275902e-02
 -2.0849110e-01
  3.6133689e-01
  1.9487183e-01
  6.1560668e-02
  2.2389199e-01
  2.1514681e-01
 -1.6869389e-01
  3.8022763e-01
  6.9119349e-02
 -2.8596663e-01
  1.9626090e-01
  2.0512341e-01
  6.2329453e-01
 -5.7204115e-01
 -1.7187624e-01
 -5.3613916e-02
  3.3850849e-01
  2.8045812e-01
  6.9388211e-02
  6.9287854e-01
  4.3465579e-03
  1.1887418e-01
  7.6429695e-02
 -2.1750201e-01
  1.7580837e-01
  1.1283068e-01
 -1.7583196e-01
  2.3025317e+00
  2.9537253e+00
 -1.0281562e+00
  1.1679366e+00
  4.5659572e-01
 -9.2418367e-01
 -3.0047795e-01
  1.3584518e-01
 -4.9635339e-01
 -6.2111069e-02
  3.6647430e-01
 -1.0009680e+00
 -5.9390876e-02
  2.2895508e-01
 -7.3591816e-01
 -4.1620567e-01
 -9.2326027e-01
  5.1064765e-01
 -5.4407573e-01
 -4.8579818e-01
 -6.7997825e-01
  4.2424358e-02
  4.9379838e-01
 -1.0281513e-01
 -7.6477349e-01
  4.2207739e-01
 -2.8069073e-01
  2.0037186e-01
  3.0297673e-01
 -1.1973946e-01
 -2.9153970e-01
 -1.4709711e-01
  3.4475324e-01
 -1.1093894e-01
  1.7154622e-01
  2.1574745e+00
  2.3549953e+00
  6.5557934e-02
  8.4408689e-01
 -3.4155485e-01
 -1.7157651e+00
 -1.0696791e+00
 -6.3247395e-01
 -1.2854220e+00
 -2.2084177e+00
  1.1334243e-01
  3.1851709e-02
 -2.0928589e-01
 -5.8596879e-01
 -1.5719225e+00
 -1.6185976e+00
 -8.3392227e-01
  1.6482730e-01
 -2.2999883e+00
  2.5357491e-01
 -7.7245903e-01
 -8.7912565e-01
 -4.2836356e-01
 -4.3319054e-02
  3.0105284e-01
  6.5153468e-01
  1.7748341e-02
  9.5836274e-02
  6.2611496e-01
  3.2009500e-01
  4.6064126e-01
 -4.0880334e-01
 -1.3455387e+00
 -1.2262417e-01
  2.7857080e-01
  2.2063775e+00
  2.8285105e+00
  1.9036378e-01
  8.1799763e-01
 -1.0535256e+00
 -7.8777498e-01
  2.4755167e-02
  9.4303921e-02
 -4.2095578e-01
 -5.4408914e-01
 -2.2779845e-01
  1.2150005e-01
  1.0469781e+00
 -6.3180006e-01
 -9.8490101e-01
 -8.2540822e-01
  1.3547258e-02
  8.0837631e-01
 -4.7869605e-01
 -3.5229731e-01
  1.5253358e-01
 -9.4079435e-01
 -9.1440582e-01
 -4.8023414e-02
 -1.1290660e+00
  4.2496037e-01
 -1.2926397e-01
  8.4837413e-01
 -8.2672054e-01
  1.9629897e-01
 -6.9042337e-01
 -4.1532567e-01
 -3.5968762e-02
  8.6221211e-03
  1.8170002e-01
 -1.3987402e+00
  5.3530377e-01
  2.5800216e+00
 -2.7503729e+00
  2.3371902e+00
 -5.2170563e-01
  3.2144859e-01
  6.4203310e-01
  2.9035339e-01
 -7.3532128e-01
 -8.8878667e-01
  1.3120948e-01
 -4.8251173e-01
 -8.9340442e-01
 -5.3198844e-01
  5.5840790e-01
  8.4754491e-01
 -4.3890637e-01
 -6.6684812e-02
 -3.4485745e-01
 -1.3081725e+00
  5.2140498e-01
  4.8098769e-02
 -2.2849970e-01
  6.1604512e-01
 -1.9865681e-01
  3.4892550e-01
 -7.8636086e-01
  9.1989627e-03
  4.1366119e-02
 -1.7930155e-01
  1.4477697e-01
  2.6284572e-01
 -1.9083665e-01
 -3.8831118e-01
  1.1617047e-04
 -2.6333606e-02
 -1.1604112e+00
  1.2721518e+00
 -6.2008268e-01
  3.0405593e-01
 -2.6083627e-01
 -2.3185588e-01
  2.0242453e-01
  2.4536900e-01
  1.4003615e-01
  3.1274077e-01
 -2.9385120e-01
 -2.0183726e-01
  6.1955649e-01
 -7.4865177e-02
  5.2255654e-01
 -3.7222277e-02
 -2.0973228e-01
 -1.2627991e-01
  6.3789356e-01
  1.5981212e-02
  1.8738392e-01
  9.8331612e-01
 -5.2762799e-02
 -3.2744193e-01
  3.8434348e-01
  1.1379313e-01
  1.9509490e-01
  2.2438936e-01
 -2.5010657e-01
  1.9122109e-01
  3.0972388e-01
  2.6339146e-01
  1.2768504e-01
  3.0952314e-01
 -6.1219662e-01
  1.8507586e-01
  1.6246817e-01
 -8.2167964e-03
 -2.1861006e-01
 -5.1429383e-02
 -7.1997195e-02
 -4.4236433e-02
 -1.1268246e-01
  8.2365707e-02
  1.8167261e-02
  7.2339959e-02
 -2.4029835e-01
  4.2640142e-02
  1.6273580e-01
  2.0720953e-01
 -4.8353098e-02
  1.0927331e-01
  8.1086271e-02
  2.1851920e-01
  4.0696359e-01
  4.2183116e-02
 -1.2135306e-02
  4.9621467e-02
  9.9250078e-02
 -1.2628806e-01
 -1.2020423e-01
 -4.2226929e-02
 -1.0968810e-01
  1.0597473e-01
 -2.6192050e-02
  3.7613046e-01
 -8.7497793e-02
  8.3815008e-02
 -3.8530838e-01
  2.1504588e-01
  6.5240425e-01
 -1.6074701e-01
  8.7669605e-01
 -2.8309608e-01
 -4.0957996e-01
  1.4926638e-01
 -4.5426831e-01
 -4.1067275e-01
 -8.3243448e-01
 -9.8830678e-02
  3.0402884e-01
  3.2530242e-01
 -1.6025881e-01
 -1.6726322e-01
  3.6172977e-01
  2.1841317e-01
  2.3661675e-01
 -1.9821018e-01
 -2.9044464e-01
  1.4944683e-01
  1.4719736e-02
 -1.5301396e-01
 -6.7724538e-01
 -2.8442353e-01
 -3.7292052e-02
 -3.1770803e-02
  1.2844896e-01
 -2.1210310e-01
 -1.3104767e-02
 -2.3383604e-01
 -2.0411184e-01
 -5.5809692e-02
 -1.1524199e-01
  4.1408510e+00
  1.9272486e+00
  5.5185878e-01
  2.2395513e+00
 -3.0899873e+00
 -5.2126139e-01
 -9.2123759e-01
 -1.6008149e-01
 -5.3366077e-01
 -2.2363189e-01
  1.1524886e-02
  5.2548569e-02
 -1.0822587e+00
 -5.9683448e-01
 -2.1000590e+00
 -2.1722862e-01
 -1.3166475e+00
  1.1977347e-01
 -7.2224247e-01
 -1.0308588e+00
 -2.0135322e-01
 -2.1561764e-01
 -7.9037112e-01
 -1.9524890e-01
 -2.0847218e+00
 -2.3460601e-02
 -7.4851498e-02
  2.2556841e-01
  6.3956255e-01
 -6.7531168e-02
 -1.4889316e-01
 -1.2973450e-01
  1.5923212e-01
 -6.0121000e-02
  2.8374943e-01
  2.5743027e+00
 -2.7498341e+00
 -1.9558010e-01
  2.8392396e+00
 -2.6880147e+00
  1.5601779e+00
  2.5783429e-01
 -2.6326343e-01
  4.9758252e-02
 -1.4754738e+00
  1.0344474e+00
 -3.6962125e-02
 -6.7417926e-01
  2.4594709e-01
 -1.4625877e+00
  7.5492001e-01
  2.2048790e-02
 -4.5933715e-01
  2.2359096e-01
 -1.0573144e+00
  1.7739521e+00
 -3.2783788e-01
 -1.7150211e+00
 -3.0396268e-01
 -4.1871110e-01
 -2.3111060e-01
 -9.2621259e-02
  1.5355179e-01
 -3.1112010e-02
  6.4865681e-03
  4.3646854e-01
  3.1278633e-02
 -3.1922203e-03
  2.3081033e-03
  7.9144895e-02
  2.4081719e-01
 -2.4362203e-01
  3.3190232e-02
 -6.5978304e-02
 -6.1029023e-01
  2.5710937e-01
  3.2694435e-01
 -3.8502231e-01
 -1.7010650e-02
 -2.5597805e-02
 -6.7434289e-02
  4.1538998e-03
 -5.3365521e-02
  3.2989975e-02
  3.8033117e-02
  2.2477686e-01
 -3.3293644e-01
  2.0022094e-01
  2.4397831e-01
 -2.8283972e-01
 -1.8848898e-01
  1.8506424e-01
  1.7577600e-01
  1.5927319e-01
  6.9347449e-02
  9.8384857e-02
 -1.5250345e-01
 -4.8589859e-02
  1.2134915e-01
 -5.7407167e-02
 -2.1544138e-01
 -2.1636013e-02
  1.2385603e-01
 -9.8926045e-02
  2.0648394e-02
  5.4761928e-01
  1.0124858e-01
  5.5317998e-01
 -1.0633436e-01
  7.8665352e-01
 -4.7450918e-01
 -8.5101449e-01
 -3.3191048e-02
  6.9071031e-03
 -3.7787461e-01
 -1.8830089e-01
 -3.7304068e-01
  2.5892198e-01
  4.5938241e-01
 -1.5596990e-01
  7.1167248e-01
 -1.2635563e-01
  9.5028520e-02
  4.1100770e-02
 -1.9150119e-01
  1.3744326e-01
  1.5703231e-01
  2.5290149e-01
  1.5707131e-01
 -1.2005750e-01
 -2.1059583e-01
 -8.8773303e-02
 -1.2397660e-01
 -2.7937984e-02
  1.8646190e-02
  6.4685978e-02
 -2.3315486e-02
 -2.2486860e-02
 -8.4593460e-02
 -1.1240638e-01
 -1.3193105e+00
 -2.0691252e+00
 -5.2650547e-01
 -2.5283507e-01
  2.7598672e-02
 -7.0174545e-01
 -1.2653004e-01
  3.6841586e-02
 -4.8931021e-02
  7.6033854e-01
 -4.7675169e-01
 -4.6923768e-02
  2.5823903e-01
  7.3442894e-01
 -1.7418578e-01
 -3.2452130e-01
  1.4768748e-01
 -1.3595422e-01
  2.0993261e-01
  1.2077488e-02
 -2.3163992e-03
  5.0115752e-01
 -2.3958643e-01
 -1.8423952e-01
  1.3032337e-01
  2.0487721e-01
 -1.4211112e-01
 -1.6185120e-01
  1.7071484e-01
 -3.4915533e-02
 -4.6601140e-01
  5.6437396e-02
  1.5399913e-01
 -1.6414085e-01
  6.5599792e-02
 -2.5107685e-01
 -8.0794133e-02
 -3.2782927e-01
  4.4998193e-01
 -2.3209387e-01
  4.8094377e-01
 -4.7461557e-01
  7.9661742e-02
 -7.4789882e-02
  2.9633487e-02
 -1.1151172e-01
 -9.9852085e-02
  1.3694293e-02
  4.7711089e-01
  2.2011560e-01
  1.3021317e-01
 -2.0288670e-02
  1.6896340e-01
 -1.4831439e-02
  9.7522445e-02
  2.4395047e-01
 -9.3624681e-02
 -1.4200889e-01
  8.5482664e-02
  1.4582284e-01
  2.9628646e-01
 -8.0257915e-03
 -1.5359556e-02
 -2.3520322e-01
  1.6533235e-01
 -7.4075103e-02
  1.5717548e-01
  3.3577602e-02
 -7.1683235e-02
  4.6343271e-02
 -1.6037026e-01
 -1.7622720e-01
 -1.2798123e+00
  1.3797256e+00
  2.1327901e-01
  4.1317850e-01
  3.2349959e-01
 -1.1794372e-01
  1.3365401e-01
  4.5216772e-01
 -2.3408760e-01
  1.0136152e-01
 -2.7041534e-01
 -2.1110940e-01
  3.2278500e-02
 -1.2110275e-01
 -4.5818996e-01
 -3.4044796e-01
  5.6234021e-02
 -3.0045293e-02
  6.3892210e-01
  6.9116002e-01
 -2.1155463e-01
 -1.2358978e-02
  2.2627904e-01
  2.5961787e-01
 -8.2626700e-02
 -6.6608027e-02
 -2.7809650e-01
  1.6631457e-01
  1.6643099e-01
 -5.0264227e-01
  1.9691218e-02
 -1.6815330e-01
  2.7367696e-01
 -3.9888474e-01
 -5.3811826e-02
  8.3784533e-01
  4.5580363e-01
  5.9498072e-01
 -1.1647381e-01
  1.1837046e-01
 -2.4745835e-01
  1.4608303e-01
 -1.0608415e-01
 -1.0217104e-01
  8.1227861e-02
 -1.4983287e-01
 -1.7826229e-01
 -1.6610409e-01
 -1.1962046e-01
  1.8508931e-01
 -3.5623703e-02
 -1.6555938e-01
 -2.2584409e-01
 -7.7309680e-01
  9.8604374e-02
  2.8394952e-02
  2.2247405e-01
  2.4292685e-01
 -1.5515065e-01
  1.3164833e-01
  1.7583711e-01
  2.2244407e-01
  5.1928908e-02
 -2.4778880e-01
 -2.0034474e-01
 -1.7496371e-01
  1.6604194e-02
  8.3566062e-02
  1.8561347e-01
 -4.9499476e-01
 -9.2473137e-01
  2.2721443e-01
  2.3587041e-01
 -1.0167879e-01
  1.0998621e-01
 -4.3694243e-02
 -1.7625788e-01
  1.8005340e-01
  1.2342347e-01
 -3.7847478e-02
 -1.6842705e-01
  6.4778410e-02
  3.1405941e-04
  1.7201369e-01
  2.0909177e-01
 -1.6475324e-02
 -1.4344229e-01
  9.6068509e-02
  1.3924779e-01
  4.0393800e-02
 -7.2749168e-02
  4.0316898e-01
 -9.2460923e-02
 -7.8179598e-02
  1.2630579e-01
  1.4715648e-01
  1.4196068e-01
 -1.3659884e-01
  3.5537899e-01
  3.2833523e-01
  2.1728750e-02
 -1.0699770e-01
  4.3807488e-02
 -7.2297692e-01
  7.4158603e-01
  1.2338662e+00
 -6.9483441e-01
  1.8010062e+00
 -3.8646904e-01
 -4.7399929e-01
 -6.5280207e-02
 -9.5355801e-02
 -1.2361097e-01
 -6.8367511e-01
 -5.5407476e-01
  2.7485457e-01
  1.6904651e-01
  2.0001696e-01
 -3.9433813e-01
  7.1042967e-01
 -1.6924177e-01
  1.5620142e-01
 -1.4186062e-01
 -6.5924239e-01
 -1.2356918e-01
 -4.1098427e-02
 -6.2454337e-01
 -2.0829639e-01
 -1.1200631e-01
 -2.6529235e-01
 -1.4251219e-01
  8.2094513e-02
  4.1353598e-01
  2.4215279e-02
  4.5151230e-02
 -1.0712872e-01
 -4.5582894e-02
 -5.7087791e-01
 -2.8658459e-01
 -5.4593152e-01
  1.6960431e+00
  1.2221119e+00
 -8.1051540e-01
  1.1435067e-01
  1.1477523e+00
 -2.6880584e+00
 -2.6277874e+00
  5.1650333e-01
 -1.6620068e-01
  1.8972954e+00
 -3.1246927e+00
 -1.3339478e+00
  2.0863712e-01
 -2.3560277e-01
  1.1665394e+00
 -4.1607885e+00
 -4.4564881e+00
  5.3994673e-01
 -9.3004864e-01
  9.3672472e-01
 -5.1071799e-01
 -1.5385629e+00
  1.0263149e+00
  4.7533445e-02
 -2.3123753e-01
  1.0612719e+00
 -7.4393705e-02
 -2.1686742e-01
  9.8008797e-02
  3.5217178e-01
 -1.9307214e-01
 -3.2344240e-01
  3.8069308e-01
 -1.1775491e+00
 -2.8238516e+00
  9.2781430e-01
 -8.3500677e-01
  2.7314106e-01
 -3.9673519e+00
  3.1196105e-01
  1.3752944e+00
  6.0604274e-01
  1.4493846e+00
 -1.9496760e+00
 -6.3126838e-01
  1.0629566e+00
 -2.6880276e-01
  1.3141942e+00
 -1.8631067e+00
  1.0714215e+00
  1.4441733e+00
 -9.1336381e-01
  6.4437675e-01
 -2.1132677e+00
 -2.2734779e-01
  3.9434405e-03
 -1.0590367e+00
  1.0605063e+00
 -2.2471784e-01
  1.3326086e+00
  1.1104368e-01
  7.5687993e-01
 -1.3123508e-02
 -4.7680873e-01
  1.1590672e-01
  3.4940742e-02
 -1.6767490e-01
  3.1409305e-01
  3.5152099e-01
 -5.2773380e-01
 -1.3070126e+00
  1.4440588e+00
 -2.9020360e+00
  6.1923975e-01
 -2.1603146e-01
 -5.5914438e-01
  2.3916005e-01
  5.8975186e-02
  3.8568643e-01
  9.2445546e-01
 -4.8301387e-01
  7.0514476e-01
  5.7412565e-02
  1.4056462e-01
  2.7567285e-01
 -1.7311479e-01
  3.1209514e-01
 -6.7297924e-01
  5.0562155e-01
  1.2858276e+00
 -4.9954948e-01
  3.0270854e-01
 -1.1625266e-01
 -9.3803175e-02
 -1.2063484e-01
  1.6265287e-01
  1.0796937e-01
 -2.2497287e-02
  1.1672128e+00
 -1.3432072e-01
  5.0197789e-03
  1.4347089e-03
  3.6445104e-02
 -6.4500576e-01
  2.4866242e+00
 -1.3861989e+00
  8.7716603e-01
  1.1750440e-03
  2.0356178e+00
 -6.7837805e-02
  7.3081136e-02
  1.5319409e+00
 -3.4859079e-01
 -1.6269931e+00
  1.8690184e+00
 -1.3191347e+00
  5.3799218e-01
  1.4077034e+00
 -5.3211093e+00
 -1.5412192e+00
  4.9283018e+00
 -3.3386566e-02
 -3.4917569e+00
 -8.1190711e-01
 -2.1982968e+00
 -1.4708472e+00
  1.0707873e+00
  1.8752863e+00
  3.9661285e-01
  2.7011840e+00
  1.9257667e+00
  2.1359713e+00
  1.2739444e+00
 -3.1681046e+00
 -1.9782091e+00
 -3.9366879e+00
  9.3430805e-01
 -2.0462136e+00
 -2.2960677e+00
  1.9861172e+00
 -3.6120316e-01
 -1.8623816e-02
 -1.4111933e+00
  1.9764072e+00
  2.1956656e+00
 -2.3077970e+00
  5.2978259e-01
  1.2538319e+00
 -1.0224025e+00
  9.7201484e-01
 -2.0726738e+00
  1.6810180e-01
 -4.5383376e-01
  2.8106028e-01
  2.7176282e-01
  8.6513948e-01
 -4.2789444e-01
 -2.2475529e-01
 -1.3401742e+00
  2.0934235e-01
 -2.4612227e-01
  3.1224209e-01
  6.9408834e-02
  5.6450599e-01
  3.9434823e-01
  5.6719279e-01
  6.9795594e-02
 -1.5446022e+00
 -1.3706733e+00
  9.9129325e-01
  3.0020082e+00
 -4.4776714e-01
 -4.3584400e-01
  4.6046707e-01
  1.1666028e+00
 -3.6715907e-01
  4.7932306e-01
 -2.7662830e+00
  4.6917054e-01
  1.0793954e+00
 -1.4495636e+00
 -2.2502050e+00
  1.3671450e-01
 -5.6270790e-01
 -9.9572074e-01
 -3.0168846e+00
 -4.3602312e-01
  2.7711565e+00
  1.4661026e+00
 -2.3434238e+00
  4.7902748e-01
  4.4850132e-01
  3.3591324e-01
 -1.5898211e+00
  2.9038361e-01
  1.9543554e+00
  1.5199561e-01
 -2.8626728e-01
  6.4684220e-02
 -3.7127325e-01
  3.1051919e+00
 -6.8124944e-01
  4.1670051e-01
 -8.3194047e-01
 -1.5474424e+00
  1.7518096e+00
 -2.6732135e+00
 -4.7541133e-01
 -1.5927632e-01
 -2.2857514e-01
  8.5175979e-01
  3.7447137e-01
  6.8434417e-01
 -5.6074375e-01
  7.5014554e-02
  2.2772174e-01
  3.0763635e-01
  2.6652917e-01
 -6.2144560e-01
  3.0320987e-02
  1.0454088e+00
  1.9075680e-03
  3.0490258e-01
  8.3833921e-01
  1.3012612e+00
  6.9404721e-01
  1.6370014e+00
  4.7677454e-01
 -2.6197383e-01
  2.5731546e-01
  1.4163509e-01
  3.6827311e-01
 -2.1219505e-01
 -1.6853884e-01
  4.9184874e-02
  5.0563902e-01
 -6.6552803e-02
  4.0097091e-01
  1.1888136e+00
  3.6398953e-01
  1.3428745e-01
 -1.3779106e+00
 -4.6878964e-01
  1.7011912e-01
  4.9593255e-01
  2.0854160e-01
  3.5326490e-01
 -2.2704193e-02
  8.7006813e-01
 -1.4814425e-01
  1.7648153e+00
  5.1470143e-01
  7.3538047e-01
 -1.4961728e+00
 -5.6883472e-01
  5.3506047e-01
 -1.0050777e+00
 -2.2881225e-01
 -4.3057892e-01
 -3.3684868e-01
  3.8433912e-01
  7.5639987e-01
  1.2034956e+00
 -2.0631771e-01
 -1.3086910e-02
  3.2457310e-01
  2.4520878e-01
  2.4469754e-01
 -1.9434550e-01
 -1.0340813e-02
  2.2247513e-01
  2.5755250e-01
  1.8610781e-02
  5.8368272e-01
  1.2789105e+00
 -8.8525629e-01
 -2.2018640e+00
 -2.1025157e+00
  1.3181362e+00
  3.5341054e-02
  7.2244745e-01
  1.5826203e-01
  7.5161213e-01
  3.0997634e-01
  1.6963570e+00
  1.8310100e-01
 -1.6890544e+00
 -1.6269670e+00
 -7.2124803e-01
  2.7814379e-01
  8.4588379e-01
 -1.4812510e+00
 -1.1531278e+00
 -1.4244808e+00
  4.2150694e-01
  9.0913469e-01
 -2.2403339e-01
  6.7161322e-01
 -4.3135804e-01
 -1.0002904e-01
 -1.4843033e-01
 -8.0344332e-03
 -6.3743889e-02
 -3.4773204e-02
  2.6048788e-01
  9.1893302e-04
  1.4413907e-01
 -7.3306479e-02
  5.7352209e-01
 -1.3493736e-01
  1.5216451e+00
 -1.3561733e+00
  4.3245828e-01
 -3.4831766e-02
 -1.1978800e-01
  1.1221038e+00
  7.3039180e-01
  1.5350525e-01
  2.6067942e-01
  4.9801290e-01
  7.7974343e-01
 -1.0925293e+00
 -2.4383754e-01
  1.8455461e-02
  2.9828194e-01
  8.7881333e-01
  3.5173450e-02
  6.3344193e-01
  5.4629255e-02
  7.0915473e-01
  7.3659569e-01
  3.2032979e-01
  1.9098748e-01
  9.3527459e-02
  4.7906842e-02
  4.3699732e-01
 -5.9431750e-01
 -3.6185231e-02
 -1.4091800e-01
 -8.0364533e-02
  2.8951097e-01
 -3.5984787e-01
  9.5599093e-02
  2.5539863e+00
  3.4080350e+00
  2.3179159e-01
  3.9923880e+00
 -7.0272923e-01
 -1.3591199e+00
  5.0208271e-01
  6.8879622e-01
 -9.1273046e-01
 -3.5649173e-02
 -7.4378788e-01
 -8.9993244e-01
  1.4236723e+00
  2.7903888e-01
 -4.3967683e-04
  1.4008644e-01
  1.0364836e+00
 -6.3866383e-01
 -6.4068139e-02
 -5.3775813e-02
  8.1412923e-01
 -4.0920144e-01
  4.6135515e-01
  4.9857610e-01
 -7.1566099e-01
  3.7850074e-02
 -4.4403228e-01
  3.5983622e-02
  8.0026142e-02
 -6.9744033e-01
 -3.3470449e-01
  1.0499799e-01
 -1.5403897e-01
 -2.3076968e-01
  4.0836263e-02
  1.0494578e+00
  3.1535177e+00
 -4.4880387e-01
  4.3623485e-02
  1.1796886e-01
  1.1937305e+00
 -7.8549266e-01
  9.4136262e-01
 -6.8557930e-01
  3.8225201e-01
 -8.1057318e-02
 -9.0517354e-01
  2.3472843e-01
 -2.1849394e+00
  4.4589940e-01
  2.4188732e-01
 -1.9377710e-01
  7.5354201e-01
 -2.8420797e-01
  1.0509090e-01
 -8.4386432e-01
 -2.5879350e-01
  7.3030561e-01
  9.4840683e-02
  2.3160710e+00
  6.4755104e-02
 -2.1966006e-01
  1.9633101e-01
 -4.1640526e-01
  1.2123267e-01
 -2.5163576e-01
  8.3675429e-02
  2.5784832e-01
 -1.0703510e-01
  1.9922212e-01
 -8.2379922e-02
 -3.8747561e-01
 -5.4596645e-01
  5.2711374e-01
 -2.7316970e-01
 -3.0079746e-01
  5.0367676e-02
 -4.3136787e-01
 -1.5703944e-02
  5.5621974e-02
 -1.2991162e-01
 -2.2454877e-01
 -1.0965538e-01
  2.7998289e-01
  3.1283510e-01
 -5.6527726e-02
 -4.2408514e-01
 -8.2874544e-02
  7.0554502e-02
 -1.6152620e-01
 -2.2193645e-01
  9.1507640e-03
 -2.2216670e-01
 -2.8752854e-01
 -1.1568762e-01
  5.2636307e-01
  3.7124673e-01
 -1.1350832e-01
  1.6001167e-02
  7.4880876e-02
 -5.5416014e-02
 -1.1404052e-01
 -3.3596742e-01
 -5.9329931e-02
  3.7885588e-02
 -1.3003541e+00
 -2.1367562e+00
 -4.9104372e-01
  1.1862086e+00
  8.1647940e-02
 -3.7270609e-01
 -2.7702745e-02
 -5.5170882e-01
  1.4408188e+00
 -2.3519099e-01
  2.8582543e-02
  2.0540583e-01
 -2.2838660e-01
 -2.6502001e-01
  3.1825550e-02
  5.5157083e-01
 -5.2269977e-01
 -6.1250490e-01
  4.4353176e-02
 -6.1220986e-01
 -7.5155087e-02
 -1.7715000e-01
  1.3277672e-01
 -1.4011070e-01
 -4.9685068e-02
  2.2420803e-01
  2.7760220e-01
 -6.2537307e-01
  2.1901785e-01
 -2.1383265e-01
  1.9507108e-02
 -9.0895660e-02
 -1.2954985e-01
 -1.5992415e-01
 -1.4932606e-01
  1.1198747e+00
  1.1198258e+00
  7.6686567e-01
  1.2469740e+00
  5.5029470e-01
  5.5197433e-02
  2.4404913e-01
  2.1026959e-01
  9.1156274e-01
 -8.9891059e-03
 -3.8047051e-01
  9.6178043e-01
  1.2977098e+00
  6.4155185e-01
  8.7720104e-02
  4.4429135e-01
  5.1606709e-01
  1.0696067e+00
 -3.7412998e-01
  4.2423952e-01
  7.4901521e-01
 -1.6072268e+00
  1.5048999e-01
 -7.5169593e-01
  7.1797824e-01
 -1.2289488e-01
  2.9722366e-01
  3.0264580e-01
 -3.5988840e-01
  3.2120696e-01
  5.4855883e-02
 -1.1201862e-01
  2.1902816e-01
  2.0328428e-01
  1.3795966e-01
 -2.0040582e-01
 -9.2853212e-01
 -5.4175407e-01
 -1.4996940e+00
  7.4193704e-01
  3.2260904e-01
 -1.1294641e-01
 -9.3020663e-02
 -3.3806637e-01
 -9.4612045e-03
  4.7701398e-01
  9.3164653e-02
  4.8106262e-01
 -2.7226003e-02
 -3.2571131e-01
  1.9403096e-02
  3.0459877e-02
  4.1673908e-01
  1.6773269e-01
  1.7552717e-02
  1.5805206e-01
  5.1488549e-02
  5.0956005e-01
 -3.8454616e-01
  3.2670844e-01
  3.4664035e-02
  2.0782520e-01
  3.6197197e-01
 -1.4267989e-01
  3.7444979e-02
 -1.2536722e-01
 -1.8013203e-01
 -7.2113349e-04
 -4.0577736e-02
 -3.6365888e-01
  5.1221931e-01
 -3.9429095e+00
  2.6700243e-01
  6.7297614e-01
  1.1665819e+00
  4.3874362e-01
 -2.1040323e-01
 -3.5287538e-01
 -4.6600699e-01
 -4.8881513e-01
  1.1150920e+00
  4.0525666e-01
 -2.0883761e-01
  1.1528549e+00
  7.5989312e-01
 -1.1718910e-01
  6.8918395e-01
 -2.2729479e-01
  1.1296034e+00
 -5.0909883e-01
 -3.2842267e-01
  3.1379309e-01
 -4.8588970e-01
  2.4418559e+00
  1.1186452e-01
  2.2774582e-01
  1.8331772e-01
 -4.8994201e-01
  1.0580678e-02
  4.2250758e-01
 -4.6686802e-02
  1.4976409e-01
 -3.3114047e-04
 -2.3799627e-01
 -1.1373180e-01
  2.8249162e-01
  2.3731281e-01
  1.2737138e+00
  4.9590382e-01
  3.3811319e-01
  8.0907655e-01
 -1.0489530e-01
  1.6032918e-01
  3.7819794e-01
 -2.4657318e-01
 -4.5318931e-01
  2.8530577e-01
  6.1683070e-02
  1.0428267e-01
  6.6811070e-02
  5.2452188e-02
  5.2484632e-01
  5.2067053e-02
  3.8717419e-01
  1.6787562e-01
  8.4417194e-01
  4.7007167e-01
  4.0420392e-01
  4.8423913e-01
  4.5992412e-02
 -1.5220478e-01
 -1.2640648e-01
 -1.3981855e-02
 -2.5261933e-02
  1.6943963e-01
  4.7973254e-01
 -3.3189259e-02
 -4.0055189e-02
  2.7146873e-01
  1.6324858e-01
 -1.6545632e-01
 -3.2237433e-02
  3.4311805e-02
  5.5002272e-01
 -2.3199236e-01
 -3.3439681e-02
  1.0706995e-01
  2.2314265e-01
  5.6612056e-02
  1.1534041e-01
 -5.1749416e-02
  2.1527584e-01
 -1.8251796e-01
 -3.6626986e-01
  1.6086578e-01
 -4.1099575e-01
 -3.9124466e-02
  1.6275515e-01
 -2.6007012e-01
 -7.2222650e-02
  8.4770299e-02
  1.8542310e-03
 -3.2474961e-02
 -2.5578257e-01
 -1.6234657e-01
  1.4158145e-01
 -9.5766395e-02
 -1.0472371e-01
  1.2788862e-01
  1.0413076e-01
 -3.8980804e-02
  1.6634817e-01
 -6.6703916e-02
  1.2600140e-01
  3.1739127e-02
  2.8228338e+00
  4.7982769e+00
 -3.6556280e+00
  2.6418512e+00
  4.4002812e-02
  2.1696935e+00
  7.0444435e-01
  3.2332933e-01
  7.5994658e-01
 -3.2371151e-01
 -2.4241209e+00
 -4.5328346e-01
  4.2867759e-01
  6.7432314e-01
 -7.3768866e-01
 -1.0789348e+00
 -9.3488060e-03
  1.6204555e-03
 -2.6967853e-01
 -1.6900283e+00
 -1.0085963e+00
 -8.2051831e-01
 -3.8528689e-03
  3.4831479e-01
 -9.9504465e-01
 -1.5995723e-01
  1.9403404e-01
  1.9770867e-01
 -3.9113280e-01
  4.5075763e-02
  5.2420076e-02
  4.5258399e-02
  6.7201085e-02
 -1.6498838e-01
  1.3103748e-02
 -4.0426651e-01
  5.3592872e-02
 -4.0257961e-01
  2.6694766e-01
  6.0197657e-01
 -2.2067723e-01
 -7.1552444e-01
 -2.8277716e-01
 -1.9534117e-01
 -7.1818948e-02
 -9.4784625e-02
  2.3614168e-02
 -1.1142663e-01
  1.1281358e-01
 -5.5487365e-01
  2.8958268e-02
 -3.4777746e-01
 -1.8476987e-01
  1.4158197e-01
 -3.0169517e-01
 -3.5571381e-01
  9.1927379e-02
 -9.6869670e-02
  1.6144784e-01
 -1.3970806e-01
  1.4142635e-01
 -1.5734370e-01
 -3.9306246e-02
 -4.1146773e-01
 -1.8856184e-01
  6.2368780e-02
  1.2961508e-01
 -5.6411523e-02
  1.2307718e-01
 -5.7017252e-02
 -8.4658101e-02
  5.4794817e+00
  6.1421067e-01
 -8.0899581e-02
 -3.2452813e-01
  2.8970042e-01
 -4.5808467e-01
  6.0699892e-01
 -4.1657023e-02
  2.2831452e-01
  7.3519774e-02
 -4.8419755e-02
 -2.0946196e-01
 -7.0726031e-01
 -7.3820585e-01
 -1.0272803e+00
 -5.2801651e-01
  6.6612101e-01
  2.9506990e-01
  8.8997179e-01
 -2.6299077e-01
  1.1696024e+00
  4.5795774e-01
  5.1681024e-01
  1.1951704e+00
 -4.7313932e-01
  7.7602178e-01
 -2.0336084e-01
 -1.9016895e-01
  1.7092323e-01
 -1.1473800e-01
 -6.7746706e-02
  4.4517048e-02
 -1.4308329e-01
  5.8296125e-02
  1.3283848e+00
 -4.0956292e-02
 -4.4212744e-01
  3.7574995e+00
 -1.1355923e+00
 -5.8595288e-01
 -2.0862538e-02
  5.7930422e-01
  1.0636377e-01
  2.6358566e-01
 -2.5733778e-01
 -4.1072661e-01
 -5.1584667e-01
 -5.5272228e-01
  8.3614483e-02
 -7.8113265e-02
 -5.7641059e-01
  1.4784591e-02
 -4.6354014e-01
 -2.8007653e-01
 -9.1803747e-01
  2.8926688e-01
 -2.7777541e-01
  5.7493633e-01
 -3.7499171e-01
  8.4243871e-02
  1.3799080e-01
 -7.7742106e-01
 -7.2053783e-02
  1.5524054e-01
  1.9076389e-01
 -8.9637630e-02
 -2.2140500e-01
 -3.2990879e-01
  3.9065961e-02
  5.1991284e-01
 -9.5561516e-01
  4.5254204e-01
 -6.5304863e-01
 -2.0433459e-01
  3.2022202e-01
  5.4280297e-04
  5.4280275e-01
 -4.2373344e-01
  5.3755903e-01
 -2.2581981e-01
  2.1598822e-02
  9.5501088e-02
 -3.1432313e-01
 -1.6650009e-01
  7.3361516e-02
  1.3503189e-01
 -1.9744067e-01
  3.2725772e-01
  3.7676969e-01
 -6.1571181e-01
  2.3872399e-01
  2.9272556e-01
 -2.0310056e-01
 -1.6027665e-01
 -1.3773121e-01
  1.7235582e-01
  1.3346875e-01
  3.4731306e-02
  3.9882851e-01
 -6.1256576e-02
 -3.5111412e-01
 -2.8741047e-01
  3.4456752e-02
  7.8841597e-02
 -6.2187284e-01
 -1.2028263e+00
 -6.7640436e-01
  1.4440510e+00
 -3.6798621e-04
  1.0004237e-01
  1.0712828e-01
 -7.4715590e-01
  6.7418985e-02
  5.7103169e-01
  1.1460711e+00
  3.9338898e-02
 -8.2171851e-01
  2.9066354e-01
  4.7755367e-01
 -5.5170335e-02
 -3.6106682e-01
 -6.6112292e-01
 -1.8836789e-01
  1.4948140e-01
  9.5179445e-01
 -4.7566280e-01
 -6.7296958e-01
  2.9637811e-01
  1.1876182e-01
 -3.6042299e-02
 -7.9401873e-02
 -2.6613703e-01
 -2.4768735e-01
  1.1036942e-01
 -2.9173964e-03
 -8.4863983e-02
 -6.1456785e-02
  4.7008131e-02
  4.2591554e-01
 -8.6733800e-01
 -3.8526433e+00
  2.1586268e+00
 -1.0279987e+00
 -7.1036232e-01
 -3.8365272e-01
 -2.7440524e-01
 -1.6735914e+00
 -5.5213612e-01
  1.0861484e+00
  4.6268833e-01
  1.0105743e-01
 -1.5025698e+00
 -4.8062289e-01
 -2.5838467e-01
  1.3117899e-01
  2.0357919e+00
 -1.4842608e+00
 -1.2675065e+00
 -5.4797202e-01
 -8.6988211e-01
 -5.5695951e-01
 -8.7719250e-01
  9.2079026e-01
 -3.2544690e-01
  9.3616761e-02
 -4.9794441e-01
 -1.0558718e+00
  1.5061659e-01
 -4.4773117e-01
  9.6779354e-03
 -1.7631757e-01
 -3.7257203e-01
  2.4415761e-02
  2.3460343e-01
 -3.0909908e-01
  1.4007428e-01
 -8.0346215e-01
  6.2079155e-01
  1.2807162e-01
 -3.6769807e-01
  7.0275210e-02
 -3.7319025e-01
  5.0772931e-02
  4.8915636e-02
 -2.5831071e-01
  4.2362076e-01
 -3.1857890e-01
 -1.9034937e-01
 -2.6961216e-01
 -1.8789443e-01
 -1.3509081e-01
 -5.9252179e-01
  6.9427520e-02
 -7.8277059e-02
 -2.8953308e-01
 -6.3572526e-02
 -4.7254440e-01
  3.7214156e-02
 -3.2319352e-02
  1.5100671e-01
 -1.1755330e-01
 -1.2622169e-01
 -2.3931347e-01
 -6.8352737e-02
 -7.4416943e-02
 -9.0671413e-02
  8.4125713e-02
  5.9256312e-02
 -8.4641092e-02
  1.3774048e-01
 -1.3905361e+00
  1.9065962e+00
  8.4303401e-02
  2.2011404e+00
 -5.2162373e-01
 -5.9472442e-01
  2.2241111e+00
 -1.1298899e-01
 -1.0983995e-01
 -1.5768697e+00
 -2.8662071e-01
  1.6258245e+00
  2.6726040e-01
  1.5483083e+00
  5.5708212e-01
  5.1457305e-02
  2.1825123e+00
  8.3132513e-02
  8.0913568e-01
  1.4696829e+00
 -8.8067180e-01
  1.1552807e+00
 -5.2645534e-01
 -2.4888945e-01
 -1.2510992e-02
 -2.5102857e-01
  7.9027019e-02
 -1.8622367e-01
  1.2702572e-01
 -2.3249461e-01
 -1.6525589e-01
  3.9569801e-01
  2.1315555e-01
 -1.0409649e-01
 -2.8501945e-03
  5.4379427e-01
  4.3639886e-01
 -3.2806802e-01
  1.3202095e-01
  2.4695683e-01
 -9.7850457e-02
 -7.8792825e-02
  5.5070841e-03
 -1.7142834e-01
  2.7814862e-01
  8.1754429e-03
 -1.5658154e-01
  1.4440380e-01
 -3.9298128e-02
  1.4807186e-01
  5.5646253e-01
  3.3788320e-01
  4.0367347e-01
  1.2010211e-01
 -1.2317738e-01
  2.7601174e-01
 -2.0367865e-01
  7.6064721e-02
  3.5868421e-01
 -1.8901832e-01
 -2.8065851e-01
 -9.8566867e-02
 -1.4727813e-01
  1.0095318e-03
  1.0045899e-01
 -5.2343342e-03
  1.9087295e-01
  1.3591076e-02
 -3.0276161e-01
 -5.4486161e-01
  1.2936786e-01
  2.7385803e-02
  9.6005476e-01
 -6.9563735e-01
  6.0983393e-02
 -1.7576991e-01
 -2.4949139e-01
 -1.0626378e-01
 -8.7870128e-02
 -4.5884928e-01
 -2.1511360e-01
 -1.3580973e-01
 -4.6807881e-02
 -5.1633114e-01
 -7.4065499e-02
 -3.9790359e-01
 -4.7231641e-01
 -1.0295738e-02
 -1.7313041e-02
  2.0247717e-01
  2.8652635e-01
 -3.4708974e-01
 -1.5188953e-01
 -7.3972034e-01
  1.3150801e-01
  2.0173768e-02
 -1.6539077e-01
 -2.7810478e-01
  1.5578161e-02
  2.8472501e-01
 -1.5094258e-01
 -1.1304932e-01
 -1.6730450e-01
  2.6039624e-01
 -8.5207599e-01
 -2.8099360e+00
  1.4528438e-01
 -2.7651911e+00
  1.4721944e+00
  5.6384617e-01
 -1.4270736e-01
 -3.2637089e-01
 -1.0700733e-01
 -1.8142400e-02
  3.3517084e-01
 -9.6699931e-02
 -4.2646396e-01
 -9.8785412e-01
  4.7464290e-01
 -1.8585564e-01
  3.7255529e-01
 -5.0336874e-01
  7.2218716e-01
  7.5045951e-02
  2.6486397e-01
  6.3025063e-01
  9.8104879e-02
  1.6288389e+00
  1.3049969e-01
 -2.3135519e-01
 -6.5503728e-01
 -2.5170776e-01
 -2.2455934e-01
  1.6186478e-02
  4.6019427e-02
  1.6408600e-01
  1.4790216e-02
  4.9006972e-01
 -1.7491481e-01
 -1.7680423e-01
 -3.2645947e-01
  9.1024727e-02
  5.5662143e-01
 -1.2101635e-01
  2.1272737e-01
  9.9601075e-02
  3.6474445e-01
 -3.2406697e-01
  1.2832788e-01
  9.4195932e-02
 -2.0058347e-01
 -3.0155483e-01
  5.8184996e-02
 -1.5578233e-01
  3.4570056e-01
  4.9536403e-02
 -1.1729589e-01
  2.3967904e-01
 -1.7597608e-01
  1.8692656e-01
  2.5108057e-01
 -4.2033842e-01
 -5.4622763e-01
  6.6251117e-03
  5.3003777e-02
  3.3184111e-02
  8.1974298e-02
 -8.7158613e-02
 -9.0773866e-02
 -7.1775974e-03
  1.1217070e-01
 -1.8377566e-01
  1.7823745e-01
 -4.3189195e-03
  2.5931823e-01
  2.2866946e-01
 -2.6954570e-01
 -5.4614693e-01
  2.3338196e-01
  6.9661267e-02
 -1.8312006e-01
  3.0430421e-01
  4.3541864e-03
 -9.0628378e-02
  1.2733540e-01
  1.3805246e-01
  2.5454813e-01
 -3.6385641e-02
  1.4200736e-02
 -1.2205987e-01
  2.8562149e-01
  1.0424209e-01
  1.0368175e-01
  3.4323905e-02
  3.3162031e-02
  8.0499299e-02
 -6.1593473e-02
 -2.7144498e-01
 -1.7262177e-01
  1.3408671e-01
 -1.9719334e-01
  1.4016981e-01
 -3.4370542e-01
  3.0918178e-01
 -1.5121324e-01
 -3.9934185e-01
  1.7452408e-01
 -4.6668714e-03
 -6.2427355e-04
 -4.2039487e-01
  6.5287322e-01
 -6.8626590e-02
  1.5816083e+00
 -1.2532032e+00
 -6.0688597e-01
  2.7789348e-01
 -3.3290038e-01
  3.8931993e-01
 -1.2261471e-01
 -1.3081242e-01
  2.5481001e-01
 -3.3501425e-01
  4.6762896e-01
  1.5772647e-01
  3.6884516e-01
 -1.8445402e-02
 -1.0848073e-02
  1.4154110e+00
  2.5040928e-01
  3.3325088e-01
  4.9717538e-02
 -3.8287410e-01
 -4.4554934e-01
 -5.1610899e-01
 -7.2717159e-03
 -1.8840566e-01
 -2.3365200e-01
  2.0610613e-01
  5.0617450e-01
 -7.1922511e-02
 -7.2726183e-02
 -3.3629119e-01
  2.6618887e-02
 -5.3112160e-02
  1.9761415e-01
  1.6957073e-01
 -1.8624850e-01
 -2.6588091e-01
 -2.0666887e-01
  6.6422230e-01
  1.5822740e-01
 -1.9506544e-02
 -2.5899364e-02
 -7.9701998e-04
  1.4971935e-02
 -1.5450801e-01
 -8.8140577e-02
  2.1774201e-02
  8.5540786e-02
 -9.9549058e-04
 -3.4012090e-02
 -1.7546830e-01
 -7.1780585e-02
 -3.4028862e-02
  1.6562551e-02
 -8.6048014e-02
 -2.0698690e-01
  1.3205172e-01
  8.7189801e-02
 -1.6747648e-02
 -4.6656981e-01
 -2.8480995e-01
  1.2617791e-01
 -3.2756429e-02
 -8.3898291e-02
 -3.5786003e-02
  3.3232021e-01
  1.4884399e-01
  6.0956921e-02
 -4.2840266e-01
  7.7701932e-01
 -2.8727906e-02
  5.0225735e-02
  3.6932173e-01
 -1.5120298e-01
 -3.0292836e-01
  9.4202437e-02
 -4.2511466e-01
 -1.8308963e-01
 -9.2660308e-02
 -4.7517829e-02
 -3.9873063e-03
 -5.3994428e-02
  4.3312110e-02
 -1.0053636e-02
 -8.8940464e-02
 -2.3426503e-01
 -3.6458611e-01
  4.1208294e-01
 -1.9613357e-01
  1.5633218e-01
 -5.3411597e-01
 -1.3598743e-01
 -6.0127012e-02
 -2.4805751e-01
 -8.6971730e-02
  1.8818950e-02
 -1.2061584e-01
  3.5733018e-02
 -1.1918374e-01
 -1.2302465e-01
 -9.7227477e-02
  1.5570113e-01
  1.3538240e-02
 -4.9699247e-01
  3.3066396e-02
 -6.2278795e-01
  1.9656117e+00
 -1.0065999e-01
  4.1042212e-02
  3.4554586e-01
 -9.2814222e-02
 -4.3295351e-01
 -1.5221623e-01
 -3.0937463e-01
 -2.8857905e-01
  7.2927177e-02
 -2.7970779e-01
 -1.0835993e-01
  5.2049512e-01
 -3.4575310e-01
  2.5179404e-01
 -4.8188624e-01
  2.6777568e-01
 -7.6814570e-02
 -4.2189029e-01
 -5.9050709e-01
 -7.5414115e-01
 -7.9796880e-02
 -5.7123724e-02
 -1.6250364e-01
 -1.4637141e-01
 -9.9832490e-02
  6.9476631e-03
 -7.6457508e-02
 -5.3491905e-02
  6.2530576e-03
 -4.5078209e-01
 -1.6122980e-02
  1.6065042e-01
  1.1876987e+00
  9.0910149e-01
 -9.2367554e-01
  5.8710992e-01
  3.5404655e-01
  1.1500549e-01
  5.5636704e-01
  1.6238084e-01
  8.5156314e-02
  3.2268488e-01
 -2.9881123e-01
 -7.7825397e-01
  3.0855146e-01
 -1.4825049e-01
  1.9121511e-01
 -1.9455360e-01
  3.2392617e-02
  2.0867932e-01
 -3.5191521e-01
 -7.9718155e-01
  1.1997430e+00
  2.5757638e-01
 -4.6814805e-01
  8.7590080e-01
 -6.2606379e-02
  2.0810524e-01
  2.8254595e-01
  3.9760315e-01
  4.1321439e-01
 -1.3191666e-01
 -1.9441225e-02
  6.8742670e-02
 -7.8118473e-02
  1.7673889e-01
 -1.1083251e+00
 -1.0968977e+00
  9.3290192e-01
 -2.4340410e+00
  1.4872291e+00
  4.1879103e-01
  7.2144550e-01
  1.3199992e+00
 -5.3974479e-01
  3.0452350e-01
 -2.1280214e-01
 -1.9295259e-01
  1.4554169e+00
  2.7470627e-01
 -9.9130750e-02
 -3.9107126e-01
  7.4972832e-01
  1.7628878e+00
  7.8475535e-01
  7.3273934e-02
 -3.1411108e-02
  1.4722990e+00
  1.2265270e+00
  6.1690705e-03
 -5.4253966e-01
  1.9073866e-01
  1.9198295e-01
  2.9339910e-01
  3.1466678e-01
  2.5911840e-02
  4.5062549e-02
  5.2726943e-02
  3.7946531e-01
 -5.9684675e-02
 -5.8577567e-02
 -7.9424664e-02
  9.9583256e-01
  7.2034252e-01
 -6.6466826e-01
  6.1960369e-01
  5.0975624e-02
  2.7764168e-01
  2.2588453e-01
  7.7837938e-01
  1.2860833e-01
  7.4404545e-02
 -2.7088663e-01
  2.7466690e-02
  1.3806465e-01
 -3.7317967e-01
  4.9223162e-02
 -6.7772985e-02
  2.4560766e-01
 -6.1345261e-02
  9.4843552e-02
 -5.1607728e-01
  5.1458591e-01
  4.1628432e-01
  1.9716524e-01
  5.7665867e-01
 -3.8919769e-02
  6.2317897e-02
  4.0198821e-01
 -3.9051634e-01
  4.7861704e-01
 -1.8101823e-01
 -6.9480717e-02
  3.4488216e-01
 -6.7367859e-02
 -1.9031665e-01
  1.5250781e+00
 -1.0163664e+00
 -2.2782719e+00
  1.6364437e+00
 -5.4477908e-02
  8.8230026e-01
  1.2306584e-01
 -1.4876543e+00
  6.7986652e-02
  3.9097106e-01
 -4.2487791e-01
 -1.1336156e+00
 -7.5611812e-01
  3.6534861e-02
 -8.6798841e-01
  1.2492766e+00
 -8.3511263e-01
 -1.8860779e+00
  1.5330685e+00
 -5.9485275e-01
  1.2403078e+00
 -5.5838799e-01
 -1.2488402e+00
 -3.5254613e-01
 -1.7718850e-01
  4.6893346e-01
 -5.7121992e-01
 -8.0701083e-02
 -1.1754748e-01
 -2.3023115e-01
  1.3579127e-01
 -4.1022252e-02
 -4.8566753e-01
 -4.2600879e-01
  1.3333309e-01
  3.2421294e-01
 -2.3915839e+00
 -2.1260371e+00
  1.1396754e+00
 -9.9665457e-01
 -5.0194442e-01
 -5.8853352e-01
 -6.7302263e-01
 -7.3949742e-01
 -2.1651608e-01
 -9.3428421e-01
  1.4314359e-01
  1.1336035e-01
  3.5744071e-01
  5.4038006e-01
  1.6026126e-01
  3.1364915e-01
 -1.5896988e+00
  5.1712930e-01
 -7.2686577e-01
 -1.7602104e-01
 -1.6205229e+00
  5.1147199e-01
  5.1625855e-02
 -8.9348692e-01
  3.4852299e-01
  2.2045790e-01
  1.0651281e-01
  8.2361557e-02
 -2.1205844e-01
 -2.0929056e-01
  1.4967023e-01
 -2.7792805e-01
  7.8285140e-01
 -5.1642437e-02
 -1.2901734e-01
 -1.1432801e+00
 -8.3718979e-01
  1.6314685e-01
 -1.2175450e+00
 -1.1557971e+00
 -5.7605386e-01
 -6.2169749e-01
 -9.4015056e-01
 -1.0199770e-01
  1.2031196e-01
 -1.6525410e-01
  1.1625100e-01
 -1.8084409e+00
  4.1192770e-01
 -4.0894499e-01
 -3.3354256e-01
 -5.5515057e-01
 -1.4133567e+00
 -6.2431645e-01
 -9.1047537e-01
  2.0390849e-01
 -1.0140676e+00
  1.0177654e+00
 -5.8738083e-01
  5.6726798e-02
  4.0284183e-02
  2.7297363e-01
  1.5171607e-01
  1.6820966e-01
 -2.2803360e-01
 -9.4027191e-02
 -1.9329183e-01
  4.1593918e-01
  3.5844039e-02
 -1.9778737e-01
  7.1213168e-01
 -1.2561610e-01
  1.4614668e+00
 -5.7046300e-01
 -9.9744707e-02
 -8.2496069e-02
 -3.5276920e-01
  1.1790650e-01
 -2.7899536e-01
 -6.3232593e-02
 -6.5996133e-02
 -2.6056859e-01
 -5.8102286e-01
  1.2988381e-01
  2.3675853e-01
 -3.0732673e-01
 -2.3761627e-01
 -9.1006897e-02
  2.3972582e-02
 -1.1558301e-01
 -6.4551765e-01
 -3.5097441e-01
  1.4831530e-01
  9.4992772e-02
 -4.9094981e-01
 -3.3129152e-02
  1.4748416e-02
 -5.6615468e-02
  4.9104858e-02
  1.7500587e-02
  5.7472471e-02
 -8.2776733e-02
  3.5654228e-02
  6.4576268e-02
  2.6689792e-01
 -3.1135061e-01
 -2.7119765e+00
 -6.9934613e-01
 -1.1187006e+00
 -6.6172111e-01
  1.2775326e-01
 -7.6326460e-02
 -1.8388601e-01
 -2.9698208e-01
 -1.6319497e+00
 -3.2953614e-01
  8.0333799e-01
 -9.6935585e-02
 -2.9858971e-01
  3.0571932e-01
  8.4655958e-01
 -1.3419317e-01
 -2.3861021e-01
  5.5321962e-01
  2.0767513e-01
 -2.0297794e+00
 -5.3582138e-01
  1.9289087e+00
 -1.4889826e-01
  2.5374490e-01
 -5.2117858e-02
  1.2814377e-01
  3.5210678e-01
 -2.9788166e-01
 -2.4818744e-01
  1.6977586e-01
 -9.2422597e-02
  2.3844260e-01
 -1.6516048e-02
  1.6615937e+00
  1.8274596e+00
 -6.8272281e-01
  2.4419208e+00
 -2.1789143e+00
 -1.9804469e+00
 -8.1927858e-02
 -6.5509850e-01
  1.8498456e-01
 -3.9211027e-02
 -1.2189143e+00
  2.6663738e-01
 -9.2108089e-01
 -1.1715925e-01
  1.4341280e-01
 -1.2446122e+00
 -6.8981946e-02
 -1.9884786e-01
 -1.5470916e-01
  7.1529967e-01
 -7.7424759e-01
 -8.3132476e-01
  2.3201706e-01
  1.0368840e-02
  5.4270488e-01
 -4.9110389e-01
  1.2648429e-01
 -3.4382835e-01
 -2.6289040e-02
 -1.8299329e-01
 -3.0751136e-01
  8.5762314e-02
 -1.9540788e-01
 -1.3573810e-01
  6.0808115e-02
 -1.9572542e+00
  4.4329605e-01
 -1.9266725e+00
  7.2443438e-01
  1.9980413e+00
 -2.8511843e-01
 -6.4385951e-02
 -9.6829009e-01
  9.7316200e-01
  7.9084828e-02
  2.3323274e-01
  2.7570206e-01
 -9.5923239e-01
  5.0624126e-01
 -1.1515280e+00
  3.4682083e-01
  7.5591527e-02
  6.6783533e-02
  2.3821059e-01
 -6.1307734e-01
  2.9162544e-01
 -7.0260954e-01
  5.1073849e-01
  1.3046548e+00
  4.6293101e-01
  4.3995485e-01
 -3.8679302e-01
 -7.6488733e-02
  5.1671259e-02
 -1.8252852e+00
 -1.8961824e-03
 -6.2619820e-02
 -1.1900122e-01
 -1.5829867e-01
 -5.4299816e-02
  8.1950319e-01
  6.3505125e-01
  8.8591790e-01
 -4.3260011e-01
  5.1729470e-02
  3.9441499e-01
  2.6717785e-01
  3.6147818e-01
  1.5356030e-01
 -1.2223325e-01
  1.2303119e-01
  2.8697872e-01
  1.1728920e-01
 -2.7708879e-01
 -1.7942777e-01
 -1.3151518e-01
  2.6926214e-01
  4.9356064e-01
 -1.7993450e-01
  7.6439500e-02
 -3.9210029e-02
  5.1979399e-01
  3.4058571e-01
 -1.1106486e-02
 -3.0663773e-01
  1.7771745e-02
 -1.8941978e-01
  1.6698472e-02
 -5.1216152e-02
  2.1786240e-01
 -1.6699159e-01
  2.6603585e-01
  3.1475449e-01
  7.7452429e-02
 -1.1519660e-01
 -4.9780339e-01
 -4.1608539e-01
 -4.1988957e-01
  7.7176684e-01
  2.1271946e-02
  3.4816515e-02
  2.5674057e-01
 -4.7989932e-01
 -1.2086126e-01
  2.2948590e-01
 -6.2796652e-02
 -1.0063694e-02
 -2.0958425e-01
  4.1059887e-01
 -1.2129971e-01
  9.7550806e-03
 -4.0838677e-01
 -1.2316697e-01
 -1.2753901e-01
 -2.4446888e-01
 -3.8183730e-02
  2.6052597e-01
 -5.2018814e-02
 -2.4125072e-01
  2.1808501e-01
 -8.0019936e-02
 -1.2756313e-01
 -5.1166937e-02
 -3.8333595e-02
 -5.4853100e-02
  5.8461949e-02
  1.8679963e-01
 -5.9315879e-02
  9.5147990e-02
  1.5271249e-02
 -2.2812581e-01
  2.3526715e-01
 -5.2112430e-01
  8.2755029e-01
 -1.1219569e+00
 -2.6844809e-02
  2.6152384e-01
 -4.8002791e-01
  1.9379322e-01
 -1.1514694e-01
  5.0159760e-02
 -4.7463900e-01
 -7.2690673e-02
 -4.1651119e-02
 -1.3420366e-02
 -2.4719431e-01
 -3.0470780e-01
 -8.1085712e-02
  2.6060757e-01
 -1.9313465e-01
  2.6489797e-01
  4.1982448e-01
 -1.2645224e-01
 -3.1601894e-01
  2.2249006e-01
  2.8022850e-02
 -1.0007810e-01
  4.8783645e-02
  2.7409524e-01
  4.2807531e-02
 -5.7057902e-02
  1.0121880e-01
 -4.0800864e-01
 -1.1754202e-02
 -1.0325331e-01
  3.4177756e-01
 -2.9510152e-01
  2.1583942e-01
 -6.0725105e-01
 -3.7815967e-01
  3.4650168e-01
  3.6194880e-02
  1.4206134e-01
 -3.7663546e-01
 -2.8463934e-02
  8.1794560e-02
  3.2539934e-01
  4.0461174e-01
  3.6151212e-01
  2.6569077e-01
 -8.7355703e-02
 -8.3225429e-02
 -5.0650232e-02
  1.7444304e-01
 -1.0039295e-01
 -6.2119558e-02
 -6.2928188e-01
 -4.5205090e-02
  8.6961009e-02
  4.1123065e-01
 -9.2274599e-02
 -3.9184816e-02
 -2.6919065e-02
  4.0061649e-02
  2.0126883e-02
 -6.6693053e-02
 -1.3805203e-01
  1.4528925e-02
 -1.3085976e-01
 -7.5082228e-02
  1.3551311e-01
  5.6720418e-01
  5.9137666e-01
 -9.3363160e-01
 -1.2404586e+00
  9.4998640e-01
  2.1869730e-02
  1.2522744e-01
 -6.7642331e-01
  3.4915057e-01
 -3.2397619e-01
 -6.0601258e-01
 -6.7747563e-02
  4.4244271e-02
 -6.8884116e-01
  9.7962180e-03
 -5.4321271e-01
  9.4753844e-01
  1.1020371e+00
  1.0999819e+00
 -1.3264631e-01
 -1.9237609e+00
  1.0481861e+00
  7.4968034e-01
  1.2270342e+00
  2.7363566e-01
 -1.7210107e-01
  7.0821398e-01
  1.5802994e-01
  2.4172153e-01
  6.2297154e-02
 -2.0928870e-01
  3.5023350e-01
  5.4914284e-01
 -1.8404739e-01
 -7.4244010e-01
 -1.2318380e+00
 -7.1992928e-01
 -3.9814726e-01
  1.2967052e-03
  7.8040282e-03
  1.4988121e-01
 -4.0149412e-01
  5.1695611e-02
  7.0434183e-02
 -2.1003924e-02
 -1.4030014e+00
 -5.4218137e-01
 -5.5776411e-01
  2.5221579e-02
  4.6507791e-02
 -3.3158687e-01
 -2.6822469e-01
 -4.7113955e-02
 -3.5487434e-01
  3.1378204e-01
  3.0069038e-01
 -1.9448053e-02
 -4.1591802e-01
  2.1554197e-01
 -2.6734343e-01
 -1.6162297e-01
  7.8831829e-02
 -1.1278448e-01
 -2.1846998e-01
  5.3997010e-01
  5.0898135e-02
 -1.3052326e-01
  7.3697948e-04
 -3.4937873e-02
  3.1896296e-01
  8.2586825e-01
  3.3735189e-01
 -2.2799958e-01
  1.8414644e+00
 -5.4142457e-01
 -5.5252588e-01
 -1.9790159e-01
  6.1922912e-02
  3.7686741e-01
  9.5598829e-01
 -3.4979245e-01
  4.3783367e-01
 -1.3539300e-02
 -5.3859222e-01
  2.9082996e-01
  5.1743031e-01
  6.2688015e-02
  3.4566349e-01
 -6.5572435e-01
 -5.6496334e-01
  3.8213074e-01
  7.1427423e-01
  1.1653233e-01
 -7.4236900e-02
  1.8100696e-02
  5.0354544e-02
  2.4914414e-02
 -1.6000171e-01
 -6.5519705e-02
  8.6879440e-02
  1.6557348e-01
  1.6541533e-01
 -5.0981063e-01
 -4.1787725e-02
  1.3307477e+00
  5.1643801e-01
 -4.3738222e-01
 -4.3950155e-01
  1.4821786e+00
 -6.9180948e-01
  5.5020630e-01
  5.7489944e-01
 -6.7780977e-01
 -6.0903245e-01
  5.8001673e-01
  5.4170412e-01
  4.9898300e-01
  7.5496280e-01
  8.0736864e-01
 -4.4989455e-02
  1.0618811e+00
 -3.9301449e-01
 -5.3116566e-01
  1.6299772e-01
 -5.7833463e-01
  5.9355414e-01
 -2.2558630e-02
  3.3350003e-01
 -6.4664413e-03
  1.6267490e-02
 -7.0435470e-01
  6.2180912e-01
  9.6077144e-01
  3.2069948e-01
 -2.8891286e-01
 -2.3023316e-01
  1.5052721e-01
 -2.4492431e-02
  1.7866507e-01
  3.8046363e-01
 -4.8002708e-01
 -1.2962112e-01
 -1.3356524e+00
  2.2745702e-01
  1.1386634e-01
 -1.0617480e-01
  3.8605109e-02
 -1.8836865e-02
 -2.5527240e-03
  6.3010372e-02
 -8.3355747e-02
 -1.5700309e-01
 -1.2250697e-01
  8.1130397e-03
 -2.0193268e-01
  2.8449726e-01
  2.4815096e-01
  3.7472531e-01
 -2.1600002e-01
 -2.9860953e-02
  8.9436308e-02
  2.0916234e-01
 -7.4266352e-02
  1.1812534e-01
 -7.9596616e-02
  2.2366591e-02
 -3.1501666e-02
 -1.5825562e-01
  1.5120852e-01
  4.2173687e-02
  9.8354340e-02
  2.8461051e-01
 -2.6458612e-01
  2.3424895e-02
  2.0046425e+00
  1.6635729e-01
  5.2284873e-01
  5.4170257e-01
  3.2587534e-01
 -5.6418872e-01
  2.0111172e+00
  6.4762807e-01
  2.5364913e-03
  1.6623675e+00
  1.5947684e+00
  3.1323398e-03
  9.7068173e-01
 -2.3228392e-01
  2.2533784e+00
 -1.6290085e+00
 -3.0260625e+00
 -4.4455387e-02
 -1.0558922e-01
  6.8629742e-01
  1.4318175e-02
  1.1847849e+00
 -6.0245168e-01
  3.1071457e-01
  4.1206512e+00
  5.5250502e-01
 -4.0687656e-01
 -1.6869754e+00
  4.7166768e-02
  8.8688856e-01
 -1.9277121e+00
 -7.2115266e-01
  1.9869877e+00
 -1.9925703e+00
 -6.0235769e-01
  1.0942965e+00
 -3.6558095e-02
 -1.6030707e+00
  1.4428617e+00
 -2.9756141e+00
  6.1714101e-01
 -4.8575744e-01
  1.1419855e+00
 -5.4597270e-01
 -1.7272202e+00
 -1.0530016e+00
 -2.3379914e-02
 -1.7398417e+00
 -1.7962862e+00
  1.1016538e+00
  2.7614605e-01
  3.6166096e-01
  4.7261062e-01
  4.7720489e-01
  2.4143395e+00
  4.0515792e-01
 -2.4401550e+00
 -5.0116038e-01
  2.7940413e-01
  1.7716512e-01
 -1.9641548e-01
  1.4191961e-01
 -2.2791417e-01
  1.0583442e+00
 -4.2082539e+00
  3.5519892e-01
 -8.6966687e-01
  2.3360869e-01
 -3.3352479e-01
 -5.2343476e-01
 -3.1030416e-01
  4.5589972e-01
  9.0306647e-02
 -2.5566420e-01
  6.4921927e-01
 -7.1404621e-02
  7.1514592e-02
 -2.0114492e-01
 -1.4709228e-02
 -2.5881612e-01
 -2.8002721e-01
  4.2972288e-01
  3.1801206e-01
  2.3966007e+00
 -6.3330573e-01
 -9.3379545e-01
 -4.7053331e-01
 -1.7220324e-01
 -5.2726644e-01
 -1.6778661e+00
 -6.7186201e-01
  2.9278818e-01
 -7.3453754e-01
 -9.2069782e-02
  1.4820597e+00
  2.1051197e+00
 -1.5289952e-01
  1.7580180e+00
  4.0289927e+00
  9.1464952e-02
 -2.6237988e+00
  3.4182695e-01
  1.1213793e+00
  1.6151269e-01
  8.5837406e-01
  3.6072403e-01
 -7.2416581e-02
 -8.5607970e-01
 -2.4099791e-01
 -1.2191197e-01
  1.3938504e-01
  6.4926606e-01
 -2.5286239e-01
 -3.1004497e-01
 -2.5831100e-02
  2.5937751e-01
  5.9972990e-01
  1.7017274e-01
  3.8748309e-01
 -1.6372950e-01
  2.1710317e-01
 -1.8408886e+00
 -5.7900441e-01
 -6.6589504e-01
 -8.9388794e-01
 -5.5423331e-01
  1.7109466e-01
 -3.2790605e-02
  9.2471652e-02
  1.0210577e-01
 -5.6974150e-02
 -3.4051764e-01
 -4.3509758e-01
 -1.2913224e-01
 -1.3291702e-01
  1.2773424e+00
 -4.7481451e-02
  2.0359416e+00
 -1.1477808e+00
  1.0452675e+00
 -1.8596986e-02
 -3.4574834e-01
  4.6734456e-02
 -4.3968567e-01
  8.5999638e-02
  1.7300941e+00
 -1.6899844e-01
  6.3294905e-01
  1.5992016e-01
 -3.8417336e-02
  3.4784460e-01
 -9.9705555e-02
 -3.8334990e-01
 -2.6232091e-01
  3.5987228e-01
  9.1681725e-01
  1.9248351e-01
  1.2779267e+00
  1.2942221e-03
 -5.1511687e-01
  5.5587983e-01
  1.8440409e-01
  1.3780143e-02
  9.7811353e-01
  6.7454770e-02
 -4.4355143e-02
 -1.4633706e-01
  1.6965930e-01
 -1.7563803e-01
 -2.9848829e-01
 -1.7278278e+00
 -2.5831335e+00
  6.8525463e-01
 -1.6096948e+00
 -1.1224425e+00
  8.5943395e-01
  1.2822779e-01
 -1.6486904e-01
  3.5998157e-01
 -4.0096283e-02
 -5.7117724e-01
  4.0680814e-01
  1.3179573e-01
 -4.7704014e-01
  2.1569632e-01
  2.9687178e+00
  3.2886729e-02
  6.0582846e-01
  8.5785359e-01
  2.5773060e-01
  1.7840977e+00
 -9.0228029e-02
 -1.7868379e+00
  2.3761675e+00
 -5.9221633e-02
  1.8159372e+00
  2.0696212e-01
  1.0150553e-01
 -1.6172550e+00
 -5.9709683e-02
 -9.9406630e-02
  5.0160486e-02
 -1.7798904e-01
  1.8234301e-03
  2.0264725e-01
 -6.5403157e-01
  2.1745947e-01
  2.5609785e-01
  9.8020233e-02
  8.3426505e-01
 -1.4377445e-01
  8.8063724e-02
 -6.0064897e-02
  3.1348780e-01
  1.6459960e-01
 -2.9432157e-01
  3.5233793e-01
  2.7680430e-01
  5.5740457e-02
 -1.6083057e-01
 -4.5191679e-02
  4.2386904e-01
  4.6499476e-02
  4.3670900e-02
  9.8996826e-02
  5.6515284e-02
  3.1844172e-01
  2.5686345e-01
  3.9262918e-01
  1.3022682e-01
  6.6525096e-01
 -1.7055739e-01
 -8.9430481e-02
  3.2057937e-02
  1.3134106e-01
 -2.7476741e-02
  4.2887464e-02
 -3.8967192e-01
 -1.3862740e-01
  3.9000351e-02
  2.1693811e+00
 -2.5696690e+00
 -2.3873162e+00
  4.8765442e-01
 -2.4731991e+00
 -2.2665636e-01
  1.6755201e-01
  8.4836429e-01
 -1.7016308e-02
 -3.6277211e-01
 -2.8099158e-01
 -7.9414535e-01
 -6.4930487e-01
  8.1157869e-01
  9.5895901e-02
 -1.8046346e-01
  1.8095553e+00
 -5.6595273e-02
 -1.3122018e-01
 -4.9450764e-01
 -4.5832944e-01
 -6.9672596e-01
  1.1433805e-01
  6.6960923e-02
 -1.8284620e-04
 -3.0859739e-01
 -1.1281220e-01
 -5.1225615e-01
  4.2672120e-02
 -1.7650051e-01
 -7.3820531e-02
  8.4458195e-02
  4.3223393e-01
 -3.2459609e-02
 -2.9975124e-02
 -1.0098782e-01
  1.8629673e+00
 -3.6319542e-01
  1.4389846e+00
 -1.7539254e+00
 -9.3685180e-01
 -1.0940412e+00
  1.2651594e+00
 -8.8329619e-01
  4.1151154e-01
 -3.0679905e-01
 -6.0829550e-01
 -1.9409743e-01
  6.4772141e-01
  1.5743528e-01
 -1.2188499e+00
 -5.7640535e-01
 -8.0091667e-01
 -1.9471580e+00
  2.8640252e-01
 -4.5932233e-01
 -4.3916461e-01
  4.9573302e-02
  3.4652689e-01
  8.9356524e-01
  1.6892354e-01
 -2.9360992e-01
  5.8894491e-01
 -4.3737444e-01
  4.8009712e-02
 -8.0562264e-02
  7.7539843e-01
  4.8443049e-02
  1.1581615e-01
  3.9864197e-01
 -7.0386463e-01
  7.3699021e-01
 -2.8586164e-01
  1.4118625e-01
  9.1499901e-01
 -4.4267211e+00
  3.2958749e-01
  1.5754033e+00
  3.4989076e+00
  2.4359984e+00
  5.9528106e-01
  2.7164247e-02
  8.2162172e-01
  1.8435788e+00
  9.7909677e-01
 -2.5746105e+00
  2.0629540e-01
  5.4135436e-01
  1.7487624e+00
  1.7493756e+00
 -3.3901541e+00
 -1.4324744e-01
 -6.2852609e-03
  2.6922719e+00
  1.1422518e+00
  9.4209544e-02
  1.7044708e-02
 -1.3254344e-01
  7.4949998e-01
  2.0269351e+00
  1.5532807e-01
 -2.8072095e-01
 -6.2196136e-01
 -4.0801409e-01
  1.1513646e+00
  8.9678526e-02
 -2.0525022e+00
  2.0398962e+00
  1.2086331e-01
  2.3712367e-01
  9.6290606e-01
  2.2601094e-02
 -1.2257086e+00
 -1.0825701e+00
 -2.2693248e-01
  8.8079536e-01
  1.4615842e+00
  4.5507345e-01
 -9.9684652e-03
  7.6760918e-02
 -4.6081465e-01
 -4.1686711e-01
 -6.4555550e-01
 -4.4356802e-01
 -2.8124186e-01
  1.8111846e+00
  1.8120748e+00
  7.5168997e-01
 -2.4369559e+00
 -1.3044754e+00
  3.3883455e-01
  4.2728619e-03
 -4.7449555e-02
 -8.5491955e-01
 -3.0917481e-01
 -2.1947516e-02
 -1.6333552e-01
 -1.2652934e-01
 -1.1595141e-01
  1.5215090e-01
 -4.0435944e+00
  3.8966885e+00
  5.0047626e+00
  1.8953087e+00
  4.2980433e+00
  7.2059894e-01
  1.2336563e+00
  4.0525350e-01
 -3.5595113e-01
  3.5149485e-02
  4.8862270e-01
  2.1596951e+00
  3.5118792e+00
 -3.0952701e-01
  7.8840718e-02
  1.3805898e-01
  1.4991639e+00
  1.8895817e+00
 -3.1202564e-01
 -2.8736703e-02
  7.4330784e-02
  1.5833956e+00
  1.8166718e+00
 -2.4856153e-01
  1.2502892e-01
  1.0410937e-01
 -2.6351856e-02
 -3.3699328e-01
 -4.0314400e-01
  2.1913946e-01
 -1.6821243e-01
 -1.7693049e-01
 -4.5581203e-02
  1.1579313e-01
  2.6112604e-01
 -5.9848452e-01
 -8.4879011e-01
  1.2463621e+00
 -1.6097368e+00
  6.5814421e-02
 -2.4409503e-02
 -3.7945840e-01
 -2.8381076e-01
 -1.4636439e-01
 -1.0538826e-01
  9.5749862e-02
  2.1684933e-01
  3.0605766e-01
  1.1906275e-01
 -3.9063555e-01
  6.1415710e-02
 -4.7313264e-01
 -7.8837737e-02
 -2.3301870e-01
  1.1209464e-01
  3.9038709e-01
 -7.8142351e-01
  2.1252632e-01
  4.3874311e-01
 -3.7530115e-01
 -7.2951013e-01
 -2.0605157e-01
 -1.4576970e-01
 -1.7310888e-02
  2.5182778e-02
  3.4131758e-02
 -2.4297698e-01
 -8.0905728e-02
  7.7888034e-02
  7.1714878e-02
 -5.0351810e+00
 -5.1721764e-01
  1.1947286e-01
  3.4578764e-01
 -3.1312722e-01
 -1.4467438e+00
  6.1605867e-02
  2.5507081e-01
  1.4655200e-01
  6.2274188e-02
 -6.4221454e-01
 -4.7635037e-01
  1.0803813e+00
 -7.0787445e-02
 -3.0123061e-01
 -1.1534822e+00
 -7.5443590e-01
 -9.4138369e-02
 -1.1790302e+00
 -3.5371184e-01
 -5.6660705e+00
 -1.8554974e-01
  3.5369986e-01
  2.9475382e-01
 -1.1402557e-01
  1.8149729e+00
 -3.2655105e-03
 -7.6500607e-01
  1.1934630e+00
 -9.4874255e-02
  2.6497108e-01
  2.0773594e-01
 -2.9391864e-02
  8.7580070e-02
  5.2136522e-02
 -2.4527688e+00
 -3.9282625e+00
  1.1621810e+00
  1.1991510e-01
  5.0393534e-01
  9.2063263e-02
 -6.0047793e-01
 -6.1051440e-01
 -4.1725048e-01
 -1.1705848e-02
 -1.3635981e-01
  5.3206652e-01
 -5.4715704e-02
 -3.2552418e-01
  5.6787568e-01
 -3.3251670e-01
 -1.2833560e-01
  3.4254989e-01
 -1.2040505e-02
  1.9122320e-01
 -4.3196025e-01
 -1.7068051e+00
 -3.8958186e-01
  3.1223157e-01
 -7.3647045e-02
 -3.2858104e-01
 -7.0204854e-02
  1.2491283e-02
 -3.0548003e-01
 -1.2814555e-01
 -1.5830053e-02
 -3.3054775e-01
 -4.1776896e-01
 -1.8189420e-01
 -3.2641181e-01
  4.5548123e-01
  2.2435420e+00
 -7.7035671e-01
  8.6524147e-01
  8.9132625e-01
 -2.6508936e-01
  7.9696745e-01
  3.2806274e-01
  1.3017366e+00
  3.4114936e-01
  1.1859968e-01
  9.0244156e-01
 -1.1375951e+00
  4.8086193e-01
  3.9836133e-01
  3.4941125e-01
  8.7861037e-01
 -7.2655147e-01
 -1.9713636e-02
  3.2092696e-01
  1.0569384e-01
  6.7804897e-01
 -5.7275456e-01
  1.0922799e+00
  4.1641748e-01
  6.0056802e-02
  8.2524225e-02
  3.6571899e-01
  2.2560127e-01
  2.8447402e-01
 -1.6854107e-01
 -8.4817618e-02
  3.0779256e-02
 -8.0845527e-02
 -1.7963435e-01
  1.9933918e+00
  2.2826204e+00
 -2.9704120e+00
  7.7086067e-01
  9.7720522e-01
 -1.0527329e+00
  1.5709883e-01
  8.4733516e-01
  7.6664573e-01
  8.2476072e-02
 -7.4561894e-01
  6.2697029e-01
  1.3267733e+00
  2.3362999e+00
  3.1787691e-01
  6.0154986e-01
  2.2475654e-01
  9.2257559e-01
 -3.4166488e-01
  3.0857921e-01
  2.5123105e+00
  3.4655342e-01
 -2.2053772e-01
 -3.1318411e-01
 -6.9437347e-02
 -2.8659334e+00
 -4.0799287e-01
 -2.7760047e-01
 -1.7578963e+00
  4.6959215e-01
  4.6611983e-01
 -7.1391428e-01
  2.4651508e-01
  1.3009094e-01
 -1.5778692e-01
  9.9791062e-01
 -3.9971134e-01
  1.9220257e+00
 -1.3981535e+00
  1.2534974e+00
  4.1552186e-01
 -1.0968246e-01
 -4.9260527e-01
  7.9005432e-01
 -8.0128056e-01
  4.3263584e-02
 -3.6589986e-01
  3.0781367e-01
  8.1208742e-01
 -5.7155788e-01
  1.5730293e-01
  1.0113047e-02
  1.1810077e-01
  1.6014853e-01
 -4.5394242e-01
  7.6976046e-02
  7.1304220e-01
  4.0425614e-01
 -2.9243508e-01
 -1.6356604e+00
 -8.7804925e-01
 -1.8209598e-03
  2.0775893e-01
  8.0344069e-01
 -4.8602599e-01
 -3.3239812e-02
  1.4615698e-01
 -6.2129047e-02
  2.2025901e-01
 -1.4135428e-02
  3.1493016e-02
 -1.5848820e+00
 -2.8974128e-01
 -8.8577831e-01
  4.0989742e-01
  1.6589612e+00
 -1.8540800e-01
  1.4051689e-02
 -8.7590098e-01
 -1.9400062e-01
  2.9849436e+00
  4.1640973e-01
 -3.3272421e+00
  2.6158698e+00
  8.4188282e-01
  1.7450942e-01
 -6.3749686e-02
  6.9271833e-01
 -3.6823863e-01
  3.9840084e-01
 -5.0066423e-01
  7.5056046e-01
  5.6040639e-01
 -2.3866086e+00
  1.3959765e+00
 -2.2933139e-02
 -1.4059083e-01
  1.8982836e+00
 -2.9685552e+00
 -2.5467885e-01
 -3.4623746e-02
 -7.0119113e-02
 -1.8115465e-01
  1.6138512e-01
 -4.3248497e-02
 -3.0487186e-01
  2.0976129e+00
 -8.6317524e-02
  1.2052875e+00
  1.9123417e+00
 -5.3992197e-02
  3.0170801e-01
  2.1330681e-01
  8.9744639e-01
  1.1725469e-01
 -2.7030021e-01
  1.0446155e+00
 -9.2226952e-02
  1.4016844e+00
  2.3715062e-01
  6.6649365e-01
  6.0599339e-01
  5.3134555e-01
 -2.7554506e-01
 -3.1084349e-02
  3.3030052e-02
 -1.5435884e-02
  1.1135626e+00
  2.9446971e-01
  4.8493121e-02
  4.6855542e-01
  5.0466812e-01
  8.6976573e-02
  6.9015574e-01
  3.6939749e-01
  1.2836094e-01
 -2.6848820e-01
  2.6511872e-02
  7.8747876e-02
 -1.3866599e-01
  1.2694715e+00
 -2.6744845e+00
 -1.7772326e-01
 -1.2155337e+00
 -1.2415752e+00
  6.5984714e-01
  4.2653406e-01
 -4.7939494e-01
  1.9670987e-01
 -2.0405264e-01
  6.8488491e-01
 -5.2961588e-01
  2.6889759e-01
 -1.2121648e+00
 -5.7616913e-01
  1.6978920e+00
 -1.7472219e-01
 -5.1212257e-01
 -5.3131640e-01
 -2.3167573e-01
  1.5492392e+00
 -1.8731911e-01
 -6.5868574e-01
 -1.0933506e+00
 -8.9016193e-01
 -5.6571186e-01
 -1.3574272e-01
 -7.3825997e-01
 -1.3850425e+00
 -7.8300649e-01
  1.2452359e-01
 -7.9452127e-01
 -2.8055290e-02
 -7.6429732e-02
  2.3317783e-01
 -1.7406105e+00
 -7.4614877e-01
  1.7717501e+00
 -1.9633901e+00
 -1.4758246e+00
 -1.2834448e-01
 -5.6571975e-02
  2.4765473e-02
 -7.5296754e-01
  2.6866519e-01
 -3.6032602e-01
 -5.0762498e-01
  3.0335182e-01
 -3.7804991e-01
  4.1228730e-02
  1.5007862e-01
 -3.4659252e-01
 -3.2809570e-01
 -6.8088990e-01
 -5.0411664e-02
  2.1963525e-01
 -7.6378846e-01
 -1.7366249e-02
  7.0959806e-01
 -2.2414027e-01
  6.9373563e-02
 -3.5320511e-01
 -1.1316590e-02
 -3.2516953e-01
  8.6715400e-02
  1.1281368e+00
  4.0413272e-03
 -5.3670198e-02
 -8.3374023e-02
  1.0845101e-01
  7.0592284e-01
 -3.8012969e-01
 -1.7296112e-01
  6.4322519e-01
  7.0120275e-01
  1.4578469e-02
  1.0858199e-01
 -8.9767165e-02
  2.3923273e-01
  1.8677821e-03
 -4.1078821e-02
 -3.1677790e-02
 -1.7997483e-02
  3.0377916e-01
  1.2128926e-01
  4.5229543e-02
  3.6419806e-01
  1.5561607e-01
 -1.0899088e-02
 -2.4970306e-02
 -2.7616328e-01
  2.5866625e-01
  1.0404509e-01
  1.7301145e-01
  2.0864928e-01
  1.4705038e-01
 -3.3241621e-01
 -3.9179597e-02
 -4.4691447e-02
 -1.1437493e-01
 -1.1757130e-02
  1.2195221e-01
 -1.3252810e-01
 -8.0100242e-03
  1.1239036e-01
  1.2911597e+00
 -2.1420982e+00
 -4.7150631e+00
 -5.4343867e+00
 -4.0874014e+00
 -6.6847301e-01
 -1.9451702e+00
 -1.6692182e+00
  1.4441285e-01
 -2.5718585e-01
  9.4140537e-02
 -4.1858506e-01
 -1.1994550e+00
  9.7417551e-01
  2.6280275e-01
 -4.0642154e-01
 -2.3648846e+00
 -1.3511468e-01
  3.9877146e-01
 -1.3859351e-01
  6.8178988e-01
 -1.3545147e+00
 -1.1021526e+00
 -7.1379356e-02
 -8.7966874e-02
 -7.3121727e-02
  2.6173669e-01
 -8.1317854e-01
  9.4077386e-02
  2.2822170e-01
  7.9605661e-02
  8.9750715e-02
  6.5845415e-02
 -2.0684920e-01
 -6.9884703e-02
 -2.6573329e+00
  8.8751924e-01
 -2.1501427e+00
  1.8047881e+00
  1.3735946e+00
 -5.0976568e-01
  1.4353918e+00
  1.0630038e+00
  8.0614060e-01
  1.5031330e-01
 -2.0700624e+00
  1.1761400e+00
  5.1479059e-01
 -2.6655114e-01
 -4.0254372e-01
 -3.0742168e-01
  1.2619435e+00
  1.1226721e-01
 -3.5921760e-02
  5.1930159e-01
 -1.0456851e+00
  1.1141410e+00
  5.3964120e-01
 -1.5354332e+00
  3.9408352e-02
 -1.8497045e-01
 -3.8324475e-01
  3.6129615e-01
 -1.4851722e-01
 -9.3495145e-02
 -1.6336422e-01
  1.3941008e-01
 -1.6979694e-02
  1.7420444e-01
  2.6678497e-01
 -1.2899172e-01
 -4.8127794e+00
 -1.0136174e+00
 -1.2636185e+00
 -1.6293297e+00
  1.3413429e-01
 -3.4704363e-01
  3.2348576e-01
 -7.2469044e-01
 -4.1440761e-01
  9.4497412e-01
  1.3252462e+00
 -1.5461863e+00
  1.2855531e-01
 -6.6187662e-01
 -3.4324676e-01
 -9.1388917e-01
 -7.5901991e-01
 -1.1026316e+00
 -4.2177203e-01
  1.1152329e+00
 -7.7073112e-02
  8.6521775e-02
 -9.4547540e-01
 -2.0690468e-01
 -6.9063973e-01
  6.0535085e-01
 -1.0006309e-01
  7.1874596e-02
 -1.3748056e-01
 -4.2413812e-02
 -1.4881802e-01
 -1.8564790e-02
 -1.6971251e-01
  8.1085801e-02
 -9.6464115e-01
  2.5474613e+00
  8.3956003e-02
 -3.6458421e-01
  1.0192105e+00
 -5.3689003e-01
 -9.6367002e-02
 -7.2594941e-02
 -3.9793076e-03
  2.8450373e-01
  8.9909458e-01
 -5.3086106e-02
 -5.4645866e-01
 -3.5460043e+00
  3.4266695e-01
 -1.1011729e+00
  9.9634871e-02
  3.3395603e-01
 -8.0904508e-01
  8.7387294e-02
 -1.2871099e+00
 -3.6500198e-01
  1.7160267e-01
  1.3879731e+00
 -1.8184233e-01
 -4.0194435e+00
  9.1750294e-02
  2.0930706e-01
 -5.0315690e-01
  3.7047295e-03
  2.4308744e-01
 -7.3210662e-03
 -4.3732665e-02
  7.1299993e-02
 -2.7686248e-02
  6.5066850e-01
 -1.4883345e+00
  2.1366601e-01
 -1.1055546e+00
 -9.3708545e-01
  1.0561633e-01
 -4.7544834e-01
  5.9557933e-01
 -2.6302105e-01
 -2.3613033e-01
 -2.9865241e-01
  4.7182041e-01
 -2.3529412e-01
  2.5861925e-01
 -3.9698771e-01
  1.0493097e-01
  2.8809237e-01
 -1.1183333e+00
 -1.9921802e-01
 -7.0684439e-01
 -2.0888171e-01
  4.3973349e-02
 -3.8030934e-01
 -1.8859008e-02
  2.4952495e-01
 -2.7567527e-01
  2.1415307e-01
  4.7108620e-02
  6.8186694e-01
  7.5477749e-02
  4.4649255e-01
 -3.9504635e-01
 -1.2968482e-01
  6.8936497e-02
  7.1903653e-02
 -9.7991914e-01
 -1.4407955e+00
  1.9854779e+00
 -1.9290060e+00
  7.6700425e-01
  4.6630853e-01
  1.0561253e-01
 -3.7296796e-01
 -5.0414848e-01
  3.5425690e-01
  3.1118637e-01
 -1.0384772e-01
  1.4734440e-01
 -1.5346205e-01
 -3.0338886e-01
 -2.1752036e-01
 -8.4388018e-01
 -4.6450078e-02
  2.0008002e-01
 -3.1510851e-01
 -1.6271465e-01
  2.0329975e-01
  3.8447359e-01
 -4.3142270e-02
 -9.4744390e-01
 -3.4910087e-02
  2.1241176e-01
 -2.1722814e-01
  1.5843222e-02
 -5.1708096e-01
  9.4114482e-02
  1.5785682e-01
 -2.2032879e-02
  2.9327866e-01
  1.7180362e-01
 -2.3541732e+00
  1.1251495e+00
  1.4386512e+00
  4.8834556e-01
  3.6477647e+00
  7.5821567e-01
  5.4279578e-01
 -1.0904011e+00
  2.3325067e-02
  3.5538915e-01
  1.5740011e+00
 -1.3426355e+00
  1.0783917e+00
 -1.3902174e+00
 -2.5067091e-01
  9.6331513e-01
  3.1999582e-01
  6.0486239e-01
  4.2721695e-01
  7.8158754e-01
  5.1999736e-01
  1.1155928e+00
 -5.7475930e-01
 -5.1417112e-01
 -7.0043004e-01
 -1.8905956e-01
  3.6101410e-01
  3.1359953e-01
 -1.4827405e-01
  4.8854187e-02
  1.0075831e-01
 -3.6152416e-01
 -2.6748857e-01
  1.8060197e-01
 -1.8155058e-01
 -3.6320690e-02
 -7.2840550e-03
  1.4783816e-01
  3.4493640e-02
 -7.2702336e-01
 -1.0921478e-01
  2.2298453e-02
 -2.3815989e-01
  2.7872965e-02
 -3.5499563e-04
  3.3307129e-01
 -1.0922857e-01
 -1.9999564e-01
 -4.9323879e-02
  1.4050248e-01
 -1.3781882e-02
 -1.1338502e-01
 -1.8557416e-02
 -5.2813917e-02
  2.1778439e-01
 -1.2604576e-01
 -1.3555206e-01
 -3.5606915e-01
 -1.1395369e-01
 -1.1408836e-01
 -4.7020655e-02
  1.4971608e-01
 -1.2863223e-01
 -2.3892400e-01
 -3.4849489e-01
 -6.7715637e-02
  1.6863912e-02
  6.7732395e-03
 -2.8997672e-01
  1.9059239e-01
 -4.8975018e-01
 -2.1633341e+00
  1.6920770e+00
 -1.0412325e+00
 -4.1260859e-01
  7.5224012e-01
  6.9922709e-01
 -2.5632050e+00
 -1.5440701e+00
  5.2399302e-01
  1.1056988e+00
 -6.3213265e-01
 -1.2851926e+00
 -2.5048170e+00
 -4.7366372e-01
  5.1777995e-01
  5.2479136e-01
 -1.3044629e+00
 -7.8890830e-01
 -4.6827444e-01
  8.1949937e-01
 -1.0575131e+00
 -6.9119376e-01
 -2.3724432e+00
 -3.6385286e-01
 -2.6054215e-01
 -4.3738985e-01
  4.6426833e-01
 -1.6749527e-01
  3.3633518e-01
  2.1117106e-03
 -4.3832800e-01
  4.5535643e-02
 -3.6860820e-02
  9.6998783e-04
  8.2474428e-01
 -7.7884816e-02
  1.7975190e+00
 -6.8257535e-01
  5.9725136e-01
  5.1053417e-01
 -7.4300435e-03
 -3.8887897e-01
 -3.5385573e-01
 -2.3145944e-01
  1.4379431e-01
  3.0884433e-01
  5.6433624e-01
 -3.9970607e-01
 -5.8050585e-01
  1.7020302e-02
  3.4979707e-01
 -1.0469581e+00
 -1.2630073e+00
 -1.3632122e+00
  4.6859565e-01
  4.7615525e-01
  7.9543215e-01
 -1.0887849e+00
 -8.4396738e-01
 -7.1920857e-02
  1.2971559e-01
 -7.3569911e-03
  4.9023944e-01
 -2.0683086e-02
 -9.2903607e-02
  1.0768308e-01
 -2.3525832e-02
  1.6538918e-01
 -3.8947719e-01
 -3.7155920e-01
 -8.1721604e-01
 -9.4120228e-01
 -1.2062649e-01
 -1.6986002e-01
 -3.9656386e-02
 -5.7053056e-02
 -6.1808580e-01
  8.5107014e-02
  6.5643974e-02
  1.5627354e+00
 -2.2085990e-01
 -6.2238282e-01
 -5.3559470e-01
  2.4568111e-01
  5.6936640e-02
  8.4168784e-02
 -8.7807082e-02
 -1.4457582e-01
  5.4451957e-02
 -4.9487799e-01
 -1.2373745e-01
 -3.3960822e-01
  5.0787471e-02
 -6.5172836e-02
  9.3653135e-02
 -4.1992185e-01
 -6.5685138e-02
 -4.8546955e-01
  7.9926938e-01
  1.9672859e-01
 -2.3127103e-01
 -8.3182782e-02
 -1.1454010e-01
  9.1315150e-02
  1.4019463e+00
  9.3733233e-01
  1.3566920e+00
 -6.4621794e-01
 -7.9824591e-01
  6.4109600e-01
  6.3075787e-01
 -1.1887105e+00
 -2.3090312e-01
  2.6618493e-01
  1.9661522e+00
  3.9040700e-01
 -5.5459752e-03
 -4.8845688e-01
 -7.3446870e-01
  2.1602370e-01
  3.2926568e-01
  1.3612915e+00
  1.1760526e+00
 -1.7833674e-01
  9.6660662e-01
  5.9009922e-01
  5.0296676e-01
 -9.3864244e-01
 -7.8790319e-01
  1.7820643e-01
 -6.2257886e-01
  1.5196265e-01
  5.9692007e-01
 -5.1488087e-02
  1.9369520e-01
 -7.2973955e-01
 -1.9018544e-01
  1.7936544e-01
  2.2806093e-01
  1.8922716e+00
 -8.4913313e-01
 -9.0560007e-01
  3.8722017e-01
 -2.1017580e+00
  1.3896511e+00
  3.7381420e-01
  1.1873612e+00
 -1.4933576e-01
  7.2333503e-01
 -1.5523068e+00
  7.2645825e-01
 -1.1093727e+00
  1.6021842e+00
  1.2571322e+00
 -8.5952830e-01
  2.6553431e-01
 -6.3651836e-01
 -2.2824159e-01
  1.6718316e-01
 -4.1931590e-01
 -1.1704028e+00
  2.1702497e+00
  1.9697385e-01
  1.0841078e+00
  6.7239171e-01
  4.7797676e-02
 -6.0520542e-01
  1.5778145e+00
  5.6688988e-01
 -3.0721022e-02
  8.2575232e-01
  1.2440257e-01
  1.9399492e-01
  2.9297915e-01
 -1.9621192e-01
 -3.9014319e-01
  9.6358693e-01
 -1.4884900e+00
 -2.6672798e-01
  1.0290354e+00
 -9.0695459e-01
  9.3996608e-01
 -1.0072444e-01
  6.9432825e-01
  7.9024076e-02
  3.4520704e-01
  2.5380307e-01
  2.9716250e-01
  2.3162282e-01
  8.3190912e-01
 -4.3715544e-02
  2.5404948e-01
  3.5477523e-02
  3.6789420e-01
  1.8813826e-02
 -1.1793901e+00
 -7.5167859e-01
  4.3881354e-01
  7.7044830e-02
  2.2454809e-01
 -2.8877050e-01
  2.3734434e-02
  7.5409204e-01
  1.6495194e-01
  1.8933049e-01
 -2.2815415e-01
 -1.6656032e-01
 -1.1907029e-01
  1.0545455e-01
  4.5208797e-01
  6.8474010e-02
  8.0859476e-01
 -4.7724789e-01
 -5.1506031e-01
  1.1815971e-01
  4.0903166e-03
  3.2118585e-02
  8.6610794e-02
  1.4912699e-01
  6.5044425e-02
 -7.8325257e-02
  1.6094217e-01
  6.6375427e-02
 -2.4981891e-01
  3.1452006e-01
  4.0558878e-01
 -6.6295117e-02
  8.4306449e-02
 -1.3248840e-01
  3.7149587e-01
  3.0387549e-02
 -8.8673405e-02
 -2.0216201e-01
  1.3764995e-01
 -6.3869226e-01
 -2.6405478e-01
 -1.2518342e-01
 -2.8959551e-01
  1.1816422e-01
  1.1803479e-01
 -2.2534125e-01
 -6.3414365e-02
 -1.5398659e-02
  8.1665248e-02
 -6.2439275e-01
  1.1790853e+00
  1.8552563e+00
 -5.6703109e-03
 -1.8766721e-01
  4.4019884e-01
  2.8050181e-01
 -9.1686511e-01
 -1.9556153e-01
 -3.3729993e-02
 -4.9491435e-01
  6.6872668e-01
  9.2540848e-01
  3.6327633e-01
  2.5640762e-01
  3.4849656e-01
  1.2591736e-01
  3.6093616e-01
  2.7770340e-01
  4.0072095e-02
 -1.9539547e-01
 -1.2849650e+00
 -9.0745169e-01
 -1.4655157e+00
 -3.7857956e-01
  6.6689104e-02
  1.4012381e+00
  1.2155607e-01
  1.4530076e-01
  1.4822010e-02
 -1.2766810e-01
 -3.2417640e-01
 -2.7034661e-01
  3.1876630e-01
 -2.9398024e-01
 -4.7652575e-01
  5.3146088e-01
 -1.0848145e+00
  7.3353994e-01
  6.3340455e-01
 -1.1642778e-01
 -2.7499160e-01
  6.8184477e-01
  2.7851525e-01
 -2.7245185e-01
 -1.1668865e-01
  5.6308728e-01
 -2.3038711e-01
 -3.2281849e-01
  3.6536658e-01
  1.8205510e-01
 -1.2744197e-01
 -1.7345589e-01
  6.7399822e-02
  2.0392206e-01
 -1.3838314e-01
 -3.4180865e-01
  4.9379107e-01
  7.9697892e-02
  2.4694923e-01
  5.6670594e-01
 -2.3386003e-01
 -2.4033616e-01
 -2.2690399e-01
 -1.7677432e-02
 -2.8414240e-01
  1.6454247e-01
  4.8618335e-02
 -6.3878223e-02
 -2.3958521e-01
  1.5698377e+00
 -2.6457634e+00
  1.1773038e-01
 -1.1873319e+00
 -5.5127901e-01
  3.0446023e-01
 -7.8478134e-01
 -2.1517072e-03
 -4.7080097e-01
  1.4971131e-01
  7.6014751e-01
  5.8425486e-01
 -8.5977834e-01
  1.2590358e-01
 -2.9166493e-01
 -2.6515083e+00
 -1.1944725e-01
 -1.3172562e-01
  1.0076915e+00
  4.7197998e-01
 -4.9112033e-02
  2.4666463e-01
 -9.3925673e-01
  6.6214794e-01
  8.7276451e-02
 -3.8542818e-02
  2.2060184e-01
  4.0917236e-01
  1.0298056e-02
  2.1483665e+00
  2.7523050e-01
  5.1032877e-01
  5.4349586e-02
 -1.9876054e-01
  3.2801071e-01
  1.3445691e+00
 -3.5988746e+00
  2.4369885e-01
 -2.0202611e-01
 -1.9485543e+00
  1.8118596e-01
 -4.1720685e-01
 -1.1755200e-01
 -6.8104184e-01
 -6.3818789e-01
 -5.9606573e-03
 -2.3254044e-01
  1.2146403e-01
 -9.5372415e-01
 -7.6238579e-01
 -4.3956995e-01
 -2.1458361e-01
 -5.1883376e-01
 -7.4029440e-01
 -7.9028535e-01
 -5.9931648e-01
 -6.5114319e-01
 -1.1162001e+00
 -1.4265068e+00
 -1.4957096e-01
 -3.2946411e-01
 -2.0324814e-01
  5.6519300e-02
 -4.5641580e-01
  1.6936162e-01
 -7.9808384e-02
  2.6042143e-01
 -4.0187761e-01
 -6.5922071e-03
  3.0118042e-01
  6.8387353e-01
 -2.5597482e+00
 -1.5597311e+00
  1.5633384e+00
 -2.6539800e-01
 -7.9286739e-02
  2.4854669e-01
  9.3872808e-02
  6.9205046e-01
  3.9679509e-02
 -6.7979090e-02
  9.2156738e-01
  5.9966975e-01
  1.2009021e+00
 -5.5978882e-01
  1.7792933e-01
 -1.4695422e-01
 -1.2644678e-01
  1.0960706e+00
  4.2769477e-01
 -1.6447416e-01
  1.0939100e+00
  1.2116113e+00
  1.0147566e+00
  3.0604628e-01
  5.7869220e-01
 -1.5553027e-01
  4.3483973e-03
 -5.4059660e-01
 -3.0143705e-01
 -6.1449662e-02
 -1.7031713e-01
  7.0377924e-02
 -2.5085302e-02
 -5.3836334e-02
 -2.2969311e-01
  6.3393402e-01
 -1.5605210e+00
  1.2690241e+00
 -9.6530044e-01
 -8.6001116e-01
  5.4638588e-01
  8.1897125e-02
  2.4335515e-01
  1.8484218e-01
 -4.9424934e-01
  3.8288406e-01
 -7.3070055e-01
 -9.8070520e-01
 -7.3739409e-01
 -3.3988979e-01
 -1.7489089e-01
 -1.3683230e-01
 -6.2418133e-01
  1.5345269e-01
 -5.6519437e-01
 -6.4085901e-02
  2.1377255e-01
 -4.3665808e-01
 -5.3563094e-01
  1.2055032e+00
  1.6396597e-01
 -2.3255652e-01
 -9.0035850e-01
 -9.9746245e-01
 -3.6889666e-01
  2.5047815e-01
 -1.0964347e-01
 -2.2740473e-01
  1.0112650e-01
 -3.3016476e-01
 -5.5212188e-01
 -3.2299095e-01
 -9.3905561e-02
 -1.3190660e-01
  4.4053674e-02
 -7.1298175e-02
  1.1539190e-01
 -1.9455875e-01
  6.7294233e-02
 -4.1862530e-01
  1.0896338e-01
 -1.3319364e-01
  2.4103794e-02
  1.2571326e-01
  3.9540924e-02
 -4.9963331e-01
 -1.6389656e-01
  1.7670523e-01
  1.1966503e-01
 -4.4782501e-02
  2.2195143e-01
 -2.0902455e-01
 -1.8690583e-01
 -5.4237109e-01
 -2.7096310e-01
 -2.4208219e-01
  5.9730459e-02
 -1.4797368e-02
  3.6073867e-02
  1.1419660e-01
 -4.1753113e-02
  2.0674592e-02
  1.9599384e-01
 -1.0357384e-01
  2.4548571e+00
 -6.4835268e-01
 -4.4287285e-01
 -1.7099966e+00
 -1.3725059e+00
 -2.6431710e-01
 -1.5252342e+00
 -4.9646029e-01
 -1.1892388e+00
 -6.5636528e-01
 -6.7662495e-01
 -2.6706761e-01
  4.1823462e-01
 -6.7028081e-01
 -1.1302191e+00
 -4.2545021e-01
 -3.2439980e-01
  3.1690267e-01
 -4.0189978e-01
 -3.7192714e-01
 -1.3923898e-01
 -6.3140446e-01
  9.9910289e-02
 -4.0141851e-01
 -8.6662507e-01
 -4.0208635e-01
  2.1651924e-02
  1.6441001e-01
 -6.8160295e-02
 -1.3098368e-01
  2.3882732e-01
 -2.0870860e-01
 -1.2090397e-01
 -2.5908237e-02
 -9.3586892e-02
 -3.6378708e+00
  1.6828524e+00
  1.4498863e+00
 -8.2835251e-01
  2.8645667e-01
  4.4265157e-01
  2.1733668e-01
  2.2732769e-01
 -1.4700298e-01
  1.7278361e-01
  2.9581428e-01
  2.1787259e-01
  8.0190860e-02
 -1.7027594e-02
  9.7736195e-02
  6.6485882e-01
  1.7577665e+00
  3.4146887e-01
  4.1253024e-01
  8.7141721e-03
  2.3288867e-01
 -4.9740407e-01
  8.8001907e-02
 -3.5508806e-01
 -2.8692609e-01
 -4.2412370e-01
  1.1861558e-01
 -2.0571406e-01
  4.9077176e-02
  7.9126358e-02
  8.5568160e-02
 -2.0403875e-01
  5.4551084e-03
  1.7361960e-01
 -2.7408648e-01
 -4.0337386e+00
 -3.4171476e+00
  1.4987923e+00
 -3.0349078e+00
 -3.9873743e-01
  2.2281897e-01
  1.6078171e-01
 -1.7171784e-01
 -4.8948446e-01
  9.7068883e-02
  5.5214369e-01
 -5.2782446e-01
  1.5032285e-01
 -3.0406323e-01
  3.4131271e-01
  7.9562739e-02
  1.5125087e-01
  3.0817166e-01
  8.3081013e-01
 -1.5599850e-01
  6.2674889e-04
 -2.8368467e-01
 -3.3680074e-02
 -4.4919603e-02
  3.2684520e-02
 -2.5205922e-01
 -3.9637196e-01
  3.9613307e-02
 -8.6624853e-02
 -2.9698402e-01
 -3.2724354e-02
 -3.8070762e-01
 -1.2733744e-02
 -1.4288075e-01
  5.6254458e-02
 -2.5295718e+00
  5.6145960e-01
  8.4779721e-01
  6.2149978e-01
  2.0954847e+00
  4.2965013e-01
 -1.5302977e-01
 -9.8039713e-03
  2.1119425e+00
  9.4230020e-01
 -1.1972320e+00
  4.3944803e-01
  5.2329081e-01
  8.7792480e-01
 -1.1405746e-01
 -1.7149696e-01
  3.0914155e-01
 -4.8394758e-01
  1.5571990e+00
  2.6840299e-01
 -1.3033821e-01
  1.8776809e-01
 -5.6399617e-02
 -8.8581777e-01
  1.0695533e-01
  7.2187740e-01
 -1.3063253e-01
  7.9419565e-01
 -2.5323877e+00
 -1.1285431e+00
  6.4512365e-02
 -8.1926428e-02
  2.8326893e-01
  1.0303915e-02
 -4.4831708e-02
 -2.2708063e+00
 -4.6025378e-01
 -2.7202153e+00
 -6.5886283e-01
 -2.7166975e-01
 -2.7267519e-01
 -4.4980493e-01
  1.5285815e-01
  7.0085359e-01
 -2.1005027e-01
 -1.2573645e+00
 -7.9204226e-01
  1.8268353e+00
 -4.1516319e-01
 -1.8578552e-01
 -3.9152339e-01
 -8.8653809e-01
  1.1083419e+00
  1.2933145e-02
 -1.2919836e-01
 -1.0565104e+00
  1.2945355e+00
  7.8774798e-01
 -4.4792035e-01
  5.7745469e-01
 -5.1749162e-02
  4.1968286e-01
 -1.2927122e-01
 -1.0431048e-01
 -2.3374635e-01
  3.7725000e-03
 -1.0986251e-01
  1.8597920e-01
 -3.9753597e-02
 -3.4954771e-01
  1.0766501e+00
 -1.2085686e+00
  7.7773297e-01
 -1.1800366e-01
 -5.5279869e-01
  6.5899688e-01
 -3.7359917e-01
 -7.0894308e-02
 -2.7459338e-01
 -2.6810533e-01
 -5.5535953e-03
 -1.2422131e-01
 -3.7090811e-01
 -1.7595099e-01
  4.7908131e-02
 -1.2853593e-01
  6.6718048e-01
 -3.3505934e-01
 -6.9564708e-02
 -2.6792425e-01
 -1.0225746e-01
 -4.1712624e-01
 -3.6634645e-01
  2.0325625e-02
 -3.1259164e-01
  2.1353197e-01
  2.3733789e-01
 -4.2086966e-02
  1.3882068e-01
  2.5141937e-01
 -2.1594577e-01
 -2.0217721e-01
  7.2027847e-02
 -4.4541612e-02
  7.8401811e-02
 -3.0704985e+00
 -3.0442088e+00
  4.0054178e-01
 -1.7788627e+00
 -5.3514171e-01
  1.2316061e+00
  1.5884960e+00
  7.8952909e-01
 -3.3663144e+00
  3.2819715e-01
  2.0765674e+00
  1.5658689e-01
  1.7931993e+00
 -2.8633559e+00
 -1.3079776e+00
  8.7197322e-01
  1.5967908e+00
  1.6745359e+00
 -4.2492771e+00
 -1.6329339e-01
  3.2365039e-01
  5.6529349e-01
  2.7909875e+00
 -3.6399994e+00
 -8.4806222e-01
 -2.1641198e-01
  5.6928116e-01
  2.5528669e-01
  1.0366555e-01
  8.6310126e-02
  4.9941309e-02
 -5.8387846e-01
 -1.5366058e-01
  5.8380656e-02
  2.0725451e-01
 -2.1804716e-01
 -8.3102781e-01
  9.0447891e-01
 -1.0662333e+00
 -2.1144553e-01
  7.2504210e-01
 -1.7785522e-01
  5.7921525e-02
 -2.4456492e-01
  1.8630682e-02
  2.6249578e+00
  3.9208442e-01
 -5.2988732e-01
 -7.5311416e-01
 -3.4076154e-01
  1.4660993e-01
  1.3077778e-01
  2.3454963e-01
  1.3919435e-01
  3.2692766e-01
 -9.6741396e-01
  3.6222988e-01
 -1.6467968e-01
 -9.0676492e-01
  3.1819484e-01
 -1.3712249e+00
 -4.6738699e-02
 -3.2740913e-02
 -4.0911075e-01
 -1.2726675e-01
 -1.6022475e-02
 -1.9144202e-02
 -1.1973222e-02
 -7.0064746e-02
  2.7334803e-01
  1.0650653e-01
  2.2402539e+00
  3.2532248e+00
  6.5820420e-01
  1.1769637e-03
 -1.2768865e+00
  1.4397426e+00
  1.1270704e+00
  5.9307069e-02
  7.0688117e-01
 -2.4842184e+00
 -2.0075297e+00
  1.3932134e+00
 -1.6550015e+00
  1.8839842e+00
  2.3586838e+00
  2.4170616e+00
 -4.0274978e+00
  6.6676468e-01
  9.3930811e-02
  3.8382530e-02
  1.2476461e+00
 -2.2161999e+00
 -4.6660795e+00
 -1.2338424e+00
  1.0038900e+00
  4.1044053e-01
 -5.8636792e-02
 -1.0968471e-01
  1.6222453e+00
  2.8827927e+00
  1.2233605e+00
 -2.7282572e+00
  2.0150380e+00
  1.8921589e+00
 -8.3652377e-02
  1.3986291e-01
 -3.3934402e+00
 -3.5719264e+00
 -1.0425010e+00
 -2.3468027e+00
 -5.4742908e-01
 -2.4576480e+00
  1.0600753e+00
  5.9878886e-01
  2.9466939e+00
  6.0345829e-01
 -1.7294372e+00
 -2.2148222e-01
  1.4170420e+00
 -2.3467675e-01
 -3.1783252e+00
 -4.2155390e+00
  1.1231747e-01
  4.9219975e-01
  1.5072902e+00
  3.2593484e+00
 -1.4411217e+00
 -1.2187368e+00
 -1.7868569e-01
  3.0618935e+00
 -3.9577189e-01
  3.5237426e-01
  1.2800283e+00
 -2.4446886e+00
 -4.1401954e+00
  4.3904510e-01
 -5.8034582e+00
 -2.6407295e-01
  7.5603902e-02
  1.2059977e+00
  5.6738842e-01
 -4.6636158e-01
  6.5259397e-01
 -1.7866039e-01
 -6.4304608e-01
 -7.8271544e-01
 -8.8276202e-03
 -1.4836141e+00
 -2.1025393e+00
 -2.0716059e+00
 -1.4447503e+00
 -2.2169461e+00
 -3.7187154e+00
 -1.0247777e+00
 -3.3584961e-01
  1.7071059e-01
 -3.2164960e+00
 -4.0252900e-01
  2.3638055e-01
  3.9804914e+00
 -3.6911257e-02
 -3.7364683e-01
 -1.7408311e-01
 -3.2081401e-01
  3.4990988e+00
  3.8443652e-01
 -1.6357443e-01
 -9.4976842e-01
 -8.1670982e-01
 -1.8665571e+00
  2.5672013e-01
 -2.8923213e-01
  1.5084234e-01
  2.6629529e+00
 -5.5855376e-01
 -1.3175261e+00
  2.8501493e-01
 -1.9999992e+00
 -4.5472550e-01
  1.5612020e-01
  5.1631582e-01
  8.4891927e-01
 -6.6044420e-01
  4.7863263e-01
  6.0080743e-01
  5.8953571e-01
  6.3552044e-02
 -6.0322791e-01
  3.6531198e-01
  1.6227032e+00
  4.8295519e-01
  1.5974249e+00
 -1.2141674e+00
  1.7436630e+00
 -4.0489045e-01
  2.2706783e-01
  9.7749114e-02
 -1.2302469e-01
  3.4578234e-01
 -1.7480688e-01
 -1.8748774e-01
 -3.5145903e-01
  4.3309221e-01
  6.2002510e-01
 -2.0146146e+00
 -6.6282806e+00
 -2.7519393e-01
  2.0751572e+00
 -1.1564174e+00
  7.7472067e-01
  8.7007451e-01
  5.9335984e-02
  2.9758292e-01
 -1.5849841e-01
 -2.7756968e-01
  1.2953082e-01
  3.7538555e-01
  3.6955836e-01
  1.5336904e-01
  1.4252789e-01
 -1.1212837e+00
 -1.0279104e+00
  8.5767329e-01
 -1.0641146e+00
  1.5910982e+00
 -2.0114741e+00
 -6.1661530e-01
 -2.4228826e+00
  1.1611980e-02
  8.7126857e-01
  1.4224167e-02
 -1.6535093e-01
  8.1397873e-01
 -3.2438293e-01
 -2.8745538e-01
 -1.5770961e-01
 -3.0240747e-01
  3.9996110e-02
  2.8257273e-02
 -1.3873447e+00
 -1.0532979e+00
  6.1550170e-01
  1.1794701e+00
  1.2061875e-01
 -9.1771632e-01
 -9.9509495e-01
 -1.6980971e+00
  6.5337592e-01
  3.5733860e-02
  3.8434362e-01
 -1.5215737e+00
 -1.6178808e+00
  1.7618490e+00
  4.6663845e-01
 -7.5423259e-01
 -8.5393071e-01
 -2.5719123e+00
  1.2362020e+00
  1.0130799e+00
 -3.7511829e-02
 -4.1130447e-01
 -2.0392201e+00
  1.1488802e+00
  5.6261513e-02
 -1.9855697e-01
 -2.7090725e-01
 -2.7134940e-01
 -8.0742121e-02
 -8.4102727e-02
  1.0998074e-01
 -1.8630667e-01
  6.9982809e-01
 -2.3028979e-01
  3.0206019e-01
  1.7724761e+00
  7.6598942e-01
  2.1199274e+00
  3.3501365e+00
  3.5632825e-01
 -3.8124850e-01
  4.1416830e-01
 -9.6781462e-01
 -3.0018514e-01
 -7.8140551e-01
 -4.3369326e-01
  4.5824230e-01
  3.8475132e-01
 -4.2995197e-01
 -4.7091132e-01
  1.8247904e-01
 -5.0166555e-02
 -8.7454790e-01
  7.2870773e-01
 -8.8276297e-01
  1.5121799e+00
 -1.0383597e-01
  6.0662519e-02
  1.3158582e-01
 -2.5269437e-01
  2.3591658e-01
  4.9355045e-02
 -5.3404946e-02
 -3.8563657e-01
 -3.5610038e-01
  8.1512675e-02
 -7.0700862e-02
 -3.2463393e-01
 -2.9019533e-02
 -2.0623820e-01
  4.4234765e-01
 -5.2849793e-01
  1.4016577e+00
 -2.0489778e-01
  1.2523885e+00
  5.7938606e-01
  6.8307811e-01
 -2.2478986e-01
  2.8942353e-01
  3.5125294e-01
 -3.4559656e-02
 -1.8240893e-02
 -1.8059301e-01
 -4.7158103e-02
  1.0610615e-01
 -1.1744024e+00
 -5.5652463e-01
 -5.3186750e-01
 -1.8386018e+00
  3.9439745e-02
 -1.4487545e+00
 -9.8078060e-01
 -4.1209373e-01
 -8.5792482e-01
  3.4026283e-01
 -3.1818542e-01
  2.4058822e-01
 -5.1888019e-01
  8.1353778e-01
  7.6018497e-02
  8.2986839e-02
  1.6692360e-01
 -8.6504184e-02
  4.9801672e-01
 -3.1787258e-02
  8.2373522e-02
  1.7999728e-01
  2.7146611e-01
  7.5406291e-02
  3.5586599e-02
 -4.5680639e-01
 -1.0216643e-01
 -9.7732849e-02
 -3.0024800e-01
  2.2934699e-02
 -5.4801112e-01
 -4.5683257e-02
 -4.8906487e-01
 -7.3598784e-01
 -1.6240494e-01
 -1.4422005e-01
 -1.2371736e-01
 -6.5706295e-01
 -9.4895348e-02
 -2.9686213e-01
 -3.1453824e-01
 -4.1085806e-02
 -3.8923818e-01
 -1.8278934e-01
 -1.8831445e-01
 -1.1044741e-01
 -2.3630804e-01
  4.2267424e-01
  2.3086520e-01
  1.0861681e-01
 -6.6641405e-02
  3.2382686e-02
  4.1546263e-02
 -1.2535398e-01
  5.2491758e-02
 -8.9432174e-01
  1.6756872e+00
  2.3589166e-01
  1.6487657e+00
  1.5888630e+00
  4.9740303e-01
  1.5358120e-02
  9.5235892e-03
 -6.5797991e-01
  2.5442532e-01
  4.3878713e-01
  6.3660353e-02
 -9.2809308e-01
 -1.2871858e+00
 -3.0056968e-01
 -8.2485549e-02
  4.5489347e-01
  1.6242646e-01
 -2.3292890e+00
  5.7555127e-01
 -1.8029539e-01
  7.2852820e-02
  1.4596564e+00
 -1.7663081e+00
  8.9490104e-01
  6.8391062e-02
  2.2902456e-01
  2.8204274e-01
 -2.4113601e-01
  4.8560905e-01
  3.6397976e-01
  1.3350074e-01
  2.0500883e-01
  6.1911297e-01
 -1.9697213e-01
  1.7432333e+00
  7.7677810e-01
  2.1741560e+00
 -1.5127295e+00
  2.3014039e-01
  3.1445894e-01
 -1.5505661e-02
 -1.8237656e+00
  8.7393230e-01
  7.6918966e-01
  6.7242287e-02
 -1.7968126e-01
 -7.5909115e-02
 -4.1911083e-01
  1.4826899e+00
  7.1463507e-01
  5.1623183e-01
 -5.1550078e-01
  6.0555434e-01
  5.4347998e-01
  4.8511294e-01
 -6.8208504e-01
 -1.5547436e+00
  2.1708606e-01
  1.9576933e+00
  3.7486750e-01
  1.3689631e-01
  1.9876905e-01
  1.2910257e-01
  1.1649531e-01
  9.0500182e-01
 -1.1403352e-01
 -4.0595070e-01
  1.3503471e-02
  3.5673371e-01
 -1.8002203e+00
  7.2330400e-02
 -2.9646745e+00
 -7.5971475e+00
  2.0163594e-01
  5.5726510e-01
 -8.8499725e-01
  3.1514439e-01
 -1.2928308e+00
  1.1318219e-01
  7.2493595e-01
  7.8341208e-02
 -1.3607091e-01
 -2.2444898e-01
 -1.0620276e-01
 -7.0593578e-01
 -1.4901483e+00
 -2.7782717e-01
 -2.0567558e+00
 -1.8297273e-01
 -2.9955506e+00
 -1.3204764e+00
 -1.1216247e-01
 -7.3877519e-01
 -3.7043566e-01
 -2.5987488e-01
 -3.4719524e-01
  6.8888515e-02
  4.1599336e-04
 -5.0197849e-03
  1.5381806e-01
 -7.3161186e-03
 -4.7925577e-02
 -1.8934201e-01
 -1.2208998e-01
  2.5439658e+00
 -3.0899553e+00
  6.6989434e-01
  5.3869090e+00
 -8.9336473e-01
 -3.1181121e-01
  7.8842801e-01
  6.5476626e-01
  3.2554812e+00
  5.2525765e-01
 -5.6861800e-01
 -3.6859220e-01
 -2.3684698e-01
  6.0838413e-01
 -3.1487841e-02
 -5.0079346e-01
 -8.5061628e-01
  1.1430349e+00
  1.2680413e-01
  7.9485558e-02
  5.9564412e-01
 -1.2797282e+00
  1.6537111e-01
 -1.5782632e+00
  8.4280360e-01
 -5.3730613e-01
  1.7869157e-01
  7.7466124e-01
 -6.4963147e-02
 -1.0259800e+00
 -1.0568599e-01
 -6.2121922e-01
  4.8459806e-02
 -5.6297940e-01
 -1.0506699e-01
 -2.9280488e+00
 -2.1502969e-01
  1.8591107e-01
  1.1161642e+00
  1.1143372e+00
  6.0988575e-01
 -4.2684942e-01
 -9.8934181e-02
 -5.3637758e-02
 -7.9041138e-02
  4.5107272e-01
  6.9357115e-01
 -4.6497911e-01
 -6.8870974e-01
  3.6679611e-01
 -8.1937516e-01
 -1.4634608e-02
  1.9324245e-01
 -2.5106871e-01
 -8.0209517e-01
  1.3161033e-01
 -2.2016187e-01
  9.2053157e-01
 -2.7925760e-01
  7.2013193e-01
 -4.6592915e-01
  1.6386926e-01
 -4.8401847e-02
  4.4218922e-01
  3.9169791e-01
  9.4114408e-02
  7.7989936e-02
  2.3662516e-01
  7.3258948e-01
  1.8378508e-01
  1.2180427e+00
  6.4304508e-02
  8.2340425e-01
 -2.6068363e+00
 -1.0586590e+00
 -8.9798206e-01
  3.7950315e-02
  3.7048173e-01
 -4.9766234e-01
 -4.4355374e-02
 -2.8051344e-01
 -3.4621903e-01
  6.5672016e-01
  1.2288040e+00
  1.8181186e-02
  6.3381362e-01
 -6.5929657e-01
 -2.3721869e-01
  1.2831424e+00
 -1.6063391e-01
 -4.7350970e-01
 -2.9962859e-01
 -9.6094471e-01
  8.6602122e-01
  1.6379707e-01
  6.8649098e-02
  6.2652752e-02
 -3.2302725e-01
  8.9760083e-01
 -3.8138798e-01
 -3.3579057e-01
  1.1627857e-01
  5.0534565e-02
 -5.2827471e-01
  8.9085937e-02
  6.1013633e-01
 -4.7483907e+00
 -1.4832070e-01
  1.1359051e+00
 -2.4283864e+00
  2.1117927e-01
  1.4200242e-01
  1.2932936e+00
  1.8958105e+00
 -1.0434299e-01
 -6.5173960e-01
  8.1517404e-01
 -1.1368350e+00
 -6.3533562e-01
 -1.1570734e-01
  6.5792078e-01
  1.5495588e+00
 -6.5330076e-01
 -2.7516894e+00
 -3.8793102e-01
 -3.4573644e-01
  2.8369138e+00
  6.8925273e-01
 -6.1479378e+00
  7.1301913e-01
  4.8792329e-01
  2.6467195e-01
  4.7652352e-01
 -1.4171468e+00
  2.5149265e-01
 -1.4119585e-01
 -2.0705719e-02
  1.3007975e-01
 -1.3628204e+00
 -3.1316869e-02
  1.6622533e-01
 -2.3750613e+00
 -7.6546443e-01
  4.6513915e+00
  1.1498471e+00
 -1.0795121e+00
  2.0939977e-01
 -7.1316171e-01
  4.7279134e-01
  8.6382371e-01
 -1.6568224e-01
  3.8529110e-01
  2.5320725e+00
  2.0317147e+00
  1.4098233e+00
  9.7842310e-03
  8.6292773e-01
  1.0182914e+00
  1.9338969e+00
  5.3524220e-01
 -2.8094178e-01
  1.3370459e+00
  3.5573617e-01
  5.6361742e+00
  1.6529584e-01
 -2.9509991e-01
 -1.1411882e-01
 -3.4286946e-01
  5.1741278e-01
 -8.9859617e-01
  1.1615775e+00
 -3.8772419e-01
  1.7069973e-01
  9.2613548e-01
  6.3384701e-03
  1.0244354e+00
 -4.8803836e-01
 -1.2650954e+00
  5.1005751e-01
 -2.7949991e+00
 -3.2874614e-01
  1.1843348e-01
  8.2489210e-01
  9.9364805e-01
 -9.0066642e-01
  3.9417332e-01
 -1.4654787e-01
 -7.0103443e-01
 -8.6868763e-02
  6.2750316e-01
  8.0570251e-01
  2.8301412e-01
  3.2011762e-02
 -2.4286397e-02
 -2.2410180e-01
  4.8299697e-01
  9.1449535e-03
 -8.2412310e-02
 -4.2089364e-01
  1.6039005e-01
 -4.5501105e-02
  2.4208993e-01
 -9.1104396e-02
 -3.2079060e-02
  1.4819688e-01
 -3.3251417e-01
 -3.3394095e-02
  7.3083960e-02
 -6.1450738e-01
  6.0356326e-02
 -1.6980508e-01
 -7.1708894e-01
 -1.5515405e-01
  3.5021126e-02
  8.0332136e-01
 -7.6896125e-01
 -7.5300056e-01
 -1.1213622e-01
 -9.3013602e-01
  2.1944703e-01
  1.7048593e-01
 -1.7054297e-01
 -7.1697026e-02
  2.9619291e-01
  5.0889170e-01
  7.3823738e-01
 -3.4866509e-01
 -8.7376410e-01
 -3.1605056e-01
 -3.5895035e-01
  1.2350181e-01
 -7.2294891e-01
 -4.3772036e-01
  2.3570457e-01
  1.6348752e-01
  1.5027615e-01
 -1.7039281e-01
 -2.0186251e-01
 -4.6443939e-02
 -1.2230166e-01
 -1.2633684e-01
  2.8596890e-01
  9.7797416e-02
 -2.2019742e-02
 -1.8321198e-01
 -3.4556991e-01
 -2.0594619e-01
 -1.5365121e+00
 -1.9982375e+00
 -5.0225389e-01
  1.2420039e+00
  2.9282689e-02
  2.3998170e-01
 -1.4282797e-01
 -5.4207087e-02
  1.1104353e-01
 -8.6111963e-02
 -1.8146180e-01
 -8.3892870e-01
  3.3614612e-01
 -1.7523090e+00
 -5.1472890e-01
  3.0102515e-01
 -2.6070875e-01
  4.9355868e-01
  2.6290031e-02
  1.3919137e-01
 -2.0842617e-02
 -1.1135420e+00
 -7.3030293e-01
  2.7275860e-02
 -4.9156375e-02
 -4.9761720e-02
  1.0495973e-01
 -1.8545492e-01
  3.1331423e-01
  1.5791996e-01
  1.2351446e-01
 -9.9720232e-02
 -1.5030089e-01
 -2.6170652e+00
 -9.7461551e-01
  2.2989888e-01
  1.1480006e+00
  1.4124626e+00
 -6.5277971e-02
  7.5855476e-01
 -1.8982503e+00
  2.6298565e-01
  6.8606997e-01
  3.5740063e-01
 -5.6103230e-01
  5.2999534e-02
 -4.0178657e-02
 -3.4982809e-01
  7.2130662e-01
 -1.2916799e-01
 -1.0381840e+00
 -2.4969958e-02
  9.4621944e-01
  1.0031508e+00
  5.5769736e-01
 -1.6027286e+00
  3.7830006e-02
 -7.4234539e-01
 -1.0982497e-02
 -1.7740856e-01
 -3.3558744e-01
  1.5576874e-01
 -3.9683136e-01
 -5.6871299e-02
  3.3189225e-01
 -8.0493110e-01
  2.6375687e-01
 -2.6548399e-02
 -1.6835740e+00
 -2.5069502e-01
 -1.7848949e+00
  7.7623194e-01
  1.0087976e+00
 -8.5216653e-01
 -9.4611818e-01
  3.4643054e-01
  6.2765515e-01
 -1.8543204e+00
 -2.7822274e-01
  5.7120645e-01
  3.6713693e-02
  4.2896935e-01
 -1.4823983e+00
 -5.3634751e-01
  2.3148948e-01
 -2.1576270e-01
 -9.7909667e-02
 -1.2674069e+00
 -2.8616735e-01
  3.8840372e-02
 -7.5272411e-01
 -7.2774804e-01
 -1.1313097e+00
 -7.2505750e-02
 -1.0970760e-01
  1.6553943e-01
  6.9285020e-02
 -2.0446841e-02
  1.0108621e+00
  6.3681716e-01
 -9.9004024e-01
 -9.9786460e-01
  2.9845913e-03
 -1.4944310e-01
 -1.2408637e+00
  1.0088953e+00
  1.5325496e-01
 -8.1866693e-01
  2.9235226e-01
  8.9538115e-01
 -1.3559996e-01
  1.3284595e+00
  1.4342459e+00
 -1.4511585e+00
  1.9958146e+00
 -3.5951141e-01
  8.9217311e-01
 -5.0407499e-01
 -1.1731848e+00
  7.1210563e-01
  4.5016181e-02
  9.5357364e-01
  2.8289133e-01
 -1.8143721e+00
  9.3519688e-01
 -2.1732350e-01
  5.8421695e-01
  8.9646047e-01
  6.8625522e-01
