nep4_zbl 16 Ag Al Au Cr Cu Mg Mo Ni Pb Pd Pt Ta Ti V W Zr 
zbl 1 2
cutoff 6 5 200 134
n_max 6 4
basis_size 8 8
l_max 4 2 1
ANN 80 0
  5.2277744e-01
  8.5159853e-02
  9.0692140e-02
 -8.7529629e-01
 -3.5958615e-01
  1.5941078e-02
 -1.7400761e+00
  3.5907677e-01
 -9.0848275e-02
  2.7781656e-01
  4.8185107e-01
  4.0684021e-01
 -3.3072710e-02
  5.1231092e-01
  8.2772136e-01
  1.5172742e-01
  5.7029724e-01
  1.2200154e+00
  2.2042458e-01
  1.2871933e-01
 -5.6862950e-01
  8.4344101e-01
 -6.1726086e-03
  4.1524991e-01
  9.0334192e-02
 -6.1698049e-01
  1.1104711e+00
  2.5198722e-01
  1.7956807e-01
  2.6896891e-01
 -1.7712452e-01
 -1.0111464e+00
  1.6751388e-01
  6.7126411e-01
  3.7050137e-01
 -2.3005588e-01
 -1.0916199e-01
 -3.2785395e-01
 -3.0082762e-01
  1.0091292e+00
 -5.5847389e-01
 -4.6181095e-01
  6.6464514e-01
  1.8586498e-01
  4.7393629e-01
  1.3514213e-01
 -1.6537245e-01
 -6.0255891e-01
  3.5766566e-01
 -6.2790936e-01
  3.4787297e-01
  8.2621950e-01
  4.4003049e-01
 -7.4452475e-02
 -9.2358458e-01
  3.8690710e-01
  8.4751606e-01
 -5.1347411e-01
 -5.4472230e-02
 -1.3296330e+00
  1.9564916e-01
 -8.1491448e-02
  2.9240581e-01
 -6.5985465e-01
 -5.3296077e-01
 -3.5886747e-01
  6.9281965e-02
 -5.8128321e-01
  1.2976433e+00
 -3.5133219e-01
 -2.5886953e-02
 -9.7792113e-01
  1.5658931e-01
 -2.4152277e-02
  5.1126398e-02
  8.5246629e-01
 -8.6001617e-01
  1.5772717e-01
 -3.2399544e-01
  2.5210378e-01
 -4.9291450e-01
  2.2887439e-01
  1.2308454e-01
  4.0094432e-01
 -4.9885541e-01
 -4.3972337e-01
  4.1020101e-01
 -5.6447577e-01
  5.9450079e-02
  6.7628992e-01
  1.1832466e-01
 -3.5140303e-01
  7.0591581e-01
  9.3419605e-01
  3.6484665e-01
 -2.3823328e-01
 -2.4376175e-01
  2.5556684e-03
  1.9209920e-01
  1.2999955e-01
  3.4191367e-01
 -6.7022339e-02
  4.8739403e-01
 -3.5282978e-01
 -3.9765474e-01
 -2.4856724e-01
 -1.6479996e-01
  1.0254660e-01
 -1.1365382e-01
  5.9731406e-01
 -6.8870896e-01
 -4.0329870e-02
 -1.2965835e+00
 -4.5598429e-01
 -7.1564204e-01
 -1.3721053e-01
  5.9061193e-01
  1.4991683e+00
 -5.3744501e-01
 -4.3574306e-01
  6.7333549e-01
  1.9839396e-01
 -3.5320953e-02
 -3.2055158e-02
  8.6083055e-01
  8.8348925e-02
  2.0347233e-01
 -2.4181372e-02
  2.6469988e-01
 -8.6933628e-02
  8.0953526e-01
 -2.1377528e-01
 -1.0316558e+00
 -1.6303559e-01
 -1.2366558e-01
 -1.0773117e-01
 -5.3135747e-01
  1.0289592e-01
 -5.3574473e-01
 -2.7004716e-01
  2.4166121e-01
 -3.3749506e-02
  8.4687039e-02
  5.0125498e-01
 -8.8868424e-02
 -9.5375466e-01
 -8.9303261e-01
  8.5222781e-01
  1.6674498e-01
 -2.5143135e-01
 -2.8098702e-01
 -3.7017970e-03
 -4.1935110e-01
 -2.1394491e-01
 -9.8011959e-01
  8.8015926e-01
  3.7261283e-01
 -2.5460765e-01
 -7.6328355e-01
 -1.5244238e-01
 -9.9716596e-02
 -1.6695181e-01
 -1.4305127e-01
 -2.7967712e-01
  3.1188557e-01
 -1.6513946e-02
 -4.3346047e-01
 -3.7226146e-01
  8.5614669e-01
  4.7284767e-01
  1.1941359e-01
  5.3205587e-02
 -1.0214210e-01
  8.1374064e-02
  7.5561322e-02
 -2.8547424e-01
  3.6009496e-01
  3.4081586e-02
 -6.1773735e-01
  3.1590158e-01
 -1.1398690e+00
  1.8249524e-01
 -7.5575215e-01
 -6.1199255e-02
 -3.2924142e-01
 -3.5403937e-01
 -5.0789201e-01
 -3.7626144e-02
  3.8878736e+00
  6.8722236e-01
  5.7245004e-01
  2.6774872e-02
 -4.5172298e-01
  2.1728186e-02
  3.9408806e-01
 -6.3960528e-01
 -3.4525910e-01
 -1.0584955e+00
 -4.1437596e-01
  2.6638880e-03
  1.8657394e-02
  4.4268462e-01
  3.9294991e-01
 -1.2831334e+00
 -4.2638713e-01
 -6.1323351e-01
 -2.6485014e-01
 -6.2759352e-01
 -1.0797211e+00
 -8.2206684e-01
  3.3308816e-01
  4.6347642e-01
  1.2407852e-02
  5.2909237e-01
  4.9734946e-02
  5.4395723e-01
 -9.3260691e-02
 -4.7102541e-01
  1.3227367e-01
  4.1060016e-01
  2.2745050e-01
 -7.3185763e-03
  1.7267717e-01
 -4.4577041e-01
  4.6755809e-01
  2.6280246e+00
 -2.9274645e-01
  4.6148455e-01
  6.4341307e-01
  1.0392427e-01
 -7.8782275e-02
 -5.6412208e-01
 -3.9392471e-01
 -6.1063874e-01
 -7.2432983e-01
 -6.2822938e-01
  6.5992504e-01
  1.4500245e-01
 -2.1276850e-01
 -6.0571164e-01
  2.8010780e-01
 -1.6922717e+00
 -5.8671482e-02
 -6.2762421e-01
 -1.0219729e+00
 -3.6842246e-02
  4.3365729e-01
  5.2723068e-01
  2.9893547e-01
 -2.2165425e-01
  3.8673168e-01
  7.7712929e-01
  3.7291214e-01
 -2.3854057e-01
  5.1508880e-01
 -2.0184161e-03
  1.4885264e-02
  4.9068892e-01
 -1.0084134e-02
 -1.8055691e+00
 -6.9950110e-01
 -3.5044387e-01
 -2.5156863e+00
 -9.8928380e-01
  1.2844938e+00
  1.6087658e+00
 -2.9601698e+00
 -9.0232605e-01
  5.2781361e-01
  3.4399828e-01
 -1.1936872e+00
 -1.5831268e+00
 -1.0316761e+00
  1.4226896e-01
 -2.6166435e-02
 -6.3052946e-01
 -1.9992236e+00
 -7.0196992e-01
  8.5196888e-01
  4.1232720e-02
 -1.4705420e+00
 -9.8675579e-01
 -2.6556584e-01
  3.0166566e-01
  7.6759231e-01
 -7.9164225e-01
  1.9627619e-01
  1.3487048e-01
  3.1453630e-01
 -3.7676731e-01
 -1.9231324e-01
 -9.2083973e-01
  4.3156050e-02
  7.3387593e-02
  1.0001402e-01
  4.5924780e-01
 -2.3442763e-01
 -8.8393581e-01
  1.3293108e-01
 -1.1110531e-01
  9.2936915e-01
 -2.8219250e-01
  2.8963920e-01
  1.2637195e-01
 -8.1260651e-01
 -1.5576683e-01
  4.3204907e-01
  4.4613218e-01
  2.4369316e-02
 -5.4940498e-01
 -2.7989334e-01
 -5.5823017e-02
  5.7519329e-01
  6.2329841e-01
 -5.7479310e-01
  2.0362280e-01
  4.0963566e-01
 -1.3647184e-01
  1.3713700e-01
 -8.8039398e-01
 -6.7196763e-01
 -1.0759722e+00
  1.2200225e-01
  3.2430062e-01
 -4.5107290e-01
  4.4940209e-01
 -5.6545061e-01
  4.0334818e-01
  1.6647983e-01
  2.9591569e-01
  8.2598394e-01
  2.0153274e-01
 -6.7464370e-01
  3.2628655e-01
 -9.7809130e-01
 -2.8876188e-01
  2.7055526e-01
 -3.8167876e-01
  5.3947484e-01
  1.3860616e-01
 -5.7227987e-01
 -7.6795286e-01
  3.7104171e-03
  1.9335848e-01
  3.6939481e-01
 -5.9030212e-02
  1.0868449e-02
  3.9506635e-01
 -3.2360283e-01
 -1.6603726e-01
  5.6347746e-01
  3.1457976e-01
  1.1788607e-01
  3.5235003e-02
  8.7186828e-02
  3.9051774e-01
  1.4507622e+00
  6.5473950e-01
 -5.1211160e-01
 -8.3738059e-01
  1.1991899e-01
 -3.0810049e-01
 -1.0449547e-01
 -6.0095721e-01
 -7.4499106e-01
 -6.5270513e-01
 -4.7482021e-02
 -6.9785136e-01
 -2.2189708e-01
  7.3461699e-01
 -8.2568890e-01
 -6.4391482e-01
  2.3492961e-01
 -2.4838401e-01
  1.7299834e-01
  3.3167002e-01
  2.2271489e-01
 -8.9835602e-01
  3.5887063e-01
  2.5475067e-01
  1.3608067e-01
  5.2189904e-01
 -5.3172551e-02
  7.8964520e-01
  3.3916387e-01
 -6.4154834e-01
  1.9328284e-01
 -3.2135350e-01
 -3.0506614e-01
 -3.8458365e-01
 -7.2107211e-02
 -2.8408891e-01
  3.3048087e-01
  3.7604555e-01
 -2.8495729e-01
  1.6569110e-02
  1.7712210e-01
  6.0844260e-01
 -3.5382220e-01
 -2.8198587e-02
 -1.0965131e-01
 -3.8266152e-01
  9.3218482e-01
 -3.6377724e-02
 -4.8265305e-01
  7.7815302e-02
  1.1078972e-01
 -2.3160005e-01
 -8.8586438e-01
  5.3929800e-01
 -4.7958431e-01
 -4.9978290e-02
 -4.6310297e-01
 -2.3815662e-03
 -6.0885376e-01
 -2.2469547e-01
 -2.6006478e-01
 -1.2596215e+00
  1.2085835e-01
 -4.7610828e-01
  2.6694065e-02
 -1.5034986e-01
  1.1284844e-01
 -4.1602406e-01
 -3.7647749e-03
  2.8692362e-01
  4.6627602e-01
  5.3538495e-01
 -2.9388013e-01
 -9.3836641e-01
 -2.9473469e-01
  6.1811328e-01
 -9.7128969e-01
  1.4901485e-01
  1.1143723e-01
  4.5339346e-02
 -4.3940479e-01
 -2.5291326e-02
 -2.5189778e-01
 -6.0736704e-01
 -9.3167610e-02
  5.1780596e-02
  3.1520065e-02
  1.1995099e-01
  8.6206746e-01
  4.9752659e-01
  4.7366607e-01
  1.6123656e+00
 -6.7138737e-01
 -1.1615098e+00
  1.0101210e+00
  2.8775716e-01
  2.7050504e-01
  5.6060100e-01
  4.9202812e-01
  1.4969422e+00
  1.0964364e-01
 -1.9567573e-01
 -3.0138640e-02
 -4.3940306e-02
  8.5914296e-01
  2.9167092e-01
  5.1626277e-01
 -6.0795152e-01
 -4.2536834e-01
 -1.6445242e-01
 -1.5511913e-02
  7.9148710e-01
  6.1783522e-01
  5.4444283e-01
  8.4148180e-01
  1.2175193e+00
  5.8324391e-01
 -4.0259317e-01
 -4.3784398e-01
  1.2423911e+00
  3.8309002e-01
  3.6964220e-01
  7.6584131e-01
  1.1642694e-01
  2.5835836e-01
 -1.2127557e+00
 -2.1108082e-03
 -5.9424734e-01
 -1.8957103e+00
  1.7545877e-02
 -1.0330013e+00
 -6.0392147e-01
  5.3568345e-01
  6.2067065e-02
  8.8772392e-01
  1.7580108e-01
 -1.9904532e-02
  3.7336767e-01
 -2.7728975e-02
  6.3358927e-01
  1.0181689e+00
  9.2347443e-02
 -6.9868565e-01
 -3.8693479e-01
  2.7114534e-01
  8.8308483e-01
 -2.0237191e-01
  1.1832287e-01
 -1.4499753e+00
  1.2921205e-01
 -3.0118525e-01
 -2.2606234e-01
  6.0128284e-01
  6.6193128e-01
 -5.2835393e-01
  8.0786687e-01
  6.5538311e-01
  8.3353919e-01
  7.4682571e-03
  3.1600188e-02
  1.4433698e-01
  3.1856683e-01
  4.7043028e-01
 -4.9051714e-01
  2.5800383e-01
 -1.6406938e-01
  1.0586925e+00
 -8.7451279e-02
 -1.2942280e-01
  1.1505893e+00
 -1.3789195e-01
 -2.2393951e-01
 -1.4795516e-01
 -1.7505561e-01
 -1.0159422e+00
  5.4951686e-01
  1.8729469e-01
 -4.0006638e-01
  6.4745270e-02
 -9.9940252e-01
 -6.6124290e-01
 -1.2763746e+00
  3.7910447e-01
 -7.3103952e-01
  1.3361802e+00
 -1.9251908e-01
  4.0525445e-01
 -1.3394260e-01
  3.1589609e-02
  3.9414361e-01
 -2.0874868e-01
 -5.3266948e-01
  3.4609324e-01
 -1.2601115e-01
  1.7601767e-01
  1.7815478e-01
 -1.4357829e-01
  3.1392939e-02
  2.6481410e-02
 -2.1426044e+00
  2.0079961e+00
 -5.8552498e-01
 -2.7373450e+00
  2.7536839e-01
  1.8602701e+00
  1.4271348e+00
 -3.6205822e-01
 -1.2807869e+00
  4.6805498e-01
 -5.4434657e-01
 -1.0720698e+00
 -2.1345746e-02
 -1.3633884e+00
 -5.6515932e-01
  1.2724103e-01
 -1.2066202e-01
  1.0603844e-01
 -9.8083788e-01
 -6.2901750e-02
 -6.8416798e-01
 -1.2320541e-01
  8.4364569e-01
  1.4624418e-01
  2.8583890e-01
  3.0557150e-02
 -4.8051673e-01
 -1.5457065e-03
 -3.5301203e-01
  2.4665430e-01
  8.3400732e-01
 -4.1127902e-01
  2.5419614e-01
  1.8235463e-01
 -4.2945656e-01
  1.2722483e-01
  7.1097724e-02
 -2.7926704e-01
  8.0466253e-01
  6.9314492e-01
  2.5170624e+00
 -2.3938000e-01
  7.3923999e-01
 -2.0841402e-01
 -1.3781902e+00
  5.2611459e-02
 -7.8683114e-01
 -8.7484878e-01
  9.3900007e-01
 -1.4462402e+00
 -1.0537007e+00
 -1.4497801e+00
 -1.1532146e+00
  6.1062294e-01
  6.8466210e-01
  8.3783752e-01
  1.3840932e+00
 -9.8203856e-01
 -7.2879034e-01
 -1.3380388e+00
  3.6027169e-01
 -1.3310193e-01
  3.7054926e-01
 -5.0459415e-01
 -2.2637327e-01
  2.3499797e-01
  8.6941876e-02
 -6.8316829e-01
  3.0569404e-01
  5.1049536e-01
  9.7950685e-01
 -2.2600532e-01
 -9.3927640e-01
  3.3071944e-01
  6.0306811e-01
  3.1781625e-02
  6.0942119e-01
 -8.5643387e-01
 -1.6688844e+00
  5.0281042e-01
 -1.7240787e+00
  1.3033298e-01
 -3.0483156e-01
 -1.1350490e+00
  1.0186337e+00
 -8.8672322e-01
 -8.6332375e-01
 -1.0872575e+00
 -3.0542204e-01
  7.1792352e-01
  1.7240962e+00
 -1.5744784e-01
 -3.1809819e-01
 -9.3295127e-01
  8.1561607e-01
  4.3477252e-01
  9.4574541e-01
  2.3636544e+00
  2.1408075e-02
  6.2684959e-01
  1.0763477e+00
 -2.7316201e-01
  2.7054283e-01
  2.6510754e-01
 -1.1871472e-01
 -1.2907439e-02
 -9.6231692e-02
  1.8234168e-01
  4.0164715e-01
  7.1590990e-02
  8.8338023e-01
  3.4930911e+00
  1.3834691e+00
 -3.0456278e-01
  3.7901163e+00
 -1.5124637e-01
  7.9950988e-02
 -1.7959864e+00
  1.1610469e+00
  8.5846290e-02
  1.3916115e-01
 -7.0826948e-02
  4.0567216e-01
  2.7153769e-01
  3.5054463e-01
 -6.4384900e-02
 -4.9940237e-01
 -3.3985129e-01
  5.2696353e-01
  3.6134031e-01
  3.3129355e-01
  5.4198086e-01
  2.2493705e-01
  8.8088405e-01
  7.0438963e-01
 -5.5135828e-01
  2.9794854e-01
  1.4840413e+00
  1.9259593e+00
  7.6225030e-01
  2.4566343e-01
 -1.8730279e+00
 -1.6052112e-01
  2.9541188e-01
 -6.8502378e-01
 -1.1054944e-01
  1.4684598e+00
 -3.5896498e-01
 -8.9644140e-01
 -8.2493651e-01
 -1.6383212e+00
  4.0847950e-02
  1.1135271e+00
  1.7784380e+00
  1.7438904e+00
 -1.0068917e+00
 -2.0520824e-01
 -1.2407254e+00
  7.5974745e-01
  9.3697309e-02
  3.1810033e-01
  1.3682550e-01
 -1.4735724e-01
  6.8542413e-02
  5.3074241e-02
  2.4286537e-01
 -8.5070413e-01
 -9.5568426e-02
 -2.2705060e-01
 -3.3168617e-01
  5.3215486e-01
 -4.3121617e-02
 -2.7064171e-01
  1.0333134e+00
 -1.0427549e+00
  5.8842945e-01
 -2.3797488e-01
 -3.2539645e-01
  8.3445877e-01
 -4.0766430e-01
  7.1272486e-01
  8.4612161e-01
  8.9421853e-02
  1.8898379e-02
  8.9462036e-01
 -1.2884443e-01
 -4.2470121e-01
 -7.2364718e-02
 -1.1533693e+00
  1.5742476e+00
  2.1314096e-02
  8.5792804e-01
 -2.2712719e-01
 -8.6029631e-01
  6.7254707e-02
  7.4054271e-01
 -6.7002398e-01
  4.9737111e-01
 -4.4171757e-01
 -1.2127550e+00
  1.8499272e-01
 -2.7067968e-01
 -1.8532388e-01
 -2.5995567e-01
 -1.0037131e-01
  5.6346464e-01
 -2.5191763e-01
  5.2413535e-01
 -1.0483608e+00
  3.1684041e-01
  1.4264452e+00
  2.1308658e-01
 -5.6211001e-01
  2.7302048e-01
 -6.3485461e-01
 -1.1281294e-01
 -3.4713972e-01
 -1.8771704e-02
 -1.2566037e+00
 -5.5358857e-01
  3.5728386e-01
  4.4861853e-01
  4.0468693e-02
  1.0132840e-01
 -3.2464877e-01
  3.7958658e-01
 -3.5449845e-01
  3.7053797e-02
 -1.7063280e+00
  5.9501028e-01
  1.1853851e+00
  5.6332070e-01
 -5.1249182e-01
 -6.1055236e-02
 -1.9792145e-01
 -3.5359019e-01
 -6.6034275e-01
 -4.0829724e-01
  1.5580478e-01
 -1.9245227e-01
  8.3865732e-02
 -5.4849863e-01
  2.1237674e-01
  1.3325028e-01
 -4.7490942e-01
  7.1767044e-01
 -1.4005192e-01
 -6.0436243e-01
  1.4181921e-01
  3.0747926e-01
  4.9016532e-01
  1.7501840e-01
 -9.6017145e-02
  8.1652534e-01
 -3.0022699e-01
 -1.1931476e-02
  5.8606243e-01
  9.1900609e-02
 -9.4157940e-01
 -3.0427430e+00
 -5.4365697e+00
  1.4596230e+00
 -2.1080732e+00
 -3.5368297e-01
 -1.0167993e+00
  2.0813613e+00
  1.9934610e-03
 -1.2083316e-01
  1.8708269e-01
  7.8571695e-01
 -7.0713657e-01
 -1.3593842e+00
 -3.9547333e-01
 -8.2717109e-01
 -4.0354070e-01
 -8.0371696e-01
  1.1077364e-01
 -5.9302402e-01
  1.9258204e-01
  4.2448083e-01
  4.3128547e-01
  6.6311908e-01
 -1.2256412e-01
 -6.7732567e-01
 -8.4494674e-01
 -1.4065180e+00
  2.7629626e-01
  2.3135538e-01
  1.9864890e-01
 -7.8338987e-01
 -7.4021858e-01
  4.5367780e-01
 -3.8392076e-01
  6.3558978e-01
  6.0334289e-01
  1.5834464e-01
 -2.9775602e-01
  7.5358707e-01
 -1.6994505e-01
 -1.1245751e+00
  7.0391846e-01
  1.1765817e+00
  1.1878103e+00
 -1.5734518e-01
  6.6235179e-01
 -1.1756301e+00
 -4.8163572e-01
  2.7965701e-01
 -6.2916893e-01
 -4.6648353e-01
 -5.7107526e-01
  2.1293172e-01
  3.5948080e-01
 -7.0661747e-01
 -5.3991640e-01
 -9.4332218e-01
  1.1096016e-01
 -2.1915816e-01
 -2.3609968e-01
  2.5927654e-01
 -3.3219588e-01
  2.8132573e-01
 -5.2869332e-01
 -2.2202572e-01
  4.4268154e-02
 -2.7056000e+00
 -7.9600322e-01
 -4.2135343e-01
  1.1279465e-01
 -3.0213428e-01
  1.8302134e-01
 -2.4567632e-02
 -1.4602101e-01
 -3.7141736e+00
  1.3384762e+00
 -1.1112643e+00
 -2.9647291e+00
 -1.0238266e+00
  3.4124136e-01
  8.1949693e-01
 -2.5493729e-01
 -1.3532810e+00
 -9.0987456e-01
  1.6937670e-01
 -5.7010359e-01
 -2.6147816e-01
 -9.9925673e-01
 -5.3593588e-01
  8.8940918e-01
  3.2654145e-01
 -2.7600887e-01
 -1.4842127e-01
 -5.5012625e-01
 -1.9179285e+00
 -2.7505174e-02
 -3.8056600e-01
 -1.5504541e+00
  4.7374836e-01
  3.3982632e-01
 -6.7392689e-01
 -6.9327641e-01
 -3.8388687e-01
  4.1644324e-02
 -5.3106219e-01
  2.8944266e-01
  1.9080055e-01
  4.3407816e-01
 -7.8609139e-01
 -4.0140453e-01
 -4.2520633e-01
  9.6337736e-01
  1.2326542e+00
  1.5851022e+00
 -1.8204649e-01
 -8.2221127e-01
 -7.5206321e-01
 -1.1506094e+00
  5.6115365e-01
 -2.0399539e-01
  1.3650627e+00
  6.3832239e-03
  1.2737989e-01
  4.5708728e-01
 -3.0014023e-01
  5.1640439e-01
  3.7296849e-01
  1.3093375e-01
  1.5000502e+00
 -3.0837408e-01
  3.4512845e-01
 -4.6767515e-01
  6.0622907e-01
  3.9966437e-01
 -6.7892683e-01
 -4.0190211e-01
 -3.2746145e-01
  7.7549196e-03
  1.4727724e-01
 -1.0844647e-01
  3.9067289e-01
  8.9884412e-01
 -1.0432268e-01
  1.6582149e-01
 -5.6657374e-02
 -1.0204873e+00
  3.4545738e-01
  5.7115614e-01
  4.5092705e-01
 -8.6939019e-01
  4.4184843e-01
 -9.5404649e-01
  1.0260745e+00
 -2.5116256e-01
  3.6433977e-01
 -2.5563326e-01
 -1.4603929e-01
 -5.4037338e-01
 -5.2071750e-01
  3.6928102e-01
 -4.3167126e-01
  1.3585695e+00
  7.2133847e-02
 -1.6720454e-01
 -2.8074774e-01
  2.6858348e-01
  1.0473575e-01
 -5.4219816e-02
 -4.6220979e-01
 -7.9140151e-01
 -5.6278765e-02
  7.4933887e-01
 -6.9523495e-01
 -1.3315018e-01
  5.7038063e-01
 -3.7130165e-01
 -2.8728566e-01
  7.8261077e-01
 -3.2827467e-01
  9.0582348e-02
 -8.8568473e-01
 -4.3077654e-01
  7.5090873e-01
  3.0999684e-01
  5.7738591e-02
  4.3417391e-01
  1.4668502e-01
 -5.9289837e-01
 -1.2902254e+00
  3.7939423e-01
  1.0099460e+00
  2.6112020e-01
  4.8979211e-01
  9.4406359e-02
 -5.1598597e-01
  7.8040928e-01
 -6.2772512e-01
 -2.6036894e-01
 -1.4922455e-01
  4.3019813e-01
  7.6546037e-01
  1.9531630e-01
  4.5723400e-01
 -5.1922548e-01
 -7.1354985e-01
  9.9324971e-02
 -1.7395025e-01
 -4.5038605e-01
 -3.8034388e-01
 -2.4409629e-01
 -2.0584184e-01
 -8.1393820e-01
  8.8760620e-01
 -9.5735842e-01
  1.7950654e-01
 -2.5696376e-01
  1.3467394e-01
 -4.9613398e-01
 -2.2974148e-01
  6.3615835e-01
 -2.2782935e-01
  7.9638511e-01
 -3.3229947e-01
 -4.6485654e-01
  8.3660096e-02
 -4.6004310e-01
  1.2980355e+00
  1.0224205e+00
  9.3723536e-01
 -4.8772287e-01
 -8.3276540e-01
  3.0704701e-01
 -5.2933192e-01
 -4.7394976e-01
 -2.6706189e-01
  4.8064807e-01
 -1.3021327e+00
  3.7377721e-01
  1.3087089e-01
 -1.2626393e-01
 -2.9327744e-01
 -2.3118451e-02
  1.4186852e+00
 -3.9811862e-01
 -8.1858379e-01
  1.9428204e-01
  3.2688710e-01
 -1.7159122e+00
 -3.3915870e-02
 -7.2516721e-01
 -6.9044369e-01
  1.5966171e-01
  5.2290910e-01
 -1.5780266e-01
  8.7673509e-01
 -3.4098551e-01
  2.3256564e-01
 -8.2865417e-01
  3.8444844e-01
 -2.1847631e-01
 -2.2992374e-01
 -7.0033148e-02
 -5.1487142e-01
  8.5043693e-01
  1.0542444e-01
  6.0331672e-01
  4.2820819e-02
 -1.8539681e-01
  6.9201571e-01
 -7.6411062e-01
  4.5229873e-01
  3.5531563e-01
  1.0897002e+00
 -3.2043505e-01
  9.1005272e-01
  5.2682281e-01
  9.6345198e-01
  7.0704445e-02
 -1.7405508e-01
  4.1987130e-01
 -4.3982230e-02
  6.6957064e-02
  1.8151586e-01
 -3.3197063e-01
  1.2497123e-01
  1.2621953e-01
 -4.7689712e-01
  1.0960714e-01
 -6.6291279e-01
 -7.4280582e-02
  4.9534726e-01
 -2.1428132e-02
 -3.8128155e-01
  2.2007409e-02
  7.6861399e-01
 -3.1461708e-02
  1.5608373e+00
  1.4435450e+00
 -8.8350928e-01
  4.0145903e+00
  6.7892545e-01
  7.0130026e-01
  5.5090994e-01
 -7.5781298e-01
 -1.1325433e+00
 -1.9439940e-01
 -4.6462694e-01
 -1.0753977e-01
  1.1898336e-01
 -4.1040766e-01
  6.0777527e-01
  2.7658379e-01
 -9.3061797e-02
  2.7320856e-02
  5.6815761e-01
  3.7700692e-01
  1.3973064e+00
  1.9872588e-01
 -9.6541893e-01
  1.2340296e-01
  1.3039726e-01
  2.6140395e-01
  4.5887777e-01
 -1.9205579e-01
 -7.7212535e-02
 -4.1823417e-02
 -3.7224090e-01
 -5.1193703e-02
  1.8614724e-01
 -3.4204524e-02
  3.5324195e-01
  3.3392832e-01
  2.9382020e-01
 -8.5246986e-01
 -1.3419108e-01
 -3.5976604e-01
 -1.8316770e+00
 -1.3019959e+00
  2.9159555e-01
  2.1779422e-01
  7.7651209e-01
 -2.7182568e-02
  1.2802809e+00
  1.6124448e+00
  1.3988739e-01
  7.1357644e-01
 -2.2728758e-01
  2.2449908e+00
  1.2149419e+00
 -2.2720969e-01
  1.3959591e+00
 -1.2272284e+00
  8.5704714e-01
  7.9691619e-01
  6.8111539e-01
  6.7253923e-01
 -2.9707423e-01
  2.0919365e-01
  2.9449907e-01
  1.3010105e-01
 -1.4394853e+00
 -1.8590574e-01
  1.0233562e+00
  1.4600539e+00
 -1.2702404e+00
  2.9694730e-01
  2.9950303e-01
 -1.2804691e+00
 -4.5257366e-01
 -5.8209181e-01
  1.0113413e+00
  2.3483264e-01
 -1.6442913e+00
 -8.4253722e-01
 -8.5570502e-01
 -4.4197860e-01
 -2.6300642e+00
  1.8927801e-01
 -2.8117599e-02
  3.2592210e-01
 -6.9358271e-01
  7.8865975e-02
  2.4002303e-01
  5.9196979e-01
 -7.2275944e-02
  4.9504584e-01
  8.4632850e-01
 -1.9297987e-01
  3.9268691e-02
  4.9418330e-01
 -2.1645646e+00
 -4.8705754e-01
  6.4886153e-02
 -6.4325547e-01
 -7.1614563e-02
 -1.5590932e+00
 -5.2934760e-01
  1.4899002e-01
 -3.0945757e-01
  2.0782277e-01
  2.4256080e-01
 -3.6678076e-01
  1.5958102e-01
 -3.6457372e-01
  2.0015503e-01
 -8.4978640e-01
  1.0266668e+00
 -4.9233833e-01
  7.6599020e-01
 -3.4039667e-01
 -8.0153978e-01
  8.9418405e-01
  8.0594140e-01
  1.1225867e+00
 -5.2308112e-02
  2.6890394e-01
  3.9847359e-01
 -3.3512074e-01
 -5.0097096e-01
 -8.5718054e-01
  7.5363523e-01
  9.9297595e-01
  9.2847928e-02
 -3.2445818e-01
  7.9135144e-01
  9.8501548e-02
 -5.7754403e-01
  1.1463787e-01
 -4.5367128e-01
 -1.7496990e-01
 -2.1126066e-01
  7.0289207e-01
 -1.7729239e+00
  7.1243066e-01
  2.4344246e-01
 -6.5831548e-01
 -1.2416174e-01
 -3.0766732e-01
  3.6133778e-01
 -3.0468777e-01
  2.5102967e-01
 -6.8640643e-01
 -1.0259790e-01
 -3.0203009e-01
  4.0803760e-01
  1.1099313e+00
 -6.1497927e-01
 -1.0409278e+00
 -1.0575328e+00
 -1.3620752e+00
 -2.4412398e+00
  1.6392075e+00
  1.5651591e-01
 -8.1007618e-01
  9.1666549e-01
  3.7000546e-01
  7.3463774e-01
 -1.1874102e+00
 -8.6728591e-01
  5.3822076e-01
  1.3764011e+00
  1.1232895e+00
 -7.3855913e-01
 -2.5642821e-01
 -8.8170677e-01
  4.5900318e-01
  1.3879440e+00
  1.5295174e+00
 -4.2898065e-01
  7.6944417e-01
  9.5749348e-01
  1.1603965e+00
  3.6105815e-01
  2.1324188e-01
 -2.0178141e-01
  5.2660340e-01
 -6.3795447e-01
 -3.2600883e-01
  3.0980948e-01
 -8.0313492e-01
  2.6166251e-01
 -1.8507993e-01
  5.2922875e-01
  2.8450522e-01
 -1.6798960e-01
  6.2379110e-01
  9.0570897e-01
 -3.4698952e-02
 -3.8015729e-01
  7.4945760e-01
 -2.8415406e-01
 -5.8366454e-01
  6.9532943e-01
  8.7932372e-01
  4.5774317e-01
 -8.0109137e-01
  1.7579769e-01
 -4.5213103e-01
 -3.2192850e-01
 -3.8603067e-01
 -5.3697258e-01
  3.2159567e-02
  5.0888205e-01
  5.9631497e-01
  1.6913106e-01
  4.5391566e-01
  5.2778220e-01
  4.8654997e-01
 -1.2677599e-01
 -3.4762868e-01
  9.9532670e-01
  2.4054141e-03
 -6.2737450e-02
 -3.7626162e-01
 -5.3739637e-01
 -1.6545975e-01
  7.5769806e-01
 -7.5015414e-01
 -1.5269972e-01
 -1.4049838e-01
  5.5933237e-01
  3.9355910e-01
 -3.8708076e-01
  3.6849281e-01
  1.1881546e-01
  8.4088308e-01
 -6.1778343e-01
 -5.0651515e-01
 -2.0341766e-01
 -6.3724011e-02
  7.6965803e-01
  8.9923811e-01
  3.5107958e-01
 -2.4914630e-01
  2.6473068e-02
  7.7038899e-02
 -3.5591900e-01
 -1.3933323e-01
 -1.3932632e-01
 -1.4164494e-01
 -5.1852375e-01
  5.0408638e-01
 -2.2980888e-01
 -6.0006067e-02
  7.1003288e-01
  1.5453370e-01
  3.7194750e-01
  5.6384724e-02
 -8.0635093e-02
 -4.5512578e-01
  5.2771801e-01
 -2.2507909e-01
 -4.2705050e-01
 -7.2741061e-01
 -6.5907073e-01
 -2.0658372e-01
 -1.6074580e-01
  2.9256853e-01
 -7.0157021e-01
 -2.7446553e-01
  5.2151716e-01
  4.4669399e-01
  1.2141272e-01
 -1.6069171e-01
 -9.8161243e-02
 -4.6422487e-01
  3.1401131e-01
  4.9180493e-01
 -7.1641847e-02
 -2.0670009e-01
  2.8947017e-01
 -3.7562364e-01
 -1.9970636e-01
 -2.9063019e-01
 -6.0544144e-02
 -1.5084819e-01
  3.6839646e-01
  1.1925066e-01
  1.1641882e-01
  1.2627690e+00
 -1.2996818e-01
  1.3569888e-01
  7.6470906e-01
  4.1653648e-01
  9.4099480e-01
 -2.3832075e-01
 -1.4135819e-02
 -1.9414605e-01
 -3.1805322e-01
  3.7435529e-01
  3.2262862e-02
 -2.2428824e-02
 -1.2106092e+00
 -2.7535692e-01
 -1.4355538e+00
 -2.0059368e-01
  2.3899074e-01
  1.7568859e+00
  1.8503530e+00
  1.9671485e-01
 -9.2821205e-01
  2.3497310e-02
 -4.9571952e-01
  3.3658305e-01
 -5.2911359e-01
 -1.8418647e-01
  2.2947554e-01
 -3.2621440e-01
  7.2551382e-01
 -5.2954942e-01
 -2.2118321e-01
 -1.8536314e-01
  2.9090828e-01
  3.3964160e-01
 -5.4412972e-02
 -6.2688851e-01
  5.2774119e-01
  5.3576969e-02
 -4.6123140e-02
  4.3058276e-01
  1.6585906e-01
  9.0032703e-01
 -2.9922074e-01
  8.0085322e-02
  2.8264409e-01
 -5.8450204e-01
 -7.9924905e-01
 -6.5698791e-01
 -4.5157108e-01
 -8.5578084e-01
  6.8138534e-01
 -4.7037140e-01
 -7.7300507e-01
  7.9534304e-01
  3.7423971e-01
  7.7642334e-01
  2.7889150e-01
  1.8680802e-01
 -6.3507628e-01
 -3.4405928e-02
 -1.6989188e-02
 -8.4378302e-02
 -4.8032203e-01
  6.0399550e-01
  5.7097548e-01
 -3.2325771e-01
  1.0154840e+00
 -9.3634742e-01
  6.4895108e-02
  1.1823846e-01
 -2.0277919e-01
  1.7979215e-01
 -1.9594982e-01
 -4.6723565e-01
  1.2806992e-01
  7.9096669e-01
 -5.8816087e-01
  1.0536338e+00
 -6.0116295e-02
 -1.7766036e-02
 -4.4966236e-01
  1.0919393e-01
  6.2446650e-02
 -1.1967841e+00
 -8.4999567e-03
 -2.9937825e-01
  1.0612112e+00
  5.7446635e-01
  1.3153636e-01
  6.6946834e-01
  6.9982225e-01
  4.4418144e-01
 -9.5441610e-01
  3.9130215e-02
  3.5874474e-01
  3.7822884e-01
 -7.0258361e-01
 -7.6964003e-01
 -1.3593990e-01
 -6.3461144e-03
  4.4932045e-04
  1.9003358e-01
 -5.8056337e-01
  2.5199622e-01
 -1.5339805e-01
 -1.7913941e-01
  1.3981321e+00
  7.1997523e-02
 -1.0092668e-01
  2.8766024e-01
  8.7282056e-01
  2.2268612e-02
  1.1340992e+00
  3.5890430e-01
  1.3006186e+00
 -3.7387353e-01
 -2.2727765e-01
 -4.5068029e-01
  5.4115242e-01
  2.4440002e-02
  3.6300185e-01
  2.6514715e-01
  3.0980495e-01
 -7.2292887e-02
 -4.5974052e-01
  2.2766974e-02
  2.0713390e-01
 -2.8302276e-01
  1.0077710e-01
 -4.8505643e-01
 -5.5507034e-01
 -3.3598903e-01
  4.3358675e-01
  2.0571211e-01
 -1.6359800e-01
 -2.2306640e-01
  6.2525749e-01
 -3.4523703e-02
  1.0189400e-01
  1.9070745e-01
  1.3529669e+00
 -1.7810197e-01
  2.5023925e-01
 -1.1568435e-01
 -5.5112645e-02
  6.0568172e-01
  1.4968290e-03
 -3.8823336e-01
  4.6513048e-01
 -1.0645859e+00
 -1.1453106e-01
  1.3325988e-01
 -2.6272187e-01
  1.5953685e-01
 -3.4037313e-01
  1.5587905e-01
  3.9702904e-01
 -3.4260011e-01
 -4.9482921e-01
 -3.3597389e-01
  2.3505230e+00
  1.7302746e+00
  6.2698215e-01
  3.4466660e+00
  8.4195673e-02
 -2.9518407e-02
 -1.4430233e+00
 -3.6336777e-01
 -4.0100518e-01
 -2.4087644e-01
  7.6688278e-01
  6.7119837e-01
  1.1080757e+00
  1.6264223e-03
  7.2804463e-01
 -1.4029464e-01
  1.1752925e-01
 -1.0260209e+00
  1.0211806e+00
 -3.7753001e-02
  9.6674159e-02
  2.6297644e-01
 -1.4153553e+00
  1.1570795e+00
 -2.0611791e-01
 -6.4474441e-02
  9.6045649e-01
  5.3320307e-01
 -8.3059037e-01
  4.7312520e-02
 -1.4406644e-01
 -2.7930092e-02
  7.8219908e-01
  3.8637099e-01
 -7.9821742e-01
  2.7389857e-01
  4.3270847e-01
 -1.1292779e+00
 -1.3190893e+00
 -1.2262728e+00
 -2.0705767e+00
  8.1566446e-02
  1.0279768e+00
  3.7078351e-01
 -4.3532625e-01
 -3.1678015e-01
  4.5871919e-01
 -1.7956000e-02
 -1.0361674e-01
  1.1746211e-01
 -5.8939022e-01
  8.5056549e-01
 -6.5845329e-01
  4.0631324e-01
  2.9760361e-01
  1.7849390e-01
 -4.4604432e-02
  6.9730985e-01
 -9.3183506e-01
 -1.0368204e+00
  2.9238501e-01
  4.2797861e-01
  9.7131588e-02
 -3.5268092e-01
  5.0409877e-01
  1.7783158e-01
 -9.2012930e-01
  8.0147818e-02
  4.0017846e-01
  3.2496125e-02
 -2.1198510e-01
 -5.1725566e-01
  4.3548527e-01
 -5.8284551e-01
  2.1847591e-01
 -4.1065294e-01
  7.4106246e-02
 -5.6321174e-01
  9.5406651e-01
  1.1370420e+00
 -8.0415493e-01
  6.0182816e-01
 -7.0302635e-01
 -6.1579442e-01
 -4.7500736e-01
  1.8988103e-01
 -6.5907508e-02
  1.2192047e-01
  2.6710570e-01
 -2.9827824e-01
 -1.2603807e+00
 -2.6438203e-01
  3.3164792e-02
 -3.0261679e-02
  5.6208801e-01
  5.0472981e-01
 -5.1729985e-02
  5.5036402e-01
  8.3045161e-01
 -5.4657841e-01
  1.5001478e-02
 -1.8160094e-01
 -6.7382686e-02
 -3.3792499e-01
  8.6602336e-01
 -5.1031536e-01
 -1.0731996e-01
  3.9856869e-01
  7.6782969e-03
 -1.6212395e-01
 -1.9495796e-01
  6.5840673e-01
  5.2801305e-01
  9.8381764e-01
 -3.9140308e-01
 -1.0141551e+00
 -4.2073032e-01
 -5.6548303e-01
 -5.6494117e-02
  4.3585604e-01
 -1.0693081e-01
 -2.3320727e-01
  1.9240034e-01
  2.5730865e-02
  6.5108073e-01
 -2.7852062e-02
 -6.6777766e-02
 -5.4700084e-02
 -9.7909741e-02
 -8.9619464e-01
 -9.0633571e-01
 -6.6072275e-03
  2.0340949e-01
 -7.7681804e-01
  3.9122972e-01
  4.2397061e-01
 -4.1054258e-01
 -1.7303677e-01
  5.6497210e-01
 -2.1849231e-01
  1.6558753e-02
  8.7206280e-01
 -4.3584150e-01
  1.2178597e+00
  4.1424107e-02
  5.4362917e-01
  2.7301803e-01
  1.3491633e+00
 -1.8104622e+00
  1.4221834e-01
 -5.7684165e-01
 -1.4847608e-01
  9.9496067e-01
  1.1343313e+00
  1.6203828e+00
 -1.1412488e+00
 -2.9886669e-01
 -1.2027997e+00
  5.8770955e-01
 -5.2932227e-01
  5.6539053e-01
 -5.6990814e-01
 -4.6114749e-01
  3.3154278e-03
  5.2666938e-01
  3.8036817e-01
 -3.8017514e-01
 -2.2313453e-01
 -5.4713088e-01
 -2.3692547e-01
  3.7438396e-01
 -1.5920798e-01
 -6.1661914e-02
  3.7817147e-01
  4.3864653e-01
 -5.0779420e-01
  1.3743810e-01
  2.5363821e-01
 -5.0396049e-01
 -2.7807623e-02
 -2.3133501e-01
 -9.2702895e-02
 -3.9053574e-01
  1.7454123e-01
  7.7943675e-02
 -2.2365266e-01
 -3.1137061e-03
  8.0949366e-02
 -6.3779211e-01
 -3.6303955e-01
  1.1737398e-01
 -2.7780449e-01
 -4.2627582e-01
 -9.2166758e-01
  2.3749712e-01
 -7.2912145e-01
 -5.0936872e-01
 -1.7354771e-01
 -3.9742354e-01
 -7.2615886e-01
 -4.1598499e-01
  2.5607535e-01
 -3.8476187e-01
 -4.4032428e-01
  3.3518457e-01
  6.8815494e-01
  8.0931373e-03
  3.0798149e-01
 -3.0007970e-01
  6.2178653e-01
  1.9263704e-01
  2.1604439e-02
  3.5136572e-01
 -4.9519065e-01
 -9.7134119e-01
 -2.2918145e-01
  9.8130602e-01
 -3.0251959e-02
  4.4106001e-01
  3.8023874e-02
 -7.5628239e-01
 -2.0214984e-01
 -6.2648374e-01
 -6.1232269e-01
 -6.2396264e-01
 -9.0834141e-01
 -2.5656879e-01
  5.2343762e-01
  7.3130935e-02
  5.0617013e-02
  7.3769373e-01
  2.0592557e-01
  1.1493811e-01
  6.8429631e-01
  2.5452316e-01
 -3.5801390e-01
  3.8721016e-01
  6.4833522e-01
  1.7208380e-01
  4.3038148e-01
  6.0109186e-01
  4.1852508e-02
 -1.8227123e-01
 -2.4494229e-01
  2.1156800e-01
 -1.2731993e-01
 -6.9028422e-02
  7.7755797e-01
  1.5222389e-01
 -4.6882308e-01
 -1.9782051e-03
  3.0672923e-01
 -5.1606017e-01
 -2.2794439e-01
 -7.8119129e-02
 -9.7597086e-01
 -2.8006735e-01
 -2.6087350e-01
  3.3607921e-01
  7.3392564e-01
  1.2805455e+00
  6.1802160e-02
  8.5179788e-01
 -6.0473943e-01
  1.6170155e-01
 -2.2381039e-01
  3.8314232e-01
 -5.4905719e-01
  1.4235154e+00
 -8.2470335e-02
  1.8867606e-01
 -2.2203831e-01
 -1.6475971e-01
 -2.7728704e-01
  1.6261762e-02
  3.9087903e-01
 -1.8801910e-01
  2.6743349e-01
  2.1240665e-01
  1.8753897e-01
 -6.9860250e-01
  7.5985891e-01
 -1.7801200e-01
 -1.9660011e-01
  3.7020754e-02
 -1.0664690e-01
  4.9167997e-01
 -7.3351365e-01
 -4.8660421e-01
  3.7184501e-01
  4.9583578e-01
 -5.2557075e-01
  4.2249907e-02
  4.4633335e-01
 -5.2308309e-01
  1.1267355e-01
 -8.0564804e-02
  1.7859854e-02
 -1.8001782e+00
  5.8057774e-02
  4.2443749e-01
  9.1540909e-01
  8.6224443e-01
  1.5692911e-01
 -6.9495112e-01
 -4.1733119e-01
 -5.0230896e-01
  5.6974912e-01
  4.3677771e-01
 -1.2074443e-01
  3.5913778e-03
 -6.1504883e-01
 -3.9808893e-01
 -7.5002003e-01
  4.8744506e-01
 -8.1721741e-01
  5.1969153e-01
 -1.5513086e-01
 -3.9502722e-01
 -1.0400271e-01
 -2.4125559e-02
  2.4520123e-01
  3.1037641e-01
 -7.5636065e-01
  1.3744774e+00
  2.3057492e-01
 -3.5467455e-01
 -5.9840637e-01
  1.1917418e-01
  6.2208236e-03
  2.1678032e-01
 -4.8901239e-01
  1.1704649e-02
 -6.3107443e-01
 -1.3370968e-01
 -2.0578513e+00
 -7.2598761e-01
 -3.0813530e-01
  5.8886355e-01
  1.2041349e+00
  1.4889376e+00
  1.4787198e+00
 -4.0304983e-01
 -4.0205902e-01
 -8.8650656e-01
 -1.5050033e+00
  1.1924433e+00
  4.9234909e-01
 -3.0164324e-02
 -1.2200780e+00
  1.5403739e+00
  1.2484763e+00
 -8.4587321e-02
 -1.1329624e-01
 -2.0614555e+00
 -8.8712585e-01
  6.1565185e-01
  6.4484966e-01
 -5.1125515e-01
 -1.4834772e+00
  2.9233542e-01
  2.9188195e-01
 -4.8479205e-01
 -7.2147244e-01
  2.7200469e-01
 -5.1031089e-01
 -1.1281190e+00
  6.0572229e-02
 -4.6288288e-01
 -4.9072269e-02
  2.8220835e-01
 -1.4495036e-01
 -1.8232046e-01
  1.5645877e-01
  3.6955866e-01
  2.2761809e-02
  2.3400597e-01
 -1.1569197e-01
 -6.6883899e-02
 -3.9212689e-01
  1.5447870e-01
  1.4938509e-01
 -7.4542411e-02
 -4.6732539e-01
 -2.0605770e-01
  5.5261707e-01
 -5.2918386e-01
  6.9103323e-02
  9.2021227e-01
  3.1054008e-01
  4.0088055e-01
 -7.3644006e-01
  3.7503782e-01
 -1.2902647e-01
 -3.2383084e-01
 -4.7446704e-01
  2.7636757e-01
 -2.5816461e-01
  1.2397480e+00
  3.7806249e-01
 -7.9135619e-02
  5.2724952e-01
 -2.4384366e-01
 -5.9408796e-01
  6.3299727e-01
  1.2885005e-02
  1.3622724e-01
 -1.5997343e+00
 -1.5268939e+00
 -1.0335826e+00
 -8.3245420e-01
 -3.2264419e-02
  8.7442899e-01
  2.4946680e+00
 -3.0792444e+00
  3.2379285e-01
  5.2090675e-01
 -7.4803770e-02
 -1.9205865e+00
 -1.0676630e+00
  1.9161230e-01
  6.2736505e-01
 -4.9030617e-01
 -1.8609172e+00
 -1.8011495e+00
 -2.9811913e-01
  1.5355723e+00
 -1.1970188e-01
 -2.6034262e+00
 -1.1643909e+00
 -4.6622139e-01
  3.1401124e+00
 -6.8111056e-01
 -1.9274268e+00
  1.4548284e+00
 -6.5501839e-01
  2.5864714e-01
  8.4081590e-02
 -1.0243250e-02
  4.3307766e-01
 -1.3099875e-01
 -6.8451059e-01
  8.5095942e-01
 -4.9460182e-01
 -1.8575673e+00
 -1.2963202e+00
 -8.1547409e-02
 -2.4520862e+00
  1.1458515e+00
  2.1043370e+00
  1.3930870e+00
 -1.9875697e+00
 -8.5270041e-01
 -8.7397027e-01
 -1.4967077e+00
 -9.1257179e-01
 -2.0327318e+00
 -6.0757786e-01
 -1.3497758e+00
 -5.4832184e-01
 -5.2114195e-01
 -2.0208769e+00
 -9.8650813e-02
 -5.8431524e-01
 -8.5226446e-01
 -5.3462791e-01
 -8.6550647e-01
 -1.1310138e+00
 -4.7167814e-01
 -1.4213691e+00
 -8.5203657e-03
  2.5827408e-01
 -5.1188743e-01
 -7.7760088e-01
 -8.8521695e-01
 -3.1297457e-01
  2.7192229e-01
 -6.4875919e-01
 -5.9133613e-01
 -1.0613904e-01
  5.9442699e-01
 -1.3739137e-01
  3.2143354e-01
 -2.6543358e-01
 -3.2397568e-01
  3.2420701e-01
  4.2513862e-01
  2.7610672e-01
  2.9947162e-01
  1.0673425e+00
  4.3288681e-01
  2.2905882e-01
 -3.7399250e-01
 -5.1628244e-01
  2.7842399e-01
  2.4349862e-01
 -5.9448606e-01
  5.3899634e-01
 -8.2990843e-01
 -1.2699986e-01
 -1.5695208e-03
  5.0826025e-01
 -6.5631682e-01
  2.1769410e-01
  3.4627077e-01
 -1.7120433e-01
  9.3958354e-01
 -2.5671333e-01
 -8.4271431e-01
 -5.9959672e-02
  1.3184854e-01
  6.0905463e-01
  3.5354736e-01
  5.4966360e-01
  2.2717081e-01
  8.5582530e-01
 -5.1868729e-02
 -6.5971780e-01
 -8.5335159e-01
 -8.2113035e-02
 -1.1408314e-01
 -4.8920455e+00
 -1.5556043e+00
 -7.1491843e-01
  7.5792795e-01
  9.4930375e-01
 -5.5371094e-01
 -1.0574582e-01
  2.7772697e-02
  1.2261457e+00
  1.4437516e-01
  7.8818224e-02
  7.6813422e-02
  1.3883874e-01
  8.4987700e-01
  6.4248449e-01
 -1.3477926e+00
  5.0801855e-02
  4.8417397e-02
 -9.1539629e-02
  1.2723006e+00
 -7.2372776e-01
  1.3848868e-01
  1.0484118e+00
  3.9897946e-01
  2.3370888e-02
  7.5078923e-01
  2.9189989e-01
  1.3188670e+00
 -2.2567631e-01
 -2.8158493e-02
  9.9625301e-01
 -1.6388322e-01
  8.5239774e-01
 -5.8537585e-01
 -7.9701078e-01
 -3.8157117e-01
 -2.8364584e-01
 -1.4141352e-01
 -5.1420491e-02
 -5.2420938e-01
  4.5303565e-02
  4.4004880e-02
  5.0982285e-01
  2.2827012e-02
  1.9386700e-01
  6.7303038e-01
  6.4958888e-01
 -1.4742877e-01
  7.5443339e-01
 -7.0961341e-02
 -4.2488359e-02
  8.8405961e-01
  7.1446419e-01
 -8.8837512e-02
  3.1348726e-01
 -6.7718461e-02
 -6.6936719e-01
 -5.9871238e-01
 -2.6471426e-03
 -3.5101742e-01
  9.6061610e-02
 -1.2461695e-01
 -1.2302287e+00
  4.9389938e-01
 -4.6934102e-02
 -1.1358111e-02
 -3.1083551e-01
  1.1687823e-01
  3.4432620e-01
  6.3749814e-01
 -4.8324546e-01
 -1.9600737e-01
 -2.7730208e-02
 -5.4179549e-02
  1.2807001e+00
 -1.8205754e-02
  3.3358231e-01
  5.5667818e-01
  2.8542531e-01
  2.9685205e-01
 -9.8289514e-01
 -1.5688658e-03
 -3.5146126e-01
 -7.9575163e-01
 -1.0698843e+00
 -2.4765453e-01
 -7.5133950e-01
  1.5270981e-01
 -9.6042347e-01
  1.0079698e-01
  3.8987783e-01
 -1.3381749e-01
  2.3954926e-01
  6.3885063e-02
  1.0845164e+00
  3.5832411e-01
  6.5664530e-02
 -5.7151997e-01
  6.5300095e-01
 -3.5420203e-01
 -3.7232253e-01
  3.5331619e-01
 -1.4797282e+00
 -3.0286101e-01
  5.1991850e-01
 -1.3843189e-01
 -2.3015191e-01
  4.6803790e-01
  1.4557340e+00
 -7.5884622e-01
  2.2054207e+00
 -2.0148879e-01
  8.3610392e-01
 -4.8443642e-01
 -1.4620993e+00
 -7.7913737e-01
  9.9334359e-01
  4.2765647e-02
 -7.0696938e-01
 -1.9932653e+00
  1.7710426e+00
  1.7219573e+00
 -5.7152104e-01
 -1.7972375e+00
 -1.7484937e+00
 -4.1725609e-01
 -1.5480593e-02
 -7.3660314e-01
 -1.0270271e+00
 -2.8265548e+00
  1.1090733e+00
  7.4678212e-01
 -2.8767347e-01
 -2.6483086e-01
 -2.5876665e+00
 -3.6222598e-01
  1.0483955e-01
 -7.4825138e-01
 -3.4164462e-02
  1.4590424e-02
  2.3039432e-01
 -5.2731967e-01
  2.2500594e-01
 -4.4699889e-01
 -4.2655885e-01
  1.4814687e+00
 -3.2951716e-01
  4.7091413e-01
  3.2525606e+00
  2.0966445e-01
 -3.8720715e-01
  3.6221888e-02
  3.5773790e-01
  4.4205639e-01
 -1.0696337e+00
  4.2498079e-01
 -8.5639715e-02
 -4.0662459e-01
  1.1667957e+00
 -2.1013992e-01
 -1.7423256e-01
  1.6798295e-01
  1.3443522e-01
  9.3734950e-01
 -8.4587795e-01
  1.2992458e+00
  1.6339317e-01
  1.4420904e+00
 -5.7160503e-01
  4.6931368e-01
  3.0330756e-01
  5.8705676e-01
  2.7374452e-01
  9.2222013e-02
 -2.7969119e-01
 -1.3519971e-01
  3.1950381e-01
 -6.9047332e-01
 -9.9054772e-01
  6.8560950e-02
  2.2420484e-01
  2.9660851e-01
 -1.4127400e+00
  2.1090367e-01
 -1.4328574e+00
  1.7450018e+00
  7.6928723e-01
 -1.6895388e+00
  7.9285389e-01
  5.1665586e-01
  5.9734482e-01
 -1.3701138e+00
 -3.0889523e-01
 -3.7151915e-01
 -1.0249177e+00
  1.1797153e+00
 -4.3006133e-02
  1.9865384e+00
 -9.1648865e-01
  7.3190975e-01
  9.0844911e-01
 -2.4580349e-01
  7.7951545e-01
  3.4738272e-01
 -3.4860425e-02
  3.0306157e-01
  3.9983237e-01
  7.3202538e-01
  8.8773876e-02
  7.3834306e-01
  1.1210621e-01
 -9.5012844e-02
 -5.1978308e-01
  2.1605082e-01
  8.0363458e-01
 -5.5895472e-01
  7.8453547e-01
 -3.2472271e-01
 -2.9636186e-01
  2.2584772e-02
  9.9306148e-01
 -4.2649677e-01
 -1.1979258e-02
  5.4570198e-01
  6.8854466e-02
 -2.5402725e-01
  6.1951882e-01
  7.6383138e-01
 -1.6040656e-01
 -3.1809442e-02
  2.8375763e-01
 -9.4522089e-02
 -1.4819208e-01
  1.9444053e-01
  5.3865480e-01
 -1.7401165e-01
  9.6603948e-01
 -3.6981118e-01
 -2.9078994e-02
  1.0082532e-01
  1.0705045e+00
 -8.5033071e-01
  1.9792962e-01
  4.0884519e-01
 -3.3423722e-01
  3.0199111e-01
  7.9496229e-01
  4.3655136e-01
 -6.9003694e-02
 -1.2078090e+00
 -5.1062280e-01
 -2.3771970e-01
  2.0029199e-01
 -4.8706564e-01
 -1.6778009e-01
 -3.5790828e-01
 -3.1106383e-01
  3.2794753e-01
  8.4558237e-01
 -1.1146832e+00
  1.5810615e-01
 -3.7974126e-03
  3.7775915e-02
 -6.1117571e-02
 -3.6858737e-01
 -8.2489938e-01
 -4.5993102e-01
  7.6688838e-01
 -4.1197526e-01
  5.6202924e-01
 -6.0015307e-03
 -5.4431987e-01
 -3.1397361e-01
 -2.9673520e-01
  1.0683075e+00
 -6.0237908e-01
  2.3560503e-01
  2.1959620e-02
 -6.9531322e-01
 -5.3115577e-01
 -6.5295202e-01
 -5.7540113e-01
 -3.3693904e-01
 -3.9982700e-01
 -2.7080419e-02
  5.8697438e-01
 -4.0946743e-01
 -9.0347874e-01
  1.2472673e-01
 -5.5875915e-01
 -1.6417578e-02
 -2.4674968e-01
  5.0700450e-01
 -1.4955689e+00
 -1.8470465e-01
 -1.9655672e-01
 -6.2187934e-01
  1.3786075e-01
  8.8480395e-01
  1.2174430e+00
  4.9813610e-01
  7.6139396e-01
 -1.4675102e-01
  9.4314754e-02
 -2.8038722e-01
 -1.0983534e-01
 -1.0421568e+00
  1.4863376e-01
  1.3545263e-01
  1.1723769e-01
 -1.0945356e+00
 -4.7753432e-01
  9.1305869e-03
 -7.3793674e-01
 -3.5439369e-01
  5.8557785e-01
  9.2579472e-01
  4.5078525e-01
 -3.8103601e-01
 -3.9574844e-01
 -2.4128054e-01
 -8.0073699e-02
 -2.7672070e-01
  7.1406269e-01
  4.5460624e-01
  3.6625192e-01
 -1.3628137e-01
 -1.9224150e-01
  7.8764957e-01
  1.6405325e-01
 -7.1063167e-01
  6.5440424e-02
 -1.0514165e+00
 -4.1980562e-01
  9.7210193e-01
  3.0228955e-01
  1.5697940e-01
 -1.0517389e+00
 -4.7656617e-01
 -2.8852364e-01
  4.0601411e-01
  1.1642396e-01
  5.6561077e-01
 -9.8468915e-02
  3.7632309e-02
 -1.0974802e+00
 -6.1153567e-01
 -5.1093900e-01
 -9.4724584e-01
 -2.8667247e-01
 -5.0047123e-01
 -6.7865241e-01
 -2.8456444e-01
  2.1390358e-01
 -4.4398460e-01
 -2.4924481e-01
 -2.0510037e-01
  2.2339033e-02
  1.1480166e-01
 -2.6152489e-01
  4.0903875e-01
 -6.5183347e-01
 -9.8546016e-01
  4.4395849e-01
 -6.3597506e-01
  5.5222416e-01
 -1.0361185e+00
 -3.4376675e-01
  4.9049962e-01
 -6.9298750e-01
  1.2346311e+00
  6.6599292e-01
 -1.1679532e-01
  9.8065317e-01
 -6.7676336e-01
  6.2399262e-01
 -1.7019175e-01
 -5.0612527e-01
  2.6298851e-01
 -6.9692236e-01
 -3.1895113e-01
 -6.2894440e-01
 -5.4231733e-01
  1.3293500e+00
 -1.2748960e-01
 -4.8626218e-02
 -5.2744508e-01
 -5.9309977e-01
 -9.4011956e-01
 -2.2008391e-01
 -1.4612018e-01
 -6.9449359e-01
 -7.3896572e-02
 -1.3603826e-01
 -7.8032058e-01
 -6.8110697e-02
  7.4771988e-01
  1.5118687e-01
 -8.4350342e-01
  2.1613902e-01
 -8.1078690e-01
 -3.0115956e-01
 -1.0655797e-01
  4.7709338e-02
  2.4156942e+00
 -1.6136605e+00
 -2.7853689e+00
  5.3320680e+00
  2.7183280e+00
 -1.6552823e+00
 -1.1028076e+00
 -2.8667623e-01
  6.0903382e-01
  1.7065854e+00
  2.1146200e+00
 -4.8221618e-01
 -2.1475406e+00
  5.7557613e-01
  3.8331232e+00
 -9.0540659e-01
  5.3426844e-01
 -7.0803899e-01
  6.5101641e-01
  1.0967981e+00
  1.4389729e+00
 -1.2003259e-01
 -1.3173276e+00
  9.9991411e-01
  1.1225115e+00
 -2.3084389e-01
 -5.1738954e-01
  1.5026541e-01
  2.9889750e-01
  3.6301944e-01
 -2.3077510e-01
 -4.8351786e-01
 -4.9781504e-01
  7.3609060e-01
  1.0808270e-01
  4.8396087e-01
  8.1772017e-01
 -3.2565805e-01
 -2.0246387e-01
 -5.7235014e-01
  5.6567925e-01
 -6.3724345e-01
  1.6863772e-01
  3.5431692e-01
  2.2098146e-01
 -1.1172960e-01
 -1.1433092e+00
 -1.9305426e-01
  9.1668999e-01
 -1.8023500e-01
  1.4384334e-01
 -4.1618100e-01
 -1.2367748e-01
 -2.5239745e-01
 -4.1186222e-01
  8.9302015e-01
 -4.3393344e-01
  2.1400261e-01
  3.1507263e-01
  7.3880368e-01
  6.7902672e-01
  8.2809895e-01
 -1.5474585e-01
 -6.1967444e-01
  5.0183570e-01
 -7.2078365e-01
 -1.2042260e-01
  1.2472660e-01
  2.1687731e-01
  3.4453285e-01
  5.6210202e-01
 -4.9985588e-01
 -5.1713121e-01
  1.1850026e-01
 -2.7538387e-02
 -1.0810674e+00
  8.2542670e-01
  6.1105269e-01
 -6.4191455e-01
 -8.6755192e-01
 -4.4404575e-01
 -1.9421132e-01
  2.8399570e-02
  5.8844543e-01
  4.9569994e-01
  9.3726359e-02
  6.1749011e-01
  1.6736691e-01
 -5.7795799e-01
  1.3737397e-01
  8.6064106e-01
 -3.3004427e-01
  3.5275990e-01
  6.4608091e-01
 -6.1805654e-01
 -3.2555220e-01
 -5.6410772e-01
  7.8016376e-01
 -3.8184652e-01
 -8.2167365e-02
 -1.1239909e-01
  1.7404099e-01
 -1.6508536e-01
 -3.0003539e-01
 -2.2148074e-01
  2.0492330e-02
  1.0120876e-01
 -1.9074787e-01
 -7.3374587e-01
 -2.5292692e-01
  3.3478639e-01
  7.1740210e-01
  1.4603151e+00
  3.2812636e-02
 -4.6529579e-01
 -1.8193638e-01
 -2.5817186e-01
 -1.3180358e+00
  3.6903489e-01
 -2.8780788e-01
  6.8861604e-01
 -5.2474022e-01
  4.8360845e-01
  5.7296658e-01
 -8.5231137e-01
 -3.2383898e-01
  7.1735394e-01
 -8.5852253e-01
  2.2255068e-01
 -4.7261894e-01
 -3.1980908e-01
 -6.1980528e-01
  4.8349198e-02
  8.9471561e-01
  6.3350871e-02
  3.5340670e-02
  1.6921006e-02
  6.3389230e-01
 -2.7082735e-01
  5.6097627e-02
 -1.1273856e+00
 -2.4377491e-01
  8.6367345e-01
 -8.9962363e-01
 -1.0722538e-02
  1.1613542e-01
  1.7899558e-01
 -3.3440018e-01
  2.5960546e+00
  2.0087032e+00
  3.8126013e-01
  2.8729992e+00
 -6.9252861e-01
  7.0456564e-01
 -1.7433419e+00
 -8.1339633e-01
  1.2334778e-01
 -1.1242823e-02
  2.6186517e-01
 -5.3064519e-01
 -7.2049534e-01
 -2.0811425e-01
  1.0539415e+00
 -2.1923004e-01
 -9.5153451e-01
 -4.3058631e-01
  3.0517134e-01
  4.1469887e-01
 -4.3429438e-02
 -1.5024972e-01
 -8.7448597e-02
  1.2858465e+00
  3.8862377e-01
 -1.0253602e+00
 -1.5542318e-01
 -5.7287598e-01
  2.5995317e-01
  8.3312958e-02
 -1.3023230e+00
 -2.9862002e-01
  1.7461933e-01
 -9.2084283e-01
 -4.4265744e-01
 -6.7532825e-01
  7.4357373e-01
  2.9417083e+00
 -4.5663729e-01
  2.2924283e+00
  4.6092489e-01
 -4.9292770e-01
 -5.3309828e-01
 -3.2066700e+00
  2.5577810e+00
  5.4191017e-01
  1.0832493e+00
 -2.3701881e-01
  3.6603087e-01
 -2.5470749e-01
 -3.0653113e-01
 -1.2109149e-01
  1.0104251e+00
  3.3357415e-01
  1.0773373e+00
  3.4023542e-02
  3.9181241e-01
  1.3209343e-01
  2.5883311e-01
  1.2013340e-01
 -6.5028554e-01
  7.3839951e-01
  1.2924294e+00
  2.8441191e-01
  5.5906731e-01
 -3.5341424e-01
  1.1357254e+00
  3.0728683e-01
 -2.7595428e-01
  1.2708965e-01
 -5.5670643e-01
 -4.3857315e-01
 -1.7137010e-01
 -3.2500812e-01
 -2.6581660e-01
 -7.8407824e-01
  6.1739558e-01
  4.2157570e-01
  1.4134125e-01
  1.2008487e-01
  6.3539714e-01
 -5.3655368e-01
  4.6613058e-01
  8.2461149e-02
  2.0450933e-01
 -5.3567070e-01
  8.2122570e-01
  2.5145212e-01
  2.9696265e-01
  5.5933759e-02
 -5.5092645e-01
 -3.3361006e-01
 -2.3269051e-01
  1.9517842e-01
 -1.8330505e-01
 -7.5847727e-01
  6.4325893e-01
  4.7726098e-01
  4.3894887e-01
 -7.6421715e-02
 -1.9083768e-01
 -1.0928315e+00
 -8.4655666e-01
 -9.8392740e-02
 -1.3077326e+00
  2.4392226e-01
  1.1221556e-01
 -6.6159689e-01
 -1.8556292e-01
 -5.0034797e-01
  5.9708488e-01
 -1.1969781e+00
  7.8051656e-02
 -7.8455216e-01
  1.6030470e+00
  2.2275126e-01
  6.5068209e-01
 -6.2934667e-01
  3.3414596e-01
  3.6298066e-01
 -9.1562070e-02
  8.1850451e-01
  3.4080365e-01
  5.9254114e-02
  8.4980917e-01
 -6.3100284e-01
 -6.1594558e-01
 -7.4801788e-02
 -2.7816594e-01
  6.8434310e-01
 -6.6780514e-01
 -2.9128931e-02
  2.0570068e-01
  4.6630618e-01
  5.7020259e-01
  6.1786540e-02
 -9.5552452e-02
 -6.8997169e-01
 -3.7578958e-01
 -3.9277270e-01
  4.4864330e-01
 -8.9787149e-01
 -4.0792441e-01
  4.0718439e-01
  6.0880113e-01
 -2.6917416e-01
 -1.2272631e-01
 -1.5339548e-02
  1.2773776e+00
 -1.4815146e+00
  3.7007338e-01
 -2.1983821e+00
  4.1523343e-01
 -5.6693119e-01
  3.4028515e-01
  6.3747758e-01
 -2.7689716e-01
  2.2747207e-01
  4.7986531e-01
 -1.9809049e-01
 -7.1687616e-02
 -1.0893186e-02
  7.8798157e-01
 -6.7469454e-01
  1.2667094e-01
  2.6037833e-01
  1.7890397e-01
  4.7390023e-01
  4.3143150e-01
 -3.6365449e-01
  1.6471114e+00
  6.3408244e-01
  3.6570388e-01
 -1.2463963e+00
  2.6251787e-01
 -6.2370592e-01
 -3.5140538e-01
  8.0039211e-02
 -7.7695656e-01
 -5.8643776e-01
 -1.1022560e-02
 -1.1300188e-01
  1.7373152e+00
  3.5336707e-02
  3.6785696e-02
 -3.3630770e-01
 -1.0668721e+00
  3.1716961e-01
  9.5953125e-01
 -1.1025354e+00
  3.3235904e-02
 -5.6804454e-01
  1.6064396e+00
  2.4485733e-01
  1.4945295e+00
 -6.6527271e-01
  3.4259710e-01
  1.0967625e+00
 -2.5722587e-01
  2.2037629e-02
 -2.5605893e-01
  3.0185476e-01
  4.2164400e-01
 -4.7288606e-01
  4.1800115e-01
  1.7004678e-01
  6.9861841e-01
  7.3526269e-01
  3.0388272e-01
 -5.5568151e-02
 -1.9836140e-01
  4.5761105e-01
  2.0516071e-01
  1.5502016e-01
 -5.0503564e-01
 -7.0001382e-01
 -1.1109449e-01
  5.8132291e-01
  2.2281738e-02
 -6.5575457e-01
  5.5121012e-02
 -3.0734393e-01
 -1.4930001e-02
 -9.5565754e-01
  2.9026714e-01
  4.6610945e-01
 -2.3066352e-01
  5.6083396e-02
 -6.4391321e-01
  2.4750282e-01
  5.1141912e-01
  4.6227944e-01
  2.1722448e-01
  4.8789415e-01
 -3.5997570e-02
  5.3270286e-01
  7.2926843e-01
  2.2941628e-01
  5.5356032e-01
 -1.0635167e-01
  3.2276741e-01
  1.3793589e-02
  5.6799829e-01
 -2.5540188e-01
 -1.5057887e-01
  2.0499429e-01
  3.2606390e-01
  2.5760421e-01
  2.6055491e-01
  5.3584909e-01
 -2.3399220e-01
 -1.4140030e+00
  4.0108442e-01
 -1.0736406e-01
 -6.9715947e-01
  5.6178037e-02
 -2.3674270e-02
 -5.3903982e-02
  2.6322275e-01
  4.8187402e-01
  3.5875094e-01
 -5.4672951e-01
 -3.9404613e-01
  3.5955951e-01
  2.4281538e-01
  7.3329378e-03
  1.3414131e-01
  2.8171009e-01
 -6.3701755e-01
 -8.4373754e-01
 -3.6732811e-01
 -7.6475239e-01
  1.0068511e+00
  2.1016432e-01
  1.2305785e-01
  4.4412640e-01
 -4.3281764e-02
  7.3890895e-01
 -5.5155015e-01
  5.0161529e-01
 -3.2553998e-01
  1.5312977e-01
  7.3885196e-01
  4.4141543e-01
 -1.2151852e-01
 -4.2686075e-01
 -1.8256441e-01
 -6.3983166e-01
 -2.4987207e-01
  1.3174729e-01
 -2.5645247e-01
  2.3966296e-01
  4.2957696e-01
  1.3401213e-01
  9.3833789e-02
  7.6649553e-01
  5.6505442e-01
  4.8428527e-01
  5.6526977e-01
 -3.7416047e-01
  2.2273345e-01
  4.3291533e-01
 -3.1117156e-01
 -1.6613717e-01
 -6.9532746e-01
  9.8186249e-01
  4.1264063e-01
 -1.0395107e-01
  1.8144105e-01
 -7.9130605e-02
  3.0040860e-01
 -1.2118796e+00
 -4.4265442e-02
  3.4341376e-02
 -5.6592339e-01
 -8.1582338e-01
  1.0040645e-01
 -5.2320373e-01
  2.6707232e-01
  6.7513591e-01
 -3.1718045e-01
 -4.6849191e-01
  4.8559916e-01
 -4.8772255e-01
 -2.2754580e-01
  8.5208595e-01
 -5.7853162e-01
  2.1131253e-01
  1.9137169e-01
 -3.1718987e-01
 -1.0599723e-01
  2.2542033e-02
 -6.4394009e-01
 -1.0683615e+00
  2.2621380e-01
 -1.2386898e+00
 -9.9375248e-01
 -1.2040499e+00
  9.8543954e-01
  9.0993530e-01
 -3.4124894e+00
  3.8756034e-01
  5.1611692e-01
  3.5436105e-02
  1.0162849e+00
  1.6215386e+00
 -7.1469821e-02
 -7.9216784e-01
 -1.4122627e+00
  3.7189767e-01
  1.0706729e+00
  6.3853235e+00
  1.2805083e+00
 -1.2641202e+00
 -1.0800594e+00
 -5.9018207e+00
 -1.1407593e-01
 -1.7351913e+00
 -9.1605198e-01
  1.6757009e+00
  1.9342508e+00
 -6.5554202e-01
 -2.1778719e-01
  4.7064738e+00
  1.7054617e+00
  1.9319128e-01
  2.3871067e+00
  1.0994586e+00
  2.3220484e+00
 -1.6854697e+00
 -2.4725196e+00
  5.8344769e-01
 -3.9628103e-01
 -1.3271320e+00
 -2.2677026e+00
  4.4551420e+00
 -2.3152914e+00
  1.8979028e+00
 -9.0424305e-01
  8.5320383e-01
  2.9732668e+00
  1.9875488e+00
  2.6206529e+00
  1.3033336e+00
  1.3810705e+00
  8.3455968e-01
 -1.3835937e+00
 -1.4942443e+00
 -6.0003495e-01
 -1.4987396e+00
  2.0848074e+00
 -7.7569079e-01
 -2.3603230e+00
  2.6216741e+00
 -6.1714923e-01
 -1.3277407e+00
  2.1248939e+00
  1.4446709e-01
  1.3567624e+00
 -2.9856303e-01
  6.2295306e-02
  6.2489241e-01
 -1.6977156e+00
 -8.1163478e-01
  3.8035958e+00
 -3.4765044e-01
  1.4443537e+00
  4.9124017e-01
 -6.2878036e-01
 -1.6785008e+00
 -2.2096002e+00
 -5.8962846e-01
 -8.2299232e-02
  7.3204987e-02
 -4.0176157e-02
  2.1676393e-01
 -8.9844503e-02
  1.9428110e-01
 -1.9479628e-01
 -1.6078138e-01
 -2.2878196e+00
 -1.6524365e-02
 -4.8837774e-03
 -2.3413116e-02
 -9.6687369e-02
  1.5615225e-01
  2.4306753e-01
 -1.8471899e-02
 -3.3015406e-01
 -2.5112191e-01
  9.2014867e-01
  2.3443046e+00
 -1.5616964e+00
 -2.1703190e-01
  3.3998084e-01
 -8.3371812e-01
 -1.5104869e-01
 -3.5798156e-01
  9.4573653e-01
 -1.7240406e+00
 -2.9254251e+00
 -1.1712148e-01
  2.4219645e-02
  2.8182164e-01
 -5.6522250e+00
  1.8340352e-01
 -5.4023643e+00
  5.3833592e-01
 -5.0750399e-01
  1.4834833e-01
  4.5649216e-01
 -3.1254509e-01
 -8.4800102e-02
  5.1024276e-01
  1.2452588e+00
  5.8371216e-01
 -1.9344644e-01
 -6.3016993e-01
  2.8685349e-01
 -3.9879766e-01
 -1.8470772e-01
 -6.1874676e-01
  1.0821293e-01
 -4.4315368e-01
 -2.3911474e+00
  3.3574000e-02
 -1.9612638e+00
 -2.8812060e-01
 -5.5757597e-02
  3.0540520e-01
 -1.2827101e+00
 -1.2669320e-01
  3.9170971e+00
  3.0831090e-01
 -9.2951572e-01
  2.9835185e-01
 -1.5367610e+00
 -1.9196309e-01
 -6.3298446e-01
 -1.5305308e-01
 -1.8316976e+00
 -3.2442313e-02
  1.1008765e+00
  4.7715232e-01
  8.1896514e-01
  6.9062281e-01
 -3.8408521e-01
  7.7648237e-02
  2.0120645e-01
  2.8688056e+00
  1.3911982e+00
 -3.5287578e-02
 -5.9632473e-03
 -2.4697103e-02
 -2.3314555e+00
 -1.5159733e+00
 -1.7062405e-01
 -4.2052862e-01
 -1.3390931e+00
  2.2396109e+00
  1.3523319e+00
 -8.6514604e-01
  3.4950343e-01
  5.3578144e-01
  4.6367252e-01
 -1.0350961e-02
 -1.2845033e+00
 -5.4514414e-01
 -5.7312614e-01
  1.3933615e-01
 -1.3063343e+00
 -5.0950676e-01
  4.2254636e-01
 -1.2305131e+00
  5.6890762e-01
 -7.6603788e-01
 -1.2198541e+00
 -2.2245431e-01
  1.4067413e+00
  4.1444737e-02
  7.7470593e-02
 -4.3106678e-01
  1.4300543e-01
  4.9745625e-01
  5.2690411e-01
  5.2085644e-01
 -2.3589140e-01
  2.2075513e-01
  2.3969933e-01
  8.3841451e-02
 -6.3907588e-01
 -1.3623670e-01
  1.3398373e+00
 -1.5857154e-01
  4.3343449e-01
  2.0289073e+00
  3.7883991e-01
  1.3379133e-01
  1.7641368e+00
 -1.4883044e-01
 -2.5155300e-01
 -3.0678940e-01
  8.4628142e-02
  9.0333134e-01
 -3.4805435e-01
  4.6723822e-01
 -1.5810187e-01
  1.6140913e+00
  9.8162305e-01
  2.3499654e-01
 -1.6562970e-01
  6.7339413e-02
  7.4030387e-01
  8.5758960e-01
 -2.1719731e-01
 -1.8317868e+00
  7.0985770e-01
 -2.1665616e-01
 -5.7621723e-01
  4.3072652e-02
  1.3155113e-01
  5.8288348e-01
 -1.2318569e-01
  7.5825773e-02
  3.0933487e-01
  5.5132842e-01
 -9.8754801e-02
 -8.9675814e-01
 -1.4421883e+00
  2.7283037e+00
  7.8889573e-01
  4.6249416e-01
  3.2343395e+00
  6.3613641e-01
  7.5532660e-02
  1.1178369e-01
 -3.9751559e-02
  2.4513218e-01
 -1.6480665e-01
 -1.4533727e-01
 -7.2413522e-01
  2.8475240e-01
 -6.5344238e-01
  7.1542060e-01
 -5.7936337e-02
  1.3483682e-01
  2.0638107e-01
 -4.8060519e-01
 -2.5675559e-01
  3.4908086e-01
  3.0860779e-01
 -9.6394366e-01
 -5.2522850e-01
  1.0544149e-01
  2.5877517e-01
 -3.1641155e-02
 -2.1500546e-01
  1.3930458e-01
 -1.7022981e-01
 -6.4080983e-02
  1.4129191e-02
  1.3442999e-01
  2.2588165e-01
 -3.0610153e-01
  4.7152686e-01
 -2.3108472e-01
  1.1450957e+00
 -3.0930123e-01
  2.4580893e-01
  1.3343634e-01
  2.6960462e-01
  2.2332212e-02
  3.9477456e-02
  3.0767175e-03
  7.0386142e-01
 -8.7174565e-02
  1.1828763e-01
 -1.4015786e-01
  9.5835012e-01
 -1.3950758e-01
 -2.1043146e-01
  1.6646121e-02
 -3.6547389e-02
  2.3677060e-01
 -2.4515741e-01
  4.0513685e-01
 -1.8519016e-01
  1.4444770e-01
  3.0537631e-02
 -8.8103283e-03
  2.2041723e-01
 -9.6309617e-02
  1.7000209e-01
 -2.2770634e-01
  4.2095646e-01
 -2.3335634e-01
  2.8681421e-01
  3.5491815e-01
  5.7842862e-02
  4.7606173e-01
 -6.1286348e-01
 -6.0508825e-02
 -1.1577313e+00
 -8.2347852e-01
 -8.0980051e-01
 -1.6405039e+00
  1.3021685e+00
 -7.9153025e-01
  4.5566133e-01
 -3.2642844e-01
  3.9317971e-01
 -5.9709269e-01
  9.1368026e-01
 -3.2849535e-01
 -3.4380773e-01
  4.2161274e-01
 -2.7832776e-01
  4.6648595e-01
  3.9009842e-01
 -7.7015591e-01
  7.4372512e-01
  1.2189924e-01
 -7.1333879e-01
  7.2980833e-01
  6.9982782e-02
  7.3449355e-01
 -2.0964548e-02
  8.3267814e-01
 -6.1736256e-01
 -5.3963298e-01
 -2.7497721e-01
  3.2856157e-01
 -1.2565982e-01
 -4.9036413e-02
 -3.4296492e-01
  7.4132484e-01
  1.5938367e-01
  4.6139259e-02
  7.9658754e-02
 -5.3627010e-02
  3.2367429e-01
  2.8198898e-01
 -1.3417081e-02
  4.1435269e-01
  2.0435147e-01
  2.7933633e-01
 -2.2627576e-01
  1.1699221e-02
 -5.6976312e-01
  2.8491778e-02
  9.6170060e-02
 -3.7953679e-02
  4.7850007e-01
 -8.5244412e-03
  3.2599074e-01
  3.0161855e-01
 -1.3319318e-01
  1.1908459e-01
 -3.9280906e-01
  1.6539666e-01
  1.9674297e-01
  3.1186765e-01
  7.6495700e-02
  8.4192105e-02
 -3.6405016e-02
 -2.1764612e-01
 -1.2293369e-01
  1.8696138e-01
 -4.3976763e-01
  2.8900137e-02
  1.5839985e-01
 -4.9485558e-01
  1.1558615e-01
 -2.4483241e-01
 -4.4111867e-02
 -4.4373269e+00
 -9.4613570e-01
  1.0343397e-01
  1.3160033e+00
 -8.7591922e-01
  9.2292553e-01
 -4.8861369e-03
 -4.6934712e-01
 -1.2549104e-01
 -6.1513579e-01
  4.1730574e-01
 -5.3618205e-01
  9.1845030e-01
  1.0030136e-01
  6.1183619e-01
  3.4823403e-01
  2.8320238e-01
  5.0897157e-01
  4.4980508e-01
 -4.1609630e-01
 -1.1878004e-01
  1.0877902e-01
  3.7843391e-01
 -8.2280196e-02
 -2.3029175e-01
  6.1209238e-01
  2.1897574e-01
  9.8583274e-02
 -8.0699205e-01
 -2.1180900e-02
  1.0522139e-01
  8.2935297e-01
 -5.4444734e-02
 -3.4196118e-01
 -2.8569344e-01
  1.6545983e-01
 -8.0627523e-04
 -5.7077162e-02
 -1.8226123e-01
  6.5856749e-01
  2.9274845e-01
 -1.5282576e-03
 -1.0096111e-01
  3.5338637e-01
 -1.3311268e-01
  8.1473726e-01
  5.3149474e-01
 -6.5772718e-01
 -8.4517062e-02
  4.7300225e-01
  3.0009168e-01
 -4.2030254e-01
 -1.3705717e-01
  7.9331510e-02
  2.6550850e-01
  6.0430646e-01
 -4.4922438e-02
 -2.0172240e-01
 -9.4320357e-02
 -6.0270339e-01
  2.4253449e-01
 -7.9709071e-01
 -4.2675108e-01
  3.7151057e-02
 -1.6906944e-01
  1.5220688e-01
 -9.3817100e-02
 -4.3691179e-01
 -2.4390301e-01
  3.4677929e-01
 -2.7433604e-01
  1.5367471e-01
 -4.4221482e-01
 -5.2109671e-01
 -1.7643872e-01
 -2.3242401e-01
 -7.3931921e-01
 -3.1520879e-01
 -8.0371988e-01
 -2.2255746e-01
 -7.0036590e-01
 -2.6609743e-01
  1.7327248e-01
  3.9412737e-02
  6.6304392e-01
 -3.0592912e-01
  1.0461350e-01
 -2.4927785e-01
 -2.7753603e-01
 -5.5143738e-01
 -1.0675073e-02
 -2.9117748e-01
  2.7351129e-01
  1.8745881e-01
 -2.5682876e-01
 -2.8071970e-01
 -1.9352461e-01
 -3.8808759e-02
 -3.9723200e-01
  9.9402867e-02
  1.5972625e-01
  8.3972627e-01
 -7.2104466e-01
 -6.2224478e-01
 -3.8602766e-01
 -6.3466060e-01
 -3.7139723e-01
  2.5141162e-01
 -3.6696297e-01
  3.6086908e-01
 -2.1426034e-01
 -2.1178851e+00
 -8.9155996e-01
 -2.0786934e+00
  1.2299819e+00
 -2.6450841e+00
 -3.1368685e-01
 -9.5133424e-01
 -7.1776086e-01
 -8.1774044e-01
 -1.3671184e-01
 -7.4125433e-01
 -1.0107484e+00
  4.0602493e-01
 -4.9515542e-01
 -1.9653016e-01
 -1.0914846e-01
  8.0573425e-02
  2.4270806e-01
 -6.0032576e-01
 -2.2283338e-02
 -2.8745925e-01
 -1.7242095e+00
 -6.5769023e-01
 -8.6677074e-01
 -1.3589896e+00
 -4.7837210e-01
 -1.2748655e+00
  6.6922128e-01
 -1.6436660e+00
 -7.0129633e-01
 -1.1189035e-01
 -3.9495185e-02
 -9.3525517e-01
 -4.4685939e-01
 -7.6974273e-02
  9.8519951e-02
 -3.0716452e-01
 -3.2936808e-01
  3.6156678e-01
 -8.4460419e-01
  8.2634282e-01
 -5.2706219e-02
 -4.8845133e-01
 -2.6011458e-01
  1.3975853e-01
  5.6257445e-01
 -4.6713296e-01
 -2.7570075e-01
  2.3694597e-01
  6.7789473e-02
  4.4560689e-01
  6.0634935e-01
 -8.8108790e-01
 -1.0135239e-01
  1.8741204e-01
  3.7021306e-01
 -4.6888864e-01
  6.7438358e-01
  1.9977714e-01
 -8.6589861e-01
  4.5876083e-01
 -7.9686493e-01
 -1.8860276e-01
  6.7298040e-02
 -2.5850457e-01
  4.3496913e-01
 -3.2927090e-01
  4.7296289e-01
 -7.0217237e-02
 -1.8093632e-01
 -6.1498708e-01
 -1.7022467e-01
 -5.5118328e-01
  3.0226892e-01
 -6.6380495e-01
 -2.9665551e-01
  2.6879746e-01
 -1.4926074e+00
  6.6649270e-01
 -4.3433741e-01
  1.9276280e+00
  1.2788185e-01
  4.9754754e-02
  1.7126799e-01
 -4.5579553e-01
 -5.1399583e-01
  7.9810899e-01
  2.4733543e-03
 -3.1028491e-01
  1.3389432e+00
 -9.3388617e-01
 -1.0793222e+00
  1.2434112e+00
 -1.0359596e+00
  3.3053357e-02
 -7.6030016e-01
 -9.8753673e-01
  6.7423368e-01
  4.3615457e-02
  6.2979283e-03
 -5.5772907e-01
  1.3331504e-01
 -3.3401600e-01
 -3.8633886e-01
 -2.7951449e-01
 -3.8107108e-02
 -1.5790854e-01
  2.8750297e-01
  1.7238608e-01
  2.7513969e-01
 -2.4548349e-01
  9.1130920e-02
  3.2777497e-01
 -9.1435468e-01
  5.7161373e-01
 -3.2467780e-01
 -4.0004116e-01
 -2.1231247e-01
 -6.5996975e-01
 -2.9037270e-01
 -6.9522657e-02
  1.9433808e-01
  4.6305728e-01
  3.2590698e-02
 -6.0796734e-02
  1.8963133e-01
 -8.4785618e-02
  3.0744252e-01
  1.8292677e-02
 -3.9658305e-01
 -1.5010700e-01
 -7.5079602e-01
 -1.1623533e-02
  4.2482954e-01
 -3.9686081e-01
 -2.9571788e-02
 -9.1205500e-02
 -2.9717267e-01
 -2.1293381e-02
 -5.0747849e-02
 -7.2690213e-01
  2.1403261e-01
 -2.8421015e-02
 -2.1692762e-01
  1.0660931e-01
 -3.6908209e-01
 -8.6858350e-01
 -4.2782292e-01
  1.0712799e-01
  3.1945324e-01
 -2.7854702e-01
  2.6763862e-01
  3.4955972e-01
  9.5737286e-02
  4.8400247e-01
  4.8903224e-01
 -3.2974204e-01
  1.7964359e-03
  3.1275955e-01
 -7.5835697e-02
 -4.3905824e-01
  6.6434228e-01
  3.3495358e-01
  5.8287966e-01
  3.0936867e-01
  4.9090922e-01
  5.2833962e-01
  1.1850207e-02
 -1.6167064e-01
 -1.4276256e-01
 -2.2004841e-01
  5.8795415e-02
 -1.3524276e-01
  1.2645473e-01
 -2.8801703e-01
  5.0309420e-02
  4.0143555e-01
 -7.4322574e-02
 -7.2345801e-02
 -8.2052910e-01
 -8.9261338e-02
 -2.1469161e-01
 -5.6262892e-01
  3.6263648e-01
 -1.3113296e-01
  1.6680727e+00
  9.6635737e-02
  2.0183253e+00
  4.6318358e-01
 -7.1351433e-01
  3.1420788e-01
  1.2193175e-01
 -1.0464579e+00
 -1.0209589e+00
  5.2577198e-01
 -5.1843631e-01
 -3.2949662e-01
  1.2304370e+00
  3.6155275e-01
  1.1421438e+00
 -8.7390065e-01
  1.0731635e+00
  6.9088221e-01
  2.5881934e-01
  1.2910698e-01
  3.0056310e-01
 -4.8193336e-01
 -1.0120603e+00
  2.2634726e+00
  5.7504994e-01
  3.8496929e-01
  4.6965784e-01
  1.1207652e-02
  4.7691846e-01
 -2.6612934e-01
 -2.9002419e-01
  1.3272475e-01
  5.8554346e-03
  1.7750044e-01
 -8.3146203e-01
  9.5094265e-03
  2.9815859e-01
  9.1412604e-02
  2.5350210e-01
 -5.7779139e-01
  1.8334611e-01
 -1.9099772e-01
  2.9434124e-01
 -6.6550362e-01
 -6.4812207e-01
  1.1422592e-01
  4.2381566e-02
 -4.2989090e-01
 -2.3240334e-01
  3.3648753e-01
 -8.6849159e-01
 -2.1836671e-01
  2.0735236e-02
  1.0057592e-01
  1.0667337e-01
 -1.7905612e-01
 -5.7596016e-01
 -2.1759066e-01
 -3.6731121e-01
  1.3683328e-01
  2.2630908e-01
 -1.9506318e-02
  4.6915870e-02
  6.2079549e-01
  3.8747665e-01
  3.0733651e-01
 -2.4172574e-01
  2.0802775e-01
 -1.6287297e-01
  3.5778755e-01
 -2.6013458e-01
 -3.3242014e-01
 -3.8889605e-01
 -5.6038935e-02
 -3.6255461e-01
  6.4842689e-01
 -1.0039392e+00
  4.0673310e-01
 -1.2007598e-01
 -4.6350893e-01
 -5.6503922e-01
 -7.1070606e-01
 -4.1349685e-01
  3.7363276e-01
  4.0144876e-01
  5.9991032e-01
 -3.1041813e-01
 -1.7147854e-01
  1.4833631e-01
 -2.0601913e-01
  7.1908098e-01
 -3.1322107e-01
 -3.7715429e-01
  8.7244713e-01
 -4.4239205e-01
  5.0218040e-01
 -4.2642665e-01
 -7.1622394e-02
  4.8477525e-01
  3.7462914e-01
 -7.3152506e-01
 -2.3572297e-01
 -1.0010239e-01
  5.3491939e-02
  4.0623647e-01
 -5.0201291e-01
  1.3989483e-01
 -2.3344934e-01
  3.9179012e-01
  3.1174186e-01
  4.1525528e-02
 -4.9727464e-01
  6.6630527e-02
  3.7485331e-01
  1.9552973e-01
  4.5382512e-01
 -2.9216042e-01
  2.2739810e-01
 -1.8980427e-01
  1.2509206e-01
  3.7532818e-01
  6.0922271e-01
 -2.9400948e-01
  1.7935114e-01
 -9.2043199e-02
  5.9919405e-01
  1.3373693e+00
  7.8172885e-02
 -8.4501106e-01
  3.7148258e-01
  6.0455221e-01
  2.7044224e-02
  3.8212496e-01
  1.2454077e-01
  2.7602565e-02
 -1.0118557e-01
 -2.8880589e-02
 -2.5606290e-01
  1.2352943e-01
 -3.9122954e-01
 -3.7949752e-02
 -1.2246971e-01
 -5.9239338e-03
  3.9134318e-01
 -1.8333627e-01
 -1.7111598e-01
  2.7447626e-01
 -1.8159118e-01
  2.2752290e+00
  3.3509002e+00
  5.4484409e-01
 -1.2280468e+00
  5.6019551e-01
  3.5625225e-01
 -3.3997884e-01
  1.6429809e-01
 -6.5975122e-02
 -5.2188200e-01
 -2.0837812e-01
  2.9324740e-01
 -2.9592076e-01
 -2.0172421e-02
 -1.4888994e+00
  2.6716125e-01
 -3.1902185e-01
  4.5037687e-01
  1.7703557e-02
 -3.9855328e-01
  3.5627565e-01
 -3.8433799e-01
 -7.1998231e-02
  2.8193086e-01
  1.4862714e+00
 -8.7376285e-01
  5.4640824e-01
 -2.0868544e-01
  1.9233947e-01
 -4.1278243e-01
 -3.2713038e-01
 -2.8183061e-01
  4.5529613e-01
 -2.4016142e-01
 -1.7119505e-01
 -5.5051148e-02
 -7.2242416e-02
 -4.3796816e-01
 -1.8597440e-01
 -4.0023483e-02
  1.7082958e-02
  2.4776916e-01
  1.8247713e-01
 -3.6598533e-01
  3.2537991e-01
 -8.9719969e-01
  4.8536673e-01
  1.2346776e-01
 -4.1185409e-01
  3.9796552e-01
 -6.2669647e-01
 -2.7570856e-01
  1.2427059e-01
 -1.9025631e-01
  1.4088990e-01
 -5.6162041e-01
  4.7100636e-01
 -3.5841000e-01
  5.5905324e-01
 -3.0200717e-01
  3.6365548e-01
  2.9309696e-02
  4.7145465e-01
  2.9904422e-01
 -3.5918197e-01
 -4.3294987e-01
  7.5798698e-02
 -3.8857117e-02
  4.5420736e-02
  1.6480361e-01
 -3.7292622e-02
  2.2503288e-01
 -9.6275464e-02
 -3.3556595e-01
  1.5387489e+00
  6.9828147e-01
  6.1590780e-02
 -1.4117114e-01
 -1.5841256e-01
 -1.7612085e+00
 -3.6349425e-01
 -2.5117645e-01
  3.3743728e-03
  2.7109110e-01
 -1.6965829e-01
  1.8081844e-01
 -4.4949092e-02
  1.2534092e-01
 -1.1043580e-01
 -1.4305438e-01
  3.1025964e-01
  3.5123935e-01
 -2.8065678e-01
 -4.0899444e-02
 -8.3267802e-01
  4.8255008e-01
 -6.4818174e-01
 -6.4109969e-01
  3.4756947e-01
 -4.0325955e-01
 -4.4655049e-01
 -1.2208190e-01
  1.9305129e-01
  2.0755640e-01
  3.9289644e-01
  7.4827868e-01
 -1.4242181e-01
  5.3358334e-01
  1.0867704e-01
  2.7462325e-01
  5.0206155e-01
  6.2130561e+00
  3.9130750e+00
 -5.0658441e-01
 -1.3421531e+00
  1.5218123e+00
 -2.6041515e+00
 -2.5721848e+00
  8.5425889e-01
 -2.2574713e-02
 -7.5583905e-02
  9.9413419e-01
 -7.8126895e-01
 -2.0300415e+00
  1.4229354e+00
  8.2050371e-01
 -9.5673996e-01
 -7.1851596e-02
 -1.3761874e+00
 -9.6884149e-01
 -6.7222983e-02
  2.2654092e+00
 -8.4364134e-01
 -1.0696787e+00
  2.9737622e-01
  3.4030068e-01
 -4.3929544e-01
 -1.1120633e+00
  5.3218049e-01
  2.3094395e-01
 -5.0703740e-01
  3.0954021e-01
  2.5306982e-01
  2.2429979e-01
  3.6285549e-01
  2.0022959e-01
  8.3066976e-01
  4.8210353e-01
 -1.1163737e+00
 -5.4435778e-01
 -1.0089419e+00
 -1.4519626e-02
  1.8858093e-01
 -7.1071815e-01
  5.6423265e-01
  7.9977703e-01
 -1.2195818e-02
  3.8301566e-01
 -3.1381801e-01
  5.8845925e-01
 -1.0025592e+00
  1.2910056e-01
  8.6886662e-01
  2.9506245e-01
 -4.7578180e-01
  5.7499045e-01
 -4.1477484e-01
  1.3061564e+00
 -3.9429253e-01
  3.9904603e-01
 -2.2073248e-01
  2.9728436e-01
 -1.8354878e-02
 -2.0115085e-01
  8.3806500e-02
  2.1861181e-01
 -1.5780932e-01
 -6.9878981e-02
 -8.0447778e-02
  5.3927153e-01
 -5.7586104e-01
  2.1429084e-02
  6.8718040e-01
  1.3855384e-01
 -1.0662449e-01
  8.5764873e-01
 -1.4964387e-01
 -1.5995836e-01
  1.2662053e+00
 -8.1896919e-01
 -4.1596609e-01
  1.3645494e+00
 -1.0505869e+00
 -4.4476718e-01
  7.3653138e-01
 -1.7679325e-01
 -6.8359077e-02
 -1.2568086e-01
 -2.6720742e-02
  4.8708659e-01
  4.5718071e-01
 -7.1253550e-01
  2.3404168e-01
 -1.9660865e-01
 -5.2582264e-01
  1.6767982e-01
 -1.0918704e+00
  7.0401639e-02
 -5.6177235e-01
  5.5814117e-01
  5.0691545e-01
  1.2487771e-01
 -3.9344770e-01
 -5.7660031e-01
  3.8010997e-01
 -4.3236014e-01
  3.3577073e-01
 -6.6781622e-01
  2.8220195e-01
 -2.6335919e-01
  6.0879175e-02
 -2.6078764e-01
 -3.2763228e-01
  5.5496889e-01
  9.4647743e-02
 -9.7736830e-01
  1.0136143e+00
  1.5067625e-01
  4.1378256e-02
  8.3582819e-01
  5.4704809e-01
  2.1636230e-01
 -3.5175654e-01
  8.4903464e-02
 -1.2022142e-01
  4.5449162e-01
 -8.0067176e-01
 -4.0639824e-01
 -2.8821734e-01
 -4.6298447e-01
  4.5115572e-01
  3.3646274e-01
  2.5381434e-01
  5.4687262e-01
 -1.7438568e-01
  3.6509526e-01
  1.2100308e-01
  1.3483046e-01
 -4.0080461e-01
 -7.9382308e-02
 -3.2784659e-01
  6.4117531e-04
  1.0564309e-01
  6.0344435e-02
 -1.7833498e-01
 -4.1331437e-01
  4.9565896e-01
  7.3514211e-01
 -1.1694483e-01
  1.8325191e+00
  2.0671086e+00
 -3.9788988e-01
  8.2180023e-01
 -6.1811012e-01
 -5.8264405e-01
 -3.3406475e-01
 -7.1663421e-01
  7.6900566e-01
  4.2646646e-01
  3.0071622e-02
 -3.3291996e-01
 -1.7137375e+00
  7.4782890e-01
 -1.6353177e-02
  1.1983588e-01
  1.2271559e+00
  1.7222757e-02
 -1.4876860e-01
  6.2760395e-01
  2.3130259e-01
  4.0189216e-01
  8.3385426e-01
  4.0274692e-01
 -1.4953899e+00
 -1.3579085e+00
  1.5507447e+00
  1.8770775e-01
  2.6423666e-01
 -8.9233339e-02
  3.0024346e-02
 -2.2939442e-01
 -2.9968175e-01
 -5.7142086e-02
 -2.0212196e-01
  1.9206168e-01
  1.1128669e-02
 -2.4618247e-01
 -2.9227093e-01
 -3.6052489e-01
 -5.7928562e-02
  3.6632322e-02
  2.1552010e-01
  1.0502376e-01
  8.2202174e-02
  1.4129165e-01
  4.2837542e-02
  2.1057038e-01
 -9.5766280e-03
  7.7147014e-02
  5.7426719e-03
 -1.6135885e-01
 -1.8246371e-01
  5.2025266e-02
 -2.4180694e-01
  6.3601309e-01
  5.7522917e-01
  1.7317314e-01
 -1.2804087e-01
 -3.3349046e-01
 -2.0639160e-01
 -1.1017896e-01
 -2.1840894e-01
 -1.8304844e-01
 -1.7000836e-01
  1.2700872e-01
  2.1646579e-01
  8.5383140e-02
 -2.1686807e-01
  1.9272384e-01
  1.2225017e-01
 -7.5673170e-02
 -9.8111846e-02
  1.4193822e-01
  6.0492363e-02
 -9.8381206e-02
 -6.5772933e-01
 -8.3730757e-02
  2.3878050e-01
 -2.3550099e-01
  3.4714270e-02
 -2.3869112e-01
 -3.4026614e-01
  7.5461674e-01
  3.7510785e-01
 -2.6767361e-01
 -3.4255680e-01
 -1.2508668e-01
 -1.2229484e-02
 -2.9579845e-01
  7.0845515e-02
  7.5140014e-02
 -8.6717471e-02
 -1.0682018e-01
 -3.7776303e-01
 -3.2074735e-01
  9.7279504e-02
 -1.2393928e-01
  6.9073087e-01
 -7.0317376e-01
 -6.8403155e-02
 -1.1045314e-01
  1.0268542e-01
 -4.8142085e-03
 -8.0100916e-02
  2.7044567e-01
 -6.4157397e-01
  1.4888573e-01
 -2.8125823e-01
  2.5483450e-01
 -1.7003998e-01
 -2.5200292e-01
 -7.6640165e-01
 -7.3171675e-01
  8.8959455e-02
 -1.5752655e-01
 -2.7216041e-01
  2.4967733e-01
 -2.8580841e-01
  8.2728133e-02
 -2.0010723e-01
  3.5786203e-01
 -4.4785985e-01
 -2.7691856e-01
 -3.1483197e-01
  8.9162040e-01
 -5.0281715e-02
  2.4324118e-01
 -1.4886056e-01
 -3.8021764e-01
 -1.6962950e-01
 -6.7383832e-01
 -2.5812122e-01
  2.5849396e-02
 -2.2211744e-01
  5.2871801e-02
 -2.8619276e-02
 -1.2213994e-01
  1.5434501e-01
  1.6749372e-01
 -4.7582813e-02
  2.8980559e-01
  9.0888143e-01
  4.9008492e-02
  4.1423351e-01
  3.6622328e-01
 -4.4359672e-01
 -2.4027814e-01
 -1.5793459e+00
  1.5224426e+00
  1.2318988e+00
  1.3232417e+00
  1.3721060e+00
  2.2991720e-01
 -1.2653285e+00
  1.1854424e+00
 -4.5015851e-01
  6.0932928e-01
 -3.2616490e-01
  2.5889331e-01
  1.8017238e-01
 -1.0816086e-01
 -3.8695797e-01
  8.7261170e-01
  1.9585645e-02
 -8.3056845e-02
  9.5746094e-01
  8.4923394e-02
 -1.3690223e+00
 -6.4875722e-01
  5.6703240e-01
 -5.2395910e-01
 -1.8902490e+00
  1.3484808e+00
  9.1378683e-01
 -1.4891404e-01
 -4.8378056e-01
 -4.7931310e-02
  1.0734437e-01
 -7.8641617e-01
 -2.6305115e-01
 -1.9071966e-01
 -3.7278953e-01
  1.7439698e-01
 -3.2944897e-01
  2.0087566e+00
 -3.8342923e-01
 -1.7299764e+00
  5.2882273e-02
 -3.6532661e-01
 -8.8075340e-01
 -1.3383080e-01
 -2.5224271e-01
 -8.1593037e-01
 -1.3470621e-01
 -2.3181255e-01
 -2.1783449e-01
 -5.3729381e-02
 -1.4396908e+00
 -7.3115215e-02
 -7.4283934e-01
  5.7475060e-01
  8.0415440e-01
 -8.0499202e-01
  2.4832743e-01
 -4.2300358e-01
 -1.4932257e-01
  2.6048285e-01
 -1.2509080e+00
  7.2428447e-01
 -1.5606793e-02
  1.8208352e-01
 -6.6190504e-02
  5.4113148e-03
  5.8787322e-01
  7.7970451e-01
 -5.6594723e-01
 -2.2867669e-01
 -3.7119895e-01
  6.8611674e-02
  5.9504300e-01
  9.9731827e-01
  1.2485397e+00
  1.6796169e-01
  1.9686314e+00
  3.5379101e-02
 -7.2898209e-01
 -8.6649567e-02
  2.8041908e-01
  2.8816015e-01
  7.0417839e-01
 -5.0720149e-01
 -4.5799300e-01
 -1.8125074e-01
  5.8710736e-01
 -7.9830945e-02
 -1.4704683e-01
  8.1136668e-01
 -3.8675725e-01
 -7.3181748e-02
 -7.0643473e-01
  2.8025553e-01
  6.6427159e-01
 -1.1605449e+00
 -1.4183843e-01
 -3.6541286e-01
 -3.7080172e-01
  1.3277973e-01
 -3.3445987e-01
 -8.1880882e-02
  2.6196122e-01
 -3.2035655e-01
  1.3457912e-01
 -5.4784411e-01
  4.5371813e-01
  2.3889685e-02
  4.1317880e-01
  3.1626740e-01
  7.6230660e-02
  3.5974520e-01
 -1.2103041e-01
  5.9476268e-02
  1.9672881e-01
 -6.7428577e-01
 -3.7946594e-01
 -2.3835051e-01
 -1.2935667e-01
 -5.6619322e-01
 -2.4436685e-01
  3.7104505e-01
  2.5540543e-01
  1.9221745e-01
 -7.5437760e-01
 -7.7466734e-02
  3.2942235e-01
 -1.5247256e-01
 -3.6351755e-01
  4.8404049e-02
  2.6720279e-01
 -2.1795943e-01
  2.1178238e-01
 -8.1923741e-01
 -9.6183205e-03
  4.1016597e-01
  2.4475269e-01
 -3.8897860e-01
 -1.3065585e-02
  1.7310891e-01
 -6.8518370e-01
  5.9846114e-02
  3.9735880e-01
 -4.4511813e-01
  1.0277151e-01
  1.5048170e-01
  2.7509871e-01
  1.1421000e-01
 -3.6893538e-01
  7.6323622e-01
  2.2038685e-01
 -2.7407807e-01
  8.6908646e-02
 -4.1772360e-01
  2.7114723e-02
 -1.2796319e-01
  5.9389603e-01
  7.0751208e-01
  8.6528510e-01
  1.6933100e-02
 -3.5883334e-01
  1.7624775e-01
  1.6592991e-01
 -4.6416134e-02
  4.6872181e-01
  5.5419618e-01
  3.3403483e-01
  1.2893684e-01
  1.9711559e-01
  3.5998061e-02
  8.0161430e-02
  2.2789225e-01
 -1.6200683e-01
  4.4040093e-01
  2.2955678e-01
 -4.0702441e-01
  1.0595924e-01
 -5.0673358e-02
 -1.2105734e-01
 -4.1490418e-01
 -3.1189352e-01
 -8.9561135e-02
 -1.9666259e-01
  3.6632150e-01
 -6.8586916e-01
  5.5041019e-02
  1.8979533e-01
  7.8109093e-02
 -4.2077836e-01
  3.2563666e-01
 -1.2803851e-01
  2.5931245e-01
 -4.5831731e-01
 -1.0177882e-01
 -6.0716756e-02
 -2.0576955e-01
 -9.2260730e-01
  3.2185555e-01
 -5.8207077e-01
  3.3334976e-01
  5.1019514e-01
  2.2236057e-01
  9.8342702e-02
  2.5655630e-01
 -1.5415343e-02
  6.5888584e-01
  4.2039853e-02
 -6.6749379e-02
  1.6665500e-01
  4.0141204e-01
  7.6821055e-03
 -4.6507502e-03
 -2.8838199e-02
  3.5968047e-01
 -3.5615179e-01
  3.0233181e-01
  4.6484703e-01
 -7.3727429e-01
 -2.8882894e-01
 -2.6339710e-01
 -3.5224077e-01
  3.8137558e-01
 -5.7211268e-01
 -2.6314413e-02
  4.3145892e-01
 -6.8604779e-01
  2.0026202e-01
 -1.0875805e-01
  4.6669099e-01
 -8.3738156e-02
  5.7285273e-01
 -4.6201256e-01
  3.4813109e-01
 -1.4813666e-01
 -9.9081427e-02
  9.8309612e-01
 -1.6566551e-01
 -6.9439910e-02
 -3.0948433e-01
 -1.6948690e-01
  1.0109787e-01
  1.7710407e-01
 -5.1842445e-01
 -2.2549342e-01
 -9.0993762e-02
  3.7713310e-01
 -1.3668671e-02
 -2.2884692e-01
  2.8695166e-01
  7.5349487e-02
  2.7820367e-01
 -4.9045312e-01
 -5.7507358e-02
 -1.0560378e+00
  6.1352491e-01
  8.7974831e-02
  1.5757978e-01
 -6.6957593e-02
 -1.3380708e-01
 -2.8399243e+00
 -3.0028200e+00
  7.5299960e-01
  1.0187407e+00
 -2.5884527e-01
  2.9852350e+00
  2.2315468e-01
  1.3929881e-01
 -1.6814531e-01
  3.6532032e-01
  1.0491047e-01
 -1.0662094e+00
  2.5595626e-01
  7.6847064e-01
  1.8996416e-01
 -7.3871344e-02
 -7.8274995e-01
  2.0417355e-01
 -3.0449307e-01
  3.2367268e-01
  9.6025842e-01
 -4.3270269e-01
  1.0853339e+00
  3.8434446e-01
 -4.6396080e-01
  3.4905996e-02
  2.0834899e-01
  1.6782467e-03
  7.4921238e-01
  1.6112709e-01
 -2.8361201e-01
  5.9071994e-01
  1.3652545e-01
 -1.2427052e-01
 -5.6524966e-02
  4.5539904e-01
 -1.2361988e-01
 -1.1807932e+00
 -1.1731274e+00
  4.6993470e-01
 -2.2822291e-01
  3.8958138e-01
  1.5687709e+00
  1.2561592e+00
  4.8734656e-01
 -3.0782524e-01
 -2.1056296e-02
  5.2814186e-01
 -4.6317831e-01
  7.2619125e-02
  4.6045836e-02
 -2.1100694e-01
 -4.5667894e-02
  3.3088914e-01
 -8.5930511e-02
  1.4990000e-01
 -1.6080865e-01
  1.1212888e-01
 -4.6009127e-02
 -9.5755976e-01
  1.9545619e-01
  5.9468444e-02
 -3.9534572e-01
  6.3130653e-01
 -3.8743922e-01
  5.8503775e-03
 -9.7022347e-02
  1.6163301e-01
 -5.8669794e-01
  1.9063452e-01
  4.9327359e-02
  3.2341442e-01
 -2.0529356e-02
  1.6589290e-01
  2.4362697e-01
  4.6486810e-02
 -5.3487122e-01
 -7.5973339e-02
 -6.6565037e-01
 -6.7419396e-04
  4.2377320e-01
 -5.9496045e-02
 -2.7809522e-01
 -4.6984953e-01
 -3.6875659e-01
 -5.3288382e-01
 -3.3600584e-01
 -2.0832849e-01
 -1.0925560e-02
  3.4992501e-01
  2.2401984e-01
 -7.6253492e-01
 -2.0873350e-01
 -5.1582885e-01
 -3.0506128e-01
 -3.7117064e-01
  1.3590817e-01
 -7.7474409e-01
  3.7491372e-01
 -2.0960863e-01
 -3.5767975e-01
  9.9210232e-02
  1.4508685e-01
  9.8804452e-02
  7.6840448e-01
 -4.4028479e-01
 -8.0105685e-02
  4.1780178e-02
  3.3123252e-01
 -2.4709143e-01
 -5.3886138e-04
 -4.5606154e-01
  8.7168765e-01
  3.3786604e-01
  3.8316470e-01
  7.9424328e-01
  5.0423545e-01
 -7.7115577e-03
 -1.2070823e-02
 -2.4582796e-01
  3.1791702e-01
 -7.9690766e-01
 -4.1348404e-01
  1.0196812e-01
  6.6053575e-01
  4.2568926e-02
 -5.3846443e-01
 -1.3132654e-01
 -6.6294450e-01
 -1.6629446e-02
 -2.0699947e+00
 -7.2291189e-01
 -1.2326024e-01
 -2.3319113e-01
 -2.6888376e-01
 -3.6266676e-01
  2.9146406e-01
  1.0513000e-01
 -3.5722617e-02
 -5.9238676e-02
 -1.0294336e+00
 -2.8117496e-01
  9.9574327e-02
  4.4912013e-01
 -4.0214619e-01
  6.3497937e-01
  3.9496338e-01
  3.2023552e-01
  7.4986175e-02
 -3.9404112e-01
  2.2439009e-01
  2.5923276e-01
  1.4210224e-01
 -4.1071918e-02
 -1.7163125e-01
 -3.6115088e-02
  3.3828670e-01
  1.0676296e-01
 -3.2559621e-01
 -1.4152128e-01
  6.0876690e-02
 -2.0671818e-01
 -4.3788475e-01
  9.8662488e-02
  3.1675166e-01
  2.9796591e-01
  2.3160297e-01
 -6.9701219e-01
 -2.3444708e-01
  1.3280214e-01
 -1.6740523e-01
 -3.3791429e-01
  1.1442791e-01
 -3.5799739e-01
 -4.1238457e-01
  1.0159229e-01
 -1.7318171e-01
 -2.0290136e-02
 -3.6490583e-01
  1.9123583e-01
  1.3493402e-01
 -1.1181113e-01
 -6.4902925e-01
 -1.5145575e-01
 -2.6585469e-02
 -4.4034296e-01
  3.5443131e-02
 -9.8358351e-01
  2.1570151e+00
 -3.6093926e-01
 -8.7034635e-02
 -2.1645662e-01
  1.0062315e+00
 -8.3474904e-01
  1.2818240e+00
 -2.4484961e-01
  1.3724931e-02
 -9.7170293e-02
 -9.2185244e-02
  3.6570400e-01
 -5.4663330e-01
 -1.3703467e-01
  4.0786654e-01
  3.1310537e-01
  8.5237944e-01
 -3.2051764e-02
 -1.9321933e-01
  6.6786385e-01
 -2.8789812e-01
  2.7094308e-01
 -1.9876578e-01
  1.0099568e+00
  2.7821976e-01
 -6.1129802e-01
 -3.4210019e-02
 -1.0321081e-01
  4.3861419e-01
  4.1604701e-01
 -5.5000734e-01
 -6.5416688e-01
  1.3524158e-01
 -2.2934496e-01
 -1.1507584e-01
 -1.9758831e-01
  4.2252603e-01
 -6.4434707e-02
  9.2259154e-02
 -2.3397898e-02
  4.4402859e-01
 -2.0562395e-01
 -4.4356140e-01
  4.6633336e-01
  2.3178644e-02
 -1.7953704e-01
  3.1774901e-03
  1.4808157e-01
 -1.1447855e-01
 -6.3006657e-01
 -1.1056484e-01
  1.0734309e-01
  3.0422425e-01
  1.2728795e-01
  3.3398843e-01
 -2.4216419e-01
 -1.2301264e-01
  2.2334082e-01
  4.7902855e-01
 -2.1521832e-01
  5.7152539e-01
  5.3778958e-01
 -1.9879969e-02
 -2.2781293e-01
  3.5739920e-01
  3.5068250e-01
  2.0740129e-01
 -1.7947438e-01
 -5.3283137e-01
  6.2732035e-01
  1.4583558e-01
 -2.0837021e+00
 -7.3391277e-01
 -1.8102297e+00
 -9.6835917e-01
  3.6953661e-01
  3.8379589e-01
  1.5322949e+00
  4.0943310e-01
 -2.1713455e+00
  3.0213162e-01
 -1.8031427e-01
  3.2131973e-01
  3.2709837e-01
 -1.5517833e+00
  3.4140870e-01
  3.7627082e-02
 -1.3018246e+00
 -6.7401409e-01
 -1.6119260e+00
  1.2965016e+00
  5.0999629e-01
 -4.0623572e-01
 -2.0117370e-02
 -1.1688019e+00
 -1.0346441e+00
  1.3510818e+00
 -6.8099946e-01
 -5.4164732e-01
  7.2841537e-01
 -2.0355684e-01
  5.2334613e-01
  6.2442505e-01
  5.7919651e-01
 -1.1239185e+00
 -4.0622750e-01
 -1.4109506e-01
  9.0335470e-01
  4.8099837e-01
  2.0739244e-01
 -5.4485554e-01
 -7.0116353e-01
 -5.3547144e-01
 -1.2117224e+00
  6.3948631e-01
  2.0335656e-01
 -4.2004910e-01
  1.0572533e-01
  1.1749451e-01
  6.0503834e-01
 -1.4751111e-01
 -7.9284257e-01
 -5.5871021e-02
 -2.1715452e-01
  7.9808474e-02
 -3.0988994e-01
 -6.5996909e-01
 -6.9829583e-01
 -5.9066200e-01
 -2.7100712e-01
  1.9556484e-01
 -8.3891523e-01
 -5.8735144e-01
 -5.1564193e-01
 -1.8247017e-01
 -3.1359598e-01
 -1.5045816e-01
 -2.7968541e-01
  2.2123304e-01
 -1.8532132e-01
  3.4316179e-01
 -2.3051569e-01
  4.0533841e-01
  4.5879621e-02
 -3.5352968e-02
 -5.1936895e-01
 -3.2480019e-01
  7.4235898e-01
 -1.0336795e+00
  5.6160557e-01
 -8.8998121e-01
  2.5112614e-01
 -2.7181971e-01
  6.3527775e-01
  4.8944601e-01
 -4.5599639e-02
 -8.5558504e-01
 -4.0453035e-01
  4.1956735e-01
 -4.4070762e-02
 -3.4459621e-01
  5.5968857e-01
  7.2451025e-02
  2.6529389e-02
  5.0389361e-01
  2.3718525e-01
 -2.1901412e-01
  6.1271217e-02
  4.1170794e-01
 -2.5721234e-01
 -1.7773058e-01
  6.5046299e-01
  1.9715157e-01
 -1.6205581e-02
 -5.5398118e-01
 -2.0634532e-01
 -1.8350317e-01
  3.5485521e-01
  1.6135496e-01
 -5.1385045e-01
  2.8951198e-01
  1.7275621e-01
 -1.9255840e+00
 -7.8057283e-01
  1.1593046e+00
  4.0829971e-01
 -1.1829029e+00
  2.8351421e+00
 -2.6015729e-02
  1.2137720e-02
  3.2492012e-01
 -1.7653197e-01
  9.4061232e-01
  7.1836096e-01
 -3.6008191e-01
  7.4948674e-01
  3.2083181e-01
  7.9866606e-01
 -2.8675088e-01
 -1.0182301e+00
 -2.2169051e-01
 -2.7384558e-01
  1.1239849e+00
 -3.7628546e-01
  2.3946530e-01
 -4.5314860e-01
 -1.3287145e-01
 -1.9524250e-02
  4.4017455e-01
  2.0713839e-01
  5.3505175e-02
 -6.6461362e-02
  6.6853368e-01
  7.8390822e-02
  3.3106694e-01
 -5.9210515e-01
 -1.3452666e-01
 -4.9099424e-01
 -3.1327617e-01
  3.9241886e-01
 -2.8285778e-01
  1.7730808e-01
 -8.0897444e-01
  4.1372296e-01
 -1.0621721e-01
 -3.7445497e-02
 -7.4297674e-02
  2.7267811e-01
 -1.1527799e-01
  2.7063972e-01
  1.3300863e-01
 -4.0631986e-01
  3.5718319e-01
 -6.4799026e-02
  4.9785569e-02
  8.0341703e-01
 -2.6867451e-02
  4.3222079e-01
  1.4127690e-01
  2.0934559e-01
 -4.1909445e-02
  6.7433909e-02
  2.0239867e-01
 -1.7249097e-01
 -1.7773950e-01
  3.0989900e-01
  1.9501464e-01
  1.9225673e-01
  2.2584128e-01
 -1.9566424e-01
 -3.7389043e-01
  1.9021198e-02
 -3.3162940e-01
 -2.3167071e-01
 -2.2895733e-01
  2.5537867e-02
 -1.4992299e+00
 -3.2420378e+00
 -1.2498572e+00
  8.5087293e-01
 -1.5657136e+00
  2.4601917e+00
 -4.3788669e-01
 -5.8561653e-01
 -5.2979255e-01
 -9.6498877e-01
  1.3224544e-01
  3.0204809e-01
 -3.7233484e-01
  3.5162276e-01
  1.6323291e-02
  2.1829112e-01
  2.5186843e-01
  1.0832261e+00
 -1.2716855e+00
  4.1192126e-02
  7.2902513e-01
 -5.2668899e-01
 -3.6179259e-01
 -7.4162972e-01
  1.3850968e+00
 -2.9163665e-01
 -1.1986324e+00
  1.3473579e-01
 -2.6954818e-01
  1.0038577e-01
  5.8413953e-02
  1.5741564e-01
  1.2073744e-02
 -4.7552668e-02
  8.7623453e-01
 -3.6443183e-01
  8.9585133e-02
  1.7977881e+00
  7.9280710e-01
 -1.5216413e-02
  6.7939621e-01
  6.0012263e-01
 -1.6105539e+00
 -5.9175760e-01
 -1.9324547e-01
  2.2567046e-01
  4.7954194e-02
 -1.9531111e-01
  7.2534114e-02
 -7.9108900e-01
 -2.6057810e-01
 -5.9608310e-01
 -6.1318624e-01
 -1.1612447e-02
 -3.5862812e-01
  4.5223045e-01
 -3.8340521e-01
 -3.7456766e-01
  7.1747410e-01
 -7.5373137e-01
 -6.9207674e-01
 -5.3819662e-01
 -7.5071633e-02
  3.9643031e-02
 -4.8981944e-01
  1.5594842e-01
 -1.0829912e-02
  3.6164480e-01
 -2.5690901e-01
  2.5051734e-01
 -3.9384049e-01
 -1.7253056e-01
 -9.5304579e-02
  4.2429981e-01
 -5.0973363e-02
 -4.5995887e-02
  2.2148642e-01
  8.9432491e-04
  7.5223029e-02
 -3.5900617e-01
 -7.1737546e-01
  2.5559667e-01
  4.9799061e-01
 -1.8082923e-01
  6.4476657e-01
 -8.1484956e-01
  1.7780781e-01
  1.8166073e-01
 -2.5360256e-01
  1.2063300e-01
 -8.7350827e-01
  2.4919604e-01
 -1.1898907e-01
 -2.1826255e-01
  5.6871337e-01
 -1.4818870e-01
  3.1835148e-01
 -9.0130216e-01
  2.0358078e-01
 -1.9921258e-02
  1.5003878e-01
  3.4262097e-01
 -2.0753859e-01
 -4.4470665e-01
  1.7142391e-01
  4.0064213e-01
  5.3811592e-01
 -2.9844031e-01
  5.0819372e-03
 -3.4165537e-01
 -2.1765919e-01
 -1.0385617e-01
 -1.1698015e-01
 -2.0814905e-01
  1.1339509e-01
 -2.3816206e-01
 -7.4014968e-01
 -4.4292614e-01
 -3.3435279e-01
 -2.5427216e-01
 -4.0789884e-02
  3.3011597e-01
 -3.1892130e-01
 -2.3805894e-01
 -4.6989233e-03
 -7.7639319e-02
  4.2519736e-01
 -4.8701161e-01
 -1.8518503e-01
 -7.2066712e-01
  3.5344108e-04
 -1.1887842e-01
  2.7954601e-02
 -3.9445814e-01
 -2.1472114e-01
  7.5253680e-02
 -5.2806921e-02
 -3.1128925e-01
  1.2199058e-01
 -6.2995821e-02
  7.3027635e-01
 -2.2507891e-01
  1.6145712e-01
  1.4234248e-01
 -5.4690376e-02
 -3.2532939e-01
  1.2593690e-01
  3.9819109e-01
  4.9529096e-01
  7.2044951e-01
 -4.2647132e-01
  2.6376275e-02
 -1.6304484e-01
 -1.9348006e+00
  7.0295796e-02
 -4.1285425e-01
 -1.6275544e-01
  1.5679429e-01
  1.3838202e-01
  4.5111563e-02
 -3.3694151e-01
 -8.9128399e-01
  3.0950069e-01
 -4.0129513e-01
  1.3370064e-01
 -1.8510254e-01
 -1.3564315e-01
 -1.6932255e-01
 -2.4426408e-01
 -1.9443327e-01
 -1.8887293e-01
 -3.9111713e-01
 -1.5482987e-01
  6.7520565e-01
 -3.7593821e-01
  3.8611314e-01
  2.7417219e-01
 -4.2580745e-01
  3.4124160e-01
 -4.9245596e-02
 -1.0207491e-01
  2.2629808e-01
 -3.7287652e-02
 -2.8067079e-01
 -2.6432764e-02
 -3.6348405e-01
 -5.0269073e-01
  2.2486797e-01
  6.0666002e-02
  4.2073429e-01
  4.5043096e-02
 -2.3491935e-01
 -1.1364786e-01
  8.9825377e-02
 -1.0023584e-01
 -8.8040286e-01
 -3.4035954e-01
  1.2788226e-01
  3.8959777e-01
 -7.0961013e-02
 -5.0489992e-01
 -3.7097228e-01
 -9.2340894e-02
 -6.2207824e-01
  5.4928178e-01
 -1.9548032e-01
 -1.2578045e-01
 -1.8991898e-01
  2.6107728e-01
  4.3606024e-02
 -5.4405771e-02
 -1.6530167e-01
  3.9477670e-01
  2.2694144e-01
 -1.2886496e-01
 -3.9008781e-01
  2.4557096e-01
  1.7877875e-01
  2.9811335e-01
  5.9106033e-02
  1.4757529e-01
  5.7604104e-01
  8.0381089e-01
 -7.7851421e-01
 -1.6316756e+00
  7.0917952e-01
 -1.5905471e+00
  9.0612221e-01
  1.1994829e-01
 -7.8230828e-01
 -3.7242982e-01
  4.0026551e-01
  4.7772354e-01
  7.9345459e-01
  5.5356205e-01
  1.1509720e-02
 -2.0576245e-01
 -9.8317891e-02
  8.3739531e-01
  1.8703081e-01
 -3.3212629e-01
 -3.6921230e-01
  4.1571957e-01
 -6.9010115e-01
  2.7540982e-01
 -3.7347493e-01
 -1.3685440e-01
  1.9431388e-01
 -8.3638513e-01
 -4.7254342e-01
 -3.3905634e-01
  4.8637383e-02
  2.7890857e-03
  2.7661461e-01
 -9.7495097e-01
 -1.4358452e-01
 -1.6726023e-01
 -1.1686353e-02
 -3.8972184e-01
 -2.4731329e-01
 -2.1075912e-01
 -5.0444949e-01
 -5.8044499e-01
  1.8947117e-01
 -3.7271473e-01
 -4.9151722e-01
 -2.5994653e-01
  7.4485116e-02
 -1.6471897e-01
  1.3573800e-01
  1.5733528e-01
  4.1373020e-01
  1.6259205e-01
 -3.1490862e-02
 -3.4365997e-01
  2.5068361e-01
 -3.7861773e-01
 -7.2611058e-01
  6.6572773e-01
 -4.9756846e-01
 -3.8367040e-02
  3.3621457e-01
 -2.3929751e-02
  9.2532866e-02
  2.7161860e-01
  2.6262179e-01
 -5.3424114e-01
  1.2855849e-01
  2.1088891e-01
  2.7893007e-01
 -8.5864142e-02
  1.0889199e-01
  1.9770853e-01
 -7.6540983e-01
 -1.3523668e-01
  6.7926615e-02
  8.8727556e-02
  5.4259831e-01
  1.9960048e+00
 -2.4576530e-01
  6.0286516e-01
  1.1297075e+00
  3.9890820e-01
  2.4447107e-01
  1.1739635e+00
  3.5514364e-01
  3.6133170e-01
 -1.3568982e-01
 -4.1360655e-01
  8.0555320e-01
 -6.9680476e-01
  2.1928632e-01
  9.5970595e-01
  1.1422385e-01
  1.1226947e+00
 -1.2205512e-01
  1.1235745e+00
  3.4401998e-01
 -5.6447762e-01
  1.1581161e+00
 -8.9537269e-01
  4.5422229e-01
  1.7323832e-01
 -3.4081420e-01
  5.2799970e-01
 -4.6151462e-01
 -1.5045257e-01
 -2.3287418e-01
  7.8388132e-02
  6.6882658e-01
  6.1238054e-02
  1.3151088e-01
  8.5976321e-01
  6.1793780e-01
 -1.1893574e+00
 -2.5597715e-01
 -1.3732474e+00
  5.3320450e-01
  1.0919739e+00
  2.9625058e+00
  1.6008863e+00
 -7.3655546e-01
 -9.7352052e-01
 -2.9162002e-01
  1.7146373e-01
 -3.7623239e-01
 -5.2962035e-01
 -3.5601916e+00
 -4.7373933e-01
 -1.0534573e-01
 -5.0332081e-01
 -1.9448341e-01
 -3.4810832e-01
  9.7705448e-01
 -1.1927644e+00
 -2.3706796e+00
  8.8071275e-01
  1.2783778e+00
  1.5290866e+00
 -5.7592329e-02
  3.5315108e-01
  3.7801409e-01
 -5.7718097e-03
  6.0379326e-01
 -2.6515302e-01
 -6.7975426e-01
  3.9220962e-01
  1.7819980e-01
 -4.4863382e-01
  6.5035409e-01
 -5.5067116e-01
 -2.8543222e-01
 -7.0142351e-02
 -2.7277294e-01
 -6.0315377e-01
  3.1667635e-01
 -1.7742100e-01
  7.8223372e-01
 -3.2062629e-01
 -1.7801683e-01
 -1.6794351e-01
 -3.5220629e-01
 -3.8298309e-01
 -9.6393704e-02
  2.8349155e-01
 -6.1414486e-01
 -2.4740630e-01
  2.7120611e-01
  3.3445838e-01
 -3.2507658e-01
  1.4571743e-01
 -8.7872930e-02
  1.9446974e-01
  6.3158697e-01
  1.1267199e-01
  2.3477857e-01
  4.6544981e-01
  2.1776232e-01
 -1.7248206e-01
 -1.6309208e-01
  1.7484691e-03
 -3.4016680e-02
  5.8364916e-01
 -1.5772469e-01
 -3.2032438e-02
  3.1412449e-01
  3.5986707e-01
 -2.0034826e+00
  6.7318320e-01
  8.5216284e-01
 -5.1341659e-01
  9.7791344e-01
  2.1063697e+00
  1.0103583e+00
 -7.1673435e-01
  1.0011673e+00
  1.9364972e-01
 -3.0715162e-01
  7.7920288e-02
 -6.6372252e-01
  4.3943003e-01
  7.2872162e-01
 -3.8747472e-01
 -3.6876783e-01
 -1.1701437e+00
  1.4760431e+00
 -7.4175555e-01
  7.4381334e-01
  1.3241394e+00
 -3.9802232e-01
 -6.4369231e-02
  1.1129669e+00
  8.4073389e-01
  1.3498459e+00
  3.4732932e-01
  4.4782884e-02
  4.5328375e-02
  6.8502861e-01
  4.2628005e-01
  4.8042037e-02
  1.6173068e-01
  3.2581341e-01
 -4.1965377e-02
 -1.6279122e-01
 -4.2137856e+00
 -1.0196819e+00
  4.6616223e-01
  2.1925163e+00
 -9.7450125e-01
  1.5489653e+00
 -7.5754535e-01
 -1.8970565e+00
 -7.4486476e-01
 -8.3947027e-01
  2.4468736e-01
  1.6303129e-01
  1.7319804e-02
 -2.4233240e-01
 -2.9922822e-01
 -2.3148139e-01
  1.8140330e+00
  2.1950653e-01
 -7.8312653e-01
 -1.6344784e-01
  1.2779239e+00
  1.9951916e+00
  4.1694152e-01
 -2.2317495e+00
  4.8020029e-01
  1.9410878e-01
 -6.9793707e-01
  4.0384391e-01
 -2.3230687e-01
  1.3835786e-01
  1.9231752e-01
 -1.1032104e-02
 -5.3587502e-01
  5.0811398e-01
  7.4553818e-01
 -2.0449696e-02
 -5.4468274e-01
  1.3764410e-01
 -3.2226121e-01
 -2.1318175e-01
  4.0436465e-01
 -1.0289684e-01
 -3.6392254e-01
  3.4067008e-01
 -5.5645615e-02
 -8.0896523e-03
 -2.6757726e-01
 -2.7765134e-01
 -4.0773878e-01
  3.3833364e-01
 -3.1418529e-01
  2.8426226e-03
  1.8311749e-01
 -6.5970200e-01
 -2.7885830e-01
 -4.2853960e-01
  1.1666280e-02
  3.4155184e-01
 -9.3799911e-02
  7.7848262e-03
  1.9942982e-01
 -3.2148898e-01
  1.5560633e-02
  1.1646666e-01
 -6.1133754e-01
 -1.6698869e-01
  5.6479067e-01
  3.0551967e-01
 -3.1762600e-02
  4.0774482e-01
 -4.0105951e-01
  5.7448994e-02
 -2.8678602e-01
 -1.0595096e-01
  3.1886226e-01
 -6.3604377e-02
 -8.5793331e-02
 -5.0071251e-01
  4.0265220e-01
  7.9013294e-01
 -1.0031061e-01
 -1.6384307e-01
 -7.7763182e-01
 -2.6963812e-01
 -3.7913263e-01
 -2.0935355e-01
  5.2202988e-02
  3.9421222e-01
 -1.0136551e-01
 -9.2656594e-03
 -3.3408862e-01
  3.5200024e-01
  3.9676070e-01
  3.4003422e-01
  1.9538043e-01
 -1.1093490e-01
  2.5026286e-01
 -2.1942875e-01
  4.9972199e-02
 -9.3321927e-02
  5.5311626e-01
 -3.8890871e-01
 -5.3123254e-01
  5.6504935e-01
 -4.4356227e-02
 -1.4639838e-01
 -3.3371383e-01
 -7.2681963e-01
  8.8674128e-02
  1.6611239e-01
 -6.7847192e-01
 -8.3594429e-01
  1.2094351e+00
 -2.5808606e+00
  1.3551360e-01
 -4.5488399e-01
  1.0216479e+00
 -4.9458033e-01
  7.1088143e-02
 -1.3927764e+00
 -7.0109862e-01
  1.6156085e-01
  4.1283047e-01
  1.2309567e+00
 -1.0568982e+00
 -1.0971686e+00
  6.9019449e-01
 -1.1053873e+00
 -4.0899545e-01
 -7.2823250e-01
 -1.6019222e+00
  7.4208266e-01
 -3.5825449e-01
 -5.7651180e-01
  4.0884176e-01
 -6.8841517e-02
 -1.6492120e+00
  9.0315866e-01
  3.1332093e-01
 -1.1191347e+00
  7.0509620e-02
  8.8239096e-02
  5.5379325e-01
 -2.9082191e-01
 -4.9474475e-01
 -1.5889025e-01
 -3.3822188e-01
  5.1969743e-01
 -8.9492130e-01
 -1.0375690e+00
  1.8473007e-01
 -2.8303592e+00
  1.1436385e+00
 -4.6466929e-01
  9.1300517e-01
  1.2524763e-01
  1.1361147e+00
 -1.4534576e-01
  4.3968654e-01
  6.1230916e-01
  9.4805819e-01
  1.1641650e+00
  3.8450116e-01
  3.7543157e-01
  5.9752315e-01
 -8.0911690e-01
  1.1710924e-01
 -6.5621632e-01
  3.0028754e-01
 -3.4715122e-01
  2.2165684e-01
 -1.6713476e-01
 -3.6495787e-01
 -6.5399045e-01
  7.2255659e-01
 -4.9734611e-02
  7.3645279e-02
 -3.8512844e-01
  3.0642453e-01
 -6.3460815e-01
 -3.6046535e-01
 -2.0474270e-01
  2.3591220e-01
  9.6385233e-02
 -7.3246437e-01
  2.0129642e+00
  1.0172189e+00
 -2.8413641e-01
  1.4809170e-01
 -1.2691350e-01
 -1.7349374e+00
 -2.7895939e-01
 -2.1666811e-01
 -3.4545964e-01
 -3.4000280e-01
  4.9840397e-01
 -3.1553358e-01
 -4.6993598e-01
 -1.6205738e-01
 -2.1587989e-01
 -4.2664626e-01
  3.3904254e-01
 -5.5122119e-01
  2.0461200e-01
 -2.2156676e-03
 -2.9011723e-01
 -6.9845527e-02
 -7.5605249e-01
  1.7187048e-01
 -4.9430984e-01
 -3.7040704e-01
  3.6460719e-01
 -1.7667826e-01
  1.2911832e-01
 -4.8583832e-01
 -1.9796933e-01
  5.9963349e-02
  3.9294475e-01
  4.4367957e-01
  1.0076397e-01
  1.2571390e-02
 -3.5539590e-02
 -8.9671789e-03
 -1.3223524e-01
  4.4232644e-02
 -7.9158749e-03
  3.1455833e-01
  1.0034030e-01
  1.5815289e-01
 -2.4117213e-01
 -2.3437041e-01
  4.7278345e-01
  4.1744795e-01
 -1.9470240e-01
  5.3173107e-01
  4.6450076e-01
  7.3560126e-02
  3.4298211e-01
 -6.7055374e-02
 -1.0362450e-01
  3.4279120e-01
  5.6130475e-01
  3.5659134e-02
  2.6196713e-02
  2.8936625e-01
  8.4501565e-02
  2.5443363e-01
  7.7225333e-01
  1.6445678e-01
 -7.1138167e-01
 -4.4409253e-02
  1.4242297e-01
  2.6323575e-01
 -3.6651143e-01
 -2.6464912e-01
 -2.7432555e-01
 -3.1513637e-01
 -6.2923327e-02
 -9.5551029e-02
  8.1441230e-01
  7.9142809e-01
 -1.2074327e+00
 -3.6149362e-01
 -7.4245024e-01
 -1.5282479e-01
 -6.4233047e-01
  6.4708376e-01
 -4.3504557e-01
 -8.1422508e-02
  9.5525093e-02
  5.8592367e-01
  3.7722486e-01
 -4.0671271e-01
  2.8881425e-01
 -3.6481291e-01
 -1.0046680e+00
  2.6001975e-01
 -6.7071581e-01
 -4.6413600e-01
 -5.0666004e-02
 -5.3938735e-01
  2.4038395e-01
  4.5384519e-02
  4.1320783e-01
 -2.9615447e-01
  5.6702673e-01
 -1.3069597e-01
 -5.8944565e-01
 -8.6555392e-02
  4.9615851e-01
  2.4299036e-01
 -1.3381410e-01
 -2.7042827e-01
  3.2348663e-01
 -1.6427994e-01
 -7.5695336e-01
 -1.7909057e+00
 -3.3234639e+00
  1.4005464e+00
  4.4436850e-02
  2.4959692e-01
  2.0267467e+00
  3.4227693e-01
  5.5748099e-01
 -8.8712239e-01
  2.3128960e-01
 -7.9830803e-02
 -1.8024407e-01
  8.9783382e-01
  3.6192974e-01
  2.9366788e-01
  2.9709759e-01
 -1.3733532e-01
  4.9679616e-01
 -4.0540743e-01
  4.9810195e-01
  7.7379517e-02
 -5.1310050e-01
  2.3620258e-01
 -9.3238175e-01
  1.3267956e+00
  3.9491427e-01
 -4.9093336e-01
 -4.6120974e-01
 -3.0901673e-01
 -4.7925219e-01
 -1.9154480e-01
  5.1351166e-01
 -7.7879824e-02
  1.3394110e-02
  4.1570139e-01
 -3.4353295e-01
  9.3718059e-02
 -1.4807107e+00
 -2.0828063e+00
  1.2790563e+00
  3.6099702e-01
 -7.4386764e-01
  1.0088999e+00
 -4.3951824e-01
  6.7860281e-01
  8.9852387e-01
  2.9766548e-02
  2.7254871e-01
  2.9354841e-01
  6.0415125e-01
  1.6132942e+00
  1.1532413e-01
  2.4464533e-01
  4.9468631e-01
  7.6307952e-01
  1.2767725e+00
 -4.2149293e-01
  1.5851386e-01
 -6.2423931e-03
  7.4389124e-01
  1.2547853e+00
 -5.4638976e-01
  5.0710052e-02
 -2.5700521e-01
 -1.6503425e-01
 -3.4026471e-01
  6.7703605e-01
  3.9025980e-01
 -9.9374823e-02
  5.5280153e-02
  1.6452245e-02
 -5.8852452e-01
  3.9039135e-02
  6.8923062e-01
 -1.6984390e+00
 -1.5239605e+00
  1.3114293e+00
 -1.0923303e+00
  1.5350488e-01
  1.1390394e+00
 -3.4426284e-01
  1.1072284e+00
 -4.1554275e-01
 -1.1744182e-01
 -1.4030924e-01
 -3.1739572e-01
  2.3213295e-02
 -1.7343418e-01
  3.6476499e-01
  3.4971714e-01
 -2.3040470e-01
 -6.6222769e-01
 -2.2420666e-01
 -7.4228054e-01
  8.5029387e-01
 -2.3745829e-01
 -4.8311722e-01
 -5.3686704e-02
 -7.5578493e-01
  3.3851036e-01
 -2.8617120e-01
 -2.2748300e-01
 -1.7489575e-01
 -1.2476473e-01
 -7.1249545e-01
  5.8440715e-01
 -1.0092665e-01
  4.1406900e-02
  5.2666032e-01
  1.2333435e-01
  2.6209667e-01
  2.6193941e-01
  1.4102576e+00
  1.4280324e+00
  3.4461945e-02
  1.6191846e-01
 -2.5183278e-01
  8.6228359e-01
 -2.7024838e-01
  2.0031902e-01
  5.1921958e-01
  1.1968283e-02
  6.7958069e-01
  3.5810569e-01
 -9.5217043e-01
  2.8178421e-01
  5.4656172e-01
  7.4178353e-02
 -5.2634768e-02
  5.9705549e-01
  1.0411530e-01
  4.5574018e-01
  3.1991087e-02
 -2.9048100e-01
  8.1698132e-01
 -8.7783180e-02
  3.0720848e-01
  1.4922531e-01
  6.9313414e-02
 -3.0737057e-01
  3.5731244e-01
 -1.4951372e-01
 -1.0212288e-01
 -1.1146440e-01
 -1.5490620e-01
 -5.7364231e-01
  1.0842688e-01
  1.7202865e-01
  1.8999611e-01
  1.7071404e-02
 -4.9874237e-01
  3.1455126e-01
 -2.7266592e-01
 -1.1711055e-01
 -2.5313354e-01
 -4.8295274e-01
 -1.6042621e-01
 -4.4517562e-02
  3.6290088e-01
 -7.6811928e-01
  1.7433453e-01
  4.0151256e-01
 -4.1072509e-01
 -3.8598076e-01
  1.5681858e-01
 -1.7032847e-01
  3.6789128e-01
  7.1230635e-02
  2.9728347e-01
 -1.2019846e-01
 -2.2642167e-01
 -4.0388694e-01
 -3.7438104e-01
  2.2760291e-01
 -8.8967577e-02
 -8.4127530e-02
  4.2713728e-02
 -2.3058787e-01
 -6.5490824e-01
  2.9080436e-02
  1.6898352e-01
 -3.3518797e-01
 -5.0759304e-01
  8.8107890e-01
 -4.6862312e-02
  3.2962835e+00
  1.7682156e-01
 -1.8047794e+00
  1.0219355e+00
 -1.3369405e+00
 -4.8334530e-01
 -1.6699797e+00
  1.2484738e-01
 -1.4738020e+00
  4.0814776e-02
  3.6884424e-01
 -1.3328925e+00
 -6.8722391e-01
 -5.4693371e-01
  8.0466235e-01
 -3.8669777e-01
  2.9102984e-01
  8.8453668e-01
 -1.2521964e+00
  2.3130253e-01
 -1.2293959e-01
  1.6638649e-01
  7.0655233e-01
  1.7519961e-01
  5.0893223e-01
 -8.7121153e-01
 -1.2147791e+00
  2.3902905e-01
  1.1765902e-01
 -2.2015101e-01
 -1.4599043e-01
 -3.7688786e-01
 -4.5737875e-01
 -1.5900857e-03
 -2.3772906e-01
  6.1124283e-01
  2.1193460e-01
 -3.8798475e-01
  6.9245476e-01
  1.2962327e+00
 -5.0232065e-01
 -1.0268012e-03
 -6.6039985e-01
 -4.8523298e-01
  1.0934289e+00
  3.9118487e-01
  2.4550596e-01
  6.3043559e-01
 -3.9748350e-01
  2.5798050e-01
  5.9264725e-01
  1.6963072e+00
  7.8111333e-01
  5.5276901e-01
  2.7756613e-01
  4.0834814e-01
  1.0435518e+00
  5.2399194e-01
 -5.4088038e-01
 -6.5030271e-01
  3.6465198e-01
 -1.2649952e+00
 -3.8836080e-01
  6.0438633e-02
  1.3450830e-01
 -1.2700608e-01
  6.2937194e-01
  1.8496598e-01
 -1.2649934e-01
 -6.7463821e-01
  2.5842103e-01
 -3.5278749e-01
  9.3117073e-02
 -4.7550079e-01
 -1.3997079e-01
  8.1493907e-02
 -2.1833055e-01
  2.2645336e-01
  4.5496920e-01
 -6.4717745e-03
  3.2789532e-02
 -6.7965078e-01
 -4.4759831e-01
 -4.3504068e-01
  5.4785460e-01
 -4.9835202e-01
 -5.7207382e-01
 -2.5709299e-02
 -7.0816112e-01
 -1.7183067e-01
  5.4813441e-02
  2.0152031e-01
 -2.8265116e-01
 -5.2131624e-03
 -3.3960813e-01
  4.3028480e-01
  5.1148194e-01
 -1.3532650e-01
 -1.6225924e-01
 -1.4687742e-02
 -9.8091885e-02
 -3.7602153e-01
  1.0713995e-01
  4.5278046e-01
  3.9981994e-01
  7.6407775e-02
  7.1504933e-01
  2.8062719e-01
 -3.4069896e-01
 -1.6961963e-01
  4.9458623e-01
 -1.8045491e-01
  2.5419945e-01
 -4.1498467e-01
 -2.3572717e+00
  1.7014307e+00
  2.9564056e-01
 -1.7135940e-02
 -1.4302295e-01
  1.1164067e+00
 -1.6855390e+00
  3.9074454e-01
  1.8106028e-02
 -6.8138081e-01
 -2.6704141e-01
 -1.1121119e+00
 -1.7783426e-01
 -1.0871388e+00
  2.8268090e-01
  9.2064679e-01
  3.0002955e-01
  2.3231490e-01
  5.0837183e-01
 -4.4259733e-01
 -4.9331504e-01
 -1.6564518e+00
  1.7852180e-01
 -1.2451640e+00
 -3.0265668e-01
  3.6647293e-01
 -4.0589213e-02
  4.4381183e-01
  2.0007370e-01
  2.8120726e-01
 -2.8686619e-01
 -6.7480958e-01
 -3.4971476e-01
  5.7613349e-01
  4.0970412e-01
  6.6885996e-01
 -9.2810690e-02
 -8.5163313e-01
  5.0464863e-01
 -1.0330415e-02
  1.3227402e+00
  7.3218755e-02
  2.2997040e-02
 -3.6944631e-01
  1.0973166e-01
  1.2405130e-02
  4.2016551e-01
 -1.1426901e-01
 -2.0263465e-01
 -9.0554222e-02
  4.9773891e-02
 -7.2659677e-01
 -6.9509101e-01
 -7.1242118e-01
 -4.0158227e-01
 -4.8731589e-01
  5.6152970e-01
  5.7723033e-01
 -1.4995384e-01
  3.1612182e-01
 -1.7390910e-01
  8.2181519e-01
 -7.1029711e-01
 -3.5621807e-01
  4.5247594e-01
  1.1330523e-01
 -3.0109817e-01
 -1.5427096e-01
 -3.9238796e-01
  5.4284370e-01
 -6.1243093e-01
  1.2607034e-01
 -1.5443259e-02
 -5.5035383e-01
  1.7123471e-01
 -3.6002122e-02
  2.3148349e-01
 -6.9097131e-01
 -1.0783112e+00
  1.5723160e-02
 -7.7509612e-01
  6.1110682e-03
  1.2579505e-01
 -3.2254953e-02
  1.2769119e-01
 -4.1767401e-01
  1.4475527e-01
 -4.9860939e-01
  7.4366593e-01
  2.4113576e-01
 -3.3624467e-01
  3.0477348e-04
 -1.3530801e-01
 -2.2815962e-01
 -1.4523600e-01
  2.0900787e-01
 -9.4570726e-02
  3.0732903e-01
 -8.8167548e-02
  1.1805498e-01
 -6.7758131e-01
  3.4665322e-01
  3.7957060e-01
 -5.5270088e-01
  1.9033353e-01
  1.3057345e-01
 -9.7193100e-02
  7.3967886e-01
  3.2380784e-01
 -8.3846506e-03
  2.5538442e-01
  2.1061566e+00
  2.2057351e-01
 -1.9984862e-01
 -8.5261363e-01
  6.2139530e-02
  2.5860554e-01
 -1.0359661e-02
  3.8284475e-01
  2.4971129e-01
  1.9059741e-01
 -6.1284059e-01
 -1.7698150e-02
  3.5870776e-01
  6.7436200e-01
 -5.2787399e-01
 -8.6938888e-02
 -5.0838625e-01
 -7.3630130e-01
 -1.0926327e-01
  1.7566846e-01
  2.1469506e-02
  2.2302845e-01
 -4.0105370e-01
  2.9859409e-01
 -2.0558737e-01
  2.3176214e-01
  6.0839131e-02
 -8.9268166e-01
  5.0266653e-01
 -2.7818197e-01
 -4.5827073e-01
  2.5670353e-01
  1.4523782e-01
 -4.9770862e-01
 -2.6861978e-01
  1.4264048e+00
  2.4594426e+00
 -1.6656394e+00
  9.5781416e-02
 -2.2984297e+00
  4.9709496e-01
 -8.9182997e-01
  2.1980278e+00
  4.4938537e-01
 -8.9564174e-01
  1.1653785e+00
 -5.9638727e-01
 -6.4738530e-01
 -2.3483872e+00
  5.3802240e-01
 -7.6693863e-01
 -5.0428491e-03
 -2.7882740e-01
 -8.3884603e-01
 -2.3569772e+00
 -1.8177947e-01
  1.8157351e+00
  1.5967132e+00
 -2.0887572e-01
 -2.2978334e+00
  9.7055539e-02
 -3.8024959e-01
  6.8298101e-01
 -1.8710856e+00
 -1.3036176e+00
 -2.0548077e+00
  1.5602083e+00
 -6.9764447e-01
 -7.7165073e-01
 -2.2320619e-01
  4.4212523e+00
  2.1433740e+00
  1.4061401e+00
 -8.2354212e-01
 -1.5219855e-01
  1.6254860e+00
 -1.5455774e+00
  2.3856414e-02
 -8.6452299e-01
 -1.7165860e+00
  2.2845407e+00
 -8.0558002e-01
  1.5167804e+00
 -2.7649939e+00
 -2.2679732e+00
  4.4310215e-01
 -1.2656929e+00
 -1.6610529e+00
  1.3811481e+00
  8.8898408e-01
  3.3369994e-01
  1.6266183e+00
 -9.2146337e-01
  1.2274221e+00
  4.3564710e-01
 -2.0170286e+00
 -1.9865968e+00
 -1.0518792e+00
  2.7333066e-01
 -2.9245119e+00
 -9.7112274e-01
 -8.3957213e-01
  3.4724474e+00
  2.0165062e+00
  1.9459140e+00
 -2.3726027e+00
  2.6229734e+00
 -1.6472112e+00
 -2.3694645e-01
  2.6146483e-01
 -3.2165971e-01
  7.3833540e-02
 -1.0609407e+00
 -4.2688385e-01
 -2.4578799e-01
  4.7622859e-01
  6.0446858e-01
  7.5165850e-01
 -2.5128126e-01
  1.2834613e+00
 -2.4066401e-01
  1.2118132e-01
 -2.3573999e+00
 -9.3956214e-01
 -8.9321367e-02
  3.3289808e-01
 -1.7542776e-01
  5.1120400e-02
  3.5423245e+00
 -7.3015779e-02
 -1.9122362e-01
  3.1069566e-02
  2.4454486e-01
  1.3786301e-01
 -2.1573471e-01
  1.4934336e+00
 -6.8259287e-01
 -2.7550213e+00
  3.3372685e-01
 -6.4848095e-01
  4.7321450e-02
 -2.6925006e-03
 -1.8022755e-01
  1.7191458e+00
 -2.6169097e-01
  1.3011948e+00
 -4.7632596e-01
  9.3905240e-02
  1.6207819e-01
  1.3875900e-01
  6.1171764e-01
  2.4568452e-01
 -5.1299602e-01
  2.0686556e-01
  1.5207336e-02
 -1.2860318e+00
  3.9436060e-01
 -3.7969327e-01
 -1.6161516e-01
  1.5842531e+00
  3.9096466e-01
  1.8171391e-01
 -4.3941674e-01
 -2.6411021e-01
  2.6894283e+00
 -1.9375373e-01
 -2.5695494e-01
  6.9338703e-01
 -1.4166548e+00
 -7.8333341e-02
  3.1499946e-01
  4.6376660e-01
  8.8428207e-02
  3.9812377e-01
 -5.7568419e-01
  5.0646448e-01
  1.0872948e+00
 -9.2270410e-01
  3.8049334e-01
 -2.4622889e-01
  1.9159561e-01
 -1.8402064e-01
  5.5296093e-01
  3.1477013e-01
  2.8763440e-01
  3.4782341e+00
 -4.5741415e+00
 -3.7382320e-01
  2.3534921e-01
 -1.0089237e-02
  2.9068643e-01
  2.1995004e-01
 -6.3311838e-02
 -2.4073463e-02
  6.4776912e+00
