nep4_zbl 16 Ag Al Au Cr Cu Mg Mo Ni Pb Pd Pt Ta Ti V W Zr 
zbl 1 2
cutoff 6 5 200 134
n_max 4 4
basis_size 8 8
l_max 4 2 1
ANN 30 0
 -7.2336560e-01
  1.1335825e+00
 -1.0382859e+00
  7.5794780e-01
 -3.6800761e+00
 -1.1031508e+00
  9.8147523e-01
 -1.3519356e+00
 -6.0794902e-01
  7.7819103e-01
 -1.7401651e+00
  2.5539368e-01
 -7.5002211e-01
  1.7447625e-01
 -3.4990400e-01
 -8.1992042e-01
 -1.0645711e+00
 -1.5131294e+00
  5.2817655e-01
  5.7308650e-01
 -1.2092133e+00
 -1.3704826e-01
 -9.8209566e-01
 -1.0547214e+00
  2.3550527e-01
 -4.7330666e-01
 -3.4021473e-01
 -8.4945226e-01
  2.5489455e-01
 -4.2231822e-01
  8.8400714e-02
 -4.2696068e-01
 -4.9899798e-02
  4.9368370e-02
 -1.6618450e-01
  4.6852690e-01
 -8.4099464e-02
 -1.3410774e-01
  2.6846305e-01
 -2.2529666e-01
 -7.4201740e-02
  1.7855728e-01
  6.2799662e-02
 -3.1696320e-02
  1.7546147e-01
  8.0895558e-02
 -5.5696268e-02
  1.4463657e-01
 -1.0937499e-01
 -2.1089036e-02
 -7.0787442e-01
 -1.2430923e-01
  6.0449678e-02
  4.5142666e-01
 -9.7578160e-02
 -2.4848061e-03
 -7.3817328e-02
 -1.8898112e-01
 -4.2846033e-01
 -8.0861664e-01
 -1.2345335e-02
 -1.4289880e-01
  1.7814238e-02
 -6.2271696e-02
 -1.0859556e-02
  1.6770817e-01
 -1.7383391e-01
  3.9092954e-02
  1.2627473e-01
 -1.5889464e-02
 -6.2736219e-01
  6.0504872e-01
  1.2762266e-03
  1.4319330e+00
 -2.1572781e-01
  1.7391898e-01
  4.6009071e-02
 -1.8099043e-01
  2.5134077e-02
  1.0773033e-01
 -5.6548525e-02
 -2.7781409e-01
 -4.5190576e-01
 -5.8023882e-01
  4.9090944e-02
 -1.2171222e-01
  3.0975802e-02
 -1.2772538e-02
  1.2679903e-01
 -1.1853640e-01
 -3.0826950e-01
  3.7506476e-02
 -1.1053578e+00
 -2.5544241e-01
  3.2171148e-01
 -1.3496253e-01
 -1.6600385e-01
 -2.6214637e-02
 -9.8519124e-02
  9.7168937e-02
 -2.3010491e-01
 -1.7329070e-01
  5.5464298e-02
  2.0537233e-01
 -1.2678879e-01
 -3.7063878e+00
  3.4545076e+00
 -1.3422704e+00
 -1.3765701e+00
 -1.3128917e+00
 -9.3227036e-02
 -6.6253394e-02
  4.5585391e-01
  2.7797991e-01
  8.2567221e-01
  2.4806526e-01
  2.2538335e+00
  6.6350430e-01
  1.2523651e+00
  4.7762617e-01
  1.8355200e-01
  6.0324591e-01
  6.3826567e-01
  9.3093115e-01
  5.9844464e-01
  1.4253615e-01
  2.0355713e+00
  3.6124226e-01
  8.5366565e-01
  3.0188021e-01
 -2.0575275e-01
 -5.7879198e-01
 -2.3202604e-01
  7.7482983e-02
  1.2068070e-02
 -2.6478267e-01
 -2.8316444e-01
  9.2253134e-02
 -3.8940974e-02
 -2.6800198e-02
  7.1141183e-01
  1.5925063e+00
 -7.6644099e-01
 -2.4895627e+00
  1.7389278e+00
  2.7075070e-01
  7.1835363e-01
 -1.2197572e-01
 -4.8510569e-01
 -1.2951318e-02
  1.1218680e+00
  3.7525010e-01
 -8.8057548e-02
  5.4285580e-01
  2.1689758e-01
  8.7626028e-01
 -2.5855815e-01
 -8.8366106e-02
  6.7301697e-01
 -1.1085490e+00
  5.8899647e-01
 -1.0488648e+00
  8.7023848e-01
 -2.9134488e-01
  1.1812054e-01
  2.0090753e-01
 -1.7530270e-01
 -3.6157852e-01
 -1.9719925e-02
 -4.6046581e-02
 -1.1003198e-01
  1.1576787e-01
 -1.7631604e-01
 -1.6658135e-01
 -1.6849454e-01
 -2.6462218e-02
  4.1468960e-01
 -6.7840807e-02
  4.1442031e-01
 -1.0926223e+00
 -7.5167671e-02
  1.6817154e-01
 -6.0349017e-01
 -2.1334153e-01
  8.7658249e-02
  2.6160792e-01
  2.0073722e-01
 -2.9746866e-01
  3.7052634e-01
 -5.5048984e-01
 -1.6601789e-01
  1.5901124e-02
  1.3230014e-01
  1.1780923e-01
  9.8276302e-02
  3.4557092e-01
 -1.1120275e+00
 -1.4756572e-01
  2.9404420e-01
 -3.8328776e-01
 -4.0910985e-02
 -4.3558657e-02
 -3.7788842e-02
  1.0135773e-01
  1.7671414e-01
 -9.5150456e-02
 -5.4168767e-01
 -1.2376727e-01
  2.8448923e-02
  1.3045095e-01
  4.1870160e+00
 -3.1867013e+00
  2.7573454e-01
  8.3745867e-02
  1.0139261e+00
  3.3653457e-02
  1.6310251e-01
 -4.0900651e-01
  4.2005739e-01
 -4.1022593e-01
 -6.4652838e-02
  1.2893004e+00
  3.8513759e-01
 -3.9292651e-01
 -2.0808221e-01
 -1.5203285e-01
 -8.4820934e-02
 -2.5483906e-01
 -4.8087589e-02
 -3.6842644e-01
  3.4513977e-01
  8.2772106e-01
  5.0962639e-01
  4.3605414e-01
 -5.1969182e-01
 -5.9754848e-01
 -1.4191833e-01
 -1.1754292e-02
  6.7195930e-02
 -1.9877471e-02
  4.2316999e-02
  2.0135465e-01
 -5.3143803e-02
 -2.2968188e-01
 -9.5924258e-02
  1.8449177e-01
 -6.4270920e-01
 -1.6581848e-01
  1.1243905e+00
 -3.9285517e-01
  1.5897010e-02
 -3.4026414e-02
 -2.7068073e-01
  1.0978866e-01
  2.5885005e-02
 -1.8172981e-01
 -1.2625611e-01
  7.5251840e-02
 -5.3503051e-02
 -9.6830972e-02
  1.1427592e-01
 -2.4313454e-01
  1.5539122e-01
  3.0910894e-01
  2.0906638e-01
 -1.9142652e-01
 -2.5588062e-01
 -4.7397906e-01
 -1.2486465e-01
 -9.0641850e-01
  8.9927979e-02
  6.4731769e-02
  1.7738566e-01
 -5.1860414e-02
 -4.7170073e-01
 -4.2416770e-02
  2.5109407e-02
 -7.5204462e-02
 -2.9820714e-02
 -8.1345424e-02
  3.0567191e+00
 -1.1588900e+00
  3.1579468e-01
  3.8705185e-01
 -8.9695728e-01
 -2.7551479e+00
 -1.3927431e-01
 -1.4706720e+00
 -2.0556722e+00
 -8.2187670e-01
 -1.6863182e+00
 -1.4444208e-01
 -8.0011624e-01
 -1.5096294e+00
 -1.4943392e-02
 -2.1571422e+00
 -1.5737116e-01
 -1.3090793e+00
 -2.2865941e-01
 -1.0707167e+00
 -1.5767970e+00
  2.2793308e-01
 -4.9512157e-01
 -2.4947979e-02
 -1.0672014e+00
 -1.6224739e-01
  5.9534025e-01
 -3.3928922e-01
 -1.0302000e+00
 -7.6852185e-01
 -1.1937458e-01
  2.6232338e-01
  4.8624480e-01
  3.2991469e-01
  7.0527494e-01
 -3.3403993e+00
  3.8502285e-01
 -6.9142133e-01
 -9.5001525e-01
  3.4045877e+00
 -9.3701623e-02
  3.1978810e-01
  3.6426306e-01
  2.1299917e-02
  2.9909950e-01
  8.8320017e-01
  2.7504736e-01
 -6.6063654e-01
  3.1445745e-01
 -4.7197813e-01
  6.4286125e-01
  6.3451874e-01
 -7.7971451e-02
  3.0340201e-01
  5.3750724e-01
  4.4103414e-01
  1.8114799e-01
 -6.1741740e-01
 -8.7577742e-01
  5.4351878e-01
 -3.7212270e-01
  6.5208353e-02
 -4.1768539e-01
 -7.3010884e-02
  3.7615421e-01
  1.7260358e-01
  5.0941836e-02
  1.6434924e-01
  2.7320573e-01
 -8.2699500e-02
  1.5017102e+00
  1.8418171e+00
 -7.1842164e-01
  1.8359700e+00
 -1.0057880e+00
  1.4771928e-01
  3.3710119e-01
 -5.8247417e-01
 -8.8126904e-01
  3.8886581e-02
 -1.5682852e-01
  5.3277767e-01
 -1.1890596e+00
  2.6635808e-01
  1.9087577e-02
 -4.1156697e-01
  8.9506072e-01
  4.2561379e-01
 -5.0471541e-02
 -2.9957405e-01
 -4.4030216e-01
  8.3466887e-01
 -6.1559296e-01
 -1.6296205e-01
 -2.5581318e-01
 -2.4743681e-01
 -2.9509720e-01
 -7.6007068e-02
  2.0632654e-01
  3.8559771e-01
 -7.0820130e-02
 -3.6879754e-01
 -5.2128799e-02
 -7.2621989e-01
  2.4382111e-01
 -3.8661927e-01
 -1.0563722e+00
  5.7956958e-01
 -1.7147660e+00
  4.7311783e-02
 -6.5081380e-03
 -2.0573477e-01
  3.6869472e-01
  7.6371229e-01
 -2.0347984e-01
  2.6653832e-01
  8.5549355e-03
  3.9926204e-01
  2.5609219e-01
 -1.1428463e-01
  5.8655649e-02
  4.2872769e-01
 -5.2969515e-02
 -2.0286998e-02
  8.9624912e-02
 -2.1896315e-01
 -1.1883414e+00
  5.5435044e-01
  3.3132061e-01
 -1.5642576e-01
 -2.9865745e-02
  1.4347370e-02
 -1.5899636e-01
 -1.6294743e-01
 -2.3697168e-02
  7.6430060e-02
  9.7362243e-02
 -4.7730606e-02
 -1.0270962e-03
  7.0512719e-02
  6.0316801e-01
  5.9410487e-04
  6.7031586e-01
 -9.2349488e-01
  1.0690067e+00
 -2.7424103e-02
 -5.1319819e-02
  3.3639452e-01
  1.2909964e+00
 -1.7720087e-01
  4.1871771e-01
  4.9563575e-01
 -4.4031188e-01
  1.5690769e-01
 -2.4344362e-01
  1.4744900e-01
  1.7001541e-01
  2.7239791e-01
  1.0688957e-01
  6.4734921e-02
  1.2282144e-01
 -4.3753615e-01
  3.1357563e-01
  2.7237362e-01
 -4.1261804e-01
 -7.9817966e-02
 -3.8186491e-02
 -3.4574825e-01
  7.8410219e-04
  6.9717996e-02
 -1.5533460e-02
 -2.0500335e-01
  7.4636087e-02
 -2.1709448e-01
  8.9430019e-02
  5.0590295e-01
 -1.4655663e-01
 -3.9568812e-02
 -5.0178647e-01
 -3.9005566e-01
 -5.5236012e-01
  2.5578055e-01
  7.0465726e-01
  1.4690855e-01
  2.0092669e+00
 -8.4720188e-01
  9.1978395e-01
  8.0696321e-01
 -1.0946270e+00
  1.2911856e+00
 -1.3068519e+00
  9.8868322e-01
  1.6957394e+00
 -9.0008909e-01
  1.7713250e+00
 -4.9599037e-01
  6.3190436e-01
 -1.0558275e+00
 -1.2125146e-01
  2.0255406e+00
  1.0118823e-01
 -3.5841289e-01
  4.7674641e-01
 -3.0973589e-01
 -5.4366422e-01
  7.2512805e-02
 -2.2646989e-01
  1.2952903e-01
  4.8912447e-02
  5.3208834e-01
 -1.7013085e-01
 -4.8321858e-01
  7.1177727e-01
 -1.5459900e-01
  1.1587949e+00
 -2.0432854e-01
  5.7999825e-01
 -1.8389168e-01
  4.9882177e-01
 -1.8243179e-01
  6.7264549e-02
 -2.2949512e-01
  1.1537914e+00
  5.0229770e-01
  3.3562832e-02
  5.1498160e-02
 -9.0689164e-01
  2.4936695e-02
 -5.1763736e-02
 -4.7465011e-01
  1.5966163e+00
 -9.4634598e-01
  1.5909466e+00
  2.9868054e-01
  3.1130838e-01
  2.1124701e-01
 -1.3918287e-01
 -1.5122885e-01
 -3.7593201e-02
  4.4774082e-02
 -1.4501922e-01
  2.3593856e-02
 -2.0901820e-02
  1.6372098e-02
  5.2766815e-02
 -2.7893661e-02
  1.3776158e-01
  1.3397467e-01
  1.6753891e-01
  1.5270829e+00
  2.1727557e-01
 -2.1365789e-01
  3.7205413e-02
  2.6698214e-01
 -6.1218643e-01
 -1.4281879e-01
 -8.4549737e-01
  1.6778729e+00
  4.7814894e-01
 -1.3203393e-01
  5.3991169e-01
 -2.6180485e-01
 -7.5448662e-01
 -4.3314762e-02
 -8.7150496e-01
  1.1510505e-01
  4.0926093e-01
  7.9920262e-01
 -1.9279544e-01
  2.9975724e-01
  6.0014863e-02
  2.4423650e-01
  1.1145357e-01
 -2.0155317e-01
 -9.9022418e-02
 -1.9805755e-01
  1.4672138e-01
  4.6165824e-02
 -3.6993269e-02
 -3.9230874e-01
  5.1847353e+00
 -2.3097563e+00
  6.8883550e-01
  4.2316326e-01
 -2.2982891e+00
  5.0317567e-02
  1.9207279e-01
 -2.9615000e-02
  4.3725541e-01
  3.6112288e-01
 -1.0605015e+00
 -4.2910967e-02
 -1.0424612e-01
 -3.7021944e-01
 -6.6556245e-01
 -4.6597403e-01
  2.9570949e-01
 -4.3132785e-01
  7.7625893e-02
 -5.7745391e-01
 -5.8566868e-01
  4.7642520e-01
 -1.8277527e+00
  4.4421262e-01
 -1.2618791e+00
 -2.5453019e-01
 -1.2881638e-01
  2.6997679e-01
 -3.5052374e-02
  1.8496099e-01
 -3.9319869e-02
  2.7360078e-02
  1.2664399e-01
 -1.1271804e-01
 -3.0233210e-02
 -7.6835495e-01
  2.9670671e-01
  7.8777498e-01
  6.0983223e-01
 -1.2708051e+00
  2.7745387e-01
  1.9728528e-01
 -1.6098011e-01
 -6.5101194e-01
  1.9463198e-01
 -2.4155521e-01
  4.4332258e-02
  4.0431598e-01
  4.6116966e-01
  6.4273131e-01
 -1.3123284e-01
 -8.0285959e-02
 -9.1236502e-02
  1.6418470e-01
  5.7948941e-01
 -4.8301172e-01
 -2.4081868e-01
  3.6211935e-01
  4.0186277e-01
  4.4493836e-01
 -2.3283015e-01
 -7.5658500e-02
 -8.7978892e-02
  1.6219608e-01
  6.4446837e-02
 -8.9547746e-03
 -1.7573318e-01
 -1.3834088e-01
  7.9190254e-02
 -5.8845473e-03
  2.6232193e+00
 -1.3449826e+00
  3.8176906e-01
  1.3822412e+00
 -8.8872939e-01
 -6.6130489e-01
 -5.8990121e-01
 -2.0022109e+00
 -7.3934919e-01
 -8.8243133e-01
 -9.7341192e-01
 -5.9628779e-01
 -4.4354832e-01
 -2.3862155e-01
  1.0253952e+00
 -1.8754495e+00
  6.8345731e-01
 -7.0435578e-01
 -2.2530343e-01
 -3.0064303e-01
 -1.1138419e+00
 -1.0790961e+00
 -6.6803718e-01
 -4.7563636e-01
 -7.2353452e-01
  3.0162957e-01
 -2.5727879e-02
 -1.5537371e-01
 -1.1694910e-01
 -2.0296144e-01
  1.0679592e-01
  2.5789115e-01
 -5.0329351e-01
  6.7607255e-04
  1.9338030e-01
  1.1141217e+00
 -1.8123648e-01
  2.9220474e+00
 -1.4814928e+00
  1.5635098e+00
  6.5007859e-01
 -4.2523730e-01
  1.0580394e+00
  1.7524682e+00
  5.7121658e-01
  1.3397903e+00
 -3.9675277e-01
  6.5731239e-01
  3.9347348e-01
  1.6531341e+00
  9.1234243e-01
  4.8662627e-01
  1.6457103e-01
  1.1623561e-01
 -2.1022953e-01
  2.0478201e+00
  7.5230533e-01
  1.0018619e+00
 -4.5151192e-01
  6.5008616e-01
  1.4706241e-01
 -2.2009073e-02
  2.0073868e-01
 -1.7242905e-01
 -1.7763896e-01
  1.0060300e-01
  9.7516394e-01
  2.1988881e-01
 -1.0970059e-01
 -5.8445416e-02
  5.9939206e-01
  2.4405885e-01
  1.2768111e-01
 -1.3708401e-02
  1.2310209e+00
 -2.4583561e-03
 -1.4386645e-01
  9.8236263e-02
 -3.4614009e-01
  1.1150698e-01
  5.4265040e-01
 -2.2147076e-01
 -1.6614528e-01
 -3.0591086e-01
  7.2505824e-02
  4.4575077e-01
 -2.2532633e-01
  9.6352078e-02
  6.4382148e-01
 -3.4707196e-02
  3.6036823e-02
 -1.0818064e-01
 -5.9810239e-01
 -4.4458789e-01
 -1.2084308e-01
  1.3583018e-01
  1.9069186e-01
  5.9923515e-02
 -1.1110063e-01
 -6.3882011e-01
  1.1324962e-01
  5.5618538e-03
  2.5939521e-01
 -2.6207632e-01
  4.8329398e-02
 -8.0854394e-02
  1.8153502e-01
  1.9296399e-01
 -1.3946964e+00
  6.1540258e-01
 -3.9675445e-03
 -1.7400090e-01
  1.2847228e-02
  2.0397522e-01
 -2.2433591e-01
  1.1959249e-01
  1.6255995e-02
  5.7124257e-01
  1.1106374e-01
 -1.4900510e-01
  1.5127584e-01
  2.0216683e-01
 -1.6714630e-01
 -3.3392942e-01
 -2.2498576e-01
  3.5421899e-01
  3.2386658e-01
  4.8218852e-01
 -2.1635929e-01
  9.4006378e-03
  6.3925646e-02
  1.1643507e-01
  8.2367308e-02
 -1.2878680e-02
  9.1404893e-02
  4.4702441e-02
  2.1152878e-02
  1.2666159e-02
  3.4183055e-01
  1.4678632e-01
 -2.8672197e-01
 -9.2277604e-01
  7.6081985e-01
 -7.4202657e-01
  4.1547945e-01
  7.7663325e-02
 -3.9760701e-02
  5.0633961e-01
  5.0049365e-01
 -2.0812109e-01
 -1.0895472e+00
 -6.4918447e-01
  4.9205300e-01
 -2.7949366e-01
  1.5937957e-01
  1.2096582e-01
  3.3531412e-01
  1.9488919e-01
 -6.4022727e-02
  2.7423084e-01
 -1.0002981e+00
 -2.3015814e-01
  1.7368920e-01
  9.8970361e-02
 -1.5758136e-01
  2.6978484e-01
  1.7388003e-01
 -6.1662388e-01
 -2.5902614e-01
 -1.5945484e-01
  3.7305675e-02
  1.7564294e-01
  1.3445029e-01
  1.8161739e-01
  4.4340778e-02
 -1.0154629e+00
  1.4489784e+00
 -1.9998912e+00
 -2.2440867e+00
  8.8056701e-01
  1.1619654e+00
 -9.7834128e-01
  7.0074135e-01
  5.3196406e-01
 -5.5957329e-02
 -1.0735847e-01
 -7.5082093e-01
  5.6767929e-01
 -8.2706535e-01
 -1.1426057e+00
  2.2327660e-01
 -1.0602970e+00
  8.7028128e-01
  2.3732679e-01
 -1.7673871e-01
  6.6999882e-01
 -1.1953942e+00
  9.0291899e-01
 -8.0905175e-01
  1.4774948e+00
  5.7751451e-02
 -3.6065713e-01
 -6.5958583e-01
 -4.8702589e-01
  1.0023937e+00
  2.5913799e-01
 -3.6070183e-02
  5.2481864e-02
  2.2762924e-02
 -1.7683071e-01
  3.7989724e+00
 -1.3752775e+00
  1.2326812e+00
  1.5566713e-01
 -1.2074000e+00
 -5.2665025e-03
  1.7289397e-01
 -2.3196320e-01
 -7.8174967e-01
  1.0152183e-01
 -9.7510651e-02
 -8.7500401e-02
 -7.2364658e-01
 -7.4105430e-01
 -5.6374985e-01
 -1.3350174e-01
 -4.6715406e-01
 -2.6118302e-01
  1.7498794e-03
 -1.6065577e-01
 -7.2975260e-01
  2.4735197e-01
  2.1833949e-01
 -3.2078806e-02
  7.9142898e-01
  2.2416774e-02
 -3.5391819e-01
 -3.0195221e-01
  1.2025636e+00
  4.6373364e-01
 -6.2208289e-01
 -1.4479649e-01
 -3.8314909e-01
  8.6747259e-02
 -4.8191133e-01
  1.1684304e+00
 -4.4443786e-02
  4.5556757e-01
 -1.3613086e+00
  7.9914540e-01
 -2.4941838e-01
 -1.1325350e-01
  5.7476741e-01
  7.9725879e-01
 -4.3665028e-01
 -3.8057134e-02
  5.4487560e-02
 -5.6811899e-01
  5.2424645e-01
 -7.9469275e-01
  5.7333070e-01
  3.5942632e-01
  2.1833460e-01
  1.5059298e-01
 -2.0259012e-01
  1.0515444e+00
 -7.5434059e-01
  1.6007332e+00
  1.5443829e-01
 -1.1702726e+00
  1.2975253e-01
  1.6056576e-01
 -5.6186676e-01
 -1.4637771e-01
 -5.8182204e-01
  1.2572894e-01
  4.8656887e-01
  2.4480732e-01
 -1.5527502e-03
 -1.6119199e-01
  5.9472162e-01
  2.1668165e+00
 -1.0548383e+00
  4.1649289e+00
 -2.3955958e+00
  5.3415847e-01
  1.1967084e+00
 -1.2206390e+00
  3.9153442e-01
 -1.5186058e-01
 -5.9487081e-01
 -1.9585519e-01
 -1.5467987e+00
  5.5883861e-01
 -6.8393975e-01
 -6.3163131e-01
  1.0880176e+00
 -5.3392059e-01
 -2.8320634e-01
 -9.4879878e-01
 -7.3366231e-01
 -2.5770691e-01
 -1.2424550e+00
  2.9604900e-01
 -1.1402578e+00
  2.0754836e-01
 -5.0866097e-01
  1.9670591e-01
 -4.5809969e-01
  3.0033761e-01
  1.7970146e-01
 -1.7786124e-01
 -3.6444342e-01
  1.0780980e-01
 -4.3508954e-02
 -3.9146137e+00
  2.4380615e+00
 -1.8531830e+00
  8.9154333e-01
 -1.0128443e+00
 -7.5292933e-01
  1.3112713e+00
 -3.0959134e+00
 -2.3088855e-01
  1.2691660e+00
 -1.1771982e+00
  2.4233303e+00
 -2.7439373e+00
  8.7516338e-01
 -5.3279775e-01
 -1.2911575e+00
  7.3888218e-01
 -2.5696762e+00
  1.1616381e+00
  2.2714293e+00
 -1.5302640e+00
  1.3848403e+00
 -3.2406874e+00
  6.0743415e-01
 -3.3221582e-01
  8.0835618e-02
 -1.0636295e+00
 -1.7485704e-01
  4.7717309e-01
 -1.2446788e-01
 -1.0346249e-01
 -1.6307925e-01
 -4.3826193e-01
 -5.3731643e-02
 -1.1479441e-01
  1.5140438e+00
  1.4730345e+00
 -3.9709170e+00
 -7.6349415e-02
 -2.7428641e+00
 -2.9417065e-01
 -4.5388439e-01
 -1.0974674e+00
 -1.3744335e+00
 -1.7567156e-01
  8.0187961e-02
  4.5960799e-01
 -2.5450790e-01
 -8.2732552e-01
 -9.8329836e-01
 -5.6524825e-01
 -2.0585242e-01
 -2.0234630e+00
 -4.0487534e-01
  7.2656584e-01
  5.4280799e-02
 -2.2124736e-01
 -6.9042307e-01
 -2.9826323e-03
 -1.0389597e+00
 -3.3171272e-01
  3.3331949e-01
  1.9050331e+00
  2.8868985e-01
  5.3067595e-01
  7.9925627e-02
 -2.0061667e-01
 -7.8396335e-02
 -4.8818722e-02
  5.3617697e-02
 -5.5023843e-01
  6.4064401e-01
 -6.1428875e-01
  1.9389991e+00
 -1.1987828e+00
 -5.2087951e-01
 -4.6472400e-02
 -1.0769215e+00
 -5.0392680e-02
  6.3526624e-01
  1.2772359e-01
 -6.9493228e-01
  6.9029802e-01
  6.4342707e-01
 -6.8986535e-01
 -1.8949993e-01
 -2.4565604e-01
 -9.9819565e-01
  7.4349180e-02
 -6.3553518e-01
 -1.2238796e+00
 -5.4623997e-01
  5.1609218e-01
  7.3001617e-01
 -4.2574164e-01
 -9.7320773e-02
  3.1461960e-01
  7.7758235e-01
  8.6790659e-02
  1.6007182e-01
 -1.3125473e-01
 -2.5202176e-01
 -7.9013482e-02
  5.0688345e-02
  2.0255048e-02
 -1.1964411e-01
  2.0804567e+00
  1.8155537e+00
  2.8147498e-01
  1.0743761e+00
  1.6392314e+00
 -5.3424025e-01
 -8.5943419e-01
 -1.7853707e+00
  2.1831625e+00
  1.0091243e+00
 -2.2146490e+00
 -1.4903796e+00
  2.0359237e+00
 -2.0890632e+00
 -1.7480586e+00
 -4.0753450e+00
  2.0060439e+00
 -3.1168067e+00
 -2.5513408e-01
 -1.3575810e+00
  2.3841927e-02
 -1.7569710e+00
  3.2505777e+00
 -3.9193511e+00
 -1.7110372e+00
 -4.9585767e-02
  2.9896587e-01
  1.3653690e+00
  1.9036342e+00
 -5.0291884e-01
 -4.4275817e-01
 -1.3506951e+00
 -3.5470524e-01
  2.9223207e-01
 -1.1376271e+00
  2.5867805e-01
 -1.2133732e-01
 -2.0737767e+00
  4.6124053e-01
 -8.7523293e-01
  2.1493163e+00
  4.9904671e-01
 -3.8327003e+00
  2.1763504e+00
  1.6572419e+00
 -3.9603576e-01
 -1.4891526e+00
 -2.0631526e+00
  1.0217206e+00
  2.2451027e-01
  1.3948500e-01
  7.7327603e-01
  3.2808616e+00
 -6.7263684e+00
  1.4611770e+00
 -5.4136109e-01
 -6.7859763e-01
 -8.2029343e-01
 -2.6108100e+00
 -3.5458211e-02
 -7.5922929e-02
  1.4570684e+00
  1.5402962e-01
 -9.5720696e-01
  1.9836062e-01
  6.1238469e-03
 -1.8949752e-01
 -1.6552461e-02
 -6.6832498e-02
 -1.7481230e-01
  5.7291988e-02
 -2.8440669e-01
  9.0331487e-02
 -3.3480987e-01
 -4.1490141e-01
  2.3567625e-03
 -1.0681915e-01
 -1.4234187e-01
 -3.4198853e-01
 -9.4392113e-02
  1.4940500e-01
 -2.1431065e-01
  3.3926478e-01
 -3.3478357e-02
  1.0575823e-01
  3.1135187e-01
 -6.1592598e-02
 -1.1007330e-02
 -2.1313058e-01
  7.1047503e-03
 -9.2701077e-02
 -5.3190049e-02
 -1.2058951e-02
 -9.8828234e-02
 -7.8247893e-01
  2.6679632e-01
  1.1755455e+00
 -1.6086851e+00
 -2.0114520e+00
  1.2080432e-01
 -1.3278852e-01
 -2.6729299e-02
  9.1829228e-01
 -2.2690241e-01
  2.5296819e-01
  2.1907480e-01
 -1.1976135e+00
  6.6520937e-02
 -1.8691261e-01
  3.9162230e-01
  6.5093058e-01
  8.0489457e-01
 -6.8109250e-01
 -7.0446098e-01
 -1.1346414e-01
 -3.7783468e-01
  7.9824638e-01
  1.1242384e-01
 -1.1271542e-01
  9.0052284e-02
 -6.9122052e-01
 -3.4325436e-01
  4.3689549e-02
 -3.0836797e-01
  6.9305845e-02
  4.5386381e-02
 -1.0448898e-01
 -7.6447423e-03
  1.0213513e-01
  8.6418968e-01
  2.6658741e-01
 -2.5741327e+00
  2.1804707e+00
  1.1197352e+00
 -3.4719706e-01
 -5.7518959e-02
  5.9085751e-01
 -2.5121462e-01
 -5.4288977e-01
 -7.9096103e-01
 -1.3325769e-01
 -7.5349331e-01
  8.5266680e-01
  9.6977162e-01
 -3.8855603e-01
  3.6977899e-01
 -8.9814562e-01
  1.4955097e+00
  9.0755671e-01
  7.2055829e-01
 -5.3119189e-01
 -5.6810987e-01
  2.3282078e-01
  3.0941951e-01
 -5.4888612e-01
 -8.9288849e-01
 -2.4961078e-01
 -6.2659616e-03
  1.0337968e-01
  1.9674273e-01
  2.8578034e-01
  1.9647366e-01
 -1.1939000e-01
  1.1099530e-01
 -5.8053935e-01
 -2.3333852e+00
 -2.6588640e+00
  1.0526799e+00
 -1.0595819e+00
  2.2517847e-01
  6.5596563e-01
  3.1771079e-01
 -3.6171040e-01
  3.2036775e-01
  8.5302383e-02
  2.3870809e+00
  1.1913805e-01
 -7.5509745e-01
  9.4999641e-01
  2.9689780e-01
 -5.6905788e-01
  4.5737103e-01
  6.4811325e-01
  6.3542753e-01
 -1.3139908e+00
 -9.5031530e-01
  5.3897202e-02
  1.5984614e+00
  9.4692540e-01
 -1.2935810e-01
  1.2747172e-01
  1.3024192e-01
  5.3161349e-02
  1.7110665e-01
  2.4197796e-02
 -1.8986493e-01
  2.2611876e-01
  8.8432923e-02
  1.7378114e-02
  1.0251205e+00
 -1.0753653e+00
 -3.3356187e-01
  7.3426813e-01
  1.0007374e+00
  4.4186902e-01
 -2.2314636e-01
  4.2087623e-01
 -1.2615773e-01
  3.0166227e-01
  2.6499650e-01
 -9.7150132e-02
 -1.0804530e-01
 -2.6879010e-01
  4.0609837e-01
  1.3264477e-01
 -1.3433148e-01
  2.1934175e-01
 -4.0144795e-01
  3.7874725e-01
 -2.8961554e-01
 -2.6014021e-01
  1.2245534e-01
 -4.8335889e-01
  5.7065785e-01
 -1.3718325e-01
 -2.5175855e-01
  3.1380740e-01
 -9.2455447e-02
  1.8069640e-01
  1.3251211e-02
 -1.6007805e-01
  1.3761254e-01
  1.4081703e-01
  3.1144779e-02
 -1.1776109e+00
 -3.2983284e+00
 -2.0047925e+00
 -2.8322765e-01
  8.8366354e-01
  1.7572276e-02
  4.8271650e-01
 -3.1641862e-01
  5.3910524e-01
  4.0544617e-01
 -1.0261087e-01
  1.5672325e+00
  7.6425314e-01
  4.5894736e-01
  7.7912188e-01
 -7.8984630e-01
  2.0955576e-02
  4.7748765e-01
  2.9568151e-01
  9.6620625e-01
 -1.3457651e+00
  1.6810624e-01
  8.5183120e-01
  1.1044930e+00
  6.2296575e-01
  3.5257138e-02
  7.4434131e-02
  2.9649794e-01
  2.1878538e-01
  2.2903650e-01
  1.4610736e-01
  4.0284646e-01
 -9.5159739e-02
 -7.5526671e-03
 -3.9845195e-02
  1.5620917e-01
 -4.8411575e-01
 -8.7863594e-01
 -3.7103453e-01
  1.6890305e-01
  5.6000282e-03
  1.2450241e-02
  8.6056247e-02
  1.5163451e-01
  1.9370262e-01
  1.0903288e-01
 -1.5390339e-01
  3.4209978e-02
  8.2156122e-02
  1.4659834e-01
 -2.1416493e-02
  4.7326437e-01
 -1.9772658e-02
 -1.4725918e-01
  3.3527281e-02
 -7.1015231e-02
  4.1454017e-02
  3.8347926e-02
 -2.0041799e-02
  6.6441752e-02
  1.1516439e-01
 -2.2819701e-01
  6.4777687e-02
  8.5341476e-02
  1.9821005e-01
  7.1100973e-02
 -1.9648811e-01
 -5.7858042e-02
 -3.7559278e-02
 -2.6940586e-02
  8.9144938e-02
 -2.2938293e-01
 -2.3779182e-01
  5.0406826e-01
  1.4601889e-01
 -9.7729273e-02
  1.3420029e-01
  2.4127133e-01
  1.5538246e-03
  1.5431216e-01
  2.0197132e-01
  7.0998229e-02
 -2.6890868e-02
  2.0905358e-01
  2.5533092e-01
  1.2764408e-01
 -3.8117930e-01
  2.7757278e-02
 -2.8172800e-02
  1.0812500e-01
  7.6109827e-02
 -1.7101705e-02
  2.4012348e-02
 -3.5333849e-02
  1.5890406e-01
  2.7487358e-02
 -8.1752203e-02
  1.3974237e-01
  1.4144583e-01
 -7.1402118e-02
 -3.7558135e-01
 -4.0319070e-02
 -1.4279714e-01
  7.0710361e-02
 -3.6481712e-02
  6.8565950e-02
  1.8677045e-01
  7.5185679e-02
 -6.4309657e-02
 -1.1779670e-01
  1.5663542e-01
  5.0414599e-02
  2.4591671e-02
 -2.4994468e-02
  3.6798581e-02
 -4.0154893e-02
  1.6606430e-02
 -4.8569478e-02
 -1.8768419e-01
 -4.9241990e-02
 -4.3284010e-02
  1.8220246e-02
  9.6264770e-03
  9.0060579e-03
 -5.8144700e-02
  1.9873861e-02
 -3.4193020e-02
  7.0337076e-03
 -3.1021286e-02
 -1.5683928e-01
  1.8654432e-02
  2.2156784e-01
 -2.2557011e-02
 -1.2540078e-02
  5.0143362e-03
  6.2464081e-02
 -3.7804660e-03
  2.5320757e-02
  8.3139293e-02
 -2.6756138e-02
 -2.1951632e+00
 -6.0516520e+00
 -1.6744224e+00
 -4.5610848e-01
 -1.0679215e+00
  4.3014351e-01
 -5.2336532e-01
 -1.6918831e-01
 -1.0141656e+00
 -2.8318819e-01
 -2.7641943e-01
 -1.7101098e+00
  2.5145185e-01
  2.8148863e+00
  1.6365953e-01
  1.2501545e+00
  9.3013215e-01
  4.4497108e-01
  1.7171626e+00
 -3.1530142e-02
 -9.9421956e-02
 -8.0216408e-01
 -7.7124164e-03
  1.7752997e+00
  6.3271672e-02
  3.8957918e-01
  4.6385419e-01
 -1.2415519e-01
 -3.0320260e-01
  7.3489062e-02
  1.2896505e-01
 -2.1276073e-01
  8.8595442e-02
 -3.4980896e-01
 -4.8170060e-02
  2.5831144e+00
  1.9194318e-01
 -1.7393309e+00
  3.2728500e+00
  1.0148664e+00
  2.0863982e-01
  5.1170051e-01
  7.8734034e-01
  8.3075881e-01
  3.6969900e-01
  2.0661813e-01
  3.7106910e-01
 -9.9616712e-01
  3.9663965e-01
  7.1366805e-01
  1.7903867e+00
 -4.8393674e-02
  1.8515341e+00
 -5.3187037e-01
  5.3941011e-01
  1.2754921e+00
  1.0692649e+00
  4.2486792e+00
 -9.9596453e-01
  8.4870046e-01
 -2.3748337e-01
  5.4264134e-01
  3.6728254e-01
 -1.8026079e-01
  2.1725675e-01
  3.2641175e-01
 -1.8827644e-01
  9.3828581e-02
  3.8036844e-01
 -1.5296380e-01
 -1.1628460e+00
 -3.6111569e+00
 -3.0308442e+00
  8.7777710e-01
  5.3499192e-03
  4.7294185e-01
  2.0322496e-01
 -4.1323420e-01
 -2.3511526e-01
  4.9843198e-01
 -1.3275557e+00
  1.7016518e+00
  6.5112084e-01
  1.8713433e-01
 -5.0347412e-01
 -9.4513476e-01
 -8.0075525e-02
  3.1056643e-01
  5.4183509e-03
  7.9051495e-01
 -5.1457983e-01
  3.3654198e-01
 -1.6729708e+00
  7.1956462e-01
 -4.7250297e-02
 -3.0874116e-02
 -4.7601473e-02
  2.2591241e-01
 -2.9335025e-01
 -7.7438402e-01
  6.1301287e-02
  3.8867933e-01
 -9.1203652e-02
  4.4687353e-02
  1.5148845e-01
  1.7946591e+00
  1.8339809e+00
  2.4494584e+00
 -1.2150210e+00
 -2.2576990e-02
 -1.2563904e-01
  8.0607986e-01
 -2.4943271e+00
 -3.6435187e-02
 -8.8290328e-01
 -5.3923273e-01
  2.5140804e-01
 -1.8831084e+00
  1.6476557e-01
 -7.7622592e-01
 -6.2716424e-01
  3.0734274e-01
 -2.1168420e+00
  8.5494989e-01
 -1.2056451e+00
 -1.6509064e+00
  6.5363133e-01
 -1.0615166e+00
  7.8626627e-01
 -1.5770106e+00
 -2.2713576e-02
 -8.0911100e-01
 -1.3221842e-01
  2.0637484e-01
 -2.5342846e-01
 -1.5098283e-01
 -2.2490136e-02
 -3.3836889e-01
 -1.1015075e-01
 -1.3783647e-01
 -2.0847577e-01
  6.0481811e-01
  7.2115719e-01
 -1.3864444e-01
 -4.2799863e-01
 -1.8642130e-01
  4.4792241e-01
 -3.6422086e-01
 -1.1514577e-01
 -9.4950390e-01
 -6.9877885e-02
  3.7027007e-01
 -1.6657779e-01
 -1.7769782e-01
 -3.6242691e-01
 -4.1521436e-01
 -5.7089490e-01
 -4.7895437e-01
  8.1969917e-02
 -2.7252904e-01
 -1.9135185e-01
 -3.6708030e-01
 -2.5877246e-01
  1.4064337e-01
  1.5717659e-03
  2.0784954e-02
  1.3485199e-01
 -1.3199383e-01
 -2.7921230e-02
 -1.8308088e-01
 -3.7527010e-01
  4.0619135e-02
 -5.6916466e-03
 -7.9344057e-02
  1.5891042e-02
 -4.5526963e-02
  5.1259214e-01
  1.2454242e+00
 -3.6161345e-01
 -9.9429375e-01
 -7.6341160e-02
 -2.0535645e-01
 -3.9815357e-01
  1.2767863e-01
 -1.7056659e-01
 -1.2627546e-01
 -6.8720303e-02
 -3.0171198e-01
 -3.0521041e-01
 -1.5304425e-01
  3.6396280e-01
 -3.4605137e-01
 -3.0279635e-03
  7.7981627e-01
 -2.6870638e-01
  3.3809623e-01
 -9.4665214e-02
 -4.8435733e-01
  4.4553345e-01
 -3.6937514e-01
  1.0771409e-01
  1.9336157e-01
 -2.2096021e-01
 -9.7165881e-03
 -2.4962550e-01
 -4.7917534e-02
 -3.3022378e-02
  3.1872232e-02
  9.3631864e-02
  4.9134132e-02
  2.7975151e-01
  2.1171083e-01
 -7.4315435e-01
  1.2322765e-01
  1.2561704e+00
 -9.2775792e-02
 -1.1976613e-01
 -6.8867832e-02
 -1.3329205e-01
  1.6604595e-01
  3.7757054e-02
  2.2967312e-01
  3.5331222e-01
  5.8819985e-01
  2.5944814e-01
 -3.7235925e-01
  7.6273143e-02
  3.3598196e-02
 -2.9846993e-01
  2.9881501e-01
  5.4729033e-02
 -1.2789050e-01
 -3.4191614e-01
  6.3814664e-01
  2.4686126e-02
 -1.2048050e-01
 -2.7951107e-03
 -1.2537736e-01
 -9.6259631e-02
 -5.0030921e-02
 -7.0161517e-03
 -2.3046568e-02
  8.9170665e-02
 -3.4357810e-01
 -5.1821042e-03
  3.3016229e-01
 -4.9101193e-02
  2.0263548e-01
 -5.5899519e-02
 -4.6969198e-02
 -5.4945517e-02
  4.0345511e-01
  3.5207730e-02
 -3.5460927e-02
  7.5744964e-02
 -8.0225237e-02
  2.4871947e-02
 -5.9532072e-02
 -7.3785424e-02
 -7.3402621e-02
 -2.5738066e-02
  9.0626024e-02
 -1.3073272e-01
  4.0636245e-02
  4.6854741e-03
 -1.3043934e-02
 -5.6724358e-02
  1.7835875e-01
  2.3029458e-02
 -1.1919736e-01
  7.5690143e-02
  7.9618104e-02
 -3.2542508e-02
  3.6637664e-02
  6.2740326e-02
 -1.2661886e-01
  1.4605840e-01
  1.2461051e-01
  2.5712588e-01
  1.1434367e-01
 -3.8655279e+00
  3.4069359e-01
  1.3138703e+00
 -1.1536670e+00
 -1.8400694e+00
  5.0560302e-01
 -1.6820332e-01
 -7.2009218e-01
 -3.7174034e-01
 -6.1451769e-01
  2.7736399e-01
  1.3767031e+00
  3.2398203e-01
  5.9440702e-01
 -1.2509344e+00
 -5.5634719e-01
  6.8100661e-01
  3.9863044e-01
  1.0414898e+00
 -8.6307359e-01
 -4.4994673e-01
  2.1762075e-01
 -7.6820391e-01
  9.7086072e-01
 -1.8747904e+00
  3.9098015e-01
  2.8665397e-01
 -6.6112053e-01
 -4.6709605e-02
 -3.5659510e-01
 -4.9247380e-02
  4.5262766e-01
 -2.0831305e-01
  7.7199429e-02
 -9.0239592e-02
  7.0111454e-01
 -2.3011951e+00
 -7.9311186e-01
  1.6526982e+00
 -1.2987273e+00
  7.4044508e-01
 -1.0555658e-01
  7.6824123e-01
 -6.8085450e-01
  1.5533467e-01
 -7.5855039e-02
 -1.9769143e-01
  2.1363108e+00
  1.1058247e+00
  5.4750383e-01
  7.1107656e-01
 -2.3024353e-01
  1.6905534e+00
  8.3458424e-01
  3.5087767e-01
  9.1381848e-01
  1.9660480e+00
  7.5232625e-01
  1.3707235e+00
  8.0955815e-01
 -2.4315444e-01
  3.3363640e-01
  5.7514262e-01
 -3.1919968e-01
  1.9187801e-01
 -5.4908190e-03
  1.6962148e-01
  2.7366912e-01
 -2.6386118e-01
 -1.7268510e-01
 -9.7678173e-01
 -3.2092154e-01
  2.6134152e+00
 -1.2705435e+00
  1.6254036e+00
  2.1524961e-01
 -1.5712576e+00
 -2.1890070e-01
 -4.7365159e-01
 -6.8329335e-03
  9.9598312e-01
  1.0468781e+00
  1.0263540e+00
 -1.8845236e+00
 -7.6032770e-01
 -9.5682931e-01
  2.5327465e-01
 -7.1086699e-01
  1.9180140e-01
 -9.7865053e-02
  5.5819787e-02
  5.1182127e-01
 -7.0747918e-01
 -3.8153929e-01
 -9.3612617e-01
  6.0060376e-01
  1.4494124e-01
 -2.8035888e-01
 -5.5436552e-01
 -3.5272148e-01
 -7.6109536e-02
  1.2238134e-01
  1.0070494e-02
 -1.8896846e-01
 -1.7477740e-01
  3.0225317e+00
  2.8438704e+00
  2.7865281e+00
 -8.4849769e-01
 -1.0460368e+00
  5.9878355e-01
  7.1214449e-01
 -6.1524624e-01
 -1.3525193e+00
 -7.4987525e-01
 -3.0741123e-02
  1.0235929e+00
 -8.6170614e-01
 -4.7429547e-01
  2.8416428e-01
 -1.1024168e-01
 -1.1430575e+00
 -5.8241558e-01
 -4.9886411e-01
 -1.1259663e+00
  4.2044884e-01
 -1.4309782e+00
 -3.5247815e-01
  3.3690593e-01
 -1.2632078e+00
 -2.2091163e-02
  8.9280508e-02
  2.9765446e-02
 -8.1583500e-02
  2.1597226e-01
 -1.9869903e-01
 -2.8177637e-01
 -1.0355895e-01
 -7.7134386e-02
  1.7038053e-01
 -4.0768433e-02
  9.6907145e-01
  8.1200701e-01
 -1.2922315e-01
 -2.5908273e-01
  2.0264648e-02
 -1.6285668e-01
 -7.6018468e-02
  3.9760672e-02
 -1.5504272e-01
 -3.1716131e-02
  5.5700868e-02
  2.5809668e-02
 -1.9711672e-01
 -7.4824407e-03
  1.7626515e-02
  2.6595992e-01
 -1.7678006e-01
 -3.2383587e-02
 -2.1330754e-01
 -2.3172163e-04
  1.9774736e-01
 -1.3096733e-01
 -1.3833874e-01
 -4.2437646e-01
  5.1484045e-02
 -2.4619075e-02
 -1.3165088e-01
 -3.4433015e-02
  9.1614269e-02
 -5.9650213e-02
  3.6306185e-01
 -3.7518617e-02
 -5.0174054e-02
 -2.5195990e-02
 -1.8122892e+00
  7.8125030e-01
 -5.5763835e-01
 -1.8350066e+00
 -2.8757405e-02
 -8.6134148e-01
  1.0015295e+00
 -9.4281685e-01
 -2.6603392e-01
 -1.2956113e-01
 -5.4809219e-01
  1.0441672e+00
 -1.3846353e-01
  8.6435562e-01
 -1.6853231e-01
 -6.2268168e-01
 -5.1825434e-01
 -3.4547257e-01
  3.9278418e-01
 -5.6184149e-01
 -2.7671617e-01
  8.7055907e-02
 -1.0033346e+00
 -3.2760724e-01
 -1.6351813e-01
  8.3247650e-01
 -8.1453072e-03
 -3.2555464e-01
 -6.4753366e-01
 -1.4649528e-01
 -2.1793555e-01
 -5.1157117e-01
 -1.7170045e-01
 -1.0525911e-01
 -1.2902658e-01
  3.3926504e+00
  1.5629556e+00
 -1.5764477e+00
  1.5256366e+00
  3.1612740e+00
 -6.5304720e-01
  1.6397148e-01
  1.1241441e+00
  1.6042560e+00
  1.1738688e+00
  1.2906731e+00
 -9.9669166e-02
  3.4858078e-01
  3.1751049e-01
  2.1119146e+00
  8.4742439e-01
 -1.5985338e-01
  1.5852458e+00
 -7.0579135e-01
  5.6524754e-01
 -1.0436231e-01
 -5.2567863e-01
  1.5505626e+00
 -1.1132365e+00
  1.7270130e+00
 -4.1175070e-01
  6.3695788e-02
  5.5409235e-01
  1.4941877e-01
  2.3480397e-01
  2.7119014e-02
 -1.3553810e-01
  1.4620505e-01
 -2.3326669e-02
 -2.2718807e-01
 -2.9954617e+00
 -6.6880894e+00
 -1.3590118e+00
 -6.0282618e-01
 -6.8479396e-02
  3.3730677e-01
  1.7959288e+00
 -1.2554464e-01
  7.8526402e-01
 -5.0019366e-01
  1.1846389e+00
  1.9582820e-01
 -1.7556297e+00
  1.2840950e+00
  4.2338427e-02
  1.5554715e+00
 -1.8327874e+00
 -9.1123945e-01
 -8.5513449e-01
 -1.7661969e-01
  1.4857835e+00
  1.0189061e+00
 -6.8053269e-01
 -4.3008363e-01
  1.8747805e-03
  2.8341660e-01
 -2.3930597e-01
 -5.3690249e-01
  1.7040604e-01
  1.8273868e-02
  1.8280396e-02
  2.2772048e-03
  2.1252828e-03
  6.1439876e-02
  8.1675470e-02
 -3.3553147e-01
  1.1980367e+00
  3.8633919e-01
  4.5397356e-03
 -8.3427453e-01
 -3.5736597e-01
  3.4648839e-01
 -1.3751821e-01
 -3.4846306e-02
 -2.6361233e-01
 -4.1182917e-01
  3.5392668e-02
 -4.9303453e-02
  8.2015879e-02
  1.9723637e-02
  1.4901162e-03
  3.3043614e-01
 -3.4501320e-01
  7.9321516e-01
 -1.0094751e-01
  9.0988576e-02
  2.3623696e-01
 -2.7688000e-01
 -1.0912268e-01
 -1.1872177e-01
  1.9950058e-01
  1.8301857e-01
 -1.0869381e-01
  2.8860752e-02
 -1.9425629e-02
  5.1899838e-01
  1.2654421e-01
 -1.0096139e-01
  1.2078999e-01
  2.1717835e-02
 -3.1327593e+00
 -3.2454038e+00
  1.0353737e+00
 -1.5396376e+00
 -7.5222540e-01
 -1.0866575e+00
 -1.1997291e+00
 -3.0774045e-01
 -2.2538674e-01
 -7.2267127e-01
 -1.1907148e+00
 -7.7076691e-01
 -1.9069262e+00
  7.3649567e-01
 -9.5417136e-01
 -3.3691540e-01
 -1.7691745e+00
 -1.4290588e+00
 -9.0042961e-01
 -1.8769336e-01
  1.4846480e-01
  1.5715161e-02
 -5.2043563e-01
 -1.1062685e+00
 -1.4537781e+00
  5.6971419e-01
  1.5620598e-01
 -4.7261468e-01
 -4.4959190e-01
 -1.4356394e-01
 -7.1551070e-02
 -2.4955647e-01
 -2.5790644e-01
 -7.0160031e-02
 -8.6719811e-02
 -1.3856910e+00
  6.5539134e-01
 -3.9775199e-01
 -1.3430785e+00
  1.5090320e-01
  1.4547688e-01
  4.8895010e-01
 -5.6334966e-01
 -4.8303777e-01
  1.4953506e-02
 -5.8320463e-01
  1.7292917e-01
 -2.7408555e-01
  5.7500911e-01
 -5.3296597e-03
 -1.4072643e-01
  1.4176121e-01
 -3.7517625e-01
  3.3440834e-01
 -7.1459663e-01
 -2.6145649e-01
  8.9106584e-01
 -6.2754089e-01
 -4.7100827e-01
 -4.5672497e-01
  2.8080845e-01
  9.1461486e-01
 -3.0330724e-01
 -1.0578268e-01
 -3.6528829e-02
  1.4688740e-02
  3.5963792e-01
  3.5822511e-02
 -1.1962482e-01
  9.6775789e-04
  6.7445284e-01
 -3.0316293e-02
 -4.2096254e-01
  3.8525096e-01
  1.8803481e+00
  2.1674533e-01
 -8.9403594e-01
  1.1155639e-01
 -2.4781406e-01
  1.6777688e-01
  2.1745801e-01
  7.5866246e-01
  7.4177080e-01
  4.7683442e-01
  1.3913278e-01
 -8.0311522e-02
 -1.0925872e+00
 -1.8248706e-01
  5.0285721e-01
  1.6194692e-01
 -1.2257393e-01
 -3.7330851e-01
  1.3711923e-01
 -7.9878606e-02
 -4.3956685e-01
 -2.5559029e-01
 -8.2775056e-01
 -4.3967970e-02
 -4.4873841e-02
  4.2884029e-02
  3.6126968e-02
  7.7514119e-02
  7.8387938e-02
 -1.4875362e-02
 -9.7637415e-02
  1.3431810e-01
 -6.0462683e-01
 -3.6140758e-01
  4.0459657e-01
  3.3669627e-01
  5.2973926e-02
 -1.1943698e-01
  1.1981184e-01
 -1.0037412e-01
  2.7449286e-01
  2.2325408e-01
 -2.0072107e-01
  3.2784432e-01
 -1.4973092e-01
  8.8315755e-02
  3.1333230e-02
 -6.5259278e-01
 -4.1050863e-01
 -4.9061812e-02
 -4.1330282e-02
 -9.3079388e-02
 -2.2595905e-01
  1.5137064e-01
 -6.3817002e-02
  1.5584312e-01
 -1.6011386e-01
 -4.3810558e-02
  1.6651992e-01
  1.2295520e-01
  4.3332246e-01
 -2.3368265e-02
  1.9431399e-01
 -6.0842419e-01
  1.9996762e-01
 -1.2464371e-01
  1.7338163e+00
  1.4759747e+00
 -1.7575533e+00
  1.3488771e+00
  7.9890028e-02
  3.4422793e+00
 -1.5047454e+00
 -8.2154626e-01
 -6.9814849e-01
  1.8050317e-01
 -7.3297477e-01
  3.0799661e+00
 -1.3552194e+00
  5.6300217e-01
 -3.0757913e-02
 -1.1170427e+00
  1.1227403e+00
  2.5482389e-01
  1.2897553e+00
  1.2974577e+00
 -3.0708172e+00
 -6.2930739e-01
  1.3102995e+00
 -1.4450881e-01
  2.4384668e-01
  4.1848904e-01
  3.9595950e-01
  8.9403570e-01
 -1.2350868e+00
 -5.8457422e-01
 -1.3259450e+00
 -1.2525613e+00
  2.6415160e+00
  4.3584973e-01
  3.1718120e-01
  1.0035121e+00
  5.1623279e-01
  1.4105345e-01
 -2.5217412e-02
 -7.0204055e-01
  1.1470912e+00
  1.1588212e+00
 -1.1287146e+00
 -2.5536835e-01
 -2.0965026e-01
  4.2061609e-01
 -1.1074580e-01
 -9.8069704e-01
  4.1195714e-01
 -9.3513632e-01
 -1.3668149e+00
 -9.7457506e-02
 -1.5921043e+00
  8.9037049e-01
 -9.3400943e-01
 -2.6249981e-01
 -5.5901361e-01
 -6.1559653e-01
  5.1525015e-01
  1.5997256e-01
  2.5726464e+00
 -2.1881980e-01
 -2.4840832e+00
 -3.9994886e+00
  4.1639686e-01
  5.1017207e-01
  1.1753591e+00
  6.3394433e-01
 -1.2206629e-01
  2.6511819e+00
 -4.6714777e-01
  1.3654302e+00
  2.8112960e+00
  1.2028916e-01
  3.3163926e-01
 -2.2426632e-01
  1.1500622e+00
  4.4497922e-01
 -1.0677280e+00
  2.7558420e+00
 -6.0411035e-03
 -6.7490079e-02
  8.6751658e-01
  7.0305473e-01
  1.7147596e+00
  2.9194975e-02
  7.1220733e-02
  1.0974227e-01
  8.6912966e-01
  6.1018544e-01
 -1.1536370e-01
  2.4955213e-01
  3.9065272e-02
  4.3240659e-02
  9.8336115e-02
 -4.5784841e+00
 -1.2581218e+00
  8.3492094e-01
  1.3975810e+00
 -1.8127099e-01
  6.2082350e-01
  3.1506962e-01
  3.7332508e-01
  2.3024127e+00
 -2.0971502e-01
  1.2478861e+00
  5.4474586e-01
 -1.4599458e+00
  1.0832076e+00
  1.9378579e-01
 -3.1114790e-01
 -4.7837061e-01
 -5.2741647e-01
  1.1970838e+00
  8.6985308e-01
  7.4140584e-01
  6.9570586e-02
  3.7040362e-01
  1.9872677e+00
 -9.0533382e-01
  2.3476632e-02
 -3.3332533e-01
 -4.3986753e-01
 -5.0868201e-01
  4.7764149e-01
  1.6853821e-02
  2.6576430e-01
  1.4911202e-01
  7.8944987e-01
 -7.2809872e-03
 -2.9635923e+00
 -4.9920034e-01
 -1.4810416e+00
  2.2859340e+00
  9.8066324e-01
  1.1694679e-01
 -1.0347944e+00
 -9.7737288e-01
 -5.9572273e-01
 -5.6933713e-01
 -1.7216214e+00
 -1.6654643e+00
  1.6495994e+00
 -1.9312319e+00
  3.3316733e-03
 -1.1612709e+00
 -1.0143622e+00
 -4.9656177e-01
 -1.7729424e+00
 -8.7787139e-01
 -3.8893420e-01
 -5.0772369e-01
 -1.1090791e+00
 -2.2158550e-01
 -1.1981381e+00
 -2.8760171e-01
  3.9559746e-01
 -1.3435974e+00
 -7.7138275e-01
  5.2656847e-01
  1.0736529e-01
  2.9955331e-02
 -7.9535961e-02
  7.9741472e-01
  1.5943697e-01
 -1.0034220e+00
  4.7047696e-01
 -1.8726038e+00
  8.6864308e-02
  1.5488937e-01
  1.9093883e-01
 -1.7550175e-01
 -9.7058922e-01
 -1.1990705e+00
 -9.5427918e-01
  8.9053041e-01
  5.7798851e-02
 -9.0001190e-01
  1.9297986e-01
 -1.1782815e-01
  3.3113652e-01
 -1.0747902e+00
 -2.4960611e-02
 -1.4511244e+00
 -2.7180019e-01
  1.2680141e+00
  1.7610987e-01
  4.3939155e-01
 -3.7204015e-01
 -9.8690575e-01
  1.1737434e+00
  2.8967755e-02
  5.3127319e-01
  2.1889133e-02
 -2.7992406e-01
 -9.3667619e-02
  7.2811119e-02
  7.7057496e-02
  1.7157409e-01
  3.4906796e-01
 -1.8241360e+00
 -6.8809193e-01
  1.1929412e+00
  9.9105889e-01
 -5.0040507e-01
  2.6550922e-01
 -9.3094580e-02
  1.9803490e-01
  9.8993713e-01
 -2.5012750e-02
  4.7404006e-02
  2.4079370e-01
 -3.5084188e-01
 -2.8798187e-02
  6.8295950e-01
 -4.2174857e-02
 -3.2180548e-01
 -1.5379415e-01
 -2.6267031e-01
  3.2029080e-01
  3.0637485e-01
  2.5936085e-01
  5.4890111e-02
  5.8196998e-01
 -2.1879908e-01
 -6.2282607e-02
 -2.0235930e-01
 -3.2052614e-02
 -1.3445055e-01
  7.4682653e-02
  2.3692342e-02
  1.9377416e-01
 -6.5963253e-02
  8.3833441e-02
  9.2364132e-02
  3.4423418e+00
  3.2538922e+00
 -3.4775131e+00
 -2.3111165e+00
 -6.8787146e-01
  4.2031921e-02
  1.0924017e+00
 -7.7516191e-02
 -1.9522284e+00
  1.3801076e+00
 -1.7351853e+00
  7.6768690e-01
  1.3154721e+00
  2.3370238e-02
 -9.7205949e-01
  6.1154258e-01
  1.3066869e+00
  1.7059173e-01
  1.4480437e+00
  1.5819806e-01
 -6.6842300e-01
 -6.2108070e-01
 -4.1123295e-01
 -8.7997794e-01
  1.0027250e+00
 -4.5835584e-01
  9.1599531e-02
  5.7857168e-01
 -2.5324267e-01
 -5.0161946e-01
 -1.6636491e-01
  1.1902358e-01
 -1.4105090e-01
 -1.0020218e-02
 -2.6062202e-01
 -4.2580256e-01
 -2.4972577e-01
 -6.3487422e-01
 -8.3717054e-01
 -4.1605544e-01
 -2.2115391e-01
 -5.8495946e-02
  2.6696441e+00
  1.2437371e+00
 -1.5108608e-01
  6.6561460e-02
 -6.0351485e-01
  6.5126222e-01
  7.4417281e-01
 -1.6523762e+00
 -2.8307983e-01
  2.7126688e-01
  1.4347641e+00
  2.8852579e-01
 -1.8961723e-01
 -3.6387780e-01
 -2.3516295e-02
  6.3299996e-01
 -1.1187196e+00
  1.0701032e-01
 -5.7351565e-01
  3.6514234e-02
 -2.7916839e+00
  1.4000928e-01
 -8.1431319e-04
  6.1257228e-02
  2.3535261e-02
  4.0097737e-01
 -1.3278051e-01
 -1.4214474e-01
  2.6656318e+00
  1.9082217e-01
  7.4703074e-01
 -2.5542943e+00
 -6.6891170e-01
  5.6719661e-01
  1.6091255e+00
  6.8584496e-01
  4.4697261e-01
  3.9350432e-01
 -7.0537424e-01
  3.6395860e-01
  6.4617574e-02
 -1.4673425e+00
  8.2763010e-01
  2.9452887e-01
  1.3459812e+00
 -6.4592600e-01
 -1.1044881e-01
  5.8993399e-01
 -7.8092784e-01
 -4.4396597e-01
 -3.7688786e-01
  8.5730100e-01
  9.3365890e-01
  2.7217406e-01
 -2.9684749e-01
  4.9049172e-01
  5.1192319e-01
  2.6974910e-01
  4.5032203e-02
  2.4393991e-01
 -3.1856699e-03
 -3.5327753e-01
 -5.5330902e-01
  7.5258297e-01
  1.1123495e+00
 -1.1858556e-01
  5.5265433e-01
  1.1048150e+00
 -3.3761442e-01
 -6.5765366e-02
 -4.2768121e+00
 -1.5356950e+00
  4.8201099e-01
 -9.3044490e-01
  5.4591608e-01
 -1.1435899e+00
  1.2774382e+00
 -9.3622124e-01
 -1.0108801e+00
 -6.9930768e-01
 -3.6326256e-01
  3.6799584e-02
  3.7326175e-01
  5.8379245e-01
 -8.2539223e-02
  2.7533257e-01
  1.5437317e+00
  8.1390250e-01
 -1.5691528e+00
 -4.1895788e-02
  1.0411112e+00
 -2.7863617e+00
  6.3316739e-01
 -1.7837493e-01
  1.2268122e-01
  2.0788237e-01
  6.4932817e-01
  2.2961064e-01
  1.2661425e+00
 -4.3181151e-01
  8.5813713e-01
  5.4982030e-01
 -8.6312890e-01
  2.4787080e-01
  2.6176080e-01
  9.0107101e-01
  4.5988685e-01
 -1.2749263e+00
  8.0270791e-01
  9.3299687e-01
 -1.0052000e+00
  2.1896391e+00
  2.7894694e-01
  2.0178460e-01
 -2.9998520e-01
 -6.0094718e-02
 -1.3773700e+00
 -1.6774582e+00
  1.0109311e+00
  5.6020975e-01
  1.8552589e-01
  1.3984703e+00
  2.9088256e-01
  4.6916664e-01
 -3.4182757e-01
  5.5386430e-01
  2.9281384e-01
  9.3827583e-02
 -3.4283947e-02
  6.8604551e-02
  1.4149457e-01
  1.0670321e-01
  5.9792129e-03
  9.5777547e-01
  5.7215279e-01
 -3.0835512e+00
 -1.4704872e+00
 -2.9157877e-01
  2.2940007e-01
  5.1177729e-02
 -2.1056031e-01
 -5.9417862e-01
 -2.5156963e-01
 -3.6530364e-01
  2.1670322e-01
  1.4246031e+00
 -2.5808093e-01
  9.0702258e-02
 -1.9953957e-02
  6.6763180e-01
  5.2527624e-01
  3.3558315e-01
  6.7714709e-01
 -4.4947708e-01
  1.8027036e-01
 -8.1369513e-01
  6.2610769e-01
  8.4074616e-01
  1.3192850e-01
 -7.5473839e-01
 -9.1813219e-01
 -2.4918091e-01
 -5.5544302e-02
  8.7466523e-02
 -3.9546192e-01
 -9.3499012e-02
 -7.9007335e-02
 -8.5080117e-02
 -7.9887950e-01
 -6.8441555e-02
  2.2057775e-01
 -3.4026596e-01
 -1.8233206e+00
  3.6560215e-02
  5.0263780e-01
  6.4972734e-01
  1.7470750e+00
 -2.0650305e-01
 -1.1398085e+00
 -6.6964728e-01
 -3.2438776e-01
 -4.8135141e-01
  4.3502328e-01
 -3.0469802e-01
 -2.5883684e-01
 -5.6753284e-01
  1.8507560e-01
  4.7980618e-01
  1.8543043e+00
  7.1941400e-01
 -1.0072432e+00
  5.3953040e-01
  1.3352824e+00
 -1.3534437e+00
  8.4553529e-03
 -2.2663581e-01
  1.1732163e+00
  3.4312394e-01
 -1.2338873e-02
 -3.2247123e-01
 -6.3990444e-02
  5.0129336e-01
 -1.0101884e-01
  1.2431186e-01
  9.2359936e-01
 -4.3778468e-02
  3.9951155e-01
  1.4320512e+00
 -2.5046581e-01
  3.0322891e-01
  3.5898003e-01
  1.0747023e+00
  9.5320784e-02
 -1.8589547e+00
 -4.0076849e-01
  6.1187989e-01
  2.8144655e-01
 -1.9076640e-02
 -1.0019461e+00
  1.0645394e+00
  3.1653646e-02
  1.3634320e+00
  6.0205412e-01
 -7.0838386e-01
 -6.2390751e-01
  7.7936500e-01
 -7.5016759e-02
 -3.6017719e-01
 -9.7505373e-01
  1.1660724e-01
 -6.1960495e-01
  5.8863368e-02
 -2.4320643e-01
  9.5981367e-02
 -6.8254016e-02
 -2.2957969e-01
 -1.6001370e-02
 -2.6640555e-01
  2.0638615e-01
 -4.0929469e-01
 -2.0826696e-01
 -1.3667821e+00
 -1.8440914e+00
  3.1396925e-01
 -5.9970784e-01
  4.1195223e-01
  1.5254274e-01
 -9.8845124e-01
  6.2714732e-01
  5.1983708e-01
 -1.2398316e+00
 -3.4827209e-01
 -2.8306976e-01
  3.7699461e-01
 -2.1033429e-01
 -5.8758432e-01
 -1.6745135e+00
 -1.5523013e+00
  1.3257798e+00
  1.0162864e+00
 -1.0520904e+00
  4.7767377e-01
 -9.2446715e-01
 -2.2291805e-01
 -1.9309793e-01
  1.9986199e-01
  4.2247036e-01
 -1.6166279e-01
 -6.9402896e-02
 -1.8172580e-01
 -1.5911248e-02
  7.0578409e-03
  2.0474303e-01
  8.6888397e-01
  2.9609573e+00
 -2.0524497e+00
 -1.8281001e+00
 -1.0098559e+00
  3.4134820e-01
  8.0433315e-01
 -3.9608890e-01
 -2.8678950e-02
 -5.0239873e-01
  6.1432594e-01
  3.4867349e-01
 -9.9549162e-01
  1.9286487e-01
  1.0541058e-01
  5.2926177e-01
  4.8120442e-01
 -5.4579222e-01
  3.0285352e-01
  8.6611815e-02
  1.3660290e+00
  3.1748104e-01
  1.3228483e+00
  8.1631944e-02
  1.0316498e-01
  9.4319868e-01
 -2.1627525e-02
  6.7396146e-01
 -1.0550203e+00
 -5.1506728e-02
  2.9447249e-01
  4.0796423e-01
  6.2898539e-02
 -4.4712508e-01
 -1.7833613e-01
  1.2002087e+00
  3.6076742e-01
 -2.2315545e+00
 -1.0834295e+00
  3.2114561e+00
  2.8215078e-01
  3.1346288e-01
 -1.4155915e+00
 -2.8258870e+00
  8.1726438e-01
  1.7057571e+00
 -1.1774986e+00
  5.6089926e-01
 -1.6665097e+00
  4.4712320e-01
  1.1091076e+00
 -1.0770682e-01
 -6.1130732e-01
 -1.7722166e-01
  2.7480701e-01
  5.2742243e-01
  3.6599007e-01
  6.6410698e-02
  1.0119396e+00
  6.4835891e-02
 -4.3898773e-01
  6.2823957e-01
 -2.3900862e-01
 -2.7583346e-01
  4.6328057e-02
 -1.3326751e-01
 -1.5427095e-01
  4.9262468e-02
 -6.0106460e-02
 -2.2317064e-01
  2.5539055e-01
 -1.0150939e+00
  1.0257393e+00
 -7.8318842e-02
 -3.7869174e+00
  1.0846220e+00
  1.7174393e-01
  2.1204779e+00
  1.3818665e+00
 -3.8501936e-01
 -7.8180200e-01
  1.3324287e+00
  6.1057490e-01
  7.1196467e-02
 -4.7071901e-01
  6.9898295e-01
 -3.7979212e-02
  1.4129862e+00
 -7.8067750e-01
 -1.0538583e-02
  1.2797154e+00
  1.1339890e+00
 -1.0208706e+00
  5.6834471e-01
 -7.8231311e-01
  1.7742945e-01
 -4.3738425e-01
 -6.5912342e-01
  4.0186107e-01
  5.4904234e-02
  1.0925806e-01
  1.4242831e-01
  1.8930946e-01
 -4.1790029e-01
  3.3542222e-01
 -1.3708372e+00
  1.5731595e-01
 -2.0560796e+00
 -1.6495659e+00
  5.4716110e-01
  1.0333341e-01
  5.4904377e-01
 -6.8846214e-01
 -3.9133179e-01
 -2.5362704e-02
  1.6028785e+00
  8.3107464e-02
 -4.3909367e-02
  1.5967935e+00
  1.6446265e+00
 -1.3904956e-01
  5.9815806e-01
 -4.0250158e-01
  1.5797292e+00
  7.7896088e-01
 -3.0091256e-01
  2.7673855e-01
 -2.5842571e-01
  1.2927480e+00
 -6.3725269e-01
 -1.5534273e-01
  1.0458024e-01
  5.8874015e-02
 -2.2265632e-01
  6.4574564e-01
  2.7826625e-01
  7.5914119e-03
  1.1643638e-01
 -7.8842528e-02
  8.3729610e-02
  1.9252026e+00
  1.8680785e+00
 -6.8687379e-01
 -2.0259795e+00
 -2.4117851e+00
 -1.7793410e-01
  2.2963281e-01
  1.7993525e-02
  1.3360342e+00
  8.1679392e-01
  1.0673326e+00
  7.6806360e-01
 -5.8551598e-01
 -2.4225397e-01
  1.8019554e-01
 -4.7221619e-01
  1.0533345e-01
 -3.7311599e-01
 -7.0908785e-02
  4.8811308e-01
 -2.2973762e-01
  3.4840050e-01
 -8.2873404e-01
  1.3759606e+00
  6.9267042e-02
  9.6078351e-02
 -9.0672873e-02
  5.2290615e-02
  8.2564317e-02
  9.7231761e-02
 -5.2593481e-02
 -2.6317326e-02
 -1.3118143e-01
  1.0857747e-01
  5.4536700e-01
 -6.0870385e-01
  2.4407040e-01
 -1.7683916e+00
  9.2587340e-01
  1.9605485e+00
  6.0280448e-01
  4.2710409e-01
 -3.6314231e-01
  3.9777350e-01
  5.5487305e-01
 -9.6139900e-02
  6.2593001e-01
  1.9002330e-02
 -5.3754915e-02
  1.4429122e-01
 -1.0181865e+00
 -5.8571059e-01
  4.8125234e-01
 -6.4030588e-01
  1.2016438e+00
 -5.8715743e-01
 -6.4908125e-02
  7.1866721e-01
 -9.4389290e-02
 -8.4630055e-03
  8.0530787e-01
 -2.9174894e-01
 -6.2724495e-01
 -7.8008527e-01
 -2.7700254e-01
 -1.1424492e-01
  1.1607457e-02
 -1.7583272e-01
  3.4507942e-01
 -4.3503486e-02
  2.2590814e+00
  2.4690659e+00
 -7.1361275e+00
 -5.5182843e+00
 -2.3952043e+00
  1.9032511e-01
  2.0542203e-01
  6.5371230e-02
  3.7156442e-01
  1.9152365e+00
  5.5990225e-01
  6.3501680e-01
  2.7092111e+00
  2.3804715e+00
  2.3370595e+00
  9.4687343e-02
  4.2293474e-01
  4.7118229e-01
  1.1753085e+00
  1.1038790e+00
  4.8083916e-01
  1.5589599e-01
  1.5476024e+00
  1.4298595e+00
  1.9420784e+00
 -9.9106774e-02
  3.8961375e-03
 -5.5601913e-02
 -2.9217293e-02
  1.5698992e-01
  6.5154426e-02
  1.8887722e-01
 -5.2550042e-01
 -2.5218761e-02
  6.4163692e-03
  2.3543141e+00
  1.5778910e+00
 -6.7794424e-01
 -3.0486996e+00
 -5.2517629e-01
 -1.0500913e+00
 -4.0958959e-01
  6.2779826e-01
 -5.7329839e-01
 -9.3756783e-01
 -5.5655342e-01
  7.4305737e-01
  6.6244030e-01
  7.9604179e-02
 -2.9228855e-02
 -2.3640537e-01
  1.1705174e+00
  1.2911943e-01
 -4.5061627e-01
 -4.8118040e-01
 -8.0006331e-01
 -1.1280515e+00
 -9.2048991e-01
 -2.0853839e+00
 -1.1828328e+00
  2.7635422e-01
 -3.5887390e-01
  2.4704306e-01
  1.7386696e-01
 -4.8251536e-01
  3.5374839e-02
  2.0367945e-02
 -1.2362026e-01
 -4.4852939e-01
 -2.3117504e-01
 -4.7835973e-01
 -7.5864542e-01
  7.5373471e-01
  2.8308639e-01
  4.9646410e-01
 -1.3969970e+00
 -6.2872477e-02
 -1.9002784e+00
 -2.0566123e+00
  7.9887003e-02
 -1.1862770e+00
  2.2276378e-01
  4.6613109e-01
 -7.7241158e-01
  3.6076304e-01
 -2.3107178e+00
 -2.0661096e-01
  1.1517065e+00
 -1.1851766e+00
  1.9112843e-01
 -2.5773156e+00
 -6.3390517e-01
  2.3192894e+00
 -4.9547946e-01
 -1.1076362e-01
 -5.8848041e-01
 -3.0608374e-01
  6.4973012e-02
  9.1832191e-01
  3.1804317e-01
 -2.6451284e-03
 -1.0880817e-01
  1.2876759e-01
  2.7161129e+00
 -6.4684808e-02
  1.1665496e+00
  2.3224483e+00
 -1.8953704e+00
 -1.8609304e+00
 -1.5467753e+00
  4.6351135e-01
 -7.5442016e-01
  3.4375590e-01
 -4.0484449e-01
 -1.0002065e-01
 -6.2359709e-01
  1.3496572e-01
 -1.5363079e-01
  5.7770804e-02
 -1.8351679e-01
 -5.6171936e-01
  2.0146544e-01
 -6.0360938e-01
 -2.4744283e-01
 -8.2072906e-02
  9.7989041e-01
  1.1996171e+00
  8.9152344e-02
 -8.8430738e-01
  5.8487870e-02
 -1.9252120e+00
  6.8304771e-01
  3.8382167e-01
  1.9297951e+00
  8.9919701e-02
  2.7987912e-01
 -3.9915949e-01
  1.5333276e-02
 -1.7920224e-01
  5.0133413e-01
 -1.9215039e+00
 -9.0741605e-02
  1.2404647e+00
  1.4227860e+00
 -4.7031149e-01
 -6.8518095e-02
 -2.8878754e-01
  1.0206868e-01
  2.7179036e-01
 -4.5990527e-02
 -1.7897217e-01
  2.8817991e-02
 -5.4333323e-01
  5.3423017e-02
  3.7468351e-02
  1.0361290e-01
 -1.8564534e-01
 -1.5418762e-01
 -3.7216353e-01
  3.4868169e-01
 -6.6287197e-02
 -2.3136450e-02
 -1.3125564e-01
 -1.2672034e-01
 -6.8658495e-01
  8.3952107e-02
 -2.0133030e-01
 -9.5712155e-02
  3.3728704e-01
  1.0404803e-01
 -1.8214608e-02
 -1.2120903e-01
  2.3079324e-01
  1.9495720e-01
  1.5965989e-01
 -2.2776914e+00
 -7.8145218e-01
 -6.1984462e-01
  1.0707307e+00
  8.8169795e-01
 -6.1695492e-01
 -1.2690080e+00
  4.2383132e+00
 -6.8944699e-01
 -4.6878389e-01
 -1.0246602e+00
 -5.2293783e-01
 -1.0334070e+00
 -5.2414101e-01
 -1.9200560e-01
 -4.0048704e-01
 -8.6912298e-01
 -6.8109035e-02
 -1.0001200e-01
 -3.0097711e-01
  1.9681575e+00
  5.5456351e-02
  1.2023920e+00
 -8.5624999e-01
 -3.2870653e-01
 -2.4911974e-01
  5.5404961e-01
 -1.0320526e-01
 -8.1635857e-01
 -1.0911798e-01
 -1.6319621e-01
 -5.3847492e-01
  6.9324486e-02
 -2.8179739e+00
  6.6605836e-01
 -1.2656032e+00
  1.0547423e+00
 -7.8851318e-01
 -1.4849863e+00
  9.4229656e-01
 -2.5546327e-01
  1.3423266e-01
  2.7648115e-01
 -7.4421859e-01
  1.3954261e-01
  5.2157682e-01
 -3.6145487e-01
  1.7590745e-01
 -3.6165124e-01
  3.3196319e-02
 -6.7684257e-01
 -4.6230686e-01
 -1.0666952e+00
 -2.1526136e+00
 -5.0979748e-02
  7.1861960e-02
 -6.1078124e-02
  1.6739123e+00
 -1.1473768e+00
  4.6003857e-01
 -5.6012499e-01
 -1.6348679e-01
  8.8169634e-01
  3.6082631e-01
 -1.7401022e-01
  9.6768094e-03
  6.6763543e-02
 -8.3761349e-02
  1.7569005e-01
  1.4107662e-01
 -9.0635008e-01
  1.6530246e-01
 -6.4850873e-01
 -1.0869067e+00
  1.9426137e+00
 -1.1621329e+00
  2.6916838e-01
  4.7971849e+00
  1.2830299e+00
 -1.1084670e+00
 -1.1253405e+00
 -1.8815915e-01
 -1.9587995e-01
  1.8502883e+00
 -2.6779883e+00
  1.7744665e-01
  6.9501299e-01
  2.9643476e+00
 -4.5152763e-03
 -7.9300201e-01
  1.6079268e+00
  8.5144289e-02
  3.2072110e+00
 -2.4595661e-01
 -2.0252485e+00
  2.5085955e+00
  2.0583928e-01
  4.8729953e-01
  9.9825257e-01
 -3.4427464e-01
 -1.5003480e-01
 -1.4293937e-01
  8.4696524e-03
 -7.9333001e-01
  5.6566425e-02
  3.4203663e-01
  5.5758840e-01
 -4.9698748e-02
  5.2957416e-01
 -1.4684992e-01
  1.4298700e+00
 -5.8178581e-02
  2.1500623e+00
 -1.7761253e+00
 -3.6918253e-01
  1.3572743e+00
 -1.1757251e+00
  2.6923174e-02
 -1.3021399e+00
 -7.4722290e-01
  2.6985822e+00
  3.1402022e-01
 -3.5043469e-01
 -6.0256046e-01
 -3.7574198e-02
  1.0972002e+00
 -1.0010086e+00
  1.1240088e+00
 -1.4998959e-01
 -9.1560644e-01
  7.6490510e-01
  2.1986504e-01
 -2.2164029e-01
  7.6573886e-02
  4.0987828e-01
  1.1449493e-01
  2.3806329e-01
 -1.4447670e-01
  7.4565887e-01
 -2.6391539e-01
 -8.4884220e-01
  1.6159815e-01
 -5.9967762e-01
  1.3590126e-01
 -5.4574704e-01
  5.8187848e-01
  8.2539238e-02
  6.9668722e-01
  2.7934924e-01
 -1.5746032e-01
  9.1410965e-01
  1.8718588e+00
  3.4609110e+00
 -2.9384154e-01
 -6.3852333e-02
  1.7463249e+00
  5.3302640e-01
  2.5176761e+00
  9.8649269e-01
 -3.5224044e-01
  4.9759182e-01
 -2.1639738e+00
  1.1338350e+00
 -3.5224876e-01
  6.7967188e-01
  1.0785689e-01
 -1.1761078e+00
 -6.9798380e-01
  4.1432638e-02
 -6.0507286e-02
 -8.3442815e-02
 -3.5905206e-01
 -2.8721213e-02
 -7.5917566e-01
 -5.6101364e-01
  6.9129586e-02
  1.7545110e-01
 -1.3362064e+00
  1.9555583e+00
  5.0890529e-01
  1.3612657e+00
  2.9097092e+00
  2.1334088e+00
 -2.4934294e+00
 -4.1328377e-01
  2.4822769e+00
  1.3145252e+00
  1.5353564e+00
 -1.6743572e-01
  4.1527939e+00
  7.8069711e-01
 -1.3062862e+00
  1.9997250e+00
  4.8993831e+00
 -1.9134806e-01
  2.1275946e-01
  2.8690774e+00
 -1.2248200e+00
  3.8133929e+00
  2.4896979e-01
 -2.2092881e+00
  1.8274916e+00
  2.7463868e+00
  1.3833442e+00
  1.8602090e+00
 -1.0334533e+00
  4.6536738e-01
 -5.4642779e-01
 -3.6502025e+00
  3.0503726e-01
 -5.3070939e-01
 -1.9516697e+00
  7.6561660e-01
  7.0379295e+00
  3.6419562e-01
  5.9485358e-01
  7.1165150e-01
 -9.0803528e-01
  3.1810227e-01
  3.8373559e+00
 -5.1539922e-01
  2.0870256e+00
  4.2082629e-01
  1.5635309e+00
 -4.8160887e-01
 -1.3846620e+00
  9.2539233e-01
 -3.9834855e+00
  4.3690825e+00
  1.5703888e-01
 -4.3174534e+00
 -1.4800735e+00
 -3.9450750e+00
 -3.1340404e+00
 -3.0625582e+00
  5.1564717e-01
  1.8609893e+00
 -7.5250578e-01
 -1.1542132e+00
 -2.8449399e+00
 -1.7041552e-01
  3.3249766e-01
 -1.0204555e+00
  4.8641765e-01
 -1.2696050e-01
  1.2853433e+00
 -3.6548540e-02
 -3.9540392e-01
 -8.0866523e-02
 -5.6453669e-01
  8.0654234e-01
 -1.3626902e+00
 -1.5272011e+00
  2.7252831e-03
  1.0527140e+00
  1.1595927e+00
 -1.7393682e+00
 -1.2732310e+00
 -6.2312394e-01
 -1.1375946e+00
  1.7648077e-01
  2.4406788e-01
 -5.9874352e-02
  5.7525039e-01
 -1.2922467e-01
 -3.0402765e-03
  1.0404167e-01
 -1.6096979e-01
 -2.5750303e-01
  1.3174576e-01
  6.9524550e-01
 -7.3347104e-01
  3.0902314e-01
 -3.7885162e-01
  1.3527509e-02
 -6.1454616e-02
  1.6203521e-01
  2.9816588e-02
 -6.9845632e-02
 -9.6627012e-02
 -1.9423103e-01
  2.0229305e-01
  1.9688237e-01
  4.9381353e-02
 -2.6475495e-01
 -5.7436891e-02
  6.8760887e-02
  1.4697032e-01
  3.4570567e-02
  1.0674115e-01
  2.6177956e-02
  2.5279716e-01
  1.7256628e-01
 -7.6096237e-02
 -7.3820554e-02
  3.2067773e-01
 -9.6885227e-02
  9.6530870e-02
  8.2781754e-02
  5.0126129e-01
 -3.3315852e-02
  1.3934981e-02
  4.9625725e-02
  1.4255786e-01
  2.0700546e-01
 -4.1975707e-01
  8.6607635e-01
 -5.0087458e-01
 -4.2628741e-01
  2.3107021e-01
 -1.7691690e+00
  4.7576371e-01
 -8.7603372e-01
  2.2400815e+00
 -5.8705431e-01
  2.2789069e-01
 -2.8724429e-01
  7.6308876e-02
  5.8949041e-01
  3.7175971e-01
  2.1583506e-01
 -1.1522421e+00
  8.9137006e-01
  7.6088536e-01
 -3.5567737e-01
  2.3160195e-01
 -1.2743500e-01
 -1.0431322e-03
  1.6186419e-01
  1.7191004e-02
 -1.9325516e-01
  2.6410738e-01
 -2.1774031e-01
 -8.6802348e-02
  6.0046982e-02
 -1.0930885e+00
 -4.5516053e-01
 -6.8027020e-01
  2.1352079e-02
 -6.5577179e-01
 -6.7429662e-01
 -2.0059516e+00
  1.1427858e+00
  2.3578541e+00
  4.3169494e+00
  1.3200334e-01
 -1.0845146e-01
  1.7685710e+00
 -4.7650859e-01
 -7.6534039e-01
 -3.3214465e-01
  5.1961136e-01
  1.1318237e+00
  2.7518439e-01
 -6.4413434e-01
 -1.0574138e-01
  4.7016579e-01
  5.2588332e-01
 -1.9501366e-02
 -2.8760010e-01
 -1.5501525e+00
  1.5689908e+00
  6.5789744e-02
 -6.3191462e-01
  2.5485051e-01
 -2.9350051e-01
 -1.2060366e-01
  3.8202021e-01
  8.7571725e-02
 -4.4834939e-01
 -6.8340623e-01
  2.3457558e-01
 -3.9620027e-02
  4.9507460e-03
  5.3230576e-02
 -2.3982312e-01
 -1.2729698e-01
  5.0567454e-01
  3.0939403e-01
  1.7521000e-01
  2.1557288e-01
  1.1175502e-01
  2.4378605e-01
  3.3497891e-01
 -9.5598482e-02
 -2.6817146e-01
 -5.3481136e-02
  7.7421203e-02
 -7.2283121e-03
  7.9324558e-02
  2.4744719e-01
 -2.3733591e-01
 -1.0916427e-02
  8.1036709e-02
  2.3134364e-01
 -6.4215791e-01
  2.7216241e-01
  6.2572002e-02
 -1.4788318e-01
 -5.0159898e-03
  1.0289650e-01
 -8.5817553e-02
  3.3629909e-02
 -5.6778342e-02
  1.5978114e-01
 -4.1150600e-02
  9.5287271e-02
  9.8673917e-02
  5.1660448e-02
 -2.1743588e-02
 -4.5363165e-02
 -2.5542897e-01
 -1.1896467e+00
 -8.4683692e-01
 -2.0215519e-01
  2.7769029e-01
 -1.7443220e-01
 -9.3531296e-02
  8.9609697e-02
 -4.8838764e-02
 -4.2070222e-01
 -2.8295612e-01
 -4.4515140e-02
 -8.0909900e-02
 -5.0451452e-01
  4.9808246e-01
 -2.2781493e-01
  3.1197810e-01
  2.4891394e-01
 -5.1447392e-01
 -5.4091115e-02
 -9.5554912e-01
 -1.1602530e-01
 -3.6200616e-01
 -3.2709825e-01
 -1.7327560e-01
  2.5889380e-02
 -6.3322186e-02
  5.9657320e-02
 -9.1355063e-02
  1.2861638e-02
 -1.3745078e-01
 -1.8622547e-01
 -2.2066172e-02
  2.1557012e-03
 -2.6615770e+00
 -4.4165215e-01
  1.2964890e+00
 -2.2020316e-01
  1.4341877e+00
  9.9428749e-01
  6.3759178e-01
  1.7924823e+00
 -2.0713495e-01
  3.1313044e-01
  1.3524059e+00
  5.1941502e-01
  1.3112583e+00
  1.0885337e-01
  6.9765610e-01
 -3.2638654e-01
  5.3844821e-01
 -1.9636980e-01
 -7.0270169e-01
  3.2387862e-01
 -9.0401119e-01
  1.1903102e+00
  2.1315460e+00
 -1.5428118e-02
 -3.8086474e-01
  8.3014250e-02
  3.4656504e-01
 -6.0281507e-03
  2.3512867e-01
 -1.2605488e-01
 -5.7343161e-01
  7.8491226e-02
  2.8292471e-01
  6.7794300e-03
 -8.4705010e-02
  2.5078347e+00
  1.1377355e-01
  3.4266393e+00
 -2.2029917e+00
  2.8276179e+00
  1.5356048e+00
  1.1344475e+00
  5.7750946e-01
 -7.9622762e-03
  3.2860345e-01
 -8.3000690e-01
  2.8590867e-01
 -4.2183512e-01
 -1.1955326e+00
 -4.9638763e-01
  6.6626847e-01
  2.1384877e-01
 -6.2776887e-01
 -6.1526848e-03
 -4.9410442e-01
 -1.1983828e-01
  8.9246660e-01
 -1.7843369e-01
 -3.8062832e-01
 -6.6847646e-01
  1.0311933e+00
  1.6957316e-01
  3.3254018e-01
  4.6278448e-03
  3.7598947e-01
  4.1850373e-01
  1.4999524e-01
 -2.3140633e-02
  3.9552116e-01
  1.3603939e-01
 -7.6276124e-01
 -3.7141702e-01
 -1.1660633e+00
 -2.3503344e+00
 -1.6595036e+00
 -5.8921075e-01
 -1.1758870e+00
 -1.0359083e+00
 -3.6703974e-02
  4.0289938e-01
  1.3470385e+00
 -1.2145220e+00
 -5.2067971e-01
 -2.8008515e-01
 -5.0252229e-01
  1.2206343e+00
 -1.8664807e+00
 -9.2509389e-01
 -2.3623639e-01
 -5.8106631e-02
  7.0003021e-01
 -1.2943742e+00
  4.9944928e-01
 -3.2010257e-01
 -8.7871069e-01
  4.7585970e-01
 -1.9644576e-01
  2.2175367e-01
  1.5393792e-01
 -3.5092194e-02
 -1.4447773e-01
  3.6470997e-01
  7.9802714e-02
 -2.6990986e-01
  5.9967858e-01
 -2.5217121e+00
  7.0011568e+00
 -4.9526758e+00
  1.7720668e+00
  5.9857558e-02
 -5.2888066e-01
  2.7510890e-01
  5.0013280e-01
 -1.0681241e+00
  1.5056123e+00
  9.0010011e-01
  3.9655063e-01
 -1.8523973e-01
  7.7459913e-01
 -1.9272783e-01
  7.6834321e-01
  4.1887254e-01
 -3.3344066e-01
  2.0020123e-01
 -9.4853163e-02
  1.3155623e-02
  1.1655716e+00
  2.1375829e-01
  8.6935930e-02
 -3.3843866e-01
 -5.0903279e-01
  3.1641930e-01
  2.7735427e-01
 -2.9122964e-01
  2.8083652e-01
  1.0972323e+00
 -5.7261086e-01
 -4.1794065e-01
 -1.2588233e-01
 -8.9759773e-01
 -2.4147779e-01
  2.8914836e-01
 -1.0481648e+00
 -7.6890963e-01
 -7.5870478e-01
  3.8322604e-01
  1.7933249e-01
  3.4265932e-01
  5.0591147e-01
 -3.0582523e-02
  7.9867446e-01
  2.4329688e-01
  2.9066628e-01
 -8.8490425e-03
 -5.0202274e-01
 -2.1564838e-02
  9.5690057e-02
  9.6744403e-02
 -3.0867830e-01
  3.1048357e-01
  6.1333545e-02
 -1.2472883e-01
 -9.2551596e-02
 -1.8564370e-01
  2.7985060e-01
  4.6677265e-01
  7.7719361e-02
 -2.1281134e-02
 -1.8035011e-01
  1.3875529e-01
  2.3405476e-01
 -2.3664102e-01
 -1.7941606e-01
 -1.0109695e-01
  1.1977469e-01
 -7.8241181e-01
 -2.1562507e+00
 -1.8721584e+00
  1.5671093e+00
 -1.8014499e+00
 -1.3318441e+00
 -3.5939705e-01
  1.6105793e-01
 -1.6061839e-02
  7.8910220e-01
 -4.2308459e-01
 -9.0441085e-02
  3.3121946e-01
  4.0033099e-01
 -5.4453695e-01
 -5.1570916e-01
 -9.1982865e-01
 -6.6703737e-01
  7.4376172e-01
  1.3302359e-01
 -6.4537513e-01
 -7.6694496e-02
  1.7809453e+00
 -2.4568971e-01
  5.5462229e-01
 -5.1036066e-01
  3.1956407e-01
  1.1570380e-01
  3.4318829e-01
 -1.6870743e-02
 -1.2734985e-01
  2.3254366e-01
  2.5675869e-01
  1.3943075e-01
  2.0247072e-01
 -1.8561298e+00
  7.7278811e-01
  8.6086474e-02
  2.4573388e+00
  7.2577459e-01
 -3.2313696e-01
 -1.8700212e+00
  2.0702346e-01
  1.8903263e+00
 -4.4241089e-01
  7.7773821e-01
  1.3270736e+00
  1.4543525e-02
  3.5138693e+00
 -2.6262847e-01
  1.1327535e+00
  5.3009573e-02
  9.9963027e-01
  5.2400768e-01
 -6.6773224e-01
  2.8966436e+00
  1.0739755e-01
  2.1938336e+00
  3.5598567e-01
 -5.5332410e-01
 -8.4190154e-01
  2.0821223e-01
 -1.9117251e-02
 -7.2384369e-01
 -1.5303501e-01
  1.2622194e+00
  2.9049906e-01
 -2.2829544e-02
  8.0946505e-02
 -4.4607568e-01
 -2.1606164e+00
 -5.9786177e-01
  6.8398857e-01
  2.2988546e+00
 -2.1578748e+00
  6.6901743e-01
 -9.0733379e-01
 -2.2450171e-01
 -8.8975340e-02
  1.0472983e+00
  2.0226803e+00
  2.6479833e+00
  2.3105790e-01
 -1.2522395e-01
  1.2067682e+00
  1.0849508e+00
  6.2112653e-01
  1.5491298e+00
  1.1629213e+00
  3.9828560e-01
 -1.8450346e+00
 -8.0503666e-01
  1.7525426e+00
 -8.0913194e-02
  2.6992717e+00
  7.6586515e-02
 -1.1154528e-01
  8.8377133e-02
  2.2888343e-01
 -2.1235947e-01
  3.8669360e-01
  1.2608458e-01
  1.3433303e-01
 -1.0322562e-01
  2.8181827e-01
  1.1238933e+00
  1.3701392e+00
 -7.6569885e-02
 -4.1865143e-01
  6.4126086e-01
  9.6331978e-01
 -1.2239349e+00
 -3.3294782e-01
  3.1893018e-01
 -1.0708368e+00
 -2.1484417e-01
  1.0140557e+00
  3.9201918e-01
  5.0144583e-01
 -3.6764219e-01
  3.1323338e-01
  8.3932310e-01
  3.0870447e-01
 -1.4516986e-02
  4.3307933e-01
  7.7891493e-01
 -6.9228435e-01
  3.1651604e-01
 -4.7032577e-01
  2.9850367e-01
  5.5306882e-01
 -1.2772038e+00
  5.1992768e-01
  9.8006345e-02
  3.3415399e-02
  1.0264697e-01
 -3.8264337e-01
 -1.1664791e-01
 -1.3797036e-01
 -2.2917241e-01
  1.8651738e+00
  1.4872427e+00
 -6.5479904e-01
 -8.4132558e-01
  2.8410461e+00
 -4.3202186e-01
  5.8263165e-01
 -1.2532079e-01
  1.6980633e+00
 -4.7655335e-01
  2.0173602e-01
  7.0102131e-01
  9.3903922e-02
  8.7743330e-01
 -1.1770064e+00
  7.0922041e-01
 -5.1648867e-01
 -1.1585256e+00
  1.8617599e+00
 -4.1450390e-01
  1.0611331e-01
 -8.9681543e-02
 -1.9683124e-01
  1.0145721e+00
 -7.2572356e-01
 -5.4050249e-01
 -1.0778858e-02
  7.9517001e-01
 -7.6211357e-01
  2.4072213e-01
 -3.5934678e-01
 -3.3701313e-01
 -5.9040534e-01
  8.1253558e-02
 -5.2816850e-01
  4.3465340e-01
  1.3278427e+00
 -2.4974343e-01
  2.5366297e-01
 -7.7312790e-02
  1.2129620e-01
 -8.5069379e-03
  1.1241397e-01
 -3.3302328e-01
 -4.9000002e-02
 -2.7970740e-01
  4.8429701e-01
 -4.0992534e-01
  4.6635240e-01
  9.2689758e-03
  1.9530010e-01
 -2.0008190e-01
  4.1700938e-01
  2.0702192e-01
  4.0500820e-01
  2.5714633e-01
  2.9454571e-01
  1.0557625e-01
 -2.0130429e-02
 -3.6375943e-01
  1.9168141e-01
 -4.7716838e-01
  3.5829151e-01
  2.8781313e-02
  1.5633953e-01
 -4.2970407e-01
 -2.9177728e-01
  2.4233365e-02
  8.8109471e-02
  2.6623065e-02
 -4.0287441e-01
 -4.3728951e-01
  9.8549742e-01
  3.3531153e-01
 -1.8324643e-01
 -9.4794941e-01
 -3.1543750e-01
 -3.8941401e-01
 -1.2191771e+00
 -3.1171426e-01
 -1.3807008e+00
  1.0820975e+00
  4.3787578e-01
 -1.9361893e+00
  1.8939312e-01
 -1.3231242e-01
  4.6106529e-01
 -6.1266065e-01
 -2.4390953e+00
  6.1143893e-01
 -9.3369192e-01
  1.8359460e-01
 -3.6314470e-01
 -1.9988519e+00
  7.7744728e-01
 -1.6418074e-01
  4.1699085e-01
 -4.4689223e-01
  8.9457691e-01
 -4.8780635e-02
 -4.0989494e-01
  1.3971052e-01
 -1.6522621e-01
 -8.7376215e-02
 -4.1773835e-01
  2.0040598e+00
 -3.0388532e+00
  2.9894371e+00
  9.3836856e-01
 -8.9520079e-01
 -2.8523096e-01
 -5.0029701e-01
 -4.9731266e-01
  7.5555205e-01
  1.6773858e+00
 -6.5792674e-01
  3.7838468e-01
 -3.7909102e-02
  1.4801406e+00
  1.0657682e+00
 -1.6772459e-01
 -1.0485820e+00
  2.7880412e-01
  4.6683087e+00
  1.2925782e+00
 -1.7395980e+00
 -1.8492976e+00
  1.4409790e+00
  1.8262719e+00
  1.3399441e+00
 -1.8309336e-02
  2.0010814e-01
 -5.4710262e-02
  1.7135370e-01
 -3.0047378e-01
 -2.0356704e-02
  5.5151384e-02
  4.8582900e-01
  1.0847706e-01
  4.5284191e-01
  2.2152145e-01
 -2.6412313e+00
  3.8282284e-01
 -3.2213769e+00
  3.0967706e-01
 -3.2505065e-01
 -2.5673947e+00
  2.3831922e-01
 -2.4529705e+00
  1.4990305e+00
  1.0053780e+00
 -9.5051193e-01
  9.1239035e-01
 -1.9725037e+00
  1.4416517e+00
  3.0061814e-01
 -5.5699241e-01
  1.3764693e+00
 -1.5500811e+00
  4.3578044e-01
  1.1483195e+00
 -9.3436491e-01
 -3.0068034e-01
 -1.6583729e+00
  8.8344616e-01
 -9.7882605e-01
  1.2017365e+00
  5.4133140e-02
 -2.5046355e-01
 -1.2563181e-01
  6.1738800e-02
 -1.0272273e-02
  2.1172525e-01
 -1.1625016e-01
 -3.3916578e-01
  2.2308014e-02
  2.2469821e+00
 -1.0258060e+00
 -1.6185308e+00
  1.5863435e+00
  8.9697748e-01
 -1.0284077e-01
 -1.6392976e+00
  3.3084135e+00
 -5.8228910e-01
 -9.1216534e-01
 -7.2619550e-02
 -1.1252841e+00
  2.8099494e+00
 -3.3510569e-01
 -7.6871902e-01
  8.6382121e-02
 -5.4529345e-01
  5.8204210e-01
  3.1373781e-01
 -1.4258733e+00
  1.5512550e+00
 -2.0335190e+00
  2.2352555e-01
  5.8326113e-01
  4.2489967e-01
  5.3273219e-01
 -2.0654598e-01
  5.5610526e-01
  4.4274725e-02
 -1.2936420e+00
 -2.0442350e-01
 -9.9714780e-01
 -2.9274449e-01
 -4.7352549e-01
  1.4974169e-01
  3.2311818e-01
 -2.0982974e+00
 -2.7074299e+00
 -8.8860857e-01
  1.6540175e-02
 -7.4605155e-01
 -3.2595747e+00
 -4.0676121e-02
  5.6904632e-01
 -4.0791786e-01
 -4.2835164e-01
 -1.7258449e+00
 -1.5916544e+00
 -4.1964032e-02
 -6.0005742e-01
 -1.0948888e+00
 -1.6795400e+00
  1.2461216e+00
  4.2898226e-01
 -1.7135317e+00
 -1.2190275e+00
 -4.6731201e-01
 -2.7766222e-01
  1.2044406e+00
 -3.4353602e-01
 -6.0161942e-01
  3.0381262e-01
 -1.0544796e-01
  1.5869054e-01
 -2.6915428e-01
 -3.3951890e-01
 -3.8169882e-01
 -3.3951312e-01
 -4.8832601e-01
  6.3181555e-01
  1.4022073e+00
  1.2074962e+00
 -2.6811142e+00
 -2.9446287e+00
  2.6296416e-01
 -5.5210268e-01
  9.1442031e-01
  2.4899168e-01
  6.8575539e-02
  4.6223724e-01
  1.5291783e-01
  4.4793090e-01
  6.2657374e-01
  7.9497069e-01
 -3.9112264e-01
  1.5230051e+00
 -7.8956199e-01
  7.1640778e-01
  9.9395454e-01
 -1.5403007e+00
  1.3388252e+00
  2.5077486e-01
  6.0024709e-01
  7.1212304e-01
  4.1662548e-02
  5.2627259e-01
 -5.5869704e-01
 -1.9578904e-01
 -3.8615924e-01
  5.4975802e-01
 -9.6160777e-02
 -1.3477364e-02
 -2.1650622e-02
 -1.1414270e-01
 -2.5495011e-01
 -3.1977333e-02
  9.2124307e-01
  6.7593962e-01
 -1.5848577e+00
 -6.1108100e-01
 -1.4085625e+00
  1.2780495e+00
 -2.0011168e+00
 -6.6663265e-01
 -7.3480630e-01
 -4.2869918e-02
 -9.7806640e-02
 -2.0033033e+00
 -7.3591298e-01
 -7.9094249e-01
 -3.3698645e-01
  7.2582150e-01
 -1.8044065e+00
 -7.9533511e-01
 -1.5770540e+00
  1.0893776e+00
 -1.3417519e+00
 -3.4223646e-01
 -2.2957454e+00
 -3.7791264e-01
  4.5321144e-02
  1.6131465e-01
  5.3797662e-01
  5.1984459e-01
  5.0038654e-02
  3.2851237e-01
  2.2600389e-01
 -5.4602880e-02
 -5.6345624e-01
  8.4350422e-02
 -1.6007851e+00
  7.7745992e-01
  6.0620689e-01
 -1.0795664e+00
 -4.1407412e-01
 -4.8580399e-01
  5.7347357e-01
 -5.0655931e-02
  3.9010882e-01
 -5.9040755e-01
 -2.3053718e-01
  3.8679387e-02
  1.0991056e-01
 -2.7547091e-01
 -5.5983078e-01
  2.4487236e-01
  4.7410633e-02
 -2.0340800e-01
  3.9942715e-01
 -1.0361576e+00
 -9.4614550e-02
 -3.9683038e-01
  4.5350587e-01
 -1.3275710e+00
  8.5645425e-01
 -1.6932160e-01
  1.2116677e-01
 -4.6657488e-01
  3.5530329e-01
 -1.4782257e-01
  2.0343135e-01
  1.5689571e-01
  5.6306291e-01
  1.4394955e-01
 -5.8049250e-01
 -1.5977351e-01
  1.0170059e+00
  3.5244969e-01
  1.4947729e-01
  2.3228091e-01
 -6.0125870e-01
  2.8691038e-01
 -5.8043373e-01
  2.6141176e-01
  1.8424837e-01
  3.2662815e-01
 -2.1800853e-01
  3.1298082e-02
  3.0061600e-01
 -1.2583673e+00
 -3.2429510e-01
 -4.9231207e-01
  2.4666664e-01
 -1.6009680e+00
  4.3858576e-01
 -1.2737775e-01
 -1.3557404e-01
  4.8491500e-02
 -5.6566060e-01
  3.6836410e-01
 -7.4521281e-02
  1.2098637e-01
 -5.5141978e-02
 -1.4299496e-01
 -3.1911996e-01
  4.1726074e-01
  1.1277530e-01
  1.1864168e-01
  2.8788278e-01
 -1.3488210e+00
 -4.0171204e+00
 -1.7878963e+00
 -5.2864633e+00
 -3.0402315e+00
 -2.5241127e+00
 -1.4823828e+00
 -3.8190255e-01
 -1.2664251e+00
  1.0154573e+00
 -1.7525874e-01
 -9.2204159e-01
 -6.4467043e-01
 -1.3593347e+00
  4.2551979e-01
  3.8865581e-01
 -6.3137281e-01
  2.7963620e-01
 -1.7010970e+00
 -7.2245151e-01
  2.2990954e+00
 -6.8093592e-01
  1.0141032e+00
 -5.6863278e-01
 -1.8384848e+00
 -2.9216540e-01
  2.6782700e-01
  2.4976011e-01
  8.9633279e-02
  4.5708179e-01
  1.7139733e-01
 -6.8499506e-02
 -1.1833617e-02
 -2.2908551e-01
  4.6743801e-01
 -1.3697832e+00
  8.9134103e-01
 -7.1740389e-01
  2.5617180e+00
  4.1414499e+00
  1.2217212e+00
  6.0427833e-01
 -7.9375923e-01
 -2.3133129e-01
 -2.3668685e+00
 -1.5474452e-01
  3.0765826e-01
 -1.2892027e+00
  4.6308756e-01
  1.1341508e-01
 -3.9709419e-01
 -1.2957407e+00
  8.9477271e-01
  2.0086551e-02
  1.6047420e-01
 -1.2649132e+00
 -2.0708213e+00
  9.7760606e-01
 -2.9696402e-01
  2.2178402e-02
  1.1169995e+00
 -1.1428603e+00
  5.5761886e-01
  6.3917436e-02
  3.1083632e-02
 -5.7090569e-01
 -1.1286563e+00
 -9.3588047e-02
 -5.8710623e-01
  4.9581769e-01
  7.8974396e-01
 -9.1498071e-01
 -1.1717783e+00
 -2.0761685e+00
 -1.9661407e+00
  3.7763292e-01
 -9.8609410e-02
 -9.9926704e-01
 -2.9907253e-01
 -1.6243763e-01
 -6.4838541e-01
 -2.0609444e-01
 -7.5540310e-01
 -6.5298587e-01
  1.7866582e-01
 -3.8286659e-01
 -4.4746816e-01
 -8.1109172e-01
  1.1440301e+00
 -8.0450717e-03
 -6.7959553e-01
 -6.7881042e-01
 -7.2421563e-01
  9.2971158e-01
  4.6310210e-01
  1.3729829e-01
  2.4057688e-02
  3.7924901e-01
 -1.6594583e-01
  4.3749239e-02
 -3.0021885e-01
  2.4828343e-02
 -1.4431605e+00
 -1.0296181e+00
 -1.5349923e-01
  9.3129560e-02
  9.3650281e-01
 -6.2316501e-01
 -2.0106506e+00
 -7.4294174e-01
  4.0703055e-01
  2.4014634e-01
 -2.3890431e+00
  5.7398766e-01
  3.7413633e-01
  1.4444010e-01
  9.0041625e-01
 -1.1203043e+00
  2.3316853e+00
  5.7782989e-02
  3.8062054e-01
  1.5555930e+00
 -3.2321822e-02
 -2.5086355e+00
 -8.9998156e-01
  8.7548673e-01
  1.8998885e+00
  4.1355420e-02
  2.0179923e+00
 -7.1626431e-01
 -2.8982797e-01
  4.4016889e-01
 -4.9444389e-01
 -1.6239589e+00
 -2.5504670e-01
  1.6424207e-02
  5.2284610e-01
 -4.8784918e-01
 -4.8807085e-01
  1.7729862e-01
 -1.9319575e+00
 -4.1719514e-01
  1.3003747e+00
  4.9106607e+00
  3.7263471e-01
 -1.3804721e+00
  1.5592935e+00
 -6.5848386e-01
 -3.9133272e+00
  2.4549301e+00
 -7.0217842e-01
 -1.3124833e+00
  1.1342838e-01
 -4.5155385e-01
  1.7107732e+00
  1.8119317e+00
  2.0189300e+00
 -2.3658276e+00
 -4.0299237e-01
 -7.0798807e-02
 -1.0442143e-01
 -2.8338721e+00
 -2.9938941e+00
 -1.2551875e+00
 -1.9299158e+00
  3.5188824e-01
 -5.1432693e-01
  6.4938962e-01
 -3.5654526e+00
 -1.1207292e+00
 -3.5273263e-01
  3.5154868e-02
 -1.8587631e+00
  2.1818306e+00
  7.9324171e-02
 -1.2410773e-01
  3.2399756e-01
  4.3877843e-01
 -7.9364270e-01
 -8.9456338e-01
 -2.5338015e-01
  3.5025075e-01
 -2.4295967e+00
  4.6510872e-01
 -1.1667496e+00
 -2.7143838e+00
 -1.6355008e+00
  2.0370958e+00
  6.4143437e-01
  6.5506786e-01
 -1.2281966e+00
 -8.3533996e-01
 -5.8767813e-01
  3.4195945e-01
  1.2104372e+00
  2.4372010e-01
  2.1050532e+00
 -5.4103851e-01
 -3.8027935e+00
 -1.1388203e+00
 -7.6677583e-02
 -1.0622725e+00
  3.2047588e-01
 -5.1939976e-01
 -8.0872357e-01
 -2.1754758e+00
  9.2182124e-01
 -8.9319611e-01
 -1.1863973e+00
 -1.4459516e+00
 -2.5761318e+00
 -4.3358377e-01
 -1.0117136e+00
  4.4177678e-01
  4.0946513e-02
 -2.6059396e+00
  3.5846171e-01
  5.3333938e-01
  4.6108806e-01
 -2.5393370e-01
 -2.0732701e+00
 -9.2126209e-01
  2.4687658e-01
  7.4460870e-01
 -3.3776623e-01
  1.5170339e-01
 -5.5969048e-01
  2.6539300e-02
 -2.4172124e-01
 -3.1192306e-01
  1.3553724e-01
  3.0875161e-01
 -1.3214759e-02
  2.3020512e-01
  9.9502690e-02
  2.1055517e-01
  1.5667482e-01
 -5.4751229e-01
  8.6212289e-01
 -1.1816417e+00
  8.3068602e-02
  7.4198820e-02
 -6.0985994e-01
 -9.5545250e-01
 -2.0061344e-01
  2.3518290e-01
  3.3646405e-02
 -2.2275224e-01
  7.2472729e-02
 -6.3317299e-02
  2.7640018e-01
 -1.5516023e-01
  6.4811927e-01
 -5.9850942e-02
 -3.1350046e-01
  3.9491785e-01
 -1.7633797e-01
 -8.5268360e-01
 -2.9670537e-01
 -1.6963655e-01
 -6.3240074e-02
  9.7918391e-02
  1.1008131e-01
 -1.3668810e-01
  9.2639722e-02
 -9.7255828e-03
  2.0194028e-01
 -7.2147302e-02
 -6.8303578e-02
 -5.3732302e-02
  2.4076071e+00
 -2.6166931e-01
  2.5843561e-01
 -1.7776277e+00
  2.2268007e+00
 -4.6272397e-01
  1.2996912e+00
  3.3745420e-01
  1.3280212e+00
  1.0616826e+00
 -8.6233896e-01
  1.0068133e+00
  5.5810034e-01
  8.2431096e-01
  4.6549228e-01
 -9.6898061e-01
  7.5031793e-01
  1.0010747e+00
  1.1165303e+00
  3.7358600e-01
 -3.0102909e+00
  7.3189825e-01
  2.4793863e-01
  1.0197905e+00
 -1.9288041e-01
  2.3003684e-01
  5.8775075e-02
 -8.1532989e-03
 -5.4227863e-04
  7.2051547e-02
 -2.6497895e-01
 -1.7687000e-02
 -5.9541542e-02
  2.4678251e-03
 -2.1991295e-01
  9.6697026e-01
 -1.0684918e+00
  3.1147590e+00
 -2.3469548e+00
  1.7128167e+00
 -6.3644016e-01
  7.2569543e-01
 -2.6876065e-01
  1.2292432e+00
  1.0143908e+00
 -4.1708651e-01
  1.9397236e-01
 -7.4197412e-01
  1.0872205e-01
  6.4373270e-02
 -7.4719536e-01
 -1.0682520e+00
 -6.2202144e-01
  8.1017964e-02
 -1.8431207e-02
 -5.2894360e-01
 -2.1616849e-01
 -7.4130696e-01
  7.1966594e-01
  4.2855203e-01
 -6.4945005e-02
 -3.4009418e-01
 -5.0073180e-02
 -3.8736719e-01
  4.4585476e-03
 -2.4221990e-01
  6.2576301e-02
 -5.6603658e-01
  6.1158562e-01
 -9.0824962e-02
  9.8563008e-02
 -7.5471586e-01
  7.5937629e-01
  3.2486764e-01
  6.2854707e-01
  2.0598367e-01
  9.9825159e-02
 -9.0409078e-02
  4.7110658e-02
  2.8274572e-01
  4.3653429e-02
  8.9287214e-02
  2.4573643e-02
  2.9505560e-01
 -4.4040810e-02
  5.8141373e-02
  2.0573732e-01
 -1.1519575e-01
  5.2004021e-02
  1.8623221e-01
 -7.0911594e-02
 -9.6795326e-03
 -8.0362715e-02
  3.4594822e-01
  2.0149805e-01
 -8.4004402e-02
  2.4550301e-01
  6.8189174e-02
  8.2633989e-03
 -7.4883290e-02
 -4.5157941e-03
 -3.3405444e-01
 -1.3728707e-01
  7.3292114e-02
  1.9564930e-01
 -2.2101563e-01
 -2.8159803e-01
  1.5974214e+00
  1.5560026e+00
  3.4073794e-01
  2.6035529e-01
  1.3162784e-01
 -3.4368643e-01
  5.4150122e-01
  3.6698538e-01
 -3.8103628e-01
  4.4950074e-01
  3.1397253e-01
  7.0313013e-01
  2.0038836e-01
 -3.8789883e-02
 -3.9977983e-02
  4.7697893e-01
 -6.8373866e-02
  6.0432041e-01
 -5.7942629e-01
 -1.7225793e-01
 -5.2909243e-01
 -1.9588283e-01
  2.8850985e-01
 -1.0560728e-01
 -3.0496567e-01
 -2.2913605e-01
 -3.8378499e-02
 -4.0495530e-02
 -6.2302515e-02
 -2.7852960e-02
 -7.1545322e-03
  3.1744562e-02
  1.7443039e-01
 -3.3700883e+00
 -1.1787604e+00
 -3.2542799e+00
  1.1271255e+00
  4.2585336e-02
  5.5600035e-01
 -7.2890216e-01
 -8.2009882e-01
  2.5304527e+00
  7.8017575e-01
 -3.6396128e-01
 -5.3965557e-01
  1.6067913e-02
  8.5708104e-02
  1.3456061e+00
 -8.6657530e-01
 -1.2218190e+00
 -1.5573270e+00
 -6.2602662e-02
  1.0982839e+00
 -8.7975070e-02
  3.0661550e-01
  8.2566655e-01
  1.1407219e+00
  1.5646374e+00
  1.2083778e-01
 -2.7062348e-01
 -2.9505333e-01
  9.0238696e-01
 -5.1209491e-01
 -1.7511965e-01
 -1.5576157e-01
  3.5686266e-02
 -1.6989288e-01
  2.4436764e-01
 -3.4375092e-01
  2.1824741e+00
 -3.7157252e-01
  1.5076499e+00
 -1.6857159e+00
 -3.8951260e-01
 -9.7158879e-02
 -5.8859155e-02
 -9.8949480e-01
 -3.6435339e-01
 -3.2470047e-01
 -3.9831561e-01
 -3.1617811e-01
 -6.7324013e-01
  1.2274151e-01
 -4.3653208e-01
  1.8087335e-01
  4.1847348e-01
  5.4888517e-01
 -7.6112485e-01
  2.2700672e-01
  2.0104004e-01
 -7.1929371e-01
  1.5105230e-01
 -3.8512644e-01
 -8.8459663e-02
 -9.3172103e-02
 -7.7560163e-01
  2.3153989e-02
  3.3980688e-01
  9.2297703e-02
  2.8857240e-01
 -2.4989755e-01
  4.7033995e-02
 -3.9794717e-02
 -2.8150342e+00
 -1.8063831e+00
 -1.7959517e+00
  3.0396166e+00
 -9.2723745e-01
  4.2171824e-01
  5.4440469e-01
  2.4933144e-01
  1.1810859e-01
 -6.9649857e-01
 -1.5837622e-01
 -3.8546824e-01
  9.4454211e-01
  5.0025985e-02
 -2.5913352e-01
 -3.1272113e-01
 -2.2038612e-01
  7.7450883e-01
  9.1589934e-01
 -9.7993988e-01
 -3.6915973e-01
  1.0007817e+00
  6.4456731e-01
 -3.0928218e-01
 -1.3542597e+00
 -2.7927201e-02
  2.3001385e-01
 -1.6684762e-01
  4.9190378e-01
  6.5966964e-02
  1.7666599e-01
 -1.8003038e-01
  3.9421562e-02
  1.6980962e-01
 -2.6960319e-02
  1.5104389e+00
  5.1480222e+00
  2.2267606e+00
  5.2933586e-01
 -1.3560523e+00
 -8.8428313e-01
 -3.8496500e-01
  1.0069387e+00
  8.7242150e-01
 -4.3621305e-01
  1.6108449e+00
 -5.7338023e-01
 -7.9779398e-01
  3.3273828e+00
 -3.1814359e-02
  2.5226054e-01
  5.2795321e-01
  2.7820224e-01
  2.2313347e+00
 -4.7374755e-02
  3.7932593e-01
 -5.6484312e-01
  1.3533499e+00
  2.6045582e+00
 -3.0009782e-01
  6.7512333e-02
 -1.3124107e-01
  4.2380121e-01
 -2.5480402e-01
 -5.0668097e-01
 -3.4888157e-01
 -1.8652497e-01
 -6.5032405e-01
  7.0159025e-02
 -2.3296708e-01
 -7.7653545e-01
  1.0027221e-01
 -1.6215538e+00
  1.5012048e+00
 -2.4082217e+00
  6.3746727e-01
  2.8040710e-01
  3.1010410e-01
 -2.8266797e+00
 -1.0274100e-01
  1.8634157e-01
  9.8962551e-01
  5.2332884e-01
 -2.5338006e+00
 -4.3296906e-01
  1.0452427e+00
  9.3140736e-02
  6.5948159e-01
 -1.7291530e+00
 -1.1037284e+00
  8.6156178e-01
  1.0342345e+00
 -3.1927355e-02
 -1.0073547e+00
 -1.7054486e+00
  1.1289614e-01
  3.8334733e-01
 -6.8304963e-02
 -8.1027441e-02
  1.1361979e-02
  1.7586127e-01
  1.8471555e-01
  2.0794307e-01
 -2.1259252e-02
  4.8194718e-01
 -7.7507204e-01
  1.0087175e+00
  1.3447992e-02
  6.6355538e-01
 -7.4677539e-01
 -9.2721626e-02
 -8.3985925e-02
 -7.1842617e-01
 -8.8953012e-01
 -7.3911405e-01
  5.9876066e-01
  3.4552133e-01
 -2.1650173e-01
 -6.2279891e-02
 -3.0747148e-01
  4.9420960e-02
 -6.3317138e-01
  6.4633593e-02
 -1.4985223e-01
 -3.6644328e-01
  5.6769323e-01
  3.8440013e-01
  5.4359454e-01
  1.4051697e+00
 -5.9413928e-01
 -9.2117064e-02
 -1.4977784e-02
  1.0265990e-01
 -1.1697890e-01
  5.9501305e-02
  6.4796418e-02
  7.5400189e-02
 -2.2615357e-01
 -9.2338286e-02
 -1.9846772e-01
 -1.1437466e+00
 -5.7825172e-01
  7.1744698e-01
 -6.3286901e-01
  1.4994588e-01
  3.4639224e-01
  1.0153429e-01
 -1.2014103e-01
  7.5989938e-01
 -2.5881454e-02
  1.7581043e-01
 -1.6865855e-01
  1.0942323e-01
  2.4492870e-01
  2.6359150e-01
  4.3116170e-01
  3.8791528e-01
  7.1467936e-01
  1.5991028e-02
  4.2349112e-01
 -1.5307134e-02
  1.3243166e-01
 -8.7815389e-02
  5.0354954e-02
  2.7290589e-01
 -2.3282945e-01
  1.0311992e-01
 -9.3889497e-02
  8.8245794e-02
 -8.7258957e-02
  4.6206493e-02
 -6.4251013e-02
  9.1631807e-02
  6.3232355e-02
  2.2962773e-02
  5.0380993e-01
  4.2875150e-01
  5.1094753e-01
 -4.6989775e-01
  1.9236313e-01
  5.6106728e-02
 -6.8658948e-02
  4.5951489e-02
  7.3306620e-02
 -2.4359364e-02
  1.1240786e-01
  8.8595070e-02
 -9.4718844e-02
 -6.4279132e-02
  1.1527241e-01
 -6.7826606e-02
  1.3557467e-01
  1.6488212e-01
  7.5979203e-02
 -2.3821162e-01
 -2.9373690e-01
 -1.3538568e-01
  3.5327399e-01
  2.3958755e-01
  6.1214160e-02
  6.1926059e-02
  7.8470141e-02
 -3.7447125e-02
 -1.0081723e-02
  1.1099251e-01
  2.6198100e-02
  5.7767693e-02
 -1.4630990e-01
  8.6669840e-02
  6.3492708e-02
  6.8211064e-02
  1.2195807e+00
 -7.3442072e-01
  1.0156209e-01
  9.9065334e-01
  1.5414741e+00
  1.2010976e+00
 -5.7716094e-02
 -7.5209481e-01
  1.2878640e-01
  1.9288718e+00
  1.1252012e-01
 -1.3842521e+00
  2.1527906e-01
  8.6004072e-01
  2.1239624e+00
  2.9939628e-01
 -4.8017761e-01
  8.0219977e-02
  6.5754604e-01
  1.8120875e+00
  1.0361702e-01
 -2.0373015e+00
  3.0257565e-01
 -2.9978213e-01
  2.3942122e-01
  2.6447016e-01
 -1.3918187e-01
 -9.0343350e-01
  6.1789811e-01
  1.6291036e-01
 -5.9734070e-01
 -7.1730989e-01
 -2.8329206e-01
 -2.4817529e-01
  7.5642961e-01
  1.5248415e+00
  4.7750106e-01
  1.8888439e+00
 -2.7403684e+00
  1.9743043e+00
  6.1179107e-01
 -3.4207302e-01
 -5.7056284e-01
 -5.1352847e-01
  2.4344966e+00
  8.5932809e-01
 -2.7854284e-03
 -1.1565474e-02
 -1.3077472e-01
  1.5494832e+00
  4.8172393e-01
 -5.9514642e-01
 -2.7841362e-01
  1.1970018e-01
  1.8145663e+00
 -2.4103682e+00
  1.0575855e+00
 -3.9090136e-01
  6.4449614e-01
  9.0266514e-01
  3.9912236e-01
  4.8088548e-01
  3.7562263e-01
 -3.8246062e-01
  5.5910736e-02
  1.0573367e-02
 -2.0568545e-01
  4.0156004e-01
 -7.3454842e-02
  2.1262240e-01
  4.6589551e+00
 -9.4298714e-01
  3.9006817e+00
 -2.8191931e+00
 -7.4579889e-01
  2.0587136e-01
 -1.3236204e-01
 -9.4050336e-01
  2.0480464e-01
 -3.8141033e-01
 -1.3702866e-01
 -4.7997868e-01
  3.9834327e-01
 -4.7429357e-02
 -1.5080808e-01
 -1.8990625e-01
  1.3374290e-01
 -5.2105427e-01
  6.0321432e-01
  6.4686179e-01
 -2.5892742e-02
  1.0323809e-01
 -1.9120653e-01
  9.8634742e-02
  4.8209527e-01
 -1.3075998e-01
 -1.3166943e-01
  3.0068848e-01
  3.4631732e-01
 -4.3648500e-02
  9.8861471e-02
 -2.0537611e-02
  1.9151770e-01
  1.9767021e-01
  1.3647984e-01
  1.9653514e-01
  2.5351293e+00
 -6.9138843e-01
  1.6771737e+00
  2.6345624e-02
  4.1332126e-02
  8.7947065e-01
  5.5379146e-01
 -4.0189376e-01
 -1.4259572e-01
  8.7334119e-02
  1.1839983e+00
  2.6588574e-01
 -4.2344043e-01
 -2.8563321e-01
  2.3522822e-03
  2.7368584e-01
 -1.5420878e-01
 -1.5772028e-01
 -5.0371176e-01
  2.7835625e-01
  8.7522942e-01
  4.7248948e-01
 -9.8353349e-02
  7.1272224e-02
 -4.7273166e-02
 -3.1305455e-02
  1.0226567e-01
  3.4750335e-02
 -1.7657524e-02
  3.8177244e-02
  2.7746039e-02
  9.1960333e-02
  2.2216156e-02
 -1.8015698e+00
 -1.2442172e+00
 -1.4522202e+00
  1.1085427e+00
 -1.3135434e+00
  1.1520663e+00
  9.8461568e-01
 -4.7506830e-01
 -2.0526161e+00
 -9.6011186e-01
  2.8272951e-01
 -2.2936162e-01
 -4.2038399e-01
 -1.0972930e+00
 -3.0004355e-01
  7.4482507e-01
  2.4087591e-02
 -5.1549053e-01
 -1.1110234e+00
  1.4669867e-02
  8.4676725e-01
  1.1206499e-01
 -5.1476753e-01
 -8.4065104e-01
  3.6723912e-01
 -2.7201441e-01
  3.5759482e-01
  2.8071260e-01
 -5.0177926e-01
 -1.7906854e-01
  4.4757253e-01
 -1.8644275e-01
 -1.1278838e-02
 -1.1974708e+00
  7.5235613e-02
 -8.8696009e-01
 -8.9812201e-01
  1.1594316e+00
 -1.1776022e+00
  5.9536678e-01
  4.8497483e-01
  2.8061572e-02
 -5.9109773e-02
  7.0004809e-01
 -8.2191002e-01
  3.9120063e-01
 -3.5257837e-01
 -2.8186238e-01
  2.8304330e-01
 -3.0318418e-01
  7.6249176e-01
  1.9071423e-01
  3.8616508e-01
  6.3669938e-01
  1.4102997e-01
  2.4631774e-01
  3.1158063e-01
 -1.3996466e-02
 -3.4592497e-01
  3.4074369e-01
 -8.6191222e-02
 -2.3636580e-01
 -4.5341931e-02
  1.0731541e-01
 -1.6372880e-01
  2.5536200e-01
 -2.0065096e-01
 -4.3591894e-02
 -1.5771277e-01
 -1.0813216e-01
  9.1047758e-01
  2.7828469e+00
 -1.5299712e+00
  9.3318158e-01
 -7.4556953e-01
 -7.2250016e-02
 -1.7504929e-01
  6.2421280e-01
 -3.4019193e-01
 -5.6292862e-01
  1.2989028e-01
 -6.8523176e-02
  5.8909833e-01
 -6.3539124e-01
  9.5831282e-02
  2.5223735e-01
 -3.4969914e-01
  1.0331103e+00
  1.3295542e-01
 -2.9200098e-01
  2.8160918e-01
 -8.7126456e-02
 -6.4860016e-01
 -3.0329186e-01
 -3.6040837e-01
 -2.1157565e-02
 -4.5779590e-02
 -7.6010413e-02
  1.0173673e-01
  1.8457173e-01
  6.8234153e-02
 -3.6956239e-02
 -5.2314833e-02
  2.8077688e-02
  3.1415963e-01
 -8.4133863e-02
 -1.1016011e+00
 -2.0377794e-01
 -9.9946958e-01
  8.1252229e-01
  2.5611064e+00
  8.3915234e-01
 -4.7319278e-01
  1.0203427e+00
 -1.9644594e-01
  1.3418306e+00
  2.3544228e+00
 -6.2024498e-01
  1.3273649e+00
  3.4305876e-01
  2.7296939e+00
  1.7629536e+00
 -7.2828364e-01
 -9.3222998e-02
  8.2356822e-01
  5.5499509e-02
  2.7246180e-01
  2.0113295e-01
  1.6293901e-01
  8.0545127e-01
  3.1138337e-01
  2.7178925e-01
 -3.4878016e-01
  1.9353698e-01
 -2.4263878e-01
  3.6710847e-02
 -2.7767998e-01
 -2.4489611e-01
  3.0640036e-01
 -1.7583142e-01
 -8.1705528e-01
 -2.6487169e+00
 -2.1821742e+00
  1.9207413e-01
 -1.4215204e+00
  9.6058929e-01
 -2.1263397e+00
  5.6459314e-01
 -2.3975141e-01
  9.1508138e-01
 -4.5828499e-02
 -4.3216709e-02
 -2.8993732e-01
 -4.4294525e-02
  3.0222839e-01
  6.5303457e-01
 -8.1840396e-01
 -2.5399211e-01
 -1.1437486e+00
  1.0591501e+00
  1.9728183e+00
 -1.9746605e+00
 -6.1892998e-01
 -9.2824715e-01
  1.7031519e+00
  1.8999618e-01
  2.4036491e-01
 -1.6460772e-01
 -8.1140310e-02
 -5.0002748e-01
  1.1596336e-01
  2.9171124e-01
  2.8021377e-01
 -5.3365344e-01
 -1.2165248e-01
  1.9879530e-01
 -4.3154219e-01
  1.7217107e-01
 -1.1116549e+00
  2.8448522e-01
 -1.3058335e-01
 -1.3490230e-01
  9.0488124e-01
 -2.3381911e-01
 -4.1091576e-01
 -4.3604866e-01
 -1.8685262e-01
 -6.1403453e-02
  6.3414627e-01
 -3.2057500e-01
 -2.2143315e-01
 -5.1818651e-01
 -5.7339168e-01
 -1.2512677e+00
  1.1999279e-01
 -3.6500818e-01
 -4.4255072e-01
  1.5567757e-01
 -3.3144392e-02
  1.2417646e-01
  1.9058096e-01
  5.1328838e-01
  8.3384417e-02
 -1.5122943e-01
 -2.8181918e-02
  7.2099328e-02
 -2.8287049e-02
  2.9778048e-01
 -9.2254817e-02
  9.1520444e-02
  6.5155312e-02
  1.0189631e+00
 -6.3313806e-01
  4.1773850e-01
 -2.5950447e-01
 -1.4594026e-01
  4.7797661e-02
  2.0060427e-01
 -4.6509609e-02
 -5.8783472e-01
  1.1535463e-01
 -6.5950751e-02
 -3.8947350e-01
 -9.5341422e-02
 -1.0673065e-01
  3.5056982e-02
 -2.2023264e-01
 -3.8768355e-02
 -2.9496193e-01
  9.9200815e-02
  2.2819495e-01
  1.4665277e-01
 -1.6484256e-01
 -8.4466133e-03
 -2.7433035e-01
 -6.0894657e-02
  5.7607941e-02
 -5.7760336e-02
 -5.1369362e-02
  9.3400694e-02
  5.2001355e-03
 -8.4237456e-03
 -5.5697400e-02
 -4.7038514e-03
 -1.4815579e-01
  4.1730127e+00
  3.7273934e-01
  1.6768999e+00
 -3.0747986e+00
  1.2715826e+00
 -1.3640269e+00
 -1.7700938e+00
 -5.6987911e-01
  3.4335288e-01
  5.4004824e-01
 -4.1317874e-01
 -1.4140075e+00
 -6.6073877e-01
  7.7350879e-01
  4.6455681e-01
  4.8533833e-01
 -1.5103830e+00
 -6.1248130e-01
  4.4312799e-01
  8.0347222e-01
 -2.3932256e-01
 -2.7364655e+00
 -9.9796146e-01
 -1.6370662e-02
  1.6481240e+00
  1.8392448e-01
  4.1542274e-01
  2.6859075e-01
 -1.6059541e+00
 -1.6455413e-01
 -6.5581679e-02
  5.0220418e-01
  4.5209339e-01
 -4.9408775e-02
  2.9031801e-01
  5.0307286e-01
  6.2976342e-01
 -8.5779840e-01
  3.7540179e-01
 -2.6506928e-01
 -2.4537586e-01
 -1.2137106e-01
 -9.5295407e-02
 -3.1439009e-01
 -3.0467707e-01
  5.0588682e-02
  3.0974171e-01
  3.7977949e-02
 -3.9339662e-01
  8.7470897e-02
 -3.1414789e-01
 -2.4074972e-01
  1.5320215e-02
 -1.6532432e-01
  5.5086032e-02
  1.3750309e-01
 -1.7038803e-01
  8.6947836e-02
 -1.2188407e-01
 -2.2588691e-01
  5.4729950e-02
 -1.1835174e-01
 -1.1200194e-01
 -6.4191502e-01
 -8.5236222e-02
 -3.1230139e-02
  6.2682867e-02
  8.4579863e-02
 -2.7213803e-01
 -2.0101132e-02
  1.5308343e+00
  8.2132202e-01
  9.3176442e-01
 -1.1642487e+00
  2.3189180e+00
 -3.5084981e-01
  5.7402682e-02
  3.6253953e-01
  5.8669192e-01
 -9.0047747e-02
 -3.0841231e-01
 -8.4844343e-02
  3.2031068e-01
  1.1167955e+00
  1.5151682e-01
 -6.8270165e-01
 -2.3544595e-01
  3.8341460e-01
  1.3964374e+00
  1.1154451e-01
 -3.9012444e-01
 -9.0106922e-01
 -6.4879394e-01
  1.3651947e+00
  4.8033449e-01
  9.2609398e-02
 -3.1799104e-02
 -1.8770505e-01
 -1.0793643e-02
 -2.3830910e-01
  1.3417710e-01
 -5.5698502e-01
 -5.3125047e-03
  2.8913867e-01
  2.4027595e-01
  1.2362604e+00
  5.3826876e+00
  3.2738240e+00
  2.5000582e+00
 -9.7173089e-01
 -4.3628842e-01
 -3.0140710e-01
  1.5562992e+00
  9.1553658e-02
 -1.4483179e+00
  2.1514232e+00
  6.0432196e-01
  1.2768508e+00
 -5.5424511e-01
 -1.2290013e+00
  3.9963216e-01
  2.2443305e-01
  4.7638819e-02
 -9.8044765e-01
 -1.1465353e+00
 -2.6922747e-01
  1.6817211e-01
  4.6171856e-01
 -8.7323940e-01
 -8.5163552e-01
 -6.1946329e-02
  3.6715490e-01
  2.3646344e-01
 -1.2974372e+00
  4.5322850e-01
 -1.6646737e-01
 -6.0666054e-01
 -1.4755979e-01
  3.7719962e-01
  1.0996785e-01
  3.9027008e-01
  3.1116651e-02
 -2.0861785e+00
  5.9211206e-01
 -9.2969388e-01
 -6.5955237e-02
  4.1385341e-01
  3.5387611e-01
 -2.2488733e-01
  9.6992545e-02
  7.3078326e-03
 -9.3603060e-02
 -6.9603747e-01
 -4.4319040e-01
  7.0655555e-02
  5.1075721e-01
 -7.8895882e-02
  1.2600987e-01
  2.0016150e-01
 -2.3693552e-02
  3.6460495e-01
 -3.9463562e-01
  3.6718199e-01
 -1.9718017e-01
 -4.9082610e-01
  1.1399398e-01
 -7.2640419e-02
 -1.2662792e-01
 -1.1555248e-01
  1.2949745e-01
  1.2786306e-01
  1.8039557e-01
 -3.5317101e-02
  2.4529539e-02
 -1.0721287e-01
 -1.8933300e+00
 -2.7286524e-01
  1.0540587e+00
  2.0462804e+00
 -3.4573504e-01
  1.5793623e-01
 -7.8663296e-01
  5.6387627e-01
 -4.4074612e+00
  3.1263936e-01
 -1.3494368e+00
  2.7487230e-01
 -1.4336749e+00
  9.5175922e-01
  1.6527836e+00
  1.7624627e+00
  1.0585424e+00
  1.2900987e+00
 -3.0962207e+00
 -1.5605694e+00
  6.3772577e-01
 -1.2110344e+00
 -2.9051909e+00
 -1.8405672e+00
  7.1089022e-02
  3.7385097e+00
  1.6907767e+00
  2.1908896e+00
  1.7876253e-01
 -5.6011295e-01
  2.2814972e+00
 -1.9452304e-01
  7.1952569e-01
  8.5833406e-01
  1.1099297e-01
  2.1202041e-01
  5.7029754e-01
 -3.8108644e-01
 -7.1154028e-01
 -1.0744785e+00
 -6.7511916e-01
 -2.7096373e-01
  7.4921608e-01
  4.2058863e-02
 -1.6587943e+00
 -2.9969497e+00
 -6.5188241e-01
  2.0001799e-01
 -2.2694516e+00
  1.2639714e+00
 -3.1300351e-01
  1.5816176e+00
 -1.3234777e+00
  2.0306776e+00
 -6.2066298e-02
  1.9920374e+00
 -9.2544335e-01
  3.4806117e-01
 -8.7939996e-01
 -1.9866389e-01
  5.4587710e-01
  3.5609478e-01
 -1.4095248e+00
 -1.3639172e+00
  5.9051830e-01
  1.7297684e-01
 -4.2648509e-01
 -2.5738016e-01
  2.2114094e-01
  6.5378463e-01
 -7.2307996e-02
 -3.1238255e-01
 -3.2136366e-01
  3.6688435e-01
 -5.5500060e-01
 -4.1173202e-01
 -3.7159967e-01
  3.9680707e-01
  6.3311547e-01
  1.1707468e+00
  3.2556304e-01
 -7.3581284e-01
 -8.5960144e-01
 -5.1889795e-01
  4.4570059e-01
  9.1775604e-02
  3.0640101e-02
 -1.0418861e-01
  1.9457349e-01
  1.3928199e-01
 -2.6903722e-02
 -1.1031836e-01
 -8.9647576e-02
 -1.2545471e-02
  2.5113219e-01
 -1.9648618e-01
 -8.4413511e-01
 -1.2110096e+00
  8.0979711e-01
 -1.0283595e-01
  1.1438441e-02
  3.9602739e-01
  7.4672274e-02
  2.7362692e-01
 -3.6191633e-01
  2.2685221e-01
  2.8852633e-01
 -1.5427352e-01
  2.5928138e-02
 -1.5522133e-01
  9.2117451e-02
  4.7800526e-02
  2.7610797e-01
 -1.4606215e-01
 -1.9009676e-02
  1.0569581e-01
  5.3312129e-01
  4.1554710e-01
  4.1187983e-02
 -2.5558665e-01
 -3.6479056e-02
  2.1073718e-02
  4.0884084e-01
  4.0857237e-02
  1.6224279e-01
 -2.5372276e-02
  1.9212349e-01
  3.3069110e-01
  2.6509578e-03
 -3.6099377e-01
  8.6812593e-02
  2.5170416e-01
  7.2475076e-01
 -1.4862946e-01
  3.5061607e-01
 -1.6284290e-01
 -1.0881150e-01
  3.4861043e-02
 -1.7012881e-02
 -5.3287577e-02
 -1.0277610e-01
 -4.7952005e-01
 -1.0168428e-01
 -8.0945320e-02
  1.8970630e-01
  1.9408971e-02
 -4.5355693e-02
 -4.2210482e-02
 -1.1463311e-01
  1.7965557e-02
  1.2531734e-01
 -1.9405650e-01
 -8.7944157e-02
 -3.1373713e-02
 -1.8922258e-02
 -2.1144632e-01
 -2.6005058e-02
 -9.3096972e-02
 -2.0321921e-02
 -1.9215187e-02
  4.1039586e-02
 -1.2301696e-01
 -7.4414767e-02
 -4.2294737e-02
 -8.4901549e-02
 -3.7232820e-02
 -1.7847942e-01
 -3.9138675e-01
 -1.3459471e+00
  3.6057398e-01
 -1.4910720e-01
 -5.6327429e-02
 -2.6002279e-01
  3.3686385e-01
 -3.1700522e-02
  2.6022468e-02
 -1.9735612e-01
  2.7161142e-02
  2.4984886e-01
 -8.1333391e-02
  9.9542774e-02
 -4.7413999e-01
 -6.2470485e-02
  4.8271954e-02
 -4.6619542e-02
 -6.6213295e-02
 -6.5943861e-01
 -3.2066679e-01
  6.5508485e-02
  1.6528752e-01
  1.5143542e-02
 -7.5565167e-02
  1.3420206e-01
  9.1020986e-02
  1.0273649e-01
  4.4925246e-02
 -1.2550567e-01
  7.1012482e-02
  1.7947337e-02
  6.4889699e-02
  6.5484631e-01
  7.3665512e-01
  8.4306270e-01
 -5.4822320e-01
  4.1816212e-02
 -2.2520544e-01
 -1.6746944e-01
  3.6736175e-01
 -1.8643390e-01
 -5.2311864e-02
 -2.9582596e-01
 -2.6898620e-01
 -1.2392775e-01
 -1.3573635e-01
  1.6842224e-01
 -3.9010569e-02
  5.0002607e-03
 -2.5906125e-01
  3.4507141e-03
 -2.9448467e-01
 -3.0788302e-03
 -2.0280525e-01
 -5.0720686e-01
 -5.6673273e-02
  1.3748033e-01
  3.2816082e-02
  6.4351551e-02
  1.0454429e-02
 -3.4097906e-02
 -1.2410207e-01
 -2.5917318e-01
  1.5455742e-03
  2.1803305e-02
 -1.3085635e-01
  5.1806778e-02
 -4.8698381e-02
 -4.2351235e-02
  8.1417104e-03
  7.1711820e-01
 -5.0784498e-01
  2.0846231e-01
  4.2522138e-01
  1.1943114e-01
  7.2715461e-02
  1.6769692e-01
  4.0585208e-01
  6.4819887e-02
  3.2236803e-01
  2.2578411e-01
 -1.2631153e-01
  2.0784202e-01
  2.8463447e-01
  1.6210327e-01
  6.0173161e-02
 -2.6831302e-01
  1.9563194e-01
  4.0430748e-01
  1.0696488e-01
 -3.7641490e-01
 -3.7761405e-01
  3.4677953e-02
 -7.3482513e-02
  5.9335049e-02
  2.9633818e-02
 -3.0558260e-02
 -7.6050594e-02
 -6.8255663e-02
  1.1382078e-01
  1.5012321e-02
 -1.0204998e-01
  4.5446157e-01
 -1.3442121e-02
  2.2417147e-01
  1.8635011e-01
  8.5054910e-01
 -7.9833508e-02
 -2.4508762e-01
 -4.7198389e-02
 -9.6061952e-02
 -3.8814638e-02
 -1.4279339e-01
 -5.8840197e-02
 -1.8961636e-02
 -8.0180779e-02
  2.1477173e-01
 -1.5475439e-01
 -2.5841638e-01
 -2.3703563e-01
 -7.6219261e-02
 -1.3583247e-01
  3.3461780e-03
 -3.6394906e-01
 -2.9656640e-01
  4.7164708e-02
 -2.5999634e-02
 -8.0099858e-02
 -4.5403168e-02
 -3.6798630e-02
  8.9067236e-02
 -1.6364692e-01
 -9.5991999e-02
  8.6639374e-02
 -3.9325774e-02
  1.8687811e-01
  1.2884332e-01
 -1.6973826e+00
 -2.1433094e+00
 -2.1823339e+00
  5.5713397e-01
  2.0570125e-02
  3.6506993e-01
 -2.9258028e-01
  3.3859249e-02
  4.4724271e-01
  4.0677391e-02
 -1.2902080e-01
 -4.0125439e-01
  1.9816896e-02
  4.2149335e-01
  2.6161611e-01
 -3.8178600e-02
 -2.6227129e-01
 -2.7459949e-01
  5.0342220e-01
  1.5715466e-01
 -3.8499632e-01
 -1.0391785e+00
  2.8414124e-01
  2.7935901e-01
 -9.5274210e-02
  2.1194054e-01
  2.4533167e-02
 -9.3937315e-02
 -1.8398529e-02
 -2.8050289e-02
  2.2088578e-01
  8.6715872e-06
  9.4085179e-02
  2.7060953e-01
 -3.1626275e-01
 -2.3020661e-01
  6.9619846e-01
 -3.7404457e-01
 -1.4117655e-02
  9.7353272e-02
  5.0129034e-02
 -2.6225397e-01
 -1.5194440e-02
  1.3225098e-01
 -2.2271156e-01
  2.0376952e-01
 -6.6736966e-02
  3.2704934e-02
  5.4244924e-02
 -1.3930053e-01
 -8.2645901e-02
 -3.4199476e-01
 -6.1029488e-01
  1.4224103e-01
  1.2512280e-02
 -4.3683901e-02
 -3.7432802e-01
 -3.2884780e-01
 -1.1200796e-02
  2.6160210e-01
  3.0117148e-01
  1.9485775e-01
  3.3616953e-02
  2.5831233e-03
  8.5287234e-03
  5.3265985e-02
 -2.3347768e-01
 -5.4962765e-02
 -2.7411988e-02
  8.9239687e-02
 -1.8698363e-01
  2.3572865e-01
  2.0424856e-01
 -2.5791702e-01
  4.3859445e-02
  1.4688663e-01
 -8.7501675e-02
 -1.8255420e-01
  2.9549550e-02
  1.7910433e-01
  1.0675357e-01
 -1.3780239e-03
 -1.3537088e-01
  4.2039642e-01
 -3.0746940e-01
 -1.3725324e-02
 -2.1919167e-01
 -3.4514487e-01
 -9.0069607e-02
 -1.2202913e-01
 -9.6459031e-02
 -3.7024480e-01
 -1.8403332e-01
 -4.6673823e-02
  2.0861216e-01
  1.0632072e-01
  5.9402529e-02
 -1.0041338e-01
  1.0638894e-01
  4.7288023e-02
  6.6185259e-04
 -7.9752356e-03
  1.0374968e-01
  9.6867001e-03
  8.1450157e-02
  6.7969806e-02
 -1.8499488e-02
 -2.3202805e-01
  2.9339361e-01
 -2.8208914e-01
  3.9798100e-02
  1.9734345e-01
  1.4690776e-01
 -1.5554756e-01
  1.0175520e-01
 -2.2705989e-03
  7.0757918e-02
  1.5969042e-01
  2.4479285e-02
 -2.0366265e-01
  8.0654472e-02
  2.2136997e-01
  1.6874869e-01
 -7.9708219e-02
  3.9677270e-02
 -4.6445381e-02
  3.3420897e-01
  1.2708609e-01
 -1.1997209e-01
  6.0643129e-02
  9.2790179e-02
 -7.5597622e-02
  2.8466579e-02
  1.0531343e-01
  1.1132879e-01
 -1.7993536e-02
  5.3733591e-02
 -7.9288214e-02
  1.1965603e-01
 -2.5543860e-01
 -3.5129905e-01
 -1.3740038e+00
 -1.9894429e+00
  5.3706814e-02
 -2.5239512e-02
  2.6328447e-01
  1.4032516e-01
  9.7784728e-02
  3.7501803e-01
  4.7040290e-01
  4.9153361e-01
  4.4777805e-01
  2.0305759e-01
  2.2861715e-01
 -2.7463424e-01
  9.6179709e-02
  1.3859876e-01
 -1.7796401e-02
  1.2135758e-01
  1.3112798e-01
  2.0213233e-01
  2.0647845e-01
  4.0126282e-01
 -1.6102247e-01
  2.5369158e-01
  1.3501447e-01
 -1.5896563e-01
  5.1805712e-02
 -1.9759883e-01
  1.3070682e-01
  1.6089194e-01
 -1.7613191e-02
  5.9626456e-02
  6.5486945e-02
 -7.2090060e-02
  1.9619890e+00
 -1.1923888e+00
 -7.9013848e-01
 -1.5293266e+00
  1.3965489e+00
 -3.1316265e-01
 -1.4111409e+00
 -1.1812773e-01
 -3.7197787e-02
 -3.3299020e-01
  1.1716757e-01
 -1.7696408e+00
 -7.2911882e-01
 -1.1911722e-01
 -8.0085760e-01
  5.2233613e-01
 -1.2982343e+00
 -7.9705638e-01
  9.3050903e-01
 -5.7496732e-01
 -5.0892442e-01
 -1.0010477e+00
 -1.1054342e+00
  1.6837606e+00
  1.5576514e+00
 -2.7886646e-02
  6.4322984e-01
 -1.7242861e-01
  2.2080018e-01
 -4.2928651e-01
 -2.5516221e-01
 -2.2035280e-01
  4.7330491e-02
  2.8466135e-01
 -1.4210349e-01
 -1.7245453e-02
  1.4273345e-01
  4.7254840e-01
 -5.6613171e-01
  9.0024900e-01
 -2.3260701e-01
 -1.0102435e+00
  7.5971340e-03
  3.5806233e-01
  6.4319164e-02
  5.4851349e-02
 -4.4025359e-01
 -3.0619606e-01
  2.6611748e-01
  4.7940713e-01
  9.5170982e-02
 -6.8576479e-01
 -7.6614505e-01
  6.5778017e-01
  1.0960759e-01
  2.8258133e-01
 -1.6004856e+00
 -3.8846338e-01
 -4.7039035e-01
  2.8958187e-01
 -1.2445881e-02
  3.5235964e-02
 -1.1340348e-01
  5.8175631e-02
  9.9489868e-02
 -8.2039200e-02
 -2.0764874e-01
  1.8434066e-02
  5.3161222e-02
  8.1211664e-02
  3.6646289e-01
 -2.4884704e-01
  3.3044156e-02
  8.1521273e-01
 -1.1312194e-01
  1.5998365e-01
  8.9928216e-01
  3.6508273e-03
 -1.9770528e-01
 -7.8739703e-02
 -2.6604679e-01
  2.4515158e-01
  1.8520090e-01
 -3.2132033e-01
  1.4208783e-01
 -6.7047246e-02
  3.6283222e-01
  2.7482814e-01
 -6.7858362e-01
  2.2180589e-01
 -1.7718849e-01
  5.2889061e-01
  1.7645100e-01
  2.9943898e-01
 -2.9370519e-03
  1.2631182e-01
  8.7238476e-02
  3.6559511e-02
 -4.7783636e-02
 -1.0401718e-01
  2.2366464e-02
  1.9461641e-01
 -3.7180382e-01
  4.6473764e-02
 -4.3421496e-02
  6.7702413e-01
  2.7806544e+00
  1.1471298e+00
 -7.0231813e-01
 -3.5590497e-01
 -5.5831152e-01
  6.3888532e-01
  3.3904308e-01
 -1.5298074e-01
 -4.7187653e-01
  2.3171349e-01
  1.9357309e+00
  5.7042450e-01
 -4.6057439e-01
  2.9035664e-01
  1.0532686e+00
  1.5316434e+00
  4.5060760e-01
 -4.2822617e-01
  4.4773977e-02
  7.5718731e-01
  1.8514979e+00
  6.5091032e-01
  9.8724551e-02
  5.8033150e-01
  4.2308915e-02
 -1.0874617e-01
 -6.6622039e-03
  6.1854880e-02
 -3.5726577e-01
  7.6460920e-02
  1.1336551e-01
  7.3280215e-02
 -2.3472880e-01
  2.0196173e-02
 -1.6894124e+00
  1.8628579e+00
 -1.1941650e+00
  2.0546775e+00
 -4.3755852e-02
  1.4048611e+00
  2.5085883e+00
  3.7122661e-01
 -1.0755047e-01
 -1.2917925e-01
 -2.6945490e-01
  1.2937077e+00
  1.0256501e+00
  7.7688643e-03
 -6.5318990e-01
 -7.7270889e-01
  1.6900283e+00
  1.9007334e+00
 -5.4880083e-01
  4.0321323e-01
  1.1799706e-01
  2.4122532e-01
  7.8900427e-01
 -6.4093572e-01
  1.3946373e+00
  2.1901587e-01
 -6.6921592e-01
  1.4555047e-01
  1.5548472e-01
 -5.2588040e-01
  2.4959186e-01
  5.2591258e-01
  3.6231924e-02
 -5.7311326e-01
  2.9007652e-01
  5.8419758e-01
  1.4560728e-01
 -4.9244890e-01
  4.3327942e-01
 -1.4082803e-01
  2.2543895e-01
  5.0813597e-01
  1.8121798e-01
  6.2851596e-01
  6.7465538e-01
 -1.5090933e+00
 -3.7514502e-01
  7.4208312e-02
 -3.7377280e-01
 -5.7109165e-01
  2.6668668e-01
  5.4624927e-01
  1.7476746e-01
  8.3775632e-03
 -1.6513178e-01
 -7.1972311e-01
  1.1193886e+00
  1.4674622e-01
 -4.3818116e-01
 -1.8071611e+00
  3.6165786e-01
 -1.0357889e-03
  1.1467770e-01
 -4.1386578e-03
 -3.8883153e-01
  6.1042152e-02
  4.4967416e-01
  2.7213165e-01
  5.0683666e-02
  2.3325019e-01
 -2.6423505e-02
 -1.0553785e-01
  1.9668891e-01
 -4.9258471e-01
  1.8492876e-02
 -2.0838393e-01
 -1.9573621e-01
  1.7045568e-03
 -1.9332573e-01
  1.1029210e-01
 -3.6008198e-02
 -2.8840798e-01
 -1.2351681e-01
  1.0355466e-01
  4.8643246e-01
  9.6675038e-02
 -3.5944715e-01
  2.7487228e-02
 -3.8681354e-03
 -1.7763008e-01
 -5.5950973e-03
 -5.7391036e-01
 -1.6431892e-01
  5.0001916e-02
  1.5482658e-01
  8.2767801e-03
 -9.4943866e-03
  8.9423656e-02
  1.4031585e-01
  2.4704590e-02
 -5.9900805e-02
 -1.6428870e-01
  1.4554970e-01
 -9.8089404e-02
  1.0041905e-01
 -1.2982877e+00
 -2.6045423e+00
 -3.4709783e+00
 -6.7993963e-01
 -6.9773656e-01
  8.7064362e-01
 -3.0181894e-01
 -5.4196450e-03
  3.7506559e-01
 -2.5204083e-01
  1.2148190e+00
  3.5774800e-01
 -1.5044858e-01
  3.1947330e-01
  4.7042784e-01
  2.3241171e-01
 -2.5905219e-01
 -7.1638101e-01
  7.6363814e-01
  3.2404846e-01
  9.3853277e-01
  4.8244059e-01
  1.2304866e+00
 -3.6580047e-01
  4.9351278e-01
  7.7090733e-02
