  DATE: 2018-03-30 CONTRIBUTOR: Xiaowang Zhou xzhou@sandia.gov and Lucas Hale lucas.hale@nist.gov CITATION: X. W. Zhou, R. A. Johnson, H. N. G. Wadley, Phys. Rev. B, 69, 144113(2004)
  Generated from Zhou04_create_v2.f
  Fixes precision issues with older version
    1 V                       
 2000  0.6641666513303089E-01 2000  0.2902371491063312E-02  0.5801840610635560E+01
   23     50.940         3.6694    fcc     
  0.0000000000000000E+00  0.3450466537703361E+00  0.3170020052974771E+00  0.2891016743914188E+00  0.2613452808621584E+00
  0.2337324445196889E+00  0.2062627851740082E+00  0.1789359226351115E+00  0.1517514767129953E+00  0.1247090672176538E+00
  0.9780831395908329E-01  0.7104883674728057E-01  0.4443025539224088E-01  0.1795218970395851E-01 -0.8385740507567796E-02
 -0.3458391543234596E-01 -0.6064271526037679E-01 -0.8656252018166644E-01 -0.1123437103862188E+00 -0.1379866660640383E+00
 -0.1634917674051284E+00 -0.1888593945994947E+00 -0.2140899278371395E+00 -0.2391837473080680E+00 -0.2641412332022863E+00
 -0.2889627657097953E+00 -0.3136487250206019E+00 -0.3381994913247084E+00 -0.3626154448121199E+00 -0.3868969656728423E+00
 -0.4110444340968762E+00 -0.4350582302742296E+00 -0.4589387343949034E+00 -0.4826863266489037E+00 -0.5063013872262347E+00
 -0.5297842963169010E+00 -0.5531354341109060E+00 -0.5763551807982541E+00 -0.5994439165689491E+00 -0.6224020216129960E+00
 -0.6452298761203998E+00 -0.6679278602811622E+00 -0.6904963542852907E+00 -0.7129357383227863E+00 -0.7352463925836552E+00
 -0.7574286972579012E+00 -0.7794830325355289E+00 -0.8014097786065419E+00 -0.8232093156609448E+00 -0.8448820238887420E+00
 -0.8664282834799371E+00 -0.8878484746245354E+00 -0.9091429775125393E+00 -0.9303121723339560E+00 -0.9513564392787863E+00
 -0.9722761585370365E+00 -0.9930717102987097E+00 -0.1013743474753813E+01 -0.1034291832092347E+01 -0.1054717162504318E+01
 -0.1075019846179730E+01 -0.1095200263308586E+01 -0.1115258794080892E+01 -0.1135195818686650E+01 -0.1155011717315868E+01
 -0.1174706870158547E+01 -0.1194281657404691E+01 -0.1213736459244307E+01 -0.1233071655867396E+01 -0.1252287627463964E+01
 -0.1271384754224017E+01 -0.1290363416337556E+01 -0.1309223993994586E+01 -0.1327966867385113E+01 -0.1346592416699140E+01
 -0.1365101022126671E+01 -0.1383493063857710E+01 -0.1401768922082262E+01 -0.1419928976990331E+01 -0.1437973608771922E+01
 -0.1455903197617038E+01 -0.1473718123715684E+01 -0.1491418767257864E+01 -0.1509005508433581E+01 -0.1526478727432842E+01
 -0.1543838804445649E+01 -0.1561086119662008E+01 -0.1578221053271921E+01 -0.1595243985465393E+01 -0.1612155296432430E+01
 -0.1628955366363034E+01 -0.1645644575447210E+01 -0.1662223303874963E+01 -0.1678691931836296E+01 -0.1695050839521214E+01
 -0.1711300407119722E+01 -0.1727441014821822E+01 -0.1743473042817521E+01 -0.1759396871296821E+01 -0.1775212880449726E+01
 -0.1790921450466243E+01 -0.1806522961536374E+01 -0.1822017793850124E+01 -0.1837406327597496E+01 -0.1852688942968496E+01
 -0.1867866020153128E+01 -0.1882937939341395E+01 -0.1897905080723302E+01 -0.1912767824488853E+01 -0.1927526550828053E+01
 -0.1942181639930905E+01 -0.1956733471987415E+01 -0.1971182427187586E+01 -0.1985528885721422E+01 -0.1999773227778928E+01
 -0.2013915833550107E+01 -0.2027957083224964E+01 -0.2041897356993505E+01 -0.2055737035045732E+01 -0.2069476497571649E+01
 -0.2083116124761261E+01 -0.2096656296804574E+01 -0.2110097393891588E+01 -0.2123439796212313E+01 -0.2136683883956748E+01
 -0.2149830037314899E+01 -0.2162878636476771E+01 -0.2175830061632368E+01 -0.2188684692971695E+01 -0.2201442910684754E+01
 -0.2214105094961551E+01 -0.2226671625992089E+01 -0.2239142883966373E+01 -0.2251519249074408E+01 -0.2263801101506197E+01
 -0.2275988821451745E+01 -0.2288082789101056E+01 -0.2300083384644133E+01 -0.2311990988270983E+01 -0.2323805980171608E+01
 -0.2335528740536013E+01 -0.2347159649554201E+01 -0.2358699087416178E+01 -0.2370147434311948E+01 -0.2381505070431515E+01
 -0.2392772375964883E+01 -0.2403949731102057E+01 -0.2415037516033039E+01 -0.2426036110947835E+01 -0.2436945896036451E+01
 -0.2447767251488887E+01 -0.2458500557495150E+01 -0.2469146194245245E+01 -0.2479704541929173E+01 -0.2490175980736941E+01
 -0.2500560890858554E+01 -0.2510859652484013E+01 -0.2521072645803325E+01 -0.2531200251006492E+01 -0.2541242848283521E+01
 -0.2551200817824414E+01 -0.2561074539819176E+01 -0.2570864394457810E+01 -0.2580570761930323E+01 -0.2590194022426716E+01
 -0.2599734556136997E+01 -0.2609192743251167E+01 -0.2618568963959231E+01 -0.2627863598451194E+01 -0.2637077026917059E+01
 -0.2646209629546832E+01 -0.2655261786530517E+01 -0.2664233878058116E+01 -0.2673126284319636E+01 -0.2681939385505079E+01
 -0.2690673561804451E+01 -0.2699329193407755E+01 -0.2707906660504996E+01 -0.2716406343286179E+01 -0.2724828621941306E+01
 -0.2733173876660382E+01 -0.2741442487633413E+01 -0.2749634835050402E+01 -0.2757751299101352E+01 -0.2765792259976270E+01
 -0.2773758097865158E+01 -0.2781649192958020E+01 -0.2789465925444862E+01 -0.2797208675515687E+01 -0.2804877823360501E+01
 -0.2812473749169305E+01 -0.2819996833132106E+01 -0.2827447455438907E+01 -0.2834825996279713E+01 -0.2842132835844528E+01
 -0.2849368354323356E+01 -0.2856532931906200E+01 -0.2863626948783067E+01 -0.2870650785143960E+01 -0.2877604821178882E+01
 -0.2884489437077839E+01 -0.2891305013030834E+01 -0.2898051929227872E+01 -0.2904730565858957E+01 -0.2911341303114093E+01
 -0.2917884521183285E+01 -0.2924360600256536E+01 -0.2930769920523851E+01 -0.2937112862175235E+01 -0.2943389805400691E+01
 -0.2949601130390224E+01 -0.2955747217333837E+01 -0.2961828446421536E+01 -0.2967845197843324E+01 -0.2973797851789206E+01
 -0.2979686788449185E+01 -0.2985512388013266E+01 -0.2991275030671455E+01 -0.2996975096613753E+01 -0.3002612966030167E+01
 -0.3008189019110699E+01 -0.3013703636045355E+01 -0.3019157197024138E+01 -0.3024550082237053E+01 -0.3029882671874105E+01
 -0.3035155346125296E+01 -0.3040368485180632E+01 -0.3045522469230117E+01 -0.3050617678463754E+01 -0.3055654493071549E+01
 -0.3060633293243506E+01 -0.3065554459169627E+01 -0.3070418371039919E+01 -0.3075225409044386E+01 -0.3079975953373030E+01
 -0.3084670384215857E+01 -0.3089309081762872E+01 -0.3093892426204077E+01 -0.3098420797729478E+01 -0.3102894576529078E+01
 -0.3107314142792882E+01 -0.3111679876710894E+01 -0.3115992158473119E+01 -0.3120251368269560E+01 -0.3124457886290222E+01
 -0.3128612092725109E+01 -0.3132714367764226E+01 -0.3136765091597575E+01 -0.3140764644415164E+01 -0.3144713406406993E+01
 -0.3148611757763069E+01 -0.3152460078673395E+01 -0.3156258749327977E+01 -0.3160008149916817E+01 -0.3163708660629920E+01
 -0.3167360661657291E+01 -0.3170964533188934E+01 -0.3174520655414852E+01 -0.3178029408525051E+01 -0.3181491172709534E+01
 -0.3184906328158306E+01 -0.3188275255061370E+01 -0.3191598333608732E+01 -0.3194875943990395E+01 -0.3198108466396364E+01
 -0.3201296281016643E+01 -0.3204439768041235E+01 -0.3207539307660146E+01 -0.3210595280063380E+01 -0.3213608065440940E+01
 -0.3216578043982832E+01 -0.3219505595879058E+01 -0.3222391101319625E+01 -0.3225234940494535E+01 -0.3228037493593793E+01
 -0.3230799140807403E+01 -0.3233520262325370E+01 -0.3236201238337698E+01 -0.3238842449034391E+01 -0.3241444274605453E+01
 -0.3244007095240887E+01 -0.3246531291130700E+01 -0.3249017242464895E+01 -0.3251465329433477E+01 -0.3253875932226448E+01
 -0.3256249431033813E+01 -0.3258586206045579E+01 -0.3260886637451747E+01 -0.3263151105442323E+01 -0.3265379990207310E+01
 -0.3267573671936713E+01 -0.3269732530820536E+01 -0.3271856947048783E+01 -0.3273947300811459E+01 -0.3276003972298568E+01
 -0.3278027341700114E+01 -0.3280017789206100E+01 -0.3281975695006533E+01 -0.3283901439291415E+01 -0.3285795402250752E+01
 -0.3287657964074546E+01 -0.3289489504952804E+01 -0.3291290405075527E+01 -0.3293061044632722E+01 -0.3294801803814392E+01
 -0.3296513062810542E+01 -0.3298195201811175E+01 -0.3299848601006296E+01 -0.3301473640585909E+01 -0.3303070700740019E+01
 -0.3304640161658629E+01 -0.3306182403531745E+01 -0.3307697806549369E+01 -0.3309186750901506E+01 -0.3310649616778162E+01
 -0.3312086784369339E+01 -0.3313498633865042E+01 -0.3314885545455275E+01 -0.3316247899330043E+01 -0.3317586075679350E+01
 -0.3318900454693200E+01 -0.3320191416561598E+01 -0.3321459341474546E+01 -0.3322704609622051E+01 -0.3323927601194115E+01
 -0.3325128696380744E+01 -0.3326308275371941E+01 -0.3327466718357711E+01 -0.3328604405528058E+01 -0.3329721717072986E+01
 -0.3330819033182500E+01 -0.3331896734046603E+01 -0.3332955199855300E+01 -0.3333994810798595E+01 -0.3335015947066493E+01
 -0.3336018988848998E+01 -0.3337004316336113E+01 -0.3337972309717843E+01 -0.3338923349184193E+01 -0.3339857814925166E+01
 -0.3340776087130767E+01 -0.3341678545991000E+01 -0.3342565571695870E+01 -0.3343437544435380E+01 -0.3344294844399535E+01
 -0.3345137851778339E+01 -0.3345966946761796E+01 -0.3346782509539910E+01 -0.3347584920302687E+01 -0.3348374559240129E+01
 -0.3349151806542242E+01 -0.3349917042399029E+01 -0.3350670647000495E+01 -0.3351413000536644E+01 -0.3352144483197480E+01
 -0.3352893988938170E+01 -0.3353756145895340E+01 -0.3354604718687661E+01 -0.3355439696252443E+01 -0.3356261067526999E+01
 -0.3357068821448637E+01 -0.3357862946954671E+01 -0.3358643432982409E+01 -0.3359410268469164E+01 -0.3360163442352246E+01
 -0.3360902943568966E+01 -0.3361628761056635E+01 -0.3362340883752564E+01 -0.3363039300594063E+01 -0.3363724000518443E+01
 -0.3364394972463017E+01 -0.3365052205365093E+01 -0.3365695688161984E+01 -0.3366325409791000E+01 -0.3366941359189452E+01
 -0.3367543525294651E+01 -0.3368131897043907E+01 -0.3368706463374533E+01 -0.3369267213223837E+01 -0.3369814135529132E+01
 -0.3370347219227729E+01 -0.3370866453256937E+01 -0.3371371826554070E+01 -0.3371863328056435E+01 -0.3372340946701346E+01
 -0.3372804671426112E+01 -0.3373254491168045E+01 -0.3373690394864456E+01 -0.3374112371452655E+01 -0.3374520409869953E+01
 -0.3374914499053662E+01 -0.3375294627941091E+01 -0.3375660785469553E+01 -0.3376012960576357E+01 -0.3376351142198816E+01
 -0.3376675319274239E+01 -0.3376985480739937E+01 -0.3377281615533222E+01 -0.3377563712591404E+01 -0.3377831760851794E+01
 -0.3378085749251704E+01 -0.3378325666728443E+01 -0.3378551502219323E+01 -0.3378763244661656E+01 -0.3378960882992750E+01
 -0.3379144406149918E+01 -0.3379313803070471E+01 -0.3379469062691718E+01 -0.3379610173950973E+01 -0.3379737125785544E+01
 -0.3379849907132743E+01 -0.3379948506929881E+01 -0.3380032914114269E+01 -0.3380103117623217E+01 -0.3380159106394037E+01
 -0.3380200869364039E+01 -0.3380228395470535E+01 -0.3380241673650834E+01 -0.3380240692842249E+01 -0.3380225441982090E+01
 -0.3380195910007668E+01 -0.3380152085856293E+01 -0.3380093958465277E+01 -0.3380021516771931E+01 -0.3379934749713564E+01
 -0.3379833646227489E+01 -0.3379718195251017E+01 -0.3379588385721457E+01 -0.3379444206576122E+01 -0.3379285646752321E+01
 -0.3379112695187366E+01 -0.3378925340818567E+01 -0.3378723572583237E+01 -0.3378507379418684E+01 -0.3378276750262220E+01
 -0.3378031674051158E+01 -0.3377772139722805E+01 -0.3377498136214476E+01 -0.3377209652463478E+01 -0.3376906677407125E+01
 -0.3376589199982726E+01 -0.3376257209127592E+01 -0.3375910693779035E+01 -0.3375549642874366E+01 -0.3375174045350894E+01
 -0.3374783890145931E+01 -0.3374379166196789E+01 -0.3373959862440777E+01 -0.3373525967815207E+01 -0.3373077471257389E+01
 -0.3372614361704636E+01 -0.3372136628094256E+01 -0.3371644259363562E+01 -0.3371137244449864E+01 -0.3370615572290472E+01
 -0.3370079231822699E+01 -0.3369528211983855E+01 -0.3368962501711250E+01 -0.3368382089942196E+01 -0.3367786965614003E+01
 -0.3367177117663983E+01 -0.3366552535029447E+01 -0.3365913206647703E+01 -0.3365259121456066E+01 -0.3364590268391844E+01
 -0.3363906636392349E+01 -0.3363208214394892E+01 -0.3362494991336783E+01 -0.3361766956155334E+01 -0.3361024097787855E+01
 -0.3360266405171657E+01 -0.3359493867244052E+01 -0.3358706472942349E+01 -0.3357904211203861E+01 -0.3357087070965897E+01
 -0.3356255041165769E+01 -0.3355408110740788E+01 -0.3354546268628264E+01 -0.3353669503765508E+01 -0.3352777805089832E+01
 -0.3351871161538546E+01 -0.3351413974760308E+01 -0.3350973217635938E+01 -0.3350526394714723E+01 -0.3350073527960315E+01
 -0.3349614639215484E+01 -0.3349149750203035E+01 -0.3348678882526690E+01 -0.3348202057671986E+01 -0.3347719297007148E+01
 -0.3347230621783963E+01 -0.3346736053138643E+01 -0.3346235612092673E+01 -0.3345729319553669E+01 -0.3345217196316208E+01
 -0.3344699263062658E+01 -0.3344175540364008E+01 -0.3343646048680678E+01 -0.3343110808363327E+01 -0.3342569839653657E+01
 -0.3342023162685203E+01 -0.3341470797484118E+01 -0.3340912763969952E+01 -0.3340349081956425E+01 -0.3339779771152192E+01
 -0.3339204851161594E+01 -0.3338624341485417E+01 -0.3338038261521626E+01 -0.3337446630566110E+01 -0.3336849467813410E+01
 -0.3336246792357436E+01 -0.3335638623192193E+01 -0.3335024979212485E+01 -0.3334405879214621E+01 -0.3333781341897115E+01
 -0.3333151385861373E+01 -0.3332516029612381E+01 -0.3331875291559382E+01 -0.3331229190016553E+01 -0.3330577743203666E+01
 -0.3329920969246755E+01 -0.3329258886178769E+01 -0.3328591511940218E+01 -0.3327918864379821E+01 -0.3327240961255145E+01
 -0.3326557820233230E+01 -0.3325869458891225E+01 -0.3325175894717004E+01 -0.3324477145109782E+01 -0.3323773227380728E+01
 -0.3323064158753566E+01 -0.3322349956365179E+01 -0.3321630637266206E+01 -0.3320906218421620E+01 -0.3320176716711326E+01
 -0.3319442148930732E+01 -0.3318702531791325E+01 -0.3317957881921245E+01 -0.3317208215865840E+01 -0.3316453550088238E+01
 -0.3315693900969890E+01 -0.3314929284811128E+01 -0.3314159717831707E+01 -0.3313385216171347E+01 -0.3312605795890270E+01
 -0.3311821472969727E+01 -0.3311032263312532E+01 -0.3310238182743582E+01 -0.3309439247010372E+01 -0.3308635471783512E+01
 -0.3307826872657238E+01 -0.3307013465149915E+01 -0.3306195264704536E+01 -0.3305372286689225E+01 -0.3304544546397723E+01
 -0.3303712059049883E+01 -0.3302874839792149E+01 -0.3302032903698040E+01 -0.3301186265768626E+01 -0.3300334940932996E+01
 -0.3299478944048738E+01 -0.3298618289902389E+01 -0.3297752993209911E+01 -0.3296883068617135E+01 -0.3296008530700222E+01
 -0.3295129393966113E+01 -0.3294245672852971E+01 -0.3293357381730627E+01 -0.3292464534901017E+01 -0.3291567146598616E+01
 -0.3290665230990874E+01 -0.3289758802178642E+01 -0.3288847874196593E+01 -0.3287932461013650E+01 -0.3287012576533401E+01
 -0.3286088234594510E+01 -0.3285159448971135E+01 -0.3284226233373331E+01 -0.3283288601447456E+01 -0.3282346566776573E+01
 -0.3281400142880849E+01 -0.3280449343217946E+01 -0.3279494181183418E+01 -0.3278534670111100E+01 -0.3277570823273485E+01
 -0.3276602653882120E+01 -0.3275630175087974E+01 -0.3274653399981822E+01 -0.3273672341594614E+01 -0.3272687012897851E+01
 -0.3271697426803946E+01 -0.3270703596166596E+01 -0.3269705533781138E+01 -0.3268703252384913E+01 -0.3267696764657619E+01
 -0.3266686083221670E+01 -0.3265671220642538E+01 -0.3264652189429110E+01 -0.3263629002034029E+01 -0.3262601670854038E+01
 -0.3261570208230318E+01 -0.3260534626448833E+01 -0.3259494937740654E+01 -0.3258451154282302E+01 -0.3257403288196068E+01
 -0.3256351351550350E+01 -0.3255295356359971E+01 -0.3254235314586504E+01 -0.3253171238138592E+01 -0.3252103138872264E+01
 -0.3251031028591251E+01 -0.3249954919047302E+01 -0.3248874821940487E+01 -0.3247790748919512E+01 -0.3246702711582020E+01
 -0.3245610721474897E+01 -0.3244514790094572E+01 -0.3243414928887316E+01 -0.3242311149249538E+01 -0.3241203462528083E+01
 -0.3240091880020516E+01 -0.3238976412975420E+01 -0.3237857072592682E+01 -0.3236733870023774E+01 -0.3235606816372044E+01
 -0.3234475922692991E+01 -0.3233341199994548E+01 -0.3232202659237357E+01 -0.3231060311335047E+01 -0.3229914167154504E+01
 -0.3228764237516145E+01 -0.3227610533194187E+01 -0.3226453064916911E+01 -0.3225291843366931E+01 -0.3224126879181457E+01
 -0.3222958182952553E+01 -0.3221785765227399E+01 -0.3220609636508553E+01 -0.3219429807254198E+01 -0.3218246287878400E+01
 -0.3217059088751363E+01 -0.3215868220199677E+01 -0.3214673692506561E+01 -0.3213475515912121E+01 -0.3212273700613584E+01
 -0.3211068256765548E+01 -0.3209859194480221E+01 -0.3208646523827658E+01 -0.3207430254836007E+01 -0.3206210397491732E+01
 -0.3204986961739865E+01 -0.3203759957484221E+01 -0.3202529394587641E+01 -0.3201295282872219E+01 -0.3200057632119526E+01
 -0.3198816452070842E+01 -0.3197571752427377E+01 -0.3196323542850495E+01 -0.3195071832961936E+01 -0.3193816632344036E+01
 -0.3192557950539946E+01 -0.3191295797053846E+01 -0.3190030181351164E+01 -0.3188761112858789E+01 -0.3187488600965284E+01
 -0.3186212655021091E+01 -0.3184933284338751E+01 -0.3183650498193104E+01 -0.3182364305821496E+01 -0.3181074716423991E+01
 -0.3179781739163564E+01 -0.3178485383166313E+01 -0.3177185657521656E+01 -0.3175882571282528E+01 -0.3174576133465584E+01
 -0.3173266353051391E+01 -0.3171953238984628E+01 -0.3170636800174279E+01 -0.3169317045493821E+01 -0.3167993983781423E+01
 -0.3166667623840130E+01 -0.3165337974438054E+01 -0.3164005044308565E+01 -0.3162668842150469E+01 -0.3161329376628204E+01
 -0.3159986656372013E+01 -0.3158640689978134E+01 -0.3157291486008977E+01 -0.3155939052993308E+01 -0.3154583399426423E+01
 -0.3153224533770332E+01 -0.3151862464453929E+01 -0.3150497199873169E+01 -0.3149128748391247E+01 -0.3147757118338764E+01
 -0.3146382318013902E+01 -0.3145004355682599E+01 -0.3143623239578708E+01 -0.3142238977904174E+01 -0.3140851578829201E+01
 -0.3139461050492412E+01 -0.3138067401001021E+01 -0.3136670638430993E+01 -0.3135270770827206E+01 -0.3133867806203619E+01
 -0.3132461752543425E+01 -0.3131052617799213E+01 -0.3129640409893131E+01 -0.3128225136717038E+01 -0.3126806806132665E+01
 -0.3125385425971765E+01 -0.3123961004036276E+01 -0.3122533548098465E+01 -0.3121103065901085E+01 -0.3119669565157531E+01
 -0.3118233053551981E+01 -0.3116793538739553E+01 -0.3115351028346452E+01 -0.3113905529970115E+01 -0.3112457051179361E+01
 -0.3111005599514535E+01 -0.3109551182487652E+01 -0.3108093807582544E+01 -0.3106633482254999E+01 -0.3105170213932905E+01
 -0.3103704010016394E+01 -0.3102234877877974E+01 -0.3100762824862680E+01 -0.3099287858288200E+01 -0.3097809985445022E+01
 -0.3096329213596570E+01 -0.3094845549979329E+01 -0.3093359001802995E+01 -0.3091869576250600E+01 -0.3090377280478648E+01
 -0.3088882121617242E+01 -0.3087384106770229E+01 -0.3085883243015316E+01 -0.3084379537404205E+01 -0.3082872996962730E+01
 -0.3081363628690970E+01 -0.3079851439563389E+01 -0.3078336436528960E+01 -0.3076818626511287E+01 -0.3075298016408732E+01
 -0.3073774613094542E+01 -0.3072248423416970E+01 -0.3070719454199395E+01 -0.3069187712240453E+01 -0.3067653204314146E+01
 -0.3066115937169974E+01 -0.3064575917533049E+01 -0.3063033152104212E+01 -0.3061487647560156E+01 -0.3059939410553542E+01
 -0.3058388447713114E+01 -0.3056834765643818E+01 -0.3055278370926916E+01 -0.3053719270120100E+01 -0.3052157469757605E+01
 -0.3050592976350329E+01 -0.3049025796385935E+01 -0.3047455936328971E+01 -0.3045883402620981E+01 -0.3044308201680608E+01
 -0.3042730339903715E+01 -0.3041149823663485E+01 -0.3039566659310533E+01 -0.3037980853173015E+01 -0.3036392411556736E+01
 -0.3034801340745251E+01 -0.3033207646999976E+01 -0.3031611336560292E+01 -0.3030012415643653E+01 -0.3028410890445682E+01
 -0.3026806767140283E+01 -0.3025200051879736E+01 -0.3023590750794809E+01 -0.3021978869994850E+01 -0.3020364415567891E+01
 -0.3018747393580754E+01 -0.3017127810079139E+01 -0.3015505671087737E+01 -0.3013880982610321E+01 -0.3012253750629840E+01
 -0.3010623981108526E+01 -0.3008991679987983E+01 -0.3007356853189289E+01 -0.3005719506613090E+01 -0.3004079646139691E+01
 -0.3002437277629155E+01 -0.3000792406921401E+01 -0.2999145039836283E+01 -0.2997495182173701E+01 -0.2995842839713680E+01
 -0.2994188018216470E+01 -0.2992530723422632E+01 -0.2990870961053130E+01 -0.2989208736809425E+01 -0.2987544056373560E+01
 -0.2985876925408249E+01 -0.2984207349556973E+01 -0.2982535334444059E+01 -0.2980860885674771E+01 -0.2979184008835402E+01
 -0.2977504709493351E+01 -0.2975822993197219E+01 -0.2974138865476887E+01 -0.2972452331843608E+01 -0.2970763397790085E+01
 -0.2969072068790559E+01 -0.2967378350300892E+01 -0.2965682247758652E+01 -0.2963983766583191E+01 -0.2962282912175732E+01
 -0.2960579689919451E+01 -0.2958874105179551E+01 -0.2957166163303353E+01 -0.2955455869620371E+01 -0.2953743229442391E+01
 -0.2952028248063554E+01 -0.2950310930760431E+01 -0.2948591282792107E+01 -0.2946869309400254E+01 -0.2945145015809211E+01
 -0.2943418407226060E+01 -0.2941689488840708E+01 -0.2939958265825954E+01 -0.2938224743337573E+01 -0.2936488926514390E+01
 -0.2934750820478353E+01 -0.2933010430334605E+01 -0.2931267761171571E+01 -0.2929522818061013E+01 -0.2927775606058120E+01
 -0.2926026130201573E+01 -0.2924274395513617E+01 -0.2922520407000138E+01 -0.2920764169650731E+01 -0.2919005688438774E+01
 -0.2917244968321495E+01 -0.2915482014240050E+01 -0.2913716831119582E+01 -0.2911949423869305E+01 -0.2910179797382560E+01
 -0.2908407956536895E+01 -0.2906633906194127E+01 -0.2904857651200410E+01 -0.2903079196386309E+01 -0.2901298546566862E+01
 -0.2899515706541651E+01 -0.2897730681094863E+01 -0.2895943474995365E+01 -0.2894154092996763E+01 -0.2892362539837472E+01
 -0.2890568820240780E+01 -0.2888772938914910E+01 -0.2886974900553092E+01 -0.2885174709833620E+01 -0.2883372371419921E+01
 -0.2881567889960615E+01 -0.2879761270089581E+01 -0.2877952516426019E+01 -0.2876141633574512E+01 -0.2874328626125092E+01
 -0.2872513498653295E+01 -0.2870696255720229E+01 -0.2868876901872631E+01 -0.2867055441642933E+01 -0.2865231879549316E+01
 -0.2863406220095777E+01 -0.2861578467772185E+01 -0.2859748627054338E+01 -0.2857916702404033E+01 -0.2856082698269112E+01
 -0.2854246619083529E+01 -0.2852408469267405E+01 -0.2850568253227090E+01 -0.2848725975355217E+01 -0.2846881640030757E+01
 -0.2845035251619084E+01 -0.2843186814472026E+01 -0.2841336332927924E+01 -0.2839483811311686E+01 -0.2837629253934848E+01
 -0.2835772665095620E+01 -0.2833914049078953E+01 -0.2832053410156590E+01 -0.2830190752587112E+01 -0.2828326080616008E+01
 -0.2826459398475717E+01 -0.2824590710385688E+01 -0.2822720020552431E+01 -0.2820847333169572E+01 -0.2818972652417906E+01
 -0.2817095982465449E+01 -0.2815217327467491E+01 -0.2813336691566648E+01 -0.2811454078892915E+01 -0.2809569493563716E+01
 -0.2807682939683958E+01 -0.2805794421346080E+01 -0.2803903942630105E+01 -0.2802011507603690E+01 -0.2800117120322178E+01
 -0.2798220784828646E+01 -0.2796322505153957E+01 -0.2794422285316808E+01 -0.2792520129323780E+01 -0.2790616041169388E+01
 -0.2788710024836129E+01 -0.2786802084294530E+01 -0.2784892223503199E+01 -0.2782980446408871E+01 -0.2781066756946452E+01
 -0.2779151159039077E+01 -0.2777233656598149E+01 -0.2775314253523390E+01 -0.2773392953702882E+01 -0.2771469761013124E+01
 -0.2769544679319070E+01 -0.2767617712474177E+01 -0.2765688864320454E+01 -0.2763758138688504E+01 -0.2761825539397573E+01
 -0.2759891070255593E+01 -0.2757954735059226E+01 -0.2756016537593913E+01 -0.2754076481633916E+01 -0.2752134570942361E+01
 -0.2750190809271283E+01 -0.2748245200361674E+01 -0.2746297747943521E+01 -0.2744348455735852E+01 -0.2742397327446781E+01
 -0.2740444366773547E+01 -0.2738489577402562E+01 -0.2736532963009449E+01 -0.2734574527259086E+01 -0.2732614273805650E+01
 -0.2730652206292657E+01 -0.2728688328353004E+01 -0.2726722643609013E+01 -0.2724755155672468E+01 -0.2722785868144659E+01
 -0.2720814784616425E+01 -0.2718841908668189E+01 -0.2716867243870007E+01 -0.2714890793781597E+01 -0.2712912561952391E+01
 -0.2710932551921568E+01 -0.2708950767218094E+01 -0.2706967211360765E+01 -0.2704981887858244E+01 -0.2702994800209102E+01
 -0.2701005951901852E+01 -0.2699015346414996E+01 -0.2697022987217054E+01 -0.2695028877766615E+01 -0.2693033021512362E+01
 -0.2691035421893119E+01 -0.2689036082337883E+01 -0.2687035006265869E+01 -0.2685032197086540E+01 -0.2683027658199649E+01
 -0.2681021392995274E+01 -0.2679013404853857E+01 -0.2677003697146239E+01 -0.2674992273233696E+01 -0.2672979136467978E+01
 -0.2670964290191346E+01 -0.2668947737736602E+01 -0.2666929482427130E+01 -0.2664909527576935E+01 -0.2662887876490668E+01
 -0.2660864532463674E+01 -0.2658839498782017E+01 -0.2656812778722520E+01 -0.2654784375552801E+01 -0.2652754292531303E+01
 -0.2650722532907334E+01 -0.2648689099921098E+01 -0.2646653996803729E+01 -0.2644617226777329E+01 -0.2642578793054996E+01
 -0.2640538698840864E+01 -0.2638496947330130E+01 -0.2636453541709096E+01 -0.2634408485155192E+01 -0.2632361780837019E+01
 -0.2630313431914373E+01 -0.2628263441538288E+01 -0.2626211812851057E+01 -0.2624158548986277E+01 -0.2622103653068867E+01
 -0.2620047128215114E+01 -0.2617988977532699E+01 -0.2615929204120726E+01 -0.2613867811069758E+01 -0.2611804801461850E+01
 -0.2609740178370573E+01 -0.2607673944861056E+01 -0.2605606103990008E+01 -0.2603536658805751E+01 -0.2601465612348257E+01
 -0.2599392967649170E+01 -0.2597318727731844E+01 -0.2595242895611368E+01 -0.2593165474294597E+01 -0.2591086466780188E+01
 -0.2589005876058623E+01 -0.2586923705112240E+01 -0.2584839956915270E+01 -0.2582754634433855E+01 -0.2580667740626087E+01
 -0.2578579278442032E+01 -0.2576489250823764E+01 -0.2574397660705387E+01 -0.2572304511013070E+01 -0.2570209804665075E+01
 -0.2568113544571784E+01 -0.2566015733635728E+01 -0.2563916374751616E+01 -0.2561815470806360E+01 -0.2559713024679112E+01
 -0.2557609039241281E+01 -0.2555503517356567E+01 -0.2553396461880990E+01 -0.2551287875662913E+01 -0.2549177761543072E+01
 -0.2547066122354606E+01 -0.2544952960923081E+01 -0.2542838280066513E+01 -0.2540722082595408E+01 -0.2538604371312774E+01
 -0.2536485149014156E+01 -0.2534364418487666E+01 -0.2532242182513998E+01 -0.2530118443866465E+01 -0.2527993205311022E+01
 -0.2525866469606290E+01 -0.2523738239503585E+01 -0.2521608517746941E+01 -0.2519477307073140E+01 -0.2517344610211734E+01
 -0.2515210429885073E+01 -0.2513074768808327E+01 -0.2510937629689516E+01 -0.2508799015229534E+01 -0.2506658928122171E+01
 -0.2504517371054142E+01 -0.2502374346705108E+01 -0.2500229857747707E+01 -0.2498083906847569E+01 -0.2495936496663353E+01
 -0.2493787629846762E+01 -0.2491637309042568E+01 -0.2489485536888641E+01 -0.2487332316015971E+01 -0.2485177649048691E+01
 -0.2483021538604103E+01 -0.2480863987292698E+01 -0.2478704997718185E+01 -0.2476544572477511E+01 -0.2474382714160885E+01
 -0.2472219425351803E+01 -0.2470054708627070E+01 -0.2467888566556824E+01 -0.2465721001704558E+01 -0.2463552016627143E+01
 -0.2461381613874854E+01 -0.2459209795991388E+01 -0.2457036565513891E+01 -0.2454861924972979E+01 -0.2452685876892758E+01
 -0.2450508423790851E+01 -0.2448329568178418E+01 -0.2446149312560177E+01 -0.2443967659434430E+01 -0.2441784611293080E+01
 -0.2439600170621657E+01 -0.2437414339899338E+01 -0.2435227121598968E+01 -0.2433038518187086E+01 -0.2430848532123941E+01
 -0.2428657165863515E+01 -0.2426464421853549E+01 -0.2424270302535555E+01 -0.2422074810344847E+01 -0.2419877947710558E+01
 -0.2417679717055659E+01 -0.2415480120796984E+01 -0.2413279161345246E+01 -0.2411076841105060E+01 -0.2408873162474968E+01
 -0.2406668127847453E+01 -0.2404461739608963E+01 -0.2402254000139931E+01 -0.2400044911814792E+01 -0.2397834477002010E+01
 -0.2395622698064093E+01 -0.2393409577357613E+01 -0.2391195117233227E+01 -0.2388979320035702E+01 -0.2386762188103924E+01
 -0.2384543723770926E+01 -0.2382323929363907E+01 -0.2380102807204247E+01 -0.2377880359607532E+01 -0.2375656588883569E+01
 -0.2373431497336408E+01 -0.2371205087264360E+01 -0.2368977360960015E+01 -0.2366748320710267E+01 -0.2364517968796323E+01
 -0.2362286307493731E+01 -0.2360053339072394E+01 -0.2357819065796589E+01 -0.2355583489924989E+01 -0.2353346613710677E+01
 -0.2351108439401168E+01 -0.2348868969238427E+01 -0.2346628205458884E+01 -0.2344386150293456E+01 -0.2342142805967567E+01
 -0.2339898174701156E+01 -0.2337652258708711E+01 -0.2335405060199271E+01 -0.2333156581376455E+01 -0.2330906824438475E+01
 -0.2328655791578154E+01 -0.2326403484982946E+01 -0.2324149906834950E+01 -0.2321895059310930E+01 -0.2319638944582333E+01
 -0.2317381564815305E+01 -0.2315122922170708E+01 -0.2312863018804139E+01 -0.2310601856865945E+01 -0.2308339438501243E+01
 -0.2306075765849931E+01 -0.2303810841046716E+01 -0.2301544666221119E+01 -0.2299277243497498E+01 -0.2297008574995064E+01
 -0.2294738662827898E+01 -0.2292467509104967E+01 -0.2290195115930140E+01 -0.2287921485402205E+01 -0.2285646619614887E+01
 -0.2283370520656860E+01 -0.2281093190611769E+01 -0.2278814631558242E+01 -0.2276534845569908E+01 -0.2274253834715411E+01
 -0.2271971601058433E+01 -0.2269688146657695E+01 -0.2267403473566993E+01 -0.2265117583835197E+01 -0.2262830479506273E+01
 -0.2260542162619304E+01 -0.2258252635208493E+01 -0.2255961899303192E+01 -0.2253669956927911E+01 -0.2251376810102330E+01
 -0.2249082460841320E+01 -0.2246786911154962E+01 -0.2244490163048549E+01 -0.2242192218522614E+01 -0.2239893079572939E+01
 -0.2237592748190572E+01 -0.2235291226361840E+01 -0.2232988516068367E+01 -0.2230684619287087E+01 -0.2228379537990258E+01
 -0.2226073274145479E+01 -0.2223765829715705E+01 -0.2221457206659258E+01 -0.2219147406929844E+01 -0.2216836432476568E+01
 -0.2214524285243950E+01 -0.2212210967171934E+01 -0.2209896480195909E+01 -0.2207580826246718E+01 -0.2205264007250674E+01
 -0.2202946025129579E+01 -0.2200626881800725E+01 -0.2198306579176927E+01 -0.2195985119166521E+01 -0.2193662503673383E+01
 -0.2191338734596948E+01 -0.2189013813832217E+01 -0.2186687743269774E+01 -0.2184360524795799E+01 -0.2182032160292082E+01
 -0.2179702651636040E+01 -0.2177372000700720E+01 -0.2175040209354826E+01 -0.2172707279462724E+01 -0.2170373212884460E+01
 -0.2168038011475767E+01 -0.2165701677088085E+01 -0.2163364211568573E+01 -0.2161025616760119E+01 -0.2158685894501355E+01
 -0.2156345046626671E+01 -0.2154003074966229E+01 -0.2151659981345973E+01 -0.2149315767587643E+01 -0.2146970435508788E+01
 -0.2144623986922781E+01 -0.2142276423638830E+01 -0.2139927747461989E+01 -0.2137577960193175E+01 -0.2135227063629176E+01
 -0.2132875059562668E+01 -0.2130521949782223E+01 -0.2128167736072327E+01 -0.2125812420213389E+01 -0.2123456003981750E+01
 -0.2121098489149706E+01 -0.2118739877485508E+01 -0.2116380170753383E+01 -0.2114019370713543E+01 -0.2111657479122198E+01
 -0.2109294497731564E+01 -0.2106930428289885E+01 -0.2104565272541432E+01 -0.2102199032226529E+01 -0.2099831709081550E+01
 -0.2097463304838947E+01 -0.2095093821227246E+01 -0.2092723259971071E+01 -0.2090351622791152E+01 -0.2087978911404332E+01
 -0.2085605127523587E+01 -0.2083230272858030E+01 -0.2080854349112927E+01 -0.2078477357989709E+01 -0.2076099301185981E+01
 -0.2073720180395534E+01 -0.2071339997308359E+01 -0.2068958753610653E+01 -0.2066576450984837E+01 -0.2064193091109563E+01
 -0.2061808675659726E+01 -0.2059423206306476E+01 -0.2057036684717229E+01 -0.2054649112555677E+01 -0.2052260491481800E+01
 -0.2049870823151878E+01 -0.2047480109218502E+01 -0.2045088351330580E+01 -0.2042695551133357E+01 -0.2040301710268418E+01
 -0.2037906830373702E+01 -0.2035510913083514E+01 -0.2033113960028531E+01 -0.2030715972835819E+01 -0.2028316953128842E+01
 -0.2025916902527469E+01 -0.2023515822647985E+01 -0.2021113715103106E+01 -0.2018710581501990E+01 -0.2016306423450239E+01
 -0.2013901242549920E+01 -0.2011495040399566E+01 -0.2009087818594196E+01 -0.2006679578725314E+01 -0.2004270322380930E+01
 -0.2001860051145566E+01 -0.1999448766600264E+01 -0.1997036470322598E+01 -0.1994623163886685E+01 -0.1992208848863195E+01
 -0.1989793526819361E+01 -0.1987377199318986E+01 -0.1984959867922458E+01 -0.1982541534186758E+01 -0.1980122199665464E+01
 -0.1977701865908776E+01 -0.1975280534463507E+01 -0.1972858206873108E+01 -0.1970434884677667E+01 -0.1968010569413928E+01
 -0.1965585262615293E+01 -0.1963158965811838E+01 -0.1960731680530319E+01 -0.1958303408294177E+01 -0.1955874150623561E+01
 -0.1953443909035323E+01 -0.1951012685043035E+01 -0.1948580480157001E+01 -0.1946147295884260E+01 -0.1943713133728596E+01
 -0.1941277995190552E+01 -0.1938841881767436E+01 -0.1936404794953334E+01 -0.1933966736239112E+01 -0.1931527707112433E+01
 -0.1929087709057759E+01 -0.1926646743556367E+01 -0.1924204812086354E+01 -0.1921761916122649E+01 -0.1919318057137016E+01
 -0.1916873236598074E+01 -0.1914427455971292E+01 -0.1911980716719011E+01 -0.1909533020300441E+01 -0.1907084368171684E+01
 -0.1904634761785729E+01 -0.1902184202592469E+01 -0.1899732692038707E+01 -0.1897280231568165E+01 -0.1894826822621496E+01
 -0.1892372466636284E+01 -0.1889917165047066E+01 -0.1887460919285326E+01 -0.1885003730779517E+01 -0.1882545600955059E+01
 -0.1880086531234354E+01 -0.1877626523036791E+01 -0.1875165577778758E+01 -0.1872703696873647E+01 -0.1870240881731865E+01
 -0.1867777133760840E+01 -0.1865312454365031E+01 -0.1862846844945937E+01 -0.1860380306902103E+01 -0.1857912841629131E+01
 -0.1855444450519685E+01 -0.1852975134963505E+01 -0.1850504896347406E+01 -0.1848033736055296E+01 -0.1845561655468177E+01
 -0.1843088655964158E+01 -0.1840614738918457E+01 -0.1838139905703418E+01 -0.1835664157688509E+01 -0.1833187496240339E+01
 -0.1830709922722662E+01 -0.1828231438496380E+01 -0.1825752044919560E+01 -0.1823271743347438E+01 -0.1820790535132424E+01
 -0.1818308421624114E+01 -0.1815825404169295E+01 -0.1813341484111958E+01 -0.1810856662793295E+01 -0.1808370941551720E+01
 -0.1805884321722864E+01 -0.1803396804639595E+01 -0.1800908391632016E+01 -0.1798419084027477E+01 -0.1795928883150580E+01
 -0.1793437790323190E+01 -0.1790945806864442E+01 -0.1788452934090747E+01 -0.1785959173315794E+01 -0.1783464525850573E+01
 -0.1780968993003365E+01 -0.1778472576079762E+01 -0.1775975276382666E+01 -0.1773477095212302E+01 -0.1770978033866221E+01
 -0.1768478093639314E+01 -0.1765977275823809E+01 -0.1763475581709290E+01 -0.1760973012582693E+01 -0.1758469569728324E+01
 -0.1755965254427853E+01 -0.1753460067960339E+01 -0.1750954011602217E+01 -0.1748447086627322E+01 -0.1745939294306887E+01
 -0.1743430635909554E+01 -0.1740921112701373E+01 -0.1738410725945823E+01 -0.1735899476903809E+01 -0.1733387366833669E+01
 -0.1730874396991184E+01 -0.1728360568629589E+01 -0.1725845882999568E+01 -0.1723330341349269E+01 -0.1720813944924316E+01
 -0.1718296694967805E+01 -0.1715778592720314E+01 -0.1713259639419914E+01 -0.1710739836302172E+01 -0.1708219184600160E+01
 -0.1705697685544457E+01 -0.1703175340363162E+01 -0.1700652150281899E+01 -0.1698128116523819E+01 -0.1695603240309612E+01
 -0.1693077522857509E+01 -0.1690550965383297E+01 -0.1688023569100314E+01 -0.1685495335219465E+01 -0.1682966264949221E+01
 -0.1680436359495634E+01 -0.1677905620062336E+01 -0.1675374047850547E+01 -0.1672841644059087E+01 -0.1670308409884374E+01
 -0.1667774346520435E+01 -0.1665239455158913E+01 -0.1662703736989072E+01 -0.1660167193197803E+01 -0.1657629824969632E+01
 -0.1655091633486723E+01 -0.1652552619928886E+01 -0.1650012785473588E+01 -0.1647472131295948E+01 -0.1644930658568756E+01
 -0.1642388368462469E+01 -0.1639845262145224E+01 -0.1637301340782840E+01 -0.1634756605538823E+01 -0.1632211057574382E+01
 -0.1629664698048418E+01 -0.1627117528117547E+01 -0.1624569548936096E+01 -0.1622020761656113E+01 -0.1619471167427369E+01
 -0.1616920767397370E+01 -0.1614369562711357E+01 -0.1611817554512315E+01 -0.1609264743940981E+01 -0.1606711132135845E+01
 -0.1604156720233157E+01 -0.1601601509366939E+01 -0.1599045500668982E+01 -0.1596488695268854E+01 -0.1593931094293914E+01
 -0.1591372698869305E+01 -0.1588813510117971E+01 -0.1586253529160653E+01 -0.1583692757115905E+01 -0.1581131195100087E+01
 -0.1578568844227388E+01 -0.1576005705609810E+01 -0.1573441780357195E+01 -0.1570877069577216E+01 -0.1568311574375389E+01
 -0.1565745295855075E+01 -0.1563178235117491E+01 -0.1560610393261711E+01 -0.1558041771384670E+01 -0.1555472370581175E+01
 -0.1552902191943909E+01 -0.1550331236563432E+01 -0.1547759505528191E+01 -0.1545186999924525E+01 -0.1542613720836670E+01
 -0.1540039669346761E+01 -0.1537464846534845E+01 -0.1534889253478878E+01 -0.1532312891254734E+01 -0.1529735760936212E+01
 -0.1527157863595042E+01 -0.1524579200300884E+01 -0.1521999772121341E+01 -0.1519419580121956E+01 -0.1516838625366226E+01
 -0.1514256908915603E+01 -0.1511674431829497E+01 -0.1509091195165287E+01 -0.1506507199978318E+01 -0.1503922447321916E+01
 -0.1501336938247384E+01 -0.1498750673804016E+01 -0.1496163655039092E+01 -0.1493575882997894E+01 -0.1490987358723700E+01
 -0.1488398083257798E+01 -0.1485808057639489E+01 -0.1483217282906084E+01 -0.1480625760092928E+01 -0.1478033490233382E+01
 -0.1475440474358840E+01 -0.1472846713498737E+01 -0.1470252208680551E+01 -0.1467656960929798E+01 -0.1465060971270056E+01
 -0.1462464240722953E+01 -0.1459866770308178E+01 -0.1457268561043493E+01 -0.1454669613944724E+01 -0.1452069930025776E+01
 -0.1449469510298636E+01 -0.1446868355773374E+01 -0.1444266467458151E+01 -0.1441663846359228E+01 -0.1439060493480960E+01
 -0.1436456409825809E+01 -0.1433851596394349E+01 -0.1431246054185263E+01 -0.1428639784195360E+01 -0.1426032787419565E+01
 -0.1423425064850939E+01 -0.1420816617480670E+01 -0.1418207446298089E+01 -0.1415597552290667E+01 -0.1412986936444018E+01
 -0.1410375599741916E+01 -0.1407763543166285E+01 -0.1405150767697212E+01 -0.1402537274312949E+01 -0.1399923063989918E+01
 -0.1397308137702717E+01 -0.1394692496424119E+01 -0.1392076141125087E+01 -0.1389459072774768E+01 -0.1386841292340501E+01
 -0.1384222800787820E+01 -0.1381603599080470E+01 -0.1378983688180390E+01 -0.1376363069047739E+01 -0.1373741742640885E+01
 -0.1371119709916417E+01 -0.1368496971829148E+01 -0.1365873529332118E+01 -0.1363249383376600E+01 -0.1360624534912105E+01
 -0.1357998984886383E+01 -0.1355372734245429E+01 -0.1352745783933488E+01 -0.1350118134893063E+01 -0.1347489788064908E+01
 -0.1344860744388046E+01 -0.1342231004799765E+01 -0.1339600570235621E+01 -0.1336969441629447E+01 -0.1334337619913358E+01
 -0.1331705106017748E+01 -0.1329071900871305E+01 -0.1326438005401003E+01 -0.1323803420532116E+01 -0.1321168147188214E+01
 -0.1318532186291179E+01 -0.1315895538761194E+01 -0.1313258205516761E+01 -0.1310620187474693E+01 -0.1307981485550128E+01
 -0.1305342100656526E+01 -0.1302702033705681E+01 -0.1300061285607715E+01 -0.1297419857271090E+01 -0.1294777749602609E+01
 -0.1292134963507417E+01 -0.1289491499889014E+01 -0.1286847359649248E+01 -0.1284202543688326E+01 -0.1281557052904820E+01
 -0.1278910888195660E+01 -0.1276264050456150E+01 -0.1273616540579966E+01 -0.1270968359459159E+01 -0.1268319507984166E+01
 -0.1265669987043803E+01 -0.1263019797525275E+01 -0.1260368940314184E+01 -0.1257717416294524E+01 -0.1255065226348693E+01
 -0.1252412371357490E+01 -0.1249758852200122E+01 -0.1247104669754209E+01 -0.1244449824895785E+01 -0.1241794318499305E+01
 -0.1239138151437648E+01 -0.1236481324582114E+01 -0.1233823838802442E+01 -0.1231165694966800E+01 -0.1228506893941791E+01
 -0.1225847436592469E+01 -0.1223187323782327E+01 -0.1220526556373309E+01 -0.1217865135225809E+01 -0.1215203061198683E+01
 -0.1212540335149243E+01 -0.1209876957933266E+01 -0.1207212930404997E+01 -0.1204548253417153E+01 -0.1201882927820922E+01
 -0.1199216954465977E+01 -0.1196550334200468E+01 -0.1193883067871030E+01 -0.1191215156322791E+01 -0.1188546600399371E+01
 -0.1185877400942882E+01 -0.1183207558793940E+01 -0.1180537074791666E+01 -0.1177865949773683E+01 -0.1175194184576129E+01
 -0.1172521780033651E+01 -0.1169848736979420E+01 -0.1167175056245122E+01 -0.1164500738660971E+01 -0.1161825785055709E+01
 -0.1159150196256606E+01 -0.1156473973089471E+01 -0.1153797116378648E+01 -0.1151119626947024E+01 -0.1148441505616034E+01
 -0.1145762753205654E+01 -0.1143083370534420E+01 -0.1140403358419419E+01 -0.1137722717676298E+01 -0.1135041449119264E+01
 -0.1132359553561093E+01 -0.1129677031813128E+01 -0.1126993884685282E+01 -0.1124310112986047E+01 -0.1121625717522490E+01
 -0.1118940699100264E+01 -0.1116255058523606E+01 -0.1113568796595340E+01 -0.1110881914116882E+01 -0.1108194411888246E+01
 -0.1105506290708041E+01 -0.1102817551373481E+01 -0.1100128194680382E+01 -0.1097438221423169E+01 -0.1094747632394881E+01
 -0.1092056428387167E+01 -0.1089364610190298E+01 -0.1086672178593161E+01 -0.1083979134383275E+01 -0.1081285478346780E+01
 -0.1078591211268448E+01 -0.1075896333931683E+01 -0.1073200847118531E+01 -0.1070504751609672E+01 -0.1067808048184437E+01
 -0.1065110737620792E+01 -0.1062412820695361E+01 -0.1059714298183418E+01 -0.1057015170858893E+01 -0.1054315439494374E+01
 -0.1051615104861112E+01 -0.1048914167729017E+01 -0.1046212628866676E+01 -0.1043510489041340E+01 -0.1040807749018937E+01
 -0.1038104409564072E+01 -0.1035400471440028E+01 -0.1032695935408772E+01 -0.1029990802230958E+01 -0.1027285072665926E+01
 -0.1024578747471713E+01 -0.1021871827405047E+01 -0.1019164313221355E+01 -0.1016456205674765E+01 -0.1013747505518109E+01
 -0.1011038213502925E+01 -0.1008328330379460E+01 -0.1005617856896680E+01 -0.1002906793802257E+01 -0.1000195141842587E+01
 -0.9974829017627865E+00 -0.9947700743066991E+00 -0.9920566602168894E+00 -0.9893426602346576E+00 -0.9866280751000345E+00
 -0.9839129055517870E+00 -0.9811971523274211E+00 -0.9784808161631833E+00 -0.9757638977940655E+00 -0.9730463979538071E+00
 -0.9703283173748961E+00 -0.9676096567885745E+00 -0.9648904169248388E+00 -0.9621705985124450E+00 -0.9594502022789123E+00
 -0.9567292289505186E+00 -0.9540076792523132E+00 -0.9512855539081139E+00 -0.9485628536405082E+00 -0.9458395791708640E+00
 -0.9431157312193222E+00 -0.9403913105048077E+00 -0.9376663177450234E+00 -0.9349407536564659E+00 -0.9322146189544133E+00
 -0.9294879143529396E+00 -0.9267606405649136E+00 -0.9240327983019957E+00 -0.9213043882746499E+00 -0.9185754111921431E+00
 -0.9158458677625454E+00 -0.9131157586927338E+00 -0.9103850846883971E+00 -0.9076538464540350E+00 -0.9049220446929648E+00
 -0.9021896801073204E+00 -0.8994567533980560E+00 -0.8967232652649523E+00 -0.8939892164066127E+00 -0.8912546075204709E+00
 -0.8885194393027884E+00 -0.8857837124486676E+00 -0.8830474276520384E+00 -0.8803105856056757E+00 -0.8775731870011948E+00
 -0.8748352325290540E+00 -0.8720967228785566E+00 -0.8693576587378602E+00 -0.8666180407939695E+00 -0.8638778697327446E+00
 -0.8611371462389038E+00 -0.8583958709960186E+00 -0.8556540446865326E+00 -0.8529116679917447E+00 -0.8501687415918260E+00
 -0.8474252661658129E+00 -0.8446812423916155E+00 -0.8419366709460189E+00 -0.8391915525046842E+00 -0.8364458877421511E+00
 -0.8336996773318388E+00 -0.8309529219460579E+00 -0.8282056222559961E+00 -0.8254577789317358E+00 -0.8227093926422487E+00
 -0.8199604640554042E+00 -0.8172109938379603E+00 -0.8144609826555816E+00 -0.8117104311728258E+00 -0.8089593400531637E+00
 -0.8062077099589607E+00 -0.8034555415515010E+00 -0.8007028354909711E+00 -0.7979495924364762E+00 -0.7951958130460343E+00
 -0.7924414979765795E+00 -0.7896866478839681E+00 -0.7869312634229789E+00 -0.7841753452473146E+00 -0.7814188940096038E+00
 -0.7786619103614080E+00 -0.7759043949532148E+00 -0.7731463484344503E+00 -0.7703877714534767E+00 -0.7676286646575918E+00
 -0.7648690286930382E+00 -0.7621088642049969E+00 -0.7593481718375985E+00 -0.7565869522339191E+00 -0.7538252060359861E+00
 -0.7510629338847781E+00 -0.7483001364202289E+00 -0.7455368142812285E+00 -0.7427729681056270E+00 -0.7400085985302327E+00
 -0.7372437061908219E+00 -0.7344782917221332E+00 -0.7317123557578736E+00 -0.7289458989307229E+00 -0.7261789218723288E+00
 -0.7234114252133160E+00 -0.7206434095832887E+00 -0.7178748756108249E+00 -0.7151058239234850E+00 -0.7123362551478162E+00
 -0.7095661699093467E+00 -0.7067955688325959E+00 -0.7040244525410696E+00 -0.7012528216572694E+00 -0.6984806768026883E+00
 -0.6957080185978157E+00 -0.6929348476621405E+00 -0.6901611646141516E+00 -0.6873869700713406E+00 -0.6846122646502032E+00
 -0.6818370489662434E+00 -0.6790613236339724E+00 -0.6762850892669147E+00 -0.6735083464776054E+00 -0.6707310958775976E+00
 -0.6679533380774618E+00 -0.6651750736867841E+00 -0.6623963033141734E+00 -0.6596170275672677E+00 -0.6568372470527257E+00
 -0.6540569623762332E+00 -0.6512761741425069E+00 -0.6484948829552990E+00 -0.6457130894173881E+00 -0.6429307941305948E+00
 -0.6401479976957779E+00 -0.6373647007128325E+00 -0.6345809037806975E+00 -0.6317966074973542E+00 -0.6290118124598342E+00
 -0.6262265192642126E+00 -0.6234407285056170E+00 -0.6206544407782270E+00 -0.6178676566752745E+00 -0.6150803767890506E+00
 -0.6122926017109008E+00 -0.6095043320312336E+00 -0.6067155683395166E+00 -0.6039263112242853E+00 -0.6011365612731349E+00
 -0.5983463190727355E+00 -0.5955555852088235E+00 -0.5927643602662043E+00 -0.5899726448287638E+00 -0.5871804394794559E+00
 -0.5843877448003177E+00 -0.5815945613724633E+00 -0.5788008897760909E+00 -0.5760067305904751E+00 -0.5732120843939854E+00
 -0.5704169517640701E+00 -0.5676213332772710E+00 -0.5648252295092211E+00 -0.5620286410346413E+00 -0.5592315684273526E+00
 -0.5564340122602736E+00 -0.5536359731054109E+00 -0.5508374515338850E+00 -0.5480384481159093E+00 -0.5452389634208062E+00
 -0.5424389980169995E+00 -0.5396385524720274E+00 -0.5368376273525299E+00 -0.5340362232242625E+00 -0.5312343406520960E+00
 -0.5284319802000101E+00 -0.5256291424311075E+00 -0.5228258279076082E+00 -0.5200220371908503E+00 -0.5172177708412957E+00
 -0.5144130294185306E+00 -0.5116078134812676E+00 -0.5088021235873486E+00 -0.5059959602937384E+00 -0.5031893241565417E+00
 -0.5003822157309915E+00 -0.4975746355714558E+00 -0.4947665842314419E+00 -0.4919580622635920E+00 -0.4891490702196917E+00
 -0.4863396086506671E+00 -0.4835296781065873E+00 -0.4807192791366695E+00 -0.4779084122892752E+00 -0.4750970781119174E+00
 -0.4722852771512575E+00 -0.4694730099531126E+00 -0.4666602770624493E+00 -0.4638470790233935E+00 -0.4610334163792311E+00
 -0.4582192896724004E+00 -0.4554046994445063E+00 -0.4525896462363135E+00 -0.4497741305877551E+00 -0.4469581530379273E+00
 -0.4441417141250933E+00 -0.4413248143866873E+00 -0.4385074543593182E+00 -0.4356896345787604E+00 -0.4328713555799699E+00
 -0.4300526178970738E+00 -0.4272334220633814E+00 -0.4244137686113787E+00 -0.4215936580727350E+00 -0.4187730909783001E+00
 -0.4159520678581114E+00 -0.4131305892413902E+00 -0.4103086556565488E+00 -0.4074862676311828E+00 -0.4046634256920859E+00
 -0.4018401303652420E+00 -0.3990163821758266E+00 -0.3961921816482167E+00 -0.3933675293059838E+00 -0.3905424256718969E+00
 -0.3877168712679295E+00 -0.3848908666152565E+00 -0.3820644122342577E+00 -0.3792375086445137E+00 -0.3764101563648199E+00
 -0.3735823559131766E+00 -0.3707541078067916E+00 -0.3679254125620930E+00 -0.3650962706947136E+00 -0.3622666827195086E+00
 -0.3594366491505457E+00 -0.3566061705011116E+00 -0.3537752472837155E+00 -0.3509438800100826E+00 -0.3481120691911695E+00
 -0.3452798153371492E+00 -0.3424471189574251E+00 -0.3396139805606272E+00 -0.3367804006546180E+00 -0.3339463797464823E+00
 -0.3311119183425488E+00 -0.3282770169483716E+00 -0.3254416760687409E+00 -0.3226058962076866E+00 -0.3197696778684759E+00
 -0.3169330215536165E+00 -0.3140959277648551E+00 -0.3112583970031865E+00 -0.3084204297688433E+00 -0.3055820265613090E+00
 -0.3027431878793128E+00 -0.2999039142208307E+00 -0.2970642060830942E+00 -0.2942240639625832E+00 -0.2913834883550301E+00
 -0.2885424797554254E+00 -0.2857010386580124E+00 -0.2828591655562946E+00 -0.2800168609430365E+00 -0.2771741253102575E+00
 -0.2743309591492430E+00 -0.2714873629505432E+00 -0.2686433372039715E+00 -0.2657988823986071E+00 -0.2629539990227990E+00
 -0.2601086875641647E+00 -0.2572629485095931E+00 -0.2544167823452450E+00 -0.2515701895565535E+00 -0.2487231706282293E+00
 -0.2458757260442593E+00 -0.2430278562879071E+00 -0.2401795618417157E+00 -0.2373308431875107E+00 -0.2344817008063978E+00
 -0.2316321351787685E+00 -0.2287821467842976E+00 -0.2259317361019452E+00 -0.2230809036099640E+00 -0.2202296497858907E+00
 -0.2173779751065563E+00 -0.2145258800480792E+00 -0.2116733650858784E+00 -0.2088204306946597E+00 -0.2059670773484300E+00
 -0.2031133055204947E+00 -0.2002591156834528E+00 -0.1974045083092086E+00 -0.1945494838689647E+00 -0.1916940428332282E+00
 -0.1888381856718113E+00 -0.1859819128538293E+00 -0.1831252248477068E+00 -0.1802681221211748E+00 -0.1774106051412784E+00
 -0.1745526743743674E+00 -0.1716943302861076E+00 -0.1688355733414785E+00 -0.1659764040047745E+00 -0.1631168227396065E+00
 -0.1602568300088994E+00 -0.1573964262749034E+00 -0.1545356119991864E+00 -0.1516743876426344E+00 -0.1488127536654599E+00
 -0.1459507105272016E+00 -0.1430882586867177E+00 -0.1402253986021994E+00 -0.1373621307311637E+00 -0.1344984555304546E+00
 -0.1316343734562514E+00 -0.1287698849640595E+00 -0.1259049905087256E+00 -0.1230396905444240E+00 -0.1201739855246654E+00
 -0.1173078759023037E+00 -0.1144413621295239E+00 -0.1115744446578550E+00 -0.1087071239381657E+00 -0.1058394004206693E+00
 -0.1029712745549157E+00 -0.1001027467898076E+00 -0.9723381757358798E-01 -0.9436448735385242E-01 -0.9149475657753889E-01
 -0.8862462569094161E-01 -0.8575409513969766E-01 -0.8288316536880173E-01 -0.8001183682260375E-01 -0.7714010994480365E-01
 -0.7426798517845890E-01 -0.7139546296598728E-01 -0.6852254374915841E-01 -0.6564922796910741E-01 -0.6277551606632747E-01
 -0.5990140848067455E-01 -0.5702690565136873E-01 -0.5415200801699099E-01 -0.5127671601549168E-01 -0.4840103008418697E-01
  0.1327669136009287E+03  0.1327669136009287E+03  0.1327669136009287E+03  0.1327669136009287E+03  0.1327669136009287E+03
  0.1327669136009287E+03  0.1327669136009287E+03  0.1327669136009287E+03  0.1327669136009287E+03  0.1327669136009287E+03
  0.1327669136009287E+03  0.1327669136009287E+03  0.1327669136009287E+03  0.1327669136009287E+03  0.1327669136009287E+03
  0.1327669136009287E+03  0.1327669136009287E+03  0.1327669136009287E+03  0.1327669136009287E+03  0.1327669136009287E+03
  0.1327669136009287E+03  0.1327669136009287E+03  0.1327669136009287E+03  0.1327669136009287E+03  0.1327669136009287E+03
  0.1327669136009287E+03  0.1327669136009287E+03  0.1327669136009287E+03  0.1327669136009287E+03  0.1327669136009287E+03
  0.1327669136009287E+03  0.1327669136009287E+03  0.1327669136009287E+03  0.1327669136009287E+03  0.1327669136009287E+03
  0.1327669136009287E+03  0.1327669136009287E+03  0.1327669136009287E+03  0.1327669136009287E+03  0.1327669136009287E+03
  0.1327669136009287E+03  0.1327669136009287E+03  0.1327669136009287E+03  0.1327669136009287E+03  0.1327669136009287E+03
  0.1327669136009287E+03  0.1327669136009287E+03  0.1327669136009287E+03  0.1327669136009287E+03  0.1327669136009287E+03
  0.1327669136009287E+03  0.1327669136009287E+03  0.1327669136009287E+03  0.1327669136009287E+03  0.1327669136009287E+03
  0.1327669136009287E+03  0.1327669136009287E+03  0.1327669136009287E+03  0.1327669136009287E+03  0.1327669136009287E+03
  0.1327669136009287E+03  0.1327669136009287E+03  0.1327669136009287E+03  0.1327669136009287E+03  0.1327669136009287E+03
  0.1327669136009287E+03  0.1327669136009287E+03  0.1327669136009287E+03  0.1327669136009287E+03  0.1327669136009287E+03
  0.1327669136009287E+03  0.1327669136009287E+03  0.1327669136009287E+03  0.1327669136009287E+03  0.1327669136009287E+03
  0.1327669136009287E+03  0.1327669136009287E+03  0.1327669136009287E+03  0.1327669136009287E+03  0.1327669136009287E+03
  0.1327669136009287E+03  0.1327669136009287E+03  0.1327669136009287E+03  0.1327669136009287E+03  0.1327669136009287E+03
  0.1327669136009287E+03  0.1327669136009287E+03  0.1327669136009287E+03  0.1327669136009287E+03  0.1327669136009287E+03
  0.1327669136009287E+03  0.1327669136009287E+03  0.1327669136009287E+03  0.1327669136009287E+03  0.1327669136009287E+03
  0.1327669136009287E+03  0.1327669136009287E+03  0.1327669136009287E+03  0.1327669136009287E+03  0.1327669136009287E+03
  0.1327669136009287E+03  0.1327669136009287E+03  0.1327669136009287E+03  0.1327669136009287E+03  0.1327669136009287E+03
  0.1327669136009287E+03  0.1327669136009287E+03  0.1327669136009287E+03  0.1327669136009287E+03  0.1327669136009287E+03
  0.1327669136009287E+03  0.1327669136009287E+03  0.1327669136009287E+03  0.1327669136009287E+03  0.1327669136009287E+03
  0.1327669136009287E+03  0.1327669136009287E+03  0.1327669136009287E+03  0.1327669136009287E+03  0.1327669136009287E+03
  0.1327669136009287E+03  0.1327669136009287E+03  0.1327669136009287E+03  0.1327669136009287E+03  0.1327669136009287E+03
  0.1327669136009287E+03  0.1327669136009287E+03  0.1327669136009287E+03  0.1327669136009287E+03  0.1327669136009287E+03
  0.1327669136009287E+03  0.1327669136009287E+03  0.1327669136009287E+03  0.1327669136009287E+03  0.1327669136009287E+03
  0.1327669136009287E+03  0.1327669136009287E+03  0.1327669136009287E+03  0.1327669136009287E+03  0.1327669136009287E+03
  0.1327669136009287E+03  0.1327669136009287E+03  0.1327669136009287E+03  0.1327669136009287E+03  0.1327669136009287E+03
  0.1327669136009287E+03  0.1327669136009287E+03  0.1327669136009287E+03  0.1327669136009287E+03  0.1327669136009287E+03
  0.1327669136009287E+03  0.1327669136009287E+03  0.1327669136009287E+03  0.1327669136009287E+03  0.1327669136009287E+03
  0.1327669136009287E+03  0.1327669136009287E+03  0.1327669136009287E+03  0.1327669136009287E+03  0.1327669136009287E+03
  0.1327669136009287E+03  0.1327669136009287E+03  0.1327669136009287E+03  0.1327669136009287E+03  0.1327669136009287E+03
  0.1327669136009287E+03  0.1327669136009287E+03  0.1327669136009287E+03  0.1327669136009287E+03  0.1327669136009287E+03
  0.1327669136009287E+03  0.1327669136009287E+03  0.1327669136009287E+03  0.1322379054803746E+03  0.1315137719147738E+03
  0.1307936036979804E+03  0.1300773791157808E+03  0.1293650765728677E+03  0.1286566745921897E+03  0.1279521518143038E+03
  0.1272514869967304E+03  0.1265546590133144E+03  0.1258616468535867E+03  0.1251724296221318E+03  0.1244869865379567E+03
  0.1238052969338656E+03  0.1231273402558356E+03  0.1224530960623976E+03  0.1217825440240199E+03  0.1211156639224950E+03
  0.1204524356503301E+03  0.1197928392101408E+03  0.1191368547140486E+03  0.1184844623830804E+03  0.1178356425465725E+03
  0.1171903756415781E+03  0.1165486422122763E+03  0.1159104229093868E+03  0.1152756984895849E+03  0.1146444498149230E+03
  0.1140166578522524E+03  0.1133923036726494E+03  0.1127713684508456E+03  0.1121538334646591E+03  0.1115396800944306E+03
  0.1109288898224620E+03  0.1103214442324578E+03  0.1097173250089701E+03  0.1091165139368461E+03  0.1085189929006792E+03
  0.1079247438842623E+03  0.1073337489700452E+03  0.1067459903385937E+03  0.1061614502680532E+03  0.1055801111336132E+03
  0.1050019554069768E+03  0.1044269656558320E+03  0.1038551245433258E+03  0.1032864148275417E+03  0.1027208193609798E+03
  0.1021583210900395E+03  0.1015989030545062E+03  0.1010425483870386E+03  0.1004892403126611E+03  0.9993896214825780E+02
  0.9939169730206923E+02  0.9884742927319235E+02  0.9830614165108275E+02  0.9776781811506018E+02  0.9723244243381632E+02
  0.9669999846492519E+02  0.9617047015435666E+02  0.9564384153599224E+02  0.9512009673114399E+02  0.9459921994807523E+02
  0.9408119548152497E+02  0.9356600771223381E+02  0.9305364110647341E+02  0.9254408021557811E+02  0.9203730967547880E+02
  0.9153331420623992E+02  0.9103207861159865E+02  0.9053358777850701E+02  0.9003782667667562E+02  0.8954478035812103E+02
  0.8905443395671479E+02  0.8856677268773510E+02  0.8808178184742125E+02  0.8759944681253033E+02  0.8711975303989598E+02
  0.8664268606599008E+02  0.8616823150648678E+02  0.8569637505582860E+02  0.8522710248679518E+02  0.8476039965007431E+02
  0.8429625247383518E+02  0.8383464696330438E+02  0.8337556920034356E+02  0.8291900534303015E+02  0.8246494162523963E+02
  0.8201336435623081E+02  0.8156425992023277E+02  0.8111761477603454E+02  0.8067341545657661E+02  0.8023164856854494E+02
  0.7979230079196724E+02  0.7935535887981121E+02  0.7892080965758522E+02  0.7848864002294098E+02  0.7805883694527860E+02
  0.7763138746535360E+02  0.7720627869488621E+02  0.7678349781617280E+02  0.7636303208169932E+02  0.7594486881375690E+02
  0.7552899540405996E+02  0.7511539931336550E+02  0.7470406807109549E+02  0.7429498927496050E+02  0.7388815059058605E+02
  0.7348353975114055E+02  0.7308114455696554E+02  0.7268095287520765E+02  0.7228295263945294E+02  0.7188713184936303E+02
  0.7149347857031339E+02  0.7110198093303330E+02  0.7071262713324803E+02  0.7032540543132303E+02  0.6994030415190979E+02
  0.6955731168359405E+02  0.6917641647854539E+02  0.6879760705216928E+02  0.6842087198276064E+02  0.6804619991115972E+02
  0.6767357954040931E+02  0.6730299963541418E+02  0.6693444902260249E+02  0.6656791658958869E+02  0.6620339128483869E+02
  0.6584086211733634E+02  0.6548031815625225E+02  0.6512174853061416E+02  0.6476514242897916E+02  0.6441048909910771E+02
  0.6405777784763940E+02  0.6370699803977066E+02  0.6335813909893385E+02  0.6301119050647861E+02  0.6266614180135469E+02
  0.6232298257979632E+02  0.6198170249500871E+02  0.6164229125685597E+02  0.6130473863155103E+02  0.6096903444134686E+02
  0.6063516856422969E+02  0.6030313093361377E+02  0.5997291153803790E+02  0.5964450042086366E+02  0.5931788767997495E+02
  0.5899306346747960E+02  0.5867001798941237E+02  0.5834874150543983E+02  0.5802922432856641E+02  0.5771145682484246E+02
  0.5739542941307374E+02  0.5708113256453254E+02  0.5676855680267047E+02  0.5645769270283251E+02  0.5614853089197300E+02
  0.5584106204837298E+02  0.5553527690135920E+02  0.5523116623102445E+02  0.5492872086794979E+02  0.5462793169292776E+02
  0.5432878963668765E+02  0.5403128567962207E+02  0.5373541085151487E+02  0.5344115623127070E+02  0.5314851294664604E+02
  0.5285747217398173E+02  0.5256802513793686E+02  0.5228016311122429E+02  0.5199387741434732E+02  0.5170915941533809E+02
  0.5142600052949739E+02  0.5114439221913572E+02  0.5086432599331592E+02  0.5058579340759702E+02  0.5030878606377985E+02
  0.5003329560965356E+02  0.4975931373874416E+02  0.4948683219006364E+02  0.4921584274786115E+02  0.4894633724137514E+02
  0.4867830754458723E+02  0.4841174557597697E+02  0.4814664329827816E+02  0.4788299271823671E+02  0.4762078588636949E+02
  0.4736001489672459E+02  0.4710067188664316E+02  0.4684274903652209E+02  0.4658623856957833E+02  0.4633113275161453E+02
  0.4607742389078566E+02  0.4582510433736716E+02  0.4557416648352434E+02  0.4532460276308282E+02  0.4507640565130076E+02
  0.4482956766464151E+02  0.4458408136054828E+02  0.4433993933721966E+02  0.4409713423338640E+02  0.4385565872808957E+02
  0.4361550554045968E+02  0.4337666742949725E+02  0.4313913719385441E+02  0.4290290767161785E+02  0.4266797174009274E+02
  0.4243432231558823E+02  0.4220195235320354E+02  0.4197085484661574E+02  0.4174102282786851E+02  0.4151244936716196E+02
  0.4128512757264377E+02  0.4105905059020122E+02  0.4083421160325472E+02  0.4061060383255230E+02  0.4038822053596498E+02
  0.4016705500828365E+02  0.3994710058101685E+02  0.3972835062218981E+02  0.3951079853614426E+02  0.3929443776333984E+02
  0.3907926178015602E+02  0.3886526409869570E+02  0.3865243826658929E+02  0.3844077786680051E+02  0.3823027651743254E+02
  0.3802092787153584E+02  0.3781272561691671E+02  0.3760566347594695E+02  0.3739973520537463E+02  0.3719493459613579E+02
  0.3699125547316721E+02  0.3678869169522026E+02  0.3658723715467585E+02  0.3638688577736003E+02  0.3618763152236099E+02
  0.3598946838184693E+02  0.3579239038088490E+02  0.3559639157726055E+02  0.3540146606129914E+02  0.3520760795568717E+02
  0.3501481141529531E+02  0.3482307062700209E+02  0.3463237980951864E+02  0.3444273321321435E+02  0.3425412511994357E+02
  0.3406654984287314E+02  0.3388000172631097E+02  0.3369447514553548E+02  0.3350996450662600E+02  0.3332646424629409E+02
  0.3314396883171595E+02  0.3296247276036533E+02  0.3278197055984782E+02  0.3260245678773582E+02  0.3242392603140436E+02
  0.3224637290786799E+02  0.3206979206361842E+02  0.3189417817446317E+02  0.3171952594536491E+02  0.3154583011028198E+02
  0.3137308543200941E+02  0.3120128670202121E+02  0.3103042874031319E+02  0.3086050639524681E+02  0.3069151454339383E+02
  0.3052344808938197E+02  0.3035630196574103E+02  0.3019007113275030E+02  0.3002475057828647E+02  0.2986033531767270E+02
  0.2969682039352809E+02  0.2953420087561830E+02  0.2937247186070697E+02  0.2921162847240782E+02  0.2905166586103753E+02
  0.2889257920346973E+02  0.2873436370298932E+02  0.2857701458914807E+02  0.2842052711762062E+02  0.2826489657006151E+02
  0.2811011825396288E+02  0.2795618750251306E+02  0.2780309967445573E+02  0.2765085015395005E+02  0.2749943435043154E+02
  0.2734884769847357E+02  0.2719908565764972E+02  0.2705014371239696E+02  0.2690201737187942E+02  0.2675470216985295E+02
  0.2660819366453064E+02  0.2646248743844863E+02  0.2631757909833313E+02  0.2617346427496786E+02  0.2603013862306232E+02
  0.2588759782112077E+02  0.2574583757131200E+02  0.2560485359933961E+02  0.2546464165431324E+02  0.2532519750862038E+02
  0.2518651695779888E+02  0.2504859582041015E+02  0.2491142993791320E+02  0.2477501517453908E+02  0.2463934741716634E+02
  0.2450442257519691E+02  0.2437023658043282E+02  0.2423678538695349E+02  0.2410406497099380E+02  0.2397207133082271E+02
  0.2384080048662259E+02  0.2371024848036934E+02  0.2358041137571287E+02  0.2345128525785857E+02  0.2332286623344917E+02
  0.2319515043044744E+02  0.2306813399801931E+02  0.2294181310641795E+02  0.2281618394686810E+02  0.2269124273145133E+02
  0.2256698569299187E+02  0.2244340908494292E+02  0.2232050918127374E+02  0.2219828227635732E+02  0.2207672468485863E+02
  0.2195583274162349E+02  0.2183560280156805E+02  0.2171603123956897E+02  0.2159711445035398E+02  0.2147884884839329E+02
  0.2136123086779143E+02  0.2124425696217975E+02  0.2112792360460944E+02  0.2101222728744530E+02  0.2089716452225984E+02
  0.2078273183972821E+02  0.2066892578952356E+02  0.2055574294021293E+02  0.2044317987915392E+02  0.2033123321239174E+02
  0.2021989956455680E+02  0.2010917557876305E+02  0.1999905791650672E+02  0.1988954325756562E+02  0.1978062829989910E+02
  0.1967230975954845E+02  0.1956458437053790E+02  0.1945744888477607E+02  0.1935090007195818E+02  0.1924493471946852E+02
  0.1913954963228366E+02  0.1903474163287606E+02  0.1893050756111833E+02  0.1882684427418786E+02  0.1872374864647217E+02
  0.1862121756947456E+02  0.1851924795172043E+02  0.1841783671866407E+02  0.1831698081259600E+02  0.1821667719255065E+02
  0.1811692283421482E+02  0.1801771472983638E+02  0.1791904988813365E+02  0.1782092533420514E+02  0.1772333810943995E+02
  0.1762628527142846E+02  0.1752976389387368E+02  0.1743377106650300E+02  0.1733830389498041E+02  0.1724335950081928E+02
  0.1714893502129556E+02  0.1705502760936141E+02  0.1696163443355943E+02  0.1686875267793724E+02  0.1677637954196260E+02
  0.1668451224043896E+02  0.1659314800342145E+02  0.1650228407613344E+02  0.1641191771888341E+02  0.1632204620698236E+02
  0.1623266683066165E+02  0.1614377689499136E+02  0.1605537371979893E+02  0.1596745463958841E+02  0.1588001700346009E+02
  0.1579305817503058E+02  0.1570657553235327E+02  0.1562056646783932E+02  0.1553502838817902E+02  0.1544995871426361E+02
  0.1536535488110750E+02  0.1528121433777092E+02  0.1519753454728305E+02  0.1511431298656549E+02  0.1503154714635618E+02
  0.1494923453113378E+02  0.1486737265904239E+02  0.1478595906181672E+02  0.1470499128470770E+02  0.1462446688640841E+02
  0.1454438343898057E+02  0.1446473852778118E+02  0.1438552975138987E+02  0.1430675472153640E+02  0.1422841106302869E+02
  0.1415049641368115E+02  0.1407300842424355E+02  0.1399594475833010E+02  0.1391930309234906E+02  0.1384308111543263E+02
  0.1376727652936732E+02  0.1369188704852461E+02  0.1361691039979209E+02  0.1354234432250490E+02  0.1346818656837754E+02
  0.1339443490143608E+02  0.1332108709795082E+02  0.1324814094636911E+02  0.1317559424724882E+02  0.1310344481319189E+02
  0.1303169046877845E+02  0.1296032905050120E+02  0.1288935840670020E+02  0.1281877639749798E+02  0.1274858089473500E+02
  0.1267876978190552E+02  0.1260934095409375E+02  0.1254029231791042E+02  0.1247162179142963E+02  0.1240332730412608E+02
  0.1233540679681265E+02  0.1226785822157832E+02  0.1220067954172639E+02  0.1213386873171312E+02  0.1206742377708661E+02
  0.1200134267442608E+02  0.1193562343128146E+02  0.1187026406611334E+02  0.1180526260823317E+02  0.1174061709774390E+02
  0.1167632558548082E+02  0.1161238613295288E+02  0.1154879681228413E+02  0.1148555570615570E+02  0.1142266090774791E+02
  0.1136011052068281E+02  0.1129790265896700E+02  0.1123603544693476E+02  0.1117450701919151E+02  0.1111331552055752E+02
  0.1105245910601204E+02  0.1099193594063762E+02  0.1093174419956480E+02  0.1087188206791707E+02  0.1081234774075619E+02
  0.1075313942302773E+02  0.1069425532950697E+02  0.1063569368474504E+02  0.1057745272301543E+02  0.1051953068826072E+02
  0.1046192583403964E+02  0.1040463642347440E+02  0.1034766072919838E+02  0.1029099703330394E+02  0.1023464362729073E+02
  0.1017859881201408E+02  0.1012286089763387E+02  0.1006742820356348E+02  0.1001229905841919E+02  0.9957471799969738E+01
  0.9902944775086235E+01  0.9848716339692288E+01  0.9794784858714456E+01  0.9741148706032932E+01  0.9687806264432531E+01
  0.9634755925553897E+01  0.9581996089845047E+01  0.9529525166513100E+01  0.9477341573476359E+01  0.9425443737316559E+01
  0.9373830093231458E+01  0.9322499084987649E+01  0.9271449164873635E+01  0.9220678793653155E+01  0.9170186440518775E+01
  0.9119970583045756E+01  0.9070029707146110E+01  0.9020362307022978E+01  0.8970966885125208E+01  0.8921841952102215E+01
  0.8872986026759058E+01  0.8824397636011808E+01  0.8776075314843087E+01  0.8728017606257945E+01  0.8680223061239877E+01
  0.8632690238707188E+01  0.8585417705469480E+01  0.8538404036184499E+01  0.8491647813315101E+01  0.8445147627086561E+01
  0.8398902075444015E+01  0.8352909764010237E+01  0.8307169306043550E+01  0.8261679322396052E+01  0.8216438441471977E+01
  0.8171445299186407E+01  0.8126698538924080E+01  0.8082196811498527E+01  0.8037938775111360E+01  0.7993923095311827E+01
  0.7950148444956592E+01  0.7906613504169673E+01  0.7863316960302697E+01  0.7820257507895271E+01  0.7777433848635654E+01
  0.7734844691321591E+01  0.7692488751821378E+01  0.7650364753035161E+01  0.7608471424856400E+01  0.7566807504133589E+01
  0.7525371734632164E+01  0.7484162866996610E+01  0.7443179658712814E+01  0.7402420874070588E+01  0.7361885284126371E+01
  0.7321571666666240E+01  0.7281478806169002E+01  0.7241605493769569E+01  0.7201950527222470E+01  0.7162512710865649E+01
  0.7123290855584366E+01  0.7084283778775375E+01  0.7045490304311217E+01  0.7006909262504806E+01  0.6968539490074120E+01
  0.6930379830107143E+01  0.6892429132026957E+01  0.6854686251557061E+01  0.6817150050686873E+01  0.6779819397637373E+01
  0.6742693166827025E+01  0.6705770238837794E+01  0.6669049500381417E+01  0.6632529844265786E+01  0.6596210169361609E+01
  0.6560089380569182E+01  0.6524166388785354E+01  0.6488440110870680E+01  0.6452909469616785E+01  0.6417573393713847E+01
  0.6382430817718302E+01  0.6347480682020699E+01  0.6312721932813764E+01  0.6278153522060592E+01  0.6243774407463061E+01
  0.6209583552430384E+01  0.6175579926047841E+01  0.6141762503045695E+01  0.6108130263768277E+01  0.6074682194143191E+01
  0.6041417285650780E+01  0.6008334535293670E+01  0.5975432945566544E+01  0.5942711524426005E+01  0.5910169285260718E+01
  0.5877805246861605E+01  0.5845618433392246E+01  0.5813607874359468E+01  0.5781772604584055E+01  0.5750111664171623E+01
  0.5718624098483673E+01  0.5687308958108799E+01  0.5656165298834021E+01  0.5625192181616328E+01  0.5594388672554326E+01
  0.5563753842860068E+01  0.5533286768831032E+01  0.5502986531822259E+01  0.5472852218218605E+01  0.5442882919407221E+01
  0.5413077731750090E+01  0.5383435756556800E+01  0.5353956100057371E+01  0.5324637873375349E+01  0.5295480192500930E+01
  0.5266482178264312E+01  0.5237642956309127E+01  0.5208961657066098E+01  0.5180437415726752E+01  0.5152069372217342E+01
  0.5123856671172872E+01  0.5095798461911277E+01  0.5067893898407760E+01  0.5040142139269234E+01  0.5012542347708913E+01
  0.4985093691521078E+01  0.4957795343055925E+01  0.4930646479194573E+01  0.4903646281324233E+01  0.4876793935313460E+01
  0.4850088631487593E+01  0.4823529564604268E+01  0.4797115933829130E+01  0.4770846942711632E+01  0.4744721799160970E+01
  0.4718739715422161E+01  0.4692899908052250E+01  0.4667201597896626E+01  0.4641644010065495E+01  0.4616226373910454E+01
  0.4590947923001203E+01  0.4565807895102392E+01  0.4540805532150576E+01  0.4515940080231290E+01  0.4491210789556281E+01
  0.4466616914440824E+01  0.4442157713281189E+01  0.4417832448532189E+01  0.4393640386684914E+01  0.4369580798244521E+01
  0.4345652957708178E+01  0.4321856143543104E+01  0.4298189638164770E+01  0.4274652727915153E+01  0.4251244703041157E+01
  0.4227964857673137E+01  0.4204812489803519E+01  0.4181786901265563E+01  0.4158887397712215E+01  0.4136113288595084E+01
  0.4113463887143533E+01  0.4090938510343880E+01  0.4068536478918683E+01  0.4046257117306198E+01  0.4024099753639875E+01
  0.4002063719728016E+01  0.3980148351033491E+01  0.3958352986653627E+01  0.3936676969300143E+01  0.3915119645279224E+01
  0.3893680364471672E+01  0.3872358480313213E+01  0.3851153349774847E+01  0.3830064333343345E+01  0.3809090795001821E+01
  0.3788232102210428E+01  0.3767487625887142E+01  0.3746856740388653E+01  0.3726338823491335E+01  0.3705933256372358E+01
  0.3685639423590862E+01  0.3665456713069227E+01  0.3645384516074477E+01  0.3625422227199745E+01  0.3605569244345847E+01
  0.3585824968702942E+01  0.3566188804732310E+01  0.3546660160148206E+01  0.3527238445899799E+01  0.3507923076153221E+01
  0.3488713468273710E+01  0.3469609042807823E+01  0.3450609223465767E+01  0.3431713437103791E+01  0.3412921113706690E+01
  0.3394231686370397E+01  0.3375644591284651E+01  0.3357159267715744E+01  0.3338775157989396E+01  0.3320491707473670E+01
  0.3302308364562002E+01  0.3284224580656289E+01  0.3266239810150098E+01  0.3248353510411929E+01  0.3230565141768577E+01
  0.3212874167488548E+01  0.3195280053765613E+01  0.3177782269702378E+01  0.3160380287293988E+01  0.3143073581411870E+01
  0.3125861629787581E+01  0.3108743912996732E+01  0.3091719914442971E+01  0.3074789120342067E+01  0.3057951019706057E+01
  0.3041205104327475E+01  0.3024550868763639E+01  0.3007987810321048E+01  0.2991515429039818E+01  0.2975133227678210E+01
  0.2958840711697214E+01  0.2942637389245240E+01  0.2926522771142836E+01  0.2910496370867509E+01  0.2894557704538591E+01
  0.2878706290902211E+01  0.2862941651316290E+01  0.2847263309735643E+01  0.2831670792697120E+01  0.2816163629304834E+01
  0.2800741351215444E+01  0.2785403492623513E+01  0.2770149590246907E+01  0.2754979183312295E+01  0.2739891813540683E+01
  0.2724887025133023E+01  0.2709964364755872E+01  0.2695123381527140E+01  0.2680363627001870E+01  0.2665684655158080E+01
  0.2651086022382690E+01  0.2636567287457482E+01  0.2622128011545131E+01  0.2607767758175273E+01  0.2593486093230671E+01
  0.2579282584933391E+01  0.2565156803831065E+01  0.2551108322783190E+01  0.2537136716947491E+01  0.2523241563766336E+01
  0.2509422442953200E+01  0.2495678936479179E+01  0.2482010628559564E+01  0.2468417105640449E+01  0.2454897956385420E+01
  0.2441452771662247E+01  0.2428081144529661E+01  0.2414782670224169E+01  0.2401556946146914E+01  0.2388403571850561E+01
  0.2375322149026276E+01  0.2362312281490698E+01  0.2349373575172994E+01  0.2336505638101917E+01  0.2323708080392959E+01
  0.2310980514235491E+01  0.2298322553879991E+01  0.2285733815625258E+01  0.2273213917805735E+01  0.2260762480778803E+01
  0.2248379126912154E+01  0.2236063480571187E+01  0.2223815168106437E+01  0.2211633817841060E+01  0.2199519060058314E+01
  0.2187470526989110E+01  0.2175487852799579E+01  0.2163570673578680E+01  0.2151718627325817E+01  0.2139931353938526E+01
  0.2128208495200148E+01  0.2116549694767571E+01  0.2104954598158957E+01  0.2093422852741546E+01  0.2081954107719438E+01
  0.2070548014121444E+01  0.2059204224788914E+01  0.2047922394363645E+01  0.2036702179275761E+01  0.2025543237731646E+01
  0.2014445229701887E+01  0.2003407816909236E+01  0.1992430662816607E+01  0.1981513432615064E+01  0.1970655793211854E+01
  0.1959857413218437E+01  0.1949117962938554E+01  0.1938437114356278E+01  0.1927814541124117E+01  0.1917249918551098E+01
  0.1906742923590889E+01  0.1896293234829901E+01  0.1885900532475448E+01  0.1875564498343864E+01  0.1865284815848675E+01
  0.1855061169988734E+01  0.1844893247336414E+01  0.1834780736025758E+01  0.1824723325740670E+01  0.1814720707703088E+01
  0.1804772574661173E+01  0.1794878620877499E+01  0.1785038542117235E+01  0.1775252035636337E+01  0.1765518800169734E+01
  0.1755838535919524E+01  0.1746210944543147E+01  0.1736635729141572E+01  0.1727112594247471E+01  0.1717641245813399E+01
  0.1708221391199948E+01  0.1698852739163911E+01  0.1689534999846430E+01  0.1680267884761148E+01  0.1671051106782312E+01
  0.1661884380132926E+01  0.1652767420372839E+01  0.1643699944386840E+01  0.1634681670372747E+01  0.1625712317829464E+01
  0.1616791607545043E+01  0.1607919261584702E+01  0.1599095003278850E+01  0.1590318557211081E+01  0.1581589649206155E+01
  0.1572908006317944E+01  0.1564273356817378E+01  0.1555685430180349E+01  0.1547143957075607E+01  0.1538648669352620E+01
  0.1530199300029412E+01  0.1521795583280381E+01  0.1513437254424080E+01  0.1505124049910983E+01  0.1496855707311207E+01
  0.1488631965302215E+01  0.1480452563656485E+01  0.1472317243229156E+01  0.1464225745945614E+01  0.1456177814789096E+01
  0.1448173193788201E+01  0.1440211628004417E+01  0.1432292863519573E+01  0.1424416647423293E+01  0.1416582727800381E+01
  0.1408790853718185E+01  0.1401040775213923E+01  0.1393332243281971E+01  0.1385665009861098E+01  0.1378038827821686E+01
  0.1370453450952887E+01  0.1362908633949753E+01  0.1355404132400327E+01  0.1347939702772677E+01  0.1340515102401904E+01
  0.1333130089477100E+01  0.1325784423028277E+01  0.1318477862913223E+01  0.1311210169804357E+01  0.1303981105175502E+01
  0.1296790431288652E+01  0.1289637911180652E+01  0.1282523308649889E+01  0.1275446388242890E+01  0.1268406915240917E+01
  0.1261404655646485E+01  0.1254439376169877E+01  0.1247510844215582E+01  0.1240618827868713E+01  0.1233763095881382E+01
  0.1226943417659029E+01  0.1220159563246726E+01  0.1213411303315420E+01  0.1206698409148168E+01  0.1200020652626312E+01
  0.1193377806215642E+01  0.1186769642952499E+01  0.1180195936429880E+01  0.1173656460783479E+01  0.1167150990677734E+01
  0.1160679301291808E+01  0.1154241168305594E+01  0.1147836367885655E+01  0.1141464676671172E+01  0.1135125871759857E+01
  0.1128819730693873E+01  0.1122546031445721E+01  0.1116304552404130E+01  0.1110095072359946E+01  0.1103917370492007E+01
  0.1097771226353037E+01  0.1091656419855528E+01  0.1085572731257650E+01  0.1079519941149161E+01  0.1073497830437353E+01
  0.1067506180333003E+01  0.1061544772336373E+01  0.1055613388223230E+01  0.1049711810030924E+01  0.1043839820044488E+01
  0.1037997200782822E+01  0.1032183734984913E+01  0.1026399205596139E+01  0.1020643395754628E+01  0.1014916088777730E+01
  0.1009217068148548E+01  0.1003546117502590E+01  0.9979030206145201E+00  0.9922875613850264E+00  0.9866995238278273E+00
  0.9811386920567986E+00  0.9756048502732630E+00  0.9700977827534326E+00  0.9646172738360277E+00  0.9591631079100702E+00
  0.9537350694028829E+00  0.9483329427682909E+00  0.9429565124750547E+00  0.9376055629955277E+00  0.9322798787945784E+00
  0.9269792443187735E+00  0.9217034439858512E+00  0.9164522621744844E+00  0.9112254832143741E+00  0.9060228913766726E+00
  0.9008442708647608E+00  0.8956894058054097E+00  0.8905580802403156E+00  0.8854500781180799E+00  0.8803651832866011E+00
  0.8753031794859378E+00  0.8702638503416564E+00  0.8652469793586824E+00  0.8602523499156809E+00  0.8552797452600012E+00
  0.8503289485032008E+00  0.8453997426171872E+00  0.8404919104309894E+00  0.8356052346282088E+00  0.8307394977451642E+00
  0.8258944821697692E+00  0.8210699701411729E+00  0.8162657437501910E+00  0.8114815849405727E+00  0.8067172755111270E+00
  0.8019725971187563E+00  0.7972473312824094E+00  0.7925412593880368E+00  0.7878541626945295E+00  0.7831858223407373E+00
  0.7785360193535550E+00  0.7739045346571727E+00  0.7692911490834774E+00  0.7646956433836979E+00  0.7601177982412967E+00
  0.7555573942861956E+00  0.7510142121103397E+00  0.7464880322846784E+00  0.7419786353775993E+00  0.7374858019748604E+00
  0.7330093127010834E+00  0.7285489482428408E+00  0.7241044893734049E+00  0.7196757169792020E+00  0.7152624120880299E+00
  0.7108643558990763E+00  0.7064813298148228E+00  0.7021131154748536E+00  0.6977594947916520E+00  0.6934202499884144E+00
  0.6890951636389699E+00  0.6847840187098195E+00  0.6804865986043918E+00  0.6762026872095310E+00  0.6719320689443148E+00
  0.6676745288112111E+00  0.6634298524496685E+00  0.6591978261921667E+00  0.6549782371227918E+00  0.6507708731383931E+00
  0.6465755230123529E+00  0.6423919764610425E+00  0.6382200242129985E+00  0.6340594580808734E+00  0.6299100710361887E+00
  0.6257716572869679E+00  0.6216440123582471E+00  0.6175269331755382E+00  0.6134202181512501E+00  0.6093236672741319E+00
  0.6052370822017304E+00  0.6011602663559229E+00  0.5970930250215137E+00  0.5930351654479473E+00  0.5889864969541143E+00
  0.5849468310362866E+00  0.5809159814791697E+00  0.5768937644700759E+00  0.5728799987162086E+00  0.5688745055650394E+00
  0.5648771091277636E+00  0.5608876364058029E+00  0.5569059174203225E+00  0.5529317853447110E+00  0.5489650766399872E+00
  0.5450056311930612E+00  0.5410532924577942E+00  0.5371079075987625E+00  0.5331693276376617E+00  0.5292374076022336E+00
  0.5253120066776281E+00  0.5213929883600599E+00  0.5174802206126585E+00  0.5135735760233491E+00  0.5096729319646259E+00
  0.5057781707550506E+00  0.5018891798222987E+00  0.4980058518675735E+00  0.4941280850311709E+00  0.4902557830590027E+00
  0.4863888554698322E+00  0.4825272177229963E+00  0.4786707913863458E+00  0.4748195043041522E+00  0.4709732907646886E+00
  0.4671320916671969E+00  0.4632958546879253E+00  0.4594645344449261E+00  0.4556380926612689E+00  0.4518164983263293E+00
  0.4479997278547825E+00  0.4441877652429419E+00  0.4403806022220465E+00  0.4365782384081069E+00  0.4327806814479024E+00
  0.4289879471607003E+00  0.4252000596752940E+00  0.4214170515618921E+00  0.4176389639584445E+00  0.4138658466909229E+00
  0.4100977583871344E+00  0.4063347665835655E+00  0.4025769478248230E+00  0.3988243877551820E+00  0.3950771812017838E+00
  0.3913354322489984E+00  0.3875992543035002E+00  0.3838687701495795E+00  0.3801441119942321E+00  0.3764254215015790E+00
  0.3727128498161570E+00  0.3690065575746629E+00  0.3653067149057118E+00  0.3616135014172146E+00  0.3579271061709609E+00
  0.3542477276440626E+00  0.3505755736768676E+00  0.3469108614070413E+00  0.3432538171894763E+00  0.3396046765017824E+00
  0.3359636838350609E+00  0.3323310925697725E+00  0.3287071648364762E+00  0.3250921713613073E+00  0.3214863912960383E+00
  0.3178901120326617E+00  0.3143036290024296E+00  0.3107272454593474E+00  0.3071612722481555E+00  0.3036060275568683E+00
  0.3000618366539992E+00  0.2965290316106314E+00  0.2930079510075511E+00  0.2894989396276846E+00  0.2860023481341749E+00
  0.2825185327344127E+00  0.2790478548304551E+00  0.2755906806562471E+00  0.2721473809021743E+00  0.2687183303274487E+00
  0.2653039073609481E+00  0.2619044936911060E+00  0.2585204738455588E+00  0.2551522347612319E+00  0.2518001653456428E+00
  0.2484646560302037E+00  0.2451460983163523E+00  0.2418448843153786E+00  0.2385614062828303E+00  0.2352960561484307E+00
  0.2320492250424465E+00  0.2288213028194819E+00  0.2256126775806770E+00  0.2224237351953267E+00  0.2192548588229272E+00
  0.2161064284366807E+00  0.2129788203494794E+00  0.2098724067434116E+00  0.2067875552038066E+00  0.2037246282588522E+00
  0.2006839829257770E+00  0.1976659702646257E+00  0.1946709349405714E+00  0.1916992147957539E+00  0.1887511404315593E+00
  0.1858270348022530E+00  0.1829272128208401E+00  0.1800519809779842E+00  0.1772016369747944E+00  0.1743764693702330E+00
  0.1715767572438613E+00  0.1688027698745904E+00  0.1660547664360610E+00  0.1633329957092206E+00  0.1606376958126175E+00
  0.1579690939508714E+00  0.1553274061817327E+00  0.1527128372020904E+00  0.1501255801532111E+00  0.1475658164454551E+00
  0.1450337156026593E+00  0.1425294351262929E+00  0.1400531203794721E+00  0.1376049044908321E+00  0.1351849082782091E+00
  0.1327932401920516E+00  0.1304299962783777E+00  0.1280952601611038E+00  0.1257891030434643E+00  0.1235115837282379E+00
  0.1212627486564150E+00  0.1190426319639202E+00  0.1168512555559558E+00  0.1146886291984850E+00  0.1125547506263423E+00
  0.1104496056674354E+00  0.1083731683824465E+00  0.1063254012194425E+00  0.1043062551827489E+00  0.1023156700154417E+00
  0.1003535743947848E+00  0.9841988613991286E-01  0.9651451243106771E-01  0.9463735003965637E-01  0.9278828556842372E-01
  0.9096719570099343E-01  0.8917394746005418E-01  0.8740839847344899E-01  0.8567039724744666E-01  0.8395978344645144E-01
  0.8227638817844660E-01  0.8062003428544121E-01  0.7899053663823709E-01  0.7738770243480877E-01  0.7581133150162976E-01
  0.7426121659728961E-01  0.7273714371774882E-01  0.7123889240261631E-01  0.6976623604184760E-01  0.6831894218227261E-01
  0.6689677283340546E-01  0.6549948477198951E-01  0.6412682984476621E-01  0.6277855526898596E-01  0.6145440393018329E-01
  0.6015411467679203E-01  0.5887742261116940E-01  0.5762405937665779E-01  0.5639375344030444E-01  0.5518623037091160E-01
  0.5400121311209682E-01  0.5283842225008199E-01  0.5169757627593727E-01  0.5057839184205105E-01  0.4948058401259843E-01
  0.4840386650782541E-01  0.4734795194196988E-01  0.4631255205467310E-01  0.4529737793575771E-01  0.4430214024325686E-01
  0.4332654941461613E-01  0.4237031587099174E-01  0.4143315021459845E-01  0.4051476341907498E-01  0.3961486701284711E-01
  0.3873317325548790E-01  0.3786939530709441E-01  0.3702324739069866E-01  0.3619444494776548E-01  0.3538270478681946E-01
  0.3458774522527638E-01  0.3380928622454659E-01  0.3304704951849954E-01  0.3230075873538624E-01  0.3157013951331690E-01
  0.3085491960941180E-01  0.3015482900273710E-01  0.2946959999115224E-01  0.2879896728220021E-01  0.2814266807817185E-01
  0.2750044215548434E-01  0.2687203193851902E-01  0.2625718256805907E-01  0.2565564196448200E-01  0.2506716088585122E-01
  0.2449149298106254E-01  0.2392839483819915E-01  0.2337762602824697E-01  0.2283894914432535E-01  0.2231212983659043E-01
  0.2179693684295932E-01  0.2129314201581542E-01  0.2080052034483995E-01  0.2031884997612696E-01  0.1984791222772616E-01
  0.1938749160176352E-01  0.1893737579328574E-01  0.1849735569596848E-01  0.1806722540483388E-01  0.1764678221611070E-01
  0.1723582662437587E-01  0.1683416231710960E-01  0.1644159616679227E-01  0.1605793822067087E-01  0.1568300168831917E-01
  0.1531660292711043E-01  0.1495856142572022E-01  0.1460869978577424E-01  0.1426684370175063E-01  0.1393282193924360E-01
  0.1360646631169288E-01  0.1328761165568011E-01  0.1297609580488748E-01  0.1267175956281419E-01  0.1237444667433989E-01
  0.1208400379622379E-01  0.1180028046662239E-01  0.1152312907370682E-01  0.1125240482345722E-01  0.1098796570671027E-01
  0.1072967246552906E-01  0.1047738855896546E-01  0.1023098012828022E-01  0.9990315961683628E-02  0.9755267458655879E-02
  0.9525708593905589E-02  0.9301515881019658E-02  0.9082568335858075E-02  0.8868747439741125E-02  0.8659937102477108E-02
  0.8456023625275227E-02  0.8256895663585305E-02  0.8062444189904382E-02  0.7872562456588003E-02  0.7687145958702720E-02
  0.7506092396951988E-02  0.7329301640708588E-02  0.7156675691181866E-02  0.6988118644750225E-02  0.6823536656481989E-02
  0.6662837903871734E-02  0.6505932550813501E-02  0.6352732711833346E-02  0.6203152416600100E-02  0.6057107574733260E-02
  0.5914515940925162E-02  0.5775297080393177E-02  0.5639372334675785E-02  0.5506664787786565E-02  0.5377099232738027E-02
  0.5250602138445933E-02  0.5127101617024586E-02  0.5006527391481354E-02  0.4888810763819822E-02  0.4773884583556902E-02
  0.4661683216661558E-02  0.4552142514919815E-02  0.4445199785731432E-02  0.4340793762341398E-02  0.4238864574509989E-02
  0.4139353719623953E-02  0.4042204034250816E-02  0.3947359666137394E-02  0.3854766046653667E-02  0.3764369863682503E-02
  0.3676119034954514E-02  0.3589962681827981E-02  0.3505851103512396E-02  0.3423735751734562E-02  0.3343569205845180E-02
  0.3265305148363709E-02  0.3188898340959095E-02  0.3114304600863809E-02  0.3041480777717580E-02  0.2970384730837894E-02
  0.2900975306913735E-02  0.2833212318118224E-02  0.2767056520636911E-02  0.2702469593606886E-02  0.2639414118462555E-02
  0.2577853558683822E-02  0.2517752239941591E-02  0.2459075330636008E-02  0.2401788822822591E-02  0.2345859513521275E-02
  0.2291254986402984E-02  0.2237943593848878E-02  0.2185894439377031E-02  0.2135077360431031E-02  0.2085462911525346E-02
  0.2037022347741992E-02  0.1989727608573185E-02  0.1943551302104516E-02  0.1898466689533115E-02  0.1854447670015415E-02
  0.1811468765839236E-02  0.1769505107914409E-02  0.1728532421576746E-02  0.1688527012699948E-02  0.1649465754109816E-02
  0.1611326072295751E-02  0.1574085934413805E-02  0.1537723835576350E-02  0.1502218786422782E-02  0.1467550300966238E-02
  0.1433698384711016E-02  0.1400643523035635E-02  0.1368366669836448E-02  0.1336849236426663E-02  0.1306073080685879E-02
  0.1276020496455266E-02  0.1246674203173355E-02  0.1218017335747735E-02  0.1190033434657956E-02  0.1162706436284761E-02
  0.1136020663461288E-02  0.1109960816241433E-02  0.1084511962880991E-02  0.1059659531027215E-02  0.1035389299112287E-02
  0.1011687387946473E-02  0.9885402525067939E-03  0.9659346739168964E-03  0.9438577516142371E-03  0.9222968957003178E-03
  0.9012398194702537E-03  0.8806745321175801E-03  0.8605893316106092E-03  0.8409727977364878E-03  0.8218137853093885E-03
  0.8031014175390303E-03  0.7848250795561868E-03  0.7669744120914760E-03  0.7495393053042027E-03  0.7325098927577403E-03
  0.7158765455382185E-03  0.6996298665133385E-03  0.6837606847279996E-03  0.6682600499338054E-03  0.6531192272492359E-03
  0.6383296919476491E-03  0.6238831243700544E-03  0.6097714049598984E-03  0.5959866094169616E-03  0.5825210039677270E-03
  0.5693670407493802E-03  0.5565173533049774E-03  0.5439647521870130E-03  0.5317022206670386E-03  0.5197229105487169E-03
  0.5080201380819536E-03  0.4965873799757680E-03  0.4854182695075009E-03  0.4745065927261446E-03  0.4638462847476064E-03
  0.4534314261396336E-03  0.4432562393943988E-03  0.4333150854865770E-03  0.4236024605149138E-03  0.4141129924253368E-03
  0.4048414378136076E-03  0.3957826788056454E-03  0.3869317200136889E-03  0.3782836855664572E-03  0.3698338162115302E-03
  0.3615774664882476E-03  0.3535101019694039E-03  0.3456272965701225E-03  0.3379247299222409E-03  0.3303981848126965E-03
  0.3230435446842928E-03  0.3158567911974214E-03  0.3088340018512010E-03  0.3019713476626258E-03  0.2952650909023386E-03
  0.2887115828856135E-03  0.2823072618172368E-03  0.2760486506889867E-03  0.2699323552284153E-03  0.2639550618976906E-03
  0.2581135359412915E-03  0.2524046194813502E-03  0.2468252296595115E-03  0.2413723568241396E-03  0.2360430627617877E-03
  0.2308344789718519E-03  0.2257438049833572E-03  0.2207683067128248E-03  0.2159053148622418E-03  0.2111522233561546E-03
  0.2065064878169046E-03  0.2019656240770906E-03  0.1975272067283617E-03  0.1931888677056085E-03  0.1889482949057346E-03
  0.1848032308401271E-03  0.1807514713200082E-03  0.1767908641738794E-03  0.1729193079962455E-03  0.1691347509268636E-03
  0.1654351894597742E-03  0.1618186672813771E-03  0.1582832741368320E-03  0.1548271447241028E-03  0.1514484576149547E-03
  0.1481454342022558E-03  0.1449163376729222E-03  0.1417594720058820E-03  0.1386731809944509E-03  0.1356558472925136E-03
  0.1327058914839222E-03  0.1298217711745441E-03  0.1270019801064135E-03  0.1242450472934220E-03  0.1215495361780412E-03
  0.1189140438085362E-03  0.1163372000362004E-03  0.1138176667320805E-03  0.1113541370227416E-03  0.1089453345445891E-03
  0.1065900127163034E-03  0.1042869540289302E-03  0.1020349693531970E-03  0.9983289726363877E-04  0.9767960337911277E-04
  0.9557397971929959E-04  0.9351494407679905E-04  0.9150143940444603E-04  0.8953243321745680E-04  0.8760691701005550E-04
  0.8572390568621639E-04  0.8388243700418194E-04  0.8208157103441595E-04  0.8032038963065882E-04  0.7859799591376668E-04
  0.7691351376802506E-04  0.7526608734962159E-04  0.7365488060698608E-04  0.7207907681270638E-04  0.7053787810673757E-04
  0.6903050505062062E-04  0.6755619619245066E-04  0.6611420764232274E-04  0.6470381265800771E-04  0.6332430124059843E-04
  0.6197497973988694E-04  0.6065517046923630E-04  0.5936421132971180E-04  0.5810145544324537E-04  0.5686627079461150E-04
  0.5565803988200505E-04  0.5447615937600190E-04  0.5332003978670626E-04  0.5218910513887445E-04  0.5108279265483658E-04
  0.5000055244500681E-04  0.4894184720581080E-04  0.4790615192484291E-04  0.4689295359308158E-04  0.4590175092398569E-04
  0.4493205407930644E-04  0.4398338440145374E-04  0.4305527415225460E-04  0.4214726625794726E-04  0.4125891406026132E-04
  0.4038978107343723E-04  0.3953944074703596E-04  0.3870747623440304E-04  0.3789348016664624E-04  0.3709705443199501E-04
  0.3631780996041131E-04  0.3555536651332141E-04  0.3480935247834763E-04  0.3407940466891841E-04  0.3336516812863636E-04
  0.3266629594029101E-04  0.3198244903940303E-04  0.3131329603219154E-04  0.3065851301785481E-04  0.3001778341506117E-04
  0.2939079779255151E-04  0.2877725370374812E-04  0.2817685552527819E-04  0.2758931429931413E-04  0.2701434757964099E-04
  0.2645167928135987E-04  0.2590103953413971E-04  0.2536216453893046E-04  0.2483479642805917E-04  0.2431868312862078E-04
  0.2381357822908918E-04  0.2331924084907044E-04  0.2283543551211920E-04  0.2236193202155011E-04  0.2189850533916753E-04
  0.2144493546684504E-04  0.2100100733088830E-04  0.2056651066911140E-04  0.2014123992056261E-04  0.1972499411783829E-04
  0.1931757678191860E-04  0.1891879581946941E-04  0.1852846342254679E-04  0.1814639597065100E-04  0.1777241393506973E-04
  0.1740634178545913E-04  0.1704800789860671E-04  0.1669724446932593E-04  0.1635388742343055E-04  0.1601777633273911E-04
  0.1568875433206100E-04  0.1536666803811840E-04  0.1505136747035568E-04  0.1474270597359263E-04  0.1444054014247828E-04
  0.1414472974770036E-04  0.1385513766391113E-04  0.1357162979932675E-04  0.1329407502696198E-04  0.1302234511746005E-04
  0.1275631467348117E-04  0.1249586106561119E-04  0.1224086436975650E-04  0.1199120730598702E-04  0.1174677517879659E-04
  0.1150745581874341E-04  0.1127313952544119E-04  0.1104371901186690E-04  0.1081908934995458E-04  0.1059914791744593E-04
  0.1038379434596605E-04  0.1017293047029674E-04  0.9966460278819493E-05  0.9764289865098721E-05  0.9566327380580710E-05
  0.9372482988380260E-05  0.9182668818129881E-05  0.8996798921867555E-05  0.8814789230936654E-05  0.8636557513876383E-05
  0.8462023335277702E-05  0.8291108015583535E-05  0.8123734591809639E-05  0.7959827779166057E-05  0.7799313933556547E-05
  0.7642121014937025E-05  0.7488178551511142E-05  0.7337417604745233E-05  0.7189770735181661E-05  0.7045171969033601E-05
  0.6903556765541637E-05  0.6764861985075047E-05  0.6629025857960570E-05  0.6495987954021184E-05  0.6365689152808280E-05
  0.6238071614511969E-05  0.6113078751532744E-05  0.5990655200699356E-05  0.5870746796118289E-05  0.5753300542639513E-05
  0.5638264589924913E-05  0.5525588207104649E-05  0.5415221758008216E-05  0.5307116676956921E-05  0.5201225445104675E-05
  0.5097501567314136E-05  0.4995899549556018E-05  0.4896374876819795E-05  0.4798883991523222E-05  0.4703384272409625E-05
  0.4609834013921858E-05  0.4518192406041169E-05  0.4428419514581204E-05  0.4340476261925829E-05  0.4254324408200871E-05
  0.4169926532869998E-05  0.4087246016744470E-05  0.4006247024397554E-05  0.3926894486974246E-05  0.3849154085387274E-05
  0.3772992233890170E-05  0.3698376064019140E-05  0.3625273408894991E-05  0.3553652787877136E-05  0.3483483391561242E-05
  0.3414735067112758E-05  0.3347378303928919E-05  0.3281384219621305E-05  0.3216724546311761E-05  0.3153371617234511E-05
  0.3091298353637600E-05  0.3030478251976566E-05  0.2970885371393737E-05  0.2912494321476839E-05  0.2855280250290347E-05
  0.2799218832673270E-05  0.2744286258797565E-05  0.2690459222980964E-05  0.2637714912748720E-05  0.2586030998138276E-05
  0.2535385621241552E-05  0.2485757385979392E-05  0.2437125348102947E-05  0.2389469005416666E-05  0.2342768288218006E-05
  0.2297003549949027E-05  0.2252155558054826E-05  0.2208205485044352E-05  0.2165134899748785E-05  0.2122925758773302E-05
  0.2081560398137624E-05  0.2041021525101115E-05  0.2001292210168271E-05  0.1962355879270662E-05  0.1924196306121067E-05
  0.1886797604736201E-05  0.1850144222123987E-05  0.1814220931131852E-05  0.1779012823452366E-05  0.1744505302782589E-05
  0.1710684078133711E-05  0.1677535157287777E-05  0.1645044840397895E-05  0.1613199713728873E-05  0.1581986643535210E-05
  0.1551392770073092E-05  0.1521405501743709E-05  0.1492012509364689E-05  0.1463201720566867E-05  0.1434961314313694E-05
  0.1407279715540334E-05  0.1380145589909890E-05  0.1353547838684182E-05  0.1327475593706413E-05  0.1301918212493270E-05
  0.1276865273434024E-05  0.1252306571094204E-05  0.1228232111621617E-05  0.1204632108252266E-05  0.1181496976914062E-05
  0.1158817331926135E-05  0.1136583981791610E-05  0.1114787925081729E-05  0.1093420346409289E-05  0.1072472612489548E-05
  0.1051936268286435E-05  0.1031803033242368E-05  0.1012064797589634E-05  0.9927136187417881E-06  0.9737417177629998E-06
  0.9551414759138251E-06  0.9369054312716085E-06  0.9190262754239584E-06  0.9014968502335731E-06  0.8843101446728936E-06
  0.8674592917270520E-06  0.8509375653636128E-06  0.8347383775675648E-06  0.8188552754401738E-06  0.8032819383603439E-06
  0.7880121752069941E-06  0.7730399216411816E-06  0.7583592374466288E-06  0.7439643039274027E-06  0.7298494213614586E-06
  0.7160090065088142E-06  0.7024375901731599E-06  0.6891298148157810E-06  0.6760804322205700E-06  0.6632843012090320E-06
  0.6507363854042258E-06  0.6384317510425302E-06  0.6263655648321875E-06  0.6145330918576148E-06  0.6029296935284629E-06
  0.5915508255725004E-06  0.5803920360712865E-06  0.5694489635377261E-06  0.5587173350346370E-06  0.5481929643333876E-06
  0.5378717501117286E-06  0.5277496741899741E-06  0.5178227998047417E-06  0.5080872699193450E-06  0.4985393055701217E-06
  0.4891752042478437E-06  0.4799913383135549E-06  0.4709841534479490E-06  0.4621501671336646E-06  0.4534859671697352E-06
  0.4449882102175262E-06  0.4366536203774451E-06  0.4284789877957646E-06  0.4204611673009285E-06  0.4125970770686951E-06
  0.4048836973154611E-06  0.3973180690191865E-06  0.3898972926673482E-06  0.3826185270312712E-06  0.3754789879663301E-06
  0.3684759472374201E-06  0.3616067313691882E-06  0.3548687205204675E-06  0.3482593473823918E-06  0.3417760960996828E-06
  0.3354165012146392E-06  0.3291781466332903E-06  0.3230586646132685E-06  0.3170557347729335E-06  0.3111670831212900E-06
  0.3053904811082312E-06  0.2997237446947047E-06  0.2941647334423432E-06  0.2887113496221756E-06  0.2833615373419791E-06
  0.2781132816918753E-06  0.2729646079078126E-06  0.2679135805525133E-06  0.2629583027135317E-06  0.2580969152180445E-06
  0.2533275958640461E-06  0.2486485586675522E-06  0.2440580531255147E-06  0.2395543634940765E-06  0.2351358080818673E-06
  0.2308007385580087E-06  0.2265475392745074E-06  0.2223746266027345E-06  0.2182804482837111E-06  0.2142634827918735E-06
  0.2103222387120480E-06  0.2064552541293706E-06  0.2026610960318357E-06  0.1989383597252555E-06  0.1952856682603189E-06
  0.1917016718715339E-06  0.1881850474277744E-06  0.1847344978941973E-06  0.1813487518052834E-06  0.1780265627487761E-06
  0.1747667088602824E-06  0.1715679923283016E-06  0.1684292389094708E-06  0.1653492974538220E-06  0.1623270394398146E-06
  0.1593613585189511E-06  0.1564511700697844E-06  0.1535954107610908E-06  0.1507930381240478E-06  0.1480430301332003E-06
  0.1453443847960422E-06  0.1426961197510403E-06  0.1400972718739042E-06  0.1375468968919385E-06  0.1350440690063190E-06
  0.1325878805220985E-06  0.1301774414858132E-06  0.1278118793304988E-06  0.1254903385279893E-06  0.1232119802483225E-06
  0.1209759820261185E-06  0.1187815374337775E-06  0.1166278557613574E-06  0.1145141617029962E-06  0.1124396950497281E-06
  0.1104037103885723E-06  0.1084054768077652E-06  0.1064442776079962E-06  0.1045194100195270E-06  0.1026301849250819E-06
  0.1007759265883692E-06  0.9895597238813507E-07  0.9716967255762069E-07  0.9541638992932205E-07  0.9369549968493135E-07
  0.9200638911035999E-07  0.9034845735573203E-07  0.8872111520025268E-07  0.8712378482183838E-07  0.8555589957142500E-07
  0.8401690375184055E-07  0.8250625240116384E-07  0.8102341108046341E-07  0.7956785566583123E-07  0.7813907214462708E-07
  0.7673655641583580E-07  0.7535981409446002E-07  0.7400836031986406E-07  0.7268171956798688E-07  0.7137942546734073E-07
  0.7010102061872359E-07  0.6884605641856121E-07  0.6761409288581511E-07  0.6640469849236732E-07  0.6521744999682793E-07
  0.6405193228167796E-07  0.6290773819369383E-07  0.6178446838757482E-07  0.6068173117271227E-07  0.5959914236303882E-07
  0.5853632512988779E-07  0.5749290985780476E-07  0.5646853400325374E-07  0.5546284195614948E-07  0.5447548490416973E-07
  0.5350612069978029E-07  0.5255441372992139E-07  0.5162003478830487E-07  0.5070266095026054E-07  0.4980197545008512E-07
  0.4891766756084210E-07  0.4804943247656217E-07  0.4719697119679260E-07  0.4635999041345128E-07  0.4553820239993551E-07
  0.4473132490244342E-07  0.4393908103345735E-07  0.4316119916734944E-07  0.4239741283806503E-07  0.4164746063884194E-07
  0.4091108612392280E-07  0.4018803771221959E-07  0.3947806859289581E-07  0.3878093663281950E-07  0.3809640428585454E-07
  0.1129489969110097E+03  0.1129489969110097E+03  0.1129489969110097E+03  0.1129489969110097E+03  0.1129489969110097E+03
  0.1129489969110097E+03  0.1129489969110097E+03  0.1129489969110097E+03  0.1129489969110097E+03  0.1129489969110097E+03
  0.1129489969110097E+03  0.1129489969110097E+03  0.1129489969110097E+03  0.1129489969110097E+03  0.1129489969110097E+03
  0.1129489969110097E+03  0.1129489969110097E+03  0.1129489969110097E+03  0.1129489969110097E+03  0.1129489969110097E+03
  0.1129489969110097E+03  0.1129489969110097E+03  0.1129489969110097E+03  0.1129489969110097E+03  0.1129489969110097E+03
  0.1129489969110097E+03  0.1129489969110097E+03  0.1129489969110097E+03  0.1129489969110097E+03  0.1129489969110097E+03
  0.1129489969110097E+03  0.1129489969110097E+03  0.1129489969110097E+03  0.1129489969110097E+03  0.1129489969110097E+03
  0.1129489969110097E+03  0.1129489969110097E+03  0.1129489969110097E+03  0.1129489969110097E+03  0.1129489969110097E+03
  0.1129489969110097E+03  0.1129489969110097E+03  0.1129489969110097E+03  0.1129489969110097E+03  0.1129489969110097E+03
  0.1129489969110097E+03  0.1129489969110097E+03  0.1129489969110097E+03  0.1129489969110097E+03  0.1129489969110097E+03
  0.1129489969110097E+03  0.1129489969110097E+03  0.1129489969110097E+03  0.1129489969110097E+03  0.1129489969110097E+03
  0.1129489969110097E+03  0.1129489969110097E+03  0.1129489969110097E+03  0.1129489969110097E+03  0.1129489969110097E+03
  0.1129489969110097E+03  0.1129489969110097E+03  0.1129489969110097E+03  0.1129489969110097E+03  0.1129489969110097E+03
  0.1129489969110097E+03  0.1129489969110097E+03  0.1129489969110097E+03  0.1129489969110097E+03  0.1129489969110097E+03
  0.1129489969110097E+03  0.1129489969110097E+03  0.1129489969110097E+03  0.1129489969110097E+03  0.1129489969110097E+03
  0.1129489969110097E+03  0.1129489969110097E+03  0.1129489969110097E+03  0.1129489969110097E+03  0.1129489969110097E+03
  0.1129489969110097E+03  0.1129489969110097E+03  0.1129489969110097E+03  0.1129489969110097E+03  0.1129489969110097E+03
  0.1129489969110097E+03  0.1129489969110097E+03  0.1129489969110097E+03  0.1129489969110097E+03  0.1129489969110097E+03
  0.1129489969110097E+03  0.1129489969110097E+03  0.1129489969110097E+03  0.1129489969110097E+03  0.1129489969110097E+03
  0.1129489969110097E+03  0.1129489969110097E+03  0.1129489969110097E+03  0.1129489969110097E+03  0.1129489969110097E+03
  0.1129489969110097E+03  0.1129489969110097E+03  0.1129489969110097E+03  0.1129489969110097E+03  0.1129489969110097E+03
  0.1129489969110097E+03  0.1129489969110097E+03  0.1129489969110097E+03  0.1129489969110097E+03  0.1129489969110097E+03
