  DATE: 2018-03-30 CONTRIBUTOR: Xiaowang Zhou xzhou@sandia.gov and Lucas Hale lucas.hale@nist.gov CITATION: X. W. Zhou, R. A. Johnson, H. N. G. Wadley, Phys. Rev. B, 69, 144113(2004)
  Generated from Zhou04_create_v2.f
  Fixes precision issues with older version
    1 W                       
 2000  0.8454588780072717E-01 2000  0.3065885220335430E-02  0.6128704555450525E+01
   74     183.84         3.8761    fcc     
  0.0000000000000000E+00 -0.3777145710547281E-01 -0.7534843625031673E-01 -0.1127314443817546E+00 -0.1499209884470218E+00
 -0.1869175753933456E+00 -0.2237217121679533E+00 -0.2603339057180722E+00 -0.2967546629909332E+00 -0.3329844909337663E+00
 -0.3690238964937969E+00 -0.4048733866182541E+00 -0.4405334682543689E+00 -0.4760046483493681E+00 -0.5112874338504816E+00
 -0.5463823317049359E+00 -0.5812898488599618E+00 -0.6160104922627880E+00 -0.6505447688606423E+00 -0.6848931856007514E+00
 -0.7190562494303476E+00 -0.7530344672966587E+00 -0.7868283461469110E+00 -0.8204383929283345E+00 -0.8538651145881602E+00
 -0.8871090180736148E+00 -0.9201706103319274E+00 -0.9530503983103240E+00 -0.9857488889560351E+00 -0.1018266589216291E+01
 -0.1050604006038319E+01 -0.1082761646369348E+01 -0.1114740017156606E+01 -0.1146539625347323E+01 -0.1178160977888727E+01
 -0.1209604581728046E+01 -0.1240870943812507E+01 -0.1271960571089343E+01 -0.1302873970505781E+01 -0.1333611649009049E+01
 -0.1364174113546373E+01 -0.1394561871064989E+01 -0.1424775428512119E+01 -0.1454815292834994E+01 -0.1484681970980842E+01
 -0.1514375969896891E+01 -0.1543897796530373E+01 -0.1573247957828514E+01 -0.1602426960738542E+01 -0.1631435312207687E+01
 -0.1660273519183179E+01 -0.1688942088612244E+01 -0.1717441527442113E+01 -0.1745772342620010E+01 -0.1773935041093170E+01
 -0.1801930129808819E+01 -0.1829758115714185E+01 -0.1857419505756497E+01 -0.1884914806882984E+01 -0.1912244526040874E+01
 -0.1939409170177396E+01 -0.1966409246239779E+01 -0.1993245261175251E+01 -0.2019917721931042E+01 -0.2046427135454379E+01
 -0.2072774008692492E+01 -0.2098958848592609E+01 -0.2124982162101959E+01 -0.2150844456167770E+01 -0.2176546237737272E+01
 -0.2202088013757690E+01 -0.2227470291176258E+01 -0.2252693576940202E+01 -0.2277758377996750E+01 -0.2302665201293131E+01
 -0.2327414553776575E+01 -0.2352006942394310E+01 -0.2376442874093564E+01 -0.2400722855821564E+01 -0.2424847394525544E+01
 -0.2448816997152728E+01 -0.2472632170650346E+01 -0.2496293421965627E+01 -0.2519801258045799E+01 -0.2543156185838092E+01
 -0.2566358712289733E+01 -0.2589409344347951E+01 -0.2612308588959975E+01 -0.2635056953073035E+01 -0.2657654943634357E+01
 -0.2680103067591173E+01 -0.2702401831890707E+01 -0.2724551743480192E+01 -0.2746553309306854E+01 -0.2768407036317925E+01
 -0.2790113431460629E+01 -0.2811673001682198E+01 -0.2833086253929860E+01 -0.2854353695150842E+01 -0.2875475832292375E+01
 -0.2896453172301688E+01 -0.2917286222126007E+01 -0.2937975488712562E+01 -0.2958521479008581E+01 -0.2978924699961293E+01
 -0.2999185658517930E+01 -0.3019304861625715E+01 -0.3039282816231880E+01 -0.3059120029283653E+01 -0.3078817007728264E+01
 -0.3098374258512938E+01 -0.3117792288584908E+01 -0.3137071604891401E+01 -0.3156212714379643E+01 -0.3175216123996866E+01
 -0.3194082340690297E+01 -0.3212811871407167E+01 -0.3231405223094702E+01 -0.3249862902700132E+01 -0.3268185417170685E+01
 -0.3286373273453591E+01 -0.3304426978496076E+01 -0.3322347039245370E+01 -0.3340133962648704E+01 -0.3357788255653304E+01
 -0.3375310425206398E+01 -0.3392700978255218E+01 -0.3409960421746989E+01 -0.3427089262628942E+01 -0.3444088007848305E+01
 -0.3460957164352307E+01 -0.3477697239088175E+01 -0.3494308739003140E+01 -0.3510792171044429E+01 -0.3527148042159272E+01
 -0.3543376859294897E+01 -0.3559479129398532E+01 -0.3575455359417407E+01 -0.3591306056298749E+01 -0.3607031726989788E+01
 -0.3622632878437752E+01 -0.3638110017589870E+01 -0.3653463651393372E+01 -0.3668694286795484E+01 -0.3683802430743436E+01
 -0.3698788590184457E+01 -0.3713653272065775E+01 -0.3728396983334619E+01 -0.3743020230938217E+01 -0.3757523521823798E+01
 -0.3771907362938592E+01 -0.3786172261229827E+01 -0.3800318723644731E+01 -0.3814347257130532E+01 -0.3828258368634460E+01
 -0.3842052565103742E+01 -0.3855730353485610E+01 -0.3869292240727289E+01 -0.3882738733776010E+01 -0.3896070339579001E+01
 -0.3909287565083491E+01 -0.3922390917236708E+01 -0.3935380902985880E+01 -0.3948258029278236E+01 -0.3961022803061007E+01
 -0.3973675731281419E+01 -0.3986217320886701E+01 -0.3998648078824083E+01 -0.4010968512040794E+01 -0.4023179127484060E+01
 -0.4035280432101112E+01 -0.4047272932839178E+01 -0.4059157136645485E+01 -0.4070933550467264E+01 -0.4082602681251744E+01
 -0.4094165035946151E+01 -0.4105621121497717E+01 -0.4116971444853667E+01 -0.4128216512961232E+01 -0.4139356832767641E+01
 -0.4150392911220121E+01 -0.4161325255265901E+01 -0.4172154371852211E+01 -0.4182880767926280E+01 -0.4193504950435335E+01
 -0.4204027426326604E+01 -0.4214448702547317E+01 -0.4224769286044703E+01 -0.4234989683765989E+01 -0.4245110402658407E+01
 -0.4255131949669182E+01 -0.4265054831745545E+01 -0.4274879555834723E+01 -0.4284606628883946E+01 -0.4294236557840441E+01
 -0.4303769849651440E+01 -0.4313207011264169E+01 -0.4322548549625855E+01 -0.4331794971683730E+01 -0.4340946784385023E+01
 -0.4350004494676960E+01 -0.4358968609506770E+01 -0.4367839635821684E+01 -0.4376618080568928E+01 -0.4385304450695732E+01
 -0.4393899253149324E+01 -0.4402402994876934E+01 -0.4410816182825791E+01 -0.4419139323943121E+01 -0.4427372925176154E+01
 -0.4435517493472118E+01 -0.4443573535778244E+01 -0.4451541559041758E+01 -0.4459422070209890E+01 -0.4467215576229869E+01
 -0.4474922584048924E+01 -0.4482543600614281E+01 -0.4490079132873171E+01 -0.4497529687772822E+01 -0.4504895772260463E+01
 -0.4512177893283322E+01 -0.4519376557788629E+01 -0.4526492272723611E+01 -0.4533525545035499E+01 -0.4540476881671519E+01
 -0.4547346789578900E+01 -0.4554135775704872E+01 -0.4560844346996663E+01 -0.4567473010401502E+01 -0.4574022272866617E+01
 -0.4580492641339237E+01 -0.4586884622766592E+01 -0.4593198724095908E+01 -0.4599435452274417E+01 -0.4605595314249343E+01
 -0.4611678816967919E+01 -0.4617686467377372E+01 -0.4623618772424930E+01 -0.4629476239057823E+01 -0.4635259374223279E+01
 -0.4640968684868527E+01 -0.4646604677940796E+01 -0.4652167860387313E+01 -0.4657658739155307E+01 -0.4663077821192008E+01
 -0.4668425613444645E+01 -0.4673702622860445E+01 -0.4678909356386638E+01 -0.4684046320970451E+01 -0.4689114023559115E+01
 -0.4694112971099856E+01 -0.4699043670539905E+01 -0.4703906628826489E+01 -0.4708702352906838E+01 -0.4713431349728179E+01
 -0.4718094126237744E+01 -0.4722691189382757E+01 -0.4727223046110449E+01 -0.4731690203368050E+01 -0.4736093168102787E+01
 -0.4740432447261889E+01 -0.4744708547792584E+01 -0.4748921976642102E+01 -0.4753073240757672E+01 -0.4757162847086519E+01
 -0.4761191302575877E+01 -0.4765159114172970E+01 -0.4769066788825031E+01 -0.4772914833479284E+01 -0.4776703755082961E+01
 -0.4780434060583289E+01 -0.4784106256927499E+01 -0.4787720851062817E+01 -0.4791278349936473E+01 -0.4794779260495694E+01
 -0.4798224089687711E+01 -0.4801613344459751E+01 -0.4804947531759044E+01 -0.4808227158532818E+01 -0.4811452731728302E+01
 -0.4814624758292724E+01 -0.4817743745173312E+01 -0.4820810199317297E+01 -0.4823824627671906E+01 -0.4826787537184368E+01
 -0.4829699434801911E+01 -0.4832560827471764E+01 -0.4835372222141157E+01 -0.4838134125757318E+01 -0.4840847045267473E+01
 -0.4843511487618855E+01 -0.4846127959758689E+01 -0.4848696968634208E+01 -0.4851219021192635E+01 -0.4853694624381204E+01
 -0.4856124285147140E+01 -0.4858508510437673E+01 -0.4860847807200032E+01 -0.4863142682381445E+01 -0.4865393642929140E+01
 -0.4867601195790348E+01 -0.4869765847912295E+01 -0.4871888106242213E+01 -0.4873968477727328E+01 -0.4876007469314868E+01
 -0.4878005587952063E+01 -0.4879963340586142E+01 -0.4881881234164334E+01 -0.4883759775633866E+01 -0.4885599471941967E+01
 -0.4887400830035868E+01 -0.4889164356862795E+01 -0.4890890559369978E+01 -0.4892579944504644E+01 -0.4894233019214024E+01
 -0.4895850290445345E+01 -0.4897432265145836E+01 -0.4898979450262727E+01 -0.4900492352743246E+01 -0.4901971479534620E+01
 -0.4903417337584079E+01 -0.4904830433838852E+01 -0.4906211275246166E+01 -0.4907560368753252E+01 -0.4908878221307337E+01
 -0.4910165339855650E+01 -0.4911422231345421E+01 -0.4912649402723877E+01 -0.4913847360938247E+01 -0.4915016612935760E+01
 -0.4916157665663645E+01 -0.4917271026069129E+01 -0.4918357201099443E+01 -0.4919416697701815E+01 -0.4920450022823472E+01
 -0.4921457683411644E+01 -0.4922440186413560E+01 -0.4923398038776448E+01 -0.4924331747447536E+01 -0.4925241819374055E+01
 -0.4926128761503231E+01 -0.4926993080782294E+01 -0.4927835284158474E+01 -0.4928655878578997E+01 -0.4929455370991092E+01
 -0.4930234268341990E+01 -0.4930993077578917E+01 -0.4931732305649104E+01 -0.4932452459499777E+01 -0.4933154046078167E+01
 -0.4933837572331503E+01 -0.4934503545207011E+01 -0.4935152471651922E+01 -0.4935784858613462E+01 -0.4936401213038864E+01
 -0.4937002041875352E+01 -0.4937587852070158E+01 -0.4938159150570510E+01 -0.4938716444323635E+01 -0.4939260240276764E+01
 -0.4939791045377123E+01 -0.4940309366571943E+01 -0.4940815710808451E+01 -0.4941310585033877E+01 -0.4941794496195449E+01
 -0.4942267951240395E+01 -0.4942731457115947E+01 -0.4943185520769329E+01 -0.4943630649147773E+01 -0.4944067349198505E+01
 -0.4944496127868756E+01 -0.4944917492105754E+01 -0.4945331948856727E+01 -0.4945740005068903E+01 -0.4946142167689515E+01
 -0.4946539378646079E+01 -0.4946930901747155E+01 -0.4947317174453766E+01 -0.4947698172312319E+01 -0.4948073870869222E+01
 -0.4948444245670885E+01 -0.4948809272263715E+01 -0.4949168926194122E+01 -0.4949523183008512E+01 -0.4949872018253296E+01
 -0.4950215407474881E+01 -0.4950553326219676E+01 -0.4950885750034090E+01 -0.4951212654464530E+01 -0.4951534015057407E+01
 -0.4951849807359125E+01 -0.4952160006916098E+01 -0.4952464589274729E+01 -0.4952763529981432E+01 -0.4953056804582611E+01
 -0.4953344388624678E+01 -0.4953626257654038E+01 -0.4953902387217101E+01 -0.4954172752860277E+01 -0.4954437330129972E+01
 -0.4954696094572596E+01 -0.4954949021734557E+01 -0.4955196087162264E+01 -0.4955437266402123E+01 -0.4955672535000547E+01
 -0.4955901868503940E+01 -0.4956125242458714E+01 -0.4956342632411275E+01 -0.4956554013908032E+01 -0.4956759362495395E+01
 -0.4956958653719769E+01 -0.4957151863127567E+01 -0.4957338966265195E+01 -0.4957519938679061E+01 -0.4957694755915574E+01
 -0.4957863393521143E+01 -0.4958025827042176E+01 -0.4958182032025082E+01 -0.4958331984016269E+01 -0.4958475658562145E+01
 -0.4958613031209120E+01 -0.4958744077503600E+01 -0.4958868772991996E+01 -0.4958987093220715E+01 -0.4959099013736167E+01
 -0.4959204510084759E+01 -0.4959303557812898E+01 -0.4959396132466997E+01 -0.4959482209593460E+01 -0.4959561764738698E+01
 -0.4959634773449119E+01 -0.4959701211271130E+01 -0.4959761053751143E+01 -0.4959814276435562E+01 -0.4959860854870798E+01
 -0.4959900764603260E+01 -0.4959933981179354E+01 -0.4959960480145492E+01 -0.4959980237048080E+01 -0.4959993227433526E+01
 -0.4959999426848240E+01 -0.4959998810838631E+01 -0.4959991354951105E+01 -0.4959977034732073E+01 -0.4959955825727941E+01
 -0.4959927703485119E+01 -0.4959892643550017E+01 -0.4959850621469041E+01 -0.4959801612788599E+01 -0.4959745593055102E+01
 -0.4959682537814957E+01 -0.4959612422614573E+01 -0.4959535223000358E+01 -0.4959450914518721E+01 -0.4959359472716069E+01
 -0.4959260873138811E+01 -0.4959155091333358E+01 -0.4959042102846116E+01 -0.4958921883223494E+01 -0.4958794408011899E+01
 -0.4958659652757742E+01 -0.4958517593007430E+01 -0.4958368204307373E+01 -0.4958211462203978E+01 -0.4958047342243654E+01
 -0.4957875819972808E+01 -0.4957696870937851E+01 -0.4957510470685190E+01 -0.4957316594761234E+01 -0.4957115218712389E+01
 -0.4956906318085069E+01 -0.4956689868425677E+01 -0.4956465845280625E+01 -0.4956234224196319E+01 -0.4955994980719169E+01
 -0.4955748090395582E+01 -0.4955493528771969E+01 -0.4955231271394736E+01 -0.4954961293810293E+01 -0.4954683571565048E+01
 -0.4954398080205410E+01 -0.4954104795277785E+01 -0.4953803692328585E+01 -0.4953494746904217E+01 -0.4953177934551087E+01
 -0.4952853230815608E+01 -0.4952520611244186E+01 -0.4952180051383229E+01 -0.4951831526779146E+01 -0.4951475012978346E+01
 -0.4951110485527238E+01 -0.4950737919972228E+01 -0.4950357291859727E+01 -0.4949968576736143E+01 -0.4949571750147883E+01
 -0.4949166787641357E+01 -0.4948753664762973E+01 -0.4948332357059139E+01 -0.4947902840076265E+01 -0.4947465089360757E+01
 -0.4947019080459025E+01 -0.4946564788917478E+01 -0.4946102190282524E+01 -0.4945631260100571E+01 -0.4945151973918028E+01
 -0.4944664307281303E+01 -0.4944168235736805E+01 -0.4943663902827986E+01 -0.4943152690898680E+01 -0.4942634807292314E+01
 -0.4942110276383845E+01 -0.4941579122416634E+01 -0.4941041369503401E+01 -0.4940497041627170E+01 -0.4939946162642214E+01
 -0.4939388756274981E+01 -0.4938824846125010E+01 -0.4938254455665858E+01 -0.4937677608245988E+01 -0.4937094327089677E+01
 -0.4936504635297903E+01 -0.4935908555849219E+01 -0.4935306111600632E+01 -0.4934697325288469E+01 -0.4934082219529225E+01
 -0.4933460816820419E+01 -0.4932833139541438E+01 -0.4932199209954365E+01 -0.4931559050204806E+01 -0.4930912682322716E+01
 -0.4930260128223204E+01 -0.4929601409707342E+01 -0.4928936548462961E+01 -0.4928265566065444E+01 -0.4927588483978505E+01
 -0.4926905323554971E+01 -0.4926216106037551E+01 -0.4925520852559598E+01 -0.4924819584145864E+01 -0.4924112321713259E+01
 -0.4923399086071581E+01 -0.4922679897924263E+01 -0.4921954777869103E+01 -0.4921223746398984E+01 -0.4920486823902595E+01
 -0.4919744030665143E+01 -0.4918995386869060E+01 -0.4918240912594698E+01 -0.4917480627821028E+01 -0.4916714552426325E+01
 -0.4915942706188853E+01 -0.4915165108787535E+01 -0.4914381779802630E+01 -0.4913592738716397E+01 -0.4912798004913745E+01
 -0.4911997597682898E+01 -0.4911191536216041E+01 -0.4910379839609956E+01 -0.4909562526866662E+01 -0.4908739616894049E+01
 -0.4907911128506506E+01 -0.4907077080425535E+01 -0.4906237491280371E+01 -0.4905392379608593E+01 -0.4904541763856732E+01
 -0.4903685662380867E+01 -0.4902824093447222E+01 -0.4901957075232758E+01 -0.4901084625825762E+01 -0.4900206763226416E+01
 -0.4899323505347390E+01 -0.4898434870014399E+01 -0.4897540874966780E+01 -0.4896641537858046E+01 -0.4895736876256447E+01
 -0.4894826907645529E+01 -0.4893911649424668E+01 -0.4892991118909628E+01 -0.4892065333333094E+01 -0.4891134309845207E+01
 -0.4890198065514097E+01 -0.4889256617326406E+01 -0.4888309982187818E+01 -0.4887358176923563E+01 -0.4886401218278945E+01
 -0.4885439122919847E+01 -0.4884471907433232E+01 -0.4883499588327653E+01 -0.4882522182033738E+01 -0.4881539704904699E+01
 -0.4880552173216810E+01 -0.4879559603169899E+01 -0.4878562010887824E+01 -0.4877559412418957E+01 -0.4876551823736659E+01
 -0.4875539260739740E+01 -0.4874521739252938E+01 -0.4873499275027376E+01 -0.4872471883741023E+01 -0.4871439580999150E+01
 -0.4870402382334781E+01 -0.4869360303209143E+01 -0.4868313359012109E+01 -0.4867261565062646E+01 -0.4866204936609241E+01
 -0.4865143488830351E+01 -0.4864077236834826E+01 -0.4863006195662335E+01 -0.4861930380283795E+01 -0.4860849805601795E+01
 -0.4859764486451008E+01 -0.4858674437598609E+01 -0.4857579673744688E+01 -0.4856480209522661E+01 -0.4855376059499664E+01
 -0.4854267238176973E+01 -0.4853153759990389E+01 -0.4852035639310638E+01 -0.4850912890443770E+01 -0.4849785527631545E+01
 -0.4848653565051819E+01 -0.4847517016818930E+01 -0.4846375896984080E+01 -0.4845230219535714E+01 -0.4844079998399892E+01
 -0.4842925247440671E+01 -0.4841765980460462E+01 -0.4840602211200408E+01 -0.4839433953340747E+01 -0.4838261220501169E+01
 -0.4837084026241179E+01 -0.4835902384060454E+01 -0.4834716307399191E+01 -0.4833525809638467E+01 -0.4832330904100584E+01
 -0.4831131604049410E+01 -0.4829927922690731E+01 -0.4828719873172581E+01 -0.4827507468585597E+01 -0.4826290721963335E+01
 -0.4825069646282619E+01 -0.4823844254463865E+01 -0.4822614559371410E+01 -0.4821380573813839E+01 -0.4820142310544309E+01
 -0.4818899782260869E+01 -0.4817653001606781E+01 -0.4816401981170837E+01 -0.4815146733487667E+01 -0.4813887271038062E+01
 -0.4812623606249274E+01 -0.4811355751495331E+01 -0.4810083719097334E+01 -0.4808807521323772E+01 -0.4807527170390810E+01
 -0.4806242678462596E+01 -0.4804954057651558E+01 -0.4803661320018692E+01 -0.4802364477573861E+01 -0.4801063542276086E+01
 -0.4799758526033825E+01 -0.4798449440705268E+01 -0.4797136298098621E+01 -0.4795819109972382E+01 -0.4794497888035630E+01
 -0.4793172643948291E+01 -0.4791843389321428E+01 -0.4790510135717503E+01 -0.4789172894650660E+01 -0.4787831677586987E+01
 -0.4786486495944787E+01 -0.4785137361094849E+01 -0.4783784284360704E+01 -0.4782427277018897E+01 -0.4781066350299242E+01
 -0.4779701515385082E+01 -0.4778332783413553E+01 -0.4776960165475824E+01 -0.4775583672617373E+01 -0.4774203315838216E+01
 -0.4772819106093175E+01 -0.4771431054292118E+01 -0.4770039171300207E+01 -0.4768643467938146E+01 -0.4767243954982417E+01
 -0.4765840643165535E+01 -0.4764433543176274E+01 -0.4763022665659914E+01 -0.4761608021218475E+01 -0.4760189620410953E+01
 -0.4758767473753553E+01 -0.4757341591719920E+01 -0.4755911984741377E+01 -0.4754478663207137E+01 -0.4753041637464551E+01
 -0.4751600917819317E+01 -0.4750156514535715E+01 -0.4748708437836823E+01 -0.4747256697904742E+01 -0.4745801304880814E+01
 -0.4744342268865841E+01 -0.4742879599920301E+01 -0.4741413308064565E+01 -0.4739943403279109E+01 -0.4738469895504727E+01
 -0.4736992794642739E+01 -0.4735512110555212E+01 -0.4734027853065149E+01 -0.4732540031956716E+01 -0.4731048656975432E+01
 -0.4729553737828382E+01 -0.4728055284184414E+01 -0.4726553305674350E+01 -0.4725047811891169E+01 -0.4723538812390225E+01
 -0.4722026316689427E+01 -0.4720510334269453E+01 -0.4718990874573928E+01 -0.4717467947009625E+01 -0.4715941560946661E+01
 -0.4714411725718680E+01 -0.4712878450623049E+01 -0.4711341744921041E+01 -0.4709801617838031E+01 -0.4708258078563670E+01
 -0.4706711136252080E+01 -0.4705160800022033E+01 -0.4703607078957134E+01 -0.4702049982106002E+01 -0.4700489518482453E+01
 -0.4698925697065675E+01 -0.4697358526800404E+01 -0.4695788016597109E+01 -0.4694214175332161E+01 -0.4692637011848007E+01
 -0.4691056534953344E+01 -0.4689472753423296E+01 -0.4687885675999577E+01 -0.4686295311390668E+01 -0.4684701668271980E+01
 -0.4683104755286025E+01 -0.4681504581042584E+01 -0.4679901154118867E+01 -0.4678294483059688E+01 -0.4676684576377611E+01
 -0.4675071442553134E+01 -0.4673455090034835E+01 -0.4671835527239535E+01 -0.4670212762552464E+01 -0.4668586804327411E+01
 -0.4666957660886888E+01 -0.4665325340522283E+01 -0.4663689851494015E+01 -0.4662051202031691E+01 -0.4660409400334258E+01
 -0.4658764454570155E+01 -0.4657116372877463E+01 -0.4655465163364065E+01 -0.4653810834107779E+01 -0.4652153393156526E+01
 -0.4650492848528459E+01 -0.4648829208212125E+01 -0.4647162480166601E+01 -0.4645492672321649E+01 -0.4643819792577848E+01
 -0.4642143848806746E+01 -0.4640464848851002E+01 -0.4638782800524521E+01 -0.4637097711612606E+01 -0.4635409589872085E+01
 -0.4633718443031455E+01 -0.4632024278791028E+01 -0.4630327104823057E+01 -0.4628626928771876E+01 -0.4626923758254038E+01
 -0.4625217600858448E+01 -0.4623508464146497E+01 -0.4621796355652194E+01 -0.4620081282882300E+01 -0.4618363253316459E+01
 -0.4616642274407330E+01 -0.4614918353580713E+01 -0.4613191498235683E+01 -0.4611461715744715E+01 -0.4609729013453811E+01
 -0.4607993398682631E+01 -0.4606254878724616E+01 -0.4604513460847112E+01 -0.4602769152291499E+01 -0.4601021960273307E+01
 -0.4599271891982351E+01 -0.4597518954582840E+01 -0.4595763155213511E+01 -0.4594004500987737E+01 -0.4592242998993659E+01
 -0.4590478656294299E+01 -0.4588711479927681E+01 -0.4586941476906945E+01 -0.4585168654220470E+01 -0.4583393018831986E+01
 -0.4581614577680695E+01 -0.4579833337681381E+01 -0.4578049305724526E+01 -0.4576262488676424E+01 -0.4574472893379298E+01
 -0.4572680526651409E+01 -0.4570885395287164E+01 -0.4569087506057234E+01 -0.4567286865708662E+01 -0.4565483480964975E+01
 -0.4563677358526286E+01 -0.4561868505069413E+01 -0.4560056927247978E+01 -0.4558242631692520E+01 -0.4556425625010601E+01
 -0.4554605913786909E+01 -0.4552783504583367E+01 -0.4550958403939234E+01 -0.4549130618371215E+01 -0.4547300154373562E+01
 -0.4545467018418173E+01 -0.4543631216954703E+01 -0.4541792756410653E+01 -0.4539951643191490E+01 -0.4538107883680729E+01
 -0.4536261484240044E+01 -0.4534412451209367E+01 -0.4532560790906981E+01 -0.4530706509629625E+01 -0.4528849613652589E+01
 -0.4526990109229811E+01 -0.4525128002593975E+01 -0.4523263299956606E+01 -0.4521396007508166E+01 -0.4519526131418153E+01
 -0.4517653677835185E+01 -0.4515778652887110E+01 -0.4513901062681082E+01 -0.4512020913303671E+01 -0.4510138210820937E+01
 -0.4508252961278544E+01 -0.4506365170701831E+01 -0.4504474845095916E+01 -0.4502581990445777E+01 -0.4500686612716354E+01
 -0.4498788717852622E+01 -0.4496888311779699E+01 -0.4494985400402918E+01 -0.4493079989607923E+01 -0.4491172085260755E+01
 -0.4489261693207940E+01 -0.4487348819276573E+01 -0.4485433469274405E+01 -0.4483515648989927E+01 -0.4481595364192466E+01
 -0.4479672620632244E+01 -0.4477747424040494E+01 -0.4475819780129521E+01 -0.4473889694592791E+01 -0.4471957173105017E+01
 -0.4470022221322238E+01 -0.4468084844881904E+01 -0.4466145049402953E+01 -0.4464202840485893E+01 -0.4462258223712888E+01
 -0.4460311204647830E+01 -0.4458361788836422E+01 -0.4456409981806260E+01 -0.4454455789066904E+01 -0.4452499216109967E+01
 -0.4450540268409182E+01 -0.4448578951420491E+01 -0.4446615270582104E+01 -0.4444649231314601E+01 -0.4442680839020985E+01
 -0.4440710099086769E+01 -0.4438737016880050E+01 -0.4436761597751584E+01 -0.4434783847034857E+01 -0.4432803770046164E+01
 -0.4430821372084679E+01 -0.4428836658432536E+01 -0.4426849634354886E+01 -0.4424860305099987E+01 -0.4422868675899263E+01
 -0.4420874751967392E+01 -0.4418878538502351E+01 -0.4416880040685514E+01 -0.4414879263681711E+01 -0.4412876212639294E+01
 -0.4410870892690212E+01 -0.4408863308950085E+01 -0.4406853466518264E+01 -0.4404841370477901E+01 -0.4402827025896029E+01
 -0.4400810437823614E+01 -0.4398791611295633E+01 -0.4396770551331139E+01 -0.4394747262933325E+01 -0.4392721751089591E+01
 -0.4390694020771623E+01 -0.4388664076935432E+01 -0.4386631924521450E+01 -0.4384597568454573E+01 -0.4382561013644235E+01
 -0.4380522264984476E+01 -0.4378481327353993E+01 -0.4376438205616219E+01 -0.4374392904619378E+01 -0.4372345429196550E+01
 -0.4370295784165735E+01 -0.4368243974329912E+01 -0.4366190004477106E+01 -0.4364133879380449E+01 -0.4362075603798236E+01
 -0.4360015182473994E+01 -0.4357952620136538E+01 -0.4355887921500031E+01 -0.4353821091264052E+01 -0.4351752134113645E+01
 -0.4349681054719386E+01 -0.4347607857737439E+01 -0.4345532547809622E+01 -0.4343455129563451E+01 -0.4341375607612217E+01
 -0.4339293986555028E+01 -0.4337210270976877E+01 -0.4335124465448696E+01 -0.4333036574527413E+01 -0.4330946602756010E+01
 -0.4328854554663580E+01 -0.4326760434765380E+01 -0.4324664247562893E+01 -0.4322565997543879E+01 -0.4320465689182434E+01
 -0.4318363326939038E+01 -0.4316258915260625E+01 -0.4314152458580617E+01 -0.4312043961319000E+01 -0.4309933427882359E+01
 -0.4307820862663947E+01 -0.4305706270043728E+01 -0.4303589654388439E+01 -0.4301471020051633E+01 -0.4299350371373742E+01
 -0.4297227712682125E+01 -0.4295103048291116E+01 -0.4292976382502084E+01 -0.4290847719603480E+01 -0.4288717063870890E+01
 -0.4286584419567086E+01 -0.4284449790942075E+01 -0.4282313182233152E+01 -0.4280174597664953E+01 -0.4278034041449498E+01
 -0.4275891517786246E+01 -0.4273747030862148E+01 -0.4271600584851686E+01 -0.4269452183916932E+01 -0.4267301832207595E+01
 -0.4265149533861066E+01 -0.4262995293002469E+01 -0.4260839113744709E+01 -0.4258681000188521E+01 -0.4256520956422518E+01
 -0.4254358986523235E+01 -0.4252195094555181E+01 -0.4250029284570880E+01 -0.4247861560610928E+01 -0.4245691926704026E+01
 -0.4243520386867040E+01 -0.4241346945105037E+01 -0.4239171605411338E+01 -0.4236994371767559E+01 -0.4234815248143657E+01
 -0.4232634238497978E+01 -0.4230451346777301E+01 -0.4228266576916878E+01 -0.4226079932840491E+01 -0.4223891418460479E+01
 -0.4221701037677799E+01 -0.4219508794382058E+01 -0.4217314692451563E+01 -0.4215118735753363E+01 -0.4212920928143290E+01
 -0.4210721273466008E+01 -0.4208519775555048E+01 -0.4206316438232859E+01 -0.4204111265310843E+01 -0.4201904260589401E+01
 -0.4199695427857979E+01 -0.4197484770895099E+01 -0.4195272293468414E+01 -0.4193057999334738E+01 -0.4190841892240096E+01
 -0.4188623975919757E+01 -0.4186404254098284E+01 -0.4184182730489566E+01 -0.4181959408796863E+01 -0.4179734292712851E+01
 -0.4177507385919649E+01 -0.4175278692088876E+01 -0.4173048214881669E+01 -0.4170815957948747E+01 -0.4168581924930435E+01
 -0.4166346119456702E+01 -0.4164108545147212E+01 -0.4161869205611351E+01 -0.4159628104448273E+01 -0.4157385245246932E+01
 -0.4155140631586127E+01 -0.4152894267034538E+01 -0.4150646155150759E+01 -0.4148396299483342E+01 -0.4146144703570836E+01
 -0.4143891370941811E+01 -0.4141636305114917E+01 -0.4139379509598897E+01 -0.4137120987892645E+01 -0.4134860743485231E+01
 -0.4132598779855938E+01 -0.4130335100474301E+01 -0.4128069708800142E+01 -0.4125802608283611E+01 -0.4123533802365210E+01
 -0.4121263294475843E+01 -0.4118991088036839E+01 -0.4116717186459999E+01 -0.4114441593147620E+01 -0.4112164311492537E+01
 -0.4109885344878155E+01 -0.4107604696678486E+01 -0.4105322370258183E+01 -0.4103038368972573E+01 -0.4100752696167691E+01
 -0.4098465355180315E+01 -0.4096176349338000E+01 -0.4093885681959112E+01 -0.4091593356352861E+01 -0.4089299375819336E+01
 -0.4087003743649534E+01 -0.4084706463125398E+01 -0.4082407537519852E+01 -0.4080106970096818E+01 -0.4077804764111274E+01
 -0.4075500922809266E+01 -0.4073195449427948E+01 -0.4070888347195616E+01 -0.4068579619331738E+01 -0.4066269269046983E+01
 -0.4063957299543255E+01 -0.4061643714013732E+01 -0.4059328515642883E+01 -0.4057011707606512E+01 -0.4054693293071782E+01
 -0.4052373275197251E+01 -0.4050051657132897E+01 -0.4047728442020156E+01 -0.4045403632991946E+01 -0.4043077233172702E+01
 -0.4040749245678406E+01 -0.4038419673616612E+01 -0.4036088520086486E+01 -0.4033755788178828E+01 -0.4031421480976102E+01
 -0.4029085601552469E+01 -0.4026748152973818E+01 -0.4024409138297790E+01 -0.4022068560573811E+01 -0.4019726422843123E+01
 -0.4017382728138806E+01 -0.4015037479485815E+01 -0.4012690679901004E+01 -0.4010342332393157E+01 -0.4007992439963012E+01
 -0.4005641005603301E+01 -0.4003288032298761E+01 -0.4000933523026177E+01 -0.3998577480754403E+01 -0.3996219908444391E+01
 -0.3993860809049221E+01 -0.3991500185514124E+01 -0.3989138040776516E+01 -0.3986774377766022E+01 -0.3984409199404496E+01
 -0.3982042508606068E+01 -0.3979674308277145E+01 -0.3977304601316463E+01 -0.3974933390615095E+01 -0.3972560679056491E+01
 -0.3970186469516491E+01 -0.3967810764863366E+01 -0.3965433567957836E+01 -0.3963054881653095E+01 -0.3960674708794842E+01
 -0.3958293052221308E+01 -0.3955909914763275E+01 -0.3953525299244108E+01 -0.3951139208479772E+01 -0.3948751645278876E+01
 -0.3946362612442677E+01 -0.3943972112765117E+01 -0.3941580149032851E+01 -0.3939186724025260E+01 -0.3936791840514488E+01
 -0.3934395501265462E+01 -0.3931997709035914E+01 -0.3929598466576413E+01 -0.3927197776630382E+01 -0.3924795641934129E+01
 -0.3922392065216869E+01 -0.3919987049200738E+01 -0.3917580596600843E+01 -0.3915172710125255E+01 -0.3912763392475057E+01
 -0.3910352646344355E+01 -0.3907940474420308E+01 -0.3905526879383145E+01 -0.3903111863906199E+01 -0.3900695430655918E+01
 -0.3898277582291899E+01 -0.3895858321466905E+01 -0.3893437650826888E+01 -0.3891015573011024E+01 -0.3888592090651711E+01
 -0.3886167206374621E+01 -0.3883740922798699E+01 -0.3881313242536203E+01 -0.3878884168192711E+01 -0.3876453702367162E+01
 -0.3874021847651860E+01 -0.3871588606632503E+01 -0.3869153981888216E+01 -0.3866717975991556E+01 -0.3864280591508542E+01
 -0.3861841830998681E+01 -0.3859401697014982E+01 -0.3856960192103982E+01 -0.3854517318805768E+01 -0.3852073079653996E+01
 -0.3849627477175916E+01 -0.3847180513892388E+01 -0.3844732192317910E+01 -0.3842282514960634E+01 -0.3839831484322392E+01
 -0.3837379102898707E+01 -0.3834925373178832E+01 -0.3832470297645749E+01 -0.3830013878776207E+01 -0.3827556119040735E+01
 -0.3825097020903661E+01 -0.3822636586823143E+01 -0.3820174819251172E+01 -0.3817711720633609E+01 -0.3815247293410198E+01
 -0.3812781540014583E+01 -0.3810314462874336E+01 -0.3807846064410971E+01 -0.3805376347039966E+01 -0.3802905313170780E+01
 -0.3800432965206878E+01 -0.3797959305545750E+01 -0.3795484336578924E+01 -0.3793008060691995E+01 -0.3790530480264635E+01
 -0.3788051597670620E+01 -0.3785571415277845E+01 -0.3783089935448344E+01 -0.3780607160538313E+01 -0.3778123092898120E+01
 -0.3775637734872335E+01 -0.3773151088799742E+01 -0.3770663157013356E+01 -0.3768173941840450E+01 -0.3765683445602563E+01
 -0.3763191670615532E+01 -0.3760698619189498E+01 -0.3758204293628927E+01 -0.3755708696232637E+01 -0.3753211829293804E+01
 -0.3750713695099992E+01 -0.3748214295933159E+01 -0.3745713634069687E+01 -0.3743211711780390E+01 -0.3740708531330540E+01
 -0.3738204094979880E+01 -0.3735698404982638E+01 -0.3733191463587559E+01 -0.3730683273037906E+01 -0.3728173835571488E+01
 -0.3725663153420673E+01 -0.3723151228812406E+01 -0.3720638063968233E+01 -0.3718123661104303E+01 -0.3715608022431403E+01
 -0.3713091150154961E+01 -0.3710573046475073E+01 -0.3708053713586514E+01 -0.3705533153678757E+01 -0.3703011368935990E+01
 -0.3700488361537129E+01 -0.3697964133655846E+01 -0.3695438687460573E+01 -0.3692912025114520E+01 -0.3690384148775705E+01
 -0.3687855060596950E+01 -0.3685324762725916E+01 -0.3682793257305105E+01 -0.3680260546471888E+01 -0.3677726632358514E+01
 -0.3675191517092125E+01 -0.3672655202794780E+01 -0.3670117691583465E+01 -0.3667578985570104E+01 -0.3665039086861591E+01
 -0.3662497997559788E+01 -0.3659955719761552E+01 -0.3657412255558746E+01 -0.3654867607038260E+01 -0.3652321776282015E+01
 -0.3649774765366992E+01 -0.3647226576365242E+01 -0.3644677211343895E+01 -0.3642126672365189E+01 -0.3639574961486471E+01
 -0.3637022080760224E+01 -0.3634468032234075E+01 -0.3631912817950812E+01 -0.3629356439948398E+01 -0.3626798900259986E+01
 -0.3624240200913942E+01 -0.3621680343933848E+01 -0.3619119331338521E+01 -0.3616557165142030E+01 -0.3613993847353711E+01
 -0.3611429379978175E+01 -0.3608863765015335E+01 -0.3606297004460406E+01 -0.3603729100303930E+01 -0.3601160054531787E+01
 -0.3598589869125211E+01 -0.3596018546060797E+01 -0.3593446087310524E+01 -0.3590872494841770E+01 -0.3588297770617317E+01
 -0.3585721916595373E+01 -0.3583144934729582E+01 -0.3580566826969041E+01 -0.3577987595258311E+01 -0.3575407241537432E+01
 -0.3572825767741940E+01 -0.3570243175802873E+01 -0.3567659467646794E+01 -0.3565074645195797E+01 -0.3562488710367525E+01
 -0.3559901665075185E+01 -0.3557313511227555E+01 -0.3554724250729002E+01 -0.3552133885479497E+01 -0.3549542417374626E+01
 -0.3546949848305598E+01 -0.3544356180159273E+01 -0.3541761414818157E+01 -0.3539165554160429E+01 -0.3536568600059950E+01
 -0.3533970554386273E+01 -0.3531371419004658E+01 -0.3528771195776085E+01 -0.3526169886557271E+01 -0.3523567493200672E+01
 -0.3520964017554511E+01 -0.3518359461462775E+01 -0.3515753826765241E+01 -0.3513147115297481E+01 -0.3510539328890875E+01
 -0.3507930469372626E+01 -0.3505320538565776E+01 -0.3502709538289205E+01 -0.3500097470357662E+01 -0.3497484336581762E+01
 -0.3494870138768006E+01 -0.3492254878718796E+01 -0.3489638558232433E+01 -0.3487021179103149E+01 -0.3484402743121105E+01
 -0.3481783252072406E+01 -0.3479162707739117E+01 -0.3476541111899272E+01 -0.3473918466326884E+01 -0.3471294772791964E+01
 -0.3468670033060524E+01 -0.3466044248894594E+01 -0.3463417422052236E+01 -0.3460789554287547E+01 -0.3458160647350684E+01
 -0.3455530702987860E+01 -0.3452899722941371E+01 -0.3450267708949593E+01 -0.3447634662747006E+01 -0.3445000586064200E+01
 -0.3442365480627885E+01 -0.3439729348160905E+01 -0.3437092190382247E+01 -0.3434454009007057E+01 -0.3431814805746647E+01
 -0.3429174582308504E+01 -0.3426533340396311E+01 -0.3423891081709947E+01 -0.3421247807945505E+01 -0.3418603520795299E+01
 -0.3415958221947882E+01 -0.3413311913088044E+01 -0.3410664595896839E+01 -0.3408016272051582E+01 -0.3405366943225871E+01
 -0.3402716611089590E+01 -0.3400065277308920E+01 -0.3397412943546358E+01 -0.3394759611460719E+01 -0.3392105282707146E+01
 -0.3389449958937133E+01 -0.3386793641798519E+01 -0.3384136332935510E+01 -0.3381478033988685E+01 -0.3378818746595009E+01
 -0.3376158472387842E+01 -0.3373497212996946E+01 -0.3370834970048504E+01 -0.3368171745165122E+01 -0.3365507539965843E+01
 -0.3362842356066155E+01 -0.3360176195078007E+01 -0.3357509058609810E+01 -0.3354840948266460E+01 -0.3352171865649332E+01
 -0.3349501812356304E+01 -0.3346830789981759E+01 -0.3344158800116598E+01 -0.3341485844348251E+01 -0.3338811924260687E+01
 -0.3336137041434415E+01 -0.3333461197446510E+01 -0.3330784393870609E+01 -0.3328106632276931E+01 -0.3325427914232273E+01
 -0.3322748241300036E+01 -0.3320067615040228E+01 -0.3317386037009466E+01 -0.3314703508760995E+01 -0.3312020031844702E+01
 -0.3309335607807108E+01 -0.3306650238191395E+01 -0.3303963924537406E+01 -0.3301276668381657E+01 -0.3298588471257350E+01
 -0.3295899334694373E+01 -0.3293209260219321E+01 -0.3290518249355495E+01 -0.3287826303622921E+01 -0.3285133424538349E+01
 -0.3282439613615270E+01 -0.3279744872363921E+01 -0.3277049202291298E+01 -0.3274352604901162E+01 -0.3271655081694051E+01
 -0.3268956634167279E+01 -0.3266257263814964E+01 -0.3263556972128019E+01 -0.3260855760594171E+01 -0.3258153630697965E+01
 -0.3255450583920777E+01 -0.3252746621740819E+01 -0.3250041745633152E+01 -0.3247335957069688E+01 -0.3244629257519207E+01
 -0.3241921648447363E+01 -0.3239213131316689E+01 -0.3236503707586610E+01 -0.3233793378713448E+01 -0.3231082146150433E+01
 -0.3228370011347715E+01 -0.3225656975752366E+01 -0.3222943040808391E+01 -0.3220228207956737E+01 -0.3217512478635303E+01
 -0.3214795854278947E+01 -0.3212078336319492E+01 -0.3209359926185739E+01 -0.3206640625303470E+01 -0.3203920435095465E+01
 -0.3201199356981500E+01 -0.3198477392378362E+01 -0.3195754542699853E+01 -0.3193030809356803E+01 -0.3190306193757075E+01
 -0.3187580697305574E+01 -0.3184854321404256E+01 -0.3182127067452132E+01 -0.3179398936845281E+01 -0.3176669930976858E+01
 -0.3173940051237099E+01 -0.3171209299013328E+01 -0.3168477675689970E+01 -0.3165745182648558E+01 -0.3163011821267733E+01
 -0.3160277592923263E+01 -0.3157542498988045E+01 -0.3154806540832115E+01 -0.3152069719822649E+01 -0.3149332037323985E+01
 -0.3146593494697613E+01 -0.3143854093302200E+01 -0.3141113834493582E+01 -0.3138372719624785E+01 -0.3135630750046026E+01
 -0.3132887927104719E+01 -0.3130144252145487E+01 -0.3127399726510167E+01 -0.3124654351537819E+01 -0.3121908128564731E+01
 -0.3119161058924430E+01 -0.3116413143947688E+01 -0.3113664384962528E+01 -0.3110914783294234E+01 -0.3108164340265354E+01
 -0.3105413057195714E+01 -0.3102660935402420E+01 -0.3099907976199868E+01 -0.3097154180899749E+01 -0.3094399550811057E+01
 -0.3091644087240102E+01 -0.3088887791490505E+01 -0.3086130664863217E+01 -0.3083372708656522E+01 -0.3080613924166038E+01
 -0.3077854312684737E+01 -0.3075093875502941E+01 -0.3072332613908333E+01 -0.3069570529185965E+01 -0.3066807622618264E+01
 -0.3064043895485038E+01 -0.3061279349063488E+01 -0.3058513984628205E+01 -0.3055747803451187E+01 -0.3052980806801843E+01
 -0.3050212995946994E+01 -0.3047444372150888E+01 -0.3044674936675205E+01 -0.3041904690779059E+01 -0.3039133635719010E+01
 -0.3036361772749069E+01 -0.3033589103120704E+01 -0.3030815628082847E+01 -0.3028041348881906E+01 -0.3025266266761758E+01
 -0.3022490382963773E+01 -0.3019713698726807E+01 -0.3016936215287216E+01 -0.3014157933878860E+01 -0.3011378855733111E+01
 -0.3008598982078857E+01 -0.3005818314142509E+01 -0.3003036853148012E+01 -0.3000254600316848E+01 -0.2997471556868040E+01
 -0.2994687724018162E+01 -0.2991903102981344E+01 -0.2989117694969282E+01 -0.2986331501191238E+01 -0.2983544522854050E+01
 -0.2980756761162141E+01 -0.2977968217317517E+01 -0.2975178892519786E+01 -0.2972388787966149E+01 -0.2969597904851421E+01
 -0.2966806244368027E+01 -0.2964013807706010E+01 -0.2961220596053044E+01 -0.2958426610594434E+01 -0.2955631852513120E+01
 -0.2952836322989687E+01 -0.2950040023202371E+01 -0.2947242954327070E+01 -0.2944445117537337E+01 -0.2941646514004396E+01
 -0.2938847144897152E+01 -0.2936047011382180E+01 -0.2933246114623751E+01 -0.2930444455783824E+01 -0.2927642036022062E+01
 -0.2924838856495825E+01 -0.2922034918360191E+01 -0.2919230222767952E+01 -0.2916424770869621E+01 -0.2913618563813441E+01
 -0.2910811602745392E+01 -0.2908003888809187E+01 -0.2905195423146293E+01 -0.2902386206895922E+01 -0.2899576241195052E+01
 -0.2896765527178411E+01 -0.2893954065978511E+01 -0.2891141858725628E+01 -0.2888328906547823E+01 -0.2885515210570945E+01
 -0.2882700771918628E+01 -0.2879885591712311E+01 -0.2877069671071232E+01 -0.2874253011112439E+01 -0.2871435612950793E+01
 -0.2868617477698978E+01 -0.2865798606467499E+01 -0.2862979000364697E+01 -0.2860158660496746E+01 -0.2857337587967664E+01
 -0.2854515783879314E+01 -0.2851693249331417E+01 -0.2848869985421546E+01 -0.2846045993245142E+01 -0.2843221273895518E+01
 -0.2840395828463854E+01 -0.2837569658039219E+01 -0.2834742763708560E+01 -0.2831915146556720E+01 -0.2829086807666435E+01
 -0.2826257748118347E+01 -0.2823427968990999E+01 -0.2820597471360848E+01 -0.2817766256302272E+01 -0.2814934324887570E+01
 -0.2812101678186968E+01 -0.2809268317268621E+01 -0.2806434243198631E+01 -0.2803599457041039E+01 -0.2800763959857832E+01
 -0.2797927752708957E+01 -0.2795090836652316E+01 -0.2792253212743775E+01 -0.2789414882037172E+01 -0.2786575845584316E+01
 -0.2783736104434999E+01 -0.2780895659636991E+01 -0.2778054512236062E+01 -0.2775212663275967E+01 -0.2772370113798467E+01
 -0.2769526864843320E+01 -0.2766682917448304E+01 -0.2763838272649203E+01 -0.2760992931479824E+01 -0.2758146894972000E+01
 -0.2755300164155586E+01 -0.2752452740058481E+01 -0.2749604623706617E+01 -0.2746755816123971E+01 -0.2743906318332571E+01
 -0.2741056131352495E+01 -0.2738205256201887E+01 -0.2735353693896943E+01 -0.2732501445451935E+01 -0.2729648511879209E+01
 -0.2726794894189182E+01 -0.2723940593390362E+01 -0.2721085610489335E+01 -0.2718229946490789E+01 -0.2715373602397498E+01
 -0.2712516579210345E+01 -0.2709658877928317E+01 -0.2706800499548513E+01 -0.2703941445066144E+01 -0.2701081715474541E+01
 -0.2698221311765168E+01 -0.2695360234927605E+01 -0.2692498485949574E+01 -0.2689636065816937E+01 -0.2686772975513694E+01
 -0.2683909216021998E+01 -0.2681044788322145E+01 -0.2678179693392596E+01 -0.2675313932209972E+01 -0.2672447505749057E+01
 -0.2669580414982808E+01 -0.2666712660882352E+01 -0.2663844244417001E+01 -0.2660975166554245E+01 -0.2658105428259766E+01
 -0.2655235030497438E+01 -0.2652363974229329E+01 -0.2649492260415711E+01 -0.2646619890015057E+01 -0.2643746863984060E+01
 -0.2640873183277614E+01 -0.2637998848848845E+01 -0.2635123861649087E+01 -0.2632248222627914E+01 -0.2629371932733129E+01
 -0.2626494992910764E+01 -0.2623617404105100E+01 -0.2620739167258657E+01 -0.2617860283312204E+01 -0.2614980753204766E+01
 -0.2612100577873619E+01 -0.2609219758254309E+01 -0.2606338295280638E+01 -0.2603456189884685E+01 -0.2600573442996800E+01
 -0.2597690055545611E+01 -0.2594806028458031E+01 -0.2591921362659250E+01 -0.2589036059072762E+01 -0.2586150118620344E+01
 -0.2583263542222080E+01 -0.2580376330796348E+01 -0.2577488485259844E+01 -0.2574600006527565E+01 -0.2571710895512823E+01
 -0.2568821153127262E+01 -0.2565930780280830E+01 -0.2563039777881815E+01 -0.2560148146836833E+01 -0.2557255888050832E+01
 -0.2554363002427106E+01 -0.2551469490867281E+01 -0.2548575354271341E+01 -0.2545680593537614E+01 -0.2542785209562784E+01
 -0.2539889203241895E+01 -0.2536992575468350E+01 -0.2534095327133926E+01 -0.2531197459128763E+01 -0.2528298972341378E+01
 -0.2525399867658665E+01 -0.2522500145965903E+01 -0.2519599808146753E+01 -0.2516698855083266E+01 -0.2513797287655893E+01
 -0.2510895106743469E+01 -0.2507992313223243E+01 -0.2505088907970862E+01 -0.2502184891860383E+01 -0.2499280265764277E+01
 -0.2496375030553425E+01 -0.2493469187097140E+01 -0.2490562736263144E+01 -0.2487655678917596E+01 -0.2484748015925083E+01
 -0.2481839748148627E+01 -0.2478930876449688E+01 -0.2476021401688166E+01 -0.2473111324722412E+01 -0.2470200646409221E+01
 -0.2467289367603843E+01 -0.2464377489159985E+01 -0.2461465011929814E+01 -0.2458551936763962E+01 -0.2455638264511524E+01
 -0.2452723996020072E+01 -0.2449809132135647E+01 -0.2446893673702775E+01 -0.2443977621564453E+01 -0.2441060976562176E+01
 -0.2438143739535920E+01 -0.2435225911324153E+01 -0.2432307492763841E+01 -0.2429388484690450E+01 -0.2426468887937949E+01
 -0.2423548703338810E+01 -0.2420627931724018E+01 -0.2417706573923072E+01 -0.2414784630763982E+01 -0.2411862103073286E+01
 -0.2408938991676037E+01 -0.2406015297395825E+01 -0.2403091021054763E+01 -0.2400166163473500E+01 -0.2397240725471223E+01
 -0.2394314707865656E+01 -0.2391388111473074E+01 -0.2388460937108290E+01 -0.2385533185584679E+01 -0.2382604857714161E+01
 -0.2379675954307216E+01 -0.2376746476172886E+01 -0.2373816424118774E+01 -0.2370885798951056E+01 -0.2367954601474472E+01
 -0.2365022832492343E+01 -0.2362090492806561E+01 -0.2359157583217599E+01 -0.2356224104524520E+01 -0.2353290057524965E+01
 -0.2350355443015173E+01 -0.2347420261789973E+01 -0.2344484514642791E+01 -0.2341548202365652E+01 -0.2338611325749189E+01
 -0.2335673885582632E+01 -0.2332735882653827E+01 -0.2329797317749234E+01 -0.2326858191653924E+01 -0.2323918505151595E+01
 -0.2320978259024557E+01 -0.2318037454053751E+01 -0.2315096091018745E+01 -0.2312154170697741E+01 -0.2309211693867573E+01
 -0.2306268661303713E+01 -0.2303325073780278E+01 -0.2300380932070021E+01 -0.2297436236944348E+01 -0.2294490989173315E+01
 -0.2291545189525629E+01 -0.2288598838768656E+01 -0.2285651937668418E+01 -0.2282704486989600E+01 -0.2279756487495556E+01
 -0.2276807939948304E+01 -0.2273858845108536E+01 -0.2270909203735617E+01 -0.2267959016587591E+01 -0.2265008284421181E+01
 -0.2262057007991794E+01 -0.2259105188053522E+01 -0.2256152825359147E+01 -0.2253199920660147E+01 -0.2250246474706690E+01
 -0.2247292488247644E+01 -0.2244337962030577E+01 -0.2241382896801767E+01 -0.2238427293306189E+01 -0.2235471152287535E+01
 -0.2232514474488208E+01 -0.2229557260649324E+01 -0.2226599511510724E+01 -0.2223641227810961E+01 -0.2220682410287322E+01
 -0.2217723059675814E+01 -0.2214763176711176E+01 -0.2211802762126883E+01 -0.2208841816655139E+01 -0.2205880341026892E+01
 -0.2202918335971830E+01 -0.2199955802218383E+01 -0.2196992740493730E+01 -0.2194029151523799E+01 -0.2191065036033270E+01
 -0.2188100394745578E+01 -0.2185135228382921E+01 -0.2182169537666246E+01 -0.2179203323315275E+01 -0.2176236586048493E+01
 -0.2173269326583151E+01 -0.2170301545635275E+01 -0.2167333243919662E+01 -0.2164364422149891E+01 -0.2161395081038317E+01
 -0.2158425221296079E+01 -0.2155454843633101E+01 -0.2152483948758094E+01 -0.2149512537378564E+01 -0.2146540610200802E+01
 -0.2143568167929904E+01 -0.2140595211269759E+01 -0.2137621740923059E+01 -0.2134647757591300E+01 -0.2131673261974782E+01
 -0.2128698254772621E+01 -0.2125722736682736E+01 -0.2122746708401866E+01 -0.2119770170625568E+01 -0.2116793124048216E+01
 -0.2113815569363005E+01 -0.2110837507261956E+01 -0.2107858938435918E+01 -0.2104879863574571E+01 -0.2101900283366427E+01
 -0.2098920198498833E+01 -0.2095939609657969E+01 -0.2092958517528863E+01 -0.2089976922795381E+01 -0.2086994826140233E+01
 -0.2084012228244983E+01 -0.2081029129790040E+01 -0.2078045531454666E+01 -0.2075061433916979E+01 -0.2072076837853957E+01
 -0.2069091743941435E+01 -0.2066106152854116E+01 -0.2063120065265559E+01 -0.2060133481848200E+01 -0.2057146403273340E+01
 -0.2054158830211155E+01 -0.2051170763330692E+01 -0.2048182203299885E+01 -0.2045193150785537E+01 -0.2042203606453339E+01
 -0.2039213570967866E+01 -0.2036223044992581E+01 -0.2033232029189834E+01 -0.2030240524220872E+01 -0.2027248530745828E+01
 -0.2024256049423744E+01 -0.2021263080912547E+01 -0.2018269625869079E+01 -0.2015275684949079E+01 -0.2012281258807189E+01
 -0.2009286348096970E+01 -0.2006290953470883E+01 -0.2003295075580310E+01 -0.2000298715075545E+01 -0.1997301872605803E+01
 -0.1994304548819216E+01 -0.1991306744362840E+01 -0.1988308459882659E+01 -0.1985309696023579E+01 -0.1982310453429441E+01
 -0.1979310732743010E+01 -0.1976310534605997E+01 -0.1973309859659043E+01 -0.1970308708541722E+01 -0.1967307081892559E+01
 -0.1964304980349016E+01 -0.1961302404547506E+01 -0.1958299355123385E+01 -0.1955295832710961E+01 -0.1952291837943496E+01
 -0.1949287371453199E+01 -0.1946282433871249E+01 -0.1943277025827771E+01 -0.1940271147951861E+01 -0.1937264800871571E+01
 -0.1934257985213923E+01 -0.1931250701604907E+01 -0.1928242950669481E+01 -0.1925234733031576E+01 -0.1922226049314097E+01
 -0.1919216900138927E+01 -0.1916207286126927E+01 -0.1913197207897940E+01 -0.1910186666070792E+01 -0.1907175661263288E+01
 -0.1904164194092231E+01 -0.1901152265173406E+01 -0.1898139875121595E+01 -0.1895127024550565E+01 -0.1892113714073092E+01
 -0.1889099944300939E+01 -0.1886085715844871E+01 -0.1883071029314662E+01 -0.1880055885319082E+01 -0.1877040284465916E+01
 -0.1874024227361948E+01 -0.1871007714612983E+01 -0.1867990746823828E+01 -0.1864973324598312E+01 -0.1861955448539283E+01
 -0.1858937119248599E+01 -0.1855918337327148E+01 -0.1852899103374835E+01 -0.1849879417990594E+01 -0.1846859281772385E+01
 -0.1843838695317196E+01 -0.1840817659221049E+01 -0.1837796174078995E+01 -0.1834774240485125E+01 -0.1831751859032565E+01
 -0.1828729030313481E+01 -0.1825705754919078E+01 -0.1822682033439607E+01 -0.1819657866464368E+01 -0.1816633254581698E+01
 -0.1813608198378994E+01 -0.1810582698442700E+01 -0.1807556755358308E+01 -0.1804530369710376E+01 -0.1801503542082512E+01
 -0.1798476273057385E+01 -0.1795448563216724E+01 -0.1792420413141324E+01 -0.1789391823411042E+01 -0.1786362794604804E+01
 -0.1783333327300606E+01 -0.1780303422075508E+01 -0.1777273079505653E+01 -0.1774242300166250E+01 -0.1771211084631593E+01
 -0.1768179433475048E+01 -0.1765147347269060E+01 -0.1762114826585164E+01 -0.1759081871993970E+01 -0.1756048484065187E+01
 -0.1753014663367597E+01 -0.1749980410469082E+01 -0.1746945725936617E+01 -0.1743910610336258E+01 -0.1740875064233171E+01
 -0.1737839088191612E+01 -0.1734802682774940E+01 -0.1731765848545608E+01 -0.1728728586065182E+01 -0.1725690895894326E+01
 -0.1722652778592813E+01 -0.1719614234719520E+01 -0.1716575264832443E+01 -0.1713535869488686E+01 -0.1710496049244462E+01
 -0.1707455804655105E+01 -0.1704415136275069E+01 -0.1701374044657923E+01 -0.1698332530356358E+01 -0.1695290593922186E+01
 -0.1692248235906348E+01 -0.1689205456858909E+01 -0.1686162257329067E+01 -0.1683118637865142E+01 -0.1680074599014591E+01
 -0.1677030141324003E+01 -0.1673985265339107E+01 -0.1670939971604764E+01 -0.1667894260664974E+01 -0.1664848133062879E+01
 -0.1661801589340765E+01 -0.1658754630040062E+01 -0.1655707255701345E+01 -0.1652659466864336E+01 -0.1649611264067904E+01
 -0.1646562647850078E+01 -0.1643513618748032E+01 -0.1640464177298097E+01 -0.1637414324035758E+01 -0.1634364059495660E+01
 -0.1631313384211611E+01 -0.1628262298716577E+01 -0.1625210803542686E+01 -0.1622158899221233E+01 -0.1619106586282677E+01
 -0.1616053865256650E+01 -0.1613000736671950E+01 -0.1609947201056546E+01 -0.1606893258937583E+01 -0.1603838910841379E+01
 -0.1600784157293428E+01 -0.1597728998818406E+01 -0.1594673435940164E+01 -0.1591617469181737E+01 -0.1588561099065344E+01
 -0.1585504326112388E+01 -0.1582447150843457E+01 -0.1579389573778327E+01 -0.1576331595435966E+01 -0.1573273216334533E+01
 -0.1570214436991378E+01 -0.1567155257923049E+01 -0.1564095679645286E+01 -0.1561035702673027E+01 -0.1557975327520414E+01
 -0.1554914554700788E+01 -0.1551853384726689E+01 -0.1548791818109865E+01 -0.1545729855361269E+01 -0.1542667496991061E+01
 -0.1539604743508613E+01 -0.1536541595422498E+01 -0.1533478053240511E+01 -0.1530414117469660E+01 -0.1527349788616163E+01
 -0.1524285067185457E+01 -0.1521219953682200E+01 -0.1518154448610265E+01 -0.1515088552472754E+01 -0.1512022265771982E+01
 -0.1508955589009495E+01 -0.1505888522686066E+01 -0.1502821067301690E+01 -0.1499753223355600E+01 -0.1496684991346252E+01
 -0.1493616371771333E+01 -0.1490547365127772E+01 -0.1487477971911729E+01 -0.1484408192618597E+01 -0.1481338027743011E+01
 -0.1478267477778850E+01 -0.1475196543219226E+01 -0.1472125224556497E+01 -0.1469053522282270E+01 -0.1465981436887388E+01
 -0.1462908968861953E+01 -0.1459836118695302E+01 -0.1456762886876038E+01 -0.1453689273892005E+01 -0.1450615280230300E+01
 -0.1447540906377283E+01 -0.1444466152818557E+01 -0.1441391020038997E+01 -0.1438315508522727E+01 -0.1435239618753137E+01
 -0.1432163351212874E+01 -0.1429086706383852E+01 -0.1426009684747248E+01 -0.1422932286783509E+01 -0.1419854512972347E+01
  0.1690072297136536E+03  0.1690072297136536E+03  0.1690072297136536E+03  0.1690072297136536E+03  0.1690072297136536E+03
  0.1690072297136536E+03  0.1690072297136536E+03  0.1690072297136536E+03  0.1690072297136536E+03  0.1690072297136536E+03
  0.1690072297136536E+03  0.1690072297136536E+03  0.1690072297136536E+03  0.1690072297136536E+03  0.1690072297136536E+03
  0.1690072297136536E+03  0.1690072297136536E+03  0.1690072297136536E+03  0.1690072297136536E+03  0.1690072297136536E+03
  0.1690072297136536E+03  0.1690072297136536E+03  0.1690072297136536E+03  0.1690072297136536E+03  0.1690072297136536E+03
  0.1690072297136536E+03  0.1690072297136536E+03  0.1690072297136536E+03  0.1690072297136536E+03  0.1690072297136536E+03
  0.1690072297136536E+03  0.1690072297136536E+03  0.1690072297136536E+03  0.1690072297136536E+03  0.1690072297136536E+03
  0.1690072297136536E+03  0.1690072297136536E+03  0.1690072297136536E+03  0.1690072297136536E+03  0.1690072297136536E+03
  0.1690072297136536E+03  0.1690072297136536E+03  0.1690072297136536E+03  0.1690072297136536E+03  0.1690072297136536E+03
  0.1690072297136536E+03  0.1690072297136536E+03  0.1690072297136536E+03  0.1690072297136536E+03  0.1690072297136536E+03
  0.1690072297136536E+03  0.1690072297136536E+03  0.1690072297136536E+03  0.1690072297136536E+03  0.1690072297136536E+03
  0.1690072297136536E+03  0.1690072297136536E+03  0.1690072297136536E+03  0.1690072297136536E+03  0.1690072297136536E+03
  0.1690072297136536E+03  0.1690072297136536E+03  0.1690072297136536E+03  0.1690072297136536E+03  0.1690072297136536E+03
  0.1690072297136536E+03  0.1690072297136536E+03  0.1690072297136536E+03  0.1690072297136536E+03  0.1690072297136536E+03
  0.1690072297136536E+03  0.1690072297136536E+03  0.1690072297136536E+03  0.1690072297136536E+03  0.1690072297136536E+03
  0.1690072297136536E+03  0.1690072297136536E+03  0.1690072297136536E+03  0.1690072297136536E+03  0.1690072297136536E+03
  0.1690072297136536E+03  0.1690072297136536E+03  0.1690072297136536E+03  0.1690072297136536E+03  0.1690072297136536E+03
  0.1690072297136536E+03  0.1690072297136536E+03  0.1690072297136536E+03  0.1690072297136536E+03  0.1690072297136536E+03
  0.1690072297136536E+03  0.1690072297136536E+03  0.1690072297136536E+03  0.1690072297136536E+03  0.1690072297136536E+03
  0.1690072297136536E+03  0.1690072297136536E+03  0.1690072297136536E+03  0.1690072297136536E+03  0.1690072297136536E+03
  0.1690072297136536E+03  0.1690072297136536E+03  0.1690072297136536E+03  0.1690072297136536E+03  0.1690072297136536E+03
  0.1690072297136536E+03  0.1690072297136536E+03  0.1690072297136536E+03  0.1690072297136536E+03  0.1690072297136536E+03
  0.1690072297136536E+03  0.1690072297136536E+03  0.1690072297136536E+03  0.1690072297136536E+03  0.1690072297136536E+03
  0.1690072297136536E+03  0.1690072297136536E+03  0.1690072297136536E+03  0.1690072297136536E+03  0.1690072297136536E+03
  0.1690072297136536E+03  0.1690072297136536E+03  0.1690072297136536E+03  0.1690072297136536E+03  0.1690072297136536E+03
  0.1690072297136536E+03  0.1690072297136536E+03  0.1690072297136536E+03  0.1690072297136536E+03  0.1690072297136536E+03
  0.1690072297136536E+03  0.1690072297136536E+03  0.1690072297136536E+03  0.1690072297136536E+03  0.1690072297136536E+03
  0.1690072297136536E+03  0.1690072297136536E+03  0.1690072297136536E+03  0.1690072297136536E+03  0.1690072297136536E+03
  0.1690072297136536E+03  0.1690072297136536E+03  0.1690072297136536E+03  0.1690072297136536E+03  0.1690072297136536E+03
  0.1690072297136536E+03  0.1690072297136536E+03  0.1690072297136536E+03  0.1690072297136536E+03  0.1690072297136536E+03
  0.1690072297136536E+03  0.1690072297136536E+03  0.1690072297136536E+03  0.1690072297136536E+03  0.1690072297136536E+03
  0.1690072297136536E+03  0.1690072297136536E+03  0.1690072297136536E+03  0.1690072297136536E+03  0.1690072297136536E+03
  0.1690072297136536E+03  0.1690072297136536E+03  0.1690072297136536E+03  0.1690072297136536E+03  0.1681881586666940E+03
  0.1672975036822141E+03  0.1664115652384684E+03  0.1655303183586065E+03  0.1646537381980447E+03  0.1637818000437662E+03
  0.1629144793136240E+03  0.1620517515556480E+03  0.1611935924473555E+03  0.1603399777950662E+03  0.1594908835332188E+03
  0.1586462857236935E+03  0.1578061605551372E+03  0.1569704843422915E+03  0.1561392335253256E+03  0.1553123846691716E+03
  0.1544899144628641E+03  0.1536717997188832E+03  0.1528580173725001E+03  0.1520485444811277E+03  0.1512433582236731E+03
  0.1504424358998942E+03  0.1496457549297607E+03  0.1488532928528164E+03  0.1480650273275464E+03  0.1472809361307470E+03
  0.1465009971569000E+03  0.1457251884175485E+03  0.1449534880406772E+03  0.1441858742700965E+03  0.1434223254648280E+03
  0.1426628200984954E+03  0.1419073367587170E+03  0.1411558541465023E+03  0.1404083510756516E+03  0.1396648064721579E+03
  0.1389251993736144E+03  0.1381895089286219E+03  0.1374577143962017E+03  0.1367297951452107E+03  0.1360057306537603E+03
  0.1352855005086365E+03  0.1345690844047259E+03  0.1338564621444426E+03  0.1331476136371582E+03  0.1324425188986364E+03
  0.1317411580504692E+03  0.1310435113195164E+03  0.1303495590373478E+03  0.1296592816396895E+03  0.1289726596658720E+03
  0.1282896737582809E+03  0.1276103046618122E+03  0.1269345332233290E+03  0.1262623403911211E+03  0.1255937072143686E+03
  0.1249286148426074E+03  0.1242670445251973E+03  0.1236089776107940E+03  0.1229543955468231E+03  0.1223032798789566E+03
  0.1216556122505934E+03  0.1210113744023411E+03  0.1203705481715017E+03  0.1197331154915590E+03  0.1190990583916700E+03
  0.1184683589961577E+03  0.1178409995240074E+03  0.1172169622883649E+03  0.1165962296960388E+03  0.1159787842470037E+03
  0.1153646085339072E+03  0.1147536852415788E+03  0.1141459971465424E+03  0.1135415271165298E+03  0.1129402581099989E+03
  0.1123421731756518E+03  0.1117472554519583E+03  0.1111554881666794E+03  0.1105668546363953E+03  0.1099813382660347E+03
  0.1093989225484065E+03  0.1088195910637354E+03  0.1082433274791982E+03  0.1076701155484636E+03  0.1070999391112340E+03
  0.1065327820927905E+03  0.1059686285035387E+03  0.1054074624385589E+03  0.1048492680771572E+03  0.1042940296824195E+03
  0.1037417316007679E+03  0.1031923582615192E+03  0.1026458941764464E+03  0.1021023239393418E+03  0.1015616322255822E+03
  0.1010238037916977E+03  0.1004888234749412E+03  0.9995667619286144E+02  0.9942734694287755E+02  0.9890082080185606E+02
  0.9837708292569022E+02  0.9785611854888171E+02  0.9733791298412412E+02  0.9682245162188883E+02  0.9630971993001330E+02
  0.9579970345329137E+02  0.9529238781306569E+02  0.9478775870682225E+02  0.9428580190778735E+02  0.9378650326452627E+02
  0.9328984870054458E+02  0.9279582421389100E+02  0.9230441587676299E+02  0.9181560983511375E+02  0.9132939230826172E+02
  0.9084574958850236E+02  0.9036466804072136E+02  0.8988613410201025E+02  0.8941013428128424E+02  0.8893665515890167E+02
  0.8846568338628578E+02  0.8799720568554847E+02  0.8753120884911567E+02  0.8706767973935524E+02  0.8660660528820652E+02
  0.8614797249681189E+02  0.8569176843515035E+02  0.8523798024167284E+02  0.8478659512293984E+02  0.8433760035326060E+02
  0.8389098327433430E+02  0.8344673129489338E+02  0.8300483189034827E+02  0.8256527260243452E+02  0.8212804103886147E+02
  0.8169312487296307E+02  0.8126051184335000E+02  0.8083018975356421E+02  0.8040214647173522E+02  0.7997636993023772E+02
  0.7955284812535169E+02  0.7913156911692380E+02  0.7871252102803082E+02  0.7829569204464481E+02  0.7788107041530014E+02
  0.7746864445076194E+02  0.7705840252369676E+02  0.7665033306834459E+02  0.7624442458019317E+02  0.7584066561565319E+02
  0.7543904479173590E+02  0.7503955078573206E+02  0.7464217233489298E+02  0.7424689823611271E+02  0.7385371734561249E+02
  0.7346261857862622E+02  0.7307359090908814E+02  0.7268662336932209E+02  0.7230170504973222E+02  0.7191882509849526E+02
  0.7153797272125477E+02  0.7115913718081670E+02  0.7078230779684689E+02  0.7040747394556973E+02  0.7003462505946868E+02
  0.6966375062698849E+02  0.6929484019223872E+02  0.6892788335469898E+02  0.6856286976892585E+02  0.6819978914426098E+02
  0.6783863124454113E+02  0.6747938588780946E+02  0.6712204294602887E+02  0.6676659234479584E+02  0.6641302406305681E+02
  0.6606132813282566E+02  0.6571149463890252E+02  0.6536351371859440E+02  0.6501737556143699E+02  0.6467307040891816E+02
  0.6433058855420283E+02  0.6398992034185933E+02  0.6365105616758715E+02  0.6331398647794617E+02  0.6297870177008733E+02
  0.6264519259148476E+02  0.6231344953966933E+02  0.6198346326196334E+02  0.6165522445521715E+02  0.6132872386554666E+02
  0.6100395228807261E+02  0.6068090056666083E+02  0.6035955959366446E+02  0.6003992030966673E+02  0.5972197370322607E+02
  0.5940571081062155E+02  0.5909112271560051E+02  0.5877820054912704E+02  0.5846693548913204E+02  0.5815731876026431E+02
  0.5784934163364347E+02  0.5754299542661357E+02  0.5723827150249843E+02  0.5693516127035810E+02  0.5663365618474677E+02
  0.5633374774547174E+02  0.5603542749735387E+02  0.5573868702998902E+02  0.5544351797751128E+02  0.5514991201835673E+02
  0.5485786087502908E+02  0.5456735631386628E+02  0.5427839014480827E+02  0.5399095422116615E+02  0.5370504043939271E+02
  0.5342064073885356E+02  0.5313774710160018E+02  0.5285635155214376E+02  0.5257644615723049E+02  0.5229802302561764E+02
  0.5202107430785136E+02  0.5174559219604522E+02  0.5147156892366011E+02  0.5119899676528530E+02  0.5092786803642075E+02
  0.5065817509326022E+02  0.5038991033247595E+02  0.5012306619100421E+02  0.4985763514583234E+02  0.4959360971378623E+02
  0.4933098245131962E+02  0.4906974595430417E+02  0.4880989285782090E+02  0.4855141583595216E+02  0.4829430760157555E+02
  0.4803856090615812E+02  0.4778416853955220E+02  0.4753112332979206E+02  0.4727941814289182E+02  0.4702904588264414E+02
  0.4677999949042030E+02  0.4653227194497110E+02  0.4628585626222917E+02  0.4604074549511166E+02  0.4579693273332467E+02
  0.4555441110316839E+02  0.4531317376734328E+02  0.4507321392475725E+02  0.4483452481033410E+02  0.4459709969482255E+02
  0.4436093188460671E+02  0.4412601472151736E+02  0.4389234158264413E+02  0.4365990588014887E+02  0.4342870106107986E+02
  0.4319872060718715E+02  0.4296995803473875E+02  0.4274240689433783E+02  0.4251606077074089E+02  0.4229091328267688E+02
  0.4206695808266736E+02  0.4184418885684752E+02  0.4162259932478818E+02  0.4140218323931866E+02  0.4118293438635071E+02
  0.4096484658470343E+02  0.4074791368592881E+02  0.4053212957413849E+02  0.4031748816583135E+02  0.4010398340972194E+02
  0.3989160928656994E+02  0.3968035980901049E+02  0.3947022902138526E+02  0.3926121099957464E+02  0.3905329985083074E+02
  0.3884648971361121E+02  0.3864077475741404E+02  0.3843614918261307E+02  0.3823260722029462E+02  0.3803014313209482E+02
  0.3782875121003774E+02  0.3762842577637458E+02  0.3742916118342350E+02  0.3723095181341050E+02  0.3703379207831093E+02
  0.3683767641969212E+02  0.3664259930855646E+02  0.3644855524518560E+02  0.3625553875898557E+02  0.3606354440833227E+02
  0.3587256678041821E+02  0.3568260049109998E+02  0.3549364018474628E+02  0.3530568053408705E+02  0.3511871624006323E+02
  0.3493274203167744E+02  0.3474775266584526E+02  0.3456374292724752E+02  0.3438070762818320E+02  0.3419864160842322E+02
  0.3401753973506492E+02  0.3383739690238740E+02  0.3365820803170752E+02  0.3347996807123677E+02  0.3330267199593874E+02
  0.3312631480738770E+02  0.3295089153362736E+02  0.3277639722903092E+02  0.3260282697416159E+02  0.3243017587563386E+02
  0.3225843906597554E+02  0.3208761170349066E+02  0.3191768897212272E+02  0.3174866608131919E+02  0.3158053826589625E+02
  0.3141330078590456E+02  0.3124694892649561E+02  0.3108147799778870E+02  0.3091688333473887E+02  0.3075316029700531E+02
  0.3059030426882045E+02  0.3042831065886005E+02  0.3026717490011349E+02  0.3010689244975525E+02  0.2994745878901664E+02
  0.2978886942305861E+02  0.2963111988084483E+02  0.2947420571501573E+02  0.2931812250176319E+02  0.2916286584070564E+02
  0.2900843135476421E+02  0.2885481469003916E+02  0.2870201151568721E+02  0.2855001752379947E+02  0.2839882842927987E+02
  0.2824843996972454E+02  0.2809884790530144E+02  0.2795004801863098E+02  0.2780203611466703E+02  0.2765480802057872E+02
  0.2750835958563269E+02  0.2736268668107624E+02  0.2721778520002076E+02  0.2707365105732601E+02  0.2693028018948502E+02
  0.2678766855450942E+02  0.2664581213181550E+02  0.2650470692211096E+02  0.2636434894728202E+02  0.2622473425028141E+02
  0.2608585889501665E+02  0.2594771896623924E+02  0.2581031056943415E+02  0.2567362983071012E+02  0.2553767289669037E+02
  0.2540243593440399E+02  0.2526791513117792E+02  0.2513410669452940E+02  0.2500100685205907E+02  0.2486861185134464E+02
  0.2473691795983502E+02  0.2460592146474522E+02  0.2447561867295155E+02  0.2434600591088757E+02  0.2421707952444050E+02
  0.2408883587884823E+02  0.2396127135859675E+02  0.2383438236731839E+02  0.2370816532769022E+02  0.2358261668133337E+02
  0.2345773288871262E+02  0.2333351042903661E+02  0.2320994580015863E+02  0.2308703551847783E+02  0.2296477611884102E+02
  0.2284316415444502E+02  0.2272219619673940E+02  0.2260186883532992E+02  0.2248217867788226E+02  0.2236312235002651E+02
  0.2224469649526193E+02  0.2212689777486239E+02  0.2200972286778219E+02  0.2189316847056243E+02  0.2177723129723795E+02
  0.2166190807924459E+02  0.2154719556532706E+02  0.2143309052144737E+02  0.2131958973069350E+02  0.2120668999318880E+02
  0.2109438812600175E+02  0.2098268096305626E+02  0.2087156535504232E+02  0.2076103816932730E+02  0.2065109628986754E+02
  0.2054173661712059E+02  0.2043295606795774E+02  0.2032475157557716E+02  0.2021712008941738E+02  0.2011005857507131E+02
  0.2000356401420066E+02  0.1989763340445092E+02  0.1979226375936658E+02  0.1968745210830706E+02  0.1958319549636284E+02
  0.1947949098427224E+02  0.1937633564833847E+02  0.1927372658034727E+02  0.1917166088748483E+02  0.1907013569225633E+02
  0.1896914813240469E+02  0.1886869536082995E+02  0.1876877454550901E+02  0.1866938286941565E+02  0.1857051753044126E+02
  0.1847217574131576E+02  0.1837435472952897E+02  0.1827705173725251E+02  0.1818026402126198E+02  0.1808398885285967E+02
  0.1798822351779753E+02  0.1789296531620074E+02  0.1779821156249150E+02  0.1770395958531333E+02  0.1761020672745578E+02
  0.1751695034577940E+02  0.1742418781114137E+02  0.1733191650832118E+02  0.1724013383594701E+02  0.1714883720642234E+02
  0.1705802404585295E+02  0.1696769179397441E+02  0.1687783790407978E+02  0.1678845984294790E+02  0.1669955509077183E+02
  0.1661112114108794E+02  0.1652315550070507E+02  0.1643565568963432E+02  0.1634861924101909E+02  0.1626204370106547E+02
  0.1617592662897308E+02  0.1609026559686622E+02  0.1600505818972539E+02  0.1592030200531915E+02  0.1583599465413642E+02
  0.1575213375931905E+02  0.1566871695659478E+02  0.1558574189421058E+02  0.1550320623286624E+02  0.1542110764564850E+02
  0.1533944381796532E+02  0.1525821244748062E+02  0.1517741124404933E+02  0.1509703792965280E+02  0.1501709023833453E+02
  0.1493756591613621E+02  0.1485846272103419E+02  0.1477977842287619E+02  0.1470151080331838E+02  0.1462365765576281E+02
  0.1454621678529512E+02  0.1446918600862267E+02  0.1439256315401283E+02  0.1431634606123182E+02  0.1424053258148366E+02
  0.1416512057734955E+02  0.1409010792272762E+02  0.1401549250277280E+02  0.1394127221383726E+02  0.1386744496341095E+02
  0.1379400867006258E+02  0.1372096126338085E+02  0.1364830068391603E+02  0.1357602488312179E+02  0.1350413182329738E+02
  0.1343261947753015E+02  0.1336148582963822E+02  0.1329072887411366E+02  0.1322034661606580E+02  0.1315033707116492E+02
  0.1308069826558619E+02  0.1301142823595397E+02  0.1294252502928630E+02  0.1287398670293981E+02  0.1280581132455478E+02
  0.1273799697200056E+02  0.1267054173332131E+02  0.1260344370668198E+02  0.1253670100031451E+02  0.1247031173246442E+02
  0.1240427403133767E+02  0.1233858603504764E+02  0.1227324589156263E+02  0.1220825175865347E+02  0.1214360180384137E+02
  0.1207929420434623E+02  0.1201532714703501E+02  0.1195169882837047E+02  0.1188840745436020E+02  0.1182545124050588E+02
  0.1176282841175273E+02  0.1170053720243938E+02  0.1163857585624786E+02  0.1157694262615390E+02  0.1151563577437751E+02
  0.1145465357233379E+02  0.1139399430058397E+02  0.1133365624878676E+02  0.1127363771564990E+02  0.1121393700888196E+02
  0.1115455244514444E+02  0.1109548235000407E+02  0.1103672505788535E+02  0.1097827891202336E+02  0.1092014226441680E+02
  0.1086231347578128E+02  0.1080479091550280E+02  0.1074757296159157E+02  0.1069065800063593E+02  0.1063404442775660E+02
  0.1057773064656120E+02  0.1052171506909884E+02  0.1046599611581508E+02  0.1041057221550711E+02  0.1035544180527909E+02
  0.1030060333049772E+02  0.1024605524474814E+02  0.1019179600978990E+02  0.1013782409551326E+02  0.1008413797989569E+02
  0.1003073614895853E+02  0.9977617096723939E+01  0.9924779325172038E+01  0.9872221344198243E+01  0.9819941671570794E+01
  0.9767938832888603E+01  0.9716211361539170E+01  0.9664757798656771E+01  0.9613576693080905E+01  0.9562666601314845E+01
  0.9512026087484445E+01  0.9461653723297173E+01  0.9411548088001281E+01  0.9361707768345227E+01  0.9312131358537279E+01
  0.9262817460205325E+01  0.9213764682356805E+01  0.9164971641338973E+01  0.9116436960799236E+01  0.9068159271645730E+01
  0.9020137212008052E+01  0.8972369427198247E+01  0.8924854569671920E+01  0.8877591298989515E+01  0.8830578281777877E+01
  0.8783814191691890E+01  0.8737297709376334E+01  0.8691027522427945E+01  0.8645002325357614E+01  0.8599220819552778E+01
  0.8553681713239994E+01  0.8508383721447682E+01  0.8463325565968992E+01  0.8418505975324949E+01  0.8373923684727657E+01
  0.8329577436043703E+01  0.8285465977757774E+01  0.8241588064936384E+01  0.8197942459191761E+01  0.8154527928645940E+01
  0.8111343247894979E+01  0.8068387197973330E+01  0.8025658566318402E+01  0.7983156146735246E+01  0.7940878739361379E+01
  0.7898825150631827E+01  0.7856994193244258E+01  0.7815384686124244E+01  0.7773995454390763E+01  0.7732825329321764E+01
  0.7691873148319906E+01  0.7651137754878405E+01  0.7610617998547114E+01  0.7570312734898636E+01  0.7530220825494617E+01
  0.7490341137852212E+01  0.7450672545410625E+01  0.7411213927497794E+01  0.7371964169297266E+01  0.7332922161815127E+01
  0.7294086801847080E+01  0.7255456991945689E+01  0.7217031640387712E+01  0.7178809661141528E+01  0.7140789973834780E+01
  0.7102971503722038E+01  0.7065353181652622E+01  0.7027933944038571E+01  0.6990712732822661E+01  0.6953688495446589E+01
  0.6916860184819260E+01  0.6880226759285165E+01  0.6843787182592856E+01  0.6807540423863594E+01  0.6771485457560027E+01
  0.6735621263454983E+01  0.6699946826600423E+01  0.6664461137296427E+01  0.6629163191060291E+01  0.6594051988595749E+01
  0.6559126535762261E+01  0.6524385843544401E+01  0.6489828928021340E+01  0.6455454810336406E+01  0.6421262516666757E+01
  0.6387251078193073E+01  0.6353419531069438E+01  0.6319766916393204E+01  0.6286292280174961E+01  0.6252994673308636E+01
  0.6219873151541598E+01  0.6186926775444851E+01  0.6154154610383346E+01  0.6121555726486309E+01  0.6089129198617643E+01
  0.6056874106346434E+01  0.6024789533917466E+01  0.5992874570221836E+01  0.5961128308767627E+01  0.5929549847650617E+01
  0.5898138289525033E+01  0.5866892741574419E+01  0.5835812315482499E+01  0.5804896127404078E+01  0.5774143297936058E+01
  0.5743552952088429E+01  0.5713124219255335E+01  0.5682856233186187E+01  0.5652748131956781E+01  0.5622799057940489E+01
  0.5593008157779467E+01  0.5563374582355894E+01  0.5533897486763223E+01  0.5504576030277504E+01  0.5475409376328701E+01
  0.5446396692472003E+01  0.5417537150359232E+01  0.5388829925710199E+01  0.5360274198284102E+01  0.5331869151850927E+01
  0.5303613974162893E+01  0.5275507856925859E+01  0.5247549995770759E+01  0.5219739590225053E+01  0.5192075843684147E+01
  0.5164557963382845E+01  0.5137185160366773E+01  0.5109956649463822E+01  0.5082871649255528E+01  0.5055929382048531E+01
  0.5029129073845930E+01  0.5002469954318663E+01  0.4975951256776881E+01  0.4949572218141279E+01  0.4923332078914395E+01
  0.4897230083151915E+01  0.4871265478433910E+01  0.4845437515836077E+01  0.4819745449900919E+01  0.4794188538608910E+01
  0.4768766043349581E+01  0.4743477228892632E+01  0.4718321363358932E+01  0.4693297718191491E+01  0.4668405568126411E+01
  0.4643644191163752E+01  0.4619012868538345E+01  0.4594510884690557E+01  0.4570137527237002E+01  0.4545892086941167E+01
  0.4521773857683979E+01  0.4497782136434320E+01  0.4473916223219446E+01  0.4450175421095340E+01  0.4426559036117002E+01
  0.4403066377308645E+01  0.4379696756633788E+01  0.4356449488965316E+01  0.4333323892055414E+01  0.4310319286505396E+01
  0.4287434995735502E+01  0.4264670345954534E+01  0.4242024666129419E+01  0.4219497287954693E+01  0.4197087545821835E+01
  0.4174794776788537E+01  0.4152618320547846E+01  0.4130557519397195E+01  0.4108611718207311E+01  0.4086780264391041E+01
  0.4065062507872021E+01  0.4043457801053234E+01  0.4021965498785465E+01  0.4000584958335612E+01  0.3979315539354859E+01
  0.3958156603846742E+01  0.3937107516135077E+01  0.3916167642831740E+01  0.3895336352804325E+01  0.3874613017143662E+01
  0.3853997009131172E+01  0.3833487704206128E+01  0.3813084479932724E+01  0.3792786715967024E+01  0.3772593794023747E+01
  0.3752505097842934E+01  0.3732520013156434E+01  0.3712637927654239E+01  0.3692858230950704E+01  0.3673180314550565E+01
  0.3653603571814835E+01  0.3634127397926537E+01  0.3614751189856273E+01  0.3595474346327646E+01  0.3576296267782532E+01
  0.3557216356346181E+01  0.3538234015792156E+01  0.3519348651507149E+01  0.3500559670455610E+01  0.3481866481144219E+01
  0.3463268493586242E+01  0.3444765119265678E+01  0.3426355771101299E+01  0.3408039863410518E+01  0.3389816811873128E+01
  0.3371686033494842E+01  0.3353646946570781E+01  0.3335698970648716E+01  0.3317841526492251E+01  0.3300074036043828E+01
  0.3282395922387626E+01  0.3264806609712303E+01  0.3247305523273635E+01  0.3229892089357052E+01  0.3212565735239999E+01
  0.3195325889154280E+01  0.3178171980248207E+01  0.3161103438548734E+01  0.3144119694923424E+01  0.3127220181042418E+01
  0.3110404329340259E+01  0.3093671572977696E+01  0.3077021345803403E+01  0.3060453082315692E+01  0.3043966217624134E+01
  0.3027560187411205E+01  0.3011234427893894E+01  0.2994988375785310E+01  0.2978821468256325E+01  0.2962733142897199E+01
  0.2946722837679289E+01  0.2930789990916780E+01  0.2914934041228525E+01  0.2899154427499919E+01  0.2883450588844945E+01
  0.2867821964568289E+01  0.2852267994127629E+01  0.2836788117096087E+01  0.2821381773124871E+01  0.2806048401906108E+01
  0.2790787443135933E+01  0.2775598336477846E+01  0.2760480521526303E+01  0.2745433437770707E+01  0.2730456524559651E+01
  0.2715549221065598E+01  0.2700710966249933E+01  0.2685941198828474E+01  0.2671239357237428E+01  0.2656604879599877E+01
  0.2642037203692797E+01  0.2627535766914680E+01  0.2613100006253742E+01  0.2598729358256837E+01  0.2584423258999064E+01
  0.2570181144054127E+01  0.2556002448465519E+01  0.2541886606718526E+01  0.2527833052713173E+01  0.2513841219738101E+01
  0.2499910540445486E+01  0.2486040446826984E+01  0.2472230370190871E+01  0.2458479741140315E+01  0.2444787989552950E+01
  0.2431154544561742E+01  0.2417578834537282E+01  0.2404060287071503E+01  0.2390598328962968E+01  0.2377192386203760E+01
  0.2363841883968047E+01  0.2350546246602465E+01  0.2337304897618303E+01  0.2324117259685676E+01  0.2310982754629706E+01
  0.2297900803428850E+01  0.2284870826215419E+01  0.2271892242278439E+01  0.2258964470068922E+01  0.2246086927207650E+01
  0.2233259030495614E+01  0.2220480195927143E+01  0.2207749838705925E+01  0.2195067373263967E+01  0.2182432213283654E+01
  0.2169843771722984E+01  0.2157301460844149E+01  0.2144804692245563E+01  0.2132352876897476E+01  0.2119945425181273E+01
  0.2107581746932674E+01  0.2095261251488862E+01  0.2082983347739773E+01  0.2070747444183654E+01  0.2058552948987008E+01
  0.2046399270049134E+01  0.2034285815071351E+01  0.2022211991631117E+01  0.2010177207261119E+01  0.1998180869533596E+01
  0.1986222386149940E+01  0.1974301165035824E+01  0.1962416614441963E+01  0.1950568143050701E+01  0.1938755160088559E+01
  0.1926977075444938E+01  0.1915233299797109E+01  0.1903523244741684E+01  0.1891846322932709E+01  0.1880201948226541E+01
  0.1868589535833694E+01  0.1857008502477780E+01  0.1845458266561747E+01  0.1833938248341506E+01  0.1822447870107185E+01
  0.1810986556372066E+01  0.1799553734069445E+01  0.1788148832757459E+01  0.1776771284832124E+01  0.1765420525748612E+01
  0.1754095994250963E+01  0.1742797132610328E+01  0.1731523386871836E+01  0.1720274207110220E+01  0.1709049047694265E+01
  0.1697847367560193E+01  0.1686668630494005E+01  0.1675512305422922E+01  0.1664377866715883E+01  0.1653264794493199E+01
  0.1642172574945359E+01  0.1631100700661003E+01  0.1620048670964026E+01  0.1609015992259820E+01  0.1598002178390587E+01
  0.1587006750999647E+01  0.1576029239904691E+01  0.1565069183479811E+01  0.1554126129046241E+01  0.1543199633271604E+01
  0.1532289262577522E+01  0.1521394593555325E+01  0.1510515213389721E+01  0.1499650720290052E+01  0.1488800723928939E+01
  0.1477964845887934E+01  0.1467142720109862E+01  0.1456333993357433E+01  0.1445538325677738E+01  0.1434755390872162E+01
  0.1423984876971202E+01  0.1413226486713706E+01  0.1402479938029935E+01  0.1391744964527877E+01  0.1381021315982124E+01
  0.1370308758824722E+01  0.1359607076637171E+01  0.1348916070642908E+01  0.1338235560199424E+01  0.1327565383289212E+01
  0.1316905397008635E+01  0.1306255478053836E+01  0.1295615523202721E+01  0.1284985449792008E+01  0.1274365196188351E+01
  0.1263754722252415E+01  0.1253154009794860E+01  0.1242563063023053E+01  0.1231981908977368E+01  0.1221410597955825E+01
  0.1210849203925919E+01  0.1200297824922284E+01  0.1189756583428982E+01  0.1179225626745081E+01  0.1168705127332205E+01
  0.1158195283142694E+01  0.1147696317927058E+01  0.1137208481519340E+01  0.1126732050098988E+01  0.1116267326427951E+01
  0.1105814640061521E+01  0.1095374347531656E+01  0.1084946832501355E+01  0.1074532505888839E+01  0.1064131805960129E+01
  0.1053745198388818E+01  0.1043373176281738E+01  0.1033016260169340E+01  0.1022674997959573E+01  0.1012349964854193E+01
  0.1002041763226394E+01  0.9917510224587798E+00  0.9814783987407290E+00  0.9712245748242786E+00  0.9609902597377569E+00
  0.9507761884564488E+00  0.9405831215296918E+00  0.9304118446638430E+00  0.9202631682607856E+00  0.9101379269115520E+00
  0.9000369788449514E+00  0.8899612053310644E+00  0.8799115100396647E+00  0.8698888183536896E+00  0.8598940766380764E+00
  0.8499282514643663E+00  0.8399923287915775E+00  0.8300873131041131E+00  0.8202142265074118E+00  0.8103741077823754E+00
  0.8005680113996120E+00  0.7907970064947495E+00  0.7810621758061310E+00  0.7713646145764737E+00  0.7617054294200094E+00
  0.7520857371569667E+00  0.7425066636172027E+00  0.7329693424150413E+00  0.7234749136974207E+00  0.7140245228675894E+00
  0.7046193192867107E+00  0.6952604549557899E+00  0.6859490831805031E+00  0.6766863572215163E+00  0.6674734289330279E+00
  0.6583114473922511E+00  0.6492015575227511E+00  0.6401448987144156E+00  0.6311426034430581E+00  0.6221957958925514E+00
  0.6133055905824926E+00  0.6044730910043369E+00  0.5956993882690083E+00  0.5869855597689351E+00  0.5783326678574139E+00
  0.5697417585482669E+00  0.5612138602385663E+00  0.5527499824572842E+00  0.5443511146425605E+00  0.5360182249502577E+00
  0.5277522590963429E+00  0.5195541392355895E+00  0.5114247628789398E+00  0.5033650018517750E+00  0.4953757012952288E+00
  0.4874576787125097E+00  0.4796117230621196E+00  0.4718385938996588E+00  0.4641390205697968E+00  0.4565137014498052E+00
  0.4489633032459198E+00  0.4414884603436348E+00  0.4340897742128410E+00  0.4267678128685806E+00  0.4195231103880548E+00
  0.4123561664842656E+00  0.4052674461366247E+00  0.3982573792785885E+00  0.3913263605423202E+00  0.3844747490601155E+00
  0.3777028683222681E+00  0.3710110060908587E+00  0.3643994143687626E+00  0.3578683094231426E+00  0.3514178718624239E+00
  0.3450482467657115E+00  0.3387595438634793E+00  0.3325518377681800E+00  0.3264251682533861E+00  0.3203795405799608E+00
  0.3144149258676048E+00  0.3085312615101340E+00  0.3027284516326803E+00  0.2970063675889812E+00  0.2913648484968813E+00
  0.2858037018100499E+00  0.2803227039239623E+00  0.2749216008140617E+00  0.2696001087040936E+00  0.2643579147624773E+00
  0.2591946778246634E+00  0.2541100291393363E+00  0.2491035731364179E+00  0.2441748882147154E+00  0.2393235275472060E+00
  0.2345490199018522E+00  0.2298508704759710E+00  0.2252285617421270E+00  0.2206815543036153E+00  0.2162092877576410E+00
  0.2118111815642919E+00  0.2074866359195484E+00  0.2032350326305309E+00  0.1990557359913122E+00  0.1949480936576703E+00
  0.1909114375191897E+00  0.1869450845672214E+00  0.1830483377572771E+00  0.1792204868644676E+00  0.1754608093307230E+00
  0.1717685711025441E+00  0.1681430274581492E+00  0.1645834238229452E+00  0.1610889965722933E+00  0.1576589738206675E+00
  0.1542925761963057E+00  0.1509890176006001E+00  0.1477475059514695E+00  0.1445672439100736E+00  0.1414474295902877E+00
  0.1383872572503939E+00  0.1353859179665394E+00  0.1324426002875688E+00  0.1295564908708747E+00  0.1267267750989887E+00
  0.1239526376766983E+00  0.1212332632084882E+00  0.1185678367562106E+00  0.1159555443768792E+00  0.1133955736405848E+00
  0.1108871141285218E+00  0.1084293579111906E+00  0.1060215000068738E+00  0.1036627388205031E+00  0.1013522765630863E+00
  0.9908931965189688E-01  0.9687307909163397E-01  0.9470277083682396E-01  0.9257761613572518E-01  0.9049684185604008E-01
  0.8845968079276707E-01  0.8646537195850963E-01  0.8451316085662382E-01  0.8260229973755327E-01  0.8073204783875935E-01
  0.7890167160862241E-01  0.7711044491473401E-01  0.7535764923699421E-01  0.7364257384593045E-01  0.7196451596666650E-01
  0.7032278092898239E-01  0.6871668230388592E-01  0.6714554202713985E-01  0.6560869051018590E-01  0.6410546673888755E-01
  0.6263521836054520E-01  0.6119730175959611E-01  0.5979108212244869E-01  0.5841593349185885E-01  0.5707123881127874E-01
  0.5575638995959333E-01  0.5447078777664845E-01  0.5321384207997646E-01  0.5198497167311874E-01  0.5078360434592481E-01
  0.4960917686721895E-01  0.4846113497019862E-01  0.4733893333093227E-01  0.4624203554031484E-01  0.4516991406981998E-01
  0.4412205023139679E-01  0.4309793413182812E-01  0.4209706462188100E-01  0.4111894924055010E-01  0.4016310415469777E-01
  0.3922905409438456E-01  0.3831633228416745E-01  0.3742448037063784E-01  0.3655304834646791E-01  0.3570159447121189E-01
  0.3486968518910935E-01  0.3405689504412937E-01  0.3326280659247412E-01  0.3248701031276851E-01  0.3172910451413553E-01
  0.3098869524236688E-01  0.3026539618437095E-01  0.2955882857109200E-01  0.2886862107906715E-01  0.2819440973079517E-01
  0.2753583779407340E-01  0.2689255568045955E-01  0.2626422084299807E-01  0.2565049767335568E-01  0.2505105739849289E-01
  0.2446557797699733E-01  0.2389374399520006E-01  0.2333524656318181E-01  0.2278978321078044E-01  0.2225705778369470E-01
  0.2173678033978350E-01  0.2122866704564562E-01  0.2073244007356515E-01  0.2024782749890267E-01  0.1977456319800275E-01
  0.1931238674668856E-01  0.1886104331940876E-01  0.1842028358909457E-01  0.1798986362778350E-01  0.1756954480806406E-01
  0.1715909370538467E-01  0.1675828200127627E-01  0.1636688638752480E-01  0.1598468847133516E-01  0.1561147468151652E-01
  0.1524703617572484E-01  0.1489116874878641E-01  0.1454367274213042E-01  0.1420435295435343E-01  0.1387301855293428E-01
  0.1354948298711829E-01  0.1323356390198723E-01  0.1292508305372673E-01  0.1262386622610294E-01  0.1232974314815972E-01
  0.1204254741314041E-01  0.1176211639864408E-01  0.1148829118801665E-01  0.1122091649298296E-01  0.1095984057751819E-01
  0.1070491518296062E-01  0.1045599545436259E-01  0.1021293986807866E-01  0.9975610160586188E-02  0.9743871258533470E-02
  0.9517591210010286E-02  0.9296641117033506E-02  0.9080895069240763E-02  0.8870230078783743E-02  0.8664526016411395E-02
  0.8463665548733800E-02  0.8267534076656752E-02  0.8076019674975000E-02  0.7889013033113654E-02  0.7706407397004890E-02
  0.7528098512088567E-02  0.7353984567423136E-02  0.7183966140893799E-02  0.7017946145504513E-02  0.6855829776740522E-02
  0.6697524460986203E-02  0.6542939804985478E-02  0.6391987546329018E-02  0.6244581504954196E-02  0.6100637535643431E-02
  0.5960073481505172E-02  0.5822809128423012E-02  0.5688766160458474E-02  0.5557868116191050E-02  0.5430040345981833E-02
  0.5305209970144661E-02  0.5183305838009904E-02  0.5064258487866175E-02  0.4948000107764635E-02  0.4834464497170684E-02
  0.4723587029448648E-02  0.4615304615164070E-02  0.4509555666189562E-02  0.4406280060598596E-02  0.4305419108333815E-02
  0.4206915517634312E-02  0.4110713362208669E-02  0.4016758049138650E-02  0.3924996287500221E-02  0.3835376057687546E-02
  0.3747846581426610E-02  0.3662358292464763E-02  0.3578862807922571E-02  0.3497312900295175E-02  0.3417662470089620E-02
  0.3339866519085816E-02  0.3263881124207743E-02  0.3189663411993151E-02  0.3117171533648521E-02  0.3046364640678080E-02
  0.2977202861073958E-02  0.2909647276056413E-02  0.2843659897351988E-02  0.2779203644998586E-02  0.2716242325665980E-02
  0.2654740611480672E-02  0.2594664019344392E-02  0.2535978890735445E-02  0.2478652371982430E-02  0.2422652395000142E-02
  0.2367947658477281E-02  0.2314507609506145E-02  0.2262302425644739E-02  0.2211302997401379E-02  0.2161480911132513E-02
  0.2112808432344804E-02  0.2065258489391864E-02  0.2018804657557393E-02  0.1973421143515497E-02  0.1929082770159947E-02
  0.1885764961794017E-02  0.1843443729672447E-02  0.1802095657887865E-02  0.1761697889593529E-02  0.1722228113554665E-02
  0.1683664551021157E-02  0.1645985942913812E-02  0.1609171537317130E-02  0.1573201077271631E-02  0.1538054788858463E-02
  0.1503713369569835E-02  0.1470157976958390E-02  0.1437370217559098E-02  0.1405332136077307E-02  0.1374026204836769E-02
  0.1343435313481368E-02  0.1313542758924796E-02  0.1284332235542170E-02  0.1255787825598089E-02  0.1227893989905263E-02
  0.1200635558708591E-02  0.1173997722789072E-02  0.1147966024782466E-02  0.1122526350707648E-02  0.1097664921699563E-02
  0.1073368285941934E-02  0.1049623310795056E-02  0.1026417175113921E-02  0.1003737361752140E-02  0.9815716502472702E-03
  0.9599081096831342E-03  0.9387350917249644E-03  0.9180412238231951E-03  0.8978154025818066E-03  0.8780467872873221E-03
  0.8587247935946276E-03  0.8398390873657150E-03  0.8213795786578052E-03  0.8033364158571317E-03  0.7856999799549632E-03
  0.7684608789623918E-03  0.7516099424604883E-03  0.7351382162826491E-03  0.7190369573258297E-03  0.7032976284876433E-03
  0.6879118937262182E-03  0.6728716132398384E-03  0.6581688387634596E-03  0.6437958089793388E-03  0.6297449450388881E-03
  0.6160088461931294E-03  0.6025802855291294E-03  0.5894522058097459E-03  0.5766177154142872E-03  0.5640700843775423E-03
  0.5518027405248192E-03  0.5398092657006738E-03  0.5280833920890384E-03  0.5166189986224804E-03  0.5054101074784919E-03
  0.4944508806606230E-03  0.4837356166624615E-03  0.4732587472123479E-03  0.4630148340969624E-03  0.4529985660617708E-03
  0.4432047557864892E-03  0.4336283369337730E-03  0.4242643612692761E-03  0.4151079958513795E-03  0.4061545202888908E-03
  0.3973993240650542E-03  0.3888379039262172E-03  0.3804658613336342E-03  0.3722788999768077E-03  0.3642728233469295E-03
  0.3564435323688725E-03  0.3487870230903949E-03  0.3412993844270855E-03  0.3339767959617179E-03  0.3268155257967127E-03
  0.3198119284583606E-03  0.3129624428515671E-03  0.3062635902639030E-03  0.2997119724177332E-03  0.2933042695692498E-03
  0.2870372386532846E-03  0.2809077114727618E-03  0.2749125929317200E-03  0.2690488593108397E-03  0.2633135565844198E-03
  0.2577037987778055E-03  0.2522167663643019E-03  0.2468497047005698E-03  0.2415999224995886E-03  0.2364647903402876E-03
  0.2314417392129053E-03  0.2265282590992621E-03  0.2217218975870474E-03  0.2170202585173275E-03  0.2124210006644418E-03
  0.2079218364475165E-03  0.2035205306728207E-03  0.1992148993062074E-03  0.1950028082749100E-03  0.1908821722979974E-03
  0.1868509537447658E-03  0.1829071615203987E-03  0.1790488499782480E-03  0.1752741178580553E-03  0.1715811072495233E-03
  0.1679680025805861E-03  0.1644330296298082E-03  0.1609744545622952E-03  0.1575905829885928E-03  0.1542797590459605E-03
  0.1510403645015228E-03  0.1478708178767385E-03  0.1447695735926986E-03  0.1417351211357165E-03  0.1387659842427513E-03
  0.1358607201061607E-03  0.1330179185973240E-03  0.1302362015086871E-03  0.1275142218137697E-03  0.1248506629447071E-03
  0.1222442380869079E-03  0.1196936894904115E-03  0.1171977877975314E-03  0.1147553313864110E-03  0.1123651457300892E-03
  0.1100260827707174E-03  0.1077370203085540E-03  0.1054968614053784E-03  0.1033045338019871E-03  0.1011589893494202E-03
  0.9905920345360143E-04  0.9700417453305973E-04  0.9499292348941635E-04  0.9302449319034046E-04  0.9109794796466906E-04
  0.8921237310939096E-04  0.8736687440822484E-04  0.8556057766149957E-04  0.8379262822707670E-04  0.8206219057204452E-04
  0.8036844783492507E-04  0.7871060139814302E-04  0.7708787047051718E-04  0.7549949167952360E-04  0.7394471867310270E-04
  0.7242282173078805E-04  0.7093308738391844E-04  0.6947481804473455E-04  0.6804733164413297E-04  0.6664996127788118E-04
  0.6528205486108394E-04  0.6394297479071298E-04  0.6263209761599910E-04  0.6134881371650624E-04  0.6009252698769778E-04
  0.5886265453382638E-04  0.5765862636796153E-04  0.5647988511899649E-04  0.5532588574546013E-04  0.5419609525597487E-04
  0.5308999243620713E-04  0.5200706758214820E-04  0.5094682223958300E-04  0.4990876894959349E-04  0.4889243099996028E-04
  0.4789734218231816E-04  0.4692304655493000E-04  0.4596909821094688E-04  0.4503506105202611E-04  0.4412050856717658E-04
  0.4322502361671295E-04  0.4234819822119395E-04  0.4148963335522765E-04  0.4064893874603301E-04  0.3982573267663976E-04
  0.3901964179362053E-04  0.3823030091924876E-04  0.3745735286797786E-04  0.3670044826713763E-04  0.3595924538175235E-04
  0.3523340994338071E-04  0.3452261498288523E-04  0.3382654066703860E-04  0.3314487413887417E-04  0.3247730936169725E-04
  0.3182354696666658E-04  0.3118329410386796E-04  0.3055626429679132E-04  0.2994217730013932E-04  0.2934075896088121E-04
  0.2875174108248437E-04  0.2817486129224251E-04  0.2760986291163229E-04  0.2705649482962531E-04  0.2651451137888831E-04
  0.2598367221480393E-04  0.2546374219724395E-04  0.2495449127503372E-04  0.2445569437304470E-04  0.2396713128185231E-04
  0.2348858654990017E-04  0.2301984937811444E-04  0.2256071351690697E-04  0.2211097716551710E-04  0.2167044287363305E-04
  0.2123891744524317E-04  0.2081621184466343E-04  0.2040214110469242E-04  0.1999652423684334E-04  0.1959918414360499E-04
  0.1920994753268477E-04  0.1882864483318948E-04  0.1845511011369580E-04  0.1808918100217075E-04  0.1773069860769625E-04
  0.1737950744395702E-04  0.1703545535445290E-04  0.1669839343939307E-04  0.1636817598423498E-04  0.1604466038983075E-04
  0.1572770710414161E-04  0.1541717955548762E-04  0.1511294408729427E-04  0.1481486989430316E-04  0.1452282896021344E-04
  0.1423669599672024E-04  0.1395634838391825E-04  0.1368166611203955E-04  0.1341253172449442E-04  0.1314883026218663E-04
  0.1289044920907229E-04  0.1263727843893458E-04  0.1238921016334736E-04  0.1214613888079926E-04  0.1190796132695217E-04
  0.1167457642600851E-04  0.1144588524316127E-04  0.1122179093810331E-04  0.1100219871957076E-04  0.1078701580089685E-04
  0.1057615135655437E-04  0.1036951647966248E-04  0.1016702414043812E-04  0.9968589145568043E-05  0.9774128098483150E-05
  0.9583559360512112E-05  0.9396803012896633E-05  0.9213780819646903E-05  0.9034416191219541E-05  0.8858634148998499E-05
  0.8686361290561309E-05  0.8517525755712869E-05  0.8352057193268819E-05  0.8189886728572040E-05  0.8030946931726117E-05
  0.7875171786528314E-05  0.7722496660087744E-05  0.7572858273112220E-05  0.7426194670848906E-05  0.7282445194664733E-05
  0.7141550454250992E-05  0.7003452300439206E-05  0.6868093798613479E-05  0.6735419202706922E-05  0.6605373929768367E-05
  0.6477904535086570E-05  0.6352958687859509E-05  0.6230485147397065E-05  0.6110433739843865E-05  0.5992755335412136E-05
  0.5877401826111914E-05  0.5764326103967954E-05  0.5653482039712893E-05  0.5544824461945090E-05  0.5438309136741304E-05
  0.5333892747714349E-05  0.5231532876504861E-05  0.5131187983698502E-05  0.5032817390158433E-05  0.4936381258763916E-05
  0.4841840576546279E-05  0.4749157137213222E-05  0.4658293524052545E-05  0.4569213093207415E-05  0.4481879957314283E-05
  0.4396258969496102E-05  0.4312315707702104E-05  0.4230016459387406E-05  0.4149328206523880E-05  0.4070218610935923E-05
  0.3992655999953134E-05  0.3916609352373362E-05  0.3842048284729013E-05  0.3768943037850042E-05  0.3697264463717058E-05
  0.3626984012597936E-05  0.3558073720461949E-05  0.3490506196665022E-05  0.3424254611900494E-05  0.3359292686408969E-05
  0.3295594678442254E-05  0.3233135372974993E-05  0.3171890070659345E-05  0.3111834577016644E-05  0.3052945191861379E-05
  0.2995198698951921E-05  0.2938572355863477E-05  0.2883043884078032E-05  0.2828591459286625E-05  0.2775193701899383E-05
  0.2722829667758585E-05  0.2671478839050493E-05  0.2621121115411545E-05  0.2571736805224514E-05  0.2523306617100559E-05
  0.2475811651543323E-05  0.2429233392790666E-05  0.2383553700830471E-05  0.2338754803586732E-05  0.2294819289271908E-05
  0.2251730098902312E-05  0.2209470518972672E-05  0.2168024174286503E-05  0.2127375020938951E-05  0.2087507339448754E-05
  0.2048405728035972E-05  0.2010055096042508E-05  0.1972440657492083E-05  0.1935547924786942E-05  0.1899362702537986E-05
  0.1863871081525640E-05  0.1829059432788648E-05  0.1794914401837828E-05  0.1761422902992297E-05  0.1728572113835383E-05
  0.1696349469787611E-05  0.1664742658794379E-05  0.1633739616125718E-05  0.1603328519285708E-05  0.1573497783029274E-05
  0.1544236054483914E-05  0.1515532208374303E-05  0.1487375342347241E-05  0.1459754772395164E-05  0.1432660028375698E-05
  0.1406080849625542E-05  0.1380007180666389E-05  0.1354429167001067E-05  0.1329337150997841E-05  0.1304721667861100E-05
  0.1280573441686512E-05  0.1256883381598776E-05  0.1233642577970338E-05  0.1210842298719177E-05  0.1188473985684111E-05
  0.1166529251075880E-05  0.1144999874002399E-05  0.1123877797066537E-05  0.1103155123035054E-05  0.1082824111576937E-05
  0.1062877176069818E-05  0.1043306880472939E-05  0.1024105936265306E-05  0.1005267199447601E-05  0.9867836676064582E-06
  0.9686484770398685E-06  0.9508548999423114E-06  0.9333963416484246E-06  0.9162663379339245E-06  0.8994585523725459E-06
  0.8829667737478296E-06  0.8667849135186277E-06  0.8509070033371132E-06  0.8353271926182152E-06  0.8200397461594409E-06
  0.8050390418098893E-06  0.7903195681875629E-06  0.7758759224438368E-06  0.7617028080741362E-06  0.7477950327738569E-06
  0.7341475063385557E-06  0.7207552386074555E-06  0.7076133374493837E-06  0.6947170067902146E-06  0.6820615446810002E-06
  0.6696423414058267E-06  0.6574548776286870E-06  0.6454947225784383E-06  0.6337575322710829E-06  0.6222390477686277E-06
  0.6109350934736813E-06  0.5998415754590687E-06  0.5889544798317471E-06  0.5782698711302836E-06  0.5677838907551753E-06
  0.5574927554313289E-06  0.5473927557020784E-06  0.5374802544539834E-06  0.5277516854718337E-06  0.5182035520232319E-06
  0.5088324254720591E-06  0.4996349439203249E-06  0.4906078108777206E-06  0.4817477939583318E-06  0.4730517236039528E-06
  0.4645164918334381E-06  0.4561390510175279E-06  0.4479164126786469E-06  0.4398456463151250E-06  0.4319238782493819E-06
  0.4241482904994926E-06  0.4165161196737503E-06  0.4090246558876390E-06  0.4016712417028591E-06  0.3944532710878468E-06
  0.3873681883994194E-06  0.3804134873850533E-06  0.3735867102053988E-06  0.3668854464766091E-06  0.3603073323320470E-06
  0.3538500495029960E-06  0.3475113244179677E-06  0.3412889273202226E-06  0.3351806714031440E-06  0.3291844119630569E-06
  0.3232980455691623E-06  0.3175195092502390E-06  0.3118467796977382E-06  0.3062778724849516E-06  0.3008108413019100E-06
  0.2954437772057098E-06  0.2901748078859249E-06  0.2850020969448003E-06  0.2799238431919300E-06  0.2749382799531091E-06
  0.2700436743930830E-06  0.2652383268519038E-06  0.2605205701945956E-06  0.2558887691738787E-06  0.2513413198056824E-06
  0.2468766487571687E-06  0.2424932127470142E-06  0.2381894979577250E-06  0.2339640194596863E-06  0.2298153206467660E-06
  0.2257419726831877E-06  0.2217425739614601E-06  0.2178157495711510E-06  0.2139601507782627E-06  0.2101744545149957E-06
  0.2064573628797026E-06  0.2028076026467999E-06  0.1992239247864710E-06  0.1957051039939124E-06  0.1922499382279775E-06
  0.1888572482589912E-06  0.1855258772255589E-06  0.1822546902002003E-06  0.1790425737636087E-06  0.1758884355873654E-06
  0.1727912040249490E-06  0.1697498277108610E-06  0.1667632751676978E-06  0.1638305344210212E-06  0.1609506126218563E-06
  0.1581225356766775E-06  0.1553453478847077E-06  0.1526181115824134E-06  0.1499399067950126E-06  0.1473098308948938E-06
  0.1447269982667717E-06  0.1421905399794654E-06  0.1396996034641520E-06  0.1372533521989746E-06  0.1348509653998756E-06
  0.1324916377175162E-06  0.1301745789401790E-06  0.1278990137025147E-06  0.1256641812000320E-06  0.1234693349092038E-06
  0.1213137423130772E-06  0.1191966846322786E-06  0.1171174565613124E-06  0.1150753660100321E-06  0.1130697338501901E-06
  0.1110998936669669E-06  0.1091651915153649E-06  0.1072649856813903E-06  0.1053986464479062E-06  0.1035655558650783E-06
  0.1017651075253119E-06  0.9999670634259670E-07  0.9825976833616887E-07  0.9655372041840062E-07  0.9487800018683426E-07
  0.9323205572028626E-07  0.9161534537892555E-07  0.9002733760825492E-07  0.8846751074692260E-07  0.8693535283827199E-07
  0.8543036144557410E-07  0.8395204347085315E-07  0.8249991497724130E-07  0.8107350101479367E-07  0.7967233544969148E-07
  0.7829596079676427E-07  0.7694392805527031E-07  0.7561579654786445E-07  0.7431113376269864E-07  0.7302951519857975E-07
  0.7177052421314036E-07  0.7053375187394714E-07  0.6931879681249722E-07  0.6812526508104690E-07  0.6695277001220936E-07
  0.6580093208127002E-07  0.6466937877116911E-07  0.6355774444009471E-07  0.6246567019163318E-07  0.6139280374743135E-07
  0.6033879932231583E-07  0.5930331750182539E-07  0.5828602512210645E-07  0.5728659515212378E-07  0.5630470657814183E-07
  0.5534004429043518E-07  0.5439229897217795E-07  0.5346116699047483E-07  0.5254635028948637E-07  0.5164755628561351E-07
  0.5076449776469620E-07  0.4989689278118645E-07  0.4904446455926027E-07  0.4820694139582648E-07  0.4738405656539864E-07
  0.4657554822679239E-07  0.4578115933161063E-07  0.4500063753448160E-07  0.4423373510502127E-07  0.4348020884147706E-07
  0.4273981998602604E-07  0.4201233414169573E-07  0.4129752119087013E-07  0.4059515521535728E-07  0.3990501441798177E-07
  0.3922688104567582E-07  0.3856054131403754E-07  0.3790578533333025E-07  0.3726240703589308E-07  0.3663020410493457E-07
  0.3600897790468313E-07  0.3539853341187034E-07  0.3479867914851538E-07  0.3420922711599208E-07  0.3362999273034801E-07
  0.3306079475885363E-07  0.3250145525775910E-07  0.3195179951123206E-07  0.3141165597145484E-07  0.3088085619985988E-07
  0.3035923480947986E-07  0.2984662940839036E-07  0.2934288054422542E-07  0.2884783164974346E-07  0.2836132898942640E-07
  0.2788322160708664E-07  0.2741336127446845E-07  0.2695160244081987E-07  0.2649780218341774E-07  0.2605182015902976E-07
  0.2561351855629150E-07  0.2518276204898313E-07  0.2475941775018838E-07  0.2434335516731879E-07  0.2393444615798473E-07
  0.2353256488669944E-07  0.2313758778239792E-07  0.2274939349675662E-07  0.2236786286329786E-07  0.2199287885726287E-07
  0.2162432655624038E-07  0.2126209310153473E-07  0.2090606766026125E-07  0.2055614138815168E-07  0.2021220739306025E-07
  0.1987416069915240E-07  0.1954189821176744E-07  0.1921531868293852E-07  0.1889432267755974E-07  0.1857881254018655E-07
  0.1826869236245863E-07  0.1796386795113227E-07  0.1766424679671080E-07  0.1736973804266147E-07  0.1708025245520894E-07
  0.1679570239369214E-07  0.1651600178147497E-07  0.1624106607740125E-07  0.1597081224778071E-07  0.1570515873889934E-07
  0.1544402545004104E-07  0.1518733370701296E-07  0.1493500623616349E-07  0.1468696713888462E-07  0.1444314186658909E-07
  0.6041735511892758E+03  0.6041735511892758E+03  0.6041735511892758E+03  0.6041735511892758E+03  0.6041735511892758E+03
  0.6041735511892758E+03  0.6041735511892758E+03  0.6041735511892758E+03  0.6041735511892758E+03  0.6041735511892758E+03
  0.6041735511892758E+03  0.6041735511892758E+03  0.6041735511892758E+03  0.6041735511892758E+03  0.6041735511892758E+03
  0.6041735511892758E+03  0.6041735511892758E+03  0.6041735511892758E+03  0.6041735511892758E+03  0.6041735511892758E+03
  0.6041735511892758E+03  0.6041735511892758E+03  0.6041735511892758E+03  0.6041735511892758E+03  0.6041735511892758E+03
  0.6041735511892758E+03  0.6041735511892758E+03  0.6041735511892758E+03  0.6041735511892758E+03  0.6041735511892758E+03
  0.6041735511892758E+03  0.6041735511892758E+03  0.6041735511892758E+03  0.6041735511892758E+03  0.6041735511892758E+03
  0.6041735511892758E+03  0.6041735511892758E+03  0.6041735511892758E+03  0.6041735511892758E+03  0.6041735511892758E+03
  0.6041735511892758E+03  0.6041735511892758E+03  0.6041735511892758E+03  0.6041735511892758E+03  0.6041735511892758E+03
  0.6041735511892758E+03  0.6041735511892758E+03  0.6041735511892758E+03  0.6041735511892758E+03  0.6041735511892758E+03
  0.6041735511892758E+03  0.6041735511892758E+03  0.6041735511892758E+03  0.6041735511892758E+03  0.6041735511892758E+03
  0.6041735511892758E+03  0.6041735511892758E+03  0.6041735511892758E+03  0.6041735511892758E+03  0.6041735511892758E+03
  0.6041735511892758E+03  0.6041735511892758E+03  0.6041735511892758E+03  0.6041735511892758E+03  0.6041735511892758E+03
  0.6041735511892758E+03  0.6041735511892758E+03  0.6041735511892758E+03  0.6041735511892758E+03  0.6041735511892758E+03
  0.6041735511892758E+03  0.6041735511892758E+03  0.6041735511892758E+03  0.6041735511892758E+03  0.6041735511892758E+03
  0.6041735511892758E+03  0.6041735511892758E+03  0.6041735511892758E+03  0.6041735511892758E+03  0.6041735511892758E+03
  0.6041735511892758E+03  0.6041735511892758E+03  0.6041735511892758E+03  0.6041735511892758E+03  0.6041735511892758E+03
  0.6041735511892758E+03  0.6041735511892758E+03  0.6041735511892758E+03  0.6041735511892758E+03  0.6041735511892758E+03
  0.6041735511892758E+03  0.6041735511892758E+03  0.6041735511892758E+03  0.6041735511892758E+03  0.6041735511892758E+03
  0.6041735511892758E+03  0.6041735511892758E+03  0.6041735511892758E+03  0.6041735511892758E+03  0.6041735511892758E+03
  0.6041735511892758E+03  0.6041735511892758E+03  0.6041735511892758E+03  0.6041735511892758E+03  0.6041735511892758E+03
  0.6041735511892758E+03  0.6041735511892758E+03  0.6041735511892758E+03  0.6041735511892758E+03  0.6041735511892758E+03
