nep4_zbl 16 Ag Al Au Cr Cu Mg Mo Ni Pb Pd Pt Ta Ti V W Zr 
zbl 1 2
cutoff 6 5 200 134
n_max 6 6
basis_size 8 8
l_max 4 2 1
ANN 80 0
 -1.2466877e+00
  3.3422010e-03
 -9.2767990e-01
 -1.8291841e-01
  6.1391282e-01
  6.9990295e-01
 -1.6044513e+00
  1.0525034e-01
  3.5849765e-01
 -2.1690857e-01
  4.2572870e+00
  3.4354436e-01
 -1.0479058e+00
 -7.2226584e-01
  4.8118883e-01
  7.7009398e-01
  3.8886636e-01
  2.6463893e-01
 -2.2836386e-01
 -1.2826303e+00
  9.3475139e-01
  2.3522610e-02
  4.7121000e-01
  1.0846496e-02
  1.0611192e+00
  1.3983451e-01
  3.7071782e-01
 -9.5185316e-01
 -1.0574059e+00
  1.0575241e+00
 -1.8322248e+00
  2.7441269e-01
 -9.9832517e-01
  1.4806504e+00
 -9.1937035e-01
  8.0610895e-01
 -1.5950125e+00
  9.4175208e-01
  9.3455982e-01
 -6.2160563e-01
  6.7455173e-02
 -3.0991000e-01
 -7.9549402e-01
  2.3233175e-01
 -2.6418695e-01
 -2.3363751e-01
  6.1171049e-01
  2.7353773e-01
 -9.2081100e-01
  2.0648605e-01
  1.3703581e+00
 -6.3188076e-01
  8.2530461e-02
 -2.7948916e-01
 -4.1014679e-02
  1.1333227e+00
  1.6343817e+00
 -1.0623132e+00
  1.5656939e+00
  1.4990033e+00
 -6.3421053e-01
  1.6047146e+00
 -9.3324281e-02
  1.5273979e+00
 -8.5681152e-01
  1.0037488e+00
  2.7596906e-01
  3.1173673e-01
 -1.4217622e+00
  3.0974570e-01
  1.7160201e+00
 -5.8732027e-01
  1.1373881e+00
 -1.2614604e+00
  7.2337765e-01
  8.9613301e-01
 -2.2590771e-01
 -1.3285276e-01
 -4.6004432e-01
  1.0049982e+00
  1.6328441e+00
  5.1458281e-01
 -1.6621013e+00
 -5.7124871e-01
 -5.6404829e-01
 -6.8196225e-01
 -4.9513903e-01
  1.6489166e-01
 -5.8180773e-01
 -1.5139197e+00
 -1.1912160e+00
  1.5221363e-01
 -4.4024915e-01
  9.3132240e-01
  1.7134491e+00
  9.5029587e-01
 -4.8900515e-01
 -2.4031739e-01
 -1.0067415e+00
  1.3981564e-01
 -5.9280199e-01
 -1.8910917e+00
  1.2716771e+00
 -3.6235858e-04
 -7.1786511e-01
 -4.5684323e-01
  2.5253415e-01
 -2.7495915e-01
  3.0936415e+00
 -3.6672583e-01
  2.9377189e-01
 -1.4021874e-02
 -1.8646263e-01
 -3.4153107e-01
 -7.0753258e-01
 -6.7554170e-01
 -6.3672072e-01
 -3.3664730e-01
 -1.0249428e+00
 -1.0823213e-01
 -7.6996642e-01
  7.0707262e-01
  1.4918967e-01
 -1.6632673e-01
 -1.0589126e+00
 -1.2707798e+00
  3.9574099e-01
  7.1915418e-01
  9.4728374e-01
 -7.5064719e-01
 -2.6560619e+00
 -5.4061037e-01
  9.5470481e-02
 -5.4548208e-02
  1.3608184e-01
  9.3191981e-01
  4.4982228e-01
 -1.7619739e+00
  3.8283622e-01
 -2.7189365e-01
 -3.5745621e-02
 -3.2069689e-01
 -6.9854781e-02
 -1.8243510e+00
  2.7877903e-01
 -7.0068866e-01
 -5.9949899e-01
 -5.3251451e-01
 -4.6016526e-01
 -3.9244881e-01
  4.1733959e-01
 -4.7507536e-01
  1.5899904e+00
  1.9624296e-01
 -3.7092933e-01
 -6.3550234e-01
  1.8225873e-01
  1.0598880e+00
  1.6996629e+00
  3.8894683e-01
 -4.0387329e-02
  1.5660755e-02
 -5.3538613e+00
  3.3894873e-01
 -4.9174356e-01
  8.7277234e-01
 -1.9534560e+00
  2.4578729e+00
  6.3725483e-01
 -4.5174252e-02
 -1.1577296e+00
  8.0358469e-01
  4.8301107e-01
  4.7194043e-01
 -5.7513452e-01
 -9.5375246e-01
 -1.1448735e+00
  1.1086125e-01
  6.4914352e-01
  2.1901708e+00
 -1.7746988e-01
 -2.2442678e-01
 -2.9313838e-01
  3.6443669e-01
  5.3855133e-01
 -1.0955039e+00
  4.5740977e-01
 -1.3665612e-02
 -3.5649231e-01
  4.5900270e-01
 -2.2199252e-01
  9.3979955e-02
 -2.6143706e-01
 -1.0129110e+00
 -8.7458593e-01
  9.8335797e-01
  2.3283531e-01
 -7.0670336e-01
  4.0510079e-01
  7.8802717e-01
 -7.8323627e-01
  5.8312005e-01
 -5.8523303e-01
  9.2763078e-01
 -5.7335418e-01
 -8.7992275e-01
 -1.8959695e+00
  2.5926609e+00
 -2.0066504e+00
 -1.1783403e+00
  1.0484523e+00
 -7.6624370e-01
  2.0731158e+00
  4.6118346e-01
 -9.3683504e-02
 -4.2531627e-01
  3.7084320e-01
  6.6139191e-01
 -1.0926169e+00
  6.1206508e-01
 -4.9538440e-01
 -3.2719672e-01
 -1.6347659e+00
  9.0515298e-01
  1.3783989e+00
 -6.0694939e-01
  1.3397090e+00
 -1.7805598e+00
  6.5952283e-01
 -3.3272249e-01
  6.5827245e-01
  1.4831728e-01
 -2.5163439e-01
 -3.1395668e-01
  9.6601719e-01
 -4.9928015e-01
  4.8137356e-02
  6.1843693e-01
 -3.1509701e-02
 -4.3152174e-01
 -1.3119736e+00
 -5.7805330e-01
  1.8149933e-01
 -6.0394055e-01
 -5.9996814e-01
  4.2240593e-01
  6.2290493e-02
  4.6103764e-01
 -1.5069500e-01
 -5.8734268e-01
  8.3832675e-01
  1.1999171e+00
 -1.1746047e+00
 -1.4356521e-01
  7.2738403e-01
 -1.8894407e-01
  7.9288656e-01
  2.5793757e+00
  1.7244530e+00
 -1.5349624e+00
 -2.1069832e-01
 -6.1807450e-02
  1.8715370e+00
 -3.2367256e-01
  2.9119548e-01
  2.2193642e+00
 -9.9202138e-01
  3.1369770e-01
 -8.2691413e-01
  5.6173217e-01
 -7.7058721e-01
  1.3588305e+00
  5.0628120e-01
 -6.8250442e-01
 -4.3305364e-01
  2.3425148e-01
 -8.4766650e-01
 -1.9884416e+00
 -1.6022582e+00
  1.8761544e+00
 -1.2378737e-01
  3.5283321e-01
 -1.7070438e-01
 -4.2623063e-03
  7.8948551e-01
  2.4669164e-01
  3.7675741e-01
 -1.0303754e-01
 -4.0989619e-01
 -1.5850848e+00
  7.2551894e-01
  3.6455203e-02
 -8.9458054e-01
  5.2299790e-02
 -1.1106098e-01
  1.3816646e+00
  1.4079411e+00
  2.2777972e+00
 -9.2765343e-01
 -2.5074261e-01
  1.3388222e+00
 -3.1612322e-01
  1.0718334e+00
  5.2056396e-01
 -8.8149816e-01
 -4.3887672e-01
 -4.1821100e-02
 -7.8002816e-01
  5.2923626e-01
 -1.8618826e+00
  3.4673971e-01
 -8.0094200e-01
 -1.6618690e+00
  9.4878644e-01
  1.1869668e+00
  2.1152976e-01
  5.5488414e-01
 -1.9068766e-01
  4.4277197e-01
 -9.8940814e-01
  1.2454690e+00
 -1.7382981e+00
  3.9200075e-02
  5.8339532e-02
  1.6471432e-01
 -6.7726660e-01
 -2.2374365e-01
  1.9112177e+00
 -1.0235866e-01
 -4.1323990e-02
 -1.4127879e+00
 -2.7287650e-01
  2.4550235e-01
 -5.3310490e-01
 -6.1052591e-01
  2.0472980e-01
 -6.3416100e-01
  4.9403322e-01
  8.7194473e-01
 -3.2049647e-01
 -4.8182318e-01
  4.2171830e-01
 -2.6433140e-01
 -4.2648524e-01
  2.7579468e-01
  1.5283811e+00
 -2.9802898e-01
  1.7727203e+00
  7.3724287e-03
  4.8971140e-01
 -3.9253771e-02
  4.4236815e-01
 -1.9858710e+00
  1.8268213e-01
  1.4430995e+00
  1.9976437e+00
 -6.3285518e-01
 -1.1693184e+00
  1.0053875e+00
 -2.5221366e-01
  1.1755809e+00
  1.4234763e-01
  2.1212649e-01
 -4.7124821e-01
 -1.1078682e+00
  8.2492703e-01
  4.7201958e-01
  1.2855961e+00
 -6.5159589e-01
  2.4954216e+00
  6.7154551e-01
 -1.4862009e+00
 -9.4588764e-02
  6.4138293e-01
  8.4572114e-02
  1.9714341e+00
  1.5690447e-01
 -1.2135909e+00
 -1.3468161e+00
  9.4269574e-01
 -4.7287375e-01
 -2.3320130e-01
 -1.1469956e-01
  9.7536224e-01
  5.2230400e-01
  2.1849774e-01
  3.3086812e-01
  1.4112878e-02
 -4.4172667e-02
  4.3793568e-01
  6.6305470e-01
  9.9728662e-01
  1.7150395e+00
 -1.1845878e+00
  1.7393343e-01
 -3.3292356e+00
  1.6279277e+00
  3.0207127e-01
  5.9172773e-01
 -8.6077467e-02
  7.0236552e-01
 -2.5910899e-01
  1.1904046e-01
 -6.4049214e-01
 -2.8602519e+00
  1.4502236e+00
 -2.0495875e+00
 -8.3965945e-01
 -5.2675396e-01
 -1.4152175e+00
  2.5096849e-01
 -1.4921629e+00
  7.1345687e-01
 -1.3696332e+00
  2.0618016e-02
  1.3505216e+00
  4.9015775e-01
  1.4162877e-01
  1.0568277e-02
  7.1753466e-01
 -1.4275186e+00
  7.3458719e-01
  3.1479087e-01
 -9.4627899e-01
 -4.5659998e-01
 -8.9232886e-01
  3.5846579e-01
  7.6514706e-02
 -4.6086898e-01
 -7.2063303e-01
 -1.6370364e-01
 -4.3132058e-01
  6.7929453e-01
  1.1127555e+00
  3.1063727e-01
 -9.4491881e-01
 -2.6271620e-01
  3.5394922e-01
 -3.9251563e-01
 -3.5133913e-02
 -8.4350772e-02
  6.9552940e-01
  2.8236787e+00
  7.7744764e-01
 -1.1394211e+00
  1.7081261e-01
 -1.1699213e+00
  1.7416078e+00
  1.1741934e+00
 -7.4571818e-01
 -7.3231345e-01
 -1.4684882e+00
  1.1536446e+00
  3.4154519e-01
  3.5329828e-01
  1.0188755e+00
 -4.0885031e-01
  2.7274644e-01
 -7.9803914e-02
 -8.4593467e-02
 -3.9249265e-01
 -1.0446101e+00
  2.9430842e-01
  4.0735686e-01
 -3.0438542e-01
 -8.3570832e-01
  8.1142914e-01
 -1.6839408e+00
 -3.7087873e-01
 -7.0749128e-01
 -1.3755670e+00
  1.9400601e-01
  1.9025400e+00
  1.1258802e+00
 -2.3993497e-01
 -2.7673185e-01
  3.0414969e-01
  5.0712794e-01
 -1.1144799e+00
  1.9695988e-01
  8.9071020e-02
 -1.5877730e+00
 -9.4684809e-01
 -1.2070616e+00
  4.6835160e-01
  2.9126316e-01
 -4.4946921e-01
 -6.2768203e-01
  9.9309641e-01
 -1.2528148e+00
 -2.5268215e-01
 -1.6677336e+00
  1.0881438e+00
  2.0887825e-01
 -1.6301661e+00
  4.2263317e-01
  1.0766271e+00
 -1.3869254e-01
  5.1567405e-01
  5.0353475e-02
 -1.7980666e-01
 -1.5451186e-02
 -4.0262780e-01
  8.9237735e-02
 -2.8322706e-01
  4.6875122e-01
  3.0572626e-01
  4.2215109e-01
  6.2374428e-02
  1.0283039e+00
 -1.3567544e+00
  1.1300483e+00
  3.7206702e-02
  2.4184704e-01
  5.5178076e-01
 -3.8873893e-01
  1.0294299e+00
 -1.2237650e+00
 -4.8142475e-01
  3.2637450e-03
  1.3101064e+00
  4.0218774e-03
 -1.6603680e+00
  7.5531781e-01
 -9.2778933e-01
  6.7867619e-01
 -2.3382979e-02
  3.7841061e-01
 -3.0366391e-01
  1.2372451e+00
 -4.1051173e-01
  2.9100117e-01
 -2.2180493e-01
 -5.9173012e-01
 -1.3552244e-01
  2.7253845e-01
 -8.1114244e-01
 -1.1050342e+00
  3.5331312e-01
  1.3541462e-01
 -7.8729898e-01
 -3.9102322e-01
 -1.4640133e+00
 -5.0298285e-02
 -6.1658150e-01
  3.6446452e-01
 -1.0938640e+00
  1.2353550e+00
 -3.7223738e-01
  1.8776799e+00
 -2.2091185e-01
 -1.1215028e-02
 -1.3555929e-01
 -7.5664586e-01
  7.0501500e-01
  3.0796680e-01
 -2.0948943e-01
 -4.1081199e-01
  8.5085082e-01
 -3.9334419e-01
  6.9118249e-01
 -6.6507703e-01
 -2.8188573e-02
 -3.9175779e-01
  1.8304621e+00
 -4.8162708e-01
  6.5351892e-01
 -5.4340398e-01
  1.3552936e+00
 -6.3639170e-01
  2.8908971e-01
  1.1389157e+00
 -5.9676933e-01
  8.8726634e-01
 -3.0359963e-01
 -3.5004747e-01
  2.7617589e-01
 -7.1230137e-01
 -3.5883105e-01
 -1.1296315e-01
  1.0936015e-01
 -5.5740261e-01
 -5.0129586e-01
  3.5849658e-01
 -2.0968127e-01
 -6.3943267e-01
  6.8760091e-01
 -5.2116793e-01
 -9.8952734e-01
 -1.1469786e+00
  6.4659995e-01
 -5.0302649e-01
 -6.0381675e-01
  1.7099372e-01
  8.1889763e-02
  4.5484155e-01
  3.1964444e-02
  4.1536927e-01
  9.9247228e-03
 -8.7682194e-01
  5.1373345e-01
 -2.3823537e-01
  1.0277164e+00
  5.6987268e-01
 -1.4757544e-01
 -7.2921091e-01
 -2.2922435e-01
  4.5943242e-01
 -1.4450604e-01
  1.3635347e+00
 -1.1562855e+00
 -1.0169555e+00
  4.5622304e-01
  4.1266766e-01
 -6.3127351e-01
  7.2899801e-01
  9.5404714e-01
  4.1075414e-01
 -3.9225355e-01
  1.1282514e+00
  1.1228800e-03
  4.1382685e-01
  5.2977955e-01
 -9.2622119e-01
 -8.2183200e-01
 -1.8226553e-01
  2.9067731e-01
  1.8872045e-01
 -2.8722489e-01
  1.1438009e+00
 -6.2317885e-02
  5.6570452e-01
 -1.0315945e+00
  4.8486072e-01
 -8.8348681e-01
 -5.4632509e-01
 -3.5139449e-02
  1.4430851e-01
  4.4074598e-01
 -2.6852995e-01
 -2.1265036e-01
 -1.5299304e+00
  8.1150854e-01
  9.4212398e-02
 -8.3903426e-01
  8.2841361e-01
 -5.9319359e-01
  1.0499133e+00
 -5.4691190e-01
 -1.0553502e+00
 -1.9125322e-01
  1.6537663e+00
  3.9162284e-01
  2.1556386e-01
 -1.1887162e+00
 -2.2510897e-01
 -3.0733934e-01
 -8.7290145e-02
 -3.5847318e-01
 -6.1456454e-01
 -1.8084921e-01
  1.4085504e-01
  7.3737985e-01
 -2.3515905e-01
  3.2521820e-01
  7.5844966e-02
  9.5387501e-01
  5.6423675e-02
 -1.7757019e-01
 -9.6654874e-01
 -2.5243577e-01
 -2.6814294e-01
  6.8268073e-01
 -1.6468406e-01
  3.6802003e-01
  5.0864631e-01
 -6.8308198e-01
 -7.5182639e-02
  2.9209861e-01
 -7.3330194e-02
 -1.2120064e+00
 -2.8728208e-01
  3.5929254e-01
 -1.7810631e-01
  6.5586805e-01
  4.5125403e-02
  9.8801620e-02
 -4.3117911e-01
  7.9270196e-01
  2.3058403e+00
 -1.8127632e+00
 -1.7568147e+00
 -1.3736666e+00
 -1.1010757e-01
 -8.1818926e-01
  8.2605696e-01
  7.1313217e-02
 -3.4157389e-01
 -4.8488843e-01
  1.1996482e-01
 -7.0635635e-01
  8.3295661e-01
 -5.5676472e-01
  8.6895388e-01
  4.1437250e-02
  1.1891574e+00
 -3.9194480e-01
 -8.9044750e-02
  3.6421847e-02
  6.6489941e-01
 -1.2511128e+00
 -6.3894629e-01
  2.4271649e-01
  8.3692396e-01
  9.6355426e-01
  8.0078787e-01
  4.3852931e-01
  9.6953285e-01
 -2.1291164e-01
 -1.9099186e-01
 -5.4274291e-01
 -1.0615112e+00
 -3.3561158e-01
  2.8929818e-01
 -1.3329087e-01
  2.6800084e-01
 -3.8340497e-01
 -2.8488535e-01
 -9.0199953e-01
  3.4537846e-01
  5.5522736e-02
  2.2500594e-01
 -2.5585639e-01
  5.7035542e-01
  6.3799930e-01
  6.2988989e-02
 -1.5221032e+00
 -1.0829167e+00
 -2.1468935e+00
  9.4809163e-01
  1.5730549e+00
  9.9062890e-01
 -7.4147776e-02
  1.9408835e-01
  1.0126730e-01
 -4.2089786e-02
  1.2826719e-02
  5.9797692e-01
  1.0180768e+00
 -6.5252949e-03
  8.0532205e-01
  1.9948980e-01
 -6.4467683e-02
  6.9384500e-02
  3.7104800e-01
  5.2645737e-01
  1.8292031e-01
  5.3606367e-01
  5.8964568e-01
  1.2106443e-01
  6.0115602e-02
  2.5527689e-01
  2.7993393e-01
  5.7929177e-02
  1.0162500e+00
  3.2344759e-01
 -1.2012673e-01
  3.3154482e-01
  2.0672584e-01
  4.7424290e-01
  4.9839094e-01
  8.1464231e-01
 -1.5562035e-01
 -2.0650464e-01
  1.6882287e-01
  1.4378357e-01
  1.9283327e-01
  1.2080506e+00
  1.3382839e-01
  3.2782024e-01
  2.8571464e-02
 -5.8535755e-01
  5.4992664e-01
  8.1297654e-01
  1.0915868e+00
 -1.3496944e+00
  3.1215429e-01
 -1.1261017e+00
 -2.6197883e-01
  2.9502344e+00
 -6.6729528e-01
  1.1685656e+00
  5.4272145e-01
 -5.1061720e-01
  7.7265006e-01
  1.2986884e-01
  1.6171186e+00
  5.3340864e-01
 -8.5161906e-03
  2.1639107e-02
 -5.1301605e-01
 -8.4306091e-01
 -5.8407897e-01
  6.5430230e-01
  5.9466296e-01
  3.7667331e-01
  6.2337852e-01
 -3.2635137e-02
 -3.3444601e-01
  9.0300530e-01
  1.0615461e-01
  2.8947136e-01
 -3.9631292e-01
  1.0372558e+00
  4.2469484e-01
 -7.9661942e-01
  3.3485979e-01
  4.9694315e-02
 -1.1783761e+00
  4.2671931e-01
 -1.9297223e-01
 -4.3505691e-02
 -4.4863322e-01
 -8.2921594e-01
  3.5207617e-01
 -1.4333730e+00
 -1.4484099e-01
 -3.9175990e-01
 -1.9477008e-01
 -4.3131647e-01
 -1.2972514e-01
  1.2980434e+00
 -4.5716252e-02
  3.5725915e-01
 -4.6762359e-01
 -1.6290088e+00
 -3.3203036e-01
 -1.1977793e-01
 -3.5068117e-02
 -6.1351955e-01
 -2.4284657e-02
  1.2873092e+00
 -4.5645025e-01
 -5.7398701e-01
  2.3001073e-01
  3.1046906e-01
  5.6612366e-01
  5.4762149e-01
 -3.6476132e-02
  2.0188825e-01
 -6.8445593e-01
 -7.5600618e-01
 -3.4661330e-02
 -1.1474780e+00
  5.4565418e-01
  1.0176463e-01
  9.1217536e-01
  5.3151417e-01
  1.5185596e-01
 -2.7749923e-01
 -3.9438146e-01
 -1.9833210e-01
 -1.1223004e-01
  8.2272941e-01
 -1.3089716e+00
  1.2051972e+00
 -1.5970316e+00
  5.3976017e-01
 -6.6795886e-01
  2.0076695e-01
  4.4579130e-01
  5.0549352e-01
  7.9368919e-01
  3.6061770e-01
  1.9912507e-01
 -4.8964417e-01
  7.5162721e-01
 -7.7400976e-01
 -1.9973212e-01
 -4.5736384e-01
  1.6257352e-01
 -7.8351122e-01
 -1.5366291e+00
 -8.7233669e-01
  6.9288909e-01
  1.9290808e+00
  2.3975682e+00
  5.0702947e-01
  3.5178778e+00
  2.7599272e-01
  1.1570129e+00
  4.0988657e-01
 -5.9438612e-02
 -1.4877878e-01
 -8.2860070e-01
  3.5656467e-01
  3.3286592e-01
  5.3864294e-01
 -9.2954302e-01
 -1.1164987e+00
  1.2900114e-01
  4.0075016e-01
  1.9291279e-01
  9.3419224e-01
 -1.2475302e+00
  1.7153117e-01
  7.0572752e-01
 -3.0121493e-01
 -5.9811902e-01
  3.1701854e-01
  4.5637426e-01
 -9.3245441e-01
 -1.9993839e-01
  1.6409948e-01
 -6.7921245e-01
  6.0396069e-01
 -6.8891954e-01
  1.1989375e-01
 -2.8955314e-01
  2.9495808e-01
 -6.7409497e-01
 -2.7294924e-02
  3.2816932e-01
 -1.1112965e+00
 -8.9692336e-01
 -9.6886015e-01
  3.1873560e-01
  9.7931661e-02
  6.3700783e-01
  8.6500514e-01
  1.4414606e+00
 -4.6313265e-01
  2.3823266e+00
  5.5852282e-01
  2.8658714e+00
 -2.1841896e+00
 -1.6649692e+00
 -1.7006292e+00
  1.6702949e-01
 -1.8150987e-01
  1.5044244e-01
 -4.9234492e-01
  1.2955628e-01
  9.5778084e-01
 -8.3970703e-02
  5.5390567e-01
  3.8960457e-01
  2.0232749e-01
 -9.1047919e-01
 -2.3461974e-01
 -1.3167517e+00
  1.7065316e+00
  1.4949359e+00
 -9.2450160e-01
 -9.5173404e-02
 -1.1741127e+00
 -3.1138441e-01
  4.8832193e-01
 -9.8271245e-01
  1.4381702e+00
  1.2783010e+00
  4.9223164e-01
  1.3729314e+00
 -8.5881972e-01
 -9.7540951e-01
 -1.5001976e-01
  9.9081665e-01
 -5.1512134e-01
 -3.6157227e-01
 -6.9162548e-02
 -3.7535095e-01
 -6.3955137e-03
  3.0098599e-01
  1.6775177e-01
 -1.6949685e-01
 -4.7541526e-01
  6.5191537e-01
 -4.0169081e-01
  1.2893671e+00
  2.5170299e-01
  6.0424852e-01
  1.1201735e+00
  5.0148821e-01
  1.0827433e+00
 -5.9319717e-01
 -1.0358707e+00
  2.0340791e-01
 -1.0514226e+00
 -1.2070582e+00
  1.4984001e+00
  6.3251984e-01
 -1.8237302e-01
 -1.4257226e+00
 -8.4549713e-01
 -1.5666175e-01
 -8.2982808e-01
  1.1096976e+00
  5.0547367e-01
 -2.2072099e-01
 -3.5975349e-01
 -7.4600124e-01
 -9.0778512e-01
 -2.0626328e+00
  2.1576693e+00
  1.3086373e+00
 -1.4123157e-01
 -9.4100279e-01
  9.3193442e-02
  4.1282129e-02
 -2.3706410e+00
  1.0405637e+00
  8.0904508e-01
 -5.1629609e-01
 -5.8197433e-01
  6.8670166e-01
  6.7083383e-01
 -4.3120268e-01
  6.9988704e-01
 -2.7588630e-01
  1.8393161e-02
  4.2062595e-01
  9.2497088e-02
  2.5479898e-01
 -3.4725833e-01
  7.7621377e-01
  8.1577158e-01
 -7.4897927e-01
  6.5597552e-01
  5.4897183e-01
  1.3806681e-01
 -6.9782436e-01
  2.4819548e+00
  8.3877259e-01
 -6.9598603e-01
  3.4593946e-01
 -1.6955048e-01
  6.7080092e-01
  9.2428505e-01
 -1.0620939e+00
  4.4625275e-02
  8.8681823e-01
  9.6880030e-03
  1.1847087e+00
  2.1053944e+00
  1.1389881e+00
 -8.9692754e-01
  2.4636294e-01
  2.3121890e-01
  2.5953323e-01
  2.0045173e+00
 -1.2053003e+00
  3.8644642e-01
 -5.2384239e-02
 -4.6945471e-01
 -1.0025808e+00
 -1.4517091e-01
  1.6872344e+00
  1.2058647e+00
  1.1523034e-01
  4.4727078e-01
 -2.7191448e-01
  1.8140107e+00
 -1.9713032e+00
  5.4540956e-01
 -5.5195814e-01
  2.3515309e-01
  1.0007355e-01
 -1.3012437e+00
  1.2504528e+00
  3.0957383e-01
 -7.7407652e-01
 -3.2859758e-01
 -3.0059013e-01
 -2.4327353e-01
  2.7711973e-01
  4.0600020e-01
  8.7066001e-01
  3.7116431e-02
  5.1475835e-01
  2.9695663e-01
 -1.5763186e+00
  1.1907992e+00
  5.2658272e-01
  1.3329753e+00
 -6.1828530e-01
 -1.4129712e-01
 -5.9352249e-01
 -5.8710963e-01
  3.0841631e-01
 -6.6901821e-01
 -3.4857702e-02
 -3.5199139e-01
  9.1117632e-01
 -3.1874418e-01
  5.3403306e-01
  6.1274809e-01
  7.9107350e-01
 -7.4061298e-01
  1.2334448e+00
 -4.5300391e-01
  1.6456857e-01
 -9.5911926e-01
  1.1165386e-01
  6.4420354e-01
 -6.0823131e-01
  1.5962543e-01
  4.9676815e-01
  9.5772141e-01
  4.7424346e-01
 -4.7587761e-01
 -6.6292709e-01
  1.1906546e+00
 -3.7045303e-01
 -5.4257798e-01
 -1.3927760e+00
 -5.3188598e-01
  1.1588603e+00
  1.8714358e-01
  8.0137372e-01
 -1.0553636e-01
  1.5305018e+00
  2.4862352e-01
  8.5329741e-01
 -8.3532162e-02
  6.5275037e-01
 -3.0393386e-01
 -1.1029139e-01
  5.2657600e-02
 -3.5483071e-01
  5.5238497e-01
 -1.0801746e+00
  1.5465466e+00
 -7.4445195e-02
 -1.9625753e+00
  2.7920008e-01
  1.8318090e-01
  1.6706245e-01
 -7.4131465e-01
  4.6774682e-02
  3.6950859e-01
  2.5402671e-01
  2.2240235e-01
 -1.3956527e-01
  6.6353492e-02
 -5.8430296e-01
  8.8453496e-01
  6.0343164e-01
 -8.3946854e-02
 -4.9503922e-01
 -2.0996134e-01
  1.1891110e+00
  1.7330270e+00
 -9.6474367e-01
 -2.2820832e-01
  1.7737216e-01
  9.3508011e-01
  2.7738976e-01
 -5.0162023e-01
 -3.7190849e-01
  9.4603705e-01
  1.0099849e+00
 -4.0745166e-01
 -5.1293457e-01
 -4.6226031e-01
 -4.8916978e-01
 -3.5391904e-02
  2.9151684e-01
 -1.0480447e-02
 -4.8839381e-01
  1.1456914e+00
 -4.7238642e-01
 -1.7949945e-01
 -4.1414440e-01
 -1.1973634e-01
 -4.0015998e-01
 -4.6681702e-01
 -3.8187894e-01
 -1.3205687e+00
  1.3173479e+00
 -6.1199301e-01
  1.8239902e+00
  6.4276409e-01
  3.8635311e-01
  2.4994414e-01
  3.5383558e-01
 -1.9289012e+00
  2.1849407e-01
 -6.2840116e-01
  9.9133325e-01
  1.0299124e+00
 -2.7157897e-01
 -3.3592036e-01
 -5.4811352e-01
  5.6317073e-01
  8.5567707e-01
  3.2700448e+00
 -1.5609816e+00
 -1.2182606e+00
 -4.3022785e-01
 -1.2395802e+00
 -3.8375440e-01
  3.0829886e-01
 -1.1992155e+00
 -1.5611868e-01
  5.9531611e-01
 -8.7334234e-01
  4.6082720e-01
  1.4038818e+00
  3.8636166e-01
  2.6878008e-01
  1.1577204e+00
  1.6153845e-01
  6.8173176e-01
 -2.8411800e-01
 -6.4681130e-03
 -1.9899492e-01
 -6.2716782e-01
  4.8249286e-01
  4.1314623e-01
 -9.2050689e-01
  9.2756748e-01
 -2.0551115e-01
  7.2008878e-01
  8.6580247e-02
 -1.5534373e-01
 -2.3399806e+00
  4.9146285e+00
  7.2705948e-01
  6.2672324e+00
 -2.5810487e+00
 -2.5263703e+00
 -1.8561767e+00
  1.4031509e-01
 -1.5180250e-01
 -7.9921603e-01
 -2.0284931e-01
  2.5214407e-01
 -5.2840199e-02
  3.7423741e-02
 -6.7622572e-01
 -1.5678918e+00
 -2.7502060e-01
 -5.3507447e-01
 -3.9393950e-01
 -1.3048196e+00
  1.3250494e+00
  1.2614578e+00
  8.0072320e-01
 -3.9632890e-01
 -1.9224259e-01
 -2.5617557e-02
  1.2562085e+00
 -3.8213247e-01
 -1.5338013e-01
  4.8954824e-01
 -4.7359711e-01
 -1.5562578e+00
 -1.0930352e+00
 -1.1534843e+00
 -1.0652438e+00
 -6.1153010e-02
 -3.9362574e-01
  3.4287982e-02
  1.7464066e-02
 -2.7630576e-01
  3.4551123e-01
 -3.1793883e-01
 -2.6488937e-02
  1.0796412e-01
 -6.5906179e-01
 -1.4314255e-01
  2.8153086e-01
 -3.0425805e-01
  5.2377713e-01
 -4.0665781e-01
  9.8583740e-01
 -1.2173514e+00
 -1.3172942e+00
 -1.1160852e-01
  1.4268380e+00
  9.6507972e-01
 -4.6707493e-01
  3.8335210e-01
 -1.9606808e-01
 -5.3921938e-01
  6.9340390e-01
  3.9308766e-01
  2.3017901e-01
  6.8282431e-01
 -8.2594573e-01
 -3.8243577e-01
  8.5168421e-01
  3.5142180e-01
  3.7306860e-01
 -3.9662653e-01
  8.8696772e-01
  4.2487001e-01
  3.8497448e-01
 -6.1447762e-02
 -7.5561768e-01
  2.7642807e-01
  1.9897397e+00
  2.7232102e-01
  2.9101461e-02
  3.0418494e-01
  1.1386702e-01
  3.0681638e-02
 -9.4880575e-01
  1.1961913e-01
  1.7791150e-02
  2.0153457e-01
  1.2661946e+00
 -5.1096797e-01
 -1.2804717e-01
  2.2995937e+00
  2.1611176e-01
  1.0190426e-01
  1.7299487e-01
  5.2266055e-01
 -2.1527475e-01
  1.9965906e-01
  8.8300541e-02
  4.3976286e-01
 -1.8782106e-01
 -8.7503701e-01
  6.1463696e-01
  1.4071259e+00
 -6.8758631e-01
  1.2176189e+00
 -9.7803628e-01
  6.9687659e-01
  3.2841003e-01
 -8.7502934e-02
 -8.2945395e-01
  1.3120271e+00
  3.6369856e-02
  6.6654569e-01
 -4.3625718e-01
 -1.0139662e+00
 -6.1946446e-01
  4.8689425e-01
 -1.4171953e+00
  4.3090910e-01
  4.6808821e-01
  1.2384245e-01
 -1.0080960e+00
  6.7312777e-01
  3.4925535e-02
 -4.9049309e-01
  2.8195176e-01
  6.1997300e-01
  6.6076034e-01
  2.7298063e-01
  5.4750222e-01
  8.3863020e-02
 -2.8632641e-01
 -3.8177487e-01
  3.1378439e-01
 -6.2193638e-01
  9.0203315e-02
 -2.7190205e-01
 -5.0254274e-02
  3.4405923e-01
 -2.0619799e-01
  3.4844881e-01
  1.6515735e-01
 -3.2094476e-01
 -7.4533540e-01
  6.6838849e-01
  1.0827665e+00
 -7.2756189e-01
  1.2160889e+00
 -2.4673596e-01
  2.8615740e-01
 -4.1326702e-01
  3.6211669e-01
  1.9721085e-01
 -1.5019401e+00
 -8.1741756e-01
  1.8683556e+00
 -1.7839921e-01
  2.5543201e-01
 -5.8597630e-01
  6.9716948e-01
 -1.7581564e-01
 -1.0200931e+00
 -1.9393739e-03
 -5.0961572e-01
  1.9790773e-01
  5.3077575e-02
 -4.5471299e-02
  4.0800270e-01
 -1.6330279e-01
 -3.0244857e-01
 -5.5219477e-01
  3.6300308e-01
 -3.9499122e-01
  3.7032697e-01
 -1.1709617e+00
 -3.1730080e-01
 -2.0783202e-01
 -7.6249793e-02
 -3.3898249e-01
 -1.2064432e-01
 -2.5496179e-02
 -9.4323605e-02
  1.8819423e-01
  5.0222039e-01
  3.0833387e-01
  4.0204272e-01
  2.3830023e-01
  1.4279592e+00
  5.6877327e-01
 -2.3736963e-01
  2.2966002e-01
 -4.9517509e-02
  1.4436488e-01
 -1.0895899e-01
  1.5489696e-01
  2.3700583e-01
 -1.2769042e-01
 -1.2529058e+00
  9.6211201e-01
 -1.5510474e+00
  1.2689281e+00
 -7.6869041e-01
 -5.1234663e-01
  9.9912220e-01
 -1.0028096e-01
 -1.2524184e+00
  1.7322959e-01
  1.2123715e+00
  7.0915323e-01
  2.5346714e-01
  6.0392851e-01
  6.1605173e-01
  9.7774154e-01
 -9.3645521e-02
  1.3385291e-01
  6.8116444e-01
  4.7960261e-01
  3.2950979e-02
  8.1581539e-01
 -3.4476787e-01
 -6.4444798e-01
 -1.1623813e+00
 -5.9557927e-01
 -5.7825035e-01
 -7.2402573e-01
 -4.6482614e-01
 -2.3319179e-01
  5.6944472e-01
 -5.6066656e-01
 -1.2160255e+00
 -9.1187604e-02
 -1.5340315e-01
  1.9352642e-01
 -3.8398334e-01
 -4.7642383e-01
  1.4406326e+00
 -9.5737800e-02
  5.4523921e-01
  6.5830290e-01
 -5.7074803e-01
 -1.0773267e-01
  5.5726177e-01
 -9.7451866e-01
  1.3008276e+00
 -8.1085998e-01
  3.4270677e-01
  6.6464674e-01
 -2.2292097e+00
 -8.2096726e-01
 -9.1515094e-01
  1.2135627e+00
  1.2731223e+00
 -2.0217619e+00
  1.7711803e-01
  4.6423560e-01
  2.9453790e-01
  8.6428791e-01
  1.5605921e-01
  2.9223108e-01
 -8.3767109e-02
  7.4700278e-01
  5.2418309e-01
 -2.6242805e-03
 -5.8950895e-01
  1.0144429e+00
  1.0435087e-01
  6.2813061e-01
 -3.9295512e-01
  3.3892399e-01
  5.1763552e-01
  5.0769764e-01
  1.8793210e-01
  1.6714007e-02
  1.2107214e-01
  3.0031440e-01
 -3.6135274e-01
  5.2115202e-01
 -1.7985918e-01
  5.1947755e-01
  2.0599322e-01
 -2.1140204e-01
  2.2538908e-01
 -1.0514784e+00
 -2.7849620e-02
  3.4333602e-01
  3.3611864e-01
 -5.4274265e-02
 -3.2037511e-01
 -1.1987467e+00
 -3.9467704e-01
  6.3384706e-01
 -2.9921085e-01
 -1.0050051e-01
 -4.1691887e-01
  8.9322329e-01
  1.5201405e-01
  1.1791832e+00
 -1.2142364e+00
  6.3150758e-01
 -1.3557606e+00
 -4.0920639e-01
 -2.6118693e-01
 -8.9762017e-02
 -9.8843873e-01
 -3.4882566e-01
 -4.4785991e-01
 -2.3052914e-01
  2.8270099e-02
 -9.3676156e-01
  1.4047684e-02
 -2.7724562e+00
 -1.1552447e+00
  3.5155562e-01
 -6.9935620e-01
  1.8834265e+00
  3.2200983e-01
 -3.9979395e-02
  1.7557119e+00
 -1.1988258e-01
 -6.5143156e-01
  1.7361857e+00
  1.1359603e+00
 -9.6041644e-01
 -6.5645009e-02
 -2.8610089e-01
  4.6874709e-02
  1.2004368e-01
 -1.5917500e+00
 -8.3289021e-01
 -9.5006913e-01
  5.4462093e-01
 -1.0069188e-01
  1.3015229e+00
  5.3511452e-02
  5.5876040e-01
 -1.7457682e-01
 -3.7256411e-01
 -5.6799310e-01
  2.3609074e-03
  1.4597172e-01
  3.4161079e-01
  6.1182350e-01
  5.5977601e-01
 -3.3438814e-01
  2.5368658e-01
 -1.3071303e-01
  3.8605053e-02
  9.3254948e-01
  5.2285409e-01
  5.5906564e-01
 -7.6733261e-02
 -3.1698826e-01
  6.4675230e-01
 -2.1918537e-01
 -2.9191321e-02
 -9.4460689e-02
  4.5274979e-01
  2.3123989e-01
  2.8528246e-01
 -2.8293476e-01
 -9.1042608e-01
  1.1332895e+00
  1.5400665e+00
 -1.7183845e-01
 -3.9491454e-01
  6.0606029e-02
 -1.6905381e-01
 -8.9917040e-01
  4.1192281e-01
 -2.0865034e-01
  4.1500542e-01
 -1.2052931e-02
  5.8733553e-01
  6.3434452e-02
  1.3698611e-01
  6.9202518e-01
 -1.4705239e-01
 -2.3536268e-01
 -2.0233348e-01
  3.3672932e-01
  5.1813889e-01
  1.1072781e-01
  4.0643346e-01
 -3.7393057e-01
 -5.3043687e-01
  3.8284791e-01
  1.1557874e-01
  6.4448617e-02
  1.6274104e+00
 -2.8352478e-01
 -3.9540678e-01
  7.2677851e-01
 -5.0067413e-01
 -7.1554822e-01
  3.4089410e-01
  4.2481637e-01
 -3.6208549e-01
 -4.5110539e-01
  8.1810617e-01
  1.2072466e-01
  4.0015340e-01
  9.6774727e-01
 -7.4353462e-01
 -4.2819473e-01
  1.1238467e+00
  5.1179451e-01
  1.6411826e-01
 -2.4359731e-01
 -5.5694598e-01
 -7.1931697e-02
  5.2911389e-01
 -6.8723273e-01
  6.9173980e-01
  4.1573179e-01
  2.8952006e-01
 -7.4623460e-01
 -1.3102651e-01
  7.4946469e-01
 -6.3062614e-01
  1.3823028e-01
  7.5091875e-01
  5.3272903e-01
 -7.4337429e-01
 -6.3056038e-03
 -1.2737425e-01
 -9.6257329e-02
  2.0163934e-01
 -6.4689291e-01
 -3.3001889e-02
  8.3392255e-02
  1.5070423e-01
 -4.9437699e-01
 -4.9669126e-01
  1.8592359e-01
  9.0332663e-01
 -2.7661651e-02
 -2.6971227e-01
 -5.0292999e-01
  5.6294519e-02
  4.1753575e-01
  4.8417658e-01
  4.7657636e-01
  8.3447081e-01
  4.5616558e-01
  2.1616714e+00
  1.2257690e+00
 -2.1004024e+00
 -7.1696866e-01
  5.3820176e+00
  4.7732028e-01
  1.0712870e-02
  6.5596497e-01
 -3.3527923e-01
 -4.4967040e-01
  6.5636891e-01
 -2.8272042e-01
 -1.5433675e+00
 -1.5948002e-01
 -4.6024555e-01
  1.4616361e+00
  3.1202394e-01
 -7.2351438e-01
  2.7016842e-01
  1.0725957e+00
  1.5244371e-01
 -3.4609070e-01
 -1.2974411e+00
  3.3886623e-02
 -3.5629261e-02
  1.7758178e+00
  3.3954152e-01
  2.2557114e-01
  4.8651737e-01
  5.3909159e-01
  1.4180065e+00
 -5.7538778e-01
  7.3176369e-02
  4.7133428e-01
  5.3534597e-01
 -1.0695078e+00
  2.2947095e-01
  1.2569380e-01
 -1.2934713e+00
 -4.8486310e-01
  3.4459496e-01
  7.3475754e-01
  2.7436757e-01
  2.6359352e-01
  2.4348709e-01
 -4.7225615e-01
  3.8077578e-01
  6.0851902e-01
  1.2531880e+00
  1.5749123e+00
  4.5107126e-01
 -2.7659362e-02
 -2.8002410e+00
 -1.5331146e+00
 -6.3876504e-01
  5.2794415e-01
  6.3091308e-01
  9.4103992e-01
  1.0332843e+00
 -6.2961829e-01
 -1.3317828e+00
 -6.0253903e-02
  5.1957406e-03
  2.9087174e-01
  3.7872094e-01
  1.1181536e-01
 -1.6021328e+00
 -1.4586872e+00
 -1.7935539e+00
 -1.9963533e-01
 -7.9500169e-01
 -1.3615565e-01
  3.0836850e-01
 -1.5464444e-01
 -2.7788296e-01
 -2.1443521e-03
 -6.5795094e-01
 -1.6926762e-01
 -1.0768147e+00
  3.9009564e-02
 -1.0481957e+00
 -5.2676028e-01
  1.5095049e-01
 -1.6831554e-02
 -2.1821588e-01
 -5.7692754e-01
  2.3183373e-01
 -5.4266173e-01
 -8.7493223e-01
  3.3973575e-01
 -6.4485657e-01
  5.6864041e-01
 -2.1086814e-01
  2.7972311e-01
 -9.1625161e-02
  5.2969426e-02
  9.2302196e-02
 -8.3234173e-01
  3.5488343e-01
  7.7448243e-01
 -1.4568498e+00
  5.8134061e-01
 -2.0085154e+00
  3.8388821e-01
 -1.6504015e-01
 -1.0332399e-01
  2.1024513e-01
  1.1270376e-01
  1.2832719e-01
  3.3541003e-01
 -4.1226608e-01
  9.2694974e-01
  9.1023332e-01
  6.5465845e-02
 -1.0042108e+00
  1.2945208e-01
  7.6067001e-01
  2.9619187e-01
  2.1849573e+00
 -5.4177314e-01
  1.3882532e+00
 -5.5392835e-02
 -7.6631671e-01
  2.7140468e-01
  1.3977767e+00
  6.3438460e-02
  2.6243094e-01
  9.3819332e-01
  6.9428223e-01
  3.8293284e-01
  2.0361517e-01
  5.0467354e-01
 -5.1736455e-02
  4.7912228e-01
  8.0971903e-01
 -5.5931431e-01
 -3.2075156e-02
 -9.8967022e-01
  3.8985780e-01
  3.6391437e-02
  8.2085598e-01
  2.6434368e-01
  4.0924582e-01
  4.8377657e-01
  7.5172663e-01
  7.8691357e-01
  6.1091870e-01
  4.8245329e-01
  4.6202478e-01
  6.4246249e-01
 -8.3168977e-01
 -1.1802467e-01
  3.0189404e-01
  2.7427530e-01
  2.8241414e-01
  2.4497218e+00
 -1.7434171e-01
 -2.3392560e-01
 -7.2873449e-01
 -2.4942411e-01
 -1.2297766e-01
 -9.7782660e-01
  2.6591065e+00
  1.1931068e-01
  2.2334312e-01
  3.2711171e-02
  1.1117560e+00
  2.6171319e+00
  1.5470130e+00
  2.3319314e+00
  1.0271665e+00
  8.7186295e-01
 -1.5441718e+00
 -5.1272899e-01
  2.7109686e-02
 -8.3719498e-01
  1.8557194e+00
  1.3819937e-01
  7.0401505e-02
 -2.8302211e-01
  1.1375974e-01
 -4.2897165e-01
 -1.4481285e+00
 -1.4179580e+00
 -1.9233215e-01
  1.4307847e+00
  1.2766964e+00
  5.5765301e-01
 -6.1976779e-01
  3.5702288e-01
  1.3893534e+00
 -2.9603603e-01
 -5.7302243e-01
  2.4028015e-01
  1.8217389e-01
 -2.5139883e+00
 -1.0195860e+00
 -3.7535019e-02
 -6.6306669e-01
  9.5950967e-01
 -3.3028612e-01
  7.0671129e-01
 -2.2388013e-01
  9.8453838e-01
 -7.9031959e-02
 -7.5773579e-01
 -1.2091944e+00
 -8.9485514e-01
 -5.6553859e-01
  2.9735443e-01
  4.2787173e-01
 -7.9209340e-01
  3.6097646e-01
 -9.6279770e-02
  1.4759669e+00
 -3.8605335e-01
 -7.6507586e-01
 -6.5161669e-01
 -9.1924779e-02
 -9.2588425e-01
  1.0272857e+00
  5.3995293e-01
 -7.3207223e-01
 -2.3188095e+00
 -3.3431077e-01
  8.9315736e-01
  1.4312695e+00
 -6.9164127e-01
 -1.0820654e-01
 -1.3444340e+00
 -5.8237088e-01
 -1.0480795e+00
  1.8572129e-01
  9.2191815e-01
  1.1279361e-01
  6.9803226e-01
 -7.4458539e-01
 -3.4275401e-01
 -5.7391995e-01
  2.5312158e-01
 -2.2338900e-01
 -7.5475538e-01
  4.2901704e-01
 -6.3155740e-01
 -5.3258258e-01
 -9.0510175e-02
 -4.6841681e-01
 -6.6420138e-01
  4.3182377e-02
 -4.2050779e-01
 -8.6935401e-01
 -5.3684139e-01
  1.3300196e+00
 -3.4248510e-01
 -6.0102308e-01
  4.8279467e-01
  3.8166872e-01
 -8.8087320e-01
 -3.8283297e-01
  2.3090681e-01
  2.0872092e-01
  7.2769821e-01
 -3.1196734e-01
  8.1871015e-01
  1.1330564e-02
 -8.5019523e-01
 -2.9585892e-01
  3.7825966e-01
 -2.7928049e-02
  7.9339767e-01
  3.5079989e-01
 -1.1457816e+00
  1.3800114e-01
  7.8449535e-01
  5.6598764e-03
 -1.3493659e-01
  5.6416556e-02
 -5.6151265e-01
 -1.4812063e-03
  6.3062268e-01
 -8.1936255e-02
  5.8564550e-01
  1.9637419e-01
 -7.8807242e-02
 -4.5396492e-01
 -5.3747571e-01
 -3.3320448e-01
 -4.1036862e-01
  6.7583323e-01
  8.7742364e-01
 -7.0635313e-01
 -1.8066588e-03
 -8.2933538e-02
  1.0770590e+00
  3.4689370e-01
  5.0719100e-01
 -5.3692085e-01
  4.1008085e-01
 -9.1305560e-01
  1.6018595e+00
 -2.9459065e-01
  3.8944665e-01
  6.2641573e-01
 -2.1752006e-01
  6.8084997e-01
  7.4445188e-01
 -4.3909776e-01
  1.0890032e-02
 -1.4906633e+00
 -1.9772694e-01
  2.4510794e+00
  1.4344041e+00
 -1.0779359e+00
 -8.6476021e-02
 -2.7649668e-01
  9.8611462e-01
  2.8416696e-01
 -7.8840479e-02
  1.0613098e+00
 -3.5690048e-01
  1.0018955e+00
  4.4342038e-01
 -9.3782371e-01
  5.6368542e-01
  3.0495408e-01
  2.0830622e+00
 -1.8991400e-01
 -7.3965746e-01
  1.4743295e-01
  1.2041397e+00
 -1.2847145e-01
  5.9577674e-01
  6.6567349e-01
  5.7170343e-01
 -1.7722914e-02
 -4.5426112e-02
  6.4741755e-01
 -4.8267964e-01
  2.6430541e-01
  7.7489030e-01
 -7.6596200e-01
  4.3688527e-01
  1.2230529e-01
 -5.3047776e-02
  4.5957094e-01
 -3.9304253e-01
  6.6361076e-01
  1.3311442e+00
  4.4830164e-01
  3.4887427e-01
  9.6665427e-02
  3.3105154e-02
 -1.2184651e-01
  4.1503462e-01
  1.0573556e+00
 -5.6343472e-01
  6.3032568e-01
  3.1125516e-02
 -8.7552512e-01
 -1.9162603e-01
 -3.3192247e-01
 -7.6648134e-01
  2.3842750e-01
 -2.8066918e-01
  2.0630185e-01
 -8.1998509e-01
 -6.0713146e-02
 -3.8698277e-01
 -1.5817364e+00
 -9.0370667e-01
 -4.4368017e-01
  2.1548097e-01
 -2.1608900e-01
 -8.6187094e-02
 -9.2113358e-01
 -4.9349022e-01
 -2.7255805e-02
  4.3086278e-01
  4.0496704e-01
 -1.8389370e-01
 -1.2744992e+00
 -5.2628297e-01
  7.6287091e-01
 -5.3726703e-01
 -9.6127313e-01
  2.8625926e-02
  4.3216097e-01
  1.4684265e+00
 -2.8915316e-01
 -5.4419285e-01
  5.8126628e-01
 -1.0666208e-01
 -1.5500499e-01
  4.1163406e+00
  1.3381023e+00
 -1.7123274e+00
  1.7316806e-01
  1.2203180e+00
 -1.5570958e+00
  1.1632291e-01
  4.5405328e-01
 -2.0247486e+00
 -6.7332274e-01
 -2.8550491e-01
 -7.1892017e-01
 -1.1962420e+00
 -1.4129593e+00
  4.9645162e-01
  7.4493515e-01
 -4.4114420e-01
  8.6260045e-01
 -4.0176505e-01
 -1.1299722e+00
  3.4701598e-01
  5.1612276e-01
 -1.3232269e+00
 -7.6992810e-01
 -7.8589767e-01
  5.0808531e-01
  1.0714153e+00
  4.0204350e-02
  1.9371414e-01
 -9.1780379e-02
 -4.2038880e-02
  7.8750320e-02
  5.0885770e-02
  1.3222349e-01
 -5.0539166e-02
  4.8165292e-01
 -4.3002388e-01
  8.6666876e-01
 -3.5978830e-01
 -3.1726786e-01
 -5.6473017e-01
 -6.7475967e-02
 -4.2004019e-01
  5.0239062e-01
  3.9531955e-01
  9.7091675e-01
  1.4907022e+00
 -7.0640272e-01
 -1.3107156e+00
  1.1752793e-02
 -1.6834667e+00
 -6.8450645e-02
 -1.3225007e+00
  1.3927363e+00
 -1.0210678e-01
 -4.9098930e-01
  7.6657826e-01
 -1.3131188e+00
 -1.3137749e-01
 -1.1738912e+00
  6.2277848e-01
 -1.4216720e+00
 -6.8994075e-02
  1.4634675e+00
 -1.7620845e+00
  2.6871890e-01
 -5.8379465e-01
  1.7175543e+00
 -9.8289245e-01
  6.1003125e-01
  1.2600050e+00
 -5.6182295e-02
 -3.8779062e-01
  9.4931871e-01
  2.2188266e-01
 -5.9914190e-01
  1.6991088e+00
  4.8454714e-01
 -8.0034077e-01
  4.1321486e-01
 -1.1948849e+00
 -4.3879849e-01
 -1.8267740e-01
  6.2664402e-01
 -9.0042925e-01
 -4.3618703e-01
  1.7605182e-02
 -1.1472714e+00
  5.6720886e-02
  2.0272741e-01
  5.3751713e-01
  4.0068090e-01
 -6.5647900e-01
  7.0523530e-01
 -1.2429750e-01
  2.1160862e-01
  2.1682920e-01
 -9.7437257e-01
  6.3221681e-01
  4.6112242e-01
  1.8869840e-01
 -1.9355671e-01
  1.1017726e-01
  1.7377616e-01
  1.4502445e+00
 -9.8644450e-02
 -5.8901215e-01
 -9.6819764e-01
 -1.3198921e-01
  1.4261459e+00
 -1.4753870e+00
 -6.2229782e-01
 -7.5814909e-01
 -1.0893866e-01
 -1.1843338e+00
 -3.3994478e-01
 -8.5474730e-02
 -1.3941731e-01
 -3.6680639e-01
 -7.1353728e-01
  9.0410346e-01
 -9.0936166e-01
 -6.5771866e-01
  9.8650014e-01
 -1.2210381e+00
 -8.4305024e-01
 -3.2917830e-01
  3.4020815e-02
 -1.6813059e+00
  7.9074430e-01
 -4.3376461e-01
  2.2101702e-01
  3.1022808e-01
  3.1326795e-01
  2.1805681e-01
  2.7198449e-01
 -1.4809630e+00
  8.2038951e-01
 -9.3682341e-02
 -4.2283219e-01
 -2.5220573e-01
 -2.2967508e-01
  1.6368229e+00
  1.1208136e+00
  1.4876717e-01
 -1.0606652e+00
  1.6845763e+00
 -3.7613550e-01
  3.8540781e-01
  2.1286886e+00
  2.1832538e+00
  5.8390623e-01
  5.4050362e-01
  2.0805174e-01
 -2.1840923e-01
  1.0532696e+00
 -1.3387295e+00
 -5.1155126e-01
 -6.6937864e-01
  3.3540499e-01
  4.1519272e-01
 -2.3929662e-01
  5.4160410e-01
 -5.2019602e-01
 -2.8170878e-01
 -1.1867554e+00
  5.9040505e-01
 -1.2885681e+00
  7.5320506e-01
  1.3443112e-01
  4.9628366e-02
 -1.7522605e-01
 -2.9689646e-01
 -4.4203617e-02
 -1.5109265e+00
  4.1945529e-01
 -2.6610968e+00
 -2.7075030e-02
 -9.9410671e-01
 -1.3659638e-01
  4.7525766e-01
  1.8406330e-01
 -4.6469906e-01
  2.3117192e-01
 -6.0645610e-01
 -1.2720132e+00
  1.0025410e-01
  4.6754387e-01
  8.0536938e-01
  2.4495813e-01
 -9.6016866e-01
  1.2721324e-01
  1.6350359e-01
 -5.6679964e-01
  3.9341137e-01
 -1.0799019e+00
 -2.3928957e+00
 -1.0971713e+00
  9.9179757e-01
 -7.4274689e-01
 -5.8690518e-01
 -7.4930161e-02
  2.8261423e-01
  3.8777897e-01
  3.5566071e-01
 -6.1073430e-02
 -7.0567840e-01
  3.4863210e-01
 -5.2224898e-01
 -2.4532533e-01
 -4.9225402e-01
  4.5597725e-02
 -1.3338147e-01
 -9.5745504e-02
 -6.7462355e-02
 -5.3042793e-01
 -4.7309569e-01
  5.1360065e-01
 -1.4849144e+00
  2.5023898e-01
 -3.3641241e-02
 -7.0781028e-01
 -5.9047095e-02
  3.7753940e-02
  9.2419690e-01
  8.3819705e-01
  5.5261052e-01
  1.0521032e+00
  8.0608553e-01
  6.3262358e-02
 -9.0134248e-02
  4.6035203e-01
 -7.8342748e-01
 -2.4512427e-02
 -1.5525082e-01
  1.2746604e-01
  1.6121168e-01
  9.8328656e-01
 -4.4288501e-01
  2.2577902e-02
  7.5225049e-01
 -4.2877144e-01
  1.3552115e+00
 -3.0260422e+00
 -2.5124035e+00
 -1.7302711e+00
  5.2809215e-01
  2.5746486e+00
 -1.6252007e+00
  5.7406825e-01
 -2.8503421e-01
  9.1239679e-01
  2.6550691e+00
  1.4405905e+00
 -1.2270090e-01
  1.4503443e+00
  7.3469287e-01
  8.0696076e-01
  1.4945837e+00
 -7.2779268e-01
  3.3929768e-01
 -8.1917781e-01
  1.2880902e+00
  3.5592011e-01
 -2.9274595e-01
 -4.5118251e-01
  4.4774640e-01
  1.6338542e+00
 -1.5967162e+00
  6.4076781e-01
 -8.2543004e-01
 -4.6585923e-01
  7.3869616e-01
  2.1341019e+00
  5.6088793e-01
 -1.5115418e+00
  1.1140639e+00
  7.7154690e-01
 -8.9242321e-01
  7.1938324e-01
 -1.5832963e+00
 -1.6935822e-01
  9.9847518e-02
 -8.8286138e-01
  4.8465565e-01
 -1.6054401e-01
  9.3026936e-02
 -3.4554418e-02
 -4.9949804e-01
 -6.7615736e-01
  1.5945375e-02
 -1.8921246e-01
 -6.2320048e-01
  1.7101918e+00
 -2.5151923e-01
  4.2483401e-02
  2.8374389e-01
  2.7991053e-01
  1.7323889e-01
  3.1287298e-01
 -7.3851347e-01
 -1.2207359e-01
  7.3445126e-02
  2.9297745e-01
 -6.2812746e-02
 -1.0283026e+00
  2.9695404e-01
  2.2408113e-01
  9.1788316e-01
  1.4660829e-01
  6.2283188e-01
 -2.4349189e-01
  2.6159438e-01
 -2.8223252e-01
  6.4347005e-01
 -1.2987581e-01
  2.9729995e-01
  2.4695272e-02
 -9.9015549e-02
  8.9546978e-01
  6.6532093e-01
 -3.3913806e-01
  3.4280953e-01
 -4.0972030e-01
  3.4910175e-01
 -1.0726760e-01
 -9.4473946e-01
 -5.2108675e-01
 -3.0286241e-01
 -8.8114136e-01
 -6.5729725e-01
 -9.7034222e-01
 -6.1606205e-01
  5.8667481e-01
  1.7886309e-01
 -1.7831533e+00
 -6.6304147e-01
 -2.1133608e-01
  3.8620216e-01
 -2.8097850e-01
  1.2527277e+00
  1.9523834e+00
  1.1606436e+00
  1.6357194e+00
 -1.6653574e+00
 -2.3863206e+00
  1.9006304e+00
 -5.4858863e-01
 -8.0229175e-01
  1.2112846e+00
 -1.2596557e+00
 -6.4970899e-01
 -2.6812890e+00
 -1.7017919e+00
 -1.2987827e+00
 -1.2679398e+00
 -7.5712359e-01
 -3.3594945e-01
  6.8982041e-01
  3.2559767e-02
 -2.9268157e-01
 -2.2943144e+00
 -4.8734739e-01
 -3.5424948e-01
 -6.8382871e-01
 -1.3341614e+00
 -1.6205938e+00
 -9.7916268e-02
  5.5507904e-01
  3.7314108e-01
  2.5556816e-02
  5.0053507e-01
 -2.2861592e-01
 -2.2170734e+00
 -3.0436525e-01
  5.4001445e-01
  6.6545331e-01
 -7.2148138e-01
 -6.1932236e-01
 -1.0265961e-01
  5.4842126e-01
  3.5265797e-01
  5.2224636e-01
 -3.6184020e-02
 -4.3342128e-01
  1.5070035e+00
 -6.0833281e-01
 -9.6217483e-01
 -1.3213578e+00
 -3.2323372e-01
 -2.7148569e-01
  8.0624443e-01
 -9.8285830e-01
 -1.1816625e-01
  3.6930716e-01
  1.7301080e+00
 -8.1441097e-02
 -8.1357062e-02
  8.3704844e-02
  1.3617097e+00
 -4.9634236e-01
 -1.1195313e-01
 -6.0568478e-02
  7.1843320e-01
  3.2018483e-01
  5.1529801e-01
 -7.3466271e-01
  3.7265566e-01
  1.0815455e+00
  8.3623149e-02
  4.8220599e-01
 -6.4814216e-01
  6.0369313e-01
 -6.7066795e-01
 -4.5838973e-01
 -5.8540982e-01
  1.1873937e-01
  6.7327338e-01
 -1.9355363e-01
 -3.7031037e-01
  7.7046853e-01
 -6.3932031e-02
  2.1609132e-01
  2.4329698e-01
  3.7155640e-01
 -4.1686586e-01
 -1.4148660e-01
 -1.3961461e+00
 -1.2327466e+00
 -5.0465667e-01
  1.1620799e-01
  1.1693169e+00
  9.1193402e-01
  8.0307174e-01
 -3.4505656e-01
 -5.4336560e-01
 -9.5161444e-01
  9.6115428e-01
 -4.8709556e-02
  4.9261403e-01
  2.7746978e+00
 -9.3333715e-01
 -2.1366161e-01
  5.0844405e-02
  1.4228824e+00
 -3.7342623e-01
 -6.4645189e-01
  6.5163471e-02
  1.4276788e+00
 -6.1208153e-01
 -4.4238698e-01
  9.6875250e-01
 -5.6690358e-02
  3.3581555e-01
  2.7338675e-01
  1.2465410e+00
 -8.8151968e-01
 -4.4945795e-02
 -8.3028689e-02
 -3.7120116e-01
 -6.9701463e-01
  2.5289575e-02
 -1.0030508e+00
 -1.3626918e+00
  1.7928393e+00
  1.6874454e+00
 -2.5495884e-01
 -2.5363427e-01
  2.6558939e-01
  1.5728348e+00
 -1.5007252e-01
  4.8911817e-02
  5.7691336e-01
 -2.5848562e-01
 -1.2007524e-01
  2.6193199e-01
 -4.6602944e-01
  5.8008425e-02
  1.0813280e-01
 -7.2997469e-01
  9.3127310e-01
 -7.6196218e-01
  7.8655593e-02
 -1.7551772e-01
 -3.5608554e-01
 -1.1272454e-01
  3.0336431e-01
  4.1885608e-01
  1.0012728e+00
  4.1226819e-01
  7.9982787e-01
 -2.4386542e-01
 -5.1105868e-02
 -4.8383874e-01
  3.7154391e-01
  5.9337205e-01
  8.0688566e-02
 -1.0386961e-01
  8.9794314e-01
 -1.3298396e+00
 -1.8429911e+00
  1.6336896e-01
 -7.2301710e-01
  1.8409969e-02
  9.2122042e-01
  4.2476076e-01
 -1.9409686e-01
  9.2308784e-01
 -1.7384176e-01
  6.8035614e-01
 -3.6298963e-01
  3.1571791e-01
  2.5901231e-01
 -3.2543653e-01
  5.7931136e-02
 -5.5937719e-01
  9.9902079e-02
  1.1399477e-02
  1.0404277e+00
  9.7612858e-02
  1.3275113e+00
  3.8008845e-01
 -1.2267027e+00
 -3.5417813e-01
  7.3174322e-01
  7.2779417e-01
  9.0947813e-01
 -5.5818343e-01
  1.0132712e+00
 -4.1480339e-01
  7.2429419e-01
  7.8998882e-01
  4.5215189e-01
 -3.5019979e-01
 -8.0791676e-01
  4.3745431e-01
  1.8234713e-02
 -3.3120638e-01
  7.8187054e-01
 -5.6151915e-01
 -1.1687558e+00
  6.2241867e-02
 -9.0592420e-01
 -1.0080701e+00
 -1.0546231e-01
  1.2926643e+00
  2.4531774e-02
 -3.0332868e+00
  1.6170548e-01
 -1.1527083e+00
 -5.4413122e-01
 -7.2464365e-01
  3.1681493e-01
 -1.9882640e+00
 -5.0702300e-02
 -1.0797778e-02
 -3.8378692e-01
  7.9061681e-01
  5.4145592e-01
  7.8422189e-01
 -7.7696346e-02
 -5.9462595e-01
 -8.3006078e-01
 -5.1241082e-01
 -6.2994057e-01
  8.3577669e-01
  7.1028548e-01
 -4.7574961e-01
 -3.5830235e-01
 -1.8282846e+00
  3.7107702e-02
 -3.1086369e+00
 -3.2997048e-01
 -4.2923924e-02
 -1.8937062e-01
 -9.1733527e-01
  1.2882642e+00
 -6.4815038e-01
  4.7452483e-01
 -5.3906012e-01
 -1.0028336e+00
 -1.9555700e-01
  5.7592869e-02
  5.7913113e-01
 -3.8531429e-01
  5.0576830e-01
  3.8334069e-01
 -2.2975415e-01
  1.1051191e+00
  4.1428661e-01
 -1.0817893e+00
  1.6442436e+00
  8.0400728e-02
  3.4236786e-01
 -4.4819787e-01
  1.8935780e-01
  1.4685118e-01
  4.0727419e-01
  4.9315217e-01
 -6.0786283e-01
 -1.1607364e+00
 -6.3210917e-01
 -2.7029408e-02
  5.5945322e-02
 -2.7028751e+00
 -6.2817389e-01
  2.5915432e-01
  5.6387078e-02
  1.9149464e-01
 -2.6643342e-01
  1.1666457e-01
  8.3395287e-02
 -8.0605447e-02
 -3.4157181e-01
  4.9620560e-01
  8.4357083e-01
 -5.7569820e-01
 -8.1359994e-01
  1.1445354e-01
 -6.5427071e-01
  4.5831719e-01
 -8.5524648e-01
 -9.3414837e-01
 -1.3541968e-01
 -3.6109173e-01
  4.8418781e-01
 -3.8651901e-01
  1.1896361e+00
 -2.3058039e-01
  2.1820344e-01
  9.7663760e-01
 -3.6996084e-01
  2.3337249e-01
  3.0291324e-02
 -2.5813491e+00
  4.4135320e-01
 -1.1065183e+00
  4.5625746e-01
 -3.2974562e-01
  4.0119916e-01
  1.7862316e+00
  1.0738381e+00
  1.5083188e+00
  3.5546765e-01
  8.9961487e-01
 -3.1161907e-01
  7.4122530e-01
  1.1364154e+00
 -6.4541632e-01
  8.7587678e-01
 -2.4758770e+00
 -1.4194015e+00
 -4.7277102e-01
 -5.8428580e-01
  2.0137748e-01
  3.7186491e-01
 -1.0516529e+00
  3.6528450e-01
  6.0125999e-02
  1.2671834e+00
 -1.0508362e+00
  1.1842990e+00
  1.0640424e+00
  1.3222210e-01
 -2.5052911e-01
 -1.3730305e+00
 -1.3109359e+00
 -4.0916139e-01
  1.2142203e+00
  3.4317443e-01
 -1.4289211e+00
  1.1449274e+00
 -5.1797473e-01
 -5.2307572e-02
  3.3243513e-01
  8.2378805e-01
  5.7850838e-01
 -4.7498429e-01
  8.4852904e-02
 -2.0354267e-02
  5.3970551e-01
  1.0628639e+00
  8.4373629e-01
  8.4034689e-02
  1.1115440e+00
  1.1396378e+00
 -1.3801718e+00
 -9.1736203e-01
  1.0657656e+00
 -5.6411588e-01
  7.1729386e-01
 -8.8243794e-01
  8.0584890e-01
 -5.9604734e-01
 -1.2702374e+00
 -2.4437676e-01
 -3.7597783e-02
  7.4354935e-01
  4.8952058e-02
 -7.2761196e-01
  4.9259230e-01
 -8.5671729e-01
  3.8560799e-01
  4.0796408e-01
  1.6163197e+00
  5.0831079e-01
 -2.6436001e-01
 -8.3507575e-02
 -5.0141615e-01
 -8.9555711e-02
  4.7606969e-01
  5.7156876e-02
  5.3871548e-01
 -8.5279965e-01
 -1.0811450e+00
  1.1387467e+00
 -5.1774508e-01
 -8.3387023e-01
 -8.9450523e-02
 -6.1727858e-01
 -5.5808812e-01
 -5.6512386e-01
  4.8794368e-01
  4.8997864e-01
  7.1472406e-01
  2.3673143e+00
  9.1855747e-01
 -3.3568144e-01
 -2.2240125e-01
 -2.7181318e-01
  9.4257213e-02
 -4.3628722e-01
 -2.6656142e-01
  9.9934232e-01
  1.9797744e+00
  2.5033534e-01
  1.1095357e+00
 -2.1451935e-01
 -1.9513160e+00
  8.0743909e-01
 -7.9095918e-01
  2.2647169e-01
  1.0557047e-01
  4.2699027e-01
 -1.0254498e-01
  1.2543090e-01
 -9.8405552e-01
 -5.6136471e-01
  1.7890860e-01
 -8.0886841e-02
  1.3512429e+00
 -1.0994116e+00
 -1.1380363e+00
  1.7705387e-01
 -3.0159947e-01
  3.5746813e-01
  8.5812455e-01
  1.6071922e-01
  5.7728308e-01
 -1.4325717e-01
 -5.6852322e-02
  8.1791508e-01
 -1.7329600e-01
 -9.2222369e-01
 -1.0100062e+00
 -1.8927777e+00
 -5.7336259e-01
 -1.3495824e-01
 -1.2889479e+00
 -9.0823579e-01
  3.1127092e-01
  4.4369158e-01
 -7.0870429e-02
  3.6271724e-01
 -1.1938888e-01
  1.0805786e+00
 -2.8451967e-01
 -7.8612995e-01
  7.7055752e-01
  3.2631837e-02
  7.0313781e-01
 -6.9658816e-01
  9.1948193e-03
 -6.4335179e-01
 -7.0621431e-01
  1.1847518e-01
  1.6337854e-01
 -9.8307270e-01
 -2.0467248e+00
  1.5892592e-01
  1.0463069e-01
 -2.3103787e-01
  7.6463702e-03
  2.4464345e+00
  1.4617576e-01
  1.6357000e+00
 -1.3760865e+00
  8.8511479e-01
 -8.8476978e-02
 -7.8817296e-01
  3.8607666e+00
 -2.6647719e-02
  2.2716663e+00
  4.0537336e-01
  4.9322477e-01
  2.3349980e-02
  2.4612379e-01
  2.5851808e+00
  8.8750607e-01
  2.1942461e-01
 -3.4265864e-01
 -5.7527828e-01
 -1.2860004e+00
 -1.2079923e+00
  2.0290732e+00
 -1.8365952e-01
 -1.7132224e-01
 -9.5625126e-01
  2.0218755e-01
 -1.1126684e-01
  3.3409041e-01
 -9.7713870e-01
  3.3597079e-01
  8.3059496e-01
  6.8073279e-01
 -3.1645596e-01
 -4.9301398e-01
  2.1501309e-01
  1.7045368e-01
  2.3054737e-01
 -5.4404698e-03
 -2.8916676e+00
 -8.3370495e-01
 -8.0177480e-01
  1.0527446e+00
  1.9715446e+00
 -1.3872212e+00
  5.2282190e-01
  1.0220475e+00
  1.4388290e-01
 -1.6739844e+00
 -4.9591407e-01
  6.0321712e-01
  9.4693047e-01
 -1.3574632e-02
  8.9657134e-01
  6.0374385e-01
  9.6104747e-01
 -2.9866168e-01
  4.1489592e-01
  1.4221338e+00
 -4.0245235e-01
  8.0929500e-01
  1.9769160e+00
  4.1321549e-01
  2.8937715e-01
  7.5481755e-01
  6.1363947e-01
 -1.7013729e-01
  1.7737668e+00
  5.8716255e-01
 -2.4597839e-01
 -8.3236235e-01
  4.6556985e-01
  3.5488704e-01
  6.0792017e-01
  5.1446092e-01
 -6.5855104e-01
  2.4438560e-01
 -1.0473473e+00
  1.3716836e-03
  9.6919751e-01
  1.0038150e-02
 -8.0532777e-01
  4.2472774e-01
 -1.1262055e-01
 -2.3907061e-01
  1.3393939e+00
  4.7827244e-01
 -3.1821179e-01
 -1.0354338e+00
 -2.0200231e+00
 -1.7491506e-01
 -1.3271568e+00
  1.1481686e+00
  1.0072610e+00
  1.0085426e-01
  1.0226339e-02
  4.5143489e-02
 -7.7644348e-01
  9.5543391e-01
  2.3061308e-01
  1.8533868e-01
  1.2217168e+00
  2.5055537e-01
 -6.0869211e-01
 -1.4983538e-01
  2.1016848e-01
  5.6336727e-02
 -1.8598297e-01
 -5.5094868e-01
 -2.3317941e-01
 -4.8510417e-01
  3.9897892e-01
  9.1622949e-01
 -1.8831503e-01
  2.3391901e-01
 -6.1803587e-02
  8.4026086e-01
 -8.9676833e-01
  2.2163796e-01
 -5.1819748e-01
 -1.3303469e+00
  6.4830410e-01
  3.1561917e-01
  8.7605107e-01
 -9.6408486e-01
  8.8499323e-02
 -1.4824787e+00
 -3.0422178e-01
  4.4045705e-01
 -9.1027308e-01
  1.2550406e+00
 -5.5414744e-02
 -6.9978017e-01
  7.1432686e-01
 -2.9467866e-01
 -5.4036701e-01
  5.4513985e-01
  4.6615145e-01
 -3.5609129e-01
 -9.5811182e-01
 -6.3126463e-01
  3.2344073e-01
  1.3836710e+00
 -2.0872244e-01
  8.1879473e-01
 -1.1972725e+00
  4.4130507e-01
 -3.1944901e-01
 -7.6138502e-01
 -2.7620178e-02
 -1.3840812e+00
  4.0240455e-03
  1.0224180e+00
 -2.7430600e-01
  5.5430794e-01
  4.1722229e-01
 -6.6356069e-01
 -2.1495499e-02
  7.1292005e-02
 -1.6732644e-01
  2.3397523e-01
  1.0921228e+00
  1.4994320e-01
  5.8402282e-01
 -2.2960074e-01
  4.3634400e-02
  1.5088447e+00
 -1.2180046e+00
  3.8834614e-01
  3.0924782e-01
 -2.5295642e-01
 -3.4028700e-01
 -7.4864399e-01
 -7.6567310e-01
  2.4841867e-01
  5.6629121e-01
  7.0980740e-01
  2.6379273e+00
  4.0379219e-02
 -1.1933307e-01
 -2.8361067e-01
  9.9768454e-01
  4.5314631e-01
  3.3479729e-01
 -5.9584475e-01
  1.4901973e+00
  9.8214515e-02
 -3.4633023e-01
 -7.9012322e-01
 -1.3533751e+00
 -3.9019293e-01
 -1.8713546e-01
 -1.8148417e+00
 -8.2966417e-01
 -5.7744724e-01
  4.6719676e-01
  4.4554269e-01
  3.0998859e-01
 -1.4556347e+00
 -1.5466590e+00
 -3.0023837e-01
  2.2548904e-01
 -1.3178011e+00
  3.4162872e-02
  3.5512749e-02
 -5.6386608e-01
 -1.1457243e+00
 -7.3655593e-01
  1.7910659e-01
  4.1495967e-01
  4.9660656e-01
  7.0825624e-01
 -2.8631544e-01
 -2.0605476e+00
 -1.1051977e+00
  2.0063307e+00
  2.8195333e-01
 -1.0127454e+00
  5.8330226e-01
  6.4835399e-01
  7.7366447e-01
  5.7014581e-02
 -1.0288695e+00
  1.2652248e-02
 -2.4265565e-01
 -8.9072889e-01
 -3.9637089e-01
 -1.1407406e+00
  3.9643380e-01
 -2.8324196e-01
 -1.1400044e+00
 -5.9535456e-01
  3.6895442e-01
 -2.0835346e-01
 -2.3952208e-01
  1.2396141e+00
 -1.3596033e+00
  5.3485954e-01
  2.2238746e+00
 -1.9032858e-01
  5.4932946e-01
  2.6170546e-01
  2.2274245e-01
 -6.3031721e-01
 -1.4755206e-01
  3.8860929e-01
 -8.5875672e-01
 -6.4029837e-01
  3.9954942e-01
  1.0475794e+00
 -3.5835320e-01
 -4.0121531e-01
  6.5063876e-01
 -6.9171661e-01
 -4.5677719e-01
 -4.9389860e-01
 -2.7222294e-01
  2.4938336e-01
  3.3349404e-01
 -1.9870983e-03
  6.4824361e-01
 -3.6928919e-01
  5.7874990e-01
 -4.1825014e-01
 -3.3137423e-01
  1.0681645e+00
 -2.7373087e-01
  4.2042006e-02
 -2.5024846e-01
 -5.3532219e-01
  5.5557430e-01
  8.2401335e-02
 -1.4943041e-01
 -3.6146596e-01
 -8.4500104e-01
 -1.1565243e-01
  6.2115473e-01
  1.9520855e-02
  1.3613851e-01
 -1.9122353e-01
  8.9554287e-02
 -5.0285012e-01
 -5.0487250e-01
 -1.0524465e+00
 -1.4433936e+00
 -2.0467365e+00
 -1.7617055e+00
  7.7351564e-01
  2.4249768e-01
 -3.2033116e-01
 -1.3978472e-01
  2.2126347e-01
 -3.3468604e-01
  1.6384111e-01
 -3.0993888e-02
  1.8445095e+00
  8.4706795e-01
  1.8755293e-01
  4.2811984e-01
 -5.9100639e-02
  9.3238991e-01
 -1.3721301e-01
  4.9188867e-01
  4.9745351e-01
  9.3581504e-01
  5.9221154e-01
  1.6308425e-01
 -3.7348095e-01
 -3.2766052e-02
  7.3133059e-02
  3.5333416e-01
  9.5278001e-01
  1.1215691e-01
  1.0699483e+00
 -3.7876990e-02
  2.3011127e+00
  1.4715324e-01
  8.4507301e-02
  2.3590398e-01
 -2.4245296e-01
  6.0499555e-01
  6.5515679e-01
 -3.0880901e-01
  1.1045114e+00
  2.5789133e-01
  7.2207665e-01
 -1.3132813e+00
 -1.0020764e+00
 -8.2183868e-01
  5.5730466e-02
  9.1330594e-01
 -4.3635126e-02
 -1.1471072e+00
 -1.0437584e+00
 -6.4973891e-01
 -2.6229253e-01
  1.4323896e+00
  6.6405034e-01
  4.1913912e-01
 -4.9584216e-01
 -1.7618084e-01
  1.1292293e+00
 -3.4105951e-01
 -7.6157540e-01
  1.0373811e+00
  7.3782630e-02
 -5.4767495e-01
 -1.0322908e+00
  5.7487659e-02
 -7.7046710e-01
  6.3066460e-02
 -2.2266768e-01
  1.0205153e+00
  7.6930887e-01
 -4.1948333e-02
  1.9886552e-01
  9.4248426e-01
 -2.6433501e-01
 -3.2108862e-02
  1.7147977e+00
  1.2723619e+00
  7.7220488e-01
 -7.2310072e-01
 -1.6742942e-01
  1.5686460e+00
  8.5644859e-01
 -4.4027144e-01
  8.8004750e-01
  9.3938470e-02
 -2.0446180e-01
  1.8989533e-01
 -2.3956398e-02
  2.8481770e-01
  5.1235735e-02
  1.9181928e-01
 -1.1521285e+00
  4.7358096e-01
  2.3700598e-01
 -8.8991469e-01
 -2.0447117e-01
 -2.4059814e-01
  1.5289445e+00
 -8.3323050e-01
  6.2244344e-01
  1.9832122e+00
 -1.9999653e+00
  5.9418514e-02
 -2.1566069e+00
 -5.2203655e-01
  1.7512447e-01
  2.4131887e-01
 -4.8080119e-01
  7.2553577e-03
  5.3092260e-02
 -3.6741677e-01
  1.3380630e-01
 -7.5333349e-02
 -1.2359591e+00
  4.1243580e-01
  1.0806320e+00
 -1.5588987e+00
 -1.1566747e+00
 -2.6409569e+00
 -3.1693658e-01
 -5.5780333e-01
 -1.3217268e+00
 -3.2483689e-02
  9.4483778e-02
 -1.9391173e+00
  6.9635761e-01
  9.9152613e-01
  2.2298780e-01
 -5.7494843e-01
 -1.6481448e+00
  8.6031801e-01
 -2.3507805e+00
 -9.9075623e-02
 -7.0774859e-01
  1.0595685e-01
 -2.0711425e-01
  1.9574288e-01
 -1.4166692e-01
  1.4694634e-01
 -4.8542297e-01
 -2.0581673e-01
  6.1358988e-02
  2.1116595e-01
 -1.1276939e+00
  9.9568719e-01
 -1.5358205e-01
  1.1615347e+00
  3.0644882e+00
 -6.1826193e-01
 -1.9638889e+00
  4.3782588e-02
  5.7716820e-02
  1.8065753e+00
  1.0397940e+00
 -1.4261220e+00
  3.0568901e-01
  5.2908347e-03
 -1.0649650e+00
 -2.8549518e-02
  4.5915622e-01
 -4.9643385e-01
 -3.6994272e-01
  3.3678886e-01
  6.5429121e-01
 -3.4255943e-01
 -2.1098904e-01
 -6.1398160e-02
  1.3430833e+00
 -2.3885994e-01
 -1.3133318e+00
  9.0603006e-01
 -4.2857832e-01
  3.2531384e-01
  1.1649048e+00
  8.1981473e-02
  4.0726459e-01
  8.1441075e-01
 -1.6467154e-01
 -3.2391316e-01
  9.2149720e-02
  4.3573165e-01
  1.1175078e-01
  4.1722345e-01
 -2.3149662e-01
 -5.1815882e-02
  1.3113703e+00
 -6.0363674e-01
  5.9874010e-01
 -6.4026242e-01
 -6.8286413e-01
 -1.7338185e-02
  4.8654258e-02
 -5.2525598e-01
 -7.0700258e-01
 -4.8471707e-01
 -1.0195364e+00
 -1.4889206e+00
 -1.0219432e+00
  8.7082517e-01
 -5.0199860e-01
  5.3394619e-02
  7.1639371e-01
  7.4370134e-01
 -2.5953996e-01
  2.9531628e-01
  5.0912857e-01
  2.5175294e-01
 -3.4588471e-01
  3.3026794e-04
 -5.1934367e-01
 -6.7754722e-01
  1.0946884e-01
  1.4952329e-01
 -4.9973214e-01
  1.2086982e+00
 -2.3454852e-01
 -1.6799589e-01
 -2.2593530e-01
  1.1471864e+00
  7.1963221e-01
 -5.0562757e-01
 -1.2871679e+00
 -6.5721333e-02
 -3.0492407e-01
 -6.8458766e-02
 -9.9712489e-03
 -9.5801704e-02
  7.1472639e-01
  1.0574911e-02
 -2.1717839e-01
  5.7052398e-01
  2.2592844e-01
 -2.3572741e-01
 -3.5107446e-01
  7.3657490e-02
 -6.7166489e-01
 -8.1829703e-01
  2.8697991e-01
  1.0343331e+00
 -7.6545888e-01
  5.3888726e-01
  3.3554655e-01
  4.0545464e-01
 -8.7843694e-02
  1.5485935e+00
 -1.3804014e-01
  1.4063504e-01
  5.4012620e-01
 -6.9254196e-01
 -2.1166776e-01
  9.6037436e-01
 -1.9275831e-01
  8.3083920e-02
  6.2745947e-01
  1.0598673e+00
 -1.2667994e-01
 -6.7190796e-01
 -5.5442417e-01
 -1.8316047e+00
  7.9094613e-01
  5.0090885e-01
 -6.9285470e-01
 -1.0742964e+00
 -7.3469543e-01
 -6.3709903e-01
 -3.1595480e-02
 -6.3685900e-01
  1.2340829e+00
  9.1066264e-02
 -4.3694344e-01
  1.2854478e+00
  7.2138554e-01
 -1.3334231e+00
  1.6079648e-01
 -3.3245899e-02
  9.1907269e-01
 -5.5400121e-01
  1.4728409e-01
 -2.3232205e-02
  9.2306304e-01
 -6.0215539e-01
  1.1707080e-01
 -7.2369939e-01
 -6.6745496e-01
  3.3026946e-01
  3.0445188e-01
 -1.4563158e-01
  1.4085470e-01
  4.0648159e-01
  9.2366718e-02
  4.9267098e-01
  1.8523210e+00
  7.9012191e-01
  7.9348749e-01
 -6.9457060e-01
 -1.4477323e+00
  7.4571288e-01
  6.2778175e-01
  2.8694244e-03
 -2.0958316e+00
 -2.4777715e-01
  3.2179851e-02
 -6.6666073e-01
  5.6378547e-02
  3.3417141e-01
 -5.6523327e-03
 -2.1181479e-01
  1.1235380e+00
 -1.3329381e+00
 -4.9371228e-01
 -1.2249298e-01
 -8.7345552e-01
  1.4288523e+00
 -6.3401037e-01
 -6.1147827e-01
  4.2234510e-01
 -1.1003907e+00
 -6.2019534e-02
 -5.5529803e-01
  6.6955578e-01
 -6.7938828e-01
  4.9561509e-01
 -1.4033080e+00
 -6.5218240e-01
  1.1446202e+00
  4.1669700e-01
  7.6589614e-02
 -1.1545312e-01
  8.5611504e-01
 -4.3881336e-01
  3.1739271e-01
  8.8751972e-01
  1.7448255e-01
  1.2692219e+00
  7.3052183e-02
 -1.6358878e-01
 -2.3010284e-01
  9.7794808e-02
 -2.6813143e-01
 -2.4172843e-01
  1.1132714e+00
 -2.8469250e-01
 -1.5656158e-01
 -6.2660058e-03
  8.0000472e-01
 -3.0984893e+00
  1.7829223e+00
  1.9986190e+00
  6.7712790e-01
  5.9734040e-01
  4.4833474e-02
  2.4179272e-01
 -5.5644161e-01
  4.7098598e-03
  3.0286485e-01
 -3.0342895e-01
  5.1891333e-01
  1.3369042e+00
 -8.3593905e-01
  4.1786450e-01
  1.9393741e-01
 -1.3799632e+00
 -8.5009420e-01
 -6.1331618e-01
  7.7994764e-02
  2.2183381e-01
  1.2117443e+00
  9.4702643e-01
 -2.0669520e+00
 -1.0943772e-01
 -8.8607448e-01
  8.4312946e-01
 -4.6556029e-01
 -6.4627141e-01
  1.5803615e+00
  6.2087268e-02
 -3.8852471e-01
 -1.2723479e-01
  3.0147608e-03
 -3.1849131e-01
 -1.3602343e-02
  9.2588991e-01
  8.7537163e-01
  3.8139215e-01
  8.4928691e-01
 -1.6425924e-01
 -5.5018604e-01
 -2.5579032e-01
 -4.0038529e-01
 -5.7312548e-01
 -3.0098411e-01
 -4.8031729e-01
 -2.5530565e-01
  1.8529091e+00
 -1.2405819e+00
 -8.6866923e-02
 -1.4839594e-01
  4.1705588e-01
  6.0937190e-01
  1.2049659e+00
 -6.0057265e-01
  1.3015026e-01
 -1.2643987e-01
 -9.6466672e-01
 -3.0748323e-01
 -9.1155343e-02
  2.0621282e-01
 -9.2210895e-01
 -1.0363289e+00
  6.6407299e-01
  7.8397579e-02
  1.6334825e+00
  5.1659524e-01
 -2.8065345e-01
  1.3323799e-01
 -4.0389836e-01
  1.1364597e+00
  5.2320600e-02
 -4.8609212e-02
  9.6690226e-01
 -1.0424324e+00
  3.2622698e-01
 -4.7666195e-01
  4.1041479e-01
 -6.2420046e-01
 -2.2708724e-01
  2.3294517e-01
  5.1158732e-01
 -7.5711334e-01
 -7.3536164e-01
 -1.1521857e+00
 -1.0267522e+00
 -1.4307568e-02
  1.0922928e+00
  4.3908212e-02
  5.3741062e-01
  3.7501827e-01
  1.0035920e+00
  5.2723933e-02
 -6.4921594e-01
  5.2016771e-01
 -1.0860589e+00
 -6.4902300e-01
 -3.1629968e+00
  1.9014604e+00
  1.1467060e+00
  1.3486040e+00
  2.2899930e-01
 -7.4903160e-01
 -2.8919983e-01
 -8.1261224e-01
 -9.4914711e-01
 -5.1175612e-01
  4.0418649e-01
  6.9070375e-01
 -5.9247714e-01
  7.9389197e-01
  3.3631375e-01
  5.7082504e-01
  5.7788652e-01
 -1.6200789e+00
 -5.9250683e-01
 -6.1204231e-01
  8.7542087e-01
 -1.4532461e+00
  1.8481946e-02
 -8.2563704e-01
  7.2968549e-01
  5.7710472e-02
  8.3449744e-02
 -1.1409292e+00
 -1.0246702e+00
 -1.7252125e-01
 -1.3667391e-01
  7.3618484e-01
 -2.6782918e-01
 -2.5608304e-01
  8.3511686e-01
  2.0578216e-01
 -3.8399160e-01
  2.1139242e-01
 -1.0372909e+00
  1.7673518e-01
 -3.3369738e-01
 -1.1098726e-01
 -1.0994378e+00
  2.8624617e-02
  2.0176181e-01
 -7.3768228e-01
 -1.2767824e-02
 -7.0053375e-01
 -1.5334658e-01
  4.9441987e-01
 -5.5507410e-01
  1.8975224e-01
  7.8651868e-02
  1.0663188e-01
  1.3731406e+00
  6.1156410e-01
  5.5448765e-01
  4.8820120e-01
  3.5556903e-01
 -3.1704426e-01
  5.3416407e-01
 -1.7409042e-02
 -8.2267088e-01
 -5.2598506e-01
  9.1364086e-01
  6.7153406e-01
  7.9657805e-01
  1.2689997e+00
 -6.7407334e-01
  5.1722884e-01
  3.9322892e-01
  6.7595398e-01
  8.9168704e-01
  1.6017537e+00
 -1.7433630e-02
  3.5444471e-01
  1.3733865e+00
  1.6330458e-01
 -2.1957049e-01
 -5.0584966e-01
  1.5127972e-01
 -9.5433760e-01
 -1.4042465e-01
 -7.8316933e-01
 -1.3765393e-01
  1.0645157e+00
 -7.7201378e-01
 -2.8438479e-01
  9.8458058e-01
  9.1930538e-01
 -1.3845199e+00
  4.8172835e-01
  3.0553257e-01
  6.6098320e-01
  3.9269263e-01
  7.0400321e-01
 -6.2860322e-01
 -7.4231315e-01
 -7.8758430e-01
 -5.2146167e-02
 -2.5416052e-03
  2.0866382e-01
 -6.4505142e-01
  2.0061368e-01
 -1.1019242e+00
 -9.0318197e-01
  4.7997460e-01
 -2.7142131e+00
  1.2160925e+00
 -1.4613945e+00
 -6.3179010e-01
  6.3237536e-01
  1.5658287e+00
 -1.1147921e+00
 -6.1856502e-01
  1.6780131e+00
 -3.2881838e-01
 -1.4142619e-01
 -1.1317973e+00
 -9.3941070e-02
 -1.6167538e-01
 -2.5392613e+00
  1.9640815e+00
  5.3564495e-01
  1.4121848e-02
  5.0731063e-01
  8.4587955e-01
  5.8180727e-03
 -1.8074187e+00
 -1.9939234e+00
  2.3414916e-01
 -1.5354976e-01
  5.4089606e-01
 -1.7585311e+00
 -1.4231421e+00
  1.0805693e+00
  5.1102412e-01
 -4.5024726e-01
 -3.2895422e+00
  5.0648153e-01
  1.8993011e-01
 -1.2687847e-01
 -3.8037431e-01
  8.3095086e-01
  1.1015201e-01
  7.1052992e-01
  8.2256722e-01
  2.5570319e+00
 -1.4821483e+00
  7.4103963e-01
 -3.5964892e+00
  2.2436535e-01
 -6.7339802e-01
 -5.9558850e-02
 -6.8983138e-01
  1.0705642e-01
  1.0191493e+00
 -2.1132553e-01
 -3.3968574e-01
 -6.4741391e-01
 -2.4566653e-01
  1.8779640e-01
 -6.1981386e-01
  1.5900528e+00
 -1.7842674e+00
 -2.4525627e-01
 -6.3875479e-01
  2.2213091e-01
 -3.8395292e-01
 -1.5117297e-01
 -2.8254327e-01
 -1.2257066e-01
 -7.5331235e-01
  1.2956229e+00
  4.4729033e-01
  1.0864375e+00
  6.7943084e-01
  9.7636104e-01
 -1.0725838e+00
 -2.0399761e-01
  1.3094649e-01
 -6.7646509e-01
 -1.9658726e-01
 -5.0266969e-01
  7.8035206e-01
 -1.6808388e-01
  1.0184586e+00
 -1.4728962e-01
 -1.5898265e-01
 -5.7964504e-01
  2.9682267e-01
 -3.4267998e-01
 -3.6291334e-01
  6.3832909e-02
  1.3979661e-01
  7.5413388e-01
 -1.0283510e-01
  6.3655120e-01
 -6.9716907e-01
  9.1387433e-01
  2.9979348e-01
  7.8066289e-02
  4.3966314e-01
 -2.8165355e-01
  2.1435194e-01
  7.7672547e-01
 -2.9360842e-02
 -1.6547221e-01
 -9.6952313e-01
  1.5754156e-01
  2.8280729e-01
  1.9338652e-01
  1.5288259e+00
 -1.4173128e-03
  1.1684722e+00
  5.6921687e-02
  4.8009744e-01
 -1.5014172e+00
  1.6692679e-01
  1.8502632e-01
 -2.3171684e-01
 -1.7094104e+00
  2.1314862e+00
 -1.7733772e-01
  1.0722380e-01
 -1.4613035e-01
 -2.4828993e-01
 -3.7054157e-01
 -8.6124218e-01
  6.2911934e-01
 -3.1875113e-01
  5.2116197e-01
  3.7198475e-01
  3.6174425e-01
  2.5090864e-01
  2.9370177e-01
 -1.9076957e-01
 -3.9510643e-01
 -6.8514800e-01
  8.1295979e-01
  5.7389373e-01
  4.6549654e-01
  5.6296027e-01
 -1.2714452e+00
 -3.4134583e+00
 -1.6944497e+00
  6.8627667e-01
  1.8230951e+00
 -9.1188237e-02
  1.9277798e-01
  1.0286678e-01
 -7.9542631e-01
  1.0025654e+00
 -4.9757472e-01
 -4.0783238e-01
 -3.0105138e-01
  1.6024553e+00
 -4.8014081e-01
  2.1336238e-01
 -1.2572377e+00
  5.4072869e-01
  1.1801881e+00
  1.0366521e+00
  1.1440735e-01
  1.5845145e+00
 -1.3402419e-01
 -1.1065867e+00
 -9.1342723e-01
  2.0560913e-01
  8.3703458e-01
  4.7877553e-01
  1.1733735e+00
 -3.2013860e-01
  6.1492640e-01
 -1.0933995e-01
 -5.9904224e-01
 -1.5064788e+00
 -3.0443022e-01
  4.7205397e-01
 -4.7594577e-01
  1.1111730e-01
 -3.1845975e-01
 -1.2644906e+00
 -2.2199535e-01
  9.7648466e-01
 -7.7387197e-03
  2.5390512e-01
  1.3741057e-01
  4.7622386e-01
  2.2474022e-01
  1.0020294e+00
 -2.7448359e-01
  3.3203974e-01
  1.7210855e+00
  2.6275461e+00
 -5.5789374e-02
  9.0134436e-01
  9.8683017e-01
  6.4188713e-01
  2.4432549e-01
  8.7822330e-01
  8.0940253e-01
  3.6546007e-01
 -2.0472364e-01
 -8.1660551e-01
 -8.8491219e-01
 -1.7606294e-01
  6.0504735e-01
 -6.2036794e-01
  7.1379429e-01
 -8.0776316e-01
 -2.3648901e-01
  3.3594647e-01
 -4.4774288e-01
  3.4458175e-02
  1.3849895e+00
  4.3862190e-02
 -6.6819412e-01
 -8.2981187e-01
  1.3950268e+00
  7.1383196e-01
  8.9246154e-02
 -7.5962418e-01
  1.8079528e-01
 -1.0114403e+00
 -1.1685488e+00
  6.9457388e-01
  9.5724148e-01
  4.5984882e-01
  7.5665599e-01
 -1.4099245e+00
  8.6665428e-01
 -3.9816935e-02
  4.1091174e-01
 -1.7451866e-01
 -8.5478902e-01
  2.9569894e-01
  5.6100005e-01
  5.2474028e-01
  7.2254080e-01
  2.5776837e+00
  1.8735312e+00
 -9.0663862e-01
  1.3636169e+00
  1.5011954e+00
  1.8352010e+00
  1.2245468e+00
 -2.3798659e+00
  1.1895679e+00
  1.5412645e+00
  5.0537448e-02
  4.1401958e-01
 -1.8469241e+00
 -2.5555677e+00
 -3.2504821e+00
  5.8822680e+00
  2.1950097e+00
 -1.8330897e+00
 -1.7772979e+00
 -5.6808476e+00
 -2.1290560e+00
  1.2760905e+00
  5.5533648e-01
 -2.1104279e+00
 -7.8217429e-01
 -1.2067519e+01
  1.5257353e+00
  1.6411406e+00
  8.8186365e-01
  1.1847632e+00
  1.5509098e+00
 -1.6000422e+00
  2.6054608e-02
 -2.0646784e+00
  1.4928406e-01
 -1.8240768e+00
 -7.7687895e-01
  1.7713137e+00
 -7.1670163e-01
 -1.5336583e+00
  2.2699690e-01
  8.9519852e-01
  8.6618468e-02
  1.8572503e+00
  1.6318852e+00
  6.8092889e-01
 -9.4321519e-01
  5.8270216e-02
 -2.5165384e+00
 -1.6910166e+00
 -2.3686218e+00
 -1.0722202e+00
  1.4386539e+00
  1.7547532e+00
  8.0485243e-01
 -1.8304684e+00
  1.1920538e+00
 -4.4384279e+00
  1.7338667e+00
  2.5054579e+00
 -5.9350085e-01
  4.0813440e-01
  1.4622176e+00
  1.0739706e-01
  1.7508034e+00
  1.7094712e+00
 -1.3267981e+00
 -4.3278515e-01
 -1.6770685e+00
  9.9068232e-02
  1.9788952e+00
  3.8313451e+00
 -3.7316561e-02
 -1.4358417e+00
  4.3495613e-01
 -5.6609660e-01
 -2.6641626e+00
  1.3320649e+00
  4.1987610e+00
  4.3453202e-01
  1.7601258e+00
 -2.8861020e+00
  1.8132796e-05
  4.9323097e-02
 -2.5203314e+00
 -7.4347800e-01
  1.8670827e+00
  3.4338036e+00
 -2.7283868e-01
 -2.0337391e+00
 -8.3823472e-02
 -1.2437561e-01
  2.3265135e+00
  1.4944781e+00
 -1.0192093e-01
  5.1992202e+00
  3.2078713e-01
  7.5824177e-01
  2.0947819e+00
 -4.0110010e-01
 -2.7877889e+00
  1.7936115e+00
 -5.8975227e-02
  1.8172510e-01
  6.3888144e-01
 -2.3298950e-01
  8.6537421e-02
 -1.4064300e+00
  1.7168095e-02
  5.5448070e-02
  8.0643229e-02
 -7.9696231e-02
 -2.4483374e-03
  1.8052229e+00
 -1.8707141e-01
 -1.3177767e-01
  6.2770732e-02
 -2.4841135e+00
 -1.5424269e+00
  5.3046918e-01
  2.2256179e-01
  2.0626435e-02
  4.9699432e-01
 -2.3701065e+00
 -1.4959919e+00
 -1.2851769e-01
 -9.6752399e-01
 -1.3977599e+00
  4.3152456e+00
 -2.9966742e-01
  5.3135514e+00
  2.8827462e-01
 -5.7510102e-01
 -9.8837484e-03
 -3.7640501e-03
  3.2367918e+00
 -3.5859179e-02
 -2.1915303e-01
  1.3776247e-01
  9.0452665e-01
 -2.2297764e-02
 -2.0324705e-02
 -9.3173486e-01
 -1.5994806e-02
  1.1862208e-01
  8.8444896e-02
 -1.5526959e-01
  8.1744768e-02
  1.0746372e+00
 -8.1195548e-02
 -1.4268893e+00
  1.8928586e-01
 -3.1784073e-02
  5.8126941e+00
  7.5023748e-02
 -3.6169770e-01
  1.2061205e-01
  4.5135081e-02
  1.8684714e-01
  1.8766347e-02
 -1.8581312e+00
  3.7707260e-01
  3.5759971e-01
  5.5921710e-01
  6.1124820e-01
 -1.9230585e-01
  5.2692276e-01
 -9.5213616e-01
  8.1970841e-01
  5.1722747e-01
  1.6975769e-01
 -5.5869108e-01
  8.7946959e-02
 -1.2092329e+00
  3.1718750e-02
 -7.0287967e-01
  8.3611840e-01
 -9.3864262e-01
 -3.0530455e-02
  4.0266424e-01
 -9.0189707e-01
  5.1961803e-01
 -4.8563588e-01
  6.8705332e-01
  7.0542214e-03
  6.9495714e-01
  9.9509639e-01
 -2.7436244e-01
  4.9920413e-01
  3.9535943e-01
 -9.6826702e-01
 -1.0389341e+00
 -5.0851882e-01
  3.6163658e-01
  1.2112551e+00
  3.8997026e-03
  4.3282780e-01
  4.8650318e-01
  7.6328540e-01
 -1.0389940e-02
  3.0902973e-01
 -7.3308873e-01
 -4.1012260e-01
 -9.6368968e-01
  1.4740985e-02
  3.7378845e-01
  4.0275344e-01
  4.4847706e-01
 -5.4613763e-01
 -4.6631727e-01
  1.0155901e-01
  1.6832720e+00
  2.9678643e+00
  2.5495291e+00
 -1.1524597e+00
  2.9535434e+00
 -1.8583076e+00
  6.5417784e-01
  1.7975315e+00
 -1.8002194e-01
  6.1415964e-01
 -1.1718153e+00
  5.1540852e-01
 -3.9033452e-01
 -1.5537252e+00
  4.4234610e-01
 -4.7078031e-01
  3.8903055e-01
  5.7356558e-03
 -1.5087782e+00
  4.2098317e-01
 -6.5108287e-01
  3.8000578e-01
 -4.7739497e-01
  5.5040997e-01
 -3.2596344e-01
 -1.6301705e+00
  6.9423795e-01
  7.0077258e-01
 -1.1187704e+00
 -1.1192530e+00
  3.4954730e-01
  1.4735059e-01
 -7.1643546e-02
  2.7539533e-01
 -5.2706033e-01
  5.4393095e-01
  1.5972701e-01
 -1.2769996e-01
  9.3954420e-01
  1.4333586e+00
  4.3619934e-02
 -7.5801921e-01
 -3.3308640e-01
  3.0370146e-01
 -3.1109688e-01
 -1.1709202e-02
  3.5924593e-01
  9.5707816e-01
  1.1764723e+00
 -3.1848437e-01
  1.8207726e+00
  1.2189955e+00
  1.7449814e-01
  2.2575377e-01
  1.2570353e+00
 -4.7521058e-01
 -9.2902154e-01
  7.0628774e-01
  7.3560327e-01
 -5.5775815e-01
  7.3131494e-02
 -1.1347276e+00
 -1.2210226e-01
  3.8348943e-01
 -5.7274246e-01
 -3.5214773e-01
  1.8743746e-01
 -2.6072314e-01
  7.4772871e-01
 -7.6050001e-01
  2.5383562e-01
  4.1464600e-01
  5.1197523e-01
  8.5176748e-01
 -6.7389548e-01
  3.6395279e-01
  2.4347430e-01
  1.1402889e+00
 -6.6998863e-01
 -8.2687274e-02
  1.2425487e-01
  6.2170416e-01
  8.2232392e-01
  3.4683436e-01
 -1.1414414e-01
 -9.2442477e-01
 -1.0416746e-01
 -6.6201544e-01
 -7.0588619e-01
 -4.7092390e-01
  6.0268456e-01
  4.8869021e-02
 -5.9354091e-01
 -1.6076995e-01
  2.6422620e-01
 -1.0445498e-01
  1.0024471e+00
  1.1994997e-01
  1.6052524e+00
 -7.2673774e-01
 -4.3600577e-01
  1.2736134e-01
 -3.3415973e-01
 -1.2192763e-01
 -4.4337189e-01
  1.2995075e-01
  3.2840943e-01
  5.1919323e-01
  4.8639659e-02
  3.9710548e-02
  3.0589882e-01
 -1.0639510e-01
  1.2203263e-01
 -5.1025277e-01
  5.3328234e-01
  3.4941253e-01
 -6.7685552e-02
  1.0419285e-01
 -1.2453698e-01
 -4.6028766e-01
  8.5014886e-01
 -6.8089724e-01
 -3.0660501e-01
  1.0490947e+00
 -5.3503257e-01
  1.1546029e+00
 -9.3405074e-01
 -5.1794595e-01
  6.8010285e-02
  1.4680348e-01
 -4.5630521e-01
  8.0375284e-01
  9.0978193e-01
 -5.1526666e-01
 -6.9198495e-01
  1.5994505e+00
 -4.4238292e-02
 -7.4029110e-02
 -3.4752470e-01
 -7.7292520e-01
  1.2527567e-01
 -2.6783192e-01
 -3.1079525e-01
  4.1398036e-01
 -2.1744272e-01
  3.8441190e-01
  3.4623608e-01
  5.5908793e-01
  5.1808554e-01
 -8.0440772e-01
 -5.6841381e-02
  1.0844184e+00
 -6.0412806e-01
 -8.6463946e-01
 -1.1154611e-01
  5.5434209e-01
 -1.7680362e-01
  1.2209177e+00
  4.6514297e-01
  5.6492728e-01
  1.5598124e-01
 -6.9604659e-01
  5.6475031e-01
  4.2971456e-01
  6.2461746e-01
  2.1109976e-01
  1.3907566e+00
 -1.2883036e-01
  2.7343142e-01
  7.5297821e-01
  7.5663567e-01
 -2.7143079e-01
  9.6707535e-01
  8.2089120e-01
 -2.1085775e-01
 -1.1880029e+00
  5.1745719e-01
 -1.1447130e+00
  5.8205807e-01
 -5.0329906e-01
 -1.0603342e+00
 -3.4892552e-03
 -4.5164016e-01
 -1.9627959e-01
  3.4038606e-01
 -2.4972461e-01
  1.5948531e-01
 -9.3230468e-01
 -4.2207947e-01
  6.7795806e-02
  1.8886685e-01
 -1.1788356e-01
 -4.7471616e-01
 -5.7234979e-01
 -2.2488490e-03
 -2.3775886e-01
  1.0817243e+00
 -6.6372102e-01
  1.1970885e+00
 -1.4032122e-01
  1.3178315e+00
  6.4052296e-01
  9.1942751e-01
 -7.1634179e-01
 -1.9562484e-01
 -1.0455099e-01
 -1.2469660e-01
  7.3874080e-01
  1.4519864e-02
 -6.0977268e-01
  8.9726698e-01
  9.7365990e-02
 -3.5339248e-01
 -3.8012126e-01
 -5.7612425e-01
  3.3813335e-02
  5.4713744e-01
 -1.5824348e+00
 -4.2345187e-01
  4.8999283e-02
  1.4400639e-01
  1.7377916e-01
  3.3398786e-01
  1.7661961e-02
 -9.2827871e-02
 -3.3780408e-01
  1.7219691e-01
 -5.7867819e-01
 -1.4718921e-01
 -3.3801533e-02
  6.1035436e-01
 -4.0696311e-01
  2.1679856e-01
  2.1545878e-01
 -4.6868697e-01
 -3.8903438e-02
 -8.6031902e-01
  6.0157239e-01
 -1.5145828e+00
 -4.2387906e-01
  1.3002251e+00
 -1.3200434e+00
 -4.0672424e-01
 -1.2913385e-01
 -2.0417848e+00
  8.4102684e-01
 -3.0710059e-01
  6.8289310e-01
 -1.4520704e+00
  5.2499846e-02
  8.6545658e-01
  6.8689100e-02
 -7.7322578e-01
 -2.4540144e-01
 -1.1990681e+00
  1.0964482e+00
  4.6028420e-01
 -9.7049588e-01
  1.0090791e+00
 -1.4261169e+00
 -9.5099396e-01
 -2.2275581e+00
 -4.7834287e-03
  4.6214175e-01
 -9.5820975e-01
 -4.1918927e-01
 -3.2352191e-01
  1.1423055e+00
 -6.6090143e-01
 -3.8017717e-01
 -1.6395448e+00
  5.9384382e-01
  9.5118105e-02
 -1.3145938e+00
  1.5701241e+00
  1.0807786e-01
 -4.1902983e-01
 -2.8059001e+00
  1.0903422e-01
 -6.5320742e-01
 -2.6087365e-01
 -7.5139099e-01
 -8.7859139e-02
 -1.5248528e-01
  1.6489004e-01
  1.3574074e-01
 -2.0726550e+00
  9.5447533e-02
 -2.5927054e-02
 -2.9465303e-01
  7.0870817e-01
  4.7699705e-01
 -4.4618401e-01
 -5.2109575e-01
  6.5609086e-01
 -1.0911318e+00
 -1.3330896e-01
 -1.5869658e-01
 -3.8038614e-01
 -1.5143064e-01
  5.6288779e-01
  2.3973650e-01
 -2.3101008e+00
 -2.2638643e+00
 -2.3684064e-02
 -1.6600659e-01
 -1.1274666e-01
  7.5830601e-02
  4.9667430e-01
 -8.8907647e-01
 -1.4658442e+00
 -2.5664723e-01
 -8.0231398e-02
 -2.5739056e-01
  2.5948668e-01
  7.6917869e-01
 -1.7148716e+00
 -8.7816668e-01
 -1.1896540e+00
  8.8109207e-01
 -7.0619053e-01
 -2.0648457e-01
  4.4665629e-01
 -1.9774506e+00
 -4.2115226e-01
 -1.0619818e+00
  1.3008192e+00
  4.7228042e-02
  3.0064839e-01
 -4.9432296e-02
  7.9089981e-01
  1.0669495e+00
  2.5349900e-01
 -6.0209390e-02
 -1.1309671e+00
 -6.2711877e-01
  8.2718682e-01
 -3.3383778e-01
 -7.2766477e-01
 -4.4785845e-01
 -9.7292855e-02
  2.7794294e+00
  1.3869051e+00
  2.4720612e+00
  4.8125824e-01
  4.8495466e-01
  1.0468918e+00
  1.4165915e+00
  5.9642944e-02
  1.0467936e+00
  9.0127581e-01
 -2.3626757e-01
 -3.1591836e-01
 -6.0251045e-01
  1.6020595e-01
 -2.8188772e+00
  8.8229202e-02
  1.6091509e+00
 -6.2554592e-01
  1.6681786e-01
  4.7307655e-01
  8.6982828e-01
 -1.0507050e+00
 -5.7526499e-02
  9.9569984e-02
  1.8114548e+00
  8.1812561e-01
 -9.8563552e-01
 -6.9003087e-01
 -4.0212002e-02
 -2.2201979e+00
 -1.2190621e+00
  1.3974335e+00
 -7.7608067e-01
  4.9270508e-01
  5.3250390e-01
 -3.6321080e-01
 -2.0994392e-01
 -5.8968514e-01
  5.7338411e-01
  3.9323175e-01
 -9.1344661e-01
 -4.0643796e-01
 -5.0400245e-01
 -9.1270022e-02
  4.8865867e-01
 -3.6040297e-01
  2.3351981e-01
  4.1458109e-01
  8.0988668e-02
 -6.5905297e-01
 -1.3440952e+00
 -6.1547232e-01
 -4.5636144e-01
  2.2561756e-01
  1.0033761e+00
  1.5798155e+00
 -1.2253863e+00
 -1.1077359e+00
 -1.5466462e-01
 -1.9195026e-01
  8.1642139e-01
  4.5625323e-01
  3.3969882e-01
  7.7962965e-01
  5.1276698e-03
  2.3070265e-01
 -1.0031990e+00
  6.8537003e-01
  3.0353791e-01
 -1.2073794e-02
 -5.8050555e-01
  2.6170313e-01
  8.8519168e-01
 -5.8877665e-01
 -3.8788837e-01
 -1.5116643e+00
 -7.5629222e-01
 -5.2307665e-01
 -1.2227045e+00
  7.7798200e-01
  1.3083497e+00
 -9.6184117e-01
  2.3863071e-01
 -8.9690939e-02
  3.0613986e-01
 -1.0465292e+00
  5.7217497e-01
  3.4863779e-01
  2.5258443e-01
 -1.3984025e-01
  5.7577443e-01
  3.2325473e-01
  1.4108379e-01
 -3.8712993e-01
 -5.5777663e-01
 -4.4908062e-01
  2.0318997e-01
  2.4601211e-01
  3.7443483e-01
  1.0107453e+00
 -1.9244653e-01
  1.4360527e+00
  1.3695951e+00
 -6.4954263e-01
  1.3056198e+00
  1.0242645e-01
  1.6478097e+00
 -1.5078263e+00
  3.5121134e-01
  8.8727218e-01
  6.7674428e-01
  6.8374801e-01
 -1.2305121e+00
 -1.1267071e+00
 -6.4594549e-01
 -1.0755416e+00
  5.8966219e-01
 -4.5837324e-02
  8.9086309e-02
 -5.2161449e-01
  6.3684309e-01
 -2.2260538e-01
 -1.0621785e-01
  5.2819890e-01
  6.9868404e-01
  2.2994785e-01
  5.4241912e-03
 -2.2734993e+00
 -6.4304304e-01
 -8.3319187e-01
  1.2250829e-01
  3.9550099e-01
  7.2755194e-01
 -2.6589146e-01
  4.2977560e-01
 -2.0332457e-01
  9.3015373e-02
 -1.3823882e-01
  1.8740170e-02
  2.7884087e-01
 -7.4472666e-02
  1.8543741e-01
  1.3528202e-01
  4.1940609e-01
  7.3795104e-01
 -6.2252145e-02
 -3.8654029e-01
 -1.3697355e+00
 -1.9966856e+00
 -5.2999610e-01
  2.7537289e+00
  9.3442667e-01
 -4.3709946e-01
 -2.2917576e+00
  1.8191928e-01
  3.2406372e-01
 -5.9298956e-01
  2.9464591e-01
  1.4361720e+00
 -2.7025159e-02
  5.9606576e-01
 -1.0591871e+00
 -1.1308965e-02
 -2.6331708e-02
  7.1318913e-01
  2.9928213e-01
  2.3663999e-01
  9.1925807e-02
  2.5110340e-01
  6.3075531e-01
  9.7609013e-01
  2.4201753e+00
  1.0249343e+00
 -2.9595307e-01
 -2.1215303e-01
  2.1760290e+00
  6.0337591e-01
 -1.0654783e+00
 -1.2160285e-01
  2.4507575e-01
 -6.5885424e-03
  1.3977724e+00
 -1.8052216e-01
  3.9409631e-01
 -6.4254743e-01
  2.0354179e-01
  2.4681294e-01
 -3.3578736e-01
 -4.2686155e-01
  5.1248819e-01
 -5.5913371e-01
 -2.0857571e-01
 -1.2708366e-01
  2.1176244e-01
  1.1136504e-01
  7.8112406e-01
  1.4616449e+00
 -2.7477980e+00
  2.4876039e+00
  9.4488692e-01
 -1.5272834e+00
  1.4486686e+00
 -2.4524481e+00
 -3.5302338e-01
  2.5645560e-01
  5.4095298e-01
  3.1198686e-01
 -6.6083556e-01
 -1.3720125e-01
  1.9653741e-01
 -9.5959944e-01
 -5.4173905e-01
 -4.7063779e-02
 -1.5505025e+00
  6.8171120e-01
 -9.9273479e-01
  1.0021474e-01
 -2.0505624e-01
 -6.3276124e-01
  7.8300029e-02
  2.9017466e-01
  6.0556829e-01
  3.4247580e-01
 -1.0833708e-01
 -1.0971048e+00
 -1.5283809e+00
  6.1102188e-01
  1.3557038e+00
 -3.1408894e-01
  4.0266898e-01
 -7.3163319e-01
  5.8745241e-01
 -1.0589739e+00
  1.1220379e-01
 -1.6624433e-01
  5.6538206e-01
 -6.8047506e-01
  4.2630708e-01
  7.6433843e-01
  8.5336071e-01
 -6.7835039e-01
 -5.3384686e-01
  7.6224941e-01
 -9.5020503e-01
  8.5659973e-02
 -7.5039321e-01
  1.8172400e+00
 -3.0317131e-01
 -9.5708495e-01
  8.5581738e-01
 -8.2560346e-02
  2.6897364e+00
  4.8019889e-01
 -1.8408123e-01
 -4.5210433e-01
 -3.4023989e-02
 -6.0820836e-01
 -3.3244595e-02
  8.0811018e-01
  1.0657175e+00
  6.3107364e-02
  5.4194603e-02
 -3.3591291e-01
  9.1332279e-02
 -7.2419238e-01
  3.7478170e-01
  8.4857804e-01
 -6.1296582e-01
  3.6205041e-01
 -1.5251287e+00
  7.9685038e-01
 -5.7789463e-01
  1.0507225e+00
 -4.9739847e-01
 -3.9009339e-01
  5.6450728e-02
 -6.6738504e-01
  3.9880604e-01
  2.5013102e-02
 -4.4402060e-01
 -1.0821959e+00
  4.9610782e-01
  4.5236596e-01
  2.7263436e-01
 -2.3388775e-01
 -8.5834265e-02
 -7.2148901e-01
  1.8192485e-01
  2.2257532e-01
  1.3327233e-01
  7.9202676e-01
 -3.3976656e-01
  1.2305825e-01
 -1.0461061e-01
  1.4401685e+00
  7.0238642e-02
 -3.0650654e-01
  3.0964544e-01
 -5.5557394e-01
 -9.5089412e-01
  1.2173030e+00
 -3.9179314e-02
  9.8151195e-01
 -8.8460766e-02
 -7.9180175e-01
 -1.7626708e+00
 -6.1660641e-01
  7.2036493e-01
 -7.9315746e-01
 -6.1640698e-01
  1.2234854e+00
 -1.6213390e+00
 -8.6545944e-01
  1.4339545e-01
  7.8063381e-01
 -1.3747206e-01
 -1.0213885e+00
  4.7202325e-01
 -6.4021808e-01
 -8.3749777e-01
  1.2853615e+00
 -1.1974070e+00
  6.7023605e-01
 -4.0790845e-02
  1.0145700e-01
  1.1394732e-01
 -1.4971749e+00
 -3.2239184e-01
 -3.6887708e-01
  5.1000595e-01
 -6.2960732e-01
 -1.1057835e-01
  5.4607183e-01
  6.9310027e-01
 -2.1972801e-01
  1.0199523e+00
  2.1442114e-03
  5.8452618e-01
 -4.5787936e-01
 -6.0462154e-02
 -3.8337752e-01
 -1.1984517e-01
 -3.2170317e-01
 -2.1571484e+00
 -3.4628968e+00
  3.7882751e-01
  1.6010312e+00
  8.5216892e-01
  1.4270798e+00
 -2.9684541e+00
  4.5169867e-03
  1.0499076e+00
  1.0191559e+00
 -1.1523815e+00
  9.2565745e-02
  6.0732430e-01
  2.7192512e+00
 -1.6448249e+00
 -4.2722264e-01
  6.4027345e-01
  2.6936520e-02
  2.7275899e-01
 -1.1608511e+00
 -1.6960098e+00
 -1.7842463e+00
  5.9900331e-01
 -8.0388319e-01
 -4.1779101e-01
 -4.1171050e-01
 -1.1241966e+00
 -1.6262217e-01
  6.3769215e-01
  5.0118583e-01
  2.3888126e-01
 -4.8936969e-01
 -1.4012977e+00
 -4.0983915e-01
 -7.2513735e-01
 -5.1828176e-01
  1.8895037e-01
 -8.4196025e-01
 -8.1111008e-01
  9.8378986e-02
 -8.3370370e-01
 -3.1235284e-01
 -1.9565764e-01
 -4.4770557e-01
  2.6030245e-01
  4.1108155e-01
 -1.5846390e-02
  4.9125805e-02
 -1.1453543e+00
 -5.7547039e-01
  9.6493311e-02
 -5.6575930e-01
 -7.1053571e-01
 -6.8110281e-01
 -1.7225966e+00
 -1.6616112e+00
 -2.7276647e-01
  6.1567211e-01
  1.2484322e+00
 -2.1566300e-01
 -4.6770975e-02
  9.2618391e-02
 -1.4305417e-01
  6.0011804e-02
 -6.3316536e-01
  5.7765675e-01
 -5.5153924e-01
 -5.9407491e-02
  6.6776949e-01
  6.6541213e-01
 -6.1506550e-03
 -6.4659256e-01
  3.2753792e-01
  9.6815652e-01
 -6.3040829e-01
 -4.4708174e-01
 -4.2939240e-01
 -4.2237839e-01
 -7.4619615e-01
  6.4077646e-01
  9.3361187e-01
  5.2128834e-01
  3.9766279e-01
  4.9663773e-01
 -5.2197099e-01
  5.6441498e-01
  1.6489136e-01
  1.1386946e-01
 -2.7454385e-01
  4.0370014e-01
  8.4474075e-01
  1.0596374e-01
 -2.5706413e-01
 -1.6422504e-01
 -1.2430667e+00
  1.3813725e-01
 -1.0389155e+00
  1.0809742e-01
 -2.9332966e-01
  1.6356280e-01
  4.2573300e-01
 -7.6998901e-01
 -9.7645068e-01
  1.9419283e-01
 -7.1496829e-02
  8.4649050e-01
  2.8757542e-01
  1.0709388e-01
 -2.3833229e-01
 -4.4754153e-01
  7.4303806e-01
 -1.4840052e-02
  7.9906657e-02
  4.7292414e-01
 -2.6132107e-01
 -7.7015167e-01
 -2.4579270e-01
 -1.0311274e-01
 -3.8638851e-01
 -5.1340634e-01
 -3.1626123e-01
 -4.8972818e-01
  4.6479154e-01
  2.4174236e-02
 -1.1260889e-01
  1.9101609e-01
 -1.1182550e-01
 -5.7894522e-01
  9.6269727e-01
  3.1532028e-01
 -7.5545549e-01
  1.9556835e-01
  1.9946590e-01
  1.0385746e-01
 -1.5141563e-01
 -4.4015762e-01
 -1.9098820e-01
  7.0506167e-01
 -5.9134370e-01
 -4.3762651e-01
 -6.6694409e-01
 -1.9177844e-01
 -7.9178727e-01
 -3.1124100e-01
  4.5253477e-01
  5.8538318e-01
 -3.0077815e-01
 -1.2485673e-01
  3.9327338e-01
  6.4972115e-01
 -5.5192786e-01
  4.6137860e-01
  1.5235889e+00
 -1.2672111e+00
 -3.2219768e-02
  2.1655577e-01
  9.5271647e-02
  1.4483784e-02
  1.9274688e-01
  1.5442514e-02
 -2.2965719e-01
  1.8444547e-01
  8.6182582e-01
 -4.9285766e-01
 -5.5349048e-02
  1.6202953e-01
 -9.0033567e-01
 -7.4552447e-01
 -6.0887748e-01
 -5.3867364e-01
 -3.4458098e-01
 -2.2735938e-01
 -1.0696627e+00
 -7.5857985e-01
 -1.6459424e+00
 -8.9661665e-03
 -1.1214429e+00
 -4.9956134e-01
 -2.0571522e-01
  4.2014608e-01
  2.0737243e-01
  2.4944423e-01
 -1.4128953e-01
 -1.5308671e-01
  4.6770293e-02
 -1.0222123e+00
  2.2760653e-01
 -1.8022095e+00
 -2.8029302e-01
 -6.1871064e-01
 -2.3500089e-01
 -2.2650313e-01
  8.4136397e-01
 -3.6650844e-02
  2.0105590e-03
  1.3798953e+00
  5.1531059e-01
  2.2537708e-01
 -1.0618526e+00
 -1.6908976e+00
 -1.2114674e+00
  9.1404873e-01
 -7.6372951e-01
  7.1061927e-01
  3.9194208e-01
  4.4831881e-01
  2.2029575e-02
 -3.6592428e-02
  2.2214821e-01
 -9.4959170e-01
  1.2479341e+00
  9.6084642e-01
  1.1679853e-01
  1.1986363e+00
  2.4476600e-01
 -5.8622873e-01
  4.1391641e-01
 -4.1506660e-01
  5.5392939e-01
 -7.6592600e-01
 -8.3775270e-01
 -5.8218080e-01
 -1.3798184e+00
 -8.4696072e-01
 -4.6903268e-02
 -3.8618448e-01
 -4.7900635e-01
 -8.5194498e-01
 -4.2318467e-02
  3.2322314e-01
 -3.9054537e-01
 -5.5831587e-01
 -6.4359647e-01
  3.0380115e-01
  1.7340285e-01
  1.7843780e-01
  1.5092221e-01
 -2.2411282e-01
 -1.1032135e+00
  4.7719490e-02
  1.7413592e+00
 -1.0685867e-01
  5.5845243e-01
 -5.5857134e-01
  1.2140844e+00
 -1.0680817e+00
 -1.6234572e-01
  1.1324704e+00
  1.5467119e+00
 -9.6295774e-01
 -8.2085276e-01
  4.2915383e-01
 -2.3361596e-01
 -5.4755044e-01
 -6.6218293e-01
  1.9761877e-01
  1.2059665e-01
  2.8049606e-01
 -6.7783165e-01
  1.5854037e-01
  7.4488729e-01
  1.1133152e+00
 -7.8605585e-02
  2.5424877e-01
 -7.8757066e-01
 -5.2826196e-01
  2.3936692e-01
  5.1425534e-01
  7.8699213e-01
 -5.9582925e-01
  2.5786068e-02
  6.9028157e-01
 -5.4346544e-01
 -5.2728641e-01
 -6.7804104e-01
 -3.1722847e-01
  4.5956323e-01
 -2.0862688e-01
  6.2406856e-01
  4.8821604e-01
 -1.6683389e+00
  2.0231365e-01
  1.8956703e-01
 -2.1775037e-01
 -5.5869985e-01
 -2.9150784e-01
 -6.5042156e-01
 -6.0199881e-01
  2.5897467e-01
  4.1445583e-01
  2.0431250e-01
 -4.6931678e-01
  3.6255661e-01
  8.1344418e-02
 -5.4263884e-01
  2.8223348e-01
  1.0070908e+00
 -4.2623621e-01
  2.8328805e+00
  1.3936721e+00
 -1.5612266e+00
 -1.1504631e+00
 -1.2026577e+00
  3.1123039e-01
 -2.8417617e-01
 -3.3741578e-01
  3.2620019e-01
  8.5583024e-02
  3.1924936e-01
  4.1909948e-01
 -3.6169669e-01
  2.1632917e-01
 -7.3834963e-02
 -7.9772592e-01
  6.4219463e-01
 -1.6898300e-01
  5.7474333e-01
 -9.3273926e-01
 -7.7685690e-01
 -1.0778509e+00
  1.6007781e-01
  1.3138783e+00
 -2.5015719e+00
 -2.0556700e+00
  1.6440538e+00
 -5.7721061e-01
 -4.2899865e-01
 -3.8785291e-01
  5.3964752e-01
 -6.5838063e-01
 -4.6946496e-01
  6.0838592e-01
  1.0317041e+00
  2.2479372e-02
 -9.4399460e-02
  6.6198772e-01
 -1.1723500e-01
 -3.0979431e-01
 -9.0072416e-02
  3.0475867e-01
 -2.2713146e-01
 -2.7898738e-01
 -2.7563283e-01
  1.7939575e-01
  1.8641737e-01
 -1.1081766e-01
  2.6001019e+00
  1.0953894e+00
  3.2786143e-01
  3.7155402e-01
 -3.0371884e-01
  1.0133542e+00
  3.0636835e-01
 -1.3700027e-02
  3.5866430e-01
  8.4514976e-01
  3.1524438e-01
 -1.3963444e+00
  9.6383369e-01
  1.1657286e+00
 -1.0690284e+00
  3.9931414e-01
  4.9593031e-01
 -1.4810808e-01
 -5.7295930e-01
 -1.1606102e-02
 -1.5606687e+00
 -9.3381554e-01
  2.1579387e+00
  7.3010224e-01
 -8.9224589e-01
 -2.3021697e-01
 -5.9117019e-01
  2.5673875e-01
 -2.5354517e-01
  1.2891901e+00
 -5.5254352e-01
 -8.2679605e-01
 -1.3614143e+00
  2.5222054e-01
  4.8442253e-01
  7.5823981e-01
 -6.5302700e-01
 -3.8528407e-01
 -1.1331413e+00
  3.9607253e-02
  6.2800074e-01
  6.7095304e-01
  5.5773568e-01
  5.1637858e-01
  8.7842355e-03
 -1.6409555e-02
  9.4453380e-02
 -8.5857916e-01
 -1.5295777e-01
 -8.5670245e-01
 -1.2716836e+00
 -4.0478104e-01
  8.3512850e-03
 -3.8825963e-02
 -1.4071480e+00
 -1.5191576e+00
  2.2594830e-01
  7.2355562e-01
 -4.4554836e-01
  3.4568578e-01
  1.6800748e-01
 -2.2628729e+00
 -1.0662417e+00
 -7.2988582e-01
 -2.1162762e-01
 -1.5534586e+00
 -6.3394076e-01
 -8.6094493e-01
 -1.2381128e+00
 -9.1739649e-01
 -1.3041371e+00
 -4.7467440e-02
 -9.7412997e-01
 -1.0534475e+00
 -6.9770157e-01
  1.0004566e+00
  4.5175079e-01
 -8.7488955e-01
 -7.4862349e-01
  7.8875637e-01
 -7.6220997e-02
  4.2228547e-01
 -9.1432089e-01
  7.0729065e-01
 -5.4484576e-01
  4.5648378e-01
  4.5687622e-01
  1.5594366e-01
  3.8529366e-01
  6.0729557e-01
 -3.6574733e-02
 -3.0167186e-01
 -1.6256300e-01
 -4.3958730e-01
 -1.1289855e-01
  5.3922512e-02
 -1.9007909e+00
  1.7512305e+00
 -1.1543947e+00
  7.0815504e-01
 -6.0204732e-01
  4.9956483e-01
 -5.7086980e-01
 -8.1812990e-01
 -2.6668090e-01
 -1.5590821e-01
 -2.0777111e+00
 -2.8047308e-01
 -9.7625844e-02
  4.7537748e-02
 -1.3430521e+00
  5.7067889e-01
 -6.8076557e-01
 -7.6071292e-01
 -6.5784180e-01
 -9.2133664e-02
  7.0203984e-01
 -1.3470343e-01
  1.1673267e+00
 -1.0818317e-01
 -1.7753191e-01
  8.9590043e-01
 -1.0543547e+00
 -5.0960416e-01
  1.6662862e+00
  2.6051118e-03
  1.1069523e+00
 -1.3925133e+00
  3.4540996e-01
 -1.2100708e+00
  2.1728574e-01
  4.8175526e-01
 -3.9747006e-01
 -1.6040376e-01
  2.5247282e-01
 -5.0979024e-01
 -7.5423694e-01
 -5.0255889e-01
  8.5712856e-01
 -3.6396652e-02
  1.3213569e-01
 -4.4161215e-01
 -9.2449987e-01
 -5.0285250e-01
  7.9337800e-01
  3.6381525e-01
  2.4444811e-01
 -8.7304938e-01
 -5.2184004e-01
  1.1725172e+00
 -6.7608809e-01
  8.8199419e-01
  5.1942015e-01
 -9.9621832e-02
  9.1979116e-01
  4.3366423e-01
 -3.2997838e-01
  7.4713188e-01
  3.9390168e-01
 -6.6801602e-01
  8.8950492e-02
  4.5994088e-01
 -7.8079027e-01
  3.2971886e-01
  7.3537421e-01
 -1.0436668e+00
  1.2702633e-01
  1.7240864e-01
 -8.5871160e-01
  7.1311271e-01
  3.8519293e-01
  4.3281737e-01
 -6.1017156e-01
 -1.0129108e+00
 -3.8561486e-02
  3.5328043e-01
 -1.6361309e+00
  1.1852734e-01
  1.5270954e-01
 -2.7541732e-02
 -4.0433750e-01
  1.6380204e-01
  2.8954050e-01
  3.4907177e-01
  3.3797169e-01
 -3.6407223e-01
  1.4662871e-01
 -5.6613151e-02
  2.2506377e-01
 -6.3041228e-01
 -1.9620946e-01
 -2.6284137e-01
 -8.3605677e-01
 -2.1928491e-01
 -7.4669999e-01
 -7.4305910e-01
 -9.9900973e-01
 -1.6121880e+00
 -1.4199420e-02
 -1.1771165e+00
  3.2076070e-01
 -2.0186126e+00
  2.8885192e-01
 -5.5411094e-01
  9.0963900e-01
 -5.8879040e-02
 -2.5711155e-03
 -3.5574538e-01
 -3.5405517e-01
  5.1381540e-01
 -5.5357665e-01
  4.4848496e-01
  7.2097844e-01
  7.2060525e-01
 -1.1651603e+00
 -1.7358708e-01
  8.6146975e-01
 -4.1995159e-01
 -6.9855046e-01
  1.0834292e+00
  6.2165231e-01
 -1.8169538e+00
  3.5661757e-01
  4.6868488e-01
 -6.5519005e-01
 -8.8785768e-01
  1.3194029e+00
  2.3245043e-01
 -7.5128183e-02
  6.0020143e-01
  1.1575853e-01
  6.4757341e-01
 -4.3784809e-01
  3.9631018e-01
 -1.3396743e-01
 -1.8592095e-01
  8.5172915e-01
  4.3621314e-01
 -2.0549759e-01
 -7.9747595e-02
  2.9673347e-01
 -5.7359010e-01
 -6.1250526e-01
 -4.1966414e-01
  1.0705069e-01
  1.1140314e+00
  6.8306398e-01
  1.0107343e+00
  7.4838537e-01
 -9.8387289e-01
 -5.8891386e-01
  3.1701866e-01
 -2.1980065e-01
 -1.3088944e+00
 -2.4948038e-01
 -2.8393513e-01
 -3.5340887e-01
  3.9800534e-01
 -4.4436902e-01
 -8.0321157e-01
  3.9931369e-01
  1.2495318e-01
  1.7583703e-01
 -7.4662006e-01
  1.4592202e+00
  2.7398923e-01
  8.8185507e-01
  2.4062961e-01
 -5.2850884e-01
  5.4156195e-02
 -8.2702684e-01
 -3.9487907e-01
 -9.3838817e-01
 -5.9552819e-01
  4.7602564e-01
  6.6526437e-01
  1.0062705e+00
 -6.4600897e-01
 -1.5982087e+00
 -8.4337258e-01
 -1.4660616e-02
 -6.7429787e-01
  6.7951322e-01
 -2.2741811e-01
 -7.8445774e-01
  4.9519774e-01
 -1.9012310e-01
  2.0068695e-01
  4.1443253e-01
 -5.1285964e-01
  6.6879671e-03
 -2.6260310e-01
 -1.0339173e+00
 -1.1313745e+00
  3.6450344e-01
  3.0584973e-01
 -6.5848590e-03
 -1.5811338e+00
 -6.7101116e-03
  2.0114487e-01
  4.0275025e-01
 -1.3234623e-01
  1.8049408e-01
 -2.8859213e-01
  5.8008689e-01
  1.1263985e-01
 -3.8768867e-01
 -2.1308888e-01
  6.6900653e-01
  4.6933311e-01
 -2.6501647e-01
  1.6740285e-01
 -4.3310592e-01
  1.7738420e-01
  3.2604960e-01
 -1.7153872e+00
 -9.8355585e-01
 -1.3774702e-01
  5.8848643e-01
  6.5879840e-01
 -2.0671539e-01
 -2.0428464e-01
 -4.5293067e-02
 -6.2665844e-01
 -3.8598940e-02
 -9.7040921e-01
 -2.3248006e-01
  3.3292255e-01
 -5.8865792e-01
  4.2208058e-01
 -9.5700741e-01
  3.3188185e-01
 -2.6902518e-01
  7.7643132e-01
 -2.7328038e-01
 -2.8978119e-02
  4.2517048e-01
  3.7849140e-01
  5.3501827e-01
 -1.5901807e-01
 -8.1527311e-01
  1.1764778e+00
  4.1779363e-01
 -7.2272092e-01
  5.0927114e-01
  1.2134627e-01
 -1.9534549e+00
 -1.5203851e+00
  2.4114068e-01
  1.7455827e+00
 -2.4470162e-01
 -1.1889514e+00
 -5.0601792e-01
  4.9959517e-01
 -1.6727530e-03
  9.0678804e-02
 -8.1385916e-01
  4.8727030e-01
 -9.6485746e-01
 -8.6553937e-01
 -2.0382324e-01
 -1.3443557e+00
  5.0427765e-01
  3.3239236e-01
  1.0061364e+00
  4.0651906e-01
 -9.0829957e-01
 -1.6519025e-01
  5.2719772e-01
  4.6730188e-01
 -2.4624930e-01
 -1.0588253e-01
  1.7722560e-01
  3.2323748e-01
 -3.0403277e-01
  3.1734759e-01
  2.6650712e-01
  1.0786499e+00
  5.5615193e-01
 -6.2858629e-01
  9.4875544e-01
 -3.1710002e-01
  5.9281226e-02
 -1.2754354e-01
 -5.0285690e-02
  1.0914801e-02
 -2.1607050e-01
 -2.4581145e-01
  5.4236650e-01
  3.9868790e-01
  2.1752112e-01
 -1.2289802e+00
  2.4908280e-01
  7.6611048e-01
 -4.8195973e-01
  4.2939615e-01
 -1.4138987e+00
 -9.4248450e-01
  1.8646134e-02
 -3.1215087e-02
 -2.6396227e-01
  1.6684307e-01
  9.4157189e-01
  7.7024776e-01
 -5.5476177e-01
 -2.2672452e-01
  4.6250325e-01
 -4.0402511e-01
 -3.5297915e-02
 -1.5013300e-01
  7.5589854e-01
 -2.2325350e-01
  6.4498132e-01
  4.7234010e-02
 -7.6537973e-01
 -2.8674066e-01
 -7.4416155e-01
 -2.7121067e-01
  5.4744112e-01
 -2.0643502e-01
  3.7217256e-01
  1.3477367e+00
 -8.6365622e-01
  3.0906729e-02
 -7.1502662e-01
 -7.5430936e-01
  3.7509754e-01
  1.1234130e-01
 -6.1694652e-01
 -2.0306553e-01
  5.7228249e-01
 -1.1892551e-01
 -5.9043244e-02
 -4.5287824e-01
 -6.6187859e-02
  2.8922689e-01
 -1.5077949e-01
 -5.4971880e-01
  2.0255461e+00
  3.2560098e-01
 -1.7544150e+00
  2.8004003e+00
 -1.2180958e+00
 -6.3339680e-01
 -1.4223330e-01
  2.2193475e-01
  2.9253951e-01
  3.0651256e-01
  1.3455912e+00
 -2.5205333e-02
  4.2039889e-01
  1.3404999e+00
  1.1094567e-01
  7.0842832e-01
 -2.6931834e-01
 -1.1428401e+00
  6.1343640e-01
 -6.1121291e-01
 -1.8041137e-01
  2.3527348e-01
  2.0797503e-01
  2.2008271e+00
  1.0507656e+00
  6.4841068e-01
  8.6357439e-01
  8.6525309e-01
  1.5214314e+00
  4.0831712e-01
 -1.5468054e-01
  6.3305104e-01
  3.7493709e-01
  1.2194610e+00
 -1.8980984e-01
  1.2245361e-01
  1.1034578e+00
  4.1358885e-01
 -2.2521771e-01
 -4.1881987e-01
  9.7954035e-01
  1.4122859e+00
  1.4171235e-01
 -4.3350956e-01
  8.5476905e-01
  2.0837893e-01
  4.0938920e-01
  2.6890218e-01
  1.0278767e+00
  6.8850768e-01
  3.8903901e-01
  2.5082516e-02
  8.7814736e-01
  6.0395086e-01
  1.1142296e+00
  2.0875415e-01
 -4.8376374e-02
 -4.9898037e-01
 -4.4563314e-01
  5.3178978e-01
 -2.0917216e-01
  6.0741764e-01
 -1.4753649e-01
 -3.2327920e-01
  8.1628874e-02
  1.6810890e-01
  5.5741596e-01
  7.6916717e-02
 -3.6439288e-02
 -9.5186120e-01
  9.9691707e-01
  2.6681662e-01
  6.4622062e-01
  8.0565387e-01
  4.2157748e-01
  5.0527579e-01
 -1.0959435e+00
  3.9033175e-01
  9.7733282e-02
 -1.2492916e-01
 -5.2544922e-01
  3.7206709e-01
 -6.2130503e-02
 -8.9345342e-01
 -8.1316449e-02
 -1.5560892e-01
 -3.4514178e-02
  1.5227595e-01
  7.7003616e-01
  1.2719808e+00
  3.6084992e-01
  3.0179864e-01
 -1.6068688e-01
 -1.9862749e-01
  7.5294048e-01
  3.1260070e-01
 -3.5094547e-01
 -5.1286924e-01
 -5.4091388e-01
  1.2203360e+00
  8.4105420e-01
  1.4930305e+00
 -1.7988756e-01
 -1.6106658e-03
 -2.7684355e+00
 -4.2351136e-01
  1.1101891e-01
 -9.4718270e-02
 -3.1390484e-02
  2.1685036e-01
  1.8574002e-01
 -1.3830773e-02
  9.3739909e-01
 -4.8382589e-01
 -5.8821547e-01
 -3.7753338e-01
  1.5537388e+00
 -1.1458677e+00
  8.2968217e-01
  5.1977390e-01
 -1.6143473e+00
  8.6293513e-01
  2.3746468e-01
  1.2976706e-01
 -3.4048545e-01
 -1.6934806e+00
 -2.0836537e-01
 -7.4947172e-01
 -2.9623348e-01
 -1.9951116e-02
  2.5767112e-01
  2.2946624e-01
 -3.4257114e-01
  2.3932648e-01
  3.9223513e-01
  8.6563587e-02
 -2.4753574e-01
 -2.6904082e-01
  1.3528478e-01
  3.9859745e-03
  2.0749418e-01
  4.7245154e-01
 -9.2231063e-03
 -6.2386268e-01
  2.6786128e-01
 -3.1277525e-01
  5.8043730e-01
 -1.8612771e+00
  8.6837077e-01
 -6.0366314e-02
 -1.7442310e+00
 -8.5354775e-01
  9.0644217e-01
 -9.0379995e-01
  8.4611171e-01
  7.1296942e-01
  1.8285101e-02
 -5.3039855e-01
  5.0427198e-02
  2.3728675e-01
 -2.0824418e+00
  1.3504556e-01
 -9.8047715e-01
 -2.7979898e-01
 -7.1169388e-01
 -4.8298538e-01
  8.3645612e-02
  1.3472240e-01
  5.9004146e-01
  7.6622315e-02
 -7.1038747e-01
  1.0275878e+00
 -6.4172357e-01
  5.4676741e-01
  5.3502864e-01
 -5.1102452e-02
  4.1842932e-01
  1.4620540e-01
  9.8628700e-01
  1.4903185e-02
 -6.5677440e-01
 -5.1829875e-01
 -1.3288847e+00
  2.1396514e-02
  1.1310707e-02
  4.0537137e-01
 -1.2665358e-01
 -5.1433796e-01
  1.4911345e-01
  5.4539865e-01
  1.6607921e-01
 -2.9519099e-01
 -1.1341121e+00
 -4.2021242e-01
 -1.6186360e-01
 -1.5473403e-01
  7.5642306e-01
 -6.5190363e-01
 -5.7703638e-01
  2.5197431e-01
  2.2811599e-01
  2.8024149e-01
  9.9810672e-01
  5.2429730e-01
 -1.2086186e+00
 -3.1618869e-01
 -1.0228337e-01
 -1.0386084e+00
  9.8005407e-02
 -8.8548577e-01
  1.6388966e-01
  3.5166904e-01
 -9.2416763e-02
 -5.8994997e-01
 -3.5282251e-01
 -4.4608023e-02
  8.5610926e-02
  4.1928716e-02
  3.9256594e-01
 -8.6023653e-01
  6.5549560e-02
  1.6472152e-01
  1.7514673e-01
 -3.5923439e-01
 -1.0545926e+00
  2.9282418e-01
  2.0138299e-01
 -3.9638609e-02
  2.5992519e-01
  1.5251854e-01
  4.5131665e-01
  2.0995645e-01
 -1.2026705e-02
 -2.6773337e-01
  3.7346014e-01
  1.3281877e-01
  4.7916248e-01
  1.4369434e-01
  6.3629515e-02
 -3.4801662e-01
 -1.2424088e-01
 -4.4998392e-01
  9.7225614e-02
 -1.3677263e-01
 -1.4982194e+00
  8.3267617e-01
  1.5158234e+00
  5.3837901e-01
 -9.9404770e-01
  4.3828899e-01
 -4.5399603e-01
 -5.7838345e-01
  8.4342104e-01
  4.0196002e-01
  3.6030792e-02
 -1.5355323e-01
 -2.7788395e-01
  3.0478517e-02
  9.9800184e-02
  2.3514135e-01
  2.2426276e+00
  4.0274423e-01
 -2.9787672e-01
  2.1190140e-01
  2.4243397e-01
  2.2573330e-01
  5.5335635e-01
  1.3186963e-01
  5.2924919e-01
 -7.7893484e-01
 -9.0992644e-02
  3.8931191e-01
  1.0152720e+00
  3.4345496e-01
 -7.2396636e-01
 -1.3235946e-01
 -4.1825801e-01
  3.8459226e-01
 -3.3678713e-01
 -9.4302678e-01
 -9.3438196e-01
  6.9896191e-01
  6.3851975e-02
 -1.1290519e-02
 -8.9837424e-02
  4.3409497e-01
 -4.9061525e-01
  1.9491941e-01
  6.7429066e-01
 -5.7586157e-01
 -3.6712959e-01
 -9.8066360e-01
 -5.8479404e-01
  2.2465797e-01
 -1.1734884e-01
  6.1124331e-01
  6.1958617e-01
 -8.8945174e-01
 -8.2081407e-01
 -1.0595797e+00
 -7.2401345e-01
  9.2879933e-01
 -6.6617620e-01
  1.3230751e-01
 -1.1462900e-01
 -3.7379318e-01
 -1.7136945e-01
 -1.1992785e+00
 -1.5741181e-01
 -5.2164376e-01
 -5.4105252e-01
 -1.1578814e-02
  2.9936153e-01
  4.1050103e-02
 -9.2559958e-01
 -7.3886412e-01
 -5.2325994e-01
 -3.4424525e-01
 -1.5433375e+00
  4.2954215e-01
 -1.9410808e-02
 -7.1142487e-02
 -8.0716103e-01
 -6.8206415e-02
 -6.7599380e-01
 -1.5286565e-01
 -1.4174341e-01
  2.3383220e-01
 -3.4163019e-01
  3.7377873e-01
  7.2631337e-02
  4.7738975e-01
  1.0905149e+00
 -8.9913189e-01
 -1.8657447e-01
  2.3506576e-01
 -2.0823970e-01
 -1.1892658e-01
 -2.4939042e-01
  8.9831585e-01
 -5.6601241e-02
  1.9414742e-01
  5.1660711e-01
 -2.7694750e+00
 -2.6318413e-01
 -1.4733417e+00
  1.0205449e-01
 -1.8650780e-03
 -3.9406645e-01
 -3.1728699e+00
 -6.0231537e-01
  3.7004769e-01
 -1.0788814e+00
 -1.4901586e+00
 -2.0683344e-01
  1.4885007e+00
  1.6047003e+00
 -1.2613693e-01
 -4.2071879e-01
  4.7937363e-02
 -2.9949066e-01
  5.2908230e-01
 -8.0747777e-01
 -4.0854219e-01
 -1.5115104e+00
  2.0982454e+00
 -3.3656150e-01
 -9.9067581e-01
 -1.0499471e+00
  2.9300541e-01
 -7.2791499e-01
  3.6677805e-01
 -9.3812096e-01
  1.1801689e-01
 -1.4939399e+00
 -1.3251947e-01
  4.7710246e-01
 -1.3391538e-01
  2.4053849e-01
  1.0693738e+00
  1.7925280e-01
 -2.9595673e-01
  7.2739638e-02
  1.3130355e-01
  1.3854392e+00
  2.0534150e-01
  3.3886316e-01
 -6.4907956e-01
 -4.2347127e-01
  2.9960540e-01
 -4.0401566e-01
 -4.9947050e-01
  5.8929825e-01
 -1.0886073e+00
 -8.8546664e-02
  3.1044951e-01
 -8.3968967e-01
 -1.5001756e-01
 -4.7564039e+00
 -8.9088798e-01
  1.7341498e-01
 -6.9327205e-02
  4.4185260e-01
  7.5090155e-02
 -2.5605876e-02
 -6.3158619e-01
  1.0315582e+00
 -4.1893771e-01
  8.8518840e-01
  8.6730981e-01
  9.7582585e-01
  1.3311301e-01
 -1.6383055e+00
 -7.7591605e-02
 -1.8161684e+00
  5.0009394e-01
 -2.2647056e-01
 -4.2936188e-01
  1.0087913e+00
  1.1262176e-01
  2.3764054e-01
  3.6135730e-01
 -5.5693644e-01
 -4.6751282e-01
 -6.8549551e-02
 -3.8257581e-01
 -2.7561378e-01
 -4.4665611e-01
  9.3328595e-02
  3.6649713e-01
 -3.7048563e-01
 -5.0199312e-01
 -2.2601841e-01
  4.8053318e-01
  1.0921817e-01
 -8.4497303e-01
  4.0030006e-02
 -4.8374839e-02
 -2.9860801e-01
  2.5995606e-01
  4.1537645e-01
  4.3936768e-01
 -8.7799057e-02
  5.2770603e-01
  5.6493390e-01
 -1.0452064e+00
 -1.8101245e-01
 -1.6826849e+00
  3.2891357e-01
  1.0793848e+00
 -1.8001832e-01
 -1.8958203e-01
 -4.2257562e-01
 -4.3741247e-01
  1.8090232e-01
  5.4757094e-01
  2.6052315e-03
 -4.5557700e-02
  2.9936022e-01
 -3.9688787e-01
 -1.9061518e-01
 -9.6881461e-01
 -2.8920642e-01
 -1.7643600e+00
  2.5310773e-01
  9.6499515e-01
 -1.6208786e-01
  1.9112746e-01
  4.2604524e-01
  8.4410913e-02
  3.6143862e-02
 -1.1592970e-01
  5.2206123e-01
 -6.9643795e-01
  7.6076704e-01
 -1.4676601e-01
  3.5846359e-01
 -1.9920178e-01
  2.2167879e-01
 -3.2623467e-01
 -5.2494371e-01
 -2.8052104e-01
  5.9432125e-01
 -3.4350270e-01
  1.1954417e-01
  2.6581243e-01
  4.2845675e-01
  2.6932725e-01
 -1.7024156e-01
  5.8729496e-02
 -1.1586998e-01
  7.7662569e-01
 -1.5022087e+00
  1.4327593e-01
 -1.2018054e+00
  3.2093334e-01
 -9.8640078e-01
 -9.9397588e-01
 -1.3250771e-01
  1.0955241e-01
  7.1788961e-01
  4.9423555e-01
  5.0079781e-01
  4.7280964e-01
  2.3320170e-02
  3.9703578e-01
 -7.4895465e-01
 -3.8728872e-01
 -1.3965231e-01
 -1.8335158e-01
  3.5606578e-01
  2.5283468e-01
 -4.2099506e-01
 -1.1827120e-01
 -1.1315891e+00
  6.5839547e-01
  1.9699384e-01
  1.7464390e-01
 -7.9789656e-01
 -6.3690744e-02
  3.5253757e-01
  3.5902420e-01
  6.3884920e-01
 -1.8370607e-01
 -3.9820620e-01
 -8.8462532e-02
  2.8126426e-02
 -8.9523949e-02
 -1.5977539e-01
  4.9556185e-02
 -6.1171776e-01
  5.2600586e-01
 -2.0490339e-01
 -4.7922722e-01
 -2.2140944e-01
  9.9206954e-01
  1.7522087e+00
 -3.1353688e-01
  8.9356309e-01
 -1.5072325e+00
  2.0041466e+00
 -8.6890727e-02
 -1.4692131e+00
 -6.9113946e-01
 -1.4031310e+00
  4.6227768e-01
  8.9064658e-01
 -1.1286892e+00
  1.3486002e-01
 -4.2614204e-01
 -1.4489167e+00
  1.1016729e+00
  7.9411012e-01
 -5.7937634e-01
 -1.4267027e+00
  6.8912268e-02
 -4.8729658e-01
 -8.3503008e-01
 -5.5097544e-01
  4.0883106e-01
  4.2793450e-01
 -7.3192424e-01
 -6.0091394e-01
 -1.4215937e-01
 -4.4601494e-01
  8.8509274e-01
  4.4746855e-01
  8.8402700e-01
  8.9551008e-01
  6.7713720e-01
  6.7929804e-01
 -8.1674355e-01
  6.2188429e-01
 -1.4337173e+00
 -9.9141181e-01
  5.4208368e-01
  1.2705232e-01
  2.5532269e-01
  1.4309242e+00
  1.6450197e-01
  2.3813944e-01
  1.1402950e+00
 -2.0151697e-01
  5.6087263e-02
 -2.7254340e-01
  6.0678333e-01
  1.6431761e-03
  8.4334977e-02
  2.0534448e-01
  5.0926137e-01
 -1.9790222e-01
  4.1715580e-01
 -3.4809944e-01
 -1.4788070e-01
  1.8732497e-01
  4.8942661e-01
  5.2768672e-01
 -7.6429385e-01
 -6.7302614e-02
  1.1074708e-01
 -3.0204591e-01
  1.4492373e-01
 -2.3425505e-01
  5.1634949e-01
 -4.0723321e-01
 -5.4198128e-01
  2.1730608e-01
 -4.2125547e-01
 -9.3029100e-01
 -1.0567539e+00
 -1.6206232e-01
 -1.0110172e+00
 -6.6480571e-01
 -1.3857038e-01
  1.1602531e-01
  1.4736789e+00
  6.8645090e-01
  2.5566542e-01
 -9.5512313e-01
 -1.0021390e-01
  3.7870982e-01
  8.6126804e-02
 -3.1264007e-01
 -7.8279740e-01
 -8.0101812e-01
  2.1150212e-01
 -2.6725230e-01
  2.2846510e-01
  1.1969477e-01
 -9.5024206e-02
  2.6568717e-01
  3.8419589e-01
  6.4322457e-02
  7.0597070e-01
 -9.9437195e-01
  2.6165596e-01
  2.8559321e-01
 -1.3231041e+00
  1.7632214e+00
 -8.8505727e-01
  2.0814145e-01
  3.0483735e-01
