nep4_zbl 16 Ag Al Au Cr Cu Mg Mo Ni Pb Pd Pt Ta Ti V W Zr 
zbl 1 2
cutoff 6 5 200 134
n_max 6 6
basis_size 8 8
l_max 4 2 1
ANN 50 0
 -1.8012567e-01
 -3.5604650e-01
 -2.0509891e-01
  3.4925923e-01
  6.1834228e-01
  1.8045377e+00
  2.9937705e-01
  4.7744167e-01
 -2.1273436e-01
  1.5831353e-01
  2.5658792e-01
  2.9207253e-01
 -8.4472083e-02
 -1.8812922e-01
  2.0131871e-02
 -7.1382117e-01
  1.2565085e-01
  1.0721213e-01
 -2.3785636e-02
  3.2968894e-02
  5.3454900e-01
 -4.5197365e-01
 -1.9834219e-01
 -5.6480891e-01
 -1.4607221e-01
 -7.5553131e-01
  2.9028854e-01
 -3.6418524e-01
 -1.7215278e-02
 -1.1072036e-01
  4.6288529e-01
  1.4356785e-01
  3.6668891e-01
  4.6707481e-01
  5.4633677e-01
 -2.9423413e-01
 -6.0020745e-01
 -3.4713182e-01
 -1.1747954e-01
 -3.8359714e-01
 -3.2172031e-03
  4.8793048e-01
 -1.7173134e-01
 -4.8675768e-02
 -2.2266291e-01
  3.7136504e-01
  9.3031876e-02
  2.5667924e-01
 -8.4586114e-02
 -1.2304639e+00
  5.0701481e-01
  2.1079886e+00
 -7.3898095e-01
  8.8829741e-02
 -2.9950576e+00
 -1.8336451e+00
  2.9288745e-01
  8.6481847e-02
 -1.2948612e+00
  4.8496881e-01
  5.1949197e-01
  5.6491592e-03
  2.8283131e-01
  3.4298772e-01
 -9.4768070e-02
 -1.2572842e+00
  1.3008760e+00
  9.6807134e-01
 -1.4388503e-01
 -2.2955512e-01
  6.5344059e-01
  4.0412807e-01
 -1.3951851e+00
  1.0571648e+00
 -1.7023656e-01
 -3.8341582e-01
  5.5977315e-01
 -3.6833280e-01
  6.1102730e-01
 -2.0125835e+00
 -4.9406254e-01
  3.8706297e-01
 -1.4841528e-01
 -4.4313899e-01
  4.9696881e-01
  5.1994091e-01
  6.1344260e-01
  1.8688644e-01
 -2.8940517e-04
 -1.3132473e-02
 -5.2474803e-01
 -1.6143981e-01
  1.4167786e-01
 -2.1326371e-01
 -1.8302156e-01
 -1.8293072e-01
 -1.2737577e-01
 -1.0821948e-01
  1.1436441e+00
 -4.1140687e-01
 -1.1085194e+00
  1.4776887e+00
 -1.2827895e+00
  2.0920663e+00
  3.3347532e-01
 -9.6231140e-02
  1.9197522e-01
 -2.1881397e-01
 -3.2358032e-01
 -9.7419461e-03
  2.3407031e-02
 -3.1651947e-01
  4.4395810e-01
 -7.7387762e-01
  5.0069686e-02
  4.6028249e-02
  1.9738538e-02
 -4.3013194e-01
 -6.9986463e-02
  1.9406056e-02
 -1.0963860e-01
 -2.0395187e-01
 -2.2572111e-01
 -1.2646452e+00
 -2.7050382e-01
  7.4757129e-01
  5.5456859e-01
 -4.1206038e-01
 -1.5053852e+00
  5.1007401e-02
 -6.7901558e-01
  3.4483385e-01
  1.7648666e-01
  8.5576937e-02
  1.4085930e-02
  1.1851153e+00
 -8.1977874e-02
  6.8216425e-01
  4.5622796e-01
 -2.7407578e-01
  1.8045437e-02
 -2.5504288e-01
  6.8057120e-02
 -1.8064478e-02
  2.1633586e-01
 -3.5598911e-02
 -1.9914606e-01
 -7.9684772e-02
 -2.2732261e-01
 -8.2247859e-01
 -7.5752187e-01
 -9.3154478e-01
 -9.7068888e-01
  4.9817407e-01
 -4.1671020e-01
 -1.0142340e-02
 -1.2718484e-01
  8.5446671e-02
 -4.8823425e-01
  4.6291027e-02
 -9.0654537e-02
 -5.2971829e-02
  3.7222055e-01
 -1.6473559e-01
 -2.8841913e-01
  7.1445578e-01
  2.2035239e-02
  7.0371432e-03
  4.0399489e-01
  2.8493640e-01
  7.0588544e-02
  1.4211017e-01
 -1.2043022e-01
 -3.3896804e-01
 -1.7042761e-01
  2.7542421e-01
  6.1626053e-01
 -3.3402869e-01
 -1.2323528e-01
 -7.4652636e-01
  7.6489933e-02
  7.9080217e-02
 -4.6953727e-03
 -2.8006554e-01
 -5.3047568e-02
 -2.0170049e-01
  2.0204668e-01
 -3.5258302e-01
  1.0577545e-01
 -4.6947473e-01
 -3.1241351e-01
 -3.6422578e-01
 -3.6700556e-01
  5.4730203e-02
 -1.1154689e-01
  6.4534754e-02
 -3.9128315e-01
 -2.7808061e-01
 -9.4425684e-01
  7.6588489e-02
  6.1882192e-01
  7.2558492e-01
  5.7430703e-02
  3.6793390e-01
 -1.0851628e-01
  4.2505059e-01
  5.4084194e-01
 -3.2417986e-01
  3.1351596e-01
 -2.8666657e-01
  1.7102355e-01
  6.8649076e-02
  2.6924402e-01
  1.9334843e-02
  1.3288574e-01
  3.1088480e-01
 -1.8874781e-01
 -4.3006647e-01
 -1.5440671e-01
 -1.4563999e-01
 -2.8335430e-02
 -5.9488010e-02
  6.6132843e-01
  1.9146840e-01
  4.9150246e-01
 -1.4484215e-01
  4.7707772e-01
  5.7138157e-01
 -2.0771363e-01
  7.3053175e-01
  5.0616402e-02
  4.1825060e-02
 -1.3871275e-01
 -2.6886418e-01
  4.8736647e-01
  5.8128845e-02
  3.8217701e-02
 -7.5934842e-02
 -1.9177592e-01
 -1.1962972e-02
 -3.8564566e-01
  5.2952838e-01
  6.0070509e-01
 -4.0704027e-02
  1.1905167e-01
 -3.7023792e-01
  7.8597635e-01
  4.9360770e-01
 -1.2251680e-01
 -7.0217413e-01
 -3.1472024e-01
 -4.4274843e-01
 -1.6959581e-01
  5.6946087e-01
  4.2001501e-01
  4.7178653e-01
  3.7658188e-01
  3.0056363e-01
  4.4998863e-01
  4.8276910e-01
 -3.2676719e-02
  8.2647197e-02
  5.6914043e-01
  1.3160704e-01
  3.5703614e-01
  4.2428547e-01
  5.5255610e-01
 -9.1763031e-01
 -1.8541506e-01
 -1.4210662e+00
  4.2894784e-01
  1.7717548e-01
 -2.7344561e-01
  2.2393605e-03
 -1.1357199e-01
  2.2669469e-01
 -4.0874290e-01
  3.3890662e-01
 -7.9593167e-02
 -2.0140997e-01
 -1.7297375e-01
 -1.8648928e-01
 -3.6272740e-01
  4.4888571e-01
  1.6977291e-01
  2.4355175e-01
 -6.3703515e-02
  8.9572169e-02
 -1.2026230e-01
 -3.3486742e-01
 -2.0013170e-01
 -5.6580715e-02
  3.5400474e-01
  8.5529171e-02
 -1.9860369e+00
  2.5876594e+00
  2.4053967e-01
 -1.5252896e-01
  3.5436249e+00
  1.5510441e+00
  3.2153627e-01
  1.1195097e-01
  8.2522458e-01
  1.7780643e+00
  9.2310351e-01
  2.1582314e-01
 -5.7045266e-02
  1.4868255e+00
  8.4914744e-01
 -3.6235526e-01
  5.8202761e-01
 -9.4448604e-02
 -3.6779016e-01
  3.1484410e-01
  1.8164045e+00
  4.0425401e-02
  1.6364661e+00
  5.1295012e-01
  1.2337413e+00
  4.9419963e-01
 -5.8755058e-01
  8.5691500e-01
  1.4803017e-02
 -7.6064163e-01
  1.6051085e+00
 -1.2144363e+00
  2.4037276e-01
  2.7935699e-01
  1.8663549e-01
 -4.0464866e-01
 -4.3260250e-03
 -5.4340094e-01
  3.1069972e-02
 -1.5594551e-01
  6.3381314e-02
 -2.9477406e-01
 -2.3843651e-01
 -5.5372003e-03
  7.5520501e-02
  2.8109989e-01
 -1.4637366e-01
  8.4041409e-02
  1.9321778e-01
 -1.5854831e+00
  1.8596853e-01
 -3.0400076e+00
  1.5040247e+00
 -1.2964313e+00
  2.2183430e+00
  5.0074995e-01
 -2.0575811e-01
 -2.9003863e+00
  3.6488119e-01
 -1.6963290e+00
 -6.5232050e-01
 -6.0810864e-01
  2.5004897e-01
 -1.5009028e+00
  3.1888694e-01
  1.0859121e+00
 -1.9436613e+00
  1.0190535e-01
 -1.2092719e+00
 -9.6195608e-01
 -3.0162516e-01
 -1.1127867e+00
  6.9025397e-01
 -8.5554647e-01
 -4.4935292e-01
 -6.3629061e-01
 -5.4130644e-01
 -1.3697052e+00
 -9.4426945e-02
  1.1086599e+00
 -6.0293204e-01
 -3.8297638e-02
 -1.3217198e+00
  6.5980667e-01
  4.3043074e-01
 -6.1697640e-02
 -7.3248053e-01
  8.7267405e-01
  6.2779957e-01
 -2.1734163e-01
  4.8695648e-01
  2.0731834e-01
 -2.9787661e-03
  9.9457997e-01
  5.5189054e-02
  6.3661098e-02
 -4.6572253e-02
 -1.4398110e-01
  5.2639836e-01
 -1.0929973e-02
  4.0810212e-01
 -2.1602587e-01
  2.0486725e-02
  9.8352861e-01
 -2.7722853e-01
  8.4731035e-02
  2.6264183e-02
 -1.7168954e-01
 -2.2299325e-01
  3.0837679e-01
 -2.7855405e-01
  3.4259734e-01
 -2.1267736e-01
  3.8249955e-01
 -3.1941602e-01
 -5.3686512e-01
  2.5642100e-01
 -1.3907646e-01
  8.4687499e-03
 -3.4949324e-01
  5.6481814e-01
  1.0498393e-01
 -8.5494536e-01
  2.3645329e-01
 -3.5769902e-03
  8.8874362e-02
 -2.2476304e-02
 -6.6640747e-01
 -5.3652334e-01
 -1.0927062e-01
  3.5277301e-01
  1.3370316e-01
  6.4605251e-02
  9.9551044e-02
  8.5977638e-01
  9.3999162e-02
 -2.5422803e-01
  2.1907382e-01
  3.8134563e-01
  1.3051681e-01
  2.9285192e-01
 -5.8502764e-01
  4.3894714e-01
  3.2045367e-01
 -2.5123909e-01
 -3.9546934e-01
 -7.7499345e-02
 -2.4850658e-01
  2.2563180e-02
 -4.6217668e-01
  1.2436491e-01
  8.1676739e-01
  7.6118805e-02
  4.7732887e-01
 -3.3878431e-01
  1.8720526e-01
  1.0907490e-01
  1.1746548e-01
 -2.8407326e-01
  2.0436682e-01
 -4.1241938e-01
 -1.5205583e-01
 -1.7615613e-01
  2.2304115e-01
  1.3587360e-01
  3.0120143e-01
  2.0684136e-01
  1.0522697e-02
 -1.2134414e-01
  6.6704325e-02
  4.3452787e-03
 -1.8710090e-01
  3.2005700e-01
 -3.5600328e-01
 -1.4039355e-02
 -1.7725386e-01
  4.4149113e-01
  2.5074857e-01
 -3.6162212e-01
  4.3381447e-01
  9.8336138e-02
 -9.1002874e-02
  4.1062942e-01
  1.4782304e-01
 -1.3625516e-01
  1.2533534e-01
 -3.3026445e-01
 -1.3358070e-01
  1.0016033e-02
  8.1978969e-02
  2.1178393e-01
  4.6989310e-01
  4.5347443e-01
  1.8903717e-01
 -1.7663570e-01
  1.5033303e-01
 -2.8629634e+00
  1.1536852e+00
  2.0605590e+00
 -1.7810380e+00
  2.4726741e+00
  1.3678314e-01
 -2.2622049e-01
 -8.1530184e-01
 -1.3878013e-01
  6.7870545e-01
  6.9821465e-01
  3.6555526e-01
  8.9625621e-01
 -8.0831684e-02
 -8.4414214e-01
 -1.3585581e-01
  1.0475140e+00
  2.3006062e-01
  3.7037671e-01
  4.0024406e-01
  1.5771760e-01
 -2.7527249e-01
  4.4943753e-01
  9.7296220e-01
  2.1712452e-01
  5.0324386e-01
  6.0711658e-01
  1.0204414e-01
 -9.2053735e-01
 -7.2068714e-02
  2.6874653e-01
  1.1191462e+00
  1.0133820e+00
  1.4557739e+00
  6.5095550e-01
  6.5980470e-01
  7.8423671e-02
  7.9141855e-01
  2.6395461e-01
  1.9877969e-01
 -7.1320622e-03
  8.4971321e-01
  2.8219793e-02
  2.7930677e-01
  2.9514107e-01
 -2.8354120e-02
  1.4835088e-01
  2.0706221e-01
  1.5267859e-01
  2.7505178e-02
 -3.7634596e-01
 -3.4593317e-01
  9.1932438e-02
 -9.9012747e-02
 -2.5776160e-01
 -1.1078722e+00
  4.7569415e-01
 -1.3598563e-01
  2.1093294e-01
 -3.5800239e-01
 -4.4547737e-02
  7.6943882e-02
  1.6533697e-01
  2.3395562e-01
  2.4128908e-01
  6.0326580e-02
  3.0168241e-01
 -6.1424440e-01
 -4.3181002e-01
 -5.6801576e-02
  2.9297659e-01
 -5.2263498e-01
 -1.9272164e-02
  1.5385963e-02
  2.1430055e-02
 -1.4028607e-01
 -3.6850792e-01
 -9.9023283e-02
 -3.1217566e-01
 -2.6972356e-01
 -3.6908507e-02
 -9.7187698e-02
 -3.8648501e-02
 -1.9290565e-01
  2.6132649e-01
  1.7574023e-01
  9.0906626e-01
  1.7796243e-02
  2.1559078e-01
  1.1308181e-01
 -3.1360960e-01
 -4.0846261e-01
 -7.8931689e-02
 -4.0975565e-01
  1.3976023e-01
 -5.3993666e-01
  4.0297821e-01
 -1.8773641e-01
  1.8037363e+00
 -7.9316199e-01
 -1.1843493e+00
 -4.1340327e-01
 -1.9474528e+00
 -3.7154758e-01
  9.8401785e-01
  3.1111822e-01
  4.8500699e-01
 -2.3219221e+00
 -9.0040171e-01
  9.6907067e-01
  6.7390722e-01
 -4.2501864e-01
  2.0421200e-01
 -2.6643604e-01
 -3.0653458e+00
 -1.4242849e+00
  1.5095782e-01
 -6.9298524e-01
 -8.5881919e-01
  2.1460480e-03
  5.8505601e-01
  8.8025248e-01
 -6.1722350e-01
  7.2490263e-01
  1.0897344e-01
 -1.8355472e+00
 -8.0516237e-01
 -1.8154138e+00
 -8.0775559e-01
  1.3779865e-01
  4.7818688e-01
  5.1205173e-02
  3.3401284e-02
 -2.7211642e-01
 -5.5821061e-02
 -4.0912938e-01
  1.4307567e-01
  8.6444817e-02
  1.9040385e-01
 -1.7192388e-01
 -1.2646903e-01
 -2.3829471e-01
 -2.7208349e-02
 -1.4325443e-01
 -4.4954631e-01
  6.5443806e-02
 -4.4647381e-03
  8.3458853e-01
 -2.0053801e-01
 -8.5450418e-02
  3.6086865e-02
 -4.0878072e-01
 -6.0800361e-03
  4.1048297e-01
  1.0249487e-01
  8.6511725e-01
  3.0370504e-02
 -7.1243387e-01
  4.2409310e-01
 -1.9077119e-01
  5.2297950e-01
  8.4267068e-01
 -2.9763822e-03
  4.0469325e-01
 -2.6305151e-01
 -2.5462753e-01
 -4.5081191e-02
 -5.7566798e-01
  3.3655968e-02
 -5.2871948e-01
 -3.5823353e-02
 -2.3608732e-01
  1.0295783e+00
  4.5824006e-02
  3.5107747e-01
 -1.2461117e-01
 -2.3991673e-01
 -2.4766473e-01
  4.7636330e-02
  2.7875122e-01
 -2.0944203e-01
 -2.1349072e-01
  3.6962792e-02
 -5.3118867e-01
 -2.8788757e-01
 -9.9786423e-02
  4.2140514e-02
 -1.8775456e-01
 -3.4660560e-01
 -6.0811616e-02
  2.0961046e-01
  2.7829709e-02
 -2.4660952e-01
 -4.9585593e-01
 -1.8053798e-02
 -6.9010764e-02
  1.1285197e+00
 -5.9242880e-01
 -5.9299088e-01
 -1.2310933e+00
 -9.6128231e-01
 -1.4949530e+00
  7.9586309e-01
  1.4314598e+00
  8.5534491e-02
  4.0285540e-01
 -9.5858586e-01
  5.4480042e-02
  2.1491524e-02
 -1.2278372e-01
  2.9119401e+00
 -2.0384863e-01
 -7.2064370e-01
 -8.3108270e-01
 -1.7831294e-02
 -1.8321773e-01
  1.4660095e+00
  2.4712501e+00
 -5.9656006e-01
  1.1313690e+00
 -2.0470861e-01
  5.6889914e-02
 -5.6076258e-01
  1.1639134e+00
  1.8120480e+00
 -2.9882756e-01
 -1.7678082e-01
 -2.7471599e-01
  4.8608691e-01
 -3.0355951e-01
  1.9483796e-01
 -9.4660926e-01
  5.1459706e-01
 -2.7145919e-01
 -3.1010956e-02
 -9.9137157e-02
 -1.8584387e-01
  3.0407241e-01
  5.7679083e-02
 -2.2749132e-01
 -4.8646078e-01
 -3.7467173e-01
  1.1834989e-01
 -3.6049384e-01
 -1.9959131e-01
  5.3807956e-01
 -9.1152352e-01
 -3.4251031e-01
  1.3301465e-01
 -3.8486004e-01
 -6.9663391e-02
 -2.1529548e-01
 -3.1914639e-01
  2.5577385e-02
 -1.2878512e-01
  1.0528844e-01
  6.4426160e-01
  1.6209471e-01
  1.0285621e-01
  1.0404851e-01
 -1.3080689e-01
  5.9176367e-03
 -3.5258985e-01
  1.6569237e-01
  6.6158897e-01
 -4.0896642e-01
  1.5511975e-02
 -2.7170709e-01
  2.5709242e-02
  6.2141526e-01
  1.1481414e-01
 -2.6444212e-01
 -1.9694383e-01
  1.2914064e-02
  1.8453470e-01
 -2.6262301e-01
 -3.7652563e-02
  3.2619032e-01
 -2.4700320e-01
 -1.9368535e-01
 -5.6138414e-01
 -1.8451059e-01
  3.6599231e-01
 -1.8166454e-01
  1.4698853e-01
 -1.1555135e-01
  3.7682572e-01
  3.0123371e-01
  1.6326486e-01
 -3.0456418e-01
 -2.2481238e-02
  3.4255568e-02
 -4.9233008e-02
  3.6088172e-02
 -1.9619218e-01
  4.3151081e-01
  1.2542386e-01
  1.3694116e+00
 -9.9307543e-01
  2.1028786e+00
 -8.7612373e-01
 -4.1369680e-02
  1.3517419e-01
 -7.4937299e-02
  6.9755560e-01
  2.6526487e-01
 -1.2417506e-01
  4.6734482e-02
  1.4254777e-01
 -3.0771708e-01
  6.6245693e-01
 -3.8876894e-01
 -4.8709655e-01
  5.3451741e-01
  4.4076276e-01
 -2.9270566e-01
 -5.5798477e-01
  2.1409406e-01
 -4.7308514e-01
 -3.1285709e-01
 -1.0130046e-01
 -1.4322761e-02
  8.4008646e-01
  5.6855237e-01
  6.5474504e-01
  4.6905315e-01
  2.3012447e-01
  1.4080305e-01
  6.1766692e-02
 -2.4718033e-01
 -5.9171760e-01
  1.9422786e-01
  1.8673116e-02
  5.3359133e-01
 -1.2531440e-01
 -7.5810969e-02
 -2.3897195e-01
 -1.5659428e-01
  2.3218137e-01
 -3.4420672e-01
 -1.5030266e-01
  3.3041544e-02
 -5.1762277e-01
 -1.6438191e+00
  4.4639164e-01
  1.1070918e+00
 -1.9670667e-01
 -7.1762949e-01
 -1.6216134e+00
 -7.5803137e-01
  7.7945966e-01
 -3.1019816e-01
  3.0789825e-01
  1.0406371e+00
 -1.1032895e+00
 -3.3776042e-01
 -5.2346611e-01
  4.5222104e-02
 -2.6931193e-01
  4.9111408e-01
 -1.0226560e+00
 -1.5815616e-01
  1.3484298e-01
 -3.3744290e-01
 -3.6025453e-01
 -1.9921130e-01
  8.1912227e-02
  2.9064238e-01
 -8.5556465e-01
 -1.4621751e-01
 -3.9662009e-01
 -2.8293446e-01
  5.3983575e-01
 -7.2859809e-02
  5.2432291e-02
 -2.2846797e-01
  4.2653999e-01
  4.7746664e-01
 -1.8131603e-01
  3.2098252e-01
  6.7401409e-01
  1.6040877e-01
  1.3303877e-01
 -1.2515862e-01
 -7.1578704e-02
  3.2863057e-01
  7.3961705e-01
 -7.5323761e-02
 -2.4817592e-02
 -1.6400510e-01
 -8.8251382e-02
  9.4670532e-03
  6.9295132e-01
 -9.7716230e-01
 -1.6483864e-01
 -2.1771130e-01
  8.2779251e-02
  2.9896405e-01
  7.5104278e-01
  7.6155320e-02
 -1.5801086e-01
 -5.8035636e-01
  9.2728093e-02
  3.3298966e-02
  8.5965730e-02
 -2.5230557e-01
  1.7841789e-01
 -3.4462056e-01
 -6.5563983e-01
 -2.4832305e-02
  6.0432035e-01
  4.3936145e-01
 -4.6269032e-01
 -7.9354338e-02
 -1.8106319e-01
 -5.7286692e-01
 -8.1733805e-01
  1.4786780e-01
  5.3393352e-01
  3.9482102e-01
 -1.0215726e+00
  1.7785139e-01
  3.0968797e-01
  1.5064175e-01
  2.2072649e-01
  3.2223761e-02
 -2.5065312e-01
  4.9483693e-01
  4.2474189e-01
  7.2416753e-02
 -4.0323761e-01
  1.0280108e+00
  4.5967364e-01
 -4.0473029e-01
 -2.5902721e-01
  3.8555956e-01
  1.2510665e-01
 -5.2125585e-01
 -1.6855021e-01
  5.6436431e-01
 -3.3198118e-01
  2.6771936e+00
 -1.8055898e+00
 -1.4944086e+00
  1.1818277e+00
 -2.8060918e+00
  5.1960164e-01
  6.6919900e-02
  8.6422659e-02
  5.3582823e-01
  8.6721593e-01
  3.6520034e-01
  4.6974190e-02
 -9.1701910e-02
 -6.6826892e-01
 -8.0418564e-02
  8.0883336e-01
  1.5147036e+00
 -1.7146500e-02
  2.7383158e-01
  2.3506780e-01
  6.5397471e-01
 -6.2435055e-01
 -4.5678589e-01
  3.3302271e-01
  5.1979774e-01
  2.0504962e-01
  3.6569548e-01
 -1.7217775e-01
 -1.2262783e-01
 -2.9649332e-01
  7.7561474e-01
  1.2273479e+00
 -9.1339564e-01
 -1.3090159e+00
  2.9444852e-01
  9.7937606e-02
 -1.1445619e-01
 -1.9898549e+00
 -9.2023514e-02
 -1.8777728e-01
 -3.5327092e-02
 -6.3586748e-01
 -3.8529816e-01
 -4.6691652e-02
 -9.8039441e-02
 -2.5876006e-01
  1.4094479e-01
 -3.0839905e-01
 -3.2687497e-01
 -8.2524502e-01
  7.8664464e-01
  2.6342599e+00
 -1.5246864e-01
  1.0556673e+00
 -3.0195898e-01
  3.2460207e-01
 -1.4972994e-01
 -5.9311217e-01
  7.6618654e-01
  1.5987060e+00
  7.0380980e-01
 -5.8394331e-01
  3.7498677e-01
  2.0252281e-01
 -1.0965357e+00
  4.2481586e-02
  5.2665031e-01
  5.3625029e-01
  1.1022708e-01
  4.0237612e-01
 -2.0427376e-01
 -7.8232068e-01
 -6.8863273e-01
  4.3659893e-01
 -3.1319689e-02
 -7.2166538e-01
  5.0824934e-01
 -1.2498148e-01
  1.8488828e+00
  7.7763870e-02
  2.4011602e-01
 -1.3507766e-01
  4.9735948e-01
  1.6167017e+00
  5.2683914e-01
  2.1694444e-01
 -3.4363967e-01
  9.6468464e-02
 -5.9507098e-02
  1.7985791e-01
 -1.1360873e-01
  3.0716708e-01
 -2.1619214e-01
 -4.5270672e-01
 -1.8864347e-01
 -1.3778765e-01
  5.8122820e-01
  2.5977647e-02
 -1.7167561e+00
  8.0899149e-01
  2.7930066e-01
 -1.1456877e+00
  2.9408896e+00
  4.9613590e+00
 -4.0303451e-01
  1.5150802e-01
 -3.0614573e-01
  1.5814091e-01
  5.0749981e-01
  1.3573214e-01
  3.1989357e-01
 -3.0098638e-01
 -1.1998349e+00
  6.5024942e-01
 -3.4721071e-01
  9.2348799e-02
 -6.3872308e-01
  2.8245899e-01
 -2.7676737e-02
 -7.1997994e-01
 -4.1856685e-01
  1.4309919e-01
  6.1510271e-01
 -2.1201420e-01
  1.6808538e-02
 -1.1280739e-01
 -2.9227594e-01
  1.0406790e+00
  1.2522811e-01
 -7.7996641e-01
  7.2550125e-02
  4.6139669e-01
 -1.1275180e-01
  5.0518949e-02
 -2.2122778e-01
  4.0653381e-01
 -7.7377938e-02
 -3.1365854e-01
  2.4974418e-01
  3.4863761e-01
  1.0135008e-01
 -2.7400717e-01
  1.1805197e-01
  3.8299549e-01
  1.0067635e-01
  2.1391423e-01
 -1.7055219e-01
  1.7586927e+00
 -2.6179540e+00
 -3.0334440e-01
  1.8039652e+00
 -4.6580081e+00
  1.8335007e+00
 -1.5889277e+00
  6.1399126e-01
  1.5315363e-01
  2.7956316e-01
 -3.0281571e-01
  3.6808175e-01
  6.2683702e-01
 -6.4816177e-02
  8.2092261e-01
 -2.8409299e-01
 -1.2616731e+00
 -7.9525548e-01
 -8.5049599e-01
 -5.6939656e-01
 -3.3902320e-01
 -8.5531436e-02
  2.4860564e-01
  5.6505287e-01
 -4.7907986e-02
 -6.5910548e-01
  6.8474185e-01
  7.2042020e-03
 -2.1250248e-01
 -4.3839073e-01
  1.5186275e+00
  7.0045871e-01
 -5.1909953e-01
  2.5137064e-01
 -3.8345331e-01
 -5.7372777e-03
 -3.9728969e-01
 -8.4663236e-01
  3.1010848e-01
  9.8401397e-02
  3.3822563e-01
 -7.8610212e-01
  7.4939001e-01
 -1.3247825e-01
 -1.5149246e-01
 -4.7522870e-01
 -3.3520716e-01
 -1.9096926e-01
  4.8226587e-02
 -5.2211767e-01
  1.3618019e+00
  2.9024926e-01
 -4.9993101e-01
  2.8083346e+00
 -1.7351635e+00
  2.8053665e-01
 -9.6742779e-02
 -2.7250573e-01
 -8.1346035e-01
  4.4342738e-01
  6.7819768e-01
 -2.5079870e-01
  6.5647703e-01
  3.7869927e-01
 -2.9115671e-02
  1.3781548e-02
  2.3635399e-01
 -1.4275905e-01
  1.5709107e-01
  8.4805930e-01
  6.9740042e-02
  7.1549058e-01
 -1.4110772e-01
 -1.1603458e-01
 -2.7970225e-01
 -3.6276579e-01
  5.6024319e-01
 -2.1928245e-01
  1.0193647e+00
 -4.6646982e-01
 -9.7661041e-02
  3.3540866e-01
  5.5647415e-01
  3.5094999e-02
  2.1710619e-01
 -1.7257258e-01
  4.2597878e-01
  7.9482846e-02
  3.2019824e-02
 -1.9402674e-01
 -5.8723193e-01
  1.9642273e-01
  3.1083491e-01
 -6.4315641e-01
  1.8848058e-02
 -3.3898313e-02
  5.9396487e-02
  1.1461265e-01
  8.3610976e-01
 -1.9370049e+00
  1.2093565e+00
  7.3403877e-01
  1.1968665e+00
  4.9141639e-01
 -1.6033149e-01
 -4.7101066e-01
  7.5052008e-02
 -4.9714115e-01
 -1.8696897e-01
  1.8884958e-01
  2.6761988e-01
 -3.6588389e-01
  2.0457302e-01
 -7.1494746e-01
  2.9850268e-01
 -2.5027293e-01
 -3.7700653e-02
  1.3957445e-01
  4.9211115e-02
  3.1707412e-01
  2.3556487e-01
 -5.3166306e-01
 -1.7340674e-01
  8.0065235e-02
 -5.1776826e-01
  1.1576649e-02
  6.0765952e-01
 -8.0208832e-01
 -1.8226667e-01
 -3.6083695e-01
 -2.3317607e-01
 -8.3726168e-02
 -1.3794771e-01
  9.3526727e-01
  5.3845924e-01
  9.0367295e-02
 -1.1868249e-01
 -4.5823139e-01
  4.8689242e-02
  2.4289874e-02
 -3.4884489e-01
 -2.8359151e-01
  6.5461986e-02
 -2.2853138e-01
  1.1964133e-01
 -3.8428637e-01
  3.4913105e-01
  8.9503217e-01
 -4.8787194e-01
  1.1321918e+00
 -2.1521617e-01
 -3.3102870e-01
  4.9331340e-01
 -1.6239940e-01
 -6.3376710e-02
 -1.4498462e-01
  1.0747368e-02
 -3.0823070e-01
  3.0275124e-01
  2.4712783e-01
  3.6971029e-02
  2.4206974e-01
  1.9720356e-01
 -1.5113166e-01
  7.0780754e-01
 -1.8619454e-01
  8.6384229e-02
 -6.6983563e-01
  6.1015654e-02
 -2.7468807e-01
  8.3866104e-02
 -6.8014669e-01
  1.4550187e-01
  7.6095134e-02
  4.6719842e-02
 -2.5856709e-01
 -7.4959755e-02
  7.2771661e-02
  6.1882317e-01
 -9.8298192e-02
 -4.3042558e-01
 -6.3530135e-01
 -8.6004883e-03
  3.1489271e-01
 -1.4338875e-01
  4.2793285e-02
 -2.1244375e-01
 -5.3491116e-01
  1.8646650e-01
  3.7733588e-02
 -3.9788496e-02
  1.0858568e-01
 -2.8269425e-01
 -6.2875718e-02
 -1.5020379e-01
 -7.6492436e-02
 -1.3374521e-01
 -2.2964813e-01
 -1.7292802e-01
  1.2209731e-01
  2.4113649e-01
  3.8972341e-02
 -6.5920778e-02
 -1.6235837e-01
 -4.6665078e-01
  8.8934027e-02
  2.3046905e-01
  2.0584738e-01
 -3.2755226e-02
 -3.3112030e-02
 -1.5249386e-01
  1.6332112e-01
  1.2672594e-01
  2.6579502e-01
 -4.3380591e-01
  3.2048124e-01
 -2.7624527e-02
 -1.2986210e-01
  3.0902902e-02
  1.2423842e-01
 -4.2866948e-01
 -1.9153486e-01
 -2.4733508e-01
  1.3636708e-01
 -2.6359880e-01
 -7.2282553e-02
  2.2198258e-03
  2.8736718e-02
  3.8227198e-01
  2.3452516e-01
 -2.1382838e-01
  5.0436243e-02
  4.2729583e-02
 -9.6612260e-02
  2.0982477e-01
 -2.8522640e-01
 -3.1808857e-02
 -4.0008776e-02
  4.2042160e-01
 -1.6491321e-01
 -9.7659297e-02
 -1.4934728e-01
  1.0148422e-02
 -9.9183217e-02
 -2.3694766e-01
  9.3460158e-02
  8.3380312e-01
 -3.1240180e-01
 -5.1753956e-01
  2.0276469e-01
  1.8813379e-01
  1.6749306e-01
  3.8351029e-01
 -3.8873255e-01
 -1.7815346e-01
 -3.8192633e-01
 -4.8045519e-01
 -1.0458120e-01
  9.9953786e-03
 -4.7386104e-01
  2.7229884e-01
 -1.0116600e-01
  6.4164156e-01
  1.7658643e-01
  1.0486075e-01
  2.0883663e-01
 -1.4482965e-01
  2.5961390e-01
 -1.7873418e-01
 -7.9543769e-02
 -4.3809514e-02
  5.0564873e-01
  2.0165262e-03
 -2.7581146e-01
 -6.8760484e-02
  1.5037355e-01
  6.0800828e-02
  3.9230841e-01
  5.5991542e-01
 -3.6250505e-01
  2.9688302e-01
 -1.1461237e-01
 -8.5540406e-02
 -3.9248121e-01
 -1.6255933e-01
 -2.6234487e-01
 -1.8810284e-01
  3.2960188e-01
 -1.5015008e+00
 -3.3289179e-01
 -1.2116439e-01
  1.5129898e-01
  1.8733212e-01
  3.9560464e-01
 -1.1371615e+00
  3.4908971e-01
  5.9296626e-01
  8.5545117e-01
 -6.4939064e-01
  1.5401630e-01
 -5.9915692e-01
  5.8918130e-02
  5.8197465e-02
  5.7819164e-01
  2.2272438e-01
 -2.7284971e-01
 -3.4970587e-01
 -2.0918350e-01
 -8.7469421e-02
 -1.6671783e-01
  2.6976737e-01
 -3.6065811e-01
  1.0356048e-01
  2.8578374e-01
  9.2203760e-01
  3.3850633e-04
  4.8310524e-01
 -2.7399656e-01
 -5.7542896e-01
 -2.6322018e-02
 -4.9546078e-01
  4.8981798e-01
 -1.1948945e-01
  3.0989993e-01
  1.4305523e-01
  1.0620871e-01
 -4.4742483e-01
 -2.2429936e-02
  1.5658388e-01
 -2.1462217e-01
  3.7998000e-01
 -1.6669416e-01
  1.8240882e-01
  1.9140291e-01
 -3.8069981e-01
  2.4465907e-01
  3.7186024e-01
 -1.0907123e+00
  1.8114871e-01
  9.4799422e-02
  7.8835204e-02
  5.5063423e-02
  3.5045043e-02
  1.9582097e-01
  1.8527773e-01
 -6.5203142e-01
 -8.4781665e-01
  2.4496005e-01
 -5.6269191e-02
  2.2740023e-01
 -3.5809115e-01
  7.4717426e-01
 -2.9054472e+00
 -5.9497684e-01
 -1.9932094e-01
 -5.1011521e-01
  3.5825957e-02
  5.6393290e-01
  5.0352854e-01
 -2.3415089e+00
  3.2218617e-01
 -3.5332206e-01
 -6.3297713e-01
 -3.1996366e-01
  1.1252666e-01
  5.8006805e-01
 -2.9387305e+00
  4.8308298e-01
 -8.5530621e-01
 -4.2405197e-01
  6.2342010e-02
 -7.4960679e-02
  6.9824338e-01
 -2.6919878e+00
  1.0424237e+00
 -1.8794504e-01
 -2.9748541e-01
 -9.7156696e-02
  2.8688444e-02
  6.3802463e-01
  7.0691681e-01
  3.0066782e-01
 -2.5445586e-01
 -1.4482966e-01
  1.5273578e-01
 -3.3255830e-01
  1.1210411e-01
 -1.0397007e+00
 -7.5633451e-02
  2.7672952e-01
  8.4991105e-02
  2.1237399e-01
  5.6129807e-01
  2.8707939e-01
 -7.4584234e-01
  3.6633727e-01
  3.5939538e-01
 -3.0253160e-01
 -6.1602944e-01
 -3.2624349e-01
 -1.2346419e+00
 -3.0716360e-01
 -9.2935748e-02
  2.5030884e-01
  9.4823010e-02
 -2.2378257e-01
 -2.3064703e-01
 -5.6133646e-01
 -7.6516819e-01
 -4.5152280e-01
  3.4498671e-01
 -2.4941592e-01
 -1.2082618e-01
  9.3607545e-02
 -7.9792315e-01
 -3.1297135e-01
  1.3832551e-01
  3.6381611e-01
 -3.6155826e-01
 -1.8201703e-02
 -1.7208666e-01
 -1.5281147e-01
 -2.9242009e-01
  3.4130251e-03
  1.3531464e-01
 -3.6390138e-01
  1.2159673e-01
  4.0419731e-01
  4.1099530e-01
 -3.9958331e-01
  3.0484697e-01
  1.3740909e-01
 -2.7057022e-01
 -2.6577023e-01
  1.3133089e-01
 -2.7965176e-01
 -5.5573988e-01
  2.3117827e-01
 -5.6188554e-01
  2.2181460e-01
  3.7161192e-01
 -1.1595519e-01
 -1.3828009e-01
  2.6819837e-01
 -1.0458057e-01
  9.8120332e-01
  6.2043542e-01
 -3.4782863e-01
 -5.7300645e-01
 -1.3216160e-01
 -4.8074126e-02
  6.3116118e-02
 -5.0879663e-01
 -1.9781767e-01
 -7.3157057e-02
 -3.0294579e-01
 -6.8513787e-01
  2.7774927e-01
  1.3464908e-01
  4.4061568e-02
 -2.3898007e-01
  1.8235691e-01
 -1.6147591e-01
 -3.0357444e-01
  1.3349608e-01
  1.3190618e-01
 -2.0763433e-01
 -2.2906332e-01
 -2.1252152e-02
 -1.7350057e-01
 -3.9414552e-01
  2.8630695e-01
  2.5431523e-01
  1.4016078e-01
  1.2932660e-01
  2.4191841e-01
  6.1194110e-01
  2.8091103e-01
 -1.0901319e-01
  1.4478549e-01
  1.5204662e-01
  9.2443578e-02
 -3.8564673e-01
  1.2458428e-01
 -2.9552987e-01
  4.2917579e-01
  4.6615586e-01
 -5.4926850e-02
  2.2650358e-01
  2.8533727e-01
  9.5839369e-01
 -8.6305869e-01
 -1.3575237e+00
 -2.6603168e-01
  6.8819922e-01
  3.4541780e-01
 -5.2045542e-01
  2.3314995e-01
 -3.2492810e-01
 -6.1770421e-01
 -4.1831094e-01
  2.7598658e-01
  8.3641142e-02
 -3.3604607e-01
  6.6572368e-01
 -7.2319007e-01
  4.4808504e-01
  6.5575026e-02
  4.5925461e-02
 -1.4466709e-02
 -2.6410648e-01
  5.2775168e-01
  1.4534243e+00
 -8.0975062e-01
 -5.2637342e-02
  4.4420746e-01
  5.3183503e-02
 -1.6924269e-01
  1.3607767e-01
 -6.4815974e-01
  2.5638573e-02
 -4.9850383e-01
  4.3374574e-01
 -4.2576385e-01
  1.2446096e-02
  4.5295343e-01
  1.7582367e-01
  2.6935107e-01
 -7.6621148e-04
 -1.0724336e-01
  5.3692371e-01
 -3.7143052e-01
  1.8282673e-01
  1.3177504e-01
  3.2821482e-01
 -2.1274720e-01
 -7.6026894e-02
 -1.2323639e-02
  2.1760283e-01
  1.7209109e+00
 -2.1231484e+00
 -1.1762356e+00
 -2.6558319e-01
 -5.6776863e-01
 -1.0272822e+00
  1.1748433e+00
 -1.7510439e-01
 -1.7172708e-01
 -1.9064975e+00
 -1.4422054e+00
  4.3222818e-01
  1.6273737e-01
 -1.5698986e-01
  1.4386275e-01
 -1.1708140e+00
  4.9902529e-01
 -9.4291735e-01
  4.5928025e-01
 -2.5010338e-01
 -8.6972100e-01
  1.4697514e-01
 -1.7302166e-01
 -2.0478935e+00
 -6.6188061e-01
  5.6396860e-01
 -1.0863975e+00
 -7.0642686e-01
  1.5871693e-01
 -4.9148473e-01
  8.6547869e-01
 -8.4115380e-01
  2.1048558e-01
 -1.8416975e-01
 -4.1468787e-01
 -1.0671773e-02
  9.5232832e-01
 -5.2774352e-01
  3.3809337e-01
  1.1123823e-01
  1.3679260e-01
  1.1181073e-01
  5.3547561e-02
 -4.7704708e-02
 -8.9444242e-02
  2.2969065e-02
  2.1884556e-01
  7.4027097e-01
 -2.8171313e-01
 -4.9685597e-02
  7.8357905e-01
  3.6566319e+00
 -2.5466003e-02
  4.7389746e-01
 -2.6907454e+00
  4.9173990e-01
  1.8244462e-01
  5.6701630e-01
 -4.5397613e-02
 -6.0455531e-01
  2.3819774e-02
 -2.9086864e-01
  3.1263524e-01
  1.6228630e-01
  4.3605417e-02
  2.5100252e-01
  3.9505637e-03
  5.4253376e-01
  5.5129051e-01
 -3.0651587e-01
  6.4280152e-01
  3.2358718e-01
  1.7706040e-02
 -6.1571635e-02
  3.1628704e-01
  3.0579558e-01
  4.5663506e-01
  3.2447755e-02
 -3.4482013e-02
  3.8788891e-01
  1.2621053e-01
  7.2548538e-01
  1.6776434e-01
 -3.0175524e-02
 -2.8039184e-01
  3.0203867e-01
 -1.5606123e-01
 -6.4764224e-02
  2.6542023e-01
 -1.5253171e-01
  1.6648515e-01
 -8.5876271e-02
 -2.7080685e-01
  2.2778167e-01
 -8.2533799e-02
  1.4740220e-01
 -2.3795183e-01
 -1.4663194e-01
  6.6068774e-01
 -3.3506230e-04
 -3.4239417e-01
 -2.9733944e-01
 -2.2553504e+00
 -6.6154897e-01
 -7.8117114e-01
 -5.0408427e-02
 -3.0047613e-01
 -6.0337019e-01
 -3.0632830e-01
  3.9406812e-01
  3.6037665e-02
  5.9234928e-02
 -1.8172355e-01
  7.0654452e-01
  1.6711590e-01
 -3.2927558e-01
 -2.1896236e-01
  3.5899436e-01
  5.1594493e-03
 -1.1731014e-01
 -1.0254801e-01
 -1.9169576e-01
  3.2739416e-02
  2.9859737e-01
  2.4363965e-01
  1.9620033e-01
 -1.7845492e-01
 -6.6470634e-03
  2.2707215e-01
  3.1930321e-01
  2.5952321e-01
 -7.3496443e-01
  2.9847831e-01
 -5.1639545e-01
 -4.6446511e-01
 -2.4890156e-01
 -6.1853653e-01
 -3.2487690e-01
 -1.2242961e-01
  1.9450571e-01
  1.1012246e-01
 -5.3023618e-02
  2.9919747e-02
 -4.8195288e-02
 -9.6206717e-02
 -1.2026197e-01
  9.1988251e-02
 -1.7326601e+00
  9.2507201e-01
  3.4877986e-01
  3.6820273e+00
  1.1691041e+00
  1.2969226e+00
 -7.8030020e-02
  3.1518990e-01
 -2.5164551e-01
  7.0206344e-01
  1.6735003e+00
 -1.4513309e-01
  6.0072249e-01
  5.9321535e-01
 -5.2398641e-02
 -5.9975719e-01
 -2.0917623e-01
  4.7553390e-01
 -1.2945641e+00
  2.2116764e-01
  5.2284035e-03
  1.3429689e+00
  9.5880777e-02
  2.8467917e-01
  1.5155804e-01
  9.5161676e-01
  5.2076155e-01
 -3.5532877e-01
 -1.5531263e+00
 -1.4601442e+00
  1.0017782e+00
  5.2948177e-01
 -1.6597515e-01
  7.1851385e-01
  1.4932297e+00
  4.2963204e-01
  3.0386266e-01
 -1.5061021e-01
  4.3385303e-01
 -3.0815732e-01
  1.9800957e-01
 -3.6816195e-02
  4.4903111e-01
 -1.4021508e-01
 -2.0621772e-01
  8.7712485e-01
  3.9732397e-02
  3.5922173e-01
  1.2941116e-01
  9.4249904e-01
 -6.4971179e-01
  1.5254833e+00
  5.1092279e-01
  1.7950490e+00
 -1.6610223e+00
  2.4318187e-01
  1.3538267e-01
 -4.6148665e-02
  2.9783589e-01
  3.3242989e-01
 -1.6553080e-01
  2.5983566e-01
 -1.6189837e-01
 -6.9243677e-02
 -7.6132363e-01
 -8.3740644e-02
 -4.2538860e-01
 -4.3062797e-01
 -5.8975518e-01
 -4.8742995e-02
 -5.7330358e-01
 -4.6067879e-02
 -2.6714334e-01
 -6.7713749e-01
  3.2851756e-01
  5.1016428e-02
 -3.2746491e-01
 -4.4766370e-02
 -7.0434344e-01
 -9.7079873e-01
  9.9326678e-02
 -3.4773260e-01
 -2.6776281e-01
  1.2167638e-01
 -2.1430147e-01
 -2.3754826e-01
 -1.7427567e-01
 -3.0643287e-01
 -7.5974986e-02
 -1.0854854e-01
  4.3018922e-01
 -1.7887950e-01
 -8.9790486e-02
  3.0185753e-01
  3.1217197e-01
  8.7060362e-02
 -6.6958837e-02
  3.4750390e-01
  1.8318098e+00
 -7.2102398e-01
 -1.0529288e+00
  1.4575000e+00
 -1.1976101e+00
  4.8643570e+00
 -2.7524024e-02
  1.0831962e-02
  2.1527047e-01
 -7.5830388e-01
 -6.6862249e-01
 -3.2060456e-01
 -1.6122997e-01
 -4.1262269e-01
  5.4272495e-02
 -5.8370602e-01
 -1.6867241e-01
 -2.7188405e-01
 -2.7380511e-01
  9.6452519e-02
  1.0990454e-01
 -1.1302678e-01
  6.7596352e-01
 -4.4293544e-01
  2.1483137e-01
 -8.0593252e-01
 -6.0501434e-02
 -4.0145275e-01
 -4.6867199e-02
 -3.8676453e-01
 -9.7730291e-01
 -4.4494778e-01
 -1.4896809e+00
  3.0244315e-01
  2.5200024e-01
 -3.9594436e-01
 -6.2810868e-02
  2.4453077e-01
 -4.5206004e-01
  3.2314691e-01
  3.0340880e-01
 -1.0079536e+00
 -6.1040640e-01
  2.5255895e-01
  2.2230680e-01
 -2.2175258e-01
 -3.5726506e-02
 -2.0347549e-01
 -2.2596057e-01
 -4.4816834e-01
  1.1184038e+00
  1.0957648e+00
 -4.1017649e-01
  6.6517472e-01
 -5.6917721e-01
 -1.1652856e+00
 -4.5762545e-01
  5.9253722e-01
  1.5958011e+00
  3.0159369e-01
  4.3475285e-01
  4.4447055e-01
  1.9347147e+00
 -8.7899411e-01
  8.2050884e-01
  1.1493864e+00
  4.3970904e-01
 -6.3473785e-01
  1.5472220e-01
  1.0792751e+00
 -1.1225764e+00
  9.0580219e-01
  1.2640139e+00
 -4.3898845e-01
  4.0999141e-01
  6.5066916e-01
  3.7304035e-01
 -2.0077686e+00
  1.3422613e+00
  1.7476465e+00
 -3.6099797e-01
 -2.6389015e-01
  6.0956681e-01
  1.1308475e+00
  2.3656255e-01
  5.0476176e-01
 -9.8488867e-01
  5.3445005e-01
  3.1059662e-01
 -3.7386003e-01
 -3.8797863e-02
  1.6754147e-01
 -6.4983326e-01
  4.4408721e-01
  1.5778722e-01
 -7.6163575e-02
  1.6015632e-01
 -4.0461487e-01
 -2.7722776e-01
  1.2418216e+00
  4.4023889e-01
 -1.2373387e-01
 -8.4451115e-01
  7.8265429e-02
 -1.2605400e-01
  4.1638783e-01
  1.8995735e-01
  1.6703355e-01
  2.6019451e-01
 -2.0360170e-01
 -2.9463518e-01
  2.0161533e-01
 -1.3138160e-01
  7.2817802e-01
  2.6423821e-01
  2.5530341e-01
  9.9669725e-02
 -1.3163999e-02
  3.3703622e-01
  3.9165091e-02
 -3.2539475e-01
  7.2020799e-01
  1.5091416e-01
  8.9272328e-02
  1.5891086e-01
 -9.7312629e-02
 -1.1991590e-01
 -1.6273211e-01
  3.0526486e-01
 -2.2306728e-01
  3.0913216e-01
  8.2495019e-02
  1.5478694e-01
 -1.6886941e-01
  2.1733332e-01
 -4.0863213e-01
  2.2436093e-01
 -2.7008441e-01
 -5.2549797e-01
  9.9627942e-01
  3.1940430e-01
 -2.8125310e-02
 -1.6097076e-01
  2.6023430e-01
  5.0025288e-02
 -1.6477399e-01
  3.2606512e-01
 -4.8154497e-01
  2.7166575e-01
 -1.7822699e-01
  2.9687756e-01
  5.8821619e-01
  1.1447039e+00
 -5.4361957e-01
 -2.7113515e-01
  2.7717742e-01
  1.1637241e+00
  3.9424279e-01
 -7.6893908e-01
  2.9729795e-01
  2.9346105e-01
 -5.7620656e-01
  7.6394302e-01
 -6.7666274e-01
  1.4355050e-01
 -1.2051813e-01
 -1.7414372e-01
  2.8956205e-01
  2.8723741e-02
 -8.6107716e-02
  1.4037403e+00
  3.0759424e-01
 -3.8371933e-01
 -4.7983831e-01
  9.7103369e-01
 -2.1943663e-01
 -2.8902033e-01
 -2.1281969e-02
  9.0717435e-01
 -1.3383876e-01
  3.7699977e-01
  3.1300434e-01
  4.8333663e-02
 -8.0620044e-01
  5.4770905e-01
  3.6171794e-01
 -4.1220269e-01
 -9.3777962e-02
  9.8423058e-01
  5.1401073e-01
  2.1464202e-01
  4.0047076e-01
  8.5516196e-01
  3.0213973e-01
  5.9617716e-01
 -2.0938511e-01
 -8.6879319e-01
  3.4435701e-01
 -2.9743435e+00
  8.6564457e-01
 -1.0457160e+00
  1.7669880e+00
 -6.0732174e-01
 -5.6693292e-01
 -3.6864191e-01
  6.4284974e-01
 -3.3756077e-01
 -4.7087091e-01
  3.5697305e-01
  1.1049465e-01
 -8.6524531e-02
 -6.0527623e-01
  6.6268325e-01
 -2.8921786e-01
 -2.1617945e-01
 -5.1872026e-02
  2.0833051e-01
 -3.0259785e-01
 -2.9166553e-02
  1.3222830e-02
 -1.2384297e-01
  2.4920335e-01
 -1.3890818e-01
 -7.1702063e-02
 -2.1783264e-01
 -8.9981073e-01
  1.2336662e+00
  2.9384717e-01
  2.9105681e-01
  4.1440454e-01
  7.8616035e-01
  1.4483160e-01
 -7.1597904e-02
  2.9994178e-01
  6.5545850e-02
 -4.4816539e-02
 -9.3130648e-02
 -2.2071557e-02
  9.8306495e-01
  1.1117725e-01
 -2.6222101e-01
  2.2613314e-01
 -3.3483643e-02
  2.7782580e-02
 -3.5814773e-02
  1.6231058e+00
 -1.0686159e+00
 -9.0697461e-01
  2.9395205e-01
 -1.5941913e+00
  4.8166904e-01
  2.7723765e-01
  5.5265594e-01
 -3.3629451e-02
 -1.2216836e+00
 -9.3258548e-01
  1.8589287e-01
 -8.8078713e-01
  3.1711865e-02
 -3.4617368e-02
 -2.6912871e-01
 -8.7768543e-01
 -4.2171785e-01
 -4.1696352e-01
 -3.9412302e-01
 -2.3097864e-01
  9.9414283e-01
  5.5551521e-02
 -9.7086698e-01
 -4.3934783e-01
  1.0765320e-01
 -1.4753616e+00
 -1.2499415e+00
  8.4965283e-01
  1.8986106e-01
 -8.0095547e-01
  1.7989717e-01
 -3.8134030e-01
 -8.4201860e-01
 -3.6890432e-01
  2.5960680e-02
  2.4737348e-01
 -2.7802173e-02
  3.3937538e-01
 -9.4321096e-01
  1.0660785e-01
  4.2956108e-01
 -7.7933502e-01
 -3.1142825e-01
 -9.4854158e-01
  1.5214744e-01
 -3.4347597e-01
 -1.0021922e-01
 -1.4877228e-01
 -1.2121934e+00
  3.7732956e-01
  5.7031453e-01
  3.6803004e-01
 -2.4858029e-01
 -5.9292668e-01
 -3.7944970e-01
  1.8224800e-02
  1.2382624e-01
  1.5487909e+00
  8.6662662e-01
 -5.6158286e-01
 -5.7380927e-01
 -4.7572494e-01
 -8.0557841e-01
 -5.6957072e-01
  3.0613461e-01
  8.5638875e-01
 -4.3840531e-01
  2.4187277e-01
 -1.6281569e-01
  3.1578609e-01
 -4.1881317e-01
 -8.7648548e-02
 -8.0502303e-03
  8.3784066e-02
 -2.7658027e-01
 -7.3326603e-02
 -1.2786828e-01
 -1.0938892e-01
  2.0401022e-01
  4.6984795e-01
 -3.8941714e-01
 -4.7576702e-01
  7.8195286e-01
  2.9549798e-01
  4.3982744e-01
  1.8103662e-01
  9.0961270e-02
 -2.1388166e-02
 -8.2342297e-02
 -8.2448967e-02
  5.9962392e-02
  4.0162989e-01
  1.9016474e-01
  3.2202166e-01
 -3.9725706e-01
  4.0226361e-01
 -4.7073677e-02
 -1.0296067e+00
  1.2150179e+00
  3.1304016e+00
 -1.9624168e-01
  1.9745783e+00
 -3.5884711e-01
 -4.9237285e-02
 -1.7624713e-01
 -2.9611725e-01
  2.5837996e+00
  1.1939620e+00
  1.0074686e-01
  4.4712818e-01
 -6.6659194e-01
  1.8967102e-01
 -2.7255329e-01
  9.6754032e-01
  5.1375186e-01
  3.0117685e-01
 -7.4115582e-02
 -1.6849697e-01
  1.9102284e-01
 -1.0356396e+00
  2.4714031e+00
 -3.2772696e-01
  7.0345062e-01
 -1.3162245e-01
 -1.2776606e-01
  3.1175351e-01
  5.8787340e-01
  1.3195285e+00
 -6.4717740e-01
 -3.8492840e-02
 -2.9874960e-01
 -5.1008278e-01
  4.7261834e-01
 -6.4982122e-01
 -1.0455526e+00
  1.9857420e-01
 -3.4106296e-01
  6.9911718e-02
 -2.7684730e-01
  2.9645437e-01
 -5.9711176e-01
  2.9325807e-01
  3.9685369e-01
  3.4702870e-01
  1.1830001e-01
 -3.1330654e-01
  1.1580095e-01
 -1.3231854e+00
 -1.1386048e-02
  1.6139404e-01
 -4.9143454e-01
 -1.3403989e+00
 -1.1286470e-01
  5.5941021e-01
  4.5115089e-01
 -5.8555770e-01
 -9.0573883e-01
 -1.1953357e+00
  1.6940233e-01
 -2.2743909e-01
  2.0495957e-01
  3.9815775e-01
  2.1454172e-01
 -9.4318318e-01
  2.6480150e-01
 -1.9736667e-01
 -4.7391811e-01
 -3.5683009e-01
  1.0346565e-01
 -9.3164462e-01
  4.8104066e-02
  5.2819416e-02
  2.0527261e-01
 -3.7902275e-01
  3.9249805e-01
 -4.5040887e-02
 -6.4380966e-02
 -4.7236562e-01
  1.4043321e-01
 -2.2571282e-02
  1.4121789e-01
 -2.1878771e-01
  7.5313434e-02
  2.6088148e-01
 -4.0160459e-01
  4.2249572e-01
 -2.2376089e-01
 -4.1570704e-02
  3.9573863e-02
  2.4222289e-01
 -1.1969192e-01
  1.3454817e-01
 -2.3674475e-01
  3.6124027e-01
 -5.5303019e-01
 -6.2232572e-01
 -7.7613242e-02
 -1.0696157e-01
  4.3177420e-01
  2.6238587e-01
 -5.1469767e-01
  3.1272508e-02
  2.2113112e-01
  1.3194442e-01
  1.5764722e-01
 -6.0205385e-02
 -2.5238115e-01
  2.4945405e-01
  2.4718702e-01
  8.7409757e-02
 -2.9400504e-01
 -2.1943898e-01
 -4.2366305e-01
 -7.9956442e-02
  3.8384402e-01
 -1.7411491e-01
  7.3738480e-01
 -7.7632588e-01
  1.3009108e-03
  2.3441362e-01
 -3.7565079e-04
  1.5108354e-01
 -1.0008912e-01
 -6.0124340e-04
 -2.0642644e-01
  5.5306399e-01
  2.0966554e-01
  1.6193280e-02
  5.4246515e-02
  4.6187550e-01
  2.3291159e-01
  1.2865767e-01
  6.3806802e-01
 -2.9643768e-01
 -1.3885990e-01
  2.7076584e-01
 -2.7916284e-02
  2.4469312e-01
 -5.0715540e-02
 -2.3863533e-01
 -6.3662660e-01
 -5.3290367e-01
 -4.2467347e-01
  3.0426946e-01
 -4.0309474e-01
 -1.6655742e-01
  3.1019752e+00
 -1.9252248e+00
  9.3509048e-01
 -3.0895975e+00
 -1.4213433e+00
 -5.5529261e-01
  1.1632614e+00
 -4.1418013e-01
  2.3359095e-01
  3.9694762e-01
  3.7657276e-01
 -3.8325667e-02
 -6.9314951e-01
 -1.2641244e-01
 -5.1600266e-01
  4.6230984e-01
  2.0843747e-01
 -3.1551173e-01
  2.6737827e-01
 -3.0162454e-01
  2.1915404e-01
  2.8671288e-01
  4.3492150e-02
  6.2118626e-01
 -9.7845411e-01
  3.4248937e-02
  4.5461041e-01
  5.6513496e-02
 -6.4244397e-02
  5.3100348e-01
  4.3284765e-01
 -6.5979630e-02
 -1.0215348e-01
 -1.0262857e-01
 -7.8746718e-01
 -3.1605314e-02
 -4.3627847e-02
  4.6132384e-03
  9.4145298e-02
  5.1603997e-01
 -3.9226854e-01
  4.4789303e-02
  3.1260848e-01
 -1.8112893e-01
  1.9028611e-01
 -3.3097502e-02
 -7.3940307e-02
  7.6937705e-01
 -1.2697846e+00
 -3.1761346e+00
  5.6976599e-01
 -7.7064037e-01
  3.6528111e-01
 -1.0530707e+00
 -6.0193235e-01
  4.5286831e-01
 -3.1463116e-01
 -6.0682505e-01
  1.2498201e-01
 -8.6048561e-01
  5.0496653e-02
  3.5103774e-01
  5.6845802e-01
 -6.7986608e-01
  6.6919142e-04
 -3.7392855e-01
 -5.7114184e-01
 -1.0734590e-01
  5.5711865e-01
  8.0969238e-01
 -3.7915984e-01
  1.3740890e-01
  5.3914219e-01
  6.2551856e-02
  1.0632602e-01
  4.0902525e-01
 -7.2000600e-02
 -1.0370425e+00
  2.8777981e-01
 -2.4224684e-02
 -2.8172207e-01
  4.0240490e-01
 -2.0301597e-01
 -3.0478168e-02
  2.8437603e-01
 -4.3596271e-02
  1.0543929e-01
 -6.5378290e-01
  3.0111784e-01
  3.5126045e-02
  7.1971014e-02
 -2.5032070e-01
  3.6660567e-02
  5.8089077e-01
 -2.0937413e-01
  1.2372864e-01
 -5.2540696e-01
  7.9179758e-01
 -4.5543189e+00
  1.6205974e+00
  2.3398671e-01
 -1.9079542e+00
  1.3266615e+00
  3.6187685e-01
  8.8037974e-01
 -2.1094418e+00
  5.1329169e+00
 -1.1351819e+00
 -8.5613549e-01
  1.1362975e+00
  1.9384416e+00
  2.5107906e+00
 -7.3972291e-01
 -1.4303489e+00
  1.6296529e+00
 -3.4769723e+00
  3.4211607e+00
 -1.2163391e+00
 -5.3262529e+00
  2.6557584e+00
  5.2544326e-01
 -3.0805951e-01
 -3.5968053e-01
 -2.1557846e+00
 -8.9674848e-01
 -1.1733412e+00
 -1.0234509e+00
 -3.3228958e-01
 -6.9769484e-01
 -3.1412619e-01
  2.9101851e+00
  1.2112993e+00
 -1.1088029e+00
  1.6742840e+00
 -6.4918175e+00
  1.8733823e+00
 -2.0824597e+00
 -1.9743236e+00
 -8.9267272e-01
 -2.6413133e+00
 -1.6870332e+00
  2.3668506e+00
  2.3134193e+00
 -1.9563649e+00
  4.8933044e-01
 -2.8869860e+00
  8.9520484e-02
 -3.8913909e-01
 -7.7312541e-01
 -9.7557127e-01
  3.7086904e-02
  2.9068637e+00
  4.9835485e-01
  2.8277137e+00
 -2.3575154e-01
  1.3613987e+00
  2.5974116e+00
 -2.7186489e-02
 -7.9651713e-01
 -5.4030085e-01
 -2.8594511e+00
 -3.6898608e+00
  1.5918913e-01
  4.1902575e+00
 -1.4116025e+00
 -6.9656146e-01
  1.3118327e+00
  3.8162345e-01
 -9.7574443e-01
  2.8491968e-01
 -2.6393381e-01
 -9.6662343e-02
  3.2648005e-02
  1.3090289e+00
  3.2003635e-01
 -3.3631465e-01
 -6.3366540e-02
  4.1580755e-02
 -1.2003537e-01
 -3.9417574e-01
 -8.6678527e-02
 -1.8718556e-01
  1.5956622e+00
 -1.3686641e-01
 -8.8866603e-01
  9.6674144e-01
  2.2562096e+00
  2.3691688e+00
  2.9698294e-01
 -3.5399528e+00
  3.6052508e+00
  3.4774134e-01
 -3.4846244e+00
  4.6233624e-01
 -4.7670081e-01
 -3.2470554e-01
 -5.7010603e-01
  1.8163202e+00
  2.4208754e-01
  7.2307028e-03
 -1.4572744e-01
  1.3049611e+00
  1.0014360e+00
  3.9705539e-01
  4.1912737e-01
  2.8543386e-01
 -2.1923417e-01
 -5.2785218e-01
 -3.0287072e-01
 -2.4987291e-01
 -5.5671290e-02
  4.0144190e-01
 -4.0107402e-01
  4.9606183e-01
  2.4676073e-01
  1.7743084e-01
  1.0606066e+00
 -2.0535508e-01
 -1.8512705e-01
 -6.2548411e-01
  1.6692464e-01
  4.4667864e-01
  2.7277460e-02
  2.1426238e-01
 -2.5717536e-01
 -5.9266615e-01
 -4.3034422e-01
  4.1388839e-01
  6.2642294e-01
  1.2781301e-01
  8.8964796e-01
 -2.5155210e-01
 -1.0342259e-01
  1.8846071e-01
  6.2237881e-02
 -4.4104135e-01
 -7.9075746e-02
 -1.8372152e-02
  6.8980478e-02
  4.6649728e-02
 -4.1733694e-01
 -1.0316434e-01
  1.2039429e-01
  4.5129600e-01
  2.2763468e-01
  1.0616033e+00
  4.0618777e+00
  4.0358877e-01
  3.0922430e+00
  3.7405995e-01
 -9.2279875e-01
  5.4348952e-01
 -5.4768854e-01
  4.9980754e-01
  1.2115852e+00
  5.0132579e-01
  5.6246918e-01
 -6.5978557e-01
  7.4834847e-01
 -2.8240249e-01
  1.8930550e-01
 -2.0925891e-01
  7.7095318e-01
  1.3353316e-01
 -1.3768338e+00
  5.9204006e-01
  9.4213021e-01
  5.8981383e-01
  4.3252435e-01
 -4.3399103e-02
  9.7504592e-01
 -2.5090653e-01
  4.5278677e-01
  9.7279978e-01
  1.8413777e+00
  4.9469501e-02
  5.2164668e-01
 -1.8570191e-01
 -5.5940968e-01
  1.8160906e+00
 -1.6882411e-01
 -4.5259011e-01
 -4.1503924e-01
  2.2438003e-01
  7.4608862e-01
 -1.0356987e-01
  8.1875610e-01
  2.6847079e-01
  2.3850398e-01
  4.0657404e-01
  1.6667046e-02
  5.6942757e-02
  3.5501984e-01
 -3.1319275e-02
  3.2912168e-01
 -1.8890120e-01
 -1.3505255e+00
 -7.6325193e-02
 -1.5673668e+00
 -1.0967270e+00
  1.8880072e+00
  3.2542512e-01
 -3.9749873e-01
 -6.7922425e-01
 -1.8747380e-01
 -1.7224005e-01
 -4.3212754e-01
 -1.5170273e+00
 -1.0560213e+00
  1.6807467e+00
  1.6834247e-01
 -1.3515658e+00
  5.0520039e-01
 -7.4706650e-01
  7.2679842e-01
  1.4869183e-01
  4.0484881e-01
 -1.4068566e-01
  8.5622549e-01
 -5.8523494e-01
  1.7818527e-01
 -3.9295512e-01
 -4.0987638e-01
 -9.9001276e-01
 -2.3889282e-01
 -1.4060374e+00
  1.1035457e-01
  1.0768427e-01
  1.6025857e+00
  1.4809357e-01
  4.4505429e-01
 -3.8631436e-01
 -4.1870114e-01
  4.5714146e-01
 -7.1620888e-01
  6.0674220e-01
  3.0100298e-01
 -1.7694190e-01
  1.8527150e-01
  6.2889472e-04
  1.4919238e-01
  1.4063713e-02
  4.6462521e-01
  1.4072442e+00
 -1.7436199e+00
  9.9050146e-01
  2.0008583e-01
  9.4958067e-01
  1.3064750e-01
 -1.2953025e+00
  1.9084525e-01
  3.4377152e-01
 -8.9492059e-01
 -6.9539261e-01
  9.3581736e-02
 -7.0380874e-02
  6.6837817e-01
 -1.5421928e-01
 -2.9517022e-01
 -8.8341236e-01
 -1.6271316e-01
  6.3607609e-01
  1.3190142e+00
  1.1243609e+00
 -7.5263983e-01
  2.7258706e-01
 -1.2063971e-01
  1.6338146e-01
 -1.5682903e-01
 -1.0195556e-01
 -1.2117137e+00
 -3.0726841e-01
 -7.9162025e-01
 -4.8982974e-02
 -1.4303721e+00
  4.6390778e-01
 -1.5461323e-02
  3.0267429e-01
 -1.6955483e-01
  2.7933770e-01
 -2.9589828e-02
 -3.2344866e-01
  2.8004980e-01
  3.0291533e-02
  9.8293923e-02
 -1.2835121e-01
 -1.1640001e-01
  6.1641735e-01
 -1.5111573e-01
  1.1679074e-01
 -2.7877307e-01
  5.0411850e-01
 -7.6796448e-01
  4.6278158e-01
  2.1657176e-01
  5.0429910e-01
  1.5190183e-01
  3.5029045e-01
 -1.2857939e-01
 -2.1158846e-01
  1.6863261e-01
 -7.4229175e-03
 -1.4898677e-01
 -1.0412367e-01
 -1.2348361e-01
 -5.4361868e-01
 -3.9442297e-02
 -9.6648321e-02
  6.0725842e-02
  4.9649980e-02
  7.1879840e-01
 -3.2604355e-01
  5.5462927e-02
  4.7632229e-01
 -3.8895562e-01
 -1.6973351e-01
  3.5319394e-01
 -1.4110768e-01
  1.9889343e-01
 -2.1498222e-02
  4.3035060e-01
  2.7276653e-01
 -2.1090870e-01
 -1.8463355e-02
 -1.6081183e-01
 -4.1796917e-01
 -1.3876061e-01
  2.0776783e-01
  2.0212814e-01
  5.5462610e-02
 -1.3075796e-01
 -7.0428990e-02
 -1.4871538e-01
 -9.3903333e-02
 -1.0102133e-01
  1.2544163e-01
 -1.6549487e-01
 -1.4415740e-02
  3.5971832e-01
  2.0709740e-01
  1.5930863e-01
 -9.7357821e-01
  2.1359122e+00
 -7.7090383e-01
  7.1296237e-02
 -1.0990825e+00
  2.9622293e-01
  1.6297203e-01
  3.6952808e-01
  3.7829328e-01
  3.5926172e-01
 -3.0977842e-01
  6.7394853e-02
 -5.6028765e-01
 -1.2298460e+00
 -9.5653683e-01
  1.2720065e-01
  5.3936332e-01
 -1.4661833e+00
 -5.8460391e-01
 -4.6757659e-01
 -1.8516977e+00
 -4.2274484e-01
 -2.5599253e-01
  1.6917305e+00
 -1.3415763e+00
 -6.6950655e-01
 -8.8479125e-01
 -5.8967823e-01
 -2.0549582e-01
  4.6157679e-01
  1.3216903e+00
  1.9349512e+00
 -1.3032953e-01
 -5.0173081e-02
  6.9712716e-01
  1.5705472e-02
  9.1063790e-02
  5.5676013e-01
  5.6982154e-01
 -2.3100419e-02
 -1.0970305e-02
 -3.2173911e-01
  2.7294415e-01
 -1.2575667e-01
  4.1169167e-01
  6.6180333e-02
  4.0386158e-01
  1.9274469e-01
  2.3424608e-01
 -1.2968024e+00
  7.4744892e-01
 -6.8966055e-01
 -1.9513083e+00
  5.1581897e-02
  3.6867833e+00
  1.1665227e+00
 -5.1907825e-01
  2.1126491e-01
 -1.7099155e-01
  3.0367026e-01
 -1.6519939e+00
  5.1080567e-01
  4.5261215e-04
 -9.9861842e-01
 -1.2066371e+00
  7.2286755e-02
 -6.2488282e-01
 -2.2034805e+00
  6.3008410e-01
 -4.8042935e-01
  1.1395966e+00
 -9.6607643e-01
  3.4072673e-01
  1.0152855e+00
 -1.1936435e+00
 -1.0903330e+00
  2.3918051e-01
 -1.2764713e-01
  2.7319778e-02
 -4.3133980e-01
  1.0108393e+00
 -8.5936832e-01
 -8.1286204e-01
  8.5439347e-02
 -3.2482094e-01
  5.3972954e-01
 -1.4619605e-01
  4.8084233e-02
 -6.0966086e-01
  8.3312696e-01
  3.4713286e-01
 -2.1482815e-01
  1.8743877e-01
 -1.6959256e-01
 -1.6585395e-01
 -3.2578006e-01
 -7.5157195e-02
  2.7115753e-01
 -3.1379898e+00
  4.2966267e-01
 -1.0293399e+00
 -1.4580424e+00
 -1.4743890e+00
 -1.7181396e+00
  2.4666703e+00
 -7.6920100e-02
 -2.5561380e-01
 -8.2848996e-01
 -1.4931989e-01
 -1.3012853e-01
  8.4142935e-01
 -1.1981165e-01
 -3.7354967e-01
  7.8138971e-01
 -4.3906510e-01
 -3.6805174e-01
 -3.6838996e-01
 -4.6636000e-01
 -1.4937373e+00
  1.0558632e-01
 -8.2588887e-01
  1.7613789e-01
  4.9579728e-01
 -9.5069224e-01
 -6.2579918e-01
  3.2177186e-01
  1.2051883e+00
 -4.9710569e-01
  1.0463072e-01
  4.1547483e-01
 -8.5811660e-02
  5.2190596e-01
 -2.5955954e-01
  1.7025369e-01
 -8.3949499e-02
  1.1413809e-02
 -2.9790339e-01
 -2.4872240e-01
  2.6557565e-01
  1.1483805e-01
  1.4179091e-01
  4.8359868e-01
 -7.5995944e-02
  2.8680992e-01
  1.8443888e-02
  3.5780722e-01
  2.7516115e-01
 -1.8880376e+00
  1.7005284e+00
 -1.6573888e+00
 -1.3295489e-02
 -2.1252697e+00
  2.1346829e+00
  9.9354547e-01
 -2.3783822e-01
 -2.1670064e-01
 -6.1812633e-01
  1.3540496e-01
 -2.2262347e-01
 -6.0192645e-01
 -3.8248223e-01
 -8.9796239e-01
  2.5729185e-01
 -4.4857687e-01
  3.4348431e-01
 -6.8869382e-01
 -4.5053011e-01
 -6.1955657e-02
 -6.0319632e-01
 -1.5094589e+00
 -3.3844116e-01
 -6.6231266e-03
 -2.1590826e-01
 -2.3914526e-01
 -1.3938217e+00
  2.0995426e-01
 -1.3540543e+00
  9.6089834e-01
  1.8755661e+00
  2.4996616e-01
 -7.0357883e-01
  5.5798000e-01
  1.6682649e-01
  2.5392639e-02
 -2.1975924e-01
 -1.9982967e-01
 -1.0623725e-01
  5.1538265e-01
 -3.2887304e-01
 -8.8166855e-02
  5.9120673e-01
 -9.8704278e-02
  6.1048746e-02
 -7.9321608e-02
 -7.3199183e-02
  2.0688230e-01
 -1.6873039e-01
  3.9999947e-01
  5.0338876e-01
  8.4702551e-01
  2.7656233e-01
 -9.5071130e-02
  4.3146303e-01
  1.5739621e-01
  1.3163944e-01
  1.7443247e-01
  9.9669106e-02
  7.5946815e-02
  4.0466982e-01
 -6.1659899e-02
  1.8546636e-01
  8.9172475e-02
 -8.5156560e-02
 -2.2139135e-01
  4.8620224e-01
  6.3650477e-01
 -1.0233667e-01
  9.8724373e-02
 -1.7410459e-01
  4.6425529e-02
 -7.0222056e-01
 -2.5458422e-01
 -2.1685802e-03
  3.4085497e-01
  1.3869475e-01
  2.5799352e-01
 -9.0176165e-02
  2.4589922e-01
  3.6069071e-01
 -8.1504869e-01
 -3.0037919e-01
 -9.2850327e-02
 -2.0892358e-01
 -3.5151638e-02
 -4.0950879e-01
 -8.9376442e-02
 -1.7191392e-03
 -5.8386105e-01
  3.1183696e-01
  6.3379794e-02
  3.6641940e-01
 -1.2923989e-01
  7.7953644e-02
  2.2407466e-01
 -7.6043361e-04
  4.2503040e-02
  4.7127694e-01
 -5.5309635e-02
 -3.2343006e-01
 -4.8656225e-01
  2.4696840e-02
 -3.6506873e-01
  1.5281670e-01
  1.9459142e-01
  2.7012768e-01
 -3.7886504e-02
 -1.1396941e-01
 -2.7940714e-01
 -2.7396125e-01
 -1.4106409e-01
  4.0588412e-01
 -4.9235758e-01
 -3.5559636e-01
 -5.5133805e-02
  8.6406745e-02
 -3.8775989e-01
 -3.3993235e-01
  2.2757457e-01
  6.5261924e-01
  4.1252872e-01
 -2.7317327e-01
 -9.6757638e-01
  4.0377438e-01
 -2.2260652e-01
  2.1716914e-01
 -8.5278466e-02
  1.5633504e-01
 -1.9097856e-03
  5.7354575e-01
  2.3990338e-01
 -3.4488297e-01
  1.3777520e-02
 -9.6665420e-02
 -1.1566807e-01
  6.9216557e-02
 -1.0491984e-01
  1.7214192e-01
  9.6318521e-02
 -1.9768594e-01
  2.1018298e-01
  3.2523394e-01
  1.5755591e-01
  5.0976527e-01
 -6.8269044e-02
  3.5749558e-01
  8.3253747e-01
 -1.3506126e-01
  8.6463556e-02
 -8.5911877e-02
  3.8998136e-01
  1.5439156e-01
 -1.1091202e-01
  2.8941104e-01
  4.4927504e-03
  1.6008706e-01
  7.0351255e-01
 -2.3863713e-01
  4.2868200e-01
  3.2108430e-02
  1.4229153e-01
  1.2971655e-01
 -2.0323440e-01
  4.1349074e-01
  1.9290404e-01
 -8.8856988e-02
  4.0883088e-01
 -2.5121483e-01
 -1.0208348e-01
  3.3731273e-01
  6.5496999e-01
 -3.6641151e-01
  2.9198411e-01
 -1.3514993e-01
  2.3018762e-01
  5.8159745e-01
 -4.2505586e-01
  8.9297526e-02
  1.8061043e-01
 -1.1307271e-01
 -6.6725634e-02
  3.7306482e-01
 -7.3814005e-02
  2.8932592e-01
 -5.8861233e-02
 -3.1060240e-01
 -3.5762769e-01
 -6.6842377e-02
 -1.5380338e-02
 -2.3115356e-02
 -1.0957916e-02
 -3.6043622e-02
 -4.0528681e-02
 -1.6850251e-01
 -9.9097759e-01
  2.3312380e+00
  2.2767062e+00
  1.8327943e+00
 -1.8035994e-04
  1.6493111e+00
 -7.4521226e-01
  1.6808063e-01
  4.0866528e-02
  9.6345621e-01
 -4.6391913e-01
  8.5777742e-01
 -9.0257794e-02
 -1.6324647e-01
  7.4670368e-01
 -1.0875623e+00
  2.8965113e-01
 -5.0326669e-01
  6.0813522e-01
  6.5330112e-01
 -9.2357129e-02
  7.2133571e-01
  6.7847288e-01
 -2.8082535e-01
  1.2364929e+00
  7.4062449e-01
  1.1267963e-01
 -1.0042950e+00
  4.3812582e-01
  1.7652694e+00
 -1.3991542e-01
  3.8497430e-01
  3.7173280e-01
  1.7848507e-01
  7.3915130e-01
  9.9360876e-02
 -5.8380693e-01
  2.1164656e-01
  1.0999893e-01
  1.0219970e+00
  3.4222418e-01
  7.9338253e-02
  1.7112203e-01
  1.5797694e-01
  5.0785130e-01
 -1.6069700e-01
  4.3887821e-01
 -4.6278659e-02
 -2.1555412e-01
 -1.9101688e-01
 -3.0914167e-01
 -2.3476355e-01
  1.6821567e-02
 -4.9159473e-01
  4.0768033e-01
 -1.7497703e-01
 -2.7811888e-01
  8.9429505e-02
 -2.7443618e-01
 -2.6628345e-01
 -3.9066218e-02
  2.8302747e-01
  2.8135911e-01
 -1.1905187e-01
  2.6514965e-01
  7.1707234e-02
  3.7320461e-02
  1.7818403e-01
 -1.0547362e-01
  1.9295323e-01
  1.4648482e-01
  3.7913485e-03
  2.2238141e-01
 -1.5847215e-01
 -4.2268939e-02
 -3.7742829e-01
  1.8645170e-01
  1.2569210e-01
  4.0646631e-02
 -3.2411817e-02
  5.8910966e-01
  3.3207983e-01
  2.7640006e-01
 -2.1635048e-02
 -3.1299573e-01
 -3.4009574e-03
 -4.1349807e-01
  8.9659333e-02
 -1.9608366e-01
  2.1220723e-01
 -2.7040398e-01
  4.0730100e-02
  1.5276039e-01
 -2.7381191e-01
 -2.7293010e-02
  3.4275854e-01
  5.5010334e-02
  7.1937807e-02
  1.9028264e-01
 -5.0532925e-01
  1.5788993e+00
  1.2849253e+00
  6.1787790e-01
  5.8653688e-01
  6.2637848e-01
  1.8943046e-01
 -5.1417351e-01
  9.3074536e-01
 -5.7555270e-01
  4.2075998e-01
  3.8411775e-01
 -9.6704733e-01
  6.8867916e-01
 -4.0561455e-01
 -1.6519640e-01
  1.6622365e-01
 -3.1904541e-02
  7.0322737e-02
  7.6379417e-03
  1.5341458e+00
  1.6680473e-01
  6.0762966e-01
 -1.0708583e-02
  2.4488612e-01
  1.1470702e+00
  6.5552598e-01
  8.1584162e-01
  7.2220147e-02
 -5.1668751e-01
 -7.3312616e-01
  1.2756518e+00
 -2.4405520e-02
 -3.4968373e-01
  2.5525895e-01
 -4.6951804e-01
  6.1577864e-02
 -9.7561382e-02
 -8.6026020e-02
  1.5194371e-01
  9.1740876e-02
  2.5938204e-01
 -2.1736678e-01
  3.1273801e-02
  4.9146849e-01
 -3.3853418e-01
  3.9387813e-01
  4.0856156e-01
  1.6377798e+00
 -2.9242084e+00
 -4.9559191e-02
  1.4306740e+00
 -2.0386183e-01
 -7.3930675e-01
  2.1150245e-01
  6.1637515e-01
  5.6046206e-01
  3.2851793e-02
 -9.2375600e-01
  3.3788604e-01
  7.5723708e-01
 -3.9018384e-01
  1.1857142e-01
 -2.2330494e-01
 -1.1961330e-01
 -8.8710022e-01
 -1.6731735e-01
  9.0256566e-01
 -5.6308454e-01
  1.0090234e-01
 -1.9884618e-02
  6.4440030e-01
 -1.5611714e+00
  6.1423935e-02
  9.5643991e-01
  9.1376722e-02
  1.7452581e-01
  7.8527039e-01
  6.7347372e-01
 -4.1339976e-01
  5.7654601e-01
  1.8208517e+00
  1.1165401e+00
 -1.4532392e-01
  1.3025409e-01
  2.5187588e-01
 -1.0100507e-01
 -2.8514883e-01
 -4.3051407e-01
  5.1691562e-01
 -9.0766989e-02
 -1.3815449e-01
 -2.3380670e-01
 -4.6932605e-01
 -7.4653551e-02
 -1.8641774e-01
 -4.8886705e-02
 -2.3635700e+00
  3.0286109e+00
 -1.0629604e+00
 -1.1485336e+00
  6.5687406e-03
  4.6007532e-01
  1.8353673e+00
  2.2454673e-02
 -3.6564365e-01
 -1.1741499e-01
 -2.0066924e-01
 -2.0466910e-01
 -4.8828432e-01
  1.1874361e-01
 -1.9676939e-01
  4.4218102e-01
 -1.1498422e-02
  7.1554232e-01
  1.7303221e-01
  5.6000829e-01
  8.6471075e-01
 -2.8971270e-01
 -3.8813256e-02
  3.2184666e-01
  5.3303260e-02
 -3.2070398e-01
  1.3228681e+00
 -6.4436918e-01
  1.1002802e-01
  4.2196763e-01
  8.5897017e-01
 -9.4916254e-01
 -2.5887141e-01
 -3.0054685e-01
  1.8685112e+00
 -1.4264664e-01
  2.3372906e-01
 -1.5396038e-01
 -4.6524294e-02
 -2.7008051e-01
  1.2953395e-01
 -1.0567056e-01
 -2.6875663e-01
 -3.2803011e-01
  3.8677983e-02
  2.8271255e-01
  2.1424213e-01
 -2.3454116e-01
 -2.1108927e-01
 -6.3720685e-01
 -7.7296454e-01
 -8.8145465e-01
 -1.7531863e+00
  8.3647335e-01
  4.5553759e-01
 -1.1774678e+00
  4.3464288e-01
 -4.7964436e-01
  2.7629301e-01
 -1.5676530e-01
 -4.0637040e-01
  1.0354841e+00
  3.3990726e-01
 -2.1415062e-01
 -6.2889165e-01
  6.6809148e-02
 -7.7849483e-01
 -5.6283092e-01
 -5.8129722e-01
  2.8395766e-01
 -9.7830564e-02
  1.4448513e+00
  7.5526810e-01
 -1.0098236e+00
  2.4971889e-01
 -2.3771560e-02
 -5.9830034e-03
 -1.1488364e+00
 -7.8413531e-02
  1.3177687e-01
 -2.3842184e-01
  1.0798607e+00
  2.2897902e-01
  9.5521021e-01
 -3.2547963e-01
  2.7820742e-01
  1.0131079e-01
 -3.2579172e-01
  6.8269533e-01
 -4.2322850e-01
  4.5549437e-01
  1.5605184e-01
  2.9279649e-01
  4.5667952e-01
  1.6371040e-01
 -3.3064383e-01
  1.9072282e-01
 -1.6033338e-01
  4.2075130e-01
  4.0068161e-01
  1.8862946e-01
  6.3937402e-01
  6.6888016e-01
  1.5605844e+00
 -4.5647997e-01
 -2.1584852e-01
 -5.1610774e-01
  3.1313729e-01
 -2.2078845e-01
  6.3778591e-01
  7.3783845e-01
 -2.7351108e-01
 -1.3475975e-02
  2.5887567e-01
  2.3117308e-02
 -3.7118635e-01
  5.5904139e-02
 -5.1498514e-01
  5.9267808e-02
 -1.9636908e-01
  6.2174088e-01
 -8.9161247e-02
 -3.8261655e-01
 -1.1728413e-01
 -2.6529422e-01
 -1.5183696e-01
 -6.4175391e-01
  6.1923438e-01
  7.8610294e-02
 -9.3524653e-01
  2.2061241e-01
 -5.0449824e-01
 -1.5032779e-01
  1.5248300e-01
 -3.7554649e-01
 -2.8223427e-02
  2.4846910e-01
  2.0448178e-02
 -1.5264831e-01
 -1.3561646e+00
 -1.6820061e-01
 -1.2708540e-01
 -1.4768681e-01
  4.1982688e-02
 -9.1848917e-02
  3.4913123e-01
  7.0164606e-02
 -4.7109291e-01
 -5.9326148e-01
 -3.4127823e-01
 -6.2651180e-02
  3.4177026e-01
 -7.7339923e-01
 -3.3936158e-01
 -2.1703212e-01
  9.1831401e-02
 -2.1459676e-01
 -3.9744783e-02
 -2.3911834e-01
  3.0494845e-01
  2.4773115e-01
 -3.4029558e-01
 -2.0593570e-01
 -9.2749394e-02
 -5.0721705e-02
 -7.7017896e-02
 -2.8777642e-02
 -3.3073714e-01
 -1.2203141e-01
 -3.5186931e-01
 -4.2780306e-02
 -5.5119336e-01
 -4.3897569e-01
 -2.3322465e-01
 -2.0780839e-01
  2.6789862e-01
  4.4626277e-02
  9.6476443e-02
 -3.6934680e-01
 -8.9398190e-02
  1.6883084e-01
 -4.9732584e-01
 -5.4115929e-02
 -5.7467256e-02
  2.6883137e-01
 -6.4144507e-02
  1.2037329e-01
  2.0241220e-01
 -5.0031394e-01
  2.8950107e-01
 -2.6790670e-01
  5.9628159e-01
  6.7263886e-02
 -1.4291431e-01
 -5.1131928e-01
 -2.3708408e-01
 -6.4813042e-01
  7.4923143e-02
 -3.5530761e-02
 -3.1031892e-01
 -1.4149034e+00
  2.5982714e+00
  2.5415442e+00
  2.1899214e-01
  1.0110204e+00
  8.8180697e-01
 -5.2833389e-02
 -8.2242437e-02
  1.0777453e-01
 -3.6772152e-03
 -5.3001169e-02
 -5.9938270e-01
  3.5011473e-01
  7.0095593e-01
 -1.2201875e-02
  2.8136894e-01
 -1.2174965e+00
  6.0488623e-01
 -7.3815399e-01
 -3.2482263e-01
 -7.1778929e-01
  4.9263903e-01
 -5.9799433e-01
 -9.6402979e-01
  1.1965316e-01
  1.5333290e-01
 -2.2765166e-01
  1.1496668e+00
 -6.4098373e-02
  4.1826451e-01
 -3.3049265e-01
 -1.1216269e-01
  2.2916695e-01
  2.0447227e-01
  7.7305004e-02
 -3.9455816e-01
 -1.0695598e-01
 -1.3628873e-01
  2.9275912e-01
  7.8664595e-01
 -1.8526652e-01
  1.0668657e-01
  3.7526017e-01
 -1.9384764e-01
 -2.3265061e-01
  8.0436289e-02
  1.1435468e+00
  8.0517960e-01
  1.4241840e+00
  2.8953671e-01
 -1.1946526e+00
 -4.8719409e-01
 -8.7506133e-01
  1.4832364e-01
  6.6402406e-01
 -2.9766941e-01
 -3.1580719e-01
 -3.6695276e-03
  5.1808661e-01
 -1.2219982e+00
  1.1282251e+00
  2.1245871e+00
  3.3180985e-01
  6.8616372e-01
  4.6279809e-01
  8.5875082e-01
  1.5061104e-01
 -5.8355546e-03
  6.2793785e-01
 -3.8555664e-01
  6.1381751e-01
  4.3985224e-01
 -5.0614059e-01
 -4.2477408e-01
  1.0379608e+00
  8.7218630e-01
  1.4992411e+00
  1.0687498e+00
 -1.5076407e+00
  5.9838432e-01
 -2.0243719e-01
 -5.9039700e-01
 -8.4101662e-02
 -2.1223210e-01
  1.7117225e-01
  2.7345899e-01
  9.4238979e-01
  3.2193065e-02
 -2.8586974e-02
 -1.9486842e-01
 -4.7080660e-01
  9.5199220e-02
  1.7039455e-01
 -4.7058463e-01
 -3.0541706e+00
  2.2403798e+00
  1.1135586e-01
 -2.3813958e+00
  5.2280110e-01
  2.8597336e+00
 -2.1006038e+00
  3.4709945e-01
 -4.1929748e-02
 -8.4232360e-01
  1.7073315e-01
  6.5432236e-02
 -2.0088878e+00
 -6.9045269e-01
  2.1270835e-01
  8.1634039e-01
  9.7957700e-01
  8.3921951e-01
  3.2725185e-01
  3.1849822e-01
  5.3711313e-01
  7.9874623e-01
  1.5969132e+00
  2.0645037e-01
 -6.8439335e-01
 -3.0947453e-01
  1.5383445e+00
 -5.9775609e-01
  9.4067097e-01
 -1.4737691e-02
  9.2038757e-01
 -4.7153926e-01
 -2.8897854e-02
  1.5584546e+00
 -8.5056499e-02
 -1.5907952e-01
 -9.8545857e-02
 -2.6645315e-01
 -1.9618703e-02
  2.9993498e-01
  4.2004409e-01
 -4.6781331e-02
 -1.7969945e-01
  2.5306219e-01
  2.3893392e-01
  1.6784593e-01
  1.5567587e-01
 -2.0969877e-01
  5.9008945e-02
 -2.9359951e+00
  1.1264001e+00
  1.3750237e-01
 -2.2841406e+00
 -1.3685369e+00
  8.7418669e-01
 -2.6406834e+00
  2.3362601e-01
 -5.0707424e-01
 -5.6632203e-01
  4.5341220e-02
 -1.4778833e+00
 -2.4657963e-02
  3.8152829e-01
 -3.0831677e-01
 -3.5650116e-01
  3.8201427e-01
 -9.5153451e-02
 -1.9264042e+00
  3.2489529e-01
  2.4296555e-01
  4.1323242e-01
 -3.1879753e-01
  2.8499043e-01
  3.8667503e-01
 -8.7773353e-01
 -2.8102896e-01
 -1.1988697e+00
  2.4044994e-02
 -7.3822945e-01
  3.7340495e-01
  2.8319670e-02
 -1.5038872e+00
  1.1950319e-01
  1.2698848e+00
 -3.1741616e-01
 -2.3596074e-01
  1.1812810e-01
  1.7068524e-02
 -1.0649791e+00
  1.4985681e-01
  3.2710129e-01
 -4.4052863e-01
 -1.8129487e-01
  9.1300122e-02
 -2.9763424e-01
 -2.0678344e-01
  9.2441969e-02
  1.6105519e-01
 -2.2391713e-01
 -7.0195204e-01
  8.5627303e-02
 -3.5898259e-01
  2.4813404e-03
 -4.7484350e-01
 -6.0102987e-01
 -4.0570709e-01
 -3.4962378e-02
 -5.0803516e-03
 -5.8084849e-02
  2.5529554e-02
 -1.8119860e-01
 -2.2597219e-01
 -2.9656428e-01
 -1.9010486e-01
  1.5789874e-02
 -3.2470837e-01
 -4.3599222e-02
  4.7232056e-01
 -6.0258396e-02
 -3.5437518e-01
 -4.3221420e-01
  1.9456321e-01
 -1.7502062e-01
 -4.1870472e-01
  1.0127726e-01
 -3.5148725e-02
 -1.8110579e-01
 -2.6690412e-01
  2.8964761e-01
 -7.0227988e-02
  2.7655157e-01
 -3.8195223e-01
 -2.8932196e-01
  1.5809201e-01
 -3.8881370e-01
  2.7916402e-01
  2.8758392e-01
 -1.4379612e-01
  2.5108871e-01
 -3.3465394e-01
 -1.2682289e-01
  1.3542138e-01
 -6.8418932e-01
  9.4803132e-02
 -3.4500295e-01
  2.0021333e-01
 -7.2777033e-02
 -8.4261596e-01
 -9.6051568e-01
  4.5051065e-01
 -1.1872909e+00
 -1.2491789e-01
  3.2325206e+00
 -6.8844634e-01
 -2.0088620e-01
  1.7594761e+00
  8.0790883e-01
 -3.2589224e-01
  1.0117707e+00
 -9.7050416e-01
  4.8772269e-01
 -9.5845360e-01
  1.6893904e-01
  8.9482826e-01
  1.4498158e-01
  1.3942428e+00
  1.5346980e+00
  3.4223050e-01
 -4.4456221e-02
 -1.7068347e-01
  1.2586080e+00
  3.3373785e-01
  1.5074044e+00
  4.0336755e-01
 -5.2228463e-01
 -7.1704817e-01
 -9.1076440e-01
  1.8062445e+00
 -2.9640293e-01
  9.7454607e-01
 -6.3377929e-01
  9.3952799e-01
 -3.9117578e-02
 -2.2437941e-01
 -3.2507202e-01
  1.9963470e-01
  1.1554774e+00
 -1.5925254e-01
  3.9352211e-01
 -2.4720939e-01
 -6.2530391e-02
  3.6168024e-01
  9.7589605e-02
 -1.4887853e-01
 -5.7490733e-02
  3.3440642e-02
 -6.9444358e-01
  7.7733403e-01
 -3.0619624e-01
 -8.7000757e-01
 -1.4724412e+00
 -3.0081359e-01
  1.3841170e-01
  1.2271296e-01
  1.4565663e-01
 -5.4920471e-01
  1.3918306e-01
 -4.4029036e-01
 -2.1694383e-02
 -1.7980075e-01
 -2.1266793e-01
 -2.7797908e-01
 -2.8706688e-01
 -7.9800300e-02
  1.6491747e-01
 -1.2800011e-01
  2.5757590e-01
 -9.8470353e-02
 -2.5545850e-01
 -3.8214289e-02
 -2.3128873e-02
 -3.5724902e-01
 -3.3346733e-01
  4.0747087e-02
 -2.5771990e-01
  3.9876959e-01
 -3.8691425e-01
  1.2470715e-01
 -3.3480218e-01
  3.0331117e-01
  5.3503531e-01
 -1.6930228e-01
 -4.4844870e-02
  4.0657241e-02
 -6.4939901e-02
 -3.8043579e-01
  4.9516764e-03
  2.8770737e-02
 -2.0659074e-02
 -6.1839018e-02
  1.1721268e-02
  2.4373421e-01
 -9.5518678e-02
 -5.1918246e-02
 -2.3195639e-01
 -5.3961396e-01
 -2.5687379e-01
  2.6100296e-01
  2.3867010e-01
  2.7442110e-01
  3.0944470e-01
  1.0846996e-01
 -3.0526829e-01
 -1.0258516e-01
  1.4000884e-01
  1.5461220e-01
  2.6005295e-01
 -1.0340087e-01
  2.2927231e-01
 -4.2931773e-02
  1.6358767e-01
 -3.6259089e-02
 -7.8034841e-02
 -1.0252759e-01
  2.3062307e-02
 -8.5103750e-02
 -9.8584957e-02
 -2.9806831e-01
  3.1108117e-01
  2.1735799e-01
  2.2211757e-02
 -2.0312974e-01
 -2.3979810e-01
 -1.1240178e-01
  2.6162568e-01
 -2.0981258e-01
 -2.3687464e-01
  6.5773916e-01
 -3.8044071e-01
  2.8778502e-01
 -1.6950360e-01
  6.8394989e-02
  1.3603854e-02
  5.0779516e-01
  1.4915185e-02
  2.6361087e-01
 -3.2742563e-01
 -1.3802625e-02
 -3.7503180e-01
  3.8927501e-01
 -3.3885223e-01
 -2.2220582e-01
 -2.7156986e-02
  4.9523609e-03
 -7.5461365e-02
 -5.6188516e-02
  8.7726317e-02
 -4.9582174e-01
  6.5890968e-01
 -4.0709317e-01
  6.4236568e-03
  1.8022583e-01
  2.1109158e-01
 -1.0487788e-01
  2.8050274e-02
 -1.5057795e-01
  8.4591731e-02
 -3.5010540e-01
 -3.0683321e-01
  2.0181008e-01
  8.6879499e-02
  3.6966723e-01
 -1.2451843e-01
  4.1003561e-01
  8.1157200e-02
  2.1526904e-01
 -2.7652970e-01
  1.7084031e-01
  2.7459162e-01
 -4.2094952e-01
 -3.5806170e-01
 -4.0273353e-01
 -2.4156783e-02
 -3.1051862e-01
 -1.4833951e-01
  2.7884343e-01
 -2.3933022e-01
  1.0168673e-01
 -1.7051874e-01
  8.0133446e-02
  1.7090739e-01
 -3.0542094e-01
  5.6814171e-02
  3.1870160e-01
 -1.5156439e-01
  2.1063384e-01
 -5.3940181e-02
  8.2114764e-02
  2.7712414e-01
 -1.4752939e-01
 -3.2715407e-01
  1.6420383e-02
 -4.2663050e-01
  2.8233066e+00
 -1.7615541e+00
  1.4218361e+00
  1.0767016e+00
 -1.5995696e+00
  3.2987268e+00
 -1.2597500e-01
 -6.0536683e-02
 -6.4435679e-01
  5.5125815e-01
  8.2690671e-02
  2.0526914e-01
  7.1639729e-01
 -1.8173054e-01
  7.1247149e-01
 -3.5106421e-01
 -6.9016838e-01
 -1.5180211e-01
  4.9843583e-01
 -1.8763469e+00
 -4.9958631e-01
 -4.9496493e-01
  1.3873340e+00
  4.9635044e-01
 -2.6515225e-01
  6.6465801e-01
 -7.1520305e-01
 -3.0709368e-01
 -1.1087220e+00
  4.0089089e-01
  2.6312070e-02
 -9.0250099e-01
  5.5232847e-01
  1.4627963e-01
  2.7979904e-01
 -1.4434604e-01
 -1.1460398e-02
 -1.1382487e-01
 -1.0028714e-01
  3.4055847e-01
 -2.4270497e-01
  5.3425241e-01
 -7.1292609e-02
  6.0669430e-02
  5.3755794e-02
  5.4539148e-02
 -4.4546068e-02
  1.3741826e-01
  5.4259068e-01
  9.6285933e-01
  1.2047358e+00
  1.4123316e+00
  4.3252161e-01
 -2.8616127e-01
 -1.8741688e-01
 -3.2050845e-01
 -2.0803267e-01
 -6.8096563e-02
  9.3271917e-01
  2.7376182e-02
  4.6626982e-01
 -9.1802984e-01
  6.0776521e-02
 -6.4589578e-01
  4.7487602e-01
  6.2073511e-01
  3.5926670e-01
 -6.1322168e-02
  3.1240752e-01
 -7.5734276e-01
  6.6341847e-01
 -3.3250114e-01
  4.2544238e-02
 -3.7754202e-01
  6.0416698e-01
 -1.7394732e-01
 -1.0278122e+00
 -4.3600523e-01
 -2.1124074e-01
 -2.2390127e-01
  8.6648874e-02
  1.5178335e-02
  1.0547625e+00
  1.8367004e-01
  2.0838159e-01
 -2.8893778e-01
  3.4185705e-01
  2.7190378e-01
 -3.0364048e-01
 -1.2346970e-01
  2.1968840e-01
  1.7633870e-01
 -9.1895171e-02
  9.1448635e-02
 -3.4044024e-01
  8.8414142e-04
  1.1059655e-01
 -5.0791264e-01
  1.6392486e+00
 -1.5849879e+00
  3.8180050e-01
  2.3395690e-01
  1.0417028e-01
 -6.3278341e-01
  3.4143314e-01
  1.7815673e-01
 -4.3454033e-01
  1.7839180e-01
 -1.1125892e-01
 -1.3594757e-01
  2.7955803e-01
  6.0834274e-02
 -1.0658933e-01
 -5.2069998e-01
 -4.6734387e-01
 -2.1286096e-01
 -3.1906232e-02
 -3.4701966e-02
 -7.8621529e-02
 -1.3176008e-01
 -8.7467963e-01
  1.0062651e-01
 -3.8190821e-01
  5.1572317e-01
 -6.9854474e-01
 -2.3093404e-01
  4.6120703e-02
 -1.6576324e-01
 -2.7903393e-01
 -8.3803391e-01
  7.7349372e-02
 -3.9951646e-01
 -2.8510118e-01
 -1.3119888e-01
  6.7121193e-02
  2.3378782e-02
  3.1165275e-01
 -2.8386199e-01
 -1.7506659e-01
  3.5396442e-03
 -4.6246700e-02
  3.4658965e-01
 -1.9682322e-01
  3.9968025e-02
 -3.6981683e-02
  4.7692674e-01
 -1.6929896e-01
  5.0006427e-02
 -3.2680258e-01
 -1.8704879e-01
 -3.3837271e-01
 -4.7196844e-01
 -2.8223103e-01
 -3.7830457e-01
 -1.8457595e-01
  1.7471738e-01
 -5.5146295e-01
  1.5095954e-01
 -3.9482865e-01
 -1.0624064e-02
 -3.0778039e-01
 -1.8327643e-01
 -1.9545984e-01
  1.6127034e-01
  1.8557573e-02
  1.1781567e-01
  4.3531263e-01
  4.4210491e-01
 -7.3356785e-02
 -2.1155125e-01
 -1.3247465e-01
 -4.4754758e-02
 -1.2978623e-02
  8.8379346e-02
 -1.2972686e-01
 -1.4715414e-01
 -6.8878792e-02
 -1.0712890e-01
  1.9088823e-01
 -1.2946294e-02
 -1.5707625e-01
  2.4652320e-01
 -1.8948397e-01
  2.7708280e-01
  2.9168028e-01
 -2.0427838e-02
 -6.9424644e-02
 -1.6964482e-01
  9.6755065e-02
  3.1659517e-01
 -2.2456230e-01
 -7.0537940e-02
  4.0369242e-01
  1.3304542e-01
  1.6039771e-01
 -3.0127648e-01
 -1.4693313e+00
  2.4877343e+00
 -3.2905354e-03
 -1.4914132e+00
 -9.4254977e-01
  2.2057924e+00
 -2.6709396e-01
  3.2299882e-01
  1.1688666e+00
 -1.8372719e-01
 -2.1376242e-01
 -9.9902141e-01
 -8.1875825e-01
 -6.2798932e-02
 -1.1459108e-01
  7.3147160e-01
  7.1999705e-01
  3.4142062e-01
  1.0167127e+00
 -2.8626683e-01
  1.2728347e-01
 -6.8664074e-01
 -4.8707241e-01
  5.8553356e-01
  5.1740175e-01
 -7.1862787e-01
 -1.0411736e-01
  8.1006438e-01
  7.0122823e-02
  3.9202613e-01
  2.5726807e-01
 -2.7549502e-01
  7.8626864e-02
 -1.5713546e+00
  8.6857563e-01
  1.4065745e-01
  8.7683544e-02
 -1.8693814e-01
 -4.1042450e-01
 -2.4115077e-01
  3.3053100e-01
  2.8496024e-01
  1.2461851e-01
 -1.2749165e-01
  1.2669322e-01
 -4.6068481e-01
  8.0227450e-02
 -6.7624293e-02
  4.2675599e-02
  3.9530659e-01
  1.3022500e+00
  6.3007228e-02
  8.2608384e-01
  9.1125655e-01
 -4.5386064e-01
 -3.7649393e-02
 -5.3251970e-01
 -3.8061684e-01
 -3.7628144e-01
 -6.4306736e-01
  1.5050822e-01
  1.9738564e-01
  1.9736512e-02
  1.1498454e-01
  9.6107200e-02
  1.6213720e-01
  1.2086384e-01
  5.1393080e-01
  2.3055811e-01
  1.2215182e+00
 -1.7831756e-01
 -2.5778615e-01
  2.3721108e-01
  6.3603789e-01
 -3.7658301e-01
  3.0225500e-01
 -4.2874259e-01
 -7.1936473e-02
  4.1046503e-01
  2.0570277e-01
  3.7331563e-01
  9.1591954e-02
 -1.0287429e+00
  6.8515223e-01
 -5.2148670e-01
  1.8674640e-02
  3.6009002e-01
  1.0786048e-01
  2.3884837e-01
  2.2381438e-01
 -3.4353772e-01
 -6.3990042e-02
 -2.9716912e-01
  6.3584769e-01
 -2.1240640e-01
  2.8104022e-01
 -1.8934076e-01
 -4.4007644e-01
 -1.6950036e+00
 -8.0800062e-01
 -1.2144554e+00
 -1.3034461e+00
 -1.8604161e+00
 -2.0814414e+00
 -1.2263100e+00
 -4.5683277e-01
 -2.2613584e-01
 -1.8502992e+00
 -3.0641961e-01
 -3.7447885e-01
 -6.4319682e-01
 -1.5222223e-01
 -8.3704919e-01
  1.2455402e-01
  1.2220534e-01
  8.0663568e-01
 -3.1286497e-03
  1.9140403e-01
 -9.7303420e-02
 -2.1545546e-01
 -1.1647216e+00
  6.0655302e-01
 -4.0082349e-03
 -5.2621108e-01
  2.7731815e-01
 -4.4375351e-01
  1.1989084e+00
  2.2589155e-01
  1.2681325e-01
 -7.6241207e-01
 -1.4297904e+00
 -1.0757532e+00
  2.0819552e+00
 -2.8264481e-01
 -1.7538325e-01
 -1.9980082e-02
  5.4343224e-01
 -3.3058521e-01
  1.0447005e-01
  2.3196673e-01
 -1.5620659e-01
 -1.8301325e-01
 -1.3989620e-01
  1.0153343e-01
  3.2060814e-01
  7.6332808e-02
  9.7194999e-02
  5.9140742e-01
  2.9513154e+00
  8.7840301e-01
 -1.7630735e-01
  1.4420450e+00
  8.1792241e-01
  2.7276632e-01
 -1.1955637e-01
  3.3913713e-02
  2.3693800e-01
  6.4158672e-01
  1.4425479e+00
 -6.3122296e-01
 -7.7085060e-01
 -4.3331601e-02
  7.6103723e-01
  2.9588425e-01
  1.9447741e-01
  1.7275970e+00
 -7.7778295e-02
 -5.2894998e-01
  6.2182095e-02
  7.9069865e-01
  9.3243265e-01
  3.6196265e-01
  1.3161069e+00
 -7.5458728e-02
  2.2805703e-01
 -4.3676072e-01
  6.8274081e-01
 -3.6800992e-01
 -6.7632073e-01
  1.3565089e+00
 -3.1379777e-01
 -1.1504683e+00
  4.1497067e-01
 -1.4657083e-01
  5.4651681e-02
 -4.5614150e-01
 -9.9459089e-02
  1.3860786e-01
  5.1053661e-01
  8.6821597e-03
  6.4021245e-02
  9.6344022e-04
  4.8667872e-03
  2.5735414e-01
  1.7699781e-01
 -3.3701953e-01
 -1.9561520e+00
  3.4413345e+00
 -1.7461432e+00
 -1.4090461e+00
  7.9214871e-02
  4.1582570e+00
  6.7611140e-01
 -2.5796381e-01
 -6.6629034e-01
  5.9248930e-01
  1.2918225e-01
  2.1896371e-01
 -1.2259953e+00
  7.4146092e-01
  2.6806056e-01
  5.1551167e-02
  4.0688869e-01
  5.3223163e-01
  8.2529318e-01
 -6.6002589e-01
  5.0122786e-01
 -3.5712984e-01
  7.1911228e-01
  1.9478254e-01
  7.3166734e-01
  2.8283566e-01
 -8.9387424e-02
  3.1050608e-01
  1.4194224e-02
 -1.4431514e-01
 -1.1497544e-01
  5.4856354e-01
  3.4393716e-01
  2.6768771e-01
  6.2353039e-01
 -1.2242951e-02
 -1.9272238e-02
 -3.3497205e-01
  1.3399969e-01
 -6.0209699e-02
  3.2687652e-01
 -1.7876562e-01
  3.8010681e-01
 -1.6031846e-01
  5.4731611e-02
  6.2829381e-01
  1.0673518e-01
 -2.3351040e-01
  3.5158581e-01
  6.4175081e-01
 -1.6206239e+00
 -1.4457765e-01
 -7.6879069e-02
  7.9584330e-01
 -1.2678888e+00
 -4.3536717e-01
 -5.7638261e-02
 -3.8141528e-01
 -5.9417348e-02
  3.6767203e-01
 -1.2280332e-01
 -1.2377572e-01
 -2.2991535e-01
  2.1110712e-01
 -4.3201593e-01
  1.3109335e-01
  2.6531121e-01
  4.7577953e-01
 -4.8850343e-02
 -7.7935576e-01
 -2.0827337e-01
  5.0312519e-01
 -4.6567407e-02
 -7.3129475e-01
  1.0816115e-03
  1.2850305e-01
 -8.3110398e-01
 -2.3148371e-01
  7.7356917e-01
 -1.0711762e-01
 -6.7440397e-01
  1.9263798e-01
 -8.3724499e-01
 -1.1195154e+00
  2.8977560e-02
  2.0396098e-01
 -1.9965291e-01
  1.1863620e-02
  6.5564281e-01
  2.3308684e-01
  2.2624907e-01
  2.4065403e-02
  3.8266480e-02
 -1.2008302e-01
 -8.0134526e-02
 -2.2002565e-02
 -4.7455218e-02
  1.3478689e-01
 -9.2332698e-02
 -3.0258420e-01
 -5.3624129e-01
 -2.8568414e-01
 -3.4990752e-01
 -7.0134103e-01
 -9.1285914e-02
 -1.3814051e-01
  2.2990800e-01
  1.0237465e-01
 -1.6172875e-01
 -5.9579227e-02
  1.8987867e-01
 -2.8888282e-01
 -4.3154761e-01
  3.9894027e-01
  8.8825554e-02
  4.8735633e-02
 -4.0725392e-01
  2.2743812e-01
  1.3991480e-01
 -3.5525855e-02
 -1.5632635e-01
  3.7815668e-02
  1.2195382e-01
  5.0682795e-01
  3.1707233e-01
 -1.5596278e-01
  1.2827320e-01
 -4.8650295e-01
  8.0492441e-03
 -2.2841144e-02
 -2.4633542e-02
 -4.8781571e-01
  6.5817571e-01
  1.7991729e-01
  1.0736883e-01
 -8.7047577e-02
  6.7126167e-01
 -9.9478453e-02
 -9.8615363e-02
  5.7767773e-01
  5.6611851e-02
 -2.2101757e-01
  2.1882544e-01
  3.2070957e-02
 -2.2165993e-01
 -7.4281797e-02
 -1.5857039e-01
 -3.9317998e-01
  1.8751122e+00
 -4.7796592e-01
 -4.9134880e-01
  1.0240581e+00
 -2.5167906e+00
 -6.5594357e-01
 -3.3511359e-02
  6.5923834e-01
  4.3249118e-01
 -9.6549648e-01
  6.1437511e-01
 -7.5160295e-01
 -4.4267458e-01
 -4.6395812e-02
 -2.0837581e-02
  4.6031973e-01
 -3.3112396e-02
 -1.1074345e-01
  1.0465742e+00
 -5.6414247e-01
  2.7663830e-01
 -4.7543892e-01
  4.8943835e-01
  3.6070341e-01
  1.8500119e-01
  2.5305039e-01
  1.2468979e-01
  7.2209251e-01
 -2.9543841e-01
 -1.7348443e-01
  9.2451626e-01
  4.1682613e-01
 -2.2479054e-01
  1.0501397e-01
  2.2966069e-01
 -1.9189674e-01
  1.4052229e-01
  3.2811561e-01
 -2.9381129e-01
 -2.0988257e-01
  4.5277265e-01
  1.9962682e-01
  2.9790306e-01
  2.2506391e-01
  4.7966927e-02
  6.6160038e-02
 -1.8840648e-01
  6.1618850e-02
  5.3953499e-02
 -1.5862083e-01
  1.9623235e-02
  2.5473455e-01
  5.5864863e-02
  9.8726845e-01
 -2.8249577e-01
  2.2412123e-01
  3.9859382e-03
  4.3992672e-02
  8.9902207e-02
 -3.8930368e-02
  1.4313854e-01
  5.5818421e-01
 -4.0248236e-01
 -5.7512768e-02
  1.7975128e-01
  1.3263841e-01
  2.3630971e-01
 -5.3702277e-01
  1.5401746e-01
  2.7257505e-01
  2.2706589e-01
 -2.1477821e-01
  6.5894097e-01
  7.2911084e-02
 -8.1461146e-02
 -1.4455231e-01
  4.8959412e-02
  6.6828114e-01
 -4.1750145e-01
  6.8721521e-01
 -5.2306626e-02
  4.9749738e-01
  3.8416001e-01
  2.6586658e-01
  4.1166908e-01
  2.3148451e-02
  2.0514496e-01
  4.7179256e-02
 -1.0821768e-01
  4.7812319e-01
 -3.7797955e-01
 -5.3557587e-01
  4.3664724e-01
  4.2601505e-01
 -2.4796569e-01
  2.6833048e-01
 -8.0489486e-02
  1.2742648e+00
  1.3506441e+00
  4.6699533e-01
  5.9674400e-01
 -3.6882165e-01
 -3.2556257e-01
  7.2604227e-01
  2.3262270e-02
  3.2047445e-01
  3.4568697e-01
  3.7359709e-01
  6.8175986e-02
 -7.0400178e-01
  4.9672747e-04
 -5.3400314e-01
 -9.1721818e-02
 -3.5477895e-01
  4.5730770e-02
  3.3907354e-01
  1.1767304e-01
 -2.0635182e-02
  5.3813327e-02
  5.3734583e-01
  3.6335301e-01
  4.5867932e-01
  1.0853301e-01
 -2.1892793e-01
 -1.0607195e-01
 -6.8635330e-02
  6.7223263e-01
  3.6735266e-01
 -2.3001666e-01
  2.0675904e-01
 -3.9354539e-01
 -8.3462380e-02
  9.6438996e-02
 -2.1002579e-02
 -1.7615026e-02
  2.1096119e-01
 -2.2551419e-01
  3.3685893e-01
 -3.4888920e-01
  4.4048393e-01
  3.3294949e-01
  2.5106168e-01
 -2.1544644e-01
  2.8880844e-01
 -1.3115799e-01
  1.0700568e-02
  5.0820127e+00
 -3.0048070e+00
  1.6846725e-01
  3.0994020e+00
  1.7312654e+00
 -4.5991297e+00
 -1.2398490e+00
 -3.1461951e-01
 -7.5446826e-01
  3.0816770e-01
  6.6067249e-01
  2.8474262e-01
  8.2910672e-02
 -4.2679787e-01
 -1.4973015e+00
  9.0786439e-01
  1.0345280e-01
 -8.4399767e-02
  8.9638442e-01
 -1.1522180e+00
  9.6466452e-01
 -8.8253015e-01
 -1.2103602e+00
 -7.1168667e-01
  1.2607807e+00
  8.8182621e-02
  3.8331413e-01
 -4.4370413e-02
 -1.9281499e+00
 -1.7756006e-01
  7.9385322e-01
 -4.4155147e-02
  1.1332312e+00
 -1.2205021e+00
  7.8517687e-01
  1.3071212e-01
 -2.6358274e-01
 -1.0699452e-01
 -4.8732558e-01
  3.7131366e-01
  8.1513500e-01
 -2.1379532e-01
 -1.3145080e-01
 -2.9478984e-02
  2.6017809e-01
  1.4946361e-01
 -4.8987472e-01
 -4.6002403e-01
  1.2948240e-01
 -1.5632645e+00
  2.9083016e+00
 -7.7179557e-01
 -6.7296404e-01
  7.5695640e-01
  1.3282412e+00
 -6.6582984e-01
 -1.5097576e-01
  5.7590753e-01
  1.0998281e+00
  8.9600009e-01
  2.5555186e+00
  5.9014026e-02
 -3.0183077e-01
 -1.0958081e-01
  1.3978299e+00
  1.3937880e+00
  5.0521302e-01
  1.2975885e+00
 -6.7729610e-03
 -5.2737838e-01
 -5.3776395e-01
  1.8263730e-01
  3.5848996e-01
  7.1416652e-01
  1.6180170e+00
  2.0577878e-01
 -7.8831381e-01
  3.4433368e-01
  3.7543267e-01
  1.1695384e+00
 -5.4381110e-02
 -1.0298561e-01
 -8.3785379e-01
  7.4892354e-01
 -1.7518681e-01
 -3.3288297e-01
 -2.3297173e-01
 -2.9628694e-01
 -6.4493233e-01
  4.1660690e-01
 -9.5472641e-02
 -5.8653541e-02
 -6.5792792e-02
  3.2370651e-01
  6.8204954e-02
  5.9691414e-02
 -1.5177780e-01
  3.5685903e-01
  1.6734463e+00
 -1.9219848e+00
  7.7326035e-01
  9.4953358e-01
  6.8170333e-01
  7.2204781e-01
  2.2795951e+00
 -9.6429151e-01
 -1.1824618e-01
  1.6843641e-01
 -2.5620055e-01
  6.6017818e-01
  3.4484297e-01
  7.8981507e-01
 -9.3234479e-01
 -1.7738255e+00
 -5.5525166e-01
  3.5022536e-01
 -5.2122486e-01
 -1.0944647e-01
 -1.3152506e+00
 -2.4546552e-01
 -3.0754328e-01
 -5.8660942e-01
  1.0198404e-01
  4.2837474e-01
 -2.0260537e+00
 -7.7358991e-01
 -2.1581703e-01
  1.3796229e+00
  5.7353550e-01
 -3.0523092e-02
  2.9465732e-01
 -1.5432853e+00
 -4.7295266e-01
  6.4767323e-02
  5.2665484e-01
 -3.5758546e-01
  3.8840041e-01
 -2.4855198e-02
  2.2861089e-01
 -5.1656479e-01
  1.9392245e-01
  2.2210564e-01
 -8.2515039e-02
  1.7242391e-01
  3.3046910e-01
 -3.3418766e-01
  1.6481817e-01
 -1.4820835e-01
  2.8955814e-01
  5.8256775e-01
  1.6065435e-01
  2.7283984e-01
  1.3413391e-01
 -3.9072248e-01
 -3.9103455e-03
  1.5325451e-01
  3.3093208e-01
 -2.1060528e-01
  4.7801775e-01
  8.0819845e-02
  3.1947070e-01
 -1.3674693e-01
 -2.8265572e-01
  1.4250396e-01
  4.0362999e-02
  1.0034627e-01
  3.2058924e-01
  1.1600838e-01
  2.3791306e-01
 -2.0406857e-01
  1.7816141e-01
  1.0599050e-01
  3.1182814e-01
 -4.0033150e-01
 -1.1427590e-01
  2.2315347e-01
  1.6875753e-01
  4.5796183e-01
  4.2289996e-01
 -1.4691219e-01
  1.8546703e-01
  4.2886603e-01
 -1.0282024e-02
 -1.9205660e-01
 -1.0830685e-01
 -5.1591265e-01
  2.9388049e-01
 -2.1612238e-02
 -1.7210904e-01
  6.1915123e-01
 -2.8605494e-01
  2.8747579e-01
 -5.4885364e-01
  2.3092791e-02
 -9.0651847e-02
  3.1010456e-02
  1.3203630e-01
 -5.8314908e-01
 -3.3827373e-01
 -7.4828440e-01
 -3.9085418e-01
 -2.3420678e-01
 -1.6457580e-01
 -2.0220733e-01
  4.2133465e-01
 -9.5523261e-02
  2.0208371e-01
 -2.2793755e-01
 -2.5887780e-02
  2.5204885e-01
 -7.4215367e-02
 -2.0338871e-02
  1.1585106e-01
  6.5271720e-02
  5.5309069e-01
 -1.4060175e-01
  5.6155205e-01
 -1.3192648e-01
 -3.7609822e-01
 -1.3857276e-02
 -1.2101397e-01
 -3.3134907e-01
  1.0332493e-01
  1.4666480e-01
 -1.7816848e-01
  2.2383651e-01
  6.7595065e-01
 -4.0388513e-01
 -7.0686877e-01
 -3.3362505e-01
 -6.3679658e-02
 -1.7348534e-01
 -2.5252676e-02
  2.2672407e-01
 -1.7230351e-01
 -4.3234354e-01
  2.1742433e-01
  8.5977139e-03
 -1.7953075e-01
  2.8434438e-01
  3.4160055e-02
 -2.9443359e-02
 -1.3959485e-01
 -1.8570881e-01
  5.7828146e-01
 -8.1026644e-01
 -3.5598263e-01
 -2.0841800e-01
 -1.0095809e-01
 -1.6172734e-01
 -4.2013732e-01
  1.9639899e-01
 -2.5759497e-01
  1.3350338e-01
  7.3478848e-02
  7.4118540e-02
 -6.9613993e-02
  4.5734312e-02
  8.9531064e-02
  1.2533143e-01
 -1.3903481e-01
  1.6459660e-01
 -4.5981553e-01
  1.5324286e-02
 -1.1012061e-02
 -1.7269592e-01
  2.4008056e-02
  1.0287426e-01
  6.1527885e-02
 -2.0504783e-01
  1.8333083e-01
  4.2806275e-02
  1.7630212e-01
  2.9084769e-01
  3.1805146e-02
  1.4816308e-01
 -2.6979828e-01
 -1.3445233e-01
  3.9045456e-01
 -4.3869096e-01
 -6.9348715e-02
 -3.1368169e-01
  5.9021100e-02
 -1.0704087e-01
  1.7836794e-01
 -2.4776495e-01
  4.8757222e-01
 -2.6854739e-01
  3.0955797e-01
 -3.1782042e-02
  2.5235716e-01
  2.9104778e-01
  3.3282584e-01
 -1.1029136e-01
 -1.5045792e+00
  1.8535551e-01
  8.3832884e-01
  2.2875469e-02
 -2.9772794e-01
  6.2363797e-01
  5.9721100e-01
  4.7250543e-02
 -1.0944784e-01
  9.5569760e-01
  4.8636621e-01
  3.3880427e-01
  2.7931026e-01
 -1.6890613e-02
 -4.5183416e-02
 -7.2366983e-02
  6.6676974e-01
  1.5004578e-01
  7.1887499e-01
  8.5061604e-01
  4.7032428e-01
  9.1545835e-02
  7.5099871e-02
 -9.9930316e-01
 -7.0232153e-01
 -3.2547463e-02
 -1.3506243e+00
 -1.2529894e+00
  1.2269312e+00
  6.6021448e-01
 -2.6548266e-01
  3.6643001e-01
  5.8602351e-01
  2.9333803e-01
  8.3335005e-02
  4.2264342e-01
 -9.1527877e-03
 -6.1251990e-02
 -1.0261131e-02
  5.5548811e-01
  4.2564720e-01
 -7.2763664e-01
  1.2773699e-01
  7.0202565e-01
  1.4239348e-02
 -4.9560025e-02
  6.3980915e-02
 -3.9723743e-02
  1.7222257e-01
  1.9932501e+00
  7.1350418e-02
  2.0964103e+00
 -1.8346548e+00
 -2.0737765e+00
  1.8430005e+00
  3.8668469e-01
  8.3313972e-01
  1.3747816e+00
 -1.8776408e+00
 -1.2562083e+00
  2.2153303e-01
  7.2071797e-01
 -3.2693081e+00
 -1.9920408e+00
 -2.2254303e+00
  1.9936340e+00
  1.3203053e+00
 -1.7698140e+00
 -4.5799547e-01
  1.6652894e+00
 -1.5544709e+00
  3.3954340e-01
  1.5995258e-01
  3.1690657e-01
  1.6803181e+00
  6.3602471e-01
  8.2284731e-01
  8.0649596e-01
 -5.7625407e-01
 -2.0884223e+00
 -1.3379458e+00
  1.7219701e+00
  3.4149408e+00
 -1.1552302e+00
  9.3247913e-02
  8.5911620e-01
  5.6208148e+00
 -2.2251194e+00
  5.8710015e-01
 -1.2375927e+00
 -4.4513702e-01
 -4.4133171e-01
 -3.3768502e-01
  2.0736694e+00
 -4.2865586e-01
 -1.1364919e+00
  1.7380602e+00
  6.9600314e-02
  5.5477649e-01
  2.6120365e-01
  6.9278806e-01
 -2.6215036e+00
 -3.6761928e-01
  1.6792778e+00
  5.5297065e-01
 -3.7731561e-01
 -3.5496935e-01
 -2.3757392e-01
  1.7539943e+00
  2.6800454e-01
  1.5929472e-01
  6.3912779e-01
  3.7215924e+00
  3.6053250e+00
 -4.4884303e-01
 -2.5434887e-01
 -8.3571362e-01
  1.5768430e+00
 -1.0170230e-01
  2.7456298e-01
  1.1809698e+00
 -4.2544854e-01
 -4.7549382e-01
 -1.0393056e-01
  5.1832467e-01
 -1.8632089e-01
  4.2496331e-02
 -1.5984371e-01
  3.9212230e-01
  2.9099240e+00
 -1.9621301e-01
 -3.7787905e-01
  6.2338150e-01
  3.4145769e-01
 -7.7034479e-01
  4.6695518e-01
  8.9299697e-01
 -2.5277323e-01
 -9.4371647e-02
  2.8114840e-01
  1.1172856e-01
  2.4059750e-01
  1.2473642e+00
  8.3122134e-01
  3.0461594e-01
  2.6362687e-01
 -1.2409550e+00
 -2.4945956e-02
  3.9015225e-01
 -8.6234295e-01
 -9.9444747e-01
  2.0069952e+00
 -2.1794632e-01
  5.1027459e-01
  1.7463756e-01
 -1.3116869e+00
 -2.8094855e-01
  4.9439827e-01
  9.2092896e-01
  1.8246497e-01
  2.0231919e-01
 -1.2872617e-01
 -5.4321222e-02
 -8.7882746e-03
 -5.4864609e-01
  1.6772723e+00
  1.1617423e+00
  1.3078653e+00
 -3.9486849e-01
  9.9524878e-02
 -2.0197946e-01
  3.4412381e-01
  1.7804717e+00
  1.3776265e-01
  3.8881904e-01
  1.3374746e-01
 -2.2688743e-02
 -3.7465665e-01
 -1.3407100e+00
 -1.1477994e+00
  3.7962049e-01
 -2.1285100e+00
 -3.1099063e-01
  1.7282095e+00
  4.9089506e-01
  2.0535885e-01
  3.7952509e+00
 -5.8807705e-02
  1.3968328e+00
 -2.0736504e-02
 -4.5626140e-01
 -6.8981242e-01
 -8.3988935e-02
  2.8992707e-01
  5.7865435e-01
 -2.1419138e-01
  2.8085843e-01
  7.2152817e-01
  2.0655098e+00
  5.1930243e-01
  7.8692687e-01
  1.7837628e+00
 -2.7188173e-01
 -1.7906611e-01
 -1.7770729e+00
 -1.1051544e-01
 -1.4719918e+00
 -4.1117783e+00
  2.4605141e+00
  1.7925774e+00
  9.2002916e-01
  1.0170101e-02
  1.4798687e-01
 -6.4252371e-01
  3.1422501e+00
  1.9047245e+00
  1.2262466e+00
 -1.4949752e-01
 -5.0457519e-01
  7.1645713e-01
 -1.6372185e-02
 -1.9889064e+00
  1.4881676e+00
 -9.5845264e-01
  1.9450971e-01
  5.7369107e-01
  2.4671431e-01
  2.5549248e-01
 -6.1999636e+00
  1.7920385e-01
 -7.0331550e-01
 -3.3947489e-01
  1.6963204e+00
 -4.6143728e-01
 -2.8450307e-01
 -4.2957881e-01
  8.7944943e-01
 -4.4864461e-01
  4.5623696e-01
  2.0081429e-01
  7.6704544e-01
  1.0781635e-01
  7.1356255e-01
  5.7066041e-01
  6.3071179e-01
 -7.8454576e-02
 -5.1336098e-02
 -2.5155443e-01
 -1.3685760e+00
  6.5596586e-01
  2.0120747e+00
 -1.2926053e+00
 -2.4580204e+00
  2.4374470e-01
  8.8698047e-01
  1.1115181e-01
 -1.5504661e+00
  5.6216598e-01
  1.8750942e+00
  7.8040010e-01
  1.2915037e+00
  6.4437479e-01
  1.3273611e+00
 -7.2866017e-01
  1.5475467e-01
  6.2874162e-01
  1.2018185e+00
 -6.4302081e-01
  1.5952226e-02
  6.2491500e-01
 -5.9604424e-01
  3.0648690e-01
 -1.1632051e+00
  2.7310738e-01
  4.5065153e-01
 -7.3904437e-01
 -6.9574666e-01
 -1.3024902e+00
  1.5037158e+00
 -5.0626189e-01
 -6.8003803e-01
  5.8549726e-01
 -8.0197799e-01
  4.2963621e-01
  7.5905633e-01
 -1.2599197e-01
  7.8128062e-02
 -7.9477596e-01
  4.3603319e-01
  6.0443091e-01
 -2.6767829e-01
  3.4705848e-01
 -5.9004337e-01
 -5.4690874e-01
  3.1180930e-01
 -2.8480607e-01
 -2.2251308e+00
 -8.1653714e-01
 -1.9992093e+00
 -6.8158889e-01
  7.3373330e-01
  1.7349174e+00
 -2.6610583e-01
  7.0014507e-01
  1.0389510e+00
  6.3236791e-01
  2.7199602e-01
 -1.1995591e+00
  4.4208640e-01
  5.2376568e-01
  7.6200342e-01
  3.6412838e-01
  8.5402071e-01
  3.5229981e-01
 -1.5265749e-01
  1.0771181e-01
 -1.4176418e+00
 -5.6967771e-01
  1.0618297e+00
 -1.5412171e-01
 -1.2298711e-01
 -5.7708323e-01
  1.3811204e+00
 -1.3520284e+00
 -6.1531192e-01
 -9.0217358e-01
  2.9191485e-01
  3.2772791e-01
 -3.6567020e-01
 -1.1553994e+00
  9.5264488e-01
  3.8782951e-01
  5.9128821e-02
 -4.0417621e-01
 -2.2703786e-01
 -3.3947226e-01
 -5.1358873e-01
 -1.8637122e-01
 -3.1312487e-01
  4.0499222e-01
  1.2072770e-01
 -2.7729374e-01
 -5.5098909e-01
  1.3019127e-01
  6.6926199e-01
  4.7024287e-02
  1.8500649e+00
  1.3420113e+00
  8.5617244e-01
  1.0542995e+00
 -6.6043079e-01
 -2.1061473e-01
  5.5568732e-02
 -7.7177227e-01
 -1.2629988e+00
  2.2270617e+00
  4.1688275e+00
 -3.0653518e-01
 -5.3410035e-01
 -9.5072642e-02
 -3.8785946e-01
 -1.1742877e+00
  3.0649521e+00
  2.8672988e+00
  2.8142956e-01
 -1.5478085e+00
 -6.3938564e-03
 -1.2048519e-01
 -1.5324652e+00
  2.9353502e+00
  4.3327942e+00
 -3.1784737e-01
 -1.4242417e+00
 -1.3559547e-01
 -1.3559480e-01
 -2.2336941e+00
  1.7980161e+00
  2.7811689e+00
 -8.0996662e-02
 -2.3936484e+00
  4.5266393e-01
 -3.9343002e-01
 -7.5586891e-01
 -1.5070397e+00
 -1.7023200e+00
  6.3538730e-01
 -2.1268152e-01
  2.9475698e-01
  1.1633710e-01
 -7.5392700e-03
  3.2701454e-01
 -2.1829605e-01
  3.0384740e-01
 -9.2987204e-01
 -1.9836882e+00
  2.9251673e+00
 -5.1578540e-01
 -3.8734851e+00
  1.7487661e+00
  2.5615537e+00
  4.8576054e-01
  6.4668514e-02
 -4.8905244e-01
 -1.3212599e-01
 -1.5516889e-01
 -3.9770806e-01
 -2.2299135e-01
  2.1378559e-01
 -1.0087630e+00
 -5.2016819e-01
 -2.3730567e-03
 -4.7882906e-01
 -8.7803239e-01
 -4.2729893e-01
 -1.0609056e+00
  1.2200283e-01
 -9.0105757e-02
 -1.0588121e+00
 -2.0744108e-01
 -4.0913266e-01
 -5.4261202e-01
  7.5110328e-01
  1.3394779e+00
  1.2570732e+00
 -9.6997225e-01
  3.8760883e-01
 -1.4016900e+00
 -7.6615232e-01
  5.7280260e-01
  3.3050591e-01
 -1.6927209e-01
  1.2359555e+00
 -2.8376652e-02
 -5.9850711e-01
  4.2617598e-01
 -6.6601008e-01
 -1.2598819e-01
 -6.2373418e-01
 -4.2904359e-01
  2.5662607e-01
  5.6465387e-01
 -4.6907625e-01
 -2.5352573e+00
  1.2390594e+00
  1.7418036e+00
  1.0520071e+00
  4.5669469e-01
  1.8452910e-01
  2.3258212e+00
 -4.6219788e+00
  1.2316648e-01
  6.3166100e-01
  3.9978027e-01
 -1.0337874e-01
 -4.4326574e-01
  1.6902304e+00
  2.6376697e-01
 -2.1174876e-01
 -6.6242653e-01
 -1.6438597e-01
  6.9338851e-02
 -4.3476362e-02
 -4.5388719e-01
 -1.9304004e-01
  6.2348805e-02
  5.8432406e-01
 -8.6642897e-01
  1.7667125e-01
 -6.8889156e-02
  1.3698907e+00
  2.8759852e-01
  2.8012469e-01
  1.3429721e-01
 -5.9184992e-01
 -4.0378064e-01
 -3.1794101e-01
  1.0740875e+00
 -3.5335907e-01
 -2.4289986e-01
  2.0684375e-01
 -1.8648550e-01
 -3.1135246e-01
  1.8340757e-01
  3.0941811e-01
 -3.7715814e-01
  7.3398048e-01
  4.6731526e-01
 -1.9026063e-01
  1.8105370e-01
 -2.1206672e-01
 -1.5197948e-01
  2.4747211e-02
  1.1564837e+00
  3.8151929e-01
  5.4175299e-01
  8.1315023e-01
  8.9887954e-02
 -1.2405864e+00
 -2.5025156e+00
 -9.8440295e-01
 -1.0177170e+00
  1.2657661e+00
 -1.9566689e+00
 -2.8252470e-01
  3.3119670e-01
 -3.5838099e+00
  1.6816869e-01
 -3.3868906e-01
  1.5175035e+00
 -1.8375958e+00
 -1.2142053e+00
  8.1747240e-01
  5.6240451e-01
 -5.2418286e-01
 -1.8154927e+00
  1.1213344e+00
 -1.4998153e+00
  3.5783851e-01
  2.2152713e-01
  5.4636312e-01
 -8.0458325e-01
 -6.1346585e-01
  5.2798206e-01
 -1.2581642e+00
 -1.9572412e+00
  6.5327811e-01
  1.2600856e-01
  9.8427612e-01
  3.6587992e-01
 -4.1081023e-01
 -6.8505749e-02
 -4.9839750e-01
 -4.8594317e-01
  1.6542144e-01
 -3.1878331e-01
  2.6255479e-01
 -2.4288587e-02
  6.8158621e-01
 -2.3152405e-01
 -7.2585803e-01
 -4.0732336e-01
 -3.2646766e-01
 -9.4363622e-02
 -8.4932551e-02
 -6.8015033e-01
  4.3009531e-01
  6.3229650e-01
  5.3052586e-01
  1.8295749e-01
  5.2305080e-02
 -2.9541540e-01
 -1.5343961e-01
 -1.1444607e-02
 -4.9733683e-01
  2.2647476e-01
  3.6641357e-03
 -5.8474704e-03
  6.5366054e-01
 -2.6425427e-01
  4.1909758e-02
  5.4473317e-01
 -4.3653786e-01
 -8.2312506e-03
 -3.7890233e-02
  2.6428923e-01
 -1.9027147e-01
 -1.8620522e-01
  2.0524454e-01
 -5.0511718e-01
 -5.5070925e-01
 -5.2529279e-02
  5.4831511e-01
 -2.6025093e-01
 -6.4091462e-01
  1.6368386e-01
  5.7008004e-01
 -1.3023709e-01
  1.4526932e-01
  1.0037396e-01
  4.2721418e-01
  7.8295976e-02
  4.6434909e-01
 -1.4980316e-01
 -1.6247873e-01
  4.3413669e-02
  2.1249282e-01
 -6.0886812e-01
  1.5918903e-01
 -1.5435420e-01
 -3.4919482e-01
  2.8414303e-01
  5.4666734e-01
 -7.9262590e-01
 -3.2514542e-01
  3.4137432e-02
  1.1854921e-01
  1.8361671e-03
  5.1182443e-01
  2.7566034e-01
 -6.7319727e-01
 -2.7401033e-01
  1.0096668e-01
  3.7961581e-01
  6.3456053e-01
  2.1795763e-01
  3.1544939e-01
 -1.7871581e-01
 -2.4509239e-01
 -1.5253440e-01
  6.1023289e-01
  1.6731820e-01
  2.2537890e-01
  2.8167188e-01
 -3.2153267e-01
 -1.0388928e-01
  1.8268497e-01
 -2.5574979e-01
  5.4297581e-02
  2.2271672e-01
 -4.3601316e-01
 -4.3179147e-02
 -2.8458333e-01
 -6.2628351e-02
 -9.7342685e-02
 -1.6240781e-02
  2.8817913e-01
  4.0593180e-01
  2.9799116e-01
 -2.2754351e-02
  1.9718538e-01
 -3.6154699e-01
 -2.0421633e-01
 -4.8469764e-01
 -3.5465196e-02
 -2.8358305e-01
 -2.0133847e-01
 -2.9455748e-01
  5.7795608e-01
 -8.2585856e-02
 -5.1898950e-01
 -4.1534734e-01
 -4.8324689e-01
  6.1241105e-02
 -8.7399405e-01
  3.6732081e-01
 -1.7482059e-01
  9.5006987e-02
  1.0476219e-01
  6.6993278e-01
  1.1512798e-01
  2.9292929e-03
  3.9491388e-01
  4.6100143e-01
  1.6431452e-01
 -2.0410402e-01
 -4.7945339e-02
  2.5204295e-01
 -3.4654376e-01
  1.5530719e-01
  3.2979327e-01
 -1.8099810e-01
  3.0410889e-01
 -7.4095942e-02
  3.8238981e-01
  1.1408825e-02
 -2.4584956e-01
  1.3681853e-01
 -3.5698938e-01
 -3.1367652e-02
 -3.5049638e-01
 -7.7966745e-03
  6.2860616e-02
  2.4344273e-02
  2.5846159e-01
 -2.6702458e-01
  2.3170985e-01
  5.5085796e-01
 -5.4595131e-01
 -7.6782309e-02
 -1.9190201e-01
 -1.6095763e-01
  4.1352278e-01
  1.4274731e-01
  3.9726806e-01
  1.5870845e-01
  3.3869985e-01
 -3.1665695e-01
  8.7422229e-02
  5.7224572e-01
 -1.3293302e+00
  1.1123152e+00
  2.4995363e+00
 -4.0538782e-01
 -2.5099409e+00
  1.7348789e+00
 -6.4754434e-02
  3.7761688e-01
 -5.9380841e-01
  1.9209219e+00
  8.7219441e-01
 -2.5515673e-01
  3.1351406e-02
  2.2635238e-01
 -6.2638432e-01
 -2.6433513e+00
 -9.8532301e-01
 -3.4479359e-01
 -1.5546335e-01
  9.5103407e-01
  6.6435194e-01
 -1.6263098e+00
 -3.2399166e-01
 -1.7630494e-01
  2.6116690e-01
 -3.5279319e-01
  6.1076522e-01
  1.6466367e+00
 -1.0121607e+00
 -5.6465364e-01
  7.8128171e-01
  2.1535836e-01
  1.1110630e+00
  2.7604440e-01
 -2.9220816e-01
  5.8275229e-01
  3.3797723e-01
  8.5091949e-01
  8.7394494e-01
  3.9833987e-01
 -7.8213252e-03
  7.0598680e-01
 -9.6409246e-02
 -2.6585680e-01
 -4.9716902e-01
  3.9549091e-01
 -7.2887465e-02
 -7.2076932e-02
  1.2869002e-01
 -1.2509403e-01
 -3.8194492e-01
 -2.1618032e-01
 -1.7067263e-01
  4.0908098e-01
 -5.9183222e-01
 -2.8299883e-01
  3.2104680e-01
  4.5572808e-01
 -3.0506131e-01
 -2.3743458e-01
 -3.8174789e-02
  1.3279261e-01
 -2.3764779e-01
 -4.9068786e-02
 -3.6364007e-01
  5.2747220e-01
  7.2910422e-01
 -7.6493078e-01
  7.3244488e-01
 -1.8037485e-02
 -2.9683074e-01
 -3.3336669e-01
  1.5896994e-01
  6.3411337e-01
 -2.8431374e-01
  1.7703466e-01
 -1.0708888e-01
 -5.7266574e-02
 -3.5887209e-01
  5.5821463e-02
 -3.4438300e-01
  5.2223545e-01
 -1.4069173e-01
  1.5688321e-01
  1.8960801e-01
  1.7010005e-01
 -3.4175569e-01
 -4.5057926e-01
  3.0907169e-01
 -3.4026957e-01
  1.7548123e-01
  1.0150258e-01
 -3.8533187e-01
  5.7624674e-01
 -4.4279132e-02
 -3.4480467e-01
 -3.8953236e-01
 -1.6902928e+00
  4.0840384e-01
 -1.5163634e+00
 -2.9746890e+00
  2.3401432e+00
  1.7531013e+00
 -5.0811493e-01
  3.0158910e-01
  4.4356248e-01
  4.0623412e+00
 -2.6663237e+00
 -1.2237833e+00
 -5.8956021e-01
  1.5817104e-02
 -5.4584373e-02
  3.1839257e-01
  1.9062227e+00
 -1.5529937e+00
 -1.5136667e+00
  3.5186729e-01
 -3.6120927e-01
  3.3405271e-01
 -4.3841073e-01
  3.2686214e+00
 -1.3063861e-01
 -1.3503497e+00
 -6.2118357e-01
  2.2993468e-01
 -4.7180191e-01
 -9.4147742e-02
  3.7000868e+00
 -1.0159186e+00
 -1.8091254e+00
 -1.4954783e+00
  8.2399058e-01
  8.0220796e-02
 -1.5034293e-01
 -2.5141997e+00
  3.3565769e-01
 -8.8578410e-02
 -4.3390881e-02
 -7.4370867e-01
 -5.4778045e-01
  2.6524225e-01
 -4.9087766e-01
  1.4421920e-01
  3.5582852e-02
 -6.7208059e-02
  1.0495348e+00
 -1.5733297e+00
  8.4248179e-01
 -2.1800654e+00
 -6.0267729e-01
  1.4889753e+00
  1.8409218e+00
  4.5290893e-01
 -4.3235412e-01
 -1.2479094e-01
  8.4451735e-01
 -2.5124803e+00
 -7.7381235e-01
 -1.0259511e+00
  3.6445004e-01
 -8.5806155e-01
  7.0754623e-01
  3.6459620e+00
 -2.2320913e-01
  6.4138901e-01
 -1.0419494e+00
 -7.2353590e-01
 -1.3219581e+00
 -1.5708297e-01
  1.1387625e+00
 -8.5635203e-01
 -4.1254783e-01
 -3.5347351e-01
  7.3661965e-01
 -1.0790211e+00
  1.0695655e+00
  1.3409343e+00
 -8.6260301e-01
  2.2092295e-01
 -8.1013066e-01
  2.0957072e-01
 -9.1368211e-03
 -6.3316053e-01
 -3.6433786e-02
  8.7805015e-01
 -8.5648549e-01
  1.7726995e-01
  8.3894795e-01
 -2.1980700e-01
 -2.1477947e-01
 -2.2205806e-01
 -1.7526926e-01
 -2.6551899e-01
  1.5265070e-01
  1.4692811e+00
  1.0540544e-01
  1.3999256e+00
  2.0893576e+00
  1.9491973e+00
  9.2697763e-01
 -1.7648575e+00
  2.8440390e+00
  1.4192374e+00
  8.3474123e-01
  4.3672609e-01
  8.8154036e-01
  1.2650746e-01
 -1.5794587e-01
  1.7209103e+00
 -4.9299112e-01
  8.3784059e-02
  2.4620019e-01
  1.2968680e+00
  6.2506974e-01
 -2.7039638e-01
  2.2867751e-01
  1.7283651e+00
  2.9639611e-01
  2.5200963e-01
  6.8305683e-01
  2.0107861e+00
  2.5861678e-01
  1.6291963e+00
  2.0747223e+00
 -3.5424998e-01
  3.5936990e-01
  2.6719272e-01
  1.4861029e+00
 -2.9442781e-01
 -1.7690589e+00
 -1.2659344e-01
 -1.6330383e+00
  2.3327795e-01
  4.1473916e-01
 -9.5405661e-02
 -9.2500724e-02
 -4.3753105e-01
  1.7800067e-01
 -2.1818668e-01
 -2.1740982e-01
  3.4264779e-01
  7.5960869e-01
  2.2291908e-01
  1.5750701e-02
  1.7477888e+00
  8.2409471e-01
  1.1541172e+00
  7.3449576e-01
  4.5361021e-01
 -1.0547426e-01
  1.2694353e+00
 -4.6377340e-01
  1.2274586e-01
 -9.2497087e-01
  4.7146302e-02
 -1.3692813e+00
 -9.0776914e-01
  9.8699981e-01
 -5.9627646e-01
 -6.3084102e-01
 -3.2023201e+00
  2.3076116e-01
 -1.0312118e-01
 -5.1059276e-01
 -9.2082870e-01
 -3.2679564e-01
  3.5918066e-01
 -1.2975793e+00
 -3.7896749e-01
 -1.3105778e+00
 -7.6331472e-01
 -1.3690816e+00
 -8.5261691e-01
 -7.7318889e-01
 -3.8463575e-01
  1.2494762e+00
  4.8381278e-01
 -6.4669335e-01
 -3.6464268e-01
  3.6047425e-02
 -2.4379331e-01
  5.8688432e-01
  8.6375624e-01
  2.0619909e-01
 -3.6280870e-01
 -1.2235827e-01
  2.4177803e-01
  1.5542886e-01
 -2.7830025e-02
  4.1595006e-01
 -1.0293437e-01
  2.6726839e-03
  8.5213907e-02
  1.1061651e+00
  3.2184875e+00
  1.4035124e+00
  7.4608564e-01
 -7.7396268e-01
 -1.3312795e+00
  2.5113223e+00
  9.0612017e-02
 -1.9311778e-01
 -1.1265372e-01
  5.5736829e-02
  5.1543679e-02
  1.8489313e-01
  5.8565784e-01
  6.0399121e-01
 -8.5692108e-01
  4.3206385e-01
  6.7244691e-01
  1.8307933e-01
  6.8295157e-01
  1.0136327e+00
  8.2031004e-02
 -4.4388524e-01
 -3.5610211e-01
 -5.6615525e-01
 -5.3437752e-01
  1.1231597e-02
  2.7897424e-01
  8.2069337e-02
  2.7069685e-01
 -1.0626830e-01
  1.9322656e-01
  1.0821912e+00
  2.7247459e-01
  2.4924003e-01
  1.0903915e-01
 -7.6702066e-02
 -3.5411248e-01
 -1.4961699e-01
  3.9110720e-01
 -1.2743212e-01
 -5.1101542e-01
  1.2021804e-01
 -1.3140545e-02
 -8.3352834e-02
 -7.4943058e-02
  2.0321484e-01
  8.8426657e-02
  2.0341349e-01
  6.1756402e-01
  2.8120831e-01
  1.5982423e+00
  2.7711995e+00
 -2.1281626e+00
 -1.8196205e+00
 -8.6282372e-01
 -2.5928747e-03
 -2.1855257e-01
 -1.3334007e+00
  1.5396415e-01
  1.1102896e+00
  5.7229114e-01
  3.4623601e-02
  6.0211754e-01
  5.0113070e-01
 -8.8925695e-01
 -5.9314877e-01
  4.4955602e-01
 -2.3079617e-01
  1.3085237e+00
 -4.3231425e-01
 -1.0935964e-01
  2.0149332e-02
  2.4707889e-02
  7.9014081e-01
  9.3426496e-01
  8.5192233e-01
  5.9954691e-01
 -1.2869561e-01
  1.5386784e-01
  2.0543113e+00
  2.0693126e+00
  5.1632464e-01
 -2.2763076e+00
  4.4390562e-01
 -1.1590682e-01
  1.0941393e+00
 -7.9109049e-01
 -1.2053146e+00
  9.2443742e-02
  8.8578656e-02
  2.9726666e-01
 -5.4484934e-01
  3.3086635e-02
  5.8599377e-01
  6.9947533e-02
 -9.4644749e-01
 -7.4953057e-02
 -1.9298901e-01
 -3.2595995e-01
  1.8217480e-01
  2.5010309e-01
 -1.1924621e-01
 -6.3145059e-01
  3.9924702e-01
  1.4288302e-01
 -3.7618765e-01
 -1.1807717e+00
 -1.5666352e-01
  5.0509727e-01
 -1.1201281e-01
  1.7827223e-01
 -3.5096791e-02
 -2.1820489e-01
 -3.1778866e-01
 -1.9447771e-01
 -1.3102660e-01
 -9.5032394e-02
 -4.3017560e-01
  1.0365000e-01
  4.6135104e-01
 -5.2772391e-01
 -3.6574560e-01
 -3.9576408e-01
  1.1571458e-01
  1.1840609e-01
  3.1460994e-01
  1.0907675e-01
  9.6627104e-01
  2.4885088e-01
 -6.9611743e-02
  2.8644049e-01
 -1.6686767e-02
  2.5724089e-01
  2.6207513e-01
 -1.1015968e+00
 -2.2436963e-02
 -3.5404373e-02
  4.2693537e-01
 -4.2911044e-01
  2.6569894e-02
  1.5876049e-01
  6.9673568e-01
 -1.4295635e-01
  6.7225450e-01
 -1.6200511e-02
 -4.9223013e-02
 -1.2510835e-01
 -2.2664413e-01
  4.0432462e-01
  9.4215471e-01
  2.6876515e-01
  3.4250769e-01
  1.0248650e+00
 -5.9962213e-01
 -1.1862653e-01
  5.7309133e-01
  1.3761581e-01
  3.2717213e-01
  4.3940235e-02
  2.2573192e-01
 -2.2533260e-01
  8.5732329e-01
  8.5528994e-01
  4.1170961e-01
  5.9591901e-01
 -7.4545527e-01
 -3.4851480e-01
 -1.5805162e-02
  5.4657549e-01
  3.3009303e-01
  1.0661867e+00
  3.4288687e-01
 -1.3702255e+00
  2.4006698e-01
 -2.9754755e-01
 -2.4886762e-01
  1.0653739e-01
  1.1175253e+00
  3.9759195e-01
 -3.4710181e-01
  8.2685545e-02
 -4.0038469e-01
  2.4947186e-01
 -1.9654235e-01
  2.9445457e-01
  3.7760049e-02
  2.4040481e-01
 -2.1868040e-01
  1.7567757e-01
  1.1205687e-01
  2.3577806e-01
  1.3938458e-01
 -1.4342503e-01
 -1.1187066e-01
 -2.8596318e-01
  7.1505851e-01
 -1.4842731e-01
 -4.1727197e-01
  2.0570157e-01
  1.3639387e+00
 -7.5513041e-01
 -2.1109557e-01
 -2.8822815e-01
  2.7862510e-01
 -3.5827884e-01
  8.7925500e-01
  5.5949771e-01
  5.3861755e-01
  3.7822357e-01
 -1.0703112e-01
 -7.5137925e-01
 -1.3538547e-01
 -5.1716574e-02
  5.5658106e-02
 -4.2124659e-01
  1.3762169e-01
 -3.4976858e-01
  7.5074095e-01
 -1.8386413e+00
  5.9081101e-01
 -2.9660207e-01
 -4.6512145e-01
 -3.5490587e-01
 -7.2986588e-02
 -2.8659895e-01
 -2.6235521e-01
  6.5765035e-01
  3.3877168e-02
 -6.6478455e-01
  2.8817156e-01
  9.7816646e-02
 -1.7709351e-01
 -7.3249215e-01
 -3.2736745e-01
 -3.8443583e-01
  8.6326593e-01
  2.7050847e-01
 -9.8610319e-02
  1.1868183e-01
  2.8906876e-01
  2.6777923e-02
 -1.1432502e-01
 -3.8775250e-01
  4.7365969e-01
 -1.9432409e-01
  1.8896660e-01
 -9.4463986e-01
  7.3894668e-01
  3.3066988e-01
 -1.1945704e-01
 -8.5127962e-01
  3.0297861e-01
 -4.9196535e-01
 -4.8456880e-01
 -2.8481257e-01
 -4.9332976e-01
  6.5601364e-02
  8.6290855e-03
 -4.3017787e-01
 -1.0854387e-01
 -3.9302021e-01
 -3.9941537e-01
  1.4223738e-01
  3.0166256e-01
 -2.1089612e-01
  1.7729360e-01
  1.0308902e+00
 -2.8090107e-01
 -4.1652071e-01
 -1.1410002e-01
  4.2949442e-02
 -1.7243315e-02
 -4.6613839e-01
 -2.0305423e-01
  5.9598207e-01
  3.2329214e-01
 -6.1933333e-01
  5.9420183e-02
 -2.5882018e-01
  3.3509406e-01
 -5.2770365e-02
 -3.3703798e-01
 -8.1439212e-02
  2.5072312e-01
 -2.2932537e-01
 -1.9514719e-01
  1.7058156e-01
 -1.3469760e-01
  1.9283456e-01
  4.5537660e-03
  2.4843667e-01
  6.3814394e-02
  1.8601741e-01
 -2.1167997e-01
 -1.5059880e-02
 -1.8842682e+00
 -8.5656232e-01
 -1.0394320e+00
 -1.4432472e-01
 -1.3916433e+00
  9.6960258e-01
  8.1442302e-01
 -3.9680164e-02
 -3.9745305e-02
  8.8788658e-02
  1.3590853e+00
 -4.8369387e-01
