  DATE: 2018-03-30 CONTRIBUTOR: Xiaowang Zhou xzhou@sandia.gov and Lucas Hale lucas.hale@nist.gov CITATION: X. W. Zhou, R. A. Johnson, H. N. G. Wadley, Phys. Rev. B, 69, 144113(2004)
  Generated from Zhou04_create_v2.f
  Fixes precision issues with older version
    1 Ag                      
 2000  0.5002501250625312E-01 2000  0.3234763723004291E-02  0.6466292682285578E+01
   47     107.87         4.0896    fcc     
  0.0000000000000000E+00 -0.1512750840270005E-01 -0.3017090776445452E-01 -0.4513041854478483E-01 -0.6000626120321106E-01
 -0.7479865619925485E-01 -0.8950782399243673E-01 -0.1041339850422772E+00 -0.1186773598082977E+00 -0.1331381687500187E+00
 -0.1475166323269611E+00 -0.1618129709986461E+00 -0.1760274052245940E+00 -0.1901601554643261E+00 -0.2042114421773636E+00
 -0.2181814858232262E+00 -0.2320705068614361E+00 -0.2458787257515133E+00 -0.2596063629529786E+00 -0.2732536389253536E+00
 -0.2868207741281584E+00 -0.3003079890209144E+00 -0.3137155040631422E+00 -0.3270435397143626E+00 -0.3402923164340969E+00
 -0.3534620546818651E+00 -0.3665529749171891E+00 -0.3795652975995893E+00 -0.3924992431885861E+00 -0.4053550321437011E+00
 -0.4181328849244546E+00 -0.4308330219903680E+00 -0.4434556638009619E+00 -0.4560010308157568E+00 -0.4684693434942742E+00
 -0.4808608222960343E+00 -0.4931756876805590E+00 -0.5054141601073682E+00 -0.5175764600359831E+00 -0.5296628079259241E+00
 -0.5416734242367127E+00 -0.5536085294278696E+00 -0.5654683439589159E+00 -0.5772530882893717E+00 -0.5889629828787587E+00
 -0.6005982481865970E+00 -0.6121591046724083E+00 -0.6236457727957131E+00 -0.6350584730160320E+00 -0.6463974257928857E+00
 -0.6576628515857958E+00 -0.6688549708542826E+00 -0.6799740040578673E+00 -0.6910201716560707E+00 -0.7019936941084131E+00
 -0.7128947918744163E+00 -0.7237236854136003E+00 -0.7344805951854867E+00 -0.7451657416495960E+00 -0.7557793452654487E+00
 -0.7663216264925663E+00 -0.7767928057904696E+00 -0.7871931036186791E+00 -0.7975227404367160E+00 -0.8077819367041007E+00
 -0.8179709128803545E+00 -0.8280898894249979E+00 -0.8381390867975522E+00 -0.8481187254575381E+00 -0.8580290258644765E+00
 -0.8678702084778877E+00 -0.8776424937572935E+00 -0.8873461021622140E+00 -0.8969812541521704E+00 -0.9065481701866840E+00
 -0.9160470707252748E+00 -0.9254781762274640E+00 -0.9348417071527726E+00 -0.9441378839607213E+00 -0.9533669271108313E+00
 -0.9625290570626227E+00 -0.9716244942756171E+00 -0.9806534592093352E+00 -0.9896161723232980E+00 -0.9985128540770258E+00
 -0.1007343724930040E+01 -0.1016109005341861E+01 -0.1024808915772010E+01 -0.1033443676680008E+01 -0.1042013508525376E+01
 -0.1050518631767634E+01 -0.1058959266866304E+01 -0.1067335634280905E+01 -0.1075647954470960E+01 -0.1083896447895990E+01
 -0.1092081335015513E+01 -0.1100202836289053E+01 -0.1108261172176129E+01 -0.1116256563136262E+01 -0.1124189229628974E+01
 -0.1132059392113785E+01 -0.1139867271050216E+01 -0.1147613086897788E+01 -0.1155297060116022E+01 -0.1162919411164438E+01
 -0.1170480360502557E+01 -0.1177980128589901E+01 -0.1185418935885991E+01 -0.1192797002850346E+01 -0.1200114549942488E+01
 -0.1207371797621938E+01 -0.1214568966348217E+01 -0.1221706276580845E+01 -0.1228783948779344E+01 -0.1235802203403233E+01
 -0.1242761260912036E+01 -0.1249661341765270E+01 -0.1256502666422459E+01 -0.1263285455343122E+01 -0.1270009928986781E+01
 -0.1276676307812957E+01 -0.1283284812281170E+01 -0.1289835662850940E+01 -0.1296329079981790E+01 -0.1302765284133240E+01
 -0.1309144495764810E+01 -0.1315466935336022E+01 -0.1321732823306397E+01 -0.1327942380135454E+01 -0.1334095826282716E+01
 -0.1340193382207703E+01 -0.1346235268369936E+01 -0.1352221705228936E+01 -0.1358152913244223E+01 -0.1364029112875319E+01
 -0.1369850524581744E+01 -0.1375617368823020E+01 -0.1381329866058667E+01 -0.1386988236748205E+01 -0.1392592701351156E+01
 -0.1398143480327041E+01 -0.1403640794135381E+01 -0.1409084863235696E+01 -0.1414475908087507E+01 -0.1419814149150335E+01
 -0.1425099806883702E+01 -0.1430333101747127E+01 -0.1435514254200132E+01 -0.1440643484702237E+01 -0.1445721013712964E+01
 -0.1450747061691833E+01 -0.1455721849098365E+01 -0.1460645596392082E+01 -0.1465518524032503E+01 -0.1470340852479150E+01
 -0.1475112802191544E+01 -0.1479834593629205E+01 -0.1484506447251655E+01 -0.1489128583518413E+01 -0.1493701222889002E+01
 -0.1498224585822942E+01 -0.1502698892779754E+01 -0.1507124364218958E+01 -0.1511501220600076E+01 -0.1515829682382628E+01
 -0.1520109970026135E+01 -0.1524342303990118E+01 -0.1528526904734099E+01 -0.1532663992717597E+01 -0.1536753788400134E+01
 -0.1540796512241231E+01 -0.1544792384700408E+01 -0.1548741626237186E+01 -0.1552644457311086E+01 -0.1556501098381630E+01
 -0.1560311769908337E+01 -0.1564076692350729E+01 -0.1567796086168327E+01 -0.1571470171820651E+01 -0.1575099169767223E+01
 -0.1578683300467562E+01 -0.1582222784381191E+01 -0.1585717841967630E+01 -0.1589168693686399E+01 -0.1592575559997020E+01
 -0.1595938661359014E+01 -0.1599258218231901E+01 -0.1602534451075202E+01 -0.1605767580348438E+01 -0.1608957826511130E+01
 -0.1612105410022800E+01 -0.1615210551342966E+01 -0.1618273470931152E+01 -0.1621294389246877E+01 -0.1624273526749662E+01
 -0.1627211103899028E+01 -0.1630107341154496E+01 -0.1632962458975587E+01 -0.1635776677821822E+01 -0.1638550218152721E+01
 -0.1641283300427806E+01 -0.1643976145106597E+01 -0.1646628972648615E+01 -0.1649242003513381E+01 -0.1651815458160417E+01
 -0.1654349557049241E+01 -0.1656844520639377E+01 -0.1659300569390344E+01 -0.1661717923761664E+01 -0.1664096804212856E+01
 -0.1666437431203444E+01 -0.1668740025192945E+01 -0.1671004806640882E+01 -0.1673231996006777E+01 -0.1675421813750149E+01
 -0.1677574480330519E+01 -0.1679690216207408E+01 -0.1681769241840338E+01 -0.1683811777688828E+01 -0.1685818044212400E+01
 -0.1687788261870576E+01 -0.1689722651122874E+01 -0.1691621432428817E+01 -0.1693484826247925E+01 -0.1695313053039720E+01
 -0.1697106333263722E+01 -0.1698864887379451E+01 -0.1700588935846429E+01 -0.1702278699124177E+01 -0.1703934397672215E+01
 -0.1705556251950065E+01 -0.1707144482417247E+01 -0.1708699309533282E+01 -0.1710220953757691E+01 -0.1711709635549994E+01
 -0.1713165575369713E+01 -0.1714588993676369E+01 -0.1715980110929483E+01 -0.1717339147588574E+01 -0.1718666324113165E+01
 -0.1719961860962775E+01 -0.1721225978596926E+01 -0.1722458897475139E+01 -0.1723660838056935E+01 -0.1724832020801834E+01
 -0.1725972666169357E+01 -0.1727082994619026E+01 -0.1728163226610360E+01 -0.1729213582602882E+01 -0.1730234221347822E+01
 -0.1731225539764252E+01 -0.1732187749288116E+01 -0.1733121127399434E+01 -0.1734025951578225E+01 -0.1734902499304507E+01
 -0.1735751048058300E+01 -0.1736571875319622E+01 -0.1737365258568494E+01 -0.1738131475284933E+01 -0.1738870802948959E+01
 -0.1739583519040591E+01 -0.1740269901039848E+01 -0.1740930226426749E+01 -0.1741564772681313E+01 -0.1742173817283559E+01
 -0.1742757637713505E+01 -0.1743316511451172E+01 -0.1743850715976578E+01 -0.1744360528769743E+01 -0.1744846227310684E+01
 -0.1745308089079421E+01 -0.1745746391555974E+01 -0.1746161412220361E+01 -0.1746553428552601E+01 -0.1746922718032714E+01
 -0.1747269558140718E+01 -0.1747594226356632E+01 -0.1747897000160476E+01 -0.1748178157032268E+01 -0.1748437974452027E+01
 -0.1748676729899774E+01 -0.1748894700855525E+01 -0.1749092164799301E+01 -0.1749269399211121E+01 -0.1749426681571003E+01
 -0.1749564289358967E+01 -0.1749682500055032E+01 -0.1749781591139216E+01 -0.1749861840091540E+01 -0.1749923524392020E+01
 -0.1749966921520678E+01 -0.1749992308957532E+01 -0.1749999964182600E+01 -0.1749990164675903E+01 -0.1749963187917458E+01
 -0.1749919311387285E+01 -0.1749858812565403E+01 -0.1749781968931831E+01 -0.1749689057966589E+01 -0.1749580357149694E+01
 -0.1749456143961167E+01 -0.1749316695881025E+01 -0.1749162290389289E+01 -0.1748993204965977E+01 -0.1748809717091108E+01
 -0.1748612104244702E+01 -0.1748400643906777E+01 -0.1748175613557352E+01 -0.1747937290676446E+01 -0.1747685952744079E+01
 -0.1747421877240269E+01 -0.1747145341645036E+01 -0.1746856623438399E+01 -0.1746556000100375E+01 -0.1746243749110986E+01
 -0.1745920147950249E+01 -0.1745585474098183E+01 -0.1745240005034808E+01 -0.1744884018240143E+01 -0.1744517791194207E+01
 -0.1744141601377018E+01 -0.1743755726268596E+01 -0.1743360443348960E+01 -0.1742956030098128E+01 -0.1742542763996121E+01
 -0.1742120922522956E+01 -0.1741690783158653E+01 -0.1741252623383232E+01 -0.1740806720676710E+01 -0.1740353352519107E+01
 -0.1739892796390442E+01 -0.1739425329770735E+01 -0.1738951230140003E+01 -0.1738470774978267E+01 -0.1737984241765544E+01
 -0.1737491907981856E+01 -0.1736993580006615E+01 -0.1736486534685158E+01 -0.1735969229948198E+01 -0.1735441709450208E+01
 -0.1734904016536188E+01 -0.1734356194244757E+01 -0.1733798285311189E+01 -0.1733230332170421E+01 -0.1732652376960023E+01
 -0.1732064461523122E+01 -0.1731466627411296E+01 -0.1730858915887432E+01 -0.1730241367928538E+01 -0.1729614024228537E+01
 -0.1728976925201007E+01 -0.1728330110981897E+01 -0.1727673621432212E+01 -0.1727007496140656E+01 -0.1726331774426248E+01
 -0.1725646495340904E+01 -0.1724951697671986E+01 -0.1724247419944823E+01 -0.1723533700425196E+01 -0.1722810577121798E+01
 -0.1722078087788660E+01 -0.1721336269927550E+01 -0.1720585160790340E+01 -0.1719824797381347E+01 -0.1719055216459649E+01
 -0.1718276454541360E+01 -0.1717488547901896E+01 -0.1716691532578199E+01 -0.1715885444370943E+01 -0.1715070318846707E+01
 -0.1714246191340133E+01 -0.1713413096956043E+01 -0.1712571070571546E+01 -0.1711720146838110E+01 -0.1710860360183615E+01
 -0.1709991744814381E+01 -0.1709114334717168E+01 -0.1708228163661161E+01 -0.1707333265199923E+01 -0.1706429672673334E+01
 -0.1705517419209497E+01 -0.1704596537726634E+01 -0.1703667060934953E+01 -0.1702729021338493E+01 -0.1701782451236949E+01
 -0.1700827382727482E+01 -0.1699863847706499E+01 -0.1698891877871418E+01 -0.1697911504722413E+01 -0.1696922759564138E+01
 -0.1695925673507433E+01 -0.1694920277471008E+01 -0.1693906602183114E+01 -0.1692884678183183E+01 -0.1691854535823470E+01
 -0.1690816205270654E+01 -0.1689769716507438E+01 -0.1688715099334124E+01 -0.1687652383370171E+01 -0.1686581598055737E+01
 -0.1685502772653205E+01 -0.1684415936248691E+01 -0.1683321117753533E+01 -0.1682218345905769E+01 -0.1681107649271598E+01
 -0.1679989056246818E+01 -0.1678862595058259E+01 -0.1677728293765191E+01 -0.1676586180260726E+01 -0.1675436282273198E+01
 -0.1674278627367529E+01 -0.1673113242946582E+01 -0.1671940156252503E+01 -0.1670759394368041E+01 -0.1669570984217859E+01
 -0.1668374952569831E+01 -0.1667171326036326E+01 -0.1665960131075473E+01 -0.1664741393992418E+01 -0.1663515140940569E+01
 -0.1662281397922824E+01 -0.1661040190792785E+01 -0.1659791545255965E+01 -0.1658535486870981E+01 -0.1657272041050725E+01
 -0.1656001233063543E+01 -0.1654723088034380E+01 -0.1653437630945926E+01 -0.1652144886639747E+01 -0.1650844879817408E+01
 -0.1649537635041576E+01 -0.1648223176737119E+01 -0.1646901529192194E+01 -0.1645572716559317E+01 -0.1644236762856432E+01
 -0.1642893691967958E+01 -0.1641543527645839E+01 -0.1640186293510568E+01 -0.1638822013052214E+01 -0.1637450709631433E+01
 -0.1636072406480466E+01 -0.1634687126704132E+01 -0.1633294893280814E+01 -0.1631895729063420E+01 -0.1630489656780356E+01
 -0.1629076699036473E+01 -0.1627656878314009E+01 -0.1626230216973528E+01 -0.1624796737254840E+01 -0.1623356461277919E+01
 -0.1621909411043808E+01 -0.1620455608435520E+01 -0.1618995075218923E+01 -0.1617527833043625E+01 -0.1616053903443840E+01
 -0.1614573307839259E+01 -0.1613086067535899E+01 -0.1611592203726954E+01 -0.1610091737493629E+01 -0.1608584689805979E+01
 -0.1607071081523723E+01 -0.1605550933397065E+01 -0.1604024266067497E+01 -0.1602491100068605E+01 -0.1600951455826853E+01
 -0.1599405353662374E+01 -0.1597852813789742E+01 -0.1596293856318747E+01 -0.1594728501255155E+01 -0.1593156768501461E+01
 -0.1591578677857643E+01 -0.1589994249021897E+01 -0.1588403501591378E+01 -0.1586806455062922E+01 -0.1585203128833770E+01
 -0.1583593542202282E+01 -0.1581977714368644E+01 -0.1580355664435567E+01 -0.1578727411408988E+01 -0.1577092974198749E+01
 -0.1575452371619289E+01 -0.1573805622390312E+01 -0.1572152745137461E+01 -0.1570493758392977E+01 -0.1568828680596362E+01
 -0.1567157530095028E+01 -0.1565480325144939E+01 -0.1563797083911258E+01 -0.1562107824468973E+01 -0.1560412564803533E+01
 -0.1558711322811466E+01 -0.1557004116300995E+01 -0.1555290962992654E+01 -0.1553571880519889E+01 -0.1551846886429665E+01
 -0.1550115998183053E+01 -0.1548379233155829E+01 -0.1546636608639052E+01 -0.1544888141839648E+01 -0.1543133849880980E+01
 -0.1541373749803423E+01 -0.1539607858564925E+01 -0.1537836193041567E+01 -0.1536058770028118E+01 -0.1534275606238586E+01
 -0.1532486718306760E+01 -0.1530692122786755E+01 -0.1528891836153542E+01 -0.1527085874803484E+01 -0.1525274255054858E+01
 -0.1523456993148382E+01 -0.1521634105247726E+01 -0.1519805607440030E+01 -0.1517971515736412E+01 -0.1516131846072470E+01
 -0.1514286614308780E+01 -0.1512435836231399E+01 -0.1510579527552349E+01 -0.1508717703910108E+01 -0.1506850380870091E+01
 -0.1504977573925131E+01 -0.1503099298495952E+01 -0.1501215569931641E+01 -0.1499326403510115E+01 -0.1497431814438585E+01
 -0.1495531817854011E+01 -0.1493626428823564E+01 -0.1491715662345070E+01 -0.1489799533347464E+01 -0.1487878056691232E+01
 -0.1485951247168849E+01 -0.1484019119505220E+01 -0.1482081688358107E+01 -0.1480138968318567E+01 -0.1478190973911368E+01
 -0.1476237719595422E+01 -0.1474279219764194E+01 -0.1472315488746126E+01 -0.1470346540805042E+01 -0.1468372390140562E+01
 -0.1466393050888505E+01 -0.1464408537121293E+01 -0.1462418862848347E+01 -0.1460424042016485E+01 -0.1458424088510313E+01
 -0.1456419016152618E+01 -0.1454408838704746E+01 -0.1452393569866996E+01 -0.1450373223278991E+01 -0.1448347812520058E+01
 -0.1446317351109603E+01 -0.1444281852507483E+01 -0.1442241330114366E+01 -0.1440195797272110E+01 -0.1438145267264110E+01
 -0.1436089753315668E+01 -0.1434029268594347E+01 -0.1431963826210320E+01 -0.1429893439216726E+01 -0.1427818120610017E+01
 -0.1425737883330301E+01 -0.1423652740261688E+01 -0.1421562704232626E+01 -0.1419467788016243E+01 -0.1417368004330676E+01
 -0.1415263365839409E+01 -0.1413153885151597E+01 -0.1411039574822397E+01 -0.1408920447353289E+01 -0.1406796515192403E+01
 -0.1404667790734831E+01 -0.1402534286322950E+01 -0.1400396014246733E+01 -0.1398252986744063E+01 -0.1396105216001043E+01
 -0.1393952714152300E+01 -0.1391795493281294E+01 -0.1389633565420617E+01 -0.1387466942552296E+01 -0.1385295636608091E+01
 -0.1383119659469788E+01 -0.1380939022969495E+01 -0.1378753738889932E+01 -0.1376563818964722E+01 -0.1374369274878676E+01
 -0.1372170118268077E+01 -0.1369966360720965E+01 -0.1367758013777416E+01 -0.1365545088929823E+01 -0.1363327597623166E+01
 -0.1361105551255292E+01 -0.1358878961177188E+01 -0.1356647838693245E+01 -0.1354412195061532E+01 -0.1352172041494059E+01
 -0.1349927389157044E+01 -0.1347678249171170E+01 -0.1345424632611852E+01 -0.1343166550509492E+01 -0.1340904013849733E+01
 -0.1338637033573720E+01 -0.1336365620578347E+01 -0.1334089785716510E+01 -0.1331809539797356E+01 -0.1329524893586531E+01
 -0.1327235857806426E+01 -0.1324942443136416E+01 -0.1322644660213109E+01 -0.1320342519630579E+01 -0.1318036031940613E+01
 -0.1315725207652937E+01 -0.1313410057235460E+01 -0.1311090591114504E+01 -0.1308766819675033E+01 -0.1306438753260890E+01
 -0.1304106402175016E+01 -0.1301769776679684E+01 -0.1299428886996722E+01 -0.1297083743307735E+01 -0.1294734355754328E+01
 -0.1292380734438326E+01 -0.1290022889421995E+01 -0.1287660830728254E+01 -0.1285294568340896E+01 -0.1282924112204799E+01
 -0.1280549472226141E+01 -0.1278170658272606E+01 -0.1275787680173602E+01 -0.1273400547720460E+01 -0.1271009270666648E+01
 -0.1268613858727974E+01 -0.1266214321582785E+01 -0.1263810668872180E+01 -0.1261402910200198E+01 -0.1258991055134029E+01
 -0.1256575113204205E+01 -0.1254155093904801E+01 -0.1251731006693627E+01 -0.1249302860992425E+01 -0.1246870666187062E+01
 -0.1244434431627717E+01 -0.1241994166629077E+01 -0.1239549880470521E+01 -0.1237101582396313E+01 -0.1234649281615781E+01
 -0.1232192987303509E+01 -0.1229732708599517E+01 -0.1227268454609444E+01 -0.1224800234404728E+01 -0.1222328057022790E+01
 -0.1219851931467209E+01 -0.1217371866707902E+01 -0.1214887871681296E+01 -0.1212399955290511E+01 -0.1209908126405527E+01
 -0.1207412393863357E+01 -0.1204912766468226E+01 -0.1202409252991732E+01 -0.1199901862173023E+01 -0.1197390602718961E+01
 -0.1194875483304290E+01 -0.1192356512571801E+01 -0.1189833699132502E+01 -0.1187307051565774E+01 -0.1184776578419540E+01
 -0.1182242288210424E+01 -0.1179704189423912E+01 -0.1177162290514510E+01 -0.1174616599905907E+01 -0.1172067125991126E+01
 -0.1169513877132686E+01 -0.1166956861662755E+01 -0.1164396087883303E+01 -0.1161831564066258E+01 -0.1159263298453658E+01
 -0.1156691299257800E+01 -0.1154115574661391E+01 -0.1151536132817701E+01 -0.1148952981850705E+01 -0.1146366129855238E+01
 -0.1143775584897135E+01 -0.1141181355013379E+01 -0.1138583448212246E+01 -0.1135981872473449E+01 -0.1133376635748279E+01
 -0.1130767745959748E+01 -0.1128155211002732E+01 -0.1125539038744103E+01 -0.1122919237022880E+01 -0.1120295813650358E+01
 -0.1117668776410249E+01 -0.1115038133058816E+01 -0.1112403891325015E+01 -0.1109766058910620E+01 -0.1107124643490365E+01
 -0.1104479652712074E+01 -0.1101831094196790E+01 -0.1099178975538913E+01 -0.1096523304306326E+01 -0.1093864088040526E+01
 -0.1091201334256751E+01 -0.1088535050444111E+01 -0.1085865244065715E+01 -0.1083191922558793E+01 -0.1080515093334828E+01
 -0.1077834763779676E+01 -0.1075150941253693E+01 -0.1072463633091859E+01 -0.1069772846603894E+01 -0.1067078589074388E+01
 -0.1064380867762921E+01 -0.1061679689904174E+01 -0.1058975062708064E+01 -0.1056266993359847E+01 -0.1053555489020248E+01
 -0.1050840556825571E+01 -0.1048122203887821E+01 -0.1045400437294815E+01 -0.1042675264110300E+01 -0.1039946691374068E+01
 -0.1037214726102067E+01 -0.1034479375286517E+01 -0.1031740645896020E+01 -0.1028998544875676E+01 -0.1026253079147186E+01
 -0.1023504255608972E+01 -0.1020752081136279E+01 -0.1017996562581289E+01 -0.1015237706773224E+01 -0.1012475520518462E+01
 -0.1009710010600635E+01 -0.1006941183780742E+01 -0.1004169046797250E+01 -0.1001393606366205E+01 -0.9986148691813279E+00
 -0.9958328419141264E+00 -0.9930475312139972E+00 -0.9902589437083227E+00 -0.9874670860025796E+00 -0.9846719646804357E+00
 -0.9818735863038549E+00 -0.9790719574131934E+00 -0.9762670845273025E+00 -0.9734589741436253E+00 -0.9706476327382966E+00
 -0.9678330667662396E+00 -0.9650152826612644E+00 -0.9621942868361631E+00 -0.9593700856828096E+00 -0.9565426855722492E+00
 -0.9537120928547977E+00 -0.9508783138601364E+00 -0.9480413548974032E+00 -0.9452012222552888E+00 -0.9423579222021260E+00
 -0.9395114609859853E+00 -0.9366618448347652E+00 -0.9338090799562835E+00 -0.9309531725383672E+00 -0.9280941287489445E+00
 -0.9252319547361317E+00 -0.9223666566283252E+00 -0.9194982405342879E+00 -0.9166267125432377E+00 -0.9137520787249372E+00
 -0.9108743451297755E+00 -0.9079935177888618E+00 -0.9051096027141051E+00 -0.9022226058983036E+00 -0.8993325333152281E+00
 -0.8964393909197081E+00 -0.8935431846477122E+00 -0.8906439204164376E+00 -0.8877416041243872E+00 -0.8848362416514567E+00
 -0.8819278388590139E+00 -0.8790164015899823E+00 -0.8761019356689209E+00 -0.8731844469021066E+00 -0.8702639410776132E+00
 -0.8673404239653910E+00 -0.8644139013173477E+00 -0.8614843788674266E+00 -0.8585518623316848E+00 -0.8556163574083719E+00
 -0.8526778697780067E+00 -0.8497364051034564E+00 -0.8467919690300104E+00 -0.8438445671854597E+00 -0.8408942051801704E+00
 -0.8379408886071608E+00 -0.8349846230421759E+00 -0.8320254140437620E+00 -0.8290632671533410E+00 -0.8260981878952842E+00
 -0.8231301817769853E+00 -0.8201592542889357E+00 -0.8171854109047926E+00 -0.8142086570814558E+00 -0.8112289982591374E+00
 -0.8082464398614326E+00 -0.8052609872953926E+00 -0.8022726459515940E+00 -0.7992814212042085E+00 -0.7962873184110744E+00
 -0.7932903429137637E+00 -0.7902905000376546E+00 -0.7872877950919974E+00 -0.7842822333699835E+00 -0.7812738201488137E+00
 -0.7782625606897658E+00 -0.7752484602382624E+00 -0.7722315240239356E+00 -0.7692117572606956E+00 -0.7661891651467975E+00
 -0.7631637528649032E+00 -0.7601355255821527E+00 -0.7571044884502223E+00 -0.7540706466053968E+00 -0.7510340051686260E+00
 -0.7479945692455964E+00 -0.7449523439267891E+00 -0.7419073342875463E+00 -0.7388595453881314E+00 -0.7358089822737963E+00
 -0.7327556499748389E+00 -0.7296995535066680E+00 -0.7266406978698634E+00 -0.7235790880502397E+00 -0.7205147290189028E+00
 -0.7174476257323166E+00 -0.7143777831323571E+00 -0.7113052061463770E+00 -0.7082298996872649E+00 -0.7051518686535009E+00
 -0.7020711179292223E+00 -0.6989876523842737E+00 -0.6959014768742754E+00 -0.6928125962406732E+00 -0.6897210153108001E+00
 -0.6866267388979342E+00 -0.6835297718013558E+00 -0.6804301188064010E+00 -0.6773277846845234E+00 -0.6742227741933470E+00
 -0.6711150920767230E+00 -0.6680047430647869E+00 -0.6648917318740116E+00 -0.6617760632072656E+00 -0.6586577417538664E+00
 -0.6555367721896322E+00 -0.6524131591769415E+00 -0.6492869073647846E+00 -0.6461580213888163E+00 -0.6430265058714123E+00
 -0.6398923654217188E+00 -0.6367556046357070E+00 -0.6336162280962285E+00 -0.6304742403730631E+00 -0.6273296460229759E+00
 -0.6241824495897610E+00 -0.6210326556043050E+00 -0.6178802685846271E+00 -0.6147252930359370E+00 -0.6115677334506837E+00
 -0.6084075943086051E+00 -0.6052448800767789E+00 -0.6020795952096749E+00 -0.5989117441492007E+00 -0.5957413313247527E+00
 -0.5925683611532701E+00 -0.5893928380392739E+00 -0.5862147663749270E+00 -0.5830341505400740E+00 -0.5798509949022944E+00
 -0.5766653038169492E+00 -0.5734770816272262E+00 -0.5702863326641924E+00 -0.5670930612468384E+00 -0.5638972716821262E+00
 -0.5606989682650347E+00 -0.5574981552786086E+00 -0.5542948369940023E+00 -0.5510890176705285E+00 -0.5478807015557022E+00
 -0.5446698928852883E+00 -0.5414565958833442E+00 -0.5382408147622693E+00 -0.5350225537228440E+00 -0.5318018169542807E+00
 -0.5285786086342654E+00 -0.5253529329290012E+00 -0.5221247939932521E+00 -0.5188941959703935E+00 -0.5156611429924455E+00
 -0.5124256391801217E+00 -0.5091876886428778E+00 -0.5059472954789421E+00 -0.5027044637753715E+00 -0.4994591976080822E+00
 -0.4962115010419038E+00 -0.4929613781306108E+00 -0.4897088329169728E+00 -0.4864538694327904E+00 -0.4831964916989419E+00
 -0.4799367037254200E+00 -0.4766745095113773E+00 -0.4734099130451621E+00 -0.4701429183043637E+00 -0.4668735292558532E+00
 -0.4636017498558196E+00 -0.4603275840498136E+00 -0.4570510357727864E+00 -0.4537721089491302E+00 -0.4504908074927173E+00
 -0.4472071353069391E+00 -0.4439210962847444E+00 -0.4406326943086828E+00 -0.4373419332509380E+00 -0.4340488169733706E+00
 -0.4307533493275538E+00 -0.4274555341548142E+00 -0.4241553752862676E+00 -0.4208528765428576E+00 -0.4175480417353959E+00
 -0.4142408746645947E+00 -0.4109313791211089E+00 -0.4076195588855712E+00 -0.4043054177286304E+00 -0.4009889594109841E+00
 -0.3976701876834236E+00 -0.3943491062868598E+00 -0.3910257189523700E+00 -0.3877000294012259E+00 -0.3843720413449347E+00
 -0.3810417584852725E+00 -0.3777091845143192E+00 -0.3743743231144985E+00 -0.3710371779586081E+00 -0.3676977527098562E+00
 -0.3643560510218984E+00 -0.3610120765388716E+00 -0.3576658328954261E+00 -0.3543173237167657E+00 -0.3509665526186758E+00
 -0.3476135232075615E+00 -0.3442582390804798E+00 -0.3409007038251776E+00 -0.3375409210201164E+00 -0.3341788942345160E+00
 -0.3308146270283825E+00 -0.3274481229525393E+00 -0.3240793855486676E+00 -0.3207084183493321E+00 -0.3173352248780198E+00
 -0.3139598086491646E+00 -0.3105821731681891E+00 -0.3072023219315295E+00 -0.3038202584266743E+00 -0.3004359861321884E+00
 -0.2970495085177529E+00 -0.2936608290441922E+00 -0.2902699511635048E+00 -0.2868768783188994E+00 -0.2834816139448230E+00
 -0.2800841614669903E+00 -0.2766845243024187E+00 -0.2732827058594580E+00 -0.2698787095378191E+00 -0.2664725387286060E+00
 -0.2630641968143467E+00 -0.2596536871690232E+00 -0.2562410131581000E+00 -0.2528261781385580E+00 -0.2494091854589206E+00
 -0.2459900384592852E+00 -0.2425687404713517E+00 -0.2391452948184546E+00 -0.2357197048155892E+00 -0.2322919737694412E+00
 -0.2288621049784213E+00 -0.2254301017326825E+00 -0.2219959673141635E+00 -0.2185597049966048E+00 -0.2151213180455848E+00
 -0.2116808097185455E+00 -0.2082381832648203E+00 -0.2047934419256644E+00 -0.2013465889342815E+00 -0.1978976275158515E+00
 -0.1944465608875574E+00 -0.1909933922586186E+00 -0.1875381248303075E+00 -0.1840807617959893E+00 -0.1806213063411414E+00
 -0.1771597616433827E+00 -0.1736961308724998E+00 -0.1702304171904774E+00 -0.1667626237515210E+00 -0.1632927537020868E+00
 -0.1598208101809034E+00 -0.1563467963190073E+00 -0.1528707152397570E+00 -0.1493925700588714E+00 -0.1459123638844473E+00
 -0.1424300998169922E+00 -0.1389457809494415E+00 -0.1354594103671934E+00 -0.1319709911481291E+00 -0.1284805263626408E+00
 -0.1249880190736548E+00 -0.1214934723366588E+00 -0.1179968891997284E+00 -0.1144982727035471E+00 -0.1109976258814380E+00
 -0.1074949517593830E+00 -0.1039902533560502E+00 -0.1004835336828204E+00 -0.9697479574380724E-01 -0.9346404253588640E-01
 -0.8995127704871467E-01 -0.8643650226476055E-01 -0.8291972115932167E-01 -0.7940093670055626E-01 -0.7588015184949938E-01
 -0.7235736956009235E-01 -0.6883259277920389E-01 -0.6530582444665629E-01 -0.6177706749524468E-01 -0.5824632485076375E-01
 -0.5471359943203127E-01 -0.5117889415091029E-01 -0.4764221191233210E-01 -0.4410355561431659E-01 -0.4056292814800454E-01
 -0.3702033239766676E-01 -0.3347577124074117E-01 -0.2992924754784303E-01 -0.2638076418279492E-01 -0.2283032400264855E-01
 -0.1927792985770340E-01 -0.1572358459153233E-01 -0.1216729104100248E-01 -0.8609052036299457E-02 -0.5048870400944165E-02
 -0.1486748951820869E-02  0.2077309500805264E-02  0.5643302153263642E-02  0.9211226208458921E-02  0.1278107887585053E-01
  0.1635285737142576E-01  0.1992655891768383E-01  0.2350218074361301E-01  0.2707972008466600E-01  0.3065917418274747E-01
  0.3424054028618389E-01  0.3782381564970660E-01  0.4140899753443206E-01  0.4499608320783823E-01  0.4858506994374791E-01
  0.5217595502230157E-01  0.5576873572994685E-01  0.5936340935940690E-01  0.6295997320966963E-01  0.6655842458596109E-01
  0.7015876079972916E-01  0.7376097916862194E-01  0.7736507701646585E-01  0.8097105167325128E-01  0.8457890047510490E-01
  0.8818862076427951E-01  0.9180020988912482E-01  0.9541366520407486E-01  0.9902898406962614E-01  0.1026461638523160E+00
  0.1062652019247058E+00  0.1098860956653646E+00  0.1135088424588418E+00  0.1171334396956565E+00  0.1207598847722738E+00
  0.1243881750910851E+00  0.1280183080603963E+00  0.1316502810943976E+00  0.1352840916131561E+00  0.1389197370425891E+00
  0.1425572148144512E+00  0.1461965223663097E+00  0.1498376571415329E+00  0.1534806165892676E+00  0.1571253981644229E+00
  0.1607719993276500E+00  0.1644204175453264E+00  0.1680706502895337E+00  0.1717226950380476E+00  0.1753765492743096E+00
  0.1790322104874184E+00  0.1826896761721079E+00  0.1863489438287287E+00  0.1900100109632333E+00  0.1936728750871567E+00
  0.1973375337175987E+00  0.2010039843772082E+00  0.2046722245941652E+00  0.2083422519021619E+00  0.2120140638403886E+00
  0.2156876579535145E+00  0.2193630317916707E+00  0.2230401829104325E+00  0.2267191088708073E+00  0.2303998072392112E+00
  0.2340822755874542E+00  0.2377665114927280E+00  0.2414525125375835E+00  0.2451402763099174E+00  0.2488298004029547E+00
  0.2525210824152325E+00  0.2562141199505840E+00  0.2599089106181202E+00  0.2636054520322187E+00  0.2673037418124989E+00
  0.2710037775838177E+00  0.2747055569762413E+00  0.2784090776250377E+00  0.2821143371706576E+00  0.2858213332587174E+00
  0.2895300635399856E+00  0.2932405256703682E+00  0.2969527173108881E+00  0.3006666361276743E+00  0.3043822797919453E+00
  0.3080996459799902E+00  0.3118187323731580E+00  0.3155395366578411E+00  0.3192620565254560E+00  0.3229862896724348E+00
  0.3267122338002040E+00  0.3304398866151735E+00  0.3341692458287172E+00  0.3379003091571630E+00  0.3416330743217746E+00
  0.3453675390487379E+00  0.3491037010691458E+00  0.3528415581189808E+00  0.3565811079391070E+00  0.3603223482752486E+00
  0.3640652768779785E+00  0.3678098915027034E+00  0.3715561899096498E+00  0.3753041698638478E+00  0.3790538291351167E+00
  0.3828051654980562E+00  0.3865581767320225E+00  0.3903128606211226E+00  0.3940692149541945E+00  0.3978272375247997E+00
  0.4015869261311988E+00  0.4053482785763501E+00  0.4091112926678819E+00  0.4128759662180928E+00  0.4166422970439264E+00
  0.4204102829669643E+00  0.4241799218134099E+00  0.4279512114140724E+00  0.4317241496043604E+00  0.4354987342242588E+00
  0.4392749631183211E+00  0.4430528341356572E+00  0.4468323451299185E+00  0.4506134939592782E+00  0.4543962784864282E+00
  0.4581806965785606E+00  0.4619667461073530E+00  0.4657544249489587E+00  0.4695437309839932E+00  0.4733346620975165E+00
  0.4771272161790291E+00  0.4809213911224484E+00  0.4847171848261052E+00  0.4885145951927240E+00  0.4923136201294131E+00
  0.4961142575476527E+00  0.4999165053632788E+00  0.5037203614964763E+00  0.5075258238717610E+00  0.5113328904179639E+00
  0.5151415590682341E+00  0.5189518277600056E+00  0.5227636944350024E+00  0.5265771570392100E+00  0.5303922135228835E+00
  0.5342088618405137E+00  0.5380270999508289E+00  0.5418469258167783E+00  0.5456683374055177E+00  0.5494913326884023E+00
  0.5533159096409717E+00  0.5571420662429368E+00  0.5609698004781670E+00  0.5647991103346881E+00  0.5686299938046558E+00
  0.5724624488843501E+00  0.5762964735741684E+00  0.5801320658786091E+00  0.5839692238062550E+00  0.5878079453697730E+00
  0.5916482285858935E+00  0.5954900714754011E+00  0.5993334720631236E+00  0.6031784283779221E+00  0.6070249384526754E+00
  0.6108730003242711E+00  0.6147226120335978E+00  0.6185737716255262E+00  0.6224264771489023E+00  0.6262807266565336E+00
  0.6301365182051848E+00  0.6339938498555588E+00  0.6378527196722857E+00  0.6417131257239191E+00  0.6455750660829165E+00
  0.6494385388256341E+00  0.6533035420323101E+00  0.6571700737870629E+00  0.6610381321778703E+00  0.6649077152965670E+00
  0.6687788212388257E+00  0.6726514481041512E+00  0.6765255939958694E+00  0.6804012570211191E+00  0.6842784352908327E+00
  0.6881571269197333E+00  0.6920373300263229E+00  0.6959190427328733E+00  0.6998022631654071E+00  0.7036869894536953E+00
  0.7075732197312504E+00  0.7114609521353025E+00  0.7153501848067996E+00  0.7192409158903987E+00  0.7231331435344438E+00
  0.7270268658909708E+00  0.7309220811156839E+00  0.7348187873679537E+00  0.7387169828108031E+00  0.7426166656109030E+00
  0.7465178339385505E+00  0.7504204859676721E+00  0.7543246198758043E+00  0.7582302338440934E+00  0.7621373260572689E+00
  0.7660458947036513E+00  0.7699559379751335E+00  0.7738674540671737E+00  0.7777804411787798E+00  0.7816948975125093E+00
  0.7856108212744513E+00  0.7895282106742215E+00  0.7934470639249509E+00  0.7973673792432734E+00  0.8012891548493232E+00
  0.8052123889667168E+00  0.8091370798225540E+00  0.8130632256473960E+00  0.8169908246752648E+00  0.8209198751436294E+00
  0.8248503752934040E+00  0.8287823233689245E+00  0.8327157176179527E+00  0.8366505562916586E+00  0.8405868376446185E+00
  0.8445245599347986E+00  0.8484637214235500E+00  0.8524043203755957E+00  0.8563463550590282E+00  0.8602898237452932E+00
  0.8642347247091849E+00  0.8681810562288368E+00  0.8721288165857062E+00  0.8760780040645810E+00  0.8800286169535483E+00
  0.8839806535440066E+00  0.8879341121306423E+00  0.8918889910114322E+00  0.8958452884876231E+00  0.8998030028637317E+00
  0.9037621324475339E+00  0.9077226755500517E+00  0.9116846304855521E+00  0.9156479955715321E+00  0.9196127691287115E+00
  0.9235789494810253E+00  0.9275465349556181E+00  0.9315155238828284E+00  0.9354859145961867E+00  0.9394577054324000E+00
  0.9434308947313536E+00  0.9474054808360929E+00  0.9513814620928195E+00  0.9553588368508846E+00  0.9593376034627736E+00
  0.9633177602841069E+00  0.9672993056736210E+00  0.9712822379931747E+00  0.9752665556077265E+00  0.9792522568853340E+00
  0.9832393401971430E+00  0.9872278039173841E+00  0.9912176464233592E+00  0.9952088660954279E+00  0.9992014613170217E+00
  0.1003195430474607E+01  0.1007190771957699E+01  0.1011187484158842E+01  0.1015185565473607E+01  0.1019185014300582E+01
  0.1023185829041364E+01  0.1027188008100547E+01  0.1031191549885725E+01  0.1035196452807476E+01  0.1039202715279349E+01
  0.1043210335717872E+01  0.1047219312542531E+01  0.1051229644175767E+01  0.1055241329042965E+01  0.1059254365572453E+01
  0.1063268752195491E+01  0.1067284487346259E+01  0.1071301569461854E+01  0.1075319996982286E+01  0.1079339768350460E+01
  0.1083360882012180E+01  0.1087383336416129E+01  0.1091407130013880E+01  0.1095432261259866E+01  0.1099458728611389E+01
  0.1103486530528607E+01  0.1107515665474528E+01  0.1111546131915000E+01  0.1115577928318704E+01  0.1119611053157152E+01
  0.1123645504904673E+01  0.1127681282038409E+01  0.1131718383038308E+01  0.1135756806387116E+01  0.1139796550570370E+01
  0.1143837614076389E+01  0.1147879995396273E+01  0.1151923693023886E+01  0.1155968705455858E+01  0.1160015031191574E+01
  0.1164062668733168E+01  0.1168111616585515E+01  0.1172161873256220E+01  0.1176213437255623E+01  0.1180266307096781E+01
  0.1184320481295462E+01  0.1188375958370145E+01  0.1192432736842007E+01  0.1196490815234916E+01  0.1200550192075431E+01
  0.1204610865892783E+01  0.1208672835218882E+01  0.1212736098588304E+01  0.1216800654538278E+01  0.1220866501608688E+01
  0.1224933638342069E+01  0.1229002063283589E+01  0.1233071774981046E+01  0.1237142771984871E+01  0.1241215052848109E+01
  0.1245288616126417E+01  0.1249363460378062E+01  0.1253439584163907E+01  0.1257516986047408E+01  0.1261595664594610E+01
  0.1265675618374133E+01  0.1269756845957175E+01  0.1273839345917498E+01  0.1277923116831426E+01  0.1282008157277834E+01
  0.1286094465838151E+01  0.1290182041096340E+01  0.1294270881638905E+01  0.1298360986054875E+01  0.1302452352935801E+01
  0.1306544980875754E+01  0.1310638868471311E+01  0.1314734014321552E+01  0.1318830417028061E+01  0.1322928075194905E+01
  0.1327026987428638E+01  0.1331127152338299E+01  0.1335228568535390E+01  0.1339331234633887E+01  0.1343435149250223E+01
  0.1347540311003288E+01  0.1351646718514416E+01  0.1355754370407388E+01  0.1359863265308417E+01  0.1363973401846151E+01
  0.1368084778651658E+01  0.1372197394358425E+01  0.1376311247602351E+01  0.1380426337021746E+01  0.1384542661257317E+01
  0.1388660218952163E+01  0.1392779008751776E+01  0.1396899029304030E+01  0.1401020279259175E+01  0.1405142757269830E+01
  0.1409266461990985E+01  0.1413391392079987E+01  0.1417517546196531E+01  0.1421644923002671E+01  0.1425773521162798E+01
  0.1429903339343637E+01  0.1434034376214248E+01  0.1438166630446015E+01  0.1442300100712641E+01  0.1446434785690145E+01
  0.1450570684056849E+01  0.1454707794493388E+01  0.1458846115682684E+01  0.1462985646309956E+01  0.1467126385062705E+01
  0.1471268330630721E+01  0.1475411481706060E+01  0.1479555836983051E+01  0.1483701395158287E+01  0.1487848154930620E+01
  0.1491996115001155E+01  0.1496145274073243E+01  0.1500295630852481E+01  0.1504447184046701E+01  0.1508599932365963E+01
  0.1512753874522557E+01  0.1516909009230997E+01  0.1521065335208006E+01  0.1525222851172519E+01  0.1529381555845678E+01
  0.1533541447950823E+01  0.1537702526213489E+01  0.1541864789361398E+01  0.1546028236124459E+01  0.1550192865234759E+01
  0.1554358675426554E+01  0.1558525665436274E+01  0.1562693834002511E+01  0.1566863179866012E+01  0.1571033701769678E+01
  0.1575205398458557E+01  0.1579378268679844E+01  0.1583552311182868E+01  0.1587727524719086E+01  0.1591903908042090E+01
  0.1596081459907591E+01  0.1600260179073416E+01  0.1604440064299506E+01  0.1608621114347909E+01  0.1612803327982774E+01
  0.1616986703970348E+01  0.1621171241078971E+01  0.1625356938079070E+01  0.1629543793743153E+01  0.1633731806845808E+01
  0.1637920976163694E+01  0.1642111300475537E+01  0.1646302778562129E+01  0.1650495409206316E+01  0.1654689191193002E+01
  0.1658884123309135E+01  0.1663080204343709E+01  0.1667277433087755E+01  0.1671475808334341E+01  0.1675675328878560E+01
  0.1679875993517534E+01  0.1684077801050400E+01  0.1688280750278317E+01  0.1692484840004447E+01  0.1696690069033959E+01
  0.1700896436174028E+01  0.1705103940233822E+01  0.1709312580024499E+01  0.1713522354359206E+01  0.1717733262053074E+01
  0.1721945301923208E+01  0.1726158472788687E+01  0.1730372773470562E+01  0.1734588202791846E+01  0.1738804759577512E+01
  0.1743022442654483E+01  0.1747241250851641E+01  0.1751461182999809E+01  0.1755682237931751E+01  0.1759904414482170E+01
  0.1764127711487699E+01  0.1768352127786902E+01  0.1772577662220264E+01  0.1776804313630192E+01  0.1781032080861006E+01
  0.1785260962758934E+01  0.1789490958172114E+01  0.1793722065950583E+01  0.1797954284946275E+01  0.1802187614013020E+01
  0.1806422052006533E+01  0.1810657597784414E+01  0.1814894250206144E+01  0.1819132008133077E+01  0.1823370870428440E+01
  0.1827610835957329E+01  0.1831851903586700E+01  0.1836094072185367E+01  0.1840337340623997E+01  0.1844581707775115E+01
  0.1848827172513079E+01  0.1853073733714102E+01  0.1857321390256221E+01  0.1861570141019318E+01  0.1865819984885098E+01
  0.1870070920737090E+01  0.1874322947460644E+01  0.1878576063942935E+01  0.1882830269072935E+01  0.1887085561741438E+01
  0.1891341940841038E+01  0.1895599405266122E+01  0.1899857953912886E+01  0.1904117585679308E+01  0.1908378299465158E+01
  0.1912640094171991E+01  0.1916902968703135E+01  0.1921166921963706E+01  0.1925431952860583E+01  0.1929698060302413E+01
  0.1933965243199610E+01  0.1938233500464348E+01  0.1942502831010556E+01  0.1946773233753912E+01  0.1951044707611850E+01
  0.1955317251503539E+01  0.1959590864349897E+01  0.1963865545073573E+01  0.1968141292598946E+01  0.1972418105852135E+01
  0.1976695983760969E+01  0.1980974925255010E+01  0.1985254929265528E+01  0.1989535994725517E+01  0.1993818120569669E+01
  0.1998101305734386E+01  0.2002385549157777E+01  0.2006670849779642E+01  0.2010957206541479E+01  0.2015244618386474E+01
  0.2019533084259504E+01  0.2023822603107122E+01  0.2028113173877569E+01  0.2032404795520752E+01  0.2036697466988262E+01
  0.2040991187233344E+01  0.2045285955210919E+01  0.2049581769877562E+01  0.2053878630191510E+01  0.2058176535112651E+01
  0.2062475483602518E+01  0.2066775474624300E+01  0.2071076507142819E+01  0.2075378580124545E+01  0.2079681692537573E+01
  0.2083985843351642E+01  0.2088291031538108E+01  0.2092597256069956E+01  0.2096904515921794E+01  0.2101212810069841E+01
  0.2105522137491941E+01  0.2109832497167535E+01  0.2114143888077680E+01  0.2118456309205036E+01  0.2122769759533856E+01
  0.2127084238049994E+01  0.2131399743740900E+01  0.2135716275595608E+01  0.2140033832604737E+01  0.2144352413760494E+01
  0.2148672018056662E+01  0.2152992644488597E+01  0.2157314292053230E+01  0.2161636959749062E+01  0.2165960646576154E+01
  0.2170285351536135E+01  0.2174611073632187E+01  0.2178937811869051E+01  0.2183265565253017E+01  0.2187594332791929E+01
  0.2191924113495165E+01  0.2196254906373656E+01  0.2200586710439862E+01  0.2204919524707788E+01  0.2209253348192961E+01
  0.2213588179912439E+01  0.2217924018884810E+01  0.2222260864130178E+01  0.2226598714670168E+01  0.2230937569527919E+01
  0.2235277427728084E+01  0.2239618288296821E+01  0.2243960150261796E+01  0.2248303012652180E+01  0.2252646874498638E+01
  0.2256991734833330E+01  0.2261337592689917E+01  0.2265684447103537E+01  0.2270032297110825E+01  0.2274381141749890E+01
  0.2278730980060333E+01  0.2283081811083217E+01  0.2287433633861086E+01  0.2291786447437959E+01  0.2296140250859310E+01
  0.2300495043172091E+01  0.2304850823424700E+01  0.2309207590667006E+01  0.2313565343950326E+01  0.2317924082327433E+01
  0.2322283804852540E+01  0.2326644510581315E+01  0.2331006198570865E+01  0.2335368867879732E+01  0.2339732517567900E+01
  0.2344097146696785E+01  0.2348462754329231E+01  0.2352829339529511E+01  0.2357196901363321E+01  0.2361565438897780E+01
  0.2365934951201422E+01  0.2370305437344199E+01  0.2374676896397474E+01  0.2379049327434020E+01  0.2383422729528016E+01
  0.2387797101755039E+01  0.2392172443192075E+01  0.2396548752917502E+01  0.2400926030011094E+01  0.2405304273554015E+01
  0.2409683482628819E+01  0.2414063656319446E+01  0.2418444793711213E+01  0.2422826893890827E+01  0.2427209955946365E+01
  0.2431593978967278E+01  0.2435978962044389E+01  0.2440364904269892E+01  0.2444751804737343E+01  0.2449139662541662E+01
  0.2453528476779124E+01  0.2457918246547373E+01  0.2462308970945394E+01  0.2466700649073528E+01  0.2471093280033469E+01
  0.2475486862928248E+01  0.2479881396862247E+01  0.2484276880941178E+01  0.2488673314272103E+01  0.2493070695963409E+01
  0.2497469025124815E+01  0.2501868300867375E+01  0.2506268522303464E+01  0.2510669688546780E+01  0.2515071798712345E+01
  0.2519474851916498E+01  0.2523878847276892E+01  0.2528283783912489E+01  0.2532689660943571E+01  0.2537096477491716E+01
  0.2541504232679812E+01  0.2545912925632047E+01  0.2550322555473911E+01  0.2554733121332184E+01  0.2559144622334948E+01
  0.2563557057611566E+01  0.2567970426292699E+01  0.2572384727510288E+01  0.2576799960397558E+01  0.2581216124089012E+01
  0.2585633217720437E+01  0.2590051240428892E+01  0.2594470191352705E+01  0.2598890069631478E+01  0.2603310874406079E+01
  0.2607732604818641E+01  0.2612155260012560E+01  0.2616578839132487E+01  0.2621003341324339E+01  0.2625428765735277E+01
  0.2629855111513718E+01  0.2634282377809335E+01  0.2638710563773037E+01  0.2643139668556983E+01  0.2647569691314571E+01
  0.2652000631200441E+01  0.2656432487370467E+01  0.2660865258981761E+01  0.2665298945192661E+01  0.2669733545162740E+01
  0.2674169058052792E+01  0.2678605483024839E+01  0.2683042819242121E+01  0.2687481065869103E+01  0.2691920222071462E+01
  0.2696360287016089E+01  0.2700801259871089E+01  0.2705243139805777E+01  0.2709685925990672E+01  0.2714129617597498E+01
  0.2718574213799184E+01  0.2723019713769855E+01  0.2727466116684834E+01  0.2731913421720638E+01  0.2736361628054981E+01
  0.2740810734866765E+01  0.2745260741336073E+01  0.2749711646644181E+01  0.2754163449973549E+01  0.2758616150507808E+01
  0.2763069747431772E+01  0.2767524239931436E+01  0.2771979627193964E+01  0.2776435908407688E+01  0.2780893082762110E+01
  0.2785351149447902E+01  0.2789810107656900E+01  0.2794269956582093E+01  0.2798730695417642E+01  0.2803192323358854E+01
  0.2807654839602199E+01  0.2812118243345294E+01  0.2816582533786907E+01  0.2821047710126957E+01  0.2825513771566507E+01
  0.2829980717307758E+01  0.2834448546554061E+01  0.2838917258509899E+01  0.2843386852380895E+01  0.2847857327373805E+01
  0.2852328682696514E+01  0.2856800917558043E+01  0.2861274031168539E+01  0.2865748022739264E+01  0.2870222891482619E+01
  0.2874698636612117E+01  0.2879175257342390E+01  0.2883652752889188E+01  0.2888131122469371E+01  0.2892610365300918E+01
  0.2897090480602910E+01  0.2901571467595544E+01  0.2906053325500118E+01  0.2910536053539031E+01  0.2915019650935785E+01
  0.2919504116914982E+01  0.2923989450702321E+01  0.2928475651524594E+01  0.2932962718609686E+01  0.2937450651186571E+01
  0.2941939448485317E+01  0.2946429109737067E+01  0.2950919634174057E+01  0.2955411021029604E+01  0.2959903269538102E+01
  0.2964396378935022E+01  0.2968890348456913E+01  0.2973385177341394E+01  0.2977880864827163E+01  0.2982377410153974E+01
  0.2986874812562661E+01  0.2991373071295115E+01  0.2995872185594293E+01  0.3000372154704213E+01  0.3004872977869950E+01
  0.3009374654337639E+01  0.3013877183354464E+01  0.3018380564168666E+01  0.3022884796029540E+01  0.3027389878187420E+01
  0.3031895809893694E+01  0.3036402590400793E+01  0.3040910218962187E+01  0.3045418694832388E+01  0.3049928017266951E+01
  0.3054438185522464E+01  0.3058949198856549E+01  0.3063461056527858E+01  0.3067973757796077E+01  0.3072487301921921E+01
  0.3077001688167128E+01  0.3081516915794464E+01  0.3086032984067716E+01  0.3090549892251691E+01  0.3095067639612213E+01
  0.3099586225416127E+01  0.3104105648931290E+01  0.3108625909426572E+01  0.3113147006171852E+01  0.3117668938438019E+01
  0.3122191705496971E+01  0.3126715306621612E+01  0.3131239741085840E+01  0.3135765008164564E+01  0.3140291107133689E+01
  0.3144818037270117E+01  0.3149345797851741E+01  0.3153874388157456E+01  0.3158403807467142E+01  0.3162934055061672E+01
  0.3167465130222904E+01  0.3171997032233686E+01  0.3176529760377846E+01  0.3181063313940195E+01  0.3185597692206527E+01
  0.3190132894463611E+01  0.3194668919999194E+01  0.3199205768101997E+01  0.3203743438061714E+01  0.3208281929169013E+01
  0.3212821240715527E+01  0.3217361371993855E+01  0.3221902322297569E+01  0.3226444090921198E+01  0.3230986677160232E+01
  0.3235530080311130E+01  0.3240074299671299E+01  0.3244619334539106E+01  0.3249165184213873E+01  0.3253711847995878E+01
  0.3258259325186341E+01  0.3262807615087442E+01  0.3267356717002299E+01  0.3271906630234986E+01  0.3276457354090506E+01
  0.3281008887874820E+01  0.3285561230894818E+01  0.3290114382458333E+01  0.3294668341874136E+01  0.3299223108451927E+01
  0.3303778681502350E+01  0.3308335060336967E+01  0.3312892244268282E+01  0.3317450232609718E+01  0.3322009024675627E+01
  0.3326568619781289E+01  0.3331129017242906E+01  0.3335690216377592E+01  0.3340252216503393E+01  0.3344815016939266E+01
  0.3349378617005086E+01  0.3353943016021637E+01  0.3358508213310624E+01  0.3363074208194655E+01  0.3367640999997253E+01
  0.3372208588042847E+01  0.3376776971656766E+01  0.3381346150165251E+01  0.3385916122895440E+01  0.3390486889175376E+01
  0.3395058448333996E+01  0.3399630799701138E+01  0.3404203942607535E+01  0.3408777876384812E+01  0.3413352600365489E+01
  0.3417928113882974E+01  0.3422504416271569E+01  0.3427081506866458E+01  0.3431659385003710E+01  0.3436238050020282E+01
  0.3440817501254017E+01  0.3445397738043629E+01  0.3449978759728718E+01  0.3454560565649759E+01  0.3459143155148105E+01
  0.3463726527565982E+01  0.3468310682246488E+01  0.3472895618533594E+01  0.3477481335772139E+01  0.3482067833307832E+01
  0.3486655110487245E+01  0.3491243166657819E+01  0.3495832001167854E+01  0.3500421613366514E+01  0.3505012002603820E+01
  0.3509603168230659E+01  0.3514195109598768E+01  0.3518787826060738E+01  0.3523381316970016E+01  0.3527975581680909E+01
  0.3532570619548562E+01  0.3537166429928972E+01  0.3541763012178993E+01  0.3546360365656314E+01  0.3550958489719472E+01
  0.3555557383727846E+01  0.3560157047041662E+01  0.3564757479021977E+01  0.3569358679030693E+01  0.3573960646430542E+01
  0.3578563380585105E+01  0.3583166880858777E+01  0.3587771146616798E+01  0.3592376177225241E+01  0.3596981972050998E+01
  0.3601588530461798E+01  0.3606195851826185E+01  0.3610803935513542E+01  0.3615412780894062E+01  0.3620022387338772E+01
  0.3624632754219507E+01  0.3629243880908927E+01  0.3633855766780513E+01  0.3638468411208552E+01  0.3643081813568152E+01
  0.3647695973235235E+01  0.3652310889586529E+01  0.3656926561999573E+01  0.3661542989852720E+01  0.3666160172525125E+01
  0.3670778109396748E+01  0.3675396799848352E+01  0.3680016243261511E+01  0.3684636439018592E+01  0.3689257386502763E+01
  0.3693879085097989E+01  0.3698501534189039E+01  0.3703124733161470E+01  0.3707748681401632E+01  0.3712373378296677E+01
  0.3716998823234539E+01  0.3721625015603947E+01  0.3726251954794412E+01  0.3730879640196239E+01  0.3735508071200520E+01
  0.3740137247199121E+01  0.3744767167584693E+01  0.3749397831750681E+01  0.3754029239091296E+01  0.3758661389001533E+01
  0.3763294280877162E+01  0.3767927914114730E+01  0.3772562288111561E+01  0.3777197402265744E+01  0.3781833255976152E+01
  0.3786469848642419E+01  0.3791107179664946E+01  0.3795745248444908E+01  0.3800384054384247E+01  0.3805023596885665E+01
  0.3809663875352624E+01  0.3814304889189359E+01  0.3818946637800857E+01  0.3823589120592868E+01  0.3828232336971900E+01
  0.3832876286345214E+01  0.3837520968120832E+01  0.3842166381707526E+01  0.3846812526514820E+01  0.3851459401952996E+01
  0.3856107007433077E+01  0.3860755342366840E+01  0.3865404406166810E+01  0.3870054198246255E+01  0.3874704718019188E+01
  0.3879355964900368E+01  0.3884007938305295E+01  0.3888660637650210E+01  0.3893314062352093E+01  0.3897968211828661E+01
  0.3902623085498369E+01  0.3907278682780412E+01  0.3911935003094710E+01  0.3916592045861922E+01  0.3921249810503443E+01
  0.3925908296441390E+01  0.3930567503098612E+01  0.3935227429898687E+01  0.3939888076265921E+01  0.3944549441625344E+01
  0.3949211525402706E+01  0.3953874327024488E+01  0.3958537845917890E+01  0.3963202081510825E+01  0.3967867033231934E+01
  0.3972532700510572E+01  0.3977199082776812E+01  0.3981866179461442E+01  0.3986533989995963E+01  0.3991202513812588E+01
  0.3995871750344245E+01  0.4000541699024572E+01  0.4005212359287909E+01  0.4009883730569316E+01  0.4014555812304549E+01
  0.6213101874943334E+02  0.6213101874943334E+02  0.6213101874943334E+02  0.6213101874943334E+02  0.6213101874943334E+02
  0.6213101874943334E+02  0.6213101874943334E+02  0.6213101874943334E+02  0.6213101874943334E+02  0.6213101874943334E+02
  0.6213101874943334E+02  0.6213101874943334E+02  0.6213101874943334E+02  0.6213101874943334E+02  0.6213101874943334E+02
  0.6213101874943334E+02  0.6213101874943334E+02  0.6213101874943334E+02  0.6213101874943334E+02  0.6213101874943334E+02
  0.6213101874943334E+02  0.6213101874943334E+02  0.6213101874943334E+02  0.6213101874943334E+02  0.6213101874943334E+02
  0.6213101874943334E+02  0.6213101874943334E+02  0.6213101874943334E+02  0.6213101874943334E+02  0.6213101874943334E+02
  0.6213101874943334E+02  0.6213101874943334E+02  0.6213101874943334E+02  0.6213101874943334E+02  0.6213101874943334E+02
  0.6213101874943334E+02  0.6213101874943334E+02  0.6213101874943334E+02  0.6213101874943334E+02  0.6213101874943334E+02
  0.6213101874943334E+02  0.6213101874943334E+02  0.6213101874943334E+02  0.6213101874943334E+02  0.6213101874943334E+02
  0.6213101874943334E+02  0.6213101874943334E+02  0.6213101874943334E+02  0.6213101874943334E+02  0.6213101874943334E+02
  0.6213101874943334E+02  0.6213101874943334E+02  0.6213101874943334E+02  0.6213101874943334E+02  0.6213101874943334E+02
  0.6213101874943334E+02  0.6213101874943334E+02  0.6213101874943334E+02  0.6213101874943334E+02  0.6213101874943334E+02
  0.6213101874943334E+02  0.6213101874943334E+02  0.6213101874943334E+02  0.6213101874943334E+02  0.6213101874943334E+02
  0.6213101874943334E+02  0.6213101874943334E+02  0.6213101874943334E+02  0.6213101874943334E+02  0.6213101874943334E+02
  0.6213101874943334E+02  0.6213101874943334E+02  0.6213101874943334E+02  0.6213101874943334E+02  0.6213101874943334E+02
  0.6213101874943334E+02  0.6213101874943334E+02  0.6213101874943334E+02  0.6213101874943334E+02  0.6213101874943334E+02
  0.6213101874943334E+02  0.6213101874943334E+02  0.6213101874943334E+02  0.6213101874943334E+02  0.6213101874943334E+02
  0.6213101874943334E+02  0.6213101874943334E+02  0.6213101874943334E+02  0.6213101874943334E+02  0.6213101874943334E+02
  0.6213101874943334E+02  0.6213101874943334E+02  0.6213101874943334E+02  0.6213101874943334E+02  0.6213101874943334E+02
  0.6213101874943334E+02  0.6213101874943334E+02  0.6213101874943334E+02  0.6213101874943334E+02  0.6213101874943334E+02
  0.6213101874943334E+02  0.6213101874943334E+02  0.6213101874943334E+02  0.6213101874943334E+02  0.6213101874943334E+02
  0.6213101874943334E+02  0.6213101874943334E+02  0.6213101874943334E+02  0.6213101874943334E+02  0.6213101874943334E+02
  0.6213101874943334E+02  0.6213101874943334E+02  0.6213101874943334E+02  0.6213101874943334E+02  0.6213101874943334E+02
  0.6213101874943334E+02  0.6213101874943334E+02  0.6213101874943334E+02  0.6213101874943334E+02  0.6213101874943334E+02
  0.6213101874943334E+02  0.6213101874943334E+02  0.6213101874943334E+02  0.6213101874943334E+02  0.6213101874943334E+02
  0.6213101874943334E+02  0.6213101874943334E+02  0.6213101874943334E+02  0.6213101874943334E+02  0.6213101874943334E+02
  0.6213101874943334E+02  0.6213101874943334E+02  0.6213101874943334E+02  0.6213101874943334E+02  0.6213101874943334E+02
  0.6213101874943334E+02  0.6213101874943334E+02  0.6213101874943334E+02  0.6213101874943334E+02  0.6213101874943334E+02
  0.6213101874943334E+02  0.6213101874943334E+02  0.6213101874943334E+02  0.6213101874943334E+02  0.6213101874943334E+02
  0.6213101874943334E+02  0.6213101874943334E+02  0.6213101874943334E+02  0.6213101874943334E+02  0.6213101874943334E+02
  0.6213101874943334E+02  0.6213101874943334E+02  0.6213101874943334E+02  0.6213101874943334E+02  0.6213101874943334E+02
  0.6198592448152933E+02  0.6164918299851688E+02  0.6131426944805052E+02  0.6098117396428760E+02  0.6064988673247542E+02
  0.6032039798876546E+02  0.5999269802002647E+02  0.5966677716365425E+02  0.5934262580738035E+02  0.5902023438907838E+02
  0.5869959339656857E+02  0.5838069336742088E+02  0.5806352488875649E+02  0.5774807859704752E+02  0.5743434517791594E+02
  0.5712231536593055E+02  0.5681197994440318E+02  0.5650332974518383E+02  0.5619635564845432E+02  0.5589104858252158E+02
  0.5558739952360954E+02  0.5528539949565072E+02  0.5498503957007649E+02  0.5468631086560733E+02  0.5438920454804190E+02
  0.5409371183004603E+02  0.5379982397094098E+02  0.5350753227649129E+02  0.5321682809869247E+02  0.5292770283555821E+02
  0.5264014793090727E+02  0.5235415487415050E+02  0.5206971520007742E+02  0.5178682048864264E+02  0.5150546236475249E+02
  0.5122563249805155E+02  0.5094732260270899E+02  0.5067052443720535E+02  0.5039522980411900E+02  0.5012143054991306E+02
  0.4984911856472254E+02  0.4957828578214119E+02  0.4930892417900934E+02  0.4904102577520131E+02  0.4877458263341354E+02
  0.4850958685895313E+02  0.4824603059952629E+02  0.4798390604502747E+02  0.4772320542732915E+02  0.4746392102007138E+02
  0.4720604513845256E+02  0.4694957013902014E+02  0.4669448841946209E+02  0.4644079241839868E+02  0.4618847461517512E+02
  0.4593752752965450E+02  0.4568794372201147E+02  0.4543971579252623E+02  0.4519283638137951E+02  0.4494729816844800E+02
  0.4470309387310037E+02  0.4446021625399402E+02  0.4421865810887243E+02  0.4397841227436324E+02  0.4373947162577719E+02
  0.4350182907690732E+02  0.4326547757982937E+02  0.4303041012470252E+02  0.4279661973957124E+02  0.4256409949016749E+02
  0.4233284247971395E+02  0.4210284184872789E+02  0.4187409077482582E+02  0.4164658247252901E+02  0.4142031019306957E+02
  0.4119526722419760E+02  0.4097144688998888E+02  0.4074884255065347E+02  0.4052744760234521E+02  0.4030725547697185E+02
  0.4008825964200605E+02  0.3987045360029720E+02  0.3965383088988412E+02  0.3943838508380859E+02  0.3922410978992955E+02
  0.3901099865073821E+02  0.3879904534317407E+02  0.3858824357844178E+02  0.3837858710182862E+02  0.3817006969252307E+02
  0.3796268516343401E+02  0.3775642736101101E+02  0.3755129016506518E+02  0.3734726748859104E+02  0.3714435327758924E+02
  0.3694254151088994E+02  0.3674182619997726E+02  0.3654220138881442E+02  0.3634366115366988E+02  0.3614619960294402E+02
  0.3594981087699701E+02  0.3575448914797729E+02  0.3556022861965106E+02  0.3536702352723239E+02  0.3517486813721438E+02
  0.3498375674720101E+02  0.3479368368573996E+02  0.3460464331215615E+02  0.3441663001638609E+02  0.3422963821881320E+02
  0.3404366237010391E+02  0.3385869695104444E+02  0.3367473647237861E+02  0.3349177547464641E+02  0.3330980852802326E+02
  0.3312883023216033E+02  0.3294883521602537E+02  0.3276981813774479E+02  0.3259177368444601E+02  0.3241469657210105E+02
  0.3223858154537076E+02  0.3206342337744992E+02  0.3188921686991293E+02  0.3171595685256062E+02  0.3154363818326762E+02
  0.3137225574783070E+02  0.3120180445981766E+02  0.3103227926041723E+02  0.3086367511828966E+02  0.3069598702941812E+02
  0.3052921001696091E+02  0.3036333913110428E+02  0.3019836944891622E+02  0.3003429607420099E+02  0.2987111413735425E+02
  0.2970881879521923E+02  0.2954740523094339E+02  0.2938686865383596E+02  0.2922720429922624E+02  0.2906840742832269E+02
  0.2891047332807268E+02  0.2875339731102298E+02  0.2859717471518104E+02  0.2844180090387702E+02  0.2828727126562660E+02
  0.2813358121399431E+02  0.2798072618745781E+02  0.2782870164927279E+02  0.2767750308733870E+02  0.2752712601406493E+02
  0.2737756596623810E+02  0.2722881850488968E+02  0.2708087921516456E+02  0.2693374370619028E+02  0.2678740761094686E+02
  0.2664186658613740E+02  0.2649711631205945E+02  0.2635315249247692E+02  0.2620997085449274E+02  0.2606756714842234E+02
  0.2592593714766747E+02  0.2578507664859109E+02  0.2564498147039269E+02  0.2550564745498438E+02  0.2536707046686753E+02
  0.2522924639301024E+02  0.2509217114272532E+02  0.2495584064754912E+02  0.2482025086112070E+02  0.2468539775906201E+02
  0.2455127733885845E+02  0.2441788561974014E+02  0.2428521864256404E+02  0.2415327246969630E+02  0.2402204318489560E+02
  0.2389152689319700E+02  0.2376171972079632E+02  0.2363261781493535E+02  0.2350421734378746E+02  0.2337651449634405E+02
  0.2324950548230134E+02  0.2312318653194808E+02  0.2299755389605364E+02  0.2287260384575682E+02  0.2274833267245518E+02
  0.2262473668769505E+02  0.2250181222306206E+02  0.2237955563007239E+02  0.2225796328006442E+02  0.2213703156409112E+02
  0.2201675689281291E+02  0.2189713569639130E+02  0.2177816442438283E+02  0.2165983954563374E+02  0.2154215754817525E+02
  0.2142511493911934E+02  0.2130870824455506E+02  0.2119293400944547E+02  0.2107778879752513E+02  0.2096326919119811E+02
  0.2084937179143660E+02  0.2073609321768004E+02  0.2062343010773475E+02  0.2051137911767424E+02  0.2039993692173989E+02
  0.2028910021224232E+02  0.2017886569946327E+02  0.2006923011155782E+02  0.1996019019445743E+02  0.1985174271177332E+02
  0.1974388444470045E+02  0.1963661219192196E+02  0.1952992276951417E+02  0.1942381301085209E+02  0.1931827976651551E+02
  0.1921331990419540E+02  0.1910893030860106E+02  0.1900510788136762E+02  0.1890184954096411E+02  0.1879915222260194E+02
  0.1869701287814404E+02  0.1859542847601432E+02  0.1849439600110773E+02  0.1839391245470073E+02  0.1829397485436242E+02
  0.1819458023386583E+02  0.1809572564310006E+02  0.1799740814798259E+02  0.1789962483037229E+02  0.1780237278798283E+02
  0.1770564913429641E+02  0.1760945099847820E+02  0.1751377552529113E+02  0.1741861987501111E+02  0.1732398122334276E+02
  0.1722985676133558E+02  0.1713624369530061E+02  0.1704313924672746E+02  0.1695054065220192E+02  0.1685844516332387E+02
  0.1676685004662575E+02  0.1667575258349139E+02  0.1658515007007539E+02  0.1649503981722279E+02  0.1640541915038932E+02
  0.1631628540956197E+02  0.1622763594918007E+02  0.1613946813805679E+02  0.1605177935930097E+02  0.1596456701023952E+02
  0.1587782850234014E+02  0.1579156126113451E+02  0.1570576272614186E+02  0.1562043035079301E+02  0.1553556160235471E+02
  0.1545115396185455E+02  0.1536720492400616E+02  0.1528371199713485E+02  0.1520067270310366E+02  0.1511808457723979E+02
  0.1503594516826149E+02  0.1495425203820528E+02  0.1487300276235356E+02  0.1479219492916271E+02  0.1471182614019144E+02
  0.1463189401002967E+02  0.1455239616622767E+02  0.1447333024922570E+02  0.1439469391228392E+02  0.1431648482141281E+02
  0.1423870065530376E+02  0.1416133910526040E+02  0.1408439787512983E+02  0.1400787468123463E+02  0.1393176725230499E+02
  0.1385607332941138E+02  0.1378079066589744E+02  0.1370591702731331E+02  0.1363145019134931E+02  0.1355738794777000E+02
  0.1348372809834856E+02  0.1341046845680155E+02  0.1333760684872402E+02  0.1326514111152497E+02  0.1319306909436315E+02
  0.1312138865808326E+02  0.1305009767515244E+02  0.1297919402959707E+02  0.1290867561694006E+02  0.1283854034413831E+02
  0.1276878612952064E+02  0.1269941090272598E+02  0.1263041260464190E+02  0.1256178918734353E+02  0.1249353861403278E+02
  0.1242565885897783E+02  0.1235814790745306E+02  0.1229100375567926E+02  0.1222422441076410E+02  0.1215780789064302E+02
  0.1209175222402037E+02  0.1202605545031096E+02  0.1196071561958180E+02  0.1189573079249427E+02  0.1183109904024652E+02
  0.1176681844451629E+02  0.1170288709740387E+02  0.1163930310137557E+02  0.1157606456920734E+02  0.1151316962392877E+02
  0.1145061639876741E+02  0.1138840303709332E+02  0.1132652769236397E+02  0.1126498852806948E+02  0.1120378371767803E+02
  0.1114291144458172E+02  0.1108236990204261E+02  0.1102215729313914E+02  0.1096227183071271E+02  0.1090271173731474E+02
  0.1084347524515383E+02  0.1078456059604335E+02  0.1072596604134921E+02  0.1066768984193800E+02  0.1060973026812533E+02
  0.1055208559962451E+02  0.1049475412549552E+02  0.1043773414409418E+02  0.1038102396302165E+02  0.1032462189907424E+02
  0.1026852627819342E+02  0.1021273543541612E+02  0.1015724771482533E+02  0.1010206146950097E+02  0.1004717506147098E+02
  0.9992586861662691E+01  0.9938295249854519E+01  0.9884298614627843E+01  0.9830595353319181E+01  0.9777183871972607E+01
  0.9724062585292501E+01  0.9671229916596417E+01  0.9618684297768326E+01  0.9566424169212086E+01  0.9514447979805135E+01
  0.9462754186852433E+01  0.9411341256040707E+01  0.9360207661392899E+01  0.9309351885222872E+01  0.9258772418090356E+01
  0.9208467758756168E+01  0.9158436414137622E+01  0.9108676899264262E+01  0.9059187737233726E+01  0.9009967459167967E+01
  0.8961014604169600E+01  0.8912327719278608E+01  0.8863905359429154E+01  0.8815746087406719E+01  0.8767848473805456E+01
  0.8720211096985736E+01  0.8672832543031973E+01  0.8625711405710645E+01  0.8578846286428577E+01  0.8532235794191401E+01
  0.8485878545562285E+01  0.8439773164620874E+01  0.8393918282922456E+01  0.8348312539457327E+01  0.8302954580610402E+01
  0.8257843060121052E+01  0.8212976639043140E+01  0.8168353985705261E+01  0.8123973775671242E+01  0.8079834691700833E+01
  0.8035935423710566E+01  0.7992274668734936E+01  0.7948851130887689E+01  0.7905663521323357E+01  0.7862710558199009E+01
  0.7819990966636230E+01  0.7777503478683239E+01  0.7735246833277282E+01  0.7693219776207207E+01  0.7651421060076219E+01
  0.7609849444264867E+01  0.7568503694894215E+01  0.7527382584789238E+01  0.7486484893442371E+01  0.7445809406977298E+01
  0.7405354918112929E+01  0.7365120226127567E+01  0.7325104136823241E+01  0.7285305462490300E+01  0.7245723021872140E+01
  0.7206355640130147E+01  0.7167202148808825E+01  0.7128261385801119E+01  0.7089532195313925E+01  0.7051013427833776E+01
  0.7012703940092723E+01  0.6974602595034426E+01  0.6936708261780367E+01  0.6899019815596320E+01  0.6861536137858942E+01
  0.6824256116022585E+01  0.6787178643586275E+01  0.6750302620060864E+01  0.6713626950936373E+01  0.6677150547649489E+01
  0.6640872327551290E+01  0.6604791213875075E+01  0.6568906135704419E+01  0.6533216027941399E+01  0.6497719831274967E+01
  0.6462416492149505E+01  0.6427304962733566E+01  0.6392384200888773E+01  0.6357653170138878E+01  0.6323110839639002E+01
  0.6288756184145048E+01  0.6254588183983270E+01  0.6220605825019980E+01  0.6186808098631486E+01  0.6153194001674143E+01
  0.6119762536454560E+01  0.6086512710700011E+01  0.6053443537528981E+01  0.6020554035421857E+01  0.5987843228191812E+01
  0.5955310144955828E+01  0.5922953820105881E+01  0.5890773293280271E+01  0.5858767609335124E+01  0.5826935818316051E+01
  0.5795276975429938E+01  0.5763790141016912E+01  0.5732474380522451E+01  0.5701328764469642E+01  0.5670352368431600E+01
  0.5639544273004017E+01  0.5608903563777893E+01  0.5578429331312376E+01  0.5548120671107785E+01  0.5517976683578751E+01
  0.5487996474027527E+01  0.5458179152617422E+01  0.5428523834346401E+01  0.5399029639020812E+01  0.5369695691229253E+01
  0.5340521120316614E+01  0.5311505060358206E+01  0.5282646650134067E+01  0.5253945033103422E+01  0.5225399357379238E+01
  0.5197008775702939E+01  0.5168772445419264E+01  0.5140689528451271E+01  0.5112759191275436E+01  0.5084980604896925E+01
  0.5057352944824999E+01  0.5029875391048527E+01  0.5002547128011653E+01  0.4975367344589587E+01  0.4948335234064544E+01
  0.4921449994101775E+01  0.4894710826725785E+01  0.4868116938296606E+01  0.4841667539486291E+01  0.4815361845255443E+01
  0.4789199074829941E+01  0.4763178451677759E+01  0.4737299203485907E+01  0.4711560562137526E+01  0.4685961763689081E+01
  0.4660502048347676E+01  0.4635180660448523E+01  0.4609996848432500E+01  0.4584949864823853E+01  0.4560038966207999E+01
  0.4535263413209465E+01  0.4510622470469957E+01  0.4486115406626503E+01  0.4461741494289776E+01  0.4437500010022493E+01
  0.4413390234317942E+01  0.4389411451578617E+01  0.4365562950095005E+01  0.4341844022024430E+01  0.4318253963370069E+01
  0.4294792073960038E+01  0.4271457657426629E+01  0.4248250021185625E+01  0.4225168476415750E+01  0.4202212338038230E+01
  0.4179380924696444E+01  0.4156673558735715E+01  0.4134089566183192E+01  0.4111628276727847E+01  0.4089289023700577E+01
  0.4067071144054416E+01  0.4044973978344862E+01  0.4022996870710297E+01  0.4001139168852524E+01  0.3979400224017400E+01
  0.3957779390975595E+01  0.3936276028003423E+01  0.3914889496863811E+01  0.3893619162787346E+01  0.3872464394453433E+01
  0.3851424563971573E+01  0.3830499046862696E+01  0.3809687222040663E+01  0.3788988471793799E+01  0.3768402181766584E+01
  0.3747927740941405E+01  0.3727564541620417E+01  0.3707311979407522E+01  0.3687169453190408E+01  0.3667136365122731E+01
  0.3647212120606352E+01  0.3627396128273699E+01  0.3607687799970213E+01  0.3588086550736888E+01  0.3568591798792910E+01
  0.3549202965518391E+01  0.3529919475437194E+01  0.3510740756199851E+01  0.3491666238566582E+01  0.3472695356390385E+01
  0.3453827546600251E+01  0.3435062249184440E+01  0.3416398907173858E+01  0.3397836966625531E+01  0.3379375876606160E+01
  0.3361015089175776E+01  0.3342754059371465E+01  0.3324592245191203E+01  0.3306529107577769E+01  0.3288564110402735E+01
  0.3270696720450559E+01  0.3252926407402766E+01  0.3235252643822200E+01  0.3217674905137367E+01  0.3200192669626872E+01
  0.3182805418403933E+01  0.3165512635400975E+01  0.3148313807354310E+01  0.3131208423788918E+01  0.3114195977003285E+01
  0.3097275962054328E+01  0.3080447876742424E+01  0.3063711221596489E+01  0.3047065499859162E+01  0.3030510217472063E+01
  0.3014044883061113E+01  0.2997669007921975E+01  0.2981382106005522E+01  0.2965183693903435E+01  0.2949073290833836E+01
  0.2933050418627028E+01  0.2917114601711306E+01  0.2901265367098824E+01  0.2885502244371578E+01  0.2869824765667429E+01
  0.2854232465666227E+01  0.2838724881575985E+01  0.2823301553119161E+01  0.2807962022518988E+01  0.2792705834485878E+01
  0.2777532536203921E+01  0.2762441677317446E+01  0.2747432809917648E+01  0.2732505488529290E+01  0.2717659270097490E+01
  0.2702893713974571E+01  0.2688208381906969E+01  0.2673602838022237E+01  0.2659076648816110E+01  0.2644629383139632E+01
  0.2630260612186357E+01  0.2615969909479629E+01  0.2601756850859918E+01  0.2587621014472237E+01  0.2573561980753610E+01
  0.2559579332420630E+01  0.2545672654457072E+01  0.2531841534101566E+01  0.2518085560835360E+01  0.2504404326370121E+01
  0.2490797424635831E+01  0.2477264451768717E+01  0.2463805006099284E+01  0.2450418688140378E+01  0.2437105100575335E+01
  0.2423863848246190E+01  0.2410694538141941E+01  0.2397596779386896E+01  0.2384570183229054E+01  0.2371614363028589E+01
  0.2358728934246352E+01  0.2345913514432474E+01  0.2333167723215010E+01  0.2320491182288639E+01  0.2307883515403455E+01
  0.2295344348353777E+01  0.2282873308967067E+01  0.2270470027092859E+01  0.2258134134591791E+01  0.2245865265324673E+01
  0.2233663055141613E+01  0.2221527141871217E+01  0.2209457165309839E+01  0.2197452767210882E+01  0.2185513591274172E+01
  0.2173639283135386E+01  0.2161829490355525E+01  0.2150083862410456E+01  0.2138402050680515E+01  0.2126783708440150E+01
  0.2115228490847638E+01  0.2103736054934840E+01  0.2092306059597037E+01  0.2080938165582788E+01  0.2069632035483874E+01
  0.2058387333725277E+01  0.2047203726555222E+01  0.2036080882035269E+01  0.2025018470030462E+01  0.2014016162199535E+01
  0.2003073631985156E+01  0.1992190554604245E+01  0.1981366607038329E+01  0.1970601468023955E+01  0.1959894818043151E+01
  0.1949246339313953E+01  0.1938655715780965E+01  0.1928122633105976E+01  0.1917646778658637E+01  0.1907227841507179E+01
  0.1896865512409182E+01  0.1886559483802401E+01  0.1876309449795631E+01  0.1866115106159635E+01  0.1855976150318108E+01
  0.1845892281338704E+01  0.1835863199924096E+01  0.1825888608403094E+01  0.1815968210721818E+01  0.1806101712434895E+01
  0.1796288820696740E+01  0.1786529244252846E+01  0.1776822693431150E+01  0.1767168880133430E+01  0.1757567517826758E+01
  0.1748018321534995E+01  0.1738521007830325E+01  0.1729075294824855E+01  0.1719680902162239E+01  0.1710337551009362E+01
  0.1701044964048060E+01  0.1691802865466892E+01  0.1682610980952954E+01  0.1673469037683734E+01  0.1664376764319014E+01
  0.1655333890992823E+01  0.1646340149305423E+01  0.1637395272315337E+01  0.1628498994531436E+01  0.1619651051905056E+01
  0.1610851181822155E+01  0.1602099123095522E+01  0.1593394615957030E+01  0.1584737402049921E+01  0.1576127224421133E+01
  0.1567563827513684E+01  0.1559046957159076E+01  0.1550576360569765E+01  0.1542151786331638E+01  0.1533772984396571E+01
  0.1525439706074997E+01  0.1517151704028524E+01  0.1508908732262599E+01  0.1500710546119200E+01  0.1492556902269585E+01
  0.1484447558707054E+01  0.1476382274739782E+01  0.1468360810983667E+01  0.1460382929355223E+01  0.1452448393064521E+01
  0.1444556966608151E+01  0.1436708415762243E+01  0.1428902507575508E+01  0.1421139010362322E+01  0.1413417693695855E+01
  0.1405738328401230E+01  0.1398100686548722E+01  0.1390504541446987E+01  0.1382949667636341E+01  0.1375435840882065E+01
  0.1367962838167748E+01  0.1360530437688669E+01  0.1353138418845217E+01  0.1345786562236338E+01  0.1338474649653024E+01
  0.1331202464071841E+01  0.1323969789648483E+01  0.1316776411711367E+01  0.1309622116755259E+01  0.1302506692434942E+01
  0.1295429927558911E+01  0.1288391612083101E+01  0.1281391537104661E+01  0.1274429494855745E+01  0.1267505278697349E+01
  0.1260618683113178E+01  0.1253769503703548E+01  0.1246957537179314E+01  0.1240182581355842E+01  0.1233444435147005E+01
  0.1226742898559211E+01  0.1220077772685478E+01  0.1213448859699516E+01  0.1206855962849867E+01  0.1200298886454058E+01
  0.1193777435892799E+01  0.1187291417604202E+01  0.1180840639078036E+01  0.1174424908850017E+01  0.1168044036496119E+01
  0.1161697832626929E+01  0.1155386108882021E+01  0.1149108677924366E+01  0.1142865353434775E+01  0.1136655950106363E+01
  0.1130480283639057E+01  0.1124338170734114E+01  0.1118229429088694E+01  0.1112153877390440E+01  0.1106111335312100E+01
  0.1100101623506174E+01  0.1094124563599590E+01  0.1088179978188411E+01  0.1082267690832569E+01  0.1076387526050627E+01
  0.1070539309314576E+01  0.1064722867044646E+01  0.1058938026604160E+01  0.1053184616294410E+01  0.1047462465349557E+01
  0.1041771403931567E+01  0.1036111263125167E+01  0.1030481874932834E+01  0.1024883072269803E+01  0.1019314688959119E+01
  0.1013776559726691E+01  0.1008268520196397E+01  0.1002790406885202E+01  0.9973420571982998E+00  0.9919233094242998E+00
  0.9865340027304141E+00  0.9811739771576926E+00  0.9758430736162697E+00  0.9705411338806488E+00  0.9652680005849987E+00
  0.9600235172184877E+00  0.9548075281206370E+00  0.9496198784766983E+00  0.9444604143130652E+00  0.9393289824926949E+00
  0.9342254307105676E+00  0.9291496074891690E+00  0.9241013621739836E+00  0.9190805449290346E+00  0.9140870067324328E+00
  0.9091205993719506E+00  0.9041811754406250E+00  0.8992685883323849E+00  0.8943826922376956E+00  0.8895233421392323E+00
  0.8846903938075777E+00  0.8798837037969381E+00  0.8751031294408905E+00  0.8703485288481422E+00  0.8656197608983220E+00
  0.8609166852377954E+00  0.8562391622754925E+00  0.8515870531787654E+00  0.8469602198692747E+00  0.8423585250188826E+00
  0.8377818320455808E+00  0.8332300051094378E+00  0.8287029091085639E+00  0.8242004096751031E+00  0.8197223731712447E+00
  0.8152686666852555E+00  0.8108391580275391E+00  0.8064337157267063E+00  0.8020522090256768E+00  0.7976945078777961E+00
  0.7933604829429799E+00  0.7890500055838690E+00  0.7847629478620146E+00  0.7804991825340810E+00  0.7762585830480673E+00
  0.7720410235395546E+00  0.7678463788279651E+00  0.7636745244128499E+00  0.7595253364701957E+00  0.7553986918487419E+00
  0.7512944680663327E+00  0.7472125433062816E+00  0.7431527964137497E+00  0.7391151068921540E+00  0.7350993548995924E+00
  0.7311054212452818E+00  0.7271331873860238E+00  0.7231825354226850E+00  0.7192533480966972E+00  0.7153455087865798E+00
  0.7114589015044737E+00  0.7075934108927013E+00  0.7037489222203426E+00  0.6999253213798289E+00  0.6961224948835556E+00
  0.6923403298605162E+00  0.6885787140529480E+00  0.6848375358130022E+00  0.6811166840994322E+00  0.6774160484742928E+00
  0.6737355190996659E+00  0.6700749867343985E+00  0.6664343427308611E+00  0.6628134790317216E+00  0.6592122881667404E+00
  0.6556306632495766E+00  0.6520684979746180E+00  0.6485256866138269E+00  0.6450021240135954E+00  0.6414977055916333E+00
  0.6380123273338565E+00  0.6345458857913016E+00  0.6310982780770583E+00  0.6276694018632103E+00  0.6242591553778005E+00
  0.6208674374018106E+00  0.6174941472661553E+00  0.6141391848486932E+00  0.6108024505712591E+00  0.6074838453967016E+00
  0.6041832708259479E+00  0.6009006288950804E+00  0.5976358221724223E+00  0.5943887537556548E+00  0.5911593272689324E+00
  0.5879474468600268E+00  0.5847530171974782E+00  0.5815759434677692E+00  0.5784161313725060E+00  0.5752734871256221E+00
  0.5721479174505918E+00  0.5690393295776628E+00  0.5659476312411026E+00  0.5628727306764574E+00  0.5598145366178284E+00
  0.5567729582951647E+00  0.5537479054315648E+00  0.5507392882405989E+00  0.5477470174236425E+00  0.5447710041672255E+00
  0.5418111601403942E+00  0.5388673974920923E+00  0.5359396288485476E+00  0.5330277673106812E+00  0.5301317264515265E+00
  0.5272514203136623E+00  0.5243867634066638E+00  0.5215376707045590E+00  0.5187040576433080E+00  0.5158858401182915E+00
  0.5130829344818124E+00  0.5102952575406104E+00  0.5075227265533971E+00  0.5047652592283933E+00  0.5020227737208872E+00
  0.4992951886308063E+00  0.4965824230002959E+00  0.4938843963113170E+00  0.4912010284832572E+00  0.4885322398705465E+00
  0.4858779512602995E+00  0.4832380838699561E+00  0.4806125593449454E+00  0.4780012997563561E+00  0.4754042275986254E+00
  0.4728212657872324E+00  0.4702523376564107E+00  0.4676973669568714E+00  0.4651562778535361E+00  0.4626289949232873E+00
  0.4601154431527241E+00  0.4576155479359349E+00  0.4551292350722839E+00  0.4526564307642001E+00  0.4501970616149900E+00
  0.4477510546266562E+00  0.4453183371977253E+00  0.4428988371210922E+00  0.4404924825818763E+00  0.4380992021552829E+00
  0.4357189248044841E+00  0.4333515798785058E+00  0.4309970971101278E+00  0.4286554066137969E+00  0.4263264388835459E+00
  0.4240101247909311E+00  0.4217063955829741E+00  0.4194151828801208E+00  0.4171364186742041E+00  0.4148700353264266E+00
  0.4126159655653449E+00  0.4103741424848712E+00  0.4081444995422838E+00  0.4059269705562464E+00  0.4037214897048401E+00
  0.4015279915236058E+00  0.3993464109035965E+00  0.3971766830894389E+00  0.3950187436774095E+00  0.3928725286135146E+00
  0.3907379741915857E+00  0.3886150170513852E+00  0.3865035941767155E+00  0.3844036428935492E+00  0.3823151008681582E+00
  0.3802379061052598E+00  0.3781719969461716E+00  0.3761173120669727E+00  0.3740737904766792E+00  0.3720413715154260E+00
  0.3700199948526608E+00  0.3680096004853452E+00  0.3660101287361683E+00  0.3640215202517665E+00  0.3620437160009540E+00
  0.3600766572729657E+00  0.3581202856757034E+00  0.3561745431339955E+00  0.3542393718878663E+00  0.3523147144908103E+00
  0.3504005138080813E+00  0.3484967130149852E+00  0.3466032555951842E+00  0.3447200853390106E+00  0.3428471463417880E+00
  0.3409843830021617E+00  0.3391317400204391E+00  0.3372891623969353E+00  0.3354565954303317E+00  0.3336339847160408E+00
  0.3318212761445784E+00  0.3300184158999475E+00  0.3282253504580273E+00  0.3264420265849727E+00  0.3246683913356215E+00
  0.3229043920519095E+00  0.3211499763612934E+00  0.3194050921751831E+00  0.3176696876873821E+00  0.3159437113725323E+00
  0.3142271119845734E+00  0.3125198385552037E+00  0.3108218403923522E+00  0.3091330670786588E+00  0.3074534684699597E+00
  0.3057829946937828E+00  0.3041215961478494E+00  0.3024692234985850E+00  0.3008258276796352E+00  0.2991913598903926E+00
  0.2975657715945262E+00  0.2959490145185229E+00  0.2943410406502351E+00  0.2927418022374312E+00  0.2911512517863618E+00
  0.2895693420603244E+00  0.2879960260782403E+00  0.2864312571132374E+00  0.2848749886912399E+00  0.2833271745895641E+00
  0.2817877688355218E+00  0.2802567257050313E+00  0.2787339997212332E+00  0.2772195456531162E+00  0.2757133185141445E+00
  0.2742152735608964E+00  0.2727253662917088E+00  0.2712435524453253E+00  0.2697697879995522E+00  0.2683040291699245E+00
  0.2668462324083716E+00  0.2653963544018945E+00  0.2639543520712476E+00  0.2625201825696252E+00  0.2610938032813570E+00
  0.2596751718206065E+00  0.2582642460300785E+00  0.2568609839797306E+00  0.2554653439654903E+00  0.2540772845079795E+00
  0.2526967643512433E+00  0.2513237424614871E+00  0.2499581780258137E+00  0.2486000304509744E+00  0.2472492593621173E+00
  0.2459058246015468E+00  0.2445696862274865E+00  0.2432408045128469E+00  0.2419191399439996E+00  0.2406046532195562E+00
  0.2392973052491530E+00  0.2379970571522396E+00  0.2367038702568744E+00  0.2354177060985234E+00  0.2341385264188649E+00
  0.2328662931645998E+00  0.2316009684862652E+00  0.2303425147370535E+00  0.2290908944716374E+00  0.2278460704449971E+00
  0.2266080056112558E+00  0.2253766631225153E+00  0.2241520063276999E+00  0.2229339987714036E+00  0.2217226041927397E+00
  0.2205177865241981E+00  0.2193195098905056E+00  0.2181277386074885E+00  0.2169424371809420E+00  0.2157635703055031E+00
  0.2145911028635262E+00  0.2134249999239640E+00  0.2122652267412524E+00  0.2111117487541978E+00  0.2099645315848711E+00
  0.2088235410375011E+00  0.2076887430973761E+00  0.2065601039297458E+00  0.2054375898787285E+00  0.2043211674662212E+00
  0.2032108033908138E+00  0.2021064645267047E+00  0.2010081179226219E+00  0.1999157308007470E+00  0.1988292705556406E+00
  0.1977487047531727E+00  0.1966740011294557E+00  0.1956051275897795E+00  0.1945420522075500E+00  0.1934847432232318E+00
  0.1924331690432911E+00  0.1913872982391421E+00  0.1903470995460990E+00  0.1893125418623245E+00  0.1882835942477878E+00
  0.1872602259232189E+00  0.1862424062690692E+00  0.1852301048244731E+00  0.1842232912862107E+00  0.1832219355076752E+00
  0.1822260074978391E+00  0.1812354774202258E+00  0.1802503155918802E+00  0.1792704924823433E+00  0.1782959787126267E+00
  0.1773267450541904E+00  0.1763627624279219E+00  0.1754040019031145E+00  0.1744504346964522E+00  0.1735020321709903E+00
  0.1725587658351408E+00  0.1716206073416581E+00  0.1706875284866264E+00  0.1697595012084460E+00  0.1688364975868243E+00
  0.1679184898417644E+00  0.1670054503325567E+00  0.1660973515567694E+00  0.1651941661492413E+00  0.1642958668810753E+00
  0.1634024266586305E+00  0.1625138185225173E+00  0.1616300156465901E+00  0.1607509913369436E+00  0.1598767190309061E+00
  0.1590071722960352E+00  0.1581423248291123E+00  0.1572821504551368E+00  0.1564266231263228E+00  0.1555757169210916E+00
  0.1547294060430674E+00  0.1538876648200701E+00  0.1530504677031100E+00  0.1522177892653790E+00  0.1513896042012445E+00
  0.1505658873252412E+00  0.1497466135710596E+00  0.1489317579905390E+00  0.1481212957526542E+00  0.1473152021425048E+00
  0.1465134525603014E+00  0.1457160225203508E+00  0.1449228876500424E+00  0.1441340236888281E+00  0.1433494064872068E+00
  0.1425690120057019E+00  0.1417928163138420E+00  0.1410207955891348E+00  0.1402529261160441E+00  0.1394891842849625E+00
  0.1387295465911807E+00  0.1379739896338588E+00  0.1372224901149910E+00  0.1364750248383718E+00  0.1357315707085572E+00
  0.1349921047298247E+00  0.1342566040051317E+00  0.1335250457350691E+00  0.1327974072168151E+00  0.1320736658430829E+00
  0.1313537991010697E+00  0.1306377845713992E+00  0.1299255999270629E+00  0.1292172229323593E+00  0.1285126314418270E+00
  0.1278118033991787E+00  0.1271147168362283E+00  0.1264213498718175E+00  0.1257316807107370E+00  0.1250456876426453E+00
  0.1243633490409852E+00  0.1236846433618936E+00  0.1230095491431115E+00  0.1223380450028867E+00  0.1216701096388765E+00
  0.1210057218270434E+00  0.1203448604205491E+00  0.1196875043486441E+00  0.1190336326155527E+00  0.1183832242993556E+00
  0.1177362585508670E+00  0.1170927145925093E+00  0.1164525717171816E+00  0.1158158092871274E+00  0.1151824067327948E+00
  0.1145523435516952E+00  0.1139255993072573E+00  0.1133021536276756E+00  0.1126819862047577E+00  0.1120650767927647E+00
  0.1114514052072496E+00  0.1108409513238906E+00  0.1102336950773205E+00  0.1096296164599537E+00  0.1090286955208064E+00
  0.1084309123643162E+00  0.1078362471491550E+00  0.1072446800870409E+00  0.1066561914415441E+00  0.1060707615268908E+00
  0.1054883707067633E+00  0.1049089993930958E+00  0.1043326280448690E+00  0.1037592371668991E+00  0.1031888073086265E+00
  0.1026213190628987E+00  0.1020567530647533E+00  0.1014950899901971E+00  0.1009363105549831E+00  0.1003803955133858E+00
  0.9982732565697328E-01  0.9927708181338034E-01  0.9872964484507731E-01  0.9818499564813946E-01  0.9764311515101594E-01
  0.9710398431329567E-01  0.9656758412447687E-01  0.9603389560273312E-01  0.9550289979368250E-01  0.9497457776915527E-01
  0.9444891062596551E-01  0.9392587948468246E-01  0.9340546548840428E-01  0.9288764980153577E-01  0.9237241360856702E-01
  0.9185973811285819E-01  0.9134960453542647E-01  0.9084199411373908E-01  0.9033688810051142E-01  0.8983426776251027E-01
  0.8933411437936604E-01  0.8883640924238977E-01  0.8834113365340046E-01  0.8784826892355968E-01  0.8735779637221786E-01
  0.8686969732576919E-01  0.8638395311651939E-01  0.8590054508156605E-01  0.8541945456169064E-01  0.8494066290026782E-01
  0.8446415144218740E-01  0.8398990153279520E-01  0.8351789451684952E-01  0.8304811173749882E-01  0.8258053453527812E-01
  0.8211514424712703E-01  0.8165192220543153E-01  0.8119084973708862E-01  0.8073190816259843E-01  0.8027507879518203E-01
  0.7982034293992912E-01  0.7936768189297581E-01  0.7891707694071412E-01  0.7846850935903685E-01  0.7802196041261646E-01
  0.7757741135422319E-01  0.7713484342408132E-01  0.7669423784926874E-01  0.7625557584315930E-01  0.7581883860491084E-01
  0.7538400731900291E-01  0.7495106315482272E-01  0.7451998726630699E-01  0.7409076079163647E-01  0.7366336485299001E-01
  0.7323778055635936E-01  0.7281398899142631E-01  0.7239197123150719E-01  0.7197170833356532E-01  0.7155318133829684E-01
  0.7113637127029009E-01  0.7072125913826470E-01  0.7030782593539152E-01  0.6989605263969724E-01  0.6948592021455778E-01
  0.6907740960928246E-01  0.6867050175979519E-01  0.6826517758941281E-01  0.6786141800972695E-01  0.6745920392159357E-01
  0.6705851621623087E-01  0.6665933577643386E-01  0.6626164347790602E-01  0.6586542019071516E-01  0.6547064678087482E-01
  0.6507730411205884E-01  0.6468537304745078E-01  0.6429483445173323E-01  0.6390566919322349E-01  0.6351785814615724E-01
  0.6313138219312750E-01  0.6274622222768149E-01  0.6236235915708236E-01  0.6197977390523800E-01  0.6159844741580447E-01
  0.6121836065546719E-01  0.6083949461740490E-01  0.6046183032494254E-01  0.6008534883539590E-01  0.5971003124411604E-01
  0.5933585868873469E-01  0.5896281235361837E-01  0.5859087347453562E-01  0.5822002334354023E-01  0.5785024331407828E-01
  0.5748151480632054E-01  0.5711381931272797E-01  0.5674713840385124E-01  0.5638145373437258E-01  0.5601674704939098E-01
  0.5565300019095600E-01  0.5529019510485526E-01  0.5492831384765633E-01  0.5456733859401065E-01  0.5420725164421865E-01
  0.5384803543206158E-01  0.5348967253290280E-01  0.5313214567205881E-01  0.5277543773344508E-01  0.5241953176849556E-01
  0.5206441100535985E-01  0.5171005885837619E-01  0.5135645893782365E-01  0.5100359505995148E-01  0.5065145125728512E-01
  0.5030001178921003E-01  0.4994926115282856E-01  0.4959918409409079E-01  0.4924976561919393E-01  0.4890099100624845E-01
  0.4855284581720679E-01  0.4820531591004813E-01  0.4785838745121560E-01  0.4751204692829782E-01  0.4716628116294898E-01
  0.4682107732403731E-01  0.4647642294101525E-01  0.4613230591749962E-01  0.4578871454505064E-01  0.4544563751714011E-01
  0.4510306394329236E-01  0.4476098336338738E-01  0.4441938576210810E-01  0.4407826158351807E-01  0.4373760174574979E-01
  0.4339739765578778E-01  0.4305764122432467E-01  0.4271832488066981E-01  0.4237944158769009E-01  0.4204098485675693E-01
  0.4170294876267785E-01  0.4136532795858459E-01  0.4102811769075235E-01  0.4069131381332238E-01  0.4035491280289683E-01
  0.4001891177297771E-01  0.3968330848821654E-01  0.3934810137844385E-01  0.3901328955244241E-01  0.3867887281143207E-01
  0.3834485166222855E-01  0.3801122733003930E-01  0.3767800177086100E-01  0.3734517768343693E-01  0.3701275852073835E-01
  0.3668074850092715E-01  0.3634915261776105E-01  0.3601797665040078E-01  0.3568722717257532E-01  0.3535691156106709E-01
  0.3502703800347186E-01  0.3469761550519505E-01  0.3436865389563926E-01  0.3404016383354426E-01  0.3371215681143701E-01
  0.3338464515915068E-01  0.3305764204637473E-01  0.3273116148419433E-01  0.3240521832558337E-01  0.3207982826481248E-01
  0.3175500783573725E-01  0.3143077440893323E-01  0.3110714618764335E-01  0.3078414220250989E-01  0.3046178230505964E-01
  0.3014008715991950E-01  0.2981907823573508E-01  0.2949877779477378E-01  0.2917920888119312E-01  0.2886039530795734E-01
  0.2854236164239291E-01  0.2822513319037008E-01  0.2790873597910796E-01  0.2759319673859805E-01  0.2727854288164940E-01
  0.2696480248256045E-01  0.2665200425442484E-01  0.2634017752508639E-01  0.2602935221175829E-01  0.2571955879432962E-01
  0.2541082828738230E-01  0.2510319221094990E-01  0.2479668256005053E-01  0.2449133177303234E-01  0.2418717269877437E-01
  0.2388423856278687E-01  0.2358256293226391E-01  0.2328217968013988E-01  0.2298312294821090E-01  0.2268542710937983E-01
  0.2238912672909290E-01  0.2209425652603592E-01  0.2180085133216126E-01  0.2150894605212334E-01  0.2121857562219777E-01
  0.2092977496876742E-01  0.2064257896645648E-01  0.2035702239599901E-01  0.2007313990192879E-01  0.1979096595017773E-01
  0.1951053478567450E-01  0.1923188039003163E-01  0.1895503643941509E-01  0.1868003626268456E-01  0.1840691279989820E-01
  0.1813569856127187E-01  0.1786642558668201E-01  0.1759912540580336E-01  0.1733382899896646E-01  0.1707056675882311E-01
  0.1680936845290126E-01  0.1655026318713297E-01  0.1629327937043216E-01  0.1603844468039823E-01  0.1578578603021889E-01
  0.1553532953683907E-01  0.1528710049046339E-01  0.1504112332545059E-01  0.1479742159265876E-01  0.1455601793329303E-01
  0.1431693405430270E-01  0.1408019070537303E-01  0.1384580765754753E-01  0.1361380368351610E-01  0.1338419653959579E-01
  0.1315700294942909E-01  0.1293223858941654E-01  0.1270991807589725E-01  0.1249005495408603E-01  0.1227266168876871E-01
  0.1205774965675566E-01  0.1184532914108452E-01  0.1163540932696209E-01  0.1142799829942893E-01  0.1122310304272468E-01
  0.1102072944133088E-01  0.1082088228266001E-01  0.1062356526135932E-01  0.1042878098519055E-01  0.1023653098244679E-01
  0.1004681571086066E-01  0.9859634567958140E-02  0.9674985902807428E-02  0.9492867029109989E-02  0.9313274239579896E-02
  0.9136202821552995E-02  0.8961647073768293E-02  0.8789600324259824E-02  0.8620054949298265E-02  0.8453002393318631E-02
  0.8288433189769991E-02  0.8126336982823727E-02  0.7966702549874230E-02  0.7809517824768585E-02  0.7654769921698756E-02
  0.7502445159692929E-02  0.7352529087641464E-02  0.7205006509793569E-02  0.7059861511663346E-02  0.6917077486282344E-02
  0.6776637160739461E-02  0.6638522622948275E-02  0.6502715348585403E-02  0.6369196228143200E-02  0.6237945594042885E-02
  0.6108943247756338E-02  0.5982168486885222E-02  0.5857600132150358E-02  0.5735216554243729E-02  0.5614995700499757E-02
  0.5496915121343964E-02  0.5380951996478235E-02  0.5267083160766345E-02  0.5155285129783224E-02  0.5045534124995832E-02
  0.4937806098543827E-02  0.4832076757592232E-02  0.4728321588229041E-02  0.4626515878883536E-02  0.4526634743243618E-02
  0.4428653142651407E-02  0.4332545907959996E-02  0.4238287760834501E-02  0.4145853334483988E-02  0.4055217193812233E-02
  0.3966353854976344E-02  0.3879237804345648E-02  0.3793843516853261E-02  0.3710145473735820E-02  0.3628118179657058E-02
  0.3547736179214041E-02  0.3468974072824326E-02  0.3391806531995467E-02  0.3316208313978591E-02  0.3242154275808782E-02
  0.3169619387737134E-02  0.3098578746059160E-02  0.3029007585346329E-02  0.2960881290087388E-02  0.2894175405748002E-02
  0.2828865649257152E-02  0.2764927918929723E-02  0.2702338303835785E-02  0.2641073092626764E-02  0.2581108781830289E-02
  0.2522422083624826E-02  0.2464989933106587E-02  0.2408789495061125E-02  0.2353798170252063E-02  0.2299993601240348E-02
  0.2247353677746900E-02  0.2195856541572315E-02  0.2145480591086771E-02  0.2096204485304108E-02  0.2048007147553369E-02
  0.2000867768761485E-02  0.1954765810360979E-02  0.1909681006835794E-02  0.1865593367919152E-02  0.1822483180456508E-02
  0.1780331009946940E-02  0.1739117701776218E-02  0.1698824382154131E-02  0.1659432458769129E-02  0.1620923621172590E-02
  0.1583279840905158E-02  0.1546483371377040E-02  0.1510516747514315E-02  0.1475362785182643E-02  0.1441004580399649E-02
  0.1407425508347264E-02  0.1374609222194419E-02  0.1342539651740870E-02  0.1311201001892118E-02  0.1280577750975393E-02
  0.1250654648906399E-02  0.1221416715215849E-02  0.1192849236945112E-02  0.1164937766419412E-02  0.1137668118907221E-02
  0.1111026370173740E-02  0.1084998853936550E-02  0.1059572159230800E-02  0.1034733127691201E-02  0.1010468850758000E-02
  0.9867666668133613E-03  0.9636141582548691E-03  0.9409991485120937E-03  0.9189096990123380E-03  0.8973341061010178E-03
  0.8762608979222843E-03  0.8556788312649048E-03  0.8355768883783547E-03  0.8159442737639031E-03  0.7967704109450142E-03
  0.7780449392214553E-03  0.7597577104110147E-03  0.7418987855827494E-03  0.7244584317853798E-03  0.7074271187741671E-03
  0.6907955157396629E-03  0.6745544880412437E-03  0.6586950939484503E-03  0.6432085813927078E-03  0.6280863847321201E-03
  0.6133201215316207E-03  0.5989015893607470E-03  0.5848227626112045E-03  0.5710757893360528E-03  0.5576529881124518E-03
  0.5445468449295720E-03  0.5317500101032825E-03  0.5192552952190773E-03  0.5070556701045023E-03  0.4951442598324157E-03
  0.4835143417560804E-03  0.4721593425772550E-03  0.4610728354480661E-03  0.4502485371076124E-03  0.4396803050540062E-03
  0.4293621347524999E-03  0.4192881568803714E-03  0.4094526346089865E-03  0.3998499609235765E-03  0.3904746559810572E-03
  0.3813213645062344E-03  0.3723848532266733E-03  0.3636600083463866E-03  0.3551418330585594E-03  0.3468254450973407E-03
  0.3387060743288442E-03  0.3307790603812769E-03  0.3230398503142334E-03  0.3154839963270651E-03  0.3081071535061861E-03
  0.3009050776112499E-03  0.2938736228999326E-03  0.2870087399912035E-03  0.2803064737667847E-03  0.2737629613105980E-03
  0.2673744298858889E-03  0.2611371949497201E-03  0.2550476582045466E-03  0.2491023056864796E-03  0.2432977058899432E-03
  0.2376305079282813E-03  0.2320974397299876E-03  0.2266953062701079E-03  0.2214209878364326E-03  0.2162714383300483E-03
  0.2112436835997936E-03  0.2063348198102161E-03  0.2015420118425320E-03  0.1968624917281880E-03  0.1922935571145094E-03
  0.1878325697620056E-03  0.1834769540728539E-03  0.1792241956500702E-03  0.1750718398869266E-03  0.1710174905860981E-03
  0.1670588086080979E-03  0.1631935105484924E-03  0.1594193674434325E-03  0.1557342035030317E-03  0.1521358948720869E-03
  0.1486223684176970E-03  0.1451916005432793E-03  0.1418416160285431E-03  0.1385704868949167E-03  0.1353763312959922E-03
  0.1322573124325172E-03  0.1292116374914611E-03  0.1262375566087332E-03  0.1233333618550667E-03  0.1204973862446560E-03
  0.1177280027660772E-03  0.1150236234350855E-03  0.1123826983688330E-03  0.1098037148810939E-03  0.1072851965980794E-03
  0.1048257025944120E-03  0.1024238265488746E-03  0.1000781959195003E-03  0.9778747113763101E-04  0.9555034482053744E-04
  0.9336554100221289E-04  0.9123181438197542E-04  0.8914794959047847E-04  0.8711276047278784E-04  0.8512508938813898E-04
  0.8318380652602787E-04  0.8128780923829089E-04  0.7943602138680711E-04  0.7762739270650983E-04  0.7586089818335077E-04
  0.7413553744690415E-04  0.7245033417727884E-04  0.7080433552603492E-04  0.6919661155077609E-04  0.6762625466313383E-04
  0.6609237908982877E-04  0.6459412034652060E-04  0.6313063472416773E-04  0.6170109878759729E-04  0.6030470888602799E-04
  0.5894068067525740E-04  0.5760824865126370E-04  0.5630666569494832E-04  0.5503520262777083E-04  0.5379314777802921E-04
  0.5257980655752966E-04  0.5139450104842023E-04  0.5023656959994096E-04  0.4910536643486647E-04  0.4800026126541893E-04
  0.4692063891842072E-04  0.4586589896948445E-04  0.4483545538601663E-04  0.4382873617883735E-04  0.4284518306220784E-04
  0.4188425112207295E-04  0.4094540849232299E-04  0.4002813603888322E-04  0.3913192705145022E-04  0.3825628694269035E-04
  0.3740073295472836E-04  0.3656479387274547E-04  0.3574800974552503E-04  0.3494993161277726E-04  0.3417012123907974E-04
  0.3340815085427898E-04  0.3266360290019502E-04  0.3193606978348331E-04  0.3122515363449896E-04  0.3053046607202706E-04
  0.2985162797373210E-04  0.2918826925219117E-04  0.2854002863637897E-04  0.2790655345846738E-04  0.2728749944581827E-04
  0.2668253051803852E-04  0.2609131858897699E-04  0.2551354337354637E-04  0.2494889219924756E-04  0.2439705982228871E-04
  0.2385774824818297E-04  0.2333066655671862E-04  0.2281553073119399E-04  0.2231206349181558E-04  0.2181999413315670E-04
  0.2133905836557628E-04  0.2086899816050603E-04  0.2040956159950689E-04  0.1996050272700562E-04  0.1952158140662083E-04
  0.1909256318099246E-04  0.1867321913502585E-04  0.1826332576247135E-04  0.1786266483575446E-04  0.1747102327897809E-04
  0.1708819304402157E-04  0.1671397098965643E-04  0.1634815876360970E-04  0.1599056268749923E-04  0.1564099364457179E-04
  0.1529926697017696E-04  0.1496520234490641E-04  0.1463862369033713E-04  0.1431935906731152E-04  0.1400724057669437E-04
  0.1370210426254449E-04  0.1340379001764339E-04  0.1311214149132206E-04  0.1282700599952933E-04  0.1254823443708800E-04
  0.1227568119208350E-04  0.1200920406233499E-04  0.1174866417389488E-04  0.1149392590152985E-04  0.1124485679113303E-04
  0.1100132748402032E-04  0.1076321164306494E-04  0.1053038588062450E-04  0.1030272968821790E-04  0.1008012536790696E-04
  0.9862457965343455E-05  0.9649615204438645E-05  0.9441487423616370E-05  0.9237967513611433E-05  0.9038950856773714E-05
  0.8844335267843165E-05  0.8654020936157776E-05  0.8467910369260159E-05  0.8285908337869103E-05  0.8107921822180963E-05
  0.7933859959470230E-05  0.7763633992955711E-05  0.7597157221902581E-05  0.7434344952929037E-05  0.7275114452488901E-05
  0.7119384900501033E-05  0.6967077345096694E-05  0.6818114658459190E-05  0.6672421493727237E-05  0.6529924242937268E-05
  0.6390550995978444E-05  0.6254231500536562E-05  0.6120897123001269E-05  0.5990480810314582E-05  0.5862917052736437E-05
  0.5738141847505346E-05  0.5616092663372771E-05  0.5496708405988668E-05  0.5379929384118846E-05  0.5265697276672622E-05
  0.5153955100521481E-05  0.5044647179089939E-05  0.4937719111698516E-05  0.4833117743641932E-05  0.4730791136983414E-05
  0.4630688542048359E-05  0.4532760369599896E-05  0.4436958163680156E-05  0.4343234575100793E-05  0.4251543335566612E-05
  0.4161839232417767E-05  0.4074078083974582E-05  0.3988216715470886E-05  0.3904212935561255E-05  0.3822025513388528E-05
  0.3741614156197764E-05  0.3662939487483258E-05  0.3585963025656009E-05  0.3510647163218663E-05  0.3436955146436021E-05
  0.3364851055488567E-05  0.3294299785097878E-05  0.3225267025612049E-05  0.3157719244540081E-05  0.3091623668524729E-05
  0.3026948265742464E-05  0.2963661728721103E-05  0.2901733457564233E-05  0.2841133543572981E-05  0.2781832753255648E-05
  0.2723802512715349E-05  0.2667014892407185E-05  0.2611442592255355E-05  0.2557058927122151E-05  0.2503837812619845E-05
  0.2451753751257463E-05  0.2400781818914479E-05  0.2350897651633139E-05  0.2302077432722307E-05  0.2254297880164830E-05
  0.2207536234321464E-05  0.2161770245923984E-05  0.2116978164350813E-05  0.2073138726178130E-05  0.2030231143999949E-05
  0.1988235095510726E-05  0.1947130712844095E-05  0.1906898572161890E-05  0.1867519683486940E-05  0.1828975480774389E-05
  0.1791247812215377E-05  0.1754318930767650E-05  0.1718171484907925E-05  0.1682788509600217E-05  0.1648153417475501E-05
  0.1614249990217179E-05  0.1581062370147849E-05  0.1548575052012308E-05  0.1516772874952124E-05  0.1485641014667454E-05
  0.1455164975761268E-05  0.1425330584262011E-05  0.1396123980320165E-05  0.1367531611074751E-05  0.1339540223685634E-05
  0.1312136858527742E-05  0.1285308842543388E-05  0.1259043782748794E-05  0.1233329559891328E-05  0.1208154322253747E-05
  0.1183506479602116E-05  0.1159374697273760E-05  0.1135747890402227E-05  0.1112615218275755E-05  0.1089966078826206E-05
  0.1067790103245465E-05  0.1046077150726049E-05  0.1024817303323287E-05  0.1004000860935921E-05  0.9836183364025842E-06
  0.2530008772820577E+03  0.2530008772820577E+03  0.2530008772820577E+03  0.2530008772820577E+03  0.2530008772820577E+03
  0.2530008772820577E+03  0.2530008772820577E+03  0.2530008772820577E+03  0.2530008772820577E+03  0.2530008772820577E+03
  0.2530008772820577E+03  0.2530008772820577E+03  0.2530008772820577E+03  0.2530008772820577E+03  0.2530008772820577E+03
  0.2530008772820577E+03  0.2530008772820577E+03  0.2530008772820577E+03  0.2530008772820577E+03  0.2530008772820577E+03
  0.2530008772820577E+03  0.2530008772820577E+03  0.2530008772820577E+03  0.2530008772820577E+03  0.2530008772820577E+03
  0.2530008772820577E+03  0.2530008772820577E+03  0.2530008772820577E+03  0.2530008772820577E+03  0.2530008772820577E+03
  0.2530008772820577E+03  0.2530008772820577E+03  0.2530008772820577E+03  0.2530008772820577E+03  0.2530008772820577E+03
  0.2530008772820577E+03  0.2530008772820577E+03  0.2530008772820577E+03  0.2530008772820577E+03  0.2530008772820577E+03
  0.2530008772820577E+03  0.2530008772820577E+03  0.2530008772820577E+03  0.2530008772820577E+03  0.2530008772820577E+03
  0.2530008772820577E+03  0.2530008772820577E+03  0.2530008772820577E+03  0.2530008772820577E+03  0.2530008772820577E+03
  0.2530008772820577E+03  0.2530008772820577E+03  0.2530008772820577E+03  0.2530008772820577E+03  0.2530008772820577E+03
  0.2530008772820577E+03  0.2530008772820577E+03  0.2530008772820577E+03  0.2530008772820577E+03  0.2530008772820577E+03
  0.2530008772820577E+03  0.2530008772820577E+03  0.2530008772820577E+03  0.2530008772820577E+03  0.2530008772820577E+03
  0.2530008772820577E+03  0.2530008772820577E+03  0.2530008772820577E+03  0.2530008772820577E+03  0.2530008772820577E+03
  0.2530008772820577E+03  0.2530008772820577E+03  0.2530008772820577E+03  0.2530008772820577E+03  0.2530008772820577E+03
  0.2530008772820577E+03  0.2530008772820577E+03  0.2530008772820577E+03  0.2530008772820577E+03  0.2530008772820577E+03
  0.2530008772820577E+03  0.2530008772820577E+03  0.2530008772820577E+03  0.2530008772820577E+03  0.2530008772820577E+03
  0.2530008772820577E+03  0.2530008772820577E+03  0.2530008772820577E+03  0.2530008772820577E+03  0.2530008772820577E+03
  0.2530008772820577E+03  0.2530008772820577E+03  0.2530008772820577E+03  0.2530008772820577E+03  0.2530008772820577E+03
  0.2530008772820577E+03  0.2530008772820577E+03  0.2530008772820577E+03  0.2530008772820577E+03  0.2530008772820577E+03
  0.2530008772820577E+03  0.2530008772820577E+03  0.2530008772820577E+03  0.2530008772820577E+03  0.2530008772820577E+03
  0.2530008772820577E+03  0.2530008772820577E+03  0.2530008772820577E+03  0.2530008772820577E+03  0.2530008772820577E+03
