  DATE: 2018-03-30 CONTRIBUTOR: Xiaowang Zhou xzhou@sandia.gov and Lucas Hale lucas.hale@nist.gov CITATION: X. W. Zhou, R. A. Johnson, H. N. G. Wadley, Phys. Rev. B, 69, 144113(2004)
  Generated from Zhou04_create_v2.f
  Fixes precision issues with older version
    1 Pb                      
 2000  0.5002501250625312E-01 2000  0.3914766648534016E-02  0.7825618530419497E+01
   82     207.20         4.9494    fcc     
  0.0000000000000000E+00 -0.2192548211087153E-01 -0.4363271508796718E-01 -0.6512177200142111E-01 -0.8639372592136929E-01
 -0.1074496499179475E+00 -0.1282906170612913E+00 -0.1489177004215357E+00 -0.1693319730688165E+00 -0.1895345080732694E+00
 -0.2095263785050294E+00 -0.2293086574342325E+00 -0.2488824179310138E+00 -0.2682487330655097E+00 -0.2874086759078545E+00
 -0.3063633195281840E+00 -0.3251137369966342E+00 -0.3436610013833405E+00 -0.3620061857584381E+00 -0.3801503631920625E+00
 -0.3980946067543499E+00 -0.4158399895154347E+00 -0.4333875845454533E+00 -0.4507384649145407E+00 -0.4678937036928326E+00
 -0.4848543739504647E+00 -0.5016215487575721E+00 -0.5181963011842907E+00 -0.5345797043007559E+00 -0.5507728311771027E+00
 -0.5667767548834673E+00 -0.5825925484899854E+00 -0.5982212850667915E+00 -0.6136640376840218E+00 -0.6289218794118117E+00
 -0.6439958833202966E+00 -0.6588871224796119E+00 -0.6735966699598936E+00 -0.6881255988312766E+00 -0.7024749821638971E+00
 -0.7166458930278901E+00 -0.7306394044933909E+00 -0.7444565896305357E+00 -0.7580985215094594E+00 -0.7715662732002978E+00
 -0.7848609177731865E+00 -0.7979835282982604E+00 -0.8109351778456558E+00 -0.8237169394855077E+00 -0.8363298862879521E+00
 -0.8487750913231240E+00 -0.8610536276611590E+00 -0.8731665683721925E+00 -0.8851149865263608E+00 -0.8968999551937984E+00
 -0.9085225474446410E+00 -0.9199838363490248E+00 -0.9312848949770846E+00 -0.9424267963989561E+00 -0.9534106136847751E+00
 -0.9642374199046764E+00 -0.9749082881287963E+00 -0.9854242914272696E+00 -0.9957865028702324E+00 -0.1005995995527820E+01
 -0.1016053842470168E+01 -0.1025961116767411E+01 -0.1035718891489687E+01 -0.1045328239707128E+01 -0.1054790234489873E+01
 -0.1064105948908054E+01 -0.1073276456031810E+01 -0.1082302828931273E+01 -0.1091186140676582E+01 -0.1099927464337870E+01
 -0.1108527872985274E+01 -0.1116988439688928E+01 -0.1125310237518969E+01 -0.1133494339545532E+01 -0.1141541818838752E+01
 -0.1149453748468765E+01 -0.1157231201505706E+01 -0.1164875251019711E+01 -0.1172386970080916E+01 -0.1179767431759455E+01
 -0.1187017709125465E+01 -0.1194138875249081E+01 -0.1201132003200439E+01 -0.1207998166049673E+01 -0.1214738436866920E+01
 -0.1221353888722314E+01 -0.1227845594685992E+01 -0.1234214627828090E+01 -0.1240462061218741E+01 -0.1246588967928083E+01
 -0.1252596421026250E+01 -0.1258485493583378E+01 -0.1264257258669603E+01 -0.1269912789355059E+01 -0.1275453158709883E+01
 -0.1280879439804210E+01 -0.1286192705708176E+01 -0.1291394029491916E+01 -0.1296484484225565E+01 -0.1301465142979259E+01
 -0.1306337078823134E+01 -0.1311101364827325E+01 -0.1315759074061968E+01 -0.1320311279597197E+01 -0.1324759054503149E+01
 -0.1329103471849959E+01 -0.1333345604707763E+01 -0.1337486526146696E+01 -0.1341527309236894E+01 -0.1345469027048492E+01
 -0.1349312752651625E+01 -0.1353059559116430E+01 -0.1356710519513041E+01 -0.1360266706911594E+01 -0.1363729194382225E+01
 -0.1367099054995069E+01 -0.1370377361820262E+01 -0.1373565187927939E+01 -0.1376663606388236E+01 -0.1379673690271287E+01
 -0.1382596512647230E+01 -0.1385433146586199E+01 -0.1388184665158329E+01 -0.1390852141433757E+01 -0.1393436648482617E+01
 -0.1395939259375046E+01 -0.1398361047181178E+01 -0.1400703084971150E+01 -0.1402966445815096E+01 -0.1405152202783153E+01
 -0.1407261428945455E+01 -0.1409295197372139E+01 -0.1411254581133339E+01 -0.1413140653299192E+01 -0.1414954486939833E+01
 -0.1416697155125397E+01 -0.1418369730926019E+01 -0.1419973287411836E+01 -0.1421508897652983E+01 -0.1422977959031909E+01
 -0.1424380708057924E+01 -0.1425718158999048E+01 -0.1426990982541182E+01 -0.1428199849370228E+01 -0.1429345430172088E+01
 -0.1430428395632663E+01 -0.1431449416437856E+01 -0.1432409163273569E+01 -0.1433308306825703E+01 -0.1434147517780159E+01
 -0.1434927466822841E+01 -0.1435648824639650E+01 -0.1436312261916488E+01 -0.1436918449339255E+01 -0.1437468057593856E+01
 -0.1437961757366190E+01 -0.1438400219342161E+01 -0.1438784114207670E+01 -0.1439114112648619E+01 -0.1439390885350909E+01
 -0.1439615103000443E+01 -0.1439787436283123E+01 -0.1439908555884849E+01 -0.1439979132491525E+01 -0.1439999836789052E+01
 -0.1439971339463332E+01 -0.1439894311200266E+01 -0.1439769422685757E+01 -0.1439597344605707E+01 -0.1439378747646016E+01
 -0.1439114302492588E+01 -0.1438804679831324E+01 -0.1438450550348126E+01 -0.1438052584728896E+01 -0.1437611453659535E+01
 -0.1437127827825945E+01 -0.1436602377914029E+01 -0.1436035774609688E+01 -0.1435428688598824E+01 -0.1434781790567339E+01
 -0.1434095751201134E+01 -0.1433371241186112E+01 -0.1432608931208175E+01 -0.1431809491953224E+01 -0.1430973594107161E+01
 -0.1430101908355888E+01 -0.1429195105385307E+01 -0.1428253855881320E+01 -0.1427278830529828E+01 -0.1426270700016734E+01
 -0.1425228668266026E+01 -0.1424149219187504E+01 -0.1423032455831295E+01 -0.1421878592141769E+01 -0.1420687839766675E+01
 -0.1419460408093180E+01 -0.1418196504283177E+01 -0.1416896333307864E+01 -0.1415560097981619E+01 -0.1414187998995184E+01
 -0.1412780234948185E+01 -0.1411337002380992E+01 -0.1409858495805940E+01 -0.1408344907737938E+01 -0.1406796428724462E+01
 -0.1405213247374959E+01 -0.1403595550389674E+01 -0.1401943522587919E+01 -0.1400257346935780E+01 -0.1398537204573301E+01
 -0.1396783274841136E+01 -0.1394995735306693E+01 -0.1393174761789781E+01 -0.1391320528387763E+01 -0.1389433207500241E+01
 -0.1387512969853273E+01 -0.1385559984523134E+01 -0.1383574418959639E+01 -0.1381556439009029E+01 -0.1379506208936432E+01
 -0.1377423891447919E+01 -0.1375309647712146E+01 -0.1373163637381606E+01 -0.1370986018613498E+01 -0.1368776948090213E+01
 -0.1366536581039450E+01 -0.1364265071253982E+01 -0.1361962571111058E+01 -0.1359629231591463E+01 -0.1357265202298247E+01
 -0.1354870631475115E+01 -0.1352445666024498E+01 -0.1349990451525312E+01 -0.1347505132250406E+01 -0.1344989851183700E+01
 -0.1342444750037042E+01 -0.1339869969266761E+01 -0.1337265648089947E+01 -0.1334631924500448E+01 -0.1331968935284600E+01
 -0.1329276816036688E+01 -0.1326555701174142E+01 -0.1323805723952493E+01 -0.1321027016480063E+01 -0.1318219709732422E+01
 -0.1315383933566600E+01 -0.1312519816735066E+01 -0.1309627486899479E+01 -0.1306707070644209E+01 -0.1303758693489645E+01
 -0.1300782479905285E+01 -0.1297778553322605E+01 -0.1294747036147735E+01 -0.1291688049773923E+01 -0.1288601714593801E+01
 -0.1285488150011457E+01 -0.1282347474454315E+01 -0.1279179805384827E+01 -0.1275985259311983E+01 -0.1272763951802637E+01
 -0.1269515997492657E+01 -0.1266241510097905E+01 -0.1262940602425046E+01 -0.1259613386382181E+01 -0.1256259972989333E+01
 -0.1252880472388755E+01 -0.1249474993855095E+01 -0.1246043645805396E+01 -0.1242586535808949E+01 -0.1239103770596997E+01
 -0.1235595456072295E+01 -0.1232061697318519E+01 -0.1228502598609544E+01 -0.1224918263418577E+01 -0.1221308794427159E+01
 -0.1217674293534028E+01 -0.1214014861863862E+01 -0.1210330599775882E+01 -0.1206621606872334E+01 -0.1202887982006852E+01
 -0.1199129823292691E+01 -0.1195347228110849E+01 -0.1191540293118065E+01 -0.1187709114254705E+01 -0.1183853786752539E+01
 -0.1179974405142399E+01 -0.1176071063261736E+01 -0.1172143854262063E+01 -0.1168192870616300E+01 -0.1164218204126006E+01
 -0.1160219945928522E+01 -0.1156198186504005E+01 -0.1152153015682365E+01 -0.1148084522650106E+01 -0.1143992795957081E+01
 -0.1139877923523137E+01 -0.1135739992644685E+01 -0.1131579090001169E+01 -0.1127395301661452E+01 -0.1123188713090114E+01
 -0.1118959409153667E+01 -0.1114707474126676E+01 -0.1110432991697812E+01 -0.1106136044975815E+01 -0.1101816716495374E+01
 -0.1097475088222942E+01 -0.1093111241562453E+01 -0.1088725257360989E+01 -0.1084317215914345E+01 -0.1079887196972542E+01
 -0.1075435279745257E+01 -0.1070961542907185E+01 -0.1066466064603329E+01 -0.1061948922454222E+01 -0.1057410193561083E+01
 -0.1052849954510909E+01 -0.1048268281381489E+01 -0.1043665249746368E+01 -0.1039040934679741E+01 -0.1034395410761284E+01
 -0.1029728752080924E+01 -0.1025041032243551E+01 -0.1020332324373666E+01 -0.1015602701119974E+01 -0.1010852234659916E+01
 -0.1006080996704154E+01 -0.1001289058500979E+01 -0.9964764908406890E+00 -0.9916433640598954E+00 -0.9867897480457808E+00
 -0.9819157122403088E+00 -0.9770213256443733E+00 -0.9721066568219064E+00 -0.9671717739039278E+00 -0.9622167445925498E+00
 -0.9572416361649314E+00 -0.9522465154771862E+00 -0.9472314489682413E+00 -0.9421965026636490E+00 -0.9371417421793550E+00
 -0.9320672327254221E+00 -0.9269730391097055E+00 -0.9218592257414853E+00 -0.9167258566350610E+00 -0.9115729954132960E+00
 -0.9064007053111237E+00 -0.9012090491790142E+00 -0.8959980894863964E+00 -0.8907678883250431E+00 -0.8855185074124140E+00
 -0.8802500080949618E+00 -0.8749624513513994E+00 -0.8696558977959281E+00 -0.8643304076814307E+00 -0.8589860409026238E+00
 -0.8536228569991789E+00 -0.8482409151588061E+00 -0.8428402742202995E+00 -0.8374209926765513E+00 -0.8319831286775309E+00
 -0.8265267400332293E+00 -0.8210518842165719E+00 -0.8155586183662973E+00 -0.8100469992898011E+00 -0.8045170834659549E+00
 -0.7989689270478875E+00 -0.7934025858657369E+00 -0.7878181154293717E+00 -0.7822155709310833E+00 -0.7765950072482481E+00
 -0.7709564789459585E+00 -0.7653000402796252E+00 -0.7596257451975560E+00 -0.7539336473434981E+00 -0.7482238000591612E+00
 -0.7424962563867031E+00 -0.7367510690712007E+00 -0.7309882905630830E+00 -0.7252079730205450E+00 -0.7194101683119306E+00
 -0.7135949280180942E+00 -0.7077623034347369E+00 -0.7019123455747116E+00 -0.6960451051703122E+00 -0.6901606326755308E+00
 -0.6842589782682982E+00 -0.6783401918526918E+00 -0.6724043230611313E+00 -0.6664514212565397E+00 -0.6604815355344914E+00
 -0.6544947147253309E+00 -0.6484910073962745E+00 -0.6424704618534842E+00 -0.6364331261441282E+00 -0.6303790480584106E+00
 -0.6243082751315893E+00 -0.6182208546459645E+00 -0.6121168336328550E+00 -0.6059962588745468E+00 -0.5998591769062277E+00
 -0.5937056340178978E+00 -0.5875356762562634E+00 -0.5813493494266091E+00 -0.5751466990946542E+00 -0.5689277705883881E+00
 -0.5626926089998856E+00 -0.5564412591871102E+00 -0.5501737657756905E+00 -0.5438901731606852E+00 -0.5375905255083302E+00
 -0.5312748667577634E+00 -0.5249432406227384E+00 -0.5185956905933184E+00 -0.5122322599375513E+00 -0.5058529917031327E+00
 -0.4994579287190486E+00 -0.4930471135972049E+00 -0.4866205887340378E+00 -0.4801783963121126E+00 -0.4737205783017026E+00
 -0.4672471764623562E+00 -0.4607582323444455E+00 -0.4542537872907034E+00 -0.4477338824377430E+00 -0.4411985587175636E+00
 -0.4346478568590424E+00 -0.4280818173894092E+00 -0.4215004806357140E+00 -0.4149038867262721E+00 -0.4082920755921008E+00
 -0.4016650869683385E+00 -0.3950229603956571E+00 -0.3883657352216529E+00 -0.3816934506022300E+00 -0.3750061455029663E+00
 -0.3683038587004740E+00 -0.3615866287837366E+00 -0.3548544941554445E+00 -0.3481074930333086E+00 -0.3413456634513700E+00
 -0.3345690432612906E+00 -0.3277776701336342E+00 -0.3209715815591392E+00 -0.3141508148499747E+00 -0.3073154071409871E+00
 -0.3004653953909348E+00 -0.2936008163837117E+00 -0.2867217067295601E+00 -0.2798281028662735E+00 -0.2729200410603830E+00
 -0.2659975574083399E+00 -0.2590606878376857E+00 -0.2521094681082064E+00 -0.2451439338130852E+00 -0.2381641203800349E+00
 -0.2311700630724297E+00 -0.2241617969904202E+00 -0.2171393570720402E+00 -0.2101027780943050E+00 -0.2030520946742980E+00
 -0.1959873412702518E+00 -0.1889085521826114E+00 -0.1818157615550953E+00 -0.1747090033757466E+00 -0.1675883114779721E+00
 -0.1604537195415722E+00 -0.1533052610937624E+00 -0.1461429695101906E+00 -0.1389668780159361E+00 -0.1317770196865109E+00
 -0.1245734274488388E+00 -0.1173561340822416E+00 -0.1101251722194022E+00 -0.1028805743473299E+00 -0.9562237280831423E-01
 -0.8835059980086507E-01 -0.8106528738065526E-01 -0.7376646746144276E-01 -0.6645417181600004E-01 -0.5912843207701736E-01
 -0.5178927973801463E-01 -0.4443674615423548E-01 -0.3707086254353870E-01 -0.2969165998728068E-01 -0.2229916943118793E-01
 -0.1489342168622830E-01 -0.7474447429466792E-02 -0.4227720492019820E-04  0.7403058575596304E-02  0.1486152963162968E-01
  0.2233310581326104E-01  0.2981775710028002E-01  0.3731545360136141E-01  0.4482616555326200E-01  0.5234986332001013E-01
  0.5988651739211383E-01  0.6743609838576312E-01  0.7499857704205043E-01  0.8257392422619123E-01  0.9016211092675037E-01
  0.9776310825487873E-01  0.1053768874435545E+00  0.1130034198468278E+00  0.1206426769390749E+00  0.1282946303142571E+00
  0.1359592516851903E+00  0.1436365128828084E+00  0.1513263858554457E+00  0.1590288426681192E+00  0.1667438555018133E+00
  0.1744713966527810E+00  0.1822114385318365E+00  0.1899639536636706E+00  0.1977289146861473E+00  0.2055062943496362E+00
  0.2132960655163213E+00  0.2210982011595384E+00  0.2289126743631021E+00  0.2367394583206475E+00  0.2445785263349655E+00
  0.2524298518173652E+00  0.2602934082870159E+00  0.2681691693703064E+00  0.2760571088002161E+00  0.2839572004156775E+00
  0.2918694181609495E+00  0.2997937360849994E+00  0.3077301283408853E+00  0.3156785691851406E+00  0.3236390329771715E+00
  0.3316114941786507E+00  0.3395959273529231E+00  0.3475923071644103E+00  0.3556006083780191E+00  0.3636208058585644E+00
  0.3716528745701825E+00  0.3796967895757606E+00  0.3877525260363640E+00  0.3958200592106666E+00  0.4038993644543960E+00
  0.4119904172197663E+00  0.4200931930549347E+00  0.4282076676034403E+00  0.4363338166036685E+00  0.4444716158883041E+00
  0.4526210413837972E+00  0.4607820691098279E+00  0.4689546751787768E+00  0.4771388357951999E+00  0.4853345272553109E+00
  0.4935417259464583E+00  0.5017604083466134E+00  0.5099905510238643E+00  0.5182321306359047E+00  0.5264851239295342E+00
  0.5347495077401575E+00  0.5430252589912946E+00  0.5513123546940829E+00  0.5596107719467946E+00  0.5679204879343482E+00
  0.5762414799278356E+00  0.5845737252840335E+00  0.5929172014449403E+00  0.6012718859373012E+00  0.6096377563721413E+00
  0.6180147904443032E+00  0.6264029659319887E+00  0.6348022606962965E+00  0.6432126526807787E+00  0.6516341199109797E+00
  0.6600666404939977E+00  0.6685101926180346E+00  0.6769647545519608E+00  0.6854303046448750E+00  0.6939068213256728E+00
  0.7023942831026113E+00  0.7108926685628849E+00  0.7194019563721956E+00  0.7279221252743407E+00  0.7364531540907804E+00
  0.7449950217202324E+00  0.7535477071382546E+00  0.7621111893968345E+00  0.7706854476239846E+00  0.7792704610233356E+00
  0.7878662088737309E+00  0.7964726705288407E+00  0.8050898254167521E+00  0.8137176530395814E+00  0.8223561329730824E+00
  0.8310052448662633E+00  0.8396649684409982E+00  0.8483352834916391E+00  0.8570161698846462E+00  0.8657076075582034E+00
  0.8744095765218479E+00  0.8831220568560968E+00  0.8918450287120746E+00  0.9005784723111497E+00  0.9093223679445737E+00
  0.9180766959731095E+00  0.9268414368266810E+00  0.9356165710040089E+00  0.9444020790722653E+00  0.9531979416667095E+00
  0.9620041394903506E+00  0.9708206533135880E+00  0.9796474639738810E+00  0.9884845523753889E+00  0.9973318994886448E+00
  0.1006189486350208E+01  0.1015057294062336E+01  0.1023935303792645E+01  0.1032823496773779E+01  0.1041721854303084E+01
  0.1050630357742276E+01  0.1059548988517126E+01  0.1068477728117123E+01  0.1077416558095163E+01  0.1086365460067232E+01
  0.1095324415712084E+01  0.1104293406770926E+01  0.1113272415047115E+01  0.1122261422405837E+01  0.1131260410773808E+01
  0.1140269362138961E+01  0.1149288258550146E+01  0.1158317082116826E+01  0.1167355815008779E+01  0.1176404439455797E+01
  0.1185462937747395E+01  0.1194531292232508E+01  0.1203609485319211E+01  0.1212697499474414E+01  0.1221795317223588E+01
  0.1230902921150466E+01  0.1240020293896767E+01  0.1249147418161910E+01  0.1258284276702727E+01  0.1267430852333196E+01
  0.1276587127924152E+01  0.1285753086403017E+01  0.1294928710753523E+01  0.1304113984015445E+01  0.1313308889284325E+01
  0.1322513409711203E+01  0.1331727528502353E+01  0.1340951228919017E+01  0.1350184494277139E+01  0.1359427307947106E+01
  0.1368679653353487E+01  0.1377941513974769E+01  0.1387212873343110E+01  0.1396493715044073E+01  0.1405784022716375E+01
  0.1415083780051644E+01  0.1424392970794150E+01  0.1433711578740575E+01  0.1443039587739753E+01  0.1452376981692425E+01
  0.1461723744551001E+01  0.1471079860319312E+01  0.1480445313052367E+01  0.1489820086856116E+01  0.1499204165887210E+01
  0.1508597534352768E+01  0.1518000176510131E+01  0.1527412076666642E+01  0.1536833219179399E+01  0.1546263588455036E+01
  0.1555703168949483E+01  0.1565151945167746E+01  0.1574609901663672E+01  0.1584077023039729E+01  0.1593553293946782E+01
  0.1603038699083862E+01  0.1612533223197956E+01  0.1622036851083777E+01  0.1631549567583548E+01  0.1641071357586792E+01
  0.1650602206030102E+01  0.1660142097896931E+01  0.1669691018217391E+01  0.1679248952068017E+01  0.1688815884571577E+01
  0.1698391800896850E+01  0.1707976686258419E+01  0.1717570525916468E+01  0.1727173305176575E+01  0.1736785009389506E+01
  0.1746405623951002E+01  0.1756035134301597E+01  0.1765673525926393E+01  0.1775320784354882E+01  0.1784976895160730E+01
  0.1794641843961588E+01  0.1804315616418896E+01  0.1813998198237678E+01  0.1823689575166364E+01  0.1833389732996580E+01
  0.1843098657562964E+01  0.1852816334742982E+01  0.1862542750456719E+01  0.1872277890666711E+01  0.1882021741377747E+01
  0.1891774288636682E+01  0.1901535518532253E+01  0.1911305417194898E+01  0.1921083970796568E+01  0.1930871165550548E+01
  0.1940666987711276E+01  0.1950471423574158E+01  0.1960284459475396E+01  0.1970106081791805E+01  0.1979936276940637E+01
  0.1989775031379410E+01  0.1999622331605721E+01  0.2009478164157084E+01  0.2019342515610755E+01  0.2029215372583552E+01
  0.2039096721731695E+01  0.2048986549750628E+01  0.2058884843374852E+01  0.2068791589377760E+01  0.2078706774571465E+01
  0.2088630385806637E+01  0.2098562409972335E+01  0.2108502833995848E+01  0.2118451644842522E+01  0.2128408829515614E+01
  0.2138374375056112E+01  0.2148348268542585E+01  0.2158330497091015E+01  0.2168321047854653E+01  0.2178319908023844E+01
  0.2188327064825885E+01  0.2198342505524852E+01  0.2208366217421461E+01  0.2218398187852907E+01  0.2228438404192705E+01
  0.2238486853850547E+01  0.2248543524272141E+01  0.2258608402939067E+01  0.2268681477368624E+01  0.2278762735113674E+01
  0.2288852163762513E+01  0.2298949750938696E+01  0.2309055484300915E+01  0.2319169351542835E+01  0.2329291340392957E+01
  0.2339421438614474E+01  0.2349559634005122E+01  0.2359705914397044E+01  0.2369860267656638E+01  0.2380022681684432E+01
  0.2390193144414921E+01  0.2400371643816446E+01  0.2410558167891046E+01  0.2420752704674322E+01  0.2430955242235296E+01
  0.2441165768676281E+01  0.2451384272132737E+01  0.2461610740773141E+01  0.2471845162798854E+01  0.2482087526443977E+01
  0.2492337819975226E+01  0.2502596031691802E+01  0.2512862149925251E+01  0.2523136163039337E+01  0.2533418059429913E+01
  0.2543707827524787E+01  0.2554005455783601E+01  0.2564310932697689E+01  0.2574624246789968E+01  0.2584945386614790E+01
  0.2595274340757831E+01  0.2605611097835963E+01  0.2615955646497125E+01  0.2626307975420194E+01  0.2636668073314880E+01
  0.2647035928921583E+01  0.2657411531011273E+01  0.2667794868385384E+01  0.2678185929875674E+01  0.2688584704344121E+01
  0.2698991180682787E+01  0.2709405347813713E+01  0.2719827194688790E+01  0.2730256710289648E+01  0.2740693883627535E+01
  0.2751138703743202E+01  0.2761591159706779E+01  0.2772051240617681E+01  0.2782518935604468E+01  0.2792994233824742E+01
  0.2803477124465034E+01  0.2813967596740694E+01  0.2824465639895763E+01  0.2834971243202884E+01  0.2845484395963167E+01
  0.2856005087506101E+01  0.2866533307189423E+01  0.2877069044399018E+01  0.2887612288548816E+01  0.2898163029080673E+01
  0.2908721255464264E+01  0.2919286957196984E+01  0.2929860123803829E+01  0.2940440744837300E+01  0.2951028809877292E+01
  0.2961624308530990E+01  0.2972227230432762E+01  0.2982837565244060E+01  0.2993455302653310E+01  0.3004080432375813E+01
  0.3014712944153642E+01  0.3025352827755534E+01  0.3036000072976799E+01  0.3046654669639208E+01  0.3057316607590900E+01
  0.3067985876706283E+01  0.3078662466885922E+01  0.3089346368056457E+01  0.3100037570170487E+01  0.3110736063206492E+01
  0.3121441837168712E+01  0.3132154882087069E+01  0.3142875188017063E+01  0.3153602745039668E+01  0.3164337543261257E+01
  0.3175079572813486E+01  0.3185828823853204E+01  0.3196585286562372E+01  0.3207348951147948E+01  0.3218119807841811E+01
  0.3228897846900659E+01  0.3239683058605921E+01  0.3250475433263662E+01  0.3261274961204490E+01  0.3272081632783474E+01
  0.3282895438380040E+01  0.3293716368397889E+01  0.3304544413264909E+01  0.3315379563433078E+01  0.3326221809378378E+01
  0.3337071141600715E+01  0.3347927550623818E+01  0.3358791026995158E+01  0.3369661561285862E+01  0.3380539144090624E+01
  0.3391423766027611E+01  0.3402315417738397E+01  0.3413214089887857E+01  0.3424119773164095E+01  0.3435032458278347E+01
  0.3445952135964915E+01  0.3456878796981063E+01  0.3467812432106947E+01  0.3478753032145527E+01  0.3489700587922481E+01
  0.3500655090286132E+01  0.3511616530107358E+01  0.3522584898279514E+01  0.3533560185718352E+01  0.3544542383361935E+01
  0.3555531482170557E+01  0.3566527473126675E+01  0.3577530347234808E+01  0.3588540095521484E+01  0.3599556709035133E+01
  0.3610580178846036E+01  0.3621610496046225E+01  0.3632647651749416E+01  0.3643691637090930E+01  0.3654742443227613E+01
  0.3665800061337766E+01  0.3676864482621060E+01  0.3687935698298467E+01  0.3699013699612185E+01  0.3710098477825554E+01
  0.3721190024222987E+01  0.3732288330109901E+01  0.3743393386812631E+01  0.3754505185678367E+01  0.3765623718075074E+01
  0.3776748975391417E+01  0.3787880949036697E+01  0.3799019630440773E+01  0.3810165011053989E+01  0.3821317082347103E+01
  0.3832475835811211E+01  0.3843641262957695E+01  0.3854813355318124E+01  0.3865992104444201E+01  0.3877177501907692E+01
  0.3888369539300352E+01  0.3899568208233861E+01  0.3910773500339741E+01  0.3921985407269307E+01  0.3933203920693585E+01
  0.3944429032303242E+01  0.3955660733808527E+01  0.3966899016939204E+01  0.3978143873444472E+01  0.3989395295092915E+01
  0.4000653273672415E+01  0.4011917800990107E+01  0.4023188868872299E+01  0.4034466469164409E+01  0.4045750593730901E+01
  0.4057041234455218E+01  0.4068338383239722E+01  0.4079642032005628E+01  0.4090952172692929E+01  0.4102268797260344E+01
  0.4113591897685249E+01  0.4124921465963622E+01  0.4136257494109966E+01  0.4147599974157253E+01  0.4158948898156865E+01
  0.4170304258178526E+01  0.4181666046310241E+01  0.4193034254658235E+01  0.4204408875346897E+01  0.4215789900518703E+01
  0.4227177322334177E+01  0.4238571132971808E+01  0.4249971324628006E+01  0.4261377889517033E+01  0.4272790819870955E+01
  0.4284210107939557E+01  0.4295635745990317E+01  0.4307067726308321E+01  0.4318506041196210E+01  0.4329950682974133E+01
  0.4341401643979678E+01  0.4352858916567809E+01  0.4364322493110826E+01  0.4375792365998291E+01  0.4387268527636973E+01
  0.4398750970450800E+01  0.4410239686880797E+01  0.4421734669385023E+01  0.4433235910438523E+01  0.4444743402533278E+01
  0.4456257138178125E+01  0.4467777109898729E+01  0.4479303310237514E+01  0.4490835731753606E+01  0.4502374367022780E+01
  0.4513919208637416E+01  0.4525470249206430E+01  0.4537027481355221E+01  0.4548590897725631E+01  0.4560160490975878E+01
  0.4571736253780501E+01  0.4583318178830325E+01  0.4594906258832380E+01  0.4606500486509875E+01  0.4618100854602128E+01
  0.4629707355864519E+01  0.4641319983068446E+01  0.4652938729001256E+01  0.4664563586466210E+01  0.4676194548282419E+01
  0.4687831607284802E+01  0.4699474756324030E+01  0.4711123988266475E+01  0.4722779295994165E+01  0.4734440672404728E+01
  0.4746108110411337E+01  0.4757781602942678E+01  0.4769461142942875E+01  0.4781146723371468E+01  0.4792838337203340E+01
  0.4804535977428683E+01  0.4816239637052943E+01  0.4827949309096765E+01  0.4839664986595968E+01  0.4851386662601469E+01
  0.4863114330179243E+01  0.4874847982410285E+01  0.4886587612390557E+01  0.4898333213230940E+01  0.4910084778057178E+01
  0.4921842300009844E+01  0.4933605772244293E+01  0.4945375187930606E+01  0.4957150540253545E+01  0.4968931822412514E+01
  0.4980719027621509E+01  0.4992512149109070E+01  0.5004311180118235E+01  0.5016116113906501E+01  0.5027926943745774E+01
  0.5039743662922320E+01  0.5051566264736724E+01  0.5063394742503852E+01  0.5075229089552794E+01  0.5087069299226824E+01
  0.5098915364883362E+01  0.5110767279893921E+01  0.5122625037644066E+01  0.5134488631533379E+01  0.5146358054975400E+01
  0.5158233301397592E+01  0.5170114364241305E+01  0.5182001236961717E+01  0.5193893913027803E+01  0.5205792385922288E+01
  0.5217696649141605E+01  0.5229606696195860E+01  0.5241522520608772E+01  0.5253444115917655E+01  0.5265371475673351E+01
  0.5277304593440206E+01  0.5289243462796027E+01  0.5301188077332033E+01  0.5313138430652814E+01  0.5325094516376306E+01
  0.5337056328133730E+01  0.5349023859569558E+01  0.5360997104341482E+01  0.5372976056120358E+01  0.5384960708590177E+01
  0.5396951055448027E+01  0.5408947090404038E+01  0.5420948807181361E+01  0.5432956199516118E+01  0.5444969261157364E+01
  0.5456987985867048E+01  0.5469012367419976E+01  0.5481042399603771E+01  0.5493078076218830E+01  0.5505119391078293E+01
  0.5517166338008000E+01  0.5529218910846460E+01  0.5541277103444796E+01  0.5553340909666726E+01  0.5565410323388513E+01
  0.5577485338498934E+01  0.5589565948899238E+01  0.5601652148503113E+01  0.5613743931236637E+01  0.5625841291038271E+01
  0.5637944221858782E+01  0.5650052717661231E+01  0.5662166772420939E+01  0.5674286380125430E+01  0.5686411534774418E+01
  0.5698542230379753E+01  0.5710678460965399E+01  0.5722820220567382E+01  0.5734967503233775E+01  0.5747120303024643E+01
  0.5759278614012015E+01  0.5771442430279853E+01  0.5783611745924013E+01  0.5795786555052206E+01  0.5807966851783968E+01
  0.5820152630250626E+01  0.5832343884595263E+01  0.5844540608972678E+01  0.5856742797549357E+01  0.5868950444503438E+01
  0.5881163544024676E+01  0.5893382090314402E+01  0.5905606077585515E+01  0.5917835500062405E+01  0.5930070351980963E+01
  0.5942310627588524E+01  0.5954556321143833E+01  0.5966807426917021E+01  0.5979063939189563E+01  0.5991325852254261E+01
  0.6003593160415186E+01  0.6015865857987667E+01  0.6028143939298257E+01  0.6040427398684681E+01  0.6052716230495824E+01
  0.6065010429091693E+01  0.6077309988843379E+01  0.6089614904133034E+01  0.6101925169353833E+01  0.6114240778909944E+01
  0.6126561727216499E+01  0.6138888008699555E+01  0.6151219617796070E+01  0.6163556548953872E+01  0.6175898796631622E+01
  0.6188246355298786E+01  0.6200599219435611E+01  0.6212957383533078E+01  0.6225320842092885E+01  0.6237689589627418E+01
  0.6250063620659704E+01  0.6262442929723400E+01  0.6274827511362750E+01  0.6287217360132563E+01  0.6299612470598178E+01
  0.6312012837335432E+01  0.6324418454930638E+01  0.6336829317980551E+01  0.6349245421092335E+01  0.6361666758883540E+01
  0.6374093325982072E+01  0.6386525117026158E+01  0.6398962126664317E+01  0.6411404349555345E+01  0.6423851780368263E+01
  0.6436304413782311E+01  0.6448762244486909E+01  0.6461225267181621E+01  0.6473693476576138E+01  0.6486166867390246E+01
  0.6498645434353802E+01  0.6511129172206690E+01  0.6523618075698819E+01  0.6536112139590070E+01  0.6548611358650279E+01
  0.6561115727659217E+01  0.6573625241406546E+01  0.6586139894691801E+01  0.6598659682324367E+01  0.6611184599123439E+01
  0.6623714639918008E+01  0.6636249799546818E+01  0.6648790072858360E+01  0.6661335454710831E+01  0.6673885939972103E+01
  0.6686441523519708E+01  0.6699002200240808E+01  0.6711567965032166E+01  0.6724138812800114E+01  0.6736714738460545E+01
  0.6749295736938867E+01  0.6761881803169985E+01  0.6774472932098279E+01  0.6787069118677565E+01  0.6799670357871090E+01
  0.6812276644651488E+01  0.6824887974000756E+01  0.6837504340910239E+01  0.6850125740380594E+01  0.6862752167421776E+01
  0.6875383617052995E+01  0.6888020084302712E+01  0.6900661564208596E+01  0.6913308051817509E+01  0.6925959542185479E+01
  0.6938616030377665E+01  0.6951277511468361E+01  0.6963943980540933E+01  0.6976615432687820E+01  0.6989291863010509E+01
  0.7001973266619493E+01  0.7014659638634268E+01  0.7027350974183292E+01  0.7040047268403971E+01  0.7052748516442626E+01
  0.7065454713454484E+01  0.7078165854603636E+01  0.7090881935063027E+01  0.7103602950014426E+01  0.7116328894648399E+01
  0.7129059764164296E+01  0.7141795553770216E+01  0.7154536258682989E+01  0.7167281874128162E+01  0.7180032395339953E+01
  0.7192787817561251E+01  0.7205548136043577E+01  0.7218313346047069E+01  0.7231083442840457E+01  0.7243858421701043E+01
  0.7256638277914668E+01  0.7269423006775708E+01  0.7282212603587030E+01  0.7295007063659986E+01  0.7307806382314380E+01
  0.7320610554878456E+01  0.7333419576688863E+01  0.7346233443090644E+01  0.7359052149437197E+01  0.7371875691090291E+01
  0.7384704063419994E+01  0.7397537261804686E+01  0.7410375281631026E+01  0.7423218118293928E+01  0.7436065767196546E+01
  0.7448918223750242E+01  0.7461775483374576E+01  0.7474637541497279E+01  0.7487504393554236E+01  0.7500376034989450E+01
  0.7513252461255044E+01  0.7526133667811217E+01  0.7539019650126241E+01  0.7551910403676425E+01  0.7564805923946111E+01
  0.7577706206427634E+01  0.7590611246621319E+01  0.7603521040035446E+01  0.7616435582186238E+01  0.7629354868597837E+01
  0.7642278894802284E+01  0.7655207656339503E+01  0.7668141148757267E+01  0.7681079367611196E+01  0.7694022308464727E+01
  0.7706969966889089E+01  0.7719922338463294E+01  0.7732879418774113E+01  0.7745841203416045E+01  0.7758807687991319E+01
  0.7771778868109853E+01  0.7784754739389248E+01  0.7797735297454761E+01  0.7810720537939293E+01  0.7823710456483357E+01
  0.7836705048735070E+01  0.7849704310350128E+01  0.7862708236991791E+01  0.7875716824330855E+01  0.7888730068045640E+01
  0.7901747963821975E+01  0.7914770507353170E+01  0.7927797694339998E+01  0.7940829520490680E+01  0.7953865981520863E+01
  0.7966907073153603E+01  0.7979952791119351E+01  0.7993003131155919E+01  0.8006058089008478E+01  0.8019117660429529E+01
  0.8032181841178899E+01  0.8045250627023695E+01  0.8058324013738309E+01  0.8071401997104401E+01  0.8084484572910862E+01
  0.8097571736953810E+01  0.8110663485036568E+01  0.8123759812969649E+01  0.8136860716570730E+01  0.8149966191664646E+01
  0.8163076234083356E+01  0.8176190839665946E+01  0.8189310004258584E+01  0.8202433723714526E+01  0.8215561993894104E+01
  0.8228694810664667E+01  0.8241832169900606E+01  0.8254974067483330E+01  0.8268120499301222E+01  0.8281271461249647E+01
  0.8294426949230930E+01  0.8307586959154333E+01  0.8320751486936038E+01  0.8333920528499135E+01  0.8347094079773607E+01
  0.8360272136696299E+01  0.8373454695210915E+01  0.8386641751267998E+01  0.8399833300824911E+01  0.8413029339845808E+01
  0.8426229864301652E+01  0.8439434870170164E+01  0.8452644353435810E+01  0.8465858310089802E+01  0.8479076736130082E+01
  0.8492299627561282E+01  0.8505526980394709E+01  0.8518758790648375E+01  0.8531995054346920E+01  0.8545235767521625E+01
  0.8558480926210395E+01  0.8571730526457753E+01  0.8584984564314789E+01  0.8598243035839186E+01  0.8611505937095172E+01
  0.8624773264153525E+01  0.8638045013091542E+01  0.8651321179993028E+01  0.8664601760948283E+01  0.8677886752054095E+01
  0.8691176149413701E+01  0.8704469949136790E+01  0.8717768147339482E+01  0.8731070740144309E+01  0.8744377723680202E+01
  0.8757689094082489E+01  0.8771004847492845E+01  0.8784324980059315E+01  0.8797649487936276E+01  0.8810978367284431E+01
  0.8824311614270787E+01  0.8837649225068638E+01  0.8850991195857569E+01  0.8864337522823423E+01  0.8877688202158270E+01
  0.8891043230060442E+01  0.8904402602734466E+01  0.8917766316391088E+01  0.8931134367247221E+01  0.8944506751525971E+01
  0.8957883465456593E+01  0.8971264505274480E+01  0.8984649867221158E+01  0.8998039547544264E+01  0.9011433542497539E+01
  0.9024831848340810E+01  0.9038234461339957E+01  0.9051641377766940E+01  0.9065052593899745E+01  0.9078468106022392E+01
  0.9091887910424902E+01  0.9105312003403297E+01  0.9118740381259602E+01  0.9132173040301797E+01  0.9145609976843804E+01
  0.9159051187205517E+01  0.9172496667712728E+01  0.9185946414697165E+01  0.9199400424496448E+01  0.9212858693454072E+01
  0.9226321217919418E+01  0.9239787994247729E+01  0.9253259018800065E+01  0.9266734287943354E+01  0.9280213798050305E+01
  0.9293697545499459E+01  0.9307185526675129E+01  0.9320677737967408E+01  0.9334174175772155E+01  0.9347674836490974E+01
  0.9361179716531208E+01  0.9374688812305923E+01  0.9388202120233881E+01  0.9401719636739553E+01  0.9415241358253093E+01
  0.9428767281210318E+01  0.9442297402052695E+01  0.9455831717227344E+01  0.9469370223187013E+01  0.9482912916390065E+01
  0.9496459793300453E+01  0.9510010850387749E+01  0.9523566084127074E+01  0.9537125490999129E+01  0.9550689067490159E+01
  0.9564256810091958E+01  0.9577828715301838E+01  0.9591404779622614E+01  0.9604984999562625E+01  0.9618569371635674E+01
  0.9632157892361063E+01  0.9645750558263536E+01  0.9659347365873293E+01  0.9672948311725975E+01  0.9686553392362645E+01
  0.9700162604329780E+01  0.9713775944179250E+01  0.9727393408468325E+01  0.9741014993759649E+01  0.9754640696621211E+01
  0.9768270513626369E+01  0.9781904441353806E+01  0.9795542476387554E+01  0.9809184615316934E+01  0.9822830854736582E+01
  0.9836481191246412E+01  0.9850135621451637E+01  0.9863794141962716E+01  0.9877456749395373E+01  0.9891123440370565E+01
  0.9904794211514485E+01  0.9918469059458547E+01  0.9932147980839364E+01  0.9945830972298740E+01  0.9959518030483681E+01
  0.9973209152046346E+01  0.9986904333644059E+01  0.1000060357193929E+02  0.1001430686359965E+02  0.1002801420529786E+02
  0.1004172559371178E+02  0.1005544102552433E+02  0.1006916049742359E+02  0.1008288400610263E+02  0.1009661154825965E+02
  0.1011034312059789E+02  0.1012407871982562E+02  0.1013781834265616E+02  0.1015156198580785E+02  0.1016530964600402E+02
  0.1017906131997304E+02  0.1019281700444822E+02  0.1020657669616788E+02  0.1022034039187528E+02  0.1023410808831868E+02
  0.1024787978225124E+02  0.1026165547043106E+02  0.1027543514962116E+02  0.1028921881658950E+02  0.1030300646810891E+02
  0.1031679810095711E+02  0.1033059371191670E+02  0.1034439329777518E+02  0.1035819685532485E+02  0.1037200438136288E+02
  0.1038581587269131E+02  0.1039963132611694E+02  0.1041345073845144E+02  0.1042727410651125E+02  0.1044110142711761E+02
  0.1045493269709654E+02  0.1046876791327883E+02  0.1048260707250005E+02  0.1049645017160049E+02  0.1051029720742521E+02
  0.1052414817682396E+02  0.1053800307665125E+02  0.1055186190376627E+02  0.1056572465503293E+02  0.1057959132731980E+02
  0.1059346191750016E+02  0.1060733642245193E+02  0.1062121483905770E+02  0.1063509716420471E+02  0.1064898339478482E+02
  0.1066287352769455E+02  0.1067676755983499E+02  0.1069066548811188E+02  0.1070456730943553E+02  0.1071847302072084E+02
  0.1073238261888730E+02  0.1074629610085894E+02  0.1076021346356437E+02  0.1077413470393675E+02  0.1078805981891376E+02
  0.1080198880543762E+02  0.1081592166045504E+02  0.1082985838091727E+02  0.1084379896378005E+02  0.1085774340600359E+02
  0.1087169170455260E+02  0.1088564385639626E+02  0.1089959985850818E+02  0.1091355970786644E+02  0.1092752340145357E+02
  0.1094149093625650E+02  0.1095546230926661E+02  0.1096943751747968E+02  0.1098341655789587E+02  0.1099739942751977E+02
  0.1101138612336034E+02  0.1102537664243088E+02  0.1103937098174911E+02  0.1105336913833707E+02  0.1106737110922114E+02
  0.1108137689143206E+02  0.1109538648200485E+02  0.1110939987797893E+02  0.1112341707639796E+02  0.1113743807430991E+02
  0.1115146286876704E+02  0.1116549145682592E+02  0.1117952383554736E+02  0.1119356000199644E+02  0.1120759995324250E+02
  0.1122164368635911E+02  0.1123569119842410E+02  0.1124974248651950E+02  0.1126379754773157E+02  0.1127785637915077E+02
  0.1129191897787180E+02  0.1130598534099347E+02  0.1132005546561886E+02  0.1133412934885515E+02  0.1134820698781373E+02
  0.1136228837961013E+02  0.1137637352136404E+02  0.1139046241019926E+02  0.1140455504324373E+02  0.1141865141762953E+02
  0.1143275153049283E+02  0.1144685537897390E+02  0.1146096296021713E+02  0.1147507427137098E+02  0.1148918930958798E+02
  0.1150330807202474E+02  0.1151743055584192E+02  0.1153155675820423E+02  0.1154568667628045E+02  0.1155982030724337E+02
  0.1157395764826981E+02  0.1158809869654062E+02  0.1160224344924063E+02  0.1161639190355871E+02  0.1163054405668769E+02
  0.1164469990582441E+02  0.1165885944816966E+02  0.1167302268092823E+02  0.1168718960130884E+02  0.1170136020652418E+02
  0.1171553449379086E+02  0.1172971246032947E+02  0.1174389410336448E+02  0.1175807942012431E+02  0.1177226840784127E+02
  0.1178646106375159E+02  0.1180065738509536E+02  0.1181485736911661E+02  0.1182906101306322E+02  0.1184326831418693E+02
  0.1185747926974336E+02  0.1187169387699197E+02  0.1188591213319608E+02  0.1190013403562284E+02  0.1191435958154324E+02
  0.1192858876823209E+02  0.1194282159296801E+02  0.1195705805303342E+02  0.1197129814571455E+02  0.1198554186830143E+02
  0.1199978921808786E+02  0.1201404019237143E+02  0.1202829478845347E+02  0.1204255300363910E+02  0.1205681483523718E+02
  0.1207108028056032E+02  0.1208534933692487E+02  0.1209962200165089E+02  0.1211389827206219E+02  0.1212817814548629E+02
  0.1214246161925440E+02  0.1215674869070143E+02  0.1217103935716601E+02  0.1218533361599043E+02  0.1219963146452066E+02
  0.1221393290010635E+02  0.1222823792010081E+02  0.1224254652186098E+02  0.1225685870274750E+02  0.1227117446012459E+02
  0.1228549379136015E+02  0.1229981669382568E+02  0.1231414316489632E+02  0.1232847320195078E+02  0.1234280680237142E+02
  0.1235714396354417E+02  0.1237148468285855E+02  0.1238582895770767E+02  0.1240017678548822E+02  0.1241452816360044E+02
  0.1242888308944814E+02  0.1244324156043868E+02  0.1245760357398298E+02  0.1247196912749548E+02  0.1248633821839415E+02
  0.1250071084410050E+02  0.1251508700203956E+02  0.1252946668963985E+02  0.1254384990433341E+02  0.1255823664355577E+02
  0.1257262690474595E+02  0.1258702068534646E+02  0.1260141798280329E+02  0.1261581879456586E+02  0.1263022311808711E+02
  0.1264463095082338E+02  0.1265904229023451E+02  0.1267345713378373E+02  0.1268787547893774E+02  0.1270229732316666E+02
  0.1271672266394403E+02  0.1273115149874679E+02  0.1274558382505530E+02  0.1276001964035334E+02  0.1277445894212804E+02
  0.1278890172786995E+02  0.1280334799507299E+02  0.1281779774123445E+02  0.1283225096385499E+02  0.1284670766043865E+02
  0.1286116782849278E+02  0.1287563146552812E+02  0.1289009856905872E+02  0.1290456913660199E+02  0.1291904316567866E+02
  0.1293352065381275E+02  0.1294800159853164E+02  0.1296248599736599E+02  0.1297697384784977E+02  0.1299146514752025E+02
  0.1300595989391798E+02  0.1302045808458679E+02  0.1303495971707380E+02  0.1304946478892937E+02  0.1306397329770717E+02
  0.1307848524096406E+02  0.1309300061626023E+02  0.1310751942115904E+02  0.1312204165322714E+02  0.1313656731003438E+02
  0.1315109638915385E+02  0.1316562888816185E+02  0.1318016480463791E+02  0.1319470413616473E+02  0.1320924688032825E+02
  0.1322379303471757E+02  0.1323834259692501E+02  0.1325289556454604E+02  0.1326745193517934E+02  0.1328201170642672E+02
  0.1329657487589316E+02  0.1331114144118684E+02  0.1332571139991903E+02  0.1334028474970419E+02  0.1335486148815989E+02
  0.1336944161290685E+02  0.1338402512156891E+02  0.1339861201177304E+02  0.1341320228114929E+02  0.1342779592733086E+02
  0.1344239294795403E+02  0.1345699334065817E+02  0.1347159710308577E+02  0.1348620423288238E+02  0.1350081472769664E+02
  0.1351542858518024E+02  0.1353004580298798E+02  0.1354466637877766E+02  0.1355929031021020E+02  0.1357391759494954E+02
  0.1358854823066264E+02  0.1360318221501953E+02  0.1361781954569327E+02  0.1363246022035992E+02  0.1364710423669860E+02
  0.1366175159239140E+02  0.1367640228512347E+02  0.1369105631258290E+02  0.1370571367246082E+02  0.1372037436245136E+02
  0.1373503838025162E+02  0.1374970572356166E+02  0.1376437639008453E+02  0.1377905037752627E+02  0.1379372768359586E+02
  0.1380840830600524E+02  0.1382309224246930E+02  0.1383777949070590E+02  0.1385247004843581E+02  0.1386716391338274E+02
  0.1388186108327336E+02  0.1389656155583722E+02  0.1391126532880682E+02  0.1392597239991758E+02  0.1394068276690778E+02
  0.1395539642751865E+02  0.1397011337949430E+02  0.1398483362058174E+02  0.1399955714853085E+02  0.1401428396109440E+02
  0.1402901405602804E+02  0.1404374743109028E+02  0.1405848408404249E+02  0.1407322401264891E+02  0.1408796721467665E+02
  0.1410271368789562E+02  0.1411746343007862E+02  0.1413221643900127E+02  0.1414697271244200E+02  0.1416173224818213E+02
  0.1417649504400572E+02  0.1419126109769971E+02  0.1420603040705382E+02  0.1422080296986059E+02  0.1423557878391535E+02
  0.1425035784701624E+02  0.1426514015696417E+02  0.1427992571156285E+02  0.1429471450861878E+02  0.1430950654594120E+02
  0.1432430182134216E+02  0.1433910033263644E+02  0.1435390207764162E+02  0.1436870705417798E+02  0.1438351526006859E+02
  0.1439832669313926E+02  0.1441314135121853E+02  0.1442795923213768E+02  0.1444278033373069E+02  0.1445760465383433E+02
  0.1447243219028802E+02  0.1448726294093392E+02  0.1450209690361693E+02  0.1451693407618460E+02  0.1453177445648721E+02
  0.1454661804237773E+02  0.1456146483171181E+02  0.1457631482234781E+02  0.1459116801214673E+02  0.1460602439897227E+02
  0.1462088398069080E+02  0.1463574675517136E+02  0.1465061272028561E+02  0.1466548187390791E+02  0.1468035421391526E+02
  0.1469522973818728E+02  0.1471010844460626E+02  0.1472499033105712E+02  0.1473987539542738E+02  0.1475476363560724E+02
  0.1476965504948947E+02  0.1478454963496949E+02  0.1479944738994530E+02  0.1481434831231755E+02  0.1482925239998946E+02
  0.1484415965086685E+02  0.1485907006285813E+02  0.1487398363387432E+02  0.1488890036182900E+02  0.1490382024463834E+02
  0.1491874328022107E+02  0.1493366946649852E+02  0.1494859880139454E+02  0.1496353128283559E+02  0.1497846690875064E+02
  0.1499340567707124E+02  0.1500834758573146E+02  0.1502329263266795E+02  0.1503824081581985E+02  0.1505319213312887E+02
  0.1506814658253925E+02  0.1508310416199770E+02  0.1509806486945350E+02  0.1511302870285844E+02  0.1512799566016679E+02
  0.1514296573933537E+02  0.1515793893832346E+02  0.1517291525509284E+02  0.1518789468760781E+02  0.1520287723383512E+02
  0.1521786289174405E+02  0.1523285165930630E+02  0.1524784353449608E+02  0.1526283851529008E+02  0.1527783659966743E+02
  0.1529283778560973E+02  0.1530784207110102E+02  0.1532284945412782E+02  0.1533785993267907E+02  0.1535287350474619E+02
  0.1536789016832299E+02  0.1538290992140576E+02  0.1539793276199318E+02  0.1541295868808640E+02  0.1542798769768894E+02
  0.1544301978880677E+02  0.1545805495944829E+02  0.1547309320762426E+02  0.1548813453134787E+02  0.1550317892863472E+02
  0.1551822639750279E+02  0.1553327693597245E+02  0.1554833054206646E+02  0.1556338721380999E+02  0.1557844694923054E+02
  0.1559350974635802E+02  0.1560857560322470E+02  0.1562364451786521E+02  0.1563871648831656E+02  0.1565379151261809E+02
  0.1566886958881152E+02  0.1568395071494092E+02  0.1569903488905267E+02  0.1571412210919554E+02  0.1572921237342059E+02
  0.1574430567978126E+02  0.1575940202633328E+02  0.1577450141113472E+02  0.1578960383224598E+02  0.1580470928772976E+02
  0.1581981777565109E+02  0.1583492929407729E+02  0.1585004384107801E+02  0.1586516141472516E+02  0.1588028201309299E+02
  0.1589540563425801E+02  0.1591053227629904E+02  0.1592566193729717E+02  0.1594079461533580E+02  0.1595593030850056E+02
  0.1597106901487938E+02  0.1598621073256247E+02  0.1600135545964228E+02  0.1601650319421353E+02  0.1603165393437319E+02
  0.1604680767822051E+02  0.1606196442385696E+02  0.1607712416938626E+02  0.1609228691291439E+02  0.1610745265254954E+02
  0.1612262138640215E+02  0.1613779311258489E+02  0.1615296782921265E+02  0.1616814553440255E+02  0.1618332622627391E+02
  0.1619850990294830E+02  0.1621369656254945E+02  0.1622888620320334E+02  0.1624407882303814E+02  0.1625927442018421E+02
  0.1627447299277410E+02  0.1628967453894258E+02  0.1630487905682658E+02  0.1632008654456523E+02  0.1633529700029982E+02
  0.1635051042217385E+02  0.1636572680833297E+02  0.1638094615692499E+02  0.1639616846609991E+02  0.1641139373400986E+02
  0.1642662195880917E+02  0.1644185313865428E+02  0.1645708727170383E+02  0.1647232435611854E+02  0.1648756439006135E+02
  0.1650280737169727E+02  0.1651805329919349E+02  0.1653330217071931E+02  0.1654855398444619E+02  0.1656380873854766E+02
  0.1657906643119943E+02  0.1659432706057928E+02  0.1660959062486713E+02  0.1662485712224502E+02  0.1664012655089706E+02
  0.1665539890900951E+02  0.1667067419477068E+02  0.1668595240637101E+02  0.1670123354200303E+02  0.1671651759986135E+02
  0.1673180457814267E+02  0.1674709447504576E+02  0.1676238728877149E+02  0.1677768301752279E+02  0.1679298165950466E+02
  0.1680828321292417E+02  0.1682358767599047E+02  0.1683889504691475E+02  0.1685420532391027E+02  0.1686951850519233E+02
  0.1688483458897829E+02  0.1690015357348757E+02  0.1691547545694162E+02  0.1693080023756391E+02  0.1694612791358000E+02
  0.1696145848321742E+02  0.1697679194470578E+02  0.1699212829627669E+02  0.1700746753616378E+02  0.1702280966260273E+02
  0.1703815467383121E+02  0.1705350256808890E+02  0.1706885334361751E+02  0.1708420699866074E+02  0.1709956353146429E+02
  0.1711492294027587E+02  0.1713028522334521E+02  0.1714565037892397E+02  0.1716101840526586E+02  0.1717638930062653E+02
  0.1719176306326366E+02  0.1720713969143686E+02  0.1722251918340776E+02  0.1723790153743994E+02  0.1725328675179894E+02
  0.1726867482475230E+02  0.1728406575456948E+02  0.1729945953952194E+02  0.1731485617788307E+02  0.1733025566792822E+02
  0.1734565800793471E+02  0.1736106319618177E+02  0.1737647123095061E+02  0.1739188211052435E+02  0.1740729583318807E+02
  0.1742271239722876E+02  0.1743813180093538E+02  0.1745355404259877E+02  0.1746897912051174E+02  0.1748440703296898E+02
  0.1749983777826713E+02  0.1751527135470472E+02  0.1753070776058222E+02  0.1754614699420198E+02  0.1756158905386827E+02
  0.1757703393788727E+02  0.1759248164456704E+02  0.1760793217221755E+02  0.1762338551915065E+02  0.1763884168368011E+02
  0.1765430066412154E+02  0.1766976245879248E+02  0.1768522706601232E+02  0.1770069448410233E+02  0.1771616471138568E+02
  0.1773163774618739E+02  0.1774711358683434E+02  0.1776259223165528E+02  0.1777807367898086E+02  0.1779355792714353E+02
  0.1780904497447764E+02  0.1782453481931937E+02  0.1784002746000675E+02  0.1785552289487968E+02  0.1787102112227989E+02
  0.1788652214055093E+02  0.1790202594803823E+02  0.1791753254308902E+02  0.1793304192405237E+02  0.1794855408927919E+02
  0.1796406903712222E+02  0.1797958676593599E+02  0.1799510727407690E+02  0.1801063055990312E+02  0.1802615662177467E+02
  0.1804168545805336E+02  0.1805721706710282E+02  0.1807275144728846E+02  0.1808828859697753E+02  0.1810382851453907E+02
  0.1811937119834390E+02  0.1813491664676463E+02  0.1815046485817570E+02  0.1816601583095329E+02  0.1818156956347539E+02
  0.1819712605412179E+02  0.1821268530127401E+02  0.1822824730331541E+02  0.1824381205863106E+02  0.1825937956560784E+02
  0.1827494982263439E+02  0.1829052282810111E+02  0.1830609858040016E+02  0.1832167707792549E+02  0.1833725831907275E+02
  0.1835284230223941E+02  0.1836842902582461E+02  0.1838401848822934E+02  0.1839961068785624E+02  0.1841520562310975E+02
  0.1843080329239602E+02  0.1844640369412298E+02  0.1846200682670024E+02  0.1847761268853915E+02  0.1849322127805284E+02
  0.1850883259365612E+02  0.1852444663376553E+02  0.1854006339679933E+02  0.1855568288117751E+02  0.1857130508532176E+02
  0.1858693000765550E+02  0.1860255764660385E+02  0.1861818800059362E+02  0.1863382106805335E+02  0.1864945684741328E+02
  0.1866509533710533E+02  0.1868073653556314E+02  0.1869638044122201E+02  0.1871202705251897E+02  0.1872767636789270E+02
  0.1874332838578359E+02  0.1875898310463372E+02  0.1877464052288682E+02  0.1879030063898833E+02  0.1880596345138532E+02
  0.1882162895852660E+02  0.1883729715886259E+02  0.1885296805084539E+02  0.1886864163292879E+02  0.1888431790356820E+02
  0.1889999686122072E+02  0.1891567850434512E+02  0.1893136283140177E+02  0.1894704984085273E+02  0.1896273953116171E+02
  0.1897843190079406E+02  0.1899412694821675E+02  0.1900982467189843E+02  0.1902552507030937E+02  0.1904122814192146E+02
  0.5646516389873085E+02  0.5646516389873085E+02  0.5646516389873085E+02  0.5646516389873085E+02  0.5646516389873085E+02
  0.5646516389873085E+02  0.5646516389873085E+02  0.5646516389873085E+02  0.5646516389873085E+02  0.5646516389873085E+02
  0.5646516389873085E+02  0.5646516389873085E+02  0.5646516389873085E+02  0.5646516389873085E+02  0.5646516389873085E+02
  0.5646516389873085E+02  0.5646516389873085E+02  0.5646516389873085E+02  0.5646516389873085E+02  0.5646516389873085E+02
  0.5646516389873085E+02  0.5646516389873085E+02  0.5646516389873085E+02  0.5646516389873085E+02  0.5646516389873085E+02
  0.5646516389873085E+02  0.5646516389873085E+02  0.5646516389873085E+02  0.5646516389873085E+02  0.5646516389873085E+02
  0.5646516389873085E+02  0.5646516389873085E+02  0.5646516389873085E+02  0.5646516389873085E+02  0.5646516389873085E+02
  0.5646516389873085E+02  0.5646516389873085E+02  0.5646516389873085E+02  0.5646516389873085E+02  0.5646516389873085E+02
  0.5646516389873085E+02  0.5646516389873085E+02  0.5646516389873085E+02  0.5646516389873085E+02  0.5646516389873085E+02
  0.5646516389873085E+02  0.5646516389873085E+02  0.5646516389873085E+02  0.5646516389873085E+02  0.5646516389873085E+02
  0.5646516389873085E+02  0.5646516389873085E+02  0.5646516389873085E+02  0.5646516389873085E+02  0.5646516389873085E+02
  0.5646516389873085E+02  0.5646516389873085E+02  0.5646516389873085E+02  0.5646516389873085E+02  0.5646516389873085E+02
  0.5646516389873085E+02  0.5646516389873085E+02  0.5646516389873085E+02  0.5646516389873085E+02  0.5646516389873085E+02
  0.5646516389873085E+02  0.5646516389873085E+02  0.5646516389873085E+02  0.5646516389873085E+02  0.5646516389873085E+02
  0.5646516389873085E+02  0.5646516389873085E+02  0.5646516389873085E+02  0.5646516389873085E+02  0.5646516389873085E+02
  0.5646516389873085E+02  0.5646516389873085E+02  0.5646516389873085E+02  0.5646516389873085E+02  0.5646516389873085E+02
  0.5646516389873085E+02  0.5646516389873085E+02  0.5646516389873085E+02  0.5646516389873085E+02  0.5646516389873085E+02
  0.5646516389873085E+02  0.5646516389873085E+02  0.5646516389873085E+02  0.5646516389873085E+02  0.5646516389873085E+02
  0.5646516389873085E+02  0.5646516389873085E+02  0.5646516389873085E+02  0.5646516389873085E+02  0.5646516389873085E+02
  0.5646516389873085E+02  0.5646516389873085E+02  0.5646516389873085E+02  0.5646516389873085E+02  0.5646516389873085E+02
  0.5646516389873085E+02  0.5646516389873085E+02  0.5646516389873085E+02  0.5646516389873085E+02  0.5646516389873085E+02
  0.5646516389873085E+02  0.5646516389873085E+02  0.5646516389873085E+02  0.5646516389873085E+02  0.5646516389873085E+02
  0.5646516389873085E+02  0.5646516389873085E+02  0.5646516389873085E+02  0.5646516389873085E+02  0.5646516389873085E+02
  0.5646516389873085E+02  0.5646516389873085E+02  0.5646516389873085E+02  0.5646516389873085E+02  0.5646516389873085E+02
  0.5646516389873085E+02  0.5646516389873085E+02  0.5646516389873085E+02  0.5646516389873085E+02  0.5646516389873085E+02
  0.5646516389873085E+02  0.5646516389873085E+02  0.5646516389873085E+02  0.5637360198458479E+02  0.5604601320630331E+02
  0.5572032310866089E+02  0.5539652087301232E+02  0.5507459573561980E+02  0.5475453698761252E+02  0.5443633397493753E+02
  0.5411997609830195E+02  0.5380545281310624E+02  0.5349275362936995E+02  0.5318186811164912E+02  0.5287278587894691E+02
  0.5256549660461634E+02  0.5225999001625684E+02  0.5195625589560354E+02  0.5165428407841075E+02  0.5135406445432931E+02
  0.5105558696677782E+02  0.5075884161280877E+02  0.5046381844296881E+02  0.5017050756115447E+02  0.4987889912446275E+02
  0.4958898334303706E+02  0.4930075047990879E+02  0.4901419085083445E+02  0.4872929482412911E+02  0.4844605282049574E+02
  0.4816445531285089E+02  0.4788449282614687E+02  0.4760615593719067E+02  0.4732943527445978E+02  0.4705432151791481E+02
  0.4678080539880938E+02  0.4650887769949717E+02  0.4623852925323683E+02  0.4596975094399367E+02  0.4570253370624015E+02
  0.4543686852475304E+02  0.4517274643440938E+02  0.4491015851998031E+02  0.4464909591592289E+02  0.4438954980617049E+02
  0.4413151142392136E+02  0.4387497205142591E+02  0.4361992301977268E+02  0.4336635570867275E+02  0.4311426154624321E+02
  0.4286363200878925E+02  0.4261445862058574E+02  0.4236673295365740E+02  0.4212044662755821E+02  0.4187559130915035E+02
  0.4163215871238208E+02  0.4139014059806525E+02  0.4114952877365215E+02  0.4091031509301187E+02  0.4067249145620625E+02
  0.4043604980926548E+02  0.4020098214396351E+02  0.3996728049759302E+02  0.3973493695274035E+02  0.3950394363706014E+02
  0.3927429272305017E+02  0.3904597642782593E+02  0.3881898701289510E+02  0.3859331678393261E+02  0.3836895809055507E+02
  0.3814590332609606E+02  0.3792414492738111E+02  0.3770367537450298E+02  0.3748448719059754E+02  0.3726657294161950E+02
  0.3704992523611881E+02  0.3683453672501707E+02  0.3662040010138485E+02  0.3640750810021882E+02  0.3619585349821992E+02
  0.3598542911357157E+02  0.3577622780571862E+02  0.3556824247514673E+02  0.3536146606316230E+02  0.3515589155167320E+02
  0.3495151196296975E+02  0.3474832035950657E+02  0.3454630984368492E+02  0.3434547355763588E+02  0.3414580468300407E+02
  0.3394729644073207E+02  0.3374994209084561E+02  0.3355373493223950E+02  0.3335866830246412E+02  0.3316473557751303E+02
  0.3297193017161095E+02  0.3278024553700284E+02  0.3258967516374351E+02  0.3240021257948828E+02  0.3221185134928424E+02
  0.3202458507536261E+02  0.3183840739693152E+02  0.3165331198997010E+02  0.3146929256702309E+02  0.3128634287699647E+02
  0.3110445670495394E+02  0.3092362787191417E+02  0.3074385023464907E+02  0.3056511768548296E+02  0.3038742415209238E+02
  0.3021076359730719E+02  0.3003513001891226E+02  0.2986051744945018E+02  0.2968691995602493E+02  0.2951433164010639E+02
  0.2934274663733576E+02  0.2917215911733198E+02  0.2900256328349898E+02  0.2883395337283401E+02  0.2866632365573673E+02
  0.2849966843581923E+02  0.2833398204971718E+02  0.2816925886690163E+02  0.2800549328949214E+02  0.2784267975207030E+02
  0.2768081272149467E+02  0.2751988669671643E+02  0.2735989620859604E+02  0.2720083581972078E+02  0.2704270012422316E+02
  0.2688548374760050E+02  0.2672918134653518E+02  0.2657378760871602E+02  0.2641929725266052E+02  0.2626570502753787E+02
  0.2611300571299323E+02  0.2596119411897267E+02  0.2581026508554904E+02  0.2566021348274904E+02  0.2551103421038075E+02
  0.2536272219786257E+02  0.2521527240405273E+02  0.2506867981707985E+02  0.2492293945417448E+02  0.2477804636150135E+02
  0.2463399561399270E+02  0.2449078231518252E+02  0.2434840159704160E+02  0.2420684861981351E+02  0.2406611857185147E+02
  0.2392620666945618E+02  0.2378710815671452E+02  0.2364881830533903E+02  0.2351133241450838E+02  0.2337464581070878E+02
  0.2323875384757606E+02  0.2310365190573894E+02  0.2296933539266277E+02  0.2283579974249455E+02  0.2270304041590844E+02
  0.2257105289995253E+02  0.2243983270789607E+02  0.2230937537907783E+02  0.2217967647875517E+02  0.2205073159795406E+02
  0.2192253635331984E+02  0.2179508638696894E+02  0.2166837736634124E+02  0.2154240498405353E+02  0.2141716495775358E+02
  0.2129265302997513E+02  0.2116886496799370E+02  0.2104579656368314E+02  0.2092344363337316E+02  0.2080180201770748E+02
  0.2068086758150286E+02  0.2056063621360905E+02  0.2044110382676931E+02  0.2032226635748189E+02  0.2020411976586229E+02
  0.2008666003550620E+02  0.1996988317335338E+02  0.1985378520955210E+02  0.1973836219732463E+02  0.1962361021283328E+02
  0.1950952535504727E+02  0.1939610374561043E+02  0.1928334152870953E+02  0.1917123487094349E+02  0.1905977996119334E+02
  0.1894897301049270E+02  0.1883881025189938E+02  0.1872928794036736E+02  0.1862040235261981E+02  0.1851214978702254E+02
  0.1840452656345844E+02  0.1829752902320249E+02  0.1819115352879750E+02  0.1808539646393076E+02  0.1798025423331098E+02
  0.1787572326254642E+02  0.1777179999802340E+02  0.1766848090678565E+02  0.1756576247641430E+02  0.1746364121490858E+02
  0.1736211365056722E+02  0.1726117633187053E+02  0.1716082582736314E+02  0.1706105872553748E+02  0.1696187163471781E+02
  0.1686326118294507E+02  0.1676522401786229E+02  0.1666775680660070E+02  0.1657085623566651E+02  0.1647451901082831E+02
  0.1637874185700515E+02  0.1628352151815530E+02  0.1618885475716553E+02  0.1609473835574122E+02  0.1600116911429688E+02
  0.1590814385184754E+02  0.1581565940590060E+02  0.1572371263234836E+02  0.1563230040536121E+02  0.1554141961728137E+02
  0.1545106717851724E+02  0.1536124001743853E+02  0.1527193508027175E+02  0.1518314933099647E+02  0.1509487975124213E+02
  0.1500712334018548E+02  0.1491987711444857E+02  0.1483313810799737E+02  0.1474690337204089E+02  0.1466116997493107E+02
  0.1457593500206307E+02  0.1449119555577622E+02  0.1440694875525553E+02  0.1432319173643374E+02  0.1423992165189403E+02
  0.1415713567077321E+02  0.1407483097866551E+02  0.1399300477752685E+02  0.1391165428557982E+02  0.1383077673721910E+02
  0.1375036938291740E+02  0.1367042948913209E+02  0.1359095433821220E+02  0.1351194122830606E+02  0.1343338747326951E+02
  0.1335529040257452E+02  0.1327764736121845E+02  0.1320045570963382E+02  0.1312371282359851E+02  0.1304741609414663E+02
  0.1297156292747981E+02  0.1289615074487900E+02  0.1282117698261683E+02  0.1274663909187047E+02  0.1267253453863497E+02
  0.1259886080363714E+02  0.1252561538224989E+02  0.1245279578440706E+02  0.1238039953451884E+02  0.1230842417138756E+02
  0.1223686724812405E+02  0.1216572633206446E+02  0.1209499900468751E+02  0.1202468286153235E+02  0.1195477551211679E+02
  0.1188527457985602E+02  0.1181617770198181E+02  0.1174748252946222E+02  0.1167918672692178E+02  0.1161128797256197E+02
  0.1154378395808241E+02  0.1147667238860237E+02  0.1140995098258268E+02  0.1134361747174829E+02  0.1127766960101103E+02
  0.1121210512839303E+02  0.1114692182495050E+02  0.1108211747469790E+02  0.1101768987453269E+02  0.1095363683416036E+02
  0.1088995617601998E+02  0.1082664573521023E+02  0.1076370335941573E+02  0.1070112690883393E+02  0.1063891425610232E+02
  0.1057706328622612E+02  0.1051557189650642E+02  0.1045443799646862E+02  0.1039365950779145E+02  0.1033323436423623E+02
  0.1027316051157670E+02  0.1021343590752914E+02  0.1015405852168295E+02  0.1009502633543164E+02  0.1003633734190419E+02
  0.9977989545896802E+01  0.9919980963805141E+01  0.9862309623556824E+01  0.9804973564544424E+01  0.9747970837558798E+01
  0.9691299504722823E+01  0.9634957639425526E+01  0.9578943326256589E+01  0.9523254660941197E+01  0.9467889750275351E+01
  0.9412846712061461E+01  0.9358123675044414E+01  0.9303718778847895E+01  0.9249630173911179E+01  0.9195856021426239E+01
  0.9142394493275253E+01  0.9089243771968443E+01  0.9036402050582272E+01  0.8983867532698035E+01  0.8931638432340794E+01
  0.8879712973918629E+01  0.8828089392162324E+01  0.8776765932065295E+01  0.8725740848823989E+01  0.8675012407778510E+01
  0.8624578884353692E+01  0.8574438564000445E+01  0.8524589742137474E+01  0.8475030724093338E+01  0.8425759825048809E+01
  0.8376775369979629E+01  0.8328075693599557E+01  0.8279659140303734E+01  0.8231524064112431E+01  0.8183668828615069E+01
  0.8136091806914573E+01  0.8088791381572134E+01  0.8041765944552118E+01  0.7995013897167495E+01  0.7948533650025422E+01
  0.7902323622973255E+01  0.7856382245044798E+01  0.7810707954406912E+01  0.7765299198306421E+01  0.7720154433017318E+01
  0.7675272123788280E+01  0.7630650744790496E+01  0.7586288779065801E+01  0.7542184718475101E+01  0.7498337063647103E+01
  0.7454744323927335E+01  0.7411405017327471E+01  0.7368317670474965E+01  0.7325480818562935E+01  0.7282893005300398E+01
  0.7240552782862726E+01  0.7198458711842447E+01  0.7156609361200321E+01  0.7115003308216644E+01  0.7073639138442949E+01
  0.7032515445653857E+01  0.6991630831799311E+01  0.6950983906957028E+01  0.6910573289285250E+01  0.6870397604975776E+01
  0.6830455488207252E+01  0.6790745581098731E+01  0.6751266533663516E+01  0.6712017003763266E+01  0.6672995657062372E+01
  0.6634201166982597E+01  0.6595632214657959E+01  0.6557287488889916E+01  0.6519165686102767E+01  0.6481265510299365E+01
  0.6443585673017042E+01  0.6406124893283798E+01  0.6368881897574762E+01  0.6331855419768905E+01  0.6295044201105975E+01
  0.6258446990143733E+01  0.6222062542715376E+01  0.6185889621887269E+01  0.6149926997916877E+01  0.6114173448210958E+01
  0.6078627757284018E+01  0.6043288716716960E+01  0.6008155125116032E+01  0.5973225788071956E+01  0.5938499518119345E+01
  0.5903975134696327E+01  0.5869651464104406E+01  0.5835527339468553E+01  0.5801601600697571E+01  0.5767873094444615E+01
  0.5734340674067994E+01  0.5701003199592216E+01  0.5667859537669193E+01  0.5634908561539741E+01  0.5602149150995262E+01
  0.5569580192339665E+01  0.5537200578351503E+01  0.5505009208246328E+01  0.5473004987639281E+01  0.5441186828507864E+01
  0.5409553649154978E+01  0.5378104374172134E+01  0.5346837934402894E+01  0.5315753266906523E+01  0.5284849314921869E+01
  0.5254125027831414E+01  0.5223579361125562E+01  0.5193211276367141E+01  0.5163019741156100E+01  0.5133003729094396E+01
  0.5103162219751110E+01  0.5073494198627764E+01  0.5043998657123810E+01  0.5014674592502365E+01  0.4985521007856112E+01
  0.4956536912073402E+01  0.4927721319804571E+01  0.4899073251428435E+01  0.4870591733018996E+01  0.4842275796312312E+01
  0.4814124478673596E+01  0.4786136823064509E+01  0.4758311878010570E+01  0.4730648697568856E+01  0.4703146341295836E+01
  0.4675803874215383E+01  0.4648620366786997E+01  0.4621594894874213E+01  0.4594726539713172E+01  0.4568014387881383E+01
  0.4541457531266696E+01  0.4515055067036394E+01  0.4488806097606524E+01  0.4462709730611373E+01  0.4436765078873140E+01
  0.4410971260371765E+01  0.4385327398214943E+01  0.4359832620608326E+01  0.4334486060825873E+01  0.4309286857180389E+01
  0.4284234152994234E+01  0.4259327096570187E+01  0.4234564841162510E+01  0.4209946544948141E+01  0.4185471370998100E+01
  0.4161138487249010E+01  0.4136947066474833E+01  0.4112896286258731E+01  0.4088985328965116E+01  0.4065213381711844E+01
  0.4041579636342602E+01  0.4018083289399401E+01  0.3994723542095288E+01  0.3971499600287185E+01  0.3948410674448875E+01
  0.3925455979644183E+01  0.3902634735500286E+01  0.3879946166181167E+01  0.3857389500361258E+01  0.3834963971199207E+01
  0.3812668816311819E+01  0.3790503277748127E+01  0.3768466601963626E+01  0.3746558039794670E+01  0.3724776846432978E+01
  0.3703122281400333E+01  0.3681593608523404E+01  0.3660190095908714E+01  0.3638911015917763E+01  0.3617755645142286E+01
  0.3596723264379672E+01  0.3575813158608496E+01  0.3555024616964228E+01  0.3534356932715057E+01  0.3513809403237862E+01
  0.3493381329994333E+01  0.3473072018507223E+01  0.3452880778336731E+01  0.3432806923057035E+01  0.3412849770232954E+01
  0.3393008641396759E+01  0.3373282862025087E+01  0.3353671761516024E+01  0.3334174673166306E+01  0.3314790934148648E+01
  0.3295519885489213E+01  0.3276360872045217E+01  0.3257313242482639E+01  0.3238376349254100E+01  0.3219549548576832E+01
  0.3200832200410796E+01  0.3182223668436925E+01  0.3163723320035497E+01  0.3145330526264615E+01  0.3127044661838835E+01
  0.3108865105107907E+01  0.3090791238035642E+01  0.3072822446178900E+01  0.3054958118666695E+01  0.3037197648179444E+01
  0.3019540430928301E+01  0.3001985866634642E+01  0.2984533358509661E+01  0.2967182313234067E+01  0.2949932140937925E+01
  0.2932782255180608E+01  0.2915732072930842E+01  0.2898781014546899E+01  0.2881928503756885E+01  0.2865173967639159E+01
  0.2848516836602840E+01  0.2831956544368456E+01  0.2815492527948687E+01  0.2799124227629226E+01  0.2782851086949752E+01
  0.2766672552685014E+01  0.2750588074826020E+01  0.2734597106561337E+01  0.2718699104258508E+01  0.2702893527445569E+01
  0.2687179838792668E+01  0.2671557504093804E+01  0.2656025992248672E+01  0.2640584775244593E+01  0.2625233328138572E+01
  0.2609971129039456E+01  0.2594797659090180E+01  0.2579712402450139E+01  0.2564714846277648E+01  0.2549804480712501E+01
  0.2534980798858649E+01  0.2520243296766958E+01  0.2505591473418081E+01  0.2491024830705423E+01  0.2476542873418210E+01
  0.2462145109224652E+01  0.2447831048655206E+01  0.2433600205085935E+01  0.2419452094721965E+01  0.2405386236581042E+01
  0.2391402152477170E+01  0.2377499367004367E+01  0.2363677407520494E+01  0.2349935804131190E+01  0.2336274089673898E+01
  0.2322691799701985E+01  0.2309188472468944E+01  0.2295763648912708E+01  0.2282416872640039E+01  0.2269147689911007E+01
  0.2255955649623571E+01  0.2242840303298242E+01  0.2229801205062836E+01  0.2216837911637314E+01  0.2203949982318715E+01
  0.2191136978966172E+01  0.2178398465986021E+01  0.2165734010316983E+01  0.2153143181415454E+01  0.2140625551240855E+01
  0.2128180694241092E+01  0.2115808187338084E+01  0.2103507609913374E+01  0.2091278543793841E+01  0.2079120573237477E+01
  0.2067033284919254E+01  0.2055016267917070E+01  0.2043069113697787E+01  0.2031191416103333E+01  0.2019382771336901E+01
  0.2007642777949218E+01  0.1995971036824899E+01  0.1984367151168880E+01  0.1972830726492920E+01  0.1961361370602204E+01
  0.1949958693581998E+01  0.1938622307784394E+01  0.1927351827815144E+01  0.1916146870520541E+01  0.1905007054974405E+01
  0.1893932002465125E+01  0.1882921336482796E+01  0.1871974682706405E+01  0.1861091668991113E+01  0.1850271925355606E+01
  0.1839515083969509E+01  0.1828820779140886E+01  0.1818188647303812E+01  0.1807618327006003E+01  0.1797109458896538E+01
  0.1786661685713637E+01  0.1776274652272514E+01  0.1765948005453308E+01  0.1755681394189071E+01  0.1745474469453840E+01
  0.1735326884250769E+01  0.1725238293600327E+01  0.1715208354528579E+01  0.1705236726055523E+01  0.1695323069183491E+01
  0.1685467046885637E+01  0.1675668324094468E+01  0.1665926567690458E+01  0.1656241446490725E+01  0.1646612631237769E+01
  0.1637039794588275E+01  0.1627522611101999E+01  0.1618060757230684E+01  0.1608653911307075E+01  0.1599301753533979E+01
  0.1590003965973393E+01  0.1580760232535696E+01  0.1571570238968901E+01  0.1562433672847977E+01  0.1553350223564222E+01
  0.1544319582314705E+01  0.1535341442091769E+01  0.1526415497672595E+01  0.1517541445608821E+01  0.1508718984216230E+01
  0.1499947813564495E+01  0.1491227635466978E+01  0.1482558153470594E+01  0.1473939072845737E+01  0.1465370100576255E+01
  0.1456850945349490E+01  0.1448381317546378E+01  0.1439960929231596E+01  0.1431589494143780E+01  0.1423266727685791E+01
  0.1414992346915038E+01  0.1406766070533861E+01  0.1398587618879968E+01  0.1390456713916926E+01  0.1382373079224710E+01
  0.1374336439990304E+01  0.1366346522998363E+01  0.1358403056621920E+01  0.1350505770813151E+01  0.1342654397094202E+01
  0.1334848668548052E+01  0.1327088319809443E+01  0.1319373087055864E+01  0.1311702707998570E+01  0.1304076921873678E+01
  0.1296495469433291E+01  0.1288958092936694E+01  0.1281464536141586E+01  0.1274014544295368E+01  0.1266607864126488E+01
  0.1259244243835825E+01  0.1251923433088131E+01  0.1244645183003523E+01  0.1237409246149017E+01  0.1230215376530119E+01
  0.1223063329582462E+01  0.1215952862163495E+01  0.1208883732544210E+01  0.1201855700400927E+01  0.1194868526807130E+01
  0.1187921974225333E+01  0.1181015806499015E+01  0.1174149788844588E+01  0.1167323687843410E+01  0.1160537271433857E+01
  0.1153790308903434E+01  0.1147082570880924E+01  0.1140413829328597E+01  0.1133783857534455E+01  0.1127192430104526E+01
  0.1120639322955201E+01  0.1114124313305613E+01  0.1107647179670069E+01  0.1101207701850516E+01  0.1094805660929055E+01
  0.1088440839260504E+01  0.1082113020464991E+01  0.1075821989420602E+01  0.1069567532256069E+01  0.1063349436343499E+01
  0.1057167490291138E+01  0.1051021483936200E+01  0.1044911208337704E+01  0.1038836455769384E+01  0.1032797019712622E+01
  0.1026792694849428E+01  0.1020823277055459E+01  0.1014888563393081E+01  0.1008988352104469E+01  0.1003122442604749E+01
  0.9972906354751778E+00  0.9914927324563636E+00  0.9857285364415257E+00  0.9799978514697945E+00  0.9743004827195489E+00
  0.9686362365017948E+00  0.9630049202535771E+00  0.9574063425314346E+00  0.9518403130048962E+00  0.9463066424500026E+00
  0.9408051427428774E+00  0.9353356268533334E+00  0.9298979088385104E+00  0.9244918038365562E+00  0.9191171280603427E+00
  0.9137736987912147E+00  0.9084613343727806E+00  0.9031798542047388E+00  0.8979290787367320E+00  0.8927088294622481E+00
  0.8875189289125495E+00  0.8823592006506417E+00  0.8772294692652735E+00  0.8721295603649725E+00  0.8670593005721202E+00
  0.8620185175170553E+00  0.8570070398322123E+00  0.8520246971463000E+00  0.8470713200785054E+00  0.8421467402327373E+00
  0.8372507901919007E+00  0.8323833035122071E+00  0.8275441147175131E+00  0.8227330592936972E+00  0.8179499736830670E+00
  0.8131946952787962E+00  0.8084670624193990E+00  0.8037669143832346E+00  0.7990940913830408E+00  0.7944484345605045E+00
  0.7898297859808584E+00  0.7852379886275150E+00  0.7806728863967266E+00  0.7761343240922779E+00  0.7716221474202117E+00
  0.7671362029835821E+00  0.7626763382772394E+00  0.7582424016826476E+00  0.7538342424627270E+00  0.7494517107567311E+00
  0.7450946575751544E+00  0.7407629347946620E+00  0.7364563951530581E+00  0.7321748922442787E+00  0.7279182805134135E+00
  0.7236864152517578E+00  0.7194791525918942E+00  0.7152963495028002E+00  0.7111378637849861E+00  0.7070035540656611E+00
  0.7028932797939277E+00  0.6988069012360014E+00  0.6947442794704616E+00  0.6907052763835304E+00  0.6866897546643744E+00
  0.6826975778004379E+00  0.6787286100728015E+00  0.6747827165515712E+00  0.6708597630912857E+00  0.6669596163263609E+00
  0.6630821436665535E+00  0.6592272132924539E+00  0.6553946941510050E+00  0.6515844559510477E+00  0.6477963691588886E+00
  0.6440303049939013E+00  0.6402861354241438E+00  0.6365637331620069E+00  0.6328629716598886E+00  0.6291837251058908E+00
  0.6255258684195411E+00  0.6218892772475444E+00  0.6182738279595501E+00  0.6146793976439520E+00  0.6111058641037113E+00
  0.6075531058521986E+00  0.6040210021090665E+00  0.6005094327961430E+00  0.5970182785333484E+00  0.5935474206346379E+00
  0.5900967411039658E+00  0.5866661226312763E+00  0.5832554485885120E+00  0.5798646030256503E+00  0.5764934706667644E+00
  0.5731419369060992E+00  0.5698098878041792E+00  0.5664972100839331E+00  0.5632037911268434E+00  0.5599295189691181E+00
  0.5566742822978826E+00  0.5534379704473993E+00  0.5502204733953008E+00  0.5470216817588516E+00  0.5438414867912316E+00
  0.5406797803778349E+00  0.5375364550325976E+00  0.5344114038943422E+00  0.5313045207231446E+00  0.5282156998967245E+00
  0.5251448364068514E+00  0.5220918258557766E+00  0.5190565644526839E+00  0.5160389490101606E+00  0.5130388769406906E+00
  0.5100562462531660E+00  0.5070909555494185E+00  0.5041429040207756E+00  0.5012119914446300E+00  0.4982981181810344E+00
  0.4954011851693133E+00  0.4925210939246960E+00  0.4896577465349678E+00  0.4868110456571411E+00  0.4839808945141483E+00
  0.4811671968915485E+00  0.4783698571342580E+00  0.4755887801433002E+00  0.4728238713725693E+00  0.4700750368256181E+00
  0.4673421830524621E+00  0.4646252171464023E+00  0.4619240467408668E+00  0.4592385800062719E+00  0.4565687256468977E+00
  0.4539143928977858E+00  0.4512754915216551E+00  0.4486519318058310E+00  0.4460436245591976E+00  0.4434504811091649E+00
  0.4408724132986543E+00  0.4383093334831018E+00  0.4357611545274774E+00  0.4332277898033253E+00  0.4307091531858156E+00
  0.4282051590508179E+00  0.4257157222719919E+00  0.4232407582178905E+00  0.4207801827490844E+00  0.4183339122153013E+00
  0.4159018634525815E+00  0.4134839537804528E+00  0.4110801009991165E+00  0.4086902233866549E+00  0.4063142396962525E+00
  0.4039520691534332E+00  0.4016036314533171E+00  0.3992688467578860E+00  0.3969476356932722E+00  0.3946399193470600E+00
  0.3923456192656014E+00  0.3900646574513498E+00  0.3877969563602083E+00  0.3855424388988941E+00  0.3833010284223159E+00
  0.3810726487309696E+00  0.3788572240683484E+00  0.3766546791183647E+00  0.3744649390027914E+00  0.3722879292787175E+00
  0.3701235759360144E+00  0.3679718053948212E+00  0.3658325445030438E+00  0.3637057205338666E+00  0.3615912611832812E+00
  0.3594890945676273E+00  0.3573991492211503E+00  0.3553213540935694E+00  0.3532556385476635E+00  0.3512019323568707E+00
  0.3491601657028984E+00  0.3471302691733512E+00  0.3451121737593706E+00  0.3431058108532893E+00  0.3411111122462976E+00
  0.3391280101261263E+00  0.3371564370747394E+00  0.3351963260660425E+00  0.3332476104636045E+00  0.3313102240183924E+00
  0.3293841008665179E+00  0.3274691755269984E+00  0.3255653828995310E+00  0.3236726582622801E+00  0.3217909372696750E+00
  0.3199201559502236E+00  0.3180602507043369E+00  0.3162111583021672E+00  0.3143728158814572E+00  0.3125451609454050E+00
  0.3107281313605365E+00  0.3089216653545942E+00  0.3071257015144381E+00  0.3053401787839551E+00  0.3035650364619854E+00
  0.3018002142002571E+00  0.3000456520013355E+00  0.2983012902165821E+00  0.2965670695441280E+00  0.2948429310268557E+00
  0.2931288160503959E+00  0.2914246663411336E+00  0.2897304239642278E+00  0.2880460313216399E+00  0.2863714311501786E+00
  0.2847065665195485E+00  0.2830513808304171E+00  0.2814058178124895E+00  0.2797698215225953E+00  0.2781433363427861E+00
  0.2765263069784442E+00  0.2749186784564033E+00  0.2733203961230777E+00  0.2717314056426049E+00  0.2701516529949975E+00
  0.2685810844743065E+00  0.2670196466867950E+00  0.2654672865491216E+00  0.2639239512865376E+00  0.2623895884310893E+00
  0.2608641458198354E+00  0.2593475715930738E+00  0.2578398141925757E+00  0.2563408223598341E+00  0.2548505451343204E+00
  0.2533689318517501E+00  0.2518959321423609E+00  0.2504314959291986E+00  0.2489755734264152E+00  0.2475281151375745E+00
  0.2460890718539689E+00  0.2446583946529465E+00  0.2432360348962459E+00  0.2418219442283422E+00  0.2404160745748027E+00
  0.2390183781406511E+00  0.2376288074087414E+00  0.2362473151381436E+00  0.2348738543625336E+00  0.2335083783885973E+00
  0.2321508407944420E+00  0.2308011954280170E+00  0.2294593964055432E+00  0.2281253981099522E+00  0.2267991551893350E+00
  0.2254806225553979E+00  0.2241697553819285E+00  0.2228665091032712E+00  0.2215708394128101E+00  0.2202827022614618E+00
  0.2190020538561758E+00  0.2177288506584456E+00  0.2164630493828248E+00  0.2152046069954560E+00  0.2139534807126056E+00
  0.2127096279992069E+00  0.2114730065674127E+00  0.2102435743751574E+00  0.2090212896247230E+00  0.2078061107613190E+00
  0.2065979964716659E+00  0.2053969056825898E+00  0.2042027975596233E+00  0.2030156315056156E+00  0.2018353671593504E+00
  0.2006619643941710E+00  0.1994953833166135E+00  0.1983355842650495E+00  0.1971825278083341E+00  0.1960361747444632E+00
  0.1948964860992389E+00  0.1937634231249412E+00  0.1926369472990077E+00  0.1915170203227216E+00  0.1904036041199072E+00
  0.1892966608356316E+00  0.1881961528349158E+00  0.1871020427014510E+00  0.1860142932363242E+00  0.1849328674567497E+00
  0.1838577285948092E+00  0.1827888400961973E+00  0.1817261656189757E+00  0.1806696690323350E+00  0.1796193144153607E+00
  0.1785750660558097E+00  0.1775368884488913E+00  0.1765047462960564E+00  0.1754786045037938E+00  0.1744584281824322E+00
  0.1734441826449496E+00  0.1724358334057895E+00  0.1714333461796846E+00  0.1704366868804856E+00  0.1694458216199977E+00
  0.1684607167068237E+00  0.1674813386452135E+00  0.1665076541339196E+00  0.1655396300650597E+00  0.1645772335229857E+00
  0.1636204317831592E+00  0.1626691923110322E+00  0.1617234827609361E+00  0.1607832709749753E+00  0.1598485249819273E+00
  0.1589192129961504E+00  0.1579953034164948E+00  0.1570767648252228E+00  0.1561635659869331E+00  0.1552556758474921E+00
  0.1543530635329700E+00  0.1534556983485847E+00  0.1525635497776497E+00  0.1516765874805289E+00  0.1507947812935977E+00
  0.1499181012282078E+00  0.1490465174696609E+00  0.1481800003761851E+00  0.1473185204779185E+00  0.1464620484758984E+00
  0.1456105552410553E+00  0.1447640118132142E+00  0.1439223894000988E+00  0.1430856593763432E+00  0.1422537932825083E+00
  0.1414267628241040E+00  0.1406045398706157E+00  0.1397870964545379E+00  0.1389744047704110E+00  0.1381664371738654E+00
  0.1373631661806688E+00  0.1365645644657804E+00  0.1357706048624089E+00  0.1349812603610768E+00  0.1341965041086883E+00
  0.1334163094076042E+00  0.1326406497147193E+00  0.1318694986405468E+00  0.1311028299483070E+00  0.1303406175530201E+00
  0.1295828355206048E+00  0.1288294580669816E+00  0.1280804595571798E+00  0.1273358145044506E+00  0.1265954975693843E+00
  0.1258594835590318E+00  0.1251277474260312E+00  0.1244002642677386E+00  0.1236770093253640E+00  0.1229579579831109E+00
  0.1222430857673208E+00  0.1215323683456225E+00  0.1208257815260846E+00  0.1201233012563741E+00  0.1194249036229171E+00
  0.1187305648500666E+00  0.1180402612992713E+00  0.1173539694682510E+00  0.1166716659901755E+00  0.1159933276328470E+00
  0.1153189312978878E+00  0.1146484540199307E+00  0.1139818729658146E+00  0.1133191654337830E+00  0.1126603088526873E+00
  0.1120052807811938E+00  0.1113540589069943E+00  0.1107066210460206E+00  0.1100629451416633E+00  0.1094230092639934E+00
  0.1087867916089886E+00  0.1081542704977626E+00  0.1075254243757985E+00  0.1069002318121854E+00  0.1062786714988594E+00
  0.1056607222498464E+00  0.1050463630005107E+00  0.1044355728068052E+00  0.1038283308445259E+00  0.1032246164085698E+00
  0.1026244089121958E+00  0.1020276878862893E+00  0.1014344329786293E+00  0.1008446239531601E+00  0.1002582406892649E+00
  0.9967526318104340E-01  0.9909567153659170E-01  0.9851944597728643E-01  0.9794656683707113E-01  0.9737701456174590E-01
  0.9681076970825950E-01  0.9624781294400549E-01  0.9568812504612029E-01  0.9513168690078458E-01  0.9457847950252765E-01
  0.9402848395353391E-01  0.9348168146295271E-01  0.9293805334621100E-01  0.9239758102432791E-01  0.9186024602323306E-01
  0.9132602997308618E-01  0.9079491460760089E-01  0.9026688176336913E-01  0.8974191337918974E-01  0.8921999149539840E-01
  0.8870109825320090E-01  0.8818521589400787E-01  0.8767232675877211E-01  0.8716241328732872E-01  0.8665545801773694E-01
  0.8615144358562442E-01  0.8565035272353365E-01  0.8515216826027028E-01  0.8465687312025443E-01  0.8416445032287247E-01
  0.8367488298183247E-01  0.8318815430452051E-01  0.8270424759135968E-01  0.8222314623517027E-01  0.8174483372053232E-01
  0.8126929362315023E-01  0.8079650960921801E-01  0.8032646543478789E-01  0.7985914494513906E-01  0.7939453207414929E-01
  0.7893261084366741E-01  0.7847336536288795E-01  0.7801677982772659E-01  0.7756283852019780E-01  0.7711152580779369E-01
  0.7666282614286421E-01  0.7621672406199873E-01  0.7577320418540892E-01  0.7533225121631365E-01  0.7489384994032354E-01
  0.7445798522482838E-01  0.7402464201838496E-01  0.7359380535010598E-01  0.7316546032905007E-01  0.7273959214361377E-01
  0.7231618606092262E-01  0.7189522742622517E-01  0.7147670166228684E-01  0.7106059426878486E-01  0.7064689082170436E-01
  0.7023557697273479E-01  0.6982663844866771E-01  0.6942006105079464E-01  0.6901583065430605E-01  0.6861393320769092E-01
  0.6821435473213681E-01  0.6781708132093062E-01  0.6742209913885976E-01  0.6702939442161399E-01  0.6663895347518747E-01
  0.6625076267528116E-01  0.6586480846670641E-01  0.6548107736278747E-01  0.6509955594476553E-01  0.6472023086120267E-01
  0.6434308882738557E-01  0.6396811662472993E-01  0.6359530110018498E-01  0.6322462916563776E-01  0.6285608779731792E-01
  0.6248966403520223E-01  0.6212534498241929E-01  0.6176311780465398E-01  0.6140296972955216E-01  0.6104488804612491E-01
  0.6068886010415304E-01  0.6033487331359099E-01  0.5998291514397133E-01  0.5963297312380766E-01  0.5928503483999861E-01
  0.5893908793723093E-01  0.5859512011738235E-01  0.5825311913892404E-01  0.5791307281632303E-01  0.5757496901944369E-01
  0.5723879567294921E-01  0.5690454075570262E-01  0.5657219230016727E-01  0.5624173839180676E-01  0.5591316716848439E-01
  0.5558646681986260E-01  0.5526162558680081E-01  0.5493863176075391E-01  0.5461747368316928E-01  0.5429813974488407E-01
  0.5398061838552098E-01  0.5366489809288439E-01  0.5335096740235517E-01  0.5303881489628543E-01  0.5272842920339240E-01
  0.5241979899815188E-01  0.5211291300019105E-01  0.5180775997368075E-01  0.5150432872672730E-01  0.5120260811076351E-01
  0.5090258701993946E-01  0.5060425439051273E-01  0.5030759920023806E-01  0.5001261046775667E-01  0.4971927725198495E-01
  0.4942758865150332E-01  0.4913753380394407E-01  0.4884910188537921E-01  0.4856228210970823E-01  0.4827706372804543E-01
  0.4799343602810723E-01  0.4771138833359950E-01  0.4743091000360448E-01  0.4715199043196833E-01  0.4687461904668838E-01
  0.4659878530930078E-01  0.4632447871426858E-01  0.4605168878836997E-01  0.4578040509008732E-01  0.4551061720899655E-01
  0.4524231476515751E-01  0.4497548740850506E-01  0.4471012481824123E-01  0.4444621670222861E-01  0.4418375279638490E-01
  0.4392272286407871E-01  0.4366311669552751E-01  0.4340492410719693E-01  0.4314813494120224E-01  0.4289273906471186E-01
  0.4263872636935336E-01  0.4238608677062216E-01  0.4213481020729266E-01  0.4188488664083290E-01  0.4163630605482223E-01
  0.4138905845437263E-01  0.4114313386555395E-01  0.4089852233482319E-01  0.4065521392845842E-01  0.4041319873199708E-01
  0.4017246684967987E-01  0.3993300840389957E-01  0.3969481353465619E-01  0.3945787239901778E-01  0.3922217517058837E-01
  0.3898771203898237E-01  0.3875447320930673E-01  0.3852244890165089E-01  0.3829162935058511E-01  0.3806200480466748E-01
  0.3783356552596053E-01  0.3760630178955742E-01  0.3738020388311866E-01  0.3715526210641993E-01  0.3693146677091134E-01
  0.3670880819928878E-01  0.3648727672507868E-01  0.3626686269223520E-01  0.3604755645475267E-01  0.3582934837629242E-01
  0.3561222882982521E-01  0.3539618819729031E-01  0.3518121686927154E-01  0.3496730524469160E-01  0.3475444373052490E-01
  0.3454262274153049E-01  0.3433183270000544E-01  0.3412206403555994E-01  0.3391330718491488E-01  0.3370555259172295E-01
  0.3349879070641458E-01  0.3329301198606920E-01  0.3308820689431338E-01  0.3288436590124721E-01  0.3268147948339907E-01
  0.3247953812371106E-01  0.3227853231155616E-01  0.3207845254278731E-01  0.3187928931982140E-01  0.3168103315175814E-01
  0.3148367455453582E-01  0.3128720405112515E-01  0.3109161217176280E-01  0.3089688945422601E-01  0.3070302644414946E-01
  0.3051001369538672E-01  0.3031784177041706E-01  0.3012650124079961E-01  0.2993598268767662E-01  0.2974627670232704E-01
  0.2955737388677297E-01  0.2936926485443927E-01  0.2918194023086990E-01  0.2899539065450141E-01  0.2880960677749596E-01
  0.2862457926663553E-01  0.2844029880427971E-01  0.2825675608938780E-01  0.2807394183860859E-01  0.2789184678743867E-01
  0.2771046169145162E-01  0.2752977732760007E-01  0.2734978449559241E-01  0.2717047401934651E-01  0.2699183674852165E-01
  0.2681386356013167E-01  0.2663654536024044E-01  0.2645987308574218E-01  0.2628383770622804E-01  0.2610843022594156E-01
  0.2593364168582423E-01  0.2575946316565352E-01  0.2558588578627491E-01  0.2541290071193000E-01  0.2524049915268221E-01
  0.2506867236694185E-01  0.2489741166409245E-01  0.2472670840721932E-01  0.2455655401594258E-01  0.2438693996935557E-01
  0.2421785780907009E-01  0.2404929914236974E-01  0.2388125564547255E-01  0.2371371906690347E-01  0.2354668123097831E-01
  0.2338013404139900E-01  0.2321406948496139E-01  0.2304847963537576E-01  0.2288335665720026E-01  0.2271869280988697E-01
  0.2255448045194133E-01  0.2239071204519354E-01  0.2222738015918197E-01  0.2206447747564757E-01  0.2190199679313810E-01
  0.2173993103172104E-01  0.2157827323780327E-01  0.2141701658905584E-01  0.2125615439944157E-01  0.2109568012434276E-01
  0.2093558736578652E-01  0.2077586987776385E-01  0.2061652157163956E-01  0.2045753652164877E-01  0.2029890897047561E-01
  0.2014063333490944E-01  0.1998270421157349E-01  0.1982511638272022E-01  0.1966786482208763E-01  0.1951094470080959E-01
  0.1935435139337394E-01  0.1919808048362035E-01  0.1904212777077062E-01  0.1888648927548260E-01  0.1873116124591936E-01
  0.1857614016382412E-01  0.1842142275059091E-01  0.1826700597332129E-01  0.1811288705085555E-01  0.1795906345976787E-01
  0.1780553294031310E-01  0.1765229350231339E-01  0.1749934343097142E-01  0.1734668129259748E-01  0.1719430594023667E-01
  0.1704221651918190E-01  0.1689041247235846E-01  0.1673889354556503E-01  0.1658765979255616E-01  0.1643671157995005E-01
  0.1628604959194618E-01  0.1613567483483626E-01  0.1598558864129196E-01  0.1583579267441264E-01  0.1568628893151651E-01
  0.1553707974765721E-01  0.1538816779884975E-01  0.1523955610498775E-01  0.1509124803243507E-01  0.1494324729627457E-01
  0.1479555796219685E-01  0.1464818444801234E-01  0.1450113152476951E-01  0.1435440431746351E-01  0.1420800830531871E-01
  0.1406194932162978E-01  0.1391623355314617E-01  0.1377086753898564E-01  0.1362585816906257E-01  0.1348121268201850E-01
  0.1333693866264202E-01  0.1319304403876704E-01  0.1304953707763822E-01  0.1290642638173501E-01  0.1276372088404480E-01
  0.1262142984277880E-01  0.1247956283552413E-01  0.1233812975282752E-01  0.1219714079120720E-01  0.1205660644559106E-01
  0.1191653750118067E-01  0.1177694502474189E-01  0.1163784035532516E-01  0.1149923509441933E-01  0.1136114109554518E-01
  0.1122357045329610E-01  0.1108653549183528E-01  0.1095004875286073E-01  0.1081412298305018E-01  0.1067877112100145E-01
  0.1054400628368393E-01  0.1040984175241934E-01  0.1027629095841162E-01  0.1014336746784761E-01  0.1001108496659110E-01
  0.9879457244495619E-02  0.9748498179361999E-02  0.9618221720568376E-02  0.9488641872402184E-02  0.9359772677124473E-02
  0.9231628197798715E-02  0.9104222500916692E-02  0.8977569638856174E-02  0.8851683632204999E-02  0.8726578451987878E-02
  0.8602268001832237E-02  0.8478766100110934E-02  0.8356086462099104E-02  0.8234242682183762E-02  0.8113248216164255E-02
  0.7993116363682197E-02  0.7873860250819157E-02  0.7755492812900437E-02  0.7638026777542781E-02  0.7521474647983157E-02
  0.7405848686725837E-02  0.7291160899543269E-02  0.7177423019866178E-02  0.7064646493596738E-02  0.6952842464377820E-02
  0.6842021759349975E-02  0.6732194875426184E-02  0.6623371966113214E-02  0.6515562828906761E-02  0.6408776893285582E-02
  0.6303023209328294E-02  0.6198310436974666E-02  0.6094646835950881E-02  0.5992040256376925E-02  0.5890498130071533E-02
  0.5790027462568437E-02  0.5690634825855397E-02  0.5592326351845284E-02  0.5495107726586599E-02  0.5398984185218109E-02
  0.5303960507670889E-02  0.5210041015118168E-02  0.5117229567171737E-02  0.5025529559821685E-02  0.4934943924113387E-02
  0.4845475125555110E-02  0.4757125164246280E-02  0.4669895575715507E-02  0.4583787432455316E-02  0.4498801346138895E-02
  0.4414937470502887E-02  0.4332195504877952E-02  0.4250574698348613E-02  0.4170073854521316E-02  0.4090691336879435E-02
  0.4012425074702252E-02  0.3935272569524144E-02  0.3859230902109541E-02  0.3784296739917817E-02  0.3710466345032455E-02
  0.3637735582527639E-02  0.3566099929245024E-02  0.3495554482953533E-02  0.3426093971864361E-02  0.3357712764473185E-02
  0.3290404879702063E-02  0.3224163997312920E-02  0.3158983468565063E-02  0.3094856327089271E-02  0.3031775299951332E-02
  0.2969732818878312E-02  0.2908721031621200E-02  0.2848731813428309E-02  0.2789756778604219E-02  0.2731787292129768E-02
  0.2674814481319330E-02  0.2618829247492468E-02  0.2563822277637382E-02  0.2509784056045260E-02  0.2456704875894611E-02
  0.2404574850766155E-02  0.2353383926069502E-02  0.2303121890363842E-02  0.2253778386555952E-02  0.2205342922959421E-02
  0.2157804884200481E-02  0.2111153541956379E-02  0.2065378065513347E-02  0.2020467532132194E-02  0.1976410937210511E-02
  0.1933197204231372E-02  0.1890815194489263E-02  0.1849253716585141E-02  0.1808501535683109E-02  0.1768547382522192E-02
  0.1729379962177594E-02  0.1690987962566552E-02  0.1653360062694625E-02  0.1616484940639242E-02  0.1580351281267783E-02
  0.1544947783688378E-02  0.1510263168432174E-02  0.1476286184366464E-02  0.1443005615338770E-02  0.1410410286552293E-02
  0.1378489070674091E-02  0.1347230893677422E-02  0.1316624740420476E-02  0.1286659659963974E-02  0.1257324770630681E-02
  0.1228609264810140E-02  0.1200502413512257E-02  0.1172993570673936E-02  0.1146072177222926E-02  0.1119727764903534E-02
  0.1093949959869060E-02  0.1068728486045888E-02  0.1044053168274618E-02  0.1019913935233513E-02  0.9963008221498591E-03
  0.9732039733048827E-03  0.9506136443379992E-03  0.9285202043562439E-03  0.9069141378547133E-03  0.8857860464540976E-03
  0.8651266504611497E-03  0.8449267902581517E-03  0.8251774275273368E-03  0.8058696463162244E-03  0.7869946539497956E-03
  0.7685437817954409E-03  0.7505084858864803E-03  0.7328803474100318E-03  0.7156510730649573E-03  0.6988124952954844E-03
  0.6823565724060658E-03  0.6662753885628649E-03  0.6505611536872740E-03  0.6352062032466425E-03  0.6202029979473598E-03
  0.6055441233352865E-03  0.5912222893084247E-03  0.5772303295465973E-03  0.5635612008627371E-03  0.5502079824803613E-03
  0.5371638752415342E-03  0.5244222007496412E-03  0.5119764004510556E-03  0.4998200346597038E-03  0.4879467815283750E-03
  0.4763504359705344E-03  0.4650249085362154E-03  0.4539642242454795E-03  0.4431625213827747E-03  0.4326140502554244E-03
  0.4223131719193498E-03  0.4122543568749599E-03  0.4024321837361098E-03  0.3928413378748306E-03  0.3834766100444530E-03
  0.3743328949836370E-03  0.3654051900036843E-03  0.3566885935614259E-03  0.3481783038198696E-03  0.3398696171986600E-03
  0.3317579269163400E-03  0.3238387215262837E-03  0.3161075834480726E-03  0.3085601874960185E-03  0.3011922994064022E-03
  0.2939997743649701E-03  0.2869785555360926E-03  0.2801246725949355E-03  0.2734342402639136E-03  0.2669034568546104E-03
  0.2605286028162946E-03  0.2543060392920573E-03  0.2482322066835823E-03  0.2423036232254280E-03  0.2365168835697064E-03
  0.2308686573819270E-03  0.2253556879487587E-03  0.2199747907983648E-03  0.2147228523339695E-03  0.2095968284812093E-03
  0.2045937433498001E-03  0.1997106879100104E-03  0.1949448186843758E-03  0.1902933564550382E-03  0.1857535849870880E-03
  0.1813228497682051E-03  0.1769985567648986E-03  0.1727781711955754E-03  0.1686592163206673E-03  0.1646392722499970E-03
  0.1607159747675213E-03  0.1568870141736049E-03  0.1531501341449057E-03  0.1495031306119561E-03  0.1459438506544851E-03
  0.1424701914145248E-03  0.1390800990272919E-03  0.1357715675698543E-03  0.1325426380275416E-03  0.1293913972780573E-03
  0.1263159770932361E-03  0.1233145531583604E-03  0.1203853441089613E-03  0.1175266105849803E-03  0.1147366543021955E-03
  0.1120138171407775E-03  0.1093564802508363E-03  0.1067630631748152E-03  0.1042320229865806E-03  0.1017618534470357E-03
  0.9935108417609550E-04  0.9699827984084229E-04  0.9470203935967710E-04  0.9246099512228096E-04  0.9027381222518860E-04
  0.8813918772278165E-04  0.8605584989348952E-04  0.8402255752100452E-04  0.8203809919029099E-04  0.8010129259818586E-04
  0.7821098387837010E-04  0.7636604694050048E-04  0.7456538282328506E-04  0.7280791906127904E-04  0.7109260906518806E-04
  0.6941843151545849E-04  0.6778438976893353E-04  0.6618951127835657E-04  0.6463284702450552E-04  0.6311347096073207E-04
  0.6163047946969878E-04  0.6018299083208767E-04  0.5877014470706918E-04  0.5739110162431723E-04  0.5604504248735402E-04
  0.5473116808801780E-04  0.5344869863183801E-04  0.5219687327411617E-04  0.5097494966650106E-04  0.4978220351385948E-04
  0.4861792814123242E-04  0.4748143407069025E-04  0.4637204860787420E-04  0.4528911543804343E-04  0.4423199423142538E-04
  0.4320006025768210E-04  0.4219270400931103E-04  0.4120933083378338E-04  0.4024936057425267E-04  0.3931222721863902E-04
  0.3839737855692575E-04  0.3750427584648456E-04  0.3663239348526116E-04  0.3578121869265664E-04  0.3495025119792947E-04
  0.3413900293596613E-04  0.3334699775025011E-04  0.3257377110287791E-04  0.3181886979146333E-04  0.3108185167278228E-04
  0.3036228539300217E-04  0.2965975012435678E-04  0.2897383530811406E-04  0.2830414040370474E-04  0.2765027464386449E-04
  0.2701185679565812E-04  0.2638851492725336E-04  0.2577988618030809E-04  0.2518561654784953E-04  0.2460536065751220E-04
  0.2403878156001894E-04  0.2348555052277744E-04  0.2294534682847752E-04  0.2241785757857393E-04  0.2190277750153781E-04
  0.2139980876576741E-04  0.2090866079705108E-04  0.2042905010047182E-04  0.1996070008665145E-04  0.1950334090223381E-04
  0.1905670926450201E-04  0.1862054830003840E-04  0.1819460738732501E-04  0.1777864200319677E-04  0.1737241357305130E-04
  0.1697568932472776E-04  0.1658824214596841E-04  0.1620985044537350E-04  0.1584029801677038E-04  0.1547937390691013E-04
  0.1512687228641715E-04  0.1478259232390672E-04  0.1444633806320150E-04  0.1411791830356554E-04  0.1379714648288809E-04
  0.1348384056374165E-04  0.1317782292224789E-04  0.1287892023968109E-04  0.1258696339674296E-04  0.1230178737044567E-04
  0.1202323113353621E-04  0.1175113755640386E-04  0.1148535331140667E-04  0.1122572877956102E-04  0.1097211795953387E-04
  0.1072437837888252E-04  0.1048237100748752E-04  0.1024596017312329E-04  0.1001501347911489E-04  0.9789401724030359E-05
  0.9568998823357105E-05  0.9353681733114363E-05  0.9143330375354749E-05  0.8937827565506455E-05  0.8737058941513148E-05
  0.8540912894724666E-05  0.8349280502497863E-05  0.8162055462463173E-05  0.7979134028416930E-05  0.7800414947799404E-05
  0.7625799400718153E-05  0.7455190940480173E-05  0.7288495435593415E-05  0.7125621013203816E-05  0.6966478003929163E-05
  0.6810978888058584E-05  0.6659038243080672E-05  0.6510572692509853E-05  0.6365500855976625E-05  0.6223743300552190E-05
  0.6085222493275404E-05  0.5949862754852723E-05  0.5817590214502581E-05  0.5688332765914411E-05  0.5562020024296192E-05
  0.5438583284481967E-05  0.5317955480074303E-05  0.5200071143595006E-05  0.5084866367619250E-05  0.4972278766869242E-05
  0.4862247441242683E-05  0.4754712939753137E-05  0.4649617225360087E-05  0.4546903640665695E-05  0.4446516874457138E-05
  0.4348402929073844E-05  0.4252509088578137E-05  0.4158783887710454E-05  0.4067177081608488E-05  0.3977639616272272E-05
  0.3890123599755838E-05  0.3804582274067657E-05  0.3720969987762638E-05  0.3639242169207539E-05  0.3559355300504128E-05
  0.3481266892052840E-05  0.3404935457741337E-05  0.3330320490742757E-05  0.3257382439907851E-05  0.3186082686736565E-05
  0.3116383522914932E-05  0.3048248128402633E-05  0.2981640550057861E-05  0.2916525680786382E-05  0.2852869239201082E-05
  0.2790637749780153E-05  0.2729798523510664E-05  0.2670319639006308E-05  0.2612169924086850E-05  0.2555318937808154E-05
  0.2499736952931712E-05  0.2445394938822325E-05  0.2392264544763901E-05  0.2340318083682337E-05  0.2289528516266169E-05
  0.2239869435474160E-05  0.2191315051421289E-05  0.2143840176632832E-05  0.2097420211658143E-05  0.2052031131034598E-05
  0.2007649469593624E-05  0.1964252309099851E-05  0.1921817265215384E-05  0.1880322474781245E-05  0.1839746583407783E-05
  0.1800068733366876E-05  0.1761268551777987E-05  0.1723326139081250E-05  0.1686222057790197E-05  0.1649937321517239E-05
  0.1614453384265443E-05  0.1579752129979657E-05  0.1545815862350790E-05  0.1512627294867062E-05  0.1480169541105963E-05
  0.1448426105261030E-05  0.1417380872897861E-05  0.1387018101933332E-05  0.1357322413832966E-05  0.1328278785020661E-05
  0.1299872538495930E-05  0.1272089335653261E-05  0.1244915168298724E-05  0.1218336350859157E-05  0.1192339512778801E-05
  0.1166911591099243E-05  0.1142039823217747E-05  0.1117711739820004E-05  0.1093915157982553E-05  0.1070638174441224E-05
  0.1047869159021078E-05  0.1025596748224258E-05  0.1003809838971566E-05  0.9824975824942751E-06  0.9616493783723214E-06
  0.9412548687153326E-06  0.9213039324831104E-06  0.9017866799419623E-06  0.8826934472537939E-06  0.8640147911944704E-06
  0.8457414839985566E-06  0.8278645083271288E-06  0.8103750523557653E-06  0.7932645049798171E-06  0.7765244511340102E-06
  0.7601466672236282E-06  0.7441231166646426E-06  0.7284459455300059E-06  0.7131074782995958E-06  0.6981002137113372E-06
  0.6834168207109155E-06  0.6690501344978569E-06  0.6549931526654384E-06  0.6412390314323624E-06  0.6277810819637972E-06
  0.6146127667796897E-06  0.6017276962482855E-06  0.5891196251626626E-06  0.5767824493984253E-06  0.5647102026504429E-06
  0.5528970532468642E-06  0.5413373010384225E-06  0.5300253743612825E-06  0.5189558270716150E-06  0.5081233356502294E-06
  0.4975226963754638E-06  0.4871488225628231E-06  0.4769967418696424E-06  0.4670615936632513E-06  0.4573386264511598E-06
  0.1901027775741198E+03  0.1901027775741198E+03  0.1901027775741198E+03  0.1901027775741198E+03  0.1901027775741198E+03
  0.1901027775741198E+03  0.1901027775741198E+03  0.1901027775741198E+03  0.1901027775741198E+03  0.1901027775741198E+03
  0.1901027775741198E+03  0.1901027775741198E+03  0.1901027775741198E+03  0.1901027775741198E+03  0.1901027775741198E+03
  0.1901027775741198E+03  0.1901027775741198E+03  0.1901027775741198E+03  0.1901027775741198E+03  0.1901027775741198E+03
  0.1901027775741198E+03  0.1901027775741198E+03  0.1901027775741198E+03  0.1901027775741198E+03  0.1901027775741198E+03
  0.1901027775741198E+03  0.1901027775741198E+03  0.1901027775741198E+03  0.1901027775741198E+03  0.1901027775741198E+03
  0.1901027775741198E+03  0.1901027775741198E+03  0.1901027775741198E+03  0.1901027775741198E+03  0.1901027775741198E+03
  0.1901027775741198E+03  0.1901027775741198E+03  0.1901027775741198E+03  0.1901027775741198E+03  0.1901027775741198E+03
  0.1901027775741198E+03  0.1901027775741198E+03  0.1901027775741198E+03  0.1901027775741198E+03  0.1901027775741198E+03
  0.1901027775741198E+03  0.1901027775741198E+03  0.1901027775741198E+03  0.1901027775741198E+03  0.1901027775741198E+03
  0.1901027775741198E+03  0.1901027775741198E+03  0.1901027775741198E+03  0.1901027775741198E+03  0.1901027775741198E+03
  0.1901027775741198E+03  0.1901027775741198E+03  0.1901027775741198E+03  0.1901027775741198E+03  0.1901027775741198E+03
  0.1901027775741198E+03  0.1901027775741198E+03  0.1901027775741198E+03  0.1901027775741198E+03  0.1901027775741198E+03
  0.1901027775741198E+03  0.1901027775741198E+03  0.1901027775741198E+03  0.1901027775741198E+03  0.1901027775741198E+03
  0.1901027775741198E+03  0.1901027775741198E+03  0.1901027775741198E+03  0.1901027775741198E+03  0.1901027775741198E+03
  0.1901027775741198E+03  0.1901027775741198E+03  0.1901027775741198E+03  0.1901027775741198E+03  0.1901027775741198E+03
  0.1901027775741198E+03  0.1901027775741198E+03  0.1901027775741198E+03  0.1901027775741198E+03  0.1901027775741198E+03
  0.1901027775741198E+03  0.1901027775741198E+03  0.1901027775741198E+03  0.1901027775741198E+03  0.1901027775741198E+03
  0.1901027775741198E+03  0.1901027775741198E+03  0.1901027775741198E+03  0.1901027775741198E+03  0.1901027775741198E+03
  0.1901027775741198E+03  0.1901027775741198E+03  0.1901027775741198E+03  0.1901027775741198E+03  0.1901027775741198E+03
  0.1901027775741198E+03  0.1901027775741198E+03  0.1901027775741198E+03  0.1901027775741198E+03  0.1901027775741198E+03
  0.1901027775741198E+03  0.1901027775741198E+03  0.1901027775741198E+03  0.1901027775741198E+03  0.1901027775741198E+03
