  DATE: 2018-03-30 CONTRIBUTOR: Xiaowang Zhou xzhou@sandia.gov and Lucas Hale lucas.hale@nist.gov CITATION: X. W. Zhou, R. A. Johnson, H. N. G. Wadley, Phys. Rev. B, 69, 144113(2004)
  Generated from Zhou04_create_v2.f
  Fixes precision issues with older version
    1 Pt                      
 2000  0.5002501250625312E-01 2000  0.3100646625272290E-02  0.6198192603919308E+01
   78     195.08         3.9201    fcc     
  0.0000000000000000E+00  0.2656026365705166E-02  0.5087783271542357E-02  0.7296853063324615E-02  0.9284818086865432E-02
  0.1105326068797674E-01  0.1260376321247114E-01  0.1393790800616257E-01  0.1505727741486296E-01  0.1596345378438446E-01
  0.1665801946054146E-01  0.1714255678914589E-01  0.1741864811601035E-01  0.1748787578694799E-01  0.1735182214777153E-01
  0.1701206954429380E-01  0.1647020032232749E-01  0.1572779682768577E-01  0.1478644140618068E-01  0.1364771640362561E-01
  0.1231320416583304E-01  0.1078448703861612E-01  0.9063147367787239E-02  0.7150767499159660E-02  0.5048929778545652E-02
  0.2759216551758370E-02  0.2832101646104146E-03 -0.2377507037085280E-02 -0.5221352707516003E-02 -0.8246744500869152E-02
 -0.1145210007133113E-01 -0.1483583707309033E-01 -0.1839637316033294E-01 -0.2213212598724690E-01 -0.2604151320801906E-01
 -0.3012295247683661E-01 -0.3437486144788648E-01 -0.3879565777535665E-01 -0.4338375911343384E-01 -0.4813758311630534E-01
 -0.5305554743815805E-01 -0.5813606973317970E-01 -0.6337756765555719E-01 -0.6877845885947759E-01 -0.7433716099912846E-01
 -0.8005209172869676E-01 -0.8592166870236995E-01 -0.9194430957433497E-01 -0.9811843199877912E-01 -0.1044424536298895E+00
 -0.1109147921218536E+00 -0.1175338651288583E+00 -0.1242980903050910E+00 -0.1312058853047390E+00 -0.1382556677819894E+00
 -0.1454458553910292E+00 -0.1527748657860456E+00 -0.1602411166212263E+00 -0.1678430255507582E+00 -0.1755790102288284E+00
 -0.1834474883096242E+00 -0.1914468774473330E+00 -0.1995755952961417E+00 -0.2078320595102374E+00 -0.2162146877438076E+00
 -0.2247218976510396E+00 -0.2333521068861206E+00 -0.2421037331032374E+00 -0.2509751939565775E+00 -0.2599649071003279E+00
 -0.2690712901886763E+00 -0.2782927608758094E+00 -0.2876277368159146E+00 -0.2970746356631792E+00 -0.3066318750717901E+00
 -0.3162978726959346E+00 -0.3260710461898003E+00 -0.3359498132075741E+00 -0.3459325914034431E+00 -0.3560177984315946E+00
 -0.3662038519462161E+00 -0.3764891696014945E+00 -0.3868721690516164E+00 -0.3973512679507702E+00 -0.4079248839531427E+00
 -0.4185914347129209E+00 -0.4293493378842919E+00 -0.4401970111214433E+00 -0.4511328720785618E+00 -0.4621553384098347E+00
 -0.4732628277694497E+00 -0.4844537578115938E+00 -0.4957265461904540E+00 -0.5070796105602178E+00 -0.5185113685750719E+00
 -0.5300202378892040E+00 -0.5416046361568011E+00 -0.5532629810320505E+00 -0.5649936901691393E+00 -0.5767951812222548E+00
 -0.5886658718455841E+00 -0.6006041796933145E+00 -0.6126085224196332E+00 -0.6246773176787275E+00 -0.6368089831247841E+00
 -0.6490019364119909E+00 -0.6612545951945348E+00 -0.6735653771266029E+00 -0.6859326998623824E+00 -0.6983549810560610E+00
 -0.7108306383618250E+00 -0.7233580894338626E+00 -0.7359357519263604E+00 -0.7485620434935056E+00 -0.7612353817894856E+00
 -0.7739541844684877E+00 -0.7867168691846989E+00 -0.7995218535923064E+00 -0.8123675553454974E+00 -0.8252523920984595E+00
 -0.8381747815053793E+00 -0.8511331412204444E+00 -0.8641258888978418E+00 -0.8771514421917589E+00 -0.8902082187563828E+00
 -0.9032946362459008E+00 -0.9164091123144997E+00 -0.9295500646163675E+00 -0.9427159108056906E+00 -0.9559050685366565E+00
 -0.9691159554634527E+00 -0.9823469892402661E+00 -0.9955965875212840E+00 -0.1008863167960693E+01 -0.1022145148212682E+01
 -0.1035440945931436E+01 -0.1048748978771144E+01 -0.1062067664385992E+01 -0.1075395420430168E+01 -0.1088730664557859E+01
 -0.1102071814423252E+01 -0.1115417287680534E+01 -0.1128765501983893E+01 -0.1142114874987516E+01 -0.1155463824345589E+01
 -0.1168810767712301E+01 -0.1182154122741838E+01 -0.1195492307088387E+01 -0.1208823738406136E+01 -0.1222146834349273E+01
 -0.1235460012571983E+01 -0.1248761690728455E+01 -0.1262050286472876E+01 -0.1275324217459432E+01 -0.1288581901342311E+01
 -0.1301821755775700E+01 -0.1315042198413787E+01 -0.1328241646910759E+01 -0.1341418518920802E+01 -0.1354571232098104E+01
 -0.1367698204096853E+01 -0.1380797852571235E+01 -0.1393868595175438E+01 -0.1406908849563648E+01 -0.1419917033390054E+01
 -0.1432891564308842E+01 -0.1445830859974199E+01 -0.1458733279384845E+01 -0.1471597878177251E+01 -0.1484424526625978E+01
 -0.1497213273661306E+01 -0.1509964168213513E+01 -0.1522677259212879E+01 -0.1535352595589686E+01 -0.1547990226274211E+01
 -0.1560590200196735E+01 -0.1573152566287536E+01 -0.1585677373476895E+01 -0.1598164670695092E+01 -0.1610614506872406E+01
 -0.1623026930939118E+01 -0.1635401991825506E+01 -0.1647739738461850E+01 -0.1660040219778430E+01 -0.1672303484705526E+01
 -0.1684529582173416E+01 -0.1696718561112382E+01 -0.1708870470452702E+01 -0.1720985359124655E+01 -0.1733063276058523E+01
 -0.1745104270184584E+01 -0.1757108390433119E+01 -0.1769075685734405E+01 -0.1781006205018725E+01 -0.1792899997216358E+01
 -0.1804757111257581E+01 -0.1816577596072676E+01 -0.1828361500591922E+01 -0.1840108873745599E+01 -0.1851819764463986E+01
 -0.1863494221677364E+01 -0.1875132294316010E+01 -0.1886734031310207E+01 -0.1898299481590232E+01 -0.1909828694086365E+01
 -0.1921321717728888E+01 -0.1932778601448078E+01 -0.1944199394174216E+01 -0.1955584144837581E+01 -0.1966932902368454E+01
 -0.1978245715697113E+01 -0.1989522633753839E+01 -0.2000763705468910E+01 -0.2011968979772607E+01 -0.2023138505595209E+01
 -0.2034272331866997E+01 -0.2045370507518248E+01 -0.2056433081479244E+01 -0.2067460102680264E+01 -0.2078451620051587E+01
 -0.2089407682523494E+01 -0.2100328339026263E+01 -0.2111213638490176E+01 -0.2122063629845509E+01 -0.2132878362022546E+01
 -0.2143657883951564E+01 -0.2154402244562843E+01 -0.2165111492786662E+01 -0.2175785677553303E+01 -0.2186424847793043E+01
 -0.2197029052436164E+01 -0.2207598340412944E+01 -0.2218132760653662E+01 -0.2228632362088600E+01 -0.2239097193648036E+01
 -0.2249527304262251E+01 -0.2259922742861522E+01 -0.2270283558376132E+01 -0.2280609799736358E+01 -0.2290901515872481E+01
 -0.2301158755714781E+01 -0.2311381568193537E+01 -0.2321570002239028E+01 -0.2331724106781536E+01 -0.2341843930751337E+01
 -0.2351929523078714E+01 -0.2361980932693945E+01 -0.2371998208527310E+01 -0.2381981399509089E+01 -0.2391930554569561E+01
 -0.2401845722639007E+01 -0.2411726952647704E+01 -0.2421574293525934E+01 -0.2431387794203975E+01 -0.2441167503612109E+01
 -0.2450913470680613E+01 -0.2460625744339770E+01 -0.2470304373519857E+01 -0.2479949407151153E+01 -0.2489560894163940E+01
 -0.2499138883488496E+01 -0.2508683424055102E+01 -0.2518194564794037E+01 -0.2527672354635580E+01 -0.2537116842510011E+01
 -0.2546528077347610E+01 -0.2555906108078656E+01 -0.2565250983633431E+01 -0.2574562752942211E+01 -0.2583841464935278E+01
 -0.2593087168542911E+01 -0.2602299912695391E+01 -0.2611479746322996E+01 -0.2620626718356005E+01 -0.2629740877724700E+01
 -0.2638822273359360E+01 -0.2647870954190263E+01 -0.2656886969147690E+01 -0.2665870367161921E+01 -0.2674821197163235E+01
 -0.2683739508081911E+01 -0.2692625348848230E+01 -0.2701478768392470E+01 -0.2710299815644913E+01 -0.2719088539535838E+01
 -0.2727844988995523E+01 -0.2736569212954248E+01 -0.2745261260342295E+01 -0.2753921180089941E+01 -0.2762549021127467E+01
 -0.2771144832385152E+01 -0.2779708662793277E+01 -0.2788240561282120E+01 -0.2796740576781962E+01 -0.2805208758223081E+01
 -0.2813645154535758E+01 -0.2822049814650272E+01 -0.2830422787496904E+01 -0.2838764122005931E+01 -0.2847073867107635E+01
 -0.2855352071732296E+01 -0.2863598784810192E+01 -0.2871814055271602E+01 -0.2879997932046809E+01 -0.2888150464066089E+01
 -0.2896271700259724E+01 -0.2904361689557993E+01 -0.2912420480891175E+01 -0.2920448123189550E+01 -0.2928444665383399E+01
 -0.2936410156402999E+01 -0.2944344645178632E+01 -0.2952248180640578E+01 -0.2960120811719114E+01 -0.2967962587344521E+01
 -0.2975773556447079E+01 -0.2983553767957069E+01 -0.2991303270804767E+01 -0.2999022113920456E+01 -0.3006710346234414E+01
 -0.3014368016676922E+01 -0.3021995174178258E+01 -0.3029591867668703E+01 -0.3037158146078537E+01 -0.3044694058338037E+01
 -0.3052199653377485E+01 -0.3059674980127161E+01 -0.3067120087517341E+01 -0.3074535024478309E+01 -0.3081919839940344E+01
 -0.3089274582833723E+01 -0.3096599302088729E+01 -0.3103894046635639E+01 -0.3111158865404734E+01 -0.3118393807326294E+01
 -0.3125598921330597E+01 -0.3132774256347924E+01 -0.3139919861308555E+01 -0.3147035785142768E+01 -0.3154122076780844E+01
 -0.3161178785153062E+01 -0.3168205959189703E+01 -0.3175203647821045E+01 -0.3182171899977367E+01 -0.3189110764588952E+01
 -0.3196020290586076E+01 -0.3202900526899021E+01 -0.3209751522458066E+01 -0.3216573326193491E+01 -0.3223365987035574E+01
 -0.3230129553914597E+01 -0.3236864075760838E+01 -0.3243569601504577E+01 -0.3250246180076094E+01 -0.3256893860405669E+01
 -0.3263512691423581E+01 -0.3270102722060110E+01 -0.3276664001245535E+01 -0.3283196577910136E+01 -0.3289700500984193E+01
 -0.3296175819397986E+01 -0.3302622582081793E+01 -0.3309040837965896E+01 -0.3315430635980574E+01 -0.3321792025056105E+01
 -0.3328125054122770E+01 -0.3334429772110848E+01 -0.3340706227950619E+01 -0.3346954470572364E+01 -0.3353174548906360E+01
 -0.3359366511882889E+01 -0.3365530408432230E+01 -0.3371666287484662E+01 -0.3377774197970465E+01 -0.3383854188819918E+01
 -0.3389906308963302E+01 -0.3395930607330896E+01 -0.3401927132852979E+01 -0.3407895934459833E+01 -0.3413837061081735E+01
 -0.3419750561648966E+01 -0.3425636485091804E+01 -0.3431494880340531E+01 -0.3437325796325426E+01 -0.3443129281976768E+01
 -0.3448905386224836E+01 -0.3454654157999912E+01 -0.3460375646232273E+01 -0.3466069899852201E+01 -0.3471736967789975E+01
 -0.3477376898975872E+01 -0.3482989742340176E+01 -0.3488575546813165E+01 -0.3494134361325117E+01 -0.3499666234806313E+01
 -0.3505171216187032E+01 -0.3510649354397555E+01 -0.3516100698368161E+01 -0.3521525297029129E+01 -0.3526923199310739E+01
 -0.3532294454143271E+01 -0.3537639110457005E+01 -0.3542957217182220E+01 -0.3548248823249196E+01 -0.3553513977588212E+01
 -0.3558752729129548E+01 -0.3563965126803484E+01 -0.3569151219540299E+01 -0.3574311056270274E+01 -0.3579444685923688E+01
 -0.3584552157430819E+01 -0.3589633519721950E+01 -0.3594688821727357E+01 -0.3599718112377322E+01 -0.3604721440602124E+01
 -0.3609698855332043E+01 -0.3614650405497358E+01 -0.3619576140028349E+01 -0.3624476107855296E+01 -0.3629350357908478E+01
 -0.3634198939118176E+01 -0.3639021900414668E+01 -0.3643819290728234E+01 -0.3648591158989154E+01 -0.3653337554127708E+01
 -0.3658058525074176E+01 -0.3662754120758835E+01 -0.3667424390111969E+01 -0.3672069382063854E+01 -0.3676689145544771E+01
 -0.3681283729485000E+01 -0.3685853182814819E+01 -0.3690397554464510E+01 -0.3694916893364351E+01 -0.3699411248444624E+01
 -0.3703880668635605E+01 -0.3708325202867576E+01 -0.3712744900070816E+01 -0.3717139809175605E+01 -0.3721509979112223E+01
 -0.3725855458810949E+01 -0.3730176297202063E+01 -0.3734472543215844E+01 -0.3738744245782573E+01 -0.3742991453832528E+01
 -0.3747214216295990E+01 -0.3751412582103238E+01 -0.3755586600184552E+01 -0.3759736319470211E+01 -0.3763861788890495E+01
 -0.3767963057375684E+01 -0.3772040173856058E+01 -0.3776093187261896E+01 -0.3780122146523477E+01 -0.3784127100571081E+01
 -0.3788108098334989E+01 -0.3792065188745480E+01 -0.3795998420732833E+01 -0.3799907843227329E+01 -0.3803793505159245E+01
 -0.3807655455458864E+01 -0.3811493743056463E+01 -0.3815308416882322E+01 -0.3819099525866723E+01 -0.3822867118939943E+01
 -0.3826611245032263E+01 -0.3830331953073962E+01 -0.3834029291995320E+01 -0.3837703310726617E+01 -0.3841354058198132E+01
 -0.3844981583340145E+01 -0.3848585935082936E+01 -0.3852167162356784E+01 -0.3855725314091969E+01 -0.3859260439218771E+01
 -0.3862772586667468E+01 -0.3866261805368342E+01 -0.3869728144251671E+01 -0.3873171652247736E+01 -0.3876592378286815E+01
 -0.3879990371299189E+01 -0.3883365680215137E+01 -0.3886718353964939E+01 -0.3890048441478875E+01 -0.3893355991687224E+01
 -0.3896641053520265E+01 -0.3899903675908279E+01 -0.3903143907781546E+01 -0.3906361798070344E+01 -0.3909557395704953E+01
 -0.3912730749615654E+01 -0.3915881908732725E+01 -0.3919010921986447E+01 -0.3922117838307099E+01 -0.3925202706624961E+01
 -0.3928265575870312E+01 -0.3931306494973432E+01 -0.3934325512864602E+01 -0.3937322678474100E+01 -0.3940298040732205E+01
 -0.3943251648569198E+01 -0.3946183550915358E+01 -0.3949093796700966E+01 -0.3951982434856301E+01 -0.3954849514311642E+01
 -0.3957695083997268E+01 -0.3960519192843461E+01 -0.3963321889780499E+01 -0.3966103223738662E+01 -0.3968863243648229E+01
 -0.3971601998439481E+01 -0.3974319537042697E+01 -0.3977015908388156E+01 -0.3979691161406139E+01 -0.3982345345026924E+01
 -0.3984978508180792E+01 -0.3987590699798023E+01 -0.3990181968808896E+01 -0.3992752364143690E+01 -0.3995301934732685E+01
 -0.3997830729506161E+01 -0.4000338797394398E+01 -0.4002826187327675E+01 -0.4005292948236272E+01 -0.4007739129050468E+01
 -0.4010164778700544E+01 -0.4012569946116779E+01 -0.4014954680229451E+01 -0.4017319029968842E+01 -0.4019663044265232E+01
 -0.4021986772048898E+01 -0.4024290262250122E+01 -0.4026573563799182E+01 -0.4028836725626359E+01 -0.4031079796661932E+01
 -0.4033302825836181E+01 -0.4035505862079385E+01 -0.4037688954321825E+01 -0.4039852151493778E+01 -0.4041995502525528E+01
 -0.4044119056347350E+01 -0.4046222861889526E+01 -0.4048306968082336E+01 -0.4050371423856059E+01 -0.4052416278140975E+01
 -0.4054441579867362E+01 -0.4056447377965503E+01 -0.4058433721365674E+01 -0.4060400658998157E+01 -0.4062348239793232E+01
 -0.4064276512681176E+01 -0.4066185526592271E+01 -0.4068075330456796E+01 -0.4069945973205031E+01 -0.4071797503767256E+01
 -0.4073629971073748E+01 -0.4075443424054789E+01 -0.4077237911640659E+01 -0.4079013482761638E+01 -0.4080770186348003E+01
 -0.4082508071330035E+01 -0.4084227186638016E+01 -0.4085927581202221E+01 -0.4087609303952934E+01 -0.4089272403820432E+01
 -0.4090916929734996E+01 -0.4092542930626905E+01 -0.4094150455426439E+01 -0.4095739553063877E+01 -0.4097310272469501E+01
 -0.4098862662573587E+01 -0.4100396772306417E+01 -0.4101912650598271E+01 -0.4103410346379426E+01 -0.4104889908580165E+01
 -0.4106351386130766E+01 -0.4107794827961508E+01 -0.4109220283002672E+01 -0.4110627800184537E+01 -0.4112017428437382E+01
 -0.4113389216691489E+01 -0.4114743213877135E+01 -0.4116079468924601E+01 -0.4117398030764168E+01 -0.4118698948326112E+01
 -0.4119982270540715E+01 -0.4121248046338257E+01 -0.4122496324649017E+01 -0.4123727154403274E+01 -0.4124940584531309E+01
 -0.4126136663963401E+01 -0.4127315441629830E+01 -0.4128476966460875E+01 -0.4129621287386816E+01 -0.4130748453337932E+01
 -0.4131858513244504E+01 -0.4132951516036812E+01 -0.4134027510645133E+01 -0.4135086545999749E+01 -0.4136128671030939E+01
 -0.4137153934668982E+01 -0.4138162385844159E+01 -0.4139154073486749E+01 -0.4140129046527031E+01 -0.4141087353895285E+01
 -0.4142029044521792E+01 -0.4142954167336829E+01 -0.4143862771270680E+01 -0.4144754905253619E+01 -0.4145630618215930E+01
 -0.4146489959087891E+01 -0.4147332976799781E+01 -0.4148159720281882E+01 -0.4148970238464472E+01 -0.4149764580277829E+01
 -0.4150542794652236E+01 -0.4151304930517971E+01 -0.4152051036805314E+01 -0.4152781162444544E+01 -0.4153495356365942E+01
 -0.4154193667499786E+01 -0.4154876144776356E+01 -0.4155542837125934E+01 -0.4156193793478796E+01 -0.4156829062765224E+01
 -0.4157448693915496E+01 -0.4158052735859894E+01 -0.4158641237528697E+01 -0.4159214247852183E+01 -0.4159771815760633E+01
 -0.4160313990184326E+01 -0.4160840820053543E+01 -0.4161352354298562E+01 -0.4161848641849663E+01 -0.4162329731637127E+01
 -0.4162795672591233E+01 -0.4163246513642259E+01 -0.4163682303720487E+01 -0.4164103091756194E+01 -0.4164508926679662E+01
 -0.4164899857421172E+01 -0.4165275932910999E+01 -0.4165637202079426E+01 -0.4165983713856733E+01 -0.4166315517173198E+01
 -0.4166632660959102E+01 -0.4166935194144722E+01 -0.4167223165660341E+01 -0.4167496624436237E+01 -0.4167755619402690E+01
 -0.4168000199489979E+01 -0.4168230413628385E+01 -0.4168446310748187E+01 -0.4168647939779663E+01 -0.4168835349653096E+01
 -0.4169008589298763E+01 -0.4169167707646944E+01 -0.4169312753627921E+01 -0.4169443776171970E+01 -0.4169560824209373E+01
 -0.4169663946670410E+01 -0.4169753192485358E+01 -0.4169828610584500E+01 -0.4169890249898114E+01 -0.4169938159356480E+01
 -0.4169972387889876E+01 -0.4169992984428585E+01 -0.4169999997902884E+01 -0.4169993477243052E+01 -0.4169973471379373E+01
 -0.4169940029242121E+01 -0.4169893199761580E+01 -0.4169833031868028E+01 -0.4169759574491743E+01 -0.4169672876563008E+01
 -0.4169572987012100E+01 -0.4169459954769301E+01 -0.4169333828764889E+01 -0.4169194657929143E+01 -0.4169042491192345E+01
 -0.4168877377484772E+01 -0.4168699365736707E+01 -0.4168508504878425E+01 -0.4168304843840210E+01 -0.4168088431552340E+01
 -0.4167859316945094E+01 -0.4167617548948753E+01 -0.4167363176493596E+01 -0.4167096248509901E+01 -0.4166816813927952E+01
 -0.4166524921678024E+01 -0.4166220620690398E+01 -0.4165903959895354E+01 -0.4165574988223175E+01 -0.4165233754604134E+01
 -0.4164880307968517E+01 -0.4164514697246599E+01 -0.4164136971368662E+01 -0.4163747179264985E+01 -0.4163345369865849E+01
 -0.4162931592101531E+01 -0.4162505894902313E+01 -0.4162068327198474E+01 -0.4161618937920293E+01 -0.4161157775998050E+01
 -0.4160684890362025E+01 -0.4160200329942498E+01 -0.4159704143669748E+01 -0.4159196380474054E+01 -0.4158677089285697E+01
 -0.4158146319034956E+01 -0.4157604118652111E+01 -0.4157050537067441E+01 -0.4156485623211227E+01 -0.4155909426013746E+01
 -0.4155321994405281E+01 -0.4154723377316109E+01 -0.4154113623676512E+01 -0.4153492782416767E+01 -0.4152860902467156E+01
 -0.4152218032757956E+01 -0.4151564222219450E+01 -0.4150899519781916E+01 -0.4150223974375633E+01 -0.4149537634930882E+01
 -0.4148840550377941E+01 -0.4148132769647092E+01 -0.4147414341668612E+01 -0.4146685315372782E+01 -0.4145945739689883E+01
 -0.4145195663550192E+01 -0.4144435135883991E+01 -0.4143664205621556E+01 -0.4142882921693172E+01 -0.4142091333029115E+01
 -0.4141289488559665E+01 -0.4140477437215103E+01 -0.4139655227925708E+01 -0.4138822909621759E+01 -0.4137980531233537E+01
 -0.4137128141691320E+01 -0.4136265789925389E+01 -0.4135393524866023E+01 -0.4134511395443502E+01 -0.4133619450588106E+01
 -0.4132717739230113E+01 -0.4131806310299805E+01 -0.4130885212727459E+01 -0.4129954495443357E+01 -0.4129014207377779E+01
 -0.4128064397461001E+01 -0.4127105114623307E+01 -0.4126136407794974E+01 -0.4125158325906282E+01 -0.4124170917887512E+01
 -0.4123174232668942E+01 -0.4122168319180853E+01 -0.4121153226353524E+01 -0.4120129003117235E+01 -0.4119095698402265E+01
 -0.4118053361138893E+01 -0.4117002040257401E+01 -0.4115941784688067E+01 -0.4114872643361171E+01 -0.4113794665206993E+01
 -0.4112707899155811E+01 -0.4111612394137908E+01 -0.4110508199083561E+01 -0.4109391118205607E+01 -0.4108257062642229E+01
 -0.4107105577263606E+01 -0.4105936664728431E+01 -0.4104750327697047E+01 -0.4103546568831409E+01 -0.4102325390795071E+01
 -0.4101086796253170E+01 -0.4099830787872405E+01 -0.4098557368321014E+01 -0.4097266540268761E+01 -0.4095958306386914E+01
 -0.4094632669348230E+01 -0.4093289631826930E+01 -0.4091929196498686E+01 -0.4090551366040603E+01 -0.4089156143131200E+01
 -0.4087743530450392E+01 -0.4086313530679468E+01 -0.4084866146501084E+01 -0.4083401380599234E+01 -0.4081919235659240E+01
 -0.4080419714367731E+01 -0.4078902819412629E+01 -0.4077368553483129E+01 -0.4075816919269681E+01 -0.4074247919463979E+01
 -0.4072661556758942E+01 -0.4071057833848691E+01 -0.4069436753428542E+01 -0.4067798318194985E+01 -0.4066142530845665E+01
 -0.4064469394079374E+01 -0.4062778910596028E+01 -0.4061071083096651E+01 -0.4059345914283367E+01 -0.4057603406859373E+01
 -0.4055843563528931E+01 -0.4054066386997356E+01 -0.4052271879970988E+01 -0.4050460045157188E+01 -0.4048630885264320E+01
 -0.4046784403001732E+01 -0.4044920601079748E+01 -0.4043039482209646E+01 -0.4041141049103650E+01 -0.4039225304474907E+01
 -0.4037292251037483E+01 -0.4035341891506340E+01 -0.4033374228597324E+01 -0.4031389265027156E+01 -0.4029387003513407E+01
 -0.4027367446774497E+01 -0.4025330597529670E+01 -0.4023276458498986E+01 -0.4021205032403304E+01 -0.4019116321964273E+01
 -0.4017010329904316E+01 -0.4014887058946614E+01 -0.4012746511815094E+01 -0.4010588691234421E+01 -0.4008413599929975E+01
 -0.4006221240627847E+01 -0.4004011616054822E+01 -0.4001784728938363E+01 -0.3999540582006606E+01 -0.3997279177988340E+01
 -0.3995000519612998E+01 -0.3992704609610642E+01 -0.3990391450711955E+01 -0.3988061045648223E+01 -0.3985713397151327E+01
 -0.3983348507953728E+01 -0.3980966380788457E+01 -0.3978567018389099E+01 -0.3976150423489788E+01 -0.3973716598825189E+01
 -0.3971265547130488E+01 -0.3968797271141379E+01 -0.3966311773594059E+01 -0.3963809057225206E+01 -0.3961289124771973E+01
 -0.3958751978971979E+01 -0.3956197622563294E+01 -0.3953626058284426E+01 -0.3951037288874317E+01 -0.3948431317072323E+01
 -0.3945808145618211E+01 -0.3943167777252142E+01 -0.3940510214714661E+01 -0.3937835460746693E+01 -0.3935143518089521E+01
 -0.3932434389484785E+01 -0.3929708077674466E+01 -0.3926964585400877E+01 -0.3924203915406652E+01 -0.3921426070434741E+01
 -0.3918631053228386E+01 -0.3915818866531130E+01 -0.3912989513086788E+01 -0.3910142995639449E+01 -0.3907279316933463E+01
 -0.3904398479713429E+01 -0.3901500486724188E+01 -0.3898585340710810E+01 -0.3895653044418586E+01 -0.3892703600593021E+01
 -0.3889737011979816E+01 -0.3886753281324871E+01 -0.3883752411374263E+01 -0.3880734404874242E+01 -0.3877699264571226E+01
 -0.3874646993211786E+01 -0.3871577593542635E+01 -0.3868491068310624E+01 -0.3865387420262731E+01 -0.3862266652146052E+01
 -0.3859128766707792E+01 -0.3855973766695253E+01 -0.3852801654855832E+01 -0.3849612433937005E+01 -0.3846406106686323E+01
 -0.3843182675851399E+01 -0.3839942144179908E+01 -0.3836684514419565E+01 -0.3833409789318130E+01 -0.3830117971623388E+01
 -0.3826809064083153E+01 -0.3823483069445244E+01 -0.3820139990457493E+01 -0.3816779829867725E+01 -0.3813402590423755E+01
 -0.3810008274873379E+01 -0.3806596885964365E+01 -0.3803168426444448E+01 -0.3799722899061318E+01 -0.3796260306562613E+01
 -0.3792780651695913E+01 -0.3789283937208732E+01 -0.3785770165848508E+01 -0.3782239340362599E+01 -0.3778691463498270E+01
 -0.3775126538002691E+01 -0.3771544566622927E+01 -0.3767945552105928E+01 -0.3764329497198527E+01 -0.3760696404647429E+01
 -0.3757046277199202E+01 -0.3753379117600276E+01 -0.3749694928596929E+01 -0.3745993712935282E+01 -0.3742275473361297E+01
 -0.3738540212620759E+01 -0.3734787933459280E+01 -0.3731018638622289E+01 -0.3727232330855015E+01 -0.3723429012902499E+01
 -0.3719608687509568E+01 -0.3715771357420842E+01 -0.3711917025380721E+01 -0.3708045694133378E+01 -0.3704157366422757E+01
 -0.3700252044992560E+01 -0.3696329732586244E+01 -0.3692390431947015E+01 -0.3688434145817818E+01 -0.3684460876941337E+01
 -0.3680470628059982E+01 -0.3676463401915887E+01 -0.3672439201250901E+01 -0.3668398028806582E+01 -0.3664339887324192E+01
 -0.3660264779544691E+01 -0.3656172708208730E+01 -0.3652063676056646E+01 -0.3647937685828452E+01 -0.3643794740263838E+01
 -0.3639634842102156E+01 -0.3635457994082425E+01 -0.3631264198943316E+01 -0.3627053459423148E+01 -0.3622825778259886E+01
 -0.3618581158191132E+01 -0.3614319601954121E+01 -0.3610041112285713E+01 -0.3605745691922389E+01 -0.3601433343600245E+01
 -0.3597104070054987E+01 -0.3592757874021923E+01 -0.3588394758235965E+01 -0.3584014725431610E+01 -0.3579617778342950E+01
 -0.3575203919703654E+01 -0.3570773152246969E+01 -0.3566325478705716E+01 -0.3561860901812282E+01 -0.3557379424298611E+01
 -0.3552881048896206E+01 -0.3548365778336120E+01 -0.3543833615348953E+01 -0.3539284562664843E+01 -0.3534718623013463E+01
 -0.3530135799124021E+01 -0.3525536093725242E+01 -0.3520919509545381E+01 -0.3516286049312201E+01 -0.3511635715752981E+01
 -0.3506968511594501E+01 -0.3502284439563044E+01 -0.3497583502384390E+01 -0.3492865702783809E+01 -0.3488131043486060E+01
 -0.3483379527215379E+01 -0.3478611156695484E+01 -0.3473825934649563E+01 -0.3469023863800275E+01 -0.3464204946869739E+01
 -0.3459369186579535E+01 -0.3454516585650698E+01 -0.3449647146803711E+01 -0.3444760872758502E+01 -0.3439857766234444E+01
 -0.3434937829950346E+01 -0.3430001066624446E+01 -0.3425047478974413E+01 -0.3420077069717339E+01 -0.3415089841569737E+01
 -0.3410085797247533E+01 -0.3405064939466067E+01 -0.3400027270940083E+01 -0.3394972794383731E+01 -0.3389901512510559E+01
 -0.3384813428033508E+01 -0.3379708543664911E+01 -0.3374586862116487E+01 -0.3369448386099340E+01 -0.3364293118323951E+01
 -0.3359121061500176E+01 -0.3353932218337241E+01 -0.3348726591543740E+01 -0.3343504183827632E+01 -0.3338264997896232E+01
 -0.3333009036456211E+01 -0.3327736302213597E+01 -0.3322446797873758E+01 -0.3317140526141415E+01 -0.3311817489720621E+01
 -0.3306477691314772E+01 -0.3301121133626595E+01 -0.3295747819358150E+01 -0.3290357751210817E+01 -0.3284950931885303E+01
 -0.3279527364081638E+01 -0.3274087050499157E+01 -0.3268629993836515E+01 -0.3263156196791676E+01 -0.3257665662061905E+01
 -0.3252158392343772E+01 -0.3246634390333143E+01 -0.3241093658725184E+01 -0.3235536200214345E+01 -0.3229962017494372E+01
 -0.3224371113258291E+01 -0.3218763490198413E+01 -0.3213139151006327E+01 -0.3207498098372896E+01 -0.3201840334988258E+01
 -0.3196165863541816E+01 -0.3190474686722241E+01 -0.3184766807217471E+01 -0.3179042227714698E+01 -0.3173300950900372E+01
 -0.3167542979460200E+01 -0.3161768316079134E+01 -0.3155976963441378E+01 -0.3150168924230379E+01 -0.3144344201128825E+01
 -0.3138502796818645E+01 -0.3132644713981001E+01 -0.3126769955296291E+01 -0.3120878523444139E+01 -0.3114970421103400E+01
 -0.3109045650952150E+01 -0.3103104215667690E+01 -0.3097146117926535E+01 -0.3091171360404422E+01 -0.3085179945776297E+01
 -0.3079171876716316E+01 -0.3073147155897846E+01 -0.3067105785993455E+01 -0.3061047769674918E+01 -0.3054973109613206E+01
 -0.3048881808478488E+01 -0.3042773868940130E+01 -0.3036649293666684E+01 -0.3030508085325899E+01 -0.3024350246584706E+01
 -0.3018175780109218E+01 -0.3011984688564735E+01 -0.3005776974615736E+01 -0.2999552640925872E+01 -0.2993311690157973E+01
 -0.2987054124974037E+01 -0.2980779948035235E+01 -0.2974489162001903E+01 -0.2968181769533543E+01 -0.2961857773288817E+01
 -0.2955517175925550E+01 -0.2949159980100721E+01 -0.2942786188470466E+01 -0.2936395803690078E+01 -0.2929988828413994E+01
 -0.2923565265295804E+01 -0.2917125116988240E+01 -0.2910668386143186E+01 -0.2904195075411657E+01 -0.2897705187443817E+01
 -0.2891198724888961E+01 -0.2884675690395525E+01 -0.2878136086611073E+01 -0.2871579916182304E+01 -0.2865007181755043E+01
 -0.2858417885974244E+01 -0.2851812031483984E+01 -0.2845189620927464E+01 -0.2838550656947004E+01 -0.2831895142184046E+01
 -0.2825223079279146E+01 -0.2818534470871976E+01 -0.2811829319601317E+01 -0.2805107628105067E+01 -0.2798369399020228E+01
 -0.2791614634982911E+01 -0.2784843338628332E+01 -0.2778055512590809E+01 -0.2771251159503761E+01 -0.2764430281999706E+01
 -0.2757592882710264E+01 -0.2750738964266144E+01 -0.2743868529297154E+01 -0.2736981580432190E+01 -0.2730078120299244E+01
 -0.2723158151525387E+01 -0.2716221676736787E+01 -0.2709268698558691E+01 -0.2702299219615427E+01 -0.2695313242530413E+01
 -0.2688310769926138E+01 -0.2681291804424176E+01 -0.2674256348645172E+01 -0.2667204405208848E+01 -0.2660135976734000E+01
 -0.2653051065838494E+01 -0.2645949675139266E+01 -0.2638831807252322E+01 -0.2631697464792734E+01 -0.2624546650374636E+01
 -0.2617379366611228E+01 -0.2610195616114773E+01 -0.2602995401496593E+01 -0.2595778725367069E+01 -0.2588545590335639E+01
 -0.2581295999010799E+01 -0.2574029954000096E+01 -0.2566747457910133E+01 -0.2559448513346560E+01 -0.2552133122914083E+01
 -0.2544801289216452E+01 -0.2537453014856469E+01 -0.2530088302435975E+01 -0.2522707154555859E+01 -0.2515309573816055E+01
 -0.2507895562815534E+01 -0.2500465124152310E+01 -0.2493018260423436E+01 -0.2485554974225002E+01 -0.2478075268152133E+01
 -0.2470579144798991E+01 -0.2463066606758769E+01 -0.2455537656623692E+01 -0.2447992296985022E+01 -0.2440430530433042E+01
 -0.2432852359557073E+01 -0.2425257786945452E+01 -0.2417646815185553E+01 -0.2410019446863766E+01 -0.2402375684565512E+01
 -0.2394715530875226E+01 -0.2387038988376372E+01 -0.2379346059651432E+01 -0.2371636747281903E+01 -0.2363911053848301E+01
 -0.2356168981930164E+01 -0.2348410534106036E+01 -0.2340635712953484E+01 -0.2332844521049083E+01 -0.2325036960968422E+01
 -0.2317213035286101E+01 -0.2309372746575727E+01 -0.2301516097409920E+01 -0.2293643090360306E+01 -0.2285753727997515E+01
 -0.2277848012891188E+01 -0.2269925947609968E+01 -0.2261987534721499E+01 -0.2254032776792431E+01 -0.2246061676388414E+01
 -0.2238074236074098E+01 -0.2230070458413135E+01 -0.2222050345968173E+01 -0.2214013901300862E+01 -0.2205961126971840E+01
 -0.2197892025540750E+01 -0.2189806599566227E+01 -0.2181704851605896E+01 -0.2173586784216381E+01 -0.2165452399953294E+01
 -0.2157301701371240E+01 -0.2149134691023811E+01 -0.2140951371463596E+01 -0.2132751745242162E+01 -0.2124535814910073E+01
 -0.2116303583016878E+01 -0.2108055052111106E+01 -0.2099790224740278E+01 -0.2091509103450897E+01 -0.2083211690788448E+01
 -0.2074897989297401E+01 -0.2066568001521208E+01 -0.2058221730002300E+01 -0.2049859177282091E+01 -0.2041480345900973E+01
 -0.2033085238398315E+01 -0.2024673857312471E+01 -0.2016246205180763E+01 -0.2007802284539495E+01 -0.1999342097923950E+01
 -0.1990865647868381E+01 -0.1982372936906015E+01 -0.1973863967569055E+01 -0.1965338742388678E+01 -0.1956797263895031E+01
 -0.1948239534617235E+01 -0.1939665557083378E+01 -0.1931075333820527E+01 -0.1922468867354707E+01 -0.1913846160210920E+01
 -0.1905207214913136E+01 -0.1896552033984290E+01 -0.1887880619946287E+01 -0.1879192975319996E+01 -0.1870489102625252E+01
 -0.1861769004380856E+01 -0.1853032683104579E+01 -0.1844280141313146E+01 -0.1835511381522250E+01 -0.1826726406246553E+01
 -0.1817925217999670E+01 -0.1809107819294185E+01 -0.1800274212641641E+01 -0.1791424400552539E+01 -0.1782558385536343E+01
 -0.1773676170101478E+01 -0.1764777756755325E+01 -0.1755863148004229E+01 -0.1746932346353486E+01 -0.1737985354307355E+01
 -0.1729022174369049E+01 -0.1720042809040740E+01 -0.1711047260823560E+01 -0.1702035532217583E+01 -0.1693007625721856E+01
 -0.1683963543834370E+01 -0.1674903289052071E+01 -0.1665826863870863E+01 -0.1656734270785599E+01 -0.1647625512290091E+01
 -0.1638500590877098E+01 -0.1629359509038336E+01 -0.1620202269264466E+01 -0.1611028874045107E+01 -0.1601839325868826E+01
 -0.1592633627223142E+01 -0.1583411780594523E+01 -0.1574173788468390E+01 -0.1564919653329108E+01 -0.1555649377659997E+01
 -0.1546362963943318E+01 -0.1537060414660287E+01 -0.1527741732291069E+01 -0.1518406919314771E+01 -0.1509055978209452E+01
 -0.1499688911452117E+01 -0.1490305721518716E+01 -0.1480906410884146E+01 -0.1471490982022252E+01 -0.1462059437405822E+01
 -0.1452611779506589E+01 -0.1443148010795238E+01 -0.1433668133741391E+01 -0.1424172150813616E+01 -0.1414660064479430E+01
 -0.1405131877205289E+01 -0.1395587591456594E+01 -0.1386027209697691E+01 -0.1376450734391867E+01 -0.1366858168001356E+01
 -0.1357249512987329E+01 -0.1347624771809904E+01 -0.1337983946928138E+01 -0.1328327040800033E+01 -0.1318654055882535E+01
 -0.1308964994631525E+01 -0.1299259859501828E+01 -0.1289538652947211E+01 -0.1279801377420383E+01 -0.1270048035372989E+01
 -0.1260278629255623E+01 -0.1250493161517811E+01 -0.1240691634608024E+01 -0.1230874050973674E+01 -0.1221040413061105E+01
 -0.1211190723315609E+01 -0.1201324984181416E+01 -0.1191443198101690E+01 -0.1181545367518542E+01 -0.1171631494873018E+01
 -0.1161701582605101E+01 -0.1151755633153715E+01 -0.1141793648956722E+01 -0.1131815632450925E+01 -0.1121821586072064E+01
 -0.1111811512254814E+01 -0.1101785413432793E+01 -0.1091743292038553E+01 -0.1081685150503585E+01 -0.1071610991258318E+01
 -0.1061520816732124E+01 -0.1051414629353301E+01 -0.1041292431549096E+01 -0.1031154225745689E+01 -0.1021000014368195E+01
 -0.1010829799840666E+01 -0.1000643584586097E+01 -0.9904413710264168E+00 -0.9802231615824883E+00 -0.9699889586741175E+00
 -0.9597387647200437E+00 -0.9494725821379397E+00 -0.9391904133444253E+00 -0.9288922607550434E+00 -0.9185781267842886E+00
 -0.9082480138455801E+00 -0.8979019243512812E+00 -0.8875398607126888E+00 -0.8771618253400353E+00 -0.8667678206424915E+00
 -0.8563578490281668E+00 -0.8459319129041049E+00 -0.8354900146762849E+00 -0.8250321567496242E+00 -0.8145583415279811E+00
 -0.8040685714141391E+00 -0.7935628488098303E+00 -0.7830411761157166E+00 -0.7725035557314014E+00 -0.7619499900554180E+00
 -0.7513804814852457E+00 -0.7407950324172911E+00 -0.7301936452469024E+00 -0.7195763223683644E+00 -0.7089430661748994E+00
 -0.6982938790586698E+00 -0.6876287634107626E+00 -0.6769477216212164E+00 -0.6662507560789982E+00 -0.6555378691720145E+00
 -0.6448090632871082E+00 -0.6340643408100617E+00 -0.6233037041255950E+00 -0.6125271556173622E+00 -0.6017346976679573E+00
 -0.5909263326589124E+00 -0.5801020629706921E+00 -0.5692618909827059E+00 -0.5584058190732981E+00 -0.5475338496197496E+00
 -0.5366459849982825E+00 -0.5257422275840539E+00 -0.5148225797511585E+00 -0.5038870438726335E+00 -0.4929356223204515E+00
 -0.4819683174655228E+00 -0.4709851316777008E+00 -0.4599860673257732E+00 -0.4489711267774706E+00 -0.4379403123994555E+00
 -0.4268936265573396E+00 -0.4158310716156640E+00 -0.4047526499379179E+00 -0.3936583638865237E+00 -0.3825482158228498E+00
 -0.3714222081071948E+00 -0.3602803430988084E+00 -0.3491226231558712E+00 -0.3379490506355100E+00 -0.3267596278937897E+00
 -0.3155543572857166E+00 -0.3043332411652381E+00 -0.2930962818852431E+00 -0.2818434817975595E+00 -0.2705748432529558E+00
 -0.2592903686011446E+00 -0.2479900601907809E+00 -0.2366739203694600E+00 -0.2253419514837188E+00 -0.2139941558790388E+00
 -0.2026305358998378E+00 -0.1912510938894817E+00 -0.1798558321902785E+00 -0.1684447531434792E+00 -0.1570178590892763E+00
 -0.1455751523668107E+00 -0.1341166353141554E+00 -0.1226423102683409E+00 -0.1111521795653323E+00 -0.9964624554004221E-01
 -0.8812451052632808E-01 -0.7658697685699331E-01 -0.6503364686378445E-01 -0.5346452287738895E-01 -0.4187960722744678E-01
 -0.3027890224254041E-01 -0.1866241025019699E-01 -0.7030133576890384E-02  0.4617925451953440E-02  0.1628176451197367E-01
  0.2796138127985470E-01  0.3965677343333902E-01  0.5136793865121386E-01  0.6309487461332720E-01  0.7483757900057622E-01
  0.8659604949490608E-01  0.9837028377932168E-01  0.1101602795378691E+00  0.1219660344556608E+00  0.1337875462188419E+00
  0.1456248125146241E+00  0.1574778310312648E+00  0.1693465994580630E+00  0.1812311154853778E+00  0.1931313768046169E+00
  0.2050473811082350E+00  0.2169791260897305E+00  0.2289266094436599E+00  0.2408898288656300E+00  0.2528687820522814E+00
  0.2648634667013176E+00  0.2768738805114787E+00  0.2889000211825656E+00  0.3009418864154070E+00  0.3129994739118987E+00
  0.3250727813749717E+00  0.3371618065086034E+00  0.3492665470178223E+00  0.3613870006086938E+00  0.3735231649883359E+00
  0.3856750378649129E+00  0.3978426169476288E+00  0.4100258999467367E+00  0.4222248845735238E+00  0.4344395685403367E+00
  0.4466699495605468E+00  0.4589160253485918E+00  0.4711777936199236E+00  0.4834552520910611E+00  0.4957483984795596E+00
  0.5080572305040074E+00  0.5203817458840423E+00  0.5327219423403343E+00  0.5450778175946106E+00  0.5574493693696210E+00
  0.5698365953891650E+00  0.5822394933780877E+00  0.5946580610622531E+00  0.6070922961685925E+00  0.6195421964250502E+00
  0.6320077595606249E+00  0.6444889833053407E+00  0.6569858653902763E+00  0.6694984035475385E+00  0.6820265955102637E+00
  0.6945704390126406E+00  0.7071299317898800E+00  0.7197050715782377E+00  0.7322958561150067E+00  0.7449022831385014E+00
  0.7575243503880904E+00  0.7701620556041551E+00  0.7828153965281389E+00  0.7954843709024889E+00  0.8081689764707091E+00
  0.8208692109773226E+00  0.8335850721678928E+00  0.8463165577890155E+00  0.8590636655883075E+00  0.8718263933144353E+00
  0.8846047387170737E+00  0.8973986995469564E+00  0.9102082735558192E+00  0.9230334584964487E+00  0.9358742521226556E+00
  0.9487306521892702E+00  0.9616026564521702E+00  0.9744902626682385E+00  0.9873934685954063E+00  0.1000312271992631E+01
  0.1013246670619877E+01  0.1026196662238165E+01  0.1039162244609515E+01  0.1052143415496996E+01  0.1065140172664683E+01
  0.1078152513877688E+01  0.1091180436902155E+01  0.1104223939505231E+01  0.1117283019455109E+01  0.1130357674520986E+01
  0.1143447902473105E+01  0.1156553701082710E+01  0.1169675068122075E+01  0.1182812001364510E+01  0.1195964498584325E+01
  0.1209132557556871E+01  0.1222316176058496E+01  0.1235515351866597E+01  0.1248730082759568E+01  0.1261960366516831E+01
  0.1275206200918837E+01  0.1288467583747035E+01  0.1301744512783915E+01  0.1315036985812959E+01  0.1328345000618698E+01
  0.1341668554986650E+01  0.1355007646703366E+01  0.1368362273556421E+01  0.1381732433334383E+01  0.1395118123826854E+01
  0.1408519342824439E+01  0.1421936088118772E+01  0.1435368357502483E+01  0.1448816148769229E+01  0.1462279459713685E+01
  0.1475758288131515E+01  0.1489252631819420E+01  0.1502762488575095E+01  0.1516287856197267E+01  0.1529828732485652E+01
  0.1543385115240989E+01  0.1556957002265031E+01  0.1570544391360524E+01  0.1584147280331244E+01  0.1597765666981951E+01
  0.1611399549118449E+01  0.1625048924547511E+01  0.1638713791076942E+01  0.1652394146515552E+01  0.1666089988673145E+01
  0.1679801315360545E+01  0.1693528124389573E+01  0.1707270413573059E+01  0.1721028180724835E+01  0.1734801423659738E+01
  0.1748590140193619E+01  0.1762394328143313E+01  0.1776213985326677E+01  0.1790049109562552E+01  0.1803899698670803E+01
  0.1817765750472274E+01  0.1831647262788821E+01  0.1845544233443313E+01  0.1859456660259590E+01  0.1873384541062521E+01
  0.1887327873677952E+01  0.1901286655932746E+01  0.1915260885654746E+01  0.1929250560672809E+01  0.1943255678816781E+01
  0.1957276237917504E+01  0.1971312235806827E+01  0.1985363670317576E+01  0.1999430539283591E+01  0.2013512840539700E+01
  0.2027610571921714E+01  0.2041723731266469E+01  0.2055852316411757E+01  0.2069996325196391E+01  0.2084155755460161E+01
  0.2098330605043861E+01  0.2112520871789262E+01  0.2126726553539139E+01  0.2140947648137253E+01  0.2155184153428355E+01
  0.2169436067258188E+01  0.2183703387473479E+01  0.2197986111921952E+01  0.2212284238452308E+01  0.2226597764914247E+01
  0.2240926689158453E+01  0.2255271009036592E+01  0.2269630722401323E+01  0.2284005827106285E+01  0.2298396321006107E+01
  0.2312802201956403E+01  0.2327223467813764E+01  0.2341660116435778E+01  0.2356112145681001E+01  0.2370579553408986E+01
  0.2385062337480257E+01  0.2399560495756329E+01  0.2414074026099698E+01  0.2428602926373826E+01  0.2443147194443183E+01
  0.2457706828173186E+01  0.2472281825430262E+01  0.2486872184081788E+01  0.2501477901996158E+01  0.2516098977042700E+01
  0.2530735407091750E+01  0.2545387190014614E+01  0.2560054323683563E+01  0.2574736805971861E+01  0.2589434634753735E+01
  0.2604147807904390E+01  0.2618876323300015E+01  0.2633620178817753E+01  0.2648379372335742E+01  0.2663153901733076E+01
  0.2677943764889832E+01  0.2692748959687058E+01  0.2707569484006762E+01  0.2722405335731945E+01  0.2737256512746556E+01
  0.2752123012935531E+01  0.2767004834184755E+01  0.2781901974381107E+01  0.2796814431412418E+01  0.2811742203167487E+01
  0.2826685287536093E+01  0.2841643682408962E+01  0.2856617385677813E+01  0.2871606395235297E+01  0.2886610708975065E+01
  0.2901630324791705E+01  0.2916665240580784E+01  0.2931715454238839E+01  0.2946780963663346E+01  0.2961861766752769E+01
  0.2976957861406522E+01  0.2992069245524988E+01  0.3007195917009492E+01  0.3022337873762344E+01  0.3037495113686805E+01
  0.3052667634687088E+01  0.3067855434668382E+01  0.3083058511536812E+01  0.3098276863199486E+01  0.3113510487564441E+01
  0.3128759382540706E+01  0.3144023546038236E+01  0.3159302975967957E+01  0.3174597670241751E+01  0.3189907626772444E+01
  0.3205232843473833E+01  0.3220573318260650E+01  0.3235929049048600E+01  0.3251300033754326E+01  0.3266686270295429E+01
  0.3282087756590467E+01  0.3297504490558935E+01  0.3312936470121298E+01  0.3328383693198949E+01  0.3343846157714249E+01
  0.3359323861590512E+01  0.3374816802751978E+01  0.3390324979123852E+01  0.3405848388632287E+01  0.3421387029204370E+01
  0.3436940898768151E+01  0.3452509995252616E+01  0.3468094316587707E+01  0.3483693860704295E+01  0.3499308625534209E+01
  0.3514938609010210E+01  0.3530583809066021E+01  0.3546244223636284E+01  0.3561919850656601E+01  0.3577610688063519E+01
  0.3593316733794507E+01  0.3609037985787992E+01  0.3624774441983333E+01  0.3640526100320837E+01  0.3656292958741733E+01
  0.3672075015188208E+01  0.3687872267603386E+01  0.3703684713931306E+01  0.3719512352116977E+01  0.3735355180106312E+01
  0.3751213195846184E+01  0.3767086397284397E+01  0.3782974782369680E+01  0.3798878349051711E+01  0.3814797095281083E+01
  0.3830731019009343E+01  0.3846680118188953E+01  0.3862644390773317E+01  0.3878623834716782E+01  0.3894618447974592E+01
  0.3910628228502969E+01  0.3926653174259010E+01  0.3942693283200799E+01  0.3958748553287302E+01  0.3974818982478448E+01
  0.3990904568735066E+01  0.4007005310018931E+01  0.4023121204292745E+01  0.4039252249520124E+01  0.4055398443665620E+01
  0.4071559784694706E+01  0.4087736270573783E+01  0.4103927899270178E+01  0.4120134668752129E+01  0.4136356576988820E+01
  0.4152593621950330E+01  0.4168845801607687E+01  0.4185113113932817E+01  0.4201395556898589E+01  0.4217693128478780E+01
  0.4234005826648082E+01  0.4250333649382126E+01  0.4266676594657435E+01  0.4283034660451481E+01  0.4299407844742621E+01
  0.4315796145510156E+01  0.4332199560734297E+01  0.4348618088396162E+01  0.4365051726477793E+01  0.4381500472962144E+01
  0.4397964325833092E+01  0.4414443283075409E+01  0.4430937342674803E+01  0.4447446502617878E+01  0.4463970760892161E+01
  0.4480510115486094E+01  0.4497064564389011E+01  0.4513634105591182E+01  0.4530218737083761E+01  0.4546818456858835E+01
  0.4563433262909394E+01  0.4580063153229323E+01  0.4596708125813439E+01  0.4613368178657442E+01  0.4630043309757960E+01
  0.4646733517112507E+01  0.4663438798719524E+01  0.4680159152578351E+01  0.4696894576689220E+01  0.4713645069053288E+01
  0.4730410627672593E+01  0.4747191250550099E+01  0.4763986935689654E+01  0.4780797681096022E+01  0.4797623484774864E+01
  0.4814464344732740E+01  0.4831320258977116E+01  0.4848191225516345E+01  0.4865077242359697E+01  0.4881978307517330E+01
  0.4898894419000302E+01  0.4915825574820574E+01  0.4932771772990997E+01  0.4949733011525331E+01  0.4966709288438206E+01
  0.4983700601745190E+01  0.5000706949462704E+01  0.5017728329608086E+01  0.5034764740199575E+01  0.5051816179256270E+01
  0.5068882644798209E+01  0.5085964134846281E+01  0.5103060647422298E+01  0.5120172180548941E+01  0.5137298732249794E+01
  0.5154440300549338E+01  0.5171596883472922E+01  0.5188768479046803E+01  0.5205955085298122E+01  0.5223156700254905E+01
  0.5240373321946065E+01  0.5257604948401408E+01  0.5274851577651628E+01  0.5292113207728292E+01  0.5309389836663867E+01
  0.5326681462491693E+01  0.5343988083246004E+01  0.5361309696961922E+01  0.5378646301675432E+01  0.5395997895423422E+01
  0.5413364476243649E+01  0.5430746042174762E+01  0.5448142591256286E+01  0.5465554121528625E+01  0.5482980631033072E+01
  0.5500422117811782E+01  0.5517878579907807E+01  0.5535350015365071E+01  0.5552836422228379E+01  0.5570337798543401E+01
  0.5587854142356701E+01  0.5605385451715704E+01  0.5622931724668724E+01  0.5640492959264940E+01  0.5658069153554413E+01
  0.5675660305588075E+01  0.5693266413417724E+01  0.5710887475096052E+01  0.5728523488676603E+01  0.5746174452213794E+01
  0.5763840363762936E+01  0.5781521221380180E+01  0.5799217023122571E+01  0.5816927767048011E+01  0.5834653451215271E+01
  0.5852394073684009E+01  0.5870149632514721E+01  0.5887920125768805E+01  0.5905705551508490E+01  0.5923505907796904E+01
  0.5941321192698017E+01  0.5959151404276677E+01  0.5976996540598606E+01  0.5994856599730363E+01  0.6012731579739397E+01
  0.6030621478694003E+01  0.6048526294663355E+01  0.6066446025717465E+01  0.6084380669927242E+01  0.6102330225364430E+01
  0.6120294690101635E+01  0.6138274062212336E+01  0.6156268339770860E+01  0.6174277520852396E+01  0.6192301603532997E+01
  0.6210340585889558E+01  0.6228394465999864E+01  0.6246463241942519E+01  0.6264546911797010E+01  0.6282645473643664E+01
  0.6300758925563679E+01  0.6318887265639086E+01  0.6337030491952792E+01  0.6355188602588551E+01  0.6373361595630960E+01
  0.6391549469165485E+01  0.6409752221278427E+01  0.6427969850056956E+01  0.6446202353589075E+01  0.6464449729963654E+01
  0.6482711977270408E+01  0.6500989093599891E+01  0.6519281077043524E+01  0.6537587925693558E+01  0.6555909637643108E+01
  0.6574246210986120E+01  0.6592597643817397E+01  0.6610963934232601E+01  0.6629345080328207E+01  0.6647741080201564E+01
  0.6666151931950854E+01  0.6684577633675105E+01  0.6703018183474189E+01  0.6721473579448813E+01  0.6739943819700548E+01
  0.6758428902331773E+01  0.6776928825445748E+01  0.6795443587146539E+01  0.6813973185539079E+01  0.6832517618729120E+01
  0.6851076884823264E+01  0.6869650981928960E+01  0.6888239908154471E+01  0.6906843661608926E+01  0.6925462240402267E+01
  0.6944095642645288E+01  0.6962743866449613E+01  0.6981406909927702E+01  0.7000084771192859E+01  0.7018777448359200E+01
  0.7037484939541705E+01  0.7056207242856164E+01  0.7074944356419203E+01  0.7093696278348300E+01  0.7112463006761733E+01
  0.7131244539778645E+01  0.7150040875518976E+01  0.7168852012103534E+01  0.7187677947653915E+01  0.7206518680292581E+01
  0.7225374208142800E+01  0.7244244529328681E+01  0.7263129641975161E+01  0.7282029544207981E+01  0.7300944234153745E+01
  0.7319873709939846E+01  0.7338817969694538E+01  0.7357777011546863E+01  0.7376750833626720E+01  0.7395739434064828E+01
  0.7414742810992698E+01  0.7433760962542709E+01  0.7452793886848021E+01  0.7471841582042645E+01  0.7490904046261408E+01
  0.7509981277639936E+01  0.7529073274314712E+01  0.7548180034423002E+01  0.7567301556102920E+01  0.7586437837493376E+01
  0.7605588876734117E+01  0.7624754671965704E+01  0.7643935221329500E+01  0.7663130522967700E+01  0.7682340575023308E+01
  0.7701565375640156E+01  0.7720804922962866E+01  0.7740059215136900E+01  0.7759328250308526E+01  0.7778612026624807E+01
  0.7797910542233657E+01  0.7817223795283762E+01  0.7836551783924649E+01  0.7855894506306641E+01  0.7875251960580873E+01
  0.7894624144899312E+01  0.7914011057414696E+01  0.7933412696280604E+01  0.7952829059651404E+01  0.7972260145682290E+01
  0.7991705952529253E+01  0.8011166478349086E+01  0.8030641721299411E+01  0.8050131679538621E+01  0.8069636351225954E+01
  0.8089155734521412E+01  0.8108689827585847E+01  0.8128238628580878E+01  0.8147802135668929E+01  0.8167380347013269E+01
  0.8186973260777915E+01  0.8206580875127722E+01  0.8226203188228327E+01  0.8245840198246185E+01  0.8265491903348535E+01
  0.8285158301703426E+01  0.8304839391479709E+01  0.8324535170847019E+01  0.8344245637975813E+01  0.8363970791037309E+01
  0.8383710628203580E+01  0.8403465147647424E+01  0.8423234347542492E+01  0.8443018226063215E+01  0.8462816781384802E+01
  0.8482630011683289E+01  0.8502457915135471E+01  0.8522300489918964E+01  0.8542157734212163E+01  0.8562029646194253E+01
  0.8581916224045237E+01  0.8601817465945869E+01  0.8621733370077735E+01  0.8641663934623171E+01  0.8661609157765344E+01
  0.8681569037688178E+01  0.8701543572576401E+01  0.8721532760615549E+01  0.8741536599991889E+01  0.8761555088892546E+01
  0.8781588225505370E+01  0.8801636008019047E+01  0.8821698434623018E+01  0.8841775503507519E+01  0.8861867212863572E+01
  0.8881973560882981E+01  0.8902094545758345E+01  0.8922230165683024E+01  0.8942380418851181E+01  0.8962545303457766E+01
  0.8982724817698479E+01  0.9002918959769836E+01  0.9023127727869106E+01  0.9043351120194380E+01  0.9063589134944475E+01
  0.9083841770319030E+01  0.9104109024518433E+01  0.9124390895743886E+01  0.9144687382197336E+01  0.9164998482081513E+01
  0.9185324193599945E+01  0.9205664514956910E+01  0.9226019444357473E+01  0.9246388980007479E+01  0.9266773120113543E+01
  0.9287171862883060E+01  0.9307585206524191E+01  0.9328013149245876E+01  0.9348455689257813E+01  0.9368912824770492E+01
  0.9389384553995184E+01  0.9409870875143893E+01  0.9430371786429426E+01  0.9450887286065349E+01  0.9471417372266004E+01
  0.9491962043246492E+01  0.9512521297222682E+01  0.9533095132411232E+01  0.9553683547029552E+01  0.9574286539295823E+01
  0.9594904107428967E+01  0.9615536249648732E+01  0.9636182964175575E+01  0.9656844249230740E+01  0.9677520103036251E+01
  0.5218442828573560E+02  0.5218442828573560E+02  0.5218442828573560E+02  0.5218442828573560E+02  0.5218442828573560E+02
  0.5218442828573560E+02  0.5218442828573560E+02  0.5218442828573560E+02  0.5218442828573560E+02  0.5218442828573560E+02
  0.5218442828573560E+02  0.5218442828573560E+02  0.5218442828573560E+02  0.5218442828573560E+02  0.5218442828573560E+02
  0.5218442828573560E+02  0.5218442828573560E+02  0.5218442828573560E+02  0.5218442828573560E+02  0.5218442828573560E+02
  0.5218442828573560E+02  0.5218442828573560E+02  0.5218442828573560E+02  0.5218442828573560E+02  0.5218442828573560E+02
  0.5218442828573560E+02  0.5218442828573560E+02  0.5218442828573560E+02  0.5218442828573560E+02  0.5218442828573560E+02
  0.5218442828573560E+02  0.5218442828573560E+02  0.5218442828573560E+02  0.5218442828573560E+02  0.5218442828573560E+02
  0.5218442828573560E+02  0.5218442828573560E+02  0.5218442828573560E+02  0.5218442828573560E+02  0.5218442828573560E+02
  0.5218442828573560E+02  0.5218442828573560E+02  0.5218442828573560E+02  0.5218442828573560E+02  0.5218442828573560E+02
  0.5218442828573560E+02  0.5218442828573560E+02  0.5218442828573560E+02  0.5218442828573560E+02  0.5218442828573560E+02
  0.5218442828573560E+02  0.5218442828573560E+02  0.5218442828573560E+02  0.5218442828573560E+02  0.5218442828573560E+02
  0.5218442828573560E+02  0.5218442828573560E+02  0.5218442828573560E+02  0.5218442828573560E+02  0.5218442828573560E+02
  0.5218442828573560E+02  0.5218442828573560E+02  0.5218442828573560E+02  0.5218442828573560E+02  0.5218442828573560E+02
  0.5218442828573560E+02  0.5218442828573560E+02  0.5218442828573560E+02  0.5218442828573560E+02  0.5218442828573560E+02
  0.5218442828573560E+02  0.5218442828573560E+02  0.5218442828573560E+02  0.5218442828573560E+02  0.5218442828573560E+02
  0.5218442828573560E+02  0.5218442828573560E+02  0.5218442828573560E+02  0.5218442828573560E+02  0.5218442828573560E+02
  0.5218442828573560E+02  0.5218442828573560E+02  0.5218442828573560E+02  0.5218442828573560E+02  0.5218442828573560E+02
  0.5218442828573560E+02  0.5218442828573560E+02  0.5218442828573560E+02  0.5218442828573560E+02  0.5218442828573560E+02
  0.5218442828573560E+02  0.5218442828573560E+02  0.5218442828573560E+02  0.5218442828573560E+02  0.5218442828573560E+02
  0.5218442828573560E+02  0.5218442828573560E+02  0.5218442828573560E+02  0.5218442828573560E+02  0.5218442828573560E+02
  0.5218442828573560E+02  0.5218442828573560E+02  0.5218442828573560E+02  0.5218442828573560E+02  0.5218442828573560E+02
  0.5218442828573560E+02  0.5218442828573560E+02  0.5218442828573560E+02  0.5218442828573560E+02  0.5218442828573560E+02
  0.5218442828573560E+02  0.5218442828573560E+02  0.5218442828573560E+02  0.5218442828573560E+02  0.5218442828573560E+02
  0.5218442828573560E+02  0.5218442828573560E+02  0.5218442828573560E+02  0.5218442828573560E+02  0.5218442828573560E+02
  0.5218442828573560E+02  0.5218442828573560E+02  0.5218442828573560E+02  0.5218442828573560E+02  0.5218442828573560E+02
  0.5218442828573560E+02  0.5218442828573560E+02  0.5218442828573560E+02  0.5218442828573560E+02  0.5218442828573560E+02
  0.5218442828573560E+02  0.5218442828573560E+02  0.5218442828573560E+02  0.5218442828573560E+02  0.5218442828573560E+02
  0.5218442828573560E+02  0.5218442828573560E+02  0.5218442828573560E+02  0.5218442828573560E+02  0.5218442828573560E+02
  0.5218442828573560E+02  0.5218442828573560E+02  0.5218442828573560E+02  0.5218442828573560E+02  0.5218442828573560E+02
  0.5218442828573560E+02  0.5218442828573560E+02  0.5218442828573560E+02  0.5218442828573560E+02  0.5218442828573560E+02
  0.5218442828573560E+02  0.5218442828573560E+02  0.5218442828573560E+02  0.5218442828573560E+02  0.5218442828573560E+02
  0.5218442828573560E+02  0.5218442828573560E+02  0.5218442828573560E+02  0.5218442828573560E+02  0.5218442828573560E+02
  0.5218442828573560E+02  0.5218442828573560E+02  0.5202028942883922E+02  0.5180028162537764E+02  0.5158120255306811E+02
  0.5136304835717831E+02  0.5114581519659136E+02  0.5092949924384170E+02  0.5071409668514799E+02  0.5049960372044264E+02
  0.5028601656339819E+02  0.5007333144145109E+02  0.4986154459582247E+02  0.4965065228153603E+02  0.4944065076743365E+02
  0.4923153633618809E+02  0.4902330528431349E+02  0.4881595392217342E+02  0.4860947857398658E+02  0.4840387557783041E+02
  0.4819914128564247E+02  0.4799527206322003E+02  0.4779226429021723E+02  0.4759011436014083E+02  0.4738881868034382E+02
  0.4718837367201738E+02  0.4698877577018115E+02  0.4679002142367184E+02  0.4659210709513037E+02  0.4639502926098725E+02
  0.4619878441144677E+02  0.4600336905046979E+02  0.4580877969575493E+02  0.4561501287871876E+02  0.4542206514447452E+02
  0.4522993305180988E+02  0.4503861317316336E+02  0.4484810209459971E+02  0.4465839641578437E+02  0.4446949274995665E+02
  0.4428138772390219E+02  0.4409407797792439E+02  0.4390756016581497E+02  0.4372183095482364E+02  0.4353688702562695E+02
  0.4335272507229649E+02  0.4316934180226619E+02  0.4298673393629891E+02  0.4280489820845254E+02  0.4262383136604514E+02
  0.4244353016961975E+02  0.4226399139290850E+02  0.4208521182279601E+02  0.4190718825928254E+02  0.4172991751544632E+02
  0.4155339641740567E+02  0.4137762180428052E+02  0.4120259052815339E+02  0.4102829945403017E+02  0.4085474545980039E+02
  0.4068192543619705E+02  0.4050983628675628E+02  0.4033847492777648E+02  0.4016783828827727E+02  0.3999792330995797E+02
  0.3982872694715615E+02  0.3966024616680551E+02  0.3949247794839369E+02  0.3932541928392002E+02  0.3915906717785274E+02
  0.3899341864708619E+02  0.3882847072089790E+02  0.3866422044090525E+02  0.3850066486102224E+02  0.3833780104741594E+02
  0.3817562607846295E+02  0.3801413704470551E+02  0.3785333104880769E+02  0.3769320520551157E+02  0.3753375664159300E+02
  0.3737498249581760E+02  0.3721687991889650E+02  0.3705944607344203E+02  0.3690267813392364E+02  0.3674657328662330E+02
  0.3659112872959126E+02  0.3643634167260159E+02  0.3628220933710778E+02  0.3612872895619832E+02  0.3597589777455222E+02
  0.3582371304839467E+02  0.3567217204545248E+02  0.3552127204490977E+02  0.3537101033736367E+02  0.3522138422477978E+02
  0.3507239102044804E+02  0.3492402804893830E+02  0.3477629264605619E+02  0.3462918215879902E+02  0.3448269394531144E+02
  0.3433682537484157E+02  0.3419157382769695E+02  0.3404693669520056E+02  0.3390291137964713E+02  0.3375949529425912E+02
  0.3361668586314325E+02  0.3347448052124680E+02  0.3333287671431404E+02  0.3319187189884292E+02  0.3305146354204160E+02
  0.3291164912178532E+02  0.3277242612657326E+02  0.3263379205548537E+02  0.3249574441813966E+02  0.3235828073464913E+02
  0.3222139853557927E+02  0.3208509536190537E+02  0.3194936876497001E+02  0.3181421630644077E+02  0.3167963555826788E+02
  0.3154562410264220E+02  0.3141217953195314E+02  0.3127929944874682E+02  0.3114698146568429E+02  0.3101522320549987E+02
  0.3088402230095975E+02  0.3075337639482053E+02  0.3062328313978799E+02  0.3049374019847600E+02  0.3036474524336553E+02
  0.3023629595676386E+02  0.3010839003076381E+02  0.2998102516720321E+02  0.2985419907762442E+02  0.2972790948323408E+02
  0.2960215411486299E+02  0.2947693071292600E+02  0.2935223702738221E+02  0.2922807081769516E+02  0.2910442985279330E+02
  0.2898131191103057E+02  0.2885871478014695E+02  0.2873663625722944E+02  0.2861507414867291E+02  0.2849402627014130E+02
  0.2837349044652890E+02  0.2825346451192162E+02  0.2813394630955870E+02  0.2801493369179428E+02  0.2789642452005929E+02
  0.2777841666482347E+02  0.2766090800555737E+02  0.2754389643069475E+02  0.2742737983759492E+02  0.2731135613250528E+02
  0.2719582323052417E+02  0.2708077905556345E+02  0.2696622154031177E+02  0.2685214862619753E+02  0.2673855826335221E+02
  0.2662544841057383E+02  0.2651281703529043E+02  0.2640066211352388E+02  0.2628898162985369E+02  0.2617777357738097E+02
  0.2606703595769269E+02  0.2595676678082580E+02  0.2584696406523180E+02  0.2573762583774128E+02  0.2562875013352853E+02
  0.2552033499607658E+02  0.2541237847714201E+02  0.2530487863672020E+02  0.2519783354301060E+02  0.2509124127238211E+02
  0.2498509990933870E+02  0.2487940754648499E+02  0.2477416228449230E+02  0.2466936223206439E+02  0.2456500550590378E+02
  0.2446109023067789E+02  0.2435761453898542E+02  0.2425457657132302E+02  0.2415197447605186E+02  0.2404980640936442E+02
  0.2394807053525148E+02  0.2384676502546920E+02  0.2374588805950634E+02  0.2364543782455161E+02  0.2354541251546114E+02
  0.2344581033472611E+02  0.2334662949244051E+02  0.2324786820626910E+02  0.2314952470141527E+02  0.2305159721058938E+02
  0.2295408397397690E+02  0.2285698323920694E+02  0.2276029326132078E+02  0.2266401230274048E+02  0.2256813863323777E+02
  0.2247267052990300E+02  0.2237760627711415E+02  0.2228294416650612E+02  0.2218868249693994E+02  0.2209481957447239E+02
  0.2200135371232543E+02  0.2190828323085605E+02  0.2181560645752600E+02  0.2172332172687183E+02  0.2163142738047498E+02
  0.2153992176693195E+02  0.2144880324182468E+02  0.2135807016769106E+02  0.2126772091399543E+02  0.2117775385709938E+02
  0.2108816738023253E+02  0.2099895987346354E+02  0.2091012973367118E+02  0.2082167536451549E+02  0.2073359517640917E+02
  0.2064588758648900E+02  0.2055855101858742E+02  0.2047158390320419E+02  0.2038498467747820E+02  0.2029875178515948E+02
  0.2021288367658106E+02  0.2012737880863135E+02  0.2004223564472624E+02  0.1995745265478159E+02  0.1987302831518573E+02
  0.1978896110877206E+02  0.1970524952479181E+02  0.1962189205888690E+02  0.1953888721306289E+02  0.1945623349566211E+02
  0.1937392942133683E+02  0.1929197351102257E+02  0.1921036429191151E+02  0.1912910029742608E+02  0.1904818006719259E+02
  0.1896760214701494E+02  0.1888736508884855E+02  0.1880746745077432E+02  0.1872790779697271E+02  0.1864868469769801E+02
  0.1856979672925251E+02  0.1849124247396106E+02  0.1841302052014553E+02  0.1833512946209943E+02  0.1825756790006271E+02
  0.1818033444019652E+02  0.1810342769455827E+02  0.1802684628107658E+02  0.1795058882352656E+02  0.1787465395150498E+02
  0.1779904030040568E+02  0.1772374651139510E+02  0.1764877123138775E+02  0.1757411311302201E+02  0.1749977081463588E+02
  0.1742574300024279E+02  0.1735202833950775E+02  0.1727862550772333E+02  0.1720553318578582E+02  0.1713275006017169E+02
  0.1706027482291383E+02  0.1698810617157806E+02  0.1691624280923986E+02  0.1684468344446091E+02  0.1677342679126593E+02
  0.1670247156911964E+02  0.1663181650290365E+02  0.1656146032289357E+02  0.1649140176473626E+02  0.1642163956942704E+02
  0.1635217248328706E+02  0.1628299925794083E+02  0.1621411865029373E+02  0.1614552942250972E+02  0.1607723034198903E+02
  0.1600922018134607E+02  0.1594149771838735E+02  0.1587406173608952E+02  0.1580691102257751E+02  0.1574004437110269E+02
  0.1567346058002130E+02  0.1560715845277276E+02  0.1554113679785818E+02  0.1547539442881898E+02  0.1540993016421556E+02
  0.1534474282760605E+02  0.1527983124752520E+02  0.1521519425746328E+02  0.1515083069584518E+02  0.1508673940600948E+02
  0.1502291923618769E+02  0.1495936903948354E+02  0.1489608767385239E+02  0.1483307400208069E+02  0.1477032689176556E+02
  0.1470784521529441E+02  0.1464562784982470E+02  0.1458367367726376E+02  0.1452198158424868E+02  0.1446055046212633E+02
  0.1439937920693341E+02  0.1433846671937663E+02  0.1427781190481296E+02  0.1421741367322991E+02  0.1415727093922601E+02
  0.1409738262199127E+02  0.1403774764528774E+02  0.1397836493743020E+02  0.1391923343126689E+02  0.1386035206416034E+02
  0.1380171977796825E+02  0.1374333551902450E+02  0.1368519823812021E+02  0.1362730689048487E+02  0.1356966043576757E+02
  0.1351225783801833E+02  0.1345509806566944E+02  0.1339818009151697E+02  0.1334150289270224E+02  0.1328506545069354E+02
  0.1322886675126773E+02  0.1317290578449205E+02  0.1311718154470602E+02  0.1306169303050326E+02  0.1300643924471360E+02
  0.1295141919438508E+02  0.1289663189076618E+02  0.1284207634928800E+02  0.1278775158954656E+02  0.1273365663528520E+02
  0.1267979051437707E+02  0.1262615225880760E+02  0.1257274090465715E+02  0.1251955549208364E+02  0.1246659506530535E+02
  0.1241385867258372E+02  0.1236134536620626E+02  0.1230905420246948E+02  0.1225698424166198E+02  0.1220513454804755E+02
  0.1215350418984833E+02  0.1210209223922809E+02  0.1205089777227554E+02  0.1199991986898775E+02  0.1194915761325359E+02
  0.1189861009283727E+02  0.1184827639936197E+02  0.1179815562829350E+02  0.1174824687892404E+02  0.1169854925435594E+02
  0.1164906186148567E+02  0.1159978381098767E+02  0.1155071421729844E+02  0.1150185219860062E+02  0.1145319687680709E+02
  0.1140474737754528E+02  0.1135650283014136E+02  0.1130846236760466E+02  0.1126062512661206E+02  0.1121299024749248E+02
  0.1116555687421146E+02  0.1111832415435572E+02  0.1107129123911789E+02  0.1102445728328122E+02  0.1097782144520444E+02
  0.1093138288680658E+02  0.1088514077355194E+02  0.1083909427443510E+02  0.1079324256196593E+02  0.1074758481215483E+02
  0.1070212020449779E+02  0.1065684792196175E+02  0.1061176715096986E+02  0.1056687708138687E+02  0.1052217690650460E+02
  0.1047766582302740E+02  0.1043334303105773E+02  0.1038920773408181E+02  0.1034525913895528E+02  0.1030149645588893E+02
  0.1025791889843457E+02  0.1021452568347081E+02  0.1017131603118908E+02  0.1012828916507952E+02  0.1008544431191710E+02
  0.1004278070174772E+02  0.1000029756787431E+02  0.9957994146843113E+01  0.9915869678429956E+01  0.9873923405626577E+01
  0.9832154574627010E+01  0.9790562434814055E+01  0.9749146238745782E+01  0.9707905242142122E+01  0.9666838703871445E+01
  0.9625945885937290E+01  0.9585226053465059E+01  0.9544678474688855E+01  0.9504302420938295E+01  0.9464097166625425E+01
  0.9424061989231703E+01  0.9384196169294981E+01  0.9344498990396598E+01  0.9304969739148493E+01  0.9265607705180404E+01
  0.9226412181127071E+01  0.9187382462615556E+01  0.9148517848252563E+01  0.9109817639611844E+01  0.9071281141221650E+01
  0.9032907660552214E+01  0.8994696508003338E+01  0.8956646996891966E+01  0.8918758443439870E+01  0.8881030166761347E+01
  0.8843461488850986E+01  0.8806051734571495E+01  0.8768800231641544E+01  0.8731706310623714E+01  0.8694769304912437E+01
  0.8657988550722044E+01  0.8621363387074812E+01  0.8584893155789098E+01  0.8548577201467518E+01  0.8512414871485149E+01
  0.8476405515977827E+01  0.8440548487830437E+01  0.8404843142665317E+01  0.8369288838830647E+01  0.8333884937388952E+01
  0.8298630802105572E+01  0.8263525799437284E+01  0.8228569298520883E+01  0.8193760671161838E+01  0.8159099291823040E+01
  0.8124584537613513E+01  0.8090215788277265E+01  0.8055992426182110E+01  0.8021913836308579E+01  0.7987979406238868E+01
  0.7954188526145844E+01  0.7920540588782060E+01  0.7887034989468871E+01  0.7853671126085535E+01  0.7820448399058431E+01
  0.7787366211350253E+01  0.7754423968449288E+01  0.7721621078358750E+01  0.7688956951586112E+01  0.7656431001132542E+01
  0.7624042642482326E+01  0.7591791293592391E+01  0.7559676374881825E+01  0.7527697309221466E+01  0.7495853521923540E+01
  0.7464144440731319E+01  0.7432569495808857E+01  0.7401128119730722E+01  0.7369819747471825E+01  0.7338643816397248E+01
  0.7307599766252149E+01  0.7276687039151679E+01  0.7245905079570961E+01  0.7215253334335117E+01  0.7184731252609304E+01
  0.7154338285888847E+01  0.7124073887989346E+01  0.7093937515036899E+01  0.7063928625458292E+01  0.7034046679971286E+01
  0.7004291141574930E+01  0.6974661475539892E+01  0.6945157149398876E+01  0.6915777632937020E+01  0.6886522398182399E+01
  0.6857390919396515E+01  0.6828382673064866E+01  0.6799497137887522E+01  0.6770733794769765E+01  0.6742092126812765E+01
  0.6713571619304278E+01  0.6685171759709418E+01  0.6656892037661413E+01  0.6628731944952468E+01  0.6600690975524611E+01
  0.6572768625460608E+01  0.6544964392974896E+01  0.6517277778404583E+01  0.6489708284200452E+01  0.6462255414918033E+01
  0.6434918677208690E+01  0.6407697579810753E+01  0.6380591633540707E+01  0.6353600351284379E+01  0.6326723247988197E+01
  0.6299959840650477E+01  0.6273309648312720E+01  0.6246772192051006E+01  0.6220346994967350E+01  0.6194033582181160E+01
  0.6167831480820685E+01  0.6141740220014528E+01  0.6115759330883174E+01  0.6089888346530579E+01  0.6064126802035758E+01
  0.6038474234444454E+01  0.6012930182760798E+01  0.5987494187939042E+01  0.5962165792875289E+01  0.5936944542399302E+01
  0.5911829983266305E+01  0.5886821664148848E+01  0.5861919135628692E+01  0.5837121950188740E+01  0.5812429662204978E+01
  0.5787841827938492E+01  0.5763358005527468E+01  0.5738977754979271E+01  0.5714700638162520E+01  0.5690526218799240E+01
  0.5666454062456987E+01  0.5642483736541079E+01  0.5618614810286788E+01  0.5594846854751625E+01  0.5571179442807611E+01
  0.5547612149133618E+01  0.5524144550207719E+01  0.5500776224299566E+01  0.5477506751462832E+01  0.5454335713527648E+01
  0.5431262694093101E+01  0.5408287278519734E+01  0.5385409053922117E+01  0.5362627609161398E+01  0.5339942534837948E+01
  0.5317353423283977E+01  0.5294859868556220E+01  0.5272461466428642E+01  0.5250157814385168E+01  0.5227948511612457E+01
  0.5205833158992689E+01  0.5183811359096409E+01  0.5161882716175364E+01  0.5140046836155403E+01  0.5118303326629403E+01
  0.5096651796850195E+01  0.5075091857723568E+01  0.5053623121801254E+01  0.5032245203273980E+01  0.5010957717964525E+01
  0.4989760283320828E+01  0.4968652518409096E+01  0.4947634043906979E+01  0.4926704482096735E+01  0.4905863456858454E+01
  0.4885110593663289E+01  0.4864445519566740E+01  0.4843867863201935E+01  0.4823377254772967E+01  0.4802973326048241E+01
  0.4782655710353874E+01  0.4762424042567078E+01  0.4742277959109622E+01  0.4722217097941288E+01  0.4702241098553366E+01
  0.4682349601962174E+01  0.4662542250702612E+01  0.4642818688821730E+01  0.4623178561872342E+01  0.4603621516906644E+01
  0.4584147202469885E+01  0.4564755268594034E+01  0.4545445366791512E+01  0.4526217150048905E+01  0.4507070272820748E+01
  0.4488004391023310E+01  0.4469019162028403E+01  0.4450114244657235E+01  0.4431289299174273E+01  0.4412543987281135E+01
  0.4393877972110521E+01  0.4375290918220145E+01  0.4356782491586721E+01  0.4338352359599948E+01  0.4320000191056545E+01
  0.4301725656154285E+01  0.4283528426486084E+01  0.4265408175034082E+01  0.4247364576163784E+01  0.4229397305618193E+01
  0.4211506040511990E+01  0.4193690459325734E+01  0.4175950241900078E+01  0.4158285069430020E+01  0.4140694624459170E+01
  0.4123178590874049E+01  0.4105736653898406E+01  0.4088368500087562E+01  0.4071073817322773E+01  0.4053852294805632E+01
  0.4036703623052468E+01  0.4019627493888801E+01  0.4002623600443791E+01  0.3985691637144730E+01  0.3968831299711543E+01
  0.3952042285151335E+01  0.3935324291752927E+01  0.3918677019081453E+01  0.3902100167972940E+01  0.3885593440528956E+01
  0.3869156540111234E+01  0.3852789171336357E+01  0.3836491040070438E+01  0.3820261853423846E+01  0.3804101319745932E+01
  0.3788009148619796E+01  0.3771985050857059E+01  0.3756028738492679E+01  0.3740139924779759E+01  0.3724318324184414E+01
  0.3708563652380620E+01  0.3692875626245114E+01  0.3677253963852313E+01  0.3661698384469237E+01  0.3646208608550462E+01
  0.3630784357733109E+01  0.3615425354831828E+01  0.3600131323833828E+01  0.3584901989893908E+01  0.3569737079329525E+01
  0.3554636319615867E+01  0.3539599439380970E+01  0.3524626168400820E+01  0.3509716237594521E+01  0.3494869379019438E+01
  0.3480085325866399E+01  0.3465363812454885E+01  0.3450704574228267E+01  0.3436107347749049E+01  0.3421571870694130E+01
  0.3407097881850094E+01  0.3392685121108512E+01  0.3378333329461275E+01  0.3364042248995927E+01  0.3349811622891045E+01
  0.3335641195411608E+01  0.3321530711904417E+01  0.3307479918793509E+01  0.3293488563575598E+01  0.3279556394815548E+01
  0.3265683162141844E+01  0.3251868616242093E+01  0.3238112508858556E+01  0.3224414592783671E+01  0.3210774621855622E+01
  0.3197192350953908E+01  0.3183667535994941E+01  0.3170199933927659E+01  0.3156789302729162E+01  0.3143435401400353E+01
  0.3130137989961620E+01  0.3116896829448511E+01  0.3103711681907450E+01  0.3090582310391450E+01  0.3077508478955870E+01
  0.3064489952654156E+01  0.3051526497533637E+01  0.3038617880631305E+01  0.3025763869969643E+01  0.3012964234552443E+01
  0.3000218744360667E+01  0.2987527170348300E+01  0.2974889284438249E+01  0.2962304859518228E+01  0.2949773669436694E+01
  0.2937295488998765E+01  0.2924870093962191E+01  0.2912497261033307E+01  0.2900176767863036E+01  0.2887908393042877E+01
  0.2875691916100945E+01  0.2863527117497990E+01  0.2851413778623464E+01  0.2839351681791591E+01  0.2827340610237449E+01
  0.2815380348113080E+01  0.2803470680483609E+01  0.2791611393323387E+01  0.2779802273512130E+01  0.2768043108831109E+01
  0.2756333687959319E+01  0.2744673800469692E+01  0.2733063236825310E+01  0.2721501788375642E+01  0.2709989247352799E+01
  0.2698525406867784E+01  0.2687110060906797E+01  0.2675743004327515E+01  0.2664424032855407E+01  0.2653152943080078E+01
  0.2641929532451593E+01  0.2630753599276855E+01  0.2619624942715966E+01  0.2608543362778630E+01  0.2597508660320547E+01
  0.2586520637039845E+01  0.2575579095473512E+01  0.2564683838993843E+01  0.2553834671804915E+01  0.2543031398939062E+01
  0.2532273826253373E+01  0.2521561760426207E+01  0.2510895008953710E+01  0.2500273380146364E+01  0.2489696683125538E+01
  0.2479164727820062E+01  0.2468677324962803E+01  0.2458234286087273E+01  0.2447835423524237E+01  0.2437480550398340E+01
  0.2427169480624751E+01  0.2416902028905820E+01  0.2406678010727742E+01  0.2396497242357249E+01  0.2386359540838302E+01
  0.2376264723988808E+01  0.2366212610397340E+01  0.2356203019419887E+01  0.2346235771176594E+01  0.2336310686548539E+01
  0.2326427587174515E+01  0.2316586295447816E+01  0.2306786634513053E+01  0.2297028428262979E+01  0.2287311501335310E+01
  0.2277635679109586E+01  0.2268000787704033E+01  0.2258406653972428E+01  0.2248853105500998E+01  0.2239339970605312E+01
  0.2229867078327214E+01  0.2220434258431723E+01  0.2211041341403998E+01  0.2201688158446279E+01  0.2192374541474857E+01
  0.2183100323117054E+01  0.2173865336708213E+01  0.2164669416288711E+01  0.2155512396600960E+01  0.2146394113086456E+01
  0.2137314401882804E+01  0.2128273099820794E+01  0.2119270044421447E+01  0.2110305073893109E+01  0.2101378027128537E+01
  0.2092488743702013E+01  0.2083637063866447E+01  0.2074822828550517E+01  0.2066045879355805E+01  0.2057306058553959E+01
  0.2048603209083839E+01  0.2039937174548721E+01  0.2031307799213465E+01  0.2022714928001726E+01  0.2014158406493165E+01
  0.2005638080920675E+01  0.1997153798167617E+01  0.1988705405765067E+01  0.1980292751889078E+01  0.1971915685357951E+01
  0.1963574055629518E+01  0.1955267712798436E+01  0.1946996507593493E+01  0.1938760291374929E+01  0.1930558916131762E+01
  0.1922392234479121E+01  0.1914260099655614E+01  0.1906162365520675E+01  0.1898098886551947E+01  0.1890069517842659E+01
  0.1882074115099033E+01  0.1874112534637679E+01  0.1866184633383018E+01  0.1858290268864719E+01  0.1850429299215120E+01
  0.1842601583166695E+01  0.1834806980049507E+01  0.1827045349788686E+01  0.1819316552901907E+01  0.1811620450496881E+01
  0.1803956904268866E+01  0.1796325776498176E+01  0.1788726930047712E+01  0.1781160228360486E+01  0.1773625535457183E+01
  0.1766122715933704E+01  0.1758651634958738E+01  0.1751212158271336E+01  0.1743804152178507E+01  0.1736427483552802E+01
  0.1729082019829931E+01  0.1721767629006377E+01  0.1714484179637028E+01  0.1707231540832808E+01  0.1700009582258327E+01
  0.1692818174129547E+01  0.1685657187211433E+01  0.1678526492815643E+01  0.1671425962798218E+01  0.1664355469557265E+01
  0.1657314886030677E+01  0.1650304085693841E+01  0.1643322942557372E+01  0.1636371331164840E+01  0.1629449126590522E+01
  0.1622556204437152E+01  0.1615692440833692E+01  0.1608857712433096E+01  0.1602051896410104E+01  0.1595274870459024E+01
  0.1588526512791546E+01  0.1581806702134540E+01  0.1575115317727884E+01  0.1568452239322295E+01  0.1561817347177163E+01
  0.1555210522058399E+01  0.1548631645236302E+01  0.1542080598483409E+01  0.1535557264072380E+01  0.1529061524773882E+01
  0.1522593263854483E+01  0.1516152365074544E+01  0.1509738712686143E+01  0.1503352191430985E+01  0.1496992686538337E+01
  0.1490660083722961E+01  0.1484354269183060E+01  0.1478075129598232E+01  0.1471822552127438E+01  0.1465596424406968E+01
  0.1459396634548422E+01  0.1453223071136705E+01  0.1447075623228016E+01  0.1440954180347857E+01  0.1434858632489048E+01
  0.1428788870109751E+01  0.1422744784131496E+01  0.1416726265937225E+01  0.1410733207369334E+01  0.1404765500727737E+01
  0.1398823038767921E+01  0.1392905714699023E+01  0.1387013422181913E+01  0.1381146055327270E+01  0.1375303508693692E+01
  0.1369485677285794E+01  0.1363692456552322E+01  0.1357923742384271E+01  0.1352179431113013E+01  0.1346459419508437E+01
  0.1340763604777090E+01  0.1335091884560327E+01  0.1329444156932472E+01  0.1323820320398989E+01  0.1318220273894650E+01
  0.1312643916781723E+01  0.1307091148848156E+01  0.1301561870305785E+01  0.1296055981788527E+01  0.1290573384350600E+01
  0.1285113979464747E+01  0.1279677669020454E+01  0.1274264355322190E+01  0.1268873941087654E+01  0.1263506329446017E+01
  0.1258161423936185E+01  0.1252839128505060E+01  0.1247539347505818E+01  0.1242261985696177E+01  0.1237006948236696E+01
  0.1231774140689058E+01  0.1226563469014379E+01  0.1221374839571509E+01  0.1216208159115350E+01  0.1211063334795177E+01
  0.1205940274152967E+01  0.1200838885121734E+01  0.1195759076023874E+01  0.1190700755569512E+01  0.1185663832854857E+01
  0.1180648217360570E+01  0.1175653818950130E+01  0.1170680547868213E+01  0.1165728314739074E+01  0.1160797030564936E+01
  0.1155886606724392E+01  0.1150996954970804E+01  0.1146127987430712E+01  0.1141279616602255E+01  0.1136451755353591E+01
  0.1131644316921329E+01  0.1126857214908960E+01  0.1122090363285309E+01  0.1117343676382975E+01  0.1112617068896789E+01
  0.1107910455882276E+01  0.1103223752754126E+01  0.1098556875284664E+01  0.1093909739602331E+01  0.1089282262190171E+01
  0.1084674359884328E+01  0.1080085949872538E+01  0.1075516949692638E+01  0.1070967277231075E+01  0.1066436850721429E+01
  0.1061925588742926E+01  0.1057433410218977E+01  0.1052960234415709E+01  0.1048505980940503E+01  0.1044070569740543E+01
  0.1039653921101374E+01  0.1035255955645453E+01  0.1030876594330713E+01  0.1026515758449139E+01  0.1022173369625340E+01
  0.1017849349815130E+01  0.1013543621304115E+01  0.1009256106706285E+01  0.1004986728962614E+01  0.1000735411339665E+01
  0.9965020774281885E+00  0.9922866511417533E+00  0.9880890567153522E+00  0.9839092187040354E+00  0.9797470619815359E+00
  0.9756025117389120E+00  0.9714754934831804E+00  0.9673659330359679E+00  0.9632737565321601E+00  0.9591988904185624E+00
  0.9551412614525558E+00  0.9511007967007672E+00  0.9470774235377426E+00  0.9430710696446201E+00  0.9390816630078150E+00
  0.9351091319177047E+00  0.9311534049673220E+00  0.9272144110510496E+00  0.9232920793633228E+00  0.9193863393973365E+00
  0.9154971209437535E+00  0.9116243540894216E+00  0.9077679692160924E+00  0.9039278969991495E+00  0.9001040684063331E+00
  0.8962964146964760E+00  0.8925048674182425E+00  0.8887293584088714E+00  0.8849698197929199E+00  0.8812261839810196E+00
  0.8774983836686278E+00  0.8737863518347910E+00  0.8700900217409069E+00  0.8664093269294949E+00  0.8627442012229664E+00
  0.8590945787224018E+00  0.8554603938063315E+00  0.8518415811295229E+00  0.8482380756217639E+00  0.8446498124866589E+00
  0.8410767272004235E+00  0.8375187555106872E+00  0.8339758334352932E+00  0.8304478972611079E+00  0.8269348835428317E+00
  0.8234367291018156E+00  0.8199533710248769E+00  0.8164847466631180E+00  0.8130307936307610E+00  0.8095914498039667E+00
  0.8061666533196706E+00  0.8027563425744169E+00  0.7993604562231994E+00  0.7959789331782985E+00  0.7926117126081283E+00
  0.7892587339360856E+00  0.7859199368393965E+00  0.7825952612479731E+00  0.7792846473432676E+00  0.7759880355571347E+00
  0.7727053665706892E+00  0.7694365813131731E+00  0.7661816209608217E+00  0.7629404269357345E+00  0.7597129409047459E+00
  0.7564991047782994E+00  0.7532988607093272E+00  0.7501121510921259E+00  0.7469389185612398E+00  0.7437791059903434E+00
  0.7406326564911290E+00  0.7374995134121907E+00  0.7343796203379173E+00  0.7312729210873801E+00  0.7281793597132312E+00
  0.7250988805005919E+00  0.7220314279659527E+00  0.7189769468560728E+00  0.7159353821468736E+00  0.7129066790423447E+00
  0.7098907829734458E+00  0.7068876395970056E+00  0.7038971947946304E+00  0.7009193946716066E+00  0.6979541855558106E+00
  0.6950015139966110E+00  0.6920613267637808E+00  0.6891335708464033E+00  0.6862181934517839E+00  0.6833151420043572E+00
  0.6804243641445984E+00  0.6775458077279326E+00  0.6746794208236492E+00  0.6718251517138062E+00  0.6689829488921456E+00
  0.6661527610630043E+00  0.6633345371402213E+00  0.6605282262460489E+00  0.6577337777100655E+00  0.6549511410680796E+00
  0.6521802660610423E+00  0.6494211026339515E+00  0.6466736009347641E+00  0.6439377113132955E+00  0.6412133843201291E+00
  0.6385005707055169E+00  0.6357992214182847E+00  0.6331092876047296E+00  0.6304307206075211E+00  0.6277634719645981E+00
  0.6251074934080640E+00  0.6224627368630815E+00  0.6198291544467615E+00  0.6172066984670564E+00  0.6145953214216425E+00
  0.6119949759968072E+00  0.6094056150663290E+00  0.6068271916903578E+00  0.6042596591142896E+00  0.6017029707676389E+00
  0.5991570802629087E+00  0.5966219413944583E+00  0.5940975081373615E+00  0.5915837346462697E+00  0.5890805752542634E+00
  0.5865879844717050E+00  0.5841059169850850E+00  0.5816343276558639E+00  0.5791731715193092E+00  0.5767224037833294E+00
  0.5742819798273008E+00  0.5718518552008921E+00  0.5694319856228801E+00  0.5670223269799624E+00  0.5646228353255641E+00
  0.5622334668786403E+00  0.5598541780224668E+00  0.5574849253034320E+00  0.5551256654298166E+00  0.5527763552705729E+00
  0.5504369518540867E+00  0.5481074123669453E+00  0.5457876941526899E+00  0.5434777547105606E+00  0.5411775516942370E+00
  0.5388870429105712E+00  0.5366061863183084E+00  0.5343349400268027E+00  0.5320732622947238E+00  0.5298211115287560E+00
  0.5275784462822833E+00  0.5253452252540719E+00  0.5231214072869382E+00  0.5209069513664103E+00  0.5187018166193769E+00
  0.5165059623127259E+00  0.5143193478519786E+00  0.5121419327799022E+00  0.5099736767751210E+00  0.5078145396507112E+00
  0.5056644813527879E+00  0.5035234619590745E+00  0.5013914416774655E+00  0.4992683808445745E+00  0.4971542399242709E+00
  0.4950489795062008E+00  0.4929525603042972E+00  0.4908649431552777E+00  0.4887860890171235E+00  0.4867159589675500E+00
  0.4846545142024593E+00  0.4826017160343790E+00  0.4805575258908866E+00  0.4785219053130166E+00  0.4764948159536555E+00
  0.4744762195759160E+00  0.4724660780514983E+00  0.4704643533590341E+00  0.4684710075824140E+00  0.4664860029090945E+00
  0.4645093016283917E+00  0.4625408661297537E+00  0.4605806589010178E+00  0.4586286425266448E+00  0.4566847796859371E+00
  0.4547490331512370E+00  0.4528213657861068E+00  0.4509017405434816E+00  0.4489901204638144E+00  0.4470864686731861E+00
  0.4451907483814044E+00  0.4433029228800767E+00  0.4414229555406630E+00  0.4395508098125033E+00  0.4376864492208261E+00
  0.4358298373647306E+00  0.4339809379151484E+00  0.4321397146127768E+00  0.4303061312659930E+00  0.4284801517487409E+00
  0.4266617399983911E+00  0.4248508600135791E+00  0.4230474758520152E+00  0.4212515516282691E+00  0.4194630515115265E+00
  0.4176819397233206E+00  0.4159081805352337E+00  0.4141417382665745E+00  0.4123825772820223E+00  0.4106306619892464E+00
  0.4088859568364951E+00  0.4071484263101554E+00  0.4054180349322811E+00  0.4036947472580941E+00  0.4019785278734527E+00
  0.4002693413922875E+00  0.3985671524540098E+00  0.3968719257208843E+00  0.3951836258753735E+00  0.3935022176174444E+00
  0.3918276656618470E+00  0.3901599347353573E+00  0.3884989895739875E+00  0.3868447949201607E+00  0.3851973155198529E+00
  0.3835565161196985E+00  0.3819223614640640E+00  0.3802948162920821E+00  0.3786738453346545E+00  0.3770594133114147E+00
  0.3754514849276568E+00  0.3738500248712280E+00  0.3722549978093840E+00  0.3706663683856058E+00  0.3690841012163818E+00
  0.3675081608879515E+00  0.3659385119530097E+00  0.3643751189273759E+00  0.3628179462866233E+00  0.3612669584626724E+00
  0.3597221198403417E+00  0.3581833947538656E+00  0.3566507474833688E+00  0.3551241422513077E+00  0.3536035432188671E+00
  0.3520889144823235E+00  0.3505802200693678E+00  0.3490774239353895E+00  0.3475804899597241E+00  0.3460893819418601E+00
  0.3446040635976106E+00  0.3431244985552463E+00  0.3416506503515901E+00  0.3401824824280758E+00  0.3387199581267697E+00
  0.3372630406863572E+00  0.3358116932380897E+00  0.3343658788017014E+00  0.3329255602812871E+00  0.3314907004611478E+00
  0.3300612620016039E+00  0.3286372074347716E+00  0.3272184991603128E+00  0.3258050994411493E+00  0.3243969703991511E+00
  0.3229940740107921E+00  0.3215963721027799E+00  0.3202038263476590E+00  0.3188163982593887E+00  0.3174340491888953E+00
  0.3160567403196044E+00  0.3146844326629502E+00  0.3133170870538679E+00  0.3119546641462655E+00  0.3105971244084836E+00
  0.3092444281187385E+00  0.3078965353605573E+00  0.3065534060182011E+00  0.3052149997720827E+00  0.3038812760941805E+00
  0.3025521942434515E+00  0.3012277132612435E+00  0.2999077919667140E+00  0.2985923889522564E+00  0.2972814625789358E+00
  0.2959749709719399E+00  0.2946728720160487E+00  0.2933751233511248E+00  0.2920816823676299E+00  0.2907925062021741E+00
  0.2895075517330938E+00  0.2882267755760754E+00  0.2869501340798188E+00  0.2856775833217526E+00  0.2844090791038020E+00
  0.2831445769482179E+00  0.2818840320934711E+00  0.2806273994902210E+00  0.2793746337973577E+00  0.2781256893781347E+00
  0.2768805202963888E+00  0.2756390803128628E+00  0.2744013228816312E+00  0.2731672011466421E+00  0.2719366679383830E+00
  0.2707096757706725E+00  0.2694861768375969E+00  0.2682661230105917E+00  0.2670494658356834E+00  0.2658361565308973E+00
  0.2646261459838442E+00  0.2634193847494953E+00  0.2622158230481574E+00  0.2610154107636564E+00  0.2598180974417458E+00
  0.2586238322887472E+00  0.2574325641704402E+00  0.2562442416112098E+00  0.2550588127934668E+00  0.2538762255573587E+00
  0.2526964274007763E+00  0.2515193654796803E+00  0.2503449866087571E+00  0.2491732372624196E+00  0.2480040635761725E+00
  0.2468374113483560E+00  0.2456732260422831E+00  0.2445114527887921E+00  0.2433520363892288E+00  0.2421949213188795E+00
  0.2410400517308679E+00  0.2398873714605438E+00  0.2387368240303750E+00  0.2375883526553683E+00  0.2364419002490359E+00
  0.2352974094299311E+00  0.2341548225287738E+00  0.2330140815961881E+00  0.2318751284110708E+00  0.2307379044896204E+00
  0.2296023510950415E+00  0.2284684092479556E+00  0.2273360197375340E+00  0.2262051231333839E+00  0.2250756597982086E+00
  0.2239475699012660E+00  0.2228207934326501E+00  0.2216952702184223E+00  0.2205709399366160E+00  0.2194477421341389E+00
  0.2183256162446014E+00  0.2172045016070914E+00  0.2160843374859252E+00  0.2149650630913980E+00  0.2138466176015579E+00
  0.2127289401850294E+00  0.2116119700249111E+00  0.2104956463437702E+00  0.2093799084297612E+00  0.2082646956638848E+00
  0.2071499475484190E+00  0.2060356037365367E+00  0.2049216040631364E+00  0.2038078885769013E+00  0.2026943975736116E+00
  0.2015810716307238E+00  0.2004678516432392E+00  0.1993546788608699E+00  0.1982414949265268E+00  0.1971282419161336E+00
  0.1960148623797835E+00  0.1949012993842467E+00  0.1937874965568354E+00  0.1926733981306342E+00  0.1915589489910969E+00
  0.1904440947240108E+00  0.1893287816648298E+00  0.1882129569493698E+00  0.1870965685658578E+00  0.1859795654083296E+00
  0.1848618973313572E+00  0.1837435152060953E+00  0.1826243709776211E+00  0.1815044177235496E+00  0.1803836097138901E+00
  0.1792619024721205E+00  0.1781392528374367E+00  0.1770156190281429E+00  0.1758909607061333E+00  0.1747652390424201E+00
  0.1736384167836536E+00  0.1725104583195728E+00  0.1713813297513267E+00  0.1702509989605946E+00  0.1691194356794336E+00
  0.1679866115607694E+00  0.1668525002494515E+00  0.1657170774537762E+00  0.1645803210173857E+00  0.1634422109914358E+00
  0.1623027297069308E+00  0.1611618618471061E+00  0.1600195945197431E+00  0.1588759173292875E+00  0.1577308224486434E+00
  0.1565843046905046E+00  0.1554363615780811E+00  0.1542869934150718E+00  0.1531362033547344E+00  0.1519839974678882E+00
  0.1508303848096928E+00  0.1496753774850278E+00  0.1485189907123091E+00  0.1473612428855585E+00  0.1462021556345479E+00
  0.1450417538828373E+00  0.1438800659035140E+00  0.1427171233724475E+00  0.1415529614188670E+00  0.1403876186730668E+00
  0.1392211373110443E+00  0.1380535630958779E+00  0.1368849454156450E+00  0.1357153373176904E+00  0.1345447955390436E+00
  0.1333733805328020E+00  0.1322011564902837E+00  0.1310281913587684E+00  0.1298545568546419E+00  0.1286803284717681E+00
  0.1275055854849195E+00  0.1263304109480985E+00  0.1251548916875926E+00  0.1239791182896168E+00  0.1228031850824004E+00
  0.1216271901125897E+00  0.1204512351158436E+00  0.1192754254815180E+00  0.1180998702113415E+00  0.1169246818719948E+00
  0.1157499765415325E+00  0.1145758737495849E+00  0.1134024964113041E+00  0.1122299707550292E+00  0.1110584262436637E+00
  0.1098879954897710E+00  0.1087188141644202E+00  0.1075510208998220E+00  0.1063847571858202E+00  0.1052201672603175E+00
  0.1040573979937388E+00  0.1028965987676479E+00  0.1017379213476576E+00  0.1005815197507881E+00  0.9942755010745030E-01
  0.9827617051824930E-01  0.9712754090581870E-01  0.9598182286191681E-01  0.9483917949003452E-01  0.9369977524377940E-01
  0.9256377576131543E-01  0.9143134769615947E-01  0.9030265854464387E-01  0.8917787647037294E-01  0.8805717012600987E-01
  0.8694070847274929E-01  0.8582866059783310E-01  0.8472119553048482E-01  0.8361848205663877E-01  0.8252068853285406E-01
  0.8142798269980521E-01  0.8034053149574653E-01  0.7925850087034889E-01  0.7818205559931414E-01  0.7711135910016403E-01
  0.7604657324960919E-01  0.7498785820288945E-01  0.7393537221548453E-01  0.7288927146757510E-01  0.7184970989164094E-01
  0.7081683900356288E-01  0.6979080773758858E-01  0.6877176228551564E-01  0.6775984594042485E-01  0.6675519894528933E-01
  0.6575795834676451E-01  0.6476825785445400E-01  0.6378622770592376E-01  0.6281199453772295E-01  0.6184568126264692E-01
  0.6088740695346489E-01  0.5993728673330660E-01  0.5899543167288947E-01  0.5806194869473867E-01  0.5713694048453994E-01
  0.5622050540973583E-01  0.5531273744545862E-01  0.5441372610786883E-01  0.5352355639494960E-01  0.5264230873478221E-01
  0.5177005894131079E-01  0.5090687817757649E-01  0.5005283292639149E-01  0.4920798496839176E-01  0.4837239136739834E-01
  0.4754610446298787E-01  0.4672917187016746E-01  0.4592163648602005E-01  0.4512353650317657E-01  0.4433490542995677E-01
  0.4355577211699992E-01  0.4278616079020089E-01  0.4202609108974825E-01  0.4127557811505432E-01  0.4053463247535166E-01
  0.3980326034572762E-01  0.3908146352835467E-01  0.3836923951866999E-01  0.3766658157624981E-01  0.3697347880012240E-01
  0.3628991620825468E-01  0.3561587482094896E-01  0.3495133174788027E-01  0.3429626027850794E-01  0.3365062997559046E-01
  0.3301440677153804E-01  0.3238755306733294E-01  0.3177002783375751E-01  0.3116178671466662E-01  0.3056278213204731E-01
  0.2997296339261497E-01  0.2939227679569708E-01  0.2882066574216482E-01  0.2825807084417470E-01  0.2770443003549500E-01
  0.2715967868219350E-01  0.2662374969347332E-01  0.2609657363245264E-01  0.2557807882668879E-01  0.2506819147825847E-01
  0.2456683577321452E-01  0.2407393399024639E-01  0.2358940660838321E-01  0.2311317241358331E-01  0.2264514860406884E-01
  0.2218525089426706E-01  0.2173339361723406E-01  0.2128948982544066E-01  0.2085345138981451E-01  0.2042518909693681E-01
  0.2000461274430179E-01  0.1959163123355731E-01  0.1918615266165070E-01  0.1878808440981385E-01  0.1839733323032727E-01
  0.1801380533101357E-01  0.1763740645741467E-01  0.1726804197261678E-01  0.1690561693469187E-01  0.1655003617173295E-01
  0.1620120435446483E-01  0.1585902606641942E-01  0.1552340587166862E-01  0.1519424838011534E-01  0.1487145831034644E-01
  0.1455494055005717E-01  0.1424460021405999E-01  0.1394034269989685E-01  0.1364207374107615E-01  0.1334969945795971E-01
  0.1306312640632875E-01  0.1278226162366079E-01  0.1250701267315220E-01  0.1223728768552401E-01  0.1197299539865034E-01
  0.1171404519505136E-01  0.1146034713729482E-01  0.1121181200135114E-01  0.1096835130794953E-01  0.1072987735198236E-01
  0.1049630323000809E-01  0.1026754286590210E-01  0.1004351103470698E-01  0.9824123384732658E-02  0.9609296457959621E-02
  0.9398947708796162E-02  0.9192995521242735E-02  0.8991359224514935E-02  0.8793959107178072E-02  0.8600716429844649E-02
  0.8411553436486871E-02  0.8226393364414735E-02  0.8045160452971090E-02  0.7867779950993491E-02  0.7694178123092280E-02
  0.7524282254793531E-02  0.7358020656595097E-02  0.7195322666982999E-02  0.7036118654453346E-02  0.6880340018587098E-02
  0.6727919190219773E-02  0.6578789630751067E-02  0.6432885830636087E-02  0.6290143307099601E-02  0.6150498601113409E-02
  0.6013889273676223E-02  0.5880253901434016E-02  0.5749532071677760E-02  0.5621664376754424E-02  0.5496592407926044E-02
  0.5374258748710651E-02  0.5254606967737384E-02  0.5137581611147347E-02  0.5023128194570810E-02  0.4911193194709725E-02
  0.4801724040554255E-02  0.4694669104260044E-02  0.4589977691712831E-02  0.4487600032805469E-02  0.4387487271451362E-02
  0.4289591455357689E-02  0.4193865525580738E-02  0.4100263305884451E-02  0.4008739491922612E-02  0.3919249640264338E-02
  0.3831750157281335E-02  0.3746198287914791E-02  0.3662552104338666E-02  0.3580770494535823E-02  0.3500813150802017E-02
  0.3422640558192675E-02  0.3346213982926017E-02  0.3271495460755921E-02  0.3198447785326731E-02  0.3127034496522066E-02
  0.3057219868818594E-02  0.2988968899655382E-02  0.2922247297828587E-02  0.2857021471921076E-02  0.2793258518775576E-02
  0.2730926212019568E-02  0.2669992990649817E-02  0.2610427947683595E-02  0.2552200818883537E-02  0.2495281971562130E-02
  0.2439642393472028E-02  0.2385253681787394E-02  0.2332088032181400E-02  0.2280118228004430E-02  0.2229317629567416E-02
  0.2179660163534074E-02  0.2131120312425769E-02  0.2083673104242070E-02  0.2037294102200216E-02  0.1991959394595915E-02
  0.1947645584788094E-02  0.1904329781309443E-02  0.1861989588104939E-02  0.1820603094899743E-02  0.1780148867698057E-02
  0.1740605939413922E-02  0.1701953800635232E-02  0.1664172390521535E-02  0.1627242087836309E-02  0.1591143702114253E-02
  0.1555858464963708E-02  0.1521368021504510E-02  0.1487654421941162E-02  0.1454700113271274E-02  0.1422487931128841E-02
  0.1391001091762190E-02  0.1360223184145915E-02  0.1330138162226329E-02  0.1300730337299611E-02  0.1271984370521976E-02
  0.1243885265550937E-02  0.1216418361316731E-02  0.1189569324922828E-02  0.1163324144674558E-02  0.1137669123234575E-02
  0.1112590870904057E-02  0.1088076299028286E-02  0.1064112613525412E-02  0.1040687308536973E-02  0.1017788160198829E-02
  0.9954032205310465E-03  0.9735208114453310E-03  0.9521295188685337E-03  0.9312181869806347E-03  0.9107759125658063E-03
  0.8907920394749413E-03  0.8712561531980569E-03  0.8521580755451084E-03  0.8334878594335297E-03  0.8152357837809222E-03
  0.7973923485013870E-03  0.7799482696037414E-03  0.7628944743902047E-03  0.7462220967537533E-03  0.7299224725727281E-03
  0.7139871352009569E-03  0.6984078110518359E-03  0.6831764152748619E-03  0.6682850475229028E-03  0.6537259878087073E-03
  0.6394916924491222E-03  0.6255747900953757E-03  0.6119680778479354E-03  0.5986645174544551E-03  0.5856572315891728E-03
  0.5729395002124140E-03  0.5605047570085638E-03  0.5483465859011261E-03  0.5364587176434206E-03  0.5248350264833979E-03
  0.5134695269012199E-03  0.5023563704181985E-03  0.4914898424756372E-03  0.4808643593823030E-03  0.4704744653290866E-03
  0.4603148294695535E-03  0.4503802430651117E-03  0.4406656166934002E-03  0.4311659775187211E-03  0.4218764666232090E-03
  0.4127923363974862E-03  0.4039089479895975E-03  0.3952217688110613E-03  0.3867263700987823E-03  0.3784184245317075E-03
  0.3702937039010977E-03  0.3623480768332476E-03  0.3545775065635590E-03  0.3469780487609307E-03  0.3395458494013100E-03
  0.3322771426894501E-03  0.3251682490277694E-03  0.3182155730313363E-03  0.3114156015880017E-03  0.3047649019626630E-03
  0.2982601199447258E-03  0.2918979780378503E-03  0.2856752736909976E-03  0.2795888775699440E-03  0.2736357318683282E-03
  0.2678128486573674E-03  0.2621173082734331E-03  0.2565462577425907E-03  0.2510969092413211E-03  0.2457665385926274E-03
  0.2405524837967021E-03  0.2354521435954374E-03  0.2304629760699758E-03  0.2255824972705815E-03  0.2208082798781193E-03
  0.2161379518964156E-03  0.2115691953748061E-03  0.2070997451601928E-03  0.2027273876779622E-03  0.1984499597410719E-03
  0.1942653473867147E-03  0.1901714847398968E-03  0.1861663529033331E-03  0.1822479788730734E-03  0.1784144344792508E-03
  0.1746638353513846E-03  0.1709943399077014E-03  0.1674041483678798E-03  0.1638915017887303E-03  0.1604546811222498E-03
  0.1570920062955453E-03  0.1538018353121465E-03  0.1505825633741793E-03  0.1474326220249433E-03  0.1443504783114254E-03
  0.1413346339662722E-03  0.1383836246087825E-03  0.1354960189644894E-03  0.1326704181028776E-03  0.1299054546928457E-03
  0.1271997922754763E-03  0.1245521245537259E-03  0.1219611746986486E-03  0.1194256946717528E-03  0.1169444645631198E-03
  0.1145162919449432E-03  0.1121400112400899E-03  0.1098144831053586E-03  0.1075385938290981E-03  0.1053112547428294E-03
  0.1031314016465606E-03  0.1009979942474787E-03  0.9891001561168726E-04  0.9686647162871105E-04  0.9486639048844607E-04
  0.9290882217027641E-04  0.9099283794407861E-04  0.8911752988282088E-04  0.8728201038649602E-04  0.8548541171712589E-04
  0.8372688554456827E-04  0.8200560250287895E-04  0.8032075175698849E-04  0.7867154057943558E-04  0.7705719393694131E-04
  0.7547695408657837E-04  0.7393008018131544E-04  0.7241584788472447E-04  0.7093354899462384E-04  0.6948249107545403E-04
  0.6806199709918680E-04  0.6667140509455398E-04  0.6531006780441717E-04  0.6397735235107432E-04  0.6267263990932216E-04
  0.6139532538709635E-04  0.6014481711350644E-04  0.5892053653409360E-04  0.5772191791314110E-04  0.5654840804287813E-04
  0.5539946595940418E-04  0.5427456266518929E-04  0.5317318085798574E-04  0.5209481466600457E-04  0.5103896938921467E-04
  0.5000516124661257E-04  0.4899291712932752E-04  0.4800177435942921E-04  0.4703128045429366E-04  0.4608099289641022E-04
  0.4515047890849116E-04  0.4423931523376479E-04  0.4334708792133358E-04  0.4247339211647166E-04  0.4161783185575022E-04
  0.4078001986688091E-04  0.3995957737315777E-04  0.3915613390240177E-04  0.3836932710029220E-04  0.3759880254798777E-04
  0.3684421358393854E-04  0.3610522112978574E-04  0.3538149352025679E-04  0.3467270633696436E-04  0.3397854224601365E-04
  0.3329869083933166E-04  0.3263284847963210E-04  0.3198071814893095E-04  0.3134200930052595E-04  0.3071643771436663E-04
  0.3010372535572871E-04  0.2950360023711914E-04  0.2891579628333843E-04  0.2834005319962093E-04  0.2777611634278850E-04
  0.2722373659534155E-04  0.2668267024242148E-04  0.2615267885157974E-04  0.2563352915528398E-04  0.2512499293610016E-04
  0.2462684691449026E-04  0.2413887263915925E-04  0.2366085637989922E-04  0.2319258902286659E-04  0.2273386596823889E-04
  0.2228448703019685E-04  0.2184425633917499E-04  0.2141298224632976E-04  0.2099047723017505E-04  0.2057655780533244E-04
  0.2017104443334805E-04  0.1977376143553010E-04  0.1938453690775695E-04  0.1900320263721356E-04  0.1862959402100913E-04
  0.1826354998663349E-04  0.1790491291421113E-04  0.1755352856050804E-04  0.1720924598465447E-04  0.1687191747554225E-04
  0.1654139848085773E-04  0.1621754753771323E-04  0.1590022620484129E-04  0.1558929899631344E-04  0.1528463331674964E-04
  0.1498609939798512E-04  0.1469357023715906E-04  0.1440692153619341E-04  0.1412603164263088E-04  0.1385078149179856E-04
  0.1358105455026959E-04  0.1331673676059068E-04  0.1305771648724721E-04  0.1280388446383903E-04  0.1255513374143667E-04
  0.1231135963809251E-04  0.1207245968948106E-04  0.1183833360064018E-04  0.1160888319879093E-04  0.1138401238720921E-04
  0.1116362710012584E-04  0.1094763525863258E-04  0.1073594672756955E-04  0.1052847327337228E-04  0.1032512852285750E-04
  0.8635168142814757E+02  0.8635168142814757E+02  0.8635168142814757E+02  0.8635168142814757E+02  0.8635168142814757E+02
  0.8635168142814757E+02  0.8635168142814757E+02  0.8635168142814757E+02  0.8635168142814757E+02  0.8635168142814757E+02
  0.8635168142814757E+02  0.8635168142814757E+02  0.8635168142814757E+02  0.8635168142814757E+02  0.8635168142814757E+02
  0.8635168142814757E+02  0.8635168142814757E+02  0.8635168142814757E+02  0.8635168142814757E+02  0.8635168142814757E+02
  0.8635168142814757E+02  0.8635168142814757E+02  0.8635168142814757E+02  0.8635168142814757E+02  0.8635168142814757E+02
  0.8635168142814757E+02  0.8635168142814757E+02  0.8635168142814757E+02  0.8635168142814757E+02  0.8635168142814757E+02
  0.8635168142814757E+02  0.8635168142814757E+02  0.8635168142814757E+02  0.8635168142814757E+02  0.8635168142814757E+02
  0.8635168142814757E+02  0.8635168142814757E+02  0.8635168142814757E+02  0.8635168142814757E+02  0.8635168142814757E+02
  0.8635168142814757E+02  0.8635168142814757E+02  0.8635168142814757E+02  0.8635168142814757E+02  0.8635168142814757E+02
  0.8635168142814757E+02  0.8635168142814757E+02  0.8635168142814757E+02  0.8635168142814757E+02  0.8635168142814757E+02
  0.8635168142814757E+02  0.8635168142814757E+02  0.8635168142814757E+02  0.8635168142814757E+02  0.8635168142814757E+02
  0.8635168142814757E+02  0.8635168142814757E+02  0.8635168142814757E+02  0.8635168142814757E+02  0.8635168142814757E+02
  0.8635168142814757E+02  0.8635168142814757E+02  0.8635168142814757E+02  0.8635168142814757E+02  0.8635168142814757E+02
  0.8635168142814757E+02  0.8635168142814757E+02  0.8635168142814757E+02  0.8635168142814757E+02  0.8635168142814757E+02
  0.8635168142814757E+02  0.8635168142814757E+02  0.8635168142814757E+02  0.8635168142814757E+02  0.8635168142814757E+02
  0.8635168142814757E+02  0.8635168142814757E+02  0.8635168142814757E+02  0.8635168142814757E+02  0.8635168142814757E+02
  0.8635168142814757E+02  0.8635168142814757E+02  0.8635168142814757E+02  0.8635168142814757E+02  0.8635168142814757E+02
  0.8635168142814757E+02  0.8635168142814757E+02  0.8635168142814757E+02  0.8635168142814757E+02  0.8635168142814757E+02
  0.8635168142814757E+02  0.8635168142814757E+02  0.8635168142814757E+02  0.8635168142814757E+02  0.8635168142814757E+02
  0.8635168142814757E+02  0.8635168142814757E+02  0.8635168142814757E+02  0.8635168142814757E+02  0.8635168142814757E+02
  0.8635168142814757E+02  0.8635168142814757E+02  0.8635168142814757E+02  0.8635168142814757E+02  0.8635168142814757E+02
  0.8635168142814757E+02  0.8635168142814757E+02  0.8635168142814757E+02  0.8635168142814757E+02  0.8635168142814757E+02
