  DATE: 2018-03-30 CONTRIBUTOR: Xiaowang Zhou xzhou@sandia.gov and Lucas Hale lucas.hale@nist.gov CITATION: X. W. Zhou, R. A. Johnson, H. N. G. Wadley, Phys. Rev. B, 69, 144113(2004)
  Generated from Zhou04_create_v2.f
  Fixes precision issues with older version
    1 Cr                      
 2000  0.5002501250625312E-01 2000  0.2789636303981591E-02  0.5576482971659200E+01
   24     52.000         3.5269    fcc     
  0.0000000000000000E+00 -0.2104920451716774E-01 -0.4195201722503139E-01 -0.6270993846739303E-01 -0.8332346858805595E-01
 -0.1037931079308207E+00 -0.1241193568394903E+00 -0.1443027156578673E+00 -0.1643436847297535E+00 -0.1842427643989515E+00
 -0.2040004550092633E+00 -0.2236172569044910E+00 -0.2430936704284383E+00 -0.2624301959249054E+00 -0.2816273337376953E+00
 -0.3006855842106104E+00 -0.3196054476874526E+00 -0.3383874245120249E+00 -0.3570320150281285E+00 -0.3755397195795669E+00
 -0.3939110385101419E+00 -0.4121464721636550E+00 -0.4302465208839084E+00 -0.4482116850147058E+00 -0.4660424648998478E+00
 -0.4837393608831380E+00 -0.5013028733083784E+00 -0.5187335025193700E+00 -0.5360317488599167E+00 -0.5531981126738195E+00
 -0.5702330943048810E+00 -0.5871371940969043E+00 -0.6039109123936905E+00 -0.6205547495390424E+00 -0.6370692058767622E+00
 -0.6534547817506517E+00 -0.6697119775045137E+00 -0.6858412934821507E+00 -0.7018432300273643E+00 -0.7177182874839565E+00
 -0.7334669661957314E+00 -0.7490897665064884E+00 -0.7645871887600315E+00 -0.7799597333001629E+00 -0.7952079004706847E+00
 -0.8103321906153991E+00 -0.8253331040781078E+00 -0.8402111412026148E+00 -0.8549668023327202E+00 -0.8696005878122270E+00
 -0.8841129979849376E+00 -0.8985045331946544E+00 -0.9127756937851794E+00 -0.9269269801003157E+00 -0.9409588924838641E+00
 -0.9548719312796277E+00 -0.9686665968314092E+00 -0.9823433894830091E+00 -0.9959028095782314E+00 -0.1009345357460878E+01
 -0.1022671533474750E+01 -0.1035881837963651E+01 -0.1048976771271383E+01 -0.1061956833741748E+01 -0.1074822525718548E+01
 -0.1087574347545585E+01 -0.1100212799566663E+01 -0.1112738382125583E+01 -0.1125151595566146E+01 -0.1137452940232157E+01
 -0.1149642916467416E+01 -0.1161722024615726E+01 -0.1173690765020889E+01 -0.1185549638026707E+01 -0.1197299143976984E+01
 -0.1208939783215521E+01 -0.1220472056086119E+01 -0.1231896462932582E+01 -0.1243213504098712E+01 -0.1254423679928311E+01
 -0.1265527490765182E+01 -0.1276525436953125E+01 -0.1287418018835945E+01 -0.1298205736757442E+01 -0.1308889091061420E+01
 -0.1319468582091680E+01 -0.1329944710192025E+01 -0.1340317975706257E+01 -0.1350588878978177E+01 -0.1360757920351590E+01
 -0.1370825600170296E+01 -0.1380792418778099E+01 -0.1390658876518799E+01 -0.1400425473736200E+01 -0.1410092710774104E+01
 -0.1419661087976312E+01 -0.1429131105686628E+01 -0.1438503264248853E+01 -0.1447778064006790E+01 -0.1456956005304241E+01
 -0.1466037588485007E+01 -0.1475023313892894E+01 -0.1483913681871699E+01 -0.1492709192765229E+01 -0.1501410346917282E+01
 -0.1510017644671665E+01 -0.1518531586372176E+01 -0.1526952672362619E+01 -0.1535281402986796E+01 -0.1543518278588511E+01
 -0.1551663799511563E+01 -0.1559718466099756E+01 -0.1567682778696893E+01 -0.1575557237646775E+01 -0.1583342343293205E+01
 -0.1591038595979985E+01 -0.1598646496050917E+01 -0.1606166543849803E+01 -0.1613599239720445E+01 -0.1620945084006647E+01
 -0.1628204577052211E+01 -0.1635378219200937E+01 -0.1642466510796629E+01 -0.1649469952183089E+01 -0.1656389043704119E+01
 -0.1663224285703521E+01 -0.1669976178525099E+01 -0.1676645222512652E+01 -0.1683231918009986E+01 -0.1689736765360900E+01
 -0.1696160264909198E+01 -0.1702502916998682E+01 -0.1708765221973154E+01 -0.1714947680176416E+01 -0.1721050791952272E+01
 -0.1727075057644521E+01 -0.1733020977596968E+01 -0.1738889052153415E+01 -0.1744679781657662E+01 -0.1750393666453514E+01
 -0.1756031206884773E+01 -0.1761592903295239E+01 -0.1767079256028716E+01 -0.1772490765429006E+01 -0.1777827931839910E+01
 -0.1783091255605233E+01 -0.1788281237068774E+01 -0.1793398376574338E+01 -0.1798443174465726E+01 -0.1803416131086740E+01
 -0.1808317746781183E+01 -0.1813148521892856E+01 -0.1817908956765563E+01 -0.1822599551743105E+01 -0.1827220807169284E+01
 -0.1831773223387904E+01 -0.1836257300742765E+01 -0.1840673539577671E+01 -0.1845022440236423E+01 -0.1849304503062824E+01
 -0.1853520228400676E+01 -0.1857670116593782E+01 -0.1861754667985943E+01 -0.1865774382920961E+01 -0.1869729761742640E+01
 -0.1873621304794781E+01 -0.1877449512421187E+01 -0.1881214884965660E+01 -0.1884917922772001E+01 -0.1888559126184014E+01
 -0.1892138995545501E+01 -0.1895658031200262E+01 -0.1899116733492103E+01 -0.1902515602764823E+01 -0.1905855139362226E+01
 -0.1909135843628114E+01 -0.1912358215906289E+01 -0.1915522756540553E+01 -0.1918629965874709E+01 -0.1921680344252558E+01
 -0.1924674392017904E+01 -0.1927612609514547E+01 -0.1930495497086291E+01 -0.1933323555076939E+01 -0.1936097283830290E+01
 -0.1938817183690150E+01 -0.1941483755000319E+01 -0.1944097498104599E+01 -0.1946658913346793E+01 -0.1949168501070704E+01
 -0.1951626761620133E+01 -0.1954034195338883E+01 -0.1956391302570756E+01 -0.1958698583659554E+01 -0.1960956538949080E+01
 -0.1963165668783135E+01 -0.1965326473505523E+01 -0.1967439453460045E+01 -0.1969505108990502E+01 -0.1971523940440699E+01
 -0.1973496448154437E+01 -0.1975423132475518E+01 -0.1977304493747745E+01 -0.1979141032314919E+01 -0.1980933248520843E+01
 -0.1982681642709320E+01 -0.1984386715224150E+01 -0.1986048966409138E+01 -0.1987668896608084E+01 -0.1989247006164792E+01
 -0.1990783795423063E+01 -0.1992279764726700E+01 -0.1993735414419504E+01 -0.1995151244845280E+01 -0.1996527756347827E+01
 -0.1997865449270949E+01 -0.1999164823958448E+01 -0.2000426380754126E+01 -0.2001650620001787E+01 -0.2002838042045230E+01
 -0.2003989147228259E+01 -0.2005104435894677E+01 -0.2006184408388284E+01 -0.2007229565052885E+01 -0.2008240406232281E+01
 -0.2009217432270273E+01 -0.2010161143510665E+01 -0.2011072040297259E+01 -0.2011950622973856E+01 -0.2012797391884261E+01
 -0.2013612847372273E+01 -0.2014397489781695E+01 -0.2015151819456331E+01 -0.2015876336739982E+01 -0.2016571541976451E+01
 -0.2017237935509538E+01 -0.2017876017683048E+01 -0.2018486288840782E+01 -0.2019069249326543E+01 -0.2019625399484131E+01
 -0.2020155239657352E+01 -0.2020659270190004E+01 -0.2021137991425893E+01 -0.2021591903708819E+01 -0.2022021507382585E+01
 -0.2022427302790993E+01 -0.2022809790277846E+01 -0.2023169470186944E+01 -0.2023506842862092E+01 -0.2023822408647091E+01
 -0.2024116667885744E+01 -0.2024390120921852E+01 -0.2024643268099218E+01 -0.2024876609761644E+01 -0.2025090646252932E+01
 -0.2025285877916885E+01 -0.2025462805097304E+01 -0.2025621928137993E+01 -0.2025763747382753E+01 -0.2025888763175387E+01
 -0.2025997475859697E+01 -0.2026090385779485E+01 -0.2026167993278553E+01 -0.2026230798700703E+01 -0.2026279302389739E+01
 -0.2026314004689461E+01 -0.2026335405943673E+01 -0.2026344006496177E+01 -0.2026340306690774E+01 -0.2026324806871267E+01
 -0.2026298007381459E+01 -0.2026260408565152E+01 -0.2026212510766146E+01 -0.2026154814328247E+01 -0.2026087819595254E+01
 -0.2026012026910971E+01 -0.2025927936619199E+01 -0.2025836049063743E+01 -0.2025736864588402E+01 -0.2025630883536980E+01
 -0.2025518606253278E+01 -0.2025400533081100E+01 -0.2025277164364246E+01 -0.2025149000446520E+01 -0.2025016541671725E+01
 -0.2024880288383661E+01 -0.2024740740926132E+01 -0.2024598399642938E+01 -0.2024453764877884E+01 -0.2024307336974771E+01
 -0.2024159616277401E+01 -0.2024011103129577E+01 -0.2023862297875100E+01 -0.2023713700857773E+01 -0.2023565812421399E+01
 -0.2023419132909779E+01 -0.2023274162666716E+01 -0.2023131402036012E+01 -0.2022991351361469E+01 -0.2022854510986890E+01
 -0.2022721123563842E+01 -0.2022592025681230E+01 -0.2022466939806711E+01 -0.2022345805860561E+01 -0.2022228563763058E+01
 -0.2022115153434480E+01 -0.2022005514795104E+01 -0.2021899587765208E+01 -0.2021797312265068E+01 -0.2021698628214965E+01
 -0.2021603475535173E+01 -0.2021511794145972E+01 -0.2021423523967639E+01 -0.2021338604920452E+01 -0.2021256976924686E+01
 -0.2021178579900623E+01 -0.2021103353768536E+01 -0.2021031238448706E+01 -0.2020962173861409E+01 -0.2020896099926923E+01
 -0.2020832956565525E+01 -0.2020772683697494E+01 -0.2020715221243107E+01 -0.2020660509122640E+01 -0.2020608487256373E+01
 -0.2020559095564582E+01 -0.2020512273967546E+01 -0.2020467962385541E+01 -0.2020426100738846E+01 -0.2020386628947737E+01
 -0.2020349486932493E+01 -0.2020314614613390E+01 -0.2020281951910708E+01 -0.2020251438744723E+01 -0.2020223015035713E+01
 -0.2020196620703955E+01 -0.2020172195669727E+01 -0.2020149679853307E+01 -0.2020129013174973E+01 -0.2020110135555001E+01
 -0.2020092986913669E+01 -0.2020077507171256E+01 -0.2020063636248038E+01 -0.2020051314064293E+01 -0.2020040480540299E+01
 -0.2020031075596334E+01 -0.2020023039152675E+01 -0.2020016311129599E+01 -0.2020010831447385E+01 -0.2020006540026309E+01
 -0.2020003376786650E+01 -0.2020001281648684E+01 -0.2020000194532690E+01 -0.2020000055358946E+01 -0.2020000804047728E+01
 -0.2020002380519315E+01 -0.2020004724693983E+01 -0.2020007776492011E+01 -0.2020011475833677E+01 -0.2020015762639256E+01
 -0.2020020576829028E+01 -0.2020025858323271E+01 -0.2020031547042260E+01 -0.2020037582906275E+01 -0.2020043905835593E+01
 -0.2020050455750491E+01 -0.2020057172571246E+01 -0.2020063996218138E+01 -0.2020070866611442E+01 -0.2020077723671437E+01
 -0.2020084507318400E+01 -0.2020091157472609E+01 -0.2020097614054342E+01 -0.2020103816983876E+01 -0.2020109706181488E+01
 -0.2020115221567456E+01 -0.2020120303062059E+01 -0.2020124890585573E+01 -0.2020128924058276E+01 -0.2020132343400445E+01
 -0.2020135088532359E+01 -0.2020137099374295E+01 -0.2020138315846530E+01 -0.2020138677869342E+01 -0.2020138125363009E+01
 -0.2020136598247807E+01 -0.2020134036444016E+01 -0.2020130379871912E+01 -0.2020125568451773E+01 -0.2020119542103876E+01
 -0.2020112240748500E+01 -0.2020103604305921E+01 -0.2020093572696418E+01 -0.2020082085840268E+01 -0.2020069083657749E+01
 -0.2020054506069137E+01 -0.2020038292994711E+01 -0.2020020384354748E+01 -0.2020000720069527E+01 -0.2019979240059324E+01
 -0.2019955884244417E+01 -0.2019930592545084E+01 -0.2019903304881602E+01 -0.2019873961174249E+01 -0.2019842501343302E+01
 -0.2019808865309040E+01 -0.2019773269339355E+01 -0.2019734874043479E+01 -0.2019693951980746E+01 -0.2019650516137795E+01
 -0.2019604579407614E+01 -0.2019556154590425E+01 -0.2019505254394569E+01 -0.2019451891437369E+01 -0.2019396078245992E+01
 -0.2019337827258294E+01 -0.2019277150823660E+01 -0.2019214061203829E+01 -0.2019148570573717E+01 -0.2019080691022222E+01
 -0.2019010434553026E+01 -0.2018937813085383E+01 -0.2018862838454905E+01 -0.2018785522414329E+01 -0.2018705876634280E+01
 -0.2018623912704033E+01 -0.2018539642132250E+01 -0.2018453076347722E+01 -0.2018364226700097E+01 -0.2018273104460604E+01
 -0.2018179720822759E+01 -0.2018084086903073E+01 -0.2017986213741752E+01 -0.2017886112303381E+01 -0.2017783793477604E+01
 -0.2017679268079803E+01 -0.2017572546851760E+01 -0.2017463640462313E+01 -0.2017352559508013E+01 -0.2017239314513764E+01
 -0.2017123915933462E+01 -0.2017006374150618E+01 -0.2016886699478992E+01 -0.2016764902163199E+01 -0.2016640992379322E+01
 -0.2016514980235515E+01 -0.2016386875772598E+01 -0.2016256688964644E+01 -0.2016124429719567E+01 -0.2015990107879694E+01
 -0.2015853733222337E+01 -0.2015715315460355E+01 -0.2015574864242719E+01 -0.2015432389155054E+01 -0.2015287899720191E+01
 -0.2015141405398709E+01 -0.2014992915589463E+01 -0.2014842439630121E+01 -0.2014689986797677E+01 -0.2014535566308977E+01
 -0.2014379187321230E+01 -0.2014220858932509E+01 -0.2014060590182257E+01 -0.2013898390051784E+01 -0.2013734267464752E+01
 -0.2013568231287667E+01 -0.2013400290330356E+01 -0.2013230453346444E+01 -0.2013058729033821E+01 -0.2012885126035113E+01
 -0.2012709652938140E+01 -0.2012532318276371E+01 -0.2012353130529375E+01 -0.2012172098123274E+01 -0.2011989229431175E+01
 -0.2011804532773615E+01 -0.2011618016418989E+01 -0.2011429688583986E+01 -0.2011239557434002E+01 -0.2011047631083569E+01
 -0.2010853917596770E+01 -0.2010658424987644E+01 -0.2010461161220597E+01 -0.2010262134210809E+01 -0.2010061351824625E+01
 -0.2009858821879956E+01 -0.2009654552146669E+01 -0.2009448550346969E+01 -0.2009240824155792E+01 -0.2009031381201173E+01
 -0.2008820229064631E+01 -0.2008607375281536E+01 -0.2008392827341477E+01 -0.2008176592688628E+01 -0.2007958678722110E+01
 -0.2007739092796345E+01 -0.2007517842221412E+01 -0.2007294934263397E+01 -0.2007070376144739E+01 -0.2006844175044575E+01
 -0.2006616338099080E+01 -0.2006386872401801E+01 -0.2006155785003993E+01 -0.2005923082914951E+01 -0.2005688773102332E+01
 -0.2005452862492481E+01 -0.2005215357970757E+01 -0.2004976266381842E+01 -0.2004735594530061E+01 -0.2004493349179691E+01
 -0.2004249537055274E+01 -0.2004004164841916E+01 -0.2003757239185595E+01 -0.2003508766693458E+01 -0.2003258753934119E+01
 -0.2003007207437955E+01 -0.2002754133697392E+01 -0.2002499539167200E+01 -0.2002243430264773E+01 -0.2001985813370418E+01
 -0.2001726694827630E+01 -0.2001466080943372E+01 -0.2001203977988355E+01 -0.2000940392197300E+01 -0.2000675329769221E+01
 -0.2000408796867679E+01 -0.2000140799621059E+01 -0.1999871344122826E+01 -0.1999600436431788E+01 -0.1999328082572352E+01
 -0.1999054288534780E+01 -0.1998779060275442E+01 -0.1998502403717070E+01 -0.1998224324748998E+01 -0.1997944829227418E+01
 -0.1997663922975619E+01 -0.1997381611784226E+01 -0.1997097901411448E+01 -0.1996812797583304E+01 -0.1996526305993869E+01
 -0.1996238432305499E+01 -0.1995949182149065E+01 -0.1995658561124185E+01 -0.1995366574799444E+01 -0.1995073228712622E+01
 -0.1994778528370919E+01 -0.1994482479251172E+01 -0.1994185086800077E+01 -0.1993886356434400E+01 -0.1993586293541201E+01
 -0.1993284903478036E+01 -0.1992982191573179E+01 -0.1992678163125821E+01 -0.1992372823406285E+01 -0.1992066177656227E+01
 -0.1991758231088841E+01 -0.1991448988889063E+01 -0.1991138456213764E+01 -0.1990826638191958E+01 -0.1990513539924990E+01
 -0.1990199166486739E+01 -0.1989883522923801E+01 -0.1989566614255691E+01 -0.1989248445475024E+01 -0.1988929021547709E+01
 -0.1988608347413134E+01 -0.1988286427984347E+01 -0.1987963268148246E+01 -0.1987638872765756E+01 -0.1987313246672009E+01
 -0.1986986394676526E+01 -0.1986658321563390E+01 -0.1986329032091426E+01 -0.1985998530994369E+01 -0.1985666822981041E+01
 -0.1985333912735525E+01 -0.1984999804917323E+01 -0.1984664504161539E+01 -0.1984328015079033E+01 -0.1983990342256596E+01
 -0.1983651490257106E+01 -0.1983311463619696E+01 -0.1982970266859915E+01 -0.1982627904469882E+01 -0.1982284380918451E+01
 -0.1981939700651367E+01 -0.1981593868091417E+01 -0.1981246887638590E+01 -0.1980898763670230E+01 -0.1980549500541182E+01
 -0.1980199102583950E+01 -0.1979847574108841E+01 -0.1979494919404118E+01 -0.1979141142736141E+01 -0.1978786248349519E+01
 -0.1978430240467250E+01 -0.1978073123290867E+01 -0.1977714901000576E+01 -0.1977355577755406E+01 -0.1976995157693336E+01
 -0.1976633644931445E+01 -0.1976271043566044E+01 -0.1975907357672813E+01 -0.1975542591306940E+01 -0.1975176748503246E+01
 -0.1974809833276329E+01 -0.1974441849620692E+01 -0.1974072801510868E+01 -0.1973702692901561E+01 -0.1973331527727765E+01
 -0.1972959309904899E+01 -0.1972586043328928E+01 -0.1972211731876493E+01 -0.1971836379405033E+01 -0.1971459989752912E+01
 -0.1971082566739539E+01 -0.1970704114165489E+01 -0.1970324635812628E+01 -0.1969944135444229E+01 -0.1969562616805092E+01
 -0.1969180083621663E+01 -0.1968796539602151E+01 -0.1968411988436640E+01 -0.1968026433797213E+01 -0.1967639879338057E+01
 -0.1967252328695581E+01 -0.1966863785488528E+01 -0.1966474253318088E+01 -0.1966083735768005E+01 -0.1965692236404690E+01
 -0.1965299758777328E+01 -0.1964906306417991E+01 -0.1964511882841737E+01 -0.1964116491546724E+01 -0.1963720136014312E+01
 -0.1963322819709168E+01 -0.1962924546079371E+01 -0.1962525318556517E+01 -0.1962125140555816E+01 -0.1961724015476199E+01
 -0.1961321946700417E+01 -0.1960918937595139E+01 -0.1960514991511057E+01 -0.1960110111782978E+01 -0.1959704301729924E+01
 -0.1959297564655232E+01 -0.1958889903846648E+01 -0.1958481322576421E+01 -0.1958071824101401E+01 -0.1957661411663132E+01
 -0.1957250088487943E+01 -0.1956837857787045E+01 -0.1956424722756620E+01 -0.1956010686577913E+01 -0.1955595752417324E+01
 -0.1955179923426496E+01 -0.1954763202742406E+01 -0.1954345593487450E+01 -0.1953927098769537E+01 -0.1953507721682173E+01
 -0.1953087465304545E+01 -0.1952666332701611E+01 -0.1952244326924186E+01 -0.1951821451009021E+01 -0.1951397707978893E+01
 -0.1950973100842688E+01 -0.1950547632595478E+01 -0.1950121306218611E+01 -0.1949694124679788E+01 -0.1949266090933145E+01
 -0.1948837207919333E+01 -0.1948407478565599E+01 -0.1947976905785865E+01 -0.1947545492480806E+01 -0.1947113241537929E+01
 -0.1946680155831649E+01 -0.1946246238223367E+01 -0.1945811491561548E+01 -0.1945375918681794E+01 -0.1944939522406920E+01
 -0.1944502305547031E+01 -0.1944064270899592E+01 -0.1943625421249508E+01 -0.1943185759369190E+01 -0.1942745288018632E+01
 -0.1942304009945484E+01 -0.1941861927885117E+01 -0.1941419044560706E+01 -0.1940975362683286E+01 -0.1940530884951833E+01
 -0.1940085614053330E+01 -0.1939639552662835E+01 -0.1939192703443551E+01 -0.1938745069046894E+01 -0.1938296652112560E+01
 -0.1937847455268591E+01 -0.1937397481131445E+01 -0.1936946732306059E+01 -0.1936495211385916E+01 -0.1936042920953110E+01
 -0.1935589863578411E+01 -0.1935136041821330E+01 -0.1934681458230180E+01 -0.1934226115342142E+01 -0.1933770015683330E+01
 -0.1933313161768847E+01 -0.1932855556102854E+01 -0.1932397201178628E+01 -0.1931938099478623E+01 -0.1931478253474533E+01
 -0.1931017665627349E+01 -0.1930556338387423E+01 -0.1930094274194526E+01 -0.1929631475477906E+01 -0.1929167944656346E+01
 -0.1928703684138227E+01 -0.1928238696321580E+01 -0.1927772983594147E+01 -0.1927306548333438E+01 -0.1926839392906786E+01
 -0.1926371519671406E+01 -0.1925902930974449E+01 -0.1925433629153056E+01 -0.1924963616534418E+01 -0.1924492895435826E+01
 -0.1924021468164727E+01 -0.1923549337018783E+01 -0.1923076504285913E+01 -0.1922602972244359E+01 -0.1922128743162732E+01
 -0.1921653819300066E+01 -0.1921178202905870E+01 -0.1920701896220182E+01 -0.1920224901473616E+01 -0.1919747220887419E+01
 -0.1919268856673517E+01 -0.1918789811034570E+01 -0.1918310086164016E+01 -0.1917829684246127E+01 -0.1917348607456056E+01
 -0.1916866857959885E+01 -0.1916384437914678E+01 -0.1915901349468523E+01 -0.1915417594760586E+01 -0.1914933175921156E+01
 -0.1914448095071694E+01 -0.1913962354324880E+01 -0.1913475955784658E+01 -0.1912988901546285E+01 -0.1912501193696378E+01
 -0.1912012834312956E+01 -0.1911523825465488E+01 -0.1911034169214943E+01 -0.1910543867613826E+01 -0.1910052922706231E+01
 -0.1909561336527880E+01 -0.1909069111106168E+01 -0.1908576248460214E+01 -0.1908082750600894E+01 -0.1907588619530891E+01
 -0.1907093857244737E+01 -0.1906598465728853E+01 -0.1906102446961598E+01 -0.1905605802913303E+01 -0.1905108535546320E+01
 -0.1904610646815059E+01 -0.1904112138666033E+01 -0.1903613013037896E+01 -0.1903113271861485E+01 -0.1902612917059863E+01
 -0.1902111950548357E+01 -0.1901610374234596E+01 -0.1901108190018556E+01 -0.1900605399792598E+01 -0.1900102005441503E+01
 -0.1899598008842517E+01 -0.1899093411865388E+01 -0.1898588216372401E+01 -0.1898082424218422E+01 -0.1897576037250932E+01
 -0.1897069057310069E+01 -0.1896561486228660E+01 -0.1896053325832262E+01 -0.1895544577939201E+01 -0.1895035244360604E+01
 -0.1894525326900439E+01 -0.1894014827355551E+01 -0.1893503747515699E+01 -0.1892992089163588E+01 -0.1892479854074911E+01
 -0.1891967044018381E+01 -0.1891453660755763E+01 -0.1890939706041919E+01 -0.1890425181624831E+01 -0.1889910089245644E+01
 -0.1889394430638699E+01 -0.1888878207531563E+01 -0.1888361421645069E+01 -0.1887844074693346E+01 -0.1887326168383853E+01
 -0.1886807704417414E+01 -0.1886288684488249E+01 -0.1885769110284010E+01 -0.1885248983485811E+01 -0.1884728305768261E+01
 -0.1884207078799499E+01 -0.1883685304241220E+01 -0.1883162983748718E+01 -0.1882640118970904E+01 -0.1882116711550349E+01
 -0.1881592763123309E+01 -0.1881068275319761E+01 -0.1880543249763426E+01 -0.1880017688071810E+01 -0.1879491591856228E+01
 -0.1878964962721837E+01 -0.1878437802267662E+01 -0.1877910112086635E+01 -0.1877381893765617E+01 -0.1876853148885427E+01
 -0.1876323879020881E+01 -0.1875794085740811E+01 -0.1875263770608099E+01 -0.1874732935179706E+01 -0.1874201581006700E+01
 -0.1873669709634284E+01 -0.1873137322601827E+01 -0.1872604421442890E+01 -0.1872071007685256E+01 -0.1871537082850953E+01
 -0.1871002648456291E+01 -0.1870467706011880E+01 -0.1869932257022665E+01 -0.1869396302987947E+01 -0.1868859845401417E+01
 -0.1868322885751177E+01 -0.1867785425519769E+01 -0.1867247466184204E+01 -0.1866709009215983E+01 -0.1866170056081131E+01
 -0.1865630608240215E+01 -0.1865090667148377E+01 -0.1864550234255355E+01 -0.1864009311005512E+01 -0.1863467898837859E+01
 -0.1862925999186083E+01 -0.1862383613478571E+01 -0.1861840743138434E+01 -0.1861297389583536E+01 -0.1860753554226512E+01
 -0.1860209238474799E+01 -0.1859664443730660E+01 -0.1859119171391205E+01 -0.1858573422848416E+01 -0.1858027199489174E+01
 -0.1857480502695281E+01 -0.1856933333843484E+01 -0.1856385694305498E+01 -0.1855837585448032E+01 -0.1855289008632809E+01
 -0.1854739965216593E+01 -0.1854190456551209E+01 -0.1853640483983569E+01 -0.1853090048855690E+01 -0.1852539152504724E+01
 -0.1851987796262976E+01 -0.1851435981457925E+01 -0.1850883709412251E+01 -0.1850330981443854E+01 -0.1849777798865877E+01
 -0.1849224162986730E+01 -0.1848670075110106E+01 -0.1848115536535011E+01 -0.1847560548555778E+01 -0.1847005112462095E+01
 -0.1846449229539021E+01 -0.1845892901067011E+01 -0.1845336128321935E+01 -0.1844778912575100E+01 -0.1844221255093270E+01
 -0.1843663157138688E+01 -0.1843104619969097E+01 -0.1842545644837759E+01 -0.1841986232993476E+01 -0.1841426385680610E+01
 -0.1840866104139105E+01 -0.1840305389604505E+01 -0.1839744243307975E+01 -0.1839182666476321E+01 -0.1838620660332008E+01
 -0.1838058226093183E+01 -0.1837495364973692E+01 -0.1836932078183099E+01 -0.1836368366926708E+01 -0.1835804232405580E+01
 -0.1835239675816553E+01 -0.1834674698352259E+01 -0.1834109301201148E+01 -0.1833543485547499E+01 -0.1832977252571449E+01
 -0.1832410603449001E+01 -0.1831843539352048E+01 -0.1831276061448392E+01 -0.1830708170901761E+01 -0.1830139868871825E+01
 -0.1829571156514217E+01 -0.1829002034980553E+01 -0.1828432505418443E+01 -0.1827862568971515E+01 -0.1827292226779430E+01
 -0.1826721479977900E+01 -0.1826150329698706E+01 -0.1825578777069716E+01 -0.1825006823214897E+01 -0.1824434469254343E+01
 -0.1823861716304280E+01 -0.1823288565477093E+01 -0.1822715017881335E+01 -0.1822141074621750E+01 -0.1821566736799286E+01
 -0.1820992005511114E+01 -0.1820416881850641E+01 -0.1819841366907532E+01 -0.1819265461767721E+01 -0.1818689167513431E+01
 -0.1818112485223188E+01 -0.1817535415971840E+01 -0.1816957960830567E+01 -0.1816380120866904E+01 -0.1815801897144753E+01
 -0.1815223290724401E+01 -0.1814644302662532E+01 -0.1814064934012245E+01 -0.1813485185823072E+01 -0.1812905059140990E+01
 -0.1812324555008434E+01 -0.1811743674464321E+01 -0.1811162418544055E+01 -0.1810580788279551E+01 -0.1809998784699241E+01
 -0.1809416408828100E+01 -0.1808833661687649E+01 -0.1808250544295980E+01 -0.1807667057667764E+01 -0.1807083202814267E+01
 -0.1806498980743370E+01 -0.1805914392459573E+01 -0.1805329438964021E+01 -0.1804744121254509E+01 -0.1804158440325502E+01
 -0.1803572397168147E+01 -0.1802985992770287E+01 -0.1802399228116476E+01 -0.1801812104187991E+01 -0.1801224621962848E+01
 -0.1800636782415818E+01 -0.1800048586518433E+01 -0.1799460035239008E+01 -0.1798871129542650E+01 -0.1798281870391272E+01
 -0.1797692258743610E+01 -0.1797102295555230E+01 -0.1796511981778547E+01 -0.1795921318362837E+01 -0.1795330306254246E+01
 -0.1794738946395811E+01 -0.1794147239727465E+01 -0.1793555187186055E+01 -0.1792962789705353E+01 -0.1792370048216071E+01
 -0.1791776963645869E+01 -0.1791183536919374E+01 -0.1790589768958187E+01 -0.1789995660680901E+01 -0.1789401213003107E+01
 -0.1788806426837414E+01 -0.1788211303093454E+01 -0.1787615842677900E+01 -0.1787020046494475E+01 -0.1786423915443966E+01
 -0.1785827450424236E+01 -0.1785230652330233E+01 -0.1784633522054009E+01 -0.1784036060484723E+01 -0.1783438268508661E+01
 -0.1782840147009242E+01 -0.1782241696867033E+01 -0.1781642918959760E+01 -0.1781043814162319E+01 -0.1780444383346788E+01
 -0.1779844627382440E+01 -0.1779244547135751E+01 -0.1778644143470415E+01 -0.1778043417247354E+01 -0.1777442369324730E+01
 -0.1776841000557952E+01 -0.1776239311799696E+01 -0.1775637303899906E+01 -0.1775034977705812E+01 -0.1774432334061941E+01
 -0.1773829373810122E+01 -0.1773226097789504E+01 -0.1772622506836564E+01 -0.1772018601785114E+01 -0.1771414383466319E+01
 -0.1770809852708703E+01 -0.1770205010338160E+01 -0.1769599857177968E+01 -0.1768994394048792E+01 -0.1768388621768705E+01
 -0.1767782541153188E+01 -0.1767176153015150E+01 -0.1766569458164927E+01 -0.1765962457410307E+01 -0.1765355151556527E+01
 -0.1764747541406289E+01 -0.1764139627759770E+01 -0.1763531411414632E+01 -0.1762922893166029E+01 -0.1762314073806625E+01
 -0.1761704954126593E+01 -0.1761095534913633E+01 -0.1760485816952981E+01 -0.1759875801027412E+01 -0.1759265487917260E+01
 -0.1758654878400421E+01 -0.1758043973252363E+01 -0.1757432773246137E+01 -0.1756821279152388E+01 -0.1756209491739362E+01
 -0.1755597411772916E+01 -0.1754985040016527E+01 -0.1754372377231306E+01 -0.1753759424175998E+01 -0.1753146181607002E+01
 -0.1752532650278371E+01 -0.1751918830941828E+01 -0.1751304724346771E+01 -0.1750690331240284E+01 -0.1750075652367145E+01
 -0.1749460688469837E+01 -0.1748845440288554E+01 -0.1748229908561213E+01 -0.1747614094023459E+01 -0.1746997997408680E+01
 -0.1746381619448009E+01 -0.1745764960870337E+01 -0.1745148022402320E+01 -0.1744530804768390E+01 -0.1743913308690759E+01
 -0.1743295534889433E+01 -0.1742677484082216E+01 -0.1742059156984724E+01 -0.1741440554310386E+01 -0.1740821676770459E+01
 -0.1740202525074033E+01 -0.1739583099928041E+01 -0.1738963402037266E+01 -0.1738343432104348E+01 -0.1737723190829799E+01
 -0.1737102678912001E+01 -0.1736481897047223E+01 -0.1735860845929624E+01 -0.1735239526251262E+01 -0.1734617938702105E+01
 -0.1733996083970036E+01 -0.1733373962740859E+01 -0.1732751575698313E+01 -0.1732128923524076E+01 -0.1731506006897771E+01
 -0.1730882826496980E+01 -0.1730259382997244E+01 -0.1729635677072078E+01 -0.1729011709392974E+01 -0.1728387480629409E+01
 -0.1727762991448856E+01 -0.1727138242516789E+01 -0.1726513234496690E+01 -0.1725887968050058E+01 -0.1725262443836415E+01
 -0.1724636662513318E+01 -0.1724010624736357E+01 -0.1723384331159175E+01 -0.1722757782433463E+01 -0.1722130979208976E+01
 -0.1721503922133536E+01 -0.1720876611853043E+01 -0.1720249049011477E+01 -0.1719621234250909E+01 -0.1718993168211506E+01
 -0.1718364851531542E+01 -0.1717736284847399E+01 -0.1717107468793581E+01 -0.1716478404002715E+01 -0.1715849091105562E+01
 -0.1715219530731019E+01 -0.1714589723506135E+01 -0.1713959670056107E+01 -0.1713329371004295E+01 -0.1712698826972226E+01
 -0.1712068038579599E+01 -0.1711437006444295E+01 -0.1710805731182382E+01 -0.1710174213408123E+01 -0.1709542453733980E+01
 -0.1708910452770622E+01 -0.1708278211126935E+01 -0.1707645729410024E+01 -0.1707013008225219E+01 -0.1706380048176086E+01
 -0.1705746849864432E+01 -0.1705113413890310E+01 -0.1704479740852024E+01 -0.1703845831346140E+01 -0.1703211685967488E+01
 -0.1702577305309174E+01 -0.1701942689962578E+01 -0.1701307840517368E+01 -0.1700672757561502E+01 -0.1700037441681236E+01
 -0.1699401893461128E+01 -0.1698766113484049E+01 -0.1698130102331184E+01 -0.1697493860582041E+01 -0.1696857388814455E+01
 -0.1696220687604596E+01 -0.1695583757526976E+01 -0.1694946599154451E+01 -0.1694309213058230E+01 -0.1693671599807882E+01
 -0.1693033759971340E+01 -0.1692395694114905E+01 -0.1691757402803257E+01 -0.1691118886599457E+01 -0.1690480146064953E+01
 -0.1689841181759589E+01 -0.1689201994241605E+01 -0.1688562584067651E+01 -0.1687922951792783E+01 -0.1687283097970477E+01
 -0.1686643023152631E+01 -0.1686002727889571E+01 -0.1685362212730056E+01 -0.1684721478221284E+01 -0.1684080524908899E+01
 -0.1683439353336997E+01 -0.1682797964048126E+01 -0.1682156357583298E+01 -0.1681514534481993E+01 -0.1680872495282162E+01
 -0.1680230240520235E+01 -0.1679587770731124E+01 -0.1678945086448230E+01 -0.1678302188203450E+01 -0.1677659076527180E+01
 -0.1677015751948318E+01 -0.1676372214994275E+01 -0.1675728466190977E+01 -0.1675084506062871E+01 -0.1674440335132929E+01
 -0.1673795953922655E+01 -0.1673151362952086E+01 -0.1672506562739807E+01 -0.1671861553802945E+01 -0.1671216336657178E+01
 -0.1670570911816744E+01 -0.1669925279794441E+01 -0.1669279441101636E+01 -0.1668633396248264E+01 -0.1667987145742843E+01
 -0.1667340690092467E+01 -0.1666694029802821E+01 -0.1666047165378180E+01 -0.1665400097321417E+01 -0.1664752826134008E+01
 -0.1664105352316031E+01 -0.1663457676366180E+01 -0.1662809798781766E+01 -0.1662161720058716E+01 -0.1661513440691589E+01
 -0.1660864961173571E+01 -0.1660216281996485E+01 -0.1659567403650794E+01 -0.1658918326625606E+01 -0.1658269051408679E+01
 -0.1657619578486425E+01 -0.1656969908343915E+01 -0.1656320041464886E+01 -0.1655669978331739E+01 -0.1655019719425552E+01
 -0.1654369265226078E+01 -0.1653718616211754E+01 -0.1653067772859701E+01 -0.1652416735645735E+01 -0.1651765505044364E+01
 -0.1651114081528799E+01 -0.1650462465570952E+01 -0.1649810657641450E+01 -0.1649158658209626E+01 -0.1648506467743538E+01
 -0.1647854086709962E+01 -0.1647201515574402E+01 -0.1646548754801093E+01 -0.1645895804853005E+01 -0.1645242666191849E+01
 -0.1644589339278078E+01 -0.1643935824570896E+01 -0.1643282122528257E+01 -0.1642628233606872E+01 -0.1641974158262215E+01
 -0.1641319896948525E+01 -0.1640665450118808E+01 -0.1640010818224847E+01 -0.1639356001717198E+01 -0.1638701001045206E+01
 -0.1638045816656996E+01 -0.1637390448999485E+01 -0.1636734898518385E+01 -0.1636079165658207E+01 -0.1635423250862262E+01
 -0.1634767154572671E+01 -0.1634110877230360E+01 -0.1633454419275076E+01 -0.1632797781145380E+01 -0.1632140963278656E+01
 -0.1631483966111117E+01 -0.1630826790077803E+01 -0.1630169435612592E+01 -0.1629511903148196E+01 -0.1628854193116172E+01
 -0.1628196305946922E+01 -0.1627538242069699E+01 -0.1626880001912608E+01 -0.1626221585902613E+01 -0.1625562994465538E+01
 -0.1624904228026073E+01 -0.1624245287007776E+01 -0.1623586171833080E+01 -0.1622926882923292E+01 -0.1622267420698600E+01
 -0.1621607785578076E+01 -0.1620947977979680E+01 -0.1620287998320263E+01 -0.1619627847015571E+01 -0.1618967524480248E+01
 -0.1618307031127841E+01 -0.1617646367370804E+01 -0.1616985533620499E+01 -0.1616324530287201E+01 -0.1615663357780102E+01
 -0.1615002016507317E+01 -0.1614340506875881E+01 -0.1613678829291758E+01 -0.1613016984159844E+01 -0.1612354971883967E+01
 -0.1611692792866896E+01 -0.1611030447510341E+01 -0.1610367936214953E+01 -0.1609705259380337E+01 -0.1609042417405047E+01
 -0.1608379410686592E+01 -0.1607716239621442E+01 -0.1607052904605025E+01 -0.1606389406031739E+01 -0.1605725744294949E+01
 -0.1605061919786992E+01 -0.1604397932899180E+01 -0.1603733784021807E+01 -0.1603069473544146E+01 -0.1602405001854456E+01
 -0.1601740369339988E+01 -0.1601075576386981E+01 -0.1600410623380673E+01 -0.1599745510705298E+01 -0.1599080238744095E+01
 -0.1598414807879305E+01 -0.1597749218492178E+01 -0.1597083470962979E+01 -0.1596417565670984E+01 -0.1595751502994488E+01
 -0.1595085283310809E+01 -0.1594418906996287E+01 -0.1593752374426291E+01 -0.1593085685975220E+01 -0.1592418842016508E+01
 -0.1591751842922623E+01 -0.1591084689065076E+01 -0.1590417380814420E+01 -0.1589749918540254E+01 -0.1589082302611225E+01
 -0.1588414533395036E+01 -0.1587746611258441E+01 -0.1587078536567255E+01 -0.1586410309686352E+01 -0.1585741930979673E+01
 -0.1585073400810225E+01 -0.1584404719540086E+01 -0.1583735887530406E+01 -0.1583066905141411E+01 -0.1582397772732408E+01
 -0.1581728490661786E+01 -0.1581059059287017E+01 -0.1580389478964662E+01 -0.1579719750050373E+01 -0.1579049872898896E+01
 -0.1578379847864074E+01 -0.1577709675298847E+01 -0.1577039355555260E+01 -0.1576368888984462E+01 -0.1575698275936711E+01
 -0.1575027516761373E+01 -0.1574356611806931E+01 -0.1573685561420983E+01 -0.1573014365950245E+01 -0.1572343025740558E+01
 -0.1571671541136884E+01 -0.1570999912483316E+01 -0.1570328140123074E+01 -0.1569656224398515E+01 -0.1568984165651127E+01
 -0.1568311964221539E+01 -0.1567639620449522E+01 -0.1566967134673990E+01 -0.1566294507233002E+01 -0.1565621738463768E+01
 -0.1564948828702649E+01 -0.1564275778285161E+01 -0.1563602587545977E+01 -0.1562929256818929E+01 -0.1562255786437013E+01
 -0.1561582176732387E+01 -0.1560908428036382E+01 -0.1560234540679492E+01 -0.1559560514991391E+01 -0.1558886351300923E+01
 -0.1558212049936112E+01 -0.1557537611224163E+01 -0.1556863035491462E+01 -0.1556188323063584E+01 -0.1555513474265289E+01
 -0.1554838489420528E+01 -0.1554163368852446E+01 -0.1553488112883383E+01 -0.1552812721834878E+01 -0.1552137196027670E+01
 -0.1551461535781700E+01 -0.1550785741416115E+01 -0.1550109813249272E+01 -0.1549433751598736E+01 -0.1548757556781285E+01
 -0.1548081229112913E+01 -0.1547404768908831E+01 -0.1546728176483470E+01 -0.1546051452150486E+01 -0.1545374596222754E+01
 -0.1544697609012383E+01 -0.1544020490830707E+01 -0.1543343241988294E+01 -0.1542665862794944E+01 -0.1541988353559697E+01
 -0.1541310714590829E+01 -0.1540632946195859E+01 -0.1539955048681549E+01 -0.1539277022353907E+01 -0.1538598867518189E+01
 -0.1537920584478901E+01 -0.1537242173539802E+01 -0.1536563635003908E+01 -0.1535884969173490E+01 -0.1535206176350079E+01
 -0.1534527256834468E+01 -0.1533848210926715E+01 -0.1533169038926142E+01 -0.1532489741131341E+01 -0.1531810317840176E+01
 -0.1531130769349781E+01 -0.1530451095956567E+01 -0.1529771297956223E+01 -0.1529091375643716E+01 -0.1528411329313295E+01
 -0.1527731159258491E+01 -0.1527050865772126E+01 -0.1526370449146306E+01 -0.1525689909672428E+01 -0.1525009247641182E+01
 -0.1524328463342553E+01 -0.1523647557065820E+01 -0.1522966529099565E+01 -0.1522285379731668E+01 -0.1521604109249312E+01
 -0.1520922717938987E+01 -0.1520241206086487E+01 -0.1519559573976919E+01 -0.1518877821894698E+01 -0.1518195950123555E+01
 -0.1517513958946533E+01 -0.1516831848645997E+01 -0.1516149619503628E+01 -0.1515467271800429E+01 -0.1514784805816727E+01
 -0.1514102221832176E+01 -0.1513419520125755E+01 -0.1512736700975774E+01 -0.1512053764659874E+01 -0.1511370711455029E+01
 -0.1510687541637550E+01 -0.1510004255483085E+01 -0.1509320853266622E+01 -0.1508637335262487E+01 -0.1507953701744353E+01
 -0.1507269952985238E+01 -0.1506586089257504E+01 -0.1505902110832868E+01 -0.1505218017982391E+01 -0.1504533810976492E+01
 -0.1503849490084944E+01 -0.1503165055576875E+01 -0.1502480507720773E+01 -0.1501795846784487E+01 -0.1501111073035228E+01
 -0.1500426186739570E+01 -0.1499741188163455E+01 -0.1499056077572193E+01 -0.1498370855230463E+01 -0.1497685521402315E+01
 -0.1497000076351174E+01 -0.1496314520339841E+01 -0.1495628853630493E+01 -0.1494943076484685E+01 -0.1494257189163356E+01
 -0.1493571191926825E+01 -0.1492885085034796E+01 -0.1492198868746361E+01 -0.1491512543319998E+01 -0.1490826109013575E+01
 -0.1490139566084353E+01 -0.1489452914788986E+01 -0.1488766155383522E+01 -0.1488079288123408E+01 -0.1487392313263486E+01
 -0.1486705231058003E+01 -0.1486018041760606E+01 -0.1485330745624345E+01 -0.1484643342901677E+01 -0.1483955833844465E+01
 -0.1483268218703983E+01 -0.1482580497730913E+01 -0.1481892671175353E+01 -0.1481204739286813E+01 -0.1480516702314218E+01
 -0.1479828560505913E+01 -0.1479140314109660E+01 -0.1478451963372643E+01 -0.1477763508541467E+01 -0.1477074949862165E+01
 -0.1476386287580192E+01 -0.1475697521940432E+01 -0.1475008653187198E+01 -0.1474319681564233E+01 -0.1473630607314715E+01
 -0.1472941430681253E+01 -0.1472252151905894E+01 -0.1471562771230121E+01 -0.1470873288894856E+01 -0.1470183705140462E+01
 -0.1469494020206743E+01 -0.1468804234332949E+01 -0.1468114347757771E+01 -0.1467424360719353E+01 -0.1466734273455282E+01
 -0.1466044086202599E+01 -0.1465353799197792E+01 -0.1464663412676807E+01 -0.1463972926875042E+01 -0.1463282342027352E+01
 -0.1462591658368048E+01 -0.1461900876130904E+01 -0.1461209995549152E+01 -0.1460519016855487E+01 -0.1459827940282067E+01
 -0.1459136766060518E+01 -0.1458445494421932E+01 -0.1457754125596867E+01 -0.1457062659815353E+01 -0.1456371097306893E+01
 -0.1455679438300459E+01 -0.1454987683024501E+01 -0.1454295831706944E+01 -0.1453603884575188E+01 -0.1452911841856115E+01
 -0.1452219703776086E+01 -0.1451527470560944E+01 -0.1450835142436015E+01 -0.1450142719626110E+01 -0.1449450202355524E+01
 -0.1448757590848045E+01 -0.1448064885326943E+01 -0.1447372086014984E+01 -0.1446679193134424E+01 -0.1445986206907010E+01
 -0.1445293127553989E+01 -0.1444599955296098E+01 -0.1443906690353576E+01 -0.1443213332946159E+01 -0.1442519883293083E+01
 -0.1441826341613088E+01 -0.1441132708124416E+01 -0.1440438983044810E+01 -0.1439745166591525E+01 -0.1439051258981320E+01
 -0.1438357260430460E+01 -0.1437663171154725E+01 -0.1436968991369404E+01 -0.1436274721289299E+01 -0.1435580361128726E+01
 -0.1434885911101515E+01 -0.1434191371421015E+01 -0.1433496742300093E+01 -0.1432802023951133E+01 -0.1432107216586042E+01
 -0.1431412320416249E+01 -0.1430717335652704E+01 -0.1430022262505885E+01 -0.1429327101185794E+01 -0.1428631851901960E+01
 -0.1427936514863443E+01 -0.1427241090278830E+01 -0.1426545578356241E+01 -0.1425849979303329E+01 -0.1425154293327278E+01
 -0.1424458520634809E+01 -0.1423762661432181E+01 -0.1423066715925189E+01 -0.1422370684319164E+01 -0.1421674566818983E+01
 -0.1420978363629059E+01 -0.1420282074953351E+01 -0.1419585700995362E+01 -0.1418889241958137E+01 -0.1418192698044271E+01
 -0.1417496069455904E+01 -0.1416799356394728E+01 -0.1416102559061981E+01 -0.1415405677658455E+01 -0.1414708712384495E+01
 -0.1414011663439998E+01 -0.1413314531024418E+01 -0.1412617315336762E+01 -0.1411920016575597E+01 -0.1411222634939050E+01
 -0.1410525170624804E+01 -0.1409827623830105E+01 -0.1409129994751761E+01 -0.1408432283586146E+01 -0.1407734490529192E+01
 -0.1407036615776403E+01 -0.1406338659522848E+01 -0.1405640621963164E+01 -0.1404942503291555E+01 -0.1404244303701800E+01
 -0.1403546023387246E+01 -0.1402847662540814E+01 -0.1402149221354998E+01 -0.1401450700021868E+01 -0.1400752098733071E+01
 -0.1400053417679830E+01 -0.1399354657052945E+01 -0.1398655817042800E+01 -0.1397956897839355E+01 -0.1397257899632156E+01
 -0.1396558822610328E+01 -0.1395859666962584E+01 -0.1395160432877217E+01 -0.1394461120542112E+01 -0.1393761730144739E+01
 -0.1393062261872156E+01 -0.1392362715911012E+01 -0.1391663092447544E+01 -0.1390963391667585E+01 -0.1390263613756557E+01
 -0.1389563758899478E+01 -0.1388863827280962E+01 -0.1388163819085217E+01 -0.1387463734496048E+01 -0.1386763573696861E+01
 -0.1386063336870661E+01 -0.1385363024200049E+01 -0.1384662635867233E+01 -0.1383962172054022E+01 -0.1383261632941827E+01
 -0.1382561018711664E+01 -0.1381860329544156E+01 -0.1381159565619535E+01 -0.1380458727117634E+01 -0.1379757814217901E+01
 -0.1379056827099391E+01 -0.1378355765940771E+01 -0.1377654630920321E+01 -0.1376953422215931E+01 -0.1376252140005107E+01
 -0.1375550784464970E+01 -0.1374849355772256E+01 -0.1374147854103321E+01 -0.1373446279634134E+01 -0.1372744632540287E+01
 -0.1372042912996992E+01 -0.1371341121179080E+01 -0.1370639257261004E+01 -0.1369937321416844E+01 -0.1369235313820299E+01
 -0.1368533234644696E+01 -0.1367831084062987E+01 -0.1367128862247751E+01 -0.1366426569371196E+01 -0.1365724205605158E+01
 -0.1365021771121102E+01 -0.1364319266090126E+01 -0.1363616690682959E+01 -0.1362914045069961E+01 -0.1362211329421130E+01
 -0.1361508543906094E+01 -0.1360805688694120E+01 -0.1360102763954110E+01 -0.1359399769854605E+01 -0.1358696706563782E+01
 -0.1357993574249459E+01 -0.1357290373079097E+01 -0.1356587103219793E+01 -0.1355883764838290E+01 -0.1355180358100973E+01
 -0.1354476883173872E+01 -0.1353773340222662E+01 -0.1353069729412662E+01 -0.1352366050908840E+01 -0.1351662304875811E+01
 -0.1350958491477839E+01 -0.1350254610878837E+01 -0.1349550663242369E+01 -0.1348846648731651E+01 -0.1348142567509550E+01
 -0.1347438419738589E+01 -0.1346734205580940E+01 -0.1346029925198435E+01 -0.1345325578752560E+01 -0.1344621166404457E+01
 -0.1343916688314928E+01 -0.1343212144644430E+01 -0.1342507535553084E+01 -0.1341802861200667E+01 -0.1341098121746619E+01
 -0.1340393317350044E+01 -0.1339688448169704E+01 -0.1338983514364031E+01 -0.1338278516091116E+01 -0.1337573453508719E+01
 -0.1336868326774266E+01 -0.1336163136044849E+01 -0.1335457881477227E+01 -0.1334752563227833E+01 -0.1334047181452763E+01
 -0.1333341736307789E+01 -0.1332636227948352E+01 -0.1331930656529565E+01 -0.1331225022206215E+01 -0.1330519325132764E+01
 -0.1329813565463347E+01 -0.1329107743351774E+01 -0.1328401858951534E+01 -0.1327695912415792E+01 -0.1326989903897390E+01
 -0.1326283833548851E+01 -0.1325577701522376E+01 -0.1324871507969847E+01 -0.1324165253042828E+01 -0.1323458936892564E+01
 -0.1322752559669985E+01 -0.1322046121525703E+01 -0.1321339622610015E+01 -0.1320633063072902E+01 -0.1319926443064034E+01
 -0.1319219762732767E+01 -0.1318513022228142E+01 -0.1317806221698893E+01 -0.1317099361293439E+01 -0.1316392441159894E+01
 -0.1315685461446057E+01 -0.1314978422299423E+01 -0.1314271323867179E+01 -0.1313564166296203E+01 -0.1312856949733069E+01
 -0.1312149674324045E+01 -0.1311442340215095E+01 -0.1310734947551878E+01 -0.1310027496479752E+01 -0.1309319987143771E+01
 -0.1308612419688689E+01 -0.1307904794258958E+01 -0.1307197110998732E+01 -0.1306489370051863E+01 -0.1305781571561906E+01
 -0.1305073715672120E+01 -0.1304365802525465E+01 -0.1303657832264605E+01 -0.1302949805031909E+01 -0.1302241720969451E+01
 -0.1301533580219012E+01 -0.1300825382922078E+01 -0.1300117129219844E+01 -0.1299408819253212E+01 -0.1298700453162794E+01
 -0.1297992031088912E+01 -0.1297283553171596E+01 -0.1296575019550591E+01 -0.1295866430365350E+01 -0.1295157785755039E+01
 -0.1294449085858541E+01 -0.1293740330814450E+01 -0.1293031520761073E+01 -0.1292322655836436E+01 -0.1291613736178278E+01
 -0.1290904761924059E+01 -0.1290195733210951E+01 -0.1289486650175848E+01 -0.1288777512955362E+01 -0.1288068321685824E+01
 -0.1287359076503287E+01 -0.1286649777543522E+01 -0.1285940424942024E+01 -0.1285231018834009E+01 -0.1284521559354418E+01
 -0.1283812046637913E+01 -0.1283102480818884E+01 -0.1282392862031441E+01 -0.1281683190409423E+01 -0.1280973466086398E+01
 -0.1280263689195654E+01 -0.1279553859870214E+01 -0.1278843978242824E+01 -0.1278134044445963E+01 -0.1277424058611837E+01
 -0.1276714020872384E+01 -0.1276003931359272E+01 -0.1275293790203903E+01 -0.1274583597537408E+01 -0.1273873353490653E+01
 -0.1273163058194237E+01 -0.1272452711778496E+01 -0.1271742314373497E+01 -0.1271031866109045E+01 -0.1270321367114680E+01
 -0.1269610817519681E+01 -0.1268900217453062E+01 -0.1268189567043577E+01 -0.1267478866419719E+01 -0.1266768115709719E+01
 -0.1266057315041549E+01 -0.1265346464542921E+01 -0.1264635564341291E+01 -0.1263924614563854E+01 -0.1263213615337549E+01
 -0.1262502566789057E+01 -0.1261791469044804E+01 -0.1261080322230962E+01 -0.1260369126473445E+01 -0.1259657881897915E+01
 -0.1258946588629779E+01 -0.1258235246794192E+01 -0.1257523856516055E+01 -0.1256812417920020E+01 -0.1256100931130486E+01
 -0.1255389396271601E+01 -0.1254677813467263E+01 -0.1253966182841123E+01 -0.1253254504516579E+01 -0.1252542778616785E+01
 -0.1251831005264645E+01 -0.1251119184582816E+01 -0.1250407316693710E+01 -0.1249695401719493E+01 -0.1248983439782084E+01
 -0.1248271431003160E+01 -0.1247559375504151E+01 -0.1246847273406245E+01 -0.1246135124830390E+01 -0.1245422929897285E+01
 -0.1244710688727394E+01 -0.1243998401440937E+01 -0.1243286068157892E+01 -0.1242573688998000E+01 -0.1241861264080761E+01
 -0.1241148793525435E+01 -0.1240436277451047E+01 -0.1239723715976382E+01 -0.1239011109219988E+01 -0.1238298457300176E+01
 -0.1237585760335023E+01 -0.1236873018442370E+01 -0.1236160231739820E+01 -0.1235447400344746E+01 -0.1234734524374285E+01
 -0.1234021603945342E+01 -0.1233308639174587E+01 -0.1232595630178461E+01 -0.1231882577073171E+01 -0.1231169479974694E+01
 -0.1230456338998778E+01 -0.1229743154260938E+01 -0.1229029925876462E+01 -0.1228316653960408E+01 -0.1227603338627608E+01
 -0.1226889979992663E+01 -0.1226176578169949E+01 -0.1225463133273614E+01 -0.1224749645417580E+01 -0.1224036114715547E+01
 -0.1223322541280984E+01 -0.1222608925227141E+01 -0.1221895266667039E+01 -0.1221181565713480E+01 -0.1220467822479040E+01
 -0.1219754037076075E+01 -0.1219040209616717E+01 -0.1218326340212878E+01 -0.1217612428976247E+01 -0.1216898476018297E+01
 -0.1216184481450278E+01 -0.1215470445383220E+01 -0.1214756367927936E+01 -0.1214042249195021E+01 -0.1213328089294852E+01
 -0.1212613888337586E+01 -0.1211899646433169E+01 -0.1211185363691326E+01 -0.1210471040221566E+01 -0.1209756676133187E+01
 -0.1209042271535268E+01 -0.1208327826536678E+01 -0.1207613341246068E+01 -0.1206898815771877E+01 -0.1206184250222335E+01
 -0.1205469644705454E+01 -0.1204754999329039E+01 -0.1204040314200681E+01 -0.1203325589427762E+01 -0.1202610825117452E+01
 -0.1201896021376713E+01 -0.1201181178312298E+01 -0.1200466296030748E+01 -0.1199751374638400E+01 -0.1199036414241379E+01
 -0.1198321414945608E+01 -0.1197606376856798E+01 -0.1196891300080456E+01 -0.1196176184721882E+01 -0.1195461030886174E+01
 -0.1194745838678220E+01 -0.1194030608202708E+01 -0.1193315339564118E+01 -0.1192600032866730E+01 -0.1191884688214620E+01
 -0.1191169305711661E+01 -0.1190453885461523E+01 -0.1189738427567676E+01 -0.1189022932133387E+01 -0.1188307399261726E+01
 -0.1187591829055558E+01 -0.1186876221617551E+01 -0.1186160577050174E+01 -0.1185444895455697E+01 -0.1184729176936188E+01
 -0.1184013421593524E+01 -0.1183297629529376E+01 -0.1182581800845226E+01 -0.1181865935642355E+01 -0.1181150034021849E+01
 -0.1180434096084599E+01 -0.1179718121931297E+01 -0.1179002111662446E+01 -0.1178286065378351E+01 -0.1177569983179124E+01
 -0.1176853865164683E+01 -0.1176137711434755E+01 -0.1175421522088871E+01 -0.1174705297226373E+01 -0.1173989036946411E+01
 -0.1173272741347942E+01 -0.1172556410529733E+01 -0.1171840044590362E+01 -0.1171123643628214E+01 -0.1170407207741488E+01
 -0.1169690737028191E+01 -0.1168974231586145E+01 -0.1168257691512980E+01 -0.1167541116906139E+01 -0.1166824507862880E+01
 -0.1166107864480271E+01 -0.1165391186855196E+01 -0.1164674475084352E+01 -0.1163957729264250E+01 -0.1163240949491216E+01
 -0.1162524135861392E+01 -0.1161807288470733E+01 -0.1161090407415013E+01 -0.1160373492789822E+01 -0.1159656544690566E+01
 -0.1158939563212468E+01 -0.1158222548450569E+01 -0.1157505500499730E+01 -0.1156788419454626E+01 -0.1156071305409755E+01
 -0.1155354158459434E+01 -0.1154636978697799E+01 -0.1153919766218805E+01 -0.1153202521116228E+01 -0.1152485243483666E+01
 -0.1151767933414539E+01 -0.1151050591002087E+01 -0.1150333216339372E+01 -0.1149615809519280E+01 -0.1148898370634520E+01
 -0.1148180899777623E+01 -0.1147463397040945E+01 -0.1146745862516664E+01 -0.1146028296296787E+01 -0.1145310698473142E+01
 -0.1144593069137382E+01 -0.1143875408380989E+01 -0.1143157716295270E+01 -0.1142439992971356E+01 -0.1141722238500208E+01
 -0.1141004452972613E+01 -0.1140286636479185E+01 -0.1139568789110367E+01 -0.1138850910956432E+01 -0.1138133002107478E+01
 -0.1137415062653436E+01 -0.1136697092684064E+01 -0.1135979092288951E+01 -0.1135261061557516E+01 -0.1134543000579010E+01
 -0.1133824909442513E+01 -0.1133106788236939E+01 -0.1132388637051032E+01 -0.1131670455973367E+01 -0.1130952245092356E+01
 -0.1130234004496241E+01 -0.1129515734273095E+01 -0.1128797434510830E+01 -0.1128079105297189E+01 -0.1127360746719750E+01
 -0.1126642358865924E+01 -0.1125923941822963E+01 -0.1125205495677947E+01 -0.1124487020517797E+01 -0.1123768516429267E+01
 -0.1123049983498952E+01 -0.1122331421813280E+01 -0.1121612831458519E+01 -0.1120894212520773E+01 -0.1120175565085984E+01
 -0.1119456889239933E+01 -0.1118738185068241E+01 -0.1118019452656368E+01 -0.1117300692089610E+01 -0.1116581903453107E+01
 -0.1115863086831838E+01 -0.1115144242310621E+01 -0.1114425369974118E+01 -0.1113706469906830E+01 -0.1112987542193099E+01
 -0.1112268586917111E+01 -0.1111549604162895E+01 -0.1110830594014318E+01 -0.1110111556555095E+01 -0.1109392491868783E+01
 -0.1108673400038781E+01 -0.1107954281148334E+01 -0.1107235135280531E+01 -0.1106515962518305E+01 -0.1105796762944435E+01
 -0.1105077536641543E+01 -0.1104358283692101E+01 -0.1103639004178424E+01 -0.1102919698182674E+01 -0.1102200365786860E+01
 -0.1101481007072838E+01 -0.1100761622122312E+01 -0.1100042211016832E+01 -0.1099322773837799E+01 -0.1098603310666459E+01
 -0.1097883821583910E+01 -0.1097164306671097E+01 -0.1096444766008816E+01 -0.1095725199677710E+01 -0.1095005607758275E+01
 -0.1094285990330857E+01 -0.1093566347475651E+01 -0.1092846679272704E+01 -0.1092126985801915E+01 -0.1091407267143033E+01
  0.7037173065392454E+02  0.7037173065392454E+02  0.7037173065392454E+02  0.7037173065392454E+02  0.7037173065392454E+02
  0.7037173065392454E+02  0.7037173065392454E+02  0.7037173065392454E+02  0.7037173065392454E+02  0.7037173065392454E+02
  0.7037173065392454E+02  0.7037173065392454E+02  0.7037173065392454E+02  0.7037173065392454E+02  0.7037173065392454E+02
  0.7037173065392454E+02  0.7037173065392454E+02  0.7037173065392454E+02  0.7037173065392454E+02  0.7037173065392454E+02
  0.7037173065392454E+02  0.7037173065392454E+02  0.7037173065392454E+02  0.7037173065392454E+02  0.7037173065392454E+02
  0.7037173065392454E+02  0.7037173065392454E+02  0.7037173065392454E+02  0.7037173065392454E+02  0.7037173065392454E+02
  0.7037173065392454E+02  0.7037173065392454E+02  0.7037173065392454E+02  0.7037173065392454E+02  0.7037173065392454E+02
  0.7037173065392454E+02  0.7037173065392454E+02  0.7037173065392454E+02  0.7037173065392454E+02  0.7037173065392454E+02
  0.7037173065392454E+02  0.7037173065392454E+02  0.7037173065392454E+02  0.7037173065392454E+02  0.7037173065392454E+02
  0.7037173065392454E+02  0.7037173065392454E+02  0.7037173065392454E+02  0.7037173065392454E+02  0.7037173065392454E+02
  0.7037173065392454E+02  0.7037173065392454E+02  0.7037173065392454E+02  0.7037173065392454E+02  0.7037173065392454E+02
  0.7037173065392454E+02  0.7037173065392454E+02  0.7037173065392454E+02  0.7037173065392454E+02  0.7037173065392454E+02
  0.7037173065392454E+02  0.7037173065392454E+02  0.7037173065392454E+02  0.7037173065392454E+02  0.7037173065392454E+02
  0.7037173065392454E+02  0.7037173065392454E+02  0.7037173065392454E+02  0.7037173065392454E+02  0.7037173065392454E+02
  0.7037173065392454E+02  0.7037173065392454E+02  0.7037173065392454E+02  0.7037173065392454E+02  0.7037173065392454E+02
  0.7037173065392454E+02  0.7037173065392454E+02  0.7037173065392454E+02  0.7037173065392454E+02  0.7037173065392454E+02
  0.7037173065392454E+02  0.7037173065392454E+02  0.7037173065392454E+02  0.7037173065392454E+02  0.7037173065392454E+02
  0.7037173065392454E+02  0.7037173065392454E+02  0.7037173065392454E+02  0.7037173065392454E+02  0.7037173065392454E+02
  0.7037173065392454E+02  0.7037173065392454E+02  0.7037173065392454E+02  0.7037173065392454E+02  0.7037173065392454E+02
  0.7037173065392454E+02  0.7037173065392454E+02  0.7037173065392454E+02  0.7037173065392454E+02  0.7037173065392454E+02
  0.7037173065392454E+02  0.7037173065392454E+02  0.7037173065392454E+02  0.7037173065392454E+02  0.7037173065392454E+02
  0.7037173065392454E+02  0.7037173065392454E+02  0.7037173065392454E+02  0.7037173065392454E+02  0.7037173065392454E+02
  0.7037173065392454E+02  0.7037173065392454E+02  0.7037173065392454E+02  0.7037173065392454E+02  0.7037173065392454E+02
  0.7037173065392454E+02  0.7037173065392454E+02  0.7037173065392454E+02  0.7037173065392454E+02  0.7037173065392454E+02
  0.7037173065392454E+02  0.7037173065392454E+02  0.7037173065392454E+02  0.7037173065392454E+02  0.7037173065392454E+02
  0.7037173065392454E+02  0.7037173065392454E+02  0.7037173065392454E+02  0.7037173065392454E+02  0.7037173065392454E+02
  0.7037173065392454E+02  0.7037173065392454E+02  0.7037173065392454E+02  0.7037173065392454E+02  0.7037173065392454E+02
  0.7037173065392454E+02  0.7037173065392454E+02  0.7037173065392454E+02  0.7037173065392454E+02  0.7037173065392454E+02
  0.7037173065392454E+02  0.7037173065392454E+02  0.7037173065392454E+02  0.7037173065392454E+02  0.7037173065392454E+02
  0.7037173065392454E+02  0.7037173065392454E+02  0.7037173065392454E+02  0.7037173065392454E+02  0.7037173065392454E+02
  0.7037173065392454E+02  0.7037173065392454E+02  0.7037173065392454E+02  0.7037173065392454E+02  0.7037173065392454E+02
  0.7037173065392454E+02  0.7037173065392454E+02  0.7037173065392454E+02  0.7037173065392454E+02  0.7037173065392454E+02
  0.7037173065392454E+02  0.7037173065392454E+02  0.7037173065392454E+02  0.7037173065392454E+02  0.7037173065392454E+02
  0.7037173065392454E+02  0.7037173065392454E+02  0.7037173065392454E+02  0.7037173065392454E+02  0.7037173065392454E+02
  0.7037173065392454E+02  0.7037173065392454E+02  0.7037173065392454E+02  0.7037173065392454E+02  0.7037173065392454E+02
  0.7037173065392454E+02  0.7037173065392454E+02  0.7037173065392454E+02  0.7037173065392454E+02  0.7037173065392454E+02
  0.7009583223254654E+02  0.6973688885491192E+02  0.6937978353731940E+02  0.6902450686751931E+02  0.6867104948145966E+02
  0.6831940206303942E+02  0.6796955534386318E+02  0.6762150010299644E+02  0.6727522716672306E+02  0.6693072740830308E+02
  0.6658799174773227E+02  0.6624701115150300E+02  0.6590777663236597E+02  0.6557027924909320E+02  0.6523451010624268E+02
  0.6490046035392369E+02  0.6456812118756358E+02  0.6423748384767585E+02  0.6390853961962902E+02  0.6358127983341713E+02
  0.6325569586343119E+02  0.6293177912823180E+02  0.6260952109032304E+02  0.6228891325592721E+02  0.6196994717476136E+02
  0.6165261443981423E+02  0.6133690668712479E+02  0.6102281559556182E+02  0.6071033288660443E+02  0.6039945032412415E+02
  0.6009015971416759E+02  0.5978245290474058E+02  0.5947632178559329E+02  0.5917175828800641E+02  0.5886875438457866E+02
  0.5856730208901502E+02  0.5826739345591631E+02  0.5796902058056981E+02  0.5767217559874074E+02  0.5737685068646527E+02
  0.5708303805984418E+02  0.5679072997483746E+02  0.5649991872706062E+02  0.5621059665158123E+02  0.5592275612271722E+02
  0.5563638955383576E+02  0.5535148939715314E+02  0.5506804814353613E+02  0.5478605832230375E+02  0.5450551250103072E+02
  0.5422640328535125E+02  0.5394872331876424E+02  0.5367246528243944E+02  0.5339762189502458E+02  0.5312418591245330E+02
  0.5285215012775438E+02  0.5258150737086161E+02  0.5231225050842498E+02  0.5204437244362265E+02  0.5177786611597374E+02
  0.5151272450115245E+02  0.5124894061080264E+02  0.5098650749235402E+02  0.5072541822883855E+02  0.5046566593870831E+02
  0.5020724377565405E+02  0.4995014492842487E+02  0.4969436262064843E+02  0.4943989011065272E+02  0.4918672069128797E+02
  0.4893484768975013E+02  0.4868426446740501E+02  0.4843496441961307E+02  0.4818694097555563E+02  0.4794018759806144E+02
  0.4769469778343451E+02  0.4745046506128273E+02  0.4720748299434718E+02  0.4696574517833261E+02  0.4672524524173850E+02
  0.4648597684569125E+02  0.4624793368377712E+02  0.4601110948187585E+02  0.4577549799799545E+02  0.4554109302210763E+02
  0.4530788837598401E+02  0.4507587791303360E+02  0.4484505551814036E+02  0.4461541510750236E+02  0.4438695062847128E+02
  0.4415965605939290E+02  0.4393352540944847E+02  0.4370855271849663E+02  0.4348473205691649E+02  0.4326205752545127E+02
  0.4304052325505279E+02  0.4282012340672689E+02  0.4260085217137939E+02  0.4238270376966300E+02  0.4216567245182516E+02
  0.4194975249755620E+02  0.4173493821583892E+02  0.4152122394479829E+02  0.4130860405155232E+02  0.4109707293206372E+02
  0.4088662501099198E+02  0.4067725474154660E+02  0.4046895660534079E+02  0.4026172511224600E+02  0.4005555480024736E+02
  0.3985044023529962E+02  0.3964637601118382E+02  0.3944335674936501E+02  0.3924137709885031E+02  0.3904043173604803E+02
  0.3884051536462725E+02  0.3864162271537818E+02  0.3844374854607343E+02  0.3824688764132966E+02  0.3805103481247035E+02
  0.3785618489738883E+02  0.3766233276041226E+02  0.3746947329216636E+02  0.3727760140944068E+02  0.3708671205505465E+02
  0.3689680019772423E+02  0.3670786083192936E+02  0.3651988897778198E+02  0.3633287968089483E+02  0.3614682801225085E+02
  0.3596172906807325E+02  0.3577757796969620E+02  0.3559436986343641E+02  0.3541209992046500E+02  0.3523076333668042E+02
  0.3505035533258167E+02  0.3487087115314240E+02  0.3469230606768559E+02  0.3451465536975880E+02  0.3433791437701024E+02
  0.3416207843106522E+02  0.3398714289740345E+02  0.3381310316523687E+02  0.3363995464738815E+02  0.3346769278016971E+02
  0.3329631302326350E+02  0.3312581085960130E+02  0.3295618179524573E+02  0.3278742135927171E+02  0.3261952510364865E+02
  0.3245248860312324E+02  0.3228630745510274E+02  0.3212097727953911E+02  0.3195649371881339E+02  0.3179285243762085E+02
  0.3163004912285684E+02  0.3146807948350307E+02  0.3130693925051445E+02  0.3114662417670663E+02  0.3098713003664400E+02
  0.3082845262652841E+02  0.3067058776408830E+02  0.3051353128846849E+02  0.3035727906012049E+02  0.3020182696069341E+02
  0.3004717089292545E+02  0.2989330678053584E+02  0.2974023056811743E+02  0.2958793822102984E+02  0.2943642572529302E+02
  0.2928568908748160E+02  0.2913572433461947E+02  0.2898652751407521E+02  0.2883809469345778E+02  0.2869042196051304E+02
  0.2854350542302040E+02  0.2839734120869050E+02  0.2825192546506291E+02  0.2810725435940473E+02  0.2796332407860957E+02
  0.2782013082909697E+02  0.2767767083671248E+02  0.2753594034662813E+02  0.2739493562324350E+02  0.2725465295008729E+02
  0.2711508862971930E+02  0.2697623898363300E+02  0.2683810035215857E+02  0.2670066909436649E+02  0.2656394158797152E+02
  0.2642791422923721E+02  0.2629258343288103E+02  0.2615794563197969E+02  0.2602399727787529E+02  0.2589073484008178E+02
  0.2575815480619173E+02  0.2562625368178399E+02  0.2549502799033136E+02  0.2536447427310922E+02  0.2523458908910409E+02
  0.2510536901492313E+02  0.2497681064470386E+02  0.2484891059002430E+02  0.2472166547981383E+02  0.2459507196026421E+02
  0.2446912669474121E+02  0.2434382636369666E+02  0.2421916766458103E+02  0.2409514731175629E+02  0.2397176203640935E+02
  0.2384900858646590E+02  0.2372688372650469E+02  0.2360538423767228E+02  0.2348450691759819E+02  0.2336424858031045E+02
  0.2324460605615167E+02  0.2312557619169550E+02  0.2300715584966352E+02  0.2288934190884251E+02  0.2277213126400220E+02
  0.2265552082581348E+02  0.2253950752076688E+02  0.2242408829109164E+02  0.2230926009467506E+02  0.2219501990498238E+02
  0.2208136471097695E+02  0.2196829151704087E+02  0.2185579734289612E+02  0.2174387922352591E+02  0.2163253420909652E+02
  0.2152175936487967E+02  0.2141155177117508E+02  0.2130190852323348E+02  0.2119282673118019E+02  0.2108430351993877E+02
  0.2097633602915539E+02  0.2086892141312334E+02  0.2076205684070814E+02  0.2065573949527278E+02  0.2054996657460357E+02
  0.2044473529083626E+02  0.2034004287038260E+02  0.2023588655385713E+02  0.2013226359600456E+02  0.2002917126562738E+02
  0.1992660684551380E+02  0.1982456763236632E+02  0.1972305093673023E+02  0.1962205408292294E+02  0.1952157440896329E+02
  0.1942160926650153E+02  0.1932215602074945E+02  0.1922321205041089E+02  0.1912477474761274E+02  0.1902684151783612E+02
  0.1892940977984808E+02  0.1883247696563353E+02  0.1873604052032749E+02  0.1864009790214786E+02  0.1854464658232837E+02
  0.1844968404505192E+02  0.1835520778738431E+02  0.1826121531920819E+02  0.1816770416315753E+02  0.1807467185455232E+02
  0.1798211594133345E+02  0.1789003398399831E+02  0.1779842355553629E+02  0.1770728224136496E+02  0.1761660763926634E+02
  0.1752639735932362E+02  0.1743664902385817E+02  0.1734736026736683E+02  0.1725852873645963E+02  0.1717015208979773E+02
  0.1708222799803166E+02  0.1699475414374001E+02  0.1690772822136832E+02  0.1682114793716827E+02  0.1673501100913726E+02
  0.1664931516695827E+02  0.1656405815194004E+02  0.1647923771695745E+02  0.1639485162639237E+02  0.1631089765607474E+02
  0.1622737359322391E+02  0.1614427723639031E+02  0.1606160639539748E+02  0.1597935889128428E+02  0.1589753255624753E+02
  0.1581612523358477E+02  0.1573513477763755E+02  0.1565455905373475E+02  0.1557439593813637E+02  0.1549464331797762E+02
  0.1541529909121309E+02  0.1533636116656147E+02  0.1525782746345035E+02  0.1517969591196145E+02  0.1510196445277599E+02
  0.1502463103712049E+02  0.1494769362671269E+02  0.1487115019370790E+02  0.1479499872064550E+02  0.1471923720039580E+02
  0.1464386363610708E+02  0.1456887604115307E+02  0.1449427243908047E+02  0.1442005086355692E+02  0.1434620935831916E+02
  0.1427274597712146E+02  0.1419965878368435E+02  0.1412694585164353E+02  0.1405460526449916E+02  0.1398263511556533E+02
  0.1391103350791977E+02  0.1383979855435386E+02  0.1376892837732295E+02  0.1369842110889682E+02  0.1362827489071041E+02
  0.1355848787391493E+02  0.1348905821912907E+02  0.1341998409639054E+02  0.1335126368510780E+02  0.1328289517401213E+02
  0.1321487676110988E+02  0.1314720665363493E+02  0.1307988306800146E+02  0.1301290422975700E+02  0.1294626837353554E+02
  0.1287997374301109E+02  0.1281401859085140E+02  0.1274840117867181E+02  0.1268311977698956E+02  0.1261817266517808E+02
  0.1255355813142170E+02  0.1248927447267057E+02  0.1242531999459568E+02  0.1236169301154429E+02  0.1229839184649543E+02
  0.1223541483101576E+02  0.1217276030521555E+02  0.1211042661770493E+02  0.1204841212555040E+02  0.1198671519423152E+02
  0.1192533419759777E+02  0.1186426751782576E+02  0.1180351354537656E+02  0.1174307067895327E+02  0.1168293732545882E+02
  0.1162311189995399E+02  0.1156359282561565E+02  0.1150437853369510E+02  0.1144546746347688E+02  0.1138685806223750E+02
  0.1132854878520459E+02  0.1127053809551614E+02  0.1121282446418003E+02  0.1115540637003368E+02  0.1109828229970402E+02
  0.1104145074756753E+02  0.1098491021571063E+02  0.1092865921389012E+02  0.1087269625949397E+02  0.1081701987750220E+02
  0.1076162860044800E+02  0.1070652096837909E+02  0.1065169552881919E+02  0.1059715083672977E+02  0.1054288545447196E+02
  0.1048889795176860E+02  0.1043518690566664E+02  0.1038175090049956E+02  0.1032858852785006E+02  0.1027569838651298E+02
  0.1022307908245830E+02  0.1017072922879448E+02  0.1011864744573184E+02  0.1006683236054618E+02  0.1001528260754265E+02
  0.9963996828019745E+01  0.9912973670233441E+01  0.9862211789361600E+01  0.9811709847468535E+01  0.9761466513469729E+01
  0.9711480463096713E+01  0.9661750378862228E+01  0.9612274950025450E+01  0.9563052872557451E+01  0.9514082849106810E+01
  0.9465363588965459E+01  0.9416893808034613E+01  0.9368672228790945E+01  0.9320697580252894E+01  0.9272968597947195E+01
  0.9225484023875506E+01  0.9178242606481268E+01  0.9131243100616720E+01  0.9084484267510044E+01  0.9037964874732770E+01
  0.8991683696167213E+01  0.8945639511974203E+01  0.8899831108560901E+01  0.8854257278548847E+01  0.8808916820742066E+01
  0.8763808540095456E+01  0.8718931247683265E+01  0.8674283760667748E+01  0.8629864902267977E+01  0.8585673501728833E+01
  0.8541708394290133E+01  0.8497968421155914E+01  0.8454452429463888E+01  0.8411159272255071E+01  0.8368087808443500E+01
  0.8325236902786175E+01  0.8282605425853136E+01  0.8240192253997666E+01  0.8197996269326675E+01  0.8156016359671209E+01
  0.8114251418557156E+01  0.8072700345176061E+01  0.8031362044356060E+01  0.7990235426533066E+01  0.7949319407722006E+01
  0.7908612909488237E+01  0.7868114858919104E+01  0.7827824188595672E+01  0.7787739836564547E+01  0.7747860746309883E+01
  0.7708185866725548E+01  0.7668714152087355E+01  0.7629444562025513E+01  0.7590376061497178E+01  0.7551507620759176E+01
  0.7512838215340810E+01  0.7474366826016873E+01  0.7436092438780732E+01  0.7398014044817607E+01  0.7360130640477959E+01
  0.7322441227250992E+01  0.7284944811738348E+01  0.7247640405627863E+01  0.7210527025667535E+01  0.7173603693639548E+01
  0.7136869436334472E+01  0.7100323285525612E+01  0.7063964277943428E+01  0.7027791455250123E+01  0.6991803864014391E+01
  0.6956000555686202E+01  0.6920380586571817E+01  0.6884943017808844E+01  0.6849686915341500E+01  0.6814611349895934E+01
  0.6779715396955683E+01  0.6744998136737310E+01  0.6710458654166102E+01  0.6676096038851893E+01  0.6641909385065063E+01
  0.6607897791712603E+01  0.6574060362314347E+01  0.6540396204979246E+01  0.6506904432381886E+01  0.6473584161739005E+01
  0.6440434514786190E+01  0.6407454617754678E+01  0.6374643601348293E+01  0.6342000600720445E+01  0.6309524755451318E+01
  0.6277215209525110E+01  0.6245071111307424E+01  0.6213091613522769E+01  0.6181275873232145E+01  0.6149623051810789E+01
  0.6118132314925979E+01  0.6086802832515010E+01  0.6055633778763211E+01  0.6024624332082124E+01  0.5993773675087787E+01
  0.5963080994579106E+01  0.5932545481516320E+01  0.5902166330999639E+01  0.5871942742247924E+01  0.5841873918577488E+01
  0.5811959067381022E+01  0.5782197400106627E+01  0.5752588132236909E+01  0.5723130483268216E+01  0.5693823676689989E+01
  0.5664666939964165E+01  0.5635659504504725E+01  0.5606800605657329E+01  0.5578089482679057E+01  0.5549525378718238E+01
  0.5521107540794378E+01  0.5492835219778206E+01  0.5464707670371808E+01  0.5436724151088851E+01  0.5408883924234895E+01
  0.5381186255887853E+01  0.5353630415878465E+01  0.5326215677770951E+01  0.5298941318843688E+01  0.5271806620070035E+01
  0.5244810866099208E+01  0.5217953345237280E+01  0.5191233349428266E+01  0.5164650174235279E+01  0.5138203118821798E+01
  0.5111891485933028E+01  0.5085714581877324E+01  0.5059671716507745E+01  0.5033762203203659E+01  0.5007985358852446E+01
  0.4982340503831296E+01  0.4956826961989104E+01  0.4931444060628415E+01  0.4906191130487485E+01  0.4881067505722426E+01
  0.4856072523889417E+01  0.4831205525927000E+01  0.4806465856138497E+01  0.4781852862174451E+01  0.4757365895015189E+01
  0.4733004308953450E+01  0.4708767461577112E+01  0.4684654713751968E+01  0.4660665429604605E+01  0.4636798976505357E+01
  0.4613054725051335E+01  0.4589432049049527E+01  0.4565930325499983E+01  0.4542548934579084E+01  0.4519287259622866E+01
  0.4496144687110434E+01  0.4473120606647441E+01  0.4450214410949660E+01  0.4427425495826601E+01  0.4404753260165224E+01
  0.4382197105913693E+01  0.4359756438065268E+01  0.4337430664642173E+01  0.4315219196679606E+01  0.4293121448209800E+01
  0.4271136836246134E+01  0.4249264780767332E+01  0.4227504704701731E+01  0.4205856033911590E+01  0.4184318197177505E+01
  0.4162890626182846E+01  0.4141572755498285E+01  0.4120364022566407E+01  0.4099263867686323E+01  0.4078271733998405E+01
  0.4057387067469064E+01  0.4036609316875571E+01  0.4015937933790966E+01  0.3995372372569019E+01  0.3974912090329233E+01
  0.3954556546941925E+01  0.3934305205013371E+01  0.3914157529870981E+01  0.3894112989548546E+01  0.3874171054771566E+01
  0.3854331198942568E+01  0.3834592898126552E+01  0.3814955631036452E+01  0.3795418879018638E+01  0.3775982126038511E+01
  0.3756644858666109E+01  0.3737406566061787E+01  0.3718266739961956E+01  0.3699224874664829E+01  0.3680280467016268E+01
  0.3661433016395654E+01  0.3642682024701776E+01  0.3624026996338833E+01  0.3605467438202428E+01  0.3587002859665617E+01
  0.3568632772565009E+01  0.3550356691186925E+01  0.3532174132253562E+01  0.3514084614909232E+01  0.3496087660706625E+01
  0.3478182793593118E+01  0.3460369539897121E+01  0.3442647428314469E+01  0.3425015989894833E+01  0.3407474758028188E+01
  0.3390023268431320E+01  0.3372661059134328E+01  0.3355387670467226E+01  0.3338202645046512E+01  0.3321105527761819E+01
  0.3304095865762574E+01  0.3287173208444689E+01  0.3270337107437286E+01  0.3253587116589461E+01  0.3236922791957052E+01
  0.3220343691789459E+01  0.3203849376516480E+01  0.3187439408735163E+01  0.3171113353196703E+01  0.3154870776793349E+01
  0.3138711248545338E+01  0.3122634339587835E+01  0.3106639623157937E+01  0.3090726674581643E+01  0.3074895071260875E+01
  0.3059144392660522E+01  0.3043474220295469E+01  0.3027884137717680E+01  0.3012373730503267E+01  0.2996942586239584E+01
  0.2981590294512347E+01  0.2966316446892735E+01  0.2951120636924522E+01  0.2936002460111235E+01  0.2920961513903279E+01
  0.2905997397685103E+01  0.2891109712762367E+01  0.2876298062349096E+01  0.2861562051554864E+01  0.2846901287371967E+01
  0.2832315378662595E+01  0.2817803936146019E+01  0.2803366572385765E+01  0.2789002901776791E+01  0.2774712540532658E+01
  0.2760495106672718E+01  0.2746350220009258E+01  0.2732277502134681E+01  0.2718276576408645E+01  0.2704347067945216E+01
  0.2690488603600007E+01  0.2676700811957297E+01  0.2662983323317145E+01  0.2649335769682499E+01  0.2635757784746273E+01
  0.2622249003878416E+01  0.2608809064112983E+01  0.2595437604135142E+01  0.2582134264268215E+01  0.2568898686460664E+01
  0.2555730514273062E+01  0.2542629392865046E+01  0.2529594968982238E+01  0.2516626890943154E+01  0.2503724808626063E+01
  0.2490888373455842E+01  0.2478117238390779E+01  0.2465411057909367E+01  0.2452769487997037E+01  0.2440192186132885E+01
  0.2427678811276356E+01  0.2415229023853871E+01  0.2402842485745438E+01  0.2390518860271228E+01  0.2378257812178081E+01
  0.2366059007625998E+01  0.2353922114174578E+01  0.2341846800769404E+01  0.2329832737728394E+01  0.2317879596728100E+01
  0.2305987050789947E+01  0.2294154774266433E+01  0.2282382442827287E+01  0.2270669733445533E+01  0.2259016324383544E+01
  0.2247421895179023E+01  0.2235886126630905E+01  0.2224408700785236E+01  0.2212989300920960E+01  0.2201627611535662E+01
  0.2190323318331242E+01  0.2179076108199518E+01  0.2167885669207770E+01  0.2156751690584215E+01  0.2145673862703406E+01
  0.2134651877071567E+01  0.2123685426311857E+01  0.2112774204149549E+01  0.2101917905397142E+01  0.2091116225939410E+01
  0.2080368862718343E+01  0.2069675513718030E+01  0.2059035877949471E+01  0.2048449655435270E+01  0.2037916547194291E+01
  0.2027436255226199E+01  0.2017008482495922E+01  0.2006632932918043E+01  0.1996309311341076E+01  0.1986037323531675E+01
  0.1975816676158757E+01  0.1965647076777512E+01  0.1955528233813336E+01  0.1945459856545683E+01  0.1935441655091794E+01
  0.1925473340390356E+01  0.1915554624185063E+01  0.1905685219008068E+01  0.1895864838163353E+01  0.1886093195709995E+01
  0.1876370006445337E+01  0.1866694985888054E+01  0.1857067850261139E+01  0.1847488316474765E+01  0.1837956102109062E+01
  0.1828470925396808E+01  0.1819032505205986E+01  0.1809640561022279E+01  0.1800294812931438E+01  0.1790994981601570E+01
  0.1781740788265318E+01  0.1772531954701946E+01  0.1763368203219319E+01  0.1754249256635810E+01  0.1745174838262077E+01
  0.1736144671882773E+01  0.1727158481738150E+01  0.1718215992505573E+01  0.1709316929280946E+01  0.1700461017560047E+01
  0.1691647983219770E+01  0.1682877552499289E+01  0.1674149451981146E+01  0.1665463408572239E+01  0.1656819149484740E+01
  0.1648216402216959E+01  0.1639654894534101E+01  0.1631134354448974E+01  0.1622654510202639E+01  0.1614215090244976E+01
  0.1605815823215217E+01  0.1597456437922413E+01  0.1589136663325851E+01  0.1580856228515447E+01  0.1572614862692074E+01
  0.1564412295147878E+01  0.1556248255246574E+01  0.1548122472403697E+01  0.1540034676066866E+01  0.1531984595696034E+01
  0.1523971960743737E+01  0.1515996500635361E+01  0.1508057944749431E+01  0.1500156022397909E+01  0.1492290462806558E+01
  0.1484460995095334E+01  0.1476667348258843E+01  0.1468909251146870E+01  0.1461186432444990E+01  0.1453498620655260E+01
  0.1445845544077037E+01  0.1438226930787903E+01  0.1430642508624722E+01  0.1423092005164858E+01  0.1415575147707546E+01
  0.1408091663255446E+01  0.1400641278496398E+01  0.1393223719785386E+01  0.1385838713126739E+01  0.1378485984156587E+01
  0.1371165258125578E+01  0.1363876259881902E+01  0.1356618713854630E+01  0.1349392344037377E+01  0.1342196873972336E+01
  0.1335032026734709E+01  0.1327897524917525E+01  0.1320793090616924E+01  0.1313718445417884E+01  0.1306673310380459E+01
  0.1299657406026542E+01  0.1292670452327169E+01  0.1285712168690428E+01  0.1278782273949989E+01  0.1271880486354276E+01
  0.1265006523556344E+01  0.1258160102604493E+01  0.1251340939933627E+01  0.1244548751357443E+01  0.1237783252061460E+01
  0.1231044156596939E+01  0.1224331178875742E+01  0.1217644032166173E+01  0.1210982429089845E+01  0.1204346081619623E+01
  0.1197734701078702E+01  0.1191147998140847E+01  0.1184585682831882E+01  0.1178047464532452E+01  0.1171533051982135E+01
  0.1165042153284945E+01  0.1158574475916302E+01  0.1152129726731518E+01  0.1145707611975869E+01  0.1139307837296302E+01
  0.1132930107754869E+01  0.1126574127843935E+01  0.1120239601503225E+01  0.1113926232138805E+01  0.1107633722644050E+01
  0.1101361775422664E+01  0.1095110092413858E+01  0.1088878375119734E+01  0.1082666324634965E+01  0.1076473641678847E+01
  0.1070300026629812E+01  0.1064145179562473E+01  0.1058008800287287E+01  0.1051890588392932E+01  0.1045790243291459E+01
  0.1039707464266336E+01  0.1033641950523445E+01  0.1027593401245130E+01  0.1021561515647406E+01  0.1015545993040364E+01
  0.1009546532891926E+01  0.1003562834894995E+01  0.9975945990381043E+00  0.9916415256796628E+00  0.9857033156258750E+00
  0.9797796702124285E+00  0.9738702913900419E+00  0.9679748818139552E+00  0.9620931449374441E+00  0.9562247851094592E+00
  0.9503695076764620E+00  0.9445270190885307E+00  0.9386970270098300E+00  0.9328792404335291E+00  0.9270733698011971E+00
  0.9212791271268094E+00  0.9154962261253693E+00  0.9097243823462569E+00  0.9039633133113318E+00  0.8982127386578548E+00
  0.8924723802862731E+00  0.8867419625129178E+00  0.8810212122276329E+00  0.8753098590563817E+00  0.8696076355288510E+00
  0.8639142772510460E+00  0.8582295230829118E+00  0.8525531153209561E+00  0.8468847998858701E+00  0.8412243265151198E+00
  0.8355714489604854E+00  0.8299259251904834E+00  0.8242875175976403E+00  0.8186559932105334E+00  0.8130311239105211E+00
  0.8074126866530693E+00  0.8018004636935695E+00  0.7961942428175063E+00  0.7905938175748670E+00  0.7849989875186015E+00
  0.7794095584469930E+00  0.7738253426497294E+00  0.7682461591574785E+00  0.7626718339947391E+00  0.7571022004357303E+00
  0.7515370992630405E+00  0.7459763790287747E+00  0.7404198963178890E+00  0.7348675160133714E+00  0.7293191115629624E+00
  0.7237745652470190E+00  0.7182337684471412E+00  0.7126966219151680E+00  0.7071630360421010E+00  0.7016329311265000E+00
  0.6961062376418949E+00  0.6905828965027024E+00  0.6850628593281421E+00  0.6795460887036164E+00  0.6740325584389815E+00
  0.6685222538231541E+00  0.6630151718744465E+00  0.6575113215860056E+00  0.6520107241657332E+00  0.6465134132700462E+00
  0.6410194352307753E+00  0.6355288492745568E+00  0.6300417277340064E+00  0.6245581562499560E+00  0.6190782339640576E+00
  0.6136020737010082E+00  0.6081298021396699E+00  0.6026615599723387E+00  0.5971975020514293E+00  0.5917377975228117E+00
  0.5862826299450771E+00  0.5808321973939867E+00  0.5753867125513561E+00  0.5699464027776726E+00  0.5645115101677182E+00
  0.5590822915885005E+00  0.5536590186988214E+00  0.5482419779497992E+00  0.5428314705657359E+00  0.5374278125046967E+00
  0.5320313343982285E+00  0.5266423814696670E+00  0.5212613134305273E+00  0.5158885043544839E+00  0.5105243425285374E+00
  0.5051692302809618E+00  0.4998235837856975E+00  0.4944878328429125E+00  0.4891624206354955E+00  0.4838478034613032E+00
  0.4785444504410512E+00  0.4732528432017999E+00  0.4679734755360300E+00  0.4627068530364137E+00  0.4574534927063927E+00
  0.4522139225468195E+00  0.4469886811189182E+00  0.4417783170839335E+00  0.4365833887199129E+00  0.4314044634161212E+00
  0.4262421171456618E+00  0.4210969339169775E+00  0.4159695052049476E+00  0.4108604293623882E+00  0.4057703110128277E+00
  0.4006997604255095E+00  0.3956493928736172E+00  0.3906198279768231E+00  0.3856116890292915E+00  0.3806256023143299E+00
  0.3756621964069762E+00  0.3707221014658144E+00  0.3658059485153869E+00  0.3609143687206312E+00  0.3560479926547709E+00
  0.3512074495621739E+00  0.3463933666176822E+00  0.3416063681839752E+00  0.3368470750685263E+00  0.3321161037817508E+00
  0.3274140657979286E+00  0.3227415668205139E+00  0.3180992060534311E+00  0.3134875754799372E+00  0.3089072591506424E+00
  0.3043588324822558E+00  0.2998428615685630E+00  0.2953599025051721E+00  0.2909105007294819E+00  0.2864951903772933E+00
  0.2821144936574581E+00  0.2777689202458820E+00  0.2734589667001553E+00  0.2691851158960249E+00  0.2649478364868392E+00
  0.2607475823870548E+00  0.2565847922807956E+00  0.2524598891563860E+00  0.2483732798677120E+00  0.2443253547231644E+00
  0.2403164871028435E+00  0.2363470331046199E+00  0.2324173312195576E+00  0.2285277020371074E+00  0.2246784479804125E+00
  0.2208698530719606E+00  0.2171021827297241E+00  0.2133756835938760E+00  0.2096905833840381E+00  0.2060470907869621E+00
  0.2024453953744571E+00  0.1988856675512918E+00  0.1953680585327132E+00  0.1918927003511698E+00  0.1884597058917340E+00
  0.1850691689556561E+00  0.1817211643514247E+00  0.1784157480126256E+00  0.1751529571418611E+00  0.1719328103799138E+00
  0.1687553079992974E+00  0.1656204321212932E+00  0.1625281469555385E+00  0.1594783990611619E+00  0.1564711176284778E+00
  0.1535062147801853E+00  0.1505835858910030E+00  0.1477031099246663E+00  0.1448646497871791E+00  0.1420680526952104E+00
  0.1393131505585210E+00  0.1365997603752990E+00  0.1339276846392795E+00  0.1312967117575432E+00  0.1287066164778816E+00
  0.1261571603246298E+00  0.1236480920418963E+00  0.1211791480431192E+00  0.1187500528659077E+00  0.1163605196311547E+00
  0.1140102505054158E+00  0.1116989371655996E+00  0.1094262612650249E+00  0.1071918948999408E+00  0.1049955010756370E+00
  0.1028367341713065E+00  0.1007152404028507E+00  0.9863065828286828E-01  0.9658261907709254E-01  0.9457074725658154E-01
  0.9259466094501219E-01  0.9065397236045797E-01  0.8874828825107194E-01  0.8687721032413574E-01  0.8504033566797577E-01
  0.8323725716627368E-01  0.8146756390435803E-01  0.7973084156707197E-01  0.7802667282787806E-01  0.7635463772887155E-01
  0.7471431405142079E-01  0.7310527767718861E-01  0.7152710293931315E-01  0.6997936296356225E-01  0.6846162999930958E-01
  0.6697347574020274E-01  0.6551447163442731E-01  0.6408418918449524E-01  0.6268220023651487E-01  0.6130807725891622E-01
  0.5996139361064034E-01  0.5864172379881544E-01  0.5734864372596014E-01  0.5608173092678696E-01  0.5484056479468334E-01
  0.5362472679796845E-01  0.5243380068604897E-01  0.5126737268559553E-01  0.5012503168688956E-01  0.4900636942049413E-01
  0.4791098062441665E-01  0.4683846320193963E-01  0.4578841837031009E-01  0.4476045080047537E-01  0.4375416874807524E-01
  0.4276918417589408E-01  0.4180511286798542E-01  0.4086157453569150E-01  0.3993819291577856E-01  0.3903459586090897E-01
  0.3815041542268315E-01  0.3728528792747832E-01  0.3643885404531146E-01  0.3561075885196173E-01  0.3480065188457911E-01
  0.3400818719101038E-01  0.3323302337307109E-01  0.3247482362398935E-01  0.3173325576024774E-01  0.3100799224804589E-01
  0.3029871022460126E-01  0.2960509151450825E-01  0.2892682264136662E-01  0.2826359483488961E-01  0.2761510403369830E-01
  0.2698105088400380E-01  0.2636114073437369E-01  0.2575508362677867E-01  0.2516259428410580E-01  0.2458339209432365E-01
  0.2401720109147800E-01  0.2346374993369435E-01  0.2292277187835394E-01  0.2239400475461151E-01  0.2187719093341272E-01
  0.2137207729516584E-01  0.2087841519521919E-01  0.2039596042728817E-01  0.1992447318497257E-01  0.1946371802149922E-01
  0.1901346380781995E-01  0.1857348368919142E-01  0.1814355504035725E-01  0.1772345941944754E-01  0.1731298252070997E-01
  0.1691191412617714E-01  0.1652004805637372E-01  0.1613718212016216E-01  0.1576311806382102E-01  0.1539766151944456E-01
  0.1504062195275158E-01  0.1469181261038371E-01  0.1435105046677219E-01  0.1401815617064698E-01  0.1369295399125942E-01
  0.1337527176438457E-01  0.1306494083816862E-01  0.1276179601887980E-01  0.1246567551662128E-01  0.1217642089106030E-01
  0.1189387699722286E-01  0.1161789193140394E-01  0.1134831697723788E-01  0.1108500655197077E-01  0.1082781815297614E-01
  0.1057661230455043E-01  0.1033125250502359E-01  0.1009160517421765E-01  0.9857539601283752E-02  0.9628927892945437E-02
  0.9405644922175415E-02  0.9187568277329534E-02  0.8974578211760276E-02  0.8766557593931013E-02  0.8563391858049420E-02
  0.8364968955237645E-02  0.8171179305254692E-02  0.7981915748785737E-02  0.7797073500310218E-02  0.7616550101561616E-02
  0.7440245375587281E-02  0.7268061381419113E-02  0.7099902369361449E-02  0.6935674736903299E-02  0.6775286985260884E-02
  0.6618649676554816E-02  0.6465675391625366E-02  0.6316278688489230E-02  0.6170376061439455E-02  0.6027885900789569E-02
  0.5888728453262887E-02  0.5752825783026289E-02  0.5620101733367688E-02  0.5490481889015965E-02  0.5363893539101191E-02
  0.5240265640751993E-02  0.5119528783328131E-02  0.5001615153283527E-02  0.4886458499656353E-02  0.4773994100181905E-02
  0.4664158728022859E-02  0.4556890619112574E-02  0.4452129440105368E-02  0.4349816256928403E-02  0.4249893503928986E-02
  0.4152304953611251E-02  0.4056995686955384E-02  0.3963912064313234E-02  0.3873001696873081E-02  0.3784213418686578E-02
  0.3697497259250859E-02  0.3612804416638647E-02  0.3530087231168425E-02  0.3449299159607798E-02  0.3370394749902167E-02
  0.3293329616421006E-02  0.3218060415714250E-02  0.3144544822770914E-02  0.3072741507772115E-02  0.3002610113330955E-02
  0.2934111232211029E-02  0.2867206385516152E-02  0.2801858001343287E-02  0.2738029393890839E-02  0.2675684743014670E-02
  0.2614789074224017E-02  0.2555308239109557E-02  0.2497208896196034E-02  0.2440458492211791E-02  0.2385025243767543E-02
  0.2330878119437016E-02  0.2277986822231931E-02  0.2226321772463892E-02  0.2175854090985949E-02  0.2126555582806550E-02
  0.2078398721068628E-02  0.2031356631386897E-02  0.1985403076536232E-02  0.1940512441484180E-02  0.1896659718760834E-02
  0.1853820494159343E-02  0.1811970932760223E-02  0.1771087765273156E-02  0.1731148274689513E-02  0.1692130283239424E-02
  0.1654012139647080E-02  0.1616772706677850E-02  0.1580391348971451E-02  0.1544847921154920E-02  0.1510122756229484E-02
  0.1476196654225641E-02  0.1443050871120672E-02  0.1410667108012853E-02  0.1379027500547049E-02  0.1348114608586052E-02
  0.1317911406122482E-02  0.1288401271425883E-02  0.1259567977419996E-02  0.1231395682284994E-02  0.1203868920279905E-02
  0.1176972592780177E-02  0.1150691959525706E-02  0.1125012630074687E-02  0.1099920555458513E-02  0.1075402020033401E-02
  0.1051443633524242E-02  0.1028032323256306E-02  0.1005155326570636E-02  0.9828001834189198E-03  0.9609547291337487E-03
  0.9396070873703062E-03  0.9187456632155581E-03  0.8983591364610595E-03  0.8784364550357153E-03  0.8589668285947526E-03
  0.8399397222612952E-03  0.8213448505170579E-03  0.8031721712387236E-03  0.7854118798765151E-03  0.7680544037718245E-03
  0.7510903966104951E-03  0.7345107330087368E-03  0.7183065032284801E-03  0.7024690080191847E-03  0.6869897535831304E-03
  0.6718604466612999E-03  0.6570729897369949E-03  0.6426194763544437E-03  0.6284921865496959E-03  0.6146835823910991E-03
  0.6011863036268413E-03  0.5879931634369754E-03  0.5750971442874757E-03  0.5624913938838868E-03  0.5501692212222335E-03
  0.5381240927348285E-03  0.5263496285287769E-03  0.5148395987149339E-03  0.5035879198251677E-03  0.4925886513158201E-03
  0.4818359921553231E-03  0.4713242774939178E-03  0.4610479754135712E-03  0.4510016837561071E-03  0.4411801270277324E-03
  0.4315781533780918E-03  0.4221907316520752E-03  0.4130129485126275E-03  0.4040400056328710E-03  0.3952672169558314E-03
  0.3866900060202058E-03  0.3783039033505067E-03  0.3701045439101186E-03  0.3620876646156608E-03  0.3542491019112441E-03
  0.3465847894011640E-03  0.3390907555395912E-03  0.3317631213759068E-03  0.3245980983543570E-03  0.3175919861666655E-03
  0.3107411706563683E-03  0.3040421217736019E-03  0.2974913915791263E-03  0.2910856122963823E-03  0.2848214944104535E-03
  0.2786958248127544E-03  0.2727054649903602E-03  0.2668473492589152E-03  0.2611184830380192E-03  0.2555159411681003E-03
  0.2500368662677657E-03  0.2446784671306225E-03  0.2394380171606453E-03  0.2343128528451287E-03  0.2293003722643400E-03
  0.2243980336369629E-03  0.2196033539004578E-03  0.2149139073255296E-03  0.2103273241638279E-03  0.2058412893281024E-03
  0.2014535411040327E-03  0.1971618698929329E-03  0.1929641169846154E-03  0.1888581733596623E-03  0.1848419785204030E-03
  0.1809135193498845E-03  0.1770708289981852E-03  0.1733119857953769E-03  0.1696351121905060E-03  0.1660383737159674E-03
  0.1625199779766461E-03  0.1590781736632180E-03  0.1557112495890548E-03  0.1524175337501257E-03  0.1491953924073549E-03
  0.1460432291909045E-03  0.1429594842258187E-03  0.1399426332785436E-03  0.1369911869237979E-03  0.1341036897313136E-03
  0.1312787194719491E-03  0.1285148863427326E-03  0.1258108322103489E-03  0.1231652298726385E-03  0.1205767823376785E-03
  0.1180442221200070E-03  0.1155663105535785E-03  0.1131418371210615E-03  0.1107696187990609E-03  0.1084484994188925E-03
  0.1061773490425409E-03  0.1039550633534151E-03  0.1017805630615644E-03  0.9965279332298729E-04  0.9757072317271395E-04
  0.9553334497130943E-04  0.9353967386448524E-04  0.9158874725550681E-04  0.8967962429007590E-04  0.8781138535339729E-04
  0.8598313157913723E-04  0.8419398436997812E-04  0.8244308492949674E-04  0.8072959380509802E-04  0.7905269044172750E-04
  0.7741157274610926E-04  0.7580545666126053E-04  0.7423357575102878E-04  0.7269518079441054E-04  0.7118953938942698E-04
  0.6971593556631370E-04  0.6827366940980858E-04  0.6686205669032251E-04  0.6548042850377087E-04  0.6412813091986420E-04
  0.6280452463865820E-04  0.6150898465515774E-04  0.6024089993178498E-04  0.5899967307852965E-04  0.5778472004058766E-04
  0.5659546979331420E-04  0.5543136404431922E-04  0.5429185694252971E-04  0.5317641479405158E-04  0.5208451578467826E-04
  0.5101564970887439E-04  0.4996931770508843E-04  0.4894503199724437E-04  0.4794231564225825E-04  0.4696070228344190E-04
  0.4599973590965334E-04  0.4505897062005403E-04  0.4413797039434003E-04  0.4323630886832243E-04  0.4235356911472177E-04
  0.4148934342905830E-04  0.4064323312051420E-04  0.3981484830765340E-04  0.3900380771887846E-04  0.3820973849751552E-04
  0.3743227601141928E-04  0.3667106366698602E-04  0.3592575272747443E-04  0.3519600213553092E-04  0.3448147833982015E-04
  0.3378185512566167E-04  0.3309681344958315E-04  0.3242604127769136E-04  0.3176923342777451E-04  0.3112609141504913E-04
  0.3049632330146045E-04  0.2987964354845751E-04  0.2927577287315973E-04  0.2868443810783278E-04  0.2810537206259839E-04
  0.2753831339130212E-04  0.2698300646046244E-04  0.2643920122123129E-04  0.2590665308429335E-04  0.2538512279763745E-04
  0.2487437632712844E-04  0.2437418473981991E-04  0.2388432408993751E-04  0.2340457530747363E-04  0.2293472408933266E-04
  0.2247456079296420E-04  0.2202388033242870E-04  0.2158248207683837E-04  0.2115016975111610E-04  0.2072675133901908E-04
  0.2031203898837634E-04  0.1990584891848449E-04  0.1950800132961488E-04  0.1911832031458076E-04  0.1873663377231803E-04
  0.1836277332343134E-04  0.1799657422765962E-04  0.1763787530321907E-04  0.1728651884797572E-04  0.1694235056240882E-04
  0.1660521947432093E-04  0.1627497786525613E-04  0.1595148119858405E-04  0.1563458804921487E-04  0.1532416003490360E-04
  0.1502006174910881E-04  0.1472216069537080E-04  0.1443032722317094E-04  0.1414443446524090E-04  0.1386435827628714E-04
  0.1358997717309742E-04  0.1332117227599768E-04  0.1305782725162928E-04  0.1279982825701429E-04  0.1254706388488034E-04
  0.1229942511021558E-04  0.1205680523802593E-04  0.1181909985226552E-04  0.1158620676591558E-04  0.1135802597218315E-04
  0.1113445959679475E-04  0.1091541185136102E-04  0.1070078898778518E-04  0.1049049925369373E-04  0.1028445284886493E-04
  0.1008256188263191E-04  0.9884740332238463E-05  0.9690904002126170E-05  0.9500970484130381E-05  0.9314859118565403E-05
  0.9132490956177710E-05  0.8953788720948144E-05  0.8778676773722580E-05  0.8607081076653746E-05  0.8438929158433980E-05
  0.8274150080302052E-05  0.8112674402806017E-05  0.7954434153304872E-05  0.7799362794192297E-05  0.7647395191825705E-05
  0.7498467586145282E-05  0.7352517560966610E-05  0.7209484014931597E-05  0.7069307133103670E-05  0.6931928359191462E-05
  0.6797290368387154E-05  0.6665337040806115E-05  0.6536013435513333E-05  0.6409265765123585E-05  0.6285041370963148E-05
  0.6163288698778947E-05  0.6043957274984120E-05  0.5926997683426922E-05  0.5812361542671831E-05  0.5700001483780472E-05
  0.5589871128582302E-05  0.5481925068422678E-05  0.5376118843378399E-05  0.5272408921930108E-05  0.5170752681081008E-05
  0.5071108386911765E-05  0.4973435175562498E-05  0.4877693034631288E-05  0.4783842784980465E-05  0.4691846062941611E-05
  0.4601665302909696E-05  0.4513263720318330E-05  0.4426605294987164E-05  0.4341654754833263E-05  0.4258377559938125E-05
  0.4176739886962790E-05  0.4096708613902779E-05  0.4018251305175404E-05  0.3941336197032412E-05  0.3865932183290111E-05
  0.3792008801370282E-05  0.3719536218644688E-05  0.3648485219076830E-05  0.3578827190153833E-05  0.3510534110102162E-05
  0.3443578535381188E-05  0.3377933588447911E-05  0.3313572945787060E-05  0.3250470826200833E-05  0.3188601979352165E-05
  0.3127941674556051E-05  0.3068465689813668E-05  0.3010150301083446E-05  0.2952972271784116E-05  0.2896908842524758E-05
  0.2841937721056375E-05  0.2788037072440392E-05  0.2735185509429419E-05  0.2683362083055211E-05  0.2632546273419415E-05
  0.2582717980682852E-05  0.2533857516248603E-05  0.2485945594134736E-05  0.2438963322532691E-05  0.2392892195546989E-05
  0.2347714085112247E-05  0.2303411233083991E-05  0.2259966243498888E-05  0.2217362075001055E-05  0.2175582033430787E-05
  0.2134609764571890E-05  0.2094429247054317E-05  0.2055024785408800E-05  0.2016381003269882E-05  0.1978482836724251E-05
  0.1941315527801261E-05  0.1904864618102411E-05  0.1869115942566682E-05  0.1834055623369026E-05  0.1799670063948797E-05
  0.1765945943165441E-05  0.1732870209578717E-05  0.1700430075850552E-05  0.1668613013266095E-05  0.1637406746371121E-05
  0.1606799247723569E-05  0.1576778732756415E-05  0.1547333654749601E-05  0.1518452699908763E-05  0.1490124782548167E-05
  0.1462339040375815E-05  0.1435084829878437E-05  0.1408351721804168E-05  0.1382129496740763E-05  0.1356408140787450E-05
  0.1331177841318148E-05  0.1306428982834268E-05  0.1282152142905075E-05  0.1258338088193714E-05  0.1234977770567035E-05
  0.1212062323287522E-05  0.1189583057285367E-05  0.1167531457509080E-05  0.1145899179352976E-05  0.1124678045159742E-05
  0.1103860040796570E-05  0.1083437312303296E-05  0.1063402162610877E-05  0.1043747048328771E-05  0.1024464576599795E-05
  0.1005547502020854E-05  0.9869887236282756E-06  0.9687812819462702E-06  0.9509183560972379E-06  0.9333932609724805E-06
  0.9161994444621776E-06  0.8993304847432263E-06  0.8827800876237333E-06  0.8665420839430517E-06  0.8506104270259933E-06
  0.8349791901902083E-06  0.8196425643055462E-06  0.8045948554042590E-06  0.7898304823409991E-06  0.7753439745015216E-06
  0.7611299695591067E-06  0.7471832112775983E-06  0.7334985473601337E-06  0.7200709273425859E-06  0.7068954005307319E-06
  0.6939671139802173E-06  0.6812813105184930E-06  0.6688333268076895E-06  0.6566185914476850E-06  0.6446326231184459E-06
  0.6328710287608414E-06  0.6213295017950650E-06  0.6100038203759509E-06  0.5988898456843177E-06  0.5879835202536135E-06
  0.5772808663311517E-06  0.5667779842731177E-06  0.5564710509727176E-06  0.5463563183207381E-06  0.5364301116978110E-06
  0.5266888284977310E-06  0.5171289366812040E-06  0.5077469733593151E-06  0.4985395434061518E-06  0.4895033180999407E-06
  0.4806350337920990E-06  0.4719314906036054E-06  0.4633895511481560E-06  0.4550061392814805E-06  0.4467782388763102E-06
  0.4387028926224731E-06  0.4307772008515286E-06  0.4229983203854851E-06  0.4153634634090818E-06  0.4078698963651201E-06
  0.4005149388723650E-06  0.3932959626655914E-06  0.3862103905572341E-06  0.3792556954202599E-06  0.3724293991917656E-06
  0.3657290718969193E-06  0.3591523306927680E-06  0.3526968389315284E-06  0.3463603052429661E-06  0.3401404826354183E-06
  0.3340351676151181E-06  0.3280421993234256E-06  0.3221594586915766E-06  0.3163848676125928E-06  0.3107163881300240E-06
  0.3051520216431286E-06  0.2996898081281677E-06  0.2943278253755042E-06  0.2890641882421374E-06  0.2838970479193704E-06
  0.2788245912153175E-06  0.2738450398519008E-06  0.2689566497760754E-06  0.2641577104849696E-06  0.2594465443646536E-06
  0.2548215060422483E-06  0.2502809817511303E-06  0.2458233887089136E-06  0.2414471745079792E-06  0.2371508165182925E-06
  0.2329328213022354E-06  0.2287917240412122E-06  0.2247260879738121E-06  0.2207345038452464E-06  0.2168155893678565E-06
  0.2129679886924748E-06  0.2091903718903737E-06  0.2054814344456302E-06  0.2018398967576710E-06  0.1982645036537829E-06
  0.1947540239113924E-06  0.1913072497899247E-06  0.1879229965720243E-06  0.1846001021139532E-06  0.1813374264049935E-06
  0.1781338511356465E-06  0.1749882792744629E-06  0.1718996346533209E-06  0.1688668615609926E-06  0.1658889243448023E-06
  0.1629648070202484E-06  0.1600935128883843E-06  0.1572740641608441E-06  0.1545055015923137E-06  0.1517868841203354E-06
  0.1491172885122660E-06  0.1464958090192544E-06  0.1439215570371060E-06  0.1413936607738749E-06  0.1389112649240543E-06
  0.1364735303492437E-06  0.1340796337651393E-06  0.1317287674347321E-06  0.1294201388675932E-06  0.1271529705251035E-06
  0.1249264995315320E-06  0.1227399773908169E-06  0.1205926697089642E-06  0.1184838559219186E-06  0.1164128290288244E-06
  0.1143788953305465E-06  0.1123813741733542E-06  0.1104195976976675E-06  0.1084929105917526E-06  0.1066006698502738E-06
  0.1047422445376064E-06  0.1029170155558067E-06  0.1011243754171496E-06  0.9936372802114529E-07  0.9763448843593499E-07
  0.9593608268399037E-07  0.9426794753201603E-07  0.9262953028498562E-07  0.9102028858421166E-07  0.8943969020938657E-07
  0.8788721288449781E-07  0.8636234408755183E-07  0.8486458086402153E-07  0.8339342964395269E-07  0.8194840606264459E-07
  0.8052903478483987E-07  0.7913484933235573E-07  0.7776539191507989E-07  0.7642021326526868E-07  0.7509887247508301E-07
  0.7380093683729462E-07  0.7252598168909637E-07  0.7127359025896374E-07  0.7004335351649698E-07  0.6883487002518754E-07
  0.6764774579805676E-07  0.6648159415609886E-07  0.6533603558947840E-07  0.6421069762143078E-07  0.6310521467480320E-07
  0.6201922794118888E-07  0.6095238525260584E-07  0.5990434095566268E-07  0.5887475578816549E-07  0.5786329675811877E-07
  0.5686963702507299E-07  0.5589345578376514E-07  0.5493443815001899E-07  0.5399227504884943E-07  0.5306666310473117E-07
  0.5215730453399321E-07  0.5126390703928901E-07  0.5038618370610608E-07  0.4952385290127598E-07  0.4867663817344147E-07
  0.4784426815544256E-07  0.4702647646858837E-07  0.4622300162877101E-07  0.4543358695438869E-07  0.4465798047604243E-07
  0.4389593484797202E-07  0.4314720726119332E-07  0.4241155935830658E-07  0.4168875714994433E-07  0.4097857093282203E-07
  0.4028077520936256E-07  0.3959514860886531E-07  0.3892147381018638E-07  0.3825953746590047E-07  0.3760913012791925E-07
  0.3697004617453254E-07  0.3634208373884673E-07  0.3572504463859530E-07  0.3511873430728878E-07  0.3452296172668449E-07
  0.3393753936054630E-07  0.3336228308966900E-07  0.3279701214814414E-07  0.3224154906084392E-07  0.3169571958209616E-07
  0.3115935263552872E-07  0.3063228025506328E-07  0.3011433752703069E-07  0.2960536253338950E-07  0.2910519629602706E-07
  0.2861368272211895E-07  0.2813066855052718E-07  0.2765600329922034E-07  0.2718953921368944E-07  0.2673113121634580E-07
  0.2628063685687971E-07  0.2583791626356029E-07  0.2540283209545872E-07  0.2497524949557962E-07  0.2455503604487856E-07
  0.2414206171715092E-07  0.2373619883477637E-07  0.2333732202529983E-07  0.2294530817883324E-07  0.2256003640626500E-07
  0.2218138799825739E-07  0.2180924638501902E-07  0.2144349709683819E-07  0.2108402772535943E-07  0.2073072788559260E-07
  0.2038348917863632E-07  0.2004220515510654E-07  0.1970677127925234E-07  0.1937708489374803E-07  0.1905304518514901E-07
  0.1873455314999670E-07  0.1842151156156092E-07  0.1811382493720869E-07  0.1781139950638525E-07  0.1751414317919645E-07
  0.1722196551558222E-07  0.1693477769506747E-07  0.1665249248708059E-07  0.1637502422182912E-07  0.1610228876172114E-07
  0.1583420347332129E-07  0.1557068719983337E-07  0.1531166023409681E-07  0.1505704429208867E-07  0.1480676248692204E-07
  0.1456073930332942E-07  0.1431890057262321E-07  0.1408117344812462E-07  0.1384748638105036E-07  0.1361776909684946E-07
  0.1339195257198236E-07  0.1316996901113187E-07  0.1295175182483936E-07  0.1273723560755751E-07  0.1252635611611210E-07
  0.1231905024856373E-07  0.1211525602346396E-07  0.1191491255949645E-07  0.1171796005549658E-07  0.1152433977084285E-07
  0.1133399400621202E-07  0.1114686608469127E-07  0.1096290033324172E-07  0.1078204206450494E-07  0.1060423755894715E-07
  0.1042943404733412E-07  0.1025757969353123E-07  0.1008862357762114E-07  0.9922515679334757E-08  0.9759206861788347E-08
  0.9598648855521485E-08  0.9440794242829707E-08  0.9285596442387347E-08  0.9133009694153841E-08  0.8982989044558549E-08
  0.2176101987623621E+03  0.2176101987623621E+03  0.2176101987623621E+03  0.2176101987623621E+03  0.2176101987623621E+03
  0.2176101987623621E+03  0.2176101987623621E+03  0.2176101987623621E+03  0.2176101987623621E+03  0.2176101987623621E+03
  0.2176101987623621E+03  0.2176101987623621E+03  0.2176101987623621E+03  0.2176101987623621E+03  0.2176101987623621E+03
  0.2176101987623621E+03  0.2176101987623621E+03  0.2176101987623621E+03  0.2176101987623621E+03  0.2176101987623621E+03
  0.2176101987623621E+03  0.2176101987623621E+03  0.2176101987623621E+03  0.2176101987623621E+03  0.2176101987623621E+03
  0.2176101987623621E+03  0.2176101987623621E+03  0.2176101987623621E+03  0.2176101987623621E+03  0.2176101987623621E+03
  0.2176101987623621E+03  0.2176101987623621E+03  0.2176101987623621E+03  0.2176101987623621E+03  0.2176101987623621E+03
  0.2176101987623621E+03  0.2176101987623621E+03  0.2176101987623621E+03  0.2176101987623621E+03  0.2176101987623621E+03
  0.2176101987623621E+03  0.2176101987623621E+03  0.2176101987623621E+03  0.2176101987623621E+03  0.2176101987623621E+03
  0.2176101987623621E+03  0.2176101987623621E+03  0.2176101987623621E+03  0.2176101987623621E+03  0.2176101987623621E+03
  0.2176101987623621E+03  0.2176101987623621E+03  0.2176101987623621E+03  0.2176101987623621E+03  0.2176101987623621E+03
  0.2176101987623621E+03  0.2176101987623621E+03  0.2176101987623621E+03  0.2176101987623621E+03  0.2176101987623621E+03
  0.2176101987623621E+03  0.2176101987623621E+03  0.2176101987623621E+03  0.2176101987623621E+03  0.2176101987623621E+03
  0.2176101987623621E+03  0.2176101987623621E+03  0.2176101987623621E+03  0.2176101987623621E+03  0.2176101987623621E+03
  0.2176101987623621E+03  0.2176101987623621E+03  0.2176101987623621E+03  0.2176101987623621E+03  0.2176101987623621E+03
  0.2176101987623621E+03  0.2176101987623621E+03  0.2176101987623621E+03  0.2176101987623621E+03  0.2176101987623621E+03
  0.2176101987623621E+03  0.2176101987623621E+03  0.2176101987623621E+03  0.2176101987623621E+03  0.2176101987623621E+03
  0.2176101987623621E+03  0.2176101987623621E+03  0.2176101987623621E+03  0.2176101987623621E+03  0.2176101987623621E+03
  0.2176101987623621E+03  0.2176101987623621E+03  0.2176101987623621E+03  0.2176101987623621E+03  0.2176101987623621E+03
  0.2176101987623621E+03  0.2176101987623621E+03  0.2176101987623621E+03  0.2176101987623621E+03  0.2176101987623621E+03
  0.2176101987623621E+03  0.2176101987623621E+03  0.2176101987623621E+03  0.2176101987623621E+03  0.2176101987623621E+03
  0.2176101987623621E+03  0.2176101987623621E+03  0.2176101987623621E+03  0.2176101987623621E+03  0.2176101987623621E+03
