  DATE: 2018-03-30 CONTRIBUTOR: Xiaowang Zhou xzhou@sandia.gov and Lucas Hale lucas.hale@nist.gov CITATION: X. W. Zhou, R. A. Johnson, H. N. G. Wadley, Phys. Rev. B, 69, 144113(2004)
  Generated from Zhou04_create_v2.f
  Fixes precision issues with older version
    1 Ni                      
 2000  0.5002501250625312E-01 2000  0.2783894564647670E-02  0.5565005234730692E+01
   28     58.693         3.5196    fcc     
  0.0000000000000000E+00 -0.1637872539659657E-01 -0.3269039825551090E-01 -0.4893515734855791E-01 -0.6511314144755032E-01
 -0.8122448932430437E-01 -0.9726933975063368E-01 -0.1132478314983527E+00 -0.1291601033392755E+00 -0.1450062940452166E+00
 -0.1607865423879904E+00 -0.1765009871394101E+00 -0.1921497670712919E+00 -0.2077330209554500E+00 -0.2232508875636978E+00
 -0.2387035056678499E+00 -0.2540910140397208E+00 -0.2694135514511249E+00 -0.2846712566738745E+00 -0.2998642684797881E+00
 -0.3149927256406770E+00 -0.3300567669283563E+00 -0.3450565311146407E+00 -0.3599921569713445E+00 -0.3748637832702815E+00
 -0.3896715487832654E+00 -0.4044155922821124E+00 -0.4190960525386360E+00 -0.4337130683246502E+00 -0.4482667784119700E+00
 -0.4627573215724090E+00 -0.4771848365777820E+00 -0.4915494621999037E+00 -0.5058513372105873E+00 -0.5200906003816481E+00
 -0.5342673904849002E+00 -0.5483818462921584E+00 -0.5624341065752365E+00 -0.5764243101059485E+00 -0.5903525956561098E+00
 -0.6042191019975331E+00 -0.6180239679020345E+00 -0.6317673321414277E+00 -0.6454493334875273E+00 -0.6590701107121471E+00
 -0.6726298025871014E+00 -0.6861285478842054E+00 -0.6995664853752721E+00 -0.7129437538321166E+00 -0.7262604920265543E+00
 -0.7395168387303979E+00 -0.7527129327154625E+00 -0.7658489127535624E+00 -0.7789249176165121E+00 -0.7919410860761247E+00
 -0.8048975569042163E+00 -0.8177944688726007E+00 -0.8306319607530916E+00 -0.8434101713175040E+00 -0.8561292393376521E+00
 -0.8687893035853507E+00 -0.8813905028324125E+00 -0.8939329758506536E+00 -0.9064168614118886E+00 -0.9188422982879301E+00
 -0.9312094252505936E+00 -0.9435183810716927E+00 -0.9557693045230431E+00 -0.9679623343764570E+00 -0.9800976094037510E+00
 -0.9921752683767382E+00 -0.1004195450067233E+01 -0.1016158293247051E+01 -0.1028063936688005E+01 -0.1039912519161910E+01
 -0.1051704179440579E+01 -0.1063439056295829E+01 -0.1075117288499472E+01 -0.1086739014823324E+01 -0.1098304374039198E+01
 -0.1109813504918909E+01 -0.1121266546234273E+01 -0.1132663636757101E+01 -0.1144004915259209E+01 -0.1155290520512412E+01
 -0.1166520591288523E+01 -0.1177695266359358E+01 -0.1188814684496730E+01 -0.1199878984472453E+01 -0.1210888305058342E+01
 -0.1221842785026212E+01 -0.1232742563147877E+01 -0.1243587778195152E+01 -0.1254378568939849E+01 -0.1265115074153785E+01
 -0.1275797432608772E+01 -0.1286425783076625E+01 -0.1297000264329161E+01 -0.1307521015138190E+01 -0.1317988174275530E+01
 -0.1328401880512994E+01 -0.1338762272622396E+01 -0.1349069489375551E+01 -0.1359323669544272E+01 -0.1369524951900375E+01
 -0.1379673475215673E+01 -0.1389769378261981E+01 -0.1399812799811115E+01 -0.1409803878634886E+01 -0.1419742753505110E+01
 -0.1429629563193602E+01 -0.1439464446472176E+01 -0.1449247542112646E+01 -0.1458978988886826E+01 -0.1468658925566531E+01
 -0.1478287490923575E+01 -0.1487864823729772E+01 -0.1497391062756937E+01 -0.1506866346776886E+01 -0.1516290814561429E+01
 -0.1525664604882384E+01 -0.1534987856511564E+01 -0.1544260708220784E+01 -0.1553483298781858E+01 -0.1562655766966600E+01
 -0.1571778251546825E+01 -0.1580850891294346E+01 -0.1589873824980979E+01 -0.1598847191378537E+01 -0.1607771129258836E+01
 -0.1616645777393689E+01 -0.1625471274554910E+01 -0.1634247759514316E+01 -0.1642975371043717E+01 -0.1651654247914931E+01
 -0.1660284528899771E+01 -0.1668866352770051E+01 -0.1677399858297586E+01 -0.1685885184254190E+01 -0.1694322469411677E+01
 -0.1702711852541863E+01 -0.1711053472416561E+01 -0.1719347467807586E+01 -0.1727593977486750E+01 -0.1735793140225871E+01
 -0.1743945094796760E+01 -0.1752049979971234E+01 -0.1760107934521106E+01 -0.1768119097218190E+01 -0.1776083606834302E+01
 -0.1784001602141255E+01 -0.1791873221910864E+01 -0.1799698604914942E+01 -0.1807477889925305E+01 -0.1815211215713767E+01
 -0.1822898721052141E+01 -0.1830540544712243E+01 -0.1838136825465887E+01 -0.1845687702084887E+01 -0.1853193313341057E+01
 -0.1860653798006212E+01 -0.1868069294852166E+01 -0.1875439942650734E+01 -0.1882765880173730E+01 -0.1890047246192967E+01
 -0.1897284179480262E+01 -0.1904476818807426E+01 -0.1911625302946277E+01 -0.1918729770668627E+01 -0.1925790360746290E+01
 -0.1932807211951082E+01 -0.1939780463054817E+01 -0.1946710252829309E+01 -0.1953596720046372E+01 -0.1960440003477820E+01
 -0.1967240241895468E+01 -0.1973997574071131E+01 -0.1980712138776623E+01 -0.1987384074783758E+01 -0.1994013520864350E+01
 -0.2000600615790213E+01 -0.2007145498333164E+01 -0.2013648307265013E+01 -0.2020109181357579E+01 -0.2026528259382673E+01
 -0.2032905680112110E+01 -0.2039241582317706E+01 -0.2045536104771273E+01 -0.2051789386244627E+01 -0.2058001565509582E+01
 -0.2064172781337954E+01 -0.2070303172501553E+01 -0.2076392877772196E+01 -0.2082442035921698E+01 -0.2088450785721873E+01
 -0.2094419265944534E+01 -0.2100347615361497E+01 -0.2106235972744575E+01 -0.2112084476865584E+01 -0.2117893266496336E+01
 -0.2123662480408648E+01 -0.2129392257374333E+01 -0.2135082736165205E+01 -0.2140734055553079E+01 -0.2146346354309769E+01
 -0.2151919771207088E+01 -0.2157454445016854E+01 -0.2162950514510877E+01 -0.2168408118460975E+01 -0.2173827395638960E+01
 -0.2179208484816648E+01 -0.2184551524765852E+01 -0.2189856654258387E+01 -0.2195124012066067E+01 -0.2200353736960707E+01
 -0.2205545967714120E+01 -0.2210700843098122E+01 -0.2215818501884527E+01 -0.2220899082845148E+01 -0.2225942724751801E+01
 -0.2230949566376299E+01 -0.2235919746490458E+01 -0.2240853403866090E+01 -0.2245750677275012E+01 -0.2250611705489036E+01
 -0.2255436627279978E+01 -0.2260225581419651E+01 -0.2264978706679871E+01 -0.2269696141832451E+01 -0.2274378025649206E+01
 -0.2279024496901950E+01 -0.2283635694362498E+01 -0.2288211756802663E+01 -0.2292752822994260E+01 -0.2297259031709104E+01
 -0.2301730521719009E+01 -0.2306167431795789E+01 -0.2310569900711259E+01 -0.2314938067237232E+01 -0.2319272070145523E+01
 -0.2323572048207948E+01 -0.2327838140196319E+01 -0.2332070484882452E+01 -0.2336269221038160E+01 -0.2340434487435258E+01
 -0.2344566422845561E+01 -0.2348665166040882E+01 -0.2352730855793036E+01 -0.2356763630873838E+01 -0.2360763630055101E+01
 -0.2364730992108641E+01 -0.2368665855806271E+01 -0.2372568359919805E+01 -0.2376438643221059E+01 -0.2380276844481846E+01
 -0.2384083102473981E+01 -0.2387857555969279E+01 -0.2391600343739552E+01 -0.2395311604556617E+01 -0.2398991477192287E+01
 -0.2402640100418376E+01 -0.2406257613006700E+01 -0.2409844153729071E+01 -0.2413399861357305E+01 -0.2416924874663216E+01
 -0.2420419332418618E+01 -0.2423883373395326E+01 -0.2427317136365154E+01 -0.2430720760099916E+01 -0.2434094383371428E+01
 -0.2437438144951502E+01 -0.2440752183611953E+01 -0.2444036638124596E+01 -0.2447291647261246E+01 -0.2450517349793715E+01
 -0.2453713884493820E+01 -0.2456881390133373E+01 -0.2460020005484191E+01 -0.2463129869318085E+01 -0.2466211120406872E+01
 -0.2469263897522366E+01 -0.2472288339436381E+01 -0.2475284584920730E+01 -0.2478252772747229E+01 -0.2481193041687692E+01
 -0.2484105530513933E+01 -0.2486990377997767E+01 -0.2489847722911008E+01 -0.2492677704025470E+01 -0.2495480460112968E+01
 -0.2498256129945316E+01 -0.2501004852294328E+01 -0.2503726765931819E+01 -0.2506422009629603E+01 -0.2509090722159494E+01
 -0.2511733042293306E+01 -0.2514349108802855E+01 -0.2516939060459955E+01 -0.2519503036036419E+01 -0.2522041174304062E+01
 -0.2524553614034699E+01 -0.2527040494000143E+01 -0.2529501952972210E+01 -0.2531938129722714E+01 -0.2534349163023467E+01
 -0.2536735191646287E+01 -0.2539096354362986E+01 -0.2541432789945378E+01 -0.2543744637165280E+01 -0.2546032034794503E+01
 -0.2548295121604863E+01 -0.2550534036368175E+01 -0.2552748917856253E+01 -0.2554939904840911E+01 -0.2557107136093962E+01
 -0.2559250750387222E+01 -0.2561370886492506E+01 -0.2563467683181627E+01 -0.2565541279226400E+01 -0.2567591813398638E+01
 -0.2569619424470158E+01 -0.2571624251212771E+01 -0.2573606432398294E+01 -0.2575566106798540E+01 -0.2577503413185325E+01
 -0.2579418490330461E+01 -0.2581311477005764E+01 -0.2583182511983048E+01 -0.2585031734034127E+01 -0.2586859281930816E+01
 -0.2588665294444928E+01 -0.2590449910348279E+01 -0.2592213268412682E+01 -0.2593955507409952E+01 -0.2595676766111904E+01
 -0.2597377183290351E+01 -0.2599056897717107E+01 -0.2600716048163989E+01 -0.2602354773402810E+01 -0.2603973212205383E+01
 -0.2605571503343523E+01 -0.2607149785589045E+01 -0.2608708197713764E+01 -0.2610246878489492E+01 -0.2611765966688046E+01
 -0.2613265601081238E+01 -0.2614745920440884E+01 -0.2616207063538798E+01 -0.2617649169146794E+01 -0.2619072376036687E+01
 -0.2620476822980291E+01 -0.2621862648749419E+01 -0.2623229992115887E+01 -0.2624578991851509E+01 -0.2625909786728099E+01
 -0.2627222515517472E+01 -0.2628517316991442E+01 -0.2629794329921823E+01 -0.2631053693080430E+01 -0.2632295545239077E+01
 -0.2633520025169578E+01 -0.2634727271643748E+01 -0.2635917423433400E+01 -0.2637090619310350E+01 -0.2638246998046412E+01
 -0.2639386698413400E+01 -0.2640509859183128E+01 -0.2641616619127411E+01 -0.2642707117018064E+01 -0.2643781491626899E+01
 -0.2644839881725733E+01 -0.2645882426086378E+01 -0.2646909263480651E+01 -0.2647920532680363E+01 -0.2648916372457332E+01
 -0.2649896921583369E+01 -0.2650862318830291E+01 -0.2651812702969911E+01 -0.2652748212774043E+01 -0.2653668987014503E+01
 -0.2654575164463103E+01 -0.2655466883891660E+01 -0.2656344284071986E+01 -0.2657207503775896E+01 -0.2658056681775206E+01
 -0.2658891956841728E+01 -0.2659713467747277E+01 -0.2660521353263669E+01 -0.2661315752162717E+01 -0.2662096803216234E+01
 -0.2662864645196037E+01 -0.2663619416873939E+01 -0.2664361257021754E+01 -0.2665090304411297E+01 -0.2665806697814382E+01
 -0.2666510576002824E+01 -0.2667202077748436E+01 -0.2667881341823034E+01 -0.2668548506998432E+01 -0.2669203712046443E+01
 -0.2669847095738882E+01 -0.2670478796847564E+01 -0.2671098954144302E+01 -0.2671707706400913E+01 -0.2672305192389209E+01
 -0.2672891550881004E+01 -0.2673466920648114E+01 -0.2674031440462354E+01 -0.2674585249095535E+01 -0.2675128485319474E+01
 -0.2675661287905985E+01 -0.2676183795626882E+01 -0.2676696147253980E+01 -0.2677198481559091E+01 -0.2677690937314033E+01
 -0.2678173653290618E+01 -0.2678646768260660E+01 -0.2679110420995975E+01 -0.2679564750268376E+01 -0.2680009894849678E+01
 -0.2680445993511695E+01 -0.2680873185026242E+01 -0.2681291608165132E+01 -0.2681701401700181E+01 -0.2682102704403202E+01
 -0.2682495655046011E+01 -0.2682880392400421E+01 -0.2683257055238246E+01 -0.2683625782331301E+01 -0.2683986712451401E+01
 -0.2684339984370359E+01 -0.2684685736859990E+01 -0.2685024108692109E+01 -0.2685355238638529E+01 -0.2685679265471066E+01
 -0.2685996327961532E+01 -0.2686306564881744E+01 -0.2686610115003515E+01 -0.2686907117098659E+01 -0.2687197709938991E+01
 -0.2687482032296325E+01 -0.2687760222942476E+01 -0.2688032420649257E+01 -0.2688298764188484E+01 -0.2688559392331969E+01
 -0.2688814443851530E+01 -0.2689064057518978E+01 -0.2689308372106129E+01 -0.2689547526384796E+01 -0.2689781659126796E+01
 -0.2690010909103941E+01 -0.2690235415088045E+01 -0.2690455315850924E+01 -0.2690670750164392E+01 -0.2690881856800262E+01
 -0.2691088774530350E+01 -0.2691291642126470E+01 -0.2691490598360436E+01 -0.2691685782004062E+01 -0.2691877331829163E+01
 -0.2692065386607553E+01 -0.2692250085111047E+01 -0.2692431566111458E+01 -0.2692609968380601E+01 -0.2692785430690292E+01
 -0.2692958091812342E+01 -0.2693128090518568E+01 -0.2693295565580784E+01 -0.2693460655770803E+01 -0.2693623328241081E+01
 -0.2693783965721085E+01 -0.2693942410720928E+01 -0.2694098668724169E+01 -0.2694252745214365E+01 -0.2694404645675076E+01
 -0.2694554375589858E+01 -0.2694701940442271E+01 -0.2694847345715873E+01 -0.2694990596894223E+01 -0.2695131699460877E+01
 -0.2695270658899396E+01 -0.2695407480693336E+01 -0.2695542170326257E+01 -0.2695674733281716E+01 -0.2695805175043272E+01
 -0.2695933501094484E+01 -0.2696059716918909E+01 -0.2696183828000106E+01 -0.2696305839821633E+01 -0.2696425757867048E+01
 -0.2696543587619910E+01 -0.2696659334563777E+01 -0.2696773004182207E+01 -0.2696884601958759E+01 -0.2696994133376990E+01
 -0.2697101603920460E+01 -0.2697207019072726E+01 -0.2697310384317346E+01 -0.2697411705137880E+01 -0.2697510987017885E+01
 -0.2697608235440919E+01 -0.2697703455890542E+01 -0.2697796653850310E+01 -0.2697887834803784E+01 -0.2697977004234519E+01
 -0.2698064167626076E+01 -0.2698149330462012E+01 -0.2698232498225885E+01 -0.2698313676401255E+01 -0.2698392870471678E+01
 -0.2698470085920714E+01 -0.2698545328231921E+01 -0.2698618602888858E+01 -0.2698689915375081E+01 -0.2698759271174150E+01
 -0.2698826675769623E+01 -0.2698892134645058E+01 -0.2698955653284013E+01 -0.2699017237170048E+01 -0.2699076891786719E+01
 -0.2699134622617586E+01 -0.2699190435146206E+01 -0.2699244334856139E+01 -0.2699296327230942E+01 -0.2699346417754173E+01
 -0.2699394611909391E+01 -0.2699440915180154E+01 -0.2699485333050021E+01 -0.2699527871002549E+01 -0.2699568534521298E+01
 -0.2699607329089824E+01 -0.2699644260191687E+01 -0.2699679333310445E+01 -0.2699712553929657E+01 -0.2699743927532879E+01
 -0.2699773459603672E+01 -0.2699801155625592E+01 -0.2699827021082199E+01 -0.2699851061457050E+01 -0.2699873282233704E+01
 -0.2699893688895719E+01 -0.2699912286926654E+01 -0.2699929081810067E+01 -0.2699944079029516E+01 -0.2699957284068559E+01
 -0.2699968702410755E+01 -0.2699978339539661E+01 -0.2699986200938837E+01 -0.2699992292091840E+01 -0.2699996618482229E+01
 -0.2699999185593563E+01 -0.2699999998909399E+01 -0.2699999063913295E+01 -0.2699996386088810E+01 -0.2699991970919503E+01
 -0.2699985823888931E+01 -0.2699977950480653E+01 -0.2699968356178227E+01 -0.2699957046465212E+01 -0.2699944026825165E+01
 -0.2699929302741645E+01 -0.2699912879698211E+01 -0.2699894763178420E+01 -0.2699874958665831E+01 -0.2699853471644002E+01
 -0.2699830307596492E+01 -0.2699805472006858E+01 -0.2699778970358660E+01 -0.2699750808135454E+01 -0.2699720990820801E+01
 -0.2699689523898257E+01 -0.2699656412851382E+01 -0.2699621663163732E+01 -0.2699585280318868E+01 -0.2699547269800347E+01
 -0.2699507637091727E+01 -0.2699466387676567E+01 -0.2699423527038425E+01 -0.2699379060660859E+01 -0.2699332994027428E+01
 -0.2699285332621689E+01 -0.2699236081927201E+01 -0.2699185247427523E+01 -0.2699132834606213E+01 -0.2699078848946828E+01
 -0.2699023295932928E+01 -0.2698966181048071E+01 -0.2698907509775814E+01 -0.2698847287599716E+01 -0.2698785520003336E+01
 -0.2698722212470232E+01 -0.2698657370483961E+01 -0.2698590999528083E+01 -0.2698523105086155E+01 -0.2698453692641737E+01
 -0.2698382767678385E+01 -0.2698310335679659E+01 -0.2698236402129117E+01 -0.2698160972510316E+01 -0.2698084052306816E+01
 -0.2698005647002175E+01 -0.2697925762079950E+01 -0.2697844403023701E+01 -0.2697761575316986E+01 -0.2697677284443362E+01
 -0.2697591535886388E+01 -0.2697504335129623E+01 -0.2697415687656624E+01 -0.2697325598950950E+01 -0.2697234074496160E+01
 -0.2697141119775811E+01 -0.2697046740273461E+01 -0.2696950941472671E+01 -0.2696853728856996E+01 -0.2696755107909996E+01
 -0.2696655084115229E+01 -0.2696553662956254E+01 -0.2696450849916627E+01 -0.2696346650479909E+01 -0.2696241070129657E+01
 -0.2696134114349429E+01 -0.2696025788622784E+01 -0.2695916098433281E+01 -0.2695805049264476E+01 -0.2695692646599929E+01
 -0.2695578895923198E+01 -0.2695463802717841E+01 -0.2695347372467416E+01 -0.2695229610655483E+01 -0.2695110522765598E+01
 -0.2694990114281321E+01 -0.2694868390686209E+01 -0.2694745357463822E+01 -0.2694621020097716E+01 -0.2694495482627788E+01
 -0.2694368539485105E+01 -0.2694240292246035E+01 -0.2694110745328853E+01 -0.2693979903131123E+01 -0.2693847770029823E+01
 -0.2693714350381468E+01 -0.2693579648522241E+01 -0.2693443668768112E+01 -0.2693306415414967E+01 -0.2693167892738726E+01
 -0.2693028104995467E+01 -0.2692887056421546E+01 -0.2692744751233716E+01 -0.2692601193629250E+01 -0.2692456387786051E+01
 -0.2692310337862779E+01 -0.2692163047998958E+01 -0.2692014522315100E+01 -0.2691864764912812E+01 -0.2691713779874912E+01
 -0.2691561571265547E+01 -0.2691408143130295E+01 -0.2691253499496287E+01 -0.2691097644372307E+01 -0.2690940581748910E+01
 -0.2690782315598526E+01 -0.2690622849875569E+01 -0.2690462188516544E+01 -0.2690300335440153E+01 -0.2690137294547401E+01
 -0.2689973069721700E+01 -0.2689807664828975E+01 -0.2689641083717763E+01 -0.2689473330219321E+01 -0.2689304408147723E+01
 -0.2689134321299962E+01 -0.2688963073456052E+01 -0.2688790668379125E+01 -0.2688617109815532E+01 -0.2688442401494942E+01
 -0.2688266547130432E+01 -0.2688089550418593E+01 -0.2687911415039621E+01 -0.2687732144657413E+01 -0.2687551742919660E+01
 -0.2687370213457944E+01 -0.2687187559887829E+01 -0.2687003785808954E+01 -0.2686818894805125E+01 -0.2686632890444406E+01
 -0.2686445776279208E+01 -0.2686257555846382E+01 -0.2686068232667307E+01 -0.2685877810247977E+01 -0.2685686292079089E+01
 -0.2685493681636136E+01 -0.2685299982379484E+01 -0.2685105197754464E+01 -0.2684909331191462E+01 -0.2684712386105993E+01
 -0.2684514365898792E+01 -0.2684315273955899E+01 -0.2684115113648736E+01 -0.2683913888334198E+01 -0.2683711601354728E+01
 -0.2683508256038397E+01 -0.2683303855698995E+01 -0.2683098403636099E+01 -0.2682891903135164E+01 -0.2682684357467590E+01
 -0.2682475769890811E+01 -0.2682266143648369E+01 -0.2682055481969989E+01 -0.2681843788071662E+01 -0.2681631065155714E+01
 -0.2681417316410889E+01 -0.2681202545012419E+01 -0.2680986754122102E+01 -0.2680769946888375E+01 -0.2680552126446387E+01
 -0.2680333295918075E+01 -0.2680113458412237E+01 -0.2679892617024596E+01 -0.2679670774837885E+01 -0.2679447934921909E+01
 -0.2679224100333618E+01 -0.2678999274117178E+01 -0.2678773459304042E+01 -0.2678546658913016E+01 -0.2678318875950333E+01
 -0.2678090113409716E+01 -0.2677860374272448E+01 -0.2677629661507443E+01 -0.2677397978071307E+01 -0.2677165326908411E+01
 -0.2676931710950950E+01 -0.2676697133119017E+01 -0.2676461596320661E+01 -0.2676225103451956E+01 -0.2675987657397062E+01
 -0.2675749261028297E+01 -0.2675509917206188E+01 -0.2675269628779546E+01 -0.2675028398585522E+01 -0.2674786229449670E+01
 -0.2674543124186012E+01 -0.2674299085597095E+01 -0.2674054116474058E+01 -0.2673808219596685E+01 -0.2673561397733473E+01
 -0.2673313653641687E+01 -0.2673064990067420E+01 -0.2672815409745655E+01 -0.2672564915400318E+01 -0.2672313509744345E+01
 -0.2672061195479732E+01 -0.2671807975297594E+01 -0.2671553851878226E+01 -0.2671298827891156E+01 -0.2671042905995206E+01
 -0.2670786088838541E+01 -0.2670528379058730E+01 -0.2670269779282801E+01 -0.2670010292127294E+01 -0.2669749920198317E+01
 -0.2669488666091600E+01 -0.2669226532392548E+01 -0.2668963521676297E+01 -0.2668699636507764E+01 -0.2668434879441702E+01
 -0.2668169253022753E+01 -0.2667902759785499E+01 -0.2667635402254512E+01 -0.2667367182944411E+01 -0.2667098104359909E+01
 -0.2666828168995863E+01 -0.2666557379337328E+01 -0.2666285737859607E+01 -0.2666013247028296E+01 -0.2665739909299339E+01
 -0.2665465727119077E+01 -0.2665190702924293E+01 -0.2664914839142265E+01 -0.2664638138190812E+01 -0.2664360602478341E+01
 -0.2664082234403898E+01 -0.2663803036357214E+01 -0.2663523010718750E+01 -0.2663242159859748E+01 -0.2662960486142274E+01
 -0.2662677991919264E+01 -0.2662394679534577E+01 -0.2662110551323030E+01 -0.2661825609610450E+01 -0.2661539856713719E+01
 -0.2661253294940817E+01 -0.2660965926590867E+01 -0.2660677753954180E+01 -0.2660388779312298E+01 -0.2660099004938038E+01
 -0.2659808433095538E+01 -0.2659517066040294E+01 -0.2659224906019212E+01 -0.2658931955270640E+01 -0.2658638216024420E+01
 -0.2658343690501926E+01 -0.2658048380916104E+01 -0.2657752289471516E+01 -0.2657455418364381E+01 -0.2657157769782619E+01
 -0.2656859345905886E+01 -0.2656560148905618E+01 -0.2656260180945071E+01 -0.2655959444179363E+01 -0.2655657940755509E+01
 -0.2655355672812466E+01 -0.2655052642481171E+01 -0.2654748851884577E+01 -0.2654444303137693E+01 -0.2654138998347626E+01
 -0.2653832939613619E+01 -0.2653526129027086E+01 -0.2653218568671649E+01 -0.2652910260623180E+01 -0.2652601206949841E+01
 -0.2652291409712109E+01 -0.2651980870962828E+01 -0.2651669592747237E+01 -0.2651357577103008E+01 -0.2651044826060284E+01
 -0.2650731341641714E+01 -0.2650417125862489E+01 -0.2650102180730380E+01 -0.2649786508245769E+01 -0.2649470110401689E+01
 -0.2649152989183857E+01 -0.2648835146570709E+01 -0.2648516584533435E+01 -0.2648197305036013E+01 -0.2647877310035244E+01
 -0.2647556601480785E+01 -0.2647235181315187E+01 -0.2646913051473921E+01 -0.2646590213885419E+01 -0.2646266670471103E+01
 -0.2645942423145421E+01 -0.2645617473815877E+01 -0.2645291824383065E+01 -0.2644965476740702E+01 -0.2644638432775662E+01
 -0.2644310694368003E+01 -0.2643982263391004E+01 -0.2643653141711194E+01 -0.2643323331188388E+01 -0.2642992833675709E+01
 -0.2642661651019630E+01 -0.2642329785060000E+01 -0.2641997237630073E+01 -0.2641664010556542E+01 -0.2641330105659569E+01
 -0.2640995524752815E+01 -0.2640660269643469E+01 -0.2640324342132278E+01 -0.2639987744013582E+01 -0.2639650477075335E+01
 -0.2639312543099141E+01 -0.2638973943860281E+01 -0.2638634681127743E+01 -0.2638294756664249E+01 -0.2637954172226288E+01
 -0.2637612929564138E+01 -0.2637271030421902E+01 -0.2636928476537532E+01 -0.2636585269642855E+01 -0.2636241411463608E+01
 -0.2635896903719460E+01 -0.2635551748124040E+01 -0.2635205946384970E+01 -0.2634859500203884E+01 -0.2634512411276463E+01
 -0.2634164681292456E+01 -0.2633816311935711E+01 -0.2633467304884200E+01 -0.2633117661810049E+01 -0.2632767384379556E+01
 -0.2632416474253227E+01 -0.2632064933085796E+01 -0.2631712762526255E+01 -0.2631359964217874E+01 -0.2631006539798236E+01
 -0.2630652490899253E+01 -0.2630297819147198E+01 -0.2629942526162726E+01 -0.2629586613560904E+01 -0.2629230082951230E+01
 -0.2628872935937663E+01 -0.2628515174118646E+01 -0.2628156799087130E+01 -0.2627797812430599E+01 -0.2627438215731094E+01
 -0.2627078010565237E+01 -0.2626717198504258E+01 -0.2626355781114013E+01 -0.2625993759955014E+01 -0.2625631136582449E+01
 -0.2625267912546207E+01 -0.2624904089390900E+01 -0.2624539668655889E+01 -0.2624174651875304E+01 -0.2623809040578069E+01
 -0.2623442836287925E+01 -0.2623076040523451E+01 -0.2622708654798089E+01 -0.2622340680620165E+01 -0.2621972119492912E+01
 -0.2621602972914490E+01 -0.2621233242378015E+01 -0.2620862929371571E+01 -0.2620492035378243E+01 -0.2620120561876128E+01
 -0.2619748510338364E+01 -0.2619375882233150E+01 -0.2619002679023766E+01 -0.2618628902168596E+01 -0.2618254553121147E+01
 -0.2617879633330074E+01 -0.2617504144239197E+01 -0.2617128087287523E+01 -0.2616751463909269E+01 -0.2616374275533878E+01
 -0.2615996523586048E+01 -0.2615618209485742E+01 -0.2615239334648214E+01 -0.2614859900484030E+01 -0.2614479908399089E+01
 -0.2614099359794635E+01 -0.2613718256067287E+01 -0.2613336598609054E+01 -0.2612954388807352E+01 -0.2612571628045032E+01
 -0.2612188317700391E+01 -0.2611804459147195E+01 -0.2611420053754697E+01 -0.2611035102887660E+01 -0.2610649607906371E+01
 -0.2610263570166662E+01 -0.2609876991019932E+01 -0.2609489871813159E+01 -0.2609102213888927E+01 -0.2608714018585435E+01
 -0.2608325287236526E+01 -0.2607936021171696E+01 -0.2607546221716120E+01 -0.2607155890190663E+01 -0.2606765027911905E+01
 -0.2606373636192153E+01 -0.2605981716339463E+01 -0.2605589269657658E+01 -0.2605196297446342E+01 -0.2604802801000920E+01
 -0.2604408781612618E+01 -0.2604014240568494E+01 -0.2603619179151464E+01 -0.2603223598640310E+01 -0.2602827500309705E+01
 -0.2602430885430226E+01 -0.2602033755268371E+01 -0.2601636111086578E+01 -0.2601237954143242E+01 -0.2600839285692727E+01
 -0.2600440106985388E+01 -0.2600040419267587E+01 -0.2599640223781707E+01 -0.2599239521766169E+01 -0.2598838314455450E+01
 -0.2598436603080098E+01 -0.2598034388866750E+01 -0.2597631673038141E+01 -0.2597228456813134E+01 -0.2596824741406720E+01
 -0.2596420528030046E+01 -0.2596015817890422E+01 -0.2595610612191346E+01 -0.2595204912132509E+01 -0.2594798718909819E+01
 -0.2594392033715413E+01 -0.2593984857737671E+01 -0.2593577192161235E+01 -0.2593169038167021E+01 -0.2592760396932236E+01
 -0.2592351269630392E+01 -0.2591941657431321E+01 -0.2591531561501192E+01 -0.2591120983002521E+01 -0.2590709923094192E+01
 -0.2590298382931466E+01 -0.2589886363666002E+01 -0.2589473866445862E+01 -0.2589060892415536E+01 -0.2588647442715950E+01
 -0.2588233518484480E+01 -0.2587819120854973E+01 -0.2587404250957751E+01 -0.2586988909919634E+01 -0.2586573098863949E+01
 -0.2586156818910546E+01 -0.2585740071175811E+01 -0.2585322856772679E+01 -0.2584905176810652E+01 -0.2584487032395808E+01
 -0.2584068424630816E+01 -0.2583649354614950E+01 -0.2583229823444103E+01 -0.2582809832210799E+01 -0.2582389382004208E+01
 -0.2581968473910158E+01 -0.2581547109011149E+01 -0.2581125288386366E+01 -0.2580703013111689E+01 -0.2580280284259715E+01
 -0.2579857102899760E+01 -0.2579433470097878E+01 -0.2579009386916876E+01 -0.2578584854416317E+01 -0.2578159873652545E+01
 -0.2577734445678692E+01 -0.2577308571544686E+01 -0.2576882252297271E+01 -0.2576455488980019E+01 -0.2576028282633334E+01
 -0.2575600634294475E+01 -0.2575172544997562E+01 -0.2574744015773592E+01 -0.2574315047650445E+01 -0.2573885641652904E+01
 -0.2573455798802661E+01 -0.2573025520118333E+01 -0.2572594806615470E+01 -0.2572163659306571E+01 -0.2571732079201094E+01
 -0.2571300067305467E+01 -0.2570867624623101E+01 -0.2570434752154398E+01 -0.2570001450896772E+01 -0.2569567721844650E+01
 -0.2569133565989486E+01 -0.2568698984319779E+01 -0.2568263977821078E+01 -0.2567828547475993E+01 -0.2567392694264210E+01
 -0.2566956419162501E+01 -0.2566519723144733E+01 -0.2566082607181881E+01 -0.2565645072242041E+01 -0.2565207119290435E+01
 -0.2564768749289431E+01 -0.2564329963198544E+01 -0.2563890761974454E+01 -0.2563451146571013E+01 -0.2563011117939261E+01
 -0.2562570677027426E+01 -0.2562129824780948E+01 -0.2561688562142481E+01 -0.2561246890051904E+01 -0.2560804809446336E+01
 -0.2560362321260142E+01 -0.2559919426424944E+01 -0.2559476125869637E+01 -0.2559032420520390E+01 -0.2558588311300662E+01
 -0.2558143799131214E+01 -0.2557698884930113E+01 -0.2557253569612749E+01 -0.2556807854091839E+01 -0.2556361739277439E+01
 -0.2555915226076958E+01 -0.2555468315395161E+01 -0.2555021008134187E+01 -0.2554573305193549E+01 -0.2554125207470153E+01
 -0.2553676715858303E+01 -0.2553227831249710E+01 -0.2552778554533505E+01 -0.2552328886596249E+01 -0.2551878828321934E+01
 -0.2551428380592005E+01 -0.2550977544285360E+01 -0.2550526320278367E+01 -0.2550074709444864E+01 -0.2549622712656178E+01
 -0.2549170330781129E+01 -0.2548717564686038E+01 -0.2548264415234742E+01 -0.2547810883288597E+01 -0.2547356969706490E+01
 -0.2546902675344851E+01 -0.2546448001057656E+01 -0.2545992947696439E+01 -0.2545537516110304E+01 -0.2545081707145926E+01
 -0.2544625521647571E+01 -0.2544168960457093E+01 -0.2543712024413953E+01 -0.2543254714355221E+01 -0.2542797031115586E+01
 -0.2542338975527370E+01 -0.2541880548420528E+01 -0.2541421750622663E+01 -0.2540962582959033E+01 -0.2540503046252558E+01
 -0.2540043141323832E+01 -0.2539582868991126E+01 -0.2539122230070402E+01 -0.2538661225375318E+01 -0.2538199855717237E+01
 -0.2537738121905238E+01 -0.2537276024746117E+01 -0.2536813565044406E+01 -0.2536350743602373E+01 -0.2535887561220031E+01
 -0.2535424018695149E+01 -0.2534960116823260E+01 -0.2534495856397665E+01 -0.2534031238209447E+01 -0.2533566263047474E+01
 -0.2533100931698409E+01 -0.2532635244946719E+01 -0.2532169203574679E+01 -0.2531702808362387E+01 -0.2531236060087762E+01
 -0.2530768959526561E+01 -0.2530301507452380E+01 -0.2529833704636667E+01 -0.2529365551848726E+01 -0.2528897049855726E+01
 -0.2528428199422708E+01 -0.2527959001312594E+01 -0.2527489456286193E+01 -0.2527019565102209E+01 -0.2526549328517250E+01
 -0.2526078747285831E+01 -0.2525607822160388E+01 -0.2525136553891278E+01 -0.2524664943226794E+01 -0.2524192990913166E+01
 -0.2523720697694572E+01 -0.2523248064313143E+01 -0.2522775091508971E+01 -0.2522301780020118E+01 -0.2521828130582621E+01
 -0.2521354143930499E+01 -0.2520879820795762E+01 -0.2520405161908414E+01 -0.2519930167996466E+01 -0.2519454839785939E+01
 -0.2518979178000872E+01 -0.2518503183363328E+01 -0.2518026856593403E+01 -0.2517550198409229E+01 -0.2517073209526988E+01
 -0.2516595890660910E+01 -0.2516118242523285E+01 -0.2515640265824471E+01 -0.2515161961272897E+01 -0.2514683329575071E+01
 -0.2514204371435587E+01 -0.2513725087557133E+01 -0.2513245478640494E+01 -0.2512765545384563E+01 -0.2512285288486344E+01
 -0.2511804708640960E+01 -0.2511323806541661E+01 -0.2510842582879827E+01 -0.2510361038344977E+01 -0.2509879173624775E+01
 -0.2509396989405037E+01 -0.2508914486369734E+01 -0.2508431665201005E+01 -0.2507948526579155E+01 -0.2507465071182668E+01
 -0.2506981299688210E+01 -0.2506497212770636E+01 -0.2506012811102997E+01 -0.2505528095356545E+01 -0.2505043066200739E+01
 -0.2504557724303251E+01 -0.2504072070329976E+01 -0.2503586104945032E+01 -0.2503099828810770E+01 -0.2502613242587778E+01
 -0.2502126346934891E+01 -0.2501639142509189E+01 -0.2501151629966011E+01 -0.2500663809958961E+01 -0.2500175683139903E+01
 -0.2499687250158981E+01 -0.2499198511664617E+01 -0.2498709468303516E+01 -0.2498220120720677E+01 -0.2497730469559395E+01
 -0.2497240515461267E+01 -0.2496750259066200E+01 -0.2496259701012411E+01 -0.2495768841936443E+01 -0.2495277682473160E+01
 -0.2494786223255758E+01 -0.2494294464915771E+01 -0.2493802408083074E+01 -0.2493310053385890E+01 -0.2492817401450796E+01
 -0.2492324452902727E+01 -0.2491831208364984E+01 -0.2491337668459237E+01 -0.2490843833805530E+01 -0.2490349705022291E+01
 -0.2489855282726331E+01 -0.2489360567532855E+01 -0.2488865560055465E+01 -0.2488370260906163E+01 -0.2487874670695359E+01
 -0.2487378790031879E+01 -0.2486882619522965E+01 -0.2486386159774280E+01 -0.2485889411389922E+01 -0.2485392374972418E+01
 -0.2484895051122735E+01 -0.2484397440440285E+01 -0.2483899543522929E+01 -0.2483401360966983E+01 -0.2482902893367223E+01
 -0.2482404141316888E+01 -0.2481905105407689E+01 -0.2481405786229810E+01 -0.2480906184371916E+01 -0.2480406300421159E+01
 -0.2479906134963175E+01 -0.2479405688582101E+01 -0.2478904961860571E+01 -0.2478403955379723E+01 -0.2477902669719208E+01
 -0.2477401105457186E+01 -0.2476899263170343E+01 -0.2476397143433883E+01 -0.2475894746821543E+01 -0.2475392073905593E+01
 -0.2474889125256841E+01 -0.2474385901444640E+01 -0.2473882403036889E+01 -0.2473378630600040E+01 -0.2472874584699106E+01
 -0.2472370265897658E+01 -0.2471865674757836E+01 -0.2471360811840352E+01 -0.2470855677704493E+01 -0.2470350272908128E+01
 -0.2469844598007711E+01 -0.2469338653558287E+01 -0.2468832440113493E+01 -0.2468325958225570E+01 -0.2467819208445355E+01
 -0.2467312191322302E+01 -0.2466804907404472E+01 -0.2466297357238545E+01 -0.2465789541369822E+01 -0.2465281460342230E+01
 -0.2464773114698328E+01 -0.2464264504979308E+01 -0.2463755631725002E+01 -0.2463246495473886E+01 -0.2462737096763084E+01
 -0.2462227436128370E+01 -0.2461717514104180E+01 -0.2461207331223604E+01 -0.2460696888018403E+01 -0.2460186185019005E+01
 -0.2459675222754510E+01 -0.2459164001752701E+01 -0.2458652522540037E+01 -0.2458140785641668E+01 -0.2457628791581433E+01
 -0.2457116540881866E+01 -0.2456604034064198E+01 -0.2456091271648366E+01 -0.2455578254153013E+01 -0.2455064982095490E+01
 -0.2454551455991870E+01 -0.2454037676356940E+01 -0.2453523643704211E+01 -0.2453009358545923E+01 -0.2452494821393048E+01
 -0.2451980032755291E+01 -0.2451464993141098E+01 -0.2450949703057659E+01 -0.2450434163010910E+01 -0.2449918373505540E+01
 -0.2449402335044991E+01 -0.2448886048131467E+01 -0.2448369513265932E+01 -0.2447852730948121E+01 -0.2447335701676535E+01
 -0.2446818425948454E+01 -0.2446300904259934E+01 -0.2445783137105813E+01 -0.2445265124979717E+01 -0.2444746868374062E+01
 -0.2444228367780056E+01 -0.2443709623687707E+01 -0.2443190636585819E+01 -0.2442671406962008E+01 -0.2442151935302695E+01
 -0.2441632222093113E+01 -0.2441112267817313E+01 -0.2440592072958163E+01 -0.2440071637997358E+01 -0.2439550963415416E+01
 -0.2439030049691691E+01 -0.2438508897304367E+01 -0.2437987506730466E+01 -0.2437465878445855E+01 -0.2436944012925245E+01
 -0.2436421910642192E+01 -0.2435899572069109E+01 -0.2435376997677263E+01 -0.2434854187936780E+01 -0.2434331143316649E+01
 -0.2433807864284726E+01 -0.2433284351307736E+01 -0.2432760604851279E+01 -0.2432236625379829E+01 -0.2431712413356743E+01
 -0.2431187969244260E+01 -0.2430663293503507E+01 -0.2430138386594500E+01 -0.2429613248976152E+01 -0.2429087881106270E+01
 -0.2428562283441564E+01 -0.2428036456437646E+01 -0.2427510400549036E+01 -0.2426984116229168E+01 -0.2426457603930384E+01
 -0.2425930864103946E+01 -0.2425403897200041E+01 -0.2424876703667773E+01 -0.2424349283955177E+01 -0.2423821638509218E+01
 -0.2423293767775793E+01 -0.2422765672199739E+01 -0.2422237352224831E+01 -0.2421708808293788E+01 -0.2421180040848275E+01
 -0.2420651050328906E+01 -0.2420121837175251E+01 -0.2419592401825833E+01 -0.2419062744718136E+01 -0.2418532866288605E+01
 -0.2418002766972653E+01 -0.2417472447204658E+01 -0.2416941907417972E+01 -0.2416411148044923E+01 -0.2415880169516813E+01
 -0.2415348972263929E+01 -0.2414817556715540E+01 -0.2414285923299902E+01 -0.2413754072444263E+01 -0.2413222004574861E+01
 -0.2412689720116933E+01 -0.2412157219494715E+01 -0.2411624503131441E+01 -0.2411091571449357E+01 -0.2410558424869712E+01
 -0.2410025063812767E+01 -0.2409491488697799E+01 -0.2408957699943099E+01 -0.2408423697965982E+01 -0.2407889483182781E+01
 -0.2407355056008857E+01 -0.2406820416858601E+01 -0.2406285566145433E+01 -0.2405750504281809E+01 -0.2405215231679222E+01
 -0.2404679748748204E+01 -0.2404144055898331E+01 -0.2403608153538225E+01 -0.2403072042075556E+01 -0.2402535721917044E+01
 -0.2401999193468467E+01 -0.2401462457134656E+01 -0.2400925513319503E+01 -0.2400388362425965E+01 -0.2399851004856060E+01
 -0.2399313441010879E+01 -0.2398775671290578E+01 -0.2398237696094393E+01 -0.2397699515820629E+01 -0.2397161130866678E+01
 -0.2396622541629006E+01 -0.2396083748503169E+01 -0.2395544751883808E+01 -0.2395005552164652E+01 -0.2394466149738526E+01
 -0.2393926544997347E+01 -0.2393386738332131E+01 -0.2392846730132993E+01 -0.2392306520789154E+01 -0.2391766110688937E+01
 -0.2391225500219776E+01 -0.2390684689768212E+01 -0.2390143679719904E+01 -0.2389602470459626E+01 -0.2389061062371266E+01
 -0.2388519455837838E+01 -0.2387977651241477E+01 -0.2387435648963447E+01 -0.2386893449384137E+01 -0.2386351052883068E+01
 -0.2385808459838898E+01 -0.2385265670629419E+01 -0.2384722685631559E+01 -0.2384179505221392E+01 -0.2383636129774132E+01
 -0.2383092559664143E+01 -0.2382548795264932E+01 -0.2382004836949163E+01 -0.2381460685088651E+01 -0.2380916340054365E+01
 -0.2380371802216435E+01 -0.2379827071944153E+01 -0.2379282149605969E+01 -0.2378737035569504E+01 -0.2378191730201545E+01
 -0.2377646233868048E+01 -0.2377100546934145E+01 -0.2376554669764139E+01 -0.2376008602721514E+01 -0.2375462346168933E+01
 -0.2374915900468241E+01 -0.2374369265980465E+01 -0.2373822443065825E+01 -0.2373275432083722E+01 -0.2372728233392757E+01
 -0.2372180847350717E+01 -0.2371633274314592E+01 -0.2371085514640565E+01 -0.2370537568684022E+01 -0.2369989436799552E+01
 -0.2369441119340950E+01 -0.2368892616661216E+01 -0.2368343929112561E+01 -0.2367795057046410E+01 -0.2367246000813397E+01
 -0.2366696760763377E+01 -0.2366147337245422E+01 -0.2365597730607825E+01 -0.2365047941198103E+01 -0.2364497969362994E+01
 -0.2363947815448470E+01 -0.2363397479799728E+01 -0.2362846962761197E+01 -0.2362296264676540E+01 -0.2361745385888659E+01
 -0.2361194326739690E+01 -0.2360643087571012E+01 -0.2360091668723247E+01 -0.2359540070536259E+01 -0.2358988293349160E+01
 -0.2358436337500311E+01 -0.2357884203327325E+01 -0.2357331891167066E+01 -0.2356779401355654E+01 -0.2356226734228466E+01
 -0.2355673890120138E+01 -0.2355120869364570E+01 -0.2354567672294922E+01 -0.2354014299243619E+01 -0.2353460750542359E+01
 -0.2352907026522102E+01 -0.2352353127513086E+01 -0.2351799053844819E+01 -0.2351244805846084E+01 -0.2350690383844947E+01
 -0.2350135788168746E+01 -0.2349581019144106E+01 -0.2349026077096935E+01 -0.2348470962352425E+01 -0.2347915675235057E+01
 -0.2347360216068600E+01 -0.2346804585176115E+01 -0.2346248782879959E+01 -0.2345692809501781E+01 -0.2345136665362528E+01
 -0.2344580350782449E+01 -0.2344023866081092E+01 -0.2343467211577308E+01 -0.2342910387589253E+01 -0.2342353394434392E+01
 -0.2341796232429498E+01 -0.2341238901890653E+01 -0.2340681403133253E+01 -0.2340123736472010E+01 -0.2339565902220951E+01
 -0.2339007900693421E+01 -0.2338449732202086E+01 -0.2337891397058934E+01 -0.2337332895575277E+01 -0.2336774228061752E+01
 -0.2336215394828325E+01 -0.2335656396184291E+01 -0.2335097232438275E+01 -0.2334537903898235E+01 -0.2333978410871469E+01
 -0.2333418753664604E+01 -0.2332858932583612E+01 -0.2332298947933801E+01 -0.2331738800019823E+01 -0.2331178489145675E+01
 -0.2330618015614698E+01 -0.2330057379729581E+01 -0.2329496581792363E+01 -0.2328935622104432E+01 -0.2328374500966530E+01
 -0.2327813218678755E+01 -0.2327251775540561E+01 -0.2326690171850757E+01 -0.2326128407907513E+01 -0.2325566484008364E+01
 -0.2325004400450204E+01 -0.2324442157529294E+01 -0.2323879755541260E+01 -0.2323317194781099E+01 -0.2322754475543176E+01
 -0.2322191598121228E+01 -0.2321628562808366E+01 -0.2321065369897075E+01 -0.2320502019679219E+01 -0.2319938512446039E+01
 -0.2319374848488154E+01 -0.2318811028095570E+01 -0.2318247051557673E+01 -0.2317682919163234E+01 -0.2317118631200411E+01
 -0.2316554187956752E+01 -0.2315989589719194E+01 -0.2315424836774065E+01 -0.2314859929407087E+01 -0.2314294867903376E+01
 -0.2313729652547447E+01 -0.2313164283623211E+01 -0.2312598761413978E+01 -0.2312033086202462E+01 -0.2311467258270777E+01
 -0.2310901277900445E+01 -0.2310335145372390E+01 -0.2309768860966948E+01 -0.2309202424963861E+01 -0.2308635837642282E+01
 -0.2308069099280778E+01 -0.2307502210157329E+01 -0.2306935170549333E+01 -0.2306367980733598E+01 -0.2305800640986359E+01
 -0.2305233151583267E+01 -0.2304665512799394E+01 -0.2304097724909236E+01 -0.2303529788186716E+01 -0.2302961702905179E+01
 -0.2302393469337401E+01 -0.2301825087755586E+01 -0.2301256558431369E+01 -0.2300687881635816E+01 -0.2300119057639430E+01
 -0.2299550086712145E+01 -0.2298980969123335E+01 -0.2298411705141810E+01 -0.2297842295035821E+01 -0.2297272739073060E+01
 -0.2296703037520661E+01 -0.2296133190645202E+01 -0.2295563198712709E+01 -0.2294993061988650E+01 -0.2294422780737944E+01
 -0.2293852355224963E+01 -0.2293281785713525E+01 -0.2292711072466903E+01 -0.2292140215747825E+01 -0.2291569215818474E+01
 -0.2290998072940489E+01 -0.2290426787374967E+01 -0.2289855359382468E+01 -0.2289283789223010E+01 -0.2288712077156075E+01
 -0.2288140223440608E+01 -0.2287568228335020E+01 -0.2286996092097191E+01 -0.2286423814984463E+01 -0.2285851397253655E+01
 -0.2285278839161052E+01 -0.2284706140962413E+01 -0.2284133302912970E+01 -0.2283560325267430E+01 -0.2282987208279978E+01
 -0.2282413952204275E+01 -0.2281840557293461E+01 -0.2281267023800156E+01 -0.2280693351976465E+01 -0.2280119542073971E+01
 -0.2279545594343748E+01 -0.2278971509036348E+01 -0.2278397286401815E+01 -0.2277822926689681E+01 -0.2277248430148966E+01
 -0.2276673797028184E+01 -0.2276099027575337E+01 -0.2275524122037923E+01 -0.2274949080662937E+01 -0.2274373903696866E+01
 -0.2273798591385698E+01 -0.2273223143974917E+01 -0.2272647561709509E+01 -0.2272071844833961E+01 -0.2271495993592260E+01
 -0.2270920008227902E+01 -0.2270343888983885E+01 -0.2269767636102712E+01 -0.2269191249826397E+01 -0.2268614730396461E+01
 -0.2268038078053934E+01 -0.2267461293039361E+01 -0.2266884375592797E+01 -0.2266307325953810E+01 -0.2265730144361486E+01
 -0.2265152831054426E+01 -0.2264575386270748E+01 -0.2263997810248089E+01 -0.2263420103223607E+01 -0.2262842265433981E+01
 -0.2262264297115411E+01 -0.2261686198503621E+01 -0.2261107969833863E+01 -0.2260529611340911E+01 -0.2259951123259069E+01
 -0.2259372505822168E+01 -0.2258793759263567E+01 -0.2258214883816161E+01 -0.2257635879712372E+01 -0.2257056747184158E+01
 -0.2256477486463010E+01 -0.2255898097779955E+01 -0.2255318581365557E+01 -0.2254738937449917E+01 -0.2254159166262676E+01
 -0.2253579268033015E+01 -0.2252999242989656E+01 -0.2252419091360863E+01 -0.2251838813374444E+01 -0.2251258409257755E+01
 -0.2250677879237691E+01 -0.2250097223540700E+01 -0.2249516442392777E+01 -0.2248935536019464E+01 -0.2248354504645856E+01
 -0.2247773348496597E+01 -0.2247192067795888E+01 -0.2246610662767478E+01 -0.2246029133634677E+01 -0.2245447480620344E+01
 -0.2244865703946903E+01 -0.2244283803836330E+01 -0.2243701780510164E+01 -0.2243119634189502E+01 -0.2242537365095004E+01
 -0.2241954973446892E+01 -0.2241372459464953E+01 -0.2240789823368535E+01 -0.2240207065376557E+01 -0.2239624185707501E+01
 -0.2239041184579420E+01 -0.2238458062209932E+01 -0.2237874818816229E+01 -0.2237291454615073E+01 -0.2236707969822797E+01
 -0.2236124364655309E+01 -0.2235540639328091E+01 -0.2234956794056200E+01 -0.2234372829054267E+01 -0.2233788744536507E+01
 -0.2233204540716706E+01 -0.2232620217808236E+01 -0.2232035776024044E+01 -0.2231451215576664E+01 -0.2230866536678209E+01
 -0.2230281739540375E+01 -0.2229696824374447E+01 -0.2229111791391292E+01 -0.2228526640801365E+01 -0.2227941372814707E+01
 -0.2227355987640953E+01 -0.2226770485489320E+01 -0.2226184866568623E+01 -0.2225599131087265E+01 -0.2225013279253242E+01
 -0.2224427311274143E+01 -0.2223841227357156E+01 -0.2223255027709060E+01 -0.2222668712536232E+01 -0.2222082282044649E+01
 -0.2221495736439883E+01 -0.2220909075927108E+01 -0.2220322300711099E+01 -0.2219735410996231E+01 -0.2219148406986483E+01
 -0.2218561288885437E+01 -0.2217974056896279E+01 -0.2217386711221800E+01 -0.2216799252064400E+01 -0.2216211679626085E+01
 -0.2215623994108466E+01 -0.2215036195712770E+01 -0.2214448284639829E+01 -0.2213860261090088E+01 -0.2213272125263602E+01
 -0.2212683877360043E+01 -0.2212095517578695E+01 -0.2211507046118455E+01 -0.2210918463177839E+01 -0.2210329768954979E+01
 -0.2209740963647621E+01 -0.2209152047453137E+01 -0.2208563020568509E+01 -0.2207973883190349E+01 -0.2207384635514884E+01
 -0.2206795277737965E+01 -0.2206205810055068E+01 -0.2205616232661288E+01 -0.2205026545751353E+01 -0.2204436749519610E+01
 -0.2203846844160034E+01 -0.2203256829866230E+01 -0.2202666706831431E+01 -0.2202076475248497E+01 -0.2201486135309921E+01
 -0.2200895687207826E+01 -0.2200305131133968E+01 -0.2199714467279735E+01 -0.2199123695836148E+01 -0.2198532816993866E+01
 -0.2197941830943180E+01 -0.2197350737874020E+01 -0.2196759537975951E+01 -0.2196168231438178E+01 -0.2195576818449545E+01
 -0.2194985299198535E+01 -0.2194393673873272E+01 -0.2193801942661523E+01 -0.2193210105750695E+01 -0.2192618163327840E+01
 -0.2192026115579653E+01 -0.2191433962692475E+01 -0.2190841704852295E+01 -0.2190249342244742E+01 -0.2189656875055102E+01
 -0.2189064303468299E+01 -0.2188471627668914E+01 -0.2187878847841175E+01 -0.2187285964168961E+01 -0.2186692976835804E+01
 -0.2186099886024885E+01 -0.2185506691919042E+01 -0.2184913394700766E+01 -0.2184319994552202E+01 -0.2183726491655153E+01
 -0.2183132886191075E+01 -0.2182539178341084E+01 -0.2181945368285954E+01 -0.2181351456206117E+01 -0.2180757442281665E+01
 -0.2180163326692353E+01 -0.2179569109617593E+01 -0.2178974791236461E+01 -0.2178380371727698E+01 -0.2177785851269705E+01
 -0.2177191230040553E+01 -0.2176596508217973E+01 -0.2176001685979363E+01 -0.2175406763501790E+01 -0.2174811740961987E+01
 -0.2174216618536357E+01 -0.2173621396400971E+01 -0.2173026074731569E+01 -0.2172430653703563E+01 -0.2171835133492038E+01
 -0.2171239514271750E+01 -0.2170643796217125E+01 -0.2170047979502268E+01 -0.2169452064300955E+01 -0.2168856050786638E+01
 -0.2168259939132447E+01 -0.2167663729511187E+01 -0.2167067422095339E+01 -0.2166471017057066E+01 -0.2165874514568209E+01
 -0.2165277914800286E+01 -0.2164681217924499E+01 -0.2164084424111729E+01 -0.2163487533532541E+01 -0.2162890546357181E+01
 -0.2162293462755580E+01 -0.2161696282897351E+01 -0.2161099006951794E+01 -0.2160501635087896E+01 -0.2159904167474326E+01
 -0.2159306604279443E+01 -0.2158708945671295E+01 -0.2158111191817615E+01 -0.2157513342885829E+01 -0.2156915399043050E+01
 -0.2156317360456084E+01 -0.2155719227291427E+01 -0.2155120999715267E+01 -0.2154522677893487E+01 -0.2153924261991660E+01
 -0.2153325752175058E+01 -0.2152727148608642E+01 -0.2152128451457074E+01 -0.2151529660884710E+01 -0.2150930777055601E+01
 -0.2150331800133501E+01 -0.2149732730281858E+01 -0.2149133567663819E+01 -0.2148534312442235E+01 -0.2147934964779654E+01
 -0.2147335524838324E+01 -0.2146735992780199E+01 -0.2146136368766932E+01 -0.2145536652959882E+01 -0.2144936845520108E+01
 -0.2144336946608378E+01 -0.2143736956385163E+01 -0.2143136875010639E+01 -0.2142536702644691E+01 -0.2141936439446908E+01
 -0.2141336085576591E+01 -0.2140735641192746E+01 -0.2140135106454090E+01 -0.2139534481519049E+01 -0.2138933766545760E+01
 -0.2138332961692073E+01 -0.2137732067115546E+01 -0.2137131082973452E+01 -0.2136530009422777E+01 -0.2135928846620220E+01
 -0.2135327594722197E+01 -0.2134726253884833E+01 -0.2134124824263976E+01 -0.2133523306015188E+01 -0.2132921699293744E+01
 -0.2132320004254641E+01 -0.2131718221052595E+01 -0.2131116349842036E+01 -0.2130514390777119E+01 -0.2129912344011716E+01
 -0.2129310209699420E+01 -0.2128707987993547E+01 -0.2128105679047133E+01 -0.2127503283012939E+01 -0.2126900800043448E+01
 -0.2126298230290867E+01 -0.2125695573907127E+01 -0.2125092831043885E+01 -0.2124490001852524E+01 -0.2123887086484153E+01
 -0.2123284085089607E+01 -0.2122680997819451E+01 -0.2122077824823975E+01 -0.2121474566253203E+01 -0.2120871222256882E+01
 -0.2120267792984494E+01 -0.2119664278585248E+01 -0.2119060679208089E+01 -0.2118456995001689E+01 -0.2117853226114454E+01
 -0.2117249372694524E+01 -0.2116645434889773E+01 -0.2116041412847807E+01 -0.2115437306715969E+01 -0.2114833116641336E+01
 -0.2114228842770722E+01 -0.2113624485250677E+01 -0.2113020044227488E+01 -0.2112415519847182E+01 -0.2111810912255519E+01
 -0.2111206221598004E+01 -0.2110601448019878E+01 -0.2109996591666122E+01 -0.2109391652681460E+01 -0.2108786631210355E+01
 -0.2108181527397013E+01 -0.2107576341385381E+01 -0.2106971073319151E+01 -0.2106365723341757E+01 -0.2105760291596377E+01
 -0.2105154778225933E+01 -0.2104549183373095E+01 -0.2103943507180276E+01 -0.2103337749789637E+01 -0.2102731911343084E+01
 -0.2102125991982273E+01 -0.2101519991848605E+01 -0.2100913911083233E+01 -0.2100307749827055E+01 -0.2099701508220723E+01
 -0.2099095186404635E+01 -0.2098488784518942E+01 -0.2097882302703548E+01 -0.2097275741098104E+01 -0.2096669099842019E+01
 -0.2096062379074450E+01 -0.2095455578934311E+01 -0.2094848699560267E+01 -0.2094241741090741E+01 -0.2093634703663907E+01
 -0.2093027587417700E+01 -0.2092420392489804E+01 -0.2091813119017667E+01 -0.2091205767138488E+01 -0.2090598336989229E+01
 -0.2089990828706606E+01 -0.2089383242427097E+01 -0.2088775578286937E+01 -0.2088167836422121E+01 -0.2087560016968407E+01
 -0.2086952120061309E+01 -0.2086344145836108E+01 -0.2085736094427844E+01 -0.2085127965971318E+01 -0.2084519760601097E+01
 -0.2083911478451510E+01 -0.2083303119656650E+01 -0.2082694684350374E+01 -0.2082086172666305E+01 -0.2081477584737831E+01
 -0.2080868920698105E+01 -0.2080260180680050E+01 -0.2079651364816351E+01 -0.2079042473239465E+01 -0.2078433506081614E+01
 -0.2077824463474790E+01 -0.2077215345550754E+01 -0.2076606152441035E+01 -0.2075996884276935E+01 -0.2075387541189524E+01
 -0.2074778123309643E+01 -0.2074168630767907E+01 -0.2073559063694700E+01 -0.2072949422220179E+01 -0.2072339706474277E+01
 -0.2071729916586698E+01 -0.2071120052686917E+01 -0.2070510114904189E+01 -0.2069900103367542E+01 -0.2069290018205778E+01
 -0.2068679859547476E+01 -0.2068069627520992E+01 -0.2067459322254456E+01 -0.2066848943875778E+01 -0.2066238492512647E+01
 -0.2065627968292527E+01 -0.2065017371342661E+01 -0.2064406701790074E+01 -0.2063795959761569E+01 -0.2063185145383728E+01
 -0.2062574258782917E+01 -0.2061963300085279E+01 -0.2061352269416741E+01 -0.2060741166903012E+01 -0.2060129992669582E+01
 -0.2059518746841726E+01 -0.2058907429544502E+01 -0.2058296040902750E+01 -0.2057684581041096E+01 -0.2057073050083950E+01
 -0.2056461448155510E+01 -0.2055849775379754E+01 -0.2055238031880452E+01 -0.2054626217781156E+01 -0.2054014333205210E+01
 -0.2053402378275742E+01 -0.2052790353115668E+01 -0.2052178257847693E+01 -0.2051566092594312E+01 -0.2050953857477807E+01
 -0.2050341552620253E+01 -0.2049729178143513E+01 -0.2049116734169239E+01 -0.2048504220818879E+01 -0.2047891638213667E+01
 -0.2047278986474633E+01 -0.2046666265722598E+01 -0.2046053476078176E+01 -0.2045440617661773E+01 -0.2044827690593591E+01
 -0.2044214694993625E+01 -0.2043601630981664E+01 -0.2042988498677293E+01 -0.2042375298199893E+01 -0.2041762029668638E+01
  0.7148420133252819E+02  0.7148420133252819E+02  0.7148420133252819E+02  0.7148420133252819E+02  0.7148420133252819E+02
  0.7148420133252819E+02  0.7148420133252819E+02  0.7148420133252819E+02  0.7148420133252819E+02  0.7148420133252819E+02
  0.7148420133252819E+02  0.7148420133252819E+02  0.7148420133252819E+02  0.7148420133252819E+02  0.7148420133252819E+02
  0.7148420133252819E+02  0.7148420133252819E+02  0.7148420133252819E+02  0.7148420133252819E+02  0.7148420133252819E+02
  0.7148420133252819E+02  0.7148420133252819E+02  0.7148420133252819E+02  0.7148420133252819E+02  0.7148420133252819E+02
  0.7148420133252819E+02  0.7148420133252819E+02  0.7148420133252819E+02  0.7148420133252819E+02  0.7148420133252819E+02
  0.7148420133252819E+02  0.7148420133252819E+02  0.7148420133252819E+02  0.7148420133252819E+02  0.7148420133252819E+02
  0.7148420133252819E+02  0.7148420133252819E+02  0.7148420133252819E+02  0.7148420133252819E+02  0.7148420133252819E+02
  0.7148420133252819E+02  0.7148420133252819E+02  0.7148420133252819E+02  0.7148420133252819E+02  0.7148420133252819E+02
  0.7148420133252819E+02  0.7148420133252819E+02  0.7148420133252819E+02  0.7148420133252819E+02  0.7148420133252819E+02
  0.7148420133252819E+02  0.7148420133252819E+02  0.7148420133252819E+02  0.7148420133252819E+02  0.7148420133252819E+02
  0.7148420133252819E+02  0.7148420133252819E+02  0.7148420133252819E+02  0.7148420133252819E+02  0.7148420133252819E+02
  0.7148420133252819E+02  0.7148420133252819E+02  0.7148420133252819E+02  0.7148420133252819E+02  0.7148420133252819E+02
  0.7148420133252819E+02  0.7148420133252819E+02  0.7148420133252819E+02  0.7148420133252819E+02  0.7148420133252819E+02
  0.7148420133252819E+02  0.7148420133252819E+02  0.7148420133252819E+02  0.7148420133252819E+02  0.7148420133252819E+02
  0.7148420133252819E+02  0.7148420133252819E+02  0.7148420133252819E+02  0.7148420133252819E+02  0.7148420133252819E+02
  0.7148420133252819E+02  0.7148420133252819E+02  0.7148420133252819E+02  0.7148420133252819E+02  0.7148420133252819E+02
  0.7148420133252819E+02  0.7148420133252819E+02  0.7148420133252819E+02  0.7148420133252819E+02  0.7148420133252819E+02
  0.7148420133252819E+02  0.7148420133252819E+02  0.7148420133252819E+02  0.7148420133252819E+02  0.7148420133252819E+02
  0.7148420133252819E+02  0.7148420133252819E+02  0.7148420133252819E+02  0.7148420133252819E+02  0.7148420133252819E+02
  0.7148420133252819E+02  0.7148420133252819E+02  0.7148420133252819E+02  0.7148420133252819E+02  0.7148420133252819E+02
  0.7148420133252819E+02  0.7148420133252819E+02  0.7148420133252819E+02  0.7148420133252819E+02  0.7148420133252819E+02
  0.7148420133252819E+02  0.7148420133252819E+02  0.7148420133252819E+02  0.7148420133252819E+02  0.7148420133252819E+02
  0.7148420133252819E+02  0.7148420133252819E+02  0.7148420133252819E+02  0.7148420133252819E+02  0.7148420133252819E+02
  0.7148420133252819E+02  0.7148420133252819E+02  0.7148420133252819E+02  0.7148420133252819E+02  0.7148420133252819E+02
  0.7148420133252819E+02  0.7148420133252819E+02  0.7148420133252819E+02  0.7148420133252819E+02  0.7148420133252819E+02
  0.7148420133252819E+02  0.7148420133252819E+02  0.7148420133252819E+02  0.7148420133252819E+02  0.7148420133252819E+02
  0.7148420133252819E+02  0.7148420133252819E+02  0.7148420133252819E+02  0.7148420133252819E+02  0.7148420133252819E+02
  0.7148420133252819E+02  0.7148420133252819E+02  0.7148420133252819E+02  0.7148420133252819E+02  0.7148420133252819E+02
  0.7148420133252819E+02  0.7148420133252819E+02  0.7148420133252819E+02  0.7148420133252819E+02  0.7148420133252819E+02
  0.7148420133252819E+02  0.7148420133252819E+02  0.7148420133252819E+02  0.7148420133252819E+02  0.7148420133252819E+02
  0.7148420133252819E+02  0.7148420133252819E+02  0.7148420133252819E+02  0.7148420133252819E+02  0.7148420133252819E+02
  0.7148420133252819E+02  0.7148420133252819E+02  0.7148420133252819E+02  0.7148420133252819E+02  0.7148420133252819E+02
  0.7148420133252819E+02  0.7148420133252819E+02  0.7148420133252819E+02  0.7148420133252819E+02  0.7148420133252819E+02
  0.7148420133252819E+02  0.7148420133252819E+02  0.7148420133252819E+02  0.7148420133252819E+02  0.7148420133252819E+02
  0.7148420133252819E+02  0.7148420133252819E+02  0.7148420133252819E+02  0.7148420133252819E+02  0.7148420133252819E+02
  0.7134301256142903E+02  0.7098726020560200E+02  0.7063327597194889E+02  0.7028105128827221E+02  0.6993057761627398E+02
  0.6958184645168950E+02  0.6923484932441069E+02  0.6888957779859855E+02  0.6854602347278673E+02  0.6820417797997459E+02
  0.6786403298771187E+02  0.6752558019817427E+02  0.6718881134823009E+02  0.6685371820949923E+02  0.6652029258840390E+02
  0.6618852632621143E+02  0.6585841129907035E+02  0.6552993941803869E+02  0.6520310262910544E+02  0.6487789291320600E+02
  0.6455430228623038E+02  0.6423232279902591E+02  0.6391194653739365E+02  0.6359316562207920E+02  0.6327597220875800E+02
  0.6296035848801539E+02  0.6264631668532129E+02  0.6233383906100062E+02  0.6202291791019811E+02  0.6171354556283921E+02
  0.6140571438358665E+02  0.6109941677179234E+02  0.6079464516144566E+02  0.6049139202111763E+02  0.6018964985390159E+02
  0.5988941119735014E+02  0.5959066862340862E+02  0.5929341473834551E+02  0.5899764218267948E+02  0.5870334363110347E+02
  0.5841051179240602E+02  0.5811913940938954E+02  0.5782921925878620E+02  0.5754074415117119E+02  0.5725370693087346E+02
  0.5696810047588421E+02  0.5668391769776333E+02  0.5640115154154326E+02  0.5611979498563141E+02  0.5583984104171020E+02
  0.5556128275463539E+02  0.5528411320233297E+02  0.5500832549569371E+02  0.5473391277846677E+02  0.5446086822715158E+02
  0.5418918505088815E+02  0.5391885649134618E+02  0.5364987582261283E+02  0.5338223635107926E+02  0.5311593141532622E+02
  0.5285095438600813E+02  0.5258729866573657E+02  0.5232495768896245E+02  0.5206392492185766E+02  0.5180419386219543E+02
  0.5154575803923031E+02  0.5128861101357698E+02  0.5103274637708879E+02  0.5077815775273533E+02  0.5052483879447964E+02
  0.5027278318715454E+02  0.5002198464633878E+02  0.4977243691823261E+02  0.4952413377953282E+02  0.4927706903730748E+02
  0.4903123652887032E+02  0.4878663012165466E+02  0.4854324371308741E+02  0.4830107123046234E+02  0.4806010663081343E+02
  0.4782034390078802E+02  0.4758177705651970E+02  0.4734440014350108E+02  0.4710820723645668E+02  0.4687319243921525E+02
  0.4663934988458261E+02  0.4640667373421406E+02  0.4617515817848700E+02  0.4594479743637348E+02  0.4571558575531277E+02
  0.4548751741108403E+02  0.4526058670767921E+02  0.4503478797717571E+02  0.4481011557960951E+02  0.4458656390284818E+02
  0.4436412736246417E+02  0.4414280040160843E+02  0.4392257749088383E+02  0.4370345312821909E+02  0.4348542183874284E+02
  0.4326847817465788E+02  0.4305261671511580E+02  0.4283783206609169E+02  0.4262411886025919E+02  0.4241147175686591E+02
  0.4219988544160901E+02  0.4198935462651124E+02  0.4177987404979703E+02  0.4157143847576914E+02  0.4136404269468567E+02
  0.4115768152263720E+02  0.4095234980142441E+02  0.4074804239843608E+02  0.4054475420652734E+02  0.4034248014389844E+02
  0.4014121515397382E+02  0.3994095420528154E+02  0.3974169229133319E+02  0.3954342443050402E+02  0.3934614566591375E+02
  0.3914985106530759E+02  0.3895453572093766E+02  0.3876019474944493E+02  0.3856682329174161E+02  0.3837441651289368E+02
  0.3818296960200445E+02  0.3799247777209780E+02  0.3780293626000242E+02  0.3761434032623629E+02  0.3742668525489164E+02
  0.3723996635352024E+02  0.3705417895301942E+02  0.3686931840751812E+02  0.3668538009426387E+02  0.3650235941350988E+02
  0.3632025178840269E+02  0.3613905266487038E+02  0.3595875751151104E+02  0.3577936181948190E+02  0.3560086110238889E+02
  0.3542325089617652E+02  0.3524652675901837E+02  0.3507068427120799E+02  0.3489571903505036E+02  0.3472162667475367E+02
  0.3454840283632166E+02  0.3437604318744643E+02  0.3420454341740172E+02  0.3403389923693658E+02  0.3386410637816973E+02
  0.3369516059448406E+02  0.3352705766042184E+02  0.3335979337158042E+02  0.3319336354450826E+02  0.3302776401660153E+02
  0.3286299064600103E+02  0.3269903931148979E+02  0.3253590591239110E+02  0.3237358636846680E+02  0.3221207661981632E+02
  0.3205137262677593E+02  0.3189147036981866E+02  0.3173236584945463E+02  0.3157405508613177E+02  0.3141653412013699E+02
  0.3125979901149804E+02  0.3110384583988550E+02  0.3094867070451547E+02  0.3079426972405272E+02  0.3064063903651404E+02
  0.3048777479917240E+02  0.3033567318846130E+02  0.3018433039987971E+02  0.3003374264789741E+02  0.2988390616586079E+02
  0.2973481720589906E+02  0.2958647203883111E+02  0.2943886695407245E+02  0.2929199825954296E+02  0.2914586228157481E+02
  0.2900045536482104E+02  0.2885577387216447E+02  0.2871181418462702E+02  0.2856857270127954E+02  0.2842604583915202E+02
  0.2828423003314427E+02  0.2814312173593713E+02  0.2800271741790381E+02  0.2786301356702200E+02  0.2772400668878627E+02
  0.2758569330612080E+02  0.2744806995929274E+02  0.2731113320582579E+02  0.2717487962041431E+02  0.2703930579483788E+02
  0.2690440833787620E+02  0.2677018387522448E+02  0.2663662904940911E+02  0.2650374051970386E+02  0.2637151496204659E+02
  0.2623994906895614E+02  0.2610903954944966E+02  0.2597878312896063E+02  0.2584917654925686E+02  0.2572021656835926E+02
  0.2559189996046080E+02  0.2546422351584591E+02  0.2533718404081034E+02  0.2521077835758131E+02  0.2508500330423817E+02
  0.2495985573463343E+02  0.2483533251831400E+02  0.2471143054044309E+02  0.2458814670172239E+02  0.2446547791831451E+02
  0.2434342112176600E+02  0.2422197325893060E+02  0.2410113129189294E+02  0.2398089219789269E+02  0.2386125296924891E+02
  0.2374221061328488E+02  0.2362376215225335E+02  0.2350590462326198E+02  0.2338863507819948E+02  0.2327195058366171E+02
  0.2315584822087841E+02  0.2304032508564026E+02  0.2292537828822626E+02  0.2281100495333148E+02  0.2269720221999511E+02
  0.2258396724152902E+02  0.2247129718544652E+02  0.2235918923339157E+02  0.2224764058106831E+02  0.2213664843817089E+02
  0.2202621002831374E+02  0.2191632258896218E+02  0.2180698337136321E+02  0.2169818964047694E+02  0.2158993867490808E+02
  0.2148222776683789E+02  0.2137505422195654E+02  0.2126841535939567E+02  0.2116230851166133E+02  0.2105673102456734E+02
  0.2095168025716882E+02  0.2084715358169623E+02  0.2074314838348964E+02  0.2063966206093323E+02  0.2053669202539037E+02
  0.2043423570113880E+02  0.2033229052530620E+02  0.2023085394780616E+02  0.2012992343127433E+02  0.2002949645100497E+02
  0.1992957049488787E+02  0.1983014306334540E+02  0.1973121166927009E+02  0.1963277383796245E+02  0.1953482710706892E+02
  0.1943736902652045E+02  0.1934039715847112E+02  0.1924390907723719E+02  0.1914790236923649E+02  0.1905237463292790E+02
  0.1895732347875143E+02  0.1886274652906841E+02  0.1876864141810197E+02  0.1867500579187792E+02  0.1858183730816585E+02
  0.1848913363642052E+02  0.1839689245772365E+02  0.1830511146472580E+02  0.1821378836158875E+02  0.1812292086392804E+02
  0.1803250669875580E+02  0.1794254360442396E+02  0.1785302933056763E+02  0.1776396163804881E+02  0.1767533829890041E+02
  0.1758715709627052E+02  0.1749941582436692E+02  0.1741211228840195E+02  0.1732524430453757E+02  0.1723880969983081E+02
  0.1715280631217929E+02  0.1706723199026724E+02  0.1698208459351169E+02  0.1689736199200882E+02  0.1681306206648086E+02
  0.1672918270822288E+02  0.1664572181905018E+02  0.1656267731124579E+02  0.1648004710750817E+02  0.1639782914089933E+02
  0.1631602135479309E+02  0.1623462170282369E+02  0.1615362814883447E+02  0.1607303866682711E+02  0.1599285124091082E+02
  0.1591306386525196E+02  0.1583367454402391E+02  0.1575468129135703E+02  0.1567608213128914E+02  0.1559787509771595E+02
  0.1552005823434197E+02  0.1544262959463154E+02  0.1536558724176013E+02  0.1528892924856595E+02  0.1521265369750165E+02
  0.1513675868058643E+02  0.1506124229935829E+02  0.1498610266482653E+02  0.1491133789742454E+02  0.1483694612696269E+02
  0.1476292549258167E+02  0.1468927414270585E+02  0.1461599023499701E+02  0.1454307193630825E+02  0.1447051742263812E+02
  0.1439832487908500E+02  0.1432649249980169E+02  0.1425501848795029E+02  0.1418390105565718E+02  0.1411313842396834E+02
  0.1404272882280486E+02  0.1397267049091863E+02  0.1390296167584832E+02  0.1383360063387549E+02  0.1376458562998102E+02
  0.1369591493780172E+02  0.1362758683958710E+02  0.1355959962615641E+02  0.1349195159685593E+02  0.1342464105951638E+02
  0.1335766633041061E+02  0.1329102573421149E+02  0.1322471760394999E+02  0.1315874028097351E+02  0.1309309211490432E+02
  0.1302777146359838E+02  0.1296277669310417E+02  0.1289810617762188E+02  0.1283375829946270E+02  0.1276973144900836E+02
  0.1270602402467093E+02  0.1264263443285264E+02  0.1257956108790615E+02  0.1251680241209475E+02  0.1245435683555303E+02
  0.1239222279624750E+02  0.1233039873993757E+02  0.1226888312013668E+02  0.1220767439807357E+02  0.1214677104265385E+02
  0.1208617153042164E+02  0.1202587434552151E+02  0.1196587797966053E+02  0.1190618093207055E+02  0.1184678170947067E+02
  0.1178767882602989E+02  0.1172887080332990E+02  0.1167035617032816E+02  0.1161213346332107E+02  0.1155420122590733E+02
  0.1149655800895158E+02  0.1143920237054808E+02  0.1138213287598467E+02  0.1132534809770692E+02  0.1126884661528233E+02
  0.1121262701536490E+02  0.1115668789165971E+02  0.1110102784488773E+02  0.1104564548275090E+02  0.1099053941989723E+02
  0.1093570827788616E+02  0.1088115068515410E+02  0.1082686527698011E+02  0.1077285069545174E+02  0.1071910558943109E+02
  0.1066562861452104E+02  0.1061241843303155E+02  0.1055947371394624E+02  0.1050679313288909E+02  0.1045437537209134E+02
  0.1040221912035847E+02  0.1035032307303743E+02  0.1029868593198402E+02  0.1024730640553041E+02  0.1019618320845280E+02
  0.1014531506193930E+02  0.1009470069355796E+02  0.1004433883722489E+02  0.9994228233172626E+01  0.9944367627918609E+01
  0.9894755774233824E+01  0.9845391431111615E+01  0.9796273363736629E+01  0.9747400343453934E+01  0.9698771147738283E+01
  0.9650384560163531E+01  0.9602239370372221E+01  0.9554334374045277E+01  0.9506668372871923E+01  0.9459240174519664E+01
  0.9412048592604494E+01  0.9365092446661196E+01  0.9318370562113822E+01  0.9271881770246324E+01  0.9225624908173298E+01
  0.9179598818810913E+01  0.9133802350847951E+01  0.9088234358717028E+01  0.9042893702565920E+01  0.8997779248229049E+01
  0.8952889867199140E+01  0.8908224436598958E+01  0.8863781839153248E+01  0.8819560963160757E+01  0.8775560702466459E+01
  0.8731779956433858E+01  0.8688217629917478E+01  0.8644872633235444E+01  0.8601743882142255E+01  0.8558830297801636E+01
  0.8516130806759556E+01  0.8473644340917398E+01  0.8431369837505205E+01  0.8389306239055140E+01  0.8347452493374986E+01
  0.8305807553521865E+01  0.8264370377776025E+01  0.8223139929614792E+01  0.8182115177686660E+01  0.8141295095785440E+01
  0.8100678662824656E+01  0.8060264862811948E+01  0.8020052684823701E+01  0.7980041122979723E+01  0.7940229176418097E+01
  0.7900615849270158E+01  0.7861200150635561E+01  0.7821981094557506E+01  0.7782957699998069E+01  0.7744128990813674E+01
  0.7705493995730659E+01  0.7667051748320985E+01  0.7628801286978077E+01  0.7590741654892744E+01  0.7552871900029273E+01
  0.7515191075101582E+01  0.7477698237549561E+01  0.7440392449515463E+01  0.7403272777820461E+01  0.7366338293941305E+01
  0.7329588073987081E+01  0.7293021198676128E+01  0.7256636753313008E+01  0.7220433827765662E+01  0.7184411516442609E+01
  0.7148568918270316E+01  0.7112905136670657E+01  0.7077419279538469E+01  0.7042110459219260E+01  0.7006977792486984E+01
  0.6972020400521967E+01  0.6937237408888901E+01  0.6902627947514989E+01  0.6868191150668181E+01  0.6833926156935499E+01
  0.6799832109201521E+01  0.6765908154626902E+01  0.6732153444627077E+01  0.6698567134851014E+01  0.6665148385160088E+01
  0.6631896359607092E+01  0.6598810226415296E+01  0.6565889157957663E+01  0.6533132330736132E+01  0.6500538925361028E+01
  0.6468108126530559E+01  0.6435839123010425E+01  0.6403731107613530E+01  0.6371783277179778E+01  0.6339994832555998E+01
  0.6308364978575940E+01  0.6276892924040401E+01  0.6245577881697409E+01  0.6214419068222552E+01  0.6183415704199382E+01
  0.6152567014099904E+01  0.6121872226265191E+01  0.6091330572886071E+01  0.6060941289983933E+01  0.6030703617391607E+01
  0.6000616798734343E+01  0.5970680081410913E+01  0.5940892716574761E+01  0.5911253959115291E+01  0.5881763067639205E+01
  0.5852419304451987E+01  0.5823221935539425E+01  0.5794170230549263E+01  0.5765263462772928E+01  0.5736500909127352E+01
  0.5707881850136888E+01  0.5679405569915305E+01  0.5651071356147893E+01  0.5622878500073630E+01  0.5594826296467458E+01
  0.5566914043622658E+01  0.5539141043333267E+01  0.5511506600876642E+01  0.5484010024996064E+01  0.5456650627883457E+01
  0.5429427725162170E+01  0.5402340635869871E+01  0.5375388682441514E+01  0.5348571190692370E+01  0.5321887489801195E+01
  0.5295336912293414E+01  0.5268918794024458E+01  0.5242632474163123E+01  0.5216477295175064E+01  0.5190452602806326E+01
  0.5164557746066989E+01  0.5138792077214890E+01  0.5113154951739402E+01  0.5087645728345334E+01  0.5062263768936866E+01
  0.5037008438601614E+01  0.5011879105594724E+01  0.4986875141323075E+01  0.4961995920329573E+01  0.4937240820277482E+01
  0.4912609221934872E+01  0.4888100509159118E+01  0.4863714068881499E+01  0.4839449291091857E+01  0.4815305568823328E+01
  0.4791282298137189E+01  0.4767378878107709E+01  0.4743594710807158E+01  0.4719929201290817E+01  0.4696381757582123E+01
  0.4672951790657839E+01  0.4649638714433332E+01  0.4626441945747916E+01  0.4603360904350248E+01  0.4580395012883837E+01
  0.4557543696872576E+01  0.4534806384706396E+01  0.4512182507626949E+01  0.4489671499713386E+01  0.4467272797868215E+01
  0.4444985841803191E+01  0.4422810074025323E+01  0.4400744939822911E+01  0.4378789887251685E+01  0.4356944367120989E+01
  0.4335207832980044E+01  0.4313579741104286E+01  0.4292059550481755E+01  0.4270646722799576E+01  0.4249340722430470E+01
  0.4228141016419387E+01  0.4207047074470146E+01  0.4186058368932184E+01  0.4165174374787361E+01  0.4144394569636811E+01
  0.4123718433687896E+01  0.4103145449741183E+01  0.4082675103177523E+01  0.4062306881945164E+01  0.4042040276546953E+01
  0.4021874780027591E+01  0.4001809887960942E+01  0.3981845098437428E+01  0.3961979912051462E+01  0.3942213831888969E+01
  0.3922546363514941E+01  0.3902977014961077E+01  0.3883505296713483E+01  0.3864130721700414E+01  0.3844852805280101E+01
  0.3825671065228620E+01  0.3806585021727837E+01  0.3787594197353399E+01  0.3768698117062794E+01  0.3749896308183473E+01
  0.3731188300401015E+01  0.3712573625747377E+01  0.3694051818589175E+01  0.3675622415616046E+01  0.3657284955829051E+01
  0.3639038980529147E+01  0.3620884033305718E+01  0.3602819660025148E+01  0.3584845408819469E+01  0.3566960830075053E+01
  0.3549165476421371E+01  0.3531458902719796E+01  0.3513840666052469E+01  0.3496310325711228E+01  0.3478867443186569E+01
  0.3461511582156696E+01  0.3444242308476586E+01  0.3427059190167147E+01  0.3409961797404400E+01  0.3392949702508734E+01
  0.3376022479934208E+01  0.3359179706257899E+01  0.3342420960169322E+01  0.3325745822459876E+01  0.3309153876012378E+01
  0.3292644705790609E+01  0.3276217898828942E+01  0.3259873044222014E+01  0.3243609733114440E+01  0.3227427558690596E+01
  0.3211326116164429E+01  0.3195305002769346E+01  0.3179363817748130E+01  0.3163502162342914E+01  0.3147719639785218E+01
  0.3132015855286007E+01  0.3116390416025835E+01  0.3100842931144998E+01  0.3085373011733776E+01  0.3069980270822693E+01
  0.3054664323372838E+01  0.3039424786266242E+01  0.3024261278296282E+01  0.3009173420158158E+01  0.2994160834439393E+01
  0.2979223145610404E+01  0.2964359980015098E+01  0.2949570965861534E+01  0.2934855733212615E+01  0.2920213913976837E+01
  0.2905645141899088E+01  0.2891149052551476E+01  0.2876725283324221E+01  0.2862373473416578E+01  0.2848093263827819E+01
  0.2833884297348246E+01  0.2819746218550260E+01  0.2805678673779470E+01  0.2791681311145843E+01  0.2777753780514909E+01
  0.2763895733498990E+01  0.2750106823448503E+01  0.2736386705443271E+01  0.2722735036283906E+01  0.2709151474483222E+01
  0.2695635680257691E+01  0.2682187315518945E+01  0.2668806043865317E+01  0.2655491530573432E+01  0.2642243442589826E+01
  0.2629061448522619E+01  0.2615945218633227E+01  0.2602894424828109E+01  0.2589908740650569E+01  0.2576987841272576E+01
  0.2564131403486653E+01  0.2551339105697783E+01  0.2538610627915364E+01  0.2525945651745218E+01  0.2513343860381604E+01
  0.2500804938599314E+01  0.2488328572745777E+01  0.2475914450733217E+01  0.2463562262030845E+01  0.2451271697657091E+01
  0.2439042450171871E+01  0.2426874213668910E+01  0.2414766683768074E+01  0.2402719557607769E+01  0.2390732533837354E+01
  0.2378805312609610E+01  0.2366937595573241E+01  0.2355129085865401E+01  0.2343379488104283E+01  0.2331688508381715E+01
  0.2320055854255819E+01  0.2308481234743693E+01  0.2296964360314127E+01  0.2285504942880369E+01  0.2274102695792912E+01
  0.2262757333832328E+01  0.2251468573202130E+01  0.2240236131521676E+01  0.2229059727819103E+01  0.2217939082524298E+01
  0.2206873917461913E+01  0.2195863955844394E+01  0.2184908922265064E+01  0.2174008542691236E+01  0.2163162544457355E+01
  0.2152370656258177E+01  0.2141632608141983E+01  0.2130948131503831E+01  0.2120316959078826E+01  0.2109738824935448E+01
  0.2099213464468890E+01  0.2088740614394445E+01  0.2078320012740915E+01  0.2067951398844060E+01  0.2057634513340082E+01
  0.2047369098159131E+01  0.2037154896518852E+01  0.2026991652917962E+01  0.2016879113129860E+01  0.2006817024196262E+01
  0.1996805134420884E+01  0.1986843193363134E+01  0.1976930951831857E+01  0.1967068161879093E+01  0.1957254576793888E+01
  0.1947489951096105E+01  0.1937774040530297E+01  0.1928106602059593E+01  0.1918487393859615E+01  0.1908916175312439E+01
  0.1899392707000563E+01  0.1889916750700928E+01  0.1880488069378951E+01  0.1871106427182609E+01  0.1861771589436522E+01
  0.1852483322636096E+01  0.1843241394441676E+01  0.1834045573672734E+01  0.1824895630302092E+01  0.1815791335450161E+01
  0.1806732461379218E+01  0.1797718781487711E+01  0.1788750070304588E+01  0.1779826103483662E+01  0.1770946657797993E+01
  0.1762111511134308E+01  0.1753320442487439E+01  0.1744573231954808E+01  0.1735869660730913E+01  0.1727209511101859E+01
  0.1718592566439913E+01  0.1710018611198084E+01  0.1701487430904737E+01  0.1692998812158218E+01  0.1684552542621520E+01
  0.1676148411016978E+01  0.1667786207120972E+01  0.1659465721758683E+01  0.1651186746798847E+01  0.1642949075148554E+01
  0.1634752500748069E+01  0.1626596818565680E+01  0.1618481824592563E+01  0.1610407315837681E+01  0.1602373090322708E+01
  0.1594378947076976E+01  0.1586424686132448E+01  0.1578510108518716E+01  0.1570635016258020E+01  0.1562799212360304E+01
  0.1555002500818277E+01  0.1547244686602526E+01  0.1539525575656621E+01  0.1531844974892268E+01  0.1524202692184481E+01
  0.1516598536366775E+01  0.1509032317226381E+01  0.1501503845499490E+01  0.1494012932866521E+01  0.1486559391947403E+01
  0.1479143036296900E+01  0.1471763680399936E+01  0.1464421139666958E+01  0.1457115230429320E+01  0.1449845769934687E+01
  0.1442612576342469E+01  0.1435415468719262E+01  0.1428254267034329E+01  0.1421128792155095E+01  0.1414038865842673E+01
  0.1406984310747391E+01  0.1399964950404368E+01  0.1392980609229093E+01  0.1386031112513036E+01  0.1379116286419282E+01
  0.1372235957978172E+01  0.1365389955082984E+01  0.1358578106485627E+01  0.1351800241792355E+01  0.1345056191459507E+01
  0.1338345786789265E+01  0.1331668859925434E+01  0.1325025243849241E+01  0.1318414772375165E+01  0.1311837280146769E+01
  0.1305292602632572E+01  0.1298780576121929E+01  0.1292301037720938E+01  0.1285853825348365E+01  0.1279438777731591E+01
  0.1273055734402571E+01  0.1266704535693831E+01  0.1260385022734464E+01  0.1254097037446163E+01  0.1247840422539263E+01
  0.1241615021508805E+01  0.1235420678630626E+01  0.1229257238957463E+01  0.1223124548315071E+01  0.1217022453298373E+01
  0.1210950801267620E+01  0.1204909440344570E+01  0.1198898219408700E+01  0.1192916988093409E+01  0.1186965596782270E+01
  0.1181043896605282E+01  0.1175151739435145E+01  0.1169288977883560E+01  0.1163455465297537E+01  0.1157651055755727E+01
  0.1151875604064775E+01  0.1146128965755685E+01  0.1140410997080209E+01  0.1134721555007247E+01  0.1129060497219273E+01
  0.1123427682108772E+01  0.1117822968774704E+01  0.1112246217018969E+01  0.1106697287342910E+01  0.1101176040943817E+01
  0.1095682339711457E+01  0.1090216046224620E+01  0.1084777023747682E+01  0.1079365136227181E+01  0.1073980248288416E+01
  0.1068622225232065E+01  0.1063290933030804E+01  0.1057986238325968E+01  0.1052708008424204E+01  0.1047456111294158E+01
  0.1042230415563171E+01  0.1037030790513991E+01  0.1031857106081505E+01  0.1026709232849482E+01  0.1021587042047343E+01
  0.1016490405546931E+01  0.1011419195859311E+01  0.1006373286131580E+01  0.1001352550143693E+01  0.9963568623053076E+00
  0.9913860976526379E+00  0.9864401318453330E+00  0.9815188411633639E+00  0.9766221025039292E+00  0.9717497933783782E+00
  0.9669017919091423E+00  0.9620779768266881E+00  0.9572782274664833E+00  0.9525024237659819E+00  0.9477504462616145E+00
  0.9430221760858037E+00  0.9383174949639891E+00  0.9336362852116691E+00  0.9289784297314585E+00  0.9243438120101554E+00
  0.9197323161158284E+00  0.9151438266949172E+00  0.9105782289693449E+00  0.9060354087336498E+00  0.9015152523521245E+00
  0.8970176467559747E+00  0.8925424794404899E+00  0.8880896384622325E+00  0.8836590124362312E+00  0.8792504905331985E+00
  0.8748639624767565E+00  0.8704993185406783E+00  0.8661564495461441E+00  0.8618352468590077E+00  0.8575356023870790E+00
  0.8532574085774205E+00  0.8490005584136550E+00  0.8447649454132925E+00  0.8405504636250590E+00  0.8363570076262511E+00
  0.8321844725200951E+00  0.8280327539331270E+00  0.8239017480125750E+00  0.8197913514237652E+00  0.8157014613475349E+00
  0.8116319754776585E+00  0.8075827920182923E+00  0.8035538096814210E+00  0.7995449276843272E+00  0.7955560457470695E+00
  0.7915870640899706E+00  0.7876378834311252E+00  0.7837084049839101E+00  0.7797985304545161E+00  0.7759081620394855E+00
  0.7720372024232688E+00  0.7681855547757837E+00  0.7643531227499958E+00  0.7605398104795061E+00  0.7567455225761516E+00
  0.7529701641276201E+00  0.7492136406950712E+00  0.7454758583107746E+00  0.7417567234757587E+00  0.7380561431574687E+00
  0.7343740247874411E+00  0.7307102762589820E+00  0.7270648059248657E+00  0.7234375225950371E+00  0.7198283355343341E+00
  0.7162371544602094E+00  0.7126638895404754E+00  0.7091084513910532E+00  0.7055707510737348E+00  0.7020507000939584E+00
  0.6985482103985894E+00  0.6950631943737176E+00  0.6915955648424630E+00  0.6881452350627927E+00  0.6847121187253509E+00
  0.6812961299512926E+00  0.6778971832901377E+00  0.6745151937176271E+00  0.6711500766335982E+00  0.6678017478598597E+00
  0.6644701236380873E+00  0.6611551206277239E+00  0.6578566559038919E+00  0.6545746469553176E+00  0.6513090116822609E+00
  0.6480596683944595E+00  0.6448265358090831E+00  0.6416095330486941E+00  0.6384085796392248E+00  0.6352235955079554E+00
  0.6320545009815103E+00  0.6289012167838605E+00  0.6257636640343370E+00  0.6226417642456508E+00  0.6195354393219272E+00
  0.6164446115567478E+00  0.6133692036311995E+00  0.6103091386119394E+00  0.6072643399492610E+00  0.6042347314751773E+00
  0.6012202374015070E+00  0.5982207823179777E+00  0.5952362911903285E+00  0.5922666893584309E+00  0.5893119025344131E+00
  0.5863718568007955E+00  0.5834464786086376E+00  0.5805356947756879E+00  0.5776394324845487E+00  0.5747576192808462E+00
  0.5718901830714117E+00  0.5690370521224711E+00  0.5661981550578409E+00  0.5633734208571358E+00  0.5605627788539836E+00
  0.5577661587342506E+00  0.5549834905342713E+00  0.5522147046390904E+00  0.5494597317807129E+00  0.5467185030363605E+00
  0.5439909498267396E+00  0.5412770039143129E+00  0.5385765974015840E+00  0.5358896627293884E+00  0.5332161326751905E+00
  0.5305559403513941E+00  0.5279090192036536E+00  0.5252753030092000E+00  0.5226547258751699E+00  0.5200472222369481E+00
  0.5174527268565091E+00  0.5148711748207759E+00  0.5123025015399814E+00  0.5097466427460368E+00  0.5072035344909124E+00
  0.5046731131450205E+00  0.5021553153956084E+00  0.4996500782451600E+00  0.4971573390098021E+00  0.4946770353177223E+00
  0.4922091051075881E+00  0.4897534866269785E+00  0.4873101184308212E+00  0.4848789393798373E+00  0.4824598886389909E+00
  0.4800529056759494E+00  0.4776579302595480E+00  0.4752749024582624E+00  0.4729037626386897E+00  0.4705444514640321E+00
  0.4681969098925919E+00  0.4658610791762711E+00  0.4635369008590776E+00  0.4612243167756402E+00  0.4589232690497259E+00
  0.4566337000927687E+00  0.4543555526024010E+00  0.4520887695609956E+00  0.4498332942342088E+00  0.4475890701695341E+00
  0.4453560411948614E+00  0.4431341514170403E+00  0.4409233452204528E+00  0.4387235672655898E+00  0.4365347624876338E+00
  0.4343568760950495E+00  0.4321898535681791E+00  0.4300336406578424E+00  0.4278881833839445E+00  0.4257534280340891E+00
  0.4236293211621983E+00  0.4215158095871344E+00  0.4194128403913322E+00  0.4173203609194341E+00  0.4152383187769311E+00
  0.4131666618288108E+00  0.4111053381982080E+00  0.4090542962650628E+00  0.4070134846647840E+00  0.4049828522869166E+00
  0.4029623482738168E+00  0.4009519220193277E+00  0.3989515231674652E+00  0.3969611016111056E+00  0.3949806074906804E+00
  0.3930099911928728E+00  0.3910492033493230E+00  0.3890981948353352E+00  0.3871569167685903E+00  0.3852253205078657E+00
  0.3833033576517542E+00  0.3813909800373927E+00  0.3794881397391930E+00  0.3775947890675771E+00  0.3757108805677185E+00
  0.3738363670182842E+00  0.3719712014301849E+00  0.3701153370453265E+00  0.3682687273353688E+00  0.3664313260004836E+00
  0.3646030869681219E+00  0.3627839643917803E+00  0.3609739126497755E+00  0.3591728863440199E+00  0.3573808402988008E+00
  0.3555977295595645E+00  0.3538235093917040E+00  0.3520581352793484E+00  0.3503015629241588E+00  0.3485537482441235E+00
  0.3468146473723601E+00  0.3450842166559193E+00  0.3433624126545918E+00  0.3416491921397178E+00  0.3399445120930008E+00
  0.3382483297053234E+00  0.3365606023755655E+00  0.3348812877094278E+00  0.3332103435182533E+00  0.3315477278178561E+00
  0.3298933988273503E+00  0.3282473149679815E+00  0.3266094348619622E+00  0.3249797173313066E+00  0.3233581213966706E+00
  0.3217446062761914E+00  0.3201391313843330E+00  0.3185416563307277E+00  0.3169521409190249E+00  0.3153705451457390E+00
  0.3137968291990998E+00  0.3122309534579049E+00  0.3106728784903718E+00  0.3091225650529939E+00  0.3075799740893959E+00
  0.3060450667291916E+00  0.3045178042868433E+00  0.3029981482605201E+00  0.3014860603309592E+00  0.2999815023603278E+00
  0.2984844363910859E+00  0.2969948246448483E+00  0.2955126295212490E+00  0.2940378135968051E+00  0.2925703396237823E+00
  0.2911101705290596E+00  0.2896572694129937E+00  0.2882115995482853E+00  0.2867731243788438E+00  0.2853418075186537E+00
  0.2839176127506383E+00  0.2825005040255252E+00  0.2810904454607108E+00  0.2796874013391236E+00  0.2782913361080892E+00
  0.2769022143781902E+00  0.2755200009221300E+00  0.2741446606735929E+00  0.2727761587261034E+00  0.2714144603318865E+00
  0.2700595309007228E+00  0.2687113359988051E+00  0.2673698413475940E+00  0.2660350128226692E+00  0.2647068164525812E+00
  0.2633852184177002E+00  0.2620701850490633E+00  0.2607616828272198E+00  0.2594596783810740E+00  0.2581641384867250E+00
  0.2568750300663062E+00  0.2555923201868188E+00  0.2543159760589653E+00  0.2530459650359809E+00  0.2517822546124572E+00
  0.2505248124231686E+00  0.2492736062418909E+00  0.2480286039802206E+00  0.2467897736863858E+00  0.2455570835440580E+00
  0.2443305018711579E+00  0.2431099971186572E+00  0.2418955378693777E+00  0.2406870928367842E+00  0.2394846308637750E+00
  0.2382881209214667E+00  0.2370975321079754E+00  0.2359128336471921E+00  0.2347339948875541E+00  0.2335609853008102E+00
  0.2323937744807826E+00  0.2312323321421223E+00  0.2300766281190582E+00  0.2289266323641422E+00  0.2277823149469884E+00
  0.2266436460530049E+00  0.2255105959821223E+00  0.2243831351475120E+00  0.2232612340743025E+00  0.2221448633982863E+00
  0.2210339938646211E+00  0.2199285963265255E+00  0.2188286417439646E+00  0.2177341011823318E+00  0.2166449458111217E+00
  0.2155611469025966E+00  0.2144826758304440E+00  0.2134095040684282E+00  0.2123416031890330E+00  0.2112789448620965E+00
  0.2102215008534394E+00  0.2091692430234821E+00  0.2081221433258564E+00  0.2070801738060069E+00  0.2060433065997841E+00
  0.2050115139320305E+00  0.2039847681151540E+00  0.2029630415476959E+00  0.2019463067128882E+00  0.2009345361772017E+00
  0.1999277025888844E+00  0.1989257786764906E+00  0.1979287372474006E+00  0.1969365511863307E+00  0.1959491934538321E+00
  0.1949666370847816E+00  0.1939888551868599E+00  0.1930158209390220E+00  0.1920475075899558E+00  0.1910838884565309E+00
  0.1901249369222356E+00  0.1891706264356057E+00  0.1882209305086396E+00  0.1872758227152060E+00  0.1863352766894373E+00
  0.1853992661241141E+00  0.1844677647690391E+00  0.1835407464293980E+00  0.1826181849641121E+00  0.1817000542841763E+00
  0.1807863283509893E+00  0.1798769811746710E+00  0.1789719868123687E+00  0.1780713193665528E+00  0.1771749529833008E+00
  0.1762828618505705E+00  0.1753950201964619E+00  0.1745114022874689E+00  0.1736319824267184E+00  0.1727567349522000E+00
  0.1718856342349843E+00  0.1710186546774304E+00  0.1701557707113839E+00  0.1692969567963619E+00  0.1684421874177307E+00
  0.1675914370848719E+00  0.1667446803293377E+00  0.1659018917029993E+00  0.1650630457761823E+00  0.1642281171357953E+00
  0.1633970803834489E+00  0.1625699101335659E+00  0.1617465810114831E+00  0.1609270676515452E+00  0.1601113446951909E+00
  0.1592993867890324E+00  0.1584911685829278E+00  0.1576866647280462E+00  0.1568858498749286E+00  0.1560886986715422E+00
  0.1552951857613313E+00  0.1545052857812622E+00  0.1537189733598663E+00  0.1529362231152792E+00  0.1521570096532786E+00
  0.1513813075653205E+00  0.1506090914265738E+00  0.1498403357939570E+00  0.1490750152041748E+00  0.1483131041717569E+00
  0.1475545771871007E+00  0.1467994087145170E+00  0.1460475731902820E+00  0.1452990450206944E+00  0.1445537985801421E+00
  0.1438118082091754E+00  0.1430730482125922E+00  0.1423374928575340E+00  0.1416051163715952E+00  0.1408758929409473E+00
  0.1401497967084784E+00  0.1394268017719518E+00  0.1387068821821833E+00  0.1379900119412407E+00  0.1372761650006671E+00
  0.1365653152597278E+00  0.1358574365636867E+00  0.1351525027021122E+00  0.1344504874072142E+00  0.1337513643522159E+00
  0.1330551071497630E+00  0.1323616893503717E+00  0.1316710844409191E+00  0.1309832658431786E+00  0.1302982069124035E+00
  0.1296158809359597E+00  0.1289362611320155E+00  0.1282593206482850E+00  0.1275850325608357E+00  0.1269133698729563E+00
  0.1262443055140966E+00  0.1255778123388745E+00  0.1249138631261624E+00  0.1242524305782490E+00  0.1235934873200886E+00
  0.1229370058986348E+00  0.1222829587822699E+00  0.1216313183603274E+00  0.1209820569427202E+00  0.1203351467596717E+00
  0.1196905599615618E+00  0.1190482686188874E+00  0.1184082447223465E+00  0.1177704601830489E+00  0.1171348868328627E+00
  0.1165014964248970E+00  0.1158702606341332E+00  0.1152411510582048E+00  0.1146141392183385E+00  0.1139891965604567E+00
  0.1133662944564539E+00  0.1127454042056487E+00  0.1121264970364241E+00  0.1115095441080555E+00  0.1108945165127442E+00
  0.1102813852778530E+00  0.1096701213683603E+00  0.1090606956895341E+00  0.1084530790898397E+00  0.1078472423640842E+00
  0.1072431562568093E+00  0.1066407914659384E+00  0.1060401186466907E+00  0.1054411084157645E+00  0.1048437313558057E+00
  0.1042479580201642E+00  0.1036537589379524E+00  0.1030611046194091E+00  0.1024699655615860E+00  0.1018803122543562E+00
  0.1012921151867636E+00  0.1007053448537145E+00  0.1001199717630270E+00  0.9953596644284322E-01  0.9895329944941622E-01
  0.9837194137527859E-01  0.9779186285780582E-01  0.9721303458817787E-01  0.9663542732075460E-01  0.9605901188286757E-01
  0.9548375918504254E-01  0.9490964023165617E-01  0.9433662613204052E-01  0.9376468811203847E-01  0.9319379752602147E-01
  0.9262392586937451E-01  0.9205504479145887E-01  0.9148712610905450E-01  0.9092014182029380E-01  0.9035406411908709E-01
  0.8978886541005111E-01  0.8922451832393877E-01  0.8866099573358083E-01  0.8809827077033669E-01  0.8753631684106278E-01
  0.8697510764559493E-01  0.8641461719475237E-01  0.8585481982885609E-01  0.8529569023676807E-01  0.8473720347544372E-01
  0.8417933499000034E-01  0.8362206063429199E-01  0.8306535669199151E-01  0.8250919989816777E-01  0.8195356746135671E-01
  0.8139843708611046E-01  0.8084378699602121E-01  0.8028959595720159E-01  0.7973584330221313E-01  0.7918250895442396E-01
  0.7862957345278312E-01  0.7807701797698807E-01  0.7752482437303050E-01  0.7697297517909307E-01  0.7642145365177852E-01
  0.7587024379264007E-01  0.7531933037498927E-01  0.7476869897094761E-01  0.7421833597871456E-01  0.7366822865001138E-01
  0.7311836511767149E-01  0.7256873442333216E-01  0.7201932654519207E-01  0.7147013242578727E-01  0.7092114399974485E-01
  0.7037235422146181E-01  0.6982375709266450E-01  0.6927534768979134E-01  0.6872712219115096E-01  0.6817907790379274E-01
  0.6763121329003750E-01  0.6708352799360275E-01  0.6653602286526511E-01  0.6598869998799024E-01  0.6544156270146985E-01
  0.6489461562599223E-01  0.6434786468558229E-01  0.6380131713033498E-01  0.6325498155787540E-01  0.6270886793386675E-01
  0.6216298761149602E-01  0.6161735334985851E-01  0.6107197933116990E-01  0.6052688117672346E-01  0.5998207596152218E-01
  0.5943758222750336E-01  0.5889341999528537E-01  0.5834961077435446E-01  0.5780617757162282E-01  0.5726314489827842E-01
  0.5672053877485894E-01  0.5617838673447394E-01  0.5563671782411197E-01  0.5509556260395958E-01  0.5455495314467407E-01
  0.5401492302254316E-01  0.5347550731247924E-01  0.5293674257878810E-01  0.5239866686366625E-01  0.5186131967337615E-01
  0.5132474196206257E-01  0.5078897611316670E-01  0.5025406591841267E-01  0.4972005655433432E-01  0.4918699455632575E-01
  0.4865492779019723E-01  0.4812390542123239E-01  0.4759397788073941E-01  0.4706519683010621E-01  0.4653761512236627E-01
  0.4601128676129938E-01  0.4548626685808752E-01  0.4496261158556435E-01  0.4444037813009511E-01  0.4391962464113960E-01
  0.4340041017854919E-01  0.4288279465766724E-01  0.4236683879229843E-01  0.4185260403563086E-01  0.4134015251919205E-01
  0.4082954698993753E-01  0.4032085074556714E-01  0.3981412756818076E-01  0.3930944165638359E-01  0.3880685755596574E-01
  0.3830644008927733E-01  0.3780825428343612E-01  0.3731236529750016E-01  0.3681883834875340E-01  0.3632773863824419E-01
  0.3583913127573446E-01  0.3535308120420716E-01  0.3486965312409470E-01  0.3438891141738304E-01  0.3391092007175771E-01
  0.3343574260494972E-01  0.3296344198944887E-01  0.3249408057774432E-01  0.3202772002825971E-01  0.3156442123213984E-01
  0.3110424424105388E-01  0.3064724819616885E-01  0.3019349125845291E-01  0.2974303054045493E-01  0.2929592203971331E-01
  0.2885222057393217E-01  0.2841197971806674E-01  0.2797525174344688E-01  0.2754208755906863E-01  0.2711253665516936E-01
  0.2668664704920322E-01  0.2626446523431851E-01  0.2584603613043887E-01  0.2543140303803369E-01  0.2502060759466296E-01
  0.2461368973436652E-01  0.2421068764996543E-01  0.2381163775832649E-01  0.2341657466864229E-01  0.2302553115375722E-01
  0.2263853812457595E-01  0.2225562460756663E-01  0.2187681772537530E-01  0.2150214268054858E-01  0.2113162274236197E-01
  0.2076527923673408E-01  0.2040313153920725E-01  0.2004519707095878E-01  0.1969149129780622E-01  0.1934202773215659E-01
  0.1899681793784871E-01  0.1865587153782297E-01  0.1831919622455551E-01  0.1798679777317806E-01  0.1765868005720903E-01
  0.1733484506680619E-01  0.1701529292945567E-01  0.1670002193299981E-01  0.1638902855090838E-01  0.1608230746968974E-01
  0.1577985161834003E-01  0.1548165219971997E-01  0.1518769872375356E-01  0.1489797904233423E-01  0.1461247938582965E-01
  0.1433118440106910E-01  0.1405407719070160E-01  0.1378113935381017E-01  0.1351235102767023E-01  0.1324769093053693E-01
  0.1298713640535305E-01  0.1273066346426375E-01  0.1247824683383248E-01  0.1222986000084871E-01  0.1198547525862555E-01
  0.1174506375368265E-01  0.1150859553271700E-01  0.1127603958976377E-01  0.1104736391345541E-01  0.1082253553428650E-01
  0.1060152057180050E-01  0.1038428428161225E-01  0.1017079110218939E-01  0.9961004701314186E-02  0.9754888022156202E-02
  0.9552403328885361E-02  0.9353512251762520E-02  0.9158175831645849E-02  0.8966354563857934E-02  0.8778008441358731E-02
  0.8593096997177663E-02  0.8411579346057628E-02  0.8233414225271553E-02  0.8058560034572065E-02  0.7886974875241424E-02
  0.7718616588210258E-02  0.7553442791219276E-02  0.7391410914998372E-02  0.7232478238444783E-02  0.7076601922780789E-02
  0.6923739044678624E-02  0.6773846628339322E-02  0.6626881676518612E-02  0.6482801200492305E-02  0.6341562248958887E-02
  0.6203121935877438E-02  0.6067437467243085E-02  0.5934466166802058E-02  0.5804165500713337E-02  0.5676493101162639E-02
  0.5551406788939368E-02  0.5428864594985847E-02  0.5308824780932541E-02  0.5191245858631792E-02  0.5076086608705643E-02
  0.4963306098124357E-02  0.4852863696831813E-02  0.4744719093437454E-02  0.4638832309992487E-02  0.4535163715871689E-02
  0.4433674040780180E-02  0.4334324386907276E-02  0.4237076240248505E-02  0.4141891481118579E-02  0.4048732393876928E-02
  0.3957561675889653E-02  0.3868342445749651E-02  0.3781038250779224E-02  0.3695613073837235E-02  0.3612031339454975E-02
  0.3530257919323150E-02  0.3450258137153541E-02  0.3371997772937902E-02  0.3295443066627375E-02  0.3220560721254241E-02
  0.3147317905519087E-02  0.3075682255864577E-02  0.3005621878058335E-02  0.2937105348305412E-02  0.2870101713912180E-02
  0.2804580493521367E-02  0.2740511676939070E-02  0.2677865724572914E-02  0.2616613566501248E-02  0.2556726601191405E-02
  0.2498176693886228E-02  0.2440936174675901E-02  0.2384977836273245E-02  0.2330274931508669E-02  0.2276801170561717E-02
  0.2224530717944709E-02  0.2173438189254291E-02  0.2123498647705247E-02  0.2074687600461683E-02  0.2026980994778744E-02
  0.1980355213969023E-02  0.1934787073205941E-02  0.1890253815177195E-02  0.1846733105599716E-02  0.1804203028608086E-02
  0.1762642082027184E-02  0.1722029172539990E-02  0.1682343610760377E-02  0.1643565106221037E-02  0.1605673762285434E-02
  0.1568650070993183E-02  0.1532474907846878E-02  0.1497129526548942E-02  0.1462595553695867E-02  0.1428854983437463E-02
  0.1395890172107940E-02  0.1363683832835682E-02  0.1332219030137741E-02  0.1301479174505360E-02  0.1271448016985831E-02
  0.1242109643766420E-02  0.1213448470765046E-02  0.1185449238232758E-02  0.1158097005372279E-02  0.1131377144977081E-02
  0.1105275338094631E-02  0.1079777568717857E-02  0.1054870118507971E-02  0.1030539561552203E-02  0.1006772759159176E-02
  0.9835568546949841E-03  0.9608792684623580E-03  0.9387276926254839E-03  0.9170900861825850E-03  0.8959546699884448E-03
  0.8753099218285459E-03  0.8551445715467759E-03  0.8354475962280100E-03  0.8162082154372082E-03  0.7974158865161049E-03
  0.7790602999387604E-03  0.7611313747268575E-03  0.7436192539257958E-03  0.7265143001421348E-03  0.7098070911432751E-03
  0.6934884155197156E-03  0.6775492684105602E-03  0.6619808472924562E-03  0.6467745478323614E-03  0.6319219598042692E-03
  0.6174148630701025E-03  0.6032452236246738E-03  0.5894051897048740E-03  0.5758870879628093E-03  0.5626834197029325E-03
  0.5497868571827768E-03  0.5371902399772088E-03  0.5248865714057514E-03  0.5128690150227135E-03  0.5011308911696824E-03
  0.4896656735900000E-03  0.4784669861046478E-03  0.4675285993491784E-03  0.4568444275709877E-03  0.4464085254865286E-03
  0.4362150851977324E-03  0.4262584331671087E-03  0.4165330272508285E-03  0.4070334537891976E-03  0.3977544247537412E-03
  0.3886907749503229E-03  0.3798374592774723E-03  0.3711895500393104E-03  0.3627422343122355E-03  0.3544908113647237E-03
  0.3464306901294158E-03  0.3385573867267772E-03  0.3308665220395444E-03  0.3233538193372266E-03  0.3160151019498274E-03
  0.3088462909900902E-03  0.3018434031234184E-03  0.2950025483847642E-03  0.2883199280416404E-03  0.2817918325025588E-03
  0.2754146392700521E-03  0.2691848109375619E-03  0.2630988932293901E-03  0.2571535130830007E-03  0.2513453767728458E-03
  0.2456712680750440E-03  0.2401280464720899E-03  0.2347126453969185E-03  0.2294220705155430E-03  0.2242533980475701E-03
  0.2192037731238487E-03  0.2142704081805782E-03  0.2094505813891135E-03  0.2047416351208399E-03  0.2001409744463608E-03
  0.1956460656683834E-03  0.1912544348875713E-03  0.1869636666007566E-03  0.1827714023308163E-03  0.1786753392875936E-03
  0.1746732290592140E-03  0.1707628763331939E-03  0.1669421376466886E-03  0.1632089201653166E-03  0.1595611804899180E-03
  0.1559969234907074E-03  0.1525142011681914E-03  0.1491111115403304E-03  0.1457857975553497E-03  0.1425364460296699E-03
  0.1393612866104027E-03  0.1362585907619030E-03  0.1332266707758221E-03  0.1302638788041883E-03  0.1273686059149748E-03
  0.1245392811696945E-03  0.1217743707225102E-03  0.1190723769404028E-03  0.1164318375439174E-03  0.1138513247680475E-03
  0.1113294445427815E-03  0.1088648356929047E-03  0.1064561691565906E-03  0.1041021472223893E-03  0.1018015027841725E-03
  0.9955299861365176E-04  0.9735542665005118E-04  0.9520760730655940E-04  0.9310838879316832E-04  0.9105664645553734E-04
  0.8905128212949601E-04  0.8709122351085237E-04  0.8517542354012717E-04  0.8330285980189744E-04  0.8147253393838788E-04
  0.7968347107700194E-04  0.7793471927145245E-04  0.7622534895618816E-04  0.7455445241379827E-04  0.7292114325510524E-04
  0.7132455591163138E-04  0.6976384514017257E-04  0.6823818553917322E-04  0.6674677107664728E-04  0.6528881462935786E-04
  0.6386354753300131E-04  0.6247021914312950E-04  0.6110809640656909E-04  0.5977646344307293E-04  0.5847462113698161E-04
  0.5720188673864046E-04  0.5595759347535764E-04  0.5474109017166229E-04  0.5355174087865664E-04  0.5238892451223443E-04
  0.5125203449996228E-04  0.5014047843641441E-04  0.4905367774676518E-04  0.4799106735843266E-04  0.4695209538059427E-04
  0.4593622279137435E-04  0.4494292313253164E-04  0.4397168221145717E-04  0.4302199781031856E-04  0.4209337940217008E-04
  0.4118534787386882E-04  0.4029743525562869E-04  0.3942918445706054E-04  0.3858014900953277E-04  0.3774989281471203E-04
  0.3693798989912511E-04  0.3614402417460727E-04  0.3536758920448792E-04  0.3460828797538057E-04  0.3386573267443911E-04
  0.3313954447195387E-04  0.3242935330915165E-04  0.3173479769108324E-04  0.3105552448446697E-04  0.3039118872037822E-04
  0.2974145340165887E-04  0.2910598931494197E-04  0.2848447484717311E-04  0.2787659580652480E-04  0.2728204524759495E-04
  0.2670052330079027E-04  0.2613173700578738E-04  0.2557540014898093E-04  0.2503123310481461E-04  0.2449896268090950E-04
  0.2397832196689004E-04  0.2346905018682605E-04  0.2297089255519751E-04  0.2248360013630073E-04  0.2200692970701068E-04
  0.2154064362282146E-04  0.2108450968708122E-04  0.2063830102334971E-04  0.2020179595079813E-04  0.1977477786258235E-04
  0.1935703510711403E-04  0.1894836087216211E-04  0.1854855307171489E-04  0.1815741423553832E-04  0.1777475140136153E-04
  0.1740037600963127E-04  0.1703410380076816E-04  0.1667575471486895E-04  0.1632515279379206E-04  0.1598212608557205E-04
  0.1564650655110433E-04  0.1531812997304719E-04  0.1499683586688613E-04  0.1468246739411084E-04  0.1437487127745008E-04
  0.1407389771811970E-04  0.1377940031503016E-04  0.1349123598591136E-04  0.1320926489030400E-04  0.1293335035437666E-04
  0.1266335879752142E-04  0.1239915966068717E-04  0.1214062533640770E-04  0.1188763110048525E-04  0.1164005504528736E-04
  0.1139777801462121E-04  0.1116068354014432E-04  0.1092865777927793E-04  0.1070158945458424E-04  0.1047936979457406E-04
  0.1026189247590950E-04  0.1004905356696961E-04  0.9840751472743999E-05  0.9636886881025493E-05  0.9437362709867539E-05
  0.9242084056279131E-05  0.9050958146124725E-05  0.8863894285202863E-05  0.8680803811473230E-05  0.8501600048405910E-05
  0.8326198259425193E-05  0.8154515603422889E-05  0.7986471091313695E-05  0.7821985543610048E-05  0.7660981548989705E-05
  0.1628546925205847E+03  0.1628546925205847E+03  0.1628546925205847E+03  0.1628546925205847E+03  0.1628546925205847E+03
  0.1628546925205847E+03  0.1628546925205847E+03  0.1628546925205847E+03  0.1628546925205847E+03  0.1628546925205847E+03
  0.1628546925205847E+03  0.1628546925205847E+03  0.1628546925205847E+03  0.1628546925205847E+03  0.1628546925205847E+03
  0.1628546925205847E+03  0.1628546925205847E+03  0.1628546925205847E+03  0.1628546925205847E+03  0.1628546925205847E+03
  0.1628546925205847E+03  0.1628546925205847E+03  0.1628546925205847E+03  0.1628546925205847E+03  0.1628546925205847E+03
  0.1628546925205847E+03  0.1628546925205847E+03  0.1628546925205847E+03  0.1628546925205847E+03  0.1628546925205847E+03
  0.1628546925205847E+03  0.1628546925205847E+03  0.1628546925205847E+03  0.1628546925205847E+03  0.1628546925205847E+03
  0.1628546925205847E+03  0.1628546925205847E+03  0.1628546925205847E+03  0.1628546925205847E+03  0.1628546925205847E+03
  0.1628546925205847E+03  0.1628546925205847E+03  0.1628546925205847E+03  0.1628546925205847E+03  0.1628546925205847E+03
  0.1628546925205847E+03  0.1628546925205847E+03  0.1628546925205847E+03  0.1628546925205847E+03  0.1628546925205847E+03
  0.1628546925205847E+03  0.1628546925205847E+03  0.1628546925205847E+03  0.1628546925205847E+03  0.1628546925205847E+03
  0.1628546925205847E+03  0.1628546925205847E+03  0.1628546925205847E+03  0.1628546925205847E+03  0.1628546925205847E+03
  0.1628546925205847E+03  0.1628546925205847E+03  0.1628546925205847E+03  0.1628546925205847E+03  0.1628546925205847E+03
  0.1628546925205847E+03  0.1628546925205847E+03  0.1628546925205847E+03  0.1628546925205847E+03  0.1628546925205847E+03
  0.1628546925205847E+03  0.1628546925205847E+03  0.1628546925205847E+03  0.1628546925205847E+03  0.1628546925205847E+03
  0.1628546925205847E+03  0.1628546925205847E+03  0.1628546925205847E+03  0.1628546925205847E+03  0.1628546925205847E+03
  0.1628546925205847E+03  0.1628546925205847E+03  0.1628546925205847E+03  0.1628546925205847E+03  0.1628546925205847E+03
  0.1628546925205847E+03  0.1628546925205847E+03  0.1628546925205847E+03  0.1628546925205847E+03  0.1628546925205847E+03
  0.1628546925205847E+03  0.1628546925205847E+03  0.1628546925205847E+03  0.1628546925205847E+03  0.1628546925205847E+03
  0.1628546925205847E+03  0.1628546925205847E+03  0.1628546925205847E+03  0.1628546925205847E+03  0.1628546925205847E+03
  0.1628546925205847E+03  0.1628546925205847E+03  0.1628546925205847E+03  0.1628546925205847E+03  0.1628546925205847E+03
  0.1628546925205847E+03  0.1628546925205847E+03  0.1628546925205847E+03  0.1628546925205847E+03  0.1628546925205847E+03
