  DATE: 2018-03-30 CONTRIBUTOR: Xiaowang Zhou xzhou@sandia.gov and Lucas Hale lucas.hale@nist.gov CITATION: X. W. Zhou, R. A. Johnson, H. N. G. Wadley, Phys. Rev. B, 69, 144113(2004)
  Generated from Zhou04_create_v2.f
  Fixes precision issues with older version
    1 Pd                      
 2000  0.5002501250625312E-01 2000  0.3077134913006623E-02  0.6151192691100240E+01
   46     106.42         3.8904    fcc     
  0.0000000000000000E+00 -0.1211796410340749E-01 -0.2420179682408738E-01 -0.3625052733990758E-01 -0.4826418482873557E-01
 -0.6024279846843769E-01 -0.7218639743688263E-01 -0.8409501091193700E-01 -0.9596866807146787E-01 -0.1078073980933439E+00
 -0.1196112301554311E+00 -0.1313801934355970E+00 -0.1431143171117101E+00 -0.1548136303616368E+00 -0.1664781623632442E+00
 -0.1781079422944001E+00 -0.1897029993329722E+00 -0.2012633626568276E+00 -0.2127890614438330E+00 -0.2242801248718568E+00
 -0.2357365821187661E+00 -0.2471584623624273E+00 -0.2585457947807093E+00 -0.2698986085514784E+00 -0.2812169328526022E+00
 -0.2925007968619481E+00 -0.3037502297573840E+00 -0.3149652607167758E+00 -0.3261459189179926E+00 -0.3372922335389009E+00
 -0.3484042337573677E+00 -0.3594819487512611E+00 -0.3705254076984485E+00 -0.3815346397767962E+00 -0.3925096741641727E+00
 -0.4034505400384453E+00 -0.4143572665774803E+00 -0.4252298829591464E+00 -0.4360684183613102E+00 -0.4468729019618389E+00
 -0.4576433629386006E+00 -0.4683798304694623E+00 -0.4790823337322906E+00 -0.4897509019049542E+00 -0.5003855641653197E+00
 -0.5109863496912542E+00 -0.5215532876606259E+00 -0.5320864072513022E+00 -0.5425857376411489E+00 -0.5530513080080350E+00
 -0.5634831475298274E+00 -0.5738812853843938E+00 -0.5842457507496002E+00 -0.5945765728033154E+00 -0.6048737807234064E+00
 -0.6151374036877402E+00 -0.6253674708741842E+00 -0.6355640114606060E+00 -0.6457270546248733E+00 -0.6558566295448527E+00
 -0.6659527653984123E+00 -0.6760154913634191E+00 -0.6860448366177401E+00 -0.6960408303392432E+00 -0.7060035017057958E+00
 -0.7159328798952647E+00 -0.7258289940855178E+00 -0.7356918734544226E+00 -0.7455215471798455E+00 -0.7553180444396549E+00
 -0.7650813944117181E+00 -0.7748116262739015E+00 -0.7845087692040734E+00 -0.7941728523801013E+00 -0.8038039049798513E+00
 -0.8134019561811923E+00 -0.8229670351619907E+00 -0.8324991711001140E+00 -0.8419983931734297E+00 -0.8514647305598056E+00
 -0.8608982124371080E+00 -0.8702988679832053E+00 -0.8796667263759644E+00 -0.8890018167932523E+00 -0.8983041684129373E+00
 -0.9075738104128862E+00 -0.9168107719709659E+00 -0.9260150822650447E+00 -0.9351867704729896E+00 -0.9443258657726679E+00
 -0.9534323973419465E+00 -0.9625063943586933E+00 -0.9715478860007758E+00 -0.9805569014460618E+00 -0.9895334698724166E+00
 -0.9984776204577096E+00 -0.1007389382379807E+01 -0.1016268784816578E+01 -0.1025115856945888E+01 -0.1033930627945605E+01
 -0.1042713126993596E+01 -0.1051463383267730E+01 -0.1060181425945872E+01 -0.1068867284205890E+01 -0.1077520987225653E+01
 -0.1086142564183027E+01 -0.1094732044255879E+01 -0.1103289456622077E+01 -0.1111814830459489E+01 -0.1120308194945981E+01
 -0.1128769579259421E+01 -0.1137199012577677E+01 -0.1145596524078615E+01 -0.1153962142940103E+01 -0.1162295898340009E+01
 -0.1170597819456200E+01 -0.1178867935466543E+01 -0.1187106275548906E+01 -0.1195312868881155E+01 -0.1203487744641159E+01
 -0.1211630932006785E+01 -0.1219742460155898E+01 -0.1227822358266369E+01 -0.1235870655516064E+01 -0.1243887381082850E+01
 -0.1251872564144594E+01 -0.1259826233879164E+01 -0.1267748419464427E+01 -0.1275639150078250E+01 -0.1283498454898502E+01
 -0.1291326363103049E+01 -0.1299122903869759E+01 -0.1306888106376499E+01 -0.1314621999801135E+01 -0.1322324613321537E+01
 -0.1329995976115571E+01 -0.1337636117361104E+01 -0.1345245066236004E+01 -0.1352822851918139E+01 -0.1360369503585374E+01
 -0.1367885050415580E+01 -0.1375369521586621E+01 -0.1382822946276365E+01 -0.1390245353662681E+01 -0.1397636772923435E+01
 -0.1404997233236495E+01 -0.1412326763779728E+01 -0.1419625393731001E+01 -0.1426893152268183E+01 -0.1434130068569139E+01
 -0.1441336171811739E+01 -0.1448511491173847E+01 -0.1455656055833334E+01 -0.1462769894968065E+01 -0.1469853037755908E+01
 -0.1476905513374730E+01 -0.1483927351002399E+01 -0.1490918579816782E+01 -0.1497879228995747E+01 -0.1504809327717160E+01
 -0.1511708905158889E+01 -0.1518577990498803E+01 -0.1525416612914767E+01 -0.1532224801584649E+01 -0.1539002585686317E+01
 -0.1545749994397639E+01 -0.1552467056896480E+01 -0.1559153802360709E+01 -0.1565810259968193E+01 -0.1572436458896800E+01
 -0.1579032428324397E+01 -0.1585598197428850E+01 -0.1592133795388028E+01 -0.1598639251379799E+01 -0.1605114594582028E+01
 -0.1611559854172585E+01 -0.1617975059329335E+01 -0.1624360239230146E+01 -0.1630715423052887E+01 -0.1637040639975423E+01
 -0.1643335919175623E+01 -0.1649601289831353E+01 -0.1655836781120482E+01 -0.1662042422220877E+01 -0.1668218242310404E+01
 -0.1674364270566931E+01 -0.1680480536168327E+01 -0.1686567068292457E+01 -0.1692623896117190E+01 -0.1698651048820392E+01
 -0.1704648555579931E+01 -0.1710616445573675E+01 -0.1716554747979491E+01 -0.1722463491975246E+01 -0.1728342706738807E+01
 -0.1734192421448043E+01 -0.1740012665280819E+01 -0.1745803467415004E+01 -0.1751564857028466E+01 -0.1757296863299071E+01
 -0.1762999515404686E+01 -0.1768672842523179E+01 -0.1774316873832418E+01 -0.1779931638510270E+01 -0.1785517165734602E+01
 -0.1791073484683282E+01 -0.1796600624534176E+01 -0.1802098614465153E+01 -0.1807567483654079E+01 -0.1813007261278822E+01
 -0.1818417976517250E+01 -0.1823799658547229E+01 -0.1829152336546628E+01 -0.1834476039693313E+01 -0.1839770797165152E+01
 -0.1845036638140012E+01 -0.1850273591795760E+01 -0.1855481687310265E+01 -0.1860660953861393E+01 -0.1865811420627011E+01
 -0.1870933116784987E+01 -0.1876026071513189E+01 -0.1881090313989483E+01 -0.1886125873391737E+01 -0.1891132778897819E+01
 -0.1896111059685597E+01 -0.1901060744932936E+01 -0.1905981863817704E+01 -0.1910874445517770E+01 -0.1915738519210999E+01
 -0.1920574114075261E+01 -0.1925381259288421E+01 -0.1930159984028347E+01 -0.1934910317472908E+01 -0.1939632288799970E+01
 -0.1944325927187399E+01 -0.1948991261813065E+01 -0.1953628321854834E+01 -0.1958237136490574E+01 -0.1962817734898151E+01
 -0.1967370146255434E+01 -0.1971894399740289E+01 -0.1976390524530585E+01 -0.1980858549804187E+01 -0.1985298504738965E+01
 -0.1989710418512784E+01 -0.1994094320303513E+01 -0.1998450239289019E+01 -0.2002778204647169E+01 -0.2007078245555830E+01
 -0.2011350391192870E+01 -0.2015594670736157E+01 -0.2019811113363557E+01 -0.2023999748252939E+01 -0.2028160604582169E+01
 -0.2032293711529114E+01 -0.2036399098271642E+01 -0.2040476793987621E+01 -0.2044526827854918E+01 -0.2048549229051400E+01
 -0.2052544026754934E+01 -0.2056511250143388E+01 -0.2060450928394630E+01 -0.2064363090686526E+01 -0.2068247766196945E+01
 -0.2072104984103752E+01 -0.2075934773584816E+01 -0.2079737163818004E+01 -0.2083512183981184E+01 -0.2087259863252223E+01
 -0.2090980230808988E+01 -0.2094673315829346E+01 -0.2098339147491165E+01 -0.2101977754972313E+01 -0.2105589167450656E+01
 -0.2109173414104062E+01 -0.2112730524110399E+01 -0.2116260526647532E+01 -0.2119763450893332E+01 -0.2123239326025664E+01
 -0.2126688181222395E+01 -0.2130110045661394E+01 -0.2133504948520527E+01 -0.2136872918977662E+01 -0.2140213986210667E+01
 -0.2143528179397407E+01 -0.2146815527715753E+01 -0.2150076060343569E+01 -0.2153309806458723E+01 -0.2156516795239085E+01
 -0.2159697055862519E+01 -0.2162850617506895E+01 -0.2165977509350078E+01 -0.2169077760569937E+01 -0.2172151400344339E+01
 -0.2175198457851152E+01 -0.2178218962268242E+01 -0.2181212942773477E+01 -0.2184180428544724E+01 -0.2187121448759851E+01
 -0.2190036032596724E+01 -0.2192924209233213E+01 -0.2195786007847183E+01 -0.2198621457616503E+01 -0.2201430587719039E+01
 -0.2204213427332658E+01 -0.2206970005635230E+01 -0.2209700351804619E+01 -0.2212404495018695E+01 -0.2215082464455324E+01
 -0.2217734289292374E+01 -0.2220359998707711E+01 -0.2222959621879204E+01 -0.2225533187984721E+01 -0.2228080726202127E+01
 -0.2230602265709291E+01 -0.2233097835684079E+01 -0.2235567465304360E+01 -0.2238011183748001E+01 -0.2240429020192868E+01
 -0.2242821003816831E+01 -0.2245187163797754E+01 -0.2247527529313507E+01 -0.2249842129541955E+01 -0.2252130993660969E+01
 -0.2254394150848413E+01 -0.2256631630282155E+01 -0.2258843461140063E+01 -0.2261029672600005E+01 -0.2263190293839848E+01
 -0.2265325354037457E+01 -0.2267434882370703E+01 -0.2269518908017452E+01 -0.2271577460155570E+01 -0.2273610567962926E+01
 -0.2275618260617387E+01 -0.2277600567296819E+01 -0.2279557517179092E+01 -0.2281489139442071E+01 -0.2283395463263625E+01
 -0.2285276517821620E+01 -0.2287132332293924E+01 -0.2288962935858404E+01 -0.2290768357692929E+01 -0.2292548626975364E+01
 -0.2294303772883577E+01 -0.2296033824595436E+01 -0.2297738811288809E+01 -0.2299418762141562E+01 -0.2301073706331564E+01
 -0.2302703673036679E+01 -0.2304308691434779E+01 -0.2305888790703728E+01 -0.2307444000021393E+01 -0.2308974348565644E+01
 -0.2310479865514347E+01 -0.2311960580045370E+01 -0.2313416521336579E+01 -0.2314847718565842E+01 -0.2316254200911027E+01
 -0.2317635997550000E+01 -0.2318993137660631E+01 -0.2320325650420784E+01 -0.2321633170754988E+01 -0.2322916567921281E+01
 -0.2324175574109516E+01 -0.2325410318916453E+01 -0.2326620931938853E+01 -0.2327807542773474E+01 -0.2328970281017078E+01
 -0.2330109276266422E+01 -0.2331224658118268E+01 -0.2332316556169375E+01 -0.2333385100016502E+01 -0.2334430419256410E+01
 -0.2335452643485859E+01 -0.2336451902301607E+01 -0.2337428325300416E+01 -0.2338382042079044E+01 -0.2339313182234252E+01
 -0.2340221875362799E+01 -0.2341108251061445E+01 -0.2341972438926950E+01 -0.2342814568556074E+01 -0.2343634769545576E+01
 -0.2344433171492216E+01 -0.2345209903992754E+01 -0.2345965096643950E+01 -0.2346698879042563E+01 -0.2347411380785354E+01
 -0.2348102731469082E+01 -0.2348773060690506E+01 -0.2349422498046387E+01 -0.2350051173133485E+01 -0.2350659215548560E+01
 -0.2351246754888370E+01 -0.2351813920749676E+01 -0.2352360842729237E+01 -0.2352887650423814E+01 -0.2353394473430166E+01
 -0.2353881441345053E+01 -0.2354348683765235E+01 -0.2354796330287471E+01 -0.2355224510508522E+01 -0.2355633354025147E+01
 -0.2356022990434106E+01 -0.2356393549332157E+01 -0.2356745160316063E+01 -0.2357077952982582E+01 -0.2357392056928473E+01
 -0.2357687601750498E+01 -0.2357964717045415E+01 -0.2358223532409985E+01 -0.2358464177440967E+01 -0.2358686781735120E+01
 -0.2358891474889206E+01 -0.2359078386499982E+01 -0.2359247646164211E+01 -0.2359399383478650E+01 -0.2359533728040060E+01
 -0.2359650809445200E+01 -0.2359750757290831E+01 -0.2359833701173712E+01 -0.2359899770690604E+01 -0.2359949095438264E+01
 -0.2359981805013455E+01 -0.2359998029012935E+01 -0.2359997897033464E+01 -0.2359981538671801E+01 -0.2359949083524708E+01
 -0.2359900661188943E+01 -0.2359836401261266E+01 -0.2359756433338437E+01 -0.2359660887017216E+01 -0.2359549891894363E+01
 -0.2359423577566637E+01 -0.2359282073630798E+01 -0.2359125509683606E+01 -0.2358954015321821E+01 -0.2358767720142203E+01
 -0.2358566753741510E+01 -0.2358351245716503E+01 -0.2358121325663943E+01 -0.2357877123180589E+01 -0.2357618767863199E+01
 -0.2357346389308535E+01 -0.2357060117113356E+01 -0.2356760080874422E+01 -0.2356446410188492E+01 -0.2356119234652327E+01
 -0.2355778683862685E+01 -0.2355424887416328E+01 -0.2355057974910014E+01 -0.2354678075940504E+01 -0.2354285320104557E+01
 -0.2353879836998933E+01 -0.2353461756220392E+01 -0.2353031207365694E+01 -0.2352588320031598E+01 -0.2352133223814865E+01
 -0.2351666048312253E+01 -0.2351186923120522E+01 -0.2350695977836434E+01 -0.2350193342056747E+01 -0.2349679145378221E+01
 -0.2349153517397616E+01 -0.2348616587711691E+01 -0.2348068485917207E+01 -0.2347509341610924E+01 -0.2346939284389600E+01
 -0.2346358443849996E+01 -0.2345766949588872E+01 -0.2345164931202987E+01 -0.2344552518289101E+01 -0.2343929840443975E+01
 -0.2343297027264367E+01 -0.2342654208347037E+01 -0.2342001513288746E+01 -0.2341339071686252E+01 -0.2340667013136317E+01
 -0.2339985467235699E+01 -0.2339294563581159E+01 -0.2338594431769456E+01 -0.2337885201397350E+01 -0.2337167002061601E+01
 -0.2336439963358968E+01 -0.2335704214886212E+01 -0.2334959886240092E+01 -0.2334207107017367E+01 -0.2333446006814799E+01
 -0.2332676715229146E+01 -0.2331898433262550E+01 -0.2331106489650838E+01 -0.2330300202802834E+01 -0.2329479594309783E+01
 -0.2328644685687737E+01 -0.2327795498377968E+01 -0.2326932053747381E+01 -0.2326054373088910E+01 -0.2325162477621928E+01
 -0.2324256388492642E+01 -0.2323336126774493E+01 -0.2322401713468542E+01 -0.2321453169503870E+01 -0.2320490515737959E+01
 -0.2319513772957077E+01 -0.2318522961876663E+01 -0.2317518103141706E+01 -0.2316499217327115E+01 -0.2315466324938104E+01
 -0.2314419446410549E+01 -0.2313358602111369E+01 -0.2312283812338883E+01 -0.2311195097323177E+01 -0.2310092477226463E+01
 -0.2308975972143436E+01 -0.2307845602101631E+01 -0.2306701387061772E+01 -0.2305543346918128E+01 -0.2304371501498854E+01
 -0.2303185870566339E+01 -0.2301986473817551E+01 -0.2300773330884373E+01 -0.2299546461333941E+01 -0.2298305884668984E+01
 -0.2297051620328152E+01 -0.2295783687686349E+01 -0.2294502106055060E+01 -0.2293206894682679E+01 -0.2291898072754830E+01
 -0.2290575659394692E+01 -0.2289239673663315E+01 -0.2287890134559939E+01 -0.2286527061022306E+01 -0.2285150471926977E+01
 -0.2283760386089639E+01 -0.2282356822265416E+01 -0.2280939799149171E+01 -0.2279509335375813E+01 -0.2278065449520602E+01
 -0.2276608160099440E+01 -0.2275137485569179E+01 -0.2273653444327910E+01 -0.2272156054715259E+01 -0.2270645335012679E+01
 -0.2269121303443739E+01 -0.2267583978174413E+01 -0.2266033377313366E+01 -0.2264469518912234E+01 -0.2262892420965913E+01
 -0.2261302101412831E+01 -0.2259698578135235E+01 -0.2258081868959461E+01 -0.2256451991656209E+01 -0.2254808963940818E+01
 -0.2253152803473538E+01 -0.2251483527859794E+01 -0.2249801154650457E+01 -0.2248105701342110E+01 -0.2246397185377308E+01
 -0.2244675624144846E+01 -0.2242941034980013E+01 -0.2241193435164854E+01 -0.2239432841928425E+01 -0.2237659272447051E+01
 -0.2235872743844576E+01 -0.2234073273192619E+01 -0.2232260877510816E+01 -0.2230435573767080E+01 -0.2228597378877841E+01
 -0.2226746309708289E+01 -0.2224882383072623E+01 -0.2223005615734293E+01 -0.2221116024406235E+01 -0.2219213625751117E+01
 -0.2217298436381570E+01 -0.2215370472860430E+01 -0.2213429751700966E+01 -0.2211476289367122E+01 -0.2209510102273737E+01
 -0.2207531206786784E+01 -0.2205539619223593E+01 -0.2203535355853083E+01 -0.2201518432895983E+01 -0.2199488866525057E+01
 -0.2197446672865331E+01 -0.2195391867994307E+01 -0.2193324467942189E+01 -0.2191244488692100E+01 -0.2189151946180297E+01
 -0.2187046856296389E+01 -0.2184929234883550E+01 -0.2182799097738734E+01 -0.2180656460612886E+01 -0.2178501339211148E+01
 -0.2176333749193079E+01 -0.2174153706172849E+01 -0.2171961225719456E+01 -0.2169756323356928E+01 -0.2167539014564526E+01
 -0.2165309314776946E+01 -0.2163067239384524E+01 -0.2160812803733431E+01 -0.2158546023125880E+01 -0.2156266912820313E+01
 -0.2153975488031607E+01 -0.2151671763931266E+01 -0.2149355755647612E+01 -0.2147027478265984E+01 -0.2144686946828922E+01
 -0.2142334176336369E+01 -0.2139969181745847E+01 -0.2137591977972656E+01 -0.2135202579890056E+01 -0.2132801002329454E+01
 -0.2130387260080590E+01 -0.2127961367891719E+01 -0.2125523340469795E+01 -0.2123073192480652E+01 -0.2120610938549187E+01
 -0.2118136593259534E+01 -0.2115650171155247E+01 -0.2113151686739475E+01 -0.2110641154475143E+01 -0.2108118588785118E+01
 -0.2105584004052393E+01 -0.2103037414620252E+01 -0.2100478834792448E+01 -0.2097908278833374E+01 -0.2095325760968224E+01
 -0.2092731295383177E+01 -0.2090124896225552E+01 -0.2087506577603981E+01 -0.2084876353588576E+01 -0.2082234238211092E+01
 -0.2079580245465090E+01 -0.2076914389306104E+01 -0.2074236683651798E+01 -0.2071547142382136E+01 -0.2068845779339530E+01
 -0.2066132608329012E+01 -0.2063407643118383E+01 -0.2060670897438377E+01 -0.2057922384982815E+01 -0.2055162119408759E+01
 -0.2052390114336669E+01 -0.2049606383350561E+01 -0.2046810939998150E+01 -0.2044003797791013E+01 -0.2041184970204735E+01
 -0.2038354470679057E+01 -0.2035512312618033E+01 -0.2032658509390171E+01 -0.2029793074328589E+01 -0.2026916020731155E+01
 -0.2024027361860635E+01 -0.2021127110944841E+01 -0.2018215281176776E+01 -0.2015291885714773E+01 -0.2012356937682643E+01
 -0.2009410450169814E+01 -0.2006452436231476E+01 -0.2003482908888717E+01 -0.2000501881128665E+01 -0.1997509365904630E+01
 -0.1994505376136236E+01 -0.1991489924709564E+01 -0.1988463024477289E+01 -0.1985424688258807E+01 -0.1982374928840383E+01
 -0.1979313758975280E+01 -0.1976241191383886E+01 -0.1973157238753858E+01 -0.1970061913740250E+01 -0.1966955228965642E+01
 -0.1963837197020273E+01 -0.1960707830462171E+01 -0.1957567141817283E+01 -0.1954415143579601E+01 -0.1951251848211296E+01
 -0.1948077268142836E+01 -0.1944891415773121E+01 -0.1941694303469605E+01 -0.1938485943568422E+01 -0.1935266348374511E+01
 -0.1932035530161738E+01 -0.1928793501173020E+01 -0.1925540273620449E+01 -0.1922275859685413E+01 -0.1919000271518716E+01
 -0.1915713521240701E+01 -0.1912415620941367E+01 -0.1909106582680489E+01 -0.1905786418487741E+01 -0.1902455140362805E+01
 -0.1899112760275498E+01 -0.1895759290165882E+01 -0.1892394741944384E+01 -0.1889019127491908E+01 -0.1885632458659953E+01
 -0.1882234747270725E+01 -0.1878826005117254E+01 -0.1875406243963503E+01 -0.1871975475544482E+01 -0.1868533711566360E+01
 -0.1865080963706579E+01 -0.1861617243613958E+01 -0.1858142562908810E+01 -0.1854656933183047E+01 -0.1851160366000293E+01
 -0.1847652872895989E+01 -0.1844134465377499E+01 -0.1840605154924225E+01 -0.1837064952987705E+01 -0.1833513870991724E+01
 -0.1829951920332420E+01 -0.1826379112378386E+01 -0.1822795458470777E+01 -0.1819200969923412E+01 -0.1815595658022879E+01
 -0.1811979534028639E+01 -0.1808352609173124E+01 -0.1804714894661843E+01 -0.1801066401673483E+01 -0.1797407141360008E+01
 -0.1793737124846757E+01 -0.1790056363232551E+01 -0.1786364867589786E+01 -0.1782662648964535E+01 -0.1778949718376642E+01
 -0.1775226086819826E+01 -0.1771491765261774E+01 -0.1767746764644238E+01 -0.1763991095883134E+01 -0.1760224769868632E+01
 -0.1756447797465258E+01 -0.1752660189511986E+01 -0.1748861956822331E+01 -0.1745053110184445E+01 -0.1741233660361209E+01
 -0.1737403618090326E+01 -0.1733562994084415E+01 -0.1729711799031101E+01 -0.1725850043593106E+01 -0.1721977738408346E+01
 -0.1718094894090013E+01 -0.1714201521226669E+01 -0.1710297630382339E+01 -0.1706383232096595E+01 -0.1702458336884647E+01
 -0.1698522955237433E+01 -0.1694577097621705E+01 -0.1690620774480115E+01 -0.1686653996231307E+01 -0.1682676773269999E+01
 -0.1678689115967070E+01 -0.1674691034669650E+01 -0.1670682539701198E+01 -0.1666663641361595E+01 -0.1662634349927223E+01
 -0.1658594675651049E+01 -0.1654544628762713E+01 -0.1650484219468610E+01 -0.1646413457951967E+01 -0.1642332354372935E+01
 -0.1638240918868664E+01 -0.1634139161553389E+01 -0.1630027092518507E+01 -0.1625904721832661E+01 -0.1621772059541822E+01
 -0.1617629115669365E+01 -0.1613475900216152E+01 -0.1609312423160609E+01 -0.1605138694458808E+01 -0.1600954724044541E+01
 -0.1596760521829404E+01 -0.1592556097702870E+01 -0.1588341461532369E+01 -0.1584116623163365E+01 -0.1579881592419432E+01
 -0.1575636379102332E+01 -0.1571380992992085E+01 -0.1567115443847055E+01 -0.1562839741404017E+01 -0.1558553895378235E+01
 -0.1554257915463537E+01 -0.1549951811332386E+01 -0.1545635592635959E+01 -0.1541309269004218E+01 -0.1536972850045981E+01
 -0.1532626345348999E+01 -0.1528269764480024E+01 -0.1523903116984887E+01 -0.1519526412388564E+01 -0.1515139660195251E+01
 -0.1510742869888433E+01 -0.1506336050930958E+01 -0.1501919212765103E+01 -0.1497492364812647E+01 -0.1493055516474944E+01
 -0.1488608677132984E+01 -0.1484151856147471E+01 -0.1479685062858886E+01 -0.1475208306587559E+01 -0.1470721596633733E+01
 -0.1466224942277641E+01 -0.1461718352779559E+01 -0.1457201837379889E+01 -0.1452675405299214E+01 -0.1448139065738373E+01
 -0.1443592827878520E+01 -0.1439036700881198E+01 -0.1434470693888398E+01 -0.1429894816022625E+01 -0.1425309076386972E+01
 -0.1420713484065171E+01 -0.1416108048121668E+01 -0.1411492777601685E+01 -0.1406867681531282E+01 -0.1402232768917421E+01
 -0.1397588048748030E+01 -0.1392933529992068E+01 -0.1388269221599585E+01 -0.1383595132501784E+01 -0.1378911271611091E+01
 -0.1374217647821202E+01 -0.1369514270007161E+01 -0.1364801147025410E+01 -0.1360078287713858E+01 -0.1355345700891932E+01
 -0.1350603395360651E+01 -0.1345851379902675E+01 -0.1341089663282369E+01 -0.1336318254245866E+01 -0.1331537161521120E+01
 -0.1326746393817971E+01 -0.1321945959828202E+01 -0.1317135868225596E+01 -0.1312316127665997E+01 -0.1307486746787367E+01
 -0.1302647734209846E+01 -0.1297799098535807E+01 -0.1292940848349913E+01 -0.1288072992219177E+01 -0.1283195538693019E+01
 -0.1278308496303317E+01 -0.1273411873564474E+01 -0.1268505678973464E+01 -0.1263589921009892E+01 -0.1258664608136052E+01
 -0.1253729748796977E+01 -0.1248785351420501E+01 -0.1243831424417307E+01 -0.1238867976180989E+01 -0.1233895015088100E+01
 -0.1228912549498208E+01 -0.1223920587753957E+01 -0.1218919138181104E+01 -0.1213908209088596E+01 -0.1208887808768602E+01
 -0.1203857945496576E+01 -0.1198818627531313E+01 -0.1193769863114994E+01 -0.1188711660473243E+01 -0.1183644027815175E+01
 -0.1178566973333457E+01 -0.1173480505204350E+01 -0.1168384631587763E+01 -0.1163279360627308E+01 -0.1158164700450350E+01
 -0.1153040659168051E+01 -0.1147907244875434E+01 -0.1142764465651419E+01 -0.1137612329558884E+01 -0.1132450844644709E+01
 -0.1127280018939829E+01 -0.1122099860459280E+01 -0.1116910377202253E+01 -0.1111711577152143E+01 -0.1106503468276588E+01
 -0.1101286058527535E+01 -0.1096059355841272E+01 -0.1090823368138489E+01 -0.1085578103324316E+01 -0.1080323569288378E+01
 -0.1075059773904842E+01 -0.1069786725032457E+01 -0.1064504430514614E+01 -0.1059212898179383E+01 -0.1053912135839561E+01
 -0.1048602151292728E+01 -0.1043282952321279E+01 -0.1037954546692483E+01 -0.1032616942158520E+01 -0.1027270146456536E+01
 -0.1021914167308680E+01 -0.1016549012422154E+01 -0.1011174689489260E+01 -0.1005791206187441E+01 -0.1000398570179329E+01
 -0.9949967891127890E+00 -0.9895858706209625E+00 -0.9841658223223151E+00 -0.9787366518206756E+00 -0.9732983667052882E+00
 -0.9678509745508476E+00 -0.9623944829175455E+00 -0.9569288993511190E+00 -0.9514542313828899E+00 -0.9459704865298064E+00
 -0.9404776722944870E+00 -0.9349757961652699E+00 -0.9294648656162428E+00 -0.9239448881072991E+00 -0.9184158710841721E+00
 -0.9128778219784751E+00 -0.9073307482077545E+00 -0.9017746571755170E+00 -0.8962095562712855E+00 -0.8906354528706285E+00
 -0.8850523543352083E+00 -0.8794602680128232E+00 -0.8738592012374415E+00 -0.8682491613292495E+00 -0.8626301555946884E+00
 -0.8570021913264960E+00 -0.8513652758037471E+00 -0.8457194162918913E+00 -0.8400646200427997E+00 -0.8344008942947925E+00
 -0.8287282462726947E+00 -0.8230466831878614E+00 -0.8173562122382241E+00 -0.8116568406083298E+00 -0.8059485754693788E+00
 -0.8002314239792646E+00 -0.7945053932826097E+00 -0.7887704905108078E+00 -0.7830267227820620E+00 -0.7772740972014174E+00
 -0.7715126208608093E+00 -0.7657423008390922E+00 -0.7599631442020827E+00 -0.7541751580025946E+00 -0.7483783492804782E+00
 -0.7425727250626565E+00 -0.7367582923631608E+00 -0.7309350581831746E+00 -0.7251030295110616E+00 -0.7192622133224084E+00
 -0.7134126165800604E+00 -0.7075542462341525E+00 -0.7016871092221584E+00 -0.6958112124689126E+00 -0.6899265628866551E+00
 -0.6840331673750625E+00 -0.6781310328212903E+00 -0.6722201661000023E+00 -0.6663005740734071E+00 -0.6603722635912982E+00
 -0.6544352414910816E+00 -0.6484895145978203E+00 -0.6425350897242594E+00 -0.6365719736708667E+00 -0.6306001732258697E+00
 -0.6246196951652825E+00 -0.6186305462529488E+00 -0.6126327332405694E+00 -0.6066262628677390E+00 -0.6006111418619825E+00
 -0.5945873769387835E+00 -0.5885549748016258E+00 -0.5825139421420170E+00 -0.5764642856395332E+00 -0.5704060119618451E+00
 -0.5643391277647491E+00 -0.5582636396922117E+00 -0.5521795543763881E+00 -0.5460868784376686E+00 -0.5399856184846997E+00
 -0.5338757811144255E+00 -0.5277573729121161E+00 -0.5216304004513987E+00 -0.5154948702942964E+00 -0.5093507889912509E+00
 -0.5031981630811623E+00 -0.4970369990914184E+00 -0.4908673035379243E+00 -0.4846890829251397E+00 -0.4785023437461019E+00
 -0.4723070924824679E+00 -0.4661033356045377E+00 -0.4598910795712834E+00 -0.4536703308303929E+00 -0.4474410958182870E+00
 -0.4412033809601583E+00 -0.4349571926699996E+00 -0.4287025373506326E+00 -0.4224394213937429E+00 -0.4161678511799064E+00
 -0.4098878330786227E+00 -0.4035993734483417E+00 -0.3973024786364974E+00 -0.3909971549795321E+00 -0.3846834088029369E+00
 -0.3783612464212707E+00 -0.3720306741381919E+00 -0.3656916982464952E+00 -0.3593443250281303E+00 -0.3529885607542415E+00
 -0.3466244116851893E+00 -0.3402518840705799E+00 -0.3338709841493022E+00 -0.3274817181495448E+00 -0.3210840922888366E+00
 -0.3146781127740652E+00 -0.3082637858015113E+00 -0.3018411175568782E+00 -0.2954101142153124E+00 -0.2889707819414429E+00
 -0.2825231268893988E+00 -0.2760671552028477E+00 -0.2696028730150131E+00 -0.2631302864487073E+00 -0.2566494016163639E+00
 -0.2501602246200549E+00 -0.2436627615515286E+00 -0.2371570184922284E+00 -0.2306430015133245E+00 -0.2241207166757449E+00
 -0.2175901700301923E+00 -0.2110513676171829E+00 -0.2045043154670634E+00 -0.1979490196000438E+00 -0.1913854860262210E+00
 -0.1848137207456072E+00 -0.1782337297481585E+00 -0.1716455190137950E+00 -0.1650490945124342E+00 -0.1584444622040145E+00
 -0.1518316280385143E+00 -0.1452105979559958E+00 -0.1385813778866102E+00 -0.1319439737506395E+00 -0.1252983914585128E+00
 -0.1186446369108350E+00 -0.1119827159984167E+00 -0.1053126346022902E+00 -0.9863439859374906E-01 -0.9194801383435391E-01
 -0.8525348617597617E-01 -0.7855082146081266E-01 -0.7184002552141822E-01 -0.6512110418071952E-01 -0.5839406325205181E-01
 -0.5165890853917684E-01 -0.4491564583630783E-01 -0.3816428092814053E-01 -0.3140481958986770E-01 -0.2463726758720880E-01
 -0.1786163067643982E-01 -0.1107791460440553E-01 -0.4286125108554875E-02  0.2513732083041125E-02  0.9321651251665904E-02
  0.1613762668792884E-01  0.2296165269174456E-01  0.2979372357230576E-01  0.3663383364806818E-01  0.4348197724671193E-01
  0.5033814870513786E-01  0.5720234236942446E-01  0.6407455259481694E-01  0.7095477374569989E-01  0.7784300019557469E-01
  0.8473922632703360E-01  0.9164344653174414E-01  0.9855565521041573E-01  0.1054758467727858E+00  0.1124040156375900E+00
  0.1193401562325473E+00  0.1262842629943311E+00  0.1332363303685457E+00  0.1401963528097102E+00  0.1471643247812300E+00
  0.1541402407553802E+00  0.1611240952132741E+00  0.1681158826448531E+00  0.1751155975488564E+00  0.1821232344327954E+00
  0.1891387878129474E+00  0.1961622522143145E+00  0.2031936221706160E+00  0.2102328922242590E+00  0.2172800569263223E+00
  0.2243351108365259E+00  0.2313980485232221E+00  0.2384688645633647E+00  0.2455475535424863E+00  0.2526341100546859E+00
  0.2597285287026013E+00  0.2668308040973851E+00  0.2739409308586963E+00  0.2810589036146625E+00  0.2881847170018728E+00
  0.2953183656653458E+00  0.3024598442585201E+00  0.3096091474432242E+00  0.3167662698896586E+00  0.3239312062763819E+00
  0.3311039512902749E+00  0.3382844996265378E+00  0.3454728459886576E+00  0.3526689850883925E+00  0.3598729116457547E+00
  0.3670846203889765E+00  0.3743041060545129E+00  0.3815313633869958E+00  0.3887663871392379E+00  0.3960091720721980E+00
  0.4032597129549594E+00  0.4105180045647259E+00  0.4177840416867831E+00  0.4250578191144937E+00  0.4323393316492675E+00
  0.4396285741005453E+00  0.4469255412857876E+00  0.4542302280304357E+00  0.4615426291679188E+00  0.4688627395396084E+00
  0.4761905539948168E+00  0.4835260673907707E+00  0.4908692745925951E+00  0.4982201704732921E+00  0.5055787499137201E+00
  0.5129450078025833E+00  0.5203189390364005E+00  0.5277005385194963E+00  0.5350898011639820E+00  0.5424867218897252E+00
  0.5498912956243486E+00  0.5573035173031983E+00  0.5647233818693329E+00  0.5721508842734954E+00  0.5795860194741125E+00
  0.5870287824372551E+00  0.5944791681366348E+00  0.6019371715535814E+00  0.6094027876770204E+00  0.6168760115034663E+00
  0.6243568380369946E+00  0.6318452622892201E+00  0.6393412792792960E+00  0.6468448840338780E+00  0.6543560715871201E+00
  0.6618748369806448E+00  0.6694011752635366E+00  0.6769350814923184E+00  0.6844765507309322E+00  0.6920255780507306E+00
  0.6995821585304458E+00  0.7071462872561852E+00  0.7147179593214069E+00  0.7222971698269020E+00  0.7298839138807867E+00
  0.7374781865984655E+00  0.7450799831026372E+00  0.7526892985232659E+00  0.7603061279975611E+00  0.7679304666699688E+00
  0.7755623096921475E+00  0.7832016522229569E+00  0.7908484894284430E+00  0.7985028164818058E+00  0.8061646285634085E+00
  0.8138339208607340E+00  0.8215106885683928E+00  0.8291949268880822E+00  0.8368866310285943E+00  0.8445857962057759E+00
  0.8522924176425347E+00  0.8600064905688084E+00  0.8677280102215447E+00  0.8754569718447056E+00  0.8831933706892258E+00
  0.8909372020130198E+00  0.8986884610809495E+00  0.9064471431648141E+00  0.9142132435433339E+00  0.9219867575021350E+00
  0.9297676803337329E+00  0.9375560073375191E+00  0.9453517338197375E+00  0.9531548550934822E+00  0.9609653664786620E+00
  0.9687832633020099E+00  0.9766085408970454E+00  0.9844411946040679E+00  0.9922812197701479E+00  0.1000128611749098E+01
  0.1007983365901471E+01  0.1015845477594527E+01  0.1023714942202243E+01  0.1031591755105278E+01  0.1039475911690958E+01
  0.1047367407353277E+01  0.1055266237492861E+01  0.1063172397516976E+01  0.1071085882839485E+01  0.1079006688880862E+01
  0.1086934811068160E+01  0.1094870244834997E+01  0.1102812985621545E+01  0.1110763028874514E+01  0.1118720370047139E+01
  0.1126685004599169E+01  0.1134656927996835E+01  0.1142636135712859E+01  0.1150622623226424E+01  0.1158616386023161E+01
  0.1166617419595142E+01  0.1174625719440860E+01  0.1182641281065213E+01  0.1190664099979494E+01  0.1198694171701380E+01
  0.1206731491754902E+01  0.1214776055670449E+01  0.1222827858984747E+01  0.1230886897240843E+01  0.1238953165988089E+01
  0.1247026660782136E+01  0.1255107377184916E+01  0.1263195310764623E+01  0.1271290457095703E+01  0.1279392811758849E+01
  0.1287502370340971E+01  0.1295619128435192E+01  0.1303743081640835E+01  0.1311874225563408E+01  0.1320012555814580E+01
  0.1328158068012188E+01  0.1336310757780208E+01  0.1344470620748741E+01  0.1352637652554011E+01  0.1360811848838341E+01
  0.1368993205250141E+01  0.1377181717443905E+01  0.1385377381080184E+01  0.1393580191825576E+01  0.1401790145352721E+01
  0.1410007237340277E+01  0.1418231463472916E+01  0.1426462819441304E+01  0.1434701300942090E+01  0.1442946903677900E+01
  0.1451199623357309E+01  0.1459459455694838E+01  0.1467726396410947E+01  0.1476000441232010E+01  0.1484281585890303E+01
  0.1492569826124006E+01  0.1500865157677165E+01  0.1509167576299710E+01  0.1517477077747411E+01  0.1525793657781893E+01
  0.1534117312170601E+01  0.1542448036686801E+01  0.1550785827109567E+01  0.1559130679223760E+01  0.1567482588820025E+01
  0.1575841551694773E+01  0.1584207563650163E+01  0.1592580620494110E+01  0.1600960718040251E+01  0.1609347852107941E+01
  0.1617742018522237E+01  0.1626143213113900E+01  0.1634551431719368E+01  0.1642966670180741E+01  0.1651388924345787E+01
  0.1659818190067906E+01  0.1668254463206151E+01  0.1676697739625173E+01  0.1685148015195249E+01  0.1693605285792245E+01
  0.1702069547297611E+01  0.1710540795598378E+01  0.1719019026587133E+01  0.1727504236162011E+01  0.1735996420226690E+01
  0.1744495574690370E+01  0.1753001695467771E+01  0.1761514778479105E+01  0.1770034819650087E+01  0.1778561814911909E+01
  0.1787095760201226E+01  0.1795636651460153E+01  0.1804184484636248E+01  0.1812739255682505E+01  0.1821300960557345E+01
  0.1829869595224589E+01  0.1838445155653463E+01  0.1847027637818581E+01  0.1855617037699934E+01  0.1864213351282882E+01
  0.1872816574558128E+01  0.1881426703521732E+01  0.1890043734175078E+01  0.1898667662524868E+01  0.1907298484583125E+01
  0.1915936196367164E+01  0.1924580793899581E+01  0.1933232273208263E+01  0.1941890630326345E+01  0.1950555861292233E+01
  0.1959227962149574E+01  0.1967906928947235E+01  0.1976592757739319E+01  0.1985285444585134E+01  0.1993984985549188E+01
  0.2002691376701188E+01  0.2011404614116002E+01  0.2020124693873681E+01  0.2028851612059430E+01  0.2037585364763598E+01
  0.2046325948081676E+01  0.2055073358114270E+01  0.2063827590967114E+01  0.2072588642751036E+01  0.2081356509581969E+01
  0.2090131187580921E+01  0.2098912672873970E+01  0.2107700961592273E+01  0.2116496049872018E+01  0.2125297933854453E+01
  0.2134106609685852E+01  0.2142922073517504E+01  0.2151744321505718E+01  0.2160573349811802E+01  0.2169409154602051E+01
  0.2178251732047741E+01  0.2187101078325130E+01  0.2195957189615418E+01  0.2204820062104766E+01  0.2213689691984279E+01
  0.2222566075449982E+01  0.2231449208702824E+01  0.2240339087948667E+01  0.2249235709398272E+01  0.2258139069267290E+01
  0.2267049163776247E+01  0.2275965989150555E+01  0.2284889541620467E+01  0.2293819817421098E+01  0.2302756812792409E+01
  0.2311700523979177E+01  0.2320650947231015E+01  0.2329608078802338E+01  0.2338571914952373E+01  0.2347542451945133E+01
  0.2356519686049411E+01  0.2365503613538781E+01  0.2374494230691575E+01  0.2383491533790881E+01  0.2392495519124537E+01
  0.2401506182985108E+01  0.2410523521669887E+01  0.2419547531480883E+01  0.2428578208724816E+01  0.2437615549713105E+01
  0.2446659550761844E+01  0.2455710208191817E+01  0.2464767518328477E+01  0.2473831477501936E+01  0.2482902082046955E+01
  0.2491979328302937E+01  0.2501063212613915E+01  0.2510153731328555E+01  0.2519250880800127E+01  0.2528354657386506E+01
  0.2537465057450173E+01  0.2546582077358182E+01  0.2555705713482175E+01  0.2564835962198357E+01  0.2573972819887493E+01
  0.2583116282934909E+01  0.2592266347730455E+01  0.2601423010668524E+01  0.2610586268148032E+01  0.2619756116572410E+01
  0.2628932552349593E+01  0.2638115571892014E+01  0.2647305171616595E+01  0.2656501347944735E+01  0.2665704097302307E+01
  0.2674913416119645E+01  0.2684129300831534E+01  0.2693351747877208E+01  0.2702580753700329E+01  0.2711816314748994E+01
  0.2721058427475718E+01  0.2730307088337417E+01  0.2739562293795425E+01  0.2748824040315445E+01  0.2758092324367587E+01
  0.2767367142426328E+01  0.2776648490970507E+01  0.2785936366483325E+01  0.2795230765452342E+01  0.2804531684369443E+01
  0.2813839119730859E+01  0.2823153068037144E+01  0.2832473525793164E+01  0.2841800489508099E+01  0.2851133955695422E+01
  0.2860473920872905E+01  0.2869820381562600E+01  0.2879173334290828E+01  0.2888532775588192E+01  0.2897898701989538E+01
  0.2907271110033969E+01  0.2916649996264832E+01  0.2926035357229705E+01  0.2935427189480394E+01  0.2944825489572921E+01
  0.2954230254067517E+01  0.2963641479528617E+01  0.2973059162524851E+01  0.2982483299629033E+01  0.2991913887418149E+01
  0.3001350922473360E+01  0.3010794401379994E+01  0.3020244320727524E+01  0.3029700677109569E+01  0.3039163467123891E+01
  0.3048632687372379E+01  0.3058108334461045E+01  0.3067590405000018E+01  0.3077078895603525E+01  0.3086573802889905E+01
  0.3096075123481568E+01  0.3105582854005029E+01  0.3115096991090868E+01  0.3124617531373727E+01  0.3134144471492322E+01
  0.3143677808089405E+01  0.3153217537811788E+01  0.3162763657310313E+01  0.3172316163239848E+01  0.3181875052259288E+01
  0.3191440321031538E+01  0.3201011966223519E+01  0.3210589984506138E+01  0.3220174372554302E+01  0.3229765127046902E+01
  0.3239362244666799E+01  0.3248965722100828E+01  0.3258575556039788E+01  0.3268191743178431E+01  0.3277814280215452E+01
  0.3287443163853484E+01  0.3297078390799101E+01  0.3306719957762797E+01  0.3316367861458979E+01  0.3326022098605973E+01
  0.3335682665925999E+01  0.3345349560145175E+01  0.3355022777993512E+01  0.3364702316204900E+01  0.3374388171517097E+01
  0.3384080340671734E+01  0.3393778820414299E+01  0.3403483607494136E+01  0.3413194698664427E+01  0.3422912090682195E+01
  0.3432635780308294E+01  0.3442365764307408E+01  0.3452102039448024E+01  0.3461844602502453E+01  0.3471593450246798E+01
  0.3481348579460962E+01  0.3491109986928638E+01  0.3500877669437297E+01  0.3510651623778188E+01  0.3520431846746323E+01
  0.3530218335140480E+01  0.3540011085763187E+01  0.3549810095420721E+01  0.3559615360923099E+01  0.3569426879084068E+01
  0.3579244646721103E+01  0.3589068660655405E+01  0.3598898917711872E+01  0.3608735414719126E+01  0.3618578148509474E+01
  0.3628427115918922E+01  0.3638282313787163E+01  0.3648143738957561E+01  0.3658011388277163E+01  0.3667885258596671E+01
  0.3677765346770454E+01  0.3687651649656525E+01  0.3697544164116552E+01  0.3707442887015831E+01  0.3717347815223298E+01
  0.3727258945611512E+01  0.3737176275056652E+01  0.3747099800438506E+01  0.3757029518640473E+01  0.3766965426549551E+01
  0.3776907521056322E+01  0.3786855799054962E+01  0.3796810257443229E+01  0.3806770893122452E+01  0.3816737702997525E+01
  0.3826710683976895E+01  0.3836689832972585E+01  0.3846675146900142E+01  0.3856666622678668E+01  0.3866664257230797E+01
  0.3876668047482688E+01  0.3886677990364029E+01  0.3896694082808013E+01  0.3906716321751355E+01  0.3916744704134268E+01
  0.3926779226900454E+01  0.3936819886997122E+01  0.3946866681374952E+01  0.3956919606988104E+01  0.3966978660794220E+01
  0.3977043839754394E+01  0.3987115140833189E+01  0.3997192560998620E+01  0.4007276097222145E+01  0.4017365746478664E+01
  0.4027461505746521E+01  0.4037563372007473E+01  0.4047671342246716E+01  0.4057785413452851E+01  0.4067905582617894E+01
  0.4078031846737270E+01  0.4088164202809792E+01  0.4098302647837669E+01  0.4108447178826507E+01  0.4118597792785279E+01
  0.4128754486726342E+01  0.4138917257665411E+01  0.4149086102621573E+01  0.4159261018617270E+01  0.4169442002678293E+01
  0.4179629051833778E+01  0.4189822163116196E+01  0.4200021333561362E+01  0.4210226560208405E+01  0.4220437840099785E+01
  0.4230655170281269E+01  0.4240878547801945E+01  0.4251107969714191E+01  0.4261343433073701E+01  0.4271584934939440E+01
  0.4281832472373672E+01  0.4292086042441944E+01  0.4302345642213074E+01  0.4312611268759144E+01  0.4322882919155507E+01
  0.4333160590480772E+01  0.4343444279816798E+01  0.4353733984248693E+01  0.4364029700864803E+01  0.4374331426756712E+01
  0.4384639159019230E+01  0.4394952894750396E+01  0.4405272631051464E+01  0.4415598365026899E+01  0.4425930093784380E+01
  0.4436267814434776E+01  0.4446611524092160E+01  0.4456961219873801E+01  0.4467316898900136E+01  0.4477678558294798E+01
  0.4488046195184586E+01  0.4498419806699468E+01  0.4508799389972577E+01  0.4519184942140200E+01  0.4529576460341779E+01
  0.4539973941719899E+01  0.4550377383420293E+01  0.4560786782591824E+01  0.4571202136386484E+01  0.4581623441959399E+01
  0.4592050696468800E+01  0.4602483897076046E+01  0.4612923040945594E+01  0.4623368125245019E+01  0.4633819147144979E+01
  0.4644276103819231E+01  0.4654738992444618E+01  0.4665207810201067E+01  0.4675682554271588E+01  0.4686163221842251E+01
  0.4696649810102199E+01  0.4707142316243632E+01  0.4717640737461812E+01  0.4728145070955051E+01  0.4738655313924705E+01
  0.4749171463575164E+01  0.4759693517113862E+01  0.4770221471751265E+01  0.4780755324700856E+01  0.4791295073179142E+01
  0.4801840714405642E+01  0.4812392245602886E+01  0.4822949663996407E+01  0.4833512966814747E+01  0.4844082151289430E+01
  0.4854657214654971E+01  0.4865238154148872E+01  0.4875824967011616E+01  0.4886417650486659E+01  0.4897016201820420E+01
  0.4907620618262295E+01  0.4918230897064618E+01  0.4928847035482701E+01  0.4939469030774787E+01  0.4950096880202077E+01
  0.4960730581028697E+01  0.4971370130521720E+01  0.4982015525951137E+01  0.4992666764589871E+01  0.5003323843713765E+01
  0.5013986760601567E+01  0.5024655512534951E+01  0.5035330096798472E+01  0.5046010510679611E+01  0.5056696751468729E+01
  0.5067388816459075E+01  0.5078086702946798E+01  0.5088790408230905E+01  0.5099499929613303E+01  0.5110215264398756E+01
  0.5120936409894888E+01  0.5131663363412207E+01  0.5142396122264049E+01  0.5153134683766627E+01  0.5163879045238990E+01
  0.5174629204003022E+01  0.5185385157383462E+01  0.5196146902707863E+01  0.5206914437306621E+01  0.5217687758512952E+01
  0.5228466863662885E+01  0.5239251750095270E+01  0.5250042415151757E+01  0.5260838856176817E+01  0.5271641070517704E+01
  0.5282449055524477E+01  0.5293262808549986E+01  0.5304082326949863E+01  0.5314907608082529E+01  0.5325738649309174E+01
  0.5336575447993765E+01  0.5347418001503034E+01  0.5358266307206478E+01  0.5369120362476361E+01  0.5379980164687684E+01
  0.5390845711218215E+01  0.5401716999448456E+01  0.5412594026761654E+01  0.5423476790543796E+01  0.5434365288183596E+01
  0.5445259517072492E+01  0.5456159474604654E+01  0.5467065158176962E+01  0.5477976565189022E+01  0.5488893693043135E+01
  0.5499816539144317E+01  0.5510745100900274E+01  0.5521679375721425E+01  0.5532619361020870E+01  0.5543565054214392E+01
  0.5554516452720476E+01  0.5565473553960257E+01  0.5576436355357574E+01  0.5587404854338919E+01  0.5598379048333452E+01
  0.5609358934772998E+01  0.5620344511092035E+01  0.5631335774727697E+01  0.5642332723119768E+01  0.5653335353710675E+01
  0.5664343663945476E+01  0.5675357651271882E+01  0.5686377313140219E+01  0.5697402647003448E+01  0.5708433650317159E+01
  0.5719470320539545E+01  0.5730512655131429E+01  0.5741560651556230E+01  0.5752614307279985E+01  0.5763673619771327E+01
  0.5774738586501488E+01  0.5785809204944298E+01  0.5796885472576164E+01  0.5807967386876092E+01  0.5819054945325662E+01
  0.5830148145409026E+01  0.5841246984612923E+01  0.5852351460426641E+01  0.5863461570342055E+01  0.5874577311853588E+01
  0.5885698682458214E+01  0.5896825679655465E+01  0.5907958300947428E+01  0.5919096543838720E+01  0.5930240405836517E+01
  0.5941389884450506E+01  0.5952544977192928E+01  0.5963705681578540E+01  0.5974871995124628E+01  0.5986043915350992E+01
  0.5997221439779961E+01  0.6008404565936353E+01  0.6019593291347520E+01  0.6030787613543297E+01  0.6041987530056032E+01
  0.6053193038420562E+01  0.6064404136174217E+01  0.6075620820856817E+01  0.6086843090010662E+01  0.6098070941180535E+01
  0.6109304371913704E+01  0.6120543379759890E+01  0.6131787962271298E+01  0.6143038117002589E+01  0.6154293841510895E+01
  0.6165555133355789E+01  0.6176821990099305E+01  0.6188094409305939E+01  0.6199372388542609E+01  0.6210655925378680E+01
  0.6221945017385976E+01  0.6233239662138724E+01  0.6244539857213599E+01  0.6255845600189696E+01  0.6267156888648534E+01
  0.6278473720174053E+01  0.6289796092352599E+01  0.6301124002772945E+01  0.6312457449026248E+01  0.6323796428706086E+01
  0.6335140939408430E+01  0.6346490978731652E+01  0.6357846544276510E+01  0.6369207633646154E+01  0.6380574244446109E+01
  0.6391946374284296E+01  0.6403324020770995E+01  0.6414707181518887E+01  0.6426095854142997E+01  0.6437490036260719E+01
  0.6448889725491823E+01  0.6460294919458432E+01  0.6471705615785013E+01  0.6483121812098394E+01  0.6494543506027754E+01
  0.6505970695204612E+01  0.6517403377262825E+01  0.6528841549838592E+01  0.6540285210570441E+01  0.6551734357099226E+01
  0.6563188987068144E+01  0.6574649098122691E+01  0.6586114687910692E+01  0.6597585754082295E+01  0.6609062294289950E+01
  0.6620544306188424E+01  0.6632031787434770E+01  0.6643524735688363E+01  0.6655023148610871E+01  0.6666527023866238E+01
  0.6678036359120727E+01  0.6689551152042862E+01  0.6701071400303472E+01  0.6712597101575647E+01  0.6724128253534757E+01
  0.6735664853858465E+01  0.6747206900226679E+01  0.6758754390321576E+01  0.6770307321827611E+01  0.6781865692431485E+01
  0.6793429499822150E+01  0.6804998741690832E+01  0.6816573415730981E+01  0.6828153519638302E+01  0.6839739051110745E+01
  0.6851330007848501E+01  0.6862926387553984E+01  0.6874528187931842E+01  0.6886135406688964E+01  0.6897748041534456E+01
  0.6909366090179631E+01  0.6920989550338045E+01  0.6932618419725457E+01  0.6944252696059835E+01  0.6955892377061348E+01
  0.6967537460452395E+01  0.6979187943957551E+01  0.6990843825303588E+01  0.7002505102219503E+01  0.7014171772436451E+01
  0.7025843833687786E+01  0.7037521283709055E+01  0.7049204120237968E+01  0.7060892341014442E+01  0.7072585943780538E+01
  0.7084284926280502E+01  0.7095989286260753E+01  0.7107699021469869E+01  0.7119414129658581E+01  0.7131134608579800E+01
  0.7142860455988573E+01  0.7154591669642105E+01  0.7166328247299758E+01  0.7178070186723026E+01  0.7189817485675550E+01
  0.7201570141923111E+01  0.7213328153233632E+01  0.7225091517377158E+01  0.7236860232125863E+01  0.7248634295254063E+01
  0.7260413704538186E+01  0.7272198457756763E+01  0.7283988552690479E+01  0.7295783987122104E+01  0.7307584758836529E+01
  0.7319390865620742E+01  0.7331202305263856E+01  0.7343019075557067E+01  0.7354841174293666E+01  0.7366668599269060E+01
  0.7378501348280727E+01  0.7390339419128237E+01  0.7402182809613261E+01  0.7414031517539535E+01  0.7425885540712872E+01
  0.7437744876941175E+01  0.7449609524034418E+01  0.7461479479804639E+01  0.7473354742065945E+01  0.7485235308634500E+01
  0.7497121177328543E+01  0.7509012345968363E+01  0.7520908812376296E+01  0.7532810574376748E+01  0.7544717629796158E+01
  0.7556629976463011E+01  0.7568547612207849E+01  0.7580470534863242E+01  0.7592398742263794E+01  0.7604332232246144E+01
  0.7616271002648977E+01  0.7628215051312981E+01  0.7640164376080888E+01  0.7652118974797447E+01  0.7664078845309416E+01
  0.7676043985465578E+01  0.7688014393116729E+01  0.7699990066115679E+01  0.7711971002317223E+01  0.7723957199578183E+01
  0.7735948655757379E+01  0.7747945368715620E+01  0.7759947336315709E+01  0.7771954556422457E+01  0.7783967026902651E+01
  0.7795984745625062E+01  0.7808007710460456E+01  0.7820035919281570E+01  0.7832069369963129E+01  0.7844108060381817E+01
  0.7856151988416304E+01  0.7868201151947226E+01  0.7880255548857181E+01  0.7892315177030728E+01  0.7904380034354406E+01
  0.7916450118716679E+01  0.7928525428007992E+01  0.7940605960120738E+01  0.7952691712949254E+01  0.7964782684389816E+01
  0.7976878872340659E+01  0.7988980274701952E+01  0.8001086889375802E+01  0.8013198714266244E+01  0.8025315747279258E+01
  0.8037437986322747E+01  0.8049565429306535E+01  0.8061698074142386E+01  0.8073835918743972E+01  0.8085978961026886E+01
  0.8098127198908630E+01  0.8110280630308637E+01  0.8122439253148240E+01  0.8134603065350664E+01  0.8146772064841070E+01
  0.8158946249546496E+01  0.8171125617395885E+01  0.8183310166320085E+01  0.8195499894251832E+01  0.8207694799125749E+01
  0.8219894878878353E+01  0.8232100131448036E+01  0.8244310554775090E+01  0.8256526146801683E+01  0.8268746905471847E+01
  0.8280972828731500E+01  0.8293203914528430E+01  0.8305440160812298E+01  0.8317681565534619E+01  0.8329928126648793E+01
  0.8342179842110065E+01  0.8354436709875539E+01  0.8366698727904184E+01  0.8378965894156819E+01  0.8391238206596109E+01
  0.8403515663186580E+01  0.8415798261894585E+01  0.8428086000688333E+01  0.8440378877537878E+01  0.8452676890415100E+01
  0.8464980037293712E+01  0.8477288316149266E+01  0.8489601724959156E+01  0.8501920261702583E+01  0.8514243924360578E+01
  0.8526572710916003E+01  0.8538906619353536E+01  0.8551245647659659E+01  0.8563589793822688E+01  0.8575939055832748E+01
  0.8588293431681761E+01  0.8600652919363457E+01  0.8613017516873382E+01  0.8625387222208881E+01  0.8637762033369091E+01
  0.8650141948354944E+01  0.8662526965169183E+01  0.8674917081816323E+01  0.8687312296302679E+01  0.8699712606636350E+01
  0.8712118010827220E+01  0.8724528506886946E+01  0.8736944092828985E+01  0.8749364766668544E+01  0.8761790526422624E+01
  0.8774221370109990E+01  0.8786657295751176E+01  0.8799098301368486E+01  0.8811544384985980E+01  0.8823995544629495E+01
  0.8836451778326611E+01  0.8848913084106666E+01  0.8861379460000768E+01  0.8873850904041769E+01  0.8886327414264255E+01
  0.8898808988704577E+01  0.8911295625400832E+01  0.8923787322392851E+01  0.8936284077722199E+01  0.8948785889432191E+01
  0.8961292755567872E+01  0.8973804674176023E+01  0.8986321643305143E+01  0.8998843661005473E+01  0.9011370725328975E+01
  0.9023902834329327E+01  0.9036439986061927E+01  0.9048982178583909E+01  0.9061529409954108E+01  0.9074081678233066E+01
  0.9086638981483054E+01  0.9099201317768042E+01  0.9111768685153697E+01  0.9124341081707414E+01  0.9136918505498265E+01
  0.9149500954597032E+01  0.9162088427076190E+01  0.9174680921009921E+01  0.9187278434474088E+01  0.9199880965546237E+01
  0.9212488512305621E+01  0.9225101072833166E+01  0.9237718645211469E+01  0.9250341227524837E+01  0.9262968817859234E+01
  0.9275601414302303E+01  0.9288239014943359E+01  0.9300881617873406E+01  0.9313529221185094E+01  0.9326181822972744E+01
  0.7099600252013704E+02  0.7099600252013704E+02  0.7099600252013704E+02  0.7099600252013704E+02  0.7099600252013704E+02
  0.7099600252013704E+02  0.7099600252013704E+02  0.7099600252013704E+02  0.7099600252013704E+02  0.7099600252013704E+02
  0.7099600252013704E+02  0.7099600252013704E+02  0.7099600252013704E+02  0.7099600252013704E+02  0.7099600252013704E+02
  0.7099600252013704E+02  0.7099600252013704E+02  0.7099600252013704E+02  0.7099600252013704E+02  0.7099600252013704E+02
  0.7099600252013704E+02  0.7099600252013704E+02  0.7099600252013704E+02  0.7099600252013704E+02  0.7099600252013704E+02
  0.7099600252013704E+02  0.7099600252013704E+02  0.7099600252013704E+02  0.7099600252013704E+02  0.7099600252013704E+02
  0.7099600252013704E+02  0.7099600252013704E+02  0.7099600252013704E+02  0.7099600252013704E+02  0.7099600252013704E+02
  0.7099600252013704E+02  0.7099600252013704E+02  0.7099600252013704E+02  0.7099600252013704E+02  0.7099600252013704E+02
  0.7099600252013704E+02  0.7099600252013704E+02  0.7099600252013704E+02  0.7099600252013704E+02  0.7099600252013704E+02
  0.7099600252013704E+02  0.7099600252013704E+02  0.7099600252013704E+02  0.7099600252013704E+02  0.7099600252013704E+02
  0.7099600252013704E+02  0.7099600252013704E+02  0.7099600252013704E+02  0.7099600252013704E+02  0.7099600252013704E+02
  0.7099600252013704E+02  0.7099600252013704E+02  0.7099600252013704E+02  0.7099600252013704E+02  0.7099600252013704E+02
  0.7099600252013704E+02  0.7099600252013704E+02  0.7099600252013704E+02  0.7099600252013704E+02  0.7099600252013704E+02
  0.7099600252013704E+02  0.7099600252013704E+02  0.7099600252013704E+02  0.7099600252013704E+02  0.7099600252013704E+02
  0.7099600252013704E+02  0.7099600252013704E+02  0.7099600252013704E+02  0.7099600252013704E+02  0.7099600252013704E+02
  0.7099600252013704E+02  0.7099600252013704E+02  0.7099600252013704E+02  0.7099600252013704E+02  0.7099600252013704E+02
  0.7099600252013704E+02  0.7099600252013704E+02  0.7099600252013704E+02  0.7099600252013704E+02  0.7099600252013704E+02
  0.7099600252013704E+02  0.7099600252013704E+02  0.7099600252013704E+02  0.7099600252013704E+02  0.7099600252013704E+02
  0.7099600252013704E+02  0.7099600252013704E+02  0.7099600252013704E+02  0.7099600252013704E+02  0.7099600252013704E+02
  0.7099600252013704E+02  0.7099600252013704E+02  0.7099600252013704E+02  0.7099600252013704E+02  0.7099600252013704E+02
  0.7099600252013704E+02  0.7099600252013704E+02  0.7099600252013704E+02  0.7099600252013704E+02  0.7099600252013704E+02
  0.7099600252013704E+02  0.7099600252013704E+02  0.7099600252013704E+02  0.7099600252013704E+02  0.7099600252013704E+02
  0.7099600252013704E+02  0.7099600252013704E+02  0.7099600252013704E+02  0.7099600252013704E+02  0.7099600252013704E+02
  0.7099600252013704E+02  0.7099600252013704E+02  0.7099600252013704E+02  0.7099600252013704E+02  0.7099600252013704E+02
  0.7099600252013704E+02  0.7099600252013704E+02  0.7099600252013704E+02  0.7099600252013704E+02  0.7099600252013704E+02
  0.7099600252013704E+02  0.7099600252013704E+02  0.7099600252013704E+02  0.7099600252013704E+02  0.7099600252013704E+02
  0.7099600252013704E+02  0.7099600252013704E+02  0.7099600252013704E+02  0.7099600252013704E+02  0.7099600252013704E+02
  0.7099600252013704E+02  0.7099600252013704E+02  0.7099600252013704E+02  0.7099600252013704E+02  0.7099600252013704E+02
  0.7099600252013704E+02  0.7099600252013704E+02  0.7099600252013704E+02  0.7099600252013704E+02  0.7099600252013704E+02
  0.7099600252013704E+02  0.7099600252013704E+02  0.7099600252013704E+02  0.7099600252013704E+02  0.7099600252013704E+02
  0.7099600252013704E+02  0.7099600252013704E+02  0.7099600252013704E+02  0.7099600252013704E+02  0.7099600252013704E+02
  0.7099600252013704E+02  0.7099600252013704E+02  0.7099600252013704E+02  0.7099600252013704E+02  0.7099600252013704E+02
  0.7099600252013704E+02  0.7099600252013704E+02  0.7099600252013704E+02  0.7080796226170864E+02  0.7044154969885165E+02
  0.7007703182182398E+02  0.6971439888900764E+02  0.6935364120675352E+02  0.6899474912922291E+02  0.6863771305822686E+02
  0.6828252344306291E+02  0.6792917078035003E+02  0.6757764561386172E+02  0.6722793853435661E+02  0.6688004017940807E+02
  0.6653394123323136E+02  0.6618963242651004E+02  0.6584710453621987E+02  0.6550634838545237E+02  0.6516735484323621E+02
  0.6483011482435772E+02  0.6449461928918051E+02  0.6416085924346331E+02  0.6382882573817761E+02  0.6349850986932369E+02
  0.6316990277774619E+02  0.6284299564894880E+02  0.6251777971290816E+02  0.6219424624388706E+02  0.6187238656024716E+02
  0.6155219202426104E+02  0.6123365404192387E+02  0.6091676406276454E+02  0.6060151357965636E+02  0.6028789412862753E+02
  0.5997589728867136E+02  0.5966551468155603E+02  0.5935673797163440E+02  0.5904955886565341E+02  0.5874396911256350E+02
  0.5843996050332812E+02  0.5813752487073274E+02  0.5783665408919445E+02  0.5753734007457096E+02  0.5723957478397014E+02
  0.5694335021555954E+02  0.5664865840837594E+02  0.5635549144213503E+02  0.5606384143704149E+02  0.5577370055359905E+02
  0.5548506099242101E+02  0.5519791499404082E+02  0.5491225483872308E+02  0.5462807284627472E+02  0.5434536137585683E+02
  0.5406411282579639E+02  0.5378431963339878E+02  0.5350597427476045E+02  0.5322906926458209E+02  0.5295359715598229E+02
  0.5267955054031147E+02  0.5240692204696657E+02  0.5213570434320580E+02  0.5186589013396451E+02  0.5159747216167076E+02
  0.5133044320606226E+02  0.5106479608400316E+02  0.5080052364930189E+02  0.5053761879252922E+02  0.5027607444083709E+02
  0.5001588355777803E+02  0.4975703914312492E+02  0.4949953423269174E+02  0.4924336189815468E+02  0.4898851524687394E+02
  0.4873498742171613E+02  0.4848277160087734E+02  0.4823186099770685E+02  0.4798224886053160E+02  0.4773392847248107E+02
  0.4748689315131302E+02  0.4724113624923984E+02  0.4699665115275565E+02  0.4675343128246399E+02  0.4651147009290613E+02
  0.4627076107239031E+02  0.4603129774282136E+02  0.4579307365953144E+02  0.4555608241111089E+02  0.4532031761924049E+02
  0.4508577293852374E+02  0.4485244205632037E+02  0.4462031869258024E+02  0.4438939659967821E+02  0.4415966956224946E+02
  0.4393113139702570E+02  0.4370377595267212E+02  0.4347759710962493E+02  0.4325258877992975E+02  0.4302874490708062E+02
  0.4280605946585975E+02  0.4258452646217816E+02  0.4236413993291677E+02  0.4214489394576842E+02  0.4192678259908048E+02
  0.4170980002169837E+02  0.4149394037280963E+02  0.4127919784178869E+02  0.4106556664804263E+02  0.4085304104085722E+02
  0.4064161529924428E+02  0.4043128373178909E+02  0.4022204067649909E+02  0.4001388050065294E+02  0.3980679760065047E+02
  0.3960078640186327E+02  0.3939584135848611E+02  0.3919195695338889E+02  0.3898912769796946E+02  0.3878734813200705E+02
  0.3858661282351653E+02  0.3838691636860332E+02  0.3818825339131884E+02  0.3799061854351696E+02  0.3779400650471096E+02
  0.3759841198193129E+02  0.3740382970958392E+02  0.3721025444930947E+02  0.3701768098984297E+02  0.3682610414687445E+02
  0.3663551876291007E+02  0.3644591970713399E+02  0.3625730187527088E+02  0.3606966018944927E+02  0.3588298959806542E+02
  0.3569728507564793E+02  0.3551254162272298E+02  0.3532875426568035E+02  0.3514591805664002E+02  0.3496402807331940E+02
  0.3478307941890144E+02  0.3460306722190307E+02  0.3442398663604460E+02  0.3424583284011966E+02  0.3406860103786578E+02
  0.3389228645783561E+02  0.3371688435326890E+02  0.3354239000196493E+02  0.3336879870615585E+02  0.3319610579238045E+02
  0.3302430661135860E+02  0.3285339653786643E+02  0.3268337097061202E+02  0.3251422533211186E+02  0.3234595506856782E+02
  0.3217855564974477E+02  0.3201202256884878E+02  0.3184635134240619E+02  0.3168153751014297E+02  0.3151757663486478E+02
  0.3135446430233782E+02  0.3119219612117012E+02  0.3103076772269342E+02  0.3087017476084582E+02  0.3071041291205488E+02
  0.3055147787512132E+02  0.3039336537110338E+02  0.3023607114320183E+02  0.3007959095664536E+02  0.2992392059857680E+02
  0.2976905587793972E+02  0.2961499262536578E+02  0.2946172669306255E+02  0.2930925395470195E+02  0.2915757030530922E+02
  0.2900667166115249E+02  0.2885655395963300E+02  0.2870721315917569E+02  0.2855864523912058E+02  0.2841084619961443E+02
  0.2826381206150332E+02  0.2811753886622547E+02  0.2797202267570470E+02  0.2782725957224460E+02  0.2768324565842294E+02
  0.2753997705698688E+02  0.2739744991074873E+02  0.2725566038248194E+02  0.2711460465481798E+02  0.2697427893014359E+02
  0.2683467943049855E+02  0.2669580239747406E+02  0.2655764409211150E+02  0.2642020079480188E+02  0.2628346880518568E+02
  0.2614744444205333E+02  0.2601212404324602E+02  0.2587750396555724E+02  0.2574358058463464E+02  0.2561035029488255E+02
  0.2547780950936486E+02  0.2534595465970855E+02  0.2521478219600756E+02  0.2508428858672726E+02  0.2495447031860943E+02
  0.2482532389657769E+02  0.2469684584364336E+02  0.2456903270081191E+02  0.2444188102698985E+02  0.2431538739889206E+02
  0.2418954841094973E+02  0.2406436067521859E+02  0.2393982082128773E+02  0.2381592549618894E+02  0.2369267136430632E+02
  0.2357005510728667E+02  0.2344807342394994E+02  0.2332672303020054E+02  0.2320600065893886E+02  0.2308590305997331E+02
  0.2296642699993287E+02  0.2284756926217997E+02  0.2272932664672398E+02  0.2261169597013500E+02  0.2249467406545821E+02
  0.2237825778212857E+02  0.2226244398588602E+02  0.2214722955869109E+02  0.2203261139864099E+02  0.2191858641988609E+02
  0.2180515155254682E+02  0.2169230374263104E+02  0.2158003995195185E+02  0.2146835715804572E+02  0.2135725235409123E+02
  0.2124672254882804E+02  0.2113676476647634E+02  0.2102737604665685E+02  0.2091855344431099E+02  0.2081029402962169E+02
  0.2070259488793446E+02  0.2059545311967890E+02  0.2048886584029077E+02  0.2038283018013414E+02  0.2027734328442428E+02
  0.2017240231315072E+02  0.2006800444100084E+02  0.1996414685728380E+02  0.1986082676585486E+02  0.1975804138504005E+02
  0.1965578794756135E+02  0.1955406370046221E+02  0.1945286590503334E+02  0.1935219183673907E+02  0.1925203878514393E+02
  0.1915240405383967E+02  0.1905328496037280E+02  0.1895467883617217E+02  0.1885658302647730E+02  0.1875899489026679E+02
  0.1866191180018727E+02  0.1856533114248269E+02  0.1846925031692387E+02  0.1837366673673856E+02  0.1827857782854180E+02
  0.1818398103226657E+02  0.1808987380109497E+02  0.1799625360138955E+02  0.1790311791262517E+02  0.1781046422732109E+02
  0.1771829005097351E+02  0.1762659290198835E+02  0.1753537031161455E+02  0.1744461982387743E+02  0.1735433899551274E+02
  0.1726452539590079E+02  0.1717517660700102E+02  0.1708629022328692E+02  0.1699786385168125E+02  0.1690989511149159E+02
  0.1682238163434635E+02  0.1673532106413086E+02  0.1664871105692403E+02  0.1656254928093520E+02  0.1647683341644139E+02
  0.1639156115572490E+02  0.1630673020301103E+02  0.1622233827440640E+02  0.1613838309783743E+02  0.1605486241298915E+02
  0.1597177397124434E+02  0.1588911553562304E+02  0.1580688488072227E+02  0.1572507979265615E+02  0.1564369806899628E+02
  0.1556273751871241E+02  0.1548219596211355E+02  0.1540207123078920E+02  0.1532236116755097E+02  0.1524306362637457E+02
  0.1516417647234197E+02  0.1508569758158394E+02  0.1500762484122287E+02  0.1492995614931591E+02  0.1485268941479832E+02
  0.1477582255742724E+02  0.1469935350772564E+02  0.1462328020692663E+02  0.1454760060691799E+02  0.1447231267018709E+02
  0.1439741436976599E+02  0.1432290368917686E+02  0.1424877862237777E+02  0.1417503717370855E+02  0.1410167735783718E+02
  0.1402869719970629E+02  0.1395609473447996E+02  0.1388386800749090E+02  0.1381201507418771E+02  0.1374053400008266E+02
  0.1366942286069948E+02  0.1359867974152165E+02  0.1352830273794079E+02  0.1345828995520542E+02  0.1338863950836991E+02
  0.1331934952224380E+02  0.1325041813134121E+02  0.1318184347983072E+02  0.1311362372148534E+02  0.1304575701963285E+02
  0.1297824154710628E+02  0.1291107548619483E+02  0.1284425702859479E+02  0.1277778437536101E+02  0.1271165573685833E+02
  0.1264586933271347E+02  0.1258042339176712E+02  0.1251531615202615E+02  0.1245054586061632E+02  0.1238611077373494E+02
  0.1232200915660404E+02  0.1225823928342359E+02  0.1219479943732507E+02  0.1213168791032523E+02  0.1206890300328013E+02
  0.1200644302583936E+02  0.1194430629640057E+02  0.1188249114206418E+02  0.1182099589858830E+02  0.1175981891034401E+02
  0.1169895853027069E+02  0.1163841311983176E+02  0.1157818104897052E+02  0.1151826069606626E+02  0.1145865044789062E+02
  0.1139934869956417E+02  0.1134035385451316E+02  0.1128166432442655E+02  0.1122327852921332E+02  0.1116519489695977E+02
  0.1110741186388740E+02  0.1104992787431062E+02  0.1099274138059499E+02  0.1093585084311552E+02  0.1087925473021520E+02
  0.1082295151816379E+02  0.1076693969111676E+02  0.1071121774107453E+02  0.1065578416784183E+02  0.1060063747898733E+02
  0.1054577618980343E+02  0.1049119882326635E+02  0.1043690390999629E+02  0.1038288998821792E+02  0.1032915560372102E+02
  0.1027569930982129E+02  0.1022251966732146E+02  0.1016961524447249E+02  0.1011698461693505E+02  0.1006462636774118E+02
  0.1001253908725612E+02  0.9960721373140354E+01  0.9909171830311896E+01  0.9857889070908673E+01  0.9806871714251221E+01
  0.9756118386805458E+01  0.9705627722145730E+01  0.9655398360918038E+01  0.9605428950803411E+01  0.9555718146481503E+01
  0.9506264609594400E+01  0.9457067008710549E+01  0.9408124019288948E+01  0.9359434323643445E+01  0.9310996610907315E+01
  0.9262809576997908E+01  0.9214871924581596E+01  0.9167182363038798E+01  0.9119739608429271E+01  0.9072542383457506E+01
  0.9025589417438376E+01  0.8978879446262900E+01  0.8932411212364212E+01  0.8886183464683722E+01  0.8840194958637413E+01
  0.8794444456082335E+01  0.8748930725283298E+01  0.8703652540879666E+01  0.8658608683852405E+01  0.8613797941491240E+01
  0.8569219107362017E+01  0.8524870981274221E+01  0.8480752369248655E+01  0.8436862083485314E+01  0.8393198942331376E+01
  0.8349761770249415E+01  0.8306549397785753E+01  0.8263560661538946E+01  0.8220794404128482E+01  0.8178249474163639E+01
  0.8135924726212444E+01  0.8093819020770868E+01  0.8051931224232144E+01  0.8010260208856224E+01  0.7968804852739441E+01
  0.7927564039784301E+01  0.7886536659669419E+01  0.7845721607819648E+01  0.7805117785376320E+01  0.7764724099167664E+01
  0.7724539461679402E+01  0.7684562791025431E+01  0.7644793010918722E+01  0.7605229050642334E+01  0.7565869845020588E+01
  0.7526714334390388E+01  0.7487761464572695E+01  0.7449010186844140E+01  0.7410459457908801E+01  0.7372108239870102E+01
  0.7333955500202870E+01  0.7296000211725552E+01  0.7258241352572536E+01  0.7220677906166669E+01  0.7183308861191857E+01
  0.7146133211565854E+01  0.7109149956413183E+01  0.7072358100038174E+01  0.7035756651898157E+01  0.6999344626576808E+01
  0.6963121043757612E+01  0.6927084928197459E+01  0.6891235309700410E+01  0.6855571223091546E+01  0.6820091708191021E+01
  0.6784795809788176E+01  0.6749682577615835E+01  0.6714751066324738E+01  0.6680000335458058E+01  0.6645429449426110E+01
  0.6611037477481140E+01  0.6576823493692277E+01  0.6542786576920612E+01  0.6508925810794384E+01  0.6475240283684307E+01
  0.6441729088679047E+01  0.6408391323560783E+01  0.6375226090780933E+01  0.6342232497435971E+01  0.6309409655243412E+01
  0.6276756680517872E+01  0.6244272694147297E+01  0.6211956821569277E+01  0.6179808192747520E+01  0.6147825942148405E+01
  0.6116009208717703E+01  0.6084357135857378E+01  0.6052868871402524E+01  0.6021543567598443E+01  0.5990380381077797E+01
  0.5959378472837911E+01  0.5928537008218195E+01  0.5897855156877652E+01  0.5867332092772537E+01  0.5836966994134122E+01
  0.5806759043446551E+01  0.5776707427424857E+01  0.5746811336993039E+01  0.5717069967262304E+01  0.5687482517509375E+01
  0.5658048191154954E+01  0.5628766195742255E+01  0.5599635742915689E+01  0.5570656048399631E+01  0.5541826331977285E+01
  0.5513145817469719E+01  0.5484613732714942E+01  0.5456229309547099E+01  0.5427991783775835E+01  0.5399900395165692E+01
  0.5371954387415625E+01  0.5344153008138679E+01  0.5316495508841715E+01  0.5288981144905245E+01  0.5261609175563402E+01
  0.5234378863883995E+01  0.5207289476748662E+01  0.5180340284833133E+01  0.5153530562587604E+01  0.5126859588217188E+01
  0.5100326643662489E+01  0.5073931014580280E+01  0.5047671990324262E+01  0.5021548863925915E+01  0.4995560932075496E+01
  0.4969707495103089E+01  0.4943987856959754E+01  0.4918401325198810E+01  0.4892947210957190E+01  0.4867624828936866E+01
  0.4842433497386442E+01  0.4817372538082767E+01  0.4792441276312694E+01  0.4767639040854892E+01  0.4742965163961804E+01
  0.4718418981341654E+01  0.4693999832140553E+01  0.4669707058924727E+01  0.4645540007662805E+01  0.4621498027708208E+01
  0.4597580471781644E+01  0.4573786695953674E+01  0.4550116059627361E+01  0.4526567925521056E+01  0.4503141659651218E+01
  0.4479836631315339E+01  0.4456652213074986E+01  0.4433587780738891E+01  0.4410642713346161E+01  0.4387816393149533E+01
  0.4365108205598776E+01  0.4342517539324127E+01  0.4320043786119830E+01  0.4297686340927763E+01  0.4275444601821160E+01
  0.4253317969988387E+01  0.4231305849716836E+01  0.4209407648376875E+01  0.4187622776405894E+01  0.4165950647292443E+01
  0.4144390677560439E+01  0.4122942286753435E+01  0.4101604897419024E+01  0.4080377935093279E+01  0.4059260828285271E+01
  0.4038253008461711E+01  0.4017353910031630E+01  0.3996562970331151E+01  0.3975879629608329E+01  0.3955303331008111E+01
  0.3934833520557317E+01  0.3914469647149735E+01  0.3894211162531281E+01  0.3874057521285246E+01  0.3854008180817602E+01
  0.3834062601342402E+01  0.3814220245867240E+01  0.3794480580178796E+01  0.3774843072828459E+01  0.3755307195118015E+01
  0.3735872421085404E+01  0.3716538227490577E+01  0.3697304093801397E+01  0.3678169502179631E+01  0.3659133937466994E+01
  0.3640196887171300E+01  0.3621357841452659E+01  0.3602616293109729E+01  0.3583971737566094E+01  0.3565423672856660E+01
  0.3546971599614138E+01  0.3528615021055610E+01  0.3510353442969153E+01  0.3492186373700520E+01  0.3474113324139923E+01
  0.3456133807708857E+01  0.3438247340346982E+01  0.3420453440499125E+01  0.3402751629102287E+01  0.3385141429572763E+01
  0.3367622367793289E+01  0.3350193972100304E+01  0.3332855773271240E+01  0.3315607304511875E+01  0.3298448101443793E+01
  0.3281377702091862E+01  0.3264395646871797E+01  0.3247501478577797E+01  0.3230694742370231E+01  0.3213974985763387E+01
  0.3197341758613295E+01  0.3180794613105610E+01  0.3164333103743548E+01  0.3147956787335901E+01  0.3131665222985100E+01
  0.3115457972075342E+01  0.3099334598260786E+01  0.3083294667453805E+01  0.3067337747813300E+01  0.3051463409733064E+01
  0.3035671225830229E+01  0.3019960770933757E+01  0.3004331622072980E+01  0.2988783358466231E+01  0.2973315561509508E+01
  0.2957927814765192E+01  0.2942619703950857E+01  0.2927390816928103E+01  0.2912240743691458E+01  0.2897169076357350E+01
  0.2882175409153115E+01  0.2867259338406078E+01  0.2852420462532685E+01  0.2837658382027691E+01  0.2822972699453403E+01
  0.2808363019428975E+01  0.2793828948619775E+01  0.2779370095726790E+01  0.2764986071476079E+01  0.2750676488608314E+01
  0.2736440961868343E+01  0.2722279107994809E+01  0.2708190545709850E+01  0.2694174895708823E+01  0.2680231780650085E+01
  0.2666360825144854E+01  0.2652561655747086E+01  0.2638833900943423E+01  0.2625177191143198E+01  0.2611591158668475E+01
  0.2598075437744162E+01  0.2584629664488148E+01  0.2571253476901521E+01  0.2557946514858815E+01  0.2544708420098308E+01
  0.2531538836212392E+01  0.2518437408637966E+01  0.2505403784646890E+01  0.2492437613336494E+01  0.2479538545620133E+01
  0.2466706234217773E+01  0.2453940333646663E+01  0.2441240500212016E+01  0.2428606391997766E+01  0.2416037668857355E+01
  0.2403533992404584E+01  0.2391095026004497E+01  0.2378720434764317E+01  0.2366409885524431E+01  0.2354163046849425E+01
  0.2341979589019151E+01  0.2329859184019862E+01  0.2317801505535374E+01  0.2305806228938273E+01  0.2293873031281191E+01
  0.2282001591288107E+01  0.2270191589345683E+01  0.2258442707494678E+01  0.2246754629421383E+01  0.2235127040449090E+01
  0.2223559627529641E+01  0.2212052079234989E+01  0.2200604085748815E+01  0.2189215338858183E+01  0.2177885531945250E+01
  0.2166614359979007E+01  0.2155401519507062E+01  0.2144246708647481E+01  0.2133149627080650E+01  0.2122109976041195E+01
  0.2111127458309934E+01  0.2100201778205887E+01  0.2089332641578294E+01  0.2078519755798717E+01  0.2067762829753152E+01
  0.2057061573834187E+01  0.2046415699933216E+01  0.2035824921432674E+01  0.2025288953198320E+01  0.2014807511571566E+01
  0.2004380314361838E+01  0.1994007080838978E+01  0.1983687531725681E+01  0.1973421389189986E+01  0.1963208376837789E+01
  0.1953048219705403E+01  0.1942940644252156E+01  0.1932885378353027E+01  0.1922882151291317E+01  0.1912930693751362E+01
  0.1903030737811288E+01  0.1893182016935783E+01  0.1883384265968938E+01  0.1873637221127100E+01  0.1863940619991763E+01
  0.1854294201502522E+01  0.1844697705950025E+01  0.1835150874968995E+01  0.1825653451531261E+01  0.1816205179938852E+01
  0.1806805805817104E+01  0.1797455076107813E+01  0.1788152739062421E+01  0.1778898544235243E+01  0.1769692242476721E+01
  0.1760533585926712E+01  0.1751422328007825E+01  0.1742358223418771E+01  0.1733341028127767E+01  0.1724370499365967E+01
  0.1715446395620914E+01  0.1706568476630053E+01  0.1697736503374252E+01  0.1688950238071373E+01  0.1680209444169864E+01
  0.1671513886342397E+01  0.1662863330479530E+01  0.1654257543683398E+01  0.1645696294261454E+01  0.1637179351720224E+01
  0.1628706486759101E+01  0.1620277471264173E+01  0.1611892078302085E+01  0.1603550082113923E+01  0.1595251258109139E+01
  0.1586995382859509E+01  0.1578782234093104E+01  0.1570611590688325E+01  0.1562483232667934E+01  0.1554396941193135E+01
  0.1546352498557693E+01  0.1538349688182055E+01  0.1530388294607534E+01  0.1522468103490497E+01  0.1514588901596607E+01
  0.1506750476795070E+01  0.1498952618052929E+01  0.1491195115429380E+01  0.1483477760070131E+01  0.1475800344201755E+01
  0.1468162661126124E+01  0.1460564505214825E+01  0.1453005671903631E+01  0.1445485957686991E+01  0.1438005160112558E+01
  0.1430563077775724E+01  0.1423159510314214E+01  0.1415794258402680E+01  0.1408467123747343E+01  0.1401177909080645E+01
  0.1393926418155946E+01  0.1386712455742236E+01  0.1379535827618881E+01  0.1372396340570397E+01  0.1365293802381238E+01
  0.1358228021830630E+01  0.1351198808687421E+01  0.1344205973704962E+01  0.1337249328615998E+01  0.1330328686127621E+01
  0.1323443859916212E+01  0.1316594664622426E+01  0.1309780915846209E+01  0.1303002430141828E+01  0.1296259025012931E+01
  0.1289550518907638E+01  0.1282876731213647E+01  0.1276237482253381E+01  0.1269632593279139E+01  0.1263061886468294E+01
  0.1256525184918496E+01  0.1250022312642916E+01  0.1243553094565509E+01  0.1237117356516292E+01  0.1230714925226663E+01
  0.1224345628324731E+01  0.1218009294330684E+01  0.1211705752652153E+01  0.1205434833579645E+01  0.1199196368281952E+01
  0.1192990188801620E+01  0.1186816128050414E+01  0.1180674019804834E+01  0.1174563698701628E+01  0.1168485000233345E+01
  0.1162437760743906E+01  0.1156421817424197E+01  0.1150437008307686E+01  0.1144483172266060E+01  0.1138560149004892E+01
  0.1132667779059317E+01  0.1126805903789752E+01  0.1120974365377610E+01  0.1115173006821060E+01  0.1109401671930797E+01
  0.1103660205325842E+01  0.1097948452429346E+01  0.1092266259464445E+01  0.1086613473450105E+01  0.1080989942197015E+01
  0.1075395514303476E+01  0.1069830039151342E+01  0.1064293366901948E+01  0.1058785348492088E+01  0.1053305835629994E+01
  0.1047854680791348E+01  0.1042431737215308E+01  0.1037036858900557E+01  0.1031669900601372E+01  0.1026330717823712E+01
  0.1021019166821333E+01  0.1015735104591911E+01  0.1010478388873193E+01  0.1005248878139172E+01  0.1000046431596272E+01
  0.9948709091795571E+00  0.9897221715489610E+00  0.9846000800855357E+00  0.9795044968877228E+00  0.9744352847676295E+00
  0.9693923072473497E+00  0.9643754285552776E+00  0.9593845136224576E+00  0.9544194280789453E+00  0.9494800382501934E+00
  0.9445662111534466E+00  0.9396778144941652E+00  0.9348147166624619E+00  0.9299767867295567E+00  0.9251638944442558E+00
  0.9203759102294387E+00  0.9156127051785748E+00  0.9108741510522456E+00  0.9061601202746999E+00  0.9014704859304128E+00
  0.8968051217606695E+00  0.8921639021601658E+00  0.8875467021736301E+00  0.8829533974924471E+00  0.8783838644513263E+00
  0.8738379800249590E+00  0.8693156218247120E+00  0.8648166680953285E+00  0.8603409977116550E+00  0.8558884901753725E+00
  0.8514590256117552E+00  0.8470524847664445E+00  0.8426687490022334E+00  0.8383077002958734E+00  0.8339692212348958E+00
  0.8296531950144541E+00  0.8253595054341681E+00  0.8210880368950071E+00  0.8168386743961671E+00  0.8126113035319782E+00
  0.8084058104888213E+00  0.8042220820420680E+00  0.8000600055530205E+00  0.7959194689658912E+00  0.7918003608047739E+00
  0.7877025701706474E+00  0.7836259867383848E+00  0.7795705007537871E+00  0.7755360030306205E+00  0.7715223849476792E+00
  0.7675295384458607E+00  0.7635573560252514E+00  0.7596057307422329E+00  0.7556745562066010E+00  0.7517637265787022E+00
  0.7478731365665748E+00  0.7440026814231235E+00  0.7401522569432870E+00  0.7363217594612379E+00  0.7325110858475847E+00
  0.7287201335065994E+00  0.7249488003734436E+00  0.7211969849114301E+00  0.7174645861092778E+00  0.7137515034783934E+00
  0.7100576370501654E+00  0.7063828873732667E+00  0.7027271555109756E+00  0.6990903430385101E+00  0.6954723520403774E+00
  0.6918730851077298E+00  0.6882924453357434E+00  0.6847303363210042E+00  0.6811866621589124E+00  0.6776613274410911E+00
  0.6741542372528220E+00  0.6706652971704810E+00  0.6671944132589946E+00  0.6637414920693062E+00  0.6603064406358604E+00
  0.6568891664740879E+00  0.6534895775779218E+00  0.6501075824173079E+00  0.6467430899357423E+00  0.6433960095478104E+00
  0.6400662511367476E+00  0.6367537250520062E+00  0.6334583421068370E+00  0.6301800135758859E+00  0.6269186511927957E+00
  0.6236741671478276E+00  0.6204464740854896E+00  0.6172354851021831E+00  0.6140411137438497E+00  0.6108632740036476E+00
  0.6077018803196211E+00  0.6045568475723957E+00  0.6014280910828781E+00  0.5983155266099712E+00  0.5952190703482970E+00
  0.5921386389259348E+00  0.5890741494021682E+00  0.5860255192652469E+00  0.5829926664301535E+00  0.5799755092363892E+00
  0.5769739664457649E+00  0.5739879572402058E+00  0.5710174012195691E+00  0.5680622183994667E+00  0.5651223292091052E+00
  0.5621976544891322E+00  0.5592881154894991E+00  0.5563936338673239E+00  0.5535141316847803E+00  0.5506495314069816E+00
  0.5477997558998854E+00  0.5449647284282050E+00  0.5421443726533338E+00  0.5393386126312743E+00  0.5365473728105838E+00
  0.5337705780303275E+00  0.5310081535180421E+00  0.5282600248877082E+00  0.5255261181377348E+00  0.5228063596489528E+00
  0.5201006761826180E+00  0.5174089948784262E+00  0.5147312432525336E+00  0.5120673491955914E+00  0.5094172409707870E+00
  0.5067808472118994E+00  0.5041580969213546E+00  0.5015489194683033E+00  0.4989532445866963E+00  0.4963710023733788E+00
  0.4938021232861833E+00  0.4912465381420452E+00  0.4887041781151142E+00  0.4861749747348842E+00  0.4836588598843262E+00
  0.4811557657980369E+00  0.4786656250603874E+00  0.4761883706036877E+00  0.4737239357063581E+00  0.4712722539911071E+00
  0.4688332594231224E+00  0.4664068863082649E+00  0.4639930692912758E+00  0.4615917433539891E+00  0.4592028438135571E+00
  0.4568263063206761E+00  0.4544620668578291E+00  0.4521100617375305E+00  0.4497702276005847E+00  0.4474425014143431E+00
  0.4451268204709823E+00  0.4428231223857787E+00  0.4405313450953969E+00  0.4382514268561848E+00  0.4359833062424767E+00
  0.4337269221449017E+00  0.4314822137687040E+00  0.4292491206320659E+00  0.4270275825644426E+00  0.4248175397049033E+00
  0.4226189325004752E+00  0.4204317017045042E+00  0.4182557883750103E+00  0.4160911338730636E+00  0.4139376798611564E+00
  0.4117953683015886E+00  0.4096641414548576E+00  0.4075439418780572E+00  0.4054347124232777E+00  0.4033363962360229E+00
  0.4012489367536224E+00  0.3991722777036589E+00  0.3971063631023974E+00  0.3950511372532248E+00  0.3930065447450906E+00
  0.3909725304509593E+00  0.3889490395262658E+00  0.3869360174073777E+00  0.3849334098100658E+00  0.3829411627279758E+00
  0.3809592224311131E+00  0.3789875354643242E+00  0.3770260486457950E+00  0.3750747090655450E+00  0.3731334640839331E+00
  0.3712022613301668E+00  0.3692810487008185E+00  0.3673697743583433E+00  0.3654683867296097E+00  0.3635768345044267E+00
  0.3616950666340833E+00  0.3598230323298887E+00  0.3579606810617219E+00  0.3561079625565807E+00  0.3542648267971403E+00
  0.3524312240203166E+00  0.3506071047158299E+00  0.3487924196247790E+00  0.3469871197382158E+00  0.3451911562957279E+00
  0.3434044807840207E+00  0.3416270449355107E+00  0.3398588007269166E+00  0.3380997003778591E+00  0.3363496963494619E+00
  0.3346087413429610E+00  0.3328767882983106E+00  0.3311537903928025E+00  0.3294397010396806E+00  0.3277344738867647E+00
  0.3260380628150755E+00  0.3243504219374647E+00  0.3226715055972466E+00  0.3210012683668343E+00  0.3193396650463807E+00
  0.3176866506624194E+00  0.3160421804665111E+00  0.3144062099338925E+00  0.3127786947621294E+00  0.3111595908697684E+00
  0.3095488543949980E+00  0.3079464416943058E+00  0.3063523093411429E+00  0.3047664141245885E+00  0.3031887130480188E+00
  0.3016191633277738E+00  0.3000577223918340E+00  0.2985043478784908E+00  0.2969589976350243E+00  0.2954216297163826E+00
  0.2938922023838595E+00  0.2923706741037781E+00  0.2908570035461730E+00  0.2893511495834766E+00  0.2878530712892035E+00
  0.2863627279366394E+00  0.2848800789975291E+00  0.2834050841407679E+00  0.2819377032310892E+00  0.2804778963277608E+00
  0.2790256236832731E+00  0.2775808457420347E+00  0.2761435231390653E+00  0.2747136166986910E+00  0.2732910874332363E+00
  0.2718758965417219E+00  0.2704680054085567E+00  0.2690673756022354E+00  0.2676739688740302E+00  0.2662877471566877E+00
  0.2649086725631218E+00  0.2635367073851069E+00  0.2621718140919730E+00  0.2608139553292955E+00  0.2594630939175880E+00
  0.2581191928509926E+00  0.2567822152959699E+00  0.2554521245899856E+00  0.2541288842401999E+00  0.2528124579221506E+00
  0.2515028094784386E+00  0.2501999029174092E+00  0.2489037024118337E+00  0.2476141722975862E+00  0.2463312770723210E+00
  0.2450549813941465E+00  0.2437852500802977E+00  0.2425220481058043E+00  0.2412653406021582E+00  0.2400150928559773E+00
  0.2387712703076668E+00  0.2375338385500778E+00  0.2363027633271610E+00  0.2350780105326199E+00  0.2338595462085575E+00
  0.2326473365441238E+00  0.2314413478741532E+00  0.2302415466778054E+00  0.2290478995771962E+00  0.2278603733360292E+00
  0.2266789348582172E+00  0.2255035511865073E+00  0.2243341895010941E+00  0.2231708171182319E+00  0.2220134014888419E+00
  0.2208619101971145E+00  0.2197163109591047E+00  0.2185765716213251E+00  0.2174426601593315E+00  0.2163145446763039E+00
  0.2151921934016221E+00  0.2140755746894348E+00  0.2129646570172232E+00  0.2118594089843588E+00  0.2107597993106555E+00
  0.2096657968349129E+00  0.2085773705134580E+00  0.2074944894186745E+00  0.2064171227375308E+00  0.2053452397700965E+00
  0.2042788099280567E+00  0.2032178027332149E+00  0.2021621878159912E+00  0.2011119349139125E+00  0.2000670138700966E+00
  0.1990273946317252E+00  0.1979930472485136E+00  0.1969639418711696E+00  0.1959400487498456E+00  0.1949213382325833E+00
  0.1939077807637489E+00  0.1928993468824608E+00  0.1918960072210099E+00  0.1908977325032698E+00  0.1899044935430991E+00
  0.1889162612427375E+00  0.1879330065911883E+00  0.1869547006625969E+00  0.1859813146146188E+00  0.1850128196867776E+00
  0.1840491871988157E+00  0.1830903885490362E+00  0.1821363952126334E+00  0.1811871787400173E+00  0.1802427107551282E+00
  0.1793029629537399E+00  0.1783679071017568E+00  0.1774375150335011E+00  0.1765117586499899E+00  0.1755906099172025E+00
  0.1746740408643438E+00  0.1737620235820904E+00  0.1728545302208352E+00  0.1719515329889191E+00  0.1710530041508544E+00
  0.1701589160255406E+00  0.1692692409844708E+00  0.1683839514499281E+00  0.1675030198931780E+00  0.1666264188326460E+00
  0.1657541208320931E+00  0.1648860984987807E+00  0.1640223244816265E+00  0.1631627714693558E+00  0.1623074121886436E+00
  0.1614562194022501E+00  0.1606091659071483E+00  0.1597662245326490E+00  0.1589273681385142E+00  0.1580925696130686E+00
  0.1572618018713050E+00  0.1564350378529835E+00  0.1556122505207260E+00  0.1547934128581105E+00  0.1539784978677547E+00
  0.1531674785694030E+00  0.1523603279980077E+00  0.1515570192018088E+00  0.1507575252404122E+00  0.1499618191828682E+00
  0.1491698741057484E+00  0.1483816630912246E+00  0.1475971592251495E+00  0.1468163355951376E+00  0.1460391652886515E+00
  0.1452656213910918E+00  0.1444956769838911E+00  0.1437293051426140E+00  0.1429664789350678E+00  0.1422071714194149E+00
  0.1414513556423004E+00  0.1406990046369884E+00  0.1399500914215086E+00  0.1392045889968192E+00  0.1384624703449816E+00
  0.1377237084273524E+00  0.1369882761827958E+00  0.1362561465259087E+00  0.1355272923452742E+00  0.1348016865017331E+00
  0.1340793018266819E+00  0.1333601111203962E+00  0.1326440871503844E+00  0.1319312026497701E+00  0.1312214303157082E+00
  0.1305147428078368E+00  0.1298111127467646E+00  0.1291105127126001E+00  0.1284129152435222E+00  0.1277182928343963E+00
  0.1270266179354367E+00  0.1263378629509239E+00  0.1256520002379693E+00  0.1249690021053419E+00  0.1242888408123534E+00
  0.1236114885678047E+00  0.1229369175290012E+00  0.1222650998008386E+00  0.1215960074349601E+00  0.1209296124289934E+00
  0.1202658867258695E+00  0.1196048022132259E+00  0.1189463307229001E+00  0.1182904440305187E+00  0.1176371138551823E+00
  0.1169863118592577E+00  0.1163380096482744E+00  0.1156921787709362E+00  0.1150487907192517E+00  0.1144078169287852E+00
  0.1137692287790388E+00  0.1131329975939683E+00  0.1124990946426371E+00  0.1118674911400184E+00  0.1112381582479470E+00
  0.1106110670762293E+00  0.1099861886839177E+00  0.1093634940807558E+00  0.1087429542287989E+00  0.1081245400442196E+00
  0.1075082223993045E+00  0.1068939721246468E+00  0.1062817600115446E+00  0.1056715568146122E+00  0.1050633332546092E+00
  0.1044570600214981E+00  0.1038527077777358E+00  0.1032502471618088E+00  0.1026496487920174E+00  0.1020508832705212E+00
  0.1014539211876480E+00  0.1008587331264807E+00  0.1002652896677265E+00  0.9967356139487737E-01  0.9908351889967171E-01
  0.9849513278786468E-01  0.9790837368531534E-01  0.9732321224439974E-01  0.9673961915076029E-01  0.9615756513039529E-01
  0.9557702095710285E-01  0.9499795746028304E-01  0.9442034553310977E-01  0.9384415614107956E-01  0.9326936033094479E-01
  0.9269592924004028E-01  0.9212383410601327E-01  0.9155304627695807E-01  0.9098353722197168E-01  0.9041527854213072E-01
  0.8984824198189936E-01  0.8928239944097541E-01  0.8871772298658023E-01  0.8815418486619722E-01  0.8759175752076730E-01
  0.8703041359834397E-01  0.8647012596821288E-01  0.8591086773548084E-01  0.8535261225613779E-01  0.8479533315259252E-01
  0.8423900432968620E-01  0.8368359999118594E-01  0.8312909465675479E-01  0.8257546317940249E-01  0.8202268076341403E-01
  0.8147072298275217E-01  0.8091956579993392E-01  0.8036918558537533E-01  0.7981955913719736E-01  0.7927066370149072E-01
  0.7872247699302809E-01  0.7817497721641592E-01  0.7762814308767677E-01  0.7708195385624793E-01  0.7653638932738566E-01
  0.7599142988495894E-01  0.7544705651461538E-01  0.7490325082730441E-01  0.7435999508313515E-01  0.7381727221554835E-01
  0.7327506585578016E-01  0.7273336035759236E-01  0.7219214082224067E-01  0.7165139312365414E-01  0.7111110393379555E-01
  0.7057126074816564E-01  0.7003185191142237E-01  0.6949286664307443E-01  0.6895429506321045E-01  0.6841612821822461E-01
  0.6787835810649476E-01  0.6734097770396649E-01  0.6680398098959930E-01  0.6626736297062265E-01  0.6573111970755138E-01
  0.6519524833890863E-01  0.6465974710560000E-01  0.6412461537488141E-01  0.6358985366386290E-01  0.6305546366248889E-01
  0.6252144825592809E-01  0.6198781154631559E-01  0.6145455887377731E-01  0.6092169683667135E-01  0.6038923331097978E-01
  0.5985717746878114E-01  0.5932553979573268E-01  0.5879433210749618E-01  0.5826356756502991E-01  0.5773326068868258E-01
  0.5720342737101283E-01  0.5667408488826484E-01  0.5614525191042934E-01  0.5561694850981970E-01  0.5508919616809221E-01
  0.5456201778164343E-01  0.5403543766531833E-01  0.5350948155436026E-01  0.5298417660454325E-01  0.5245955139042292E-01
  0.5193563590164726E-01  0.5141246153727169E-01  0.5089006109802719E-01  0.5036846877648659E-01  0.4984772014509054E-01
  0.4932785214198570E-01  0.4880890305463954E-01  0.4829091250119993E-01  0.4777392140957040E-01  0.4725797199417733E-01
  0.4674310773041493E-01  0.4622937332675309E-01  0.4571681469450343E-01  0.4520547891524493E-01  0.4469541420591541E-01
  0.4418666988158076E-01  0.4367929631590396E-01  0.4317334489934131E-01  0.4266886799509477E-01  0.4216591889286915E-01
  0.4166455176047432E-01  0.4116482159333278E-01  0.4066678416195258E-01  0.4017049595743449E-01  0.3967601413509059E-01
  0.3918339645625845E-01  0.3869270122839654E-01  0.3820398724356319E-01  0.3771731371537770E-01  0.3723274021457378E-01
  0.3675032660326110E-01  0.3627013296801491E-01  0.3579221955191846E-01  0.3531664668569044E-01  0.3484347471803223E-01
  0.3437276394533259E-01  0.3390457454087446E-01  0.3343896648368920E-01  0.3297599948720564E-01  0.3251573292784608E-01
  0.3205822577372235E-01  0.3160353651358076E-01  0.3115172308615619E-01  0.3070284281008424E-01  0.3025695231452613E-01
  0.2981410747065892E-01  0.2937436332418088E-01  0.2893777402897900E-01  0.2850439278210479E-01  0.2807427176020046E-01
  0.2764746205751068E-01  0.2722401362561596E-01  0.2680397521501442E-01  0.2638739431867455E-01  0.2597431711767736E-01
  0.2556478842905680E-01  0.2515885165594386E-01  0.2475654874011167E-01  0.2435792011700926E-01  0.2396300467336853E-01
  0.2357183970745752E-01  0.2318446089204574E-01  0.2280090224014062E-01  0.2242119607354425E-01  0.2204537299427033E-01
  0.2167346185885655E-01  0.2130548975559418E-01  0.2094148198469099E-01  0.2058146204137570E-01  0.2022545160194198E-01
  0.1987347051272225E-01  0.1952553678197482E-01  0.1918166657465954E-01  0.1884187421006692E-01  0.1850617216226363E-01
  0.1817457106330544E-01  0.1784707970916366E-01  0.1752370506830586E-01  0.1720445229286497E-01  0.1688932473232199E-01
  0.1657832394962939E-01  0.1627144973969014E-01  0.1596870015010657E-01  0.1567007150410933E-01  0.1537555842557191E-01
  0.1508515386601269E-01  0.1479884913348617E-01  0.1451663392325878E-01  0.1423849635016723E-01  0.1396442298255210E-01
  0.1369439887765976E-01  0.1342840761840601E-01  0.1316643135139275E-01  0.1290845082606956E-01  0.1265444543493332E-01
  0.1240439325465947E-01  0.1215827108805709E-01  0.1191605450674671E-01  0.1167771789445572E-01  0.1144323449083135E-01
  0.1121257643567337E-01  0.1098571481348977E-01  0.1076261969828165E-01  0.1054326019846778E-01  0.1032760450186022E-01
  0.1011561992060646E-01  0.9907272936017604E-02  0.9702529243204255E-02  0.9501353795445330E-02  0.9303710848219843E-02
  0.9109564002834358E-02  0.8918876249581240E-02  0.8731610010370150E-02  0.8547727180774841E-02  0.8367189171443301E-02
  0.8189956948822992E-02  0.8015991075155660E-02  0.7845251747699846E-02  0.7677698837144301E-02  0.7513291925176846E-02
  0.7351990341177770E-02  0.7193753198010924E-02  0.7038539426886986E-02  0.6886307811278491E-02  0.6737017019868236E-02
  0.6590625638515218E-02  0.6447092201226899E-02  0.6306375220127057E-02  0.6168433214412560E-02  0.6033224738294774E-02
  0.5900708407923128E-02  0.5770842927290861E-02  0.5643587113125339E-02  0.5518899918767492E-02  0.5396740457045355E-02
  0.5277068022151137E-02  0.5159842110530169E-02  0.5045022440793225E-02  0.4932568972664812E-02  0.4822441924981185E-02
  0.4714601792752659E-02  0.4609009363307217E-02  0.4505625731531578E-02  0.4404412314228182E-02  0.4305330863606878E-02
  0.4208343479930657E-02  0.4113412623335515E-02  0.4020501124845106E-02  0.3929572196601621E-02  0.3840589441333365E-02
  0.3753516861082034E-02  0.3668318865210731E-02  0.3584960277715165E-02  0.3503406343860449E-02  0.3423622736165435E-02
  0.3345575559757081E-02  0.3269231357117284E-02  0.3194557112243510E-02  0.3121520254246167E-02  0.3050088660403800E-02
  0.2980230658697817E-02  0.2911915029848111E-02  0.2845111008870535E-02  0.2779788286176709E-02  0.2715917008236647E-02
  0.2653467777824252E-02  0.2592411653864764E-02  0.2532720150903810E-02  0.2474365238216553E-02  0.2417319338575087E-02
  0.2361555326692114E-02  0.2307046527358369E-02  0.2253766713290140E-02  0.2201690102704127E-02  0.2150791356634949E-02
  0.2101045576011041E-02  0.2052428298503965E-02  0.2004915495165648E-02  0.1958483566867430E-02  0.1913109340554725E-02
  0.1868770065330299E-02  0.1825443408378675E-02  0.1783107450744023E-02  0.1741740682973144E-02  0.1701322000634750E-02
  0.1661830699725920E-02  0.1623246471976248E-02  0.1585549400059153E-02  0.1548719952720537E-02  0.1512738979833319E-02
  0.1477587707386867E-02  0.1443247732419637E-02  0.1409701017902739E-02  0.1376929887582235E-02  0.1344917020787305E-02
  0.1313645447210886E-02  0.1283098541669709E-02  0.1253260018849515E-02  0.1224113928041495E-02  0.1195644647875422E-02
  0.1167836881054753E-02  0.1140675649098536E-02  0.1114146287094871E-02  0.1088234438470314E-02  0.1062926049779217E-02
  0.1038207365517007E-02  0.1014064922960985E-02  0.9904855470419618E-03  0.9674563452499753E-03  0.9449647025770826E-03
  0.9229982764997289E-03  0.9015449920035469E-03  0.8805930366527344E-03  0.8601308557061770E-03  0.8401471472824285E-03
  0.8206308575752773E-03  0.8015711761215753E-03  0.7829575311228638E-03  0.7647795848222162E-03  0.7470272289373899E-03
  0.7296905801515397E-03  0.7127599756623953E-03  0.6962259687907350E-03  0.6800793246489880E-03  0.6643110158705099E-03
  0.6489122184001219E-03  0.6338743073463822E-03  0.6191888528958447E-03  0.6048476162896711E-03  0.5908425458627416E-03
  0.5771657731453522E-03  0.5638096090275816E-03  0.5507665399862733E-03  0.5380292243745261E-03  0.5255904887735849E-03
  0.5134433244068954E-03  0.5015808836160489E-03  0.4899964763983536E-03  0.4786835670056603E-03  0.4676357706040256E-03
  0.4568468499938078E-03  0.4463107123897497E-03  0.4360214062604717E-03  0.4259731182269178E-03  0.4161601700191628E-03
  0.4065770154909803E-03  0.3972182376915923E-03  0.3880785459939532E-03  0.3791527732788998E-03  0.3704358731745463E-03
  0.3619229173501917E-03  0.3536090928640610E-03  0.3454896995641790E-03  0.3375601475416476E-03  0.3298159546355870E-03
  0.3222527439890270E-03  0.3148662416549685E-03  0.3076522742519086E-03  0.3006067666680438E-03  0.2937257398133922E-03
  0.2870053084191027E-03  0.2804416788831718E-03  0.2740311471617997E-03  0.2677700967056419E-03  0.2616549964402108E-03
  0.2556823987896131E-03  0.2498489377429476E-03  0.2441513269625585E-03  0.2385863579334097E-03  0.2331508981528546E-03
  0.2278418893600523E-03  0.2226563458042944E-03  0.2175913525515347E-03  0.2126440638283980E-03  0.2078117014029362E-03
  0.2030915530014643E-03  0.1984809707607514E-03  0.1939773697148888E-03  0.1895782263161461E-03  0.1852810769891715E-03
  0.1810835167178148E-03  0.1769831976639806E-03  0.1729778278178374E-03  0.1690651696787142E-03  0.1652430389661164E-03
  0.1615093033602010E-03  0.1578618812711029E-03  0.1542987406365156E-03  0.1508178977469506E-03  0.1474174160980623E-03
  0.1440954052694862E-03  0.1408500198296163E-03  0.1376794582657774E-03  0.1345819619392366E-03  0.1315558140645198E-03
  0.1285993387125051E-03  0.1257108998367905E-03  0.1228889003228024E-03  0.1201317810591624E-03  0.1174380200308270E-03
  0.1148061314334969E-03  0.1122346648088523E-03  0.1097222042001284E-03  0.1072673673275834E-03  0.1048688047834258E-03
  0.1025251992457443E-03  0.1002352647110230E-03  0.9799774574482188E-04  0.9581141675021268E-04  0.9367508125355738E-04
  0.9158757120724019E-04  0.8954774630897462E-04  0.8755449333728867E-04  0.8560672550282660E-04  0.8370338181511081E-04
  0.8184342646438802E-04  0.8002584821823286E-04  0.7824965983255105E-04  0.7651389747665487E-04  0.7481762017208418E-04
  0.7315990924485825E-04  0.7153986779082372E-04  0.6995662015382523E-04  0.6840931141636835E-04  0.6689710690250389E-04
  0.6541919169263238E-04  0.6397477014995329E-04  0.6256306545829116E-04  0.6118331917101827E-04  0.5983479077081869E-04
  0.5851675724003944E-04  0.5722851264137380E-04  0.5596936770863231E-04  0.5473864944736135E-04  0.5353570074508183E-04
  0.5235987999090925E-04  0.5121056070433684E-04  0.5008713117296713E-04  0.4898899409896801E-04  0.4791556625405693E-04
  0.4686627814279997E-04  0.4584057367402932E-04  0.4483790984019069E-04  0.4385775640441984E-04  0.4289959559517149E-04
  0.4196292180821517E-04  0.4104724131582408E-04  0.4015207198297925E-04  0.3927694299042330E-04  0.3842139456440132E-04
  0.3758497771292215E-04  0.3676725396838529E-04  0.3596779513642423E-04  0.3518618305080687E-04  0.3442200933425711E-04
  0.3367487516504671E-04  0.3294439104922056E-04  0.3223017659832257E-04  0.3153186031248287E-04  0.3084907936874032E-04
  0.3018147941447523E-04  0.2952871436582284E-04  0.2889044621095385E-04  0.2826634481809814E-04  0.2765608774819934E-04
  0.2705936007208977E-04  0.2647585419207202E-04  0.2590526966780254E-04  0.2534731304637385E-04  0.2480169769649199E-04
  0.2426814364664929E-04  0.2374637742719634E-04  0.2323613191621989E-04  0.2273714618913135E-04  0.2224916537187676E-04
  0.2177194049768310E-04  0.2130522836724935E-04  0.2084879141230493E-04  0.2040239756244879E-04  0.1996582011519110E-04
  0.1953883760912178E-04  0.1912123370012614E-04  0.1871279704057594E-04  0.1831332116142343E-04  0.1792260435712779E-04
  0.1754044957334386E-04  0.1716666429730711E-04  0.1680106045085042E-04  0.1644345428598621E-04  0.1609366628299349E-04
  0.1575152105094820E-04  0.1541684723063770E-04  0.1508947739980219E-04  0.1476924798064477E-04  0.1445599914955627E-04
  0.1414957474900206E-04  0.1384982220151601E-04  0.1355659242575169E-04  0.1326973975454219E-04  0.1298912185491646E-04
  0.1271459965002875E-04  0.1244603724295134E-04  0.1218330184228687E-04  0.1192626368955711E-04  0.1167479598832285E-04
  0.1142877483499431E-04  0.1118807915129145E-04  0.1095259061831353E-04  0.1072219361217873E-04  0.1049677514119613E-04
  0.1027622478453384E-04  0.1006043463234525E-04  0.9849299227319321E-05  0.9642715507620926E-05  0.9440582751185792E-05
  0.9242802521339597E-05  0.9049278613707213E-05  0.8859917004382004E-05  0.8674625799324858E-05  0.8493315184962546E-05
  0.8315897379956630E-05  0.8142286588115375E-05  0.7972398952420437E-05  0.7806152510141221E-05  0.7643467149011466E-05
  0.7484264564441576E-05  0.7328468217742922E-05  0.7176003295338301E-05  0.7026796668935775E-05  0.6880776856642586E-05
  0.6737873984996443E-05  0.6598019751891798E-05  0.6461147390379943E-05  0.6327191633322157E-05  0.6196088678874880E-05
  0.6067776156786922E-05  0.5942193095490118E-05  0.5819279889963012E-05  0.5698978270350356E-05  0.5581231271319236E-05
  0.5465983202134837E-05  0.5353179617438481E-05  0.5242767288710939E-05  0.5134694176404525E-05  0.5028909402728505E-05
  0.4925363225071763E-05  0.4824007010047442E-05  0.4724793208144718E-05  0.4627675328973810E-05  0.4532607917089080E-05
  0.4439546528377025E-05  0.4348447706995889E-05  0.4259268962852829E-05  0.4171968749607145E-05  0.4086506443185721E-05
  0.4002842320799263E-05  0.3920937540447444E-05  0.3840754120900843E-05  0.3762254922148561E-05  0.3685403626300847E-05
  0.3610164718935079E-05  0.3536503470875517E-05  0.3464385920395746E-05  0.3393778855834136E-05  0.3324649798612729E-05
  0.3256966986649500E-05  0.3190699358154967E-05  0.3125816535804093E-05  0.3062288811274503E-05  0.3000087130142305E-05
  0.2939183077126991E-05  0.2879548861677575E-05  0.2821157303891419E-05  0.2763981820757979E-05  0.2707996412720277E-05
  0.2653175650545770E-05  0.2599494662500253E-05  0.2546929121816824E-05  0.2495455234453471E-05  0.2445049727132408E-05
  0.2395689835654370E-05  0.2347353293481442E-05  0.2300018320582287E-05  0.2253663612533443E-05  0.2208268329870676E-05
  0.2163812087684488E-05  0.2120274945454324E-05  0.2077637397115489E-05  0.2035880361353514E-05  0.1994985172120822E-05
  0.2372844363021937E+03  0.2372844363021937E+03  0.2372844363021937E+03  0.2372844363021937E+03  0.2372844363021937E+03
  0.2372844363021937E+03  0.2372844363021937E+03  0.2372844363021937E+03  0.2372844363021937E+03  0.2372844363021937E+03
  0.2372844363021937E+03  0.2372844363021937E+03  0.2372844363021937E+03  0.2372844363021937E+03  0.2372844363021937E+03
  0.2372844363021937E+03  0.2372844363021937E+03  0.2372844363021937E+03  0.2372844363021937E+03  0.2372844363021937E+03
  0.2372844363021937E+03  0.2372844363021937E+03  0.2372844363021937E+03  0.2372844363021937E+03  0.2372844363021937E+03
  0.2372844363021937E+03  0.2372844363021937E+03  0.2372844363021937E+03  0.2372844363021937E+03  0.2372844363021937E+03
  0.2372844363021937E+03  0.2372844363021937E+03  0.2372844363021937E+03  0.2372844363021937E+03  0.2372844363021937E+03
  0.2372844363021937E+03  0.2372844363021937E+03  0.2372844363021937E+03  0.2372844363021937E+03  0.2372844363021937E+03
  0.2372844363021937E+03  0.2372844363021937E+03  0.2372844363021937E+03  0.2372844363021937E+03  0.2372844363021937E+03
  0.2372844363021937E+03  0.2372844363021937E+03  0.2372844363021937E+03  0.2372844363021937E+03  0.2372844363021937E+03
  0.2372844363021937E+03  0.2372844363021937E+03  0.2372844363021937E+03  0.2372844363021937E+03  0.2372844363021937E+03
  0.2372844363021937E+03  0.2372844363021937E+03  0.2372844363021937E+03  0.2372844363021937E+03  0.2372844363021937E+03
  0.2372844363021937E+03  0.2372844363021937E+03  0.2372844363021937E+03  0.2372844363021937E+03  0.2372844363021937E+03
  0.2372844363021937E+03  0.2372844363021937E+03  0.2372844363021937E+03  0.2372844363021937E+03  0.2372844363021937E+03
  0.2372844363021937E+03  0.2372844363021937E+03  0.2372844363021937E+03  0.2372844363021937E+03  0.2372844363021937E+03
  0.2372844363021937E+03  0.2372844363021937E+03  0.2372844363021937E+03  0.2372844363021937E+03  0.2372844363021937E+03
  0.2372844363021937E+03  0.2372844363021937E+03  0.2372844363021937E+03  0.2372844363021937E+03  0.2372844363021937E+03
  0.2372844363021937E+03  0.2372844363021937E+03  0.2372844363021937E+03  0.2372844363021937E+03  0.2372844363021937E+03
  0.2372844363021937E+03  0.2372844363021937E+03  0.2372844363021937E+03  0.2372844363021937E+03  0.2372844363021937E+03
  0.2372844363021937E+03  0.2372844363021937E+03  0.2372844363021937E+03  0.2372844363021937E+03  0.2372844363021937E+03
  0.2372844363021937E+03  0.2372844363021937E+03  0.2372844363021937E+03  0.2372844363021937E+03  0.2372844363021937E+03
  0.2372844363021937E+03  0.2372844363021937E+03  0.2372844363021937E+03  0.2372844363021937E+03  0.2372844363021937E+03
