  DATE: 2018-03-30 CONTRIBUTOR: Xiaowang Zhou xzhou@sandia.gov and Lucas Hale lucas.hale@nist.gov CITATION: X. W. Zhou, R. A. Johnson, H. N. G. Wadley, Phys. Rev. B, 69, 144113(2004)
  Generated from Zhou04_create_v2.f
  Fixes precision issues with older version
    1 Ti                      
 2000  0.5002501250625312E-01 2000  0.3281809519401333E-02  0.6560337229283264E+01
   22     47.880         4.1491    fcc     
  0.0000000000000000E+00 -0.1959856104727198E-01 -0.3911621955501499E-01 -0.5855314547424184E-01 -0.7790950875596447E-01
 -0.9718547935119215E-01 -0.1163812272109390E+00 -0.1354969222862161E+00 -0.1545327345280327E+00 -0.1734888338874043E+00
 -0.1923653903153402E+00 -0.2111625737628509E+00 -0.2298805541809510E+00 -0.2485195015206494E+00 -0.2670795857329589E+00
 -0.2855609767688914E+00 -0.3039638445794584E+00 -0.3222883591156696E+00 -0.3405346903285391E+00 -0.3587030081690785E+00
 -0.3767934825882966E+00 -0.3948062835372079E+00 -0.4127415809668233E+00 -0.4305995448281528E+00 -0.4483803450722101E+00
 -0.4660841516500063E+00 -0.4837111345125520E+00 -0.5012614636108583E+00 -0.5187353088959397E+00 -0.5361328403188053E+00
 -0.5534542278304668E+00 -0.5706996413819374E+00 -0.5878692509242271E+00 -0.6049632264083475E+00 -0.6219817377853127E+00
 -0.6389249550061307E+00 -0.6557930480218148E+00 -0.6725861867833771E+00 -0.6893045412418286E+00 -0.7059482813481801E+00
 -0.7225175770534449E+00 -0.7390125983086342E+00 -0.7554335150647578E+00 -0.7717804972728299E+00 -0.7880537148838602E+00
 -0.8042533378488601E+00 -0.8203795361188433E+00 -0.8364324796448197E+00 -0.8524123383778004E+00 -0.8683192822687997E+00
 -0.8841534812688263E+00 -0.8999151053288923E+00 -0.9156043244000109E+00 -0.9312213084331926E+00 -0.9467662273794479E+00
 -0.9622392511897915E+00 -0.9776405498152319E+00 -0.9929702932067814E+00 -0.1008228651315453E+01 -0.1023415794092257E+01
 -0.1038531891488204E+01 -0.1053577113454309E+01 -0.1068551629941581E+01 -0.1083455610901032E+01 -0.1098289226283673E+01
 -0.1113052646040517E+01 -0.1127746040122575E+01 -0.1142369578480859E+01 -0.1156923431066379E+01 -0.1171407767830147E+01
 -0.1185822758723177E+01 -0.1200168573696479E+01 -0.1214445382701063E+01 -0.1228653355687943E+01 -0.1242792662608130E+01
 -0.1256863473412634E+01 -0.1270865958052469E+01 -0.1284800286478645E+01 -0.1298666628642174E+01 -0.1312465154494068E+01
 -0.1326196033985338E+01 -0.1339859437066995E+01 -0.1353455533690053E+01 -0.1366984493805522E+01 -0.1380446487364412E+01
 -0.1393841684317737E+01 -0.1407170254616509E+01 -0.1420432368211737E+01 -0.1433628195054434E+01 -0.1446757905095612E+01
 -0.1459821668286282E+01 -0.1472819654577455E+01 -0.1485752033920145E+01 -0.1498618976265362E+01 -0.1511420651564116E+01
 -0.1524157229767422E+01 -0.1536828880826288E+01 -0.1549435774691729E+01 -0.1561978081314754E+01 -0.1574455970646375E+01
 -0.1586869612637605E+01 -0.1599219177239454E+01 -0.1611504834402935E+01 -0.1623726754079059E+01 -0.1635885106218837E+01
 -0.1647980060773282E+01 -0.1660011787693404E+01 -0.1671980456930215E+01 -0.1683886238434728E+01 -0.1695729302157953E+01
 -0.1707509818050902E+01 -0.1719227956064586E+01 -0.1730883886150018E+01 -0.1742477778258209E+01 -0.1754009802340170E+01
 -0.1765480128346914E+01 -0.1776888926229450E+01 -0.1788236365938793E+01 -0.1799522617425952E+01 -0.1810747850641939E+01
 -0.1821912235537767E+01 -0.1833015942064446E+01 -0.1844059140172989E+01 -0.1855041999814406E+01 -0.1865964690939709E+01
 -0.1876827383499911E+01 -0.1887630247446023E+01 -0.1898373452729055E+01 -0.1909057169300021E+01 -0.1919681567109930E+01
 -0.1930246816109797E+01 -0.1940753086250630E+01 -0.1951200547483442E+01 -0.1961589369759246E+01 -0.1971919723029051E+01
 -0.1982191777243871E+01 -0.1992405702354716E+01 -0.2002561668312599E+01 -0.2012659845068530E+01 -0.2022700402573522E+01
 -0.2032683510778585E+01 -0.2042609339634732E+01 -0.2052478059092974E+01 -0.2062289839104323E+01 -0.2072044849619791E+01
 -0.2081743260590387E+01 -0.2091385241967126E+01 -0.2100970963701018E+01 -0.2110500595743074E+01 -0.2119974308044307E+01
 -0.2129392270555728E+01 -0.2138754653228348E+01 -0.2148061626013179E+01 -0.2157313358861233E+01 -0.2166510021723521E+01
 -0.2175651784551055E+01 -0.2184738817294847E+01 -0.2193771289905908E+01 -0.2202749372335249E+01 -0.2211673234533883E+01
 -0.2220543046452820E+01 -0.2229358978043073E+01 -0.2238121199255653E+01 -0.2246829880041571E+01 -0.2255485190351840E+01
 -0.2264087300137470E+01 -0.2272636379349475E+01 -0.2281132597938864E+01 -0.2289576125856649E+01 -0.2297967133053843E+01
 -0.2306305789481457E+01 -0.2314592265090502E+01 -0.2322826729831990E+01 -0.2331009353656932E+01 -0.2339140306516342E+01
 -0.2347219758361228E+01 -0.2355247879142603E+01 -0.2363224838811480E+01 -0.2371150807318871E+01 -0.2379025954615784E+01
 -0.2386850450653233E+01 -0.2394624465382230E+01 -0.2402348168753785E+01 -0.2410021730718912E+01 -0.2417645321228620E+01
 -0.2425219110233922E+01 -0.2432743267685830E+01 -0.2440217963535354E+01 -0.2447643367733507E+01 -0.2455019650231300E+01
 -0.2462346980979744E+01 -0.2469625529929853E+01 -0.2476855467032635E+01 -0.2484036962239105E+01 -0.2491170185500272E+01
 -0.2498255306767149E+01 -0.2505292495990747E+01 -0.2512281923122078E+01 -0.2519223758112155E+01 -0.2526118170911986E+01
 -0.2532965331472585E+01 -0.2539765409744965E+01 -0.2546518575680134E+01 -0.2553224999229105E+01 -0.2559884850342891E+01
 -0.2566498298972503E+01 -0.2573065515068952E+01 -0.2579586668583250E+01 -0.2586061929466408E+01 -0.2592491467669438E+01
 -0.2598875453143352E+01 -0.2605214055839161E+01 -0.2611507445707876E+01 -0.2617755792700511E+01 -0.2623959266768074E+01
 -0.2630118037861580E+01 -0.2636232275932040E+01 -0.2642302150930463E+01 -0.2648327832807863E+01 -0.2654309491515251E+01
 -0.2660247297003638E+01 -0.2666141419224036E+01 -0.2671992028127459E+01 -0.2677799293664914E+01 -0.2683563385787415E+01
 -0.2689284474445975E+01 -0.2694962729591603E+01 -0.2700598321175312E+01 -0.2706191419148114E+01 -0.2711742193461019E+01
 -0.2717250814065039E+01 -0.2722717450911188E+01 -0.2728142273950474E+01 -0.2733525453133911E+01 -0.2738867158412510E+01
 -0.2744167559737282E+01 -0.2749426827059239E+01 -0.2754645130329394E+01 -0.2759822639498756E+01 -0.2764959524518338E+01
 -0.2770055955339152E+01 -0.2775112101912208E+01 -0.2780128134188520E+01 -0.2785104222119097E+01 -0.2790040535654953E+01
 -0.2794937244747097E+01 -0.2799794519346544E+01 -0.2804612529404302E+01 -0.2809391444871385E+01 -0.2814131435698803E+01
 -0.2818832671837570E+01 -0.2823495323238694E+01 -0.2828119559853190E+01 -0.2832705551632068E+01 -0.2837253468526339E+01
 -0.2841763480487016E+01 -0.2846235757465110E+01 -0.2850670469411632E+01 -0.2855067786277595E+01 -0.2859427878014010E+01
 -0.2863750914571887E+01 -0.2868037065902241E+01 -0.2872286501956079E+01 -0.2876499392684417E+01 -0.2880675908038264E+01
 -0.2884816217968633E+01 -0.2888920492426534E+01 -0.2892988901362981E+01 -0.2897021614728982E+01 -0.2901018802475552E+01
 -0.2904980634553701E+01 -0.2908907280914442E+01 -0.2912798911508784E+01 -0.2916655696287741E+01 -0.2920477805202323E+01
 -0.2924265408203543E+01 -0.2928018675242412E+01 -0.2931737776269940E+01 -0.2935422881237141E+01 -0.2939074160095026E+01
 -0.2942691782794606E+01 -0.2946275919286893E+01 -0.2949826739522898E+01 -0.2953344413453634E+01 -0.2956829111030111E+01
 -0.2960281002203341E+01 -0.2963700256924336E+01 -0.2967087045144108E+01 -0.2970441536813667E+01 -0.2973763901884027E+01
 -0.2977054310306197E+01 -0.2980312932031191E+01 -0.2983539937010018E+01 -0.2986735495193692E+01 -0.2989899776533223E+01
 -0.2993032950979624E+01 -0.2996135188483905E+01 -0.2999206658997078E+01 -0.3002247532470156E+01 -0.3005257978854149E+01
 -0.3008238168100069E+01 -0.3011188270158929E+01 -0.3014108454981738E+01 -0.3016998892519509E+01 -0.3019859752723255E+01
 -0.3022691205543985E+01 -0.3025493420932711E+01 -0.3028266568840447E+01 -0.3031010819218202E+01 -0.3033726342016988E+01
 -0.3036413307187818E+01 -0.3039071884681702E+01 -0.3041702244449653E+01 -0.3044304556442682E+01 -0.3046878990611800E+01
 -0.3049425716908019E+01 -0.3051944905282352E+01 -0.3054436725685807E+01 -0.3056901348069399E+01 -0.3059338942384140E+01
 -0.3061749678581038E+01 -0.3064133726611107E+01 -0.3066491256425359E+01 -0.3068822437974804E+01 -0.3071127441210455E+01
 -0.3073406436083324E+01 -0.3075659592544420E+01 -0.3077887080544756E+01 -0.3080089070035346E+01 -0.3082265730967197E+01
 -0.3084417233291324E+01 -0.3086543746958738E+01 -0.3088645441920450E+01 -0.3090722488127472E+01 -0.3092775055530816E+01
 -0.3094803314081491E+01 -0.3096807433730512E+01 -0.3098787584428889E+01 -0.3100743936127634E+01 -0.3102676658777757E+01
 -0.3104585922330273E+01 -0.3106471896736191E+01 -0.3108334751946522E+01 -0.3110174657912280E+01 -0.3111991784584474E+01
 -0.3113786301914118E+01 -0.3115558379852223E+01 -0.3117308188349800E+01 -0.3119035897357859E+01 -0.3120741676827416E+01
 -0.3122425696709478E+01 -0.3124088126955058E+01 -0.3125729137515170E+01 -0.3127348898340823E+01 -0.3128947579383029E+01
 -0.3130525350592800E+01 -0.3132082381921148E+01 -0.3133618843319083E+01 -0.3135134904737619E+01 -0.3136630736127765E+01
 -0.3138106507440535E+01 -0.3139562388626939E+01 -0.3140998549637989E+01 -0.3142415160424696E+01 -0.3143812390938074E+01
 -0.3145190411129131E+01 -0.3146549390948882E+01 -0.3147889500348336E+01 -0.3149210909278506E+01 -0.3150513787690402E+01
 -0.3151798305535038E+01 -0.3153064632763425E+01 -0.3154312939326573E+01 -0.3155543395175496E+01 -0.3156756170261203E+01
 -0.3157951434534707E+01 -0.3159129357947019E+01 -0.3160290110449152E+01 -0.3161433861992116E+01 -0.3162560782526923E+01
 -0.3163671042004585E+01 -0.3164764810376113E+01 -0.3165842257592520E+01 -0.3166903553604815E+01 -0.3167948868364013E+01
 -0.3168978371821122E+01 -0.3169992233927156E+01 -0.3170990624633127E+01 -0.3171973713890044E+01 -0.3172941671648921E+01
 -0.3173894667860769E+01 -0.3174832872476598E+01 -0.3175756455447422E+01 -0.3176665586724251E+01 -0.3177560436258097E+01
 -0.3178441173999973E+01 -0.3179307969900888E+01 -0.3180160993911855E+01 -0.3181000415983886E+01 -0.3181826406067992E+01
 -0.3182639134115184E+01 -0.3183438770076475E+01 -0.3184225483902876E+01 -0.3184999445545398E+01 -0.3185760824955053E+01
 -0.3186509792082853E+01 -0.3187246516879809E+01 -0.3187971169296933E+01 -0.3188683919285237E+01 -0.3189384936795731E+01
 -0.3190074391779428E+01 -0.3190752454187340E+01 -0.3191419293970476E+01 -0.3192075081079851E+01 -0.3192719985466475E+01
 -0.3193354177081358E+01 -0.3193977825875515E+01 -0.3194591101799955E+01 -0.3195194174805691E+01 -0.3195787214843734E+01
 -0.3196370391865094E+01 -0.3196943875820786E+01 -0.3197507836661819E+01 -0.3198062444339205E+01 -0.3198607868803957E+01
 -0.3199144280007085E+01 -0.3199671847899601E+01 -0.3200190742432516E+01 -0.3200701133556844E+01 -0.3201203191223594E+01
 -0.3201697085383779E+01 -0.3202182985988410E+01 -0.3202661062988498E+01 -0.3203131486335055E+01 -0.3203594425979094E+01
 -0.3204050192509072E+01 -0.3204498584270903E+01 -0.3204939782904460E+01 -0.3205373822157169E+01 -0.3205800735776455E+01
 -0.3206220557509744E+01 -0.3206633321104460E+01 -0.3207039060308028E+01 -0.3207437808867875E+01 -0.3207829600531426E+01
 -0.3208214469046106E+01 -0.3208592448159339E+01 -0.3208963571618553E+01 -0.3209327873171171E+01 -0.3209685386564619E+01
 -0.3210036145546324E+01 -0.3210380183863708E+01 -0.3210717535264199E+01 -0.3211048233495221E+01 -0.3211372312304200E+01
 -0.3211689805438561E+01 -0.3212000746645729E+01 -0.3212305169673130E+01 -0.3212603108268189E+01 -0.3212894596178332E+01
 -0.3213179667150983E+01 -0.3213458354933567E+01 -0.3213730693273511E+01 -0.3213996715918240E+01 -0.3214256456615179E+01
 -0.3214509949111753E+01 -0.3214757227155387E+01 -0.3214998324493508E+01 -0.3215233274873539E+01 -0.3215462112042907E+01
 -0.3215684869749036E+01 -0.3215901581739353E+01 -0.3216112281761283E+01 -0.3216317003562250E+01 -0.3216515780889680E+01
 -0.3216708647490998E+01 -0.3216895637113631E+01 -0.3217076783505001E+01 -0.3217252120412537E+01 -0.3217421681583662E+01
 -0.3217585500765802E+01 -0.3217743611706382E+01 -0.3217896048152828E+01 -0.3218042843852566E+01 -0.3218184032553018E+01
 -0.3218319648001613E+01 -0.3218449723945775E+01 -0.3218574294132929E+01 -0.3218693392310500E+01 -0.3218807052225914E+01
 -0.3218915307626596E+01 -0.3219018192259972E+01 -0.3219115739873466E+01 -0.3219207984214504E+01 -0.3219294959030512E+01
 -0.3219376698068914E+01 -0.3219453235077137E+01 -0.3219524603802604E+01 -0.3219590837992742E+01 -0.3219651971394977E+01
 -0.3219708037756733E+01 -0.3219759070825435E+01 -0.3219805104348509E+01 -0.3219846172073380E+01 -0.3219882307747475E+01
 -0.3219913545118216E+01 -0.3219939917933032E+01 -0.3219961459939345E+01 -0.3219978204884582E+01 -0.3219990186516169E+01
 -0.3219997438581530E+01 -0.3219999994828091E+01 -0.3219997889003276E+01 -0.3219991154854512E+01 -0.3219979826129224E+01
 -0.3219963936574837E+01 -0.3219943519938776E+01 -0.3219918609968467E+01 -0.3219889240411335E+01 -0.3219855445014805E+01
 -0.3219817257526302E+01 -0.3219774711693253E+01 -0.3219727841263082E+01 -0.3219676679983214E+01 -0.3219621261601076E+01
 -0.3219561619864091E+01 -0.3219497788519686E+01 -0.3219429801315286E+01 -0.3219357691998316E+01 -0.3219281494316201E+01
 -0.3219201242016367E+01 -0.3219116968846240E+01 -0.3219028708553243E+01 -0.3218936494884804E+01 -0.3218840361588346E+01
 -0.3218740342411296E+01 -0.3218636471101078E+01 -0.3218528781405118E+01 -0.3218417307070842E+01 -0.3218302081845674E+01
 -0.3218183139477040E+01 -0.3218060513712365E+01 -0.3217934238299076E+01 -0.3217804346984595E+01 -0.3217670873516351E+01
 -0.3217533851641766E+01 -0.3217393315108267E+01 -0.3217249297663280E+01 -0.3217101833054229E+01 -0.3216950955028540E+01
 -0.3216796697333638E+01 -0.3216639093716948E+01 -0.3216478177925896E+01 -0.3216313983707907E+01 -0.3216146544810406E+01
 -0.3215975894980819E+01 -0.3215802067966572E+01 -0.3215625097515087E+01 -0.3215445017373793E+01 -0.3215261861290114E+01
 -0.3215075663011475E+01 -0.3214886456285302E+01 -0.3214694274859019E+01 -0.3214499152480053E+01 -0.3214301122895828E+01
 -0.3214100219853771E+01 -0.3213896477101305E+01 -0.3213689928385857E+01 -0.3213480607454851E+01 -0.3213268548055713E+01
 -0.3213053783935869E+01 -0.3212836348842744E+01 -0.3212616276523763E+01 -0.3212393600726351E+01 -0.3212168355197934E+01
 -0.3211940573685937E+01 -0.3211710289937785E+01 -0.3211477537700903E+01 -0.3211242350722718E+01 -0.3211004762750654E+01
 -0.3210764807532136E+01 -0.3210522518814591E+01 -0.3210277930345443E+01 -0.3210031075872116E+01 -0.3209781989142038E+01
 -0.3209530703902633E+01 -0.3209277253901327E+01 -0.3209021672885545E+01 -0.3208764083617764E+01 -0.3208503491099727E+01
 -0.3208239960896264E+01 -0.3207973502522886E+01 -0.3207704125450106E+01 -0.3207431839103727E+01 -0.3207156652865120E+01
 -0.3206878576071510E+01 -0.3206597618016248E+01 -0.3206313787949095E+01 -0.3206027095076485E+01 -0.3205737548561809E+01
 -0.3205445157525673E+01 -0.3205149931046175E+01 -0.3204851878159165E+01 -0.3204551007858506E+01 -0.3204247329096344E+01
 -0.3203940850783356E+01 -0.3203631581789018E+01 -0.3203319530941851E+01 -0.3203004707029679E+01 -0.3202687118799880E+01
 -0.3202366774959632E+01 -0.3202043684176165E+01 -0.3201717855077002E+01 -0.3201389296250207E+01 -0.3201058016244620E+01
 -0.3200724023570102E+01 -0.3200387326697773E+01 -0.3200047934060245E+01 -0.3199705854051860E+01 -0.3199361095028916E+01
 -0.3199013665309904E+01 -0.3198663573175738E+01 -0.3198310826869973E+01 -0.3197955434599042E+01 -0.3197597404532470E+01
 -0.3197236744803102E+01 -0.3196873463507322E+01 -0.3196507568705271E+01 -0.3196139068421063E+01 -0.3195767970643003E+01
 -0.3195394283323799E+01 -0.3195018014380776E+01 -0.3194639171696083E+01 -0.3194257763116906E+01 -0.3193873796455674E+01
 -0.3193487279490264E+01 -0.3193098219964206E+01 -0.3192706625586886E+01 -0.3192312504033747E+01 -0.3191915862946491E+01
 -0.3191516709933274E+01 -0.3191115052568904E+01 -0.3190710898395039E+01 -0.3190304254920376E+01 -0.3189895129620850E+01
 -0.3189483529939819E+01 -0.3189069463288258E+01 -0.3188652937044945E+01 -0.3188233958556651E+01 -0.3187812535138322E+01
 -0.3187388674073265E+01 -0.3186962382613329E+01 -0.3186533667979092E+01 -0.3186102537360037E+01 -0.3185668997914730E+01
 -0.3185233056771000E+01 -0.3184794721026117E+01 -0.3184353997746963E+01 -0.3183910893970206E+01 -0.3183465416702481E+01
 -0.3183017572920549E+01 -0.3182567369571476E+01 -0.3182114813572797E+01 -0.3181659911812690E+01 -0.3181202671150132E+01
 -0.3180743098415077E+01 -0.3180281200408611E+01 -0.3179816983903117E+01 -0.3179350455642441E+01 -0.3178881622342046E+01
 -0.3178410490689178E+01 -0.3177937067343020E+01 -0.3177461358934851E+01 -0.3176983372068203E+01 -0.3176503113319014E+01
 -0.3176020589235782E+01 -0.3175535806339724E+01 -0.3175048771124919E+01 -0.3174559490058463E+01 -0.3174067969580621E+01
 -0.3173574216104970E+01 -0.3173078236018555E+01 -0.3172580035682026E+01 -0.3172079621429790E+01 -0.3171576999570155E+01
 -0.3171072176385471E+01 -0.3170565158132276E+01 -0.3170055951041434E+01 -0.3169544561318280E+01 -0.3169030995142754E+01
 -0.3168515258669547E+01 -0.3167997358028231E+01 -0.3167477299323402E+01 -0.3166955088634813E+01 -0.3166430732017510E+01
 -0.3165904235501966E+01 -0.3165375605094210E+01 -0.3164844846775970E+01 -0.3164311966504791E+01 -0.3163776970214173E+01
 -0.3163239863813705E+01 -0.3162700653189180E+01 -0.3162159344202736E+01 -0.3161615942692976E+01 -0.3161070454475097E+01
 -0.3160522885341013E+01 -0.3159973241059483E+01 -0.3159421527376228E+01 -0.3158867750014061E+01 -0.3158311914673008E+01
 -0.3157754027030422E+01 -0.3157194092741110E+01 -0.3156632117437454E+01 -0.3156068106729521E+01 -0.3155502066205192E+01
 -0.3154934001430269E+01 -0.3154363917948599E+01 -0.3153791821282185E+01 -0.3153217716931303E+01 -0.3152641610374614E+01
 -0.3152063507069280E+01 -0.3151483412451077E+01 -0.3150901331934501E+01 -0.3150317270912885E+01 -0.3149731234758510E+01
 -0.3149143228822709E+01 -0.3148553258435979E+01 -0.3147961328908094E+01 -0.3147367445528201E+01 -0.3146771613564939E+01
 -0.3146173838266537E+01 -0.3145574124860923E+01 -0.3144972478555828E+01 -0.3144368904538891E+01 -0.3143763407977759E+01
 -0.3143155994020195E+01 -0.3142546667794174E+01 -0.3141935434407991E+01 -0.3141322298950355E+01 -0.3140707266490494E+01
 -0.3140090342078254E+01 -0.3139471530744196E+01 -0.3138850837499692E+01 -0.3138228267337030E+01 -0.3137603825229503E+01
 -0.3136977516131510E+01 -0.3136349344978651E+01 -0.3135719316687820E+01 -0.3135087436157303E+01 -0.3134453708266868E+01
 -0.3133818137877860E+01 -0.3133180729833296E+01 -0.3132541488957954E+01 -0.3131900420058466E+01 -0.3131257527923406E+01
 -0.3130612817323385E+01 -0.3129966293011140E+01 -0.3129317959721620E+01 -0.3128667822172078E+01 -0.3128015885062157E+01
 -0.3127362153073977E+01 -0.3126706630872227E+01 -0.3126049323104247E+01 -0.3125390234400112E+01 -0.3124729369372723E+01
 -0.3124066732617890E+01 -0.3123402328714413E+01 -0.3122736162224172E+01 -0.3122068237692205E+01 -0.3121398559646791E+01
 -0.3120727132599537E+01 -0.3120053961045455E+01 -0.3119379049463046E+01 -0.3118702402314379E+01 -0.3118024024045173E+01
 -0.3117343919084877E+01 -0.3116662091846745E+01 -0.3115978546727921E+01 -0.3115293288109515E+01 -0.3114606320356677E+01
 -0.3113917647818681E+01 -0.3113227274828998E+01 -0.3112535205705372E+01 -0.3111841444749897E+01 -0.3111145996249097E+01
 -0.3110448864473990E+01 -0.3109750053680174E+01 -0.3109049568107897E+01 -0.3108347411982126E+01 -0.3107643589512629E+01
 -0.3106938104894042E+01 -0.3106230962305942E+01 -0.3105522165912919E+01 -0.3104811719864651E+01 -0.3104099628295971E+01
 -0.3103385895326940E+01 -0.3102670525062915E+01 -0.3101953521594620E+01 -0.3101234888998218E+01 -0.3100514631335374E+01
 -0.3099792752653332E+01 -0.3099069256984974E+01 -0.3098344148348894E+01 -0.3097617430749465E+01 -0.3096889108176903E+01
 -0.3096159184607334E+01 -0.3095427664002866E+01 -0.3094694550311643E+01 -0.3093959847467925E+01 -0.3093223559392141E+01
 -0.3092485689990960E+01 -0.3091746243157354E+01 -0.3091005222770661E+01 -0.3090262632696647E+01 -0.3089518476787575E+01
 -0.3088772758882261E+01 -0.3088025482806142E+01 -0.3087276652371333E+01 -0.3086526271376691E+01 -0.3085774343607878E+01
 -0.3085020872837422E+01 -0.3084265862824772E+01 -0.3083509317316365E+01 -0.3082751240045682E+01 -0.3081991634733311E+01
 -0.3081230505087002E+01 -0.3080467854801729E+01 -0.3079703687559746E+01 -0.3078938007030652E+01 -0.3078170816871434E+01
 -0.3077402120726543E+01 -0.3076631922227941E+01 -0.3075860224995154E+01 -0.3075087032635341E+01 -0.3074312348743338E+01
 -0.3073536176901721E+01 -0.3072758520680861E+01 -0.3071979383638975E+01 -0.3071198769322188E+01 -0.3070416681264579E+01
 -0.3069633122988242E+01 -0.3068848098003341E+01 -0.3068061609808156E+01 -0.3067273661889144E+01 -0.3066484257720989E+01
 -0.3065693400766655E+01 -0.3064901094477439E+01 -0.3064107342293023E+01 -0.3063312147641525E+01 -0.3062515513939553E+01
 -0.3061717444592255E+01 -0.3060917942993368E+01 -0.3060117012525274E+01 -0.3059314656559045E+01 -0.3058510878454498E+01
 -0.3057705681560239E+01 -0.3056899069213719E+01 -0.3056091044741282E+01 -0.3055281611458208E+01 -0.3054470772668772E+01
 -0.3053658531666283E+01 -0.3052844891733139E+01 -0.3052029856140873E+01 -0.3051213428150198E+01 -0.3050395611011060E+01
 -0.3049576407962678E+01 -0.3048755822233599E+01 -0.3047933857041740E+01 -0.3047110515594435E+01 -0.3046285801088481E+01
 -0.3045459716710185E+01 -0.3044632265635410E+01 -0.3043803451029619E+01 -0.3042973276047921E+01 -0.3042141743835118E+01
 -0.3041308857525744E+01 -0.3040474620244116E+01 -0.3039639035104375E+01 -0.3038802105210530E+01 -0.3037963833656503E+01
 -0.3037124223526170E+01 -0.3036283277893410E+01 -0.3035440999822138E+01 -0.3034597392366361E+01 -0.3033752458570207E+01
 -0.3032906201467980E+01 -0.3032058624084191E+01 -0.3031209729433607E+01 -0.3030359520521292E+01 -0.3029508000342646E+01
 -0.3028655171883447E+01 -0.3027801038119893E+01 -0.3026945602018642E+01 -0.3026088866536854E+01 -0.3025230834622227E+01
 -0.3024371509213045E+01 -0.3023510893238210E+01 -0.3022648989617286E+01 -0.3021785801260537E+01 -0.3020921331068968E+01
 -0.3020055581934362E+01 -0.3019188556739320E+01 -0.3018320258357301E+01 -0.3017450689652657E+01 -0.3016579853480673E+01
 -0.3015707752687610E+01 -0.3014834390110732E+01 -0.3013959768578353E+01 -0.3013083890909872E+01 -0.3012206759915810E+01
 -0.3011328378397844E+01 -0.3010448749148851E+01 -0.3009567874952935E+01 -0.3008685758585475E+01 -0.3007802402813150E+01
 -0.3006917810393984E+01 -0.3006031984077378E+01 -0.3005144926604143E+01 -0.3004256640706543E+01 -0.3003367129108322E+01
 -0.3002476394524746E+01 -0.3001584439662635E+01 -0.3000691267220398E+01 -0.2999796879888065E+01 -0.2998901280347329E+01
 -0.2998004471271573E+01 -0.2997106455325906E+01 -0.2996207235167200E+01 -0.2995306813444118E+01 -0.2994405192797155E+01
 -0.2993502375858665E+01 -0.2992598365252898E+01 -0.2991693163596030E+01 -0.2990786773496199E+01 -0.2989879197553535E+01
 -0.2988970438360200E+01 -0.2988060498500406E+01 -0.2987149380550460E+01 -0.2986237087078791E+01 -0.2985323620645985E+01
 -0.2984408983804812E+01 -0.2983493179100261E+01 -0.2982576209069571E+01 -0.2981658076242260E+01 -0.2980738783140159E+01
 -0.2979818332277445E+01 -0.2978896726160663E+01 -0.2977973967288766E+01 -0.2977050058153142E+01 -0.2976125001237643E+01
 -0.2975198799018619E+01 -0.2974271453964941E+01 -0.2973342968538039E+01 -0.2972413345191927E+01 -0.2971482586373235E+01
 -0.2970550694521233E+01 -0.2969617672067871E+01 -0.2968683521437796E+01 -0.2967748245048390E+01 -0.2966811845309794E+01
 -0.2965874324624937E+01 -0.2964935685389571E+01 -0.2963995929992289E+01 -0.2963055060814558E+01 -0.2962113080230753E+01
 -0.2961169990608175E+01 -0.2960225794307088E+01 -0.2959280493680735E+01 -0.2958334091075381E+01 -0.2957386588830329E+01
 -0.2956437989277949E+01 -0.2955488294743710E+01 -0.2954537507546202E+01 -0.2953585629997166E+01 -0.2952632664401519E+01
 -0.2951678613057384E+01 -0.2950723478256108E+01 -0.2949767262282301E+01 -0.2948809967413852E+01 -0.2947851595921959E+01
 -0.2946892150071156E+01 -0.2945931632119336E+01 -0.2944970044317781E+01 -0.2944007388911183E+01 -0.2943043668137672E+01
 -0.2942078884228842E+01 -0.2941113039409774E+01 -0.2940146135899063E+01 -0.2939178175908843E+01 -0.2938209161644811E+01
 -0.2937239095306251E+01 -0.2936267979086063E+01 -0.2935295815170782E+01 -0.2934322605740605E+01 -0.2933348352969414E+01
 -0.2932373059024804E+01 -0.2931396726068104E+01 -0.2930419356254400E+01 -0.2929440951732561E+01 -0.2928461514645261E+01
 -0.2927481047129007E+01 -0.2926499551314154E+01 -0.2925517029324937E+01 -0.2924533483279490E+01 -0.2923548915289871E+01
 -0.2922563327462082E+01 -0.2921576721896094E+01 -0.2920589100685874E+01 -0.2919600465919399E+01 -0.2918610819678683E+01
 -0.2917620164039804E+01 -0.2916628501072919E+01 -0.2915635832842290E+01 -0.2914642161406306E+01 -0.2913647488817505E+01
 -0.2912651817122596E+01 -0.2911655148362479E+01 -0.2910657484572271E+01 -0.2909658827781323E+01 -0.2908659180013246E+01
 -0.2907658543285927E+01 -0.2906656919611557E+01 -0.2905654310996647E+01 -0.2904650719442053E+01 -0.2903646146942993E+01
 -0.2902640595489069E+01 -0.2901634067064295E+01 -0.2900626563647105E+01 -0.2899618087210385E+01 -0.2898608639721488E+01
 -0.2897598223142255E+01 -0.2896586839429036E+01 -0.2895574490532713E+01 -0.2894561178398713E+01 -0.2893546904967037E+01
 -0.2892531672172273E+01 -0.2891515481943622E+01 -0.2890498336204911E+01 -0.2889480236874618E+01 -0.2888461185865891E+01
 -0.2887441185086564E+01 -0.2886420236439183E+01 -0.2885398341821015E+01 -0.2884375503124082E+01 -0.2883351722235166E+01
 -0.2882327001035836E+01 -0.2881301341402467E+01 -0.2880274745206253E+01 -0.2879247214313234E+01 -0.2878218750584309E+01
 -0.2877189355875257E+01 -0.2876159032036754E+01 -0.2875127780914394E+01 -0.2874095604348707E+01 -0.2873062504175174E+01
 -0.2872028482224249E+01 -0.2870993540321376E+01 -0.2869957680287007E+01 -0.2868920903936620E+01 -0.2867883213080737E+01
 -0.2866844609524943E+01 -0.2865805095069901E+01 -0.2864764671511371E+01 -0.2863723340640232E+01 -0.2862681104242490E+01
 -0.2861637964099306E+01 -0.2860593921987004E+01 -0.2859548979677098E+01 -0.2858503138936298E+01 -0.2857456401526540E+01
 -0.2856408769204990E+01 -0.2855360243724069E+01 -0.2854310826831471E+01 -0.2853260520270175E+01 -0.2852209325778463E+01
 -0.2851157245089939E+01 -0.2850104279933543E+01 -0.2849050432033571E+01 -0.2847995703109685E+01 -0.2846940094876938E+01
 -0.2845883609045784E+01 -0.2844826247322096E+01 -0.2843768011407183E+01 -0.2842708902997805E+01 -0.2841648923786190E+01
 -0.2840588075460050E+01 -0.2839526359702595E+01 -0.2838463778192553E+01 -0.2837400332604179E+01 -0.2836336024607280E+01
 -0.2835270855867220E+01 -0.2834204828044944E+01 -0.2833137942796992E+01 -0.2832070201775511E+01 -0.2831001606628269E+01
 -0.2829932158998680E+01 -0.2828861860525809E+01 -0.2827790712844391E+01 -0.2826718717584846E+01 -0.2825645876373296E+01
 -0.2824572190831575E+01 -0.2823497662577251E+01 -0.2822422293223633E+01 -0.2821346084379790E+01 -0.2820269037650569E+01
 -0.2819191154636600E+01 -0.2818112436934320E+01 -0.2817032886135984E+01 -0.2815952503829680E+01 -0.2814871291599339E+01
 -0.2813789251024758E+01 -0.2812706383681606E+01 -0.2811622691141442E+01 -0.2810538174971731E+01 -0.2809452836735852E+01
 -0.2808366677993121E+01 -0.2807279700298795E+01 -0.2806191905204093E+01 -0.2805103294256206E+01 -0.2804013868998313E+01
 -0.2802923630969597E+01 -0.2801832581705252E+01 -0.2800740722736500E+01 -0.2799648055590607E+01 -0.2798554581790895E+01
 -0.2797460302856752E+01 -0.2796365220303648E+01 -0.2795269335643152E+01 -0.2794172650382940E+01 -0.2793075166026807E+01
 -0.2791976884074688E+01 -0.2790877806022664E+01 -0.2789777933362976E+01 -0.2788677267584039E+01 -0.2787575810170459E+01
 -0.2786473562603038E+01 -0.2785370526358792E+01 -0.2784266702910963E+01 -0.2783162093729031E+01 -0.2782056700278727E+01
 -0.2780950524022046E+01 -0.2779843566417257E+01 -0.2778735828918921E+01 -0.2777627312977897E+01 -0.2776518020041360E+01
 -0.2775407951552808E+01 -0.2774297108952080E+01 -0.2773185493675362E+01 -0.2772073107155206E+01 -0.2770959950820536E+01
 -0.2769846026096665E+01 -0.2768731334405302E+01 -0.2767615877164569E+01 -0.2766499655789010E+01 -0.2765382671689604E+01
 -0.2764264926273774E+01 -0.2763146420945405E+01 -0.2762027157104849E+01 -0.2760907136148941E+01 -0.2759786359471009E+01
 -0.2758664828460886E+01 -0.2757542544504920E+01 -0.2756419508985990E+01 -0.2755295723283511E+01 -0.2754171188773450E+01
 -0.2753045906828338E+01 -0.2751919878817276E+01 -0.2750793106105953E+01 -0.2749665590056652E+01 -0.2748537332028262E+01
 -0.2747408333376293E+01 -0.2746278595452883E+01 -0.2745148119606811E+01 -0.2744016907183505E+01 -0.2742884959525058E+01
 -0.2741752277970235E+01 -0.2740618863854484E+01 -0.2739484718509950E+01 -0.2738349843265483E+01 -0.2737214239446647E+01
 -0.2736077908375736E+01 -0.2734940851371781E+01 -0.2733803069750560E+01 -0.2732664564824610E+01 -0.2731525337903238E+01
 -0.2730385390292531E+01 -0.2729244723295365E+01 -0.2728103338211419E+01 -0.2726961236337180E+01 -0.2725818418965956E+01
 -0.2724674887387891E+01 -0.2723530642889964E+01 -0.2722385686756011E+01 -0.2721240020266729E+01 -0.2720093644699685E+01
 -0.2718946561329330E+01 -0.2717798771427007E+01 -0.2716650276260960E+01 -0.2715501077096345E+01 -0.2714351175195243E+01
 -0.2713200571816663E+01 -0.2712049268216557E+01 -0.2710897265647827E+01 -0.2709744565360340E+01 -0.2708591168600929E+01
 -0.2707437076613411E+01 -0.2706282290638592E+01 -0.2705126811914276E+01 -0.2703970641675277E+01 -0.2702813781153431E+01
 -0.2701656231577597E+01 -0.2700497994173674E+01 -0.2699339070164608E+01 -0.2698179460770403E+01 -0.2697019167208123E+01
 -0.2695858190691915E+01 -0.2694696532433004E+01 -0.2693534193639709E+01 -0.2692371175517455E+01 -0.2691207479268775E+01
 -0.2690043106093325E+01 -0.2688878057187889E+01 -0.2687712333746394E+01 -0.2686545936959907E+01 -0.2685378868016662E+01
 -0.2684211128102048E+01 -0.2683042718398637E+01 -0.2681873640086181E+01 -0.2680703894341624E+01 -0.2679533482339113E+01
 -0.2678362405250003E+01 -0.2677190664242869E+01 -0.2676018260483509E+01 -0.2674845195134965E+01 -0.2673671469357515E+01
 -0.2672497084308695E+01 -0.2671322041143301E+01 -0.2670146341013400E+01 -0.2668969985068336E+01 -0.2667792974454742E+01
 -0.2666615310316546E+01 -0.2665436993794978E+01 -0.2664258026028581E+01 -0.2663078408153220E+01 -0.2661898141302088E+01
 -0.2660717226605714E+01 -0.2659535665191973E+01 -0.2658353458186096E+01 -0.2657170606710669E+01 -0.2655987111885654E+01
 -0.2654802974828389E+01 -0.2653618196653597E+01 -0.2652432778473394E+01 -0.2651246721397302E+01 -0.2650060026532250E+01
 -0.2648872694982582E+01 -0.2647684727850073E+01 -0.2646496126233929E+01 -0.2645306891230800E+01 -0.2644117023934780E+01
 -0.2642926525437424E+01 -0.2641735396827753E+01 -0.2640543639192257E+01 -0.2639351253614908E+01 -0.2638158241177168E+01
 -0.2636964602957990E+01 -0.2635770340033833E+01 -0.2634575453478668E+01 -0.2633379944363982E+01 -0.2632183813758789E+01
 -0.2630987062729635E+01 -0.2629789692340610E+01 -0.2628591703653349E+01 -0.2627393097727044E+01 -0.2626193875618451E+01
 -0.2624994038381894E+01 -0.2623793587069278E+01 -0.2622592522730090E+01 -0.2621390846411411E+01 -0.2620188559157922E+01
 -0.2618985662011911E+01 -0.2617782156013277E+01 -0.2616578042199544E+01 -0.2615373321605862E+01 -0.2614167995265019E+01
 -0.2612962064207441E+01 -0.2611755529461207E+01 -0.2610548392052054E+01 -0.2609340653003378E+01 -0.2608132313336251E+01
 -0.2606923374069418E+01 -0.2605713836219311E+01 -0.2604503700800052E+01 -0.2603292968823463E+01 -0.2602081641299070E+01
 -0.2600869719234110E+01 -0.2599657203633542E+01 -0.2598444095500046E+01 -0.2597230395834039E+01 -0.2596016105633675E+01
 -0.2594801225894852E+01 -0.2593585757611222E+01 -0.2592369701774196E+01 -0.2591153059372953E+01 -0.2589935831394438E+01
 -0.2588718018823383E+01 -0.2587499622642300E+01 -0.2586280643831492E+01 -0.2585061083369066E+01 -0.2583840942230929E+01
 -0.2582620221390801E+01 -0.2581398921820221E+01 -0.2580177044488550E+01 -0.2578954590362981E+01 -0.2577731560408544E+01
 -0.2576507955588113E+01 -0.2575283776862409E+01 -0.2574059025190014E+01 -0.2572833701527366E+01 -0.2571607806828777E+01
 -0.2570381342046428E+01 -0.2569154308130387E+01 -0.2567926706028605E+01 -0.2566698536686928E+01 -0.2565469801049101E+01
 -0.2564240500056775E+01 -0.2563010634649510E+01 -0.2561780205764788E+01 -0.2560549214338010E+01 -0.2559317661302512E+01
 -0.2558085547589561E+01 -0.2556852874128368E+01 -0.2555619641846091E+01 -0.2554385851667843E+01 -0.2553151504516694E+01
 -0.2551916601313682E+01 -0.2550681142977816E+01 -0.2549445130426079E+01 -0.2548208564573442E+01 -0.2546971446332861E+01
 -0.2545733776615288E+01 -0.2544495556329675E+01 -0.2543256786382980E+01 -0.2542017467680175E+01 -0.2540777601124246E+01
 -0.2539537187616205E+01 -0.2538296228055093E+01 -0.2537054723337982E+01 -0.2535812674359988E+01 -0.2534570082014273E+01
 -0.2533326947192046E+01 -0.2532083270782579E+01 -0.2530839053673200E+01 -0.2529594296749313E+01 -0.2528349000894386E+01
 -0.2527103166989976E+01 -0.2525856795915715E+01 -0.2524609888549332E+01 -0.2523362445766650E+01 -0.2522114468441589E+01
 -0.2520865957446179E+01 -0.2519616913650561E+01 -0.2518367337922991E+01 -0.2517117231129851E+01 -0.2515866594135644E+01
 -0.2514615427803015E+01 -0.2513363732992739E+01 -0.2512111510563738E+01 -0.2510858761373084E+01 -0.2509605486275998E+01
 -0.2508351686125865E+01 -0.2507097361774233E+01 -0.2505842514070817E+01 -0.2504587143863509E+01 -0.2503331251998381E+01
 -0.2502074839319690E+01 -0.2500817906669878E+01 -0.2499560454889589E+01 -0.2498302484817663E+01 -0.2497043997291146E+01
 -0.2495784993145294E+01 -0.2494525473213578E+01 -0.2493265438327690E+01 -0.2492004889317546E+01 -0.2490743827011293E+01
 -0.2489482252235312E+01 -0.2488220165814225E+01 -0.2486957568570897E+01 -0.2485694461326446E+01 -0.2484430844900241E+01
 -0.2483166720109911E+01 -0.2481902087771353E+01 -0.2480636948698728E+01 -0.2479371303704474E+01 -0.2478105153599307E+01
 -0.2476838499192226E+01 -0.2475571341290518E+01 -0.2474303680699764E+01 -0.2473035518223842E+01 -0.2471766854664933E+01
 -0.2470497690823524E+01 -0.2469228027498413E+01 -0.2467957865486717E+01 -0.2466687205583872E+01 -0.2465416048583640E+01
 -0.2464144395278115E+01 -0.2462872246457721E+01 -0.2461599602911228E+01 -0.2460326465425745E+01 -0.2459052834786732E+01
 -0.2457778711778000E+01 -0.2456504097181720E+01 -0.2455228991778423E+01 -0.2453953396347009E+01 -0.2452677311664746E+01
 -0.2451400738507279E+01 -0.2450123677648632E+01 -0.2448846129861217E+01 -0.2447568095915829E+01 -0.2446289576581660E+01
 -0.2445010572626298E+01 -0.2443731084815735E+01 -0.2442451113914366E+01 -0.2441170660684998E+01 -0.2439889725888855E+01
 -0.2438608310285575E+01 -0.2437326414633227E+01 -0.2436044039688299E+01 -0.2434761186205719E+01 -0.2433477854938844E+01
 -0.2432194046639478E+01 -0.2430909762057867E+01 -0.2429625001942703E+01 -0.2428339767041137E+01 -0.2427054058098773E+01
 -0.2425767875859675E+01 -0.2424481221066379E+01 -0.2423194094459884E+01 -0.2421906496779668E+01 -0.2420618428763682E+01
 -0.2419329891148362E+01 -0.2418040884668632E+01 -0.2416751410057902E+01 -0.2415461468048078E+01 -0.2414171059369565E+01
 -0.2412880184751270E+01 -0.2411588844920604E+01 -0.2410297040603492E+01 -0.2409004772524372E+01 -0.2407712041406196E+01
 -0.2406418847970446E+01 -0.2405125192937125E+01 -0.2403831077024766E+01 -0.2402536500950437E+01 -0.2401241465429746E+01
 -0.2399945971176838E+01 -0.2398650018904409E+01 -0.2397353609323701E+01 -0.2396056743144510E+01 -0.2394759421075191E+01
 -0.2393461643822657E+01 -0.2392163412092387E+01 -0.2390864726588433E+01 -0.2389565588013412E+01 -0.2388265997068521E+01
 -0.2386965954453540E+01 -0.2385665460866826E+01 -0.2384364517005330E+01 -0.2383063123564591E+01 -0.2381761281238741E+01
 -0.2380458990720516E+01 -0.2379156252701250E+01 -0.2377853067870884E+01 -0.2376549436917972E+01 -0.2375245360529674E+01
 -0.2373940839391775E+01 -0.2372635874188675E+01 -0.2371330465603402E+01 -0.2370024614317608E+01 -0.2368718321011580E+01
 -0.2367411586364238E+01 -0.2366104411053143E+01 -0.2364796795754494E+01 -0.2363488741143140E+01 -0.2362180247892575E+01
 -0.2360871316674952E+01 -0.2359561948161071E+01 -0.2358252143020402E+01 -0.2356941901921073E+01 -0.2355631225529876E+01
 -0.2354320114512280E+01 -0.2353008569532422E+01 -0.2351696591253119E+01 -0.2350384180335869E+01 -0.2349071337440853E+01
 -0.2347758063226937E+01 -0.2346444358351682E+01 -0.2345130223471342E+01 -0.2343815659240866E+01 -0.2342500666313907E+01
 -0.2341185245342822E+01 -0.2339869396978674E+01 -0.2338553121871239E+01 -0.2337236420669004E+01 -0.2335919294019179E+01
 -0.2334601742567690E+01 -0.2333283766959190E+01 -0.2331965367837058E+01 -0.2330646545843406E+01 -0.2329327301619077E+01
 -0.2328007635803653E+01 -0.2326687549035456E+01 -0.2325367041951555E+01 -0.2324046115187762E+01 -0.2322724769378639E+01
 -0.2321403005157505E+01 -0.2320080823156432E+01 -0.2318758224006255E+01 -0.2317435208336570E+01 -0.2316111776775740E+01
 -0.2314787929950895E+01 -0.2313463668487941E+01 -0.2312138993011557E+01 -0.2310813904145202E+01 -0.2309488402511117E+01
 -0.2308162488730326E+01 -0.2306836163422643E+01 -0.2305509427206673E+01 -0.2304182280699812E+01 -0.2302854724518258E+01
 -0.2301526759277006E+01 -0.2300198385589855E+01 -0.2298869604069411E+01 -0.2297540415327088E+01 -0.2296210819973114E+01
 -0.2294880818616532E+01 -0.2293550411865203E+01 -0.2292219600325808E+01 -0.2290888384603854E+01 -0.2289556765303678E+01
 -0.2288224743028440E+01 -0.2286892318380139E+01 -0.2285559491959610E+01 -0.2284226264366523E+01 -0.2282892636199396E+01
 -0.2281558608055584E+01 -0.2280224180531298E+01 -0.2278889354221596E+01 -0.2277554129720388E+01 -0.2276218507620443E+01
 -0.2274882488513387E+01 -0.2273546072989712E+01 -0.2272209261638771E+01 -0.2270872055048787E+01 -0.2269534453806853E+01
 -0.2268196458498936E+01 -0.2266858069709877E+01 -0.2265519288023402E+01 -0.2264180114022114E+01 -0.2262840548287500E+01
 -0.2261500591399937E+01 -0.2260160243938694E+01 -0.2258819506481926E+01 -0.2257478379606693E+01 -0.2256136863888946E+01
 -0.2254794959903542E+01 -0.2253452668224240E+01 -0.2252109989423707E+01 -0.2250766924073515E+01 -0.2249423472744154E+01
 -0.2248079636005027E+01 -0.2246735414424452E+01 -0.2245390808569671E+01 -0.2244045819006844E+01 -0.2242700446301062E+01
 -0.2241354691016341E+01 -0.2240008553715628E+01 -0.2238662034960803E+01 -0.2237315135312685E+01 -0.2235967855331027E+01
 -0.2234620195574528E+01 -0.2233272156600828E+01 -0.2231923738966514E+01 -0.2230574943227122E+01 -0.2229225769937142E+01
 -0.2227876219650014E+01 -0.2226526292918138E+01 -0.2225175990292875E+01 -0.2223825312324541E+01 -0.2222474259562424E+01
 -0.2221122832554773E+01 -0.2219771031848814E+01 -0.2218418857990736E+01 -0.2217066311525709E+01 -0.2215713392997877E+01
 -0.2214360102950366E+01 -0.2213006441925281E+01 -0.2211652410463716E+01 -0.2210298009105745E+01 -0.2208943238390439E+01
 -0.2207588098855856E+01 -0.2206232591039050E+01 -0.2204876715476071E+01 -0.2203520472701971E+01 -0.2202163863250799E+01
 -0.2200806887655612E+01 -0.2199449546448471E+01 -0.2198091840160449E+01 -0.2196733769321627E+01 -0.2195375334461102E+01
 -0.2194016536106985E+01 -0.2192657374786406E+01 -0.2191297851025519E+01 -0.2189937965349497E+01 -0.2188577718282540E+01
 -0.2187217110347877E+01 -0.2185856142067764E+01 -0.2184494813963495E+01 -0.2183133126555393E+01 -0.2181771080362824E+01
 -0.2180408675904189E+01 -0.2179045913696932E+01 -0.2177682794257542E+01 -0.2176319318101555E+01 -0.2174955485743553E+01
 -0.2173591297697171E+01 -0.2172226754475099E+01 -0.2170861856589077E+01 -0.2169496604549909E+01 -0.2168130998867457E+01
 -0.2166765040050644E+01 -0.2165398728607458E+01 -0.2164032065044954E+01 -0.2162665049869255E+01 -0.2161297683585558E+01
 -0.2159929966698132E+01 -0.2158561899710320E+01 -0.2157193483124546E+01 -0.2155824717442310E+01 -0.2154455603164198E+01
 -0.2153086140789878E+01 -0.2151716330818106E+01 -0.2150346173746727E+01 -0.2148975670072677E+01 -0.2147604820291980E+01
 -0.2146233624899764E+01 -0.2144862084390245E+01 -0.2143490199256748E+01 -0.2142117969991692E+01 -0.2140745397086604E+01
 -0.2139372481032115E+01 -0.2137999222317965E+01 -0.2136625621433001E+01 -0.2135251678865189E+01 -0.2133877395101601E+01
 -0.2132502770628433E+01 -0.2131127805930992E+01 -0.2129752501493711E+01 -0.2128376857800144E+01 -0.2127000875332969E+01
 -0.2125624554573991E+01 -0.2124247896004145E+01 -0.2122870900103496E+01 -0.2121493567351239E+01 -0.2120115898225708E+01
 -0.2118737893204372E+01 -0.2117359552763839E+01 -0.2115980877379859E+01 -0.2114601867527323E+01 -0.2113222523680269E+01
 -0.2111842846311879E+01 -0.2110462835894487E+01 -0.2109082492899578E+01 -0.2107701817797786E+01 -0.2106320811058903E+01
 -0.2104939473151880E+01 -0.2103557804544820E+01 -0.2102175805704994E+01 -0.2100793477098830E+01 -0.2099410819191926E+01
 -0.2098027832449040E+01 -0.2096644517334104E+01 -0.2095260874310219E+01 -0.2093876903839660E+01 -0.2092492606383869E+01
 -0.2091107982403475E+01 -0.2089723032358276E+01 -0.2088337756707256E+01 -0.2086952155908576E+01 -0.2085566230419586E+01
 -0.2084179980696816E+01 -0.2082793407195990E+01 -0.2081406510372015E+01 -0.2080019290678993E+01 -0.2078631748570219E+01
 -0.2077243884498183E+01 -0.2075855698914571E+01 -0.2074467192270266E+01 -0.2073078365015357E+01 -0.2071689217599128E+01
 -0.2070299750470075E+01 -0.2068909964075895E+01 -0.2067519858863493E+01 -0.2066129435278985E+01 -0.2064738693767700E+01
 -0.2063347634774177E+01 -0.2061956258742174E+01 -0.2060564566114660E+01 -0.2059172557333829E+01 -0.2057780232841094E+01
 -0.2056387593077085E+01 -0.2054994638481664E+01 -0.2053601369493913E+01 -0.2052207786552146E+01 -0.2050813890093899E+01
 -0.2049419680555948E+01 -0.2048025158374298E+01 -0.2046630323984186E+01 -0.2045235177820089E+01 -0.2043839720315720E+01
 -0.2042443951904033E+01 -0.2041047873017223E+01 -0.2039651484086729E+01 -0.2038254785543233E+01 -0.2036857777816666E+01
 -0.2035460461336206E+01 -0.2034062836530280E+01 -0.2032664903826570E+01 -0.2031266663652009E+01 -0.2029868116432785E+01
 -0.2028469262594344E+01 -0.2027070102561389E+01 -0.2025670636757887E+01 -0.2024270865607061E+01 -0.2022870789531403E+01
 -0.2021470408952666E+01 -0.2020069724291872E+01 -0.2018668735969311E+01 -0.2017267444404544E+01 -0.2015865850016402E+01
 -0.2014463953222990E+01 -0.2013061754441690E+01 -0.2011659254089158E+01 -0.2010256452581329E+01 -0.2008853350333418E+01
 -0.2007449947759923E+01 -0.2006046245274622E+01 -0.2004642243290581E+01 -0.2003237942220149E+01 -0.2001833342474968E+01
 -0.2000428444465963E+01 -0.1999023248603354E+01 -0.1997617755296654E+01 -0.1996211964954669E+01 -0.1994805877985500E+01
 -0.1993399494796549E+01 -0.1991992815794511E+01 -0.1990585841385388E+01 -0.1989178571974479E+01 -0.1987771007966391E+01
 -0.1986363149765032E+01 -0.1984954997773619E+01 -0.1983546552394676E+01 -0.1982137814030040E+01 -0.1980728783080854E+01
 -0.1979319459947579E+01 -0.1977909845029987E+01 -0.1976499938727168E+01 -0.1975089741437527E+01 -0.1973679253558791E+01
 -0.1972268475488005E+01 -0.1970857407621538E+01 -0.1969446050355079E+01 -0.1968034404083645E+01 -0.1966622469201580E+01
 -0.1965210246102551E+01 -0.1963797735179561E+01 -0.1962384936824939E+01 -0.1960971851430348E+01 -0.1959558479386785E+01
 -0.1958144821084582E+01 -0.1956730876913407E+01 -0.1955316647262267E+01 -0.1953902132519509E+01 -0.1952487333072820E+01
 -0.1951072249309230E+01 -0.1949656881615113E+01 -0.1948241230376187E+01 -0.1946825295977522E+01 -0.1945409078803528E+01
 -0.1943992579237972E+01 -0.1942575797663968E+01 -0.1941158734463985E+01 -0.1939741390019843E+01 -0.1938323764712720E+01
 -0.1936905858923150E+01 -0.1935487673031024E+01 -0.1934069207415594E+01 -0.1932650462455473E+01 -0.1931231438528634E+01
 -0.1929812136012417E+01 -0.1928392555283526E+01 -0.1926972696718030E+01 -0.1925552560691367E+01 -0.1924132147578346E+01
 -0.1922711457753142E+01 -0.1921290491589307E+01 -0.1919869249459762E+01 -0.1918447731736808E+01 -0.1917025938792115E+01
 -0.1915603870996737E+01 -0.1914181528721103E+01 -0.1912758912335024E+01 -0.1911336022207690E+01 -0.1909912858707677E+01
 -0.1908489422202940E+01 -0.1907065713060828E+01 -0.1905641731648066E+01 -0.1904217478330777E+01 -0.1902792953474466E+01
 -0.1901368157444033E+01 -0.1899943090603769E+01 -0.1898517753317358E+01 -0.1897092145947878E+01 -0.1895666268857804E+01
 -0.1894240122409007E+01 -0.1892813706962759E+01 -0.1891387022879728E+01 -0.1889960070519987E+01 -0.1888532850243009E+01
 -0.1887105362407671E+01 -0.1885677607372256E+01 -0.1884249585494451E+01 -0.1882821297131354E+01 -0.1881392742639466E+01
 -0.1879963922374706E+01 -0.1878534836692397E+01 -0.1877105485947279E+01 -0.1875675870493503E+01 -0.1874245990684638E+01
 -0.1872815846873665E+01 -0.1871385439412987E+01 -0.1869954768654423E+01 -0.1868523834949214E+01 -0.1867092638648020E+01
 -0.1865661180100923E+01 -0.1864229459657433E+01 -0.1862797477666481E+01 -0.1861365234476424E+01 -0.1859932730435049E+01
 -0.1858499965889570E+01 -0.1857066941186631E+01 -0.1855633656672306E+01 -0.1854200112692103E+01 -0.1852766309590962E+01
 -0.1851332247713258E+01 -0.1849897927402802E+01 -0.1848463349002842E+01 -0.1847028512856063E+01 -0.1845593419304592E+01
 -0.1844158068689994E+01 -0.1842722461353276E+01 -0.1841286597634889E+01 -0.1839850477874727E+01 -0.1838414102412131E+01
 -0.1836977471585886E+01 -0.1835540585734227E+01 -0.1834103445194834E+01 -0.1832666050304841E+01 -0.1831228401400832E+01
 -0.1829790498818840E+01 -0.1828352342894358E+01 -0.1826913933962325E+01 -0.1825475272357142E+01 -0.1824036358412665E+01
 -0.1822597192462208E+01 -0.1821157774838542E+01 -0.1819718105873901E+01 -0.1818278185899979E+01 -0.1816838015247932E+01
 -0.1815397594248381E+01 -0.1813956923231411E+01 -0.1812516002526573E+01 -0.1811074832462883E+01 -0.1809633413368827E+01
 -0.1808191745572358E+01 -0.1806749829400905E+01 -0.1805307665181362E+01 -0.1803865253240096E+01 -0.1802422593902952E+01
 -0.1800979687495244E+01 -0.1799536534341766E+01 -0.1798093134766788E+01 -0.1796649489094055E+01 -0.1795205597646796E+01
 -0.1793761460747714E+01 -0.1792317078718998E+01 -0.1790872451882317E+01 -0.1789427580558825E+01 -0.1787982465069156E+01
 -0.1786537105733436E+01 -0.1785091502871272E+01 -0.1783645656801761E+01 -0.1782199567843488E+01 -0.1780753236314528E+01
 -0.1779306662532445E+01 -0.1777859846814297E+01 -0.1776412789476635E+01 -0.1774965490835502E+01 -0.1773517951206437E+01
 -0.1772070170904473E+01 -0.1770622150244142E+01 -0.1769173889539476E+01 -0.1767725389104000E+01 -0.1766276649250745E+01
 -0.1764827670292240E+01 -0.1763378452540516E+01 -0.1761928996307110E+01 -0.1760479301903057E+01 -0.1759029369638905E+01
 -0.1757579199824704E+01 -0.1756128792770009E+01 -0.1754678148783888E+01 -0.1753227268174915E+01 -0.1751776151251174E+01
 -0.1750324798320264E+01 -0.1748873209689290E+01 -0.1747421385664877E+01 -0.1745969326553159E+01 -0.1744517032659788E+01
 -0.1743064504289930E+01 -0.1741611741748269E+01 -0.1740158745339010E+01 -0.1738705515365871E+01 -0.1737252052132096E+01
 -0.1735798355940448E+01 -0.1734344427093210E+01 -0.1732890265892190E+01 -0.1731435872638722E+01 -0.1729981247633659E+01
 -0.1728526391177386E+01 -0.1727071303569811E+01 -0.1725615985110373E+01 -0.1724160436098037E+01 -0.1722704656831299E+01
 -0.1721248647608184E+01 -0.1719792408726251E+01 -0.1718335940482592E+01 -0.1716879243173830E+01 -0.1715422317096122E+01
 -0.1713965162545164E+01 -0.1712507779816186E+01 -0.1711050169203955E+01 -0.1709592331002778E+01 -0.1708134265506498E+01
 -0.1706675973008502E+01 -0.1705217453801716E+01 -0.1703758708178606E+01 -0.1702299736431184E+01 -0.1700840538851004E+01
 -0.1699381115729166E+01 -0.1697921467356314E+01 -0.1696461594022640E+01 -0.1695001496017882E+01 -0.1693541173631327E+01
 -0.1692080627151811E+01 -0.1690619856867722E+01 -0.1689158863066994E+01 -0.1687697646037119E+01 -0.1686236206065138E+01
 -0.1684774543437648E+01 -0.1683312658440797E+01 -0.1681850551360293E+01 -0.1680388222481397E+01 -0.1678925672088929E+01
 -0.1677462900467266E+01 -0.1675999907900345E+01 -0.1674536694671662E+01 -0.1673073261064276E+01 -0.1671609607360805E+01
 -0.1670145733843430E+01 -0.1668681640793896E+01 -0.1667217328493513E+01 -0.1665752797223153E+01 -0.1664288047263260E+01
 -0.1662823078893838E+01 -0.1661357892394464E+01 -0.1659892488044279E+01 -0.1658426866121997E+01 -0.1656961026905901E+01
 -0.1655494970673846E+01 -0.1654028697703258E+01 -0.1652562208271135E+01 -0.1651095502654051E+01 -0.1649628581128151E+01
 -0.1648161443969160E+01 -0.1646694091452376E+01 -0.1645226523852673E+01 -0.1643758741444508E+01 -0.1642290744501910E+01
  0.8835427110100458E+02  0.8835427110100458E+02  0.8835427110100458E+02  0.8835427110100458E+02  0.8835427110100458E+02
  0.8835427110100458E+02  0.8835427110100458E+02  0.8835427110100458E+02  0.8835427110100458E+02  0.8835427110100458E+02
  0.8835427110100458E+02  0.8835427110100458E+02  0.8835427110100458E+02  0.8835427110100458E+02  0.8835427110100458E+02
  0.8835427110100458E+02  0.8835427110100458E+02  0.8835427110100458E+02  0.8835427110100458E+02  0.8835427110100458E+02
  0.8835427110100458E+02  0.8835427110100458E+02  0.8835427110100458E+02  0.8835427110100458E+02  0.8835427110100458E+02
  0.8835427110100458E+02  0.8835427110100458E+02  0.8835427110100458E+02  0.8835427110100458E+02  0.8835427110100458E+02
  0.8835427110100458E+02  0.8835427110100458E+02  0.8835427110100458E+02  0.8835427110100458E+02  0.8835427110100458E+02
  0.8835427110100458E+02  0.8835427110100458E+02  0.8835427110100458E+02  0.8835427110100458E+02  0.8835427110100458E+02
  0.8835427110100458E+02  0.8835427110100458E+02  0.8835427110100458E+02  0.8835427110100458E+02  0.8835427110100458E+02
  0.8835427110100458E+02  0.8835427110100458E+02  0.8835427110100458E+02  0.8835427110100458E+02  0.8835427110100458E+02
  0.8835427110100458E+02  0.8835427110100458E+02  0.8835427110100458E+02  0.8835427110100458E+02  0.8835427110100458E+02
  0.8835427110100458E+02  0.8835427110100458E+02  0.8835427110100458E+02  0.8835427110100458E+02  0.8835427110100458E+02
  0.8835427110100458E+02  0.8835427110100458E+02  0.8835427110100458E+02  0.8835427110100458E+02  0.8835427110100458E+02
  0.8835427110100458E+02  0.8835427110100458E+02  0.8835427110100458E+02  0.8835427110100458E+02  0.8835427110100458E+02
  0.8835427110100458E+02  0.8835427110100458E+02  0.8835427110100458E+02  0.8835427110100458E+02  0.8835427110100458E+02
  0.8835427110100458E+02  0.8835427110100458E+02  0.8835427110100458E+02  0.8835427110100458E+02  0.8835427110100458E+02
  0.8835427110100458E+02  0.8835427110100458E+02  0.8835427110100458E+02  0.8835427110100458E+02  0.8835427110100458E+02
  0.8835427110100458E+02  0.8835427110100458E+02  0.8835427110100458E+02  0.8835427110100458E+02  0.8835427110100458E+02
  0.8835427110100458E+02  0.8835427110100458E+02  0.8835427110100458E+02  0.8835427110100458E+02  0.8835427110100458E+02
  0.8835427110100458E+02  0.8835427110100458E+02  0.8835427110100458E+02  0.8835427110100458E+02  0.8835427110100458E+02
  0.8835427110100458E+02  0.8835427110100458E+02  0.8835427110100458E+02  0.8835427110100458E+02  0.8835427110100458E+02
  0.8835427110100458E+02  0.8835427110100458E+02  0.8835427110100458E+02  0.8835427110100458E+02  0.8835427110100458E+02
  0.8835427110100458E+02  0.8835427110100458E+02  0.8835427110100458E+02  0.8835427110100458E+02  0.8835427110100458E+02
  0.8835427110100458E+02  0.8835427110100458E+02  0.8835427110100458E+02  0.8835427110100458E+02  0.8835427110100458E+02
  0.8835427110100458E+02  0.8835427110100458E+02  0.8835427110100458E+02  0.8835427110100458E+02  0.8835427110100458E+02
  0.8835427110100458E+02  0.8835427110100458E+02  0.8835427110100458E+02  0.8835427110100458E+02  0.8835427110100458E+02
  0.8835427110100458E+02  0.8835427110100458E+02  0.8835427110100458E+02  0.8835427110100458E+02  0.8835427110100458E+02
  0.8835427110100458E+02  0.8835427110100458E+02  0.8835427110100458E+02  0.8835427110100458E+02  0.8835427110100458E+02
  0.8835427110100458E+02  0.8835427110100458E+02  0.8835427110100458E+02  0.8835427110100458E+02  0.8835427110100458E+02
  0.8835427110100458E+02  0.8835427110100458E+02  0.8835427110100458E+02  0.8835427110100458E+02  0.8835427110100458E+02
  0.8835427110100458E+02  0.8835427110100458E+02  0.8835427110100458E+02  0.8809178478205797E+02  0.8768527544787605E+02
  0.8727932367846242E+02  0.8687396911621899E+02  0.8646925017100143E+02  0.8606520404551956E+02  0.8566186676053250E+02
  0.8525927317982429E+02  0.8485745703494426E+02  0.8445645094969989E+02  0.8405628646438933E+02  0.8365699405976339E+02
  0.8325860318070571E+02  0.8286114225962270E+02  0.8246463873953471E+02  0.8206911909686059E+02  0.8167460886388955E+02
  0.8128113265093378E+02  0.8088871416815731E+02  0.8049737624707559E+02  0.8010714086172335E+02  0.7971802914948609E+02
  0.7933006143159342E+02  0.7894325723327189E+02  0.7855763530355594E+02  0.7817321363475556E+02  0.7779000948158007E+02
  0.7740803937991845E+02  0.7702731916527566E+02  0.7664786399086590E+02  0.7626968834536440E+02  0.7589280607031756E+02
  0.7551723037721473E+02  0.7514297386422274E+02  0.7477004853258524E+02  0.7439846580268964E+02  0.7402823652980435E+02
  0.7365937101948897E+02  0.7329187904268099E+02  0.7292576985046141E+02  0.7256105218850398E+02  0.7219773431121025E+02
  0.7183582399553575E+02  0.7147532855450940E+02  0.7111625485045190E+02  0.7075860930789541E+02  0.7040239792621055E+02
  0.7004762629194333E+02  0.6969429959086715E+02  0.6934242261975410E+02  0.6899199979787002E+02  0.6864303517819758E+02
  0.6829553245839200E+02  0.6794949499147411E+02  0.6760492579626462E+02  0.6726182756756498E+02  0.6692020268608907E+02
  0.6658005322814969E+02  0.6624138097510527E+02  0.6590418742257084E+02  0.6556847378939777E+02  0.6523424102642696E+02
  0.6490148982501964E+02  0.6457022062537054E+02  0.6424043362460765E+02  0.6391212878468289E+02  0.6358530584005833E+02
  0.6325996430519158E+02  0.6293610348182531E+02  0.6261372246608476E+02  0.6229282015538734E+02  0.6197339525516841E+02
  0.6165544628542772E+02  0.6133897158709947E+02  0.6102396932825130E+02  0.6071043751011499E+02  0.6039837397295308E+02
  0.6008777640176528E+02  0.5977864233183828E+02  0.5947096915414244E+02  0.5916475412057942E+02  0.5885999434908361E+02
  0.5855668682858131E+02  0.5825482842381105E+02  0.5795441588000801E+02  0.5765544582745660E+02  0.5735791478591329E+02
  0.5706181916890394E+02  0.5676715528789808E+02  0.5647391935636346E+02  0.5618210749370401E+02  0.5589171572908327E+02
  0.5560274000513755E+02  0.5531517618158031E+02  0.5502902003870155E+02  0.5474426728076408E+02  0.5446091353929975E+02
  0.5417895437630818E+02  0.5389838528736060E+02  0.5361920170461084E+02  0.5334139899971652E+02  0.5306497248667215E+02
  0.5278991742455709E+02  0.5251622902020009E+02  0.5224390243076301E+02  0.5197293276624560E+02  0.5170331509191350E+02
  0.5143504443065182E+02  0.5116811576524588E+02  0.5090252404059141E+02  0.5063826416583562E+02  0.5037533101645201E+02
  0.5011371943624958E+02  0.4985342423931895E+02  0.4959444021191706E+02  0.4933676211429166E+02  0.4908038468244816E+02
  0.4882530262985948E+02  0.4857151064912102E+02  0.4831900341355224E+02  0.4806777557874627E+02  0.4781782178406898E+02
  0.4756913665410899E+02  0.4732171480008007E+02  0.4707555082117702E+02  0.4683063930588682E+02  0.4658697483325578E+02
  0.4634455197411437E+02  0.4610336529226083E+02  0.4586340934560445E+02  0.4562467868727028E+02  0.4538716786666583E+02
  0.4515087143051109E+02  0.4491578392383304E+02  0.4468189989092549E+02  0.4444921387627528E+02  0.4421772042545604E+02
  0.4398741408599031E+02  0.4375828940818077E+02  0.4353034094591184E+02  0.4330356325742235E+02  0.4307795090605023E+02
  0.4285349846094984E+02  0.4263020049778293E+02  0.4240805159938402E+02  0.4218704635640113E+02  0.4196717936791200E+02
  0.4174844524201738E+02  0.4153083859641137E+02  0.4131435405892983E+02  0.4109898626807775E+02  0.4088472987353558E+02
  0.4067157953664589E+02  0.4045952993088025E+02  0.4024857574228778E+02  0.4003871166992509E+02  0.3982993242626871E+02
  0.3962223273761035E+02  0.3941560734443561E+02  0.3921005100178669E+02  0.3900555847960946E+02  0.3880212456308546E+02
  0.3859974405294925E+02  0.3839841176579174E+02  0.3819812253434979E+02  0.3799887120778256E+02  0.3780065265193488E+02
  0.3760346174958845E+02  0.3740729340070079E+02  0.3721214252263263E+02  0.3701800405036421E+02  0.3682487293670024E+02
  0.3663274415246480E+02  0.3644161268668572E+02  0.3625147354676923E+02  0.3606232175866497E+02  0.3587415236702186E+02
  0.3568696043533495E+02  0.3550074104608372E+02  0.3531548930086193E+02  0.3513120032049952E+02  0.3494786924517661E+02
  0.3476549123453004E+02  0.3458406146775241E+02  0.3440357514368460E+02  0.3422402748090077E+02  0.3404541371778742E+02
  0.3386772911261568E+02  0.3369096894360782E+02  0.3351512850899753E+02  0.3334020312708468E+02  0.3316618813628457E+02
  0.3299307889517166E+02  0.3282087078251852E+02  0.3264955919732952E+02  0.3247913955886988E+02  0.3230960730669003E+02
  0.3214095790064565E+02  0.3197318682091342E+02  0.3180628956800246E+02  0.3164026166276203E+02  0.3147509864638523E+02
  0.3131079608040909E+02  0.3114734954671114E+02  0.3098475464750247E+02  0.3082300700531746E+02  0.3066210226300052E+02
  0.3050203608368965E+02  0.3034280415079710E+02  0.3018440216798711E+02  0.3002682585915110E+02  0.2987007096838017E+02
  0.2971413325993510E+02  0.2955900851821400E+02  0.2940469254771742E+02  0.2925118117301167E+02  0.2909847023868949E+02
  0.2894655560932928E+02  0.2879543316945167E+02  0.2864509882347485E+02  0.2849554849566782E+02  0.2834677813010177E+02
  0.2819878369060019E+02  0.2805156116068700E+02  0.2790510654353354E+02  0.2775941586190380E+02  0.2761448515809854E+02
  0.2747031049389789E+02  0.2732688795050277E+02  0.2718421362847527E+02  0.2704228364767742E+02  0.2690109414720967E+02
  0.2676064128534738E+02  0.2662092123947713E+02  0.2648193020603169E+02  0.2634366440042411E+02  0.2620612005698118E+02
  0.2606929342887588E+02  0.2593318078805919E+02  0.2579777842519118E+02  0.2566308264957133E+02  0.2552908978906841E+02
  0.2539579619004957E+02  0.2526319821730893E+02  0.2513129225399572E+02  0.2500007470154185E+02  0.2486954197958905E+02
  0.2473969052591548E+02  0.2461051679636217E+02  0.2448201726475882E+02  0.2435418842284948E+02  0.2422702678021776E+02
  0.2410052886421181E+02  0.2397469121986910E+02  0.2384951040984082E+02  0.2372498301431617E+02  0.2360110563094644E+02
  0.2347787487476880E+02  0.2335528737813022E+02  0.2323333979061088E+02  0.2311202877894781E+02  0.2299135102695812E+02
  0.2287130323546255E+02  0.2275188212220842E+02  0.2263308442179318E+02  0.2251490688558734E+02  0.2239734628165773E+02
  0.2228039939469070E+02  0.2216406302591529E+02  0.2204833399302646E+02  0.2193320913010832E+02  0.2181868528755748E+02
  0.2170475933200646E+02  0.2159142814624712E+02  0.2147868862915422E+02  0.2136653769560909E+02  0.2125497227642341E+02
  0.2114398931826311E+02  0.2103358578357227E+02  0.2092375865049748E+02  0.2081450491281199E+02  0.2070582157984025E+02
  0.2059770567638248E+02  0.2049015424263953E+02  0.2038316433413781E+02  0.2027673302165444E+02  0.2017085739114269E+02
  0.2006553454365740E+02  0.1996076159528087E+02  0.1985653567704872E+02  0.1975285393487611E+02  0.1964971352948422E+02
  0.1954711163632667E+02  0.1944504544551662E+02  0.1934351216175369E+02  0.1924250900425142E+02  0.1914203320666470E+02
  0.1904208201701767E+02  0.1894265269763185E+02  0.1884374252505436E+02  0.1874534878998654E+02  0.1864746879721280E+02
  0.1855009986552973E+02  0.1845323932767546E+02  0.1835688453025930E+02  0.1826103283369162E+02  0.1816568161211408E+02
  0.1807082825333009E+02  0.1797647015873551E+02  0.1788260474324965E+02  0.1778922943524663E+02  0.1769634167648686E+02
  0.1760393892204903E+02  0.1751201864026211E+02  0.1742057831263789E+02  0.1732961543380365E+02  0.1723912751143516E+02
  0.1714911206619000E+02  0.1705956663164113E+02  0.1697048875421078E+02  0.1688187599310458E+02  0.1679372592024610E+02
  0.1670603612021148E+02  0.1661880419016462E+02  0.1653202773979240E+02  0.1644570439124036E+02  0.1635983177904863E+02
  0.1627440755008816E+02  0.1618942936349718E+02  0.1610489489061811E+02  0.1602080181493450E+02  0.1593714783200862E+02
  0.1585393064941900E+02  0.1577114798669848E+02  0.1568879757527248E+02  0.1560687715839755E+02  0.1552538449110025E+02
  0.1544431734011630E+02  0.1536367348383004E+02  0.1528345071221412E+02  0.1520364682676957E+02  0.1512425964046611E+02
  0.1504528697768279E+02  0.1496672667414879E+02  0.1488857657688469E+02  0.1481083454414397E+02  0.1473349844535463E+02
  0.1465656616106141E+02  0.1458003558286799E+02  0.1450390461337967E+02  0.1442817116614624E+02  0.1435283316560522E+02
  0.1427788854702522E+02  0.1420333525644979E+02  0.1412917125064142E+02  0.1405539449702578E+02  0.1398200297363644E+02
  0.1390899466905958E+02  0.1383636758237923E+02  0.1376411972312267E+02  0.1369224911120609E+02  0.1362075377688059E+02
  0.1354963176067840E+02  0.1347888111335935E+02  0.1340849989585775E+02  0.1333848617922933E+02  0.1326883804459862E+02
  0.1319955358310653E+02  0.1313063089585818E+02  0.1306206809387101E+02  0.1299386329802321E+02  0.1292601463900232E+02
  0.1285852025725414E+02  0.1279137830293193E+02  0.1272458693584579E+02  0.1265814432541237E+02  0.1259204865060487E+02
  0.1252629809990308E+02  0.1246089087124403E+02  0.1239582517197258E+02  0.1233109921879239E+02  0.1226671123771721E+02
  0.1220265946402224E+02  0.1213894214219591E+02  0.1207555752589187E+02  0.1201250387788111E+02  0.1194977947000453E+02
  0.1188738258312553E+02  0.1182531150708305E+02  0.1176356454064472E+02  0.1170213999146026E+02  0.1164103617601524E+02
  0.1158025141958490E+02  0.1151978405618834E+02  0.1145963242854292E+02  0.1139979488801888E+02  0.1134026979459416E+02
  0.1128105551680952E+02  0.1122215043172390E+02  0.1116355292486989E+02  0.1110526139020961E+02  0.1104727423009065E+02
  0.1098958985520236E+02  0.1093220668453231E+02  0.1087512314532299E+02  0.1081833767302872E+02  0.1076184871127278E+02
  0.1070565471180483E+02  0.1064975413445845E+02  0.1059414544710900E+02  0.1053882712563156E+02  0.1048379765385927E+02
  0.1042905552354177E+02  0.1037459923430384E+02  0.1032042729360435E+02  0.1026653821669533E+02  0.1021293052658128E+02
  0.1015960275397879E+02  0.1010655343727615E+02  0.1005378112249343E+02  0.1000128436324256E+02  0.9949061720687732E+01
  0.9897111763505977E+01  0.9845433067847939E+01  0.9794024217298837E+01  0.9742883802839710E+01  0.9692010422808764E+01
  0.9641402682862960E+01  0.9591059195939845E+01  0.9540978582219500E+01  0.9491159469086751E+01  0.9441600491093567E+01
  0.9392300289921605E+01  0.9343257514345028E+01  0.9294470820193458E+01  0.9245938870315122E+01  0.9197660334540256E+01
  0.9149633889644592E+01  0.9101858219313160E+01  0.9054332014104164E+01  0.9007053971413113E+01  0.8960022795437137E+01
  0.8913237197139464E+01  0.8866695894214084E+01  0.8820397611050614E+01  0.8774341078699363E+01  0.8728525034836506E+01
  0.8682948223729539E+01  0.8637609396202828E+01  0.8592507309603397E+01  0.8547640727766865E+01  0.8503008420983548E+01
  0.8458609165964800E+01  0.8414441745809444E+01  0.8370504949970433E+01  0.8326797574221697E+01  0.8283318420625118E+01
  0.8240066297497677E+01  0.8197040019378850E+01  0.8154238406998067E+01  0.8111660287242394E+01  0.8069304493124445E+01
  0.8027169863750307E+01  0.7985255244287790E+01  0.7943559485934744E+01  0.7902081445887580E+01  0.7860819987309967E+01
  0.7819773979301643E+01  0.7778942296867444E+01  0.7738323820886466E+01  0.7697917438081370E+01  0.7657722040987919E+01
  0.7617736527924568E+01  0.7577959802962321E+01  0.7538390775894650E+01  0.7499028362207638E+01  0.7459871483050267E+01
  0.7420919065204818E+01  0.7382170041057482E+01  0.7343623348569086E+01  0.7305277931245987E+01  0.7267132738111122E+01
  0.7229186723675191E+01  0.7191438847908033E+01  0.7153888076210064E+01  0.7116533379383969E+01  0.7079373733606499E+01
  0.7042408120400358E+01  0.7005635526606336E+01  0.6969054944355547E+01  0.6932665371041737E+01  0.6896465809293900E+01
  0.6860455266948865E+01  0.6824632757024139E+01  0.6788997297690851E+01  0.6753547912246836E+01  0.6718283629089873E+01
  0.6683203481691050E+01  0.6648306508568268E+01  0.6613591753259911E+01  0.6579058264298594E+01  0.6544705095185131E+01
  0.6510531304362550E+01  0.6476535955190310E+01  0.6442718115918637E+01  0.6409076859662956E+01  0.6375611264378525E+01
  0.6342320412835130E+01  0.6309203392591963E+01  0.6276259295972615E+01  0.6243487220040189E+01  0.6210886266572562E+01
  0.6178455542037758E+01  0.6146194157569456E+01  0.6114101228942646E+01  0.6082175876549366E+01  0.6050417225374632E+01
  0.6018824404972405E+01  0.5987396549441772E+01  0.5956132797403217E+01  0.5925032291974971E+01  0.5894094180749579E+01
  0.5863317615770494E+01  0.5832701753508854E+01  0.5802245754840372E+01  0.5771948785022321E+01  0.5741810013670657E+01
  0.5711828614737272E+01  0.5682003766487338E+01  0.5652334651476803E+01  0.5622820456529961E+01  0.5593460372717188E+01
  0.5564253595332763E+01  0.5535199323872805E+01  0.5506296762013346E+01  0.5477545117588490E+01  0.5448943602568717E+01
  0.5420491433039272E+01  0.5392187829178686E+01  0.5364032015237403E+01  0.5336023219516511E+01  0.5308160674346598E+01
  0.5280443616066715E+01  0.5252871285003427E+01  0.5225442925450026E+01  0.5198157785645774E+01  0.5171015117755334E+01
  0.5144014177848271E+01  0.5117154225878626E+01  0.5090434525664689E+01  0.5063854344868771E+01  0.5037412954977155E+01
  0.5011109631280141E+01  0.4984943652852150E+01  0.4958914302532000E+01  0.4933020866903223E+01  0.4907262636274520E+01
  0.4881638904660319E+01  0.4856148969761414E+01  0.4830792132945724E+01  0.4805567699229135E+01  0.4780474977256456E+01
  0.4755513279282487E+01  0.4730681921153135E+01  0.4705980222286689E+01  0.4681407505655168E+01  0.4656963097765737E+01
  0.4632646328642291E+01  0.4608456531807045E+01  0.4584393044262302E+01  0.4560455206472271E+01  0.4536642362344983E+01
  0.4512953859214320E+01  0.4489389047822116E+01  0.4465947282300372E+01  0.4442627920153547E+01  0.4419430322240946E+01
  0.4396353852759224E+01  0.4373397879224919E+01  0.4350561772457153E+01  0.4327844906560387E+01  0.4305246658907223E+01
  0.4282766410121402E+01  0.4260403544060783E+01  0.4238157447800458E+01  0.4216027511615986E+01  0.4194013128966639E+01
  0.4172113696478816E+01  0.4150328613929475E+01  0.4128657284229694E+01  0.4107099113408320E+01  0.4085653510595662E+01
  0.4064319888007319E+01  0.4043097660928057E+01  0.4021986247695787E+01  0.4000985069685629E+01  0.3980093551294038E+01
  0.3959311119923047E+01  0.3938637205964554E+01  0.3918071242784723E+01  0.3897612666708451E+01  0.3877260917003915E+01
  0.3857015435867203E+01  0.3836875668407038E+01  0.3816841062629549E+01  0.3796911069423160E+01  0.3777085142543530E+01
  0.3757362738598580E+01  0.3737743317033613E+01  0.3718226340116476E+01  0.3698811272922854E+01  0.3679497583321570E+01
  0.3660284741960024E+01  0.3641172222249692E+01  0.3622159500351668E+01  0.3603246055162328E+01  0.3584431368299036E+01
  0.3565714924085936E+01  0.3547096209539832E+01  0.3528574714356106E+01  0.3510149930894752E+01  0.3491821354166450E+01
  0.3473588481818729E+01  0.3455450814122201E+01  0.3437407853956858E+01  0.3419459106798455E+01  0.3401604080704949E+01
  0.3383842286303017E+01  0.3366173236774649E+01  0.3348596447843796E+01  0.3331111437763108E+01  0.3313717727300717E+01
  0.3296414839727112E+01  0.3279202300802073E+01  0.3262079638761664E+01  0.3245046384305311E+01  0.3228102070582941E+01
  0.3211246233182175E+01  0.3194478410115612E+01  0.3177798141808160E+01  0.3161204971084441E+01  0.3144698443156262E+01
  0.3128278105610145E+01  0.3111943508394941E+01  0.3095694203809478E+01  0.3079529746490292E+01  0.3063449693399442E+01
  0.3047453603812335E+01  0.3031541039305675E+01  0.3015711563745425E+01  0.2999964743274868E+01  0.2984300146302710E+01
  0.2968717343491249E+01  0.2953215907744615E+01  0.2937795414197053E+01  0.2922455440201286E+01  0.2907195565316934E+01
  0.2892015371298978E+01  0.2876914442086314E+01  0.2861892363790332E+01  0.2846948724683581E+01  0.2832083115188490E+01
  0.2817295127866128E+01  0.2802584357405049E+01  0.2787950400610177E+01  0.2773392856391756E+01  0.2758911325754362E+01
  0.2744505411785956E+01  0.2730174719647021E+01  0.2715918856559724E+01  0.2701737431797160E+01  0.2687630056672647E+01
  0.2673596344529059E+01  0.2659635910728237E+01  0.2645748372640456E+01  0.2631933349633912E+01  0.2618190463064322E+01
  0.2604519336264520E+01  0.2590919594534141E+01  0.2577390865129361E+01  0.2563932777252668E+01  0.2550544962042705E+01
  0.2537227052564159E+01  0.2523978683797701E+01  0.2510799492629992E+01  0.2497689117843715E+01  0.2484647200107690E+01
  0.2471673381967015E+01  0.2458767307833270E+01  0.2445928623974779E+01  0.2433156978506904E+01  0.2420452021382409E+01
  0.2407813404381861E+01  0.2395240781104085E+01  0.2382733806956678E+01  0.2370292139146553E+01  0.2357915436670552E+01
  0.2345603360306098E+01  0.2333355572601890E+01  0.2321171737868670E+01  0.2309051522170006E+01  0.2296994593313151E+01
  0.2285000620839929E+01  0.2273069276017682E+01  0.2261200231830271E+01  0.2249393162969085E+01  0.2237647745824157E+01
  0.2225963658475276E+01  0.2214340580683159E+01  0.2202778193880697E+01  0.2191276181164197E+01  0.2179834227284713E+01
  0.2168452018639403E+01  0.2157129243262926E+01  0.2145865590818904E+01  0.2134660752591404E+01  0.2123514421476483E+01
  0.2112426291973774E+01  0.2101396060178103E+01  0.2090423423771171E+01  0.2079508082013259E+01  0.2068649735734987E+01
  0.2057848087329122E+01  0.2047102840742407E+01  0.2036413701467462E+01  0.2025780376534701E+01  0.2015202574504307E+01
  0.2004680005458245E+01  0.1994212380992308E+01  0.1983799414208229E+01  0.1973440819705798E+01  0.1963136313575052E+01
  0.1952885613388492E+01  0.1942688438193337E+01  0.1932544508503835E+01  0.1922453546293585E+01  0.1912415274987931E+01
  0.1902429419456382E+01  0.1892495706005060E+01  0.1882613862369209E+01  0.1872783617705727E+01  0.1863004702585746E+01
  0.1853276848987246E+01  0.1843599790287708E+01  0.1833973261256808E+01  0.1824396998049148E+01  0.1814870738197019E+01
  0.1805394220603222E+01  0.1795967185533889E+01  0.1786589374611386E+01  0.1777260530807217E+01  0.1767980398434984E+01
  0.1758748723143385E+01  0.1749565251909232E+01  0.1740429733030521E+01  0.1731341916119539E+01  0.1722301552095991E+01
  0.1713308393180178E+01  0.1704362192886210E+01  0.1695462706015239E+01  0.1686609688648754E+01  0.1677802898141884E+01
  0.1669042093116749E+01  0.1660327033455848E+01  0.1651657480295474E+01  0.1643033196019175E+01  0.1634453944251229E+01
  0.1625919489850175E+01  0.1617429598902365E+01  0.1608984038715551E+01  0.1600582577812514E+01  0.1592224985924711E+01
  0.1583911033985968E+01  0.1575640494126203E+01  0.1567413139665177E+01  0.1559228745106288E+01  0.1551087086130379E+01
  0.1542987939589602E+01  0.1534931083501291E+01  0.1526916297041887E+01  0.1518943360540883E+01  0.1511012055474800E+01
  0.1503122164461198E+01  0.1495273471252725E+01  0.1487465760731179E+01  0.1479698818901621E+01  0.1471972432886508E+01
  0.1464286390919853E+01  0.1456640482341429E+01  0.1449034497590989E+01  0.1441468228202524E+01  0.1433941466798550E+01
  0.1426454007084424E+01  0.1419005643842693E+01  0.1411596172927463E+01  0.1404225391258805E+01  0.1396893096817196E+01
  0.1389599088637970E+01  0.1382343166805826E+01  0.1375125132449332E+01  0.1367944787735484E+01  0.1360801935864283E+01
  0.1353696381063335E+01  0.1346627928582498E+01  0.1339596384688529E+01  0.1332601556659785E+01  0.1325643252780934E+01
  0.1318721282337705E+01  0.1311835455611662E+01  0.1304985583874998E+01  0.1298171479385371E+01  0.1291392955380745E+01
  0.1284649826074284E+01  0.1277941906649258E+01  0.1271269013253970E+01  0.1264630962996727E+01  0.1258027573940819E+01
  0.1251458665099532E+01  0.1244924056431199E+01  0.1238423568834251E+01  0.1231957024142317E+01  0.1225524245119341E+01
  0.1219125055454716E+01  0.1212759279758463E+01  0.1206426743556413E+01  0.1200127273285433E+01  0.1193860696288669E+01
  0.1187626840810805E+01  0.1181425535993366E+01  0.1175256611870029E+01  0.1169119899361963E+01  0.1163015230273205E+01
  0.1156942437286037E+01  0.1150901353956408E+01  0.1144891814709371E+01  0.1138913654834542E+01  0.1132966710481591E+01
  0.1127050818655746E+01  0.1121165817213325E+01  0.1115311544857299E+01  0.1109487841132863E+01  0.1103694546423045E+01
  0.1097931501944324E+01  0.1092198549742287E+01  0.1086495532687290E+01  0.1080822294470156E+01  0.1075178679597898E+01
  0.1069564533389441E+01  0.1063979701971399E+01  0.1058424032273847E+01  0.1052897372026128E+01  0.1047399569752682E+01
  0.1041930474768892E+01  0.1036489937176959E+01  0.1031077807861782E+01  0.1025693938486884E+01  0.1020338181490340E+01
  0.1015010390080730E+01  0.1009710418233124E+01  0.1004438120685072E+01  0.9991933529326256E+00  0.9939759712263787E+00
  0.9887858325675247E+00  0.9836227947039382E+00  0.9784867161262799E+00  0.9733774560641113E+00  0.9682948744820413E+00
  0.9632388320758866E+00  0.9582091902688524E+00  0.9532058112077395E+00  0.9482285577591579E+00  0.9432772935057746E+00
  0.9383518827425715E+00  0.9334521904731270E+00  0.9285780824059178E+00  0.9237294249506333E+00  0.9189060852145206E+00
  0.9141079309987374E+00  0.9093348307947264E+00  0.9045866537806211E+00  0.8998632698176481E+00  0.8951645494465702E+00
  0.8904903638841305E+00  0.8858405850195272E+00  0.8812150854109005E+00  0.8766137382818402E+00  0.8720364175179132E+00
  0.8674829976632016E+00  0.8629533539168690E+00  0.8584473621297380E+00  0.8539648988008876E+00  0.8495058410742674E+00
  0.8450700667353345E+00  0.8406574542076977E+00  0.8362678825497892E+00  0.8319012314515495E+00  0.8275573812311273E+00
  0.8232362128316053E+00  0.8189376078177291E+00  0.8146614483726673E+00  0.8104076172947788E+00  0.8061759979944021E+00
  0.8019664744906611E+00  0.7977789314082823E+00  0.7936132539744387E+00  0.7894693280155950E+00  0.7853470399543867E+00
  0.7812462768065060E+00  0.7771669261775995E+00  0.7731088762601949E+00  0.7690720158306316E+00  0.7650562342460105E+00
  0.7610614214411713E+00  0.7570874679256634E+00  0.7531342647807553E+00  0.7492017036564417E+00  0.7452896767684780E+00
  0.7413980768954257E+00  0.7375267973757119E+00  0.7336757321047092E+00  0.7298447755318231E+00  0.7260338226576026E+00
  0.7222427690308609E+00  0.7184715107458123E+00  0.7147199444392270E+00  0.7109879672875936E+00  0.7072754770043044E+00
  0.7035823718368507E+00  0.6999085505640336E+00  0.6962539124931900E+00  0.6926183574574349E+00  0.6890017858129123E+00
  0.6854040984360660E+00  0.6818251967209230E+00  0.6782649825763902E+00  0.6747233584235679E+00  0.6712002271930716E+00
  0.6676954923223768E+00  0.6642090577531647E+00  0.6607408279286971E+00  0.6572907077911948E+00  0.6538586027792294E+00
  0.6504444188251359E+00  0.6470480623524314E+00  0.6436694402732515E+00  0.6403084599857983E+00  0.6369650293718031E+00
  0.6336390567940031E+00  0.6303304510936255E+00  0.6270391215878933E+00  0.6237649780675372E+00  0.6205079307943232E+00
  0.6172678904985969E+00  0.6140447683768312E+00  0.6108384760891949E+00  0.6076489257571331E+00  0.6044760299609550E+00
  0.6013197017374421E+00  0.5981798545774610E+00  0.5950564024235943E+00  0.5919492596677809E+00  0.5888583411489704E+00
  0.5857835621507903E+00  0.5827248383992202E+00  0.5796820860602860E+00  0.5766552217377601E+00  0.5736441624708754E+00
  0.5706488257320524E+00  0.5676691294246392E+00  0.5647049918806558E+00  0.5617563318585620E+00  0.5588230685410269E+00
  0.5559051215327132E+00  0.5530024108580783E+00  0.5501148569591769E+00  0.5472423806934852E+00  0.5443849033317274E+00
  0.5415423465557210E+00  0.5387146324562289E+00  0.5359016835308237E+00  0.5331034226817661E+00  0.5303197732138880E+00
  0.5275506588324926E+00  0.5247960036412633E+00  0.5220557321401826E+00  0.5193297692234649E+00  0.5166180401774946E+00
  0.5139204706787809E+00  0.5112369867919200E+00  0.5085675149675680E+00  0.5059119820404275E+00  0.5032703152272389E+00
  0.5006424421247873E+00  0.4980282907079184E+00  0.4954277893275626E+00  0.4928408667087750E+00  0.4902674519487771E+00
  0.4877074745150159E+00  0.4851608642432332E+00  0.4826275513355360E+00  0.4801074663584896E+00  0.4776005402412132E+00
  0.4751067042734834E+00  0.4726258901038562E+00  0.4701580297377893E+00  0.4677030555357788E+00  0.4652609002115100E+00
  0.4628314968300065E+00  0.4604147788058017E+00  0.4580106799011088E+00  0.4556191342240083E+00  0.4532400762266418E+00
  0.4508734407034136E+00  0.4485191627892065E+00  0.4461771779576013E+00  0.4438474220191090E+00  0.4415298311194122E+00
  0.4392243417376138E+00  0.4369308906844978E+00  0.4346494151007949E+00  0.4323798524554618E+00  0.4301221405439657E+00
  0.4278762174865805E+00  0.4256420217266910E+00  0.4234194920291041E+00  0.4212085674783718E+00  0.4190091874771213E+00
  0.4168212917443935E+00  0.4146448203139925E+00  0.4124797135328401E+00  0.4103259120593407E+00  0.4081833568617579E+00
  0.4060519892165912E+00  0.4039317507069722E+00  0.4018225832210593E+00  0.3997244289504465E+00  0.3976372303885800E+00
  0.3955609303291792E+00  0.3934954718646714E+00  0.3914407983846309E+00  0.3893968535742265E+00  0.3873635814126807E+00
  0.3853409261717313E+00  0.3833288324141048E+00  0.3813272449919980E+00  0.3793361090455648E+00  0.3773553700014147E+00
  0.3753849735711142E+00  0.3734248657497007E+00  0.3714749928142022E+00  0.3695353013221635E+00  0.3676057381101834E+00
  0.3656862502924555E+00  0.3637767852593193E+00  0.3618772906758186E+00  0.3599877144802666E+00  0.3581080048828197E+00
  0.3562381103640563E+00  0.3543779796735660E+00  0.3525275618285443E+00  0.3506868061123949E+00  0.3488556620733410E+00
  0.3470340795230401E+00  0.3452220085352096E+00  0.3434193994442591E+00  0.3416262028439268E+00  0.3398423695859278E+00
  0.3380678507786032E+00  0.3363025977855857E+00  0.3345465622244604E+00  0.3327996959654421E+00  0.3310619511300553E+00
  0.3293332800898195E+00  0.3276136354649490E+00  0.3259029701230483E+00  0.3242012371778228E+00  0.3225083899877936E+00
  0.3208243821550181E+00  0.3191491675238193E+00  0.3174827001795192E+00  0.3158249344471806E+00  0.3141758248903551E+00
  0.3125353263098373E+00  0.3109033937424266E+00  0.3092799824596931E+00  0.3076650479667522E+00  0.3060585460010447E+00
  0.3044604325311230E+00  0.3028706637554453E+00  0.3012891961011725E+00  0.2997159862229751E+00  0.2981509910018447E+00
  0.2965941675439112E+00  0.2950454731792679E+00  0.2935048654608004E+00  0.2919723021630228E+00  0.2904477412809210E+00
  0.2889311410287998E+00  0.2874224598391387E+00  0.2859216563614499E+00  0.2844286894611465E+00  0.2829435182184132E+00
  0.2814661019270847E+00  0.2799964000935304E+00  0.2785343724355425E+00  0.2770799788812314E+00  0.2756331795679280E+00
  0.2741939348410895E+00  0.2727622052532124E+00  0.2713379515627505E+00  0.2699211347330379E+00  0.2685117159312196E+00
  0.2671096565271854E+00  0.2657149180925115E+00  0.2643274623994048E+00  0.2629472514196557E+00  0.2615742473235942E+00
  0.2602084124790517E+00  0.2588497094503319E+00  0.2574981009971781E+00  0.2561535500737562E+00  0.2548160198276369E+00
  0.2534854735987834E+00  0.2521618749185487E+00  0.2508451875086709E+00  0.2495353752802805E+00  0.2482324023329086E+00
  0.2469362329535031E+00  0.2456468316154468E+00  0.2443641629775853E+00  0.2430881918832533E+00  0.2418188833593121E+00
  0.2405562026151885E+00  0.2393001150419199E+00  0.2380505862112064E+00  0.2368075818744614E+00  0.2355710679618746E+00
  0.2343410105814751E+00  0.2331173760182010E+00  0.2319001307329742E+00  0.2306892413617781E+00  0.2294846747147421E+00
  0.2282863977752296E+00  0.2270943776989310E+00  0.2259085818129621E+00  0.2247289776149654E+00  0.2235555327722177E+00
  0.2223882151207413E+00  0.2212269926644202E+00  0.2200718335741215E+00  0.2189227061868189E+00  0.2177795790047235E+00
  0.2166424206944175E+00  0.2155112000859925E+00  0.2143858861721933E+00  0.2132664481075635E+00  0.2121528552075984E+00
  0.2110450769479006E+00  0.2099430829633399E+00  0.2088468430472186E+00  0.2077563271504393E+00  0.2066715053806778E+00
  0.2055923480015614E+00  0.2045188254318492E+00  0.2034509082446183E+00  0.2023885671664524E+00  0.2013317730766365E+00
  0.2002804970063544E+00  0.1992347101378897E+00  0.1981943838038333E+00  0.1971594894862916E+00  0.1961299988161012E+00
  0.1951058835720465E+00  0.1940871156800809E+00  0.1930736672125534E+00  0.1920655103874372E+00  0.1910626175675632E+00
  0.1900649612598571E+00  0.1890725141145804E+00  0.1880852489245758E+00  0.1871031386245141E+00  0.1861261562901477E+00
  0.1851542751375659E+00  0.1841874685224545E+00  0.1832257099393600E+00  0.1822689730209551E+00  0.1813172315373089E+00
  0.1803704593951628E+00  0.1794286306372064E+00  0.1784917194413601E+00  0.1775597001200581E+00  0.1766325471195377E+00
  0.1757102350191303E+00  0.1747927385305563E+00  0.1738800324972252E+00  0.1729720918935351E+00  0.1720688918241790E+00
  0.1711704075234534E+00  0.1702766143545700E+00  0.1693874878089711E+00  0.1685030035056473E+00  0.1676231371904597E+00
  0.1667478647354648E+00  0.1658771621382425E+00  0.1650110055212267E+00  0.1641493711310410E+00  0.1632922353378348E+00
  0.1624395746346249E+00  0.1615913656366384E+00  0.1607475850806598E+00  0.1599082098243811E+00  0.1590732168457538E+00
  0.1582425832423448E+00  0.1574162862306955E+00  0.1565943031456825E+00  0.1557766114398836E+00  0.1549631886829431E+00
  0.1541540125609436E+00  0.1533490608757783E+00  0.1525483115445269E+00  0.1517517425988346E+00  0.1509593321842927E+00
  0.1501710585598232E+00  0.1493869000970656E+00  0.1486068352797657E+00  0.1478308427031687E+00  0.1470589010734127E+00
  0.1462909892069270E+00  0.1455270860298314E+00  0.1447671705773386E+00  0.1440112219931597E+00  0.1432592195289110E+00
  0.1425111425435237E+00  0.1417669705026570E+00  0.1410266829781121E+00  0.1402902596472501E+00  0.1395576802924104E+00
  0.1388289248003335E+00  0.1381039731615845E+00  0.1373828054699795E+00  0.1366654019220150E+00  0.1359517428162975E+00
  0.1352418085529779E+00  0.1345355796331854E+00  0.1338330366584658E+00  0.1331341603302212E+00  0.1324389314491508E+00
  0.1317473309146941E+00  0.1310593397244782E+00  0.1303749389737640E+00  0.1296941098548970E+00  0.1290168336567575E+00
  0.1283430917642153E+00  0.1276728656575842E+00  0.1270061369120794E+00  0.1263428871972780E+00  0.1256830982765774E+00
  0.1250267520066594E+00  0.1243738303369546E+00  0.1237243153091078E+00  0.1230781890564465E+00  0.1224354338034494E+00
  0.1217960318652182E+00  0.1211599656469498E+00  0.1205272176434102E+00  0.1198977704384111E+00  0.1192716067042858E+00
  0.1186487092013686E+00  0.1180290607774748E+00  0.1174126443673816E+00  0.1167994429923117E+00  0.1161894397594168E+00
  0.1155826178612630E+00  0.1149789605753178E+00  0.1143784512634379E+00  0.1137810733713582E+00  0.1131868104281822E+00
  0.1125956460458732E+00  0.1120075639187468E+00  0.1114225478229648E+00  0.1108405816160291E+00  0.1102616492362781E+00
  0.1096857347023822E+00  0.1091128221128421E+00  0.1085428956454865E+00  0.1079759395569715E+00  0.1074119381822808E+00
  0.1068508759342258E+00  0.1062927373029474E+00  0.1057375068554183E+00  0.1051851692349453E+00  0.1046357091606736E+00
  0.1040891114270898E+00  0.1035453609035270E+00  0.1030044425336697E+00  0.1024663413350595E+00  0.1019310423986010E+00
  0.1013985308880678E+00  0.1008687920396094E+00  0.1003418111612586E+00  0.9981757363243769E-01  0.9929606490346728E-01
  0.9877727049507277E-01  0.9826117599789276E-01  0.9774776707198671E-01  0.9723702944634292E-01  0.9672894891838711E-01
  0.9622351135348885E-01  0.9572070268447098E-01  0.9522050891111654E-01  0.9472291609967641E-01  0.9422791038237729E-01
  0.9373547795692792E-01  0.9324560508602650E-01  0.9275827809686699E-01  0.9227348338064516E-01  0.9179120739206521E-01
  0.9131143664884332E-01  0.9083415773121373E-01  0.9035935728143239E-01  0.8988702200327996E-01  0.8941713866156621E-01
  0.8894969408163042E-01  0.8848467514884382E-01  0.8802206880810991E-01  0.8756186206336411E-01  0.8710404197707315E-01
  0.8664859566973218E-01  0.8619551031936239E-01  0.8574477316100640E-01  0.8529637148622332E-01  0.8485029264258254E-01
  0.8440652403315578E-01  0.8396505311600863E-01  0.8352586740369028E-01  0.8308895446272227E-01  0.8265430191308584E-01
  0.8222189742770733E-01  0.8179172873194268E-01  0.8136378360306021E-01  0.8093804986972165E-01  0.8051451541146211E-01
  0.8009316815816717E-01  0.7967399608954964E-01  0.7925698723462365E-01  0.7884212967117704E-01  0.7842941152524237E-01
  0.7801882097056501E-01  0.7761034622807030E-01  0.7720397556532810E-01  0.7679969729601525E-01  0.7639749977937614E-01
  0.7599737141968120E-01  0.7559930066568250E-01  0.7520327601006802E-01  0.7480928598891269E-01  0.7441731918112790E-01
  0.7402736420790815E-01  0.7363940973217510E-01  0.7325344445801944E-01  0.7286945713014029E-01  0.7248743653328157E-01
  0.7210737149166638E-01  0.7172925086842795E-01  0.7135306356503866E-01  0.7097879852073580E-01  0.7060644471194462E-01
  0.7023599115169930E-01  0.6986742688905921E-01  0.6950074100852474E-01  0.6913592262944832E-01  0.6877296090544320E-01
  0.6841184502378994E-01  0.6805256420483803E-01  0.6769510770140642E-01  0.6733946479818016E-01  0.6698562481110369E-01
  0.6663357708677223E-01  0.6628331100181810E-01  0.6593481596229595E-01  0.6558808140306374E-01  0.6524309678716043E-01
  0.6489985160518198E-01  0.6455833537465211E-01  0.6421853763939156E-01  0.6388044796888355E-01  0.6354405595763617E-01
  0.6320935122454206E-01  0.6287632341223420E-01  0.6254496218643948E-01  0.6221525723532867E-01  0.6188719826886363E-01
  0.6156077501814168E-01  0.6123597723473655E-01  0.6091279469003686E-01  0.6059121717458176E-01  0.6027123449739357E-01
  0.5995283648530796E-01  0.5963601298230118E-01  0.5932075384881496E-01  0.5900704896107899E-01  0.5869488821043073E-01
  0.5838426150263335E-01  0.5807515875719090E-01  0.5776756990666204E-01  0.5746148489597146E-01  0.5715689368171945E-01
  0.5685378623149037E-01  0.5655215252315866E-01  0.5625198254419438E-01  0.5595326629096720E-01  0.5565599376804924E-01
  0.5536015498751782E-01  0.5506573996825663E-01  0.5477273873525740E-01  0.5448114131892100E-01  0.5419093775435890E-01
  0.5390211808069501E-01  0.5361467234036791E-01  0.5332859057843450E-01  0.5304386284187457E-01  0.5276047917889724E-01
  0.5247842963824910E-01  0.5219770426852509E-01  0.5191829311748138E-01  0.5164018623135208E-01  0.5136337365416906E-01
  0.5108784542708567E-01  0.5081359158770530E-01  0.5054060216941429E-01  0.5026886720072059E-01  0.4999837670459837E-01
  0.4972912069783866E-01  0.4946108919040824E-01  0.4919427218481420E-01  0.4892865967547889E-01  0.4866424164812255E-01
  0.4840100807915589E-01  0.4813894893508348E-01  0.4787805417191730E-01  0.4761831373460320E-01  0.4735971755645919E-01
  0.4710225555862800E-01  0.4684591764954388E-01  0.4659069372441409E-01  0.4633657366471748E-01  0.4608354733772002E-01
  0.4583160459600855E-01  0.4558073527704408E-01  0.4533092920273522E-01  0.4508217617903357E-01  0.4483446599555153E-01
  0.4458778842520444E-01  0.4434213322387794E-01  0.4409749013012154E-01  0.4385384886487061E-01  0.4361119913119749E-01
  0.4336953061409352E-01  0.4312883298028327E-01  0.4288909587807261E-01  0.4265030893723241E-01  0.4241246176891925E-01
  0.4217554396563482E-01  0.4193954510122631E-01  0.4170445473092849E-01  0.4147026239145080E-01  0.4123695760110997E-01
  0.4100452986001110E-01  0.4077296865027891E-01  0.4054226343634085E-01  0.4031240366526499E-01  0.4008337876715411E-01
  0.3985517815559884E-01  0.3962779122819177E-01  0.3940120736710478E-01  0.3917541593973247E-01  0.3895040629940381E-01
  0.3872616778616442E-01  0.3850268972763254E-01  0.3827996143993048E-01  0.3805797222869506E-01  0.3783671139016932E-01
  0.3761616821237809E-01  0.3739633197639092E-01  0.3717719195767402E-01  0.3695873742753535E-01  0.3674095765466505E-01
  0.3652384190677428E-01  0.3630737945233563E-01  0.3609155956242754E-01  0.3587637151268678E-01  0.3566180458537099E-01
  0.3544784807153478E-01  0.3523449127332307E-01  0.3502172350638299E-01  0.3480953410239938E-01  0.3459791241175610E-01
  0.3438684780632560E-01  0.3417632968239088E-01  0.3396634746370218E-01  0.3375689060467108E-01  0.3354794859370560E-01
  0.3333951095668892E-01  0.3313156726060402E-01  0.3292410711730772E-01  0.3271712018745564E-01  0.3251059618458195E-01
  0.3230452487933506E-01  0.3209889610387227E-01  0.3189369975641554E-01  0.3168892580596929E-01  0.3148456429720371E-01
  0.3128060535550394E-01  0.3107703919218686E-01  0.3087385610988730E-01  0.3067104650811360E-01  0.3046860088897422E-01
  0.3026650986307547E-01  0.3006476415559056E-01  0.2986335461250007E-01  0.2966227220700303E-01  0.2946150804609845E-01
  0.2926105337733560E-01  0.2906089959573207E-01  0.2886103825085734E-01  0.2866146105407959E-01  0.2846215988597341E-01
  0.2826312680388458E-01  0.2806435404964877E-01  0.2786583405745988E-01  0.2766755946188267E-01  0.2746952310600563E-01
  0.2727171804972704E-01  0.2707413757816866E-01  0.2687677521020970E-01  0.2667962470713326E-01  0.2648268008137750E-01
  0.2628593560538215E-01  0.2608938582052082E-01  0.2589302554610933E-01  0.2569684988847805E-01  0.2550085425009777E-01
  0.2530503433874567E-01  0.2510938617669895E-01  0.2491390610994182E-01  0.2471859081737125E-01  0.2452343731998645E-01
  0.2432844299004551E-01  0.2413360556017280E-01  0.2393892313239926E-01  0.2374439418711711E-01  0.2355001759193065E-01
  0.2335579261038266E-01  0.2316171891053647E-01  0.2296779657339288E-01  0.2277402610111913E-01  0.2258040842506941E-01
  0.2238694491357277E-01  0.2219363737946536E-01  0.2200048808734387E-01  0.2180749976051460E-01  0.2161467558761512E-01
  0.2142201922888231E-01  0.2122953482204229E-01  0.2103722698779692E-01  0.2084510083488017E-01  0.2065316196466058E-01
  0.2046141647526310E-01  0.2026987096518485E-01  0.2007853253638028E-01  0.1988740879679028E-01  0.1969650786229026E-01
  0.1950583835803422E-01  0.1931540941917027E-01  0.1912523069090520E-01  0.1893531232789614E-01  0.1874566499294759E-01
  0.1855629985499431E-01  0.1836722858635068E-01  0.1817846335920846E-01  0.1799001684136706E-01  0.1780190219118028E-01
  0.1761413305170685E-01  0.1742672354405243E-01  0.1723968825989280E-01  0.1705304225317034E-01  0.1686680103095671E-01
  0.1668098054347826E-01  0.1649559717330124E-01  0.1631066772367709E-01  0.1612620940605019E-01  0.1594223982673197E-01
  0.1575877697274952E-01  0.1557583919687694E-01  0.1539344520186217E-01  0.1521161402386343E-01  0.1503036501511206E-01
  0.1484971782582183E-01  0.1466969238536626E-01  0.1449030888274885E-01  0.1431158774639361E-01  0.1413354962328464E-01
  0.1395621535748800E-01  0.1377960596808944E-01  0.1360374262658497E-01  0.1342864663376350E-01  0.1325433939612203E-01
  0.1308084240185716E-01  0.1290817719647741E-01  0.1273636535808329E-01  0.1256542847236367E-01  0.1239538810735772E-01
  0.1222626578803435E-01  0.1205808297074089E-01  0.1189086101757441E-01  0.1172462117073026E-01  0.1155938452688103E-01
  0.1139517201164316E-01  0.1123200435418443E-01  0.1106990206202875E-01  0.1090888539611315E-01  0.1074897434615090E-01
  0.1059018860635584E-01  0.1043254755158060E-01  0.1027607021392067E-01  0.1012077525983620E-01  0.9966680967839653E-02
  0.9813805206799225E-02  0.9662165414902757E-02  0.9511778579327000E-02  0.9362661216655148E-02  0.9214829354081076E-02
  0.9068298511439622E-02  0.8923083684096968E-02  0.8779199326733883E-02  0.8636659338051902E-02  0.8495477046428760E-02
  0.8355665196547735E-02  0.8217235937022050E-02  0.8080200809031495E-02  0.7944570735987862E-02  0.7810356014239819E-02
  0.7677566304826608E-02  0.7546210626287348E-02  0.7416297348526901E-02  0.7287834187740332E-02  0.7160828202391051E-02
  0.7035285790237608E-02  0.6911212686400417E-02  0.6788613962455922E-02  0.6667494026545411E-02  0.6547856624480381E-02
  0.6429704841825996E-02  0.6313041106941495E-02  0.6197867194952781E-02  0.6084184232632892E-02  0.5971992704161489E-02
  0.5861292457734883E-02  0.5752082712995031E-02  0.5644362069245468E-02  0.5538128514420338E-02  0.5433379434771169E-02
  0.5330111625236041E-02  0.5228321300453871E-02  0.5128004106386906E-02  0.5029155132512455E-02  0.4931768924546489E-02
  0.4835839497659488E-02  0.4741360350145886E-02  0.4648324477508913E-02  0.4556724386920862E-02  0.4466552112021685E-02
  0.4377799228016717E-02  0.4290456867036431E-02  0.4204515733721444E-02  0.4119966120995664E-02  0.4036797925992987E-02
  0.3955000666102073E-02  0.3874563495095773E-02  0.3795475219312699E-02  0.3717724313858702E-02  0.3641298938798393E-02
  0.3566186955306771E-02  0.3492375941753038E-02  0.3419853209690033E-02  0.3348605819722920E-02  0.3278620597233720E-02
  0.3209884147938002E-02  0.3142382873252284E-02  0.3076102985452185E-02  0.3011030522601630E-02  0.2947151363236227E-02
  0.2884451240783800E-02  0.2822915757707417E-02  0.2762530399357243E-02  0.2703280547518195E-02  0.2645151493642904E-02
  0.2588128451759248E-02  0.2532196571043900E-02  0.2477340948054302E-02  0.2423546638612014E-02  0.2370798669332380E-02
  0.2319082048795561E-02  0.2268381778355583E-02  0.2218682862584982E-02  0.2169970319352876E-02  0.2122229189536229E-02
  0.2075444546363786E-02  0.2029601504393670E-02  0.1984685228126279E-02  0.1940680940254170E-02  0.1897573929552466E-02
  0.1855349558412316E-02  0.1813993270022216E-02  0.1773490595201211E-02  0.1733827158888909E-02  0.1694988686298004E-02
  0.1656961008734837E-02  0.1619730069094245E-02  0.1583281927035161E-02  0.1547602763843778E-02  0.1512678886991265E-02
  0.1478496734393215E-02  0.1445042878378397E-02  0.1412304029374242E-02  0.1380267039317091E-02  0.1348918904794614E-02
  0.1318246769928830E-02  0.1288237929007310E-02  0.1258879828870779E-02  0.1230160071065245E-02  0.1202066413766443E-02
  0.1174586773484922E-02  0.1147709226559498E-02  0.1121422010447134E-02  0.1095713524817179E-02  0.1070572332457504E-02
  0.1045987160000544E-02  0.1021946898476524E-02  0.9984406037014985E-03  0.9754574965075869E-03  0.9529869628223987E-03
  0.9310185536049799E-03  0.9095419846449815E-03  0.8885471362318963E-03  0.8680240527010537E-03  0.8479629418626148E-03
  0.8283541743200888E-03  0.8091882826842818E-03  0.7904559606886982E-03  0.7721480622122432E-03  0.7542556002146237E-03
  0.7367697455901192E-03  0.7196818259447544E-03  0.7029833243020513E-03  0.6866658777423313E-03  0.6707212759801122E-03
  0.6551414598843922E-03  0.6399185199460261E-03  0.6250446946965146E-03  0.6105123690823234E-03  0.5963140727984841E-03
  0.5824424785854128E-03  0.5688904004923938E-03  0.5556507921112138E-03  0.5427167447833218E-03  0.5300814857834936E-03
  0.5177383764831897E-03  0.5056809104963290E-03  0.4939027118102763E-03  0.4823975329046649E-03  0.4711592528604328E-03
  0.4601818754615735E-03  0.4494595272916147E-03  0.4389864558271662E-03  0.4287570275303781E-03  0.4187657259422226E-03
  0.4090071497784702E-03  0.3994760110298804E-03  0.3901671330683756E-03  0.3810754487605144E-03  0.3721959985897750E-03
  0.3635239287889297E-03  0.3550544894836483E-03  0.3467830328486254E-03  0.3387050112771468E-03  0.3308159755651713E-03
  0.3231115731108232E-03  0.3155875461301108E-03  0.3082397298896988E-03  0.3010640509574040E-03  0.2940565254711367E-03
  0.2872132574267993E-03  0.2805304369857791E-03  0.2740043388024564E-03  0.2676313203722013E-03  0.2614078204002736E-03
  0.2553303571919188E-03  0.2493955270640410E-03  0.2436000027786538E-03  0.2379405319983701E-03  0.2324139357641375E-03
  0.2270171069953240E-03  0.2217470090123459E-03  0.2166006740818723E-03  0.2115752019847009E-03  0.2066677586063511E-03
  0.2018755745503489E-03  0.1971959437742381E-03  0.1926262222482401E-03  0.1881638266365237E-03  0.1838062330010245E-03
  0.1795509755276767E-03  0.1753956452749899E-03  0.1713378889448091E-03  0.1673754076751203E-03  0.1635059558547654E-03
  0.1597273399598538E-03  0.1560374174117333E-03  0.1524340954562883E-03  0.1489153300643755E-03  0.1454791248531988E-03
  0.1421235300283624E-03  0.1388466413464198E-03  0.1356465990976399E-03  0.1325215871087664E-03  0.1294698317655326E-03
  0.1264896010546455E-03  0.1235792036250178E-03  0.1207369878679576E-03  0.1179613410160600E-03  0.1152506882605451E-03
  0.1126034918867421E-03  0.1100182504274887E-03  0.1074934978341202E-03  0.1050278026648245E-03  0.1026197672900577E-03
  0.1002680271147414E-03  0.9797124981699501E-04  0.9572813460308294E-04  0.9353741147834538E-04  0.9139784053381424E-04
  0.8930821124823575E-04  0.8726734180525572E-04  0.8527407842545569E-04  0.8332729471301689E-04  0.8142589101670478E-04
  0.2574785780021303E+03  0.2574785780021303E+03  0.2574785780021303E+03  0.2574785780021303E+03  0.2574785780021303E+03
  0.2574785780021303E+03  0.2574785780021303E+03  0.2574785780021303E+03  0.2574785780021303E+03  0.2574785780021303E+03
  0.2574785780021303E+03  0.2574785780021303E+03  0.2574785780021303E+03  0.2574785780021303E+03  0.2574785780021303E+03
  0.2574785780021303E+03  0.2574785780021303E+03  0.2574785780021303E+03  0.2574785780021303E+03  0.2574785780021303E+03
  0.2574785780021303E+03  0.2574785780021303E+03  0.2574785780021303E+03  0.2574785780021303E+03  0.2574785780021303E+03
  0.2574785780021303E+03  0.2574785780021303E+03  0.2574785780021303E+03  0.2574785780021303E+03  0.2574785780021303E+03
  0.2574785780021303E+03  0.2574785780021303E+03  0.2574785780021303E+03  0.2574785780021303E+03  0.2574785780021303E+03
  0.2574785780021303E+03  0.2574785780021303E+03  0.2574785780021303E+03  0.2574785780021303E+03  0.2574785780021303E+03
  0.2574785780021303E+03  0.2574785780021303E+03  0.2574785780021303E+03  0.2574785780021303E+03  0.2574785780021303E+03
  0.2574785780021303E+03  0.2574785780021303E+03  0.2574785780021303E+03  0.2574785780021303E+03  0.2574785780021303E+03
  0.2574785780021303E+03  0.2574785780021303E+03  0.2574785780021303E+03  0.2574785780021303E+03  0.2574785780021303E+03
  0.2574785780021303E+03  0.2574785780021303E+03  0.2574785780021303E+03  0.2574785780021303E+03  0.2574785780021303E+03
  0.2574785780021303E+03  0.2574785780021303E+03  0.2574785780021303E+03  0.2574785780021303E+03  0.2574785780021303E+03
  0.2574785780021303E+03  0.2574785780021303E+03  0.2574785780021303E+03  0.2574785780021303E+03  0.2574785780021303E+03
  0.2574785780021303E+03  0.2574785780021303E+03  0.2574785780021303E+03  0.2574785780021303E+03  0.2574785780021303E+03
  0.2574785780021303E+03  0.2574785780021303E+03  0.2574785780021303E+03  0.2574785780021303E+03  0.2574785780021303E+03
  0.2574785780021303E+03  0.2574785780021303E+03  0.2574785780021303E+03  0.2574785780021303E+03  0.2574785780021303E+03
  0.2574785780021303E+03  0.2574785780021303E+03  0.2574785780021303E+03  0.2574785780021303E+03  0.2574785780021303E+03
  0.2574785780021303E+03  0.2574785780021303E+03  0.2574785780021303E+03  0.2574785780021303E+03  0.2574785780021303E+03
  0.2574785780021303E+03  0.2574785780021303E+03  0.2574785780021303E+03  0.2574785780021303E+03  0.2574785780021303E+03
  0.2574785780021303E+03  0.2574785780021303E+03  0.2574785780021303E+03  0.2574785780021303E+03  0.2574785780021303E+03
  0.2574785780021303E+03  0.2574785780021303E+03  0.2574785780021303E+03  0.2574785780021303E+03  0.2574785780021303E+03
