nep4_zbl 16 Ag Al Au Cr Cu Mg Mo Ni Pb Pd Pt Ta Ti V W Zr 
zbl 1 2
cutoff 6 5 200 134
n_max 6 4
basis_size 8 8
l_max 4 2 1
ANN 50 0
 -6.6614574e-01
 -1.0330942e+00
 -1.1776743e+00
 -1.1390637e+00
 -2.9889247e-01
  9.0338391e-01
 -4.6610895e-01
  3.3043110e-01
  1.1297796e+00
 -2.9249381e-02
  5.2008247e-01
  6.4309873e-02
 -7.4449912e-02
  1.7024413e-02
 -7.6232964e-01
 -4.5311898e-01
  4.6694165e-01
  3.8720988e-02
  2.6600488e-02
  1.3188722e+00
 -7.4965113e-01
  1.9487899e-02
  3.9171872e-01
  7.6653606e-01
  1.4303547e-01
  9.9920893e-01
  1.1021421e+00
 -6.7549741e-01
  3.8096270e-01
  6.7175943e-01
  1.2700009e-01
  4.4030911e-01
 -4.8795775e-01
 -5.7434028e-01
  3.0971879e-01
 -1.1338022e-01
  1.1924087e+00
 -2.7817874e+00
 -1.7124749e+00
 -1.1060895e+00
 -1.7173402e+00
 -6.8388724e-01
 -1.1277896e+00
 -3.8433081e-01
 -6.1872941e-01
  1.2485764e+00
 -9.9364892e-02
  2.1659512e-02
  3.2115781e-01
  2.5409965e-02
  6.1371005e-01
  4.0169930e-01
 -7.4572527e-01
  2.1642688e-01
  7.8727889e-01
  5.2003819e-02
  9.9143341e-02
  3.2791558e-01
  1.0463378e+00
  5.0283515e-01
  8.4716427e-01
  6.3836616e-01
  1.1501759e-01
  2.1233141e-01
  9.7805232e-01
  4.1748583e-01
  2.1287616e-02
 -2.6084957e-01
  2.7902669e-01
  1.9269097e-01
  1.4732065e+00
 -4.9835786e-01
 -2.9381523e-01
  4.3629053e-01
 -5.2533954e-01
  5.6352240e-01
  6.4393473e-01
  8.1021279e-01
  5.6660205e-01
  8.7824561e-02
 -2.4900524e-01
  6.6932344e-01
 -3.0052865e-01
  1.7056996e-01
  1.6919956e-01
  4.7901919e-01
  8.0896097e-01
 -5.7711560e-01
 -2.9823077e-01
 -1.7264625e-01
 -7.4406922e-01
  4.8918235e-01
 -1.2871712e-01
 -5.4231167e-01
  1.7404410e-01
 -3.9620066e-01
  8.4427226e-01
 -2.3199499e-01
 -1.2857487e+00
 -6.6256678e-01
  4.6889994e-01
 -3.7078622e-01
  4.9974608e-01
 -9.7504050e-01
 -3.2557130e-01
 -1.0548652e+00
  4.8916456e-03
 -4.2820966e-04
 -5.3535378e-01
  9.1296166e-02
 -9.4569719e-01
  1.7977020e-01
  1.7452770e-01
 -6.1613274e-01
 -6.5758049e-01
 -5.8037400e-02
 -8.7756045e-02
 -5.2165723e-01
 -3.0610272e-01
  6.8340905e-02
 -3.8844815e-01
 -8.0641425e-01
  2.5878710e-01
  1.2151917e-01
 -3.3893985e-01
  1.6874737e-01
  4.7229367e-01
 -6.3691264e-01
  1.7503637e-01
  6.8219084e-01
  8.8263415e-03
  1.1415545e-02
  3.5278797e-01
  5.4960382e-01
 -3.1483451e-01
  9.8304558e-01
 -1.4620674e-01
 -2.1189921e-01
 -6.6632348e-01
 -5.1115030e-01
 -8.3110219e-01
 -1.1371485e+00
 -1.2353932e+00
  7.6910871e-01
  1.5376457e-02
  2.6869363e-01
  1.6031741e-01
  1.8727373e-02
  7.3438454e-01
  7.9800212e-01
 -8.1182599e-01
  9.7137153e-02
 -9.0984964e-01
  1.0312282e+00
  1.1160783e+00
 -6.8245456e-02
  5.5450833e-01
  4.0278396e-01
 -2.8311381e-01
  2.3580566e-01
 -1.3925130e+00
 -5.4046988e-01
  3.7123647e-01
 -5.5916530e-01
  4.4246297e-02
  2.8439211e-02
 -7.1668938e-02
  7.0478076e-01
 -1.0479984e+00
  2.1790782e-01
  4.8858774e-01
  1.0815235e+00
 -1.8528967e-01
 -5.6093931e-01
  1.8697463e+00
 -6.7483968e-01
  2.7938053e-01
 -4.5125982e-01
 -3.9631730e-01
 -2.8419241e-01
  1.3759314e+00
  1.5644680e-01
  4.1632578e-01
  1.6785236e-01
 -9.3285725e-02
  1.3458407e+00
  6.0302053e-02
  1.0143205e+00
  9.8332965e-01
 -2.4541813e-01
  7.8086066e-01
 -5.6820273e-01
 -6.4515942e-01
 -5.2155459e-01
 -7.6736134e-01
 -1.4727154e-02
  5.6440771e-01
  1.5647779e-01
 -1.2794168e-01
  4.4482630e-01
  7.2132790e-01
  1.9453405e-01
 -6.4380342e-01
 -1.1075654e+00
  3.5696551e-02
  1.5986809e-01
  9.5967925e-01
 -4.2685843e-01
 -1.5308537e+00
  1.5703593e-01
  9.8043400e-01
 -4.5414031e-01
  2.5856197e-02
  3.5483590e-01
  2.6897022e-01
  4.6662264e-02
 -1.0793420e+00
 -8.2086104e-01
 -7.9021811e-02
 -8.0752864e-02
 -1.0798779e+00
 -3.7625337e-01
  3.1609508e-01
 -1.5473464e-01
  4.5921904e-01
  1.1246563e+00
  5.3886080e-01
 -8.8227105e-01
  3.6323631e-01
 -9.8949358e-02
  4.9580973e-01
 -5.3368157e-01
  1.7923920e-01
 -1.0563806e-01
 -6.6120255e-01
  2.9674258e-02
 -5.5852789e-01
  1.3403471e-01
 -5.2704346e-01
 -3.9272487e-01
 -1.7846699e-01
 -2.9910926e-02
  4.7592902e-01
  2.5510663e-01
 -2.3240176e-01
  2.5145209e-01
 -6.2389147e-01
 -1.0808587e-02
 -8.2254863e-01
  3.7635237e-01
  4.1061628e-01
 -7.0332110e-01
 -9.7784501e-01
  5.6505078e-01
 -1.0888197e-01
 -1.9563086e-01
 -1.4281376e-01
 -6.5344870e-02
 -1.6579083e-01
  2.8565848e+00
 -1.4725207e-01
  8.6628503e-01
 -8.7653339e-01
  4.9924949e-01
  7.3700190e-01
 -1.0220221e+00
 -3.4099934e-01
 -1.0791302e+00
 -7.7153943e-02
 -4.3535078e-01
  5.9015262e-01
  1.3194165e-01
 -1.0311028e+00
 -2.2929531e-01
  6.3954389e-01
 -5.0010119e-02
  1.8332970e-04
 -1.1991510e+00
 -1.0547640e+00
  6.2674809e-01
  7.2861090e-02
 -1.2799555e+00
 -1.6346163e+00
 -1.2079463e+00
 -8.3286864e-01
  2.8262562e-01
  6.8273082e-02
  5.3745997e-01
  1.0107805e-01
  2.3797026e-01
  1.5105827e-01
 -5.5001879e-01
 -3.9730680e-01
 -2.7603206e-01
  8.7684989e-02
 -5.0217554e-02
  9.4421893e-02
  2.9516071e-01
  1.3624736e+00
  1.2849689e+00
  1.3291216e+00
 -1.1700989e+00
 -1.4095546e+00
 -4.5854250e-01
  1.6210694e-02
 -2.9486147e-01
 -1.2270919e+00
 -7.4985498e-01
 -3.3420816e-01
  4.1803026e-01
  3.4501702e-01
  1.1011122e-01
  1.6734895e-01
  7.8472650e-01
 -1.2857552e+00
  4.9456236e-01
 -5.8211660e-01
 -8.8775080e-01
  9.6042670e-02
 -7.4790007e-01
  1.8522154e-01
  2.0251973e-01
 -5.9009212e-01
 -3.8789982e-01
  4.2085889e-01
  7.5879306e-01
 -8.2403883e-02
  1.7535390e-01
 -6.9512956e-02
  5.5898058e-01
  8.4088290e-01
  9.4065003e-02
 -6.9655001e-02
  4.2550027e-01
 -5.8250338e-01
 -6.8410546e-01
 -1.3718241e+00
 -1.1767878e-01
  2.6487041e-01
  1.9782850e+00
 -1.4161453e+00
  4.3157306e-01
  1.6644961e+00
 -1.4428314e+00
  3.5244519e-01
 -6.6615725e-01
  1.0000826e+00
  3.3556288e-01
 -2.3126924e+00
 -3.5674602e-01
  1.1251446e+00
 -1.2496666e-01
 -5.0969779e-01
 -1.8884954e+00
 -3.4245804e-01
 -7.3937386e-01
  9.2848742e-01
  1.3112743e-02
 -1.5380749e+00
  8.4965307e-01
  4.7176477e-01
  1.0903767e-01
  2.2591324e-01
  6.0625106e-01
 -4.0186691e-01
 -4.8396194e-01
  6.9702142e-03
 -4.4189686e-01
 -6.4596497e-02
  2.8931147e-01
  4.7331631e-01
 -1.1306010e-01
  5.6978881e-01
  3.7403858e-01
  8.4875923e-01
 -5.3620553e-01
 -1.6366869e+00
 -1.1642149e-02
 -4.5464507e-01
  1.6362654e-01
 -4.6103758e-01
  3.6506456e-01
 -3.9582440e-01
  5.1776219e-02
  1.8160594e-01
 -3.0844513e-01
  1.9006093e-01
 -8.1681132e-01
 -3.3960688e-01
 -3.0303502e-01
 -4.6475178e-01
 -5.9715942e-03
  2.1270677e-01
 -6.5893680e-02
  8.6524761e-01
  2.4212296e-01
 -1.7319612e-01
  2.6727363e-01
 -2.1953453e-01
 -4.3133873e-01
  4.7089186e-01
 -4.2836925e-01
 -2.0565793e-01
 -4.6345212e-02
  1.0142986e+00
  1.6742630e-01
 -3.5496464e-01
 -4.0028749e+00
 -1.0295659e+00
 -2.5920242e-01
 -1.0832461e+00
  3.2664487e-01
 -3.8645133e-01
 -9.4450390e-01
 -6.6515929e-01
 -7.0941705e-01
  2.4989600e-01
  1.8027680e-01
 -1.6157312e+00
  4.8702133e-01
  1.0275859e+00
 -7.4422950e-01
 -6.1793214e-01
  1.0392029e+00
 -7.1116590e-01
 -3.3443981e-01
  4.5860583e-01
 -1.1804259e-01
 -3.8286444e-02
 -1.7145014e+00
 -1.0276116e+00
 -1.1830762e-01
 -7.0657134e-01
 -3.8719645e-01
 -2.3942578e-01
  5.2906740e-01
 -1.0329047e+00
  8.5633284e-01
 -7.1834815e-01
 -1.4977461e-01
  5.2731782e-01
 -1.1529617e-03
 -7.4547976e-01
  5.3904575e-01
 -1.3517396e+00
 -4.8052663e-01
 -3.8177845e-01
  9.2021781e-01
 -5.1658839e-01
  1.1589961e+00
  1.2784056e-01
  3.5154402e-01
  1.6746681e+00
  5.8555168e-01
  1.1707970e+00
  9.2657104e-02
  2.8509954e-01
  2.2617517e+00
 -4.5194188e-01
  1.2343561e-02
  9.1986924e-01
  6.2283486e-01
  1.0684295e+00
  8.9498454e-01
 -9.9590644e-02
 -3.8512677e-01
 -1.7572000e+00
  1.7603048e+00
 -8.9272164e-02
 -6.2792885e-01
  1.2123007e-01
 -6.0358369e-01
 -1.1063788e+00
  7.6127112e-02
  7.0320040e-02
 -3.7662315e-01
 -6.1014467e-01
  5.6951016e-01
  4.0417659e-01
  5.6785715e-01
 -2.7817634e-01
  3.7931433e+00
  1.1380404e+00
  9.1695547e-01
  7.3065674e-01
  6.8118751e-01
  3.1258926e-02
  5.6639391e-01
 -6.7754483e-01
 -1.8283993e-01
  1.2241585e-01
  8.2129858e-02
  1.4259634e+00
 -2.0486905e-01
  4.0537775e-01
 -1.8193640e-01
  3.2380420e-01
  7.6945052e-02
 -9.2527378e-01
  2.8140250e-01
 -8.4022954e-02
 -1.3435577e+00
  1.2119740e-01
 -1.9402082e+00
  5.5788988e-01
  8.7544702e-02
  1.2288461e+00
  1.6190256e-01
  8.6502421e-01
  4.6016705e-01
 -1.5978783e+00
  4.8340720e-01
 -4.3174539e-02
  2.3635642e-01
  3.5298318e-01
  5.9099233e-01
  2.6149929e-01
 -9.1484642e-01
  2.3406872e-01
 -3.8338819e-01
 -1.1636153e+00
 -8.7640953e-01
 -1.9704534e-01
 -1.7349276e-01
  4.0330455e-01
 -2.0527871e-01
 -2.0114313e-01
 -5.9215162e-02
  6.5279931e-01
 -6.9146192e-01
  2.3496285e-01
 -1.3695228e-01
 -4.0290791e-01
  1.6426753e-01
  2.6045191e-01
 -5.7418058e-03
  2.9178718e-01
  1.8626055e-01
  2.0158374e-01
  5.2006871e-01
 -7.4507642e-01
  8.5417241e-01
 -9.4000995e-01
  5.2123439e-01
  4.7589669e-01
 -4.6335033e-01
  1.2301693e+00
 -6.8152684e-01
  8.9907730e-01
 -6.6546358e-02
 -3.8201755e-01
 -1.2487353e-01
  3.2172284e-01
 -4.0940797e-01
 -5.8430254e-01
  7.7169144e-01
 -1.2275577e+00
 -1.0415300e+00
  4.9997669e-02
 -5.8244014e-01
  5.8777070e-01
 -4.6336678e-01
 -7.7685070e-01
  3.1212288e-01
  5.0152048e-02
  1.9889636e-02
 -8.8518643e-01
 -8.1517619e-01
 -2.0352891e-01
  8.5132247e-01
  3.3189973e-01
  1.9000074e-02
 -1.5283056e+00
 -4.4528192e-01
  1.6236289e+00
  7.7088165e-01
 -1.0758990e+00
 -1.6846433e+00
  1.7366407e+00
 -1.0595447e-01
  6.4344281e-01
  4.6169817e-02
 -7.0998597e-01
  2.8642121e-01
 -6.2205666e-01
  1.1992101e-01
 -1.0403032e-01
 -3.5658486e-02
  1.0661345e-01
  3.2634512e-01
 -7.3170431e-02
 -5.1673949e-01
  1.5077209e-01
 -8.7805021e-01
  2.5449479e-01
 -1.9236725e-02
 -8.8981968e-01
 -5.6728140e-02
  5.8177978e-01
 -1.3212867e+00
 -8.8256168e-01
  2.5047922e-01
 -3.7189767e-01
  3.8341141e-01
  6.5679774e-02
 -4.5461702e-01
  8.6101154e-03
 -8.6542767e-01
 -5.4006040e-01
 -4.7322696e-01
 -1.6040421e-01
  5.8419985e-01
  1.9247192e-01
  7.1980625e-01
 -2.0194145e-01
  1.5543936e-01
 -7.6547720e-02
  7.6273751e-01
  3.6809558e-01
  7.5439505e-02
  7.1328503e-01
 -7.2353715e-01
 -1.7829874e-01
 -2.3035657e-01
 -2.1399636e-02
 -3.2633439e-01
  4.7177103e-01
  2.8187594e-01
 -2.7994585e-01
 -1.2430909e+00
 -1.0848758e+00
 -3.0912676e+00
 -2.5769711e-01
 -1.6669509e+00
 -3.4170394e+00
 -9.3128398e-02
  2.0494717e-01
  1.6030682e+00
  5.1666522e-01
 -3.7879118e-01
 -1.1623678e+00
  1.6026946e-02
  1.1647848e+00
  4.6450680e-01
  1.0710241e+00
 -7.1638995e-01
  7.8299344e-01
  1.9673095e+00
  8.7900680e-01
  3.0569029e-01
 -6.5788198e-01
 -3.9595649e-01
  1.0407063e+00
  6.1601955e-01
 -1.8402702e-01
  1.2977164e+00
 -9.2506903e-01
 -8.5120463e-01
  3.4719792e-01
  1.2286027e-03
 -1.2749738e+00
 -5.0314490e-02
  2.2194602e-01
 -4.7938496e-02
  5.0136168e-02
  7.3670906e-01
 -3.0724742e+00
 -7.2380203e-01
  5.5755455e-02
 -2.3425939e+00
 -7.1045673e-01
  1.0120977e+00
 -6.6661298e-01
 -1.1269343e-01
  1.8970660e+00
  5.4027450e-01
  1.9743745e-01
  1.1174020e+00
  7.2011068e-02
  1.1495472e+00
  1.3930279e-01
  7.3615903e-01
  7.8121847e-01
 -4.2379004e-01
  2.3139269e+00
 -7.8628844e-01
 -8.5525042e-01
  1.5094589e+00
  9.0878499e-01
  6.4696640e-01
 -9.3579638e-01
 -6.4381665e-01
 -1.1750662e-01
  2.5687434e-02
 -4.9738303e-01
 -7.4932671e-01
  1.8749131e-02
 -9.0149456e-01
 -4.9952820e-01
  6.6934377e-02
 -2.9978770e-01
 -1.9510465e-02
  6.1114150e-01
  2.3252404e+00
 -1.2048733e-01
  7.1446037e-01
  5.9388316e-01
  1.9666954e+00
 -1.2733511e+00
 -1.0783619e+00
  1.1558752e-01
 -6.1380112e-01
 -1.3122979e+00
  1.7326100e-01
  3.6419252e-01
 -7.3490836e-02
 -3.1715024e+00
 -7.2950643e-01
  6.0134715e-01
 -1.2644823e-01
  3.1673479e-01
  2.0221863e+00
 -6.6646522e-01
  5.7461792e-01
  4.4345994e-02
 -1.6764166e+00
 -2.4064435e-01
 -3.8827339e-01
  1.1686999e-02
  3.8296887e-01
  8.2097781e-01
 -2.4187826e-01
  6.0210341e-01
 -1.1038043e+00
 -1.9496265e-01
 -2.8998756e-01
 -3.6605787e-01
 -3.1953043e-01
 -2.2052456e-01
  1.4796203e-01
  5.6635386e-01
  1.3670530e+00
 -2.1652141e+00
 -4.6742904e-01
 -6.9634521e-01
  1.2286249e+00
  1.3326339e-01
 -8.4321225e-01
  1.1777283e+00
 -5.5350333e-01
  7.2524571e-01
  9.5915782e-01
 -1.4715356e-01
  9.2753232e-01
  7.2326648e-01
 -8.2180256e-01
  5.2354419e-01
  6.0798699e-01
  6.8524879e-01
  9.8233864e-02
 -4.3364576e-01
  9.8046474e-02
  2.3573998e-03
  1.3921552e+00
 -1.5247673e-01
 -1.3100821e-01
 -8.5680395e-02
 -5.9262836e-01
 -2.0065470e-01
 -8.0464643e-01
  5.8250862e-01
  7.5074121e-02
 -1.8529367e-01
  1.0574803e+00
 -1.2898485e-01
 -2.7634108e-01
  7.2192527e-02
  1.9644862e+00
  1.8365318e+00
  1.2531234e+00
  9.8261136e-01
 -9.5219254e-01
 -1.0183363e+00
  2.4184654e+00
 -7.1744746e-01
 -2.2292767e+00
 -2.1256763e-01
 -8.3793139e-01
  9.6075781e-02
  3.3828932e-01
 -5.6553340e-01
  5.4283623e-02
  2.4452688e-01
 -6.3635743e-01
  4.8173148e-02
  7.3734127e-02
 -7.4038732e-01
 -2.1849924e-01
 -5.1492673e-01
 -8.5917460e-03
 -1.1682156e+00
  5.6570143e-01
  1.4312690e+00
 -3.1682584e-01
 -3.9223099e-01
  1.7732266e-01
 -4.1340423e-01
 -2.5185424e-01
 -1.0149002e+00
 -1.4153542e-01
  5.7259446e-01
  8.3156395e-01
 -7.8074768e-02
  7.5671071e-01
  1.1888643e-01
  1.2790127e+00
 -5.4916537e-01
 -1.5361686e-01
 -3.2627318e+00
  8.3330560e-01
  5.7663983e-01
  1.6918595e-01
  1.0379069e+00
  7.8982109e-01
  8.8814601e-02
  6.6918665e-01
 -7.1043468e-01
  6.0279256e-01
 -3.9040440e-01
 -1.9863757e-01
 -2.7829018e-01
 -6.2141669e-01
 -3.7647873e-01
 -1.6497350e+00
 -7.1518696e-03
 -4.7471896e-03
  4.6042877e-01
  9.6547085e-01
 -4.8374256e-01
 -2.8417576e-02
 -2.2054933e-01
 -5.6775864e-02
 -4.5263210e-01
 -4.6744809e-01
 -1.2681024e-02
  4.6738673e-02
 -7.3091561e-01
  3.4100640e-01
  1.4873257e-01
 -3.9700568e-01
  5.3418335e-02
  4.4416742e+00
  1.3757702e+00
 -3.8404343e-01
  2.2651973e+00
  1.7482296e-02
  4.8541427e-02
  1.3552176e+00
  9.0464759e-01
  1.8169543e-02
 -5.3491056e-01
  7.7853465e-01
 -5.7847488e-01
  1.2423543e-01
  3.2145131e-01
 -1.1088428e+00
  7.0200378e-01
  5.1011217e-01
  1.2562555e-01
  4.7554132e-01
  1.3535145e-01
  1.6965786e+00
  5.3160894e-01
 -5.9530860e-01
 -3.4029809e-01
 -1.7974184e-01
  1.8381994e+00
  2.6412794e-01
 -4.3632603e-01
  4.6958376e-02
  3.7401402e-01
 -3.7419081e-01
  1.7779516e-01
 -3.5226837e-01
  7.6560169e-01
  3.7044281e-01
 -2.5859171e-01
  3.1328928e-01
  5.3661404e+00
  1.7202944e+00
  8.7273961e-01
  1.3680788e+00
 -2.2049060e-01
  1.8704383e+00
  1.4596206e+00
  3.1494930e-01
 -1.0287342e+00
 -1.3244094e+00
 -4.1968352e-01
 -6.9053465e-01
 -1.8038908e-01
 -1.4751219e+00
 -7.8248942e-01
 -7.9134732e-01
 -3.9207092e-01
 -2.8018010e-01
 -1.2583762e+00
 -9.8333281e-01
 -5.1340193e-01
 -1.0848085e+00
 -7.0843869e-01
 -1.9288777e-01
 -5.3943628e-01
 -1.2285088e-01
 -4.3013975e-01
  1.8130256e-01
  4.7920087e-01
 -5.6438778e-02
 -4.5154098e-01
  5.8593249e-01
 -1.2244490e-01
  2.4733090e-01
 -6.4544193e-02
 -5.1985723e-01
  6.6310143e-01
 -1.7341699e-01
  2.7814445e-01
 -8.2108587e-01
  1.8679391e-01
 -6.1442530e-01
  9.8543626e-01
  1.7531638e-01
  4.6558079e-01
  5.4873571e-02
  4.1236037e-01
 -1.8407473e-01
  7.0957583e-01
 -1.1492071e-01
  9.1792965e-01
 -4.4870323e-01
 -2.9152524e-02
  9.6751207e-01
  1.8008143e-01
 -7.5007582e-01
  2.7035496e-01
  5.0623912e-01
  7.4085373e-01
  1.3472249e-01
  9.1465145e-02
  6.8573669e-02
  1.1831938e-01
 -1.1390914e+00
  4.6693236e-01
 -8.4258489e-02
  5.7670105e-01
 -3.0695376e-01
  9.2593038e-01
 -2.3703039e-01
 -4.4628972e-01
 -5.5961764e-01
 -2.5998235e-01
  3.7008721e-01
  4.5191237e-01
 -1.0539225e+00
 -8.4401894e-01
 -3.2775873e-01
 -6.9135261e-01
 -2.5693960e-02
  5.0756258e-01
  6.7102349e-01
  4.0077040e-01
 -2.0950563e-01
 -7.2123671e-01
 -8.6346507e-01
  7.5989358e-02
 -2.4121670e-01
  1.6780682e-01
 -6.2641990e-01
 -4.5915071e-02
  6.7855656e-02
  8.1317908e-01
  3.1256536e-01
 -1.0669878e+00
 -9.3476754e-01
  2.5016966e-01
 -2.7072024e-01
  2.4604231e-01
  5.8511458e-02
 -8.9393359e-01
  4.6753338e-01
  2.4577741e-01
 -2.3705401e-01
 -7.8136694e-01
 -5.6589520e-01
 -3.9416352e-01
  2.1382076e-01
 -3.6769894e-01
 -4.4574764e-01
  6.6108185e-01
 -4.3446674e+00
 -3.9071852e-01
 -6.5340334e-01
 -3.4570897e-01
 -1.2027187e+00
 -1.6083338e+00
  3.8570407e-01
  6.0692608e-01
  9.5969284e-01
  4.6327537e-01
  9.1421622e-01
 -7.4685472e-01
  8.8374037e-01
  1.7535073e+00
  6.9017345e-01
 -5.4165047e-01
  4.2851952e-01
  4.0244266e-01
  1.3755575e+00
 -6.9427751e-02
  3.9022115e-01
  3.1512958e-01
  3.3308086e-01
  9.8010784e-01
 -5.0071394e-01
 -2.3360911e-01
 -2.9658891e-02
 -4.6521556e-01
  6.5635383e-02
  4.1025275e-01
 -2.1912147e-01
  1.7817876e-01
 -7.1584612e-02
  4.7875640e-01
 -9.9276954e-01
 -7.2981298e-01
 -6.1227179e-01
  2.2380128e+00
  8.7793219e-01
  1.1535263e+00
  6.8446195e-01
  9.2363751e-01
  9.1471392e-01
  7.8115009e-02
 -6.3391310e-01
 -1.1533806e+00
 -2.4452226e-02
  5.0694889e-01
  5.2892208e-01
 -1.0553792e+00
 -7.2904974e-01
 -9.4058222e-01
 -3.3507019e-01
 -5.6467986e-01
  8.0211043e-01
 -3.9665788e-01
 -5.0402626e-02
 -4.4784775e-01
 -7.7097732e-01
 -4.1796759e-01
 -1.0299565e+00
 -8.8607240e-01
  2.1700084e-01
 -4.0149003e-01
 -1.9044520e-02
 -7.2658694e-01
  7.5943881e-01
  1.5525024e+00
 -3.4834459e-02
  2.3660463e-01
 -7.6213259e-01
 -1.6686538e-01
 -7.4863338e-01
 -4.1530547e-01
 -1.2669264e+00
 -1.1978164e+00
 -1.2882650e+00
 -2.7733251e-01
 -1.2283210e-01
  6.2687367e-01
  6.7280924e-01
  1.6574024e-01
  4.1725421e-01
  4.6510243e-01
  7.4326533e-01
  9.6961565e-02
 -1.2050370e+00
  2.7972594e-01
  1.9485642e-01
 -2.1560118e-01
 -1.6815463e-01
  1.4007267e-01
  2.1696222e-01
  1.4543168e-01
 -2.3477302e-01
 -2.0274688e-02
  3.1234998e-01
  6.2159097e-01
  2.4848457e-01
  3.9930713e-01
  3.3797446e-01
  2.7860892e-01
 -2.5656030e-02
 -6.0687423e-01
  1.1757021e+00
 -6.8597591e-01
  4.1913337e-01
  7.5218326e-01
  7.1694911e-02
 -3.6210275e-01
 -8.4272063e-01
  6.4118743e-01
 -8.4783220e-01
 -4.9455950e-01
 -1.0369092e+00
 -1.0227095e+00
  1.6160741e-01
  1.0442553e+00
 -8.6575621e-01
 -2.8211805e-01
  7.3335129e-01
 -1.3842876e-01
 -6.8790966e-01
  1.5805937e-01
 -5.8045048e-02
 -4.9247247e-01
 -2.6603537e-02
 -9.4009414e-02
  3.4444264e-01
 -3.1660751e-01
 -9.5086652e-01
  2.8594419e-01
  6.5824836e-01
 -5.3202850e-01
  1.0028791e+00
 -5.8784795e-01
 -2.8017533e-01
 -6.1341453e-01
 -8.9814323e-01
  7.9131836e-01
  3.6659655e-01
 -1.4860876e-01
 -1.7283769e-01
  3.3911347e-01
  1.7276321e-01
  2.6427495e-01
  1.7327240e-01
 -8.2248122e-01
  7.1890187e-01
  7.1178265e-02
  1.3261635e+00
  7.8619462e-01
  1.1556358e+00
  4.5232776e-01
 -3.6954886e-01
 -4.2786011e-01
 -2.4664594e-01
 -2.5200814e-01
  1.3044174e-01
 -4.1706234e-01
 -2.1719691e-01
  1.7316695e-01
  2.7282214e-01
  1.4605676e+00
  1.5591179e-01
  1.2819056e-01
 -2.9584292e-01
  1.7529242e-01
  8.6372191e-01
 -9.5816530e-02
 -6.4616495e-01
 -3.1655553e-01
  3.7241128e-01
 -5.6459326e-01
 -5.6563896e-01
 -5.3329960e-02
 -5.5967760e-01
 -1.6216098e-01
 -1.6403690e-01
  3.9772645e-01
  4.8624691e-02
 -1.3286911e-01
 -3.1694767e-01
  3.9814379e-02
 -5.8881223e-01
  5.4653782e-01
  2.2402102e-01
 -9.9716276e-01
  9.8392755e-02
  2.0084186e-01
 -2.3545608e-01
  7.5586766e-01
  2.6830608e-01
 -5.5008459e-01
  1.1745019e-01
 -3.3964559e-01
 -4.2516263e-03
 -1.7993101e-01
  1.6073783e-01
 -7.6156163e-01
  9.5842205e-02
  1.1050656e-03
  1.5264187e+00
 -4.5623392e-01
  8.2925707e-01
 -1.6483955e+00
 -6.1538871e-02
 -7.0840263e-01
 -4.5326471e-01
 -3.4049201e-01
 -3.8522977e-01
  2.7995452e-01
  3.7195900e-01
  5.8436251e-01
  3.6378151e-01
  8.0979043e-01
  7.8359991e-02
 -5.9476072e-01
 -3.6129081e-01
 -5.8315009e-01
 -5.5760330e-01
 -1.2406779e-01
 -3.9968066e+00
 -4.8671794e-01
  9.4861907e-01
 -6.6135740e-01
  2.0592988e+00
 -2.0985174e+00
 -1.0118326e+00
 -1.1791018e-01
 -1.2186983e+00
  3.2612747e-01
 -2.1973492e-01
  2.1753806e-01
 -1.1044383e+00
 -4.0753722e-01
  3.6250225e-01
 -3.2986778e-01
  1.0689054e-01
  7.1461570e-01
  8.2226776e-02
  3.5757241e-01
  6.5984184e-01
  3.4215114e-01
 -9.0885663e-01
 -1.8898634e+00
 -1.7948556e+00
 -7.1261084e-01
 -1.1761545e+00
  2.6764521e-01
  4.5005533e-01
 -3.2280371e-01
  2.7868001e-02
 -3.7461814e-01
 -5.6958789e-01
 -1.0252797e-01
 -6.0477507e-01
 -1.0140771e+00
  1.7642784e-01
  1.3204490e-01
  5.9233934e-01
 -2.8004605e-01
  2.5136700e-01
  8.8458860e-01
 -1.2453905e-01
 -1.7372054e+00
 -3.0700487e-01
  7.0017271e-02
  2.2435920e-01
 -4.8252848e-01
  3.7001628e-01
 -1.2113153e-02
  3.6440212e-01
  1.2139603e+00
  3.8367200e-01
  7.0314163e-01
 -3.8456541e-01
  6.6810526e-02
  8.0673553e-02
 -4.5820135e-01
 -1.1027269e+00
  7.2156024e-01
 -5.7669389e-01
  4.1822970e-01
 -1.2689555e-01
 -9.5857191e-01
  1.0086355e+00
 -8.0596112e-02
 -7.3875725e-02
 -1.1411773e-01
 -3.7583110e-01
 -6.9081849e-01
  5.1872593e-01
  4.2445585e-01
  3.2884616e-01
 -1.4820744e-01
 -7.0876658e-01
 -8.8498354e-01
 -4.1400856e-01
  1.3164101e+00
  3.8891652e-01
  4.2903617e-01
  2.9393417e-01
  5.7996893e-01
 -7.6612699e-01
 -5.5549324e-01
  2.0380040e-01
 -4.4065386e-01
  5.5843109e-01
  1.0029916e-01
 -1.0709818e-01
 -2.9154682e-01
 -2.1768983e-01
  5.2432066e-01
  7.6694876e-01
  5.0523296e-02
 -5.3608823e-01
  9.9088347e-01
  5.3563595e-01
 -6.2663063e-02
  7.3780769e-01
 -3.1794345e-01
 -6.2923354e-01
  2.2875455e-01
  6.2988681e-01
  7.2848547e-01
  6.6710955e-01
  4.3368208e-01
  4.8613527e-01
  4.5062834e-01
  4.7405782e-01
  4.4509503e-01
  1.1286999e+00
 -3.1117953e-03
 -6.1041303e-03
  2.1111539e-01
  1.5732353e+00
  2.6590338e-01
 -4.1129136e-01
 -1.0982330e+00
 -3.8193336e-01
 -6.7628664e-01
  2.5697190e-01
  2.6838928e-02
 -1.2516619e+00
  1.8024500e-01
  7.4135417e-01
  7.4007049e-02
 -8.8084050e-02
  3.7452379e-01
  4.1860959e-01
 -3.3864352e-01
 -5.9830648e-01
 -3.6350060e-02
  3.8993454e-01
 -3.2368618e-01
 -6.4014035e-01
 -6.1044604e-01
 -3.7577140e-01
 -7.6404744e-01
  2.7273440e-01
  1.0418504e-01
 -2.9401603e-01
 -6.3351706e-02
  5.3727210e-01
  1.1387537e-01
 -5.0661159e-01
  1.4321990e-01
  3.1978306e-01
 -1.1949468e-01
 -3.8790420e-01
  5.2945822e-01
  5.8610725e-01
  6.1959183e-01
  6.2663639e-01
  5.1225859e-01
 -5.1248890e-01
  1.5720423e-01
 -6.1470169e-01
 -9.0691930e-01
  3.9180294e-01
 -3.6809546e-01
  5.4872179e-01
 -4.3857422e-01
  1.8732636e-01
  9.2079300e-01
 -3.6140084e-01
 -5.7769995e-02
 -4.7356951e-01
 -7.4267179e-01
  2.3032127e-01
  6.8263423e-01
  3.0235562e-01
  1.1792140e-01
 -4.9329743e-01
 -2.6665592e-01
 -7.6349598e-01
 -4.7101710e-02
 -6.4779490e-01
  4.5453733e-01
 -1.5093185e-01
 -5.9441209e-01
  3.0477592e-01
  1.9840868e-01
 -5.0736588e-01
 -7.5480461e-02
 -1.7520584e-01
  8.9029238e-02
  2.8605869e-01
  1.2159383e+00
  7.6659024e-01
 -1.3912562e-01
 -8.1772852e-01
 -1.6245106e-01
 -6.7314327e-01
 -3.6847427e-01
 -4.6182925e-01
  1.0457519e-01
  1.3066478e+00
  3.2448706e-01
 -1.7283040e-01
 -3.2005036e-01
  5.2144762e-02
 -1.9705580e-01
  4.4761574e-01
 -1.0607017e+00
 -3.6385247e-01
 -6.0611683e-01
 -4.5220166e-01
 -3.5537547e-01
  1.3430239e-01
  6.3920850e-01
 -1.2796516e+00
  1.3608038e-01
  8.4618181e-02
 -1.9219291e-01
  4.2131209e-01
  8.8681990e-01
  8.1537478e-02
  3.8262942e-01
  2.7896670e-01
  3.3891049e-01
 -2.7871668e-01
 -1.6239494e-02
  4.7686281e+00
  2.7786252e+00
  1.2126219e+00
  1.6755830e+00
 -8.8418990e-01
  1.7973890e+00
  3.3043780e+00
 -1.8951122e+00
  1.2870499e+00
 -2.0666831e+00
 -2.1762355e-01
 -1.5842451e+00
  8.9320457e-01
  2.1924009e+00
 -2.3100188e+00
 -2.7538207e+00
  2.4772774e-01
 -1.9775463e+00
  1.0279485e+00
 -1.3699075e+00
 -4.0704069e-01
 -1.3339168e+00
 -1.4589138e+00
  1.8856957e+00
 -5.3813052e-01
 -1.7215644e+00
  1.2649068e+00
 -2.7715421e-01
  3.8733178e-01
  3.4772792e-01
  2.6116258e-01
  9.3464814e-02
 -6.7553884e-01
 -3.1135973e-01
 -6.8069088e-01
 -3.2065663e-01
  5.0661661e-02
 -1.4549606e-01
  5.5773646e-01
  7.7197170e-01
 -3.0132228e-01
  6.8779266e-01
 -1.7688845e+00
 -1.6711100e+00
 -5.7203811e-01
 -6.2464559e-01
 -5.4620034e-01
 -2.3324193e-01
  2.6846502e-02
 -1.1289512e+00
 -4.4535640e-01
  1.0915833e+00
  2.5799534e-01
 -1.0511014e+00
 -1.6226673e-01
 -2.7307263e-01
  1.6125332e+00
 -4.5579618e-01
  6.4243071e-02
  5.6352025e-01
 -8.0270869e-01
 -2.9570881e-01
  8.8311535e-01
 -9.5296460e-01
 -2.1436885e-01
 -2.5743473e-01
  5.2656555e-01
 -1.3504021e-01
 -2.4034049e-01
 -3.8948055e-02
 -9.8206323e-01
  3.2658167e-02
  1.5771136e-01
  5.0624389e-02
  2.0666463e+00
  4.7276375e-01
  8.2866585e-01
  1.3618456e+00
  1.2068621e+00
 -1.1019632e+00
 -1.1145747e+00
  2.2681209e-01
 -2.6254511e+00
 -6.2745607e-01
 -1.2521509e+00
 -1.7137003e+00
 -6.1912191e-01
  3.7988481e-01
 -1.1124732e+00
 -1.4493374e+00
 -9.5741910e-01
 -4.3939671e-01
 -1.6670350e+00
 -7.7087414e-01
 -7.3325282e-01
 -2.1796887e+00
  3.4526375e-01
 -1.2903603e+00
  6.5374404e-01
  4.2665413e-01
 -1.4446293e+00
  3.9710817e-01
  2.2045350e-02
  1.7768808e-02
  1.0473753e+00
  8.8822357e-02
 -7.9720813e-01
 -4.7298571e-01
 -1.6672280e-01
 -1.7987810e-01
  5.3894699e-01
  2.9690192e+00
  1.0667114e+00
  8.8129532e-01
  1.2350436e+00
  9.9079669e-02
  1.5622724e+00
 -1.1993010e-01
  4.5439795e-02
 -2.3856290e-01
  2.1496208e-01
  2.5113615e-01
  2.8314087e-01
  1.9288149e-01
  9.1811335e-01
 -1.5070049e+00
  5.8391905e-01
 -4.0781885e-01
 -9.0553343e-02
  1.2114440e-01
 -4.5270443e-01
 -6.2771881e-01
  2.3613942e-01
 -1.3615843e+00
  1.4330977e-01
 -1.0207658e+00
 -3.7079474e-01
 -6.6787422e-02
  3.3311069e-01
  5.0349557e-01
  3.6881375e-01
 -6.5943551e-01
  2.7301131e-02
  4.8735127e-01
 -5.8125657e-01
 -4.4813836e-01
 -6.0850814e-02
  5.5902522e-02
  4.1051576e-01
  9.8770605e-03
  5.8137190e-02
 -2.1630219e-01
  1.4034076e+00
 -1.4172387e+00
  4.4930071e-01
 -5.4235423e-01
 -6.0125154e-01
 -1.0560528e+00
 -2.3246126e-01
 -4.1997170e-01
 -1.0390129e+00
  2.4392279e-03
 -3.0599317e-01
  8.5168320e-01
 -1.2078280e+00
  2.1181248e-02
 -3.8387933e-01
  4.4663391e-01
 -5.5252391e-01
  1.6673851e-01
 -7.2850358e-01
  2.5743368e-01
 -1.9378005e-01
 -8.8058613e-02
  3.0361390e-01
 -9.3056194e-02
  3.9960808e-01
  3.4660567e-02
  2.8986784e-02
  3.9872915e-02
 -4.9273493e-03
 -2.0824404e-01
 -5.8353418e-01
 -2.4634485e-01
 -1.4606376e-01
 -9.1776216e-01
 -4.9376407e-01
 -6.0009196e-02
 -4.6513706e-01
 -1.4080909e-01
  5.3558052e-01
  1.3062947e+00
 -2.5917017e-01
 -1.1541836e+00
  2.4338044e-01
 -1.9326778e-01
  2.7908364e-01
 -9.7333533e-01
 -7.6744338e-03
  1.1101767e-01
  5.4397967e-02
  7.7435732e-01
 -3.3904323e-01
  2.2110246e-01
 -1.6958788e-01
 -4.5517442e-01
 -2.7063456e-01
  1.1055501e-03
 -6.6495933e-02
 -4.9796441e-01
  2.2557630e-01
 -2.3710264e-01
  1.3113320e-01
 -4.6255372e-02
 -4.2522615e-01
 -6.5159887e-01
  9.5186871e-01
  3.6849150e-01
  4.3966094e-01
 -3.0195400e-01
 -1.3026856e-01
 -6.1372888e-01
 -6.3661909e-01
  5.2029073e-01
  5.9192604e-01
  6.6706324e-01
 -2.0668001e-01
 -9.3620062e-01
 -7.4063230e-01
  2.5468367e-01
 -1.5981652e+00
  1.3270180e-01
  3.2723719e-01
  3.3629778e-01
 -7.9176337e-01
 -1.8365480e-01
  1.4903356e-01
  2.3069055e-01
 -9.3153924e-01
 -2.6065663e-01
 -5.7676952e-02
 -2.0113175e-01
 -6.3154900e-01
 -3.4997299e-01
 -9.4955392e-02
 -2.7125338e-01
 -3.9218974e-01
 -3.7650526e-01
  3.3611815e-02
 -6.8938577e-01
  1.4128727e-01
 -7.4638402e-01
  3.3615050e-01
 -2.1876593e-01
 -6.8429433e-02
  2.6019210e-01
 -5.3701615e-01
 -2.3065206e-01
  1.1098612e-02
 -4.9944818e-01
  5.2689654e-01
  1.6372763e-01
 -8.4049758e-03
  7.6171434e-01
  2.7607554e-01
  9.3071952e-02
  2.1907003e-01
 -2.0125203e-01
 -1.9155647e-01
 -6.1903888e-01
 -7.6679748e-01
 -4.8750117e-01
  2.1017252e-01
  1.7047997e-01
  4.6982470e-01
  5.5934048e-01
  9.2600599e-02
  1.7031702e-01
 -5.8085442e-01
 -3.9849269e-01
 -2.6618269e-01
  5.4533178e-01
 -4.9471012e-01
  2.9754388e-01
 -6.7501074e-01
  7.0252061e-02
 -5.8866662e-01
  4.4872958e-02
  4.7095859e-01
  6.0509539e-01
 -1.6735129e+00
 -2.9876158e-01
  1.3263810e+00
 -5.7403541e-01
 -3.9414322e-01
 -7.6310372e-01
  2.9793540e-01
 -2.2296301e-01
  1.4874557e+00
 -3.4372190e-01
  2.0404148e+00
 -5.7611436e-01
  4.2850944e-01
 -9.0996200e-01
 -2.0091757e-01
 -1.4213190e+00
  3.1527717e+00
  5.8185661e-01
 -6.6767913e-01
 -1.1097950e-01
 -1.1295433e+00
  1.6780283e+00
  1.2702874e+00
 -3.9999232e-01
 -9.0890312e-01
 -5.5784917e-01
  2.7369325e+00
  2.1969543e+00
 -1.0523826e+00
 -4.5884463e-01
 -1.2746682e+00
  9.3397224e-01
  1.1653386e+00
 -5.9765244e-01
  3.2620364e-01
  7.5390764e-02
 -4.3678993e-01
  7.6720770e-03
 -1.6667818e-01
  4.8746070e-01
 -1.2703326e+00
  1.7858467e-03
  5.4731143e-01
 -4.8185432e-01
  5.1852387e-01
 -1.6546830e+00
 -7.7389145e-01
 -1.5570650e+00
  1.5946059e+00
  1.4622980e+00
  3.1835914e-02
  1.2468703e+00
  1.2626332e+00
 -5.5529559e-01
 -5.8886719e-01
  3.2297644e-01
 -8.4203303e-01
  6.6604942e-01
 -4.4965088e-01
  1.2015307e-01
  5.5669016e-01
  1.8819584e+00
  1.4824271e+00
  2.7268341e-01
 -1.1027637e+00
 -6.7914563e-01
  1.0252675e-01
 -8.4761977e-01
  5.7355481e-01
  8.9598739e-01
 -1.2036330e-01
  9.7554547e-01
  6.2775660e-01
  4.5878899e-01
 -3.5682759e-01
  5.2095909e-02
  7.8482497e-01
  2.2576709e-01
 -3.6267820e-01
  2.5138056e-01
 -1.3438405e-01
 -3.7264943e-01
 -6.1233562e-01
 -7.6854360e-01
 -1.7020552e-01
 -2.6475899e-02
  6.1398268e-01
  7.7379599e-02
  3.7303758e-01
 -4.0947929e-01
 -6.2463981e-01
  3.7018546e-01
  2.5555176e-01
 -2.7307051e-01
  5.3548986e-01
  3.3425304e-01
 -3.7495673e-01
  2.5653219e-01
 -1.0096315e+00
 -1.6837756e-01
  5.2504545e-01
  1.6567320e-01
  2.1494715e-01
 -3.6564627e-01
  8.8059443e-01
 -1.9546239e-01
  5.0977904e-01
  2.8310981e-01
 -4.9848405e-01
 -4.1437939e-02
 -6.0336280e-01
 -7.8993988e-01
  2.8690287e-01
 -7.5485192e-02
 -3.2611811e-01
  7.7754384e-01
  1.3478935e-01
  1.1431892e+00
  2.8342280e+00
  1.9578345e+00
 -1.0788624e+00
 -3.6097032e-01
 -1.7687025e+00
  2.3685203e+00
 -3.1519954e+00
  1.5078484e-01
 -1.6252133e+00
  2.6617551e+00
  3.2237489e+00
  1.1411276e+00
 -2.8523705e+00
 -9.6389860e-01
 -2.2259693e+00
  7.9955536e-01
  2.0183754e+00
  1.7901441e+00
 -1.8402124e-02
  6.7759269e-01
 -1.8099252e+00
 -4.3583179e-01
 -4.0245919e+00
 -6.1592388e+00
 -1.0253164e+00
 -2.3550410e+00
  3.6587634e+00
 -2.6094954e+00
  1.3741513e+00
 -2.3945830e+00
 -8.7388599e-01
 -1.1801066e+00
  1.0694857e+00
  6.0725999e-01
 -2.7331831e+00
 -2.9079619e-01
  1.0837135e+00
 -4.6617400e-02
 -5.0247002e-01
 -1.5833439e-01
 -6.7201847e-01
 -2.4005220e+00
  2.2269948e+00
 -1.6915323e+00
  6.8390608e-01
  1.6871219e+00
  1.6809030e+00
 -2.1618330e+00
 -4.5890681e-02
  1.3633811e-01
  5.2272230e-01
 -8.4063816e-01
  1.2832302e-01
  1.5877469e-01
 -2.5330845e-01
 -2.2981527e+00
 -3.8065457e-01
 -1.5541710e-01
  1.3041018e+00
 -3.8743517e+00
  4.0399572e-01
  3.5871026e-01
 -3.5689059e-01
  2.7800557e-01
  1.6232766e+00
  2.8066004e-02
  5.7797581e-01
  1.4344137e+00
 -1.0163249e+00
  3.1935039e-01
 -6.2359524e-01
  2.7414587e-01
 -2.2171242e+00
 -3.2844040e+00
  1.2240457e-01
  1.9804006e+00
  5.3749305e-01
 -2.9349074e-01
  1.8920963e-01
  2.1670091e+00
 -1.7397089e-01
  7.4036181e-02
 -2.6057592e-01
 -1.1060654e-01
  2.7971642e+00
 -2.8313506e-01
 -2.0253028e-01
 -1.1221530e-01
  1.3747103e+00
 -1.3427323e-01
 -8.2553291e-01
 -3.5042077e-01
 -2.6859610e+00
 -6.1106391e-04
 -1.2313749e-01
 -5.0998199e-01
 -1.8321332e+00
  3.2563689e+00
  7.3297836e-02
 -1.5150992e+00
 -3.2554107e+00
  3.1022379e+00
  1.7930311e+00
  2.2829161e+00
 -1.4051300e+00
  1.7676316e+00
  7.6844916e-02
 -9.1570146e-02
  1.7678094e+00
 -8.5851870e-02
 -4.0361971e-02
 -8.3711445e-01
  2.2844505e-01
 -1.2053487e-01
 -7.1439427e-01
 -1.3664088e-01
 -7.2398800e-01
 -1.4267841e-01
 -8.9314558e-02
 -3.8343516e-01
  2.7827522e-01
 -8.2221043e-01
  6.2877601e-01
 -6.4078814e-01
  5.4979175e-01
  2.0886910e+00
 -6.3284916e-01
 -4.6334338e-01
  4.1940246e-02
 -4.5049080e-01
 -6.7596483e-01
 -2.2154491e-01
 -3.7743458e-01
 -2.6072904e-01
 -4.5710500e-02
  9.5438093e-02
  1.8853828e+00
 -9.9391949e-01
 -6.5280133e-01
  1.3719451e+00
  3.5786995e-01
 -1.1850048e+00
 -2.0853817e-01
  1.7648251e-01
 -1.2947769e-01
  3.2068644e-02
  2.6867059e-01
 -1.8954028e+00
 -2.2900541e-01
 -1.3197610e-01
  5.2453792e-01
 -9.0469635e-01
 -1.5376883e+00
 -3.5597187e-01
 -3.2482919e-01
 -5.2219558e-01
 -6.1729169e-01
 -8.9982927e-01
  9.7793311e-01
 -1.4712150e-01
 -5.6432849e-01
 -1.2137911e-01
 -2.7028787e-01
 -2.3699662e-02
  1.5127400e-01
  7.5730249e-02
 -9.2542607e-01
  1.7054057e-01
 -2.0199421e-01
  2.2370981e-01
 -3.0995372e-01
  2.6730734e-01
  9.0846792e-02
  1.3496395e+00
 -1.5219655e+00
 -7.9762742e-02
  4.2795780e-01
 -1.0263672e-01
 -4.7215137e-01
  1.0592383e+00
  1.3251659e-01
  1.1431198e-01
 -3.3504498e-01
  1.7158595e-01
 -5.6480390e-01
  8.0209690e-01
 -6.7894763e-01
 -8.0908734e-01
 -9.0145868e-01
  5.3133011e-01
 -4.0623084e-01
 -1.6720054e-01
 -5.0713364e-02
  8.5748100e-01
  3.1002724e-01
  1.1373603e+00
  1.2250750e+00
  2.0750733e-01
  9.9486625e-01
 -5.3423643e-01
  1.4992552e+00
  7.2190297e-01
  3.9301097e-01
 -3.4359577e-01
 -5.0747460e-01
  7.8422889e-02
  1.7808963e-01
  3.0924168e-01
  2.5422946e-01
  4.7966655e-02
 -1.0895134e-01
 -1.0251308e-01
  1.7746304e+00
  2.3269513e-01
 -7.4692243e-01
  2.4152055e+00
  6.1627471e-01
  4.3058968e-01
  9.8457676e-01
 -3.1260929e-01
 -3.6191854e-01
 -3.3650669e-01
  5.6830293e-04
 -2.8117976e-01
  1.4116220e+00
 -1.7009345e-01
 -4.7696394e-01
 -1.9789277e-01
 -9.4176137e-01
  5.0278460e-03
 -9.6133989e-01
  1.0501311e+00
 -3.9304203e-01
  8.3765638e-01
  2.4233605e-01
  1.7456129e-01
 -1.6108535e-01
  1.7963707e-01
 -1.5496978e-01
 -6.3797367e-01
  1.0592301e-01
 -7.3823541e-01
  3.7193935e-02
  9.3977749e-02
  5.4658139e-01
 -7.2823159e-02
 -2.1535365e-01
  3.0650187e-01
  1.8419498e-01
 -7.0774955e-01
  1.3102618e+00
  1.3064950e+00
  4.4415973e-02
  9.2920172e-01
  2.6483506e-01
  1.6695787e-01
 -4.5977127e-02
  3.5744599e-01
  2.4333453e-01
  3.2937139e-01
 -3.6426392e-01
  3.6101130e-01
  2.9691762e-01
 -1.7824146e-01
  6.8094486e-01
 -2.0391382e-01
 -2.2360140e-02
  3.1706247e-01
 -1.6160870e-01
  3.1211358e-01
  1.3657264e-01
 -2.8826702e-01
 -7.0177078e-02
 -2.8758246e-01
 -3.4817660e-01
 -1.7677632e-01
  4.2193329e-01
 -6.3456483e-02
 -4.0479490e-01
 -3.5976222e-01
  2.6992753e-01
 -1.9419743e-01
  6.0376782e-02
  3.1696981e-01
  1.0566728e+00
  2.4443393e+00
 -1.0387700e+00
 -2.0667605e+00
 -3.5765350e-01
 -1.2222621e+00
  5.0686347e-01
  1.0010550e+00
  8.4070611e-01
 -9.8309916e-01
 -3.5368481e-01
 -8.8299179e-01
  2.1037149e+00
  1.4766847e+00
 -6.1140126e-01
 -1.3238616e-01
 -3.7419143e-01
  2.9164746e-01
  2.8681248e-01
 -4.1328210e-02
  1.0049179e+00
 -7.9251939e-01
  9.1423005e-02
 -7.0609629e-01
  1.1955099e+00
 -2.2799094e+00
 -1.0114931e+00
 -2.9587221e-01
  1.5105459e-01
  2.0290379e-01
  5.2297556e-01
 -2.0231333e-01
  3.4793556e-01
  1.2096145e-01
  1.8685395e-01
  2.7020538e-01
  2.2125596e-01
  7.3512077e-01
  7.4954891e-01
 -1.2979698e-02
  2.7271265e-01
  2.3996800e-01
 -2.8712704e+00
  7.8422171e-01
  7.5718325e-01
 -1.2976024e-01
 -6.0861456e-01
  6.8253165e-01
  1.3839549e-01
  1.9532348e-01
 -5.3551239e-01
  2.2480285e-01
 -2.1990417e-01
 -3.9343211e-01
 -1.0480867e-01
 -1.2048083e-01
 -2.5086370e-01
 -5.8517963e-01
  1.6221260e-01
  7.0084327e-01
 -1.1046586e+00
  3.6340302e-01
 -1.9961630e-01
 -2.7467552e-01
 -4.1425880e-02
 -8.3457097e-02
  2.8060380e-01
  3.3817092e-01
  2.5361615e-01
 -1.3487890e-01
 -3.2660544e-01
 -3.2979068e-01
  2.1020405e-01
 -3.7737045e-01
 -1.2427453e+00
 -1.1845882e-02
 -4.7338247e-01
  1.7532004e+00
  2.7201805e+00
  3.3015318e+00
 -2.7335849e-01
  5.4245007e-01
 -2.0040487e-01
  3.0995458e-01
 -3.2021767e-01
  1.7105458e+00
  1.0678275e+00
 -1.8651050e-01
 -1.5598614e+00
  1.0845759e+00
  2.2518380e+00
 -8.1240118e-01
 -2.9048261e-01
 -9.4115086e-02
  1.7488870e-01
  1.7307667e+00
  7.6949286e-01
 -1.5000572e+00
  1.3193892e+00
  3.8571001e-03
  1.7279069e-01
 -1.5120408e-01
  1.6609727e-01
 -3.1247881e-01
  1.9343221e-01
 -8.2435524e-01
  9.0774632e-01
 -1.8913817e-01
  5.4185313e-01
 -5.2016664e-01
  4.6705887e-02
  9.0923446e-01
  1.6394965e-01
 -2.6592407e+00
  1.5573308e-01
 -2.7410555e-01
 -5.9818965e-01
  4.0796012e-01
  8.7234068e-01
  5.0272468e-02
 -2.5353992e-01
  3.0253336e-01
 -8.1606555e-01
 -1.4630948e-01
  7.2205651e-01
 -9.2351578e-02
 -4.2800480e-01
 -5.8032918e-01
  4.6469194e-01
  1.0609440e-01
  1.4968477e-01
 -8.4924167e-01
 -4.6954373e-01
 -1.2620306e-01
  6.6550350e-01
 -6.9304621e-01
  1.2227348e-01
 -3.4102353e-01
 -4.4492900e-02
  9.5274501e-02
  5.0260875e-02
 -7.2443253e-01
 -7.9522640e-02
 -1.4137296e-01
 -4.1361314e-01
 -1.0193818e+00
 -8.2061976e-01
 -5.4124825e-02
 -1.1715155e+00
 -1.2967517e-02
  2.0927759e-01
 -9.0655333e-01
  2.3232645e-01
  6.0185623e-01
 -3.9243075e-01
  5.4695213e-01
  3.2127261e-01
 -4.6604376e-02
 -1.2708460e-01
  4.9168229e-02
  3.7231886e-01
  7.1193767e-01
 -3.3659825e-01
 -2.8760695e-01
 -3.5912800e-01
  1.0994284e-01
  2.7615765e-01
 -2.4818130e-02
 -2.7398864e-02
  9.8006405e-02
  6.7287469e-01
  7.4585564e-02
 -1.4998643e-01
 -2.0109687e-02
  3.7884596e-01
  6.0939944e-01
  3.0901507e-01
 -4.1687503e-01
  6.1193138e-01
 -2.2426870e-01
  5.2188116e-01
 -6.1021423e-01
 -3.2201327e-02
 -7.2394513e-02
 -4.3223611e-01
 -2.1510494e+00
 -2.9317784e+00
 -9.7539806e-01
  2.8185592e+00
  1.8256851e+00
  4.6952967e-02
  1.7911822e+00
  1.8840839e-01
  1.2502017e+00
  2.1021810e+00
 -8.2077450e-01
 -1.0186216e-01
  6.3699168e-01
  8.4815741e-02
 -1.2105734e+00
 -1.6603309e+00
  8.8931948e-01
  7.1464896e-01
  1.9178237e-01
 -2.5828705e+00
 -2.0147545e+00
  1.1257069e-01
 -9.2384362e-01
 -3.2758290e-01
 -2.4504483e+00
 -1.0495961e+00
 -3.4304124e-01
 -5.5592680e-01
  1.8879357e-01
 -7.6404668e-02
  4.4686896e-01
 -5.1519215e-01
 -2.4233788e-01
  1.9998287e-01
 -1.7509879e-01
  4.1078776e-01
  8.6417925e-03
  3.3977368e-01
 -4.3590534e-01
 -1.3129718e+00
  4.6650133e-01
 -6.9052678e-01
 -5.8625484e-01
  8.1553221e-01
  4.1592902e-01
 -1.9468674e-01
 -1.1200343e-01
  3.7088746e-01
 -1.3520457e-01
 -7.5065129e-02
  4.9536294e-01
 -1.5788689e-01
 -1.0469543e-01
 -6.3334304e-01
  9.3211979e-02
  4.8759571e-01
  3.6782733e-01
 -7.5448471e-01
 -7.1322955e-02
  9.1913976e-02
  2.2668661e-01
 -3.8913777e-01
  3.2120320e-01
  2.5784077e-02
  3.9863566e-01
 -2.7685893e-01
 -2.8911725e-01
  4.6560588e-01
 -4.7088450e-01
  1.9299924e-01
  4.2814088e-01
  7.6938763e-02
 -4.9802858e-01
  1.1017378e-01
 -7.5575751e-01
 -3.3447003e-01
  3.2008708e-01
 -1.0690444e-01
 -2.3615205e-01
  5.5543441e-01
 -3.6891532e-01
  7.0841658e-01
  3.2907900e-01
 -3.5594848e-01
 -4.7350013e-01
 -2.9169214e-01
  5.0126976e-01
 -5.7676530e-01
  2.1099877e-01
 -2.8704172e-01
 -3.4548754e-03
 -3.4970984e-01
 -5.5550873e-02
 -2.8998885e-01
 -1.1901688e-02
  3.7125629e-01
 -3.8769782e-01
  1.5400988e-01
 -1.0273864e-01
  1.2283511e-01
 -4.4266221e-01
  2.3501775e-01
 -3.5876042e-01
 -4.5057249e-01
 -2.6504651e-01
  4.6353493e-02
 -1.4229167e-01
  1.3702583e-01
  5.3981549e-01
  3.3872458e-01
  1.1538869e-02
  5.2891850e-01
 -1.5872127e-01
 -4.7059700e-01
  4.4855887e-01
  2.5709471e-01
 -6.1258978e-01
 -9.5554702e-02
  1.2022331e-01
  1.0081350e+00
 -3.6803949e-01
  3.8452260e-02
 -2.3659363e-01
 -3.3775049e-01
 -3.3140048e-01
 -1.5775993e-01
  9.0092205e-02
 -1.1971079e-01
  6.1270703e-02
  9.4471551e-02
  2.6040110e-01
  2.7960289e-01
  8.5443743e-02
 -9.9218883e-02
 -4.3566093e-01
  2.9376399e-02
 -8.6629264e-02
 -1.7087162e-01
  2.3931129e-01
  3.9950326e-01
 -2.0644253e-01
 -4.5397258e-01
  3.2395262e-01
  6.8085247e-01
 -2.8142843e-01
 -1.3345474e-01
  4.9946282e-02
 -1.7395315e-01
  2.7896867e-03
 -1.0716425e-01
  3.4216318e-01
 -4.9792489e-01
  8.9997001e-02
  2.0262564e-02
 -2.1936418e-01
  3.3858184e-02
 -9.7217165e-02
 -1.9002872e-02
  2.9899427e-01
  3.4977380e-02
 -1.8052453e-01
 -3.7897581e-01
 -1.4289693e-04
  1.8487065e-01
  5.5315375e-01
  9.0704016e-02
 -8.4673509e-02
  1.4698648e-01
  5.6514464e-02
 -3.2228580e-01
  3.8536170e-01
 -3.8059059e-01
 -5.8093023e-01
 -1.9707662e-01
  1.1625828e-01
 -1.5069062e-01
  2.5879672e-01
 -1.7801917e-01
  8.0573958e-01
 -8.4098078e-02
 -4.5388761e-01
 -5.7237908e-02
  1.5734175e-01
  1.3129911e-01
 -3.7432694e-01
 -1.1055987e-01
 -1.3157885e+00
 -6.3135505e-01
  2.7830815e+00
  1.9799936e+00
  1.1398458e+00
  1.6284114e+00
 -1.2807785e-01
 -4.9809483e-01
 -4.4434838e-02
  1.5738653e-02
  2.7199563e-01
  1.4714853e-01
 -3.0472096e-02
 -6.3909501e-01
 -8.5695952e-01
  1.3069862e+00
  1.3118237e+00
  2.0452344e+00
  3.2377356e-01
  1.9801372e-01
  4.2029685e-01
 -6.3765663e-01
 -3.0804178e-01
 -9.4085485e-02
 -9.8894966e-01
  6.5390050e-01
  2.2541253e-01
  6.3773178e-02
  5.0276071e-01
  3.9386436e-01
 -2.5426134e-01
 -8.9056240e-03
 -4.0534332e-01
 -4.3243191e-01
  1.3180383e-01
 -3.4810407e-03
 -1.6768992e+00
  4.7209673e-02
  6.6962886e-01
 -2.1872307e-01
  5.8536863e-01
  2.1021190e-01
 -1.2588397e+00
  7.3099375e-02
 -4.6250932e-02
 -1.2319734e-01
 -9.3867815e-01
  4.1738629e-01
 -4.7248238e-01
 -4.9443409e-01
 -4.2388549e-01
 -6.1146665e-01
 -6.7118198e-02
  8.2770467e-01
  3.2633415e-01
  2.5669949e-02
  4.2963368e-03
  3.7354594e-01
 -5.6144048e-02
 -1.0782718e-01
  1.4004679e-01
  6.1774141e-01
  3.4937146e-01
  2.7314818e-01
  8.9030996e-02
 -4.8007768e-01
 -2.1290885e-01
 -2.1059999e-01
  2.3950249e-01
 -4.0734762e-01
  2.5998655e-01
 -1.0212594e-01
 -1.2309869e-01
  1.2017773e+00
  1.2721038e+00
 -2.7593440e-01
  8.0778521e-01
 -1.0536112e+00
  8.5821587e-01
  5.2553687e-02
 -4.2484871e-01
 -6.3802248e-01
 -4.1660792e-01
 -4.5858446e-01
  2.1608320e-01
 -8.2428646e-01
  7.4593209e-02
 -4.6303394e-01
 -4.2371407e-01
  3.4005588e-01
  3.0748758e-01
  6.1339015e-01
 -1.9171563e-01
 -1.6537577e-01
 -3.2795647e-01
 -1.7066671e-01
 -3.1670713e-01
 -5.2705809e-02
 -3.0889288e-01
 -1.1552224e-01
  3.2720077e-01
 -1.2153894e-02
  6.0893559e-01
 -3.9943588e-01
  8.5573927e-02
 -4.7635511e-01
 -2.5362787e-01
 -2.7871746e-01
 -5.8479164e-02
 -4.0722302e-01
 -1.6158406e+00
  8.8696849e-01
  7.9583776e-01
 -1.4404879e+00
  9.8332715e-01
 -8.8539159e-01
  9.2487228e-01
  5.6191969e-01
 -1.6105713e-01
 -1.3467017e+00
  1.3686284e-01
  5.1081085e-01
 -3.1525791e-01
  7.2917455e-01
  5.4641511e-02
  1.8065570e-01
  9.4540590e-01
 -6.2325209e-01
 -1.8074195e-01
 -3.2972789e-01
  7.3645663e-01
 -3.3263543e-01
  1.1703176e+00
 -4.0427050e-01
 -1.3168067e-01
  2.0508890e-01
  1.1729612e+00
 -3.1660688e-01
 -4.5077965e-01
 -9.3115354e-03
 -1.5895273e-01
 -5.4075710e-02
 -4.5190847e-01
 -8.5964382e-02
 -4.7942367e-01
  3.2394615e-01
  1.5425593e-01
  9.4934016e-01
  6.3658798e-01
  6.7529738e-01
  1.8223339e+00
  2.8446791e+00
  7.7865231e-01
  8.3505380e-01
 -1.7488435e-01
  1.2854360e-01
 -1.6737506e+00
 -1.0151660e+00
  2.6849070e-01
 -6.6057950e-02
 -9.8519683e-01
 -1.2242311e+00
  6.4172018e-01
  6.2968397e-01
  7.2741807e-01
 -1.3552910e+00
 -6.4906216e-01
  8.7529480e-01
  4.4661552e-01
 -3.0491605e-01
 -1.3905107e+00
 -6.8330741e-01
  5.9212852e-01
 -2.5833294e-01
  5.0503012e-02
 -3.2730386e-01
 -4.3378282e-01
  2.4776405e-01
  3.8019389e-01
  9.8883752e-03
  4.9684021e-01
 -6.4831364e-01
 -3.0041081e-01
 -1.0568702e-01
 -8.6378336e-01
 -3.8737252e-01
  2.7785864e-01
 -1.4064461e+00
 -8.5496414e-01
 -3.9199552e-01
 -5.2646607e-01
 -3.6164939e-01
 -1.1508306e-01
  3.5312498e-01
  1.9551173e-01
 -5.8623381e-02
 -6.8607643e-02
  3.0355838e-01
  1.8121964e-01
 -1.3540503e-01
  1.2939191e-01
 -5.8935964e-01
  5.8322269e-02
  3.7481734e-01
  6.1610937e-03
 -1.6660181e-01
  1.3467674e-01
  5.4086453e-01
  3.6498249e-01
  4.5147836e-02
 -1.2001970e-01
  3.1263223e-01
 -3.0872214e-01
  4.6395507e-01
  2.6020476e-01
  1.4676051e-01
  1.0734209e-01
 -1.4915161e-01
 -3.9103714e-01
 -1.4082322e-01
  4.0074891e-01
  8.0353999e-01
  8.0466700e-01
 -6.6989577e-01
  1.0237051e+00
 -5.4175727e-02
  1.5979280e-01
  7.3693269e-01
  4.7517726e-01
 -9.9728324e-02
  1.7917782e-01
  1.4855345e-01
 -7.0625424e-01
 -1.9507688e-01
 -2.2648810e-01
 -8.4888369e-02
  4.2827064e-01
 -8.6641848e-02
  2.8945163e-01
  1.6254519e-01
  1.7931350e-01
  5.2913260e-01
 -1.4852944e-01
 -1.8537983e-01
  2.2803389e-01
  6.8010509e-02
 -3.7328491e-01
 -5.3712819e-02
  1.1889533e-01
  4.8648712e-01
 -1.7303759e-01
 -1.3931674e-01
  1.3370766e-01
 -1.1044388e-01
 -4.2166704e-01
  2.2056326e-02
  2.9353485e-01
 -9.7059026e-02
 -1.1569542e-01
  4.3630156e-01
  2.1239418e-01
 -1.7145742e-01
  2.9100969e-01
  1.1375089e-01
  4.9206266e-01
 -5.7117056e-02
  3.3608028e-01
  3.5680827e-01
  6.0321745e-02
  2.9508052e-02
  2.1755572e-01
  1.3620022e-01
  5.0922728e-01
 -3.5110813e-01
 -2.6129627e-01
 -8.0564457e-01
 -2.8656912e-01
 -6.9844407e-01
  3.4658547e-02
  4.8328656e-01
 -2.1169114e-01
 -2.6326290e-01
  2.0618290e-01
 -2.8129786e-01
  2.6406163e-02
  3.4576717e-01
 -2.2349834e-01
  3.2843646e-01
  2.0361328e-01
  1.4471166e-01
  1.0824541e-01
  3.1776765e-01
 -2.0039324e-01
 -1.0673113e-01
 -7.5516570e-01
 -2.3618534e+00
  1.5490946e-01
  1.6448421e+00
  4.3984181e-01
 -1.4340837e+00
  2.3339517e+00
 -6.7704493e-01
 -1.0745167e-01
  8.9962178e-01
  7.1058851e-01
 -3.6989063e-01
  4.9983194e-01
 -7.0216459e-01
 -3.4279296e-01
 -2.1259537e-01
  4.2247120e-01
  3.9590082e-01
  4.7000596e-01
  7.3531121e-01
 -7.4588060e-01
  1.0984551e+00
  9.9374658e-01
 -2.6705343e-01
  9.9621153e-01
 -7.0132822e-01
  8.2489580e-01
  1.2950507e+00
 -2.1515308e-01
  3.1637862e-01
  1.7754361e-01
  6.3875687e-01
 -4.2970425e-01
  1.3943839e-01
  2.7530602e-01
  1.8609782e-01
 -4.8195478e-01
  6.3450247e-01
  2.5547538e+00
 -1.0986168e+00
 -3.7477460e+00
 -7.2637010e-01
  7.5329596e-01
 -1.2933489e+00
 -1.0684074e+00
 -1.2721716e+00
  4.3175483e-01
 -9.6313381e-01
 -5.7388628e-01
 -4.5574311e-02
 -1.7289419e-02
 -4.9939774e-02
  1.9376405e-01
  1.2822137e+00
  3.0270439e-01
 -7.4114978e-01
  8.9856452e-01
 -1.4114283e-02
 -1.3576043e+00
 -1.7469369e+00
  5.0813341e-01
 -1.0835031e+00
 -5.7717150e-01
 -2.6771886e+00
 -1.6788200e+00
  1.4772601e-01
 -3.9294699e-01
 -4.9350366e-01
 -5.5994641e-02
 -1.8231995e-02
  1.4014243e-01
  5.5571485e-01
 -2.3220040e-01
 -1.4446655e-01
 -2.6879534e-01
 -1.0587693e-01
 -3.6727524e-01
  8.4459400e-01
 -2.9056075e-01
 -4.0706150e-02
  2.5990403e-01
 -9.2440033e-01
 -4.6446094e-01
 -3.6790952e-01
 -4.9645773e-01
  4.6380976e-01
  2.7148622e-01
  2.7623871e-01
 -2.5395614e-01
 -2.2272682e-01
 -6.5895772e-01
 -1.5614456e-01
 -1.2553860e-01
  2.5019053e-01
 -8.8570498e-02
  2.2485827e-01
  3.6652133e-01
 -9.2012882e-02
 -3.7280920e-01
  5.3553849e-01
  7.2649404e-02
 -3.0205574e-02
  4.4613177e-01
  1.8434820e-01
 -3.1297562e-01
  2.4653856e-01
  2.9296461e-01
 -2.6260154e-02
 -1.5290359e-01
 -1.9971304e-01
  6.9730824e-01
  5.2644551e-01
  1.2963821e+00
  2.2927501e+00
  5.8445156e-01
  2.6922820e+00
  2.3170180e+00
  9.7504836e-01
  8.6121160e-01
  1.1560496e+00
 -3.1005129e-01
 -2.3778248e-01
 -1.2715913e-01
  4.9376488e-01
  6.6884655e-01
  3.4391648e-01
 -7.1437669e-01
  5.3822541e-01
 -6.6672915e-01
 -1.2069745e+00
 -6.9659764e-01
 -6.0055518e-01
 -5.8603209e-01
  6.1785477e-01
 -6.3396746e-01
 -8.1194115e-01
  6.7749888e-01
 -5.5184871e-01
 -1.6682319e-01
  2.5947228e-02
 -2.6595297e-01
  5.8636300e-02
 -6.2324513e-02
 -2.1350342e-01
  3.9433005e-01
  2.2086004e-02
 -4.8655203e-01
  3.6226666e-01
  4.6849898e-01
  1.3317130e+00
  1.1903406e+00
 -1.3199221e+00
 -2.3814635e+00
 -2.0758624e+00
  4.3218297e-01
 -7.7327162e-01
 -1.5651833e+00
  6.0821092e-01
 -7.3392880e-01
 -4.1540465e-01
 -8.0922192e-01
 -2.9108953e-01
  1.7556232e-01
 -8.3330625e-01
  1.8370163e-02
 -2.7444470e-01
 -1.7031976e+00
  1.8430127e+00
 -8.8570881e-01
 -1.1459798e-01
 -1.4488130e+00
 -1.3185881e+00
 -1.4847122e+00
 -5.0362593e-01
 -9.4595772e-01
 -3.4835860e-01
 -3.2226694e-01
 -8.3518648e-01
  4.1510344e-01
 -2.6693839e-01
  5.1930672e-01
  7.6469016e-01
  6.8694389e-01
 -4.1983077e-01
  3.6098298e-01
 -4.0542006e-01
  9.9689923e-02
  2.6392075e-01
  3.3409212e-02
  2.2073243e+00
  3.0885463e+00
 -2.3572093e-01
  6.4987123e-01
  4.1813400e-01
  2.0407364e-02
 -8.3953202e-01
 -4.1393092e-01
  1.6717920e-01
  6.5256935e-01
  3.9988425e-01
  6.1636157e-02
 -2.9514497e-02
  3.9673027e-01
 -1.3253123e-01
 -1.8774097e-01
  9.0717256e-02
 -1.4541689e-01
  1.6664268e-01
 -5.6472290e-01
 -7.2214514e-01
 -7.8283232e-01
  5.6208484e-02
 -1.3214457e-01
 -3.3569220e-02
 -6.1223678e-02
  3.5327505e-02
  6.0577983e-01
 -7.9409057e-01
 -6.4701432e-01
 -3.0034012e-01
 -2.9645404e-01
  1.9148948e-02
 -4.0111977e-01
 -4.1862484e-02
 -2.1715225e-01
  3.7991434e-01
 -2.4322309e-01
 -5.9797920e-02
 -4.5775506e-01
  3.7524223e-02
 -4.2068037e-01
 -4.2978495e-01
 -1.5496908e-01
 -9.1148144e-01
 -3.9388731e-01
  4.5291673e-02
 -1.1337707e-01
  1.3330245e-01
  2.0041688e-01
 -8.2005665e-02
  1.1175785e-01
 -1.7921790e-02
  1.4342494e-01
  7.4559897e-01
  1.1741546e-01
  3.1869519e-01
 -2.3458144e-01
  1.5937166e-01
  1.4267412e-02
  3.2517105e-01
 -6.4554203e-01
 -1.4817506e-01
 -8.8393956e-02
 -7.6164496e-01
 -2.4963985e-01
 -2.0931004e-01
  7.1789318e-01
 -7.0281029e-01
  8.7298997e-02
 -3.3189503e-03
  3.6389121e-01
  1.0081264e+00
 -3.6131921e-01
  2.3293865e-01
 -7.2974390e-01
  2.7569789e-01
  4.9863300e-01
  2.1890910e-01
 -1.9316886e-01
 -1.3019522e-01
  1.4542198e-01
 -1.3550471e-01
 -2.6369385e-02
 -5.9770364e-01
  4.6769699e-01
 -1.6663054e-01
 -8.4948823e-02
  2.7326453e-01
  2.1640071e-01
 -2.4017425e-01
  9.4893771e-01
 -8.5403338e-02
  3.7301791e-01
 -6.3933976e-02
  2.8222939e-01
 -2.2567633e-01
  6.3230388e-02
 -1.3070115e-01
 -3.2741091e-01
  2.6985595e-01
 -4.8775715e-01
 -9.5634431e-02
 -5.8026177e-01
 -4.0045153e-02
 -1.3948253e-01
  1.3337781e-01
  3.9932588e-01
 -1.4754479e+00
  6.1552507e-01
  1.0813289e+00
 -1.0911078e+00
  1.0914084e+00
  1.3649009e+00
  2.0390703e-01
  1.0549803e+00
  6.2486613e-01
  1.1210594e+00
  6.9959545e-01
  1.3130566e+00
  1.4740679e+00
  1.1970625e+00
 -1.0487758e-01
 -2.7392989e-01
  2.2810502e-01
  1.3085066e+00
  7.3401505e-01
  3.3098611e-01
  5.4796028e-01
  8.9948988e-01
 -1.4629594e+00
 -1.6089941e+00
  3.1004056e-01
  1.4313713e-01
  1.0414822e+00
  8.6427879e-01
 -2.2346373e-01
 -8.1291981e-02
 -3.0155298e-01
  1.1326772e-01
  1.2445781e-01
 -4.5313680e-01
  3.7231386e-01
  4.3012133e-01
  7.0320763e-02
  8.3030045e-01
  2.9892683e-01
 -1.2785188e+00
  4.5899081e-01
 -4.6192378e-01
  1.3381120e+00
  1.2761402e+00
  2.6132643e-01
 -2.4078210e-01
  4.5508751e-01
 -4.7519982e-01
 -4.4634718e-01
 -4.3887070e-01
 -5.6335770e-02
  7.1495658e-01
  8.9686431e-02
 -3.7792554e-01
  8.5052907e-01
  2.9429829e-02
 -2.5402465e-01
 -2.6019779e-01
 -1.8609115e-01
  1.0925733e-01
  9.5876388e-02
  2.5185280e-02
  3.7824335e-03
 -6.4892548e-01
 -1.5462056e-01
  1.1275235e-01
  1.2948889e-01
 -3.3189693e-01
 -2.9581425e-01
 -1.6985181e-01
  2.5107941e-01
  1.0670109e-01
  1.1029187e-01
  4.9761805e-01
  1.8223225e-01
  8.5588104e-01
  1.0773634e+00
 -9.3398154e-01
 -1.4102689e+00
 -8.5786438e-01
 -1.0452808e+00
 -3.3734494e-01
  1.9135733e-01
 -1.2012093e-03
  4.4228694e-01
  2.1207283e+00
 -4.9251851e-01
  7.2422957e-01
  6.5899056e-01
  2.0784636e-01
  1.2948649e+00
 -1.0920097e+00
  3.5973975e-01
 -7.3698491e-01
  1.0128661e+00
  1.5385566e+00
  8.6923607e-02
 -2.6776427e-01
 -4.4653982e-01
  4.4164458e-01
  1.2215564e+00
  1.8507153e-01
 -1.3072555e-01
 -6.5284401e-02
  3.8133407e-01
 -6.5922350e-01
  2.9691046e-01
  1.1795223e-03
  3.1340736e-01
  2.7537555e-01
  4.9213535e-01
 -1.5492024e-01
 -2.6202470e-01
 -3.8605559e-01
  5.8896029e-01
 -1.3406958e-01
 -2.0533848e-01
 -3.9438951e-01
 -7.6224816e-01
 -5.0983202e-01
 -3.8002074e-01
  1.6578300e-01
 -4.3161917e-01
  2.9639897e-01
  1.1143610e-01
 -6.9075800e-02
 -3.4053668e-01
 -6.9407541e-01
  2.9926732e-01
  3.7319502e-01
 -4.8032832e-01
 -1.8856589e-01
  6.4019626e-01
 -8.6461699e-01
 -1.9311932e-01
 -1.6200885e-01
 -8.1035472e-02
 -4.4490921e-01
  2.2163804e-01
 -6.9000930e-02
 -9.0912385e-03
 -3.2149535e-01
 -1.6335294e-01
  3.8857672e-01
 -2.0421718e-01
  1.3998242e-01
 -1.6622254e-01
  4.2676279e-01
  1.2995114e+00
 -2.1723753e-02
 -7.7203506e-01
  1.4608917e+00
  4.3388772e+00
  3.2961869e-01
  6.4705096e-02
 -4.6870735e-02
  4.3377087e-02
 -1.0645340e-02
 -6.2607384e-01
  4.8987463e-01
 -1.4838627e-01
 -3.1939885e-01
 -3.9723441e-01
 -8.2856767e-02
 -3.7201196e-01
  3.0461344e-01
 -7.0499152e-01
  1.8865053e-01
  1.0716315e-01
 -1.0819858e-01
 -6.0507506e-02
 -4.5392695e-01
  1.0815414e+00
  2.1792121e-02
 -3.9905116e-01
 -1.8013325e-01
  7.7841215e-02
 -1.6810900e-01
  3.4337461e-01
 -8.3614206e-01
 -6.4310682e-01
  1.7920902e-01
 -4.2781717e-01
 -1.8523315e-01
 -1.0867539e-03
 -6.8057287e-01
  4.1409951e-01
  1.0185302e+00
 -1.2349812e+00
  1.6816332e+00
 -2.7816129e-01
 -1.8498287e+00
 -8.8023740e-01
 -6.7519361e-01
  7.3795885e-01
 -2.4180485e-01
  8.9018917e-01
 -2.9807740e-01
 -7.3172063e-01
 -2.7022579e-01
 -9.9757636e-01
  2.3698458e-01
  8.8536924e-01
  6.1738849e-01
  1.9844143e-01
  3.1425077e-01
  2.5144282e-01
  5.9276688e-01
 -6.2552452e-01
 -8.8042364e-02
 -2.3266803e-02
 -1.2668014e-01
  1.2520248e-01
 -3.1421968e-01
  2.0739010e-01
  4.8359355e-01
 -5.4553783e-01
  1.0608548e-01
  1.1019345e-01
 -2.8144681e-01
  3.4893602e-01
 -1.5721418e-01
  6.9727451e-01
  9.7615403e-01
 -2.3665562e+00
  2.4164337e-01
  4.2687291e-01
  3.4371057e+00
  1.4592020e-01
  3.6166281e-01
 -4.7822890e-01
 -6.6705817e-01
 -7.3130667e-01
 -4.2667061e-01
  9.3822968e-01
 -4.3964574e-01
  4.6330255e-01
  2.8150749e-01
  7.6885128e-01
  2.3572941e-01
  8.4430200e-01
  1.1280483e+00
 -7.8149533e-01
  7.3500745e-02
  6.4986676e-01
 -4.0723827e-01
 -4.0106034e-01
 -6.5751249e-01
  1.0591661e+00
 -1.2607795e-01
 -5.3680278e-02
 -1.7612760e-01
  2.0860846e-01
  3.2960749e-01
  4.2196971e-01
  3.1597602e-01
  2.4282196e-01
 -1.7800573e-01
 -3.3194107e-01
  1.1999321e+00
  5.6520712e-01
  2.4141173e-01
 -1.5083109e-01
  6.3399887e-01
 -1.3822198e+00
 -5.2785188e-02
 -3.2512050e-02
  3.4832886e-01
  2.1411790e-01
  2.0464723e-01
  4.3907782e-01
 -8.8325608e-01
 -5.4419434e-01
 -5.3068960e-01
 -1.4152198e-01
  1.5418349e-01
 -4.3425430e-02
 -4.8282173e-01
 -1.7370157e-01
  5.7639229e-01
 -8.0871888e-02
 -9.1102652e-02
 -9.1092998e-01
  5.0536960e-01
 -6.7624849e-01
 -1.2150055e+00
 -4.1823021e-01
 -4.4814214e-02
  3.7147239e-01
 -4.1690387e-02
  7.1329230e-01
  1.3496973e-01
 -1.4907746e-01
 -2.6057807e-01
  9.2119910e-02
 -4.7609866e-01
 -9.8999041e-01
  5.8170930e-03
  5.8490413e-01
 -1.7334819e+00
 -1.9176352e+00
 -1.2123806e+00
 -1.0625697e+00
 -4.7043979e-01
 -2.4732749e-01
  6.0400397e-01
  1.8153960e-01
 -4.4574687e-01
 -1.5060705e-01
  6.6120207e-01
  3.9848128e-01
 -1.2898083e-01
 -8.6757325e-02
 -5.7444298e-01
  1.1453030e+00
 -7.4715215e-01
 -1.6039692e-01
 -6.3480943e-01
  9.0835589e-01
  1.8045881e+00
 -1.6099764e+00
 -2.0486870e-01
 -1.1282541e+00
 -5.0585878e-01
  3.5539487e-01
 -2.6421118e-01
 -1.7668463e-01
  1.5297888e-01
  7.7604622e-01
 -3.6854208e-01
  8.9152761e-02
 -3.2909149e-01
  5.4162819e-02
 -3.3238497e-01
 -7.5087260e-04
  8.1219357e-03
 -4.6155271e-01
 -2.0738223e-01
 -3.2279022e-02
  4.3248013e-01
 -2.3938003e-01
 -2.6894364e-01
  3.1861660e-01
 -2.6014013e-02
  3.5837311e-01
  3.6986127e-01
  6.4432167e-02
  2.0524183e-01
  3.9129388e-01
 -1.3779569e-01
 -4.5319200e-01
  1.3054607e-02
  3.2440364e-01
 -2.0104629e-01
  3.4948286e-01
  7.2927825e-02
 -1.4460748e-01
 -4.6855442e-02
  5.6045815e-02
 -2.4363296e-03
 -7.3375261e-01
  5.3971249e-01
  3.6975008e-01
  3.7756651e-03
 -8.5115507e-02
  1.3739669e-02
  4.5238745e-01
  5.6063163e-01
 -9.9454135e-02
 -5.4189122e-01
  9.7807360e-01
 -1.9671540e-01
 -8.7063593e-01
  1.5966632e+00
  1.5771379e+00
  3.6636668e-01
  6.2590700e-01
  6.4200230e-02
  1.4237109e-01
  1.5179960e-01
 -1.4668867e-01
  6.3271171e-01
 -2.7248371e-01
 -6.3198559e-02
 -2.2572078e-01
 -5.5553913e-02
 -1.3340621e-01
  4.6089065e-01
 -3.5343146e-01
  9.7580278e-01
 -4.6423748e-01
 -2.5532591e-01
 -4.1790232e-01
  1.5882060e-01
  6.5283334e-01
  1.9236328e-01
  6.6161060e-01
 -2.5408447e-01
  1.6154568e-01
  1.1261106e-01
 -9.4617695e-02
 -3.4238699e-01
 -1.5626252e-01
 -3.9547232e-01
 -8.0153799e-01
 -1.9606407e-01
  6.5241732e-02
 -7.1623957e-01
  4.4375759e-01
  5.0810146e-01
 -1.1892295e+00
 -1.4239274e+00
 -7.7642947e-01
  1.2267435e-01
 -6.5295237e-01
  2.6757833e-01
  2.4858584e-01
 -4.4652876e-03
  1.7828105e-01
 -3.2188433e-01
 -1.5671915e-01
  2.1137132e-01
 -8.7847829e-02
 -3.8448682e-01
 -3.2431585e-01
  3.3291537e-01
  9.9015094e-02
  2.5975466e-01
 -2.3733082e-01
  4.5586282e-01
  4.9233827e-01
  1.0326929e-01
 -3.1310618e-01
 -2.4454932e-01
 -2.6992112e-01
  6.3770938e-01
 -7.7113912e-02
 -2.2777233e-01
  4.9892229e-01
 -4.8465827e-01
 -1.5855280e-01
  5.5077660e-01
  1.3760594e-01
  2.1491054e-01
  2.2031440e-01
  1.1711278e-01
  1.1375468e-01
  1.8901768e+00
  1.3111594e+00
  3.1904629e-01
  4.4635117e-01
  2.5613952e-01
  4.9523856e-02
 -4.3694755e-01
 -2.7929133e-01
  2.8289837e-01
 -4.2224023e-01
  2.8788808e-01
  4.1275370e-01
  4.4613248e-01
 -3.1817861e-02
 -8.2430981e-02
 -5.8304518e-01
  2.3064816e-01
 -7.6250069e-02
  5.7085246e-01
  3.3967683e-01
 -3.6566591e-01
 -5.4530156e-01
 -5.6770039e-01
  1.4828248e-01
 -4.9402520e-01
  2.1678449e-01
 -1.1034551e-01
  3.4242204e-01
  5.6469176e-02
 -1.1942658e-01
  2.8915113e-01
 -5.5495702e-02
  7.1325116e-02
  2.7976337e-01
  2.2482681e-01
  7.6660126e-01
 -3.0992097e-01
 -2.2175346e-01
 -2.0877542e-02
 -5.3793889e-01
  8.7968922e-01
  2.9280952e-01
 -2.9064468e-01
  7.5083673e-02
 -2.2775490e-02
 -3.9268559e-01
 -7.6320410e-01
  1.8410090e-01
 -1.6822481e-01
  2.7571410e-01
 -2.3523962e-01
 -4.7658151e-01
 -5.7129699e-01
 -7.8596509e-01
  1.2600312e-01
 -5.1111542e-02
  1.3408384e-01
 -4.0112233e-01
 -2.7527979e-01
 -3.1585893e-01
 -2.2174571e-01
 -1.6895838e-01
 -3.3046216e-01
  1.3082067e-02
 -1.0278233e-01
 -2.9348502e-01
  1.5159155e-01
 -8.0979742e-02
 -9.2929713e-02
  1.5944626e-02
  7.6137149e-01
 -7.6029354e-01
  2.5955746e-01
  9.8906204e-02
 -5.0842071e-01
  1.2599762e-01
  1.0099204e-01
 -7.0405662e-01
  2.4513061e-01
  1.4317834e-01
  4.9170163e-01
  4.2528924e-01
 -2.8025504e-02
 -2.4879212e-02
 -4.1038814e-01
  7.2843224e-02
 -5.3736824e-01
 -3.0628800e-01
  3.5074612e-01
  2.5024626e-01
  6.8512939e-02
  1.2140951e-01
  5.6330609e-01
  1.2298591e-01
  5.7472014e-01
  5.8938306e-02
  3.4694079e-01
  5.0632264e-02
  1.5164807e-01
  3.1280345e-01
  4.7084087e-01
  3.4039456e-01
  2.8695279e-01
 -1.8970715e-01
  4.4582415e-01
  5.3430784e-01
 -1.7923367e-01
  5.4304332e-01
 -4.3925589e-01
 -4.0625820e-01
  4.0866753e-01
 -4.0580273e-01
 -1.3727587e-01
  8.0629267e-02
 -3.9883190e-01
 -1.8562053e-01
  1.9720264e-01
 -7.7766255e-02
  6.7304677e-01
 -5.9147114e-01
  1.4524476e-01
 -1.3087131e-01
 -7.0183635e-02
 -3.2359615e-01
  5.8958536e-01
 -7.8357339e-02
  4.0126359e-01
  6.7618161e-01
 -4.5315453e-01
  7.1488962e-02
  7.2563946e-01
  2.6073974e-01
 -2.1637867e-01
  5.4998344e-01
  4.4069892e-01
 -1.0664467e-01
 -4.4296449e-01
  1.9705230e-01
 -4.2817679e-01
  1.1767165e-01
 -1.5190703e-01
  2.6758727e-01
 -1.2524100e-01
 -1.4296438e-01
  4.7645435e-02
 -4.0985909e-01
  1.8628660e-01
  2.5475296e-01
 -6.3040358e-01
  1.1677936e-01
  4.9591642e-02
 -6.1804616e-01
 -4.1176543e-01
 -5.1902473e-01
 -1.3987254e-01
  1.9599652e-01
 -1.9890681e-01
  2.0587544e-01
 -1.7628004e-01
  3.5072535e-01
  2.4491201e-01
  8.5265893e-01
  1.7307869e-01
  7.1060133e-01
 -1.7495844e-01
  1.0652807e-01
 -3.7796814e-02
 -1.5748184e-02
  3.9219844e-01
 -3.7325251e-01
  3.7397620e-01
  5.3563434e-01
 -3.7154680e-01
 -2.3014912e-02
  5.3243101e-01
 -3.7442365e-01
 -1.9021605e-01
  1.8819338e-01
  7.1159363e-01
 -3.7570500e-01
  1.7677028e-01
 -4.0332109e-02
  4.4738957e-01
  6.6158670e-01
 -6.7499554e-01
  2.4805036e-01
  1.9101539e-01
  1.3963273e-01
  5.2038437e-01
 -2.1309672e-02
 -1.1333229e-01
  1.5126167e-01
 -2.1055296e-01
 -3.6316302e-01
 -2.9135683e-01
  8.4532298e-02
 -1.3719602e-01
 -1.4571425e-01
 -1.9524775e-01
  7.4942499e-01
  6.5890169e-01
  4.3220419e-02
 -1.3712655e-01
  2.6405272e-01
  1.4890718e-01
  3.6047742e-01
 -5.8743447e-02
 -6.3137144e-01
  3.9836448e-02
 -2.9129809e-01
 -2.3251551e-01
 -5.5647808e-01
 -1.6618089e-01
 -3.4927478e-01
 -2.9282320e-01
 -3.5268065e-01
  8.6571705e-01
 -3.3159915e-01
 -4.6708357e-01
 -6.6847861e-01
 -4.5670085e-02
 -6.1640781e-01
  5.1937304e+00
  5.2515225e+00
  4.0309052e+00
  1.0491712e+00
 -5.9386241e-01
  7.2588998e-01
 -5.7915207e-02
  1.5918876e-01
 -3.7902859e-01
  5.7072896e-01
  3.7452710e-01
 -1.8683969e+00
  4.9723434e-01
  1.5779911e+00
 -9.9125117e-01
  1.0340527e+00
  3.2567579e-02
 -6.2662736e-02
 -8.4022075e-01
  1.6045868e-01
  2.5494432e-01
 -6.3696897e-01
 -8.9512038e-01
  2.4433729e-01
 -7.2232062e-01
 -1.8870230e-01
  3.0386639e-01
 -2.1638520e-01
  4.8505002e-01
 -4.5817679e-01
  1.8664899e-01
 -4.8692605e-01
  5.6881136e-01
  4.4552591e-01
 -3.2634252e-01
 -1.2413747e+00
  1.9294380e+00
 -2.0519991e+00
 -1.5918148e+00
  2.9039726e-01
  8.9809352e-01
 -5.4965597e-01
  1.2509364e+00
 -1.2288851e+00
  1.6494701e-02
  1.1362386e+00
 -6.3293505e-01
  1.6830877e+00
 -2.0363779e+00
  2.9046366e-01
 -1.2274630e+00
 -9.6708876e-01
 -1.1247172e+00
 -2.7621522e+00
  1.6897291e+00
  1.8329440e+00
  4.0106615e-01
 -1.0055460e-01
  9.3947762e-01
 -9.8912424e-01
 -3.7509871e+00
  3.8583353e-01
 -2.7935662e+00
 -1.7320348e+00
  1.5470351e+00
 -5.1603280e-02
  6.6847187e-01
  1.3278837e+00
  1.7926534e+00
 -3.0486486e+00
 -5.6076252e-01
 -9.3738693e-01
  1.1726977e+00
  2.3520510e+00
 -1.1690297e-01
 -1.8227261e+00
  1.7269024e+00
 -2.1907911e+00
  2.2315941e+00
 -1.8655506e+00
 -1.5310441e+00
 -4.7285160e-01
  1.0078160e-01
 -2.9283267e-01
  4.8145813e-01
 -1.9998819e+00
 -1.9847480e+00
  2.6121831e+00
 -1.2945952e-01
 -4.8281053e-01
 -2.0329644e-01
  5.0565636e-01
 -1.3720336e+00
  7.0515054e-01
  6.1665088e-01
 -4.6905661e-01
  2.0991869e-01
 -1.5997517e+00
  9.3867755e-01
  4.2139304e-01
  7.5070632e-01
 -1.8113247e-01
  1.7687036e+00
 -6.7521894e-01
  2.0227493e-01
 -1.9801300e+00
 -6.0889660e-03
  6.8765569e-01
 -8.1184602e-01
  2.3033610e-01
 -6.0609877e-01
 -3.7609982e-01
 -4.1749129e-01
  4.5226449e-01
 -1.9255999e-01
  2.9229146e-01
 -3.5898742e-01
  1.4329940e+00
 -4.5631330e-02
 -6.1938828e-01
  4.2797276e-01
 -2.7469599e-01
 -7.6573914e-01
  3.7019077e-01
  2.6911581e-02
 -3.0149597e-01
  1.5736187e-01
 -1.9264884e-01
 -1.5672169e+00
  1.7338959e+00
  8.6426991e-01
  1.4141564e-01
 -1.4704791e-01
  1.0198048e+00
  1.1082398e+00
  1.6405481e+00
 -1.2668904e+00
  1.3971778e+00
  4.6531606e-01
 -1.8575742e+00
  1.1826906e+00
 -1.3185436e-01
  7.1885115e-01
 -6.2087268e-01
  9.8627847e-01
 -1.5598710e-01
  6.6650921e-01
 -8.0883324e-01
  1.5648019e-01
 -9.1264701e-01
  2.1532202e+00
  1.7292494e-01
  5.5856340e-02
 -1.3519398e+00
  1.1068618e+00
  6.9624037e-01
 -5.6391513e-01
  1.0045367e+00
 -2.9143372e-01
  2.0288882e+00
  1.2981575e-03
 -6.7372227e-01
  1.1517583e+00
  5.1302201e-01
  7.9625383e-02
 -2.3848154e-01
  8.3645213e-01
  4.0794072e-01
  3.7053218e-01
  5.3457212e-02
 -2.4200320e-01
  4.3197614e-01
 -6.5045196e-01
  7.9750192e-01
  5.6315535e-01
 -1.7028300e-01
 -6.3382912e-01
  3.1679124e-01
  1.0317527e+00
 -2.7488375e-01
 -2.2494074e-02
 -1.6232023e+00
 -3.9589185e-01
  9.5313296e-02
  2.4440922e-01
 -4.1450986e-01
 -6.0070997e-01
 -8.3703354e-02
  3.1374946e-01
 -3.0924040e-01
  5.2690655e-01
  2.8974730e-01
  1.6284603e-01
 -8.8460937e-02
 -3.8119072e-01
 -1.0289626e-01
 -1.1526568e-01
 -8.9962858e-01
 -1.3228037e+00
 -1.3764979e+00
 -3.3156767e-01
 -1.2752387e-01
  3.1885982e-01
  1.0898624e-01
 -5.1528507e-01
  2.2516634e-02
  1.0844913e+00
 -5.5458492e-01
 -8.5987329e-01
 -1.9395196e+00
 -7.9848206e-01
 -1.1388701e-02
 -9.6115083e-01
  1.0377591e+00
  1.8975739e+00
 -3.0376342e-01
 -3.4906838e-02
 -1.7175999e+00
 -1.7536155e+00
 -9.5870441e-01
 -1.3172661e+00
  1.8968533e+00
 -4.8544067e-01
 -3.1719142e-01
 -4.1941407e-01
 -1.6524868e+00
 -1.2759601e+00
 -1.2318219e+00
  4.0055528e-01
 -1.0080886e+00
  8.2050008e-01
  9.0737963e-01
 -2.7232990e+00
  9.6282166e-01
 -1.7496823e+00
  5.9173459e-01
 -1.0212930e-01
 -6.3723761e-01
  3.8517815e-01
  1.3945949e-01
 -7.9766154e-01
 -4.4250780e-01
 -1.3743194e-02
 -4.5267460e-01
  5.3070641e-01
 -5.9552687e-01
 -5.7610512e-01
  6.9287241e-01
 -1.2237538e+00
 -5.6942940e-02
  5.6370187e-01
 -1.1918203e+00
  4.4663975e-01
 -1.2398144e+00
 -2.7024293e-01
  4.1308764e-01
 -2.8336496e+00
 -3.3833408e-01
 -1.3648731e+00
  1.4718308e-01
  1.0975711e+00
 -1.9649962e+00
  7.4521625e-01
 -1.2936776e+00
 -5.5869669e-01
  4.7105798e-01
 -2.2291796e+00
  1.7201796e-01
 -8.3941787e-01
 -7.3245674e-01
  7.7894711e-01
 -1.7598286e+00
 -4.4061700e-01
  1.0005440e+00
  4.8497252e-02
 -9.0538129e-02
 -9.4791210e-01
 -5.9745431e-01
 -1.8461285e-02
  1.3401787e-01
  1.2409722e+00
 -1.6548048e-01
 -3.7750039e-02
 -2.6967099e+00
  1.2449284e-02
 -1.5092969e+00
 -1.8527098e+00
  1.8823197e+00
  2.7211642e-01
  9.3146211e-01
 -1.4836379e-02
  1.8537816e-01
  6.4695424e-01
  7.3878533e-01
  6.8510437e-01
  5.2746785e-01
 -1.4611328e+00
  1.0855612e+00
 -3.4351241e-02
 -8.9423977e-02
 -4.3541697e-01
  3.9379796e-01
  3.5655534e-01
  8.2239872e-01
 -6.8094212e-01
  6.0585268e-02
 -4.4458723e-01
  1.0585264e+00
  1.6024932e-01
 -1.0694455e-01
  2.0181580e-01
 -8.4567207e-01
 -1.4453936e-01
 -1.0991908e+00
  9.4912767e-01
 -5.1998667e-02
  2.1934798e-01
  1.2550929e-01
 -8.0719256e-01
  2.7014330e-01
 -2.5592816e-01
  2.3417901e-01
 -1.3844475e+00
 -4.3764475e-01
  7.3045868e-01
 -3.3841479e-01
 -1.4678078e-02
  2.0366936e+00
 -1.5529658e-01
 -5.6166041e-01
  1.3419586e+00
  5.7643002e-01
  3.2244670e+00
 -2.7248502e-01
 -5.9469289e-01
  9.6337676e-01
  3.3574599e-01
  2.5236149e+00
  1.9958230e+00
  4.2765072e-01
  1.5798681e+00
  3.3109733e-01
  7.2805768e-01
 -2.7227545e-02
 -2.1393099e-01
  8.3914793e-01
 -6.6866440e-01
  7.3258793e-01
 -1.1813516e-01
 -4.9200407e-01
 -7.4351542e-02
 -9.1309011e-01
  7.8038251e-01
  3.1552231e-01
  8.0301785e-01
  1.5662165e+00
 -3.9511138e-01
 -6.5568352e-01
  1.6175310e-01
  9.5330209e-01
 -1.7557484e-01
  6.0636955e-03
  3.1772044e-01
  2.0187701e-01
 -4.9469967e-05
 -2.7491263e-01
 -1.5179300e-01
  3.2066935e-01
  9.9596530e-01
  4.1446421e-01
 -1.7999938e-01
 -3.2465348e-01
 -1.6115424e-01
  1.9391651e-01
  5.8851313e-02
  2.0899386e-04
  9.2486240e-02
  6.0453957e-01
  1.5674649e-01
  2.4228567e-01
 -3.0794218e-01
 -1.1430678e-01
  2.5906673e-01
 -2.1863316e-01
 -1.0305320e-02
 -5.7131626e-02
  2.4555944e-01
  1.9943701e-01
  1.9376414e-01
  4.1227987e-01
 -8.0750644e-01
 -1.5785854e-02
 -4.8572239e-02
  5.4353604e+00
  2.7878480e+00
 -9.2811972e-01
  1.6520661e+00
 -3.7612399e-01
 -2.7917411e+00
  4.5969186e+00
  2.3991485e+00
 -1.2693372e+00
 -3.0024812e-01
 -2.0584655e+00
 -1.4045236e+00
 -1.1078491e+00
  1.1166892e+00
 -1.3398070e+00
  2.0253608e+00
 -2.5273480e+00
  1.4843507e+00
  1.7512200e+00
 -9.7358018e-01
  9.4564545e-01
 -6.0230577e-01
  8.2499254e-01
 -7.1017915e-01
 -1.2149041e+00
  3.7605166e-01
 -2.4564364e+00
 -2.4207452e-01
 -3.3330852e-01
  3.6352900e-01
  1.1189213e+00
  6.4782225e-02
 -8.8469869e-01
  3.4244555e-01
  6.8663158e-02
 -1.1050253e-01
  5.7726300e-01
 -3.1446636e+00
 -4.8029256e+00
 -3.2652781e+00
 -3.1857073e+00
 -2.6998198e+00
  7.9050732e+00
  3.4238327e-01
 -1.4827605e+00
  1.0351300e-01
  4.7121960e-01
 -2.1565405e-01
  9.4817966e-02
 -2.0227139e+00
 -1.0175102e+00
 -2.7331334e-01
 -2.7774298e+00
 -5.5673480e-01
 -1.9920602e+00
 -9.3359357e-01
  7.0234090e-01
 -1.2949268e+00
  5.1426943e-02
 -1.7252072e+00
 -1.2452559e+00
  5.2913006e-02
 -1.9640406e+00
  1.3089149e-01
  1.1008941e+00
  4.1265389e-01
 -2.2880103e-01
 -5.4427350e-01
  2.7982628e-02
  4.0617737e-01
 -2.4789339e-01
  4.4445239e-02
  5.0750602e-02
  3.8636351e-01
 -3.3291066e-01
 -2.2999753e-01
 -3.2846484e-01
 -3.8642082e-01
 -5.8853820e-02
 -3.2522219e-01
 -4.5851511e-01
 -2.4164306e-01
 -4.7207355e-01
 -2.7170837e-01
 -8.3773834e-01
 -5.6845903e-01
 -1.0526239e-01
 -3.0574706e-01
 -6.8287529e-02
  4.1257021e-01
  2.4123608e-01
  5.7114536e-01
 -3.6507723e-01
  3.2031363e-01
 -2.4454150e-01
  4.0089127e-02
 -2.6542851e-01
 -5.5191177e-01
 -1.9138268e-01
  6.6431165e-01
  2.1515681e-01
 -7.8253353e-01
 -9.2093837e-01
  9.8282921e-01
 -9.4562560e-01
  4.9488777e-01
  5.2771676e-01
  4.6004039e-01
  6.3520712e-01
 -6.6922724e-01
  9.2700422e-01
 -3.5901898e-01
 -8.5103846e-01
  1.3862439e+00
  8.0190259e-01
  8.6954534e-01
 -5.2224493e-01
  6.0161400e-01
  4.5662455e-02
 -1.3843426e-01
  5.2001029e-03
 -6.9274086e-01
  6.4353102e-01
 -3.4811921e-02
 -3.7793234e-01
  6.1998123e-01
 -3.2207131e-01
 -6.9122374e-01
 -3.2832265e-01
  1.9829459e-01
 -1.1393720e+00
 -1.7844780e-01
  5.7802713e-01
 -4.3738157e-01
  1.0332255e+00
 -1.2552373e-01
  4.3634709e-02
 -2.7841023e-01
  2.3965891e-01
  4.6242139e-01
  8.1471634e-01
 -3.7587471e-02
 -2.2992483e-01
  2.1285485e-02
  1.2001617e-02
 -7.5070459e-01
  4.6775568e-02
 -6.2409908e-01
  1.3384546e+00
  2.6290994e+00
  1.2026019e+00
  3.1767681e-01
  1.4117203e+00
  1.7663240e+00
  4.6341699e-01
 -1.3812625e-01
 -2.6552688e-02
 -7.4723549e-02
 -3.1330293e-01
 -2.7981091e-01
 -5.1007402e-01
 -9.5322722e-01
 -5.2110332e-01
 -1.3742477e+00
 -2.0180509e+00
  2.0236373e-01
  9.8823529e-01
  5.5742812e-01
 -4.2787012e-01
 -6.7278552e-01
 -9.9745065e-01
  1.3169619e-01
 -2.2252290e-01
 -1.3789707e+00
 -1.7167213e+00
 -4.7324690e-01
  6.8847400e-01
  3.7325859e-01
  6.0739422e-01
 -8.5240787e-01
 -5.9741688e-01
 -3.3529970e-01
  7.3283394e-03
 -2.8358620e-02
 -4.1975272e-01
 -1.7909764e+00
 -1.5713298e+00
  1.9038138e+00
 -3.3077061e+00
 -9.4159832e-03
  1.2226379e+00
 -3.4787327e-01
 -3.7412977e-01
  3.3320183e-01
 -2.4421643e-01
 -1.3783756e+00
 -1.2015257e+00
  7.4091804e-01
  3.2275248e-01
 -4.5582771e-02
  7.1351105e-01
  8.2266670e-01
 -2.4838471e-01
  7.6007795e-01
 -6.3339204e-01
 -1.2220454e+00
  5.6153947e-01
  3.6202165e-01
 -5.2200800e-01
 -8.5621810e-01
 -2.2877827e-01
 -1.9563936e+00
 -5.4565477e-01
  9.1979504e-01
  4.7355539e-01
  4.9936540e-02
  8.6961174e-01
  1.2534355e-01
  4.4991267e-01
  3.2017344e-01
  2.1417260e-01
 -5.2662092e-01
 -1.7632303e-01
 -1.0449077e+00
 -3.9086491e-02
 -2.9905704e-01
 -3.1034064e-01
  8.7677646e-01
  2.0738821e-01
  1.9004893e-01
 -9.4721174e-01
  4.3972307e-01
 -2.8297767e-01
  7.6106101e-02
 -1.9902801e-02
  1.2690042e-01
  5.3804469e-01
 -1.0780876e+00
 -7.6057607e-01
  4.9905953e-01
  1.0624363e-02
  2.1171367e-01
  7.3623598e-01
  2.0273640e-03
 -5.4673284e-01
  8.1110626e-02
 -3.9153337e-01
 -1.2369167e-02
 -2.4401320e-02
 -2.2017489e-01
 -1.1654094e-02
  3.1642216e-01
  1.3070992e-01
  7.5931305e-01
 -7.1703397e-02
 -7.5750583e-01
  6.6825271e-01
 -1.6991962e-01
  3.0529123e-02
 -1.7354941e+00
 -2.4955426e-01
  5.4245365e-01
  6.1934221e-01
  1.0467056e+00
  1.4212382e-01
 -6.0725600e-01
  1.7167538e-01
  1.1023861e-01
  5.2714634e+00
  4.6303079e-01
 -1.0737604e+00
  7.1895194e-01
 -1.0640895e+00
  4.8594241e+00
 -3.5555491e-01
 -1.8149295e+00
 -8.5746449e-01
 -5.9710819e-01
  5.6227117e+00
 -1.9742309e-01
 -7.4369550e-01
  1.0768920e+00
 -1.9269217e+00
  3.9611938e+00
 -7.7528185e-01
 -7.8430277e-01
 -7.9870000e-02
  9.8447186e-01
  1.3649008e+00
  3.7175024e-01
 -1.3034923e-01
  1.7575388e-01
  1.3445564e-01
 -4.9365458e-01
 -5.6835696e-02
  1.7172481e-01
 -1.0188237e+00
  9.3974012e-01
 -1.7694186e+00
  8.0672526e-01
 -1.3867816e+00
  2.0114210e-01
 -4.0056843e-02
 -2.6720273e-01
 -9.2807628e-02
  4.2528754e-01
 -3.2419038e-01
  1.8964647e-01
 -7.4682391e-01
 -8.4719205e-01
 -3.2074189e-01
 -1.1537357e-01
 -1.8762825e-02
 -1.5806001e+00
 -1.5445163e-02
 -1.1312667e-01
  1.9167502e-01
  1.0897769e-02
  5.3166014e-01
  4.7564408e-01
  2.4624671e-01
 -2.5496253e-01
  1.4604596e+00
  3.4582326e-01
  2.0838739e-02
 -5.9173685e-01
  3.0168289e-01
 -6.8454957e-01
 -2.9198864e-01
 -6.6748267e-01
  3.0376157e-01
  2.8248090e-01
 -6.5980536e-01
  2.4956521e-01
  2.0428780e-01
  1.2378485e-01
  1.6294578e+00
  8.9676696e-01
 -1.0112257e+00
 -2.3411756e+00
  3.1452149e-01
 -6.1263406e-01
 -2.3841490e-01
  4.4880149e-01
  7.9364812e-01
 -6.3449800e-01
 -1.0874461e+00
 -8.0904889e-01
 -1.7127719e+00
 -1.7197857e+00
 -6.9295138e-01
 -8.7615275e-01
  1.1528174e+00
  1.1206678e+00
  2.7795085e-01
 -2.0230882e-01
 -1.0899582e+00
  1.9232246e+00
  6.7209905e-01
  9.5500940e-01
 -7.9656351e-01
  5.4351676e-01
  1.8196149e-01
  2.4077405e-01
  6.0740107e-01
  2.4005142e-03
  1.1756589e+00
  1.0332183e+00
  5.0921059e-01
  1.3021955e-01
  7.8116968e-02
  8.2935280e-01
  2.5784907e+00
 -1.1837517e+00
  3.5728407e+00
 -2.1376946e+00
 -7.5987220e-02
 -4.5739102e-01
 -1.4622261e-01
  3.5071862e-01
 -1.3545318e+00
 -2.4622016e-02
  4.2899299e-02
  5.0084102e-01
 -2.6351413e-01
 -1.6555668e+00
 -4.6776661e-01
  8.5566854e-01
  8.6304003e-01
  2.3806052e-02
  4.2893815e-01
  5.1264954e-01
 -5.3827512e-01
  1.0316128e+00
 -1.1920807e+00
 -6.4002383e-01
 -1.5311395e-01
 -6.0810834e-01
  3.8140118e-01
  1.2277486e-02
  3.8320079e-01
  1.6538309e-01
  5.9338760e-01
 -2.2459894e-01
  2.6406533e-01
  3.5380605e-01
 -6.1724550e-01
  1.8417584e+00
  1.4659189e+00
  1.9696046e+00
  3.5059516e+00
 -1.7910527e+00
 -5.2520752e+00
  2.9041162e+00
  3.1172228e+00
  9.1136083e-02
 -9.8560326e-02
  3.2435107e-01
  1.2501156e-01
  7.7793902e-01
 -2.3662713e-01
 -1.9086380e-01
  5.5674839e-01
 -1.4607674e+00
  2.6119647e+00
  5.8394283e-01
 -1.7551084e+00
 -6.2052476e-01
  4.7681233e-01
  1.5740490e+00
  1.6628971e+00
  7.7495342e-01
  1.5338038e+00
 -2.2842871e-01
 -2.1877338e-01
  1.1288242e+00
 -4.2668605e-01
  1.1110975e+00
 -1.2566371e-01
 -3.9169395e-01
 -2.3905393e-01
  6.3120800e-01
  1.1017555e+00
  1.4524813e-01
  3.1727070e-01
 -1.0564022e+00
  3.5707313e-01
  1.2671821e+00
  1.5337548e-01
  4.7523251e-01
 -4.2203179e-01
 -3.3683684e-01
  1.2628099e-01
 -7.3865962e-01
 -3.9395148e-01
  4.4152930e-01
 -5.0741870e-02
  1.0468909e+00
 -1.9994816e-01
  6.4643496e-01
  1.3125778e+00
  7.9997432e-01
  5.6877768e-01
  4.2042631e-01
  4.5534271e-01
 -3.9344364e-01
 -6.1507958e-01
 -9.4025046e-01
  1.4462256e+00
 -1.9827368e-02
  1.2941234e+00
  4.6456525e-01
  4.4653744e-01
  3.1732526e-02
 -2.3213554e-02
  4.7707494e-02
  3.5963610e-02
  2.9869947e-01
 -3.1567729e-01
 -3.4319049e-01
  2.9209295e-01
 -7.8220218e-01
 -5.8857864e-01
  2.8343773e-01
 -3.3273053e-01
 -1.2657053e+00
 -7.2380179e-01
 -1.9667545e-01
  4.3170887e-01
 -7.9515171e-01
  1.8399781e-01
  3.7574118e-01
 -2.7718118e-01
 -6.7052716e-01
 -1.5046487e+00
 -2.7782552e+00
 -1.0284336e+00
 -1.0204781e+00
 -4.7621980e-02
 -9.7401756e-01
  6.1442208e-01
  3.2775600e-03
  6.7812443e-01
  1.4627849e+00
 -2.2322452e+00
 -2.8846720e-01
  8.2974094e-01
 -1.9356955e+00
  4.5464480e-01
  3.8246140e-01
  9.9979848e-02
 -4.9823084e-01
  2.6029694e-01
 -1.2914598e-01
 -2.9487982e-01
 -1.3646221e-01
  4.9409646e-01
  7.1329035e-02
  2.1889481e-01
  2.7362776e-01
  3.4605643e-01
 -3.4574884e-01
 -7.2544199e-01
 -1.0813213e-02
 -1.7722429e-01
 -2.5772262e-01
 -3.4005415e-01
 -6.5150410e-01
  1.2879570e-01
 -5.1818442e-01
  4.9511787e-01
 -8.5188761e-02
  2.4710904e-01
  1.8638963e-01
 -7.9585753e-02
  4.5517957e-01
  2.7294850e-01
 -2.8098449e-01
  8.5247475e-01
  3.4619293e-01
 -1.1621834e-01
  6.4464855e-01
 -1.4814462e-01
  6.5740609e-01
  2.9885998e-01
 -1.2791987e-01
  3.8997933e-01
  1.2307408e-02
  1.0540624e-01
  2.3127133e-01
  2.6140893e-01
  5.8472469e-02
 -4.9681211e-01
  6.9152147e-02
  3.6494052e-01
  6.0011780e-01
 -9.1062260e-01
  1.6224654e+00
  9.0736163e-01
  1.6509628e+00
 -5.8228081e-01
  3.3589587e-02
  7.6412606e-01
 -3.1542176e-01
 -2.1753241e-01
  5.7714242e-01
  3.8626790e-01
  3.2395673e-01
 -3.4292150e-01
  2.4193357e-01
 -7.8326130e-01
 -1.8545954e-01
  2.3539469e-01
  4.8704064e-01
 -6.3931787e-01
 -6.7271598e-02
 -7.3877978e-01
 -4.6676952e-01
  1.6089305e-01
  1.6489108e-01
 -5.7909191e-02
  2.6037800e-01
  1.0467623e-01
  1.4600390e-01
  3.7653096e-02
 -4.0505385e-01
  1.6701426e-01
  1.9414534e-01
  3.5565370e-01
  2.6401281e-01
 -3.6714980e-01
  4.6403721e-01
  5.8334976e-01
 -7.7106559e-01
 -6.3132161e-01
  8.1303293e-01
  1.8166418e+00
  6.1593914e-01
 -9.0160501e-01
 -3.1753337e-01
 -1.3192313e-02
 -8.7417223e-02
 -2.6580630e-02
 -1.9321164e-01
  5.8015358e-01
 -4.1263637e-01
 -1.7692427e-01
  2.2036421e-01
  2.6160988e-01
 -2.3046611e-02
  6.3866240e-01
  9.9903561e-02
  6.7644620e-01
  3.1870627e-01
  3.2922989e-01
  3.6482194e-01
  3.3629122e-01
  8.3097917e-01
  2.0792121e-01
 -4.0373799e-01
  1.8809776e-01
  3.4962192e-01
 -2.8026018e-01
 -3.1217569e-01
  1.3016467e-01
  2.5302035e-01
  1.0122781e+00
  3.2347474e-01
 -1.4049900e-01
 -1.1430579e+00
  6.6874623e-01
 -1.2350163e+00
  1.3243707e+00
  1.8180633e-02
 -6.3360661e-01
 -3.6838046e-01
 -1.1915085e+00
  2.9338269e-02
  2.9777595e-01
 -1.1773427e-01
 -3.9669970e-01
  5.3481400e-01
 -1.0813957e-01
  2.6683098e-01
  7.6803464e-01
  7.4432105e-01
 -7.9642588e-01
 -7.2708406e-02
  8.3018661e-01
 -6.6424787e-02
  4.4303858e-01
  3.4797698e-01
  9.4047219e-01
  5.9155840e-04
  2.6953787e-01
 -1.6719347e-01
  6.8844967e-02
 -5.0899923e-01
 -6.7782110e-01
 -4.4338143e-01
 -4.0317363e-01
  2.0055203e-01
  1.9548102e-01
  2.5914228e-01
 -7.0777112e-01
  4.1329201e-02
 -7.6344877e-01
  3.7664938e-01
  2.1506128e+00
 -8.4857911e-01
  3.4776375e-01
  1.9371389e-01
 -2.5082278e-01
  6.3249058e-01
 -5.7672179e-01
  5.7668728e-01
 -1.2178938e+00
  9.6675605e-02
 -1.3095145e+00
  1.5400187e+00
 -7.3720092e-01
 -1.1933794e+00
 -1.9296260e+00
  7.3294568e-01
  4.6749589e-01
  1.3323744e-01
 -1.0171815e+00
  1.8358546e-01
 -2.1091783e+00
  1.1988237e+00
 -9.2202300e-01
 -1.7245874e+00
 -7.5209832e-01
 -3.5196212e-03
  1.0862392e+00
  4.6204823e-01
  1.0478747e+00
 -1.3689634e-01
 -5.1442373e-01
 -2.5391052e-04
 -4.4027296e-01
 -1.0014468e-01
 -2.1757602e-03
 -1.5992365e+00
  3.2356267e+00
  1.2850283e+00
  1.7185860e+00
  1.3700596e+00
 -3.9312607e-01
 -1.7014227e+00
  2.9577494e-01
 -7.6467329e-01
 -7.6778233e-01
 -1.1352887e+00
 -1.3657624e-01
  9.1153330e-01
 -8.7173408e-01
 -2.0406101e+00
  1.0536817e+00
  1.0097940e-01
 -1.2670103e+00
  2.4996153e-01
 -1.7980677e+00
 -1.3101286e-01
 -3.0790707e-01
  1.8656851e-01
 -1.7370164e-01
 -2.6040950e-01
 -6.6660297e-01
 -1.1001936e+00
 -7.8703552e-02
  4.8779279e-01
 -3.8365826e-01
  1.6488256e-01
  8.9996018e-02
 -6.4272606e-01
  1.7870921e-01
 -1.1241782e-01
  3.7858829e-01
  7.4454540e-01
  8.8128400e-01
 -1.0001595e+00
  6.7395300e-01
 -2.8588277e-01
  1.0077127e+00
 -1.1276144e+00
  4.1869441e-01
  1.3712275e-01
  2.0414899e-01
  1.0692543e+00
  1.0651345e+00
 -5.0240177e-01
 -1.8735136e-01
  6.2267429e-01
  3.4760788e-01
  3.3203417e-01
  1.0161735e+00
 -7.1953374e-01
  8.1234139e-01
  2.9119322e-01
 -6.4178818e-01
  4.4539881e-01
 -6.1569232e-01
  2.2955880e-01
 -3.9828780e-01
 -3.9482221e-01
  7.6958373e-02
 -5.7436985e-01
  3.2472858e-01
 -4.4464120e-01
 -1.1194877e-01
  2.6545754e-01
 -2.3378992e-01
 -6.6246736e-01
  1.8539114e-01
  9.5786625e-01
 -1.1048031e-01
 -2.1581981e+00
 -2.8329232e+00
  1.7258255e+00
 -1.4320421e+00
  2.5979084e-01
  8.8920975e-01
 -1.8224565e+00
 -3.7904990e-01
  4.2131281e-01
 -1.0910354e+00
 -6.8423009e-01
 -1.1488140e+00
 -7.5704600e-03
 -5.0323057e-01
 -5.8062416e-01
 -1.5848733e-02
  1.5887526e-01
 -7.8062338e-01
  4.2559743e-01
 -9.3828100e-01
 -1.1648010e-01
 -1.1412566e+00
 -3.7973687e-01
  2.0216103e+00
 -1.1505946e+00
  1.0480415e+00
 -9.5379066e-01
  2.7929458e-01
 -7.1885639e-01
  1.1575367e+00
 -1.1615000e+00
 -1.0945938e+00
  1.9116795e-01
  4.9662322e-01
 -6.7046380e-01
  3.0393383e-01
 -6.5656132e-01
 -1.4174138e+00
 -1.6200050e+00
  4.1523147e-01
 -2.0209117e+00
 -3.8445753e-01
  8.6050278e-01
 -6.9592661e-01
 -7.6344502e-01
  5.0617176e-01
  1.6376053e+00
 -2.6579973e-01
 -1.0079917e+00
 -2.1330220e-01
 -1.4151498e+00
  6.6482770e-01
 -1.6378090e+00
  9.4553256e-01
 -1.0240120e+00
 -6.6687983e-01
  6.0426754e-01
  2.2441415e-01
 -5.8726543e-01
 -7.0773697e-01
 -9.7650284e-01
  1.5497572e+00
  5.1838525e-02
 -8.3387530e-01
 -2.2921396e-02
  8.9360672e-01
 -1.6054585e+00
  4.2786422e-01
 -1.0351857e+00
 -2.4313352e-01
 -6.1450040e-01
  4.0746829e-01
  4.1777515e-01
 -9.4844764e-01
  1.3736274e+00
  1.7367692e+00
  2.1979754e+00
 -8.7467313e-01
 -1.5625463e+00
 -1.6738161e+00
 -2.3335330e+00
  9.2317539e-01
 -5.9126717e-01
  2.0376362e-01
 -9.7511774e-01
  2.1105936e-01
 -1.0437234e-01
 -7.2597259e-01
 -9.8303777e-01
  8.6126029e-01
 -9.3898380e-01
 -9.1616325e-02
 -4.6250907e-01
  5.1719904e-01
  6.8717474e-01
 -1.7475094e-01
  9.6805573e-01
 -3.5322577e-01
 -5.2637726e-01
 -2.1247180e-01
  1.6938807e-01
 -2.5131240e-01
  5.0450500e-02
 -7.3522076e-02
  3.6038175e-01
  6.6885400e-01
  6.9420189e-01
  6.4286041e-01
  5.6184131e-01
 -1.6192293e-01
 -6.1590064e-02
 -1.4527949e+00
 -3.4191856e-01
 -1.1788830e+00
  1.0005884e+00
 -2.3157775e-01
  1.6360727e-01
  4.7702685e-01
 -5.5166203e-01
  9.5777225e-01
 -6.8127131e-01
  3.5778344e-02
 -4.3799981e-02
 -3.6627418e-01
  7.0133859e-01
  1.1514903e-01
 -3.9809880e-01
  2.4727514e-01
  2.4495441e-01
  4.0907261e-01
  2.2102146e-01
 -6.8308365e-01
  1.2854926e-01
 -5.9629208e-01
 -2.5646102e-01
  7.1017826e-03
 -1.3116006e+00
  2.2071369e+00
 -1.7169555e-01
 -1.4119315e-01
 -1.9817761e+00
  5.4337937e-01
  6.0278255e-01
 -4.7858838e-02
 -3.5479689e-01
  2.5572941e-01
  7.1898055e-01
 -2.7245235e-01
  2.3778908e-01
 -1.7372127e+00
  2.6734293e+00
 -1.9208466e-01
  4.3160552e-01
  3.7164312e-02
 -7.2902542e-01
  1.2235415e+00
 -1.2809072e+00
 -3.1135178e-01
 -2.7137263e+00
 -1.3960725e+00
 -8.3262749e-02
  2.1628790e+00
 -3.2887764e-02
 -2.2879061e-01
 -4.8239240e-01
  6.8603498e-01
 -4.4330731e-01
 -4.8741892e-01
 -7.1332043e-01
 -5.2082652e-01
  1.0839556e+00
  5.9438344e-02
 -1.6103761e-01
  1.5101163e+00
 -4.2909530e-01
 -9.6430135e-01
 -1.1434195e+00
  7.6635759e-03
 -2.8969386e-01
  7.0630692e-02
  1.1325394e-01
 -3.9245930e-01
 -5.0565356e-01
 -7.4674588e-01
  4.9274755e-01
  6.1524594e-01
  2.1969473e+00
 -5.7630729e-02
  5.4800206e-01
  3.2733605e+00
  1.0624991e-01
 -2.4555328e+00
 -1.1333101e-01
  1.6102055e-01
  9.9914670e-02
 -6.5961498e-01
 -6.2976831e-01
  9.5183891e-01
  6.4836830e-01
 -3.2609954e-01
  1.5780724e+00
 -1.4548585e+00
 -4.2796731e-01
 -6.4080691e-01
  1.4686118e+00
 -3.6482832e-01
 -1.1000338e+00
 -1.8232850e+00
 -8.7211251e-01
 -1.2303607e+00
  4.9393699e-01
 -2.7032096e+00
  8.3578900e-02
 -2.2707400e-01
  5.7978147e-01
  2.9791537e-01
 -1.8426808e-02
 -6.0647607e-01
 -3.5487849e-01
  2.0993151e-01
 -2.4331574e-01
 -1.1048999e-01
  3.3408329e-01
  1.3476629e+00
 -8.8566011e-01
 -5.1858896e-01
 -1.2070562e+00
  7.6411366e-01
 -9.3667066e-01
 -6.2084359e-01
  3.8734072e-01
  6.6635555e-01
  3.9843298e-02
 -1.7143558e-01
  1.3135773e+00
  3.3837885e-02
  7.0109665e-01
  1.6280251e+00
  1.3621702e+00
 -1.0389751e-01
 -4.4980264e-01
  9.6916758e-02
  6.3016570e-01
 -2.5602096e-01
  9.4785845e-01
 -3.2194939e-01
 -1.8672109e-01
  1.0071245e+00
  3.3041081e-01
  2.0204986e-02
 -1.5069261e-01
  5.3107572e-01
 -2.1775658e-01
 -3.7252519e-02
 -4.0438998e-01
 -1.5892772e-01
  2.8980592e-02
  4.1343290e-01
  4.8585605e-02
 -5.5555742e-02
 -1.1022429e+00
  4.7096884e-01
 -1.5080892e+00
  6.0993862e-01
 -1.5668299e+00
  5.9749883e-01
 -1.0269109e+00
 -3.8933071e-01
  5.3681558e-01
  9.4737661e-01
 -2.3339830e-01
  8.4352642e-01
  9.5684510e-03
  1.1507227e+00
  4.6835142e-01
  9.3300027e-01
 -7.1914458e-01
  8.8782775e-01
 -1.4935285e-01
  2.9485044e-01
 -3.0328321e-01
  8.7389529e-01
  5.2746093e-01
 -3.1116363e-01
 -1.4686871e-01
 -8.1232703e-01
  3.5047117e-01
 -4.2605519e-01
  8.2456881e-01
 -7.7649724e-01
  9.4156247e-01
 -1.6656014e-01
 -6.8944156e-01
  1.2458274e-02
 -2.0566891e-01
  6.3037235e-01
  3.0683818e+00
  1.0401193e+00
 -1.9773724e+00
  1.0786979e+00
  1.0016374e-01
 -3.2548483e-02
  1.6056582e+00
 -1.3040476e-01
  8.8275666e-04
  1.2563620e+00
  3.9344507e-01
 -9.6494782e-01
 -1.9067724e+00
 -5.1937115e-01
 -2.6611450e-01
  7.6420194e-01
 -1.2085301e+00
 -7.1274227e-01
  8.6640126e-01
 -8.5958369e-02
 -2.0405287e-01
 -7.4672526e-01
  1.7221010e+00
 -4.8216259e-01
  6.2204760e-01
 -1.1280383e+00
 -9.2073530e-01
 -2.9484424e-01
 -8.7944072e-01
 -1.3648858e+00
  9.6361846e-01
 -2.7646255e+00
 -5.8975577e-01
 -8.3386719e-02
  4.8836160e-01
 -7.9050131e-02
 -4.1892457e-01
  2.4711406e-01
 -5.7902849e-01
  8.8687086e-01
  3.9384922e-01
 -6.5408361e-01
 -6.9172573e-03
 -4.1741338e-01
  9.3985522e-01
 -1.9910282e-01
  1.8165495e-01
 -1.3030198e+00
  4.5348075e-01
 -8.1917852e-01
  5.8805656e-01
 -5.0689358e-01
 -7.3197341e-01
 -1.0844103e-01
  1.8998712e-01
 -2.3022568e-01
 -1.8933846e-01
 -7.7397013e-01
 -3.1241246e-02
  3.2969853e-01
  5.6004101e-01
  4.1449615e-01
 -5.4106253e-01
 -9.6193016e-01
 -3.7565807e-01
 -1.3300531e-01
 -2.2583650e-01
 -3.6485282e-01
 -5.8978472e-02
 -3.8758755e-01
 -5.9262586e-01
 -2.3888712e-01
  2.1762353e-01
  5.8059829e-01
 -2.2253211e+00
 -2.0564022e+00
  8.6140001e-01
 -1.5632675e+00
  7.7281410e-01
  6.2847036e-01
 -8.5375684e-01
 -1.1543158e+00
 -1.2004517e+00
 -9.3799329e-01
 -2.1819515e+00
  1.4269066e-01
  2.8686973e-01
 -2.8078046e-02
 -7.8790849e-01
 -2.5932989e+00
  5.2251458e-01
 -1.1408811e+00
 -8.1081587e-01
 -8.2408482e-01
  2.1252529e-01
  3.3303571e-01
 -1.1964945e+00
  3.0181992e-01
 -6.2873490e-02
  6.0743135e-01
  4.7394925e-01
  4.6349201e-01
 -2.1506886e+00
 -9.2749137e-01
  5.1949370e-01
  9.1743165e-01
 -3.2742453e-01
  3.9584568e-01
 -6.7975998e-01
  1.0871735e+00
 -1.9215298e-01
 -7.0789570e-01
 -4.7186700e-01
  7.2419226e-02
 -1.2544086e+00
  8.7917233e-01
  1.7683094e+00
 -1.2003239e+00
  9.7183692e-01
 -5.4450352e-02
 -2.6228690e-01
  1.6527337e+00
  1.1178776e+00
  9.1288403e-02
  1.1342033e+00
  2.8397450e-01
  8.5806209e-01
 -1.1139833e-01
  5.0440305e-01
  9.3332100e-01
 -1.3410853e+00
  4.1030815e-01
  6.7867267e-01
  7.8121430e-01
  4.8660955e-01
 -9.6937662e-01
  1.6491996e-01
  2.0374281e+00
  1.0626798e+00
 -7.6517299e-02
  1.2678095e+00
  3.5232174e-01
 -1.6752466e+00
  3.1721622e-01
  6.6488564e-01
 -1.8937983e-01
 -3.1240192e-01
 -5.4443840e-02
 -6.7589945e-01
  6.1050159e-01
 -7.0567387e-01
 -1.6580524e+00
  1.2004278e+00
  3.2094508e-01
 -1.2818124e-02
 -1.4661437e-01
 -1.5995523e-01
  4.2781779e-01
  1.5226494e-02
 -7.4796200e-01
 -3.1864081e-02
  1.0311766e-01
 -3.0460435e-01
 -4.5359394e-01
  8.1146950e-01
  4.2472817e-02
  5.7887411e-01
 -2.0461315e-01
 -7.2534651e-02
  6.8447226e-01
 -3.7589481e-01
  1.3717978e-01
  5.6743401e-01
  4.4923878e-01
 -3.2726815e-01
  6.0566753e-02
 -4.7376011e-02
 -3.7829643e-01
  2.3852351e-01
 -3.4110185e-02
 -5.1011831e-01
 -1.0235634e-01
 -1.7081477e-01
 -3.4721375e-01
 -7.3397994e-01
  1.7676239e-01
  1.9932693e+00
  1.3140658e+00
  2.2938938e+00
  5.2065527e-01
 -4.8232865e-01
  8.5513610e-01
  2.9917151e-01
 -1.3109055e+00
 -1.4854445e-01
 -2.2454228e+00
 -1.3779955e+00
 -6.6557348e-01
 -1.3510611e+00
 -8.1110758e-01
  8.8475293e-01
 -3.6720753e-01
  1.0054849e+00
  6.0380316e-01
  8.1011724e-01
  2.0490769e-01
 -1.2897041e+00
  8.7822092e-01
 -2.4032494e-01
 -1.7491374e+00
 -1.9586771e+00
 -1.4399682e+00
 -3.2936496e-01
 -1.5074226e+00
 -2.4456500e-01
  3.9226660e-01
  1.7287686e-01
  7.6955545e-01
  2.9404148e-01
  4.9742121e-01
 -4.4239292e-01
  3.8217038e-02
  3.3289480e-01
 -1.4316694e+00
  1.7175931e-01
  1.0781920e+00
 -4.5922217e-01
 -8.2266623e-01
  1.1607527e+00
 -1.3488169e+00
  8.6739588e+00
  1.9223174e+00
 -1.8884318e+00
 -1.4401314e+00
 -1.0598780e+00
  2.8412202e-01
  8.3073604e-01
 -2.2902079e+00
 -1.6804840e-01
  8.8987875e-01
  1.1860397e+00
  2.7301664e+00
 -3.0357475e+00
  3.5016344e+00
 -7.6073015e-01
  1.8199834e+00
  1.9076474e+00
 -1.2250065e-01
 -1.5899388e+00
  2.9888341e-01
 -5.6553841e-01
  1.0925421e+00
  3.8939357e+00
  7.0901442e-01
  1.8711960e-01
  8.2492155e-01
  4.3992901e-01
 -5.2797413e-01
  8.1168926e-01
 -2.5884524e-01
 -5.9201831e-01
 -8.3540642e-01
  4.7782364e-01
  1.4977232e+00
  3.0519223e-01
  2.0924568e-01
  2.9884567e-02
  1.3157211e-01
 -8.5780777e-02
  1.6709450e-01
  2.2508836e-01
 -6.9588852e-01
 -4.7964618e-01
  2.6150453e-01
  2.1358075e+00
 -1.2795638e+00
 -1.4661050e-01
 -1.8476619e+00
 -1.1113461e-01
  2.6173609e-01
  3.7978727e-02
  3.9672866e-01
 -3.3805428e+00
  5.5566627e-01
  5.8035517e-01
 -3.1637850e-01
 -7.1698761e-01
  2.1678522e+00
  1.2312332e+00
 -1.3702336e-01
  3.9077252e-01
  2.6022447e-02
  5.3983517e-02
 -3.2915416e-01
  4.7671422e-02
  9.2463982e-01
 -1.5174676e+00
 -2.3287010e+00
  1.2228912e+00
 -1.4670225e+00
 -2.1611036e-01
  1.0753161e+00
 -1.2925025e+00
  1.9609159e-01
  2.9786646e-01
 -1.1525058e+00
 -1.2938304e+00
 -9.6522570e-01
 -2.7095150e-02
 -1.2665050e+00
 -6.4007086e-01
 -1.9729829e+00
 -4.7451437e-01
 -1.1085688e-01
  6.0302645e-01
 -1.3117720e+00
  1.5699355e-01
 -1.0934112e+00
  2.0833312e-02
  3.9811093e-01
  3.3555558e-01
 -1.2938070e-01
  1.1748245e-01
  1.3314788e-01
 -1.4871161e+00
 -2.4362104e-01
  1.2023324e+00
  1.7851855e-01
 -2.5448120e-01
  5.3034008e-01
  2.3078345e-01
 -3.9299145e-01
 -5.9485412e-01
 -1.0229204e+00
 -2.7182257e-01
 -1.1669198e-01
  3.2629627e-01
  1.7440328e-01
 -4.9831775e-01
  2.7929860e-01
  8.4721521e-02
  5.1531786e-01
  3.2165545e-01
 -2.0873277e-01
  1.1574235e-01
 -2.0855676e-01
 -3.0859619e-01
  3.5515025e-01
 -3.1938863e-01
  9.3868518e-01
 -1.1472876e+00
  2.6891616e-01
  3.5809651e-01
  1.5498597e-02
 -5.2866089e-01
  2.9898234e-02
 -1.5731305e-01
  4.4885808e-01
  4.0212065e-01
 -4.2780426e-01
  4.0515658e-01
  5.1332998e-01
  5.1359439e-01
 -3.4478414e-01
 -3.9621361e-02
  5.0415093e-01
 -5.8909947e-01
  3.7373406e-01
  1.2962000e-01
  3.1470010e-01
  8.6162847e-01
  4.8768294e-01
 -1.5633593e+00
 -8.8643777e-01
 -1.1815400e+00
  1.9826078e-01
  4.6399269e-01
 -3.2900542e-01
 -1.1979418e-01
 -1.0918446e-01
  6.2743551e-01
  8.1180149e-01
  1.0951282e+00
  7.4094671e-01
  6.1566061e-01
 -6.1711347e-01
 -4.6157023e-01
  7.3439837e-02
 -2.9526260e-02
 -5.4220743e-02
 -1.8698090e-01
  1.8995975e-01
  2.0966884e-01
  5.4383332e-01
  6.7302978e-01
 -6.7787075e-01
 -1.8990391e+00
 -2.3474192e-02
  2.8176719e-02
  3.3329982e-01
 -2.9083076e-01
  2.4187832e-01
  1.6203946e-01
 -2.7910259e-01
  1.3686837e-01
  1.0373920e-01
 -6.1400288e-01
  1.7527294e+00
  2.3780706e+00
 -5.8282572e-01
  2.9492300e+00
  5.4976183e-01
 -2.0548894e+00
  7.7350414e-01
 -7.4199736e-01
  1.2334445e+00
  6.2366843e-01
 -6.0522127e-01
  1.0108144e+00
  4.8367855e-01
 -8.9385659e-01
 -1.8789829e-01
 -2.9647028e-01
 -2.1778828e-01
 -4.8679602e-01
  2.8037261e-03
 -3.8399568e-01
  1.4330332e-01
 -5.4400042e-02
  1.3257878e-01
  4.1452920e-01
  8.7323463e-01
 -1.0621638e+00
  1.1825768e+00
  8.1713343e-01
 -7.2765040e-01
 -2.0412164e+00
  5.6224811e-01
 -2.8878348e+00
 -4.4175923e-01
  4.8478654e-01
 -2.1667756e-01
  1.3376898e-01
  8.4154409e-01
 -6.1648911e-01
 -1.9014545e-01
  2.4138935e-01
 -7.1802147e-02
 -1.1757042e+00
  6.4766705e-01
 -6.1224061e-01
 -1.0680920e+00
 -3.8756020e-02
  3.5368010e-01
  1.0595886e+00
 -2.4468118e-02
 -3.0542266e-01
 -3.7152922e-01
  1.4247228e-01
 -2.6740226e-01
  1.2706390e-01
  8.0079716e-01
  1.8424799e-01
  3.0580032e-01
 -1.1003523e-02
 -5.4024404e-01
  5.9425461e-01
 -4.4394705e-01
 -3.5385197e-01
 -1.7533734e-02
  6.5128571e-01
 -1.0794315e+00
  6.5651482e-01
 -1.1564965e+00
  4.3195048e-01
 -1.1571389e-01
 -4.1269773e-01
  2.8445897e-01
 -3.2893263e-02
  3.5238600e-01
 -4.6449727e-01
 -2.6223803e-01
  1.0774473e-01
 -5.6821469e-02
 -9.5690358e-01
 -2.8987488e-01
 -6.0779220e-01
  4.7305843e-01
  1.1128249e+00
 -3.7441590e-01
  6.1483007e-02
 -9.5240492e-01
 -4.1892406e-01
  1.0809876e+00
  4.9082565e-01
  9.4537151e-01
  6.7737526e-01
 -9.1829234e-01
  6.3209373e-01
 -1.8540590e+00
 -1.9329237e+00
 -1.6796080e+00
 -9.4826621e-01
  1.0954113e+00
  1.1562785e+00
 -1.5073991e+00
 -4.0989950e-01
 -1.5955410e+00
 -3.3659050e-01
  9.2714274e-01
  6.5668181e-02
  2.8637266e-01
  9.4813561e-01
  4.3804714e-01
 -1.0033097e+00
 -7.2025621e-01
  8.0501638e-02
 -2.4986902e-01
  3.2894077e+00
  1.8017502e+00
 -1.9257252e+00
 -1.0181805e+00
 -3.8989358e+00
  1.6377134e+00
 -5.5681628e-01
  6.3038337e-01
 -6.9951154e-02
  1.5458125e-01
  9.8013121e-01
  8.7190413e-01
 -4.0634365e+00
 -7.4858433e-01
  1.1627905e+00
 -1.7227031e-01
 -2.8824270e+00
  1.7969838e+00
 -9.5555663e-02
 -2.1610672e+00
 -4.5248542e+00
  1.8124829e-01
  8.8151509e-01
  5.5515957e-01
  4.8618478e-01
  8.7555754e-01
 -3.7342951e-01
  2.1659212e+00
 -2.5606632e+00
 -2.9000368e+00
  4.0725768e-01
 -1.6792368e+00
  1.1876143e+00
  4.2762277e-01
 -1.4497066e+00
  1.5632981e+00
  2.0664377e+00
  9.8459667e-01
 -1.2458061e+00
  1.3248534e+00
 -6.8815356e-01
  5.0932044e-01
  2.8095441e+00
 -6.0144992e+00
 -3.5917051e+00
  2.3824973e-01
 -2.0560982e+00
  4.7959657e+00
  1.7801447e-01
  1.2220298e+00
  2.8228815e+00
 -1.5049990e+00
 -5.9122783e-01
 -3.1261265e+00
 -8.6526150e-01
 -4.1723013e+00
  4.0404521e-02
 -7.6369220e-01
  1.3140106e+00
  1.4515260e-02
 -4.0078416e-01
 -2.1404754e-01
 -1.0903279e+00
 -8.6988233e-02
  4.8473871e-01
  2.0851484e-01
  3.9389937e+00
 -3.9727554e-01
 -1.0003974e+00
  1.4626563e+00
  3.3890176e+00
  8.9534326e-03
 -1.3056816e-01
  1.4045429e-01
  2.2278620e-01
 -4.6026722e-01
 -5.8482069e-01
 -2.5525358e+00
 -1.0363040e+00
 -2.4576073e+00
 -1.7697263e-01
  1.3415943e+00
 -2.3960731e+00
 -3.5140529e-01
  8.8989675e-01
 -1.2449616e+00
  1.9248525e+00
 -3.8922936e-01
 -1.6571178e+00
  1.9975077e+00
  9.1523401e-02
 -4.7483861e-01
 -1.0284203e+01
  9.2257231e-01
 -4.5750504e+00
  6.3637801e-02
  1.8622551e+00
  2.1295965e+00
  8.9504585e-02
 -9.6723455e-01
 -1.6870133e+00
 -1.1201756e+00
  7.6360512e-01
  3.3864924e-01
  1.0969881e+00
 -3.5740223e+00
 -1.7309580e+00
 -4.4468972e-01
 -6.1213452e-01
  3.6045277e-01
 -9.9646020e-01
  9.1967356e-01
 -3.3600093e-03
  1.4174597e+00
 -4.1973528e-01
 -6.7844242e-01
 -1.2918414e-01
  3.3545524e-01
 -1.9952279e-01
  8.3991188e-01
 -7.6658589e-01
  1.6819251e-01
  8.8534427e-01
 -4.3724805e-02
  6.5606683e-01
 -6.0217398e-01
 -1.3268399e+00
 -6.2611407e-01
  1.8319935e-01
  1.0165659e-01
 -5.7659990e-01
  8.2972854e-01
  6.2406361e-01
 -6.1639905e-01
 -1.3380273e-01
 -2.3919417e-02
 -3.5342032e-01
  2.0053763e+00
  2.5557253e+00
 -2.3774745e+00
 -1.8927704e+00
 -2.1797075e+00
  5.5376911e-01
  1.4195197e+00
 -2.6862419e-01
 -1.4035788e+00
 -8.1129313e-01
  5.8848989e-01
 -1.1142700e+00
  4.0154988e-01
 -3.3829504e-01
 -2.0051025e-01
  7.8690046e-01
  8.7101185e-01
 -1.3101739e+00
  2.5756609e-01
 -8.2597846e-01
  1.3904363e+00
 -9.4542551e-01
 -1.1946954e+00
 -1.0374846e+00
  1.3960023e+00
  8.2620925e-01
 -5.4550499e-01
 -4.5022735e-01
 -8.1901407e-01
 -3.7452649e-02
  6.4050448e-01
  4.3221992e-01
 -9.4512492e-01
 -1.0952130e-01
  3.0020893e-01
  1.8604296e-01
  9.6468180e-02
  8.7465334e-01
  1.9170108e-01
 -3.3181098e+00
 -2.7429056e+00
 -8.2415068e-01
  8.9854181e-01
  1.5805759e+00
  1.6167986e+00
  4.2547163e-01
  6.0451531e-01
 -3.7437299e-01
  3.5592541e-02
 -8.0485648e-01
  5.6437123e-01
  2.1089731e-01
 -6.4520061e-02
  1.6227998e-01
  1.5270428e-01
 -9.6963279e-02
  1.0359153e+00
 -6.0069507e-01
  5.9944741e-02
 -3.8170409e-01
 -2.4581163e-01
 -8.3544560e-02
  1.0875264e+00
  2.1379682e-01
  9.9866800e-02
  4.5663857e-01
  4.0422046e-01
  6.2346559e-02
 -2.4411988e-01
  5.5918294e-01
 -9.9210642e-02
 -5.8268607e-01
 -1.5917976e-01
 -3.6887383e-01
  7.8497779e-01
 -2.2783918e+00
 -9.1366184e-01
 -2.7091324e+00
 -1.8808839e+00
 -1.5980458e+00
 -1.3088409e+00
 -1.6993348e-01
  6.9037139e-01
  9.4519220e-02
 -6.0672302e-02
  3.9408308e-02
 -4.2903978e-01
  1.1023023e+00
  4.8063576e-01
  4.8855475e-01
 -4.5948736e-02
  1.0707554e+00
 -1.2876736e-01
  2.0533922e+00
  1.8203180e-01
  7.0807797e-01
  5.1177818e-01
  3.2554880e-01
  7.3927754e-01
 -5.6552625e-01
  6.0633975e-01
  4.4735861e-01
  3.8683856e-01
  2.6336792e-01
 -2.0960550e-01
  3.3211207e-01
 -2.2815052e-01
  3.6266473e-01
  7.8437436e-01
 -3.6418986e-01
  1.0091788e+00
 -2.6181644e-01
 -1.5879954e+00
 -8.6487271e-02
  1.5595350e-01
  3.1054053e-02
 -1.6005233e-01
 -2.0722995e+00
 -2.9035470e-01
 -7.8287637e-01
 -2.4681458e-02
 -3.2459688e-01
  2.6914626e-01
 -6.0399777e-01
 -1.8805507e-01
 -6.1639595e-01
  3.8159020e-02
  8.6787313e-02
  4.7950351e-01
 -1.3771224e-02
  6.4140630e-01
  3.7400958e-01
  6.1500516e-02
  9.5247018e-01
  5.8254933e-01
  4.4986790e-01
 -3.0326509e-01
 -2.7531207e-01
  1.8060756e-01
  2.2673886e-01
  1.4898954e-01
 -4.4202060e-01
  1.0399002e-01
 -9.5423728e-02
 -8.7358785e-01
 -2.4482504e-01
 -1.9945057e-01
  8.0790806e-01
 -7.2366351e-01
  1.1959817e+00
  1.0655733e+00
 -7.2343993e-01
  1.0859534e+00
 -4.3646097e+00
 -3.8454406e+00
 -6.7571527e-01
  1.7144558e-01
  1.1060450e+00
  7.3904194e-02
  8.3794999e-01
  6.2219322e-02
 -6.6907656e-01
  1.0843602e+00
  5.4103512e-01
 -2.0798490e+00
 -1.2415586e+00
 -6.8111342e-01
  8.9054668e-01
 -8.5758668e-01
 -4.1196256e+00
  1.4171957e+00
  5.1919234e-01
 -9.0311742e-01
 -1.7499387e+00
 -5.6116776e+00
 -6.0082102e-01
 -8.5201299e-01
  2.6417562e-01
 -1.7266770e-01
 -1.3503380e-01
 -1.4851877e-02
 -1.8972394e-01
  5.4796424e-02
  1.4396971e-01
 -7.2977662e-01
  1.1385475e+00
 -5.6232464e-02
 -2.7645032e+00
 -2.0758448e+00
  8.8590974e-01
 -1.5954617e+00
  1.3340826e+00
  1.0250580e+00
  5.5002040e-01
  4.8523816e-01
  1.5570746e-01
 -5.0247997e-02
  4.0425807e-01
 -8.5376754e-02
  1.2534875e+00
  8.7202513e-01
 -2.9332381e-01
 -9.6802568e-01
  2.5564423e-01
  5.6346327e-01
 -1.2405694e+00
 -3.8939297e-01
  6.6887343e-01
  6.6862154e-01
 -6.1701977e-01
  6.3050920e-01
  7.3252672e-01
  4.4447967e-01
 -9.2818312e-02
 -5.8247811e-01
  3.7260777e-01
 -2.4592535e-01
  1.5841103e-01
  3.0191001e-01
 -2.3728193e-01
 -4.0954672e-02
  9.4165795e-02
 -4.0322572e-01
  8.4440422e-01
 -9.9232072e-01
  4.7709346e-01
  2.8669443e+00
  1.0155337e+00
 -2.6441884e+00
 -6.8373096e-01
  5.5570334e-02
  1.2331567e+00
  5.2998430e-01
  6.7899573e-01
 -7.9567218e-01
 -3.1748720e-02
 -1.1962574e+00
 -9.4093263e-01
 -3.4603646e-01
 -4.4204885e-01
  1.9111790e-01
  2.1793373e-02
  2.2970924e-01
 -2.3144703e+00
 -2.6012416e+00
 -9.3288772e-02
  9.5519042e-01
  5.7499385e-01
 -2.1630082e+00
 -1.0532816e-01
 -4.7485867e-01
  1.2501918e-01
  1.5338606e-01
  7.6122874e-01
 -7.1821713e-01
 -4.8460519e-01
 -1.1360688e+00
  9.6625474e-04
  1.6571784e-01
  1.2776473e+00
 -3.6023772e-01
 -1.4282135e+00
 -1.2253594e-03
  1.8746725e+00
  1.2113763e+00
 -9.5990646e-01
 -1.4981457e+00
 -1.2309491e-01
  6.4471442e-01
 -2.7887320e-02
  5.6049043e-01
 -3.1135479e-01
  6.3700962e-01
 -3.3236551e-01
  1.7702758e-01
 -4.6697703e-01
  7.8385390e-02
  9.7834639e-02
  3.8879281e-01
  1.2342974e-01
  5.1807120e-02
  1.2001432e-02
 -4.1639283e-02
 -1.5746179e-01
 -2.9727912e-01
 -3.9709461e-01
  4.7720596e-01
  6.4512724e-01
 -1.7824928e-01
 -7.2775877e-01
  7.7487373e-01
 -5.8188331e-01
 -7.0338243e-01
 -9.7337753e-02
  3.9812228e-01
  7.9060152e-02
 -1.9304895e+00
  7.6989442e-01
  2.7302756e+00
  1.8716367e+00
 -1.3081650e+00
 -1.5249079e+00
  3.6159432e+00
  2.0954912e+00
  6.4954740e-01
  1.8253620e+00
  1.0624347e-01
 -4.5430550e-01
  1.8358939e+00
  2.2849073e+00
  2.2808192e+00
 -2.5016621e-01
  2.9099233e-02
  2.2334299e+00
  2.1438708e+00
  1.1692340e+00
  3.0066183e-01
  2.2975937e-01
  2.8267393e+00
  1.3078077e+00
 -5.0642008e-01
  6.1499560e-01
 -1.3237213e+00
 -4.5288637e-01
  5.0730526e-01
  6.7477143e-01
 -7.1468629e-02
 -1.6014270e-01
  1.6738789e-01
  4.5082635e-01
  3.9518562e-01
  1.4833858e-02
  6.0079839e-02
 -1.3527161e-01
  3.7665287e-01
 -1.6744101e-02
 -2.2896141e-01
  2.9399610e-01
  3.7933302e-01
  1.0580148e-01
 -1.8163814e-01
  2.5682670e-01
  4.4108286e-01
  2.2536369e-01
 -3.6305651e-01
 -1.1070938e-01
  7.5504199e-02
  2.8491685e-01
  1.8684246e-01
 -1.3147408e-02
  6.5029413e-01
 -3.6014348e-01
  1.8738507e-01
  4.7269604e-01
