nep4_zbl 5 V Nb Mo Ta W 
zbl 0 0
cutoff 5 5 72 72
n_max 6 6
basis_size 8 8
l_max 4 2 1
ANN 80 0
  1.3286481e+00
  9.5823240e-01
  7.1555322e-01
  2.1198723e+00
  4.6820357e-01
  9.5402327e+00
 -4.0885515e+00
  1.6206068e+00
 -4.2128898e-03
  1.1613602e-03
  4.4711992e-01
  4.8025567e-02
  3.4299555e-01
  5.3259510e-01
 -5.1067010e-02
  1.1981906e-03
  1.0963631e+00
  2.1377800e+00
  1.0870357e+00
 -1.0648455e+01
  1.9911722e+00
  2.7716088e+00
  2.2806618e-03
  1.2531326e-02
  1.1397171e+00
  1.7536685e-01
  3.6618943e+00
  7.5793631e-02
  1.0508225e+00
  7.5128726e-03
  3.0112232e-03
  5.4974622e-01
  1.4552005e-01
 -2.0092804e+00
 -2.8906579e-04
  9.0970492e-01
  6.1633099e-02
  5.0838917e-02
  5.3039849e-01
 -1.8190292e-01
 -3.6349051e+00
  2.5123678e-04
  7.9352427e-03
  6.6195182e-03
  1.4783829e-02
  1.1586334e-03
 -5.5849962e-03
 -7.0034355e-02
 -1.6939873e-02
  2.1871853e+00
  1.8578594e+00
  1.1692127e+00
 -1.3090773e+00
 -9.4074714e-01
 -1.0011488e+00
 -1.4109422e+00
  6.4672738e-01
  2.2366574e+00
 -4.0145364e+00
 -1.9407316e+00
 -1.0682147e-02
 -3.8807509e+00
  2.1632743e+00
 -2.3886858e-01
  8.2664901e-01
 -2.2992718e+00
 -3.5339788e-01
 -1.5300186e+00
 -5.2163146e-02
  1.2760452e+00
 -3.6575460e-01
  1.1455864e+00
  1.1327288e+00
 -1.5854728e+00
 -1.6056577e+00
 -8.7547503e-02
  5.3846782e-01
  6.6179067e-01
 -2.5184939e+00
 -1.2161313e+00
  1.3155969e-02
 -1.0367850e+00
 -3.6109073e+00
 -2.3975019e+00
 -1.7071571e-02
  1.1832678e+00
 -1.0515976e+00
 -2.5001073e-01
 -2.5211379e-01
  1.2018285e-01
 -3.1470025e-01
  4.1951062e-03
  8.9529436e-03
 -2.8735748e-02
 -9.5505314e-03
 -2.1632875e-03
  2.0787951e-03
  3.6736333e-03
  2.2304454e+00
  2.9360917e+00
  4.4992843e+00
 -2.1963537e+00
 -5.0435269e-01
 -4.6115837e+00
 -8.8283318e-01
 -7.8363270e-03
  3.5082819e+00
  8.3718634e-01
 -6.0752684e-01
 -1.0568304e+00
  7.1946907e-01
  2.5141692e+00
 -7.1040386e-01
  1.4322454e+00
  1.5949149e+00
  8.8459915e-01
  2.8172076e+00
 -3.1451470e-01
  3.5762906e+00
 -3.9759672e-01
  8.2636201e-01
  5.6104403e+00
  1.8537362e+00
 -7.0503682e-02
 -9.6384948e-01
  1.8933581e+00
 -1.2770823e+00
  1.2068323e+00
  1.6199882e+00
 -5.4927695e-01
 -9.7520125e-01
 -8.0921257e-01
  1.3432788e+00
 -2.3409572e-01
 -8.5164234e-03
  5.5958241e-01
 -5.6224823e-01
  1.2035843e+00
 -4.7907751e-02
  6.7279459e-04
  6.7984284e-04
  1.2653657e-03
  9.3538075e-04
 -1.4078511e-02
  8.1767380e-04
 -2.8349613e-03
  4.9049007e-03
  2.1177573e+00
 -1.8915138e+00
  2.3246241e+00
 -5.1641619e-01
  2.0956178e+00
  6.4027476e-01
  2.8079472e+00
 -5.3727010e-04
  8.5637867e-01
 -2.3650524e-01
  1.1506171e-02
 -3.2101709e-03
 -4.0793051e-03
  1.1403617e+00
 -9.2278904e-01
  3.5135606e-01
 -1.2153473e-01
  1.9254421e-01
 -3.0487347e-01
 -2.6832321e-01
 -1.1166448e-01
 -5.7608979e-03
 -1.7535571e-03
 -4.9931947e-03
 -1.2091569e-01
 -5.0826196e-02
  3.4284356e-01
 -2.4369946e+00
  2.6726792e-02
  1.4309994e+00
 -1.9247703e-02
 -1.7050745e+00
 -1.0589252e-02
 -4.5606894e-03
 -4.9979690e-01
 -2.7284957e-02
 -4.0593997e-01
  2.4069208e-03
 -1.3022721e-03
 -2.5018777e-03
 -3.6600290e-03
 -6.2369630e-03
 -6.4235665e-03
 -3.8423249e-04
  1.8040229e-03
  2.4920588e-04
  4.4328109e-03
  2.9170443e-04
  8.5304454e-03
  3.9513302e+00
  3.0105703e+00
 -2.4405534e+00
  6.6588618e-02
 -1.0214350e-01
 -4.8272243e+00
 -1.5969080e+00
  2.1336499e-01
 -1.8084328e-01
 -1.7524596e-01
  6.1482924e-01
 -2.3415457e-03
  2.2085626e+00
  9.1382599e-01
  1.2739260e+00
 -2.2741890e-01
 -1.0708488e+00
 -2.5624194e+00
  9.0881789e-01
 -1.6961529e+00
 -3.0601261e+00
 -2.0536041e+00
 -2.1508778e-03
  4.0104234e-04
 -1.0366914e+00
  5.2928203e-03
 -8.7119222e-01
  4.4087424e+00
  1.3265951e+00
  2.0606768e+00
 -6.9781280e-01
 -8.7337178e-01
 -2.9358838e+00
 -2.7958355e+00
  8.5916138e+00
 -3.9760615e-03
 -3.1258817e+00
  6.0391487e-03
 -6.1160058e-01
  4.4040447e-03
  2.0981671e-03
  2.3662990e-01
  2.2753899e-03
  8.3885305e-03
  1.1948794e-03
 -2.6433824e-03
  3.0360008e-03
  2.2688340e-01
  2.2501704e-01
 -2.5084662e-01
 -1.3065897e+00
 -4.1817594e-01
  3.3184943e+00
 -5.7634741e-01
  1.1109408e+00
  9.7594547e+00
 -2.0666678e+00
 -7.2446197e-01
 -2.1418049e+00
 -9.7156316e-01
 -7.9113179e-01
 -2.3194298e-03
 -4.2030737e-01
 -6.1573952e-01
  2.4777405e+00
 -3.1860135e+00
 -4.1119928e+00
 -1.7597942e+00
  1.0439366e+00
  3.1885761e-01
 -7.8572989e-01
 -2.2782934e+00
 -1.5994827e+00
 -1.1714339e+00
  3.7085645e-02
  1.5015034e-01
  2.2306042e+00
  3.6547291e-01
 -2.8118722e+00
 -2.7418554e+00
  3.9215228e-01
  2.6380305e+00
  1.8277143e+00
  1.5242037e+00
 -3.7407199e-01
  1.0338783e-01
  2.0883647e-01
 -3.2561958e-01
 -1.4572635e-01
 -8.8762753e-03
 -5.5664146e-01
 -5.0005531e-03
  3.8162670e-03
 -1.3570237e-03
 -5.6961289e-04
  1.6004089e-02
  8.2246643e-03
  4.5282268e-03
  2.2820805e-01
 -9.5536119e-01
 -2.4981339e-01
 -9.7363007e-01
  1.1981191e-03
  2.5936935e+00
 -5.0036079e-01
 -3.3149301e-04
  2.7277553e-03
 -9.5247552e-03
  7.1898612e-05
 -3.7863012e-03
  1.0267341e-02
 -1.8661093e-02
  7.7600568e-03
 -3.2168534e-03
 -2.9151726e-01
 -1.7373301e-01
  1.1474770e+00
  2.3340178e-03
  5.3707838e-01
  6.3193617e-03
  1.4547252e-03
 -4.3742076e-01
  8.9772064e-03
  2.1471465e-02
  2.4446340e-03
  1.0314996e-02
 -4.7786459e-03
  8.7348260e-03
 -6.8089534e-03
 -2.4316865e-03
 -2.5632619e-03
 -3.4927740e-03
 -6.4249900e-03
  3.7303800e-03
 -5.7245005e-04
  4.9992716e-03
 -1.5336722e-03
 -1.8069285e-03
  3.2221430e-04
  3.6670705e-03
  1.9900431e-03
  4.0130885e-03
  4.8812786e-03
 -2.2207764e-03
 -6.5209344e-04
  2.2343756e-03
 -4.1595292e-03
 -1.5712290e-01
 -1.9102139e-02
 -5.3590584e-01
 -1.1030712e+00
  2.2057779e-02
 -1.8319266e+00
  1.2829622e+00
 -5.4599144e-03
  8.5786767e-03
  4.5935898e-03
  3.2953606e-03
  3.0235830e-03
  4.3387839e-01
 -1.8933376e-03
 -1.4446996e-04
  6.9688410e-01
  1.3921459e-01
  1.7206749e-01
  1.7198377e-04
  8.0323145e-02
  4.1775517e-03
 -5.3694840e-03
 -5.0520832e-03
  2.5695328e-02
  9.2113996e-03
  8.7214168e-03
 -1.1659090e-03
  1.5862647e-01
  1.8046091e-03
 -8.2807761e-05
  4.5017423e-03
  2.6213455e-01
  2.4233939e-02
  5.7654316e-03
  1.5010087e-01
  2.8180890e-03
  4.6478454e-03
 -7.1045533e-02
 -1.1595926e-02
  1.4764348e-02
  2.5807254e-03
  1.0195996e-03
  7.2123417e-05
  1.0914847e-03
 -1.1766545e-03
 -2.5388792e-03
  4.7325445e-03
  2.2688482e-04
 -1.6572659e-03
 -2.7855033e-01
 -2.5485117e+00
 -3.2313070e+00
  8.4544456e-01
 -4.4321189e+00
  2.9879780e+00
 -2.7613473e+00
  1.3758119e+00
 -1.0000814e-01
  2.4581996e-01
  3.2771232e+00
  2.2448549e+00
  1.2640171e+00
 -5.8862150e-01
  1.9828280e+00
 -2.4688558e-01
  1.6684582e+00
  6.8784392e-01
 -2.1956855e-02
  7.6157844e-01
 -1.0859973e+00
  7.9516798e-02
 -1.9593614e-03
  5.3087301e+00
  2.7714092e-01
 -1.6231326e+00
  5.3759210e-02
 -2.3010084e-01
  7.2037601e-01
 -1.5479397e+00
  2.2744937e+00
 -5.7391271e-02
 -2.1142259e+00
 -5.8065850e-02
  4.7817631e+00
  9.8122433e-03
  1.9667819e-02
 -1.9866859e+00
  1.0217795e+00
  3.6281825e-03
 -3.0295765e-01
  2.0587385e-02
 -1.4127009e-03
 -1.2111094e-02
 -4.9012229e-03
  2.1854877e-03
  1.2593276e-02
  1.5739466e-03
  4.9514491e-03
  3.0584681e-01
  1.4182028e+00
 -1.2278068e+00
  1.3754283e+00
 -1.0002594e+00
 -4.9534497e+00
 -1.3191074e+00
 -1.3734990e+00
  8.3563191e-01
  5.9614086e+00
  1.4557340e-03
  2.0114419e+00
  1.6660715e-02
 -5.2526430e-03
 -5.2419691e+00
 -1.0583674e+00
  9.6392071e-01
  1.1507187e+00
  7.4150372e-01
  5.2553747e-02
 -7.2423115e-02
 -1.1365359e+00
  1.3122164e-01
  3.0332890e+00
 -8.9735556e-03
  3.4480853e+00
  1.0857285e-03
 -3.7074129e-03
  3.7230882e-01
  8.3527975e-03
 -1.1832545e+00
 -1.5553062e-01
  1.4280280e+00
  1.9505374e-03
  7.8668183e-01
  9.4537038e-01
  7.4904531e-01
 -3.6316884e+00
  1.5660351e-03
  3.9218206e+00
 -1.7702274e-03
  4.4076391e-03
  1.4586108e-04
 -1.6338330e-02
  3.7928534e-01
  5.1368014e-03
 -2.6818457e+00
  1.7350725e-03
 -8.1973331e-04
  9.0484701e-02
 -6.7633094e-04
  7.0736012e-03
  8.3636977e-02
 -1.0379140e-03
  7.4646884e-01
  5.6943265e-03
 -4.6056375e-04
  8.3681312e-04
 -4.3388878e-05
  2.1123039e-03
 -9.7157694e-03
  6.7398297e-03
 -1.4627328e-03
  1.0943261e-02
  1.0869997e-03
 -3.7988978e-03
 -2.4525591e-03
  1.5730923e-03
  1.1103863e-02
 -1.4208910e-03
 -5.8404082e-03
  2.4274997e-03
 -3.2280756e-03
  3.5263959e-03
  1.1618199e-02
 -1.8135270e-02
  2.1140666e-03
 -1.6229259e-03
  2.2438790e-03
 -5.6796395e-03
  2.1596097e-03
  1.5985256e-03
 -4.6806620e-03
 -3.5582446e-03
  7.8822523e-03
  1.4362185e-03
  3.6801675e-03
  7.1528121e-03
  1.9250965e-02
  2.5557640e-03
  2.7978979e-03
 -2.5183458e-03
  8.5519772e-04
 -1.1019589e-02
 -5.0158808e-03
 -2.0462123e-03
 -5.6800246e-03
  6.2602926e-03
  4.1417618e+00
  4.5521710e-02
 -1.5287033e+00
  1.6320463e+00
 -2.9409101e+00
  5.6306208e-03
  3.0143359e+00
 -8.6663461e-01
  4.7714967e-01
 -3.3090336e-03
 -4.8554924e-01
  4.5422903e-01
 -3.9602104e-01
  2.2397275e+00
  1.5636613e+00
 -1.8267353e+00
 -1.4383212e+00
  1.4323361e+00
 -2.7347531e+00
 -1.0005866e+00
 -2.1299324e+00
  8.6614817e-01
  3.3520764e-01
  2.8395009e-01
  6.7165679e-01
 -8.7304413e-01
 -1.6204031e+00
 -1.6956495e-02
  1.5591079e-01
 -1.4726274e+00
 -1.8384574e-01
  2.5005574e+00
  9.0393402e-02
  1.2986672e+00
  3.7133925e+00
  6.3812542e-03
 -3.6216035e-02
  4.5941188e-03
 -4.7935790e-04
  3.1996697e-01
  2.5197887e-03
  3.5112912e-03
  1.0907881e-02
  3.9441218e-03
 -9.1851270e-04
 -4.4503636e-03
 -4.3039778e-03
  4.1259825e-03
 -2.8125802e-03
  7.0425606e-01
  3.9555645e-03
 -4.1820034e-01
  2.8265202e-01
  2.6960417e-03
  3.6436105e+00
 -4.8477650e-02
 -2.2439968e-02
  3.7267949e-03
  1.0056043e-01
  7.3355150e-01
  1.0534550e+00
  1.2460893e-01
 -1.7486075e-01
  4.8336259e-01
 -3.2052192e-01
  1.6379995e+00
 -6.7893786e+00
  7.0486397e-01
 -2.2611566e+00
 -1.7835318e-01
  9.2210674e-01
  4.1191593e-02
  4.3752626e-01
  1.1162727e+00
  6.4485681e-01
 -1.7153229e+00
  1.6974502e-04
  3.9612204e-01
 -1.1984949e-03
  1.7114176e-01
  7.9480219e-01
  1.0631378e+00
 -1.3615475e+00
  4.7228150e-03
  1.1747026e+00
 -1.8372502e-03
  3.3519575e-01
  1.6638656e+00
 -3.1626415e-01
  1.7957355e+00
 -2.3909574e-03
  2.1175458e-03
 -7.8666052e-03
  8.4118815e-03
  2.5935182e-03
 -1.0074329e-03
  5.8919571e-02
  1.7986923e-02
 -8.2647890e-02
 -2.5135422e+00
  2.7343755e+00
  4.2202516e+00
 -4.3304100e+00
 -2.1817777e+00
  1.9199113e+00
  3.1880548e-03
 -4.3427128e-02
  4.4078004e-04
 -1.3623191e-03
 -2.9549689e-03
 -3.3071297e-01
 -6.6348771e-04
  1.1576863e-03
  5.1959783e-01
 -8.2728736e-02
 -2.8082207e-01
  1.3542332e-01
 -1.4162675e+00
 -3.8644168e-01
 -5.3928804e-01
  3.0890496e-03
  5.1966063e-03
  1.6305548e-03
  2.1316831e-01
  5.6770151e-03
  1.6547880e+00
  5.7587457e-01
  5.6426865e-01
 -6.5630875e-03
  1.2427328e-01
 -4.8895702e-01
 -1.1793321e-01
  2.2811937e+00
  4.8173694e-03
 -3.0576572e-01
  1.1108276e-02
 -4.2701457e-03
  2.1255633e-03
 -4.6407813e-03
 -6.3307959e-01
  6.1206552e-03
 -7.3661311e-03
 -2.9102915e-03
 -7.6962155e-03
  1.8161527e-03
 -1.9148753e-03
 -1.4538837e-03
 -1.7138544e+00
 -2.7643859e+00
 -1.2691483e+00
  5.6115575e+00
  1.7890738e+00
 -1.2924500e-01
  4.1897793e+00
 -1.2371233e+00
 -9.3324965e-01
 -1.5186448e-02
  8.1837457e-01
  1.0583667e+00
 -3.7785971e+00
  2.1642742e+00
  1.4261227e+00
 -1.9230189e+00
 -1.5852615e+00
  1.2309308e+00
 -1.2342024e+00
 -2.0172994e+00
  1.2708218e-01
  2.4240740e-01
 -1.3804159e-01
 -1.6736978e-01
 -6.4190817e-01
 -1.2067809e+00
 -1.1492149e+00
 -8.4662244e-02
  3.6881708e-03
  5.7619095e-02
 -3.6868434e-03
  2.3455350e+00
 -3.1758291e-01
 -7.6917863e-01
  2.4293861e+00
 -2.0227489e+00
 -6.5245336e-01
  5.8550155e-03
 -4.9276664e-03
 -8.9457165e-03
  1.0792736e-04
  1.4785458e+00
 -8.4695488e-02
  2.1621259e-03
  8.3346497e-03
 -5.2246243e-02
 -2.7146605e-03
 -6.1298222e-03
 -3.9957889e-04
  1.5888380e+00
  1.8723311e+00
  2.1038637e+00
 -1.3692890e-01
  4.3794066e-01
  1.7144445e+00
  7.3865340e-03
 -1.8900214e+00
  5.2167702e-01
  4.2599077e+00
  5.9352338e-02
  3.1614916e+00
  3.7696230e+00
  5.3400719e-01
 -7.0249355e-01
  1.5091727e+00
  2.6648428e+00
 -1.8588411e+00
  8.3287197e-01
  2.0040467e+00
 -5.9399974e-01
  5.1045716e-01
  6.0950267e-01
  1.1480277e+00
 -2.0989537e+00
 -1.5719640e+00
  1.0262712e+00
 -2.4879248e-01
 -1.4164668e+00
  2.0704813e+00
 -2.2411420e+00
  1.2943681e+00
 -3.1130900e+00
  1.8989822e-02
  9.7783899e-01
  1.9234516e-01
 -1.1745952e+00
  4.6334544e-01
  2.3193765e+00
  2.8398913e-01
 -6.0188961e-01
  7.9769707e-01
  6.5204000e-01
 -1.0673784e-02
  1.1074836e+00
 -2.0074050e-03
 -1.3289317e+00
  1.5925473e+00
  2.2676110e-03
 -1.1327410e-03
  9.2199594e-03
  2.0682206e-03
 -2.7623071e-04
  1.2328823e-03
 -1.7739822e-03
 -1.1588527e-02
  1.1647886e-02
 -8.7329764e-03
 -1.6661038e-03
 -6.5367419e-04
 -8.0047930e-03
 -8.0880644e-03
 -1.0547973e-03
  5.2210148e-03
  7.3754531e-03
 -1.2270072e-03
 -3.3157896e-03
  5.3546112e-03
  6.2308641e-04
 -3.0460371e-02
 -1.5398598e-03
  6.6615531e-04
 -1.2064793e-02
  3.4614073e-03
 -1.3884711e-03
 -2.2171788e-04
  6.9737672e-03
 -4.2576549e-04
 -8.1560604e-04
  9.1268355e-03
 -9.2406981e-03
 -8.6059570e-03
  3.8542403e-03
  1.6035304e-03
  6.7371903e-03
 -2.3045263e-03
  1.5823927e-03
  5.3747795e-03
 -1.7987231e-03
  1.9775520e-03
 -2.0405201e-03
  1.7656385e-03
  9.3783429e-03
 -2.4604807e-03
 -8.9353658e-03
 -1.0996128e-03
  4.7513572e-03
  5.5261063e-03
 -2.7963206e-01
  2.1022265e-03
  4.1260617e-03
 -1.8944421e-01
  3.2046139e-03
 -8.2960880e-01
  5.0014239e-03
  3.3790476e-04
 -1.6791221e-04
  2.3199760e-05
  1.8227041e-03
  2.1779977e-03
  5.1693537e-04
  2.6477268e-03
  6.2220957e-04
  5.4834802e-03
  3.3913534e-03
 -7.9022711e-03
 -1.8305635e-03
 -1.5002049e-03
  7.1772519e-03
 -6.2313266e-03
  9.8875153e-04
  3.9123637e-03
 -1.5132258e-02
 -2.6651160e-03
  7.9022506e-03
  1.0346510e-02
 -2.2303532e-03
 -2.5609145e-03
 -5.1662950e-03
 -2.5131898e-03
 -4.2799795e-03
  1.0024648e-02
 -5.7778293e-03
  3.8742819e-03
 -2.7124234e-03
  4.4514844e-03
  4.1911048e-03
  3.0896342e-03
  4.7773854e-03
 -9.9144289e-03
  2.1308217e-04
 -8.6880469e-04
  4.9584790e-04
  1.6730577e-03
 -2.3656677e-02
 -5.0634257e-03
  1.4256427e-04
 -1.0341556e+00
 -1.1360285e+00
  2.7724204e-03
 -1.6165383e+00
 -1.5389273e-01
 -4.7026256e-01
 -4.4091697e+00
 -1.6040753e-03
 -3.0735706e-03
  6.5574972e-03
  8.2670217e-03
  2.1225377e-03
  9.5022582e-03
 -9.0905646e-04
  4.1348994e-02
  2.7086835e+00
 -9.4684651e-03
  3.7253699e-03
  1.6489518e+00
  1.4524692e+00
  5.1997048e-01
  7.8324955e-03
 -1.3995877e-02
  1.1187403e-02
 -2.5365667e-03
 -1.5597495e-03
 -2.0055875e-02
  3.6530350e-03
 -5.9942510e-03
  4.5802989e-03
  8.9022629e-02
 -7.3732779e-04
  4.2906460e-01
  3.2327750e-01
 -5.0902111e-03
  3.8956911e-03
 -1.1687309e-03
  8.9792199e-03
  1.0336230e-02
 -6.2434287e-03
 -1.3452782e-02
  3.7598829e-03
  2.2594528e-03
  1.2206229e-03
 -2.2797973e-03
  5.8355997e-03
 -3.7038389e-03
 -2.1144538e-03
 -3.2120459e-03
 -2.4251755e-01
 -4.0641747e-04
  5.6321919e-03
 -2.3072138e-03
  9.0062991e-03
 -6.4201730e-01
  5.1411279e-02
  6.3774167e-03
 -6.8842433e-03
 -6.0851459e-04
  1.2221694e-03
  4.0461082e-04
 -7.2792033e-03
 -6.7710520e-05
 -4.6215975e-03
  9.3959300e-03
 -8.3179038e-04
 -3.5949387e-03
  5.9999707e-03
  4.2836196e-03
 -6.5109199e-03
  3.0556098e-03
 -1.1407316e-03
 -2.0989964e-03
  3.8198508e-02
 -5.5234726e-03
 -2.2800989e-03
  5.0814124e-04
 -1.6718869e-03
 -1.5880358e-03
  4.9426802e-03
  7.5202463e-03
  8.0754532e-04
 -6.3462895e-03
 -1.4655892e-03
 -2.0335345e-04
 -5.2306766e-04
 -6.2798918e-03
 -8.0902723e-04
 -5.6905919e-03
  3.6763370e-03
  2.5260777e-03
 -5.9766700e-03
  1.1653713e-03
 -1.5380617e-03
 -1.4667939e-03
  7.4699253e-04
  1.1662308e-03
  1.4014490e-03
  3.1503165e+00
  4.8220305e+00
  1.5013403e+00
  7.0626721e+00
  5.3180611e-01
 -4.2348328e-01
  1.4201198e+00
  2.5207644e+00
 -1.2119490e+00
  4.2899265e-03
 -1.3728119e-01
  2.2091600e-01
  6.4666597e-03
 -1.5703304e+00
  1.0062152e+00
 -4.6563411e+00
 -4.0594995e-02
  2.0081544e+00
 -1.5704451e+00
  2.7083766e-01
  1.1921843e+00
 -5.3790647e-01
 -1.4268316e+00
  1.1060981e+00
 -9.8586142e-01
  1.6140045e-03
  8.6602969e-03
 -1.5614308e+00
  1.2479733e+00
 -2.5815263e+00
 -5.9639311e-01
 -3.3882803e-01
 -1.2835461e-01
  9.9990177e-01
 -2.4777513e+00
 -4.3550491e-01
 -6.1055714e-01
 -1.6820802e-01
  1.8407026e-04
  1.6429356e-03
 -2.9923455e-03
  8.3717138e-01
 -2.1345313e-03
  2.3704150e-03
  6.3627991e-03
  1.0961995e-02
  6.6006690e-04
  5.7729399e-03
 -3.5190298e-03
  1.0468552e+00
  1.2810848e+00
  1.4112294e-01
 -2.0650024e+00
  9.5159596e-01
  5.7989264e-01
  1.2798882e+01
 -2.1135837e-03
  1.8666215e-03
 -7.3820823e-01
 -2.4622690e-03
  4.5753682e-01
 -1.2965902e-02
 -2.8132766e-03
 -2.7114645e-01
  4.0897214e-01
  1.4677323e-02
 -1.7317487e+00
 -8.9983100e-01
  3.9870609e-03
  2.2724710e+00
 -6.0930616e-01
 -5.1951587e-01
 -3.2600851e+00
 -7.4998803e-02
  1.3202693e+00
 -2.1851542e-03
 -2.9874466e-02
  4.6027419e-03
  1.6494129e+00
  1.2857566e+00
  1.7577949e+00
  2.7058535e+00
  6.2406912e-02
  1.2598088e+00
  4.0841675e-03
  5.3928804e-01
  3.3010583e+00
 -4.8615053e-01
  3.5459083e-02
  9.9869799e-03
  2.7116379e-01
 -1.7917188e-03
  1.0624781e-03
 -7.3845522e-03
 -3.4440311e-03
  9.0366099e-03
  1.5245421e-01
 -5.3615769e-04
 -1.0665638e+00
  1.5306289e+00
 -1.5685925e+00
 -9.1186680e-02
  1.5392462e+00
  3.4676230e-01
  2.2083328e+00
 -4.2034895e-05
 -5.0434452e-01
 -4.7831666e-03
 -5.7922226e-01
  2.9319561e-01
 -1.2150810e+00
 -2.9342877e-02
  3.0898130e+00
 -1.5188088e-01
  1.2952064e-01
 -5.7532287e-01
  1.2648519e+00
 -9.6044829e-03
  3.5746143e+00
 -7.2845758e-04
 -8.9422888e-01
 -5.3498620e-01
  1.5554990e-03
 -7.0173585e-01
 -2.1764396e-03
 -1.1726901e-01
 -4.6000324e-04
  6.6857666e-01
  1.7482289e-03
  4.1784549e-01
 -6.5559999e-04
  2.8519905e-01
  1.8598002e-01
 -1.2013247e+00
 -6.4209476e-04
 -2.4615103e-01
  1.2275533e-02
  1.5285199e-06
  4.1927129e-04
  5.2265581e-03
  1.5765218e-03
 -9.2601031e-03
 -1.0406402e-03
 -5.1287590e-03
 -5.9951306e-03
 -1.8302078e-03
  1.1859830e-02
  2.1028101e+00
  1.1143592e-03
 -3.9398381e-03
  1.7173251e+00
 -9.6148730e-04
  5.4812843e-01
 -3.5385668e-01
 -4.0496788e-03
  9.6042949e-04
  7.0167661e-01
  7.9548275e-03
  3.3809137e-01
  8.7792948e-03
  1.1783772e-02
  3.2980251e-01
  2.3508243e-01
  5.3353554e-01
 -9.3060650e-04
  6.7345208e-01
 -2.0230289e-01
 -1.7850535e-03
  7.6748792e-04
  4.4801898e-04
  6.2916428e-03
  2.3641772e-04
  2.2098259e-03
  1.1125560e-03
 -1.8511665e-04
  1.9364356e-01
  3.5382949e-02
  1.6773868e+00
  7.3630816e-01
  1.6265255e+00
  6.9470835e-01
  1.3668606e-03
  7.6467090e-04
  4.8469654e-03
 -6.8643883e-02
  6.7158830e-03
  3.9508006e-01
 -2.5702987e-03
 -3.0677981e-04
 -3.2630693e-03
 -5.4795770e-03
 -2.0118975e-03
 -2.9404995e-03
 -9.8312972e-04
 -8.6082174e-03
 -8.3751213e-03
  9.3837827e-02
  2.1758517e-03
 -1.6604215e-03
 -2.1623440e-02
 -3.8438633e-03
  1.0527509e+00
 -9.2151379e-03
  5.2352380e-03
 -4.0267031e-03
  6.4825076e-03
 -5.7305614e-03
  1.9278389e-04
  5.4236143e-03
 -2.9804308e-03
  3.1515581e-03
 -3.9662970e-03
  5.9043610e-04
  3.4860601e-03
  1.7500299e-03
  2.3593509e-03
 -3.9471383e-03
  1.5041203e-04
  1.2306890e-02
  6.5985988e-03
  7.3271533e-03
 -4.1974769e-03
 -8.6332427e-04
  9.7894771e-03
 -2.7645791e-03
 -4.0881787e-03
  1.9998677e-02
  1.6495815e-04
  1.2054371e-03
 -1.0009181e-03
  5.3358926e-03
  4.9508940e-03
  8.8353129e-03
  1.1854495e-02
  1.0115035e-02
 -1.7006582e-03
  8.1272656e-03
  2.3331479e-03
  2.0706779e-03
  8.9954250e-07
  4.8080762e-03
 -2.3482640e-03
  4.9560014e-03
 -6.7862193e-03
  3.4940529e-03
  2.0613159e-01
  4.8680324e-03
  1.7753444e+00
 -1.0771769e-01
 -5.4224020e-01
  3.5703939e-01
 -2.1100210e-01
 -5.0897975e-03
  1.0073099e-02
  5.1531610e-03
  3.4439482e-03
 -1.7136548e-02
  4.3054335e-03
 -1.0181420e-03
  6.7213438e-03
 -1.9250880e-03
 -1.4891648e-03
  7.2750803e-03
  4.6500372e-04
 -6.3258652e-03
 -1.7133843e-03
 -1.1418278e-02
 -4.7492250e-03
  5.2202418e-03
  5.3919340e-03
 -9.9879235e-04
  1.3444899e-03
  4.8152874e-03
 -2.2746085e-03
 -1.5749941e-03
  4.9958308e-03
 -2.1533738e-03
  4.4367444e-03
  6.1095571e-03
  1.6768090e-03
  1.0821090e-02
  8.1359930e-03
  5.7305786e-04
  2.2570021e-03
 -1.4984367e-03
 -1.0610879e-02
 -7.8538815e-03
 -2.4830801e-03
 -1.7196627e-02
 -5.4605287e-03
 -5.4542962e-03
  1.1204163e+00
  1.9419547e-03
  1.9135615e-03
  1.1775090e+00
 -1.4370674e-04
 -4.9330369e-03
  1.1743599e-01
  3.8822878e-03
  2.4026541e-01
  1.0924725e-01
  2.5209005e-03
 -1.9725596e-03
 -5.1046032e-03
  4.5929709e-03
 -9.3751065e-03
  5.0366507e-03
 -1.1150985e-03
  7.0472439e-03
  1.3714900e-03
 -1.6725392e-03
  2.0369913e-03
 -1.2829036e-03
  1.0986679e-02
  6.9650565e-04
  5.9901471e-03
 -1.0335376e-02
  3.5596776e-04
  6.3367427e-04
  9.5693767e-03
 -4.0384470e-03
 -4.7367918e-03
 -4.8713785e-04
  2.2585383e-03
 -1.7388075e-04
  2.2754646e-03
  1.4405355e-03
  3.7160048e-03
  2.4489968e-03
  5.5026244e-03
  4.6603368e-03
 -3.4259504e-03
  8.6461026e-03
  9.2568582e-05
 -5.0876639e-04
 -2.9213449e-03
 -8.0595631e-03
 -2.8423904e-03
  7.4074930e-04
  5.5199228e-03
  9.6761417e-03
 -2.8815398e-03
 -2.4795558e-03
 -5.6113684e-01
  1.7491842e-03
 -6.7555427e-04
  1.3384181e-01
 -5.5674147e-03
 -4.0343937e-01
 -3.4150046e-01
 -3.7585394e-03
  2.5109372e-03
 -6.2818839e-03
 -7.2965571e-03
  6.0359944e-05
 -5.2688220e-03
 -1.0324553e-02
  3.4864433e-03
  7.7994529e-04
  7.2360015e-03
 -3.1674143e-03
  9.3354122e-04
 -5.3352142e-06
  5.4405537e-04
  1.6694716e-01
 -1.0237043e-03
 -2.8529658e-03
  7.0482556e-04
  1.3495338e-03
  1.5392229e-03
 -3.8203404e-03
  2.4102016e-03
  2.4887404e-04
 -4.7714519e-03
  1.0335103e-02
  1.3413448e-02
 -7.6715893e-04
 -3.4713815e-04
  5.6590955e-03
  7.2000055e-03
 -4.0904880e-03
 -1.2548785e-03
 -1.3104606e-02
  2.2632629e-03
  4.0709891e-04
 -7.4907443e-03
  6.7111454e-03
  3.3065100e-04
  4.0088505e-03
 -7.3442603e-03
  6.8228743e-03
  7.7512949e-03
  2.0044177e+00
  1.2960677e+00
 -5.5752498e-01
  7.1026444e-02
  4.6370795e-01
  2.1090274e+00
 -1.5647870e+00
  1.1688140e-01
  5.8753890e-01
 -4.8902321e-01
  1.1335158e+00
 -2.4541185e+00
 -6.0141250e-02
  3.2724696e-01
 -7.7186388e-01
  2.2589984e+00
 -8.7495631e-01
 -1.0192956e+00
 -7.5607616e-01
  4.2712283e+00
  1.1025611e+00
  1.8251553e-01
 -2.5817907e-01
 -1.9175823e-01
 -6.1646616e-01
 -1.6645370e+00
 -2.8259180e+00
 -7.4962027e-02
 -8.5705930e-01
  3.4576905e-01
 -5.6479895e-03
  1.6845524e+00
 -1.1442100e+00
  1.3817360e-01
  1.2966683e+00
  3.5379038e-03
  6.9007124e-03
  8.1637049e-01
 -4.8700711e-03
 -7.3716134e-01
  1.0835139e+00
 -3.4586045e-01
  7.6752822e-03
  1.2174115e-02
 -5.3023093e-04
  9.0609044e-03
 -5.4608461e-02
 -3.1333005e-03
  3.0932119e-03
  5.8491931e+00
  2.3690743e+00
 -1.6384792e-03
 -1.1766253e+00
 -3.7092590e-03
 -5.0498290e+00
 -3.2922752e+00
  2.8863862e-01
 -1.4590448e-03
  2.4027296e-03
  6.8474019e-01
  1.2336749e+00
 -1.1098305e-03
 -6.0615102e-03
  3.3785129e+00
  5.1326048e-01
  2.9630181e-01
  2.1297369e+00
  5.0425696e+00
 -1.1113393e+00
 -1.6394608e+00
  8.2980692e-03
 -5.6305003e-01
  2.1676250e+00
 -4.2824723e-02
  4.8477955e+00
 -1.4546355e+00
 -1.7290248e-03
  4.4816872e-04
 -2.2170271e-03
  3.1398013e+00
 -2.4127316e-01
  5.3319257e-01
 -9.2811577e-02
  4.0831235e-01
 -7.7724671e-01
 -1.8979611e-01
  1.1657043e+00
  2.5184348e-01
 -5.3813010e-03
 -1.2707550e-03
  1.8538849e-03
  1.8526426e-03
 -5.1761570e-04
  6.2178186e-04
  3.2624745e-04
  1.9068651e-02
  6.0518002e-03
 -2.0513032e-03
  2.2920308e-01
  1.9694477e-01
 -1.4006460e-01
  1.6667844e-01
 -8.3289218e-05
  4.3207681e-01
 -1.6201404e-01
  1.8627072e-03
 -1.6192043e-02
 -7.4567308e-04
  1.3714940e-03
 -1.9863399e-03
 -4.5651845e-03
 -1.0550081e+00
  1.6975722e-03
  4.8447996e-03
  2.3571078e-03
  7.3580630e-03
 -1.1014239e-03
  1.5062146e-01
  8.3877621e-03
  3.8351994e-03
  1.8797482e-03
  4.7104373e-03
  2.7342760e-03
  1.4473600e-04
  1.2411601e-03
 -6.2452336e-03
 -8.1628943e-03
  1.6641594e-03
 -3.7653451e-03
  4.3698358e-03
 -1.3958557e-03
  7.5745257e-03
  2.3900671e-04
  1.1029858e-03
  4.6016611e-03
 -3.6124263e-03
 -4.5249777e-04
 -1.3644269e-03
 -2.9002225e-03
  3.3991747e-03
 -1.0914986e-04
  2.2947171e-03
  1.6933531e-04
 -6.6460320e-04
  1.3675567e-03
  1.6737827e-03
  1.7894630e-03
  3.4717363e-01
 -8.5413246e-04
 -7.7048130e-02
  1.4110142e-01
 -1.2490620e-03
  5.0478256e-01
 -2.5932840e-01
 -2.2585641e-03
 -7.6033077e-03
 -6.8297563e-03
  2.5083937e-03
 -3.0868351e-03
 -3.1411776e-03
 -1.9232523e-04
  9.8160957e-04
  5.0145346e-03
 -2.7599200e-03
 -1.5088560e-03
  6.6707693e-03
  1.8160208e-04
  2.1007204e-04
  3.2539954e-03
  9.3129103e-04
 -8.0547330e-04
 -1.0221314e-03
 -4.6724683e-04
 -4.7282041e-03
 -6.4089592e-03
  5.0550210e-03
  1.5000317e-02
  7.0602209e-03
  2.7562957e-03
 -1.8091872e-03
 -1.3870713e-03
 -1.0306421e-03
 -8.6822668e-03
 -2.2366592e-03
  4.5330664e-03
 -2.5359560e-03
 -4.8218155e-03
 -3.8469939e-03
 -2.4110617e-03
  2.4503528e-03
 -9.7820943e-04
 -6.5122857e-03
 -4.6245204e-03
 -2.1904882e-03
 -6.7216037e-03
 -7.4197822e-03
  1.3230196e+00
 -2.1935525e+00
 -1.3379131e-01
  1.1582100e+00
  1.9994606e+00
  3.2842224e-03
 -2.6725534e-01
 -9.7813934e-01
  6.4748389e-01
 -2.8291818e-02
 -9.9248236e-01
  3.0462427e+00
 -1.7831565e+00
  2.3206791e-02
 -4.0494645e-01
  9.9514145e-01
 -7.1624178e-01
  4.5439474e-02
  4.3872565e-02
 -1.9957256e-01
  1.1429479e+00
 -1.4736727e+00
  6.6780549e-01
  8.1067771e-01
 -3.0468428e-01
 -2.1254627e-01
 -8.0762237e-01
  1.4821650e+00
  9.2584366e-01
 -3.8852993e-01
  1.6395694e+00
 -8.9264697e-01
  1.0947304e+00
  4.9800858e-01
 -1.1716955e+00
  4.7171369e-02
  8.7069958e-01
 -1.5308934e+00
 -3.4513983e-01
 -2.1000248e-01
 -6.2090951e-01
  4.4954728e-02
 -7.3062708e-03
 -1.2092973e-03
  4.5025969e-01
 -2.6118364e-02
  2.1843521e-02
  4.7577270e-03
  3.0059472e-03
 -3.4569483e+00
  9.4280118e-01
 -1.0154836e+00
  4.3725772e+00
 -5.5750519e-01
  3.9708376e-01
  4.0577108e-01
  1.0898813e-02
  8.0495141e-03
  3.6354330e-03
  5.3630370e-01
  1.1368645e-03
  1.0683504e-01
  3.9973700e-01
  1.6129131e+00
  5.3128922e-01
  1.5667491e+00
 -5.0916332e-01
 -2.9261746e-03
  2.4392629e-01
  5.6333131e-01
 -3.2558336e-03
 -1.2199734e-02
 -7.4217930e-03
 -1.1610988e+00
 -3.2976478e-02
  8.5298187e-01
 -1.4813955e+00
  6.2189004e-03
  1.9355078e+00
  3.2854727e-03
 -7.4955606e-01
  8.8024095e-02
  6.1928248e-01
  5.2336639e-01
 -7.8817718e-03
  5.4880042e-02
 -1.6789747e-03
 -5.8380961e-03
 -1.8099729e-02
 -6.2026703e-03
 -3.5707909e-01
 -2.0138354e-03
  7.2660781e-03
  1.0933699e-03
 -6.4217943e-01
  9.6403778e-04
  4.0452546e-03
 -1.4096922e-03
 -1.6596369e+00
  5.5684085e-04
  1.3843128e-03
  9.8459572e-02
 -1.1099370e-02
 -1.9085217e+00
  1.8696525e+00
 -2.4002700e-03
 -2.5944419e-03
 -1.4826934e-03
 -7.3169279e-03
 -5.6756358e-03
 -4.4885618e-03
  4.0287930e-03
 -2.9760778e-03
 -3.3462609e-03
 -2.2980604e-01
 -4.5992220e-03
  2.7621606e-01
  5.5765235e-03
  3.6336889e-03
  5.1231182e-04
  3.4928805e-04
  1.7967923e-03
  4.1818153e-03
  4.7793970e-04
  5.3764163e-03
  6.1807153e-03
  6.1585796e-03
 -1.8628832e-03
 -5.2318518e-04
 -2.8024453e-03
  1.0718315e+00
  8.7226537e-04
 -2.2701519e-03
 -3.3459982e-03
  8.0999583e-03
 -4.9257767e-03
 -1.7676462e-03
  1.5814143e-03
 -4.4090906e-03
 -1.7697666e-03
  6.9995704e-03
 -3.8072709e-03
 -1.0422497e-02
  7.4605020e-03
 -2.4580758e-03
  4.9549276e-03
 -2.5129316e-03
 -5.5691564e-01
  1.4039020e-03
  4.0345471e-03
  1.6899852e-01
 -2.6411978e-03
 -1.8441751e+00
  4.1136378e-03
  6.2669446e-03
  3.7985118e-03
  2.2042904e-03
 -8.3107530e-04
 -4.8364704e-03
 -5.6475769e-03
 -5.0364174e-03
  3.4992644e-04
 -4.4190595e-03
 -3.2216486e-02
  5.9663557e-04
 -3.4026713e-03
  5.3906485e-02
  2.4303771e-03
 -2.3700793e-03
 -2.6657979e-03
  2.0124242e-01
 -6.9537788e-04
  5.5377455e-03
  1.9499076e-03
 -2.9981735e-03
 -7.9798052e-04
 -1.3677180e-02
 -5.5723917e-03
  8.3914108e-04
 -5.2072010e-03
  7.0839222e-03
 -6.5373704e-03
 -1.1773534e-04
  5.0396455e-04
 -8.7852543e-03
  6.1969650e-03
 -3.3882053e-03
 -9.3651959e-04
 -1.3733890e-03
  1.8617166e-03
  1.6632744e-03
 -9.3996329e-03
  3.1215590e-03
 -3.5870303e-03
  3.3269776e-03
  1.6392667e-02
 -4.9588630e-01
 -4.1954641e+00
  1.1918079e+00
  4.4200344e+00
 -2.7143142e+00
 -6.1855417e-01
 -3.5227776e+00
 -1.1606023e-01
  4.4156548e-02
 -1.2986749e+00
 -2.3597998e-03
 -1.2569039e+00
  1.2406251e+00
  4.4005029e-04
  9.3084216e-01
 -3.0632994e-01
 -1.2815570e+00
  1.1766698e+00
 -7.3911887e-01
  1.5120752e+00
  1.8164921e+00
  4.6892683e-03
  3.9744300e-01
 -2.6061278e-02
 -9.4920301e-01
 -7.2325593e-01
 -1.0292991e-01
 -1.9925119e+00
 -3.0430026e+00
 -1.1800263e-01
 -1.2799472e+00
 -1.4427618e+00
  1.5224817e+00
 -6.0255852e+00
 -4.9870114e+00
  7.6089627e-01
 -4.7913644e-02
 -1.4671226e+00
 -4.9922511e-01
 -5.3660089e-01
  1.2283704e+00
 -3.0296540e-03
 -9.0796994e-03
  4.5663030e-03
  5.4262904e-03
  2.5612065e-03
  4.9314871e-03
  9.0086358e-03
  4.4840672e-03
  2.5210047e+00
 -1.3071738e+00
  7.1789968e-01
 -1.7038025e+00
  2.6439586e+00
  1.1275669e+00
  1.5651350e+00
 -8.5866831e-02
  2.3287656e+00
 -7.5950744e-03
 -1.6558394e+00
 -1.9440689e-03
  1.2007453e+00
 -6.4688075e-01
 -4.9227335e-02
  3.0368969e-01
 -3.4580567e+00
 -9.7328240e-01
 -4.5972425e-01
 -1.6680834e+00
  1.3344232e+00
 -4.1977075e-01
  1.3374321e+00
 -2.6628610e-01
  2.3153603e+00
 -5.4214165e-02
 -1.7840910e+00
  4.2643157e-01
  1.5903430e+00
 -1.3400929e+00
 -7.5585759e-01
  1.8345414e+00
 -1.8919398e+00
 -2.1720643e+00
 -2.9041998e+00
 -4.7774306e-01
  4.2599404e-01
 -3.7030831e-02
 -7.4907869e-01
 -5.3430274e-03
  1.2557019e-03
  2.3614466e+00
  4.2016976e-04
  4.6563675e-03
 -2.3301768e-03
  5.8312649e-03
 -2.1982114e-03
  4.9175476e-03
  3.0690872e-03
  1.1684661e+00
 -2.3502784e-02
  6.2399566e-01
 -4.1279778e+00
 -1.6776813e+00
  4.4152290e-01
 -2.0110879e+00
 -1.3674480e+00
  3.2830574e-02
 -5.2817748e-03
 -2.0075748e+00
 -7.1115114e-02
 -1.6668462e-03
  7.6012564e-01
 -9.5889246e-01
  3.8697222e-01
 -6.6712004e-01
 -3.3818474e-01
  3.0484504e-01
  1.0972015e+00
  3.0018386e-01
 -1.8480956e-03
 -6.5778190e-01
 -6.9588608e-01
  4.2094463e-01
 -5.6161237e-01
  4.0754658e-01
  4.4897046e+00
 -5.3933632e-01
 -2.2876745e-01
 -5.5296451e-01
  6.2169671e-01
 -1.6772608e+00
  2.3293674e+00
  3.6781678e+00
  1.5040549e-02
 -2.1137174e-03
 -1.2832526e-02
 -2.3968656e-02
  8.6356610e-01
  6.0683137e-01
 -4.9089422e-03
  4.6369294e-03
  2.1117933e-04
  4.1472586e-03
  6.2108517e-04
  5.0386456e-03
  3.7998082e-03
  1.9019681e-04
  1.9033328e-01
 -1.5542052e+00
 -2.4887521e+00
 -2.1383858e+00
  1.2167886e-02
  5.3246576e-01
  1.4276035e-01
 -3.5408604e+00
  8.0132145e-01
  2.9533827e+00
  3.9114866e-01
 -3.0295432e+00
  3.3392222e+00
 -2.1157117e+00
  2.4605545e-01
  6.5163702e-01
  2.3894050e+00
 -2.1461689e+00
 -2.3907977e-01
  9.5710963e-01
 -2.9300308e+00
 -6.5011537e-04
 -2.1839540e+00
  1.8484609e+00
 -1.2063440e+00
 -3.4216332e-01
  1.5273278e+00
 -1.6720968e+00
  2.9561100e+00
  1.0166391e+00
  2.6361451e-01
  5.2129588e+00
  1.4509035e+00
  1.6261764e+00
 -7.3565607e+00
  3.5371828e-01
 -4.3035415e-01
 -1.7927830e-01
  4.7180474e-01
 -6.8912685e-02
  5.3610098e-01
 -8.4579307e-01
 -2.5797781e-02
 -7.7553503e-02
  5.7215514e-03
 -1.9241076e-02
  2.6360053e-01
  1.7188214e-03
 -9.0286257e-03
 -7.6463747e-01
  7.8973061e-01
  1.9695055e+00
  2.0730357e-01
 -4.2011994e-01
 -1.0475005e+00
 -3.1016701e-01
  9.9052626e-01
 -1.7917807e-01
 -6.9788760e-03
  9.6802615e-02
  4.2679966e-03
 -1.6235496e+00
 -4.1430604e-02
 -3.3059895e-01
  1.1052579e+00
 -3.4122206e-02
  4.7570428e-01
  8.1413651e-01
 -5.1293510e-01
 -2.2848840e+00
 -9.9617504e-02
  5.1634383e-01
 -5.4942340e-01
 -6.4917195e-01
  3.1182026e-02
  4.9173781e-01
 -2.2864074e-01
 -2.6429674e-01
 -1.0172856e+00
 -3.4861173e-03
  8.0992049e-03
 -3.1505367e-01
  1.1048291e-02
 -1.6434656e+00
 -3.0003145e-01
 -1.6087902e+00
  1.0311816e-01
 -5.7088369e-01
 -7.2432607e-01
  5.6276475e-03
 -2.2017546e-03
 -9.9047041e-04
  3.7465685e-03
  3.6610567e-03
  3.4029115e-04
  2.4061445e-03
 -2.5484746e-03
 -1.1447117e-02
 -2.4979625e+00
  2.3955002e+00
  2.3034072e-01
 -3.2609582e+00
  3.1129863e+00
  1.4380133e+00
 -5.7375512e+00
 -2.1954650e-01
  3.4082860e-03
 -4.9507338e-01
  8.6209066e-03
 -2.4320588e-01
  4.3465182e-01
 -3.4265745e-01
  7.9756981e-01
  4.5223102e-01
  3.8015046e+00
  1.1759068e+00
 -4.0191573e-01
  2.1643593e+00
  1.5923033e+00
  4.3371608e-03
  1.5443870e-03
 -6.0829204e-01
 -1.0720116e+00
 -1.4931589e+00
 -6.8631810e-01
 -1.4254371e-02
  2.6519775e-01
  1.2308700e+00
 -1.9265714e+00
 -4.7884068e-01
  1.0607202e+00
 -1.4855429e+00
  2.8072450e+00
 -6.2291676e-01
  1.5192936e-01
 -6.0833192e-01
  1.4349961e-02
 -2.5278678e+00
 -2.1121942e-03
 -2.2369076e-03
 -4.7339316e-04
 -5.2748946e-04
  2.0954942e-03
  5.3304485e-03
 -3.5358760e-01
 -1.8348817e-02
 -5.0465344e-04
  6.8942738e-01
 -5.8744568e-02
 -3.3504188e-02
 -4.7756261e-01
  1.8710861e-02
  3.8435333e+00
 -1.1867285e+00
 -4.8491093e-03
  2.5911829e-03
 -2.4646984e-01
  5.4486227e-01
 -1.5583309e+00
  9.2959320e-03
  1.1766661e-03
  1.4141841e+00
  1.0577907e-01
 -2.9723716e+00
 -3.6212483e-01
 -4.7027497e+00
 -1.8292731e+00
  1.2132742e+00
 -2.5033730e-01
  1.0740265e-01
 -5.0299293e-01
 -5.2716124e-01
 -2.7028630e+00
  9.2035328e-04
 -2.1829684e-03
 -4.2516231e-03
  1.9234762e-02
 -9.8651886e-02
  3.6824134e-01
 -1.7743614e+00
  9.2058800e-02
 -1.6306058e-03
  1.1814254e-03
  3.4434877e-03
 -7.9567069e-01
  8.3991010e-03
 -1.4654109e-01
 -2.5479144e-03
 -1.5813945e-03
  1.5885371e-03
 -1.3154818e-03
  3.0408037e-04
  4.3872488e-03
 -3.0573073e-01
  7.6326951e-03
  2.2889271e-03
  1.1654035e+00
  1.2878370e+00
  3.5570045e+00
  3.4442732e-01
 -1.8234422e+00
 -2.3019841e+00
 -2.6594839e+00
 -2.7496570e-01
  1.8408277e+00
 -1.1489578e+00
 -3.7637079e+00
  4.3433315e-01
  1.0947688e+00
  1.8015227e+00
 -5.1349944e-01
 -1.3780875e+00
 -2.1808999e+00
 -8.4742241e-02
  1.9973317e-01
 -3.4572780e-03
  3.3545879e-01
 -1.0617018e+00
  8.1274730e-01
 -6.9040841e-01
 -9.3818021e-01
  7.7605620e-02
 -3.7428498e-01
 -3.6272798e+00
 -2.0710247e+00
  4.7367897e+00
 -3.1171787e-01
 -2.4108820e+00
 -1.6548187e+00
 -5.8745003e-01
  1.8452936e+00
 -7.0796120e-01
 -1.1985943e+00
  1.8973323e-02
  5.4273415e-01
  1.8701587e-02
 -8.3849698e-01
  1.4894155e+00
 -2.1524590e-03
  2.5432758e-02
 -1.0060699e-03
 -6.5555698e-03
 -2.3984721e-02
  5.7436409e-03
  5.5493442e-03
 -6.0649914e-01
 -1.9209900e+00
  2.2412138e+00
 -5.9095817e+00
  6.4643610e-01
 -1.2033270e-01
  4.8427439e-01
 -6.0677179e-04
  4.2029057e-02
 -1.4983292e+00
 -3.0759373e-03
  7.2788668e-01
  5.8589488e-01
 -4.5994323e-01
 -7.1550328e-01
  1.1744690e+00
 -2.4917023e+00
 -1.6403167e+00
  7.0582628e-01
  6.6968542e-01
 -1.7457433e+00
 -1.0443217e+00
 -2.8560023e+00
 -7.7932709e-01
  1.1526688e+00
  7.6226103e-01
 -1.4162805e+00
  9.0724283e-01
  9.3332297e-01
 -2.6125393e+00
  1.1132979e-04
  9.4960576e-01
 -3.0697846e-01
 -2.4536628e-02
 -2.7917008e+00
 -1.2390687e+00
  2.4093913e-01
 -1.0318451e+00
 -2.1914082e-02
 -2.5133964e-01
 -4.7820825e-03
  5.1427567e-01
  5.4863477e-03
  7.0463619e-03
 -9.0658655e-03
 -1.8392690e-03
  1.2360635e-03
  1.6212637e-03
 -4.3320420e-06
  4.2212459e-01
  4.6061655e-03
 -3.6045646e-03
 -3.4408772e+00
 -1.3332805e-02
  5.2008324e+00
 -1.9441930e+00
 -1.0974548e-01
  6.8524792e-03
 -3.5223713e+00
 -3.3369282e-01
 -3.2718289e-01
 -2.8269297e-01
 -5.0676102e-03
 -8.8201374e-01
  3.7939958e-03
  5.1863174e+00
 -1.1305796e+00
 -6.3718815e+00
 -1.7689282e+00
 -3.6664649e-03
 -6.1584175e-01
 -5.4516997e-03
 -1.3521173e+00
 -6.2341124e-01
 -4.3784544e-01
 -6.8599468e-01
 -1.2241480e-02
 -6.8044462e-03
  4.6084155e-03
  2.5542178e-03
 -2.5632352e-01
 -1.6085094e-01
 -1.4981590e-01
  1.2565856e-02
 -4.1126662e-01
  1.1455374e-03
  5.8137959e-01
 -4.8430118e-01
 -1.6067092e-03
  4.7624007e-02
  1.5352730e-04
 -2.5689797e-03
 -1.5905466e-03
 -3.9080768e-03
 -6.3466784e-03
 -2.2193089e-03
 -7.1603223e-03
  4.1609425e-03
  6.0529602e-01
  1.5822174e-01
 -5.7667136e-01
  3.0561848e+00
  1.1576638e+00
  8.0576926e-01
 -1.0576128e+00
  3.6056975e-03
  2.0390801e+00
 -1.6803971e-02
  3.2975115e-02
  4.1489694e-01
 -6.0564023e-03
 -3.1407308e-04
 -9.9934167e-01
  5.9650612e-01
  1.2005562e-02
 -9.2492756e-03
  1.5243475e+00
  8.4176648e-01
 -2.0281370e-01
 -1.0084300e-03
  3.0247158e-01
 -1.1880470e-02
 -1.4734127e-03
 -4.6083420e-03
 -8.1174439e-03
  2.3341889e-03
  2.3149979e-01
  3.1052068e-01
  2.5262323e-03
  6.9424564e-01
  3.8765877e-01
  3.8826010e-01
 -6.9539152e-02
 -1.7581996e-02
  1.0132504e-01
 -2.9172152e-01
  3.2375047e-03
  3.6574358e-03
  3.3225295e-01
 -8.0432562e-04
 -2.8467416e-03
  4.1090008e-03
  3.0295174e-03
 -2.0678416e-03
 -4.5620585e-03
  2.8702870e-03
  6.1993357e-03
  2.3970863e-01
 -6.3496749e-03
  3.1385834e-03
 -3.7318170e-01
 -1.8231577e-03
  2.9451741e-02
 -9.2895366e-02
  7.0317877e-03
 -8.4742461e-04
  1.6235225e-02
  1.7574681e-02
  6.6025830e-03
  2.1682892e-02
 -5.9669971e-04
  5.0802964e-01
 -5.9731528e-03
  1.0293880e-02
  2.5504383e-01
 -3.1093929e-03
 -3.5629330e+00
 -1.4283840e-03
 -7.7805901e-03
  5.9650798e-04
 -4.1609649e-03
  9.2546338e-01
  7.8348555e-03
  2.7960324e-01
 -5.5465815e-03
 -8.3990386e-03
 -1.9081325e-03
  6.5250793e-03
 -8.2110660e-03
 -2.0445967e-03
 -7.1333454e-04
 -1.9658653e-01
  1.7992374e-02
 -3.7459948e-03
  1.4985337e-04
 -5.9919734e-04
  2.4081379e-02
 -2.4101071e-03
 -4.0402869e-03
 -3.0752987e-04
  1.9968632e-03
  1.2969883e-03
  3.7158492e-03
  6.0695712e-04
  6.4258375e-03
  8.7250583e-03
  5.7279903e-01
 -3.2489290e-04
 -3.2791412e-03
  1.0669089e-02
 -1.2370206e-03
  6.2156469e-01
 -1.0174316e-03
  2.0005736e-03
 -1.3727512e-02
 -6.2800376e-03
  6.5728510e-04
 -1.8151830e-03
  1.2568583e-03
 -9.0009272e-03
  1.5021923e-03
 -4.5102676e-03
  1.8078305e-03
 -4.2678886e-03
  4.1367970e-03
  4.1418863e-03
 -1.4866511e-03
 -5.9855130e-04
 -6.0722646e-03
 -1.6120158e-02
 -5.1945150e-03
  2.3106891e-03
 -5.6836312e-03
 -7.4552097e-03
  1.4733744e-02
 -2.2689663e-04
  7.1737804e-03
  1.4902060e-03
  4.3905494e-03
  3.7373214e-03
 -2.9414105e-03
 -3.2718293e-03
  7.4903818e-04
 -8.4863699e-05
  2.7445325e-04
  6.5185917e-03
  2.9619068e-03
 -1.0527122e-02
 -9.5218504e-03
  7.4169519e-03
  4.3376866e-03
  4.7256783e-04
 -7.2590861e-04
  2.1243631e-03
  3.9533703e-03
 -1.9994265e-01
 -1.7285015e-03
 -1.2700216e+00
  2.2472705e-01
 -9.2026696e-02
  7.5596857e-01
  5.6362856e-02
 -7.1962833e-01
  5.4539074e-03
 -3.5539469e-01
 -4.8278561e-03
 -4.9611643e-02
  7.7724881e-03
  1.3113184e-03
  7.8058273e-02
 -2.4300901e-02
 -2.5792589e+00
 -5.5794466e-01
 -2.4803932e+00
  1.9730637e-02
  1.9106237e-03
 -1.6051194e-02
 -6.7389309e-01
 -1.8820622e+00
  1.1865410e-01
 -8.7739068e-01
  1.3816250e-02
  3.6422978e-03
 -8.8830380e-04
 -7.0689549e-03
 -6.9819385e-01
  3.6333830e-03
  3.6467495e-03
  2.4878273e-03
 -5.3773522e-01
 -3.5642271e-03
  3.3010662e-04
  2.3759456e-01
 -1.4331662e-02
 -5.4427272e-01
  5.4570851e-03
  7.1859412e-04
  3.4577874e-03
  5.4602046e-03
 -3.8782661e-03
 -1.5397201e-03
 -1.8827912e-03
  5.1060191e-04
  3.2854679e-03
  2.7382894e+00
  2.4040055e+00
  7.7170295e-01
 -1.1749074e+00
 -3.7876737e+00
 -1.8317956e+00
 -1.4232713e+00
 -1.1605802e+00
  1.5305786e+00
 -5.1519919e-02
 -4.6458677e-03
 -1.0360113e+00
  8.3806897e-03
  1.9880853e+00
 -7.5967655e-02
  2.3804445e+00
  8.7741971e-01
  1.0211446e+00
 -1.8431296e+00
  7.6786500e-01
  1.5943210e+00
  1.0723528e+00
  1.1566668e+00
 -2.2665000e-01
 -1.1591079e+00
 -8.1320480e-04
  1.1309361e-01
  1.5687715e+00
 -1.8310328e-01
  1.4605644e+00
  1.1693036e-01
  1.9215385e+00
  2.2589482e-01
  1.0064545e+00
  4.8289526e-01
 -7.9974765e-01
 -9.1006601e-01
 -1.3133792e+00
  1.6837690e-02
 -5.2815378e-03
  1.2145106e-03
  7.5689042e-01
  1.0975052e-03
  4.1826675e-03
  3.8933489e-03
 -5.7292040e-03
  6.5633659e-03
 -5.8420477e-03
  9.1161986e-05
 -3.8775855e-01
  5.8555771e-03
 -1.0866288e-03
  7.7061169e-02
 -5.3022909e-03
 -6.9649261e-01
 -5.0681993e-02
  3.0189429e-03
  8.5378077e-04
 -1.0089241e-03
 -1.7282930e-03
 -1.5351180e-02
 -2.0964278e-02
 -3.1538086e-03
  2.1802646e-03
 -8.5644191e-03
 -1.0732012e-03
 -8.7441979e-03
  1.0141175e-02
 -5.7576452e-03
 -3.6747707e-03
  3.2222797e-03
 -2.8670095e-03
  1.0503803e-03
 -2.4755688e-03
  3.7737566e-04
  2.3731247e-03
  5.4148138e-03
  7.7666170e-03
 -1.2167992e-02
 -1.3337511e-03
  2.9087716e-03
 -3.1521946e-02
  6.3682050e-03
  1.1432520e-03
 -1.1118567e-03
  2.0391301e-03
 -2.9866206e-03
  2.6933346e-03
 -2.8992207e-03
  1.2622865e-02
 -1.0130627e-02
 -2.5647783e-03
 -3.2054142e-03
  2.2192148e-04
 -1.2923294e-03
 -1.0350405e-03
 -6.3365577e-03
  1.0451586e-02
  3.2807903e+00
  1.4704555e-01
 -1.0392776e+00
 -1.0673611e+00
 -4.8291526e+00
  5.7985291e+00
  4.8012619e+00
 -6.0794854e-01
  2.7230771e+00
  4.5742499e-04
 -1.4573680e+00
  3.0024889e-01
 -3.3834460e-01
 -2.6914761e+00
 -1.9178559e+00
  1.8935518e-01
  2.8122749e+00
  3.1099482e-03
  1.7220787e+00
 -3.8490412e-01
 -1.0042993e+00
  8.5571867e-01
  4.4085178e-01
  1.0126916e-01
 -3.0291965e-02
  1.1091759e+00
 -2.7875767e+00
  1.1341782e+00
 -5.9866154e-01
  1.2340558e+00
  3.8541126e-01
 -9.0308183e-01
  6.5502685e-01
 -8.7294634e-04
 -2.3853765e+00
  6.2921894e-01
 -1.7871350e-03
 -8.6243125e-03
  7.0036054e-01
 -2.2643793e-01
 -5.7518667e-01
  1.8295567e-02
  1.7169943e-02
  6.5569757e-03
  1.2677715e-02
  7.3006679e-03
 -2.5010842e-03
  1.7862276e+00
  1.2101769e-03
  1.5655478e+00
 -3.5356576e+00
 -1.2004247e+00
 -7.7026457e-01
  2.9679050e+00
  1.2227311e+00
  1.5099741e+00
  8.3390528e-01
 -5.7202786e-01
  1.6916382e+00
 -7.2749774e-03
 -2.0067983e+00
  2.5464590e+00
  9.1317534e-01
  1.3106068e+00
 -1.6272365e+00
  1.3462679e+00
  1.3044493e+00
 -7.9344404e-01
  1.5836086e+00
  6.6843849e-01
  6.9362342e-01
  2.0955300e-01
  1.1014955e+00
 -5.5262774e-01
 -9.4876176e-01
  1.0104259e+00
 -1.5603766e+00
  1.3660370e+00
 -7.1975839e-01
 -3.7831071e-01
  1.8817182e+00
  1.3922160e+00
 -5.4681873e+00
 -3.7725234e+00
  3.1219623e-03
  5.8209798e-03
 -2.0745160e-01
  9.5643151e-01
  1.2137210e+00
  7.2850895e-01
  2.3626901e-02
 -1.3609866e-03
 -6.4537791e-03
 -4.1493289e-03
  2.5019725e-03
  2.5485968e-02
  3.1754830e-01
 -2.8759539e-03
  1.9222466e+00
 -6.6160458e-01
 -5.2220988e-01
  9.4338551e-02
  5.7269710e-01
  2.1922002e+00
  6.0981650e+00
 -1.6570285e-02
 -1.0877667e-04
 -1.5563702e-03
  2.2188194e-02
  3.3477545e-04
  1.8506564e-03
 -2.8020886e-01
  3.4728568e-04
 -4.4089323e-01
  1.0634171e-02
 -5.1086521e-01
 -1.6670292e-03
 -2.5822997e-01
 -1.3019891e-01
 -4.2937063e-02
 -1.1473212e-02
 -5.6285444e-03
 -3.3303569e-03
 -1.9827306e-03
  3.9419383e-03
 -5.9292334e-01
 -1.5762346e-03
 -4.5655333e-03
  8.6632613e-03
 -3.9221561e-01
  3.3299914e-03
 -2.0313132e-01
 -9.4159339e-03
  3.4293800e-03
  2.9498296e-02
 -8.8746585e-03
 -2.2507615e-03
  4.0669474e-03
 -7.6465909e-03
 -8.6947758e-04
  1.0787507e-03
 -1.6294943e-02
  5.8150222e-04
  4.4438301e-04
  4.2680823e-03
  1.7200222e-02
  2.6116468e-04
 -1.9271756e+00
 -2.2522962e+00
  4.6001120e+00
  1.5334913e+00
  4.3826184e+00
  1.7343049e+00
  1.8620186e+00
  3.3906734e-04
  3.2808861e-01
 -1.2850795e+00
  2.7418516e-03
 -2.8406712e-01
  1.0257076e-01
  2.3261914e+00
  5.2661461e-01
  2.8230998e-01
 -3.4163160e+00
  2.1019683e+00
 -1.0934483e+00
  1.6553309e+00
  4.2087350e+00
  3.2283213e+00
  3.1467128e+00
 -6.2163568e-01
 -7.5008593e-02
 -1.6490059e+00
  1.4706616e+00
  4.9534674e+00
 -7.3633474e-01
  4.3920355e+00
 -2.5155814e+00
 -1.1200627e+00
 -3.0432734e+00
 -1.2316022e+00
  4.8841863e+00
  5.1329429e-05
 -2.1865258e-02
 -3.4613945e+00
 -1.7309620e+00
 -1.9887875e+00
 -3.5407036e-03
  6.5116823e-01
  1.2481411e-03
  2.1256420e-03
  1.2501411e-03
 -1.3142274e-02
 -8.4835243e-01
  1.8820339e-03
  8.1269434e-03
  2.6263506e+00
 -2.3947661e+00
  2.9983828e+00
  4.0514441e+00
 -1.3544432e+00
 -1.6959859e+00
  2.7007228e-01
  8.9358333e-03
 -3.7681070e-01
  1.8732471e+00
  7.9940486e-01
  2.6052384e+00
  2.4377670e+00
  1.4482265e+00
  6.2274879e-01
 -1.8473258e+00
  1.7474066e+00
  1.0540718e-01
  1.1847366e+00
  1.9332596e+00
  1.0398088e+00
  1.5382679e+00
 -5.6273508e-01
  5.0459802e-01
  1.7681261e+00
  8.2270974e-01
  4.4026071e-01
 -9.2568117e-01
 -1.1520766e+00
  1.0495050e+00
  2.1681845e+00
  1.1341435e+00
  1.4408104e+00
  8.4095061e-02
 -9.6675611e-01
 -5.3995275e-01
  8.7064365e-03
 -1.7520704e+00
  6.7573681e-02
  1.6338805e-02
  2.3749613e-03
  7.0495421e-01
 -6.9131725e-03
  4.3927960e-04
 -1.6901337e-03
  1.1831699e-03
  6.3488726e-03
  2.5677981e-03
 -5.3129983e-03
 -1.8714600e+00
 -3.7194252e-01
  7.8403223e-01
  4.5312452e-01
 -1.0351218e+00
 -3.0811071e+00
 -2.0116446e+00
  2.4993339e-01
 -2.5195414e-01
  1.5301325e-02
  9.3568504e-01
  5.7424611e-01
  2.5666420e+00
  3.5097900e-01
 -6.6094261e-01
 -1.8396528e+00
  1.0128019e-01
  1.5388625e+00
  5.1750273e-01
  1.1544236e+00
  2.5190020e-01
  8.0054104e-01
 -4.5586142e-01
  2.4897935e+00
  9.9522650e-01
  5.1926392e-01
 -7.9934293e-01
 -1.3528566e+00
 -7.9304487e-02
 -3.8134328e-01
 -7.2301579e-01
  1.0056152e+00
  1.6759291e+00
 -2.5363076e-03
 -3.2965323e-01
  3.3385882e-03
 -5.7253800e-03
 -3.3212481e+00
  4.8678520e-01
  1.7263214e-03
 -7.1398991e-01
  1.5377306e-02
  8.3419000e-04
 -2.8327000e-03
  1.7045875e-03
  7.9088658e-03
  3.0491815e-04
 -5.5567891e-04
 -1.1025742e-03
 -1.2282770e+00
  1.4452349e+00
 -2.3933657e-01
  1.1405079e+00
  1.9671947e+00
 -3.1702335e+00
  1.4836307e+00
 -1.1506821e+00
 -1.6042721e+00
  2.2917882e-01
  6.4201111e-01
 -8.1219029e-01
  7.8409892e-01
 -3.8290012e+00
 -1.4041131e+00
 -1.4614596e-02
 -2.1868558e+00
 -1.3857052e-01
 -8.1285727e-01
  1.1122456e+00
 -2.4777374e+00
  5.7757008e-01
 -5.1967144e-01
 -3.3020562e-01
 -2.9255996e+00
 -1.0309017e+00
  1.6022125e+00
  4.3521895e+00
 -1.3830478e+00
  1.9670608e+00
  9.9623082e-03
 -6.0253654e+00
  8.1456542e-01
  5.3200822e+00
  5.9811182e+00
  9.3822992e-01
 -4.6017545e-01
  8.5740918e-01
 -3.5762322e-01
 -1.0858196e+00
 -6.5655857e-01
 -5.7265127e-01
 -5.2101105e-02
 -4.5878123e-03
  3.1496068e-03
 -2.8126393e-04
  4.6586837e-03
 -2.3157185e-02
 -2.7461592e-04
 -3.3604810e+00
 -2.1670907e+00
 -2.9865485e-01
 -4.9378743e+00
 -1.4982277e+00
  1.8116646e+00
  1.9748367e+00
 -1.0772108e+00
  4.8644492e-01
 -4.5077419e+00
 -1.2529786e+00
  1.1418429e-02
 -1.4190311e+00
 -2.1343052e+00
  3.8674524e-01
 -1.1017816e+00
 -1.5809879e+00
 -8.1860906e-01
  1.6299176e-01
 -1.3495116e+00
  7.6334918e-01
 -1.9567581e+00
  1.1902442e-01
 -6.1553617e+00
  5.6439271e-04
 -1.6462218e+00
 -3.0846155e+00
  9.3312711e-03
  1.4759809e+00
 -1.6615930e+00
 -2.0869827e+00
  3.6690843e-01
 -2.8592689e+00
 -1.7222917e+00
 -2.7407414e-01
 -4.3903190e-01
  1.1167772e+00
  3.1425886e+00
  7.3118281e-01
 -9.1444385e-01
  9.5054513e-01
 -4.4337437e-01
  4.0114508e-03
 -2.5125190e-03
 -2.7245483e-03
 -9.4757406e-03
  2.8100354e-03
 -6.9515719e-03
 -1.8601593e-03
 -1.7564876e-04
  1.2878541e+00
 -1.0593253e+00
 -3.4051031e-01
  4.3493090e-03
  3.8936511e-01
 -1.6842325e-01
 -3.5773167e-01
 -2.3305267e-03
 -7.5666600e-01
  2.4701613e-01
  1.8876821e-01
  1.1977141e+00
 -3.4646785e-01
 -1.9969198e-01
 -2.1074203e-01
  5.8205718e-01
  1.5665963e-01
 -1.4192198e-03
 -9.8838705e-01
 -5.9765942e-02
  1.9544904e-01
 -9.5316712e-03
 -1.7480834e-03
 -3.5018556e+00
 -7.3669952e-01
 -1.1351299e-01
  1.4755368e-01
 -3.1433722e-03
 -1.7544401e-03
 -1.0622428e-03
 -5.2986771e-01
  2.1108137e-01
  1.1209794e-03
  1.8180616e-02
  9.0999573e-02
  2.3953844e-02
  9.6752471e-01
 -6.2521333e-01
 -2.1741173e-04
 -5.2935046e-01
  7.0631118e-03
  2.5612809e-04
  4.2311489e-03
  1.0232509e-03
  7.4525168e-03
 -1.1094783e-02
 -2.7502617e-03
 -9.6769066e-04
 -5.2987170e-01
 -1.0699116e-03
  5.0419918e-03
 -3.6639873e-02
  6.6187060e-03
 -7.3901635e-01
  2.8638768e-01
  1.0965250e-03
 -2.4629314e-03
 -9.3199508e-03
  6.5418007e-04
 -7.0795259e-03
  9.7586969e-03
  1.0920330e-03
 -8.8897487e-03
 -3.6692270e-03
  4.8458567e-03
 -2.4080926e-03
  5.0862194e-03
 -5.9907133e-04
 -8.9947484e-04
 -1.3417925e-03
  2.7085103e-03
 -6.5698405e-04
 -1.7504508e-02
  2.0040076e-03
 -1.7879460e-02
  5.7800617e-03
 -6.4849068e-04
  2.7512314e-03
 -1.7554250e-02
 -7.1805163e-04
  2.1708154e-03
  8.2250200e-03
  4.4057942e-03
  9.2002479e-03
  4.5684364e-04
 -2.7362010e-03
 -1.4152697e-03
  4.0497384e-03
 -1.0444243e-02
  2.0515606e-04
  9.6052623e-04
 -1.7813738e-03
 -4.5141624e-03
  6.1181178e-03
 -8.1879208e-03
 -3.2027541e-03
 -4.0059439e-03
  1.5505705e+00
  1.1204777e+00
  3.4123952e+00
  1.0326518e+00
  9.3578172e-01
  1.7918748e+00
 -1.7306458e+00
 -1.2656549e+00
 -1.8378208e+00
  1.4031030e+00
  3.2629249e+00
  7.6995361e-01
 -2.0081465e+00
  5.6819564e-01
 -1.8014349e+00
  7.6182455e-01
  4.5105596e+00
 -9.2689657e-01
  2.2567947e+00
 -1.8502349e-01
  7.7003801e-01
 -3.3158347e-02
  2.7808827e-01
 -2.2744095e+00
  7.6180995e-01
  1.1534041e+00
 -1.6445631e+00
  1.4991932e+00
 -2.9171804e-01
  2.5866845e+00
  3.5607868e-01
  7.6191092e-01
 -1.4717314e-01
  9.3236881e-01
  3.4153287e+00
  3.3244991e-01
  3.6177021e-01
 -6.6556907e-01
  6.0000962e-01
 -6.9353454e-02
 -8.3051294e-02
 -8.4342194e-01
  4.5883951e-01
 -3.4625335e-03
  3.3683395e-03
  4.6469221e-01
 -1.3612663e-02
  2.0644517e-01
 -5.3136391e-03
 -3.0155942e-01
 -1.1616570e+00
 -2.1214136e-01
 -9.5846689e-01
 -6.8337935e-01
 -1.4900094e+00
  9.9406320e-01
  3.5202661e-01
 -1.3453771e-03
  1.9079344e-01
  1.4938965e-02
 -2.1280081e-04
  8.0727357e-01
  1.3528623e-02
  5.1340395e-01
  1.1992108e+00
  3.6782736e-03
  2.5787003e+00
  2.5514945e-01
  1.5707076e-01
  5.0561178e-01
  6.5484936e-03
 -6.7272619e-03
  6.1315852e-03
  5.0936055e-01
 -1.4766037e-03
  1.5172559e-01
 -1.7964714e-03
  6.4448910e-03
 -3.7582347e-01
 -1.6292720e-03
  2.1741454e-01
  1.6154308e-05
  3.8732428e-04
  2.0500205e-02
 -2.1814712e-04
  1.6090015e-01
  8.3236499e-03
  1.0370413e-03
 -5.5799430e-04
  2.4328125e-03
  2.4605254e-03
 -4.1084690e-03
 -3.1545558e-03
 -7.2642160e-03
  1.8075665e-03
 -1.8551258e-03
  3.1858654e-04
  5.2887173e-03
 -2.6421940e-01
 -4.1234536e+00
 -2.3409631e+00
  4.5865533e-01
  1.6656851e+00
 -3.0215504e+00
 -1.3079530e-01
 -4.3688023e-01
 -2.0759532e+00
  8.3932877e-01
  1.2968414e+00
 -1.2854772e+00
  3.1750376e+00
 -1.2533723e-01
  7.8546904e-02
 -2.4431129e+00
  5.9051615e-01
  5.3308219e-01
  1.9717077e+00
  3.1176119e+00
 -9.4304806e-01
 -7.0443642e-01
 -1.6070851e-03
  1.5030057e+00
  1.9901739e-01
  4.7944915e-01
  7.9109836e-01
 -3.4323458e-02
 -4.7305775e-01
  4.0156865e+00
  9.8304909e-01
 -3.9363611e+00
  3.2010201e-01
  3.6656644e+00
 -1.9920349e-01
  8.1604980e-02
  7.9582490e-02
 -4.5310736e-01
 -3.3612391e-01
  1.4677589e-03
  1.1913221e-04
  2.1608521e-03
 -4.1756122e-03
  2.3205804e-03
 -1.1436799e-02
 -3.4117841e-03
  1.6204753e-03
  3.0446283e-03
  2.5807155e-02
 -1.7902495e-01
  2.4974377e-01
  1.7592119e+00
 -3.2612160e-01
 -1.1028287e+00
 -2.3270948e+00
  4.4453087e-01
 -2.7052557e+00
  1.3336326e+00
 -3.3029408e+00
 -6.9756687e-01
 -3.7914646e-01
 -1.8679368e+00
 -7.9173088e-01
 -4.4299608e-01
  4.2786899e-01
 -3.7947955e+00
 -1.0006421e+00
  2.0990500e+00
 -1.7683785e+00
 -2.5065484e+00
 -1.8541720e+00
 -1.4206249e+00
 -3.4168084e+00
  3.6216030e-01
  4.9019229e-01
 -7.7680689e-01
 -2.3604469e+00
  4.8939598e-01
 -1.4039177e+00
 -1.8495909e+00
  1.5183314e+00
  3.1729195e+00
  4.2309254e-01
 -4.2129388e+00
 -3.2011781e-02
  1.2181829e+00
  1.9674507e+00
  9.9462867e-03
  2.8024274e-01
  5.1884580e-01
 -6.2872696e-01
  3.6575684e-01
  3.3228871e-01
 -9.0647498e-03
 -8.2493750e-03
 -1.1460474e-03
  9.0865241e-03
  1.3834865e-02
  4.0008476e-01
  7.7602081e-03
  2.1196173e-03
  2.1368605e-01
  5.8492273e-03
  7.3507166e-01
 -2.3166990e-01
 -3.4158586e-03
  2.0722223e-03
  1.7599113e-03
  8.9972932e-03
  5.0184880e-03
 -4.2442759e-03
 -4.4463836e-03
  2.2913243e-03
 -8.3112419e-03
 -1.0802948e-03
  7.1666640e-04
  4.4748816e-03
  2.3677086e-03
  2.6827218e-04
  9.1710137e-03
 -1.0282027e-03
  9.5144258e-04
  9.7751361e-04
  6.3332887e-03
  1.9135162e-03
 -1.6249960e-03
  5.3280423e-04
  1.3727237e-02
 -9.2440651e-04
  1.2311161e-03
 -4.7580223e-03
  6.4561865e-03
  4.9434518e-03
 -7.2142282e-03
  1.8971044e-04
  2.2838400e-03
  1.5494996e-03
  4.2323153e-03
  5.8778482e-03
 -1.3532665e-05
 -1.3950600e-03
 -7.8166895e-06
  4.9014003e-03
  4.6137501e-03
  1.2431110e-03
  4.3699760e-03
  1.0568885e-02
  9.4491458e-01
 -9.5990604e-01
 -1.1391671e+00
  9.0512490e-01
 -2.2795330e-01
  2.1046790e-01
 -5.4885406e+00
 -2.9731584e+00
  2.9724190e-01
 -1.4389986e+00
 -2.7675921e-01
 -7.2416091e-01
  3.0953479e-01
 -1.4252738e+00
 -6.8856913e-01
 -4.4514966e-01
 -5.7969534e-01
 -5.0445724e-01
  1.3744754e+00
 -1.2171243e+00
 -1.9113662e+00
 -4.7929022e-01
 -3.3522454e-01
  3.0253444e+00
 -6.3395619e-01
 -2.3617145e-01
  2.9467165e+00
  2.1344161e-01
 -6.6360813e-01
 -1.5197216e-04
  1.3475362e+00
  8.1202812e-02
 -1.6102982e-01
  9.2952335e-01
 -3.1974301e-01
  2.2671375e+00
 -8.2719851e-01
  7.1846062e-01
 -3.7774038e+00
 -1.7589718e+00
 -1.3514934e+00
 -1.9744949e-01
  2.4919494e-03
  1.0874474e-03
 -2.2451268e-01
  2.4445500e-02
 -1.0679273e-02
  2.6077397e-02
 -1.0876298e-03
  6.2849253e-01
 -1.2257969e+00
 -2.0826985e-01
 -9.2216259e-01
  1.2472140e+00
 -1.2626576e-01
 -4.4040408e+00
 -1.1200521e-02
 -1.1105852e+00
  1.6504647e+00
 -3.7620914e-01
  4.5951360e-01
  1.3262745e+00
 -7.5647116e-01
  6.4609110e-01
  2.5746000e-01
  1.6589161e+00
  2.6483252e+00
 -1.1235603e+00
 -1.6633528e+00
 -9.5597267e-01
 -1.2439540e-01
 -9.1221488e-01
  1.8072566e+00
 -2.2062509e-01
 -5.4949540e-01
  3.2610672e+00
 -1.2321909e-01
  1.0475925e+00
 -3.5413167e+00
  1.1387769e+00
  2.5277011e+00
  2.2251606e+00
  1.5639098e+00
  1.6979496e+00
 -5.6907086e-04
  8.9866027e-02
 -7.1993572e-01
 -1.1539615e+00
 -1.4196014e-01
 -8.6298203e-03
  6.9073659e-01
 -5.3782058e-03
 -3.3788122e-02
  1.3524423e-03
 -1.0872037e-03
  1.5814891e-02
 -2.0554106e-04
  1.5684605e-03
  1.8901787e+00
  1.5448549e+00
 -8.9899313e-01
 -9.9009536e-02
 -1.1508878e+00
 -3.7829795e+00
  5.9328157e-01
 -1.3396884e+00
  4.2190766e+00
  1.1119681e-01
  3.4160697e-01
 -1.0224868e+00
  3.2139413e+00
 -6.1582345e-01
 -1.9912175e+00
  1.2961695e+00
  2.6509347e+00
 -3.1785312e+00
 -1.7856283e+00
  6.2665713e-01
  5.9499007e-01
 -3.6538520e-01
 -4.6069348e-01
  1.9299567e+00
 -5.3162768e-04
  7.6236254e-01
  1.9094286e+00
 -3.8213894e+00
 -1.4746016e-01
 -6.5570182e-01
  1.2806792e+00
  1.3345652e+00
  2.3693748e-02
  3.3831804e+00
 -3.3032434e+00
 -2.3362769e-03
  9.8805008e-03
 -1.7572863e-01
 -2.7944853e-03
  8.4794372e-01
 -7.9895341e-01
  6.5818590e-01
  6.1160726e-03
 -1.1944091e-01
  4.5979368e-03
 -2.3126994e-04
  3.6013890e-03
  3.6366524e-03
  7.0813401e-03
  6.8437786e+00
 -9.8701942e-01
  5.6931752e-01
  2.0632989e+00
  3.5790703e+00
 -2.0523646e+00
 -2.7680290e-01
  4.1485854e-04
 -9.8795605e-01
  1.9884019e-03
  1.0670811e-03
 -8.6652237e-04
  8.1977627e-04
  2.4192638e-03
  6.4282177e-04
 -1.1098514e-01
  3.9200373e-03
 -8.1934762e-01
 -2.9947108e-02
 -3.3986303e-01
  3.5933530e-01
  6.7388825e-04
  1.2750846e-02
  2.3363672e-02
  7.4485548e-02
  9.6167848e-02
  5.0006264e-01
  1.1148018e+00
 -4.9046772e-03
  2.2325482e+00
 -6.7215902e-03
  3.3537430e-01
 -5.4856562e-05
  6.7053264e-01
  2.4737856e+00
  1.9598647e-03
 -1.5608048e-02
  3.9736247e-03
  1.6802331e-03
 -3.0438444e-03
  2.5859871e-03
 -7.0859217e-03
 -3.3680813e-03
 -2.8850336e-03
  4.6941548e-04
 -5.8992649e-03
  1.0666027e-03
  1.2410042e-02
 -1.5652573e-03
 -3.6699015e-01
 -2.1286738e-01
 -1.2543502e-01
 -2.2120562e+00
  8.3466452e-01
  1.8643278e+00
 -1.4204680e+00
  4.1145053e-02
 -3.7800595e-03
  7.7446353e-01
  6.7369491e-01
  6.6609108e-01
  3.9201453e-03
 -9.0404162e-03
  1.6571454e+00
  1.0782028e+00
  6.0415542e-01
 -1.1222017e+00
  4.3798631e-01
  7.6615685e-01
  4.3704155e-01
  6.4883894e-01
  2.4259200e+00
  1.6095873e+00
  1.8832017e-01
  1.6566207e+00
  5.8083609e-02
  5.9978181e-01
  2.0371827e-01
 -1.6723479e+00
  9.1447008e-01
  3.6717781e-01
  9.1492885e-01
  1.9554922e-02
  1.4140719e-01
  1.5100460e-02
  6.7313071e-03
  1.4060121e-03
 -8.6137984e-04
  9.5963879e-03
  7.3178453e-06
  2.8840373e-03
 -4.2014604e-04
 -1.3595430e-02
  6.3532554e-03
  8.6809555e-04
  1.4834698e-02
 -5.0782558e-04
 -4.5834826e-03
 -3.1240526e-01
  1.3561049e-03
  1.1568018e-01
 -1.4135267e-03
 -3.3058249e-03
 -2.1455424e-01
  1.5461160e-01
 -2.0576117e-03
 -7.0709581e-03
  1.4700291e-03
  2.3812517e-03
 -1.0398412e-02
 -3.9021224e-03
 -9.0480961e-02
 -1.2632702e-02
 -1.8992898e-03
  7.4675828e-03
 -2.1938875e-03
 -1.2988580e-02
 -3.0804120e-04
 -3.1245970e-03
 -2.7569237e-03
 -6.4871502e-03
 -1.1140093e-02
 -4.5553534e-03
  2.8656560e-03
  4.3422589e-03
  9.6843028e-03
  9.0803042e-05
  1.0217287e-02
  6.6247571e-04
 -2.6334492e-03
  2.6811026e-03
 -6.6001569e-03
 -1.3188532e-05
 -2.5449472e-03
 -3.3301075e-03
 -3.6199023e-03
  5.0719003e-03
  1.1262862e-03
  6.1864601e-03
  5.3836908e-03
  3.4878368e-03
  4.0092547e-03
 -2.2067588e-03
 -1.4290124e-03
 -1.5147827e-03
  3.4238338e-03
  2.9764357e-03
 -1.8163060e+00
  2.3962405e+00
  2.5335600e+00
 -1.7156190e+00
  8.4466523e-01
 -1.7446560e+00
  4.8389945e+00
  7.5634249e-02
 -1.2649060e+00
 -2.4977431e-03
 -3.4036285e-01
  6.3391021e-03
 -1.2729369e+00
  6.6299576e-01
  5.6873947e-01
 -2.6839938e+00
 -4.1250512e-01
  2.1599596e-02
 -1.2678697e+00
 -1.4194720e+00
 -3.7993553e+00
  4.8067412e-01
 -6.0498893e-01
 -7.7615283e-02
 -2.1775374e+00
 -1.0517497e+00
 -2.0560138e+00
 -9.8624009e-01
  1.9700240e-01
  8.0220895e-03
 -3.2213338e-02
 -8.7448262e-02
  5.0542261e-03
 -2.0863476e+00
  5.3057833e+00
  3.6543338e-03
  6.0250051e-05
 -1.5640883e-03
  4.6349624e-03
 -1.1452422e-02
  2.1173331e-04
  1.1717405e-02
  9.2749484e-03
 -2.3441734e-04
 -8.2036816e-03
 -7.0525683e-03
  1.0989089e-05
  4.3475996e-03
 -4.7815121e-03
 -3.6688882e-01
  1.0299584e-02
 -2.4418586e-01
 -1.4810692e-01
  4.2534512e-03
 -1.2744319e-01
  3.0101117e-01
  2.5375394e-04
 -6.2537203e-03
 -1.4428366e-03
 -2.2060070e-02
  3.9457954e-03
 -1.1260066e-03
 -8.0895042e-03
 -7.5316238e-03
 -7.6572550e-04
  3.1681992e-03
  2.9947842e-03
 -1.0358849e-02
  2.7242210e-03
  2.5591051e-04
  5.8342126e-04
 -4.3615955e-03
  1.6287551e-03
  3.2582069e-03
 -1.9710658e-03
 -5.3127543e-03
  1.6972438e-03
  1.3904098e-02
  8.1392406e-03
 -1.0992795e-02
  9.7726928e-03
 -3.8330213e-03
 -4.7912723e-03
 -1.6400320e-03
  6.5439043e-04
 -7.8119729e-03
 -9.1638445e-05
 -1.7848177e-03
  5.8060586e-03
 -2.9596910e-03
 -8.7079750e-03
  6.4621405e-03
  5.8717639e-03
  2.2136536e-03
 -7.5682588e-03
 -4.5851530e-03
 -1.7453075e-03
  1.1230047e-02
  2.1943090e+00
  9.0796334e-01
  4.2541347e+00
  8.7941742e-01
  1.3568403e+00
  1.7646055e+00
  1.4468805e+00
  6.9360524e-01
  2.1778972e+00
  5.8382373e+00
 -1.4108610e+00
  8.5897332e-01
  6.8820575e-03
  3.1406963e-01
 -7.5047672e-01
 -6.9342732e-01
  6.7323929e-01
 -1.1299694e+00
 -1.0310401e-01
 -1.0891947e+00
  2.3760022e-01
  1.0621778e+00
  2.5762388e-01
  5.0007743e-01
 -1.3353688e-01
  1.0597693e+00
 -2.1210108e+00
 -9.3874753e-01
 -2.1888307e-01
 -8.6177510e-01
  2.3878708e+00
 -1.5909894e+00
 -1.0689471e+00
 -3.7635832e+00
  4.8167996e+00
 -2.2901222e-01
 -4.8138797e-01
 -4.5912902e-04
 -6.0381389e-01
 -1.4647030e-03
  2.1698451e-01
  1.6426887e-02
 -2.9278500e-03
 -2.3140837e-04
  2.4829460e-03
 -2.0131877e-02
  4.7109709e-03
 -8.5733747e-03
 -3.7348844e-04
  2.2156066e-01
  1.1419599e+00
  3.2822201e+00
 -4.7376460e-01
  1.3424509e+00
 -7.0169407e-01
 -1.3406540e+00
  2.0595048e-02
 -1.3147644e+00
 -1.8045272e+00
  1.8227643e+00
  1.4838043e-01
  1.7016293e-01
  4.0573895e-01
 -1.0575589e+00
  6.0038471e-01
  9.6047300e-01
 -1.0820967e+00
  8.8269788e-01
 -2.1820669e+00
 -7.2273088e-01
 -5.0356531e-01
  8.6650151e-01
 -2.0648653e-03
 -6.7813802e-01
  1.5831474e-03
 -4.3757993e-01
  4.1637474e-01
 -2.2936806e-01
  1.4038091e+00
 -7.1240866e-01
 -1.5630810e+00
 -6.8521279e-01
  3.2518247e-01
  1.2547038e+00
 -1.2488260e-03
 -6.6246963e-01
  1.1290591e-01
  5.5982731e-03
 -4.6668914e-01
  5.6471387e-03
 -1.0278873e-01
  1.1927257e-02
  5.5512912e-03
 -5.9571336e-03
  2.5271470e-02
  9.2152227e-03
  9.4494382e-03
 -5.6235194e-03
 -2.6435384e-01
  6.7952648e-03
  1.2917572e-04
  3.4250345e-03
 -1.5848454e-02
 -4.7721186e-01
 -1.7191513e-03
  1.8240599e-03
 -6.6223992e-03
  2.7880764e-03
 -1.2714732e-03
 -2.7887309e-03
 -7.1913650e-04
 -1.0032313e-02
  1.1148111e-02
  1.1837522e-02
  1.6129290e-03
  1.3372048e-03
  3.9169816e-03
 -2.2587052e-03
  1.0361659e-02
 -3.4151755e-03
 -2.9228826e-03
  2.4136312e-03
 -1.0477359e-02
 -7.1168318e-03
  1.6145161e-03
  1.8794695e-03
 -7.5144013e-03
 -1.7500266e-02
 -6.2312442e-04
  3.5019156e-03
 -1.0100988e-02
 -8.7044388e-03
  1.6794035e-02
 -5.8205477e-03
  2.6784758e-03
  8.6319941e-04
 -8.2933642e-03
 -1.4803348e-04
 -7.4809962e-03
 -9.2652179e-03
 -7.6297686e-02
  1.7100907e-04
 -1.9397961e-03
 -2.6606047e-03
  5.2545206e-03
 -4.4900738e-03
 -2.9046016e-04
 -3.0100696e+00
  5.0094503e-01
 -2.8715303e+00
 -6.5021014e-01
 -9.4867712e-01
 -9.6053743e-01
 -2.6903679e+00
 -2.2415764e+00
  1.7105184e+00
  5.1298232e+00
 -2.0279436e+00
 -2.9363126e-01
 -1.8153411e+00
 -7.2606228e-02
 -9.7329587e-01
 -1.7541071e+00
 -6.6931814e-01
 -5.4001862e-01
 -1.6989721e+00
  4.0162703e-01
 -3.6864299e-01
 -1.8982232e+00
 -8.9958429e-01
  1.0711954e+00
 -4.1670221e-01
  4.5573549e+00
 -2.2819509e-01
 -1.1464375e+00
  4.9533394e-01
  5.4070959e+00
 -1.1692198e-01
 -7.0776385e-01
  5.2396643e-01
 -7.1009892e-01
 -1.4077659e+00
 -1.8818641e-01
  3.1078276e-01
 -2.5509670e+00
 -1.8724859e-01
  4.2539573e+00
 -7.0577720e-04
 -6.5152174e-01
  2.4068712e-03
  4.1608862e-03
 -5.4308474e-03
  2.3360900e-03
  2.9308966e-03
  5.4882737e-03
  7.3646088e-03
  1.7813902e-02
 -7.6149683e-04
 -3.2223738e-03
 -2.2270769e-01
  6.1325505e-03
 -5.9973150e-01
  2.4446582e-03
 -7.2968466e-04
 -5.7082591e-03
 -1.0817853e-01
 -1.2855174e-03
 -1.1100674e-01
 -7.9521276e-03
  5.4837801e-03
 -4.5987498e-04
 -5.2810954e-03
  2.9554250e+00
  2.1753338e-05
 -1.6831268e-02
  7.9389876e-03
 -2.7755261e-03
 -3.4433890e-03
 -7.2321639e-04
 -2.7961054e-01
 -8.5547380e-03
 -4.7852492e-01
 -2.6456108e-03
  4.3540620e-03
 -2.0191160e-03
 -2.9763679e-03
 -1.7401066e-03
  7.7008200e-04
 -2.2188014e-01
 -3.3081093e-04
 -3.1615209e-04
 -5.9192693e-03
  4.0536304e-03
  2.3315065e-01
  1.4272885e-02
 -5.8012623e-03
  4.2014518e-03
  1.1837025e-03
  2.4244839e-03
  2.6121843e-03
  4.0576793e-03
 -1.4638933e-04
 -1.2964684e-03
  4.9015679e-03
 -2.2015839e-03
 -9.3804789e-01
 -1.3433205e+00
  3.0500671e-01
 -2.5791478e-01
  1.9581153e+00
 -4.5692735e+00
 -2.0980103e+00
 -6.8947107e-01
  5.1859612e+00
  4.4329982e+00
 -2.5576265e+00
  1.6193953e+00
 -2.9415758e+00
  1.4518076e+00
  1.8814962e+00
  4.0755777e+00
 -8.1430954e-01
  1.8777521e+00
  1.9089065e+00
  2.8168046e+00
  4.0704093e+00
 -6.6757140e+00
  9.5246357e-01
  3.9066360e+00
 -2.3905566e+00
 -1.9597441e+00
 -2.5236731e+00
  3.0597372e+00
  7.1922146e-02
  4.7560167e+00
 -2.5151854e+00
 -2.3925831e+00
  2.6969554e+00
  3.4372953e-01
 -9.3893540e-01
  2.4445889e+00
 -8.7724006e-01
  3.7622848e-01
  3.6454887e+00
 -1.1607081e+00
  3.9623093e-02
  3.4701886e+00
 -1.0602763e+00
  1.9223765e+00
 -4.2381368e+00
 -1.6537319e+00
  3.1684530e+00
 -2.5504622e+00
 -2.8307428e+00
 -2.2179353e+00
  2.1937988e+00
  2.6576118e+00
 -7.5849622e-01
 -3.3612096e-01
 -8.6446977e-01
 -1.1504217e+00
  2.4371169e+00
  3.7336743e-01
 -5.0983125e-01
 -4.6416812e+00
 -2.3697836e+00
  2.1847413e+00
  4.6847734e-01
 -8.2805920e-01
 -1.2503328e+00
 -2.4502983e+00
 -2.7032032e+00
 -7.1698630e-01
  1.8099504e+00
 -1.0501970e+00
  2.1037707e+00
  2.1010554e+00
  1.2292254e+00
 -2.6244166e+00
  2.4722135e+00
  2.0283465e+00
  1.3320659e-01
  2.5492432e+00
  6.8671107e-01
  2.5552647e+00
  2.2936196e+00
 -4.9911511e-01
  4.0414837e-01
 -9.3917429e-02
 -1.4794791e+00
 -6.3019401e-01
  4.5482063e+00
  9.0791024e-02
  3.5968077e-01
  2.8246796e+00
  1.4009073e+00
 -1.7277035e-01
  2.3376882e+00
 -2.5973752e-01
 -1.5006758e+00
  2.9496918e+00
  2.3317621e-04
 -3.8444304e-01
  6.9515593e-02
 -1.9451482e+00
 -4.5813894e-01
  4.7802490e-01
 -1.9792800e-01
  2.1793784e-01
  7.9915100e-01
  1.7423743e-01
  2.1474478e+00
 -2.1821485e+00
 -6.9246280e-01
  4.8371929e-01
  1.9901522e+00
  1.1456213e+00
  2.0456953e+00
 -9.7953066e-02
 -4.6281680e-02
 -3.9548523e+00
 -4.8642698e-01
  2.2380851e-01
 -2.6754489e+00
  5.2088827e-01
 -1.7928462e-01
 -6.8383747e-01
 -3.3740956e-01
 -2.1543756e+00
 -4.0344065e-01
 -4.2268863e-01
 -1.6917115e-01
  5.1493937e-01
  2.4842858e+00
 -2.3194963e-01
 -6.8436009e-01
 -1.6583992e+00
 -2.3635793e+00
  2.9998183e-01
  5.6553815e-02
 -4.7865766e-01
  2.5583676e-01
  4.1051230e-01
  7.6569766e-01
 -5.4040670e-01
  1.1572651e+00
 -1.0196621e+00
 -1.2509325e+00
  7.3125042e-02
  1.9263521e-01
 -5.4847312e-01
  2.8084934e+00
 -2.2200902e+00
  2.8494540e-01
  2.9648539e-01
 -8.2176059e-02
  1.5339920e-01
 -5.5285256e-02
 -1.5933518e-01
 -9.0854663e-01
  5.0031501e-01
 -2.0394742e-01
 -9.3889529e-01
  6.5696704e-01
 -5.7435656e-01
  1.8322655e+00
 -5.1183313e-01
 -8.9131111e-01
  5.6890863e-01
  1.5422726e+00
  4.7409468e+00
 -2.9327900e+00
  1.4630836e-04
 -1.1874488e-02
  4.2272117e-03
 -4.7712838e-03
  6.3371253e-03
 -3.3968771e-03
 -7.0749233e-03
  4.6606953e-03
  3.3181250e-02
 -3.8855398e-01
 -8.0970782e-01
 -4.2477153e-02
 -1.0091156e-02
  6.7286743e-03
  1.0277321e-02
  4.1236514e-03
  2.5986513e-02
 -4.8691174e-04
  2.6063705e-03
  1.3181993e-02
 -3.8072721e-03
 -8.2843378e-04
 -6.8170100e-02
 -1.7230757e-02
  2.7280787e-01
 -6.1153588e-03
 -7.4668688e-01
  2.0558827e-03
 -6.2366240e-03
  1.1941916e-01
 -1.1339383e-04
  2.1960177e-03
  3.1033149e-03
  1.6821822e-02
 -2.0322159e-03
 -1.7844797e-03
 -1.3260409e-03
  8.0777804e-04
  2.3983470e-03
  8.1107486e-03
  9.7171953e-03
 -2.5920677e-03
  1.7386237e+00
  1.3388469e+00
  8.5340971e-01
 -2.2903702e+00
 -5.1714480e-01
 -2.8470852e+00
 -1.7825977e+00
  7.6157922e-01
 -2.3856290e-02
 -2.3789880e+00
  2.3622671e-03
 -1.9061460e+00
 -1.1369318e-01
 -6.7932552e-01
  7.0182294e-01
  1.2137618e+00
 -1.5910513e+00
  2.9729741e+00
 -1.7640474e+00
 -2.6360383e+00
 -2.8457203e+00
  1.7136959e+00
 -5.0753239e-05
 -3.5248175e+00
  1.6169347e+00
 -2.1852832e+00
 -1.1801964e+00
 -2.5592964e+00
  1.4793645e+00
 -3.2640710e+00
  5.8237188e-02
  1.2559681e+00
 -8.5925899e-04
  1.7045368e+00
  2.5492480e+00
 -2.1824999e-02
 -6.4134849e-03
 -6.2799221e-01
 -1.2516113e-03
 -6.2508890e-03
  1.8945783e+00
 -1.4612204e-02
 -1.2691335e-02
  4.6614115e-03
 -7.5082004e-04
  4.3020681e-03
 -5.2292747e-03
  1.9843648e-03
  1.0835222e-04
 -2.3865552e+00
  4.0204749e-01
 -2.1994498e+00
 -1.4492475e+00
 -2.5547895e+00
 -1.0268935e+00
 -2.4393845e+00
  2.1344972e-01
  4.3641903e-02
 -1.3212035e+00
  8.8689995e-01
 -1.6076722e+00
  1.6349710e+00
  5.4762405e-01
  5.8949786e-01
 -3.9309941e-02
  1.3183288e-01
 -6.4142220e-02
  2.5815171e-01
  2.9939899e-01
  1.0277207e+00
 -2.4807458e+00
  1.7887508e+00
 -2.1797889e-01
 -6.4745039e-01
  6.7428166e-01
  2.0416608e+00
  2.9144207e-01
 -1.2249631e+00
 -2.8016868e-01
  1.0566782e+00
  6.9361663e-01
 -1.0079367e+00
  9.6392810e-01
  1.8414202e+00
 -3.1582064e-03
  2.7376458e-01
 -1.8337755e+00
 -9.8693722e-01
 -3.8937438e-01
 -3.3945706e-01
 -8.5047990e-02
  2.5425872e-03
 -7.8230101e-04
  7.4603450e-03
  1.2159925e-03
 -1.1771886e-02
 -3.0234749e-03
 -5.3046001e-03
  3.7800322e+00
  1.7167522e+00
 -3.5885634e+00
  7.1432561e-01
  2.5877023e+00
 -2.0811217e+00
  5.0711341e+00
  9.1147774e-01
  1.3869594e+00
  1.3700770e+00
  9.1744224e-03
  1.0790259e+00
  7.4307192e-03
 -2.7591698e-03
  1.1597888e-03
  1.9716303e+00
  5.6730145e-01
  1.1220682e+00
  1.5426451e+00
  7.5643295e-01
  1.1288823e+00
 -1.2366385e-01
  1.3881943e+00
  7.1819144e-01
  1.0381515e+00
 -6.7019241e-04
  1.7568029e-02
 -1.3426946e-01
  1.0707847e+00
  5.2178907e-01
  2.3681312e+00
  1.3863009e+00
 -5.5564761e-01
 -2.6094208e+00
  3.5321227e-01
 -1.8766060e-03
  4.9482048e-01
  6.0758432e-03
 -4.5755291e-01
 -7.4468654e-01
 -1.8715714e-03
  8.8458759e-01
 -6.3719635e-04
 -4.3596001e-03
  5.9900112e-03
  4.5629102e-03
  1.9889886e-03
 -2.3958362e-03
 -3.5451406e-03
  5.4991875e+00
 -3.7815478e-01
 -5.6270633e+00
 -6.5778971e-01
  5.9367990e-01
  2.1197009e+00
 -4.7997528e-01
  3.0918930e+00
  5.5745792e-01
  2.2878923e+00
 -1.6170672e+00
  1.6656995e+00
  2.4792030e-01
 -4.4608437e-02
  9.6198434e-01
 -1.6629083e+00
  1.9045342e+00
 -2.5151587e+00
  7.9100060e-01
 -1.3364280e+00
 -1.0635999e+00
 -1.2867756e-01
 -1.1772209e+00
 -9.9294484e-01
 -1.9220710e+00
 -4.2215543e-04
 -1.6810086e-02
 -2.3042076e+00
 -1.3421693e+00
 -8.0412155e-01
  1.7133589e-01
 -2.1189003e-01
  1.6760932e-03
 -2.2254980e+00
  2.0752156e+00
 -7.5691770e-04
 -1.9487994e-03
  8.4995353e-01
 -9.5774774e-03
  8.3821881e-01
 -6.3687849e-01
  4.7445372e-01
  1.6499633e-02
 -2.5339811e-03
  1.1002148e-02
  1.7297909e-03
  3.3941811e-03
 -3.8608285e-03
  7.8893397e-03
 -1.2492352e+00
  2.9881992e+00
  2.9609370e+00
  7.3380625e-01
 -5.4254508e+00
  1.9725934e+00
 -1.1021861e+00
  1.6038959e-01
  1.5145531e-02
  8.3077978e-03
 -3.1489155e-03
 -2.0551682e-02
 -1.9236999e-03
  5.8946476e-05
 -5.7709124e-03
  8.6630639e-03
  7.0048315e-03
  1.9057827e-01
  5.9574088e-03
  5.8457605e-03
  9.8385988e-03
 -4.3704978e-01
 -8.1156642e-04
 -5.8265615e-01
  4.4384045e-03
  3.2935870e-05
 -6.9670194e-01
 -2.8868688e-03
  6.8212020e-01
  2.1009505e+00
  9.3096038e-03
 -9.5009711e-03
 -2.4987618e-03
  5.0896859e-01
  8.1666298e-03
  1.4012419e-03
  2.6709626e-03
 -1.4180696e-03
 -3.7507389e-03
  5.0710584e-03
 -5.3312100e-04
 -4.0526469e-03
 -6.4166985e-03
 -2.8333974e-03
  3.3856748e-04
 -5.3652474e-03
  6.5912879e-03
  5.2167946e-03
  2.4723108e-03
  6.8408585e-01
 -2.5263562e+00
 -1.4123105e-01
  1.7909452e+00
 -4.2193403e+00
 -2.9352553e+00
 -2.2792876e+00
 -2.0915182e+00
  1.7984244e-01
 -2.4879923e+00
  8.5330164e-01
 -2.5254956e-01
  1.9273443e+00
  2.5843251e+00
 -9.5107287e-01
 -1.2425165e+00
 -1.9209074e+00
 -5.9673077e-01
  1.7303996e+00
  1.3569274e+00
 -7.9340361e-02
 -1.9005003e+00
  1.3672345e+00
 -1.9093431e+00
  2.9600253e+00
 -2.3927526e-01
  6.6061735e-01
 -1.7045912e-01
  2.6166015e+00
 -4.1150041e+00
 -7.9867160e-01
  4.1732100e-01
 -3.5507464e+00
  5.0047183e+00
 -2.8847733e+00
  1.2438302e-01
  1.6573203e-01
  4.4940686e-01
  6.8772125e-01
 -1.0984292e+00
  2.9267880e-01
  1.1533574e+00
  1.3526490e+00
  1.6271489e-02
 -2.1615089e-01
  6.0847931e-04
  8.3515383e-03
  1.3902849e+00
  1.6569530e-03
  5.1371541e-02
 -3.1481473e+00
 -2.0904424e+00
 -9.5409185e-01
  2.3542745e+00
  1.1075431e-02
 -1.2849807e+00
  3.8955670e-03
 -8.4358435e-03
 -3.8691396e-03
  2.2436311e-03
  1.4108931e-02
  4.5746388e-03
 -5.6796679e-03
  2.9771112e-02
 -1.1538454e-02
 -2.8289338e-03
  5.7048519e-04
  4.9806172e-03
 -3.2423735e-01
 -4.1943276e-03
 -5.5293483e-03
  4.5284295e-01
  1.4814707e-02
 -3.4078059e-03
  2.7477385e-03
 -2.6977664e-01
 -1.3767119e-03
 -1.0284088e-01
 -9.1281366e-03
 -3.7283634e-03
 -1.1777075e-02
 -2.5249505e-03
 -6.4496517e-01
 -3.6978519e-03
 -5.5169715e-03
  2.5329997e-03
 -6.0178600e-03
  5.6566284e-03
 -1.2134034e-03
  3.0847574e-03
  2.0243460e-03
 -1.4574484e-03
  3.3784942e-03
  2.9370966e-03
  3.8563061e-04
 -4.0615690e-03
 -1.0147457e-02
  5.6721047e-03
  7.1124005e+00
 -1.4745759e+00
 -7.7833456e-01
  2.0812151e+00
  2.2487936e+00
 -6.3431132e-01
  5.1147240e-01
  3.1970483e-01
  1.5611453e+00
  9.3625617e-01
 -3.4334664e+00
  2.7583595e-03
 -1.1660849e+00
 -3.7645543e+00
  1.7485496e-01
  3.1490362e+00
  3.3303442e+00
  2.6257055e-02
  1.3787247e+00
 -1.4804792e+00
  3.0686493e+00
  1.7340769e+00
  1.5700362e+00
  2.0167823e+00
 -1.2993823e+00
  1.4184007e-01
  1.6315260e+00
  2.8199229e+00
  1.4826812e+00
 -1.9656411e+00
  4.7345901e+00
  8.0660760e-01
  3.0375989e-03
  4.9223642e+00
  2.5685928e+00
  1.8468471e-01
 -1.2452406e+00
  7.7820599e-01
 -1.1383413e-01
 -2.1005464e-04
 -1.1906594e+00
  4.5739187e-04
 -1.5547561e-03
  1.7637050e-02
  9.8238923e-03
 -3.4843616e-03
  3.0228409e-03
  1.3568922e-03
  3.3095982e-03
 -2.6545827e+00
  4.2205654e-02
 -2.6874666e+00
 -2.8522785e+00
  2.9857595e+00
  2.1816211e+00
 -5.2931242e+00
  1.0525800e+00
  1.3444367e-01
  3.3556136e-01
  4.7099358e-01
 -1.6167072e-04
 -4.9103951e-01
 -1.6530607e-02
 -2.2757040e-01
 -1.2014231e-01
  2.4290417e-01
  1.0593541e-01
  1.2412801e-03
  1.2820925e+00
 -3.7785593e-01
 -1.6615619e-03
  1.0326450e-01
  1.3004930e+00
 -6.6582317e-05
  7.3809200e-03
 -8.3151686e-01
  2.3250382e-02
  6.2776250e-01
 -1.3899646e+00
  1.1811083e-02
  1.3493360e+00
  5.8615394e-03
  7.3525321e-01
  8.4679097e-01
 -1.9167206e-03
 -3.3942133e-01
  2.0204486e-01
 -4.5258952e-03
 -3.1282550e-03
 -1.0171849e-02
  1.5188599e-03
  4.1006468e-03
  7.5993092e-05
 -1.9476028e-03
 -6.5310365e-03
 -8.4461535e-05
  6.7179947e-04
  7.8560907e-04
  1.3052253e+00
  1.3545973e+00
  6.4378947e-01
 -2.7780659e-02
  7.2365880e-01
  9.5575696e-01
  2.0760314e+00
 -2.7756134e-01
 -6.0533029e-01
  2.4441211e+00
  9.1302866e-01
  1.0750891e+00
 -1.3295715e+00
 -1.0616050e+00
 -7.9618871e-01
  2.1076475e-01
  1.4015629e+00
 -1.2383866e+00
 -6.2832308e-01
  1.0342588e+00
 -2.5276594e+00
  7.6632363e-01
  3.1933541e+00
  2.4306443e+00
  2.7303972e+00
  1.1684004e+00
 -5.0827926e-01
 -1.2698942e+00
  5.9271574e+00
 -4.7502275e+00
  5.5027618e+00
  6.8369478e-01
  9.9995303e-01
 -3.3955350e+00
  1.0095308e+00
 -6.8191779e-01
  3.5568377e-01
 -8.7200385e-01
  1.4349030e+00
  1.7200562e+00
 -7.7389103e-01
 -3.5008214e-02
 -9.4619554e-01
 -3.0302856e-02
 -1.4446047e-03
  9.4903605e-03
  8.5386513e-03
 -7.1502575e-03
  5.2861855e-03
  2.4323103e-01
 -8.0059165e-01
 -1.2112571e-01
  1.5255699e+00
  5.9810477e-01
  7.1789199e-01
 -7.4048674e-01
  4.8279610e-01
  5.3573000e-01
 -2.6526394e+00
 -4.5164385e-01
 -1.6793115e+00
 -3.9317153e-02
 -1.0873744e+00
  1.1752223e-02
 -9.1097564e-01
 -2.4311425e-01
  5.7284605e-02
  3.1119740e-01
  2.7595162e-01
 -4.0535218e-01
  1.7085193e+00
  6.1620392e-02
  3.2654834e-01
  2.1364778e-02
  1.4840607e-01
 -1.5158510e+00
 -3.1232116e-01
 -5.1693356e-01
  1.0444751e+00
 -9.2352498e-01
 -1.4769452e+00
  8.1837440e-01
 -1.3124783e-01
 -6.7645794e-01
 -7.8159380e-01
  3.9629750e-02
  3.3602902e-01
  3.8309845e-01
 -5.1965028e-01
  5.9611535e-01
  2.7414036e-01
  8.2709348e-01
  2.1935411e-02
  2.9741790e-02
 -9.6229138e-04
 -5.3128653e-04
  1.2911659e+00
 -1.4282267e-02
  4.3527198e+00
 -1.4651561e+00
  5.5571074e+00
 -3.1369427e-01
  2.4875689e+00
 -9.8432225e-01
  9.6937436e-01
 -4.6928044e-02
  1.5282837e-01
 -1.9829550e+00
 -6.7291290e-01
  1.5476011e-01
 -1.0246018e+00
 -2.3685207e+00
 -1.2848115e-01
  2.7234516e-01
 -2.9774055e-01
  7.6129806e-01
 -2.7732641e-01
 -1.6083781e-01
  1.3108898e+00
  9.1496283e-01
 -1.4146259e+00
 -3.1143427e-01
 -1.8059464e+00
 -1.0426817e-02
  3.9028106e+00
  1.8344091e+00
  3.9748883e-01
  6.2633910e+00
 -6.8880016e-01
 -4.0153017e+00
  1.2158401e-01
  4.3185992e+00
 -5.2214260e-03
 -5.4950696e-01
  4.9773109e-01
  9.9303555e-01
 -4.9931738e-03
  1.0487185e-02
 -2.7934296e-04
  1.3890761e-01
  1.7967059e-05
 -2.8988614e-05
  2.2928421e-03
 -3.6013449e-04
 -2.5230295e-03
 -3.1658227e-03
 -1.1217548e-03
 -4.7368407e+00
  3.0423856e+00
 -1.1670500e+00
  2.8224266e+00
  2.7201505e+00
  1.2288955e+00
  1.4464297e+00
 -3.2889774e-01
  1.7189513e+00
 -6.1754298e-01
 -9.6595627e-01
  7.9456069e-02
  3.2929304e+00
  9.3087780e-01
 -1.4532681e+00
  1.6696782e+00
 -5.9832442e-01
  1.2565612e+00
  2.6511021e+00
  1.2149389e+00
  1.0698708e+00
  1.3394231e+00
  9.4396883e-01
 -1.4448889e+00
 -5.3414768e-01
  1.2005155e+00
 -2.6840837e+00
  1.2002534e+00
 -3.0995512e+00
  3.1300936e+00
 -1.3323734e+00
  5.7206345e-01
 -1.9182412e-01
 -5.0588422e+00
 -1.9534230e+00
  2.1701270e-01
 -1.0622284e-02
 -6.1217034e-01
 -1.1737461e+00
  2.1264906e-01
 -1.0734353e+00
 -5.3917687e-02
  1.3720252e-02
  1.6052992e-03
  4.9773185e-03
 -7.5287279e-03
  7.1420749e-03
  1.3741628e-02
 -3.4276708e-03
  2.7522279e-03
 -1.5684542e-03
  7.3317606e-03
 -4.7787712e-03
  2.8456820e-02
 -2.9885391e-02
 -6.7453212e-03
  2.7732477e-03
  6.0401657e-03
 -4.7619357e-03
 -5.1512854e-04
  1.2522944e-03
 -2.3812689e-03
 -5.4822038e-03
 -1.5156569e-03
 -4.1479925e-03
  3.8462898e-03
  4.0181237e-03
 -4.9772682e-03
  1.0918552e-04
 -3.8126102e-03
  2.8453459e-04
 -2.3672864e-04
 -2.6606076e-04
 -8.2164155e-03
  2.5446410e-03
  1.6792737e-03
  2.5392577e-04
 -5.1633301e-03
  1.0548933e-04
  2.6225534e-03
  5.5358647e-03
  2.6282405e-03
 -4.5197662e-03
  5.9083541e-04
  2.5122755e-03
 -6.4603458e-03
 -7.1869972e-03
  2.3624101e-03
 -1.4018586e-03
  8.3556352e-03
 -3.4980313e-03
 -4.8823375e-03
  7.6932623e-03
  1.2098055e-03
  2.2377735e-03
 -1.1761343e-03
  2.0441788e-03
  6.4437051e-04
  3.1384204e-02
  2.5166051e+00
  4.9779549e+00
 -1.3653460e+00
 -9.1209996e-01
  6.3495526e+00
 -4.6341360e-01
 -1.7383574e+00
 -8.6330330e-01
 -1.1118376e+00
  2.4877535e-03
 -1.1979616e-01
 -3.5958543e+00
 -7.0074224e-01
 -3.8277534e-01
 -2.1810951e+00
 -1.8946742e+00
  2.6972072e+00
 -2.7285178e+00
 -9.1495317e-01
 -1.1387938e+00
  5.6893522e-01
 -1.6226901e+00
 -6.9188547e-01
 -4.2546887e-02
 -4.1322652e-01
  2.9819801e+00
 -6.2967825e-01
 -1.3352569e+00
  6.5133762e-01
  3.3510191e+00
  1.1353849e-02
 -4.1871354e-01
  8.8675919e+00
 -2.0046995e+00
  3.4878427e-01
  9.4988813e-05
 -7.3365724e-01
  1.0278241e-01
 -2.8778258e-01
  7.1719480e-01
  5.6942422e-03
 -1.3350040e-03
 -1.1512681e-03
 -1.2056635e-02
  3.5981007e-03
 -6.6623930e-04
 -4.1417535e-03
  1.2557649e-03
 -2.4627023e+00
 -2.6416061e+00
  2.9385874e+00
 -4.5562096e+00
 -3.6722190e+00
  7.9906452e-01
 -4.0517521e+00
  1.3762227e+00
 -5.4720086e-01
  1.2954903e+00
  1.6141183e+00
 -7.8565895e-04
  1.6400869e+00
  1.1260393e+00
  1.5468824e-01
  6.2716281e-01
  1.9993682e+00
  9.6719705e-02
 -1.4995041e+00
  1.2693448e+00
  3.1709251e+00
 -6.4503390e-01
 -1.0013232e+00
  5.2874174e+00
 -1.4969436e+00
 -2.9440218e-01
 -2.2293091e+00
 -1.4420258e+00
 -2.6409904e-02
 -7.5146455e-01
  9.1407949e-01
 -7.2367629e-03
  3.6452481e-01
 -1.3617231e+00
 -2.6376265e-01
 -4.5052767e-03
 -8.2179588e-01
  9.4806069e-01
 -2.6070760e-03
 -1.4120191e-01
  6.1970812e-01
 -1.2957387e-02
 -6.7539385e-04
  7.1284231e-03
  1.8128082e-03
  1.4078867e-03
 -1.0420159e-02
 -4.4165449e-03
 -1.5536277e-03
 -7.4100560e-01
  4.8843348e-01
 -6.2294251e-01
  1.4287018e+00
 -9.1110218e-01
  5.6241667e-01
 -1.5013810e+00
 -1.2512673e-03
  4.7903433e-03
 -9.3355602e-01
  9.3610108e-02
  1.2358179e-03
 -1.3249039e-02
 -3.9127521e-04
 -1.1987767e-01
 -2.2122568e-01
 -3.2916275e-01
  1.1306483e+00
 -8.1067580e-01
 -1.0446298e-01
  2.2054274e-01
 -7.7695817e-01
  6.2323716e-03
 -4.5772687e-01
  4.3903890e+00
 -4.1777065e-01
 -8.2567936e-01
 -1.0303540e+00
 -1.0870106e+00
  1.1477878e-01
  2.2129713e-01
 -5.6900144e-01
 -1.5144113e-01
 -2.0398408e-01
 -6.0977089e-01
 -2.1266335e-01
 -3.4454357e-02
  1.5343638e-02
  7.0301652e-01
 -1.7937990e-01
  8.7828218e-04
  6.0847607e-03
  4.0569363e-04
  8.3660856e-03
 -6.0893232e-03
  7.8995069e-03
 -2.6166262e-03
  5.3422945e-04
  1.2901543e-02
 -5.0730199e-01
 -4.7006899e-01
  1.4514641e-01
 -1.2832244e-01
 -2.2045419e+00
 -7.0777811e-02
 -3.2149472e+00
  8.5777035e-03
  2.1980449e-03
  1.4519377e-03
 -1.9321045e+00
  4.7404417e-01
 -5.5844748e-01
  6.8240669e-03
  8.0837834e-01
  2.4787243e-03
 -1.1485630e+00
 -9.9531311e-01
 -2.8642081e-02
 -7.3242033e-01
  4.8402610e-01
 -1.1498090e-01
 -7.5411856e-01
  6.0750294e-01
 -1.2899070e+00
  5.8455947e-03
 -2.1820857e-01
 -8.7089181e-01
 -4.2255637e-01
 -2.7518804e+00
 -1.5452517e+00
 -1.0105698e+00
  5.2139755e-02
 -5.8708173e-01
  2.1076465e+00
 -6.7966539e-01
 -6.4254880e-01
 -1.8430980e-01
 -4.6401155e-01
 -1.0631374e-01
  4.7959766e-01
 -1.2473330e+00
  1.8778621e-03
  7.8394497e-04
  1.4107809e-02
  7.4785936e-04
 -6.4905896e-04
  2.7517328e-04
  1.3604525e-02
 -1.2498496e-01
 -8.0542022e-01
 -1.3411017e-01
 -2.9789403e-03
  1.0180916e+00
 -1.6623123e-01
  6.4935303e-01
 -1.5419836e-03
 -3.5643103e-04
 -7.5983691e-01
  2.4452268e-03
  1.8131554e-01
 -1.7987993e-03
  3.6088834e-04
  5.1477391e-01
 -1.6247408e-01
 -5.6502290e+00
  6.0668826e-01
  9.0062195e-01
  2.6236746e-01
 -2.4012677e-01
  3.5870082e-03
 -3.8289902e-01
  3.8918715e+00
 -1.9801103e-03
  1.7715061e-01
 -3.7165263e-03
  2.3198228e-03
 -1.9962753e-03
 -2.0032879e-03
  1.0009906e+00
  6.4526605e-03
  2.6266736e-01
  3.2623219e-01
  1.7873478e-01
  6.0586962e-03
  3.1006902e-02
  2.1252055e+00
 -3.4070779e-03
  4.9185607e-01
  1.3756803e-04
 -4.3499013e-04
  4.9865535e-03
 -4.0432167e-01
  2.6924659e-03
  2.3441274e-04
 -1.5291792e-03
 -4.7551137e-03
 -6.3763177e-03
  9.9993986e-01
 -2.4001211e-01
 -2.2665305e+00
 -3.0237041e+00
  5.8925653e-01
  6.9434273e-01
 -3.3967183e+00
  1.7447573e+00
 -7.1962464e-01
 -2.3262556e+00
 -9.4041944e-01
 -1.7038846e+00
 -1.0239481e+00
 -1.6322664e+00
 -8.7202385e-02
 -6.0671341e-01
  1.3859727e+00
 -1.1691192e+00
 -2.5602551e+00
 -7.8213888e-01
  5.4970455e-01
 -2.7870956e-01
 -5.2720058e-01
  6.7263556e-01
  5.8101529e-01
 -1.5918901e+00
 -1.2097155e+00
 -9.9820517e-02
  1.2192465e+00
 -1.8596961e+00
  5.9301519e-01
  3.4122488e+00
 -5.2229458e-01
 -3.1040318e+00
  3.7783709e-01
  4.8631477e-01
 -5.1238167e-01
 -3.1791997e-01
 -3.0125493e-01
 -9.9138194e-01
  1.2690709e+00
 -5.1105684e-01
  2.1555541e-04
  1.8964918e-02
  1.3452259e-04
  1.4880317e-03
  8.8241072e-03
  2.5757193e-03
 -3.9467324e-02
 -1.0707152e+00
  1.3156965e+00
  2.8466871e-01
 -9.8710042e-01
 -1.7092091e+00
 -6.9423419e-01
  3.9679933e-01
 -1.0885362e-01
 -1.1975916e-01
  1.9019116e+00
  2.4555471e-02
  8.7005913e-01
 -6.0854782e-04
 -3.5996235e-03
 -5.0978011e-01
  2.6563308e-01
  1.9773046e+00
  1.2319943e-01
  3.2338160e-01
 -2.3630105e-01
 -4.6809822e-01
  9.3297350e-01
  5.6463623e-01
  2.6713419e+00
  9.3536830e-01
  5.9854597e-01
 -1.1323805e+00
  1.2448364e-03
 -5.5035532e-01
 -6.1269027e-01
  1.8884389e+00
  1.1140045e+00
  9.0292013e-01
  1.0803101e+00
 -6.8256760e-01
 -2.0174951e-04
  1.0352483e+00
  3.4147295e-01
  8.4015811e-03
  5.6623435e-01
  3.8270555e-02
  1.5394794e-02
 -3.5671904e-03
 -1.7293470e-03
  3.4716057e-03
  1.6405686e-03
 -5.9553568e-04
  5.9682084e-03
 -1.4801930e-03
  8.8370591e-01
  9.5207846e-01
  2.5495095e+00
  1.5041696e-01
 -1.2775977e-01
 -1.7541758e+00
  1.1554900e-01
 -6.9434524e-02
  1.2540997e-02
 -2.8937560e-01
  6.2675476e-01
 -2.6822540e-01
  1.6464758e-01
  7.5330901e-01
  2.0278800e+00
  2.4654090e+00
 -2.0508250e-04
  9.1326720e-01
 -5.7394856e-01
  2.0906248e+00
  1.8475517e+00
 -6.4945114e-03
 -3.6597606e-03
 -1.1502304e-03
  4.6954241e-02
 -4.0214688e-01
 -8.1589645e-01
  3.3453338e-02
  3.9634907e-01
 -6.2315732e-01
  6.9467612e-03
  6.2610310e-01
 -1.5948372e-03
 -5.7193249e-01
 -2.1613525e-04
  7.6775457e-04
 -1.4205524e-03
  1.0208795e-02
  3.5912892e-01
 -4.0410988e-02
 -8.1774712e-01
  3.9769251e-02
 -1.1187641e-02
  2.8010407e-03
 -9.7055177e-05
  1.4779313e-02
  7.4207368e-03
 -6.8278424e-04
  8.3090190e-04
 -1.7069515e+00
 -2.7012696e+00
 -1.9885786e+00
  6.1943865e-01
 -1.6766561e+00
 -8.5977685e-01
 -3.5006196e+00
 -1.7708661e-03
 -1.0024678e-02
 -9.3612864e-05
 -1.4548606e-03
  1.4914648e-03
 -4.5913026e-02
  2.6287211e-03
  6.0564876e-01
 -4.8390058e-01
  9.7131115e-01
  3.0800861e-01
  3.8592818e-03
  3.1624191e-02
 -1.1608721e+00
  3.9594695e-01
 -3.0902177e-01
  6.9850630e-01
  6.8433219e-01
  6.1647897e-03
 -9.7997409e-01
 -7.7709774e-05
  8.6705035e-01
  2.4665277e-02
  1.0691887e+00
 -1.0040792e+00
  2.5055930e-01
  3.4675262e+00
 -3.7824335e-03
 -9.5600160e-03
 -1.3745257e-03
 -2.7079042e-02
  8.3997063e-03
 -1.9246724e-03
 -1.6335538e-01
  4.7968966e-03
 -8.4012998e-03
 -2.2198404e-03
  3.9237840e-03
  1.8821465e-04
 -5.6742667e-04
  2.3438961e-03
  2.2456173e-03
  4.9154074e-03
 -6.2116206e-01
  1.3160001e+00
 -9.3295532e-01
  1.9739958e+00
 -3.2465342e-01
 -3.1132536e+00
  9.3942845e-01
 -5.6615114e-01
 -2.6426321e-01
 -4.9019018e-01
 -1.1429511e+00
  8.4099239e-01
 -7.4651474e-01
  1.6972689e-01
 -4.6307838e-01
  1.1253196e+00
  9.9363190e-01
 -1.5444494e+00
 -8.9951873e-01
  7.2391379e-01
  1.5699190e+00
 -4.3935344e-01
 -1.5276460e-01
 -1.0930690e+00
  4.2991143e-02
 -1.2795994e+00
 -6.8035829e-01
  3.6183557e-01
 -9.3490130e-01
 -9.6544141e-01
 -2.7878234e+00
  9.5067048e-01
  8.4577900e-01
 -1.0792290e+00
  1.5135593e-03
  4.4463986e-01
 -3.1205213e-01
  1.8315734e-02
 -1.2393920e+00
  2.0788575e-03
 -6.6243643e-03
 -9.0264191e-04
  7.7272899e-04
 -2.4305403e-03
 -1.6812347e-03
  3.8377554e-03
  4.3075136e-03
 -2.8704610e-03
  5.1387973e+00
  1.1676687e+00
 -2.3671639e+00
  1.7071774e+00
 -4.8870853e-01
 -7.7767134e-01
  1.5132899e+00
  1.3521799e+00
 -5.1849848e-01
  4.7545363e-03
 -2.3202069e+00
 -5.0743297e-04
 -4.9939165e-01
 -1.3638697e+00
  2.6430895e+00
  1.1918800e+00
  5.9436119e-01
 -1.8894132e+00
  1.1498610e-02
 -2.0448191e+00
 -3.0821756e-01
  9.9571228e-01
 -4.0267897e-01
 -1.0370950e-02
 -1.1710588e+00
 -6.3362420e-02
 -7.6468164e-01
 -2.1312978e+00
 -1.3248984e+00
 -1.0480095e+00
  8.7519193e-01
  1.1740781e+00
  1.0151175e-02
 -5.5192208e-01
  4.2720425e-01
  1.0769366e-03
  7.6565987e-01
  3.7461209e-01
  1.2210948e+00
 -7.4319291e-04
 -1.9031190e+00
  8.2538241e-01
  1.5952682e-02
  2.5518457e-03
  2.1166317e-03
 -5.8555626e-03
 -3.1807106e-03
 -1.7747488e-03
  3.2495435e-03
 -3.1006925e+00
  1.2040765e+00
 -4.8486084e-01
 -9.0473104e-01
  1.2544074e+00
  2.4573769e-01
  1.5797248e-01
  3.7703798e-03
 -3.4496405e-03
  2.3403851e-02
  8.3771306e-01
  1.0673552e-02
  7.7873778e-01
 -4.5952308e-03
  6.8325657e-01
  1.5898579e+00
  2.6608112e-01
  3.0145564e+00
  3.9740156e-02
  3.4254146e-01
  1.0669430e+00
 -5.7147497e-01
  2.3440651e-03
  8.8945854e-01
  1.6723424e+00
  1.2281234e-02
 -9.1796458e-01
  3.0621997e-01
  1.2896631e+00
 -1.0969961e+00
  3.9058238e-01
  1.8338349e+00
  2.0168535e-02
 -1.8386703e+00
  4.3159762e-01
 -1.2811054e-02
 -5.4761972e-03
  9.8707052e-03
  2.2592566e-03
  9.1553573e-03
 -1.5031014e-01
 -2.4542911e-03
 -6.7999461e-03
 -1.9040338e-03
  8.0812303e-04
 -1.8073779e-03
 -2.2966799e-03
  2.8944772e-03
 -4.8086848e-03
  2.9633263e-01
  1.7418656e+00
  1.5680493e+00
  2.5559628e-01
  1.6516675e+00
  2.0106893e+00
 -6.8545842e-01
 -3.4590652e-03
  1.3102178e-02
 -3.3441077e-03
  4.0694389e-01
 -1.2061272e-03
  1.8915405e-03
  1.2144930e-02
  3.6889561e-03
  3.4929666e-01
 -1.1187712e-01
 -3.1306806e-01
  6.4525945e-04
  1.2802310e+00
  2.2907364e-03
  3.1158423e-01
  1.1224659e-03
  5.0891386e-03
  1.3718744e-02
  2.5496359e-03
  1.7342864e-01
 -1.2490424e-02
 -5.1244313e-01
  5.5547619e-01
 -5.7835275e-01
  3.7999535e-03
 -9.3738390e-03
 -9.7850060e-01
  4.9534738e-03
  2.8825630e-03
  1.2495546e-03
 -7.6796236e-03
  3.5433399e-03
  2.2210148e-03
 -3.1701399e-03
 -5.6836787e-03
 -6.7457268e-03
  1.0042410e-05
 -1.3356807e-03
 -6.2410254e-03
 -2.8868727e-03
  5.3615011e-03
 -1.5579151e-03
  3.3911836e+00
  8.0928218e-01
  3.0458229e+00
  1.0737753e+00
 -3.0561678e+00
  2.9293973e+00
 -2.2465439e+00
  1.1634418e-01
 -1.4539064e-01
 -2.7600894e+00
  9.3336791e-02
  1.2550061e+00
  1.2168940e+00
  1.7491304e+00
  4.0467405e-01
 -1.7492987e+00
  2.2587087e+00
  2.5059948e+00
  2.3307106e+00
  2.8135338e+00
  5.0322514e+00
 -1.8165412e+00
  4.8319525e-01
 -6.0718317e-02
 -1.5910244e+00
  1.9697254e+00
  3.5213940e+00
  5.2258663e+00
 -6.2114078e-01
 -1.5221618e-01
  2.5961301e-01
 -2.3464917e-03
  7.6171046e-01
 -8.4953988e-01
 -5.6887120e-01
  5.9123044e-03
 -3.7079371e-04
  1.5976166e+00
 -5.4939487e-04
 -3.5595582e+00
  2.0042126e+00
 -2.9418057e-02
  5.9015816e-04
  9.2065264e-04
 -1.0336610e+00
 -2.8731369e-03
  8.2161659e-03
  1.1591487e-02
  3.2897096e-03
 -1.1422385e+00
 -1.0188309e+00
  1.5004097e-01
 -3.3894250e+00
 -1.5222387e+00
  4.5632377e+00
 -2.7722394e+00
 -4.7109008e-01
 -1.5588943e-03
 -3.1559722e+00
 -1.1206749e-01
 -2.9537547e+00
 -1.6646749e+00
 -1.2332838e+00
 -2.5302866e-01
  6.1857247e-01
 -1.8487502e+00
  2.6197335e-01
  6.8631673e-01
 -7.6114863e-01
 -1.7279793e+00
 -1.0015866e+00
 -7.4914163e-01
 -1.0413128e+00
 -7.6966763e-01
 -1.2512352e+00
 -1.5598966e-01
 -6.4271086e-01
 -3.6869623e-02
 -1.8924479e+00
  1.0680045e-01
 -3.2404687e+00
  4.6758333e-01
 -6.6407132e-01
  8.4325951e-01
  5.6611700e-03
 -8.5876292e-01
  7.6351243e-01
  2.1070386e-01
  5.2853340e-01
  4.7983673e-01
 -4.5039654e-01
  1.1240581e-02
 -2.1191835e-03
  1.6742794e-01
  8.1530848e-04
  1.8763457e-03
  4.7740033e-03
  2.1904663e-03
 -2.8182790e+00
 -3.8114801e-02
 -3.4476907e+00
  1.5164651e-03
 -1.8790485e+00
 -1.8614235e+00
  3.1156757e-01
  7.1095186e-04
  6.2553063e-03
 -4.1637658e-03
 -5.8997369e-01
  4.4132252e-03
  6.2547498e-03
  2.7981696e-03
 -4.1026053e-01
 -1.7010130e-02
 -8.0607710e-03
 -5.8847040e-01
 -6.2879114e-03
 -2.5787280e+00
 -1.0810181e-02
 -2.2667877e-01
 -3.6295862e-03
  2.2285408e-03
 -6.2492047e-03
 -5.9726108e-03
  6.0305703e-03
  2.4749097e-04
 -2.0093368e-03
 -6.4028724e-04
 -4.1775763e-04
 -4.8454691e-04
  1.0782610e-02
  3.5943225e-01
 -1.6733093e-02
  7.1898052e-05
  6.5694192e-05
  9.8605419e-04
  2.3180009e-03
 -1.9799506e-04
 -5.8415281e-03
 -2.2142713e-03
 -6.1334344e-03
  1.3094225e-03
 -2.1668181e-03
 -6.2343972e-03
  5.7133548e-03
  4.5346026e-03
  1.0378961e-03
 -2.2407722e+00
 -5.0828123e+00
 -4.9822176e-01
 -1.0971214e+00
  1.5725410e+00
  4.9419231e+00
 -5.0790915e+00
  5.7535321e-01
  1.3713699e-03
  5.1917303e-01
  2.4662362e-03
  2.6793859e-03
  1.2579979e-02
 -6.3284822e-03
 -3.3891806e-01
  8.5411930e-01
 -2.0019667e+00
  1.0921979e+00
  9.3448198e-01
 -7.2867346e-01
  1.6480564e-01
  1.6847489e+00
 -1.1682014e-03
  2.1101502e-01
  1.5216219e+00
  1.5801223e-02
  6.7644107e-01
  3.2927829e-01
  2.5023624e-01
  1.1623156e+00
 -6.3144106e-01
  3.1717856e+00
 -3.7975356e-04
  3.6425045e+00
  1.3585774e+00
  1.0319585e-03
  2.9569145e-03
  4.0621791e-02
 -2.4412896e-01
  1.4611639e+00
 -3.4117647e-03
  2.6541230e-01
 -1.3617509e-02
  4.2869067e-03
 -7.0844144e-03
 -4.8366683e-03
 -3.6623103e-03
  7.1308036e-06
 -1.6166583e-03
  3.2569242e+00
 -1.3649331e+00
  6.5619941e+00
 -3.5763945e-02
 -5.1446462e+00
  1.4650824e+00
 -2.0965092e+00
  3.0717149e+00
  7.6061380e-01
 -4.7418766e+00
  2.4253922e+00
 -2.1979990e+00
  2.3641818e+00
  1.6212882e+00
  9.2600560e-01
 -2.3230919e-01
  2.6048350e+00
 -3.3359497e+00
  7.2762728e+00
 -1.7871289e+00
  1.9444726e+00
  2.4169910e+00
  9.6892881e-01
 -1.1094722e+00
  2.9985788e+00
  2.6372555e-01
 -3.2187157e+00
 -1.0867392e+00
 -1.2982563e+00
  1.4819604e-01
  1.9509828e+00
  1.4549141e+00
 -3.8070848e+00
 -2.1749735e+00
 -1.7676008e+00
  5.7881814e-01
  6.6067010e-01
 -5.4235692e+00
 -1.3835274e+00
 -1.2249150e+00
 -4.9580850e-02
 -4.8678498e+00
 -2.3296317e-01
 -2.3308669e-01
 -4.2887271e-04
 -2.4208796e-04
 -3.0010638e-01
 -2.9385325e-03
  6.5637529e-03
 -3.5622586e-03
 -1.0951804e-01
 -1.1380329e-03
 -3.2438149e-04
  5.3474689e-01
 -1.5155411e-01
  1.6263487e-02
  2.9971136e-03
  2.9632293e-03
 -2.6180749e-04
 -1.8038856e-03
 -6.8057032e-04
  1.0234715e-03
  3.2887598e-03
 -8.2374690e-04
 -2.0257409e-03
  8.0878008e-03
  1.3414932e-03
 -2.4156771e-03
 -5.7999187e-05
  5.5208807e-03
  5.0019415e-04
  7.2258208e-03
  2.8640586e-03
  3.4141133e-03
  2.5026123e-03
  1.7578410e-03
  9.4050104e-03
  4.1399528e-03
 -2.6477361e-03
  4.6045231e-03
  6.1720465e-03
 -7.3393397e-03
 -6.5469812e-03
  2.8244760e-03
 -8.5573373e-03
  1.3776917e-03
  4.9151159e-03
  5.4789595e-03
 -1.1466080e-02
  4.9454304e-03
  3.5141658e-03
  1.0904156e-02
  7.6917931e-03
  9.2464004e-04
 -4.7967201e-03
 -2.4823255e-03
  3.8668393e-05
 -1.2224821e-03
  1.8752518e+00
  5.5745018e-01
  1.9976205e+00
 -1.0861442e+00
 -3.9060965e-01
  2.0698793e-01
 -1.8343027e-01
 -1.1697317e+00
 -5.8876371e-01
  1.5411364e+00
 -6.9085741e-01
 -1.0046991e+00
  6.1641436e-02
  9.4427270e-01
 -2.4636945e-01
  2.7055043e-01
 -4.1513732e-01
  8.8291740e-01
 -1.3863701e+00
 -3.5247847e-01
  2.6295072e-01
 -9.8151702e-01
 -3.4858492e-01
 -1.2735848e+00
  3.5617191e-03
 -2.4969333e-01
  3.8810021e-01
 -5.5330992e-01
 -1.1585889e-03
  2.6505704e-03
 -1.2824023e+00
 -6.7871833e-01
 -3.3081147e-01
 -8.3639300e-01
 -3.7492868e-01
  1.7370161e+00
  4.5853642e-01
  6.1446619e-01
  1.0900949e+00
 -2.4449234e-01
 -7.5577533e-01
  1.3625655e+00
 -4.0888725e-04
  4.6989587e-03
  5.0824108e-03
 -2.0004218e-03
 -2.5395304e-03
 -7.9210838e-03
 -2.2987858e-03
 -6.1201060e-01
  7.2210737e-02
 -2.2415724e+00
 -1.2930249e+00
 -7.1191984e-01
  1.1941078e+00
 -3.1167700e+00
 -1.1911514e+00
 -6.4635938e-01
  7.1970803e-01
  1.2218528e-01
  6.6475004e-01
 -4.4258121e-01
  5.3731669e-03
 -4.1960545e+00
 -3.1798804e+00
  1.7654761e+00
 -3.4975984e+00
  5.8402264e-01
 -1.8584801e+00
  1.3947703e+00
 -4.7652087e+00
 -1.3652595e+00
  6.9229454e-01
 -4.2505890e-01
  1.3426030e-01
 -5.4051437e+00
 -3.5962567e+00
 -4.7984776e+00
 -4.8674912e+00
 -1.6351923e+00
 -1.4535075e+00
  6.3963398e-02
 -1.0553543e+01
 -1.7257489e+00
 -3.0774437e-03
  1.0553019e+00
  4.3060231e-01
  9.5184582e-01
  5.5442280e-01
  1.3680367e-02
  1.8715577e-01
 -2.8575663e-03
  1.0526408e-03
 -7.9379877e-04
 -8.2069952e-03
 -1.3875541e-03
 -5.2235198e-05
 -3.9443964e-04
  3.0292706e+00
 -7.3332958e+00
 -3.9487000e+00
 -8.8000111e-02
 -4.4627309e+00
 -6.3590133e-01
 -7.2293954e+00
 -1.5714631e+00
 -5.2666594e-03
 -5.8463097e-01
 -9.4822340e-04
 -2.4032714e-03
  8.2614308e-04
 -1.7454014e-03
  1.2459263e+00
 -5.2756083e-01
  7.7550375e-01
  3.0773690e-01
 -7.9344976e-01
 -3.5990056e-01
 -1.5762877e+00
  4.3047695e+00
 -2.7101617e+00
  4.4282275e-01
  6.9584353e-03
 -1.1455833e-03
  3.8055021e-01
 -2.3488257e+00
  1.5499439e+00
 -3.3919830e+00
  7.9779309e-01
  1.0998344e+00
  2.0093592e-03
  2.9143827e+00
  3.0481946e-01
 -5.3745657e-02
  7.1682129e-03
  2.2575980e-01
 -5.1565706e-03
 -1.0798859e-02
  4.4509277e-01
 -2.2561941e-03
 -3.3372793e-02
  4.4246044e-04
  1.6195086e-01
 -3.4757261e-03
  7.3789861e-03
 -3.2587291e-04
  1.2814939e-03
 -2.8353776e-03
 -2.2278108e-01
 -4.6223486e-04
 -1.1268872e-03
  7.8699839e-01
 -5.2495364e-02
  7.2024599e-02
 -7.1447152e-03
  3.3292053e-03
 -1.6684283e-03
  1.0727035e-02
  3.9661941e-03
 -1.6684700e-03
 -1.8637880e-03
  2.8789940e-03
  4.1779918e-03
  1.7890587e-03
 -5.1731779e-03
  2.6238549e-03
  6.6613668e-04
  6.6208183e-03
 -5.3582696e-04
  8.4021367e-04
  7.5391558e-04
  2.8392186e-03
 -1.3777304e-03
 -4.7482415e-03
 -1.7605922e-03
  1.2416095e-02
  8.0569396e-03
 -6.5534697e-03
 -2.1478331e-03
  3.9631799e-03
 -1.3924534e-03
  1.0728504e-03
 -9.6968198e-03
 -3.1256194e-03
  2.5876793e-03
 -3.8938471e-03
 -4.1491678e-03
 -6.0148649e-03
  1.1267482e-03
 -2.3788353e-03
 -3.7125112e-03
 -1.1913338e-03
  2.5117574e-03
  7.1751728e-04
  1.9915013e-03
  1.7169706e-03
 -3.6588514e-03
  5.3089941e-01
  2.7904680e-03
  1.6637439e-03
 -5.1172948e-01
  3.2505971e-01
 -9.5929357e-04
  1.1399786e-03
  1.3181925e-03
 -2.7485441e-03
 -2.8975642e-01
  1.5457803e-03
  3.1637477e-03
  7.5276406e-03
  1.9439103e-03
  1.0394760e-03
  6.2010102e-03
 -2.5963448e-03
  1.6642420e-02
 -8.1602084e-03
 -9.4077410e-03
 -2.5487051e-03
  8.3159428e-04
  1.0397563e-02
 -2.3279437e-03
  6.9284299e-04
 -3.9240606e-03
  7.2332970e-03
 -9.7123785e-03
 -5.8258194e-03
 -5.6808428e-03
  1.9465917e-03
  1.3791021e-03
  1.1178828e-03
 -1.7148113e-03
 -3.0580487e-03
 -4.1549345e-03
 -3.5987834e-03
 -6.9052796e-03
  4.9813944e-03
  6.8525365e-04
 -7.7602728e-03
  6.0763932e-03
 -3.9562066e-03
 -2.6507415e-03
  1.8774802e-03
 -8.6441897e-03
 -1.1630863e-03
  3.5671680e-03
  3.0148483e-03
  3.4267733e-01
 -7.2117639e-03
  5.1273839e-03
 -5.0557262e-01
  1.3285740e-01
 -1.0265958e-03
  6.4772740e-03
 -3.6729677e-03
  7.5543817e-04
 -2.1951746e-03
  3.1309742e-03
 -9.4851304e-04
 -6.1471616e-03
 -2.7300031e-03
  1.8128847e-04
  4.2985082e-03
  3.7425073e-04
  2.6240028e-03
 -3.9910330e-03
  6.1527971e-04
 -2.1358838e-03
  5.8436702e-04
 -3.1058078e-03
  7.1152649e-03
 -3.4105352e-03
  1.9066281e-03
  4.7660489e-03
 -2.2569665e-01
  5.2780868e-04
  2.4981734e-03
 -1.0002692e-02
 -7.3481852e-04
 -1.1591058e-02
 -2.5416303e-03
 -1.1515127e-03
 -5.4982468e-03
  2.9365970e-03
 -2.6966690e-03
 -3.2731988e-03
  1.0013854e-03
  6.6954312e-03
 -7.8564296e-03
  2.6884640e-03
 -3.1031275e-03
 -7.4025411e-03
  2.0507262e-04
  7.5890948e-03
 -3.8751767e-03
  2.6322908e+00
  2.6999056e+00
  2.5464370e+00
 -3.7932557e-03
 -2.7777228e-01
  9.6402496e-02
 -1.9733714e+00
  2.5090162e-04
 -4.5485538e-03
  8.6587928e-03
  1.1685185e-02
  4.5529834e-04
  6.4470959e-03
  1.5828306e-02
  3.5780601e-03
  8.3230494e-04
 -3.4160816e-04
 -8.3731543e-03
 -4.0268782e-03
  1.3803773e-03
  1.6367610e-03
 -2.0800931e-03
  5.6806454e-03
  1.6333029e-02
  6.9481335e-03
  2.2515325e-02
  1.3386874e-02
  2.5465293e-03
 -3.8151294e-03
  5.3447979e-03
  1.1883748e-03
 -8.2433885e-03
  5.8247760e-04
  3.5179898e-01
  5.7077436e-03
  3.7165708e-03
 -3.0730120e-03
 -7.2251386e-03
  2.3626516e-04
  1.5898292e-03
  3.8809124e-03
  1.1897834e-02
 -2.0426041e-03
  4.3052621e-03
 -8.2769925e-03
 -1.5093847e-03
 -5.8693639e-03
  1.1330995e-04
 -4.9670006e-04
  6.9720399e-01
  4.0278769e-01
  5.7101745e-02
 -3.2121637e-01
 -1.2742755e+00
 -1.9854793e-01
  1.2224745e+00
  6.0470458e-03
 -3.0510861e-01
  1.9398075e-01
  1.4449378e-02
  4.1890103e-01
  3.5234737e-01
  7.9976492e-02
  1.7197603e-02
 -1.6190419e-01
 -4.0513163e+00
  2.5493893e-04
  6.1580294e-01
 -2.2920363e-01
  5.4422975e-01
  4.4389195e-03
  1.1461808e-01
 -2.2040341e+00
  4.3998318e-04
  8.4564465e-01
  3.3895017e-03
  6.2668002e-01
 -1.0532167e-02
 -6.0416323e-01
  4.2663974e-01
 -2.3784380e-02
  7.4154508e-01
 -7.8666234e-01
  1.5072013e-01
  1.5339670e-01
  4.5529914e-01
  5.6410885e-01
 -2.1306167e-03
 -4.2548200e-01
  3.7773279e-03
  5.6089810e-04
  5.7756188e-03
  1.0017055e-03
  3.4863938e-02
  5.0353617e-03
  1.2057575e-03
 -3.0772567e-03
 -2.6189617e-03
  1.1455002e-03
 -3.5566208e-01
 -2.4343720e-02
 -9.4449753e-03
  3.8850218e-01
 -9.5665077e-04
  9.5573423e-04
 -5.8445674e-03
 -3.6593354e-03
  9.9828967e-04
  1.3664131e-03
 -1.4784842e-03
  1.8255380e-03
 -1.5191061e-03
 -4.2338609e-03
 -6.2392927e-03
  4.9616897e-04
 -2.0725511e-03
  1.6539259e-03
  2.8718931e-03
 -5.9465030e-03
 -2.3920797e-05
  7.4491128e-03
 -4.4926954e-03
  1.5913048e-03
  2.5747565e-04
  1.4386022e-03
 -5.4424652e-03
  6.5464649e-04
  2.1898192e-03
  8.0488092e-04
  1.7300105e-03
  1.8728175e-04
  1.6364744e-02
  4.4480721e-03
 -7.3247203e-03
  3.0018128e-03
  6.6499943e-03
 -1.2376429e-02
 -5.9734611e-03
 -2.7470205e-03
  1.7690035e-02
 -5.0083396e-04
 -5.2551962e-03
  6.0214791e-03
 -1.9836901e-03
 -3.3348100e-03
  1.2675504e-03
 -3.6544069e-03
 -3.7332957e-03
 -2.6219431e-01
 -3.6352805e-05
 -4.7612926e-03
  4.2463410e-01
 -6.9582671e-02
 -3.4306974e-03
 -2.6877900e-03
  1.0061514e-02
  3.2975522e-03
  3.9149774e-03
 -1.9700229e-03
 -9.6139526e-03
  4.0487782e-03
  3.4137771e-03
 -2.9516141e-03
  7.7109300e-03
  2.9966210e-03
  7.6466487e-05
  4.5104240e-04
  3.5693655e-03
 -6.9298190e-03
 -3.4945786e-03
 -1.8406197e-03
 -1.3490714e-02
 -3.1226922e-03
  3.7344194e-03
 -5.5912933e-03
 -1.5948297e-04
  7.0842882e-03
  9.6741263e-05
  1.4784812e-03
 -1.4232075e-03
  6.8711159e-03
 -8.8372594e-03
  9.4112758e-05
 -1.1172449e-03
  8.5595256e-04
 -6.2820823e-03
 -4.3126405e-03
  1.8140143e-03
 -3.8497553e-03
  2.7669494e-03
  6.6900882e-03
 -2.5755519e-03
  9.0763450e-04
 -3.6828271e-03
 -1.5959304e-03
  6.6938356e-04
  2.0211523e+00
 -4.9546605e-01
 -2.1443958e+00
 -3.0595462e+00
 -3.7971082e-01
 -1.3494523e-01
 -3.9792881e+00
  1.8668514e-03
