nep3_zbl 1 W 
zbl 0 0
cutoff 5 5 46 46
n_max 9 7
basis_size 12 12
l_max 4 2 0
ANN 80 0
 -1.5160339e+00
 -2.3162717e-02
  5.3630073e-02
  2.0487933e-01
 -5.0750810e-01
 -1.6826407e+00
  4.2215711e-01
  1.7296749e+00
  6.9657531e-06
  3.7259593e-05
  8.5413206e-01
 -1.5099667e-04
 -5.3361350e-01
 -5.2201033e-01
 -2.4530192e-01
 -8.0424044e-03
  6.9565421e-01
 -1.7334405e-05
  2.5805369e-01
  1.5542989e+00
 -1.3748461e-01
 -3.8771838e-01
 -5.0792847e-02
 -4.5573580e-01
  4.9512577e-01
  1.9668156e-01
  4.7243574e-01
 -7.7650100e-01
 -9.1083801e-01
 -1.0239903e-06
 -1.3705215e-01
 -1.2268885e-02
  2.0794573e+00
 -7.1827400e-01
 -2.4281909e-01
  1.3776885e+00
 -3.6334985e-01
  3.6712700e-01
  2.9695100e-01
 -1.1207128e-02
 -3.0676559e-01
 -2.3938884e-01
  3.8407244e-02
 -2.1937074e-01
 -3.7257981e-01
  8.5676344e-05
 -3.0834359e-01
 -1.2070089e-05
 -1.1703957e-02
 -1.0056527e-05
  2.7405596e-01
  4.3037036e-01
  1.4071015e-01
 -5.9235349e-02
  2.7913493e-01
 -1.9493501e-01
 -7.1780849e-01
 -1.0646772e+00
  2.6723333e-03
 -1.6352510e+00
  3.1448037e-03
 -3.2960963e-01
  1.5642322e+00
 -2.8284317e-02
 -2.9277062e-01
  2.1658475e+00
 -5.8535796e-01
  5.1161969e-01
 -3.8387004e-01
  2.5253466e-01
  1.0819248e+00
 -1.2211321e-01
 -4.9128145e-01
 -3.2643959e-01
 -4.0766111e-01
  4.4137084e-01
 -6.3276561e-03
  4.9823672e-02
 -4.9621984e-01
  3.6635372e-01
 -2.3191822e+00
  1.4789094e+00
  2.8543103e-01
  9.6272784e-01
  6.9406680e-03
  3.8138160e-01
  1.5167913e+00
 -1.4673065e-01
 -5.6731784e-01
 -1.2864548e+00
 -9.9223661e-01
  4.3257502e-01
 -2.1554473e-01
  1.1302271e-01
 -1.9419226e-01
 -3.7779352e-01
  7.0198614e-05
  3.7117762e-04
  5.6373075e-02
  1.6700073e-01
 -1.7723918e+00
  3.7477437e-01
 -2.6806208e-01
 -2.1897860e+00
  2.3981926e+00
  2.2200143e+00
 -1.1705678e+00
 -3.5343430e+00
  1.3937129e-03
 -5.6659955e-01
  8.5529888e-01
 -5.4132938e-02
  4.7145692e-01
 -9.1131433e-06
 -3.9422252e-06
  3.2901727e-02
 -5.3427217e-04
  6.4772493e-01
  5.0729126e-01
 -3.8812765e-01
 -1.9159419e-02
 -2.6485512e-01
  1.2701517e+00
  1.0203086e+00
 -1.4859691e-01
  1.3119780e-01
  3.3459941e-01
  1.4630501e-01
  8.7124032e-01
  6.2934538e-05
  5.0651985e-01
 -2.1660179e-01
 -2.6008809e-02
 -2.7195340e-02
 -3.3983248e-01
 -4.5473480e-01
  8.4932315e-01
 -7.0178175e-01
 -7.9629123e-01
  4.2764968e-01
  3.7062284e-02
 -6.0452456e-03
  7.6225519e-02
 -1.2069752e-01
  1.0713176e-01
 -2.6152654e-02
 -1.2533693e-01
 -9.7853445e-02
 -1.1410827e-01
  8.4446028e-02
  4.5824133e-02
  2.5603957e-05
 -2.6319312e-05
  1.7016208e-02
 -2.7004584e-05
  3.6366073e-06
 -1.6294485e-05
 -7.7648314e-05
  4.2504234e-07
  4.1125040e-05
  4.1213956e-05
 -8.1948332e-07
 -9.0339126e-06
 -2.0187824e-06
  2.0070119e-04
 -2.4721219e-05
  1.8019826e-05
  6.6504384e-05
  4.7891536e-01
  1.7282347e-05
 -1.8867184e-05
 -1.0240937e-04
 -2.6982365e-05
 -1.9507561e-04
 -1.2080333e-04
 -5.3215572e-06
  1.1943042e-05
  2.1040360e-06
  1.2196983e-05
  1.0891478e-06
  1.9120610e-06
 -1.2526659e-06
  1.1723606e-04
  8.9921530e-05
 -2.6154049e-07
  7.6113116e-05
  7.7418053e-06
 -5.9440699e-06
 -7.9443480e-06
  1.6173663e-05
  8.5929802e-05
  1.1269586e-05
 -1.0999743e-04
  7.0937681e-06
  2.8650547e-05
  5.7637862e-05
  1.4609072e-05
 -6.2838866e-05
  2.4575556e-05
  2.2427521e-05
  7.4602226e-06
  2.8994998e-07
 -6.7174610e-06
 -9.4632778e-06
  4.8764119e-05
 -1.6330721e-06
 -1.2564478e-05
 -8.2532529e-07
  2.5338812e-05
 -9.9567005e-05
 -4.0668681e-05
 -6.4521987e-06
  2.3282197e-05
 -5.3631004e-05
 -6.7662717e-05
 -1.3168237e-05
  1.0150072e-05
 -7.0635491e-05
 -3.6289704e-05
 -1.7927647e-05
  3.1504527e-07
 -3.6672940e-05
  9.4271445e-07
 -1.8620239e-07
 -1.9915797e-05
  2.2261344e-07
  1.2810872e-05
  2.3713612e-05
  1.3652047e-05
  9.5685909e-06
  2.1044459e-06
  4.6505806e-06
  1.6786644e-05
 -7.1619165e-06
 -4.8657574e-05
 -4.3146043e-05
  6.6837129e-07
  4.9646798e-05
  7.1193994e-05
 -3.6331051e-06
  2.7628876e-05
  1.8037716e-05
  1.0244397e-05
  4.3023250e-05
  2.4609541e-04
 -1.8430859e-05
 -1.2451261e-05
 -1.6203799e-06
  8.6108077e-05
  1.0777703e-05
  1.5100745e+00
  2.5626013e-01
 -9.5325440e-06
 -1.7490239e-03
 -6.7170930e-01
  5.4279604e-05
 -4.7725165e-01
  9.8662055e-01
  3.6193427e-01
 -7.6888818e-01
 -9.3406022e-01
 -4.3873423e-01
 -5.0153851e-04
 -4.7373506e-01
 -1.7268358e-05
  2.5949024e-05
  1.9363095e-01
 -8.9750898e-01
 -9.6971875e-01
 -5.2765584e-01
 -8.2375228e-02
  4.3478408e-01
  5.3976726e-02
 -5.2532567e-05
 -5.0452448e-02
 -3.4242538e-01
 -1.1370959e+00
 -2.3940088e-01
 -6.9452077e-01
  1.0530683e+00
  7.0207906e-03
 -5.0313647e-06
 -5.0911075e-01
 -5.7615072e-01
  2.2530909e-01
  3.5155648e-01
  3.3567299e-04
  1.7871723e-01
  5.1184487e-01
  4.2689258e-01
  7.8936096e-04
  5.4646009e-01
 -1.3497640e-01
  3.8174543e-01
 -4.0685401e-05
  4.2047857e-05
 -8.7672971e-02
 -1.1062133e-01
 -6.4271283e-03
  2.9895869e-01
  6.2100995e-01
 -1.4650108e+00
 -4.4818759e+00
 -3.6276668e-01
  1.6234252e-01
 -3.6161765e-01
 -6.1517872e-02
  2.7985361e-01
 -2.2836697e+00
  4.8496509e-01
  5.6289828e-01
  1.6746384e-01
 -7.5691223e-01
 -2.8944665e-01
  5.7405132e-01
 -8.1047171e-01
  1.0234755e-01
  1.2901543e+00
  1.8906306e-01
 -1.6880366e-01
 -9.3834811e-01
 -8.2616198e-01
  1.3329655e+00
 -7.5745949e-05
  1.6580744e-02
  5.6951838e-05
 -3.1959188e-01
  6.4800262e-01
 -1.0772308e+00
  5.3263515e-01
  1.6726942e-01
 -1.4344662e+00
 -1.2800300e-01
 -1.8697255e-04
  2.8985676e-01
 -2.8687755e-02
  4.9887446e-01
 -2.4459143e-05
  2.2596853e+00
  4.4990388e-01
  5.1830846e-01
  2.7781507e-01
 -1.3161042e-01
  1.3426521e-01
 -2.0887911e-02
 -1.6467264e-02
 -6.3094445e-02
  9.2400123e-06
 -1.0037914e-01
  3.8547959e-02
 -2.2377987e-01
 -2.0063286e-01
 -1.5871771e-01
 -2.7616948e-01
  7.1380204e-01
 -2.2903500e+00
 -4.6145163e-02
  1.9369851e+00
 -1.0313100e+00
  3.2604489e-01
 -3.4719396e-02
 -5.4892243e-05
 -1.0633223e+00
 -2.0522241e-01
  2.7072771e-05
 -3.5862973e-01
  1.6896077e-01
 -2.3283674e-04
  5.4946840e-01
  7.5552426e-04
 -5.8510909e-03
 -1.9589224e-01
 -4.6790443e-02
 -8.3568115e-03
  7.8618175e-01
  3.0868590e-01
 -7.5629177e-06
 -1.8037161e-04
 -8.4750539e-01
  5.5463746e-02
 -3.2838329e-06
 -1.3407762e-05
  5.5767991e-02
 -1.9426204e-04
  9.5471039e-02
 -2.8602296e-01
 -1.2251220e-01
  1.9664845e-05
  2.2509269e-02
 -5.4767305e-01
 -1.1475358e+00
 -7.9411812e-02
 -5.4870052e-05
 -3.1529376e-01
 -5.3444302e-01
  5.9797380e-06
 -1.4286567e-05
 -2.8971794e-05
 -5.1243782e-01
 -6.9907561e-05
  2.6798692e-05
  7.3798337e-06
  1.3222008e-05
 -1.4945245e-05
  1.2742319e-06
  4.4178228e-06
  6.8926133e-06
 -3.7880742e-05
  1.5760623e-05
  8.7505387e-06
 -3.6098795e-06
  1.7593900e-05
  2.7296494e-06
 -4.6529717e-06
 -2.7063013e-06
 -1.1614487e-05
 -1.3593221e-05
  6.5043832e-06
  6.7092033e-06
  7.8245484e-06
 -3.8268781e-06
 -2.1463795e-06
 -2.5036255e-05
 -5.0772255e-06
 -6.9555455e-09
 -1.0900761e-05
 -7.6438873e-06
 -2.9371960e-05
  9.5595906e-06
 -1.0944451e-06
  1.8592375e-05
  2.0161860e-07
 -8.2841989e-06
 -5.8032780e-05
 -2.7155069e-05
 -2.2649481e-05
  4.4198408e-05
 -6.1886431e-06
 -5.2755245e-06
  1.4848296e-05
 -1.6348145e-05
  1.2934111e-05
  3.4371566e-05
  1.0184176e-05
  5.4874531e-06
 -1.7540719e-05
 -2.7096281e-05
  4.3110199e-06
 -2.1434276e-05
  1.0110177e-04
 -6.8385106e-01
  5.0965148e-01
 -1.4525464e+00
  1.9377356e+00
  2.4008827e-01
  2.2817437e-02
  3.0393353e+00
 -1.0951592e-01
 -6.2833798e-01
 -1.3422943e+00
 -6.0522509e-01
  9.6609175e-01
  3.1039042e-05
  1.7708161e+00
 -2.9149100e-01
 -1.7275610e+00
 -2.0040563e-04
  1.3076235e+00
 -2.9915303e-01
 -1.6335747e-01
  1.1236776e-01
 -5.4521233e-01
 -1.2597582e-01
 -3.0920557e-05
 -7.3729724e-02
 -2.3597710e-01
 -3.2520521e-01
 -1.1953768e+00
 -3.2999757e-01
  1.2016028e+00
  9.1920745e-01
 -1.2671040e-01
 -1.5523525e-01
 -5.5420721e-01
 -3.3232397e-01
 -2.2474439e-01
  1.6532160e-04
 -1.0061686e-05
  4.5159823e-01
 -4.4708705e-01
 -5.1956731e-01
 -6.4073879e-01
  3.7095913e-01
 -6.1544519e-02
  2.8474820e-05
 -5.5655283e-01
 -2.7945182e-01
  4.5480943e-01
  3.2373378e-01
 -6.6464760e-05
 -4.9125633e-06
  7.5056732e-08
 -2.9395804e-05
 -2.0335083e-06
  2.1235096e-06
  6.6880930e-06
 -8.6989412e-06
 -1.6238057e-05
 -3.7796881e-06
 -1.1690322e-05
  7.4883123e-05
 -3.8715996e-05
  1.2628709e-05
  8.3972991e-06
  3.8582648e-06
 -1.5521058e-05
 -3.3556720e-05
 -1.1059115e-06
 -2.0899444e-05
  2.7463500e-07
  1.0346610e-05
 -8.4760295e-06
  4.4741919e-05
 -1.5575290e-06
 -9.8103828e-07
  6.3564103e-06
  1.9972273e-05
 -3.3185250e-05
 -4.9235772e-05
  3.7514186e-05
  7.4647192e-05
 -5.2656658e-05
 -3.7112866e-06
 -4.6430819e-07
 -4.3508567e-06
 -2.9989145e-05
  2.7318762e-05
 -1.1215889e-08
 -6.6932475e-06
  1.4467839e-05
  1.2112511e-04
  2.3887837e-06
 -2.7287062e-05
  4.5649826e-06
 -1.6119839e-05
  1.0674472e-05
  5.1300199e-06
  8.9462246e-06
 -5.5153137e-06
  2.9560467e-06
  4.7963750e-02
 -1.2461858e+00
 -1.7566596e-01
 -1.5770129e-04
  5.5408305e-01
 -2.8929746e-01
  1.7450982e-01
 -1.5909170e+00
 -8.2838313e-05
 -2.7012518e-01
 -5.3716540e-02
 -4.9748935e-04
 -2.7091107e-01
 -1.2336719e-01
 -4.0933242e-01
 -3.2073426e-06
 -7.6302567e-06
 -1.9710509e-07
 -1.4916418e-01
 -5.9969181e-01
  5.7264245e-01
  2.8005146e-05
  7.8892753e-02
 -3.5661686e-04
  1.0019710e+00
 -1.7423131e-01
 -3.4481919e-01
 -3.4881372e-03
  2.8855440e-01
  1.8588774e-01
  4.2491579e-01
  7.9553741e-01
  4.0012695e-02
  3.1589014e-03
  1.0633819e-01
 -5.2605432e-01
 -2.1642057e-02
  1.2680153e-04
 -1.0695863e+00
 -2.0483333e-04
 -6.9042981e-02
  4.5568222e-06
  2.1531975e-03
 -2.8242206e-02
 -9.4807556e-06
  4.0657124e-01
 -1.3997790e-05
  2.0702544e-05
  1.9638581e-04
  2.5010282e-05
  1.4505692e-01
 -3.8795137e-05
 -2.6897436e-05
  8.8162751e-06
 -1.5559127e-06
  6.8123525e-05
  3.8008664e-05
 -1.1230247e-02
  1.4510612e-05
  6.5627537e-06
  2.2916686e-02
  9.6639860e-06
 -4.0032239e-05
  3.8306436e-05
  3.5332880e-04
 -1.2666620e-01
 -1.2561552e-05
  6.7974934e-06
  9.4174419e-04
 -2.0783404e-05
 -3.7630471e-06
  5.9407761e-05
  7.3895690e-06
 -7.6533080e-04
 -7.4040727e-05
 -1.2881335e-05
  4.2513411e-06
  3.9933078e-05
 -3.8545095e-05
  8.5899264e-06
  1.8810993e-05
  3.3894448e-06
  1.6858364e-03
  6.0125931e-06
 -5.3056523e-05
  3.2608539e-03
  7.3221781e-05
 -5.8210730e-06
  3.2444204e-05
  5.1750844e-06
  6.0860934e-03
 -2.7127127e-05
  8.8551778e-06
  1.0216759e-05
 -2.7776829e-05
 -2.3962773e-04
 -3.1101647e-06
 -4.6264818e-06
  2.2505288e-05
 -1.4763525e-06
  8.4009116e-08
  2.7174208e-06
  1.6177908e-06
 -5.1712355e-05
 -3.0242067e-05
  4.8262259e-06
  6.2954095e-05
 -1.8892009e-05
  4.5224766e-05
 -1.4758878e-05
 -2.4045521e-06
 -2.1994852e-06
  8.1319931e-06
  1.3609168e-05
  4.5307479e-06
 -4.6791258e-05
  7.0110486e-06
  6.3936141e-06
 -1.0840309e-05
  2.2208046e-06
 -7.2818599e-05
  3.5093581e-05
 -1.7025104e-05
 -2.8389024e-05
  1.1428725e-04
  1.9029792e-05
 -6.0337345e-05
  6.5451050e-06
  1.7119717e-05
 -7.3885744e-06
  3.3468034e-05
 -1.6052189e-05
 -7.4570294e-06
  3.2353996e-06
 -1.2883974e-06
  1.4827386e-05
 -1.3969824e-05
 -5.8273290e-06
 -3.3111723e-07
 -8.4930898e-06
 -7.7110699e-06
  1.6711621e-06
 -3.4856439e-06
  6.4772721e-06
 -4.7347388e-05
 -3.1660715e-05
  3.6067038e-06
 -1.6815426e-05
  3.5075495e-06
 -3.8127373e-06
 -2.3566368e-05
 -2.8162767e-05
 -2.1977401e-05
  6.3370935e-05
 -3.0213737e-06
  5.6178924e-06
 -2.2506845e-05
 -2.5346157e-05
 -6.0224147e-06
  1.1869379e-05
  3.3692235e-05
 -9.6971598e-06
  7.9112642e-06
  1.0662791e-05
  2.1034930e-07
  2.9268317e-06
  1.0920085e-04
 -1.6617935e-07
 -1.9749144e-05
  2.2176626e-05
  1.5752386e-05
 -3.0851337e-05
  1.1426449e-05
 -5.6263552e-06
  6.8919078e-05
 -5.9509119e-08
  2.8213915e-06
 -7.1592463e-06
 -1.9864305e-05
  2.9582084e-06
 -1.2181902e-05
  1.3028401e-05
 -8.2301103e-06
 -3.8298134e-05
  2.4484456e-05
  4.7914225e-05
  7.4265981e-06
 -1.0712391e-05
  7.0228580e-06
 -8.8952329e-06
  6.6181115e-06
 -3.0207075e-05
 -3.0794505e-05
  2.5336414e-05
  3.5879073e-06
 -1.2220529e-05
 -3.0523413e-06
 -2.6858008e-06
  1.3020721e-05
 -4.6653713e-06
  7.7573329e-01
 -6.3898069e-06
 -2.6183920e+00
  8.4323651e-01
 -5.3952700e-01
  2.5065043e+00
  6.7357564e-06
 -9.1656667e-01
 -3.4221396e-01
 -1.4340868e+00
  1.7326801e-01
  4.9949110e-02
 -1.1208083e-01
 -4.4305370e-06
  4.8194947e-06
 -4.7727960e-01
  3.4630904e-01
 -1.9513995e-05
 -9.3675101e-01
  1.0788557e-01
  1.5699635e-01
  5.3029400e-01
 -6.2775558e-01
 -2.1594875e-01
  3.0610862e-01
  1.4421895e-06
  2.4541490e-01
 -8.3330902e-05
 -1.7354127e-04
  2.0813434e-01
  1.0527747e-01
 -8.2827907e-04
  7.0086658e-01
  1.7668594e-01
 -1.9757910e-01
  5.2064966e-04
  1.6385553e-05
  4.3378498e-02
 -4.4690302e-01
  5.6013091e-06
 -1.8201084e-01
 -2.0272873e-05
  2.8814980e-01
 -5.2437081e-06
  2.4203758e-01
 -2.1552320e-03
  6.8213005e-05
 -4.8159716e-05
  2.0941165e-05
 -2.7956991e-02
  1.6777987e-05
  3.3311950e-05
  6.4419155e-06
  6.0051440e-05
  1.1181114e-05
 -1.2096118e-05
 -1.7688340e-06
  1.2861033e-05
  1.8726723e-05
 -1.6050483e-06
 -3.1007672e-05
  1.4615196e-06
 -1.3825320e-06
 -1.7551665e-05
  1.0741999e-05
 -4.6597477e-05
 -3.3382485e-06
 -2.9405610e-06
 -1.7518458e-05
 -9.6061433e-07
  1.1583340e-05
  4.4321678e-06
  4.9507034e-05
 -1.0687925e-06
 -3.0984868e-06
 -1.3048828e-05
  4.1044754e-05
 -1.7011211e-05
 -1.6693559e-05
 -2.4845383e-05
  1.5224910e-05
  2.1912422e-06
 -1.0451344e-05
  5.5694440e-05
  2.6088383e-06
  1.4064212e-04
  4.8528054e-05
 -7.1945888e-06
  5.9570461e-06
 -5.1858693e-05
  2.3546800e-06
  1.1851615e-05
  5.4933091e-05
 -1.3057725e-06
 -3.7705337e-05
 -2.1530832e-05
 -3.4721405e-05
  6.9849222e-05
 -2.6449505e-05
 -1.4533945e-05
 -2.9214902e-06
  2.1625137e-06
 -3.9023580e-06
 -4.7972344e-06
 -1.7811421e-06
  4.8332313e-06
  2.4180868e-06
 -1.3768353e-05
  1.2629242e-05
 -1.2535857e-05
 -3.9941729e-06
  2.6113672e-05
 -1.0026383e-06
  3.0978637e-05
 -2.5124076e-05
 -5.6321201e-06
 -8.3933628e-08
 -7.6298813e-05
 -1.0104891e-04
 -1.5898411e-05
  9.6366966e-07
 -3.3515360e-05
  7.2658177e-06
  2.5836123e-05
  2.4975679e-06
  6.2468407e-06
 -5.2003088e-06
  9.2886439e-06
 -1.0259212e-06
 -3.3667161e-06
 -2.0118212e-05
 -4.3104072e-05
 -3.4144046e-05
 -5.2899959e-06
 -9.5786936e-07
  1.4994856e-05
  4.0629666e-06
 -4.5985512e-06
 -8.6015116e-06
  8.3327654e-07
 -1.2912365e-05
  1.0042647e-05
 -2.9924397e-06
  3.4624452e-05
  2.7399590e-05
  5.9659569e-06
 -3.8154203e-06
 -6.3865987e-06
 -1.8521068e-05
  1.9870076e-07
  3.3113723e-05
 -2.6704192e-06
 -5.1790968e-05
  8.2172528e-06
  4.1488733e-05
 -2.1631620e-06
  1.6837959e-05
  2.2249345e-01
  2.4979818e-05
 -8.7717872e-06
 -2.8362727e-05
  1.2982203e-05
 -8.0442296e-05
 -2.1751088e-05
  7.3817077e-06
 -2.3492241e-06
  9.4716197e-06
 -1.0158367e-05
 -1.9658239e-01
 -2.5257150e-05
 -5.1272441e-06
  7.0296788e-05
  2.7951814e-05
  1.1336547e-04
  5.0816041e-05
  1.5624526e-05
 -5.6660060e-06
 -3.6705616e-05
 -4.7881241e-07
  1.2111744e-05
  1.9362620e-05
  1.7566837e-05
 -4.7381924e-05
  1.6230450e-05
  6.2871157e-05
 -5.0807670e-05
  5.2547675e-06
 -4.7382250e-06
 -2.5684335e-06
  1.1299116e-05
 -8.1064580e-05
  1.3547494e-05
 -2.7115184e-06
 -1.6741209e-05
  1.2485258e-05
  2.6059461e-06
 -7.9563310e-05
  3.9425015e-07
 -9.2522424e-07
 -6.4790233e-06
 -3.3821321e-05
  5.3341373e-06
  6.2643344e-06
  7.1856790e-05
  1.5956963e-06
 -8.5764814e-06
  1.1209454e-06
 -7.0576432e-05
  6.4883207e-06
  2.5584401e-05
 -9.0379745e-06
  4.0888463e-05
 -7.6378292e-06
 -1.6435541e-05
  2.4745304e-07
  1.1915418e-05
 -2.5076208e-06
 -4.5233526e-07
 -3.4926936e-05
 -9.7276417e-05
  2.2201544e-05
 -2.4473789e-05
  4.9683495e-05
 -8.2447177e-06
 -3.1089719e-06
  4.0647865e-07
  1.7292929e-05
 -8.9799814e-06
  6.5655440e-06
  8.4437147e-07
  1.6545317e-05
 -2.8667306e-05
 -2.3439545e-05
 -3.2926138e-05
  2.0820326e-06
 -3.4997782e-05
  1.5245208e-05
  7.5526310e-05
  1.0995954e-05
  4.0505394e-05
  6.9360049e-06
  7.7862360e-06
  2.8500131e-06
 -3.1167783e-06
  1.6715347e-05
 -1.4605050e-05
 -1.6582375e-05
  2.4128481e-06
 -2.3266036e-06
 -3.8212243e-06
 -6.7012639e-05
  2.6470295e-06
  4.7686913e-06
 -5.9745493e-05
 -1.4406763e-05
  1.9666211e-05
  9.3431845e-06
  8.3366785e-06
  6.7890196e-06
  2.8601191e-05
 -2.1308920e-06
 -1.7153205e-05
  9.7735756e-07
 -1.7941533e-05
  9.2815293e-07
 -6.3389794e-05
  8.1777334e-06
 -1.5043290e-05
  9.4979923e-06
  3.2474768e-06
  6.3862608e-05
  2.1322145e-05
  3.4968460e-05
 -1.3707460e-05
  1.9195115e-05
  1.5604008e-05
 -3.2860986e-05
 -1.0705480e-04
  9.1673774e-06
  3.7329261e-05
  3.6197423e-05
 -5.2165583e-06
 -3.9035262e-05
  2.4978945e-06
  4.0391460e-06
 -2.4486362e-05
  3.6911069e-07
 -1.3048111e-05
  2.5277670e-05
 -6.1736148e-07
 -2.8513641e-06
 -3.5225876e-05
 -2.1045349e-05
  2.8746206e-06
 -5.9019480e-06
 -1.0313033e-05
 -1.4085416e-05
 -1.6053185e-05
  1.2893079e-05
  1.3587420e-05
  2.6346279e-07
  1.5138630e-05
  7.2150692e-06
 -1.7284437e-05
  1.5286258e-05
  7.4768200e-06
  6.2557279e-05
  1.0735253e-05
  4.4756121e-06
 -6.6714861e-06
 -3.6301099e-06
  3.6435405e-05
  2.3162040e-05
  4.1933881e-06
 -1.5485664e-05
 -9.6567574e-06
  3.5359048e-05
  1.4319730e-05
  2.5810445e-05
 -2.7696593e-05
 -6.1037133e-07
 -5.4963130e-06
 -8.4415151e-06
  4.6806940e-06
 -2.2170864e-06
  2.9731623e-06
 -3.8123394e-06
  1.3525560e-05
 -8.5432930e-06
  1.3741034e-06
  1.5010784e-05
 -8.0854843e-06
  5.0960175e-06
  5.3557974e-06
  1.7726563e-05
 -6.8243821e-06
  8.4974281e-06
  4.3142365e-05
 -4.8510265e-06
  1.0068307e-05
 -2.1454745e-05
 -4.7020902e-05
  1.2450609e-05
 -2.1501960e-06
  5.9549311e-06
  2.2273002e-07
 -2.7683313e-07
  1.3002873e-05
  1.3260268e-05
 -4.4628659e-06
  3.3974475e-06
  1.5035871e-06
  2.0606743e-05
 -1.9558835e-05
 -3.2167631e-05
  1.1726617e-04
 -4.6220543e-07
  1.9495232e-05
 -2.3558952e-05
  1.0309360e-05
 -4.6706140e-05
  6.5220433e-06
  1.7104753e-06
 -1.7452550e-05
  9.9414001e-06
 -1.9785875e-05
 -5.5189621e-06
 -3.6601476e-05
  3.8777666e-06
 -1.3107723e-05
 -6.6112320e-06
 -5.8322826e-07
  2.0848988e-06
  3.4165954e-05
  5.4311136e-06
 -1.7334769e-05
 -3.1122709e-05
 -8.2885435e-06
 -1.0518483e-05
 -5.9302474e-06
  5.4796707e-05
 -4.4673550e-07
  2.0130587e-05
  4.4105585e-05
 -2.3619543e-05
  9.6966996e-06
  2.6407102e-05
 -2.0574969e-06
 -7.2956827e-05
 -1.1412410e-05
  1.1721600e-05
  1.9953470e-05
  3.3830700e-05
  1.3111630e-05
  6.1508936e-06
  3.7826256e-05
  2.0453919e-05
 -6.4710589e-06
  6.7759602e-06
 -1.6229096e-05
 -3.2521188e-01
 -2.4323959e-05
 -4.1407343e-06
 -2.1096861e-05
 -4.4751941e-06
  1.5929720e-05
 -1.9513551e-05
 -6.0487694e-01
  8.9828227e-06
  9.2579874e-05
  3.1417490e-05
  1.0019486e-05
 -2.9348021e-05
  3.3651429e-07
 -1.9401476e-05
  2.6350335e-05
  1.6637524e-06
  4.2349446e-05
 -1.9733272e-05
 -8.9978965e-07
 -8.5940849e-07
  3.4219956e-05
 -1.3131447e-05
  4.8535119e-05
  3.7661403e-06
  1.0624533e-04
  2.6102100e-06
 -3.4680401e-05
 -2.4162041e-06
 -2.0009629e-05
 -3.8811240e-06
  1.2334173e-05
 -1.2331129e-04
  4.8643242e-06
  5.7658752e-05
  2.8662089e-05
 -6.5242725e-06
  1.0823694e-05
 -3.1560408e-05
  1.2927025e-05
  3.0547317e-06
 -6.5370104e-06
  8.2886527e-06
 -1.0010319e-05
 -1.4054142e-05
  3.3102122e-05
 -1.1884276e-05
  1.9057925e-05
  3.0576268e-06
 -1.8175198e-06
 -4.0494710e-05
 -1.4771899e-07
  2.9701016e-05
 -2.2674616e-05
 -8.2304738e-05
  2.8847988e-05
  7.3964038e-05
  2.8023915e-05
  1.9669675e-05
  6.7831998e-06
 -9.9023846e-06
 -1.6811435e-05
  1.2751889e-07
  1.1428529e-05
 -4.9056057e-06
  8.1862618e-06
  8.5388583e-06
 -7.9237005e-05
 -2.1604131e-01
 -9.8124947e-05
  6.1614970e-05
  3.6649402e-07
  6.1150690e-06
  2.0873380e-05
  4.0699033e-06
  1.0172969e-06
 -8.4942374e-05
 -6.3096595e-05
  7.8090525e-06
 -4.0769446e-06
 -1.2885223e-06
 -2.0163789e-06
 -3.5169505e-05
 -1.6569093e-05
 -1.1728767e-05
 -2.1984648e-05
 -5.8570463e-06
  1.7693304e-07
  5.9031709e-06
  8.7710623e-06
 -1.1333712e-05
 -3.2936869e-06
  5.4775428e-06
 -2.0786390e-05
  7.2745602e-06
  4.8158486e-06
 -2.5518610e-05
 -9.6986078e-05
  1.3603093e-06
  1.0927391e-05
  1.6172142e-01
 -1.4066749e-04
  1.2412181e-03
 -3.8460868e-05
 -1.5415885e-01
 -2.8433019e-02
 -1.0349749e-04
 -9.0589923e-01
 -1.4164617e-06
 -3.1189164e-02
 -5.7532084e-01
 -1.7651947e-06
 -2.1464036e-04
 -2.0265478e-01
 -7.9393983e-05
 -3.1141735e-06
  2.9197779e-05
 -1.1469418e-03
  2.3815143e-01
 -1.6232341e-06
 -6.6130686e-01
  1.9063298e-05
  1.1740434e-01
 -2.7310634e-05
 -5.8867258e-01
  5.0018568e-02
 -1.1857419e-05
 -1.4020833e-01
 -6.0279559e-02
 -5.1064475e-05
 -2.8202934e-02
 -6.2373738e-06
 -2.2596981e-01
 -8.5334359e-06
  3.4349971e-02
 -3.5057354e-01
 -2.1779238e-01
  3.1725402e-05
 -5.2834977e-05
 -6.7538896e-04
 -5.3152028e-02
 -1.0855347e-02
  2.2145594e-05
 -2.5539825e-02
 -3.1238028e-01
  2.0018751e-03
 -5.3413991e-05
 -3.5643129e-06
  7.1492854e-05
  4.7965168e-05
 -8.8182271e-02
 -1.9668419e-02
 -4.7259659e-01
  7.8160125e-01
 -5.5867124e-01
  5.2799744e-05
 -1.6467554e-04
 -2.0846315e-02
 -4.8327273e-01
 -4.8397410e-06
 -9.7373333e-05
 -1.0242799e-01
  4.7871653e-02
  6.1202407e-02
  2.5668582e-05
  4.1382238e-05
  9.5483629e-06
 -5.4584008e-02
 -8.9515656e-01
  2.7796063e-01
  4.0314862e-01
 -8.9353949e-01
 -3.3437263e-05
 -1.4111221e-01
 -8.9757252e-01
  2.2884430e-01
  9.1236383e-02
  8.3733633e-02
 -4.2076457e-01
 -3.0272558e-01
 -3.5338328e-04
 -1.0165025e-01
 -4.3614589e-02
 -1.0212396e+00
 -4.5790792e-02
  9.1480315e-01
 -7.0299603e-02
 -7.8932324e-05
 -4.4687754e-03
 -8.6855107e-05
 -5.2115642e-02
  5.8672540e-05
  2.9393813e-02
  4.5049414e-01
 -4.0798566e-01
 -1.4706449e-01
  1.6243383e-04
 -4.1174135e-06
 -8.8273327e-06
 -1.3056466e-01
 -1.0374271e+00
 -1.8078986e+00
 -2.2814812e-01
 -1.4174560e-01
 -2.2404189e+00
 -1.3669437e-01
  1.5298493e-01
  3.5941975e+00
 -1.1271751e-04
 -9.6236371e-02
  5.5698186e-01
 -2.6396738e-05
 -8.1109029e-01
 -1.1989356e+00
 -9.4442612e-01
 -3.5838097e-01
  5.8708668e-01
 -4.3683249e-01
  1.3355789e-02
  6.0696316e-01
 -5.5986722e-05
 -5.1416612e-01
  2.6033032e-01
  1.2619433e-01
 -1.3522869e-01
  4.8355192e-01
  1.2766734e-01
  2.4279649e+00
 -6.3003618e-01
 -7.3027951e-07
 -4.5231972e-02
 -6.6221115e-04
 -1.5756676e-01
 -3.6577961e-01
  9.6835655e-01
  1.3390907e+00
 -1.4691619e-02
  3.7408185e-01
  1.2859991e+00
 -1.5168791e-03
  7.5239623e-01
  1.0130510e-06
 -1.7474331e-02
 -2.4265675e-02
 -2.6907623e-01
  1.4160672e-01
 -3.5933372e-01
  7.5489683e-03
  2.0934981e-01
 -6.1421729e-06
 -2.3027837e-06
  7.6712822e-06
 -2.7943706e-06
  9.6533777e-06
  4.6625843e-05
 -5.8872029e-06
 -7.3113915e-06
 -7.5302043e-05
  6.4915334e-06
  2.4702176e-05
 -1.4778684e-06
 -1.5763771e-06
  3.0491656e-05
  4.1830765e-05
  6.8055092e-06
  3.1531959e-05
 -1.0842954e-04
  4.3039463e-06
 -5.7016032e-06
  3.3819200e-05
 -4.1799129e-05
  1.9768859e-06
  4.1773026e-05
 -3.1236982e-06
 -8.0296602e-05
  1.6183340e-05
  6.2249295e-05
 -1.7136730e-05
  8.6306125e-07
 -3.4408508e-06
 -5.9367303e-05
  2.6912810e-05
 -2.6721451e-05
  2.6644220e-05
 -9.2580302e-07
 -6.6197526e-06
 -5.5250243e-06
  1.3977210e-06
 -1.8125878e-06
 -2.5978816e-06
  1.3227481e-05
  9.4308107e-06
 -3.8347025e-05
  9.3999115e-05
  2.8185943e-05
  4.7733629e-05
  2.0241016e-05
 -2.3832548e-05
  1.6270486e-05
  1.4102695e-06
 -2.4551696e-06
  6.3379281e-05
  9.6465395e-05
  6.0468619e-06
  1.0851863e-05
  1.5648384e-05
  7.1440927e-06
  2.9594647e-05
 -2.4543428e-05
  3.1992099e-06
 -2.3507971e-05
 -3.5963312e-05
  1.3472790e-05
 -2.4738227e-05
 -3.5820754e-05
  2.1209202e-05
  3.7137783e-05
 -7.9788369e-06
 -8.8977058e-06
 -5.8140671e-05
  1.9135347e-05
  2.7895084e-04
 -1.9752328e-01
  4.6771060e-04
  4.6735528e-05
 -1.1203950e-04
  2.0087218e-05
 -1.4575333e-05
 -4.0886705e-05
  7.8535923e-06
  6.1130813e-06
  3.9458337e-05
  1.7639300e-05
 -3.4531498e-05
  6.5512781e-05
 -7.7537254e-05
  6.1142993e-05
 -5.5133760e-06
  2.9186443e-05
 -1.7300166e-05
 -6.7194082e-06
 -2.1288353e-05
  2.2619060e-06
  7.4327099e-06
 -7.1718296e-06
  6.8502661e-05
 -6.5862450e-06
 -1.5514191e-04
 -2.4869760e-05
 -1.7725844e-05
  4.2807419e-02
 -9.2189875e-06
 -1.6325472e-05
  1.0928833e-06
 -4.3116102e-05
 -2.3741621e-05
 -3.4111399e-05
 -5.3753965e-06
  2.0310570e-05
 -1.7838440e-05
  1.7383290e-04
 -5.3199415e-06
  1.2631563e-05
  3.1060521e-05
  7.2184762e-06
  9.3319322e-06
 -5.1206393e-05
  2.1165040e-05
 -7.4658365e-06
 -1.7970493e-05
 -6.2478488e-05
 -1.0400430e-05
 -3.2297216e-05
  3.8202394e-05
 -7.3681440e-07
  3.4935299e-05
  1.3397230e-05
  2.0276457e-05
 -1.0432863e-05
 -3.3845508e-06
 -2.9810573e-05
  4.2273191e-06
 -2.0481131e-05
 -2.2180144e-05
  7.7937184e-06
  1.3628376e-05
 -6.0470870e-06
  2.0044910e-05
 -2.0305741e-05
  3.1286294e-05
 -2.9257561e-05
 -4.8994403e-05
 -6.6233783e-06
  2.3514942e-05
  1.5542637e-05
 -1.0477656e-05
 -3.9156198e-06
  1.3167059e-05
 -2.2570897e-05
 -4.4070421e-05
  3.6887472e-05
 -1.6517524e-05
  6.1258174e-06
 -7.1792879e-06
 -6.6128059e-06
  3.4163400e-05
 -1.7151708e-05
  3.7318052e-05
 -9.7304728e-06
 -2.2888105e-05
  9.5403457e-06
  3.3402215e-05
 -2.7733931e-05
 -2.5526937e-05
 -1.9483068e-06
 -2.1835849e-06
  3.3381848e-06
 -6.1980372e-06
 -9.1643806e-06
 -1.3758429e-05
 -1.9316185e-05
  3.5881785e-05
 -7.2307130e-06
  1.1133965e-05
 -1.2119985e-05
  4.1928306e-05
  3.0425597e-05
  4.6770187e-05
 -1.6725060e-05
  1.2420259e-05
 -1.6239150e-05
 -4.2347397e-06
  2.7771107e-06
  1.7979313e-05
 -7.5060503e-05
 -4.5730603e-06
  3.4711116e-05
 -1.2399083e-06
  6.0201364e-06
 -1.4400481e-06
  1.7830927e-05
 -4.3233005e-05
 -9.7511147e-06
 -6.0257880e-06
 -9.8617988e-05
 -5.1485977e-06
 -1.5979878e-05
  5.3912107e-05
 -9.1475813e-06
  4.6951347e-05
 -1.3533505e-05
 -1.7179998e-05
 -1.1625875e-05
 -5.5921519e-05
 -5.7079492e-06
 -1.3779893e-06
  7.0786741e-06
  7.9113615e-06
  1.0623815e-05
 -5.1117895e-06
  1.9027464e-05
 -2.3019988e-06
  2.1044814e-05
 -2.9067330e-06
 -5.7432499e-07
  1.5948233e-05
 -1.0267125e-04
  2.4266105e-06
 -1.7358181e-05
 -3.0618048e-07
 -1.8221523e-05
 -1.6281372e-05
  1.5938354e-05
  4.0367331e-06
 -1.3405902e-06
 -2.5331792e-05
  1.0512399e-04
  3.3086046e-06
  1.2578101e-05
  3.2111532e-06
 -8.9245505e-06
 -4.4494212e-05
  1.8680428e-05
 -1.4878253e-05
 -7.2383336e-06
 -2.3821944e-05
  3.2942044e-05
  6.9276371e-06
  1.6554770e-06
  2.4263631e-05
  4.3112427e-06
 -4.0803307e-06
 -4.7208523e-05
  6.3561374e-06
 -2.0986374e-05
 -9.7926113e-06
 -2.2932211e-06
 -5.6701069e-06
 -1.0425751e-05
  9.4022562e-06
 -3.1629937e-05
  6.4600921e-05
  9.2543429e-05
  1.8325321e-05
 -3.0679752e-05
 -4.7469730e-06
  6.3181997e-06
 -3.0550138e-05
 -4.9323039e-06
 -4.4039325e-06
  3.1375599e-05
 -2.0785059e-05
 -1.2726379e-05
  8.3636980e-05
  2.1421902e-05
  6.1384162e-06
  6.2915846e-05
 -2.4209421e-06
 -6.4463247e-06
 -2.1955337e-05
 -1.0059385e-05
  2.1062879e-05
 -1.4137104e-05
 -2.5690559e-05
  3.8537448e-05
  1.9620593e-05
  4.9554810e-06
 -1.2043199e-05
  9.1334675e-07
 -6.5367944e-06
 -3.7414735e-05
  1.8161307e-05
 -2.3195847e-05
 -3.1334101e-05
 -4.7353868e-05
 -3.8017165e-06
 -7.0612059e-06
  3.5452110e-06
 -4.1170922e-05
 -2.1577320e-05
 -1.6422637e-05
 -1.6289283e-05
 -4.8911656e-06
  6.3306957e-06
  1.3597220e-05
 -4.0625197e-05
 -4.7820386e-06
 -2.0387647e-06
 -1.8305280e-05
  1.8886103e-05
 -2.8719130e-04
  8.6285887e-05
  5.9411432e-06
  1.4488938e-05
  2.3678798e-05
 -1.2199028e-05
 -8.1765589e-05
  4.9013406e-04
 -2.4411372e-07
  5.0559684e-05
 -9.9040102e-05
 -1.9328387e-05
  2.7361715e-05
  6.6402499e-05
  3.7755872e-06
 -4.2765543e-05
  3.6272926e-05
  4.1742118e-05
  5.2832875e-05
  5.5653290e-05
 -9.5361156e-06
  1.6430606e-05
  2.1745196e-05
 -1.6600841e-05
 -5.6557469e-06
  8.2120627e-05
 -6.5970205e-05
  8.3585828e-06
  1.2997066e-06
  1.3614513e-05
 -1.6195071e-04
  8.8800027e-07
 -7.9282669e-05
  2.6967460e-05
 -1.7616661e-05
  1.9747927e-07
 -1.2943494e-05
  5.0062190e-05
 -6.2555366e-05
 -1.9566774e-04
 -1.6902179e-05
 -2.6379315e-05
  4.8699239e-05
 -3.4403279e-06
  3.7069472e-05
 -1.8272125e-05
  1.5599137e-05
  2.3184708e-05
  1.3495847e-05
  5.7110585e-05
 -2.3154984e+00
 -1.7322594e-01
  1.1615016e+00
 -1.4182637e+00
 -3.8511926e-01
 -1.1342981e+00
 -1.7024808e-01
  4.3053546e+00
  3.8951972e-01
  8.6722332e-01
  1.8726958e-01
 -1.0402482e-02
 -1.0256329e+00
 -2.2951294e-01
 -3.5343335e-05
 -8.4089661e-01
 -2.2622585e-06
 -4.3046129e-01
  5.0744903e-01
 -5.7720101e-01
 -4.5601541e-01
 -4.8261029e-01
 -3.0353784e-03
 -5.7508218e-01
  6.1651873e-03
 -5.6195058e-06
  1.8954169e-02
  5.2297175e-01
 -4.7656122e-01
 -3.5532030e-01
 -6.9529831e-02
 -6.2415856e-01
  4.5599791e-01
 -8.4424001e-01
 -8.5105407e-01
 -1.2886558e-06
 -2.3325554e-01
  4.7353610e-06
  1.6109885e-05
 -1.2056646e-01
  9.4481984e-05
 -2.2719243e-01
  2.1744108e-04
  7.0453465e-01
 -3.0344951e-01
  6.7188874e-02
 -9.8180817e-04
  2.9180851e-06
  3.0833685e-06
 -1.1858284e-05
 -6.5042218e-06
  1.7327266e-05
  2.5277400e-06
  1.0554908e-06
  9.4919515e-06
  1.4973542e-06
  3.6232041e-07
  5.9524245e-05
 -1.3591801e-05
  4.1246549e-05
  8.6708160e-06
  1.0070107e-06
  1.3625633e-05
 -1.2933137e-05
 -4.0656892e-06
  3.8231246e-06
 -1.4049387e-05
  1.0160071e-04
  9.3994176e-06
  3.7883830e-05
  1.1401689e-05
 -5.2588266e-06
  1.5538049e-05
 -6.5456284e-06
  3.5233456e-06
 -2.7193051e-05
  7.8837900e-07
  9.0568892e-06
  9.3496696e-05
  1.7366394e-05
  8.1605958e-07
  3.6423331e-05
 -1.2245529e-05
 -1.7597131e-05
  9.2338551e-06
  1.7059243e-05
 -3.8045069e-05
  9.7702232e-06
  4.7306876e-06
 -1.2686891e-05
 -3.5711924e-05
 -8.9462346e-06
 -5.4162797e-06
  2.7881747e-06
 -5.2553319e-06
  3.5594594e-06
 -9.0950271e-06
 -6.4483511e-06
 -3.8470454e-05
  3.0142988e-05
  7.1987597e-06
 -6.4106171e-05
 -1.6050103e-07
 -3.4266381e-05
 -3.8329918e-06
  6.6299947e-08
  8.7572662e-06
 -6.0672796e-06
  3.4189115e-06
 -3.5421413e-06
 -1.8761761e-05
  3.5089473e-05
 -1.0980927e-05
 -2.3427820e-05
  8.6256714e-06
 -4.5323204e-06
 -2.0402558e-07
  4.1304989e-05
  5.4417007e-05
 -1.2400043e-05
 -5.4253055e-06
  1.1007200e-05
 -3.9818096e-05
  6.6006221e-05
  4.7108047e-06
 -1.3075753e-05
  3.6823345e-05
  1.4685230e-05
  5.3613519e-05
  1.2173114e-05
  2.1285316e-06
  8.2690512e-06
  7.0501864e-07
 -5.1971406e-06
  5.6463859e-06
 -3.6580757e-05
  1.1307844e-05
 -9.0703425e-06
  3.9214508e-05
 -4.8065244e-06
 -1.2540344e-05
  1.5591924e-05
  2.9258321e-05
  1.4584091e-05
  9.8235241e-06
 -1.4520399e-05
  1.0994829e-05
  8.9682944e-06
  1.2304990e-05
  2.4804389e-05
  1.0532167e-01
 -5.1718748e-01
 -1.7557874e-01
 -1.0408447e+00
 -3.6222011e-01
  9.9139625e-01
  1.0299293e+00
 -7.2138119e-01
  2.0382318e-01
 -9.9454783e-02
  1.0096126e-01
  1.5603790e-01
 -3.4873735e-03
 -7.7968836e-01
 -7.5171059e-01
 -3.0296967e-05
  2.4868891e-01
  4.3822700e-01
 -2.2849457e-01
 -1.0890249e-03
  2.5474519e-01
 -7.5696796e-01
  1.5809259e+00
  1.0450266e-01
  6.2572204e-02
 -3.7590277e-01
 -4.3176252e-01
 -2.1738395e-01
  6.4670432e-01
 -1.5744014e+00
  9.2804962e-01
 -4.5332517e-02
 -5.7901716e-01
 -1.1533620e+00
  2.6590362e-01
 -1.3102220e+00
  7.7417302e-01
 -1.5192035e+00
 -1.9752851e+00
 -7.7355886e-05
  1.1972513e+00
  7.0070282e-02
  1.4628382e-01
  1.3155673e-05
  9.9122025e-02
 -2.9947999e-01
 -8.3283037e-02
  1.5585926e-01
  4.4274241e-01
  1.1444140e-04
 -5.8654306e-05
  5.6105611e-05
 -1.0675525e-05
 -1.4758929e-05
  3.6439244e-05
 -6.6251056e-07
  1.2372579e-05
 -3.2918826e-05
  1.2981018e-05
  8.8668749e-06
  2.7058992e-05
  1.8878227e-06
 -1.3974468e-05
 -1.7548734e-07
  7.2613875e-05
 -1.8258397e-05
  7.0694205e-06
  2.5988154e-06
 -1.5644307e-06
  3.1670088e-06
 -4.5423116e-05
 -2.4355522e-06
 -1.2452294e-05
 -7.6165702e-06
  1.3667360e-06
 -1.5157455e-05
  1.4171943e-05
 -6.8304638e-07
 -1.2892329e-05
 -1.7937013e-05
  1.2084354e-06
  1.4306252e-05
 -6.3030420e-06
  6.3008920e-06
  2.9326769e-05
  1.4923953e-05
  5.9991678e-05
  4.1583022e-05
  2.7097831e-06
 -1.1835909e-05
 -1.7770416e-06
  2.6364478e-05
  2.8172858e-06
 -6.8743953e-05
  4.2645765e-06
  2.5651226e-04
 -1.3878036e-07
  7.2530493e-06
 -2.4870003e-05
 -3.1120101e-06
  1.1543274e-05
 -3.2250533e-05
  6.0983375e-06
  1.4581710e-06
  1.4663099e-05
 -7.5950124e-06
  1.0157361e-05
  1.4607103e-06
 -1.5938122e-05
 -1.3681979e-05
 -7.2995928e-05
  1.2146674e-05
  1.0112299e-05
 -1.4335472e-05
  7.5718690e-06
  1.2892487e-05
  9.5594041e-06
 -6.7883222e-05
 -7.5249809e-06
  1.1599471e-06
 -4.1025714e-06
  1.8624934e-06
 -6.9694352e-06
 -1.2908230e-05
 -1.0278360e-05
 -5.1964239e-06
 -1.4242150e-05
  1.3878894e-05
  2.7334079e-06
  8.8936940e-06
  1.4099647e-05
 -3.1060103e-05
  2.0180440e-05
  1.0447967e-04
  1.6365828e-05
 -4.5980537e-06
  7.9816367e-05
  1.5902351e-05
 -1.5401500e-05
  3.8424994e-05
  2.2607794e-06
 -3.7356119e-07
  1.3351224e-05
  1.9105196e-06
 -4.5506386e-07
  1.2447360e-05
 -3.9399310e-05
 -1.5261149e-06
  2.1836322e-06
 -8.1472745e-06
  1.5420203e-01
 -1.0222709e-05
  4.5645431e-02
  5.8228020e-02
 -1.2182154e-01
 -9.0662146e-01
  8.5674566e-01
  7.7395320e-01
  1.7803219e-06
 -2.6074187e-05
 -3.3422522e-05
  9.3053998e-03
  2.1890856e-01
  3.0929190e-05
  2.4465997e-05
  1.6667726e-02
  3.5886222e-01
  1.5345479e-03
  9.9257939e-02
 -8.0654165e-04
  1.2957572e+00
  1.0660826e-01
 -6.9621377e-02
  8.9187777e-01
  4.3684450e-01
  1.5291044e-03
  8.4345460e-02
 -7.8458646e-03
  7.8207672e-02
 -2.1502485e-06
  3.3198223e-01
  7.4793893e-06
  1.3528347e-02
  2.2238056e-01
  9.2408118e-07
  2.8115001e-02
  2.0432876e-01
  2.7322931e-05
 -5.9491492e-07
  1.1296586e-01
 -8.2648003e-05
  2.5212987e-06
  1.5113378e-02
 -9.3196113e-06
  6.8049258e-01
  5.7141337e-05
 -1.9928186e-04
 -4.6449036e-06
 -2.7971657e-05
  5.5968416e-05
  1.0809476e+00
  3.3487093e+00
 -9.8609686e-01
 -1.4372385e+00
 -1.3423294e+00
 -3.5058732e+00
 -2.8166969e+00
  2.0744206e-01
  3.7322558e-02
 -1.5532067e-02
  2.7335134e-01
 -2.6621920e-01
  6.4680309e-05
  8.6889418e-07
 -8.8723004e-01
  1.0134873e+00
  2.8107786e-01
  1.9515371e-02
  1.4732274e+00
 -3.5537416e-01
  1.8385342e+00
  3.7523824e-01
 -7.4941492e-01
  5.9859830e-01
  4.3973452e-01
 -1.0439434e+00
 -1.1550842e-01
 -2.1592875e-01
  6.5149057e-01
 -5.6983751e-01
 -6.6290982e-02
 -3.0950627e-01
  1.0326327e+00
 -5.7457354e-02
  1.9840726e-01
  9.5574141e-01
 -3.6698577e-03
  3.9327759e-01
  1.2757418e-01
  6.5873408e-01
  1.8758249e+00
  4.2640502e-04
  5.0051254e-01
 -1.9997158e-05
  1.2193247e-05
  3.8133115e-01
 -4.4179097e-04
  1.1444776e-05
  1.4447864e-05
  1.8485498e-05
 -5.1874077e-01
 -2.1426082e+00
 -1.9381248e+00
 -3.4456112e+00
 -6.1224651e-01
  8.0530715e-01
  6.0126923e-02
 -1.8941379e+00
 -1.2562016e+00
  1.5024318e+00
  5.4461801e-01
  8.3319122e-01
 -2.4233500e-03
 -6.6161215e-02
  7.5318706e-01
  6.8385112e-01
  7.7547640e-01
  7.0536211e-02
  3.0332422e-01
 -1.2688702e-01
 -1.3098538e+00
 -1.0779776e-01
 -1.3366686e-01
  1.2564296e+00
  1.5600505e-01
 -8.7916559e-01
  6.0859543e-01
 -8.2619029e-01
 -1.4597502e-05
 -9.6684033e-01
  8.9629787e-01
  2.6856261e-01
 -3.7047887e-01
  9.9124588e-02
 -7.7691585e-01
  1.3052936e-01
 -2.9678613e-06
 -6.3968921e-01
  4.0882611e-01
  7.0432281e-01
  1.7012729e-01
 -7.4416351e-01
  1.1966492e-01
 -1.4426167e-01
  1.5358993e+00
 -2.3204291e-02
 -1.4535612e-02
 -5.7153898e-06
  1.6476322e-04
  6.1219692e-01
  1.4027181e-05
  2.5241568e-05
 -4.5300885e-06
 -1.1776053e-05
  2.9420341e-06
 -4.0930649e-06
 -3.3626975e-06
  1.6423336e-06
  1.5858781e-05
 -1.7737528e-05
  5.2665846e-06
 -1.0333630e-05
  3.3367760e-06
  1.1757536e-05
 -1.0810159e-05
 -1.3842362e-06
  6.4397209e-06
  3.3993507e-05
  3.5855726e-05
  1.3081293e-05
 -9.9502358e-08
 -2.2824834e-05
 -7.4633383e-05
 -2.5823892e-06
 -1.5488451e-05
 -2.8221682e-05
 -5.1185616e-06
 -6.2064205e-06
  3.0530249e-05
 -5.7999373e-06
 -1.3245581e-04
  6.8913068e-06
 -1.0015482e-05
 -2.3895002e-05
 -9.3047893e-06
 -1.1492166e-05
 -1.3675225e-05
 -7.5006734e-05
  1.4066819e-05
 -6.8917478e-05
 -1.6927755e-05
 -6.6030211e-06
 -1.0923565e-05
  3.4536621e-05
 -9.1226975e-06
  1.3616831e-06
 -4.0660809e-05
 -1.0034671e-05
 -1.0979740e-05
 -9.3627214e-06
  4.3940181e-06
 -6.6102075e-06
  2.4326657e-06
 -3.9014401e-05
  3.9459383e-06
  3.5225039e-05
  5.4252896e-06
  1.0760070e-05
 -1.1818536e-05
 -1.8146948e-05
 -1.2539862e-05
  6.1137252e-06
 -3.0010562e-05
 -6.4030114e-06
  3.1605799e-05
 -2.2891263e-06
 -5.2387522e-06
 -2.0520483e-05
 -1.4476409e-05
  8.6116597e-06
  5.3554145e-06
 -2.3245982e-05
 -6.3950865e-05
  2.6015976e-05
  6.7305227e-05
 -2.8945444e-05
  8.2313500e-06
 -8.3062332e-05
 -3.6769048e-05
  1.1984685e-07
 -2.8384161e-06
  7.0981187e-06
  3.4685669e-05
  1.0190934e-04
 -2.9509820e-05
 -9.5546238e-06
  1.2959872e-05
 -1.9374856e-05
 -1.9178083e-07
 -3.7989889e-06
 -8.7164744e-06
 -1.0857257e-05
  1.2638985e-05
  7.8613921e-06
 -5.8400501e-06
 -3.9427730e-05
 -3.2153437e-06
 -1.4940228e-05
 -4.3233986e-06
  2.5822206e-05
 -3.7052193e-01
 -1.5165405e+00
  2.3774365e-01
 -1.4186554e-03
  1.3527203e+00
  3.1078315e-01
 -3.0866772e-01
  1.0982659e+00
  1.2650919e-01
  1.2995625e+00
  1.3259050e-01
  9.3780327e-06
 -1.0259821e+00
 -3.2644770e-01
  1.0602144e+00
 -1.4045488e+00
  1.9307576e-04
  8.9024156e-01
 -7.2732937e-01
  5.9701705e-01
 -2.1161306e-04
 -8.0199130e-02
  1.2483295e+00
 -1.8264494e+00
 -3.3874533e-01
 -4.9525076e-01
 -7.9803658e-01
  2.8859853e-04
 -1.2848314e+00
  1.2321579e+00
  6.5087938e-01
 -6.3496149e-01
 -3.7901047e-01
  2.7641652e-02
  5.1807964e-01
 -1.6388004e+00
 -7.7516370e-06
  2.3973979e-01
 -2.0295115e+00
 -4.5020819e-01
  4.6821326e-01
 -1.1200321e-01
 -3.8976827e-01
 -1.2457390e-05
  4.2607676e-02
 -1.0545487e-05
  2.3108041e-01
  1.8548912e-04
  3.7452046e-02
  6.8702090e-01
  3.8096723e-01
  1.0382566e-01
 -1.7530423e-02
 -9.2661887e-01
 -2.2706449e+00
  1.1914316e-01
 -2.4529698e+00
 -1.2424929e+00
  6.3607454e-01
 -3.8026829e+00
 -5.0283235e-01
 -1.7461345e+00
  3.9516208e-01
  6.8583214e-01
 -6.6128783e-03
 -3.7120280e-01
 -6.0248154e-01
  7.4335355e-01
  1.2623948e-01
 -1.9287296e-01
  5.5287099e-01
  1.0684574e-01
  3.7673363e-01
 -2.3672407e-04
  1.3717388e-01
 -5.2784052e-04
 -1.3528422e-02
  5.0838846e-01
  2.3750657e-01
 -5.9946823e-01
  1.2995371e+00
 -1.1808910e-01
 -8.7439698e-01
  3.6813562e-05
 -8.2255131e-01
  1.8267627e+00
  6.1485684e-01
  9.1770822e-01
  6.1347836e-01
  8.7860644e-02
 -2.7471758e-06
  6.9945765e-01
 -5.4028310e-02
  1.9755405e-01
  3.6310294e-01
 -6.1247410e-06
 -7.0895366e-02
  1.3901557e-05
  1.1056715e-01
  4.8410293e-06
 -9.1428637e-06
 -2.5567144e-05
  4.1533858e-05
  7.8623216e-06
  1.1113291e-05
 -3.1782216e-05
 -6.8746658e-06
  4.2211836e-05
 -9.4037268e-06
 -7.0106298e-06
 -4.8483518e-05
 -8.1931548e-06
 -7.3281946e-05
  4.5466581e-06
 -5.7695195e-07
 -1.8627828e-05
 -4.9731712e-05
 -1.8494314e-06
  3.8781185e-05
  2.0021293e-06
  5.2592517e-05
 -2.3741491e-06
 -1.2325947e-05
 -7.6653268e-06
 -2.4152008e-05
 -1.7140819e-05
  4.2056028e-05
 -2.8519868e-05
  7.9110050e-06
  1.3225022e-05
  2.1713398e-05
  3.9386432e-06
 -8.2325161e-05
  1.4389644e-05
  3.3819000e-05
 -8.6902610e-06
  6.7962472e-05
 -1.3081270e-05
 -1.4305972e-05
 -1.6442931e-04
  1.0592436e-05
  4.0927617e-07
 -4.5385797e-05
  3.1392799e-05
  1.1131752e-05
  1.0404785e-05
 -1.6077349e-05
 -9.2424714e-05
 -6.8578292e-06
  8.8403231e-06
 -2.0480356e-05
  3.5833142e-05
 -6.4313253e-06
 -4.7361755e-07
  2.9261237e-06
  6.9459878e-05
  3.9308950e-05
  1.0733935e-05
  1.7263272e-05
  2.7498216e-05
  8.9988653e-06
  3.7416557e-05
  1.2431992e-06
 -3.2491898e-05
  9.1188231e-06
 -9.9148965e-06
  2.7852926e-05
 -2.3803741e-06
  4.9058954e-06
  5.8164724e-06
 -2.0287976e-05
  6.2280774e-06
 -4.0655505e-06
  4.8390684e-06
 -1.5230626e-05
  8.5404972e-06
  8.2407765e-05
 -9.6036338e-06
  8.9599183e-07
  1.4522457e-05
 -6.0123898e-06
  2.3786408e-06
 -1.4683297e-07
 -5.2230130e-06
  1.2599214e-05
  6.9755806e-05
  2.5596948e-06
  6.2823192e-06
  6.6574230e-06
 -1.0392571e-05
 -2.2174222e-06
  1.1813682e-05
 -2.2235183e-05
  1.3044282e-05
  6.5911704e-06
 -3.8942867e-06
  1.3398590e-05
  4.5166503e-06
  3.0265851e-06
  1.4171680e-05
  7.0121497e-01
  6.9756513e-03
 -1.5025517e-05
 -9.0053278e-01
 -4.6065550e-02
  3.6692715e-01
 -7.1168460e-02
  1.5257415e-01
  1.9303764e-01
 -1.5136496e+00
  6.7206076e-03
  2.2268730e-01
  1.1311568e+00
 -7.8098163e-02
 -5.5210108e-01
 -1.4262170e-01
 -3.4179056e-01
 -5.3598970e-02
 -2.5096458e-01
 -4.3578748e-02
  1.1883535e+00
 -7.8043526e-01
 -3.1883031e-01
 -2.3114280e-01
 -9.5923826e-02
  7.9897559e-01
 -5.7371050e-01
 -5.7507747e-01
  5.1395541e-01
  4.5984328e-01
  8.3628386e-01
 -3.6500194e-05
  1.8887976e-02
 -6.1628815e-02
 -1.5316717e-01
 -8.6767238e-01
  7.0142269e-01
  1.4355562e+00
  1.0936639e+00
  3.3415896e-01
  2.1021777e-01
  2.4406068e-05
 -7.2207958e-03
  5.3811751e-02
 -2.0743242e-01
  5.5032033e-03
  5.3996064e-02
  3.5444120e-01
 -3.9742708e-01
  1.2582628e-05
 -9.3815112e-01
  3.2642081e-01
 -3.6071962e-01
  2.4673919e-01
  9.1626233e-01
 -3.0267291e-04
  4.4657630e-01
 -7.1521752e-02
 -1.5290172e-05
 -2.4322593e-01
  7.2274888e-01
 -9.6762069e-02
 -2.2306018e-01
 -7.7444082e-01
 -3.4203462e-02
  1.2060257e-05
 -4.4137450e-05
  2.4806579e-06
 -3.3718338e-03
  2.1406864e-01
 -4.8647931e-01
 -1.5897621e-01
 -1.0834644e-02
  2.1735906e-04
 -4.1519949e-01
 -9.5930137e-03
 -2.7688768e-05
  8.7309577e-02
  1.7761432e+00
  7.9962231e-02
 -3.0260459e-05
  3.0878352e-02
 -5.3837501e-02
  6.8535313e-02
  3.9682665e-01
  4.9974835e-01
 -6.9317526e-01
  1.3528767e-05
  2.5175372e-05
 -9.2137195e-03
 -3.5014176e-01
  1.3239784e-05
 -6.6856280e-02
 -2.4943496e-01
 -1.3567426e-03
  4.4465947e-01
  4.7228846e-04
 -3.9274015e-02
  1.5472923e-04
  2.5312534e-02
 -3.0313342e-05
  1.8723513e-06
  7.1179852e-06
 -1.1384568e-04
  7.2360899e-06
 -2.5033280e-06
  1.2563580e-05
 -4.3308679e-05
 -1.4779112e-05
  8.2848237e-05
 -4.3676159e-06
  1.0279459e-05
 -3.2149876e-07
  1.2754664e-05
 -5.7685036e-05
  3.0290039e-06
 -2.9709413e-06
  9.2529035e-06
  8.8590305e-06
 -1.0871736e-05
 -3.3236238e-06
 -8.2848273e-06
  2.8722296e-05
  4.2276042e-05
  6.3550301e-06
 -9.0588619e-06
  4.8661204e-06
 -6.7593178e-06
 -3.2356278e-05
 -3.0029016e-05
  1.3140772e-05
 -9.4810217e-05
  3.4423153e-06
  9.0352616e-05
 -1.1666845e-05
  4.3298337e-06
 -1.3522965e-05
  1.6668975e-05
  3.1436207e-07
 -1.1335962e-05
  1.4606501e-05
  1.8156848e-05
 -1.3402435e-05
  1.9046860e-05
 -3.7283874e-06
  9.0473313e-06
 -1.0487065e-04
  2.4507608e-05
 -3.6564818e-06
  2.4517760e-06
 -3.3659181e-01
 -3.4819990e-05
 -2.4323385e+00
  1.2116910e+00
  3.1527405e+00
  3.8969536e+00
  1.3592820e-04
 -1.0743163e+00
 -6.2021878e-02
 -2.1268919e+00
  2.0292766e-02
  5.5238169e-01
 -1.0457562e+00
 -6.9797076e-02
 -2.3006056e-01
 -7.7771807e-01
  6.6768109e-05
  6.8001814e-02
  5.0043803e-01
  6.0894919e-05
 -1.6877545e-01
  7.9206540e-04
  6.0244077e-01
 -6.7747242e-06
 -4.2380667e-01
  1.1095536e+00
 -8.1709176e-02
 -6.8254173e-01
 -4.9448916e-01
  7.9096270e-01
  1.1604956e+00
 -1.1638873e-03
  1.1238876e-04
  1.9696978e-01
 -6.7855294e-06
  1.0254403e-01
  1.7881528e-01
 -3.2308437e-06
  1.1214092e+00
  1.0546209e-04
  8.8265610e-01
 -4.0588897e-05
  1.4224857e-01
  1.3166036e-05
 -1.9526064e-02
  5.9284180e-01
 -9.2262387e-02
 -3.8322385e-05
 -1.9009955e-01
 -3.7064267e-06
 -6.3220590e-01
  1.5369371e-01
  5.4760791e-02
  5.4942351e-02
  6.7966682e-01
 -7.2822189e-01
  1.7988939e+00
  1.6373176e-02
 -3.5222708e-03
 -7.4953508e-01
 -2.3475239e-01
  1.1866292e+00
 -1.0188363e-05
 -2.9514617e-01
 -2.9846005e-02
  2.4756588e-01
 -1.5902833e-05
 -8.3121693e-01
 -2.2850478e-01
  5.0979817e-01
  8.0551845e-01
  4.4494055e-02
  6.0016555e-01
 -3.2650303e-02
  3.0825895e-01
 -9.9332762e-01
  2.5519284e-03
 -2.0193092e-04
  3.8437140e-01
 -1.4496029e-03
 -9.2214036e-01
 -8.5624069e-02
 -1.8389623e-01
 -2.1891437e-01
  4.1319069e-01
  1.4196292e+00
  1.0715930e-01
  1.5775591e-01
  9.3637669e-01
  1.5007117e-05
  4.2657986e-01
  4.5575857e-01
  7.9688156e-01
 -1.3465850e-01
  7.2385028e-02
  1.2945698e-05
 -4.6564011e-05
 -3.4713114e-04
 -1.7319274e-01
 -2.3383531e-01
  1.9174797e-06
 -4.5517787e-05
 -2.6878379e-06
 -3.9878301e-05
  3.0232015e-06
  1.2597900e-05
 -1.1150674e-05
  9.4796568e-02
  1.0793777e-05
  2.4359546e-05
  1.2840910e-06
  3.4185272e-05
  9.1613920e-06
 -1.2025569e-06
 -5.6802760e-06
 -2.6827329e-05
  5.4317588e-06
 -1.9672892e-05
  5.5452194e-05
 -3.5508219e-05
  8.3663090e-06
  2.2921986e-06
 -8.5871288e-06
  2.4527769e-06
  4.6591244e-06
  2.1996780e-06
  1.2408623e-04
 -7.0064329e-05
  1.0826748e-05
  2.6257792e-05
  6.4217971e-08
  2.1681702e-05
  1.2887000e-04
  4.8427937e-06
  1.2635556e-05
 -2.3650432e-06
  7.6093897e-07
 -8.8875204e-05
 -5.3709796e-06
  1.3776619e-05
  2.1076138e-04
 -9.3624032e-05
  2.0849184e-06
  3.9081395e-05
 -2.1473024e-04
 -8.9350542e-06
  1.0420255e-05
 -1.6860136e-05
 -6.5265644e-06
  1.4186584e-05
 -4.5483550e-05
  5.6909692e-05
  9.7407292e-06
  7.2748240e-05
 -4.0925344e-05
  6.1776736e-06
  1.0360201e-05
  1.0259125e-04
 -5.8520964e-06
  2.4171692e-05
  3.7284761e-05
 -4.3080422e-06
 -1.2294392e-05
  1.6008632e-04
 -6.0300026e-06
 -5.1689705e-05
 -7.2183784e-06
 -1.3398233e-05
 -8.9146145e-02
 -8.6836162e-06
  5.6712619e-05
  4.4502744e-05
  3.5408066e-05
  6.1148221e-06
  3.6107216e-05
 -3.5674875e-05
 -6.2924687e-07
  4.4637025e-05
 -4.0989539e-06
  6.0549039e-05
  1.4268814e-05
  2.6858229e-06
 -8.0884683e-06
  2.1540414e-05
  1.0623571e-04
  3.4140094e-06
 -1.1445325e-06
 -3.6598681e-07
  1.3009272e-05
 -3.6856476e-05
  1.4592090e-06
  1.3414315e-05
  5.3224403e-06
  2.0372909e-05
  2.3775283e-06
 -4.4646708e-07
  7.9948277e-06
  1.4344960e-05
  9.2047903e-06
  9.6200552e-07
 -1.5353644e-01
  6.9945480e-04
  3.9918388e-05
  2.3202840e-05
  2.8745704e-05
  3.1129157e-06
 -1.0739765e-05
 -2.9043586e-03
  5.9813920e-05
 -3.4987975e-02
 -1.4768966e-01
  1.2801121e-05
  3.8621465e-03
  6.3124475e-07
 -1.5909428e-02
  4.8008424e-01
  3.7897816e-03
 -1.5963344e-05
 -1.3064991e-03
 -7.8399328e-04
  1.7979499e-02
  6.6692665e-02
  7.0956245e-05
  1.1378150e-01
  7.4740843e-04
  4.4771819e-05
 -6.6573624e-03
 -5.0196867e-04
  4.2938762e-05
 -1.3404663e-05
  8.1983344e-06
 -1.2644447e-05
 -4.9704764e-02
 -1.9413689e-01
  7.4865326e-04
 -2.1969551e-02
 -1.0240772e-03
  2.1440857e-05
 -1.7602960e-06
 -3.0032192e-05
 -9.5327199e-03
 -2.3146058e-02
  3.4105189e-05
 -7.0710535e-06
  3.0826636e-02
  2.0244229e-03
  1.5968160e-06
  3.2077107e-05
  7.2318806e-05
 -2.5329220e-05
  1.6687107e+00
  5.6711149e-01
  1.4512435e-01
  2.3986247e+00
 -2.1862766e-01
 -1.4584048e+00
  1.5182852e+00
  1.4040848e+00
 -2.0168819e+00
  1.4118849e+00
 -4.0995055e-01
 -5.7825673e-01
 -6.8740803e-01
 -1.0038371e-01
  2.0043862e-01
 -6.1048478e-01
 -7.0030260e-01
 -4.7920766e-01
 -4.0691507e-01
  3.9386964e-01
 -1.0579259e+00
 -7.2290289e-01
 -8.1685328e-01
 -3.0448404e-01
  5.2920508e-01
  1.4652985e+00
  1.5322611e-01
  4.6049237e-01
 -4.0828422e-01
 -2.6424992e-01
 -2.2021787e+00
 -6.9191754e-01
  1.1073998e+00
  3.0513516e-01
 -1.3923158e-01
 -1.3806964e+00
 -8.5362233e-04
 -1.8279510e-02
  1.7783110e+00
 -6.8503991e-02
  8.5561794e-01
  7.2357885e-05
  3.7856886e-01
  3.0732197e-01
 -1.3211678e-02
  5.0517998e-04
 -3.2936832e-01
 -1.7350215e-03
 -1.4723772e-01
 -2.1427388e-01
 -1.3168111e-01
  3.4316868e-01
 -5.2592129e-01
  1.4678037e+00
  4.1683519e-01
  2.6053762e+00
  6.0254288e-01
  1.6782242e+00
 -2.0386983e-01
  1.8697708e+00
 -7.0784992e-01
 -1.5925492e+00
 -2.4471477e-01
 -2.6406822e-01
  2.0489953e+00
  2.3500767e-01
 -7.4778676e-02
  2.0681087e-04
 -1.4370973e+00
 -7.5729769e-01
  1.3375650e-01
 -1.3462550e-04
  1.1051100e+00
  1.1782782e-01
  1.4624055e-01
  1.0782702e+00
 -8.7166555e-02
 -9.5355392e-01
  6.1867866e-03
  2.6474019e-05
  1.0518083e-01
  1.3979696e-01
 -2.0145737e-02
  6.0425448e-04
 -6.2779725e-01
 -6.3494933e-01
 -1.3360807e+00
  3.7511977e-04
 -2.2633331e+00
 -3.0257180e-01
 -1.2208480e+00
 -1.8390707e+00
 -5.9638202e-01
 -5.3594545e-02
  1.4903112e-03
  3.2532418e-01
  7.9802915e-02
  1.4823013e-06
 -9.9084678e-04
 -3.8631997e-01
  1.7913098e+00
 -1.4919905e-01
 -1.3245942e-01
 -6.3306005e-03
 -2.2008979e-01
  4.3188271e-04
  1.3169642e-05
 -1.8995351e+00
 -7.1438648e-05
  5.2105315e-02
  1.0292491e+00
  2.2956489e-01
 -4.5370170e-01
 -2.8097063e-01
 -2.4381912e-05
 -1.4216667e-01
 -4.3563747e-01
 -8.4684119e-02
  7.0510542e-01
  2.1349483e+00
  1.1501328e+00
 -2.0202111e-05
  3.6970744e-01
 -9.7933608e-01
 -4.5771104e-01
  6.5077317e-01
  3.3117244e-01
  8.5425657e-01
  2.9084831e-05
  2.0008527e-05
  1.4351416e-04
 -3.8395519e-06
 -9.2254698e-02
 -7.9925731e-02
 -1.8731555e-05
  1.2299410e-01
 -1.0419952e-05
 -2.7868811e-05
  7.8193940e-02
 -7.1016243e-06
  1.4110055e-04
 -1.8103956e-05
  3.6555439e-01
  2.0381656e-05
  1.7540857e-05
  1.9192079e-01
  9.3998005e-06
 -1.0919794e-05
  2.0995934e-05
 -2.2161189e-06
  7.9063895e-05
  1.0347957e-05
  2.4774158e-04
  2.2758106e-05
 -3.0962326e-08
  1.7725508e-05
  2.7273296e-05
 -1.1373741e-05
 -1.0039983e-05
 -1.4856663e-05
 -2.8446000e-05
  2.8185930e-05
  2.4833829e-05
 -1.4161649e-05
  6.9415319e-06
  2.8718114e-05
  2.4283645e-05
 -2.8327113e-05
 -4.6060870e-07
 -1.3474594e-05
  2.4702782e-05
 -7.1730383e-06
 -1.5771095e-05
 -1.7480486e-05
  1.3086359e-05
  2.2853805e-05
 -1.8181006e-05
 -2.5755387e-05
  1.7417791e-05
  1.3184545e-05
 -2.0875792e-05
  1.4874960e-05
  7.4076029e-06
  2.6236561e-05
 -8.0595173e-06
 -2.2573844e-05
 -8.8181449e-05
 -1.8056171e-05
  2.3180331e-05
 -1.5532476e-06
  9.0350723e-06
 -5.0507690e-05
  7.3470051e-07
 -2.6605078e-06
  6.6537308e-07
  2.8236389e-06
 -1.5264372e-05
  2.3209330e-05
 -2.6742106e-05
 -3.0028497e-05
 -6.4496839e-01
  3.5881492e-01
  8.3615814e-06
  2.7852264e-01
 -3.6220308e-04
 -9.1420465e-05
  7.3190552e-07
  4.5589608e-01
  9.1565729e-05
 -5.4457349e-01
  1.5083235e-04
 -2.8981067e-05
 -7.9063948e-06
 -2.3607001e-05
  2.7829694e-05
 -6.2210358e-07
  8.1681821e-05
 -2.3560076e-05
 -1.0170901e-01
 -9.6281253e-02
  6.2213892e-01
  2.9275396e-01
  5.5855358e-01
 -8.5690699e-06
 -9.0366942e-01
  2.2441657e+00
  1.5015954e-04
 -5.0391477e-06
 -2.4903844e-01
 -1.3764694e-01
  1.2707021e-02
  2.6340374e-05
  1.5642900e-07
  5.0854564e-01
 -2.9654848e-05
 -8.9492863e-01
  1.2550779e-06
 -2.5977230e-05
  2.4177540e-05
 -8.4347696e-05
  1.3939351e-02
 -3.4481119e-03
  1.3760333e-01
  1.6725728e-05
 -6.5563315e-01
  7.5300182e-03
 -2.0504323e-01
 -1.5179083e-05
 -1.8248009e-05
 -1.3990596e-01
  9.0649593e-01
  1.8851495e-05
  1.9839008e-05
 -2.3072399e-02
  1.7440933e+00
  6.6089049e-02
 -1.8666561e-01
 -1.2585038e+00
 -4.0672671e-06
  2.9969665e-01
  2.1847633e-01
 -1.1027546e-05
  2.7483215e-05
  3.2115493e-02
 -6.4609419e-05
 -6.4580463e-04
 -3.9631140e-01
  1.9346311e-05
  1.3390900e-02
 -7.4794702e-02
 -2.5006761e-05
 -2.7415581e-04
  6.6205725e-02
 -7.4623654e-07
  1.9141300e-05
  2.5053483e-05
  9.1958493e-02
 -3.6205962e-01
  2.4074575e-01
 -2.8368687e-02
 -7.1847461e-02
 -2.2754186e-01
  6.6915929e-04
  1.6020735e-01
 -1.4952768e-01
  5.4303571e-03
  4.9682703e-02
 -1.0833864e-01
  5.2158443e-06
 -5.3421593e-07
  2.3287642e-03
  1.9721108e-02
 -7.5883855e-04
  6.0698647e-02
  1.7320671e-06
  7.9001566e-06
 -7.1484472e-05
  2.6224818e-05
  5.6663092e-05
  8.5115913e-05
 -8.2165054e-05
  3.7703201e-06
 -2.7684515e-05
  1.3669438e-05
 -2.9428851e-05
 -1.0262573e-05
  2.0424173e-05
  5.1543273e-05
 -2.4771831e-05
  2.8187409e-05
  2.7862689e-05
 -8.4780404e-05
  2.6852499e-06
  1.8737446e-05
  1.9793979e-05
 -3.1511233e-06
  1.5123087e-05
 -8.5165630e-07
 -7.7850436e-06
 -3.8991893e-06
 -1.6656006e-05
  2.7201329e-05
 -2.4668892e-05
  2.8341377e-05
  2.0805066e-06
 -1.1302136e-05
 -1.8975254e-05
  2.0874317e-05
 -4.6988348e-06
 -3.4609286e-06
  2.5029422e-05
  2.9296081e-05
 -1.1473625e-05
  2.7298573e-05
  1.3978633e-05
 -2.7186152e-05
 -2.2690590e-05
 -1.2574240e-05
  1.1362456e-05
 -2.4177825e-05
 -1.5385594e-05
 -2.4336707e-05
 -1.9799962e-05
 -8.1890175e-05
  2.6260459e-05
  2.5628269e-05
  8.5519041e-06
 -5.2135970e-06
 -1.9261302e-04
  9.5891191e-06
  1.3900967e+00
  4.6364114e-01
 -1.5176395e+00
  2.6064608e-02
 -8.8489538e-01
  7.9944313e-01
 -2.3400822e-01
  1.2079004e+00
  1.2757608e+00
  1.0067677e-01
  1.0176070e+00
  1.0580113e+00
  2.2375807e-01
  1.0157725e+00
  4.1388638e-02
  1.3883662e-04
 -2.3404255e-03
  6.8329048e-01
  4.3870994e-01
 -3.2679677e-02
  7.9054332e-01
 -9.4597943e-02
  5.8059484e-01
 -3.3761525e-01
 -3.7795553e-01
  4.4311285e-01
 -2.8037930e-01
  7.1917242e-01
 -2.8685912e-02
 -5.6889594e-02
 -5.4906392e-01
 -1.2274150e+00
  2.1006866e-01
  3.4615856e-01
 -6.2234970e-03
  1.5304623e+00
 -4.5933062e-05
  2.5612438e-01
 -6.6067344e-01
 -3.0242487e-05
 -1.0828351e+00
 -2.6821104e-05
 -5.4299943e-03
 -3.7673104e-01
 -1.0803144e-01
 -1.2085899e-01
  1.4709003e-01
 -2.0503659e-05
  2.6786631e-05
  3.0445784e-01
 -3.7185503e-06
  1.4645463e-05
  1.4501312e-05
 -7.4051983e-05
 -2.7346605e-05
 -2.5675274e-05
 -2.8081711e-05
 -1.4561263e-04
  2.7706099e-05
 -1.2632500e-05
  1.7005608e-05
  2.1151516e-05
  2.6765059e-05
 -1.1716455e-05
 -2.8983288e-05
 -1.4689427e-05
  2.6838075e-06
 -1.6498821e-05
  1.5146755e-05
 -8.9561618e-06
 -1.0097051e-06
  1.0313438e-05
 -1.4957527e-05
  1.4508920e-05
 -6.3504399e-06
 -1.8891476e-05
 -2.6399101e-05
 -1.3814245e-05
 -7.9849033e-06
  2.3824521e-05
 -7.2218654e-06
  2.5287306e-06
 -2.6431988e-05
  9.3498593e-06
  8.8777793e-05
  9.0921756e-05
 -2.9521027e-05
  1.4464649e-05
 -2.7168275e-05
  6.2205399e-05
 -2.0062169e-05
  1.6124537e-05
  8.9467721e-07
 -1.7185732e-05
 -1.5251654e-05
 -2.5572030e-05
 -1.9658255e-05
  1.9856052e-06
  9.6804179e-06
  2.0595942e-05
  3.0987737e-01
 -2.3592413e-05
 -3.1510833e-01
  2.9327726e-05
 -6.0766786e-01
  2.7649718e-05
  1.0412121e+00
 -2.2098060e+00
 -1.5120056e-01
 -1.2113966e-05
  1.9039386e-05
 -7.1807553e-05
 -1.1714596e-04
 -1.6351407e-04
 -2.7066915e-05
 -3.0049101e-05
 -8.2301709e-04
 -2.0206203e-06
  4.8328066e-01
 -2.6301606e-05
  8.7268898e-05
 -1.6134270e-02
 -4.4273410e-02
  7.8103643e-05
  6.6431150e-02
  1.4998679e-04
 -2.7990016e-05
 -5.4552838e-05
 -2.7093150e-05
 -2.5234063e-05
 -2.4776582e-06
  1.1358139e-05
  8.0793118e-04
  2.1692598e-05
 -2.9398350e-05
  2.5631937e-01
  2.1284129e-04
 -1.8115816e-05
  8.9545938e-05
  1.4269091e-04
  9.3689148e-04
 -2.2785878e-06
  1.5702239e-05
 -1.9662428e-05
 -2.8430823e-05
 -8.9676927e-05
  2.4093470e-05
 -6.1559665e-05
  7.7920973e-05
 -1.2357979e-05
  3.0193114e+00
  1.4172433e-01
  4.2678523e-01
  8.4262079e-01
  6.7174995e-01
 -3.4904739e-01
 -6.2871194e-01
  1.5518260e+00
  2.4325220e-01
 -2.1315765e-01
 -4.9136062e-05
 -8.5927422e-06
 -1.6982729e-05
 -7.6191306e-01
  1.4465979e-05
 -6.7474379e-05
  3.8397357e-01
 -1.6673733e-03
  4.0980116e-01
  8.5380481e-04
 -7.8725225e-01
 -4.9903956e-01
  1.8811639e-01
  1.2767591e-01
  1.2874830e-01
 -1.9928045e+00
  3.7111047e-01
 -2.6500950e-04
 -1.1802943e-01
  1.1796328e-04
  1.2307376e-01
 -8.8064708e-03
 -2.5291473e-03
 -9.3239725e-01
  2.1635173e-05
 -1.4763733e-04
  2.0657519e-02
  2.7391961e-05
  1.0757426e+00
  5.3592637e-04
  1.0860322e-01
  5.3011334e-01
  2.2177135e-05
 -1.1945298e-05
 -8.8871039e-02
 -6.2633467e-01
 -5.5437803e-02
 -1.3343924e-04
  2.2157903e-01
  2.9629720e-02
  5.8360101e-08
 -1.4586393e-04
 -9.0537556e-05
 -2.5348754e-05
 -1.4806768e-05
 -2.5972669e-05
  1.9810588e-05
 -1.5114663e-05
 -9.5442456e-06
  7.2430485e-05
 -1.7021604e-05
 -2.6261276e-05
  5.9696460e-05
  1.1442780e-04
 -2.3635886e-05
 -1.8465789e-07
 -3.7131258e-04
 -8.6918872e-06
 -1.4872553e-05
  5.3033938e-05
  2.9338558e-05
 -2.2842483e-05
 -7.7651439e-06
  5.5259952e-05
 -6.9637065e-07
  1.2818095e-05
  2.3003156e-05
 -5.5740678e-05
 -2.8624705e-05
  3.4104633e-05
  5.3705713e-05
 -1.1370609e-05
 -2.7776274e-05
 -7.5656862e-05
 -8.7493296e-05
  2.8143682e-05
  3.7376515e-06
 -9.8200644e-06
 -2.2889339e-05
  8.6416148e-06
  7.1926816e-06
  8.9908963e-06
 -2.0633505e-04
  2.7541542e-05
 -1.1021060e-05
  2.3181188e-05
 -2.3609173e-05
 -2.7800914e-05
 -2.6508427e-05
  2.8271119e-05
  1.4220046e-04
  2.3484268e-05
 -2.0188497e-06
 -2.2089969e-05
 -2.2459453e-05
 -2.9472767e-05
  1.1613974e-05
 -9.8995615e-06
  2.8994495e-05
  2.3746761e-05
 -2.1244909e-05
  1.7589113e-05
 -1.3081771e-05
  2.8335595e-05
 -2.0999361e-05
 -7.8139979e-05
  1.3278715e-05
 -2.5053290e-05
 -3.5964938e-05
 -2.5618512e-05
 -3.0954496e-05
 -2.7114544e-05
 -1.8464056e-05
  7.2879093e-06
  1.4206424e-05
  5.3393808e-07
 -1.0032638e-04
 -1.2311274e-05
 -6.4535438e-06
 -2.0990125e-05
  7.6561128e-06
  2.1135027e-05
  4.3940181e-06
  1.4667780e-05
  2.1748148e-05
  2.6377209e-05
  2.7258097e-06
  2.3126360e-05
 -7.6133350e-05
  2.5256525e-06
  4.7183780e-06
 -3.7277168e-06
 -1.0776205e-05
 -2.2397331e-05
 -1.1451223e-05
 -2.3891880e-05
  5.4657332e-05
  1.1374100e-05
 -1.4973286e-05
  1.2865967e-06
  1.5633368e-05
 -2.5727870e-05
  6.7714082e-06
  2.4031674e-06
  2.1186373e-05
  1.4849938e-04
 -2.7574257e-05
  2.2168635e-05
  7.9192665e-05
  1.1362657e-05
 -3.6607133e-05
 -2.5265714e-05
  2.3946761e-05
 -1.5870066e-06
  1.3695910e-05
 -2.0806454e-05
  1.5540394e-07
  1.1421501e-04
  5.0016924e-06
  2.7468775e-07
 -2.3063192e-05
 -4.9621111e-05
  2.2538245e-05
 -7.8234943e-06
  1.2138252e-05
  1.2478475e-05
  3.2219255e-06
 -1.0772832e-05
 -5.7943194e-05
 -1.1112531e-06
  1.4729525e-05
 -1.5461959e-05
 -2.2295022e-05
  9.1888605e-06
  2.5583167e-05
 -7.9459700e-05
  2.0413518e-05
 -1.8707853e-05
  2.0544820e-05
  1.8378625e-05
  1.6599781e-05
  1.9182384e-05
 -4.0109226e-06
 -1.4263986e-05
  7.2109947e-06
  8.2206097e-06
 -2.5278548e-06
  1.4360284e-05
 -1.4108167e-05
 -6.0651084e-05
 -2.7333706e-05
 -1.1821351e-05
 -3.0870819e-05
  9.9848548e-06
  1.3078503e-05
  3.1445194e-05
  8.6539512e-06
 -1.5555204e-05
  9.4757052e-06
  1.4208560e-05
 -2.0718295e-05
 -1.7783386e-05
  2.6204070e-05
  5.7650354e-06
  9.6771623e-07
 -2.4541889e-05
 -5.7095483e-05
  9.5982978e-06
  2.8196375e-05
 -5.0391853e-05
  2.9263158e-05
  9.6980948e-06
  2.6566408e-05
  2.7080029e-07
 -1.1695362e-05
  1.9240131e-05
 -2.7882128e-05
 -2.8310349e-05
  6.4383198e-06
 -1.0543979e-05
 -1.9028214e-05
  8.8079651e-05
 -1.5532827e-05
  2.3843535e-05
  5.1622239e-05
 -5.7897025e-05
  7.7782242e-06
 -2.3841694e-05
 -1.3146666e-05
 -1.4037787e-05
 -1.0473936e-05
  1.9406914e-05
  2.1782251e-05
  2.0387539e-05
 -1.0775572e-05
  8.7224171e-06
  7.7549179e-05
  1.4793383e-05
  2.5182799e-05
 -9.7651828e-06
 -8.6660570e-05
  6.4140033e-05
  3.4045090e-05
 -1.9742542e-05
 -1.7219967e-05
 -7.5134785e-06
  2.0416470e-05
  1.8700919e-04
  5.8383475e-06
  8.5165928e-05
 -2.4607198e-05
 -1.2604344e-04
 -4.6869395e-06
  2.0745914e-05
  6.2536812e-05
  4.8902584e-06
 -2.0363175e-05
  2.9084219e-06
 -1.6635509e-05
 -1.2968916e-05
  1.5421427e-05
  5.0497733e-06
  8.8908913e-05
 -1.8730079e-06
 -2.9788245e-05
  2.1421134e-05
 -2.3423341e-05
  5.5268920e-06
  8.9028908e-05
 -4.6550954e-06
 -1.3816418e-05
  2.3435357e-05
 -2.5380672e-05
 -2.1376947e-05
  1.8982242e-06
  7.9742473e-05
 -2.6597705e-05
 -4.2034204e-05
  7.6058219e-05
  1.2402415e-05
 -1.3641092e-05
  7.1226145e-06
  2.0426874e-05
 -3.7110716e-05
 -1.9656882e-05
 -4.9855080e-06
 -3.8104042e-06
  9.1207294e-06
  8.4414269e-06
 -5.5029512e-05
  6.3416970e-05
 -6.6594616e-06
  8.5880303e-05
  5.6012963e-05
 -7.4039349e-06
  1.0368343e-05
 -2.8200713e-05
 -1.0669958e-04
  2.8812676e-05
 -2.6777247e-05
  1.3848053e-06
  2.2614597e-05
  2.8077140e-05
 -8.7417211e-05
  1.9987981e-05
  6.9461232e-05
  1.9375404e-04
  5.9749127e-05
  2.9012078e-06
 -2.0010746e-05
 -1.4999698e-05
 -9.0721354e-05
 -5.2676442e-05
 -4.3118062e-06
  3.1288728e-05
 -2.9584400e-05
 -4.2501113e-05
  9.3021608e-06
  2.8897150e-05
  6.6954643e-05
  2.8708600e-05
  1.6978553e-05
  1.7370352e-05
  1.4729752e-05
  6.2147134e-05
 -1.7399494e-05
 -2.9616620e-05
  1.8116578e-05
 -3.9233432e-06
  1.7040358e-05
 -2.0442460e-05
  1.6904534e-05
  2.2518778e-05
  2.9866776e-05
 -1.3796243e-05
  2.2068441e-05
  1.7599135e-05
  2.2806575e-05
  6.8836794e-06
  4.1782928e-06
  1.7850723e+00
  1.4694004e-04
 -3.1932312e-01
 -4.7076577e-01
 -2.5051055e+00
  2.6578176e+00
 -3.6068308e-01
 -1.0343295e+00
  1.5133409e-01
 -1.1150117e-01
  7.0344251e-01
 -1.8073534e+00
  1.3299240e+00
  3.0829838e-01
 -1.4196480e-04
  2.7291772e-01
 -1.5252826e-01
 -2.1116031e-05
  2.5418037e-01
  7.6262845e-04
  1.4422268e-03
  1.1824637e-01
 -2.5665659e-01
  9.8488408e-01
 -5.1751710e-02
  1.4741508e+00
  5.0290644e-01
 -1.1212003e+00
  8.5598791e-01
  6.1507934e-01
 -6.9249218e-05
  1.5967517e+00
  8.5315269e-01
  9.4118494e-01
  2.9840311e-01
  1.7308021e+00
  4.3850598e-01
  3.7801397e-01
 -7.7143443e-01
  5.1587611e-01
  1.4691748e-01
 -2.5249350e-05
  6.8554167e-05
  3.3169463e-02
  1.1105160e-01
 -1.1163600e-01
 -4.8589695e-06
  4.8324314e-01
  3.3376849e-01
 -3.6888269e-03
  8.3724523e-01
 -4.0416112e+00
  1.8904752e+00
 -1.3608267e+00
  1.5057061e+00
  1.9412243e+00
  4.8238200e-01
  3.5062443e-02
  1.3990884e+00
 -1.9631511e-02
 -1.0071387e-01
  4.4347042e-01
 -4.0148966e-06
 -6.2939942e-01
 -1.3401894e-01
  9.4725531e-01
  8.5458255e-01
 -9.7571570e-01
  2.6960507e-01
 -6.4627063e-01
  4.7997475e-01
 -1.7131107e+00
  5.6898433e-01
  6.9640833e-03
  5.1115815e-02
  8.5707462e-01
 -3.8356647e-01
  7.6794483e-02
  9.0973908e-01
 -9.2824233e-01
 -1.3129209e-01
  1.6687576e-01
  5.4164934e-01
  1.8913734e+00
 -1.2349740e-01
 -1.1004989e+00
  2.6303662e-05
 -3.7471327e-01
 -2.4968956e+00
  3.9087719e-01
  1.1644990e+00
 -1.0982749e-01
  2.8589562e-02
  2.8858409e-05
  1.7322471e-05
  2.7181577e-05
 -2.9628503e-05
 -2.1053776e-01
 -1.2027936e-01
 -2.8896838e-01
 -1.0527716e-05
 -1.9139155e-05
  4.9389029e-05
 -4.2749439e-06
 -2.4814310e-05
 -1.3919564e-05
  2.8200444e-05
  1.5695030e-05
  2.5631667e-05
 -1.1428227e-05
  6.4307101e-06
 -2.6074702e-05
 -1.5100944e-05
  2.4183166e-05
  8.5311258e-06
  5.4648381e-06
  1.9273310e-05
 -1.6614758e-05
 -3.9171273e-06
 -1.6409962e-05
 -1.7587770e-05
  2.3436187e-04
  1.3724529e-05
  1.4782322e-05
 -2.6025364e-06
 -1.9542906e-05
  1.1692682e-05
  8.1232238e-06
  9.8948849e-06
  1.2098208e-05
 -7.1308554e-05
 -7.1923540e-05
 -1.5069853e-04
  1.9348627e-05
 -1.7086550e-05
 -2.6393272e-05
 -1.3892956e-05
  2.9445559e-05
  7.8520061e-05
  4.9335140e-06
  1.9972842e-05
 -3.7383004e-05
  3.7577709e-05
  2.1994176e-05
  1.3594449e-05
  1.6618371e-05
 -6.6777633e-05
  1.2573646e-06
  1.4709422e-05
 -6.6590299e-05
  1.8024291e-05
  2.7002510e-05
 -2.4388382e-05
  1.9047373e-05
  8.6996879e-06
 -1.2307156e-05
 -1.9013223e-05
 -2.3018438e-06
  1.8774952e-05
 -9.8572564e-06
  1.5589492e-05
  2.0945448e-05
  2.4496978e-05
  1.3169158e-06
  1.4171870e-05
  1.4596042e-05
 -3.3337142e-06
  2.8417617e-05
 -1.4913867e-05
 -6.7668894e-05
 -2.4621664e-05
 -1.2947678e-05
 -2.4556110e-05
  2.4738303e-05
  2.6105337e-05
  4.9689341e-05
  2.2811304e-05
  1.2332670e-05
 -9.0158806e-05
 -9.2108912e-06
  8.7372091e-06
  1.1879041e-05
 -2.5986339e-05
  8.0306083e-05
 -1.7200482e-05
 -2.5064459e-05
  5.6726851e-05
 -3.8659262e-05
 -5.7728657e-06
 -2.5404530e-05
 -1.1032829e-05
  1.7385802e-05
 -1.7691358e-05
  5.7514449e-06
 -2.2136546e-05
 -1.6618327e-05
 -5.2971744e-05
  2.5047548e-05
  2.0677020e-05
 -1.5382509e-06
  1.2283907e-05
 -2.9231365e-05
  1.4803951e-05
 -1.4142947e-05
 -2.1441223e-05
 -7.3451793e-06
 -2.6416034e-05
  3.1694121e-06
  1.8842289e-05
 -4.2590822e-05
 -1.9388123e-04
  2.8806253e-05
  1.2949482e-05
  1.2607656e-04
  2.4946883e-05
  1.1850959e-06
 -8.7965618e-06
 -1.3596287e-04
  1.8326754e-06
 -2.5323890e-05
 -1.2939482e-05
 -3.4547572e-06
 -6.3613365e-06
 -2.4504849e-05
  2.1983687e-05
  4.2543634e-06
  2.6524545e-05
 -7.1260297e-06
 -6.8344816e-06
  7.4436216e-06
  4.6911882e-06
 -2.7041215e-05
  1.5136597e-05
 -7.4491190e-06
  3.3778917e-06
 -2.8926766e-05
 -1.1867637e-05
  8.4935775e-05
  2.6782251e-05
  6.2032932e-06
 -1.7517359e-05
 -1.4981047e-04
 -1.1054452e-04
  3.5358935e-06
  7.3308507e-07
 -2.6336635e-05
 -2.7060545e-05
 -1.7361392e-05
  2.1550901e-05
  1.9281844e-05
  2.8836659e-01
  1.5052763e+00
  2.0900841e+00
  9.9586345e-08
  1.1495205e-05
 -7.7405709e-01
  1.0055983e+00
 -2.7342093e+00
 -1.5318641e-06
  7.7896029e-01
 -3.1030122e-05
 -1.6085838e-01
  6.6321176e-05
 -2.9953530e-06
  7.6529046e-05
  3.1864469e+00
  8.3139485e-06
 -1.0023611e-05
  8.1277889e-05
 -1.9135228e-05
  3.8144022e-05
 -2.2651104e-05
  2.2299788e-05
 -1.8362659e-06
  1.5168366e-04
 -4.9988368e-01
 -1.6507219e+00
  3.9584160e-01
 -1.6416354e-05
 -7.9538499e-05
  1.7013494e-05
 -2.4645546e-05
 -1.2551173e-05
  2.1124975e-05
  6.3014072e-06
 -5.7872635e-01
 -2.4592787e-06
 -4.9272050e-05
 -9.1136587e-01
 -3.0584437e-05
  1.8987786e-05
  2.2413410e-02
 -3.5478317e-03
 -7.0228839e-01
  1.6300357e-05
  5.1167513e-06
 -2.2284145e+00
  1.1118504e+00
 -1.9120529e-05
  1.1407584e-05
  1.8037338e+00
  8.4331185e-01
  1.9182511e-05
  2.1066306e+00
  7.0472330e-01
 -1.1912077e-05
  2.2964306e-05
 -2.3453822e-05
 -5.3960800e-01
 -2.0789900e-01
 -1.4823397e-01
 -1.3742772e-05
  1.1845772e+00
  1.0421147e-01
 -2.4195773e-05
 -4.2262852e-01
  2.5413628e-05
  1.6890092e+00
 -6.3056201e-01
 -1.2124270e-05
 -2.7959433e-05
  2.1618114e-05
  2.4231191e-05
  1.1961737e-04
 -2.2200850e-04
  1.6773857e-01
 -7.3484528e-01
 -1.8551795e-05
 -3.2537810e-05
 -8.4345847e-06
  1.3201501e+00
  2.7428236e+00
  2.0022838e+00
 -2.2377247e-01
  9.7925730e-02
  1.0765477e+00
 -7.7370739e-01
 -7.0621699e-01
 -8.3113891e-06
 -1.4008408e+00
  3.0414053e-06
  1.0180951e+00
 -3.3669880e-01
  1.3882305e-05
 -1.5647165e-06
 -6.3632238e-01
 -1.8637675e-05
  4.5931807e-05
  1.7855439e-01
  1.6599382e-05
  1.3109566e-05
  5.8065519e-02
  1.1563015e-05
  1.6011010e-01
  1.5746860e-01
  6.5810442e-01
 -1.6596254e+00
  1.4368310e+00
  1.3077288e-06
  2.3084646e-01
 -1.1052667e-01
 -1.8632110e-05
 -2.8062948e-05
  1.0210477e-05
 -5.6502462e-04
  1.7038493e+00
  1.9764548e-05
 -8.4240855e-06
  2.2798648e+00
 -1.3787119e-05
 -1.3279944e-05
  4.9552646e-01
  8.9429969e-01
  2.2277956e+00
  2.2703929e-05
  7.5234948e-06
 -8.8402981e-01
 -7.3236185e-01
  2.2606355e-05
  1.2512925e-05
  1.6431901e+00
  1.4814134e+00
  2.0562005e-05
 -9.0730453e-01
  6.6824120e-01
 -1.4382489e-01
  2.5560678e-04
  6.4100057e-01
 -7.1940625e-01
  1.1230032e+00
  2.7369666e+00
 -1.2214420e-05
  1.1922209e+00
 -5.4208040e-01
  2.7345823e-05
 -1.0993202e+00
  1.5044398e-05
 -2.4142452e-01
  7.2884285e-01
  4.8913800e-05
  2.6482101e-05
  5.0043350e-06
 -6.8587615e-05
 -8.9187763e-04
  7.6207228e-04
 -4.1625195e+00
  9.2503089e-01
 -2.5081526e-06
 -3.7174368e-06
  2.4073415e-05
  2.6469288e+00
  1.0924603e+00
  8.5533035e-01
 -2.8815463e+00
  2.0287120e+00
 -2.0639134e-04
 -5.8859247e-01
  1.4479022e-01
  2.0960281e+00
  4.2128593e-01
  2.9481480e+00
  7.9736805e-01
  5.9967726e-03
  1.5002577e+00
  4.9309549e-01
  7.3920953e-01
 -2.5423372e-01
  1.2952384e+00
 -2.7823753e+00
 -1.8411424e+00
 -3.9313543e-01
 -1.1433409e+00
  2.1217661e+00
 -8.9003956e-01
 -1.3516064e-01
 -1.3323665e+00
 -1.2778535e-03
  2.2932323e-02
  1.1795197e+00
 -4.8786014e-02
 -1.2361691e-01
 -1.3973078e+00
 -7.4063587e-01
 -2.3704486e+00
  3.8613431e+00
  6.2114584e-01
  1.3027810e-01
  7.0308536e-02
  3.5087290e-01
  1.5015374e-02
  4.6133372e-01
 -6.0669482e-01
  7.5510579e-01
  1.6196934e+00
 -2.9869585e+00
  2.7794976e+00
  1.8371485e+00
 -2.7226617e+00
 -5.8096147e-01
  1.6138084e-01
 -3.2295248e-01
 -2.3019512e+00
 -1.8245242e+00
  1.4334942e-01
 -4.7200312e-05
 -2.4176617e+00
 -6.9001019e-01
 -1.7634581e+00
 -3.0187848e-01
 -1.6389174e+00
 -1.2129712e+00
  8.1959587e-01
  2.4039104e+00
 -1.1105564e+00
 -1.5975325e-01
 -1.6305231e+00
  8.2667738e-01
  1.8601077e+00
 -5.1745516e-01
  9.7047287e-01
 -7.1737593e-01
 -9.2909616e-01
 -2.0809662e-01
 -8.1708443e-01
 -6.1190790e-01
  1.5718664e+00
 -6.3076758e-01
 -2.8488034e-01
  9.3354017e-01
  9.8311877e-01
 -1.1643214e+00
 -5.4077268e-01
 -1.9688061e+00
  5.4959959e-01
 -2.2177081e-01
  6.9117278e-01
 -3.0061570e-01
  8.1019598e-01
 -2.3922069e+00
 -6.2359494e-01
  2.0967519e+00
  2.3804288e-01
 -1.1409706e+00
 -2.7763355e+00
  4.2854917e-01
 -2.7934535e+00
 -3.2011902e+00
  2.9882169e-01
 -4.9303791e-01
  3.8423231e-01
  9.0623236e-01
 -5.5589598e-01
 -1.9496531e+00
 -1.9880155e+00
  1.0542618e+00
  1.7674214e-01
  1.6582928e+00
 -1.8701330e+00
 -5.5258989e-01
  1.5028243e+00
  1.0410432e+00
 -1.3301384e-01
 -4.2315617e-01
 -3.1802917e-01
 -1.0747136e+00
  8.6775035e-01
 -3.1267077e-01
  7.3672485e-01
 -9.2521238e-01
 -1.9914206e+00
  2.5126581e+00
  2.8255036e-01
 -3.9857337e-01
 -1.1781309e+00
 -1.7128613e+00
  5.6492186e-01
 -1.0528742e+00
  3.6214593e-01
 -8.8064480e-01
  1.3091202e+00
  7.2490537e-01
  7.6659113e-01
 -8.4943895e-05
  1.3195225e+00
 -1.1754599e-01
 -1.2137465e+00
  2.4550962e+00
  8.2037848e-01
 -8.5427815e-01
  2.2149265e+00
  2.7682447e-01
  7.4052696e-05
 -1.8002681e-03
 -1.1288096e+00
 -1.7694060e+00
 -3.1380675e+00
 -2.1587536e+00
 -1.6728421e+00
 -1.0155333e+00
  1.0701094e+00
  6.3342476e-01
  3.0024297e+00
  9.8054105e-01
 -2.8192255e-01
 -5.5974799e-01
 -1.6141638e+00
 -5.4779154e-01
  5.7471901e-01
 -2.3213720e+00
  1.3565633e+00
 -1.2564435e+00
 -2.0505238e+00
  1.0176859e+00
  1.0016062e+00
 -1.4728495e+00
 -3.4661276e+00
 -1.4870869e+00
 -7.0893534e-02
  7.8743237e-01
  1.1938467e-01
 -1.2651646e+00
 -2.0742588e+00
  2.8142571e+00
  1.6246643e+00
  1.4837224e+00
 -7.1683240e-01
 -2.6523523e+00
  2.5347996e+00
  1.9170544e+00
 -1.4079194e+00
 -2.4126008e+00
 -1.4698329e+00
  8.0304176e-01
  1.0189406e+00
  1.2068467e+00
 -8.9004225e-01
  6.8629396e-01
  5.2040690e-01
 -2.2570486e+00
  4.2601186e-01
  3.4842283e-01
  1.0173039e-01
  7.4600130e-01
 -7.6059205e-04
 -7.1524039e-02
  3.8062176e-01
 -1.2000009e+00
 -9.8113197e-01
  3.5265169e+00
 -1.4832301e-01
 -3.1024465e-01
  4.3039617e-01
 -5.5599791e-01
 -8.4139568e-01
 -2.4621665e-02
  6.7219228e-01
 -7.2694886e-01
 -1.9009756e+00
 -9.1917360e-01
  2.4802634e-01
  9.6220678e-01
  2.9064518e-01
  2.4218319e-01
  1.0636743e+00
  7.1139050e-01
  5.9563023e-01
  1.7436228e+00
  6.4560485e-01
  3.2314727e-01
  1.6957440e+00
  2.5804093e-01
  1.1057897e+00
  1.0672007e+00
  2.5625832e+00
 -3.0577230e+00
 -9.2509443e-01
  3.8326368e+00
 -8.9945590e-01
 -3.1078875e-01
 -1.2859975e-03
 -5.4125601e-01
  1.0667113e+00
 -1.2229235e-01
  2.4200436e-01
 -5.8343214e-01
  1.9263687e-02
  1.9263687e-02
  1.9263687e-02
  1.9263687e-02
  1.9263687e-02
  1.9263687e-02
  1.9263687e-02
  1.9263687e-02
  1.9263687e-02
  1.9263687e-02
  3.1644762e-02
  3.1644762e-02
  3.1644762e-02
  3.1644762e-02
  3.1644762e-02
  3.1644762e-02
  3.1644762e-02
  3.1644762e-02
  4.7909852e-02
  4.7909852e-02
  4.7909852e-02
  4.7909852e-02
  4.7909852e-02
  4.7909852e-02
  4.7909852e-02
  4.7909852e-02
  1.6691025e-02
  1.6691025e-02
  1.6691025e-02
  1.6691025e-02
  1.6691025e-02
  1.6691025e-02
  1.6691025e-02
  1.6691025e-02
  6.6395979e-03
  6.6395979e-03
  6.6395979e-03
  6.6395979e-03
  6.6395979e-03
  6.6395979e-03
  6.6395979e-03
  6.6395979e-03
  3.4042809e-02
  3.4042809e-02
  3.4042809e-02
  3.4042809e-02
  3.4042809e-02
  3.4042809e-02
  3.4042809e-02
  3.4042809e-02
  1.0000000e+00
  2.0000000e+00
  3.2824999e-01
  2.5493100e+00
  9.2189997e-02
  2.9181999e-01
  5.8109999e-01
  5.9231001e-01
  0
  0