nep4_zbl 16 Ag Al Au Cr Cu Mg Mo Ni Pb Pd Pt Ta Ti V W Zr 
zbl 1 2
cutoff 6 5 200 134
n_max 6 6
basis_size 8 8
l_max 4 2 1
ANN 30 0
  1.3317302e+00
 -1.0654335e+00
  2.3316655e+00
  5.4131913e-01
  2.2787717e-01
 -2.0301163e+00
  8.7570471e-01
  1.2921704e-01
  5.8505005e-01
 -4.7804948e-02
 -4.3018314e-01
  1.0582232e+00
 -4.1771054e-01
  1.0696101e+00
 -3.8073915e-01
  2.3417178e-01
  1.8159094e-01
 -2.2403660e-01
 -6.5783970e-02
 -3.5872465e-01
  2.2159819e-01
  2.5161362e-01
  2.9346114e-01
  3.4225610e-01
  1.3363722e-01
  2.8904954e-01
  2.4767905e-01
 -3.8783309e-01
 -9.7567600e-01
 -5.6722438e-01
 -1.3603525e-01
  8.6197436e-01
 -3.8390830e-01
 -9.3811446e-01
  8.4183598e-01
  2.6165405e-01
  1.8282060e-01
 -2.3187724e-01
  3.0856118e-01
 -3.3348998e-01
 -1.3025965e-01
  2.1329938e-01
  5.4704491e-02
  1.7334372e-01
  1.6875397e-02
  1.9903457e-01
  1.8473002e-01
 -1.4581808e-02
 -1.5979375e-01
 -1.5168248e+00
  1.6948711e+00
 -1.6828034e-02
  3.3512254e+00
 -2.1177595e+00
 -1.0004060e+00
  1.7048984e+00
  3.9317943e-03
 -3.9933011e-01
  4.6528804e-01
  8.8216603e-02
  4.2916283e-01
  2.5005925e-01
  7.0275998e-01
  1.4945348e-01
 -1.3187030e-01
  1.9042884e-01
  3.9090985e-01
 -8.5929644e-01
 -4.3470737e-02
 -5.3763986e-01
  1.4317527e-01
 -5.3387052e-01
  3.1273505e-01
  8.0971353e-02
 -6.1162400e-01
  1.6210774e-01
  2.4117427e-02
  2.7933899e-01
 -1.6150215e-01
  1.1311823e+00
 -1.7085363e+00
  2.3917383e-01
 -3.0358818e-01
  2.9555720e-01
  1.0935992e-01
 -2.4723716e-01
  1.7821923e-01
 -1.4541601e-01
 -2.7670175e-01
  4.9831457e-02
  2.4091588e-02
 -5.1166885e-02
 -1.6579965e-01
  2.3981535e-01
 -7.8986801e-02
  1.2604776e-01
  1.2033973e-01
  7.4593225e-03
  1.2323523e+00
 -2.0497327e+00
  5.8198136e-01
 -2.8331351e+00
  1.3135628e+00
  1.9416592e-01
 -9.1555133e-02
 -2.2952949e-01
 -8.4335279e-01
  3.8849333e-01
  1.4606878e+00
  1.1734095e+00
  3.8528055e-01
  2.5408962e+00
  6.3508437e-03
  1.5868235e-01
  6.2160116e-01
  1.0712360e+00
  9.2134988e-01
 -1.5589529e-01
  8.6154938e-01
 -2.0618936e-01
 -3.9243007e-01
  1.0405840e+00
  8.0909884e-01
  3.0542722e-02
  6.2589818e-01
  1.8148365e+00
  6.7839786e-02
 -1.2708373e-01
  2.2608964e-01
  4.7787625e-01
  3.7930804e-01
  1.4281971e+00
  1.0657721e+00
  1.1156760e-01
 -4.6827633e-02
  1.5726644e-01
  1.9097175e-01
  1.2177233e-01
  2.6111114e-01
 -5.0920713e-01
 -5.7288730e-01
 -5.5835217e-02
  1.2715858e-01
 -1.3089788e-01
  3.4443402e-01
 -3.8264823e-01
  2.1719013e-01
 -1.2106937e-01
 -4.0440661e-01
  2.3486218e-01
 -2.8034863e-01
  2.5918737e-01
 -8.2044297e-01
  3.6473328e-01
  8.1815355e-02
  2.8227162e-01
  3.0668182e-02
 -1.3640171e-01
 -1.6578265e-01
 -1.6704470e-01
  1.7036755e-01
  3.2751966e-02
 -1.1163139e-01
  4.7422624e-01
  3.6101094e-01
  7.4151427e-02
  8.1353389e-02
  2.4406941e-01
 -7.3861890e-02
 -2.4969468e-01
 -7.3188514e-02
 -1.6331816e-01
 -2.7356452e-01
  7.0365138e-02
 -4.3562800e-02
 -3.5339049e-01
  1.5926969e-01
  1.5441337e-01
  2.6896092e-01
  9.9594489e-02
  3.2423925e-02
  1.6416441e-01
  1.3204996e-01
 -1.4098743e-02
  3.8502273e-01
 -1.4507419e-01
  9.8754704e-02
  4.3444362e-02
 -2.7831420e-02
 -1.3737234e-01
 -3.2205546e-01
  1.3178387e-01
 -6.2153589e-02
  1.0895019e-01
 -5.1321853e-02
 -5.9915703e-02
  1.6403372e+00
  1.6711923e-01
 -4.1701217e+00
 -2.5283961e+00
  2.2240067e+00
  8.8843399e-01
 -1.2171036e+00
  1.5438854e+00
  6.2602836e-01
 -3.4819052e-01
  1.0838465e-01
  1.3135257e+00
  1.8835645e+00
 -1.3076965e+00
 -8.1430531e-01
  1.5273398e+00
 -1.0010024e+00
  1.2653435e+00
  1.7159290e+00
 -5.0337277e-02
 -1.7599251e+00
  5.1750338e-01
 -4.6850823e-02
  8.5515358e-02
  7.3262614e-01
  1.2395600e+00
  2.7863815e+00
 -2.1719137e-01
  3.1816977e-01
  2.1843898e+00
  2.7532083e-01
 -1.3481115e+00
 -2.3748726e-01
  9.6993107e-01
 -1.1969907e+00
  1.2968105e-01
 -7.5101918e-01
  2.6840425e-01
  3.2405737e-01
 -2.6419526e-01
  3.2596028e-01
 -7.9036295e-01
  2.5410017e-01
 -3.5454816e-01
  2.9889804e-01
 -4.6871416e-02
 -1.7042242e-03
 -3.5842953e-03
  1.5959335e-02
  5.2233827e-01
 -1.9288926e+00
  2.0630929e+00
 -8.0353066e-02
 -7.1084982e-01
 -2.0557902e+00
  5.3707737e-01
 -1.4876956e+00
  2.6492390e-01
 -6.5246172e-02
 -6.7442435e-01
  5.6828767e-01
 -1.4136752e-01
  5.0830305e-01
 -3.5822186e+00
 -5.2839881e-01
  6.0666287e-01
 -8.3650935e-01
 -1.4822342e-01
  2.0743994e-01
  1.1213049e-01
 -1.2535759e+00
  6.0929710e-01
  1.0563214e+00
 -1.6719930e-01
 -6.6167819e-01
  4.7341321e-02
 -9.4810659e-01
 -9.4547909e-01
 -1.2864216e-01
  1.1039752e+00
  1.7037778e+00
 -4.7001591e-01
 -7.4985015e-01
  3.2461807e-01
 -1.4413059e-01
  1.6688445e-01
  9.9417679e-02
 -1.2876241e-01
  3.0437115e-01
 -1.6276716e-01
  7.6403558e-01
 -3.9806169e-02
  4.8247609e-02
  3.7929195e-01
 -2.7497169e-01
  3.0282870e-01
  9.1949761e-02
  8.7655127e-01
 -3.6426201e-01
  2.4649551e+00
 -6.1233169e-01
  8.9987803e-01
 -1.7548499e+00
  5.6413922e-02
  1.1456407e+00
  9.0493435e-01
 -4.7794792e-01
 -1.6987699e-01
 -8.4970295e-01
 -1.1905915e+00
 -1.4325477e-01
 -1.6261587e+00
  8.9650595e-01
 -1.2015318e+00
  4.1720363e-01
 -3.8850719e-01
 -5.1722932e-01
 -4.8154771e-01
 -3.1084439e-01
  1.9353227e-01
 -4.3628287e-01
 -1.1364601e+00
 -6.7258847e-01
 -5.1475453e-01
 -2.0918882e-02
 -9.9997687e-01
 -1.8973337e-01
 -1.8036873e+00
 -2.6556712e-01
 -3.4903032e-01
 -7.7761573e-01
 -6.0272068e-01
 -8.6955786e-01
  5.5766648e-01
  5.4548991e-01
 -1.1344291e+00
 -3.3798805e-01
  6.1192997e-02
  1.8172534e-01
  1.1966459e+00
  2.3271148e-01
 -1.6433419e-01
 -1.6242024e-01
 -1.1210380e-01
 -6.7589894e-02
 -2.2620243e-01
 -7.3002225e-01
 -1.4405129e+00
 -1.1654381e+00
  2.3291059e+00
 -9.0933716e-01
  8.8604212e-01
 -2.1284785e+00
  1.0800326e+00
  1.1317763e-01
  3.1660285e-02
  2.2247079e-01
  1.5261333e-01
  6.5407366e-01
  3.1940094e-01
  6.5584734e-02
 -8.0343717e-01
 -3.9746988e-01
  2.7947980e-01
  7.0434594e-01
 -6.3198322e-01
  1.2995495e-02
  7.9867750e-01
  5.8643693e-01
  2.6999870e-01
  5.4219109e-01
 -8.8391319e-02
  7.0529312e-01
  4.3744281e-01
 -3.0333716e-01
 -1.3150430e+00
  4.9273261e-01
  4.7222883e-01
  1.1159567e+00
  5.4557025e-01
  4.6352229e-01
  4.9892852e-01
 -6.1555918e-02
 -6.7650482e-02
 -2.0432428e-01
  3.9763084e-01
  2.0609887e-01
  2.7807686e-01
  2.5043342e-01
  2.4831569e-01
 -3.6010675e-03
  2.2409799e-02
 -3.1518839e-02
  2.0236580e-01
  1.9994777e-01
  1.4705443e-01
 -2.0583424e-01
 -8.2906038e-01
 -2.4262658e-01
 -2.4743946e-01
 -3.2456896e-01
 -1.1465186e+00
 -5.8331913e-01
  9.9871054e-02
 -2.7284110e-01
  4.9594395e-02
  3.5119909e-01
  8.0903751e-01
 -7.4897401e-02
  1.1590812e+00
 -2.6129633e-01
  9.1559887e-02
 -9.8539257e-01
  1.2432019e-01
  6.1039513e-01
  3.7020391e-01
 -2.7630058e-01
 -2.9914111e-01
 -5.0565088e-01
 -1.1303258e-01
  4.3335721e-01
 -6.1403796e-02
  1.2081457e-01
  6.0991979e-01
 -9.5961191e-02
  3.2091785e-02
  2.7658933e-01
  4.3922126e-01
 -6.0160278e-04
 -3.2483351e-01
 -6.1377630e-02
  6.1562490e-01
 -1.0366015e-02
 -1.2009548e-01
  1.2392697e-01
  4.0808257e-01
 -8.2184488e-05
 -4.4943380e-01
 -1.2709054e-01
  7.6098591e-02
  2.9757559e-01
  1.0312892e-01
  3.2244468e-01
  2.7379453e-01
 -2.1397283e-02
 -9.3725282e-01
 -7.2818899e-01
  4.3422160e-01
 -3.9176103e-01
  7.4169439e-01
 -1.0001739e+00
  7.4666625e-01
 -2.0635267e-01
 -1.1291284e-02
  5.8513647e-01
  1.4934610e-01
  1.1426151e-01
  4.9139830e-01
  6.1623067e-01
 -3.2092395e-01
  1.4588907e-01
  1.1375149e+00
 -1.5276803e-01
 -3.8044538e-02
  2.9072648e-01
 -1.2353040e+00
  1.6854064e-01
 -4.8407879e-01
  1.3221268e-01
  5.5940682e-01
  2.0656127e-01
 -8.6208510e-01
  5.3179377e-01
  2.3973024e-01
  3.7623486e-01
  8.7051868e-02
  4.2674017e-01
  7.4826226e-02
  4.3492395e-01
  1.8595500e-01
  8.3435431e-02
  3.1331338e-02
 -3.0305961e-01
  7.6026571e-01
  2.1042617e-01
  4.9476270e-02
  3.1748036e-01
 -9.3575038e-02
 -3.4121430e-01
 -8.6814307e-02
 -1.8224315e-01
  3.2806939e-01
 -2.4340177e-01
 -2.6387659e-01
  1.3756126e-01
  2.9996252e+00
 -1.4637731e+00
  1.5208211e+00
 -3.4657082e-01
  3.9013994e-01
  1.2255592e+00
  3.7688172e-01
  2.6616544e-01
 -6.5090738e-02
 -5.7145864e-01
 -6.9510750e-02
 -1.5638407e-01
 -1.3987984e-01
  1.0160554e-01
 -9.1689348e-01
  2.4983387e-01
 -6.5189248e-01
 -2.0930475e-02
  1.0574826e+00
 -8.4391564e-01
  3.6351290e-01
 -7.8245975e-02
  8.1139922e-02
 -4.2106518e-01
  5.8670796e-02
 -4.0376902e-01
 -4.5715588e-01
  3.7874722e-01
 -1.0370229e+00
 -8.7911010e-01
 -8.2162184e-01
  1.2681537e+00
  4.6375078e-01
 -1.1511309e+00
  5.9284586e-02
 -1.4122096e-01
  4.4049376e-01
 -6.4465564e-01
 -1.3225347e-02
 -3.3748546e-01
 -1.8417001e-01
  1.1438671e-01
  1.6696671e-01
  4.7371560e-03
 -1.3505052e-01
 -2.0408422e-01
  3.1369951e-01
 -1.4946380e-01
 -1.0828578e+00
 -1.9344294e+00
  1.4844562e+00
  3.2672456e-01
  1.3416149e-01
 -1.0762464e+00
  1.5298561e+00
 -1.4577025e-01
 -8.5889202e-01
 -2.4442758e-01
  1.1386576e-01
  6.6812462e-01
  5.1215070e-01
  9.5681643e-01
 -1.1046706e-01
  3.9238885e-01
 -3.9780393e-01
  7.9673713e-01
 -1.3581252e-01
  4.0308496e-01
  7.9477859e-01
 -4.7554952e-01
 -5.9664327e-01
  1.9043787e-01
  1.0152022e-01
 -1.9165312e-01
 -1.3982490e+00
  2.3785374e-01
 -5.5821221e-02
 -1.0124730e-01
 -9.2646210e-03
  4.9042353e-01
 -4.7487011e-03
  5.7051301e-01
  8.4919296e-02
  5.0751083e-02
 -7.3738538e-02
 -4.2215478e-02
  3.8694140e-01
  6.7496724e-02
 -8.8263424e-03
  1.0501869e-02
  2.4785116e-01
 -1.2612543e-01
 -2.2983034e-01
 -1.1883569e-02
 -2.2398965e-02
 -2.0345365e-01
  1.0561661e-01
  1.3517309e+00
  1.3218305e-01
 -1.8811028e-01
  1.6235051e-01
 -4.3323797e-01
  2.5225425e-01
  1.8456265e-01
  1.4252500e-01
 -4.8069205e-02
 -5.8436882e-01
 -1.8769157e-01
  2.5965035e-01
 -1.7533329e-01
 -1.0746199e-01
 -1.1691209e-01
  1.7372289e-01
 -2.4925010e-01
 -1.2293476e-01
  3.4559914e-01
 -8.5465722e-03
  1.1668525e-01
  2.6134610e-01
  2.4987679e-02
 -6.4885601e-02
 -2.0860651e-01
 -8.2000181e-02
  8.6366646e-02
  4.2162526e-01
  1.3639800e-02
  1.4483543e-02
 -2.9128113e-01
 -3.1175396e-01
  6.1517036e-01
 -5.2539450e-01
 -1.5308735e-01
 -1.2427901e-01
 -7.9593211e-02
 -1.2851562e-02
 -9.3299560e-02
 -1.0111354e-01
  3.1007794e-03
 -1.2600008e-01
 -3.5886073e-01
  5.8743864e-02
 -1.2529753e-01
  4.1524582e-02
  8.2222829e-03
 -3.5698748e-01
 -2.0538144e-02
  9.8484117e-01
  6.3696736e-01
 -9.7829676e-01
  4.2311978e-01
 -1.0465612e+00
 -2.2251576e-01
 -5.4890943e-01
  1.4528266e-01
 -8.0548055e-02
 -3.1420684e-01
 -6.0606277e-01
 -6.8747330e-01
  3.7627053e-02
 -4.2116278e-01
 -3.6676995e-02
 -2.0110154e-01
 -2.1072534e-01
 -1.0936122e-01
  1.0216254e+00
 -7.5380810e-02
 -4.7537369e-01
  1.8162276e-01
  2.5233486e-01
 -1.5283599e-01
  3.7493724e-01
 -2.0727129e-01
 -1.2134404e-01
 -2.9571801e-01
 -1.1197851e-02
  5.5698246e-02
 -4.2794275e-01
 -4.8628026e-01
  5.9192602e-02
 -1.6414079e-01
 -4.3368173e-01
  8.4577084e-02
  1.8209876e-01
  1.2912465e-02
  5.5905733e-02
 -9.0285771e-02
  1.4262412e-02
 -1.5429951e-01
 -9.8310985e-02
 -5.4395631e-02
  3.7838306e-02
 -5.3913616e-02
 -1.3312039e-01
  8.5998312e-02
 -1.4304905e-01
 -1.8936527e-01
  1.2361583e+00
  5.3066480e-01
  1.1067007e+00
 -3.2267959e+00
 -7.0802820e-01
  2.3513761e+00
 -3.8346824e-01
 -4.7862586e-03
  8.1216025e-01
 -1.7011654e-01
  3.9031154e-01
 -5.0657123e-01
  6.0328078e-01
 -1.5474795e-01
  6.5911949e-01
 -2.3758001e+00
  8.6580735e-01
  2.9050690e-01
 -1.6228122e-01
 -5.6718785e-01
 -8.0181807e-03
 -5.8650100e-01
  6.0797083e-01
  7.3711552e-02
 -1.9342101e-01
 -1.2082215e-01
  4.8368248e-01
  2.2634458e-02
 -3.5248891e-01
 -1.0412143e+00
 -5.5808485e-01
 -1.8979436e-01
  9.0141064e-01
  2.8291723e-01
 -2.8141430e-01
  3.3192953e-01
  8.0812502e-01
  4.1390449e-02
  3.3364350e-01
  1.8805014e-02
 -1.2492450e-01
 -1.8225044e-02
  3.6569336e-01
 -4.3011289e-02
 -5.3601176e-02
  2.1449948e-02
  1.7926551e-01
  1.0044430e-02
  6.1651736e-01
  4.9569618e-02
  8.2062602e-01
 -4.4845378e-01
  1.5767787e+00
 -4.4303378e-01
 -3.1365910e-01
 -3.2688481e-01
  2.2177272e-02
  1.8204920e-01
 -7.4089184e-02
 -1.6474509e-01
 -9.5344903e-03
  3.2155520e-01
 -1.5930812e-01
  1.0082587e-02
  7.3140430e-01
  3.3132482e-01
  7.3798522e-02
  3.3838725e-01
 -8.0294496e-01
 -1.3164078e-01
 -4.5124298e-01
  1.4988276e-01
  1.1905321e-01
  8.1026755e-02
 -2.8038216e-01
  9.8546073e-02
 -6.7026719e-02
 -1.9314624e-01
  2.8472260e-01
  3.2856813e-01
  7.0729427e-02
  2.6202136e-01
  4.1881546e-01
  1.6772678e-01
  8.3367363e-02
  4.3174345e-02
  2.1185641e-01
  1.1600436e-02
 -2.0488210e-01
  3.4936782e-02
  1.9880150e-02
  2.2316130e-01
 -2.5515381e-01
 -1.1950991e-03
 -2.3297545e-02
 -3.8271435e-03
  2.4892977e-02
  6.2180340e-01
 -1.5447878e+00
  2.4815720e-01
 -1.2507097e+00
  1.6616530e+00
 -4.6459255e-01
 -7.7950156e-01
 -1.2154092e+00
 -4.2037582e-01
  1.5880653e+00
  8.5150385e-01
  9.4002205e-01
  2.9304683e-01
  1.8631516e+00
 -8.4917194e-01
 -1.0605880e+00
  7.0791388e-01
  3.8205183e-01
  9.9233121e-01
  6.5299672e-01
  7.1536964e-01
 -1.5632035e+00
  1.4129952e+00
  9.2043829e-01
  7.4136329e-01
 -1.7976572e-01
  4.3586954e-01
  1.1175095e+00
 -2.1038997e+00
  4.8703882e-01
  8.7014109e-01
  5.2976000e-01
 -5.0203520e-01
  1.0533209e+00
  8.4157056e-01
 -3.8819298e-02
  5.6862700e-01
 -5.1538730e-01
  7.3169464e-01
 -1.4034417e-01
  2.1850523e-01
 -8.6654454e-01
  2.1651566e-01
  1.7719060e-01
 -9.4510891e-02
 -5.4537290e-01
  6.8131126e-02
 -1.8287505e-01
  1.5665899e-01
  4.9075389e-01
 -6.6530985e-01
  2.4633458e-01
 -2.0972716e-02
 -2.3156050e-01
 -1.4636910e+00
  1.0423435e-01
 -4.0253532e-01
 -8.8456070e-01
  1.4986131e+00
 -5.4993534e-01
  1.9353965e-01
 -2.3936021e-01
  3.3030779e+00
 -1.8545778e-03
  4.4457480e-01
  2.0621707e+00
 -1.5929472e+00
 -6.7631221e-01
  7.1089089e-02
  2.7679975e+00
 -7.7293932e-02
 -4.2457689e-02
  1.6801422e+00
 -1.3219186e+00
 -7.5102448e-01
 -2.2048624e-01
  4.0586562e+00
 -1.4974166e-01
 -1.8797751e-01
  1.2221521e+00
 -1.7218993e+00
 -8.2241768e-01
 -8.1837147e-01
  3.6295724e+00
 -2.4697256e-01
  2.6828685e-01
 -7.3108427e-02
 -4.7926549e-02
 -9.6806929e-02
 -2.8235915e-01
 -2.4261728e-01
 -2.2172184e-01
  2.8152436e-03
 -2.6265001e-02
 -1.8544993e-01
 -4.9990132e-02
  5.3522650e-02
 -3.2116124e-01
 -7.2771177e-02
 -1.0954827e-01
  1.8085626e-01
  7.3421891e-03
  4.6166140e-01
 -2.5113612e-01
  1.6649172e-01
  4.8758816e-02
  9.1351885e-03
  7.8603104e-02
  7.0944130e-02
  5.0493199e-01
  1.1146455e-01
  2.3402929e-02
 -6.9529466e-02
  8.6444177e-02
  1.7581798e-02
  3.1106398e-01
 -8.9902505e-02
  5.5701431e-02
  3.0882934e-02
 -8.5814096e-02
  1.3201378e-01
 -9.0140343e-02
  1.0449436e-01
  1.2232618e-01
  1.8043783e-01
  2.9735604e-01
 -1.6306506e-02
  2.8091919e-01
  3.8593322e-01
  1.8906039e-01
  4.2389855e-02
  1.8318844e-01
  2.3238541e-01
 -4.1486016e-01
  1.0163067e-01
  1.5361111e-01
  9.9840604e-02
 -2.5311074e-01
 -1.7172965e-01
 -9.2571199e-02
  1.7231727e-01
 -9.0514742e-02
 -3.6938701e-02
 -1.3182895e-01
  2.0094828e-01
  4.5041051e-02
 -1.9735506e-01
 -1.1353989e+00
  2.3431504e+00
 -2.4135476e-02
  2.3276970e+00
 -2.5165963e+00
 -1.0898926e+00
  1.1487687e+00
  2.8972843e-01
 -4.2185354e-01
 -8.4066373e-01
 -1.8393116e-01
 -8.1296366e-01
  7.2801340e-01
 -1.6267250e-01
  5.7108897e-01
 -3.0933487e-01
 -2.6402709e-01
 -6.5709049e-01
 -5.9590322e-01
  3.1136516e-01
 -4.7749045e-01
  6.0899520e-01
 -1.2112222e+00
 -2.1498993e-01
 -2.3459762e-01
  1.8230865e-02
  2.2036988e-02
 -1.1782251e-02
  3.1728491e-01
 -7.8872472e-01
 -8.8212383e-01
 -4.2314795e-01
  4.2280993e-01
  5.6717619e-02
  2.8369114e-01
  2.4249427e-01
  1.2286681e+00
  1.0740379e+00
  4.9000439e-01
  6.1570370e-01
 -1.5314843e-01
 -1.6040635e+00
  8.4925704e-02
 -7.8763394e-03
 -2.8551936e-01
  1.7693242e-01
  8.3571978e-02
 -4.8641893e-01
  2.6430283e-02
  2.7957501e+00
  3.9024651e-01
 -1.3891888e+00
 -1.7763281e+00
  3.0934916e+00
  1.7116638e+00
 -2.0532765e+00
 -3.2104634e-02
  2.8938833e-01
 -1.3841586e-01
  2.5950444e-01
 -1.3836759e+00
 -1.8977849e-02
 -2.6921564e-01
  2.1711919e-01
 -1.1836936e+00
 -6.0005233e-02
  4.5114353e-02
 -1.4920920e-01
  7.0378131e-01
 -1.1649348e+00
 -2.3774005e-01
 -1.0194249e-01
 -3.5828065e-02
  8.1051767e-01
 -7.5074673e-02
 -1.0927714e-01
  8.4997505e-02
  6.6265333e-01
 -4.5881277e-01
  1.2171666e-01
 -6.8962842e-01
 -2.8194475e-01
  5.9918147e-01
 -1.7753616e-01
 -9.7885780e-02
  1.1268994e-01
  6.2102531e-03
 -1.6397801e-01
  9.9954888e-02
  1.6076038e-02
 -2.1132813e-01
  2.2039784e-02
  9.0362325e-02
  2.1678440e-01
 -2.2209026e-01
 -8.1603296e-02
  9.0652108e-03
 -3.1769371e-01
  3.8902059e-01
 -6.0386413e-01
  9.0439028e-01
  2.1173586e-01
  5.4053134e-01
 -7.7187759e-01
  1.7868183e+00
 -1.0967166e-01
  6.7127347e-02
  1.2712264e-01
 -8.3394453e-02
 -1.7567053e-02
  1.6521876e-01
  3.4185636e-01
 -2.2964178e-01
 -8.5649425e-01
  9.8270722e-02
  1.9303738e-01
 -6.4523734e-02
  4.0603125e-01
  4.1335478e-01
 -3.0913318e-02
  1.5450857e-02
  2.7625841e-01
  2.8096145e-01
  9.1263342e-01
  1.0463881e-01
  1.8781018e-01
 -5.7646934e-02
  4.0546212e-01
  4.4516939e-01
  6.2813544e-01
  3.9584634e-01
  3.6119469e-02
  5.7768261e-01
 -3.9075550e-02
  1.1271241e-01
  9.7502068e-02
 -6.0394775e-02
 -5.3631641e-02
  3.0014979e-02
  2.2293229e-01
 -2.4429519e-02
 -1.0753801e-01
 -8.5646689e-02
 -4.2350698e-01
  1.3014515e-01
  1.5226540e-02
  3.0792251e-01
 -3.3720180e-01
 -1.3222946e+00
  1.2660021e+00
  1.0430545e-01
  4.9826044e-01
 -1.0387257e+00
  7.5049645e-01
 -1.8999700e-01
 -1.1603905e-01
  4.9148348e-01
 -9.2031449e-01
  1.6392128e-01
 -7.3155904e-01
 -1.0485790e+00
 -1.2181714e-01
  3.5944800e-03
  1.1756582e+00
  1.5720057e+00
 -4.0005621e-01
 -7.0422542e-01
  1.4307319e+00
 -6.1839807e-01
 -4.4828740e-01
  5.9286779e-01
 -1.4816091e+00
 -7.8336400e-01
 -3.2044420e-01
 -9.5793945e-01
  2.4595174e-01
 -5.0487512e-01
  6.4845723e-01
  1.1708939e+00
 -4.3755808e-01
  5.7750922e-01
  4.4933447e-01
  2.4900083e-01
 -1.7004444e-01
  1.9170740e-01
  3.4825984e-01
 -3.4877691e-02
 -1.5947621e-01
 -2.2186929e-02
 -2.0425482e-01
 -6.4299189e-02
 -6.6641703e-02
 -4.0186182e-02
  3.0861434e-02
  2.9425271e-02
  1.0826272e-01
  4.0216699e-01
  2.6669135e+00
 -2.1721666e+00
  1.2880329e+00
 -1.6923042e-01
  2.0202594e+00
  8.3362287e-01
 -1.8714648e-01
  7.4517179e-01
 -7.1357563e-02
 -1.3018597e+00
 -1.5051816e+00
  5.6465012e-01
 -2.1829896e+00
 -2.5557425e-02
  3.1616974e-01
  5.4065329e-01
 -1.4834986e+00
 -1.4769684e+00
 -7.7729917e-01
 -9.4693816e-01
 -9.8959291e-03
  7.0691317e-01
 -4.7447050e-01
 -1.6756768e+00
 -1.1310484e+00
 -1.4798953e-01
 -1.0118194e+00
 -2.6417144e-02
 -8.6672986e-01
  6.9293588e-01
  4.2165962e-01
 -1.5428989e-01
 -1.6947963e+00
  3.3183056e-03
 -2.8152695e-01
 -1.7036703e-01
  4.7872081e-01
 -2.7774423e-01
 -2.2222044e-01
  3.1998086e-01
  3.4037933e-01
  8.6926579e-02
 -4.6837050e-01
 -2.6449816e-02
 -1.9237189e-01
 -7.6282775e-01
 -2.4049789e-01
 -3.1499261e-01
  1.5886688e+00
 -2.0087678e+00
 -7.5136435e-01
 -8.1485873e-01
  1.7996809e+00
  1.6123984e+00
 -5.1624185e-01
 -5.8986153e-02
 -2.2135845e-01
 -5.0531946e-02
 -1.7570813e-01
 -5.5888448e-02
 -4.9062923e-01
 -3.8987789e-01
 -2.0287722e-01
 -5.9383246e-03
  3.9113867e-01
 -2.8319672e-01
  3.9225370e-01
 -3.7388125e-01
 -7.9982257e-01
  2.3945808e-02
  2.2893240e-01
  4.9906230e-01
  6.5260166e-01
  2.7176511e-01
  2.1659660e-01
  3.4457886e-01
 -5.0962830e-01
  2.8338781e-01
 -1.3514210e-02
  4.0970075e-01
 -1.2848684e+00
  2.7602041e-01
 -6.8414390e-01
 -2.6698938e-02
 -3.2900804e-01
 -2.9720926e-01
  1.7840864e-02
 -3.7026111e-02
 -1.7083968e-01
  3.4581214e-01
 -8.6892538e-02
  6.5543614e-02
  6.6495031e-02
  7.3176421e-02
 -5.8283612e-02
  5.8068983e-02
 -7.0978858e-02
  1.9616754e-01
  1.8631591e-01
  1.1859738e-02
  4.8635325e-01
 -3.0674443e-01
 -1.1049138e-02
  2.5755247e-02
  1.0697857e-02
 -4.0298483e-01
  7.2478019e-02
 -3.2237326e-03
 -2.0193961e-01
 -5.4729510e-02
  2.1978554e-01
  2.5994006e-01
  1.8484217e-01
 -3.2372117e-01
 -8.1395149e-02
  2.1133313e-01
 -5.1535320e-01
  6.2647119e-02
 -3.3540782e-02
  1.5154502e-01
 -2.0796617e-02
  5.0958361e-02
  8.6822286e-03
  6.4731330e-02
 -1.6111679e-01
  1.6183963e-01
 -1.5094359e-01
  6.8867207e-02
  3.6396939e-02
 -3.2551535e-03
  3.3446580e-02
 -7.2865514e-03
 -1.1328481e-01
 -1.6461734e-01
 -8.3077112e-03
 -1.8006939e-01
  2.2379099e-01
  1.3258260e-01
  2.9504554e-02
 -2.4257095e-01
 -5.7399683e-02
 -4.8569582e-02
  1.0491102e-01
  1.9275934e-01
  9.2407092e-02
 -3.6925435e-02
 -1.2751563e-01
 -3.4594664e-01
  3.7138440e-02
 -2.1286809e-01
 -1.4219810e-01
 -1.2738848e-01
  4.6348223e-01
 -2.0364760e-01
 -1.2001855e-01
  2.4529345e-01
  9.3863450e-02
 -2.1886593e-02
  1.4281708e-01
  1.3741080e-01
  5.5690598e-02
 -3.2726960e-04
  1.6156952e-01
  3.1097917e-02
  2.5634641e-02
 -1.0900042e-01
 -4.5155469e-02
 -6.1978702e-02
  9.9104330e-02
  2.4750537e-01
 -2.6696011e-01
 -3.0859610e-02
  5.8235187e-02
 -1.6971165e-01
  3.6928454e-01
  2.5570417e-02
  4.0418714e-02
 -1.5438876e-01
 -2.8785881e-02
 -1.7543608e-01
  4.2328644e-01
 -1.1411027e-01
  1.3607427e-02
 -1.4567709e-01
  3.3382818e-01
  4.3692565e-01
 -8.4238924e-02
 -9.9243887e-02
 -3.8695093e-02
  2.3593681e-01
  3.4509514e-02
 -7.0763538e-03
 -2.6797360e-01
  1.2776087e-01
  5.2439652e-02
 -4.3547666e-01
  1.1031871e+00
 -1.2295237e+00
  1.2418751e-01
 -4.6795782e-01
  2.0462923e+00
 -4.2937273e-01
 -1.9702235e-02
 -3.7320185e-01
 -6.2865533e-02
 -4.5962524e-01
 -6.1897582e-01
  1.0736718e-01
 -7.5186235e-01
  4.4304624e-02
  9.4810076e-02
  5.6274074e-01
 -3.2136935e-01
 -1.4942020e-01
  7.0855737e-01
 -2.2007248e-01
 -2.8729096e-01
 -3.8459864e-01
 -1.7985417e-02
 -2.6305041e-01
 -3.9551395e-01
 -4.3959074e-02
 -2.9181060e-01
  3.6915797e-01
 -2.8095987e-01
 -2.4748060e-01
  1.4735799e-01
  1.8761611e-01
  9.1191530e-01
 -5.9469050e-01
 -1.5896665e-01
 -5.2600750e-03
 -3.8777709e-01
 -2.5797594e-01
 -2.7600411e-01
  3.5801539e-01
  8.2631232e-03
  5.9511587e-02
 -1.1404180e-02
 -7.9300597e-02
  8.6427324e-02
 -7.7799641e-02
  3.5375375e-02
 -3.2527044e-01
  1.0314729e+00
  4.1684231e-01
  6.6801518e-01
  7.5584853e-01
 -1.2806958e+00
  5.4661131e-01
  8.0238981e-03
  2.6190922e-01
  3.3306080e-01
  2.5220773e+00
 -3.6150837e-01
  5.1433873e-01
 -3.3330339e-01
  5.5128360e-01
  1.2765430e+00
 -4.6244804e-02
  1.5708565e+00
 -7.0061940e-01
  9.6363030e-02
 -1.5901476e+00
  1.4910531e+00
  1.2657391e+00
  1.7913412e-01
  3.5418890e+00
 -5.5243427e-01
  1.0195811e-01
 -6.0246468e-01
  3.7085217e-01
 -9.8124094e-02
  1.1362889e-01
  6.3582641e-01
  1.1319202e+00
 -8.2240087e-01
  1.9156855e-02
  4.2247677e-01
  1.7442450e-01
 -4.3589883e-02
  2.2836311e-01
 -2.0004913e-01
 -3.2956272e-01
  7.7016577e-02
 -8.7371683e-01
  2.0615183e-01
 -2.9231882e-01
  6.8818790e-01
  4.1764513e-01
 -6.4576335e-02
  4.0446583e-02
 -7.8436015e-03
  4.8055553e-01
 -3.8256568e-01
  6.4813668e-01
 -2.9094353e-01
  4.4147515e-01
 -3.1974256e-01
  1.0583235e-01
  4.1288123e-02
 -7.6838776e-02
  3.9307483e-02
  2.3284005e-02
  3.2324907e-01
  9.5160596e-02
  3.5245368e-01
 -7.0165738e-02
 -2.6986390e-01
  4.2357042e-02
  8.3436050e-02
 -2.6805735e-01
 -1.9036423e-01
  4.4761834e-01
  8.9677721e-02
 -3.4336886e-01
 -7.4097410e-02
 -1.0454540e-01
  1.8957563e-01
 -3.8492027e-01
  4.1226190e-01
 -1.8822080e-02
 -2.1748517e-01
 -4.4607401e-02
 -1.2061073e-01
  3.6687914e-01
 -5.8397168e-01
  5.3645823e-02
  1.9325939e-01
 -2.6368415e-01
 -1.5632063e-01
 -4.7160435e-02
 -1.6842803e-02
  3.1342700e-02
 -4.3041151e-02
  1.6955335e-01
  2.5092143e-01
 -2.3557181e-02
  1.0127795e-01
 -5.5257306e-02
  1.0467843e-01
 -8.9578487e-02
 -1.2631457e+00
 -4.2325482e+00
  1.5180593e+00
 -2.3731768e+00
  3.7519630e-02
 -1.9105582e+00
 -3.4109442e+00
  3.8375713e-02
 -1.9680901e+00
 -2.0421739e+00
 -1.4511566e+00
 -1.0201275e+00
  2.5332825e+00
 -3.3184609e-01
 -3.7292657e+00
  1.0059366e+00
  2.0358219e+00
  8.3100975e-01
  7.5324702e-01
 -4.8030405e+00
  1.0978905e+00
 -7.2693571e-02
 -1.7393008e+00
 -1.6040768e-01
  2.6884913e+00
 -3.4088111e-01
 -5.6485599e-01
  1.5738013e+00
  2.2520506e+00
 -1.0049609e+00
  1.0113238e+00
 -6.6162235e-01
  5.1211935e-01
  2.2375305e+00
 -1.9953687e+00
  3.3082569e+00
 -2.8864217e+00
  3.6244044e-01
  2.7789075e+00
  2.3052168e+00
 -7.6548821e-01
  3.7300503e-01
 -2.4445789e+00
 -1.5012938e-01
 -1.0671411e+00
  9.4113983e-02
  2.3517799e+00
  5.1168978e-01
  4.0775385e-02
 -3.6881526e+00
 -2.3274298e-01
  1.6051869e-01
  1.9416730e+00
 -9.1727602e-01
  3.0229837e-01
 -1.2900487e-02
  3.2303758e-02
 -1.4042397e+00
 -2.3789372e+00
  3.2957399e-01
  2.3912094e+00
 -7.3178327e-01
 -6.3809991e-01
 -2.1631227e+00
  1.0009966e+00
  1.5088959e+00
 -2.8708143e+00
  7.3392975e-01
  5.8433443e-01
  8.3802867e-01
  5.4538637e-01
  7.1590811e-02
  1.8144911e-02
 -4.2611453e-01
  9.5081842e-01
 -1.5553913e-01
  1.4042214e-01
  1.4741069e-01
  5.7282805e-01
  1.4848949e+00
 -1.0242378e+00
 -2.0295103e-01
 -1.7558798e+00
  4.7413759e-02
  2.0025836e-01
 -1.1177717e-01
 -9.9909484e-01
 -4.9575153e-01
  9.1946208e-01
 -1.0903548e-01
  4.8891866e-01
  5.0434589e-01
  6.7812258e-01
  1.2282734e+00
 -2.0100549e-01
 -2.6987681e-01
 -3.0186436e-01
 -2.2827132e-01
 -1.4595418e-01
  1.5288883e-01
  1.3108186e-01
 -4.6780291e-01
 -4.3074224e-02
 -8.4885873e-02
  1.2617768e-01
 -9.2935652e-02
  6.9675185e-02
 -8.7862670e-02
 -9.9881808e-04
  1.9796583e-01
 -2.1649253e-02
 -2.2518733e-01
  1.4877617e+00
  4.2398429e-01
 -6.2147450e-01
  4.0481743e-01
 -3.1377894e-01
 -1.1720711e-01
 -3.3009624e-01
  4.1979274e-01
 -2.3922740e-01
  2.6492143e-01
 -4.9611822e-01
 -6.5477765e-01
  6.7932928e-01
 -1.1602391e-01
 -2.7636579e-01
  2.9220268e-01
 -5.4042453e-01
 -3.8180187e-01
 -1.0883505e+00
  7.7437568e-01
 -3.0874610e-01
  4.4743276e-01
 -5.3453296e-01
 -5.9621340e-01
 -8.0022067e-01
 -5.4465330e-01
 -3.9579809e-01
 -2.1358922e-01
 -8.4010392e-01
 -2.6395997e-01
 -1.1142075e+00
 -1.5990335e-01
 -2.0514937e-01
  1.0535226e-01
 -1.0320173e-01
  5.9732394e-03
  3.2531506e-01
 -1.2605447e-01
  3.0990279e-01
 -6.7009658e-01
  2.1320982e-02
  2.7271190e-03
 -1.2722498e-01
 -9.1356717e-02
  1.8854341e-02
  1.9520131e-01
 -1.1893371e+00
 -2.0482059e+00
  3.1204619e+00
 -2.6337913e-01
 -1.6985772e+00
 -3.3288732e-01
 -2.8863952e-01
  4.9663302e-01
  8.6093789e-01
 -2.0351513e-01
  3.8446596e-01
  1.9719477e-01
 -5.8631361e-01
  1.1077607e+00
 -7.4044312e-03
  1.0751466e+00
  5.7043540e-01
  8.3615822e-01
  5.7843554e-01
  5.0838746e-02
  1.3480126e+00
  7.1747586e-02
  7.1836734e-01
  1.0868073e+00
  4.7745526e-01
  9.3670130e-02
  5.2776700e-01
  4.3996230e-01
 -1.4355887e+00
 -2.8809652e-01
 -1.2072024e-01
 -6.7689711e-01
 -1.2853596e+00
  3.3935106e-01
  4.0751350e-01
 -1.6390629e-01
 -4.9237254e-01
  4.2293245e-01
  8.3076462e-02
  4.8425905e-02
  5.5448145e-01
  1.0072095e+00
  3.5178503e-01
 -6.2988311e-02
 -9.4515800e-02
  3.6510581e-01
  1.6473563e-01
 -9.6619710e-02
  2.3795740e-01
  6.9075388e-01
  7.9583907e-01
 -4.7510874e-01
 -6.1758485e-02
  5.7889998e-01
  1.1174244e-01
  4.2116049e-01
 -1.1320084e-01
 -1.1098616e-01
 -1.7492980e-01
  1.7372286e-01
 -3.0629036e-01
 -9.9456660e-02
 -6.8929708e-01
  1.8892941e-01
  7.6106489e-02
 -1.0626013e-01
  1.0563761e-01
 -3.4219959e-01
 -2.5650007e-01
 -4.7853729e-01
 -7.5293183e-01
  2.9013309e-01
 -3.2078266e-01
 -7.4948706e-02
 -4.2245302e-01
  1.4569438e-01
 -4.1716549e-01
 -3.8205430e-01
 -4.6990669e-01
 -7.7570355e-01
 -1.2196852e-01
 -3.6414364e-01
 -4.7236702e-01
 -4.7050360e-01
 -1.4648141e-01
 -2.4418135e-01
 -4.4158440e-02
  4.6828356e-02
 -1.4836606e-01
  3.5585757e-02
 -8.9077346e-02
 -9.0730481e-04
 -1.7344292e-02
  8.6543642e-02
  4.8307374e-01
 -7.3318511e-02
 -4.2025006e-01
 -1.5927652e-01
 -5.2913761e-01
 -8.8541102e-01
  7.6693416e-01
  1.3581995e+00
 -5.9844035e-01
 -1.1093120e-01
 -1.4934428e+00
  5.1258099e-01
 -2.1313633e-01
  5.7288802e-01
 -5.3516966e-01
 -3.8873892e-02
  1.6110095e-01
  3.7548420e-01
  5.4255128e-01
 -4.8423645e-01
 -3.4999661e-02
 -3.7974617e-01
  7.6056117e-01
 -5.5603570e-01
 -1.0137333e+00
  5.4161638e-01
 -2.0443001e-01
  4.6899352e-02
  8.7388061e-02
  2.6239672e-01
  3.3633325e-01
 -3.4664575e-02
 -1.8363240e+00
 -1.0375372e+00
 -4.5061946e-01
  2.6582870e-01
  4.7483325e-01
  3.2686207e-01
  7.7589267e-01
  1.9536458e-01
  1.1181079e+00
  8.8408627e-02
 -8.3464420e-01
  2.2670752e-01
 -2.1456724e-01
 -8.5025960e-01
  2.6969200e-01
  5.9109118e-02
  3.7610283e-01
 -1.5626849e-01
 -8.5143477e-02
  1.7739527e-01
 -2.0186227e-02
 -2.7159631e-01
  1.2019481e-01
  3.4612328e-02
 -1.0136569e-01
  9.2565067e-02
 -8.9605413e-02
 -1.6578857e+00
  1.9598438e-01
  2.3816628e-02
  1.2307788e-03
 -9.7105829e-03
  1.3830143e-01
  1.0773213e-01
  1.2732662e-01
  1.6244568e-01
  4.5837719e-02
  1.6478528e-01
  3.9255459e-02
  8.2338870e-02
 -7.6640949e-02
 -2.9610321e-02
 -4.6435531e-02
  2.4419900e-02
  2.4248892e-01
 -4.3419160e-02
 -5.0793186e-02
  1.0149536e-01
  2.4701478e-01
 -1.3603635e-01
 -2.9087263e-01
 -1.3023898e-01
  4.2093731e-02
 -8.6456360e-03
  1.2297602e-01
  8.1336580e-02
 -2.1488705e-01
 -1.0019287e-02
  1.6348091e-01
 -1.3970143e+00
  1.8568775e-01
  6.9045596e-02
 -1.0909070e-01
 -1.1328164e-01
  6.6883862e-02
 -1.4257377e-01
  1.5794221e-01
 -1.0587793e-01
  1.5305727e-02
 -8.0505513e-02
 -3.6816788e+00
  2.1104958e+00
  5.8096206e-01
  4.2127872e+00
  1.8420624e-02
 -3.2645872e+00
  5.1864481e+00
 -1.1400907e-01
  7.7516042e-02
 -3.2208061e-01
 -8.7249124e-01
  1.1059989e+00
  6.2938190e-01
  1.7889445e-01
 -1.7951632e+00
  9.7301066e-01
  5.0299489e-01
 -1.2138634e-01
 -1.5059676e+00
 -8.5257101e-01
  1.3832052e+00
  5.8743462e-02
 -3.7115553e-01
 -1.5283833e+00
 -1.6329290e+00
  1.2488414e+00
 -1.5664691e+00
 -4.6246141e-01
 -1.0843768e+00
  5.1455557e-01
 -2.8344280e-01
 -7.6694883e-02
 -1.0066528e+00
 -1.1389279e+00
  6.5916920e-01
 -1.5019208e-01
  4.4473925e-01
 -1.6609161e-03
 -2.8175375e-01
 -3.0865267e-01
 -2.9619336e-01
  3.0140150e-01
  9.8795563e-02
 -1.8341968e-02
  1.7562898e-01
 -3.5268050e-02
 -1.4735602e-01
 -1.6954756e-01
 -2.7441356e-02
  1.1980510e+00
  2.4226074e+00
 -2.4015384e+00
 -3.9874411e-01
  1.8165348e+00
  1.5162541e+00
  3.4127966e-01
 -8.7061465e-01
 -1.2036074e+00
 -2.7136463e-01
 -2.1828362e-01
  5.1032644e-02
 -7.7904528e-01
 -1.4795725e-01
  4.6935219e-01
  3.5108104e-02
  1.1475195e+00
 -9.8075077e-02
 -5.6491059e-01
 -8.0364186e-01
  3.4028423e-01
 -5.0813216e-01
  9.9419582e-01
 -1.6576010e+00
 -7.2913706e-01
 -4.7125012e-01
  7.0995444e-01
 -1.1794754e+00
 -2.5767216e-01
 -9.5230854e-01
 -2.0243866e+00
  9.2332244e-01
 -9.4854462e-01
 -4.7965783e-01
 -4.6084684e-01
  2.8336020e-02
  6.7563218e-01
 -1.3194160e-01
 -8.1584209e-01
  5.1928729e-02
 -1.0601804e-01
  1.0134459e-01
 -5.1885277e-01
  5.0577956e-01
 -3.3252839e-02
  1.6504666e-01
 -1.2642162e-01
 -3.3470669e-01
 -7.7645153e-02
 -4.3301973e+00
  5.3649837e-01
 -1.4594991e+00
  2.5829713e+00
 -1.2493212e+00
 -1.6300789e+00
  2.9847171e+00
  9.1340953e-01
 -1.8721496e-01
  2.5188220e-01
 -2.7586875e-02
 -6.2238073e-01
 -8.9979345e-01
 -5.2500930e-02
  3.2360351e-01
 -4.6425310e-01
 -8.9539033e-01
  1.8392506e-01
 -2.7370545e-01
 -7.8782904e-01
 -1.0930839e+00
  2.4319743e-01
 -1.0633988e+00
  4.2983383e-01
  6.6512936e-01
 -1.7556098e-01
 -4.4009236e-01
  1.6781256e-01
  1.8767152e-02
 -2.7687468e-02
 -3.9154884e-01
 -2.4508768e-01
 -4.0622371e-01
 -1.0907353e+00
  5.2086633e-01
 -2.3416838e-01
  1.9478258e-01
  7.8767845e-03
  1.6207480e-01
 -2.9297638e-01
  2.1131372e-01
 -4.6401671e-01
  1.8876216e-01
 -2.4000324e-01
 -1.2638079e-02
 -3.1569462e-02
 -7.9512261e-02
  1.0926336e-01
 -3.6460224e-01
 -2.7738860e-01
 -7.2017479e-01
  1.4098305e-01
  1.9179985e-01
 -2.8959128e-01
 -3.2472995e-01
 -5.4609197e-01
 -3.1559059e-01
  9.9413224e-02
  1.3471296e-01
  2.8886000e-02
 -3.5856923e-01
  4.8876268e-01
  2.0428395e-01
  2.9863173e-01
 -6.9227412e-02
 -2.4011357e-01
  6.5988225e-01
 -1.3567938e-02
 -6.0584318e-02
  9.3931690e-02
 -9.0415038e-02
 -3.9533798e-02
  2.6773694e-01
  4.6897765e-02
 -2.8259700e-02
 -2.2466077e-01
  2.4409503e-01
  4.0221434e-02
  1.3785760e-01
  2.4009748e-01
  1.2734278e-01
  3.0947718e-01
  3.7115272e-02
  6.0653389e-01
  1.1955035e-01
 -8.3559012e-04
 -8.8073224e-02
 -1.6548562e-01
 -1.2097062e-01
 -1.1904426e-01
 -1.3743937e-01
 -1.7949449e-02
 -9.6715927e-02
  1.3191211e-01
  3.7252743e-02
  1.8489498e-01
 -1.4211646e-01
 -1.7369621e-01
 -4.2464137e-01
 -1.2489351e+00
  1.2552428e+00
 -4.4716799e-01
 -3.9049837e-01
  5.9241509e-01
 -5.3756577e-01
  1.5443204e-01
  1.1846489e-01
  1.4925723e-01
  3.8033407e-02
 -1.1513067e-01
 -1.5847738e-01
  7.0439297e-01
 -2.0213212e-01
 -1.0254785e-01
  1.0447721e-01
  2.2765532e-01
  2.8701103e-01
  5.3635615e-01
  6.0657996e-01
  6.6905104e-02
 -1.2547962e-01
  4.3913332e-01
  1.2834625e-01
  3.0056852e-01
  5.6533140e-01
  1.9671588e-01
  1.1259182e-01
  5.0059658e-01
  1.0470660e+00
 -3.7289780e-02
  2.5988856e-01
  4.8419851e-01
  1.0304346e-01
 -4.7265753e-02
  1.5764906e-01
  2.1134821e-01
 -5.8118079e-02
 -1.5920715e-01
 -2.5858542e-01
  2.7406806e-02
 -2.1666715e-01
  3.0321367e-03
  1.8039267e-01
 -1.6536407e-02
 -2.8230870e-01
  2.6244146e-01
 -2.5193332e-02
  2.1030667e+00
  1.7446024e+00
 -8.7004167e-01
  8.0878012e-02
  2.3794236e+00
 -3.2857251e-01
 -3.4198120e-01
 -3.2653862e-01
  6.5682131e-01
 -1.2036743e-01
 -1.8896176e-01
  3.3273441e-01
 -5.8860588e-01
 -1.2038524e+00
 -6.6413003e-01
  6.1891890e-01
  5.5373397e-02
  5.4585552e-01
 -5.6037229e-01
  4.5668015e-01
 -5.7892269e-01
  4.6221420e-01
 -1.5777859e-01
 -1.2094560e+00
  1.7288259e-01
 -1.3631640e-01
  4.1557655e-01
  1.9587609e-01
 -3.3264890e-02
  6.9010966e-02
 -1.3041704e+00
  1.7698506e-01
  7.4879669e-02
 -3.7180918e-01
  8.2909685e-01
  4.6085957e-01
  8.0803167e-03
 -2.0764150e-01
 -1.0691738e-01
 -5.7928222e-01
 -3.6731079e-01
  8.3425516e-01
 -1.1425290e-01
  4.1103452e-01
  1.1950402e-01
 -2.3511769e-01
 -3.3006412e-01
  9.6604288e-02
  6.3464977e-02
  3.0686255e+00
  1.3108454e+00
 -2.6568928e+00
 -1.2745198e+00
  2.0074570e+00
 -7.5237322e-01
 -9.8980546e-01
  2.2285378e-01
 -4.4306955e-01
 -2.0673849e-01
  9.3178505e-01
 -3.3243623e-01
 -6.8333250e-01
 -1.5009457e+00
  7.3816991e-01
  8.3988941e-01
  3.6830992e-01
  6.3754088e-01
 -5.9650880e-01
  5.6518638e-01
 -3.2462963e-01
  1.3086665e+00
  8.6573535e-01
 -4.0068555e-01
 -2.4556206e-01
 -4.3024302e-01
  7.9997551e-01
 -9.7804356e-01
  6.2362242e-01
  9.8536313e-01
 -1.4844733e+00
 -1.7148120e-02
 -2.0718737e+00
  7.4308342e-01
 -8.1269991e-01
 -2.7006730e-01
  5.3676087e-01
 -1.6760588e-01
 -4.7448927e-01
  4.1205484e-01
  4.3523148e-01
 -1.6681711e-01
 -1.0165446e-01
 -6.8118922e-02
 -1.4864071e-01
  7.8841336e-02
 -1.4401999e-01
 -7.6801449e-02
 -4.6893510e-01
 -9.5297731e-02
 -6.9125926e-01
  2.7258012e-01
 -6.9018227e-01
 -3.0399477e-01
 -2.7581143e-01
  3.2371619e-01
 -4.5561296e-01
 -2.8206310e-01
 -1.7564808e-01
  1.4071214e-03
  2.1025876e-02
 -2.8942415e-01
  1.0697598e-01
 -9.2229538e-02
  1.3736084e-01
  1.5320028e-01
  5.8145022e-01
  1.4644483e-01
  5.5485792e-02
  5.6811810e-01
 -1.9719726e-01
  2.7193347e-01
  1.5520504e-01
  4.5193836e-02
  3.3068368e-01
 -3.3462259e-01
  2.0214678e-01
  6.4505748e-02
  3.6313549e-01
  4.8190174e-01
  2.4971820e-01
  4.2224863e-01
  3.3596578e-01
  2.5425234e-01
 -1.4094928e-01
  1.0565335e-01
 -8.4270433e-02
 -3.2711919e-02
 -2.8582370e-02
 -1.6260478e-01
 -1.6388799e-01
 -4.3974336e-02
  4.1059017e-02
  3.3208722e-01
  6.8374060e-02
  9.9787608e-02
  5.1157333e-02
 -1.1529330e-03
  1.7421633e-01
 -1.0916725e-01
 -2.1725290e-02
  5.9152402e-02
  1.5805839e-02
 -7.3349088e-02
  1.7680024e-01
 -1.0068893e-01
 -2.0339353e-01
 -1.4609194e-01
 -4.9248755e-02
  3.1207003e-02
 -1.8307543e-01
  1.9570123e-02
 -2.6249722e-01
 -1.2320800e-01
 -9.5915027e-02
 -1.5713394e-01
  5.4831587e-02
 -7.6603666e-02
  3.9636633e-01
 -9.5716931e-02
  1.1731743e-01
  3.3113394e-02
  3.1483546e-02
  3.6652687e-01
  8.7158166e-02
  1.0730933e-01
  1.0679144e-01
  1.4895383e-02
 -9.3708172e-02
 -1.1324407e-01
 -9.1598704e-02
 -4.3750439e-02
  1.0697731e-01
 -8.3383374e-02
 -2.2073768e-02
 -4.0248573e-02
 -6.5134265e-02
 -2.7380660e-01
 -2.4555406e-01
  2.0594265e-02
 -1.0088252e-01
 -1.2760137e-02
 -2.7771696e-01
  2.2554351e-01
  7.6024808e-02
 -1.0515992e-01
 -3.6182974e-02
  2.4995947e+00
 -1.2227137e+00
  7.8555614e-01
 -7.4580353e-01
  3.5409209e-01
  7.3538923e-01
 -1.4439888e+00
 -4.6649963e-02
 -3.8700885e-01
  5.9650791e-01
 -2.5622727e-02
  9.2505783e-02
 -2.2893609e-01
  1.9265783e+00
 -2.1203987e-02
  5.6498662e-02
  1.2137880e+00
 -5.7393587e-01
 -6.0157679e-02
  4.9554753e-01
  1.3471749e+00
 -4.0030056e-01
  5.9873279e-02
  8.9961934e-01
  2.2465034e-01
  4.8159251e-01
  2.3701966e-01
  1.9915098e+00
  2.7268583e-01
  3.5620433e-01
 -4.3908828e-01
  1.3352668e-01
  6.7830986e-01
  2.4053873e-02
  1.5501776e+00
 -1.8887071e-01
  1.9483906e-01
  7.8024358e-01
  5.5291343e-02
 -2.0980638e-01
  4.5321930e-02
  6.1339027e-01
  7.5935401e-02
  1.6662805e-01
  2.5766695e-01
  2.3892176e-01
  3.0148786e-01
  9.7831368e-02
  5.3612989e-01
  2.4263830e+00
 -2.6272008e+00
  8.1547689e-01
 -3.4752817e+00
  6.9141847e-01
  1.9427463e-01
 -1.2105335e+00
 -7.3513808e-03
  1.3218257e-01
 -1.2310598e-01
 -2.4635049e-02
  1.2607002e-01
  7.4521381e-01
  1.0493462e+00
 -4.8924443e-01
  6.2562788e-01
 -4.3082932e-01
  4.7460411e-02
  3.5039511e-01
  6.8984872e-01
  6.1086643e-01
 -3.6364621e-01
  6.3845098e-02
  3.9036408e-01
  2.8611457e-01
  6.5658700e-01
  6.0304612e-01
  1.1465563e+00
 -4.3798708e-03
  5.4770416e-01
 -3.7271652e-01
 -3.3541366e-01
  3.8669983e-01
 -1.0027738e+00
  9.7488689e-01
  7.2070673e-02
 -1.0509233e-02
  4.8995033e-02
  1.6497160e-01
 -1.5681094e-01
 -1.0385695e-01
  2.1207508e-01
  1.2735631e-01
  3.0591488e-01
  1.0916641e-02
 -2.0971891e-01
  7.1075641e-02
 -3.7662491e-02
 -7.6978564e-02
 -8.7100774e-01
 -1.4995827e-01
  2.5435579e+00
  2.4118130e+00
 -4.4642335e-01
 -1.3918884e+00
 -9.5527548e-01
  9.1488475e-01
  6.5729398e-01
  3.8602397e-01
  5.4225445e-01
  1.7665686e-01
  1.4558643e+00
  1.7974395e+00
  5.9634358e-01
 -3.6174265e-01
  5.5830783e-01
  1.7846234e-01
 -2.1171270e-01
  1.4072771e-01
  1.0772216e+00
  1.2235843e+00
  1.3663039e+00
  1.5969085e+00
 -7.6111734e-02
 -6.2569410e-01
  9.3774062e-01
  9.2269397e-01
 -1.7362806e-01
  6.1203742e-01
  8.7268734e-01
  3.4913254e-01
 -1.1931362e+00
  5.9936666e-01
 -7.9756677e-02
  1.9188029e-01
  5.2120340e-01
  3.7307626e-01
 -2.7606231e-01
  1.3578582e-01
  7.9714310e-01
  2.1559440e-02
 -6.9248974e-02
  5.9319694e-02
  2.5465316e-01
 -1.8289523e-01
 -9.2296720e-02
  2.9332626e-01
  5.0456516e-02
 -1.2659283e+00
  5.8588052e-01
  2.2470696e+00
 -1.0678629e+00
 -1.0314548e+00
  1.1570109e-01
 -1.1143320e+00
  1.0724229e-01
  3.6474159e-03
  1.7860350e-01
  3.0645018e-02
  2.9575568e-01
  5.9128171e-01
  1.2413454e+00
  5.2556103e-01
 -5.2690458e-01
 -3.3656356e-01
  4.9147516e-02
  1.6812839e-01
 -4.0664965e-01
  9.2773640e-01
 -5.9192687e-01
 -1.6019133e+00
  6.7344449e-02
 -4.6947700e-01
 -2.3811218e-01
 -1.8065847e+00
  1.0729659e+00
 -1.1731377e+00
 -2.4698544e-02
  4.9619442e-01
  4.5738509e-01
 -1.7566919e-01
 -6.2554008e-01
  9.6954346e-01
 -4.1707510e-01
  4.8446171e-02
  1.9448407e-01
 -4.2472148e-01
  1.7342223e-01
 -1.8891999e-01
  8.5406259e-02
  1.0698961e-01
  1.5893342e-01
  2.4301092e-01
  1.9732055e-03
 -3.2282196e-02
  2.4986251e-01
  1.7192394e-01
  1.7938993e-03
 -1.6670864e-02
  7.8421074e-04
 -4.6931612e-01
  1.8354895e-02
  1.9815591e-01
  2.7863532e-02
 -1.6127004e-01
  4.1458834e-02
  4.1395791e-02
 -6.0645875e-02
 -1.9984536e-01
  1.0208418e-01
  2.6080641e-01
  1.0653079e-01
  6.3275225e-02
 -3.7541613e-02
 -4.9438915e-01
 -5.5942848e-02
  8.1429407e-02
  2.9401147e-01
  2.0887715e-01
 -3.4415767e-01
 -2.1478715e-03
 -2.9764289e-01
  1.4373553e-01
  8.1983857e-02
  1.2633899e-01
  2.2334194e-02
 -1.4024056e-01
  1.0445550e-01
  6.3896723e-02
 -4.3893572e-02
  4.4466577e-02
  1.6664256e-01
 -6.7888848e-02
 -1.4670463e-01
  2.6966310e-01
 -1.1693241e-01
 -1.2070778e-01
 -1.7671734e-03
 -1.1234432e-01
  4.0533184e-03
  8.2901366e-02
  2.8171146e-01
 -3.1866768e-01
  9.8259756e-03
 -4.3917328e-02
  1.9407792e-02
  5.9135121e-01
 -5.5570549e-01
 -1.0606571e+00
  2.7971652e+00
 -1.3909455e-01
 -1.1152434e+00
  4.3277535e-01
  9.8422474e-01
 -5.7860953e-01
 -1.9931318e-01
  9.4552153e-01
 -1.4329977e-01
 -2.2392926e+00
 -4.2902187e-01
  1.3452475e-01
  6.8131274e-01
  1.6939465e+00
  2.2547545e-01
 -8.5708112e-01
 -2.9496148e-01
  8.8122714e-01
 -7.9258204e-01
  7.5672841e-01
  6.6618264e-01
 -1.1141804e+00
 -6.9363546e-01
  1.6219069e+00
 -8.2938874e-01
  1.1986773e+00
 -1.7842422e+00
 -1.8779972e-01
  8.9168441e-01
 -1.8673639e+00
  9.2261457e-01
 -1.9053070e-01
 -3.5761324e-01
 -9.3175590e-02
  1.8073882e-01
 -1.4825657e-01
 -2.5077474e-01
  2.1463903e-02
 -2.3490897e-01
 -6.7536891e-02
  1.7143220e-01
  8.5677169e-03
 -1.9560269e-01
 -3.5394597e-01
 -5.7434779e-01
 -1.7395519e-01
 -3.5024810e+00
  3.0204442e+00
  2.1766360e+00
 -3.6133108e-01
 -1.9474435e+00
  3.1105614e-01
  5.5616598e+00
 -9.1793776e-02
  5.9081471e-01
 -9.5151109e-01
 -6.3558322e-01
 -1.5521470e-01
  5.2395022e-01
  1.2781731e+00
 -6.1028636e-01
 -1.3101305e+00
  3.4306479e-01
  2.1617882e+00
  4.5765108e-01
 -1.1408349e+00
  1.9406565e+00
  3.9318416e-01
  1.2663740e+00
  2.0822783e-01
 -1.0467889e-01
 -1.2311473e+00
 -3.6000925e-01
  9.7086054e-01
  4.3099165e-01
  4.7567305e-01
  6.2536675e-01
 -1.2350569e+00
  9.6189642e-01
  3.7820476e-01
  1.1818578e+00
  4.3872550e-02
  6.7006540e-01
  5.7655716e-01
 -2.5999650e-01
 -1.1069402e-01
 -2.1505862e-02
  1.1528631e+00
  5.0204687e-02
  5.2643263e-01
  1.2089355e-02
  9.5361285e-02
 -2.8004351e-01
  3.3016071e-02
 -1.1491537e-01
  1.4508916e-01
  1.4047666e+00
 -1.8095936e+00
  4.6332613e-02
  1.2105091e+00
  1.1243870e-01
 -1.5633590e+00
  4.4917449e-01
  1.9965630e-02
 -6.2554228e-01
  2.9684719e-02
  3.0371714e-01
  1.2023929e+00
  1.0843150e-01
 -1.2135030e+00
 -4.6388194e-01
 -6.0470676e-01
  1.4162278e+00
 -1.7251346e-01
 -5.9435397e-01
  9.1608661e-01
 -9.4079310e-01
  1.8156627e+00
  5.3046083e-01
  7.3926710e-02
 -6.8293995e-01
 -7.8609312e-01
  1.4527509e-01
 -1.1740985e+00
 -4.3590361e-01
  1.2077019e-01
  9.7238427e-01
 -7.5122356e-01
  7.4416870e-01
 -2.2151570e-01
 -9.5603377e-02
  6.5530992e-01
 -5.0161377e-02
 -6.7130558e-02
 -5.8463294e-02
  2.1478538e-01
 -3.1245196e-02
 -2.3338115e-01
 -1.7155051e-01
 -1.8339120e-02
  9.4946705e-02
 -1.6649394e-01
  1.0146692e-01
  3.3781204e-02
  7.3189926e-01
  9.2788494e-01
 -7.5158215e-01
  5.2513933e-01
  1.1662170e-01
  7.1241058e-02
 -7.6811498e-01
  2.6286495e-01
  5.0282997e-01
 -2.5175887e-01
  8.0638653e-01
  2.4255465e-01
  5.0407040e-01
 -5.8154219e-01
 -1.1565343e-01
 -8.1899166e-01
  1.3605965e-02
 -2.3811907e-01
 -1.3397696e-02
 -2.5342256e-01
 -1.0031483e-01
  3.5242903e-01
 -9.9859792e-01
 -2.3819999e-01
 -4.4796178e-01
 -2.0204909e-01
  8.1410581e-01
  1.2860814e-01
 -3.3831662e-01
 -1.5926272e-01
 -1.4056333e+00
 -7.3298651e-01
 -2.7972028e-01
  3.2647198e-01
 -5.5472964e-01
 -3.2775208e-01
 -1.0818029e-01
 -5.1835384e-02
  2.5523403e-03
  1.5042952e-01
  1.3764492e-01
 -8.8858113e-02
  1.1851094e-01
 -3.6030617e-01
 -6.6739403e-02
 -6.9126956e-02
 -1.8248722e-01
 -1.9688620e-01
 -2.5290719e-01
 -1.1082287e+00
 -8.8278353e-01
  1.0715650e+00
 -4.3745792e-01
 -9.6455747e-01
  4.6654269e-01
  4.6386269e-01
 -9.2527099e-02
 -1.6649230e-01
 -4.1594133e-01
  1.1863950e-01
  7.8219347e-02
 -3.7830359e-01
  6.1361831e-01
 -1.6952056e-01
  3.8276538e-01
  7.6725036e-03
  2.5079301e-01
 -3.8372165e-01
 -3.1460476e-01
  2.3236431e-01
  1.4035693e-01
 -1.6549921e-01
  7.2498500e-02
 -3.1362253e-01
  7.2448146e-01
 -2.0141494e-01
 -7.3555604e-02
 -2.5547588e-01
  1.8463457e-01
  8.1767666e-01
  1.5866685e-01
 -5.6066561e-01
 -1.1571676e-01
  4.1833302e-01
  3.1825763e-01
  7.8063764e-02
 -3.4267861e-02
  8.9305907e-02
 -1.4120054e-01
  8.4777437e-02
 -1.6527440e-02
  4.8735146e-03
 -1.1253536e-01
  1.3536167e-01
  6.0329154e-02
 -1.2479310e-01
  1.1179051e-01
 -3.6431912e-02
 -1.9296573e-01
 -4.8841646e-01
  2.0132279e+00
 -1.1752193e-01
 -1.2483497e-02
 -5.7019178e-02
  2.2896934e-01
 -9.1203994e-01
  7.8362966e-01
 -3.0213460e-01
  1.6031665e-01
 -5.4732293e-01
  1.6159143e-01
  3.4056893e-01
 -5.7741809e-01
  1.3690098e-02
 -7.8397781e-01
  7.2058398e-01
 -5.7789034e-01
  1.5913770e-01
  6.1246209e-02
 -8.8549221e-01
  8.2116187e-01
 -8.4712625e-02
  1.7202356e+00
  3.7894762e-01
  4.7692883e-01
 -7.3110007e-02
 -6.5555173e-01
  4.9797893e-01
  1.7755365e+00
  4.9560544e-01
  1.2610261e-01
 -6.8754125e-01
  1.3068222e+00
  2.3766580e-01
  4.9118876e-01
 -2.8463291e-02
  9.7381867e-02
 -1.9045331e-01
 -2.0002662e-01
  1.2411337e-01
  1.6861506e-01
 -2.0883101e-01
  8.8889591e-02
  1.3654204e-01
  5.7684787e-02
 -5.3627905e-02
  1.1350041e-01
  3.3392566e-01
 -3.6996165e-01
  4.8792768e-01
 -5.5462635e-01
 -5.1802939e-01
 -6.4652160e-02
  9.7219211e-01
 -7.3029387e-01
 -6.3359261e-01
  1.3456078e-01
 -4.3722329e-01
 -5.9756356e-01
 -3.8788882e-01
  9.3796007e-02
  5.8859819e-01
  8.2088739e-01
 -2.8912405e-02
 -2.3871332e-02
  1.1930046e-01
  5.2723163e-01
  6.7386292e-02
  1.5958121e-01
  1.6845927e-01
 -4.2456967e-01
 -5.3044427e-02
  3.9104471e-01
 -1.0783806e-01
 -2.5948038e-02
  7.5534862e-01
  1.0875988e-01
  5.6592917e-01
  4.6438468e-01
  6.4937764e-01
 -3.2336274e-01
 -9.7632885e-02
  3.5442454e-01
  1.5121277e-01
 -7.8958951e-02
 -3.5819480e-01
  4.4284075e-02
 -1.3303465e-01
 -1.4681602e-02
  1.4823146e-01
  3.9733645e-01
 -7.3373936e-02
 -7.7058136e-02
  2.4159456e-02
 -1.3100092e-01
  2.0847280e-02
 -7.9147351e-01
 -2.7185547e-01
  7.6245201e-01
  2.0796952e+00
 -4.1108477e-01
 -1.0946007e+00
  1.1720676e+00
 -7.3269047e-02
 -4.9579597e-01
 -5.1074052e-01
  4.3774154e-02
  5.1134950e-01
 -8.5020602e-02
  1.0004381e+00
  2.2304869e-01
  7.9248470e-01
  9.5931113e-01
  8.5862070e-01
 -2.6737466e-02
 -1.0098377e+00
  1.7074935e+00
  7.9115279e-02
  1.4306054e-01
  4.5530447e-01
 -6.8859577e-01
  2.2480267e-01
  3.0430266e-01
  1.0091431e+00
  2.6075995e-01
  1.0647163e-01
  2.8159568e-01
  2.1612747e-02
 -8.6504561e-01
 -5.5168223e-01
  2.7466795e-01
 -2.1675870e-02
  1.7180821e-01
  3.4329057e-01
 -1.6895184e-01
  4.5330267e-02
  1.3022068e-01
  1.8673927e-01
  2.4373704e-01
  1.0860475e-01
  4.7236723e-03
  1.8164776e-02
  9.5467970e-02
 -5.0553149e-03
  1.6473515e-01
 -1.8317614e+00
 -4.1099736e-01
  1.0206063e+00
 -4.2763006e-02
 -9.2461956e-01
  1.9646409e+00
 -4.8269835e-01
  2.4533920e-01
 -1.2344991e+00
  3.6328185e-01
 -8.5487559e-02
  3.4575853e-01
  6.4939052e-01
  8.8626564e-01
 -1.8054870e-01
 -3.0953884e-01
 -1.6387345e-01
  1.0511105e-01
  8.0512293e-02
 -1.3788688e+00
  7.5215644e-01
 -9.6872669e-01
  6.7462909e-01
  1.5129470e+00
 -3.7790850e-01
  2.6000884e-01
 -3.7967002e-01
  1.4983933e-01
 -1.5970393e-01
 -9.6713138e-01
  1.2651423e+00
  6.2357217e-01
 -6.7806739e-01
  1.7232670e-01
 -2.6970418e-02
  9.1011785e-02
  3.8148978e-01
  3.1818625e-01
 -3.4820965e-01
  1.2673539e-01
  1.1036358e-01
 -2.6859227e-01
 -4.8993587e-02
  9.9457696e-02
  8.9407042e-02
  1.4691336e-01
  1.3523144e-01
  2.1504585e-01
  1.5373387e-02
  1.9946923e-02
  2.0253304e-01
 -1.5943761e-01
  2.7811852e-01
 -1.7656395e-02
 -1.6592538e-01
 -2.1467596e-01
  1.4221869e-01
 -4.4111721e-03
  2.3436654e-01
  5.6625459e-02
  6.8835832e-02
  9.8725259e-03
  9.1184512e-02
 -4.6744329e-01
  1.0620905e-02
 -2.2695071e-01
 -1.0696246e-01
 -1.5133165e-01
 -1.4088598e-01
 -5.8624960e-02
 -1.0810365e-01
  1.5352783e-01
 -1.3023044e-01
  1.4301128e-02
 -1.1443058e-01
 -7.7233468e-03
  1.3465992e-01
  9.0427734e-02
  1.4501784e-02
 -1.3600440e-01
 -1.8055901e-01
 -2.2410284e-01
 -3.9894000e-02
 -1.6276748e-01
 -7.0907094e-02
 -3.3182931e-01
 -2.5513960e-02
 -1.0595421e-03
 -2.1009402e-01
  1.3633992e-02
  6.3752308e-02
 -3.0457724e-02
 -1.7203157e-01
 -1.2968799e-01
  1.8456269e-03
 -6.2663540e-02
 -1.2726617e-01
 -1.0436964e-01
  1.6243750e-01
 -1.0255902e+00
  2.9030836e-01
 -3.6802039e-02
 -1.5461578e+00
 -1.6398509e+00
 -5.1798040e-01
  9.6912330e-01
 -4.7174926e+00
 -1.9092720e+00
  4.1454738e-01
  1.7390046e+00
  7.1351612e-01
 -4.9760440e-01
  6.8371050e-02
  1.7666327e+00
  4.3849182e+00
 -1.4850135e-01
 -6.0754217e-02
 -7.7033478e-01
 -1.6203665e+00
 -8.2834053e-01
  1.8822678e+00
  1.3510482e+00
 -1.3357688e+00
 -1.6496692e+00
 -1.4092695e+00
 -1.1071362e-01
 -3.4222576e-01
  1.5231425e+00
 -4.2027867e-01
 -2.4735323e-01
  7.4703759e-01
 -2.7980277e-01
  8.7555951e-01
  3.0679381e-01
  8.5402352e-01
 -6.8972522e-01
 -1.4149421e+00
  1.3893702e+00
  3.0765927e-01
 -1.6244639e+00
 -7.2149146e-01
  2.3476511e-01
 -1.1181383e-03
  1.4127058e+00
  9.1775811e-01
  3.2814395e-01
  5.1132035e-01
  1.0161961e-01
 -4.7543639e-01
  5.9489924e-01
 -1.0889798e+00
 -8.9806360e-01
  8.7516975e-01
  2.1307130e+00
  6.0256565e-01
  3.0566233e-01
  4.1076604e-01
 -3.6025828e-01
 -6.3593596e-01
  1.3055395e+00
 -2.2202604e+00
 -1.4325106e-01
  1.3215193e+00
  7.8246370e-02
 -3.3504164e-01
 -2.4611141e-01
 -2.2318983e-01
 -4.3205595e-01
 -1.3134307e-01
 -3.8957158e-01
 -1.8786626e-01
  1.3426937e-01
  8.8949120e-01
  4.3188679e-01
  2.0507377e-01
 -1.3567988e+00
  8.8393958e-03
  5.2864206e-01
  1.1517975e+00
 -2.7505827e-01
 -5.2249557e-01
 -8.0169582e-01
 -1.7944623e-02
 -2.4913020e-01
 -1.1677912e+00
 -9.9160784e-01
  1.6056643e+00
  1.2302951e+00
  4.3856874e-02
 -1.3142761e+00
 -1.0184034e+00
  4.0356487e-01
 -2.1898712e-01
 -4.0939000e-01
 -6.5948200e-01
 -6.4943641e-02
  3.3948284e-02
 -2.1773428e-01
  1.1712528e+00
 -5.0650257e-01
 -2.7623874e-01
  9.4319291e-02
 -1.7830969e-01
  8.6665070e-03
  1.5288852e-01
  2.0581722e-01
 -2.0363462e-01
 -1.2727300e+00
 -4.6972352e-01
  4.1433731e-01
 -4.4710436e-01
  3.0040035e-01
  5.1994956e-01
 -2.3772109e+00
 -7.5772651e-02
  2.3191848e-01
 -4.3129724e-01
  1.0467419e-02
 -1.0249791e+00
 -7.6990193e-01
 -1.8540652e-01
 -6.5574580e-01
 -2.0469227e-01
  8.8073874e-01
  2.3241155e-01
  1.0827739e+00
 -1.7547853e+00
 -5.9876853e-01
  1.5755329e-01
 -4.2172870e-01
  3.0895710e-01
 -9.7933985e-02
 -9.0126134e-02
  5.3641123e-01
 -3.7480408e-01
  4.2094028e-01
  2.5613275e-01
  3.0877262e-01
  2.9231197e-01
  2.1422663e+00
 -1.4008272e+00
 -6.6319102e-01
 -8.7771845e-01
 -3.8088909e-01
 -4.0465638e-01
  4.9072556e-02
  2.0304220e+00
  8.9339145e-02
  1.0980684e-01
 -1.0297085e-01
  2.6760870e-01
 -2.4600498e-01
  3.2609877e-01
  1.8081623e-01
  3.3648685e-02
 -2.6423538e-01
  6.7029268e-01
 -1.5573145e-01
  2.8547320e-01
 -5.1423156e-01
  2.8752351e-01
  2.9472893e-01
  4.7495881e-01
  7.4235229e-03
 -1.4509847e-02
 -1.1093833e-01
  1.7170647e-01
 -6.9129622e-01
  1.2706396e-01
 -1.0265175e-01
  5.4454046e-01
  1.8048733e-01
 -6.2194967e-01
 -9.5111914e-02
  4.4335589e-01
 -2.1401668e+00
  5.6617743e-01
 -5.4792035e-02
  8.8350214e-02
  5.5289334e-01
  6.0342215e-02
 -1.8110751e-01
 -1.8309784e-01
 -5.5021636e-02
  1.1006835e-02
  3.7763044e-01
  7.3626614e-01
  2.1451364e-01
  8.2694590e-01
  7.8828281e-01
  4.0162015e-01
  3.1727442e-01
 -4.4674763e-01
 -6.7019445e-01
  2.9842448e-01
 -2.9747751e-01
  3.2786876e-02
  1.6052082e-01
 -2.9825455e-02
  1.2397201e-01
 -5.7304930e-02
  2.4024180e-01
 -3.6508414e-01
  2.5238770e-01
 -5.4223504e-02
  3.4964328e+00
  3.1533742e-01
  6.4507645e-01
  2.7407017e-01
  7.5739074e-01
  3.0452862e-01
 -3.4254804e+00
  1.4617032e-01
 -1.9709314e-01
 -1.4070388e-02
  4.9150002e-01
 -3.7790031e+00
 -3.3193520e-01
  2.3128948e-01
 -8.0803740e-01
 -5.3799146e-01
 -1.3941066e+00
  8.1622332e-02
  3.9251158e+00
  3.0633616e+00
  9.7224730e-01
 -9.4427162e-01
  1.2272376e-01
  2.4617174e+00
  2.6383719e-01
 -2.4485960e+00
  3.9680734e+00
 -7.3953807e-01
 -2.0264947e+00
 -1.0618843e-01
  4.1952434e+00
  7.4501410e-02
  2.3303368e+00
  1.5092140e+00
  3.2476449e-01
 -2.3982573e-01
  5.5419162e-02
 -7.2405899e-01
  3.5630903e-01
  1.9171983e+00
  1.0724432e+00
  4.3694714e-01
 -1.2155328e-02
 -2.8418083e-02
  1.0403012e-01
  1.3821939e-01
 -2.3441859e-01
 -7.4385375e-02
 -6.8299688e-02
 -2.0676639e+00
 -7.0146984e-01
 -3.4083047e+00
 -3.2404149e+00
 -5.4541171e-01
 -3.7221754e+00
 -3.4689823e-01
 -8.2912850e-01
 -5.5589688e-01
  1.8732638e+00
 -1.2998626e+00
  4.4641590e-01
 -2.3755796e+00
 -8.7178910e-01
 -2.7274922e-01
 -9.0422291e-01
  9.3088973e-01
 -1.1256900e+00
 -3.6392742e-01
 -8.8844305e-01
  1.1206205e+00
 -7.2970712e-01
  1.5264982e+00
  2.2787201e+00
 -2.0352163e+00
  4.1046429e-01
 -5.0292772e-01
  1.0657934e+00
 -2.3077825e-02
 -5.0788659e-01
 -1.5759143e-01
 -2.0660269e+00
 -1.5321947e+00
 -7.6862574e-01
 -1.1732831e+00
  2.8104538e-01
  8.2121111e-02
 -9.6829486e-01
 -1.7782061e-01
  9.2002481e-01
 -8.2417852e-01
  3.7167459e-03
 -5.2580583e-01
 -1.5260146e-02
 -6.4102456e-02
 -1.1408367e-01
 -7.6659933e-02
 -1.1975748e-01
  9.3870677e-02
  1.2915527e+00
  5.1829016e-01
 -9.9010891e-01
  2.9426517e+00
  3.8008663e-01
  3.1497567e+00
 -1.1944703e+00
  5.1717496e-01
 -6.0447174e-01
 -5.0796032e-01
 -1.5396764e+00
  2.4865212e-02
  3.9745981e-01
  4.9727494e-01
 -1.1597263e-01
 -6.9732022e-01
 -1.2335336e+00
 -1.4880245e+00
  1.3002043e+00
  4.0897873e-01
 -5.9162313e-01
  6.2644982e-01
  6.7735434e-01
 -1.9393241e+00
 -4.2969027e-01
  1.2186848e-01
  2.8282213e-01
  2.4512722e-01
  1.7678058e-01
 -1.8780150e-01
 -1.1903718e+00
 -1.0656706e+00
 -1.7308956e-01
  7.5555545e-01
  1.9397119e+00
 -1.4074081e-01
 -3.8924614e-01
  3.0831206e-01
  2.3603323e-01
  2.1245669e-01
  3.5574493e-01
 -2.1908794e-02
 -3.0958396e-01
  3.9173633e-01
 -1.5031974e-01
 -2.3583094e-02
  1.4216331e-01
 -2.2225868e-02
  1.6450103e-01
 -3.6542866e+00
 -1.7036854e+00
  2.1894054e-01
 -3.3238056e+00
  3.7497434e-01
  3.9045823e+00
 -2.6709692e+00
  6.9658078e-02
 -4.3416184e-01
 -6.8181235e-01
 -2.0513031e-01
 -2.5393770e+00
 -2.2885258e+00
  1.7102879e-02
  2.1162643e+00
  5.8370788e-02
  5.2334361e+00
  2.1674473e-02
  1.8865074e+00
 -9.6172082e-01
 -3.0845621e+00
 -6.2742460e-01
  1.7255983e-01
 -1.4688466e+00
  9.0791896e-02
 -1.4274772e+00
 -3.7391944e+00
  2.6400563e-01
 -5.0911619e-03
  1.9401175e-01
  4.6097279e-01
 -7.1595952e-02
  1.8109853e+00
 -3.7782428e+00
  2.1581662e+00
 -9.8911631e-01
 -2.1465820e-01
  1.4316370e+00
  1.8167533e-01
  8.2797265e-01
  2.6109927e+00
 -4.6987203e-01
  1.1284930e-01
  9.2993751e-02
 -5.0922785e-02
  2.8110510e-01
  9.8735988e-02
  4.9967129e-02
 -8.8333555e-02
  1.6628897e+00
 -1.9517598e+00
 -1.4183489e+00
 -3.0398116e-01
 -2.3453662e+00
  5.6407982e-01
  3.5953346e-01
  3.2259527e-01
  6.6484380e-01
 -4.7197652e-01
  1.3036680e-01
  2.3933725e-01
  7.6520526e-01
  1.0469325e+00
  5.0366807e-01
  3.8248664e-01
  7.4831188e-01
  6.1828595e-01
 -9.4549876e-01
  1.3945379e+00
  1.1410947e+00
  7.8356224e-01
 -6.6628623e-01
  9.9439986e-02
  4.9337748e-01
 -2.4397828e-01
  7.1677172e-01
  1.0467659e+00
  4.2658043e-01
  8.6237192e-01
  1.5946485e+00
  1.2111592e-01
  5.9574389e-01
  7.1197909e-01
 -1.2043712e+00
 -2.2013861e-01
 -2.5222668e-01
  1.7342381e-02
  6.0193442e-02
 -4.2464259e-01
 -1.1916240e-01
 -3.4260261e-01
  6.5919168e-02
  3.2694824e-02
 -1.4469500e-01
  3.4517951e-02
  1.5281449e-01
  9.2915080e-02
  8.6435519e-02
  1.9081291e+00
  1.4779887e+00
  5.0294954e-01
  1.9016289e+00
  1.6801703e+00
  2.9657159e+00
  7.0597458e-01
 -3.2425255e-01
 -5.4879040e-01
  6.8778914e-01
 -6.5973645e-01
  1.8550532e-02
 -1.9595681e+00
 -6.1113334e-01
  8.4141660e-01
  3.2129515e-02
 -4.7377741e-01
 -1.5531627e+00
 -1.5708841e+00
 -2.3305309e+00
 -2.0680664e+00
  7.7319825e-01
  6.0326171e-01
  1.9983089e-01
 -9.6600795e-01
  4.5102364e-01
 -5.0346678e-01
 -8.2273006e-01
  9.5010996e-01
 -3.4365904e-01
 -1.3743230e+00
 -6.2355834e-01
 -1.4962554e+00
 -1.1939042e+00
 -6.2906975e-01
 -3.1593236e-01
 -2.5077868e-01
 -3.6624804e-01
  1.8630521e-02
 -8.7243271e-01
  4.4673586e-01
  4.7460797e-01
 -2.8523681e-01
  2.0450124e-01
 -5.4794335e-01
 -1.5664822e-01
 -2.9712224e-01
 -1.7314085e-01
  1.7013314e-01
 -1.7386787e+00
 -7.3569983e-01
 -8.3829129e-01
 -1.7907747e+00
 -8.8993138e-01
 -1.5724515e+00
 -2.3646966e-01
  3.0968520e-01
 -5.3871131e-01
  6.2432313e-01
  2.5320456e+00
  6.1022210e-01
  1.5628127e+00
  8.2733405e-01
  4.9945223e-01
 -8.2901001e-02
  3.4855951e-02
  7.3419082e-01
  2.2142535e-01
  9.4483638e-01
 -3.6549442e-02
  1.7080753e-01
  5.4345012e-02
 -3.9435722e-04
  1.6011941e+00
  6.6311938e-01
  7.9174429e-02
  4.8237181e-01
  5.6452896e-02
  7.9574007e-01
 -3.0100846e-01
  1.7352079e+00
  1.0295473e+00
 -2.5157672e-01
  1.0919754e-01
 -9.8663139e-01
  2.6900027e-02
  6.8119651e-01
  2.1851048e-01
  1.9723426e+00
  1.6093189e+00
  9.9720992e-02
 -6.4998046e-02
  1.2254085e-01
 -1.9228751e-02
  1.1795900e+00
 -1.5265913e+00
 -4.6048960e-01
 -1.5014088e+00
 -1.1815261e+00
 -1.1700071e+00
  1.8625188e-01
  4.3782219e-01
 -1.2489777e+00
  6.9740272e-01
 -7.5272912e-01
  5.1442313e-01
  2.3163664e-01
  8.0986440e-01
 -1.0873137e-01
 -4.3145723e+00
  9.9358797e-01
 -1.9030429e-01
  9.5821804e-01
 -4.9938551e-01
  2.7367971e+00
  5.7323033e-01
  3.0746940e-01
 -2.8042762e+00
 -3.2475984e-01
 -3.6367956e-01
 -4.2579132e-01
  1.3791535e+00
 -2.4549054e-02
 -1.6454381e+00
 -1.8379134e-01
 -5.9862524e-01
  3.7291449e-01
 -9.0230122e-02
  1.7208050e+00
  4.3512979e-01
  5.6311131e-01
 -2.0400591e-01
 -9.4052529e-01
 -1.0576538e+00
  5.5729933e-03
 -7.1153271e-01
 -4.9693152e-01
  2.5127609e+00
  2.8469005e+00
  1.2507829e-01
  9.7742025e-03
  2.2651890e-02
  9.4866224e-02
 -5.9889756e-02
 -3.6814441e-03
  4.5770189e-01
  2.1340039e-01
  4.5706663e+00
 -4.0505652e+00
 -5.3157580e-01
  5.3328198e-01
 -1.0274111e+00
  1.8092340e+00
  1.7752817e+00
 -2.0852508e-01
 -2.1750440e-01
 -6.7355418e-01
 -1.3251927e-01
 -4.3806997e-03
  1.7343259e+00
 -1.9195932e-01
 -1.3615737e+00
 -2.5410590e-01
  7.7518767e-01
  9.1463554e-01
  7.5396858e-02
  1.5057807e+00
  7.2661161e-02
 -8.1968963e-01
 -8.3809692e-01
 -4.4524494e-01
  2.4058050e-01
  9.0869941e-02
  1.9012870e-01
 -4.8415333e-01
 -1.4037354e+00
  9.4224429e-01
  8.6226600e-01
  1.2470804e+00
  2.5604635e-01
  6.5819144e-01
 -1.3443110e+00
 -5.4027040e-02
  8.9575179e-02
  1.4391123e-01
  2.5246212e-01
  3.6859265e-01
 -1.7573517e-02
 -2.3988201e-01
 -1.9101340e-01
 -2.1961628e-01
  1.9209105e-01
  1.7423058e-01
 -6.3614018e-02
  1.8120705e-01
 -3.0259353e-01
  3.2133141e+00
  1.3553334e+00
  3.2307291e-01
  3.0566287e+00
  2.2859752e+00
 -3.0548927e-01
 -1.0676261e-01
 -1.9241065e-01
  7.1378887e-01
  1.0128714e-01
 -2.1219102e-01
 -1.1511242e-01
 -1.8085642e-01
  6.9459632e-02
  6.8631124e-01
  8.9129204e-01
 -9.0044260e-01
 -1.7476574e+00
 -2.2065589e+00
  8.4445104e-02
 -1.2615620e-01
 -2.5175363e-01
  3.6818630e-01
 -7.8278370e-02
 -4.6673355e-01
 -7.2565204e-01
  6.3326710e-01
 -4.0144527e-01
 -1.1860014e+00
 -5.1820433e-01
 -9.9117196e-01
 -1.1035132e+00
 -2.4434640e+00
 -1.7835232e+00
  1.6383022e+00
 -3.0759037e-01
 -4.8269549e-01
 -1.5663395e-02
  3.9683856e-02
 -2.5860590e-01
 -6.7258143e-01
  1.4307818e+00
 -3.0645096e-01
 -4.5833459e-01
 -1.4057221e-01
  8.3276667e-02
  1.9960365e-01
 -4.8859198e-02
  1.7266147e-01
  3.0282414e+00
  3.7298819e-01
  1.3980561e-01
  3.0797808e+00
  1.0249766e+00
  2.5775871e+00
  2.4048500e-01
  1.1551880e+00
  2.8110705e-02
 -1.2448622e-02
 -2.5287202e-01
 -1.0665091e+00
 -6.2014341e-01
  2.1955402e-01
  1.6282881e+00
  3.8238963e-01
 -1.1402291e+00
 -1.6272347e+00
  4.9278191e-01
 -1.1459010e+00
 -5.8038902e-01
  1.2154535e+00
  2.0344788e-01
 -1.8226181e-01
 -9.1008884e-01
 -1.0176823e+00
  6.2855542e-01
  2.0908745e-01
  2.5440854e-01
  1.9882108e-01
 -1.3499858e+00
 -1.1561942e-01
  5.6348130e-02
  1.0995737e+00
  1.3360888e-01
 -5.5430579e-01
 -2.6545712e-01
  4.1532934e-01
  7.4155921e-01
  3.9196737e-02
 -8.7227535e-01
 -2.2424412e-01
  1.6572781e-01
 -1.2083590e-01
 -4.2104757e-01
 -2.2802675e-01
 -1.5686288e-01
 -6.0507279e-02
  1.3210040e-01
 -3.8307510e-02
  1.6716811e-01
 -7.6820701e-02
  7.7395451e-01
  6.2667197e-01
  8.4857360e-02
 -3.2132471e-01
 -1.6093930e-02
 -1.5987015e-01
  1.6709183e-01
  2.3646204e-01
 -1.9261881e+00
  4.2927772e-01
  1.2573506e-01
  4.6994704e-01
 -2.4151826e-02
  3.1855574e-01
 -4.7610380e-02
  3.3654394e+00
 -1.4875732e-01
 -1.1096506e-01
 -7.8225508e-02
  6.2563457e-03
  2.2941988e+00
 -1.6161476e-01
  4.9502820e-01
  3.6847186e+00
 -4.1182005e-01
  4.9163631e-01
 -4.9901616e-02
 -8.0202013e-01
  1.7722425e-01
  5.4320437e-01
  4.1932261e-01
 -3.8141319e-01
  8.0100168e-03
  4.3616721e-01
  3.1981590e-01
 -1.3587798e-01
  1.5518080e+00
 -2.0936720e+00
  2.6017112e-01
 -1.5433227e-01
 -2.5309497e-02
  1.2165075e-01
  5.8012988e-02
 -1.7395988e-01
 -1.1775114e-01
  1.9917812e-02
  1.4529175e+00
  1.4240959e+00
  3.6446011e-01
  2.5996110e+00
  1.9152021e+00
  7.5776458e-01
  1.2178475e-01
 -1.0641358e+00
 -2.0709370e-01
 -3.4597629e-01
 -5.6089288e-01
 -2.2025464e+00
 -2.0061209e+00
  1.1368490e-01
 -1.6925970e-01
 -5.0143796e-01
  1.6852894e+00
  1.2285304e+00
  7.2560586e-02
 -1.5845553e+00
 -3.0591160e-01
 -1.8118470e+00
 -2.6059467e-03
  4.6883562e-01
 -6.4876997e-01
 -1.3735168e+00
  6.5052861e-01
 -1.3963648e+00
 -2.7154514e-01
 -2.6025781e-01
 -4.5054460e-01
 -1.7475555e+00
  2.1449047e-01
  8.4577060e-01
 -2.3896830e+00
  6.7301638e-02
  2.5902588e-02
  3.3471438e-01
  4.4890401e-01
  1.8308985e+00
 -2.1567540e+00
  8.1269300e-01
  1.7053638e-02
  4.1524518e-01
 -5.6192696e-01
 -4.0970922e-01
 -9.3872082e-01
 -5.1019549e-01
 -3.0213034e-01
  2.8933678e+00
  3.2872196e-02
 -2.5039524e-02
 -4.5796850e-01
 -2.5014275e-01
  1.1956529e-01
  1.5938723e+00
 -1.1901583e-01
 -4.8423475e-01
  1.6829592e-01
 -2.6290096e-02
  1.3542235e+00
  2.3757659e-01
 -7.6986305e-02
  2.5577715e-01
  3.6091179e-01
 -1.2299390e+00
 -3.7477520e-01
  6.8523288e-01
  3.1578622e+00
 -1.0170551e-01
 -3.7839964e-01
  1.6754614e-01
 -1.2847334e+00
 -4.2738965e-01
  7.9070464e-02
 -1.3050804e+00
 -3.6370996e-01
 -9.3277651e-01
  5.3221922e-02
 -7.8063548e-01
 -3.0207148e-02
  7.5809622e-01
 -1.6020653e-01
 -7.9217827e-01
  1.7301301e-02
  9.1559626e-03
  1.0515280e+00
 -5.9699327e-02
  1.2898713e-01
 -3.2115507e+00
  5.2126851e-02
 -9.0555839e-02
 -2.4578582e-01
 -1.0845083e-01
 -1.5847122e-02
  1.5208040e-01
  1.9710507e-02
  5.6432635e-02
 -3.6691174e-01
 -1.7625335e+00
 -9.6085060e-01
 -3.6721556e+00
 -1.5313947e+00
 -1.4125510e+00
  3.7297219e-01
 -7.0428574e-01
  1.4969094e-01
 -5.7120460e-01
 -8.9314085e-01
 -2.0934896e+00
  1.2264328e-01
  2.8114802e-01
  1.0308338e+00
  5.5176044e-01
 -1.7605297e-01
  1.7723815e+00
  1.5803456e+00
 -6.8887365e-01
  4.9038517e-01
  3.8846281e-01
 -1.0401531e-01
  3.2936710e-01
  8.3029395e-01
 -9.4501305e-01
  5.9826654e-01
 -1.7503543e-01
 -6.5213360e-02
 -1.0671540e+00
  7.9255896e-03
  1.3086107e+00
 -3.0747956e-01
  4.9300465e-01
  6.6184467e-01
  1.2326530e-01
 -3.4602457e-01
 -2.9118890e-01
  6.2288332e-01
 -2.1333966e+00
 -1.4660658e+00
  6.0081398e-01
 -2.4118385e-01
  5.2268557e-02
  1.9315426e-01
  1.5749308e-01
  7.3877767e-02
  1.9674884e-02
  1.5691459e-01
 -5.3935266e-01
  5.5257410e-01
  5.1754159e-01
  1.4936921e-02
  8.6093009e-01
 -3.4756610e-01
 -6.3936412e-01
 -4.2551160e-01
  1.2426408e-01
 -1.1467659e-01
 -4.3228313e-01
 -1.5100160e-01
 -4.5799178e-01
 -5.4174691e-01
  1.2263224e-01
 -1.9825554e-01
  2.2155249e-01
  1.7440809e-02
 -4.4994250e-01
 -7.7402490e-01
 -8.5391718e-01
 -1.6529088e-01
 -3.0804345e-02
 -1.8104255e-01
 -1.1123683e-01
  2.5161994e-01
 -1.2071910e-02
 -6.4095682e-01
 -3.5046655e-01
  9.1484584e-02
 -4.7706145e-01
 -1.2306178e-01
 -5.3143626e-01
 -6.4352816e-01
  1.1251665e+00
 -2.0066559e-01
  1.4195402e-01
 -2.7777261e-01
  2.9516536e-01
  2.5058970e-01
  3.2748252e-01
  1.3119647e-01
  5.1932633e-02
 -1.6591051e-01
 -6.7698859e-02
 -7.1633451e-02
 -9.8809227e-02
 -7.0513979e-02
 -3.6015722e-01
  1.0358247e-01
 -1.5915898e+00
  6.1710870e-01
  4.6550950e-01
 -1.1106800e+00
 -6.2806681e-02
  1.1712638e-01
  7.9089427e-01
  3.9689946e-01
 -1.8741986e-01
  4.2786127e-01
  3.9134708e-01
  1.0214533e+00
  8.4598795e-02
  2.9062003e-01
  6.2807101e-01
 -3.0439860e-01
 -1.6226305e-01
 -1.2970463e+00
  6.8001084e-02
 -1.0171285e-01
  2.0909195e-01
  4.7413450e-02
  5.0503856e-01
  2.0578222e-01
  3.2615599e-01
  1.6125894e+00
  1.0184852e+00
 -9.9826849e-01
  5.3776026e-01
 -1.8138827e-01
  6.2679283e-02
  2.5914070e-01
  4.7878325e-01
  7.6616991e-01
  1.4464919e-01
 -1.3094673e-01
 -3.4369066e-01
  2.6826045e-01
  2.0874964e-01
  8.4885520e-01
  4.3553110e-02
  1.0330202e-01
  8.9798138e-02
  5.3756453e-02
  2.3462667e-01
 -2.1602534e-01
 -3.8868776e-01
  1.5288317e-01
  5.3685673e-02
 -3.5732377e-01
 -6.4291853e-01
 -1.4755220e-02
 -2.4275449e-01
  2.3009491e-01
  1.6871041e-01
 -7.3120072e-02
 -2.5418112e-02
 -1.0715359e-01
 -2.7018880e-02
 -1.6674483e-02
  2.7134800e-01
  1.1134733e-02
  5.0871160e-02
  2.1617573e-01
  1.2006731e-01
  4.8314862e-02
  3.5915565e-01
 -9.0422310e-02
  4.1798407e-01
 -7.3373400e-02
 -1.0976633e-01
 -2.4746528e-02
 -2.3299959e-01
  6.2774546e-02
 -2.3058970e-02
  2.4496311e-01
  2.3192969e-01
  1.6525820e-01
  5.0933892e-01
  1.5163223e-01
 -2.3060302e-01
 -6.0716946e-02
 -9.3538007e-03
  7.2210111e-02
  6.0059067e-02
 -1.2108620e-02
  3.9047906e-01
  2.3498723e-01
 -1.0426603e-01
 -3.1832775e-01
  1.9599861e-02
 -2.9306546e-02
  2.5201628e-01
  1.3782153e-01
  2.8302667e-01
  1.8608987e-01
  1.9448956e-02
  4.1761222e-01
 -1.1755527e+00
 -2.6339161e-01
  9.5524251e-01
 -8.5947216e-01
  1.1661600e+00
 -2.7667883e-01
  2.9288912e-01
  7.3731595e-01
 -1.3275836e+00
  6.1429536e-01
 -5.4590460e-02
 -4.3994207e+00
  3.2813939e-01
  7.1565762e-02
  1.2083298e-01
 -1.1411664e+00
  3.1714794e-01
  5.8474439e-01
 -1.6536945e+00
  1.0163537e+00
  7.9692763e-01
  8.3761293e-01
 -8.3412075e-01
  6.1578977e-01
 -4.0345296e-02
 -3.3512800e+00
  6.8870848e-01
  4.3713969e-01
  1.8214403e-02
 -3.9544198e-01
 -3.6743158e-01
  2.0021114e+00
 -3.4685028e+00
  1.5377412e+00
 -4.9042434e-01
  1.7054187e-01
  3.9887759e-01
  9.6355164e-01
 -1.1652322e+00
  1.1158357e+00
 -5.4400527e-01
  4.0150207e-01
 -1.1180948e-01
 -4.8769500e-02
  3.6663085e-02
  1.0381501e+00
  1.4938448e-01
  6.7498915e-02
  3.0444598e-01
  2.9557993e+00
 -2.7911174e+00
  1.0015211e+00
  2.4094772e+00
  2.0864074e+00
  1.4603847e+00
 -3.1701908e+00
  1.3248308e+00
  1.3383943e+00
 -5.0914431e-01
  3.9595681e-01
 -2.0226431e+00
 -5.3642631e-01
  7.5695348e-01
  3.9467072e-01
 -4.1375944e-01
 -8.7612313e-01
  7.2377360e-01
 -1.3066723e+00
 -5.1592582e-01
  3.1071863e-01
  1.0441998e+00
  3.1159932e-02
  9.7994745e-02
 -1.2749513e+00
  6.7795330e-01
 -6.2192905e-01
  1.0132791e+00
  2.7672968e+00
  3.2399455e-01
 -8.4627873e-01
 -8.4191960e-01
 -1.5458435e+00
 -2.2876070e+00
  4.1635051e-01
  2.6018006e-01
 -7.8545958e-02
 -2.9812068e-02
  1.4209994e+00
 -1.8327329e-02
  3.4745514e-01
 -6.0702491e-01
  3.5830054e-01
 -4.3489769e-01
 -2.5332949e-01
 -2.4410251e-01
 -5.0470151e-02
 -3.7309185e-02
  3.3941624e-01
  5.5765849e-01
 -5.2251714e-01
 -6.6661966e-01
  1.7843308e+00
  1.0076164e-01
 -5.2043635e-01
 -3.9277530e-01
 -2.7662352e-01
  9.5809028e-02
 -1.5695857e-01
  1.5294525e-01
 -4.1945511e-01
  9.6788421e-02
  4.2644274e-01
  3.3757120e-01
 -2.0106934e-01
 -2.9059488e-01
 -2.3822418e-01
 -4.3499419e-01
 -2.3743089e-01
 -5.4865545e-01
 -6.5400660e-01
 -5.7372905e-02
 -6.9588676e-02
 -9.8655909e-02
  4.6608922e-01
  4.1808547e-03
  2.5481743e-01
  1.3565290e-01
  4.3807253e-01
 -3.2704130e-01
  1.2387151e-01
 -7.8757101e-01
 -2.4527808e-01
  6.3258156e-02
 -1.5010224e-02
  1.7949204e-01
  1.7291956e-01
  5.4226077e-01
 -9.9509478e-02
 -8.4539235e-02
  5.7266881e-03
  2.2473446e-01
 -3.6065675e-02
 -1.0628925e-01
  1.9959426e-01
  7.4758112e-02
  7.4519232e-02
  3.7690267e-01
  5.0839823e-01
  3.5386649e-01
 -3.1073785e-01
 -3.0237252e-01
 -1.1543078e-01
  2.0195320e-01
 -4.4924420e-01
 -4.1802379e-01
  1.6730167e-01
 -1.3514963e-01
  2.2308629e+00
  2.6165545e-01
 -1.3314566e-01
 -9.7960305e-01
  1.7027158e-01
  8.4482110e-01
 -3.6910590e-02
  1.5032314e-01
  3.9418793e+00
 -2.0628936e+00
  1.0723790e+00
  5.9778109e-02
 -1.4513946e-01
 -2.1202575e-01
  1.5115684e+00
 -9.3000680e-01
  5.5201823e-01
 -1.1034964e+00
 -2.4646872e-01
 -4.7389635e-01
 -1.6133691e-01
 -1.3747810e+00
 -6.2906718e-01
  6.9481051e-01
  1.6020328e-01
  9.7907849e-02
  6.9385290e-01
 -5.1709688e-01
 -6.8332672e-02
  1.5661077e+00
 -4.5081034e-02
 -2.1938907e-01
 -2.7359378e-01
  2.8142494e-03
 -7.8636818e-02
 -2.8768173e-01
 -1.9912064e-01
 -3.2335553e-01
  6.7962742e-01
 -7.2778201e-01
 -1.0578790e+00
 -1.4601195e+00
 -4.5333031e-01
  7.5341088e-01
  9.9636137e-01
  1.9038969e+00
  5.1489717e-01
 -3.0994970e-01
  5.8670676e-01
 -3.5956535e-01
  2.4453781e+00
  9.0037897e-02
  1.4759884e+00
 -1.2762049e-01
 -7.9839369e-03
 -3.0563045e-01
 -1.9016626e+00
  1.1266923e+00
  4.6337724e-01
  1.6103755e+00
  1.1136338e+00
 -7.9117671e-02
  2.0781159e+00
  9.0567160e-01
 -1.2263675e-01
  9.3576235e-01
  2.5005135e-01
  2.5373572e-01
  4.5212978e-01
  7.0645881e-01
 -7.6845264e-01
  1.0329258e+00
  1.5677165e+00
 -6.5197647e-02
 -1.7582151e-01
  8.0452174e-02
  5.3573751e-01
 -5.9994042e-01
 -7.4578977e-01
  6.3184500e-01
 -1.0453346e-01
 -1.8747246e-02
  1.8513998e-01
 -1.1432765e-01
 -3.0160042e-02
  9.9276854e-03
  2.6711690e-01
  1.5880618e+00
  1.5247527e+00
  7.5946122e-01
  3.9781716e+00
  1.4827902e+00
  2.1129494e+00
  1.8860660e-02
  1.9774178e-01
  5.2762568e-01
 -4.1822731e-01
 -8.0258721e-01
  3.0109224e+00
 -2.1326454e+00
 -1.0969949e+00
 -2.0987954e+00
 -1.7048477e-01
 -1.8733470e-01
 -1.9854727e-01
 -1.1213250e+00
  1.0763842e+00
  7.4428457e-01
  4.1659340e-01
  1.5791349e-01
 -8.6092710e-01
 -4.4355446e-01
  1.4032673e+00
 -1.7991325e+00
  1.1865675e-01
 -3.6419934e-01
  1.7925523e-02
  9.4454676e-01
 -1.3508137e+00
 -7.9636651e-01
 -4.1797605e-01
  1.1596568e-01
 -1.6737326e+00
  4.6439633e-01
 -2.0679280e-01
 -1.2045019e+00
 -8.8637573e-01
  2.0038233e+00
 -3.1189781e-01
 -3.2648463e-02
 -3.3662343e-01
  9.1342553e-03
 -3.0936646e-01
  2.9777336e-01
 -6.1380785e-02
 -3.1648627e-01
  5.2991238e+00
 -1.8595512e+00
  4.0925689e+00
  2.7238781e+00
 -5.1285315e-01
  3.0181985e+00
  8.3017373e-01
 -6.5960085e-01
 -2.3263540e+00
 -2.7275610e+00
  6.1241263e-01
  1.5532391e+00
  4.1736671e-01
  3.7486490e-02
 -2.5085864e+00
  7.4245203e-01
 -1.5266985e+00
  8.5929608e-01
  1.1374005e+00
 -7.6823056e-01
  2.2343869e+00
 -1.2137990e+00
 -1.7765168e+00
 -2.0199721e+00
  5.5375403e-01
  1.7913390e+00
  3.3873761e-01
  6.7676544e-01
 -1.6167252e+00
 -9.9865788e-01
  2.9673565e-02
  4.8806876e-01
  2.8658396e-01
  2.4552758e-01
  6.1369628e-01
 -4.0895760e-02
  6.2802857e-01
  1.6708426e-01
 -2.1685389e-01
  5.9127808e-01
 -4.3546554e-01
  9.6785694e-02
  6.6612536e-01
  2.3326434e-02
  1.3188003e-01
 -1.1013639e-01
  6.5190113e-01
  7.1101022e-01
  2.0507985e-01
 -1.4295795e+00
  1.3773715e-01
 -1.7589329e+00
 -4.7864680e+00
 -9.4779509e-01
 -1.8703673e+00
  4.6333715e-01
 -1.5697469e-01
 -5.2493376e-01
  3.9650914e-01
 -9.5023602e-01
 -3.3975751e+00
 -1.4961717e+00
  9.7052507e-02
  1.2239249e+00
 -1.0886259e+00
 -6.3421923e-01
 -1.9496763e+00
 -2.1657445e+00
 -2.3285691e-01
  1.1434097e+00
  1.6450655e+00
 -9.5261014e-01
  9.9603303e-02
 -1.3232641e+00
 -3.0433533e+00
 -5.2179646e-01
  1.7587984e+00
  3.3073116e-02
  1.8775676e-01
  2.7064770e-01
 -1.4238911e+00
 -1.4102865e+00
 -3.6568075e-01
  1.3774993e-01
 -1.4731534e-01
  6.1268032e-02
  6.5070486e-01
  9.0549905e-03
 -2.6934332e-01
  2.1950480e-01
  1.2153411e-01
 -1.4969306e-01
 -1.3152342e-01
 -6.9543913e-02
 -4.9346965e-02
 -7.8143823e-01
 -3.9414018e-01
  5.6826746e-01
 -1.8699555e-01
 -1.3187069e+00
  1.8153951e+00
  1.4146349e-01
 -1.3213423e+00
  5.4310821e-02
  4.8127767e-01
  7.8136063e-01
 -5.6566548e-01
 -4.2866585e-01
  5.7982296e-01
 -2.8530937e-01
 -8.3323456e-02
 -6.8850708e-01
 -9.3440926e-01
 -7.8345895e-01
  5.7274741e-01
  7.9899925e-01
  1.0706562e+00
  2.2705297e-01
 -1.8893312e-01
 -9.6188360e-01
  1.7522051e+00
 -2.2306757e+00
  1.6002166e-01
 -4.7660714e-01
 -1.7434813e-01
 -9.0441066e-01
 -2.4578671e-01
 -4.2058614e-01
  3.3852014e-01
  2.6031181e-01
  9.9675663e-02
 -1.1177114e-01
  4.6519607e-01
 -5.2185684e-02
  8.6752445e-02
 -3.9747587e-01
  2.3077514e-02
 -1.8232906e-02
 -3.6212698e-01
  7.0172991e-03
 -3.6119867e-02
  3.2450456e-02
  3.9069465e-01
 -3.0570558e-01
  1.7483646e-01
  8.4573722e-01
 -1.9270748e-01
  1.6082321e+00
 -3.2780356e+00
 -2.2243910e+00
  5.2866325e+00
  8.4900272e-01
 -2.8054349e+00
 -3.8508933e+00
 -9.2363757e-01
 -1.1484536e+00
  1.9526504e+00
 -3.0909007e+00
 -1.7203854e+00
 -5.6094832e+00
 -4.5070329e+00
  6.0368080e+00
 -3.7166162e+00
  3.0547447e+00
  2.8976636e+00
  1.8192079e+00
 -1.8780470e+00
 -1.0587846e+00
 -3.5063052e+00
  5.0956517e-01
  9.7056603e-01
  2.9411383e+00
  5.0587505e-01
 -5.1346211e+00
 -6.2773012e-02
  8.7846053e-01
 -1.0600154e+00
 -1.0028937e+00
  1.5864654e+00
  6.1724114e-01
  2.9267790e+00
 -5.2332783e-01
 -3.5079560e-01
  3.3759172e+00
  3.2432941e-01
 -6.3411427e-01
  4.0862908e+00
  4.9856877e+00
  4.1016009e-01
 -5.8504558e-01
 -3.9556355e+00
  1.9736960e+00
 -2.6399491e+00
 -4.3482828e+00
  1.2766140e+00
 -1.4042939e+00
  1.5132133e+00
  7.6574638e-02
  6.6762376e+00
 -5.3213567e-01
 -2.8955793e-01
 -2.1102066e+00
  8.0574709e-01
 -3.7105865e+00
  2.8698328e+00
 -3.0921435e-01
  4.5076501e-01
 -2.5771434e+00
  1.8326043e+00
  3.2075753e+00
 -5.0463766e-02
 -2.2996042e+00
  5.0127178e-01
  6.3738149e-01
 -4.4482774e-01
  5.9273380e-01
 -3.2150513e-01
 -2.8682342e-02
  1.1925346e-01
  3.6012602e-01
 -3.2552552e-01
 -4.6240890e-01
  3.8367301e-01
 -2.0484270e-01
 -5.3346831e-01
 -1.3989726e-01
  2.5462011e-01
 -1.9950645e-02
 -5.6527120e-01
  2.6902014e-01
 -1.8485820e-01
 -4.4714478e-01
 -1.2074400e-01
  3.6533058e-01
 -1.1282514e-01
 -5.9237069e-01
  1.2737638e-01
 -3.0853432e-01
  6.9730178e-02
 -1.8165463e-01
  1.7335945e-01
  7.4904412e-02
 -6.7770071e-02
  1.1198676e-01
 -9.5172323e-02
  4.4366084e-02
 -3.2666886e-01
  2.9300805e-02
  1.0986176e-01
  7.2296983e-01
 -2.1546042e-01
  8.4338700e-03
 -1.8700433e-01
 -1.1284733e+00
 -1.2453281e-02
  7.0734227e-01
  1.2311136e+00
  1.3586709e+00
 -3.1785000e-02
 -2.7804327e+00
  7.2313839e-01
 -1.7432398e+00
 -2.3107781e+00
  1.6012105e+00
  1.4213136e+00
 -1.7748582e+00
  1.1999805e+00
  5.0629443e-01
 -8.7754613e-01
 -2.3502195e-01
 -3.3360595e-01
  3.1561661e-01
 -6.1782789e-01
  1.5566245e-01
  6.8288958e-01
 -7.5147316e-02
 -2.3508914e-01
 -6.8226881e-02
  2.6036900e-01
 -1.0240946e+00
  7.7842468e-01
 -1.5134118e-01
  3.1442773e-02
  1.1930890e-01
  2.0818268e-01
 -8.1898040e-01
 -1.6993661e+00
  7.2355472e-02
 -4.7779310e-01
  5.8102608e-01
  1.7193671e-01
 -2.6482308e-01
  3.5573158e-01
  3.1147799e-01
  1.8262792e-02
  4.7410241e-01
  3.3713475e-01
  6.2835580e-01
  9.2780560e-02
 -3.2971996e-01
  7.1399356e-04
 -5.0175600e-02
  8.3481401e-02
  2.3801579e-01
 -1.9540791e-01
  6.7327149e-02
 -3.2302279e+00
  8.9911127e-01
 -2.4515548e+00
  4.1582994e+00
  1.6849351e+00
  1.7175343e+00
  2.4833959e-01
  7.9621321e-01
  4.8566991e-01
  8.4676981e-02
  5.7494825e-01
  6.8666071e-01
 -1.1943867e-01
  1.3812172e+00
 -1.8534462e+00
 -1.2469686e+00
  7.3536985e-02
 -7.0180064e-01
  1.3951399e+00
  6.1671313e-02
  6.7900032e-01
  1.3876398e+00
  1.0266880e+00
 -4.8835829e-01
  1.6576312e+00
  1.2173452e+00
  8.9000888e-02
 -1.4128332e-01
 -2.7567756e-01
  3.8821715e-01
 -1.4037250e-01
 -3.9796335e-01
  7.2685635e-01
  5.1967096e-01
  2.2643618e-01
 -4.8544277e-03
 -6.7255914e-02
 -1.1549793e-01
 -5.3285635e-01
 -1.4425305e-01
 -4.0313181e-02
 -2.0923033e-02
  2.5777191e-02
  9.7523235e-02
  2.2852453e-03
 -1.3235535e-02
  8.3219796e-02
 -1.7207043e-01
  1.4759475e-01
  5.0342715e-01
 -6.7018086e-01
 -6.5412626e-02
 -1.6964066e-01
 -6.9430006e-01
 -1.0643548e+00
 -1.8246488e-01
 -3.5169277e-01
  4.1256219e-02
  2.8168735e-01
  6.7147277e-02
  1.2383460e-01
  4.5457563e-01
 -3.0824935e-01
  3.6293021e-01
  3.8476667e-01
  2.1651345e-01
 -1.2937684e-01
  1.3308966e-01
  1.2548556e+00
 -7.5218534e-01
 -2.0240396e-01
  1.5226954e-03
 -4.8444709e-01
  1.9653374e-01
 -1.5175378e-01
  3.0461216e-01
  2.1276189e-01
 -3.7538059e-02
  2.6820887e-02
 -3.1994611e-02
  4.7382894e-01
 -3.7346399e-01
  2.0852686e-01
 -1.5629357e-01
 -5.2027935e-01
 -1.4505993e-01
 -3.0549955e-01
 -3.8145266e-02
  6.1797131e-02
 -2.0681363e-01
  2.8224161e-01
  4.2591810e-02
  1.5481009e-01
  2.2331184e-01
  8.1463203e-02
  2.2409266e-01
 -5.0273275e-01
  3.9056817e-01
 -2.5356552e-01
  1.0881016e-01
 -2.3380947e-01
 -5.2650452e-02
 -4.2657903e-01
  3.1132939e-01
  5.0966937e-02
  4.3864703e-01
  2.1028282e-01
 -1.7816706e-02
  1.0998191e-01
  2.6881969e-01
  2.8246805e-01
 -3.8924500e-02
 -3.6722335e-01
  1.2473605e-02
 -3.5516357e-01
 -5.5600142e-01
 -8.7223068e-02
 -2.7293181e-01
 -8.3255357e-01
  1.8292546e-01
  2.1142945e-01
 -2.8010106e-01
 -6.3407105e-01
  4.0907216e-01
 -2.7530015e-01
 -3.5927308e-01
  3.2002196e-02
 -1.9857146e-01
 -2.9766402e-01
 -1.7988120e-01
  5.2645630e-01
 -5.4579920e-01
  4.1171942e-02
  1.2985578e-01
 -2.0267951e-01
  9.3832843e-02
 -7.9826108e-04
 -2.1044266e-01
 -1.2340037e-01
 -2.3828007e-01
  4.3568019e-02
 -7.6465495e-02
 -7.6986879e-02
  1.1665681e-01
 -3.2601021e-02
 -2.3814626e-02
 -1.3491170e-01
  1.9711554e+00
  1.6313475e+00
  1.6085093e+00
  1.0849242e+00
 -1.1504371e+00
 -2.2157736e+00
 -1.6424475e+00
 -3.1314525e-01
  1.2405239e+00
  1.4218782e+00
  3.4260452e-01
 -3.4850067e-01
  1.4246761e+00
 -5.2501023e-01
 -1.5796803e+00
  2.9355827e-01
 -1.3552213e-01
 -3.2970455e-01
  8.7913144e-01
  4.0995297e-01
 -3.0971048e-02
 -8.9047933e-01
 -8.0826193e-01
  1.1825234e-01
 -2.5749329e-02
  8.4332146e-02
  1.5835337e-01
 -3.1142747e-01
 -1.7434850e+00
  1.9990908e-01
  8.4205216e-01
 -9.8424685e-01
 -5.3206462e-01
  1.3638972e+00
  4.9818793e-01
  4.9422365e-02
 -6.5294856e-01
 -3.1936091e-01
 -1.9945440e-01
  4.6284884e-01
  4.7452856e-02
 -4.8800898e-01
 -1.2406609e-01
  1.5574877e-01
  6.7951208e-01
  7.1541190e-02
 -6.0097077e-03
 -5.5683002e-02
 -1.3877577e-01
  1.2387797e+00
  1.1980554e+00
  2.1305606e-02
  9.1184461e-01
 -1.4714292e+00
 -1.2274252e+00
 -4.8680490e-01
  9.2370963e-01
 -6.2751442e-01
 -2.1323070e-01
  1.9784729e+00
 -5.2788973e-01
  3.0512261e-01
 -7.3626059e-01
  6.4622268e-02
  4.3306711e-01
  6.6420966e-01
  5.1966178e-01
 -8.2506740e-01
  2.1428290e-01
 -3.1956831e-01
 -3.4210795e-01
  1.7999506e-01
  4.3833989e-01
  4.8401958e-01
 -2.4424961e-01
  2.9434022e-01
 -5.3815806e-01
 -2.5325828e+00
  5.4642671e-01
  2.1639028e+00
  1.1967881e+00
 -5.0706804e-01
  1.1061320e+00
 -4.6529174e-01
 -1.8795605e-01
  8.7916560e-02
 -5.4628402e-01
  4.3489352e-02
  6.7108244e-01
 -6.3913631e-01
  1.3919981e+00
 -7.5543928e-01
  7.9781771e-01
  4.3222237e-01
 -4.7984505e-01
  3.6727017e-01
 -2.3715664e-02
  1.1549251e+00
  9.6868849e-01
  8.7262094e-01
 -1.9368104e+00
 -1.0294343e+00
 -1.7192752e+00
 -9.0925908e-01
 -7.8987914e-01
  1.8016509e+00
 -9.1375786e-01
 -1.6545714e-01
 -7.7661657e-01
  1.5026612e+00
  1.4740478e+00
 -5.5515534e-01
  8.4720689e-01
 -7.2560006e-01
 -3.4991452e-01
 -8.2068759e-01
  1.7189114e+00
  1.4585959e+00
 -5.3419387e-01
  1.8419828e+00
 -1.5392405e+00
 -9.4104812e-02
 -7.6758897e-01
  1.5142499e+00
  2.5944014e+00
 -4.9001575e-01
  7.4214089e-01
 -3.4985512e-01
 -4.6772193e-02
  4.6878502e-01
  1.5033909e+00
  6.3707167e-01
 -1.1559651e+00
 -1.5734325e-01
  5.9782487e-01
  1.0949543e-01
  5.1022458e-01
  2.0804733e-01
 -3.3465946e-01
 -9.5328021e-01
 -2.6324213e-01
 -2.6929918e-01
 -9.8368116e-02
  5.2843708e-01
 -7.6453424e-01
  5.3140301e-01
  1.5089177e+00
 -3.3914695e+00
 -7.2612487e-02
  5.0740212e-01
 -2.3613205e+00
  1.9722569e-01
  1.8538210e+00
 -5.3086638e-01
 -5.6273967e-01
  1.0995141e+00
 -1.1480101e-01
 -8.1909758e-01
 -8.7995715e-02
  5.0409865e-01
 -1.0150763e-01
 -4.3313056e-01
  1.1568197e+00
 -3.0486908e-02
 -2.8439742e-01
 -1.7050087e-01
  2.9209998e-01
 -6.7806929e-01
  2.8720158e-01
 -7.4452651e-01
  4.6699993e-02
 -5.5082005e-01
 -5.6455135e-01
 -8.4590623e-03
 -2.0117342e-01
  1.4800698e-01
 -5.6837291e-02
  3.8703310e-01
  2.9937143e-02
 -3.3959565e-01
 -1.0528744e+00
 -4.2291710e-01
  1.7937339e-03
  1.9853257e-02
  1.0165648e-02
  2.7297699e-01
  3.4178334e-01
  5.4995003e-03
 -4.5596454e-02
  6.5018862e-02
  1.2299674e-01
  1.1656591e-01
  1.6085687e-01
 -4.4161171e-02
 -1.7305729e-01
  3.4756279e+00
 -2.3050239e+00
  2.1304254e-01
  6.3413364e-01
  2.1178248e+00
 -4.9752337e-01
  1.6150783e+00
 -1.1788186e+00
 -2.2772647e-01
  1.1562876e+00
 -1.8153696e-01
 -5.8326697e-01
  1.5859971e+00
 -4.6094227e-01
  1.0556235e+00
  4.0649772e-01
  9.9741250e-01
  5.6088579e-01
 -4.4604504e-01
  1.7609522e+00
  4.3154874e-01
  5.8429889e-02
  2.5785342e-01
  1.9057039e+00
 -5.6459066e-03
  1.6265304e-01
  1.3138583e+00
  1.7940764e-01
 -9.2930537e-01
  2.9439704e+00
  1.9543691e+00
  2.0502275e-02
  7.9030508e-01
  1.5248377e+00
  6.3837111e-01
  3.4971970e-01
 -3.4436893e-01
  4.1836327e-01
 -6.2485975e-01
  4.1866377e-01
 -8.7678790e-02
 -9.7610727e-02
 -1.3677263e-01
  1.2388356e+00
 -3.8007703e-02
 -2.7541471e-01
 -3.5305879e-01
  9.7423896e-02
  2.2405347e-01
 -7.9566216e-01
  2.5108855e+00
  3.0674428e-02
 -7.1401358e-01
  1.9111873e+00
 -1.9282722e-01
 -8.4931040e-01
  9.3699843e-01
  3.6049190e-01
  3.2798874e-01
  5.9888978e-02
  1.4800572e+00
 -1.9266556e-01
  2.4679178e-01
 -5.4732794e-01
  1.0901538e+00
  5.6756836e-01
 -6.3144535e-01
 -7.1155176e-02
 -1.3889635e+00
  3.1351793e-01
 -1.7834024e-01
  5.9946591e-01
  2.8530627e-01
 -6.3847566e-01
 -8.4296864e-01
 -5.5105251e-01
  2.5842473e-01
 -1.2440237e+00
  1.0154736e+00
  7.4576330e-01
 -9.3324363e-01
 -8.1940645e-01
  1.3935409e-01
  1.1962779e+00
 -2.8940451e-01
  7.0996754e-02
  3.0805299e-01
  3.0070052e-01
  4.3322623e-02
  5.2607632e-01
  3.3454657e-01
  3.5954806e-01
  2.0165767e-01
  6.7070758e-01
  2.9087976e-01
 -1.0730701e-01
  7.3504217e-02
 -4.9216580e-01
 -1.6190436e+00
  9.6311170e-01
  1.1387174e+00
  1.1634573e+00
 -1.7543564e+00
 -9.2227250e-01
 -1.0521521e-01
  1.0188378e+00
 -8.8822716e-01
  4.4129312e-01
  1.1695712e+00
  9.1887856e-01
 -7.9832721e-01
  3.6525854e-03
  7.4904865e-01
 -4.5937920e-01
 -2.8204742e-01
  1.2511866e+00
  1.3689569e-01
 -2.6053032e-01
  6.2498760e-01
  1.2533305e+00
 -5.5764794e-01
  1.7973933e+00
  4.5847708e-01
  6.6946715e-01
  3.5370940e-01
 -7.1271974e-01
  1.9333072e+00
  1.8993115e-01
  1.9655685e+00
  5.7997650e-01
  1.1494272e+00
  7.3120213e-01
 -1.2431092e+00
  1.3461813e+00
  3.4369761e-01
  2.7835581e-01
 -5.7735807e-01
  1.7599688e-01
  4.4407418e-01
 -3.4384131e-02
  4.0353137e-01
  8.0917493e-02
  7.5512990e-02
  2.0115222e-01
 -4.4429737e-01
 -4.2799002e-01
  1.4243631e-01
 -2.2263098e+00
 -2.5773680e-01
  2.0844226e+00
  1.9441686e+00
 -3.9064171e+00
 -3.8655800e-01
  2.8680320e+00
  8.6490375e-01
  8.2360364e-02
 -1.0546498e+00
  8.6131394e-01
  3.2943499e-01
 -8.5513726e-02
  5.8499253e-01
 -4.3886018e-01
 -2.4982278e-01
  2.0084549e-03
  3.2553169e-01
 -3.4027284e-01
  7.0401001e-01
 -7.0456833e-01
 -5.8216345e-01
 -8.0734664e-01
 -2.6353264e-01
  2.4053323e-01
  3.2871139e-01
  9.2527583e-02
 -4.6464088e-03
 -1.2335167e+00
 -1.1771945e+00
 -3.1908926e-01
  4.9491462e-01
 -1.0964133e+00
  3.8236707e-01
  6.7028898e-01
 -6.1599380e-01
  2.3135620e-01
  1.2354717e-01
  2.0968114e-01
  5.3361452e-01
  2.4965136e-01
 -8.9725532e-02
  3.2473257e-01
 -3.2431981e-01
  3.8662505e-01
  2.1992050e-01
  7.9036294e-04
  5.1212299e-01
 -1.3752833e-01
  1.3461248e+00
 -5.6698823e-01
 -1.0993156e+00
 -1.9116992e+00
 -1.4921186e+00
  1.2504399e-01
 -8.1084019e-01
  8.0589980e-01
 -1.8194336e+00
 -6.5235060e-01
 -6.6582346e-01
 -1.1547775e+00
  1.0913711e+00
 -2.0062089e-01
  4.0060481e-01
 -9.9672878e-01
  1.3083216e+00
  3.8529184e-01
 -2.3166971e-02
  1.0781785e+00
  3.3375683e-01
 -1.1134535e+00
 -6.2503383e-02
  1.5167847e-01
 -9.6514112e-01
 -2.2035789e-01
  1.6611124e+00
 -9.2699662e-02
 -1.0804379e+00
 -8.0841351e-01
  5.9777373e-01
 -6.5375787e-01
  2.6108637e-02
  2.8436777e-01
 -5.3596333e-02
  7.3712450e-01
 -4.9021009e-01
  3.0230853e-01
 -2.0860462e-01
 -4.1022116e-01
  6.6462860e-02
 -2.4645542e-01
 -1.5450977e-01
 -1.8176258e-01
 -1.8176217e-01
  1.6509658e-01
  4.2216676e-01
 -1.9877958e-01
  4.0572593e-01
 -4.7971758e-01
  2.6392910e+00
  1.9639676e+00
  4.5360174e+00
  2.1816142e+00
 -4.3242842e-01
 -1.8466405e+00
 -1.2706299e+00
  5.7756561e-01
 -7.7448547e-01
 -6.8822182e-03
  1.8725981e+00
 -1.3999356e+00
 -2.1304948e+00
  1.3803782e+00
  7.1993601e-01
 -7.6646584e-01
  1.0619888e-01
  8.0995369e-01
 -1.2236733e+00
 -1.2787791e+00
  1.2002655e+00
 -1.8916936e-01
  3.5068902e-01
  2.5923857e-01
  1.1225220e+00
 -1.5988883e+00
 -1.4494282e+00
 -2.3582900e-01
 -1.3781734e+00
  4.3066586e-03
  1.0135421e+00
  2.7552056e+00
 -3.6086652e-01
 -2.8758605e+00
 -9.3700725e-01
  1.5652202e-01
 -7.9400468e-01
 -3.3785883e-02
 -6.6351420e-01
 -6.9241583e-02
  7.2810048e-01
  2.2334424e-01
  9.9695079e-02
  1.5075205e-01
 -2.4260437e-01
  5.6581914e-01
  4.9802721e-01
 -9.0723622e-01
  1.6137028e-01
 -6.5241456e-01
  4.6651721e-01
 -1.2939411e-01
 -1.1221899e-01
  6.1848807e-01
  8.1053799e-01
  2.7478030e-01
  5.6275791e-01
 -1.6881840e-01
  1.2694024e-01
  1.6505611e-01
 -1.0189842e-01
  3.1754857e-01
  6.9973373e-01
 -7.3152930e-01
 -1.0202922e-01
 -3.5444789e-02
 -4.7734824e-01
  3.4942868e-01
 -8.8934630e-02
 -2.5321093e-01
  5.0651562e-01
  3.4184960e-01
 -1.8200272e-01
  6.2521048e-02
  5.1552278e-01
  1.9293731e-01
 -2.3393369e-01
  1.1366586e-01
 -4.8819020e-01
 -2.0490135e-01
 -3.2600909e-01
 -1.4064072e-01
  5.7212114e-01
 -6.9048904e-02
  4.2838138e-01
 -4.4731462e-01
  7.2540492e-03
  2.8001010e-01
  1.4288360e-01
 -1.3950315e-01
 -1.3784678e-01
  6.8963960e-02
  1.3812719e-02
 -4.5006457e-01
  1.4720242e-02
 -2.1290225e-01
 -2.3195525e-01
 -1.4142545e+00
 -1.5976268e+00
  4.4435930e-01
  1.5933533e+00
 -2.8515027e+00
  1.1088941e+00
  1.2980907e+00
  7.5024617e-01
  2.1597440e+00
 -1.3342509e+00
 -3.4458241e-01
 -1.3926326e+00
  3.3329219e-01
 -1.0868624e+00
 -5.4776657e-01
 -2.8921896e-01
 -3.5362861e-01
 -1.5762389e+00
 -9.6866995e-01
  8.1804878e-01
 -1.2680582e+00
 -1.0554966e+00
 -5.8552253e-01
 -3.4488010e-01
 -6.1391973e-01
  3.5803229e-01
  6.2895745e-01
 -7.0109391e-01
  4.8131958e-02
 -2.6998341e+00
  1.3864101e+00
 -1.3597641e+00
  6.6843784e-01
 -8.5352671e-01
 -2.1057677e+00
 -4.4762712e-02
 -2.2385979e-01
 -1.2060779e+00
 -1.7554352e-01
 -1.2480819e-01
  9.1354746e-01
  5.2761203e-01
 -6.2792963e-01
 -8.6479443e-01
 -1.8023594e-01
  3.3240587e-02
 -2.0690693e-02
 -3.4732109e-01
 -9.6107990e-02
 -9.3373263e-01
  9.5281273e-01
  2.6383476e+00
  1.8814202e-01
 -1.9511936e+00
 -1.1991638e-01
  8.0057520e-01
 -1.2473322e+00
  1.8882788e+00
 -7.5292140e-02
 -2.8409557e+00
 -1.0844134e+00
 -1.5431505e-01
 -1.2784668e+00
 -8.3823800e-01
  4.7523719e-01
 -2.1715592e-01
 -9.3075114e-01
 -8.8360471e-01
 -1.2783903e-01
 -5.8445137e-02
 -5.1740634e-01
  8.9223874e-01
 -2.4001087e-01
 -9.9940699e-01
 -5.8854437e-01
  2.1566705e-01
 -5.6056327e-01
 -3.4520954e-01
 -1.6716082e+00
  9.7458684e-01
 -1.7476270e-01
  1.1509553e-01
  1.6542718e+00
  2.6977533e-01
 -9.0752572e-02
 -2.2818822e-01
  1.3654865e-01
  5.8474469e-01
 -6.9712251e-02
  4.1812119e-01
 -1.4932179e-01
  1.6367662e-01
 -9.3911314e-01
  7.0963085e-01
 -4.0902516e-01
  8.0948144e-02
  2.9152748e-01
  4.0831357e-01
 -2.2884771e-01
 -4.2004293e-01
  1.4684646e-01
  6.2131360e-02
 -1.9214790e+00
  2.1647273e-02
  6.0233223e-01
 -2.8773290e-01
 -4.2893106e-01
 -6.4436281e-01
 -1.0969530e-02
 -2.4157915e-01
  2.2292145e-01
 -2.8808555e-01
 -7.6173186e-02
  4.4059910e-02
 -1.1619664e-01
 -6.4052296e-01
 -2.8269187e-01
 -1.3798279e-01
  1.7986138e-01
  2.7327214e-03
  5.4948203e-02
  2.4354750e-01
  2.2025338e-01
  2.7578241e-01
  8.8768584e-01
  5.0388150e-02
  7.2904998e-01
  2.3354568e-01
 -2.2560634e-01
 -7.0389919e-03
  1.0204666e+00
  3.6466184e-01
 -4.6182785e-02
  1.3441534e-02
 -1.6494267e-01
 -3.6173826e-01
  1.6500995e-01
 -4.7143409e-03
  9.1103591e-02
 -5.4525431e-02
 -8.2841739e-02
 -4.6455208e-03
 -1.0712598e-01
 -1.1538807e-01
  3.0653113e-03
  7.8959595e-03
  1.1617729e-01
 -1.4425387e+00
  8.6457133e-01
  9.0017629e-01
 -1.5162488e+00
 -4.4096537e+00
 -3.0686414e-01
 -7.4087155e-01
  5.7684642e-01
 -1.2515216e+00
 -7.6754504e-01
 -4.1913518e-01
  1.0104882e+00
 -5.1056124e-02
  5.1042306e-01
 -1.0296512e+00
 -1.6561538e+00
 -8.9775242e-02
  2.6343480e-01
  6.3376790e-01
 -6.9956470e-04
 -6.3473976e-01
  5.4273647e-01
 -6.4762390e-01
 -1.1907055e+00
 -2.1448102e-02
  4.0162632e-01
 -5.1869430e-02
 -6.8593293e-02
 -1.2969885e+00
 -2.3860838e-01
  2.4589710e+00
  6.9782072e-01
 -1.1686280e+00
 -2.7238390e-01
  9.9410975e-01
  3.4664887e-01
  2.8029531e-01
 -5.2300721e-01
 -3.5724837e-01
 -2.6173735e-01
 -2.9627627e-01
  1.3337275e-01
  8.0481660e-01
  8.0122910e-02
 -3.0449721e-01
 -3.5490566e-01
  3.9197284e-01
  3.7162060e-01
 -1.3812357e-01
 -1.9224158e-01
 -2.7095765e-01
  3.6240792e-01
 -5.1864249e-01
 -2.0446463e+00
  7.2881526e-01
  1.3619441e-01
  6.1748598e-02
  9.5808858e-01
 -1.2916495e-01
 -4.2314196e-01
 -5.0710648e-02
 -4.0715387e-01
  6.7228816e-02
 -2.8922588e-01
  7.1874440e-01
 -1.8195945e-01
 -1.4645240e-03
  1.0047918e-01
 -1.4542798e+00
 -1.5952469e-01
 -1.0174412e+00
 -5.7757682e-01
  8.3690792e-01
  8.1799636e-03
 -1.5197977e+00
 -1.1467670e+00
 -3.8431641e-01
  1.2413791e-01
  1.2958258e+00
  1.0703332e+00
 -2.8623994e-02
 -1.0979384e+00
 -1.3166970e+00
  2.9042283e-01
  1.4768879e-01
 -6.4282817e-01
  6.3728619e-01
  2.9890597e-02
  1.1780132e-01
  1.8082832e-01
  2.7938929e-01
  3.2673318e-02
  5.3141329e-02
 -8.9449890e-02
  9.8373191e-03
  3.8363378e-02
 -5.4997045e-01
 -3.9322567e-01
  2.2492890e+00
 -1.2646042e+00
  1.4087958e+00
 -1.6930180e+00
 -1.0548455e+00
 -6.9654904e-02
 -1.0835800e-01
  8.0204636e-01
  9.1766983e-01
  6.8679488e-01
  5.1913619e-01
 -7.7587670e-01
  1.4913412e+00
 -4.6337590e-01
  1.1205927e-01
 -2.9748494e-02
  1.2499943e+00
  5.7153350e-01
 -8.4376472e-01
 -5.7785594e-01
 -1.8666555e+00
  8.6192471e-01
 -1.8892378e-01
  5.2454221e-01
  2.1615782e-01
  3.0289680e-01
 -5.5418247e-01
 -1.4116317e+00
 -5.3636235e-01
  6.7460799e-01
  7.0467621e-01
  1.9544804e-01
  4.9520042e-02
 -3.1217834e-01
 -7.9300964e-01
 -3.0553531e-02
  1.9863169e-01
 -6.7801490e-02
  2.6538464e-01
 -2.4107809e-01
 -6.3894004e-01
 -1.4953135e-01
 -2.6387769e-01
 -8.0871654e-01
 -6.1194342e-01
 -1.8322355e-01
 -5.2320808e-01
 -2.5690314e-01
  1.3138168e-01
  6.6881627e-01
  3.9637597e+00
  3.2415442e+00
 -3.6119461e-01
  1.8955271e+00
 -1.8141723e+00
 -5.0029812e+00
 -9.4615972e-01
 -1.0076987e+00
 -6.0864586e-01
  8.3731425e-01
  1.3099013e-01
  9.1168702e-01
  9.6738297e-01
 -1.2620587e+00
 -8.4514654e-01
  3.3134267e-01
  6.9716185e-01
  2.0169777e-01
  9.5348185e-01
  4.5203954e-01
 -1.2980616e-01
 -1.6417725e+00
  1.9195484e+00
  6.8959045e-01
  1.0221798e+00
 -9.8730016e-01
  1.6510625e+00
 -1.0553619e+00
 -5.0003868e-01
  2.7256286e+00
  3.1861782e-01
 -3.2959193e-01
  6.8015873e-01
  1.0926207e+00
 -4.0198159e-01
 -5.4379974e-02
 -6.6950107e-01
 -3.1810015e-02
 -4.3905219e-01
 -8.1755781e-01
  6.9387370e-01
  4.6315858e-01
 -6.3298148e-01
 -3.1179735e-01
  2.3316115e-01
  4.5079264e-01
 -1.0971605e-01
 -9.2696771e-03
  6.7446345e-01
 -3.0322959e+00
 -3.3426204e+00
 -1.0928152e+00
  1.9097965e+00
  3.5394344e-01
  4.0540558e-01
  7.5424099e-01
  1.6261318e+00
 -6.8377540e-02
  3.9120570e-01
 -3.1163898e+00
 -1.0212483e+00
  4.2693523e-01
 -1.0651489e+00
  1.5183118e-01
  1.4314848e-01
 -3.2013693e-01
 -2.1390124e-01
 -1.1510257e+00
 -2.2879775e-01
 -2.5561786e+00
  3.1351972e-01
  8.0529660e-01
  3.9263088e-01
  1.1700963e+00
 -8.6563027e-01
 -3.8535318e-01
 -2.3426557e+00
 -7.7359486e-01
  2.0505636e+00
  1.8424380e-01
 -5.2846915e-01
 -3.2143338e+00
  4.4684246e-01
 -9.8157233e-01
  8.1934601e-01
  2.5277659e-01
  3.6615413e-01
  5.9340990e-01
  6.9235009e-01
  5.8734393e-01
 -3.6549601e-01
  4.7907916e-01
 -5.4268909e-01
  1.2098062e-01
  1.0177170e-01
  7.5938284e-02
 -1.3527560e-01
 -1.9421992e-01
 -1.0676569e+00
  2.0235388e-01
 -3.0323367e+00
 -8.0784857e-01
 -4.2657423e-01
 -1.5985991e+00
 -3.1574318e-01
  8.6672366e-01
 -4.3868594e-02
 -1.1724399e+00
 -4.8949572e-01
  2.1300957e+00
  7.7396387e-01
  1.0992129e+00
 -5.3691393e-01
 -3.1850517e-01
 -1.3755959e-01
 -2.7469483e-01
  4.8218295e-01
  4.5098421e-01
 -7.8352088e-01
 -3.5698563e-01
 -2.0051777e-02
 -2.5874937e-01
  1.3629960e-01
  2.6494691e+00
  9.0966636e-01
 -1.6631266e+00
 -1.4711358e-01
 -8.9469719e-01
 -5.6715173e-01
  6.0765529e-01
  1.3832926e+00
  2.7406147e-01
 -1.0062635e+00
  6.4502561e-01
  5.6396987e-02
  1.4413732e-01
  6.7160589e-01
  4.3553552e-01
 -4.8301715e-02
 -1.0233134e+00
  5.2011043e-01
  8.8646322e-02
  1.7224008e-01
  1.6671866e-01
 -1.0098397e+00
  2.4237391e-01
 -1.2124810e+00
 -8.6323965e-01
  1.5576659e-01
 -6.0595638e-01
 -3.0607831e-01
  7.5894612e-01
  4.4515473e-01
 -7.7333832e-01
  4.1058904e-01
  5.8727467e-01
 -1.3835587e-01
 -7.2370595e-01
  1.1345334e+00
  2.4705780e+00
 -1.2940842e+00
  6.2091374e-01
  4.5734653e-01
 -3.2639748e-01
 -8.0189145e-01
  1.4456242e+00
  2.6216509e+00
 -4.5781794e-01
  1.7311020e-01
  5.2179062e-01
 -4.3172047e-01
  8.7839253e-02
  1.3243324e+00
  2.8759668e+00
 -2.2619591e+00
  1.3426057e-01
 -4.7319267e-02
 -1.2206250e+00
 -5.0682169e-01
  6.0951799e-01
  1.4248488e+00
  3.9309254e-01
 -9.4218150e-02
  5.0677776e-01
  1.3693583e-01
  1.0031235e+00
 -1.0603796e-02
 -6.1996686e-01
 -4.1126469e-01
 -9.6783422e-02
 -5.5458277e-02
  1.7467441e-02
 -1.5663861e-01
 -1.5744646e-01
  6.3829511e-01
  3.6697617e-01
  5.6421798e-01
 -6.1937648e-01
  4.7614958e-04
  2.0111020e-01
 -1.2093346e-02
  2.3443903e-01
 -9.0314299e-02
  1.4339332e-01
  8.9587115e-02
  1.0352062e-01
  2.8047135e-01
 -9.8993771e-02
 -1.2072260e-01
 -2.3909509e-01
 -7.3772028e-02
 -9.4107807e-02
  1.7072929e-02
  2.3764124e-02
 -7.0614353e-02
  3.3029824e-01
  2.8752574e-01
  9.8808713e-02
  1.5329677e-01
  1.3073012e-01
  1.9265922e-02
 -2.5377959e-01
  4.0928066e-01
  3.8515899e-01
  4.6006609e-02
 -1.2540145e-01
 -1.9723188e-02
  2.5768638e-01
 -2.2238898e-01
 -5.2823629e-02
  1.4674430e-02
 -8.9942567e-02
  2.5915259e-02
 -3.5191724e-01
  1.6808930e-01
  2.7129778e-01
  5.5637021e-02
 -5.7699855e-02
 -2.0588455e-01
  1.4201385e-02
  6.0050484e-02
  2.9646286e-01
  3.9764583e-02
  5.9131227e-02
  3.0412049e+00
 -3.3882518e+00
 -2.0260782e+00
 -2.8605810e-01
  2.8237987e+00
  6.4073348e-01
  8.4520704e-01
  1.8827771e-01
  9.2016041e-01
  1.0195571e+00
  8.9819497e-01
 -4.9952310e-01
  3.8447802e+00
 -4.1580242e-01
  4.0489528e-01
  2.2031780e-02
 -1.9978635e-02
 -7.9028718e-02
 -1.3269027e-01
 -9.3693751e-01
  6.0029680e-01
  6.7867315e-01
 -1.2172104e+00
  3.8951582e-01
  9.9460053e-01
  5.6392928e-03
  2.6951909e-01
 -1.1842747e-01
  1.1490991e+00
 -3.1652546e+00
  4.8814154e-01
  1.1650419e+00
  8.7656695e-01
  1.4037743e-01
  1.3690637e+00
 -4.6474639e-01
  2.1015812e-01
  1.9962823e-01
 -3.5241458e-01
 -1.0046630e+00
  1.6866101e+00
  5.7546610e-01
 -1.3621526e-02
 -3.5051614e-01
 -1.9531097e-02
 -1.0473366e-01
 -1.2405776e-01
  2.4827869e-01
 -1.0809337e-01
 -1.2532591e+00
  1.8704106e+00
 -1.4861454e+00
 -3.2301826e+00
 -1.5019181e+00
 -5.0854492e-01
  2.8941157e-01
 -9.2350408e-02
 -1.7924833e-01
 -2.4166226e-01
 -5.1961958e-01
  1.5597551e+00
 -1.7064350e+00
 -6.0089034e-01
 -4.1320524e-01
  1.2051836e-01
 -6.6914874e-01
  2.3048071e-02
  1.6911235e+00
 -1.0733329e+00
 -5.2243775e-01
 -1.5610499e+00
 -1.3125236e+00
  4.1851676e-01
 -3.2598391e-01
  6.3609135e-01
 -2.3532865e+00
 -7.1733004e-01
 -1.1115259e+00
 -2.8028412e+00
 -6.5134329e-01
 -3.5115457e-01
  1.3028858e+00
 -1.6628463e+00
 -8.2123071e-01
 -5.3994745e-01
  3.1612733e-01
 -1.8758598e-01
  5.1806390e-01
  6.8657361e-02
  3.5862866e-01
  1.9660839e-01
  5.6515941e-03
 -4.1780481e-01
  3.6742213e-01
 -1.1525624e-01
  7.9139853e-01
 -8.8342255e-01
 -6.8702094e-02
 -5.3469914e-01
  9.0458810e-01
 -2.2190826e+00
 -9.5441145e-01
 -6.2313282e-01
 -3.5536087e-01
 -7.1030140e-01
 -1.0327780e-01
  8.9124791e-02
  4.9009198e-01
  7.7059460e-01
  7.8521714e-02
 -4.2576775e-01
 -1.0491256e+00
  5.9507459e-01
 -5.8998632e-01
 -5.8293574e-02
  8.7539494e-01
 -2.7630880e-01
 -1.0258244e+00
 -2.6560163e-01
  8.5278690e-01
  7.0963204e-02
 -1.4692324e-01
 -1.0107418e-01
  2.1653701e-01
 -4.3192017e-01
 -7.2112870e-01
  7.8566253e-01
  5.5552167e-01
 -4.3371263e-01
  1.1390768e+00
  1.2959156e+00
 -9.3249512e-01
 -5.9135175e-01
 -2.7654582e-01
  2.3054329e-01
 -4.3473825e-02
  2.1039753e-01
 -4.2839464e-02
  1.4721943e-02
  1.2558618e-01
  3.3703652e-01
 -2.2585997e-01
  1.1409741e-01
  2.2190958e-01
 -1.2132802e-01
  1.6468038e-01
 -2.5285992e-01
 -4.6393027e+00
 -1.5811943e+00
  2.2943982e-01
 -1.7499033e+00
  1.4220537e+00
 -1.8077369e+00
  1.4791781e-02
  1.3792273e+00
  4.1256967e-01
  2.5270292e-01
  3.0506173e-01
  6.2959439e-01
 -3.9056740e+00
  6.9193125e-01
 -1.4043173e+00
  2.0366037e+00
 -1.6136967e+00
 -2.5130095e+00
 -9.9073905e-01
 -2.3753061e+00
 -2.6682894e+00
  1.1866517e+00
 -2.1296406e+00
  2.7195268e+00
  7.9340571e-01
  2.2595353e+00
 -9.4718117e-01
  4.5797029e-01
 -4.7543788e-01
 -1.7385629e+00
 -5.3339834e+00
  1.1139704e+00
 -4.8669177e-01
  8.5562444e-01
 -4.4556314e-01
  9.2318797e-01
  1.3451611e+00
 -1.3096200e+00
 -3.0096990e-01
 -2.0538042e+00
  2.2333209e-01
  5.6972712e-01
 -8.7956756e-01
 -5.5334061e-01
  1.2345229e+00
 -1.5173552e+00
 -5.6775069e-01
 -1.4748755e+00
 -9.9817008e-02
  2.2912720e-01
 -1.8476534e-01
 -1.2301943e+00
  1.3144580e+00
  4.5078567e-01
 -7.8562748e-01
 -1.5936022e+00
  7.5014994e-02
 -1.9884943e+00
  3.7279591e-01
  8.0801660e-01
 -3.6729392e-01
  1.9614679e-01
  1.1910615e+00
  1.0742536e+00
 -7.7142441e-01
 -4.9998206e-01
 -5.3683764e-01
 -7.3795840e-02
 -2.0685717e-01
  6.0632180e-02
  1.3452842e+00
  6.0943401e-01
 -7.1766454e-01
 -3.0344868e-01
  6.5551728e-01
 -1.0383412e-01
  2.9024330e-01
  2.6331933e+00
 -9.0214306e-01
 -1.9207408e-01
 -2.6806706e-01
 -1.5840668e-02
 -2.3243114e-02
  3.6197233e-01
  3.2633927e+00
 -3.1324983e-01
  4.5306039e-01
 -2.7153111e-01
 -9.9309951e-02
 -1.4950788e-01
  7.1904337e-01
  1.6417215e+00
 -1.0078282e+00
 -3.4618452e-01
  5.3874385e-01
 -3.8261119e-01
  5.9534777e-02
  1.2650372e-01
  1.8323092e-01
 -6.1807925e-01
 -6.6118717e-01
  8.9643076e-03
  7.6687299e-03
 -2.5172293e-04
 -5.1480111e-02
  3.9115006e-01
 -2.6523173e-01
 -1.8769594e-01
  8.7128580e-02
  3.9555997e-02
 -6.0287666e-01
  3.2907614e-01
 -1.9351828e+00
  9.8955369e-01
 -9.5655954e-01
  1.3316919e+00
 -1.6715298e+00
  1.9693519e+00
  1.1131698e+00
 -1.7211192e+00
  2.4220490e+00
 -2.8905321e-02
 -2.0243804e-01
 -4.7541082e-01
  4.9631914e-01
  1.1905061e+00
 -9.6866792e-01
  1.4885434e+00
  6.4047557e-01
 -9.1430441e-02
 -8.3437437e-01
  8.6675054e-01
  3.5440752e-01
 -6.4951777e-01
  1.9279196e+00
 -2.7117354e-01
  5.3971434e-01
 -1.9318509e+00
  8.6088699e-01
  3.6660305e-01
 -1.8698553e+00
  1.5072088e+00
 -8.5794054e-02
  2.4024782e-01
  1.8860221e+00
  2.9127681e-01
 -3.2317312e-03
  3.4758773e-01
  4.5630899e-01
  1.4126863e-01
 -2.6956159e-01
 -8.2135327e-02
  3.8809127e-01
 -6.4506835e-01
 -1.8285556e-02
  3.5663486e-01
  5.8154225e-01
 -3.5798132e-01
  1.7769951e+00
 -2.3196027e-01
 -1.0632609e+00
 -1.4416239e+00
  1.2123383e+00
 -1.3995402e-01
  1.1363232e+00
 -2.4134196e-01
  3.9442968e-01
  5.7489461e-01
 -1.4851649e-01
  9.7745992e-02
  3.2564789e-01
  3.7746748e-01
 -5.5846804e-01
  3.9765501e-01
  3.2145482e-01
 -3.7745190e-01
 -2.8193101e-01
  9.7860098e-01
 -1.0328420e-01
 -4.5200336e-01
  3.7447709e-01
