  DATE: 2018-03-30 CONTRIBUTOR: Xiaowang Zhou xzhou@sandia.gov and Lucas Hale lucas.hale@nist.gov CITATION: X. W. Zhou, R. A. Johnson, H. N. G. Wadley, Phys. Rev. B, 69, 144113(2004)
  Generated from Zhou04_create_v2.f
  Fixes precision issues with older version
    1 Cu                      
 2000  0.5002501250625312E-01 2000  0.2859305649575697E-02  0.5715751993501819E+01
   29     63.546         3.6150    fcc     
  0.0000000000000000E+00 -0.1357527207849252E-01 -0.2709593600970328E-01 -0.4056209710486969E-01 -0.5397386067523069E-01
 -0.6733133203202357E-01 -0.8063461648648707E-01 -0.9388381934985990E-01 -0.1070790459333794E+00 -0.1202204015482852E+00
 -0.1333079915058137E+00 -0.1463419211172045E+00 -0.1593222956936962E+00 -0.1722492205465255E+00 -0.1851228009869320E+00
 -0.1979431423261535E+00 -0.2107103498754278E+00 -0.2234245289459942E+00 -0.2360857848490903E+00 -0.2486942228959540E+00
 -0.2612499483978248E+00 -0.2737530666659392E+00 -0.2862036830115372E+00 -0.2986019027458557E+00 -0.3109478311801337E+00
 -0.3232415736256097E+00 -0.3354832353935211E+00 -0.3476729217951071E+00 -0.3598107381416048E+00 -0.3718967897442533E+00
 -0.3839311819142912E+00 -0.3959140199629559E+00 -0.4078454092014864E+00 -0.4197254549411195E+00 -0.4315542624930955E+00
 -0.4433319371686516E+00 -0.4550585842790257E+00 -0.4667343091354571E+00 -0.4783592170491828E+00 -0.4899334133314421E+00
 -0.5014570032934731E+00 -0.5129300922465133E+00 -0.5243527855018015E+00 -0.5357251883705768E+00 -0.5470474061640758E+00
 -0.5583195441935382E+00 -0.5695417077702012E+00 -0.5807140022053038E+00 -0.5918365328100836E+00 -0.6029094048957794E+00
 -0.6139327237736293E+00 -0.6249065947548715E+00 -0.6358311231507441E+00 -0.6467064142724862E+00 -0.6575325734313348E+00
 -0.6683097059385293E+00 -0.6790379171053067E+00 -0.6897173122429070E+00 -0.7003479966625665E+00 -0.7109300756755247E+00
 -0.7214636545930198E+00 -0.7319488387262896E+00 -0.7423857333865727E+00 -0.7527744438851074E+00 -0.7631150755331313E+00
 -0.7734077336418834E+00 -0.7836525235226022E+00 -0.7938495504865251E+00 -0.8039989198448908E+00 -0.8141007369089373E+00
 -0.8241551069899034E+00 -0.8341621353990267E+00 -0.8441219274475459E+00 -0.8540345884466997E+00 -0.8639002237077250E+00
 -0.8737189385418610E+00 -0.8834908382603464E+00 -0.8932160281744187E+00 -0.9028946135953158E+00 -0.9125266998342766E+00
 -0.9221123922025394E+00 -0.9316517960113426E+00 -0.9411450165719240E+00 -0.9505921591955220E+00 -0.9599933291933752E+00
 -0.9693486318767208E+00 -0.9786581725567984E+00 -0.9879220565448459E+00 -0.9971403891521007E+00 -0.1006313275689802E+01
 -0.1015440821469188E+01 -0.1024523131801496E+01 -0.1033560311997966E+01 -0.1042552467369835E+01 -0.1051499703228341E+01
 -0.1060402124884722E+01 -0.1069259837650219E+01 -0.1078072946836067E+01 -0.1086841557753505E+01 -0.1095565775713773E+01
 -0.1104245706028108E+01 -0.1112881454007747E+01 -0.1121473124963931E+01 -0.1130020824207896E+01 -0.1138524657050881E+01
 -0.1146984728804125E+01 -0.1155401144778865E+01 -0.1163774010286341E+01 -0.1172103430637789E+01 -0.1180389511144448E+01
 -0.1188632357117558E+01 -0.1196832073868355E+01 -0.1204988766708078E+01 -0.1213102540947967E+01 -0.1221173501899256E+01
 -0.1229201754873188E+01 -0.1237187405180999E+01 -0.1245130558133927E+01 -0.1253031319043210E+01 -0.1260889793220088E+01
 -0.1268706085975798E+01 -0.1276480302621579E+01 -0.1284212548468668E+01 -0.1291902928828304E+01 -0.1299551549011726E+01
 -0.1307158514330170E+01 -0.1314723930094877E+01 -0.1322247901617084E+01 -0.1329730534208029E+01 -0.1337171933178951E+01
 -0.1344572203841088E+01 -0.1351931451505677E+01 -0.1359249781483958E+01 -0.1366527299087169E+01 -0.1373764109626548E+01
 -0.1380960318413332E+01 -0.1388116030758761E+01 -0.1395231351974073E+01 -0.1402306387370505E+01 -0.1409341242259297E+01
 -0.1416336021951686E+01 -0.1423290831758911E+01 -0.1430205776992209E+01 -0.1437080962962821E+01 -0.1443916494981982E+01
 -0.1450712478360932E+01 -0.1457469018410909E+01 -0.1464186220443151E+01 -0.1470864189768897E+01 -0.1477503031699385E+01
 -0.1484102851545852E+01 -0.1490663754619538E+01 -0.1497185846231681E+01 -0.1503669231693518E+01 -0.1510114016316288E+01
 -0.1516520305411230E+01 -0.1522888204289581E+01 -0.1529217818262580E+01 -0.1535509252641465E+01 -0.1541762612737475E+01
 -0.1547978003861846E+01 -0.1554155531325819E+01 -0.1560295300440631E+01 -0.1566397416517521E+01 -0.1572461984867725E+01
 -0.1578489110802485E+01 -0.1584478899633035E+01 -0.1590431456670617E+01 -0.1596346887226467E+01 -0.1602225296611824E+01
 -0.1608066790137927E+01 -0.1613871473116013E+01 -0.1619639450857320E+01 -0.1625370828673088E+01 -0.1631065711874553E+01
 -0.1636724205772956E+01 -0.1642346415679532E+01 -0.1647932446905523E+01 -0.1653482404762164E+01 -0.1658996394560695E+01
 -0.1664474521612354E+01 -0.1669916891228378E+01 -0.1675323608720007E+01 -0.1680694779398479E+01 -0.1686030508575031E+01
 -0.1691330901560903E+01 -0.1696596063667331E+01 -0.1701826100205556E+01 -0.1707021116486814E+01 -0.1712181217822345E+01
 -0.1717306509523386E+01 -0.1722397096901175E+01 -0.1727453085266951E+01 -0.1732474579931953E+01 -0.1737461686207418E+01
 -0.1742414509404585E+01 -0.1747333154834692E+01 -0.1752217727808976E+01 -0.1757068333638677E+01 -0.1761885077635033E+01
 -0.1766668065109282E+01 -0.1771417401372663E+01 -0.1776133191736412E+01 -0.1780815541511770E+01 -0.1785464556009973E+01
 -0.1790080340542261E+01 -0.1794663000419871E+01 -0.1799212640954043E+01 -0.1803729367456013E+01 -0.1808213285237021E+01
 -0.1812664499608303E+01 -0.1817083115881100E+01 -0.1821469239366650E+01 -0.1825822975376189E+01 -0.1830144429220957E+01
 -0.1834433706212192E+01 -0.1838690911661131E+01 -0.1842916150879015E+01 -0.1847109529177080E+01 -0.1851271151866565E+01
 -0.1855401124258708E+01 -0.1859499551664748E+01 -0.1863566539395922E+01 -0.1867602192763469E+01 -0.1871606617078627E+01
 -0.1875579917652635E+01 -0.1879522199796731E+01 -0.1883433568822152E+01 -0.1887314130040138E+01 -0.1891163988761926E+01
 -0.1894983250298755E+01 -0.1898772019961863E+01 -0.1902530403062489E+01 -0.1906258504911870E+01 -0.1909956430821245E+01
 -0.1913624286101851E+01 -0.1917262176064928E+01 -0.1920870206021714E+01 -0.1924448481283446E+01 -0.1927997107161364E+01
 -0.1931516188966705E+01 -0.1935005832010707E+01 -0.1938466141604610E+01 -0.1941897223059651E+01 -0.1945299181687067E+01
 -0.1948672122798099E+01 -0.1952016151703984E+01 -0.1955331373715959E+01 -0.1958617894145264E+01 -0.1961875818303137E+01
 -0.1965105251500816E+01 -0.1968306299049539E+01 -0.1971479066260544E+01 -0.1974623658445070E+01 -0.1977740180914356E+01
 -0.1980828738979638E+01 -0.1983889437952156E+01 -0.1986922383143147E+01 -0.1989927679863851E+01 -0.1992905433425505E+01
 -0.1995855749139348E+01 -0.1998778732316617E+01 -0.2001674488268551E+01 -0.2004543122306389E+01 -0.2007384739741368E+01
 -0.2010199445884727E+01 -0.2012987346047705E+01 -0.2015748545541538E+01 -0.2018483149677467E+01 -0.2021191263766727E+01
 -0.2023872993120559E+01 -0.2026528443050202E+01 -0.2029157718866891E+01 -0.2031760925881866E+01 -0.2034338169406365E+01
 -0.2036889554751627E+01 -0.2039415187228889E+01 -0.2041915172149391E+01 -0.2044389614824369E+01 -0.2046838620565063E+01
 -0.2049262294682712E+01 -0.2051660742488551E+01 -0.2054034069293821E+01 -0.2056382380409760E+01 -0.2058705781147605E+01
 -0.2061004376818595E+01 -0.2063278272733970E+01 -0.2065527574204964E+01 -0.2067752386542819E+01 -0.2069952815058773E+01
 -0.2072128965064062E+01 -0.2074280941869926E+01 -0.2076408850787603E+01 -0.2078512797128331E+01 -0.2080592886203348E+01
 -0.2082649223323893E+01 -0.2084681913801204E+01 -0.2086691062946518E+01 -0.2088676776071076E+01 -0.2090639158486114E+01
 -0.2092578315502871E+01 -0.2094494352432585E+01 -0.2096387374586495E+01 -0.2098257487275837E+01 -0.2100104795811852E+01
 -0.2101929405505778E+01 -0.2103731421668852E+01 -0.2105510949612313E+01 -0.2107268094647398E+01 -0.2109002962085346E+01
 -0.2110715657237397E+01 -0.2112406285414787E+01 -0.2114074951928755E+01 -0.2115721762090540E+01 -0.2117346821211379E+01
 -0.2118950234602510E+01 -0.2120532107575173E+01 -0.2122092545440605E+01 -0.2123631653510045E+01 -0.2125149537094730E+01
 -0.2126646301505901E+01 -0.2128122052054793E+01 -0.2129576894052645E+01 -0.2131010932810697E+01 -0.2132424273640185E+01
 -0.2133817021852349E+01 -0.2135189282758427E+01 -0.2136541161669657E+01 -0.2137872763897276E+01 -0.2139184194752525E+01
 -0.2140475559546640E+01 -0.2141746963590859E+01 -0.2142998512196423E+01 -0.2144230310674568E+01 -0.2145442464336532E+01
 -0.2146635078493554E+01 -0.2147808258456873E+01 -0.2148962109537726E+01 -0.2150096737047352E+01 -0.2151212246296989E+01
 -0.2152308742597875E+01 -0.2153386331261249E+01 -0.2154445117598348E+01 -0.2155485206920412E+01 -0.2156506704538678E+01
 -0.2157509715764385E+01 -0.2158494345908770E+01 -0.2159460700283073E+01 -0.2160408884198530E+01 -0.2161339002966382E+01
 -0.2162251161897865E+01 -0.2163145466304219E+01 -0.2164022021496681E+01 -0.2164880932786490E+01 -0.2165722305484883E+01
 -0.2166546244903100E+01 -0.2167352856352378E+01 -0.2168142245143955E+01 -0.2168914516589072E+01 -0.2169669775998963E+01
 -0.2170408445781901E+01 -0.2171130014883328E+01 -0.2171834960305000E+01 -0.2172523448208778E+01 -0.2173195644756522E+01
 -0.2173851716110093E+01 -0.2174491828431353E+01 -0.2175116147882163E+01 -0.2175724840624383E+01 -0.2176318072819873E+01
 -0.2176896010630497E+01 -0.2177458820218114E+01 -0.2178006667744584E+01 -0.2178539719371770E+01 -0.2179058141261532E+01
 -0.2179562099575731E+01 -0.2180051760476228E+01 -0.2180527290124883E+01 -0.2180988854683559E+01 -0.2181436620314115E+01
 -0.2181870753178413E+01 -0.2182291419438314E+01 -0.2182698785255679E+01 -0.2183093016792367E+01 -0.2183474280210242E+01
 -0.2183842741671163E+01 -0.2184198567336992E+01 -0.2184541923369590E+01 -0.2184872975930815E+01 -0.2185191891182532E+01
 -0.2185498835286600E+01 -0.2185793974404881E+01 -0.2186077474699234E+01 -0.2186349502331522E+01 -0.2186610223463604E+01
 -0.2186859804257342E+01 -0.2187098410874598E+01 -0.2187326209477232E+01 -0.2187543366227104E+01 -0.2187750047286076E+01
 -0.2187946418816009E+01 -0.2188132646978763E+01 -0.2188308897936201E+01 -0.2188475337850182E+01 -0.2188632132882568E+01
 -0.2188779449195219E+01 -0.2188917452949996E+01 -0.2189046310308761E+01 -0.2189166187433374E+01 -0.2189277250485697E+01
 -0.2189379665627590E+01 -0.2189473599020914E+01 -0.2189559216827530E+01 -0.2189636685209300E+01 -0.2189706170328083E+01
 -0.2189767838345742E+01 -0.2189821855424137E+01 -0.2189868387725128E+01 -0.2189907601410578E+01 -0.2189939662642346E+01
 -0.2189964737582294E+01 -0.2189982992392283E+01 -0.2189994593234173E+01 -0.2189999706269826E+01 -0.2189998497661103E+01
 -0.2189991133569864E+01 -0.2189977780157971E+01 -0.2189958603587284E+01 -0.2189933770019664E+01 -0.2189903445616973E+01
 -0.2189867796541071E+01 -0.2189826988953820E+01 -0.2189781189017079E+01 -0.2189730562892711E+01 -0.2189675276742576E+01
 -0.2189615496728535E+01 -0.2189551389012448E+01 -0.2189483119756178E+01 -0.2189410855121585E+01 -0.2189334761270529E+01
 -0.2189255004364873E+01 -0.2189171750566476E+01 -0.2189085166037199E+01 -0.2188995416938905E+01 -0.2188902669433453E+01
 -0.2188807089682705E+01 -0.2188708843848521E+01 -0.2188608098092762E+01 -0.2188505018577290E+01 -0.2188399771463966E+01
 -0.2188292522914649E+01 -0.2188183439091202E+01 -0.2188072686155485E+01 -0.2187960430269360E+01 -0.2187846837594686E+01
 -0.2187732074293325E+01 -0.2187616306527138E+01 -0.2187499700457987E+01 -0.2187382422247731E+01 -0.2187264638058232E+01
 -0.2187146514051351E+01 -0.2187028216388949E+01 -0.2186909911232886E+01 -0.2186791764745024E+01 -0.2186673943087224E+01
 -0.2186556612421346E+01 -0.2186439938909252E+01 -0.2186324088712802E+01 -0.2186209227993858E+01 -0.2186095522914280E+01
 -0.2185983139635930E+01 -0.2185872244320667E+01 -0.2185763003130354E+01 -0.2185655582226851E+01 -0.2185550147772019E+01
 -0.2185446865927719E+01 -0.2185345902855812E+01 -0.2185247424718160E+01 -0.2185151597676622E+01 -0.2185058587893059E+01
 -0.2184968561529335E+01 -0.2184881684747307E+01 -0.2184798123708839E+01 -0.2184718044575789E+01 -0.2184641613510021E+01
 -0.2184568996673394E+01 -0.2184500360227769E+01 -0.2184435442669104E+01 -0.2184371643404487E+01 -0.2184307009749410E+01
 -0.2184241545885986E+01 -0.2184175255968906E+01 -0.2184108144125679E+01 -0.2184040214456848E+01 -0.2183971471036229E+01
 -0.2183901917911121E+01 -0.2183831559102540E+01 -0.2183760398605426E+01 -0.2183688440388868E+01 -0.2183615688396314E+01
 -0.2183542146545785E+01 -0.2183467818730085E+01 -0.2183392708817007E+01 -0.2183316820649540E+01 -0.2183240158046074E+01
 -0.2183162724800597E+01 -0.2183084524682904E+01 -0.2183005561438782E+01 -0.2182925838790216E+01 -0.2182845360435578E+01
 -0.2182764130049820E+01 -0.2182682151284659E+01 -0.2182599427768777E+01 -0.2182515963107991E+01 -0.2182431760885452E+01
 -0.2182346824661817E+01 -0.2182261157975435E+01 -0.2182174764342524E+01 -0.2182087647257348E+01 -0.2181999810192393E+01
 -0.2181911256598540E+01 -0.2181821989905237E+01 -0.2181732013520667E+01 -0.2181641330831926E+01 -0.2181549945205175E+01
 -0.2181457859985815E+01 -0.2181365078498651E+01 -0.2181271604048052E+01 -0.2181177439918108E+01 -0.2181082589372796E+01
 -0.2180987055656130E+01 -0.2180890841992325E+01 -0.2180793951585946E+01 -0.2180696387622059E+01 -0.2180598153266391E+01
 -0.2180499251665470E+01 -0.2180399685946784E+01 -0.2180299459218916E+01 -0.2180198574571702E+01 -0.2180097035076368E+01
 -0.2179994843785675E+01 -0.2179892003734061E+01 -0.2179788517937781E+01 -0.2179684389395048E+01 -0.2179579621086167E+01
 -0.2179474215973674E+01 -0.2179368177002472E+01 -0.2179261507099963E+01 -0.2179154209176181E+01 -0.2179046286123927E+01
 -0.2178937740818892E+01 -0.2178828576119792E+01 -0.2178718794868496E+01 -0.2178608399890147E+01 -0.2178497393993296E+01
 -0.2178385779970018E+01 -0.2178273560596040E+01 -0.2178160738630862E+01 -0.2178047316817878E+01 -0.2177933297884496E+01
 -0.2177818684542256E+01 -0.2177703479486949E+01 -0.2177587685398731E+01 -0.2177471304942244E+01 -0.2177354340766723E+01
 -0.2177236795506114E+01 -0.2177118671779190E+01 -0.2176999972189651E+01 -0.2176880699326249E+01 -0.2176760855762884E+01
 -0.2176640444058723E+01 -0.2176519466758300E+01 -0.2176397926391629E+01 -0.2176275825474302E+01 -0.2176153166507600E+01
 -0.2176029951978596E+01 -0.2175906184360252E+01 -0.2175781866111529E+01 -0.2175656999677482E+01 -0.2175531587489364E+01
 -0.2175405631964721E+01 -0.2175279135507495E+01 -0.2175152100508117E+01 -0.2175024529343608E+01 -0.2174896424377671E+01
 -0.2174767787960787E+01 -0.2174638622430310E+01 -0.2174508930110562E+01 -0.2174378713312919E+01 -0.2174247974335911E+01
 -0.2174116715465307E+01 -0.2173984938974206E+01 -0.2173852647123128E+01 -0.2173719842160102E+01 -0.2173586526320752E+01
 -0.2173452701828388E+01 -0.2173318370894088E+01 -0.2173183535716784E+01 -0.2173048198483350E+01 -0.2172912361368685E+01
 -0.2172776026535791E+01 -0.2172639196135865E+01 -0.2172501872308373E+01 -0.2172364057181136E+01 -0.2172225752870407E+01
 -0.2172086961480952E+01 -0.2171947685106134E+01 -0.2171807925827983E+01 -0.2171667685717279E+01 -0.2171526966833631E+01
 -0.2171385771225548E+01 -0.2171244100930520E+01 -0.2171101957975089E+01 -0.2170959344374927E+01 -0.2170816262134909E+01
 -0.2170672713249187E+01 -0.2170528699701258E+01 -0.2170384223464047E+01 -0.2170239286499966E+01 -0.2170093890760994E+01
 -0.2169948038188743E+01 -0.2169801730714529E+01 -0.2169654970259441E+01 -0.2169507758734411E+01 -0.2169360098040281E+01
 -0.2169211990067871E+01 -0.2169063436698046E+01 -0.2168914439801779E+01 -0.2168765001240224E+01 -0.2168615122864777E+01
 -0.2168464806517139E+01 -0.2168314054029385E+01 -0.2168162867224024E+01 -0.2168011247914066E+01 -0.2167859197903078E+01
 -0.2167706718985256E+01 -0.2167553812945480E+01 -0.2167400481559374E+01 -0.2167246726593373E+01 -0.2167092549804778E+01
 -0.2166937952941820E+01 -0.2166782937743713E+01 -0.2166627505940721E+01 -0.2166471659254210E+01 -0.2166315399396708E+01
 -0.2166158728071965E+01 -0.2166001646975005E+01 -0.2165844157792185E+01 -0.2165686262201254E+01 -0.2165527961871403E+01
 -0.2165369258463325E+01 -0.2165210153629266E+01 -0.2165050649013084E+01 -0.2164890746250297E+01 -0.2164730446968143E+01
 -0.2164569752785627E+01 -0.2164408665313577E+01 -0.2164247186154697E+01 -0.2164085316903615E+01 -0.2163923059146939E+01
 -0.2163760414463306E+01 -0.2163597384423430E+01 -0.2163433970590159E+01 -0.2163270174518515E+01 -0.2163105997755756E+01
 -0.2162941441841412E+01 -0.2162776508307344E+01 -0.2162611198677787E+01 -0.2162445514469398E+01 -0.2162279457191306E+01
 -0.2162113028345159E+01 -0.2161946229425168E+01 -0.2161779061918157E+01 -0.2161611527303606E+01 -0.2161443627053700E+01
 -0.2161275362633372E+01 -0.2161106735500348E+01 -0.2160937747105195E+01 -0.2160768398891361E+01 -0.2160598692295222E+01
 -0.2160428628746125E+01 -0.2160258209666432E+01 -0.2160087436471560E+01 -0.2159916310570030E+01 -0.2159744833363502E+01
 -0.2159573006246823E+01 -0.2159400830608067E+01 -0.2159228307828574E+01 -0.2159055439282996E+01 -0.2158882226339332E+01
 -0.2158708670358974E+01 -0.2158534772696746E+01 -0.2158360534700939E+01 -0.2158185957713359E+01 -0.2158011043069360E+01
 -0.2157835792097886E+01 -0.2157660206121507E+01 -0.2157484286456462E+01 -0.2157308034412694E+01 -0.2157131451293887E+01
 -0.2156954538397510E+01 -0.2156777297014842E+01 -0.2156599728431023E+01 -0.2156421833925085E+01 -0.2156243614769983E+01
 -0.2156065072232643E+01 -0.2155886207573986E+01 -0.2155707022048974E+01 -0.2155527516906637E+01 -0.2155347693390115E+01
 -0.2155167552736688E+01 -0.2154987096177817E+01 -0.2154806324939170E+01 -0.2154625240240663E+01 -0.2154443843296491E+01
 -0.2154262135315162E+01 -0.2154080117499533E+01 -0.2153897791046840E+01 -0.2153715157148731E+01 -0.2153532216991302E+01
 -0.2153348971755129E+01 -0.2153165422615295E+01 -0.2152981570741429E+01 -0.2152797417297735E+01 -0.2152612963443022E+01
 -0.2152428210330739E+01 -0.2152243159109003E+01 -0.2152057810920632E+01 -0.2151872166903174E+01 -0.2151686228188940E+01
 -0.2151499995905032E+01 -0.2151313471173374E+01 -0.2151126655110742E+01 -0.2150939548828793E+01 -0.2150752153434097E+01
 -0.2150564470028161E+01 -0.2150376499707465E+01 -0.2150188243563485E+01 -0.2149999702682724E+01 -0.2149810878146742E+01
 -0.2149621771032181E+01 -0.2149432382410795E+01 -0.2149242713349477E+01 -0.2149052764910290E+01 -0.2148862538150488E+01
 -0.2148672034122550E+01 -0.2148481253874203E+01 -0.2148290198448449E+01 -0.2148098868883594E+01 -0.2147907266213275E+01
 -0.2147715391466480E+01 -0.2147523245667584E+01 -0.2147330829836366E+01 -0.2147138144988040E+01 -0.2146945192133283E+01
 -0.2146751972278249E+01 -0.2146558486424610E+01 -0.2146364735569569E+01 -0.2146170720705888E+01 -0.2145976442821920E+01
 -0.2145781902901620E+01 -0.2145587101924583E+01 -0.2145392040866060E+01 -0.2145196720696983E+01 -0.2145001142383995E+01
 -0.2144805306889462E+01 -0.2144609215171512E+01 -0.2144412868184044E+01 -0.2144216266876762E+01 -0.2144019412195190E+01
 -0.2143822305080701E+01 -0.2143624946470538E+01 -0.2143427337297835E+01 -0.2143229478491642E+01 -0.2143031370976947E+01
 -0.2142833015674693E+01 -0.2142634413501810E+01 -0.2142435565371231E+01 -0.2142236472191910E+01 -0.2142037134868852E+01
 -0.2141837554303131E+01 -0.2141637731391908E+01 -0.2141437667028457E+01 -0.2141237362102183E+01 -0.2141036817498646E+01
 -0.2140836034099579E+01 -0.2140635012782909E+01 -0.2140433754422780E+01 -0.2140232259889570E+01 -0.2140030530049913E+01
 -0.2139828565766720E+01 -0.2139626367899197E+01 -0.2139423937302868E+01 -0.2139221274829590E+01 -0.2139018381327576E+01
 -0.2138815257641415E+01 -0.2138611904612090E+01 -0.2138408323076995E+01 -0.2138204513869959E+01 -0.2138000477821262E+01
 -0.2137796215757654E+01 -0.2137591728502374E+01 -0.2137387016875169E+01 -0.2137182081692312E+01 -0.2136976923766620E+01
 -0.2136771543907473E+01 -0.2136565942920835E+01 -0.2136360121609264E+01 -0.2136154080771939E+01 -0.2135947821204670E+01
 -0.2135741343699925E+01 -0.2135534649046837E+01 -0.2135327738031227E+01 -0.2135120611435623E+01 -0.2134913270039275E+01
 -0.2134705714618169E+01 -0.2134497945945052E+01 -0.2134289964789438E+01 -0.2134081771917639E+01 -0.2133873368092766E+01
 -0.2133664754074756E+01 -0.2133455930620388E+01 -0.2133246898483295E+01 -0.2133037658413981E+01 -0.2132828211159840E+01
 -0.2132618557465172E+01 -0.2132408698071196E+01 -0.2132198633716068E+01 -0.2131988365134895E+01 -0.2131777893059753E+01
 -0.2131567218219703E+01 -0.2131356341340803E+01 -0.2131145263146125E+01 -0.2130933984355772E+01 -0.2130722505686891E+01
 -0.2130510827853692E+01 -0.2130298951567454E+01 -0.2130086877536552E+01 -0.2129874606466461E+01 -0.2129662139059779E+01
 -0.2129449476016236E+01 -0.2129236618032711E+01 -0.2129023565803247E+01 -0.2128810320019062E+01 -0.2128596881368570E+01
 -0.2128383250537388E+01 -0.2128169428208353E+01 -0.2127955415061535E+01 -0.2127741211774256E+01 -0.2127526819021096E+01
 -0.2127312237473913E+01 -0.2127097467801853E+01 -0.2126882510671366E+01 -0.2126667366746215E+01 -0.2126452036687499E+01
 -0.2126236521153654E+01 -0.2126020820800477E+01 -0.2125804936281132E+01 -0.2125588868246166E+01 -0.2125372617343523E+01
 -0.2125156184218555E+01 -0.2124939569514035E+01 -0.2124722773870171E+01 -0.2124505797924620E+01 -0.2124288642312495E+01
 -0.2124071307666385E+01 -0.2123853794616360E+01 -0.2123636103789990E+01 -0.2123418235812354E+01 -0.2123200191306054E+01
 -0.2122981970891223E+01 -0.2122763575185543E+01 -0.2122545004804253E+01 -0.2122326260360161E+01 -0.2122107342463659E+01
 -0.2121888251722734E+01 -0.2121668988742976E+01 -0.2121449554127592E+01 -0.2121229948477420E+01 -0.2121010172390938E+01
 -0.2120790226464278E+01 -0.2120570111291229E+01 -0.2120349827463264E+01 -0.2120129375569535E+01 -0.2119908756196893E+01
 -0.2119687969929899E+01 -0.2119467017350833E+01 -0.2119245899039705E+01 -0.2119024615574268E+01 -0.2118803167530024E+01
 -0.2118581555480243E+01 -0.2118359779995964E+01 -0.2118137841646016E+01 -0.2117915740997019E+01 -0.2117693478613401E+01
 -0.2117471055057408E+01 -0.2117248470889109E+01 -0.2117025726666412E+01 -0.2116802822945075E+01 -0.2116579760278712E+01
 -0.2116356539218804E+01 -0.2116133160314713E+01 -0.2115909624113687E+01 -0.2115685931160874E+01 -0.2115462081999330E+01
 -0.2115238077170028E+01 -0.2115013917211873E+01 -0.2114789602661704E+01 -0.2114565134054310E+01 -0.2114340511922437E+01
 -0.2114115736796796E+01 -0.2113890809206081E+01 -0.2113665729676965E+01 -0.2113440498734120E+01 -0.2113215116900225E+01
 -0.2112989584695970E+01 -0.2112763902640070E+01 -0.2112538071249276E+01 -0.2112312091038377E+01 -0.2112085962520215E+01
 -0.2111859686205695E+01 -0.2111633262603788E+01 -0.2111406692221548E+01 -0.2111179975564111E+01 -0.2110953113134715E+01
 -0.2110726105434700E+01 -0.2110498952963521E+01 -0.2110271656218757E+01 -0.2110044215696118E+01 -0.2109816631889453E+01
 -0.2109588905290761E+01 -0.2109361036390201E+01 -0.2109133025676093E+01 -0.2108904873634936E+01 -0.2108676580751408E+01
 -0.2108448147508382E+01 -0.2108219574386927E+01 -0.2107990861866324E+01 -0.2107762010424064E+01 -0.2107533020535870E+01
 -0.2107303892675691E+01 -0.2107074627315720E+01 -0.2106845224926396E+01 -0.2106615685976417E+01 -0.2106386010932744E+01
 -0.2106156200260612E+01 -0.2105926254423533E+01 -0.2105696173883312E+01 -0.2105465959100045E+01 -0.2105235610532135E+01
 -0.2105005128636296E+01 -0.2104774513867558E+01 -0.2104543766679283E+01 -0.2104312887523162E+01 -0.2104081876849231E+01
 -0.2103850735105874E+01 -0.2103619462739831E+01 -0.2103388060196208E+01 -0.2103156527918481E+01 -0.2102924866348505E+01
 -0.2102693075926522E+01 -0.2102461157091166E+01 -0.2102229110279474E+01 -0.2101996935926886E+01 -0.2101764634467262E+01
 -0.2101532206332882E+01 -0.2101299651954454E+01 -0.2101066971761122E+01 -0.2100834166180475E+01 -0.2100601235638551E+01
 -0.2100368180559844E+01 -0.2100135001367313E+01 -0.2099901698482387E+01 -0.2099668272324971E+01 -0.2099434723313457E+01
 -0.2099201051864725E+01 -0.2098967258394155E+01 -0.2098733343315629E+01 -0.2098499307041541E+01 -0.2098265149982801E+01
 -0.2098030872548845E+01 -0.2097796475147639E+01 -0.2097561958185685E+01 -0.2097327322068027E+01 -0.2097092567198262E+01
 -0.2096857693978540E+01 -0.2096622702809576E+01 -0.2096387594090653E+01 -0.2096152368219626E+01 -0.2095917025592937E+01
 -0.2095681566605610E+01 -0.2095445991651266E+01 -0.2095210301122123E+01 -0.2094974495409009E+01 -0.2094738574901361E+01
 -0.2094502539987233E+01 -0.2094266391053305E+01 -0.2094030128484885E+01 -0.2093793752665922E+01 -0.2093557263979001E+01
 -0.2093320662805355E+01 -0.2093083949524876E+01 -0.2092847124516110E+01 -0.2092610188156269E+01 -0.2092373140821239E+01
 -0.2092135982885580E+01 -0.2091898714722535E+01 -0.2091661336704035E+01 -0.2091423849200706E+01 -0.2091186252581870E+01
 -0.2090948547215557E+01 -0.2090710733468508E+01 -0.2090472811706177E+01 -0.2090234782292741E+01 -0.2089996645591105E+01
 -0.2089758401962905E+01 -0.2089520051768516E+01 -0.2089281595367053E+01 -0.2089043033116385E+01 -0.2088804365373130E+01
 -0.2088565592492668E+01 -0.2088326714829142E+01 -0.2088087732735467E+01 -0.2087848646563329E+01 -0.2087609456663198E+01
 -0.2087370163384327E+01 -0.2087130767074761E+01 -0.2086891268081339E+01 -0.2086651666749703E+01 -0.2086411963424297E+01
 -0.2086172158448379E+01 -0.2085932252164022E+01 -0.2085692244912120E+01 -0.2085452137032391E+01 -0.2085211928863386E+01
 -0.2084971620742490E+01 -0.2084731213005929E+01 -0.2084490705988775E+01 -0.2084250100024949E+01 -0.2084009395447227E+01
 -0.2083768592587246E+01 -0.2083527691775507E+01 -0.2083286693341380E+01 -0.2083045597613107E+01 -0.2082804404917814E+01
 -0.2082563115581506E+01 -0.2082321729929077E+01 -0.2082080248284313E+01 -0.2081838670969899E+01 -0.2081596998307419E+01
 -0.2081355230617369E+01 -0.2081113368219147E+01 -0.2080871411431076E+01 -0.2080629360570392E+01 -0.2080387215953259E+01
 -0.2080144977894766E+01 -0.2079902646708941E+01 -0.2079660222708744E+01 -0.2079417706206079E+01 -0.2079175097511798E+01
 -0.2078932396935703E+01 -0.2078689604786548E+01 -0.2078446721372050E+01 -0.2078203746998887E+01 -0.2077960681972707E+01
 -0.2077717526598128E+01 -0.2077474281178745E+01 -0.2077230946017135E+01 -0.2076987521414857E+01 -0.2076744007672459E+01
 -0.2076500405089483E+01 -0.2076256713964468E+01 -0.2076012934594954E+01 -0.2075769067277484E+01 -0.2075525112307613E+01
 -0.2075281069979907E+01 -0.2075036940587951E+01 -0.2074792724424349E+01 -0.2074548421780732E+01 -0.2074304032947759E+01
 -0.2074059558215123E+01 -0.2073814997871552E+01 -0.2073570352204816E+01 -0.2073325621501730E+01 -0.2073080806048156E+01
 -0.2072835906129010E+01 -0.2072590922028264E+01 -0.2072345854028950E+01 -0.2072100702413159E+01 -0.2071855467462059E+01
 -0.2071610149455879E+01 -0.2071364748673930E+01 -0.2071119265394598E+01 -0.2070873699895354E+01 -0.2070628052452752E+01
 -0.2070382323342439E+01 -0.2070136512839150E+01 -0.2069890621216723E+01 -0.2069644648748092E+01 -0.2069398595705298E+01
 -0.2069152462359488E+01 -0.2068906248980920E+01 -0.2068659955838967E+01 -0.2068413583202121E+01 -0.2068167131337995E+01
 -0.2067920600513326E+01 -0.2067673990993982E+01 -0.2067427303044962E+01 -0.2067180536930399E+01 -0.2066933692913569E+01
 -0.2066686771256885E+01 -0.2066439772221909E+01 -0.2066192696069353E+01 -0.2065945543059079E+01 -0.2065698313450104E+01
 -0.2065451007500608E+01 -0.2065203625467930E+01 -0.2064956167608575E+01 -0.2064708634178220E+01 -0.2064461025431709E+01
 -0.2064213341623065E+01 -0.2063965583005490E+01 -0.2063717749831366E+01 -0.2063469842352261E+01 -0.2063221860818931E+01
 -0.2062973805481322E+01 -0.2062725676588579E+01 -0.2062477474389039E+01 -0.2062229199130243E+01 -0.2061980851058936E+01
 -0.2061732430421069E+01 -0.2061483937461803E+01 -0.2061235372425513E+01 -0.2060986735555790E+01 -0.2060738027095443E+01
 -0.2060489247286506E+01 -0.2060240396370234E+01 -0.2059991474587114E+01 -0.2059742482176863E+01 -0.2059493419378433E+01
 -0.2059244286430010E+01 -0.2058995083569023E+01 -0.2058745811032144E+01 -0.2058496469055290E+01 -0.2058247057873626E+01
 -0.2057997577721571E+01 -0.2057748028832797E+01 -0.2057498411440231E+01 -0.2057248725776067E+01 -0.2056998972071755E+01
 -0.2056749150558015E+01 -0.2056499261464834E+01 -0.2056249305021471E+01 -0.2055999281456460E+01 -0.2055749190997610E+01
 -0.2055499033872012E+01 -0.2055248810306039E+01 -0.2054998520525348E+01 -0.2054748164754885E+01 -0.2054497743218887E+01
 -0.2054247256140884E+01 -0.2053996703743702E+01 -0.2053746086249464E+01 -0.2053495403879599E+01 -0.2053244656854834E+01
 -0.2052993845395208E+01 -0.2052742969720066E+01 -0.2052492030048066E+01 -0.2052241026597180E+01 -0.2051989959584698E+01
 -0.2051738829227228E+01 -0.2051487635740703E+01 -0.2051236379340376E+01 -0.2050985060240832E+01 -0.2050733678655984E+01
 -0.2050482234799076E+01 -0.2050230728882690E+01 -0.2049979161118741E+01 -0.2049727531718487E+01 -0.2049475840892528E+01
 -0.2049224088850808E+01 -0.2048972275802617E+01 -0.2048720401956596E+01 -0.2048468467520739E+01 -0.2048216472702392E+01
 -0.2047964417708259E+01 -0.2047712302744405E+01 -0.2047460128016252E+01 -0.2047207893728591E+01 -0.2046955600085576E+01
 -0.2046703247290731E+01 -0.2046450835546952E+01 -0.2046198365056506E+01 -0.2045945836021037E+01 -0.2045693248641568E+01
 -0.2045440603118499E+01 -0.2045187899651617E+01 -0.2044935138440090E+01 -0.2044682319682476E+01 -0.2044429443576719E+01
 -0.2044176510320159E+01 -0.2043923520109526E+01 -0.2043670473140949E+01 -0.2043417369609952E+01 -0.2043164209711463E+01
 -0.2042910993639811E+01 -0.2042657721588730E+01 -0.2042404393751362E+01 -0.2042151010320254E+01 -0.2041897571487372E+01
 -0.2041644077444090E+01 -0.2041390528381198E+01 -0.2041136924488906E+01 -0.2040883265956843E+01 -0.2040629552974060E+01
 -0.2040375785729031E+01 -0.2040121964409660E+01 -0.2039868089203274E+01 -0.2039614160296635E+01 -0.2039360177875936E+01
 -0.2039106142126804E+01 -0.2038852053234302E+01 -0.2038597911382934E+01 -0.2038343716756643E+01 -0.2038089469538814E+01
 -0.2037835169912280E+01 -0.2037580818059316E+01 -0.2037326414161651E+01 -0.2037071958400460E+01 -0.2036817450956374E+01
 -0.2036562892009476E+01 -0.2036308281739309E+01 -0.2036053620324870E+01 -0.2035798907944622E+01 -0.2035544144776487E+01
 -0.2035289330997851E+01 -0.2035034466785568E+01 -0.2034779552315959E+01 -0.2034524587764817E+01 -0.2034269573307406E+01
 -0.2034014509118463E+01 -0.2033759395372202E+01 -0.2033504232242315E+01 -0.2033249019901972E+01 -0.2032993758523825E+01
 -0.2032738448280011E+01 -0.2032483089342148E+01 -0.2032227681881347E+01 -0.2031972226068202E+01 -0.2031716722072802E+01
 -0.2031461170064724E+01 -0.2031205570213043E+01 -0.2030949922686328E+01 -0.2030694227652647E+01 -0.2030438485279566E+01
 -0.2030182695734154E+01 -0.2029926859182981E+01 -0.2029670975792124E+01 -0.2029415045727165E+01 -0.2029159069153196E+01
 -0.2028903046234818E+01 -0.2028646977136144E+01 -0.2028390862020799E+01 -0.2028134701051926E+01 -0.2027878494392183E+01
 -0.2027622242203746E+01 -0.2027365944648316E+01 -0.2027109601887109E+01 -0.2026853214080871E+01 -0.2026596781389868E+01
 -0.2026340303973897E+01 -0.2026083781992282E+01 -0.2025827215603878E+01 -0.2025570604967071E+01 -0.2025313950239781E+01
 -0.2025057251579463E+01 -0.2024800509143111E+01 -0.2024543723087254E+01 -0.2024286893567965E+01 -0.2024030020740853E+01
 -0.2023773104761076E+01 -0.2023516145783334E+01 -0.2023259143961875E+01 -0.2023002099450491E+01 -0.2022745012402531E+01
 -0.2022487882970887E+01 -0.2022230711308010E+01 -0.2021973497565901E+01 -0.2021716241896120E+01 -0.2021458944449782E+01
 -0.2021201605377561E+01 -0.2020944224829693E+01 -0.2020686802955975E+01 -0.2020429339905767E+01 -0.2020171835827994E+01
 -0.2019914290871149E+01 -0.2019656705183290E+01 -0.2019399078912048E+01 -0.2019141412204621E+01 -0.2018883705207781E+01
 -0.2018625958067876E+01 -0.2018368170930827E+01 -0.2018110343942131E+01 -0.2017852477246864E+01 -0.2017594570989683E+01
 -0.2017336625314825E+01 -0.2017078640366109E+01 -0.2016820616286938E+01 -0.2016562553220302E+01 -0.2016304451308776E+01
 -0.2016046310694523E+01 -0.2015788131519297E+01 -0.2015529913924441E+01 -0.2015271658050894E+01 -0.2015013364039183E+01
 -0.2014755032029437E+01 -0.2014496662161376E+01 -0.2014238254574321E+01 -0.2013979809407190E+01 -0.2013721326798503E+01
 -0.2013462806886383E+01 -0.2013204249808553E+01 -0.2012945655702343E+01 -0.2012687024704690E+01 -0.2012428356952137E+01
 -0.2012169652580834E+01 -0.2011910911726543E+01 -0.2011652134524638E+01 -0.2011393321110103E+01 -0.2011134471617538E+01
 -0.2010875586181158E+01 -0.2010616664934793E+01 -0.2010357708011893E+01 -0.2010098715545523E+01 -0.2009839687668376E+01
 -0.2009580624512757E+01 -0.2009321526210602E+01 -0.2009062392893466E+01 -0.2008803224692532E+01 -0.2008544021738608E+01
 -0.2008284784162132E+01 -0.2008025512093170E+01 -0.2007766205661417E+01 -0.2007506864996202E+01 -0.2007247490226486E+01
 -0.2006988081480863E+01 -0.2006728638887563E+01 -0.2006469162574454E+01 -0.2006209652669040E+01 -0.2005950109298464E+01
 -0.2005690532589509E+01 -0.2005430922668602E+01 -0.2005171279661807E+01 -0.2004911603694837E+01 -0.2004651894893048E+01
 -0.2004392153381441E+01 -0.2004132379284666E+01 -0.2003872572727020E+01 -0.2003612733832451E+01 -0.2003352862724555E+01
 -0.2003092959526585E+01 -0.2002833024361439E+01 -0.2002573057351678E+01 -0.2002313058619512E+01 -0.2002053028286810E+01
 -0.2001792966475099E+01 -0.2001532873305563E+01 -0.2001272748899046E+01 -0.2001012593376056E+01 -0.2000752406856759E+01
 -0.2000492189460985E+01 -0.2000231941308230E+01 -0.1999971662517656E+01 -0.1999711353208087E+01 -0.1999451013498019E+01
 -0.1999190643505615E+01 -0.1998930243348708E+01 -0.1998669813144802E+01 -0.1998409353011071E+01 -0.1998148863064364E+01
 -0.1997888343421204E+01 -0.1997627794197788E+01 -0.1997367215509990E+01 -0.1997106607473361E+01 -0.1996845970203129E+01
 -0.1996585303814203E+01 -0.1996324608421173E+01 -0.1996063884138307E+01 -0.1995803131079558E+01 -0.1995542349358562E+01
 -0.1995281539088639E+01 -0.1995020700382796E+01 -0.1994759833353723E+01 -0.1994498938113803E+01 -0.1994238014775101E+01
 -0.1993977063449377E+01 -0.1993716084248079E+01 -0.1993455077282347E+01 -0.1993194042663012E+01 -0.1992932980500601E+01
 -0.1992671890905335E+01 -0.1992410773987129E+01 -0.1992149629855596E+01 -0.1991888458620045E+01 -0.1991627260389485E+01
 -0.1991366035272623E+01 -0.1991104783377867E+01 -0.1990843504813328E+01 -0.1990582199686815E+01 -0.1990320868105843E+01
 -0.1990059510177633E+01 -0.1989798126009107E+01 -0.1989536715706896E+01 -0.1989275279377337E+01 -0.1989013817126475E+01
 -0.1988752329060063E+01 -0.1988490815283566E+01 -0.1988229275902158E+01 -0.1987967711020725E+01 -0.1987706120743866E+01
 -0.1987444505175891E+01 -0.1987182864420830E+01 -0.1986921198582421E+01 -0.1986659507764125E+01 -0.1986397792069116E+01
 -0.1986136051600286E+01 -0.1985874286460249E+01 -0.1985612496751335E+01 -0.1985350682575597E+01 -0.1985088844034809E+01
 -0.1984826981230468E+01 -0.1984565094263792E+01 -0.1984303183235727E+01 -0.1984041248246942E+01 -0.1983779289397829E+01
 -0.1983517306788513E+01 -0.1983255300518842E+01 -0.1982993270688393E+01 -0.1982731217396475E+01 -0.1982469140742124E+01
 -0.1982207040824109E+01 -0.1981944917740932E+01 -0.1981682771590823E+01 -0.1981420602471751E+01 -0.1981158410481417E+01
 -0.1980896195717258E+01 -0.1980633958276445E+01 -0.1980371698255889E+01 -0.1980109415752236E+01 -0.1979847110861873E+01
 -0.1979584783680923E+01 -0.1979322434305254E+01 -0.1979060062830472E+01 -0.1978797669351924E+01 -0.1978535253964701E+01
 -0.1978272816763638E+01 -0.1978010357843315E+01 -0.1977747877298051E+01 -0.1977485375221920E+01 -0.1977222851708735E+01
 -0.1976960306852060E+01 -0.1976697740745208E+01 -0.1976435153481238E+01 -0.1976172545152960E+01 -0.1975909915852935E+01
 -0.1975647265673475E+01 -0.1975384594706646E+01 -0.1975121903044262E+01 -0.1974859190777895E+01 -0.1974596457998870E+01
 -0.1974333704798265E+01 -0.1974070931266919E+01 -0.1973808137495422E+01 -0.1973545323574125E+01 -0.1973282489593135E+01
 -0.1973019635642321E+01 -0.1972756761811306E+01 -0.1972493868189481E+01 -0.1972230954865990E+01 -0.1971968021929745E+01
 -0.1971705069469417E+01 -0.1971442097573442E+01 -0.1971179106330021E+01 -0.1970916095827117E+01 -0.1970653066152459E+01
 -0.1970390017393544E+01 -0.1970126949637635E+01 -0.1969863862971762E+01 -0.1969600757482724E+01 -0.1969337633257088E+01
 -0.1969074490381193E+01 -0.1968811328941146E+01 -0.1968548149022827E+01 -0.1968284950711886E+01 -0.1968021734093746E+01
 -0.1967758499253605E+01 -0.1967495246276433E+01 -0.1967231975246976E+01 -0.1966968686249754E+01 -0.1966705379369063E+01
 -0.1966442054688977E+01 -0.1966178712293345E+01 -0.1965915352265798E+01 -0.1965651974689741E+01 -0.1965388579648361E+01
 -0.1965125167224625E+01 -0.1964861737501280E+01 -0.1964598290560855E+01 -0.1964334826485660E+01 -0.1964071345357789E+01
 -0.1963807847259119E+01 -0.1963544332271308E+01 -0.1963280800475805E+01 -0.1963017251953838E+01 -0.1962753686786424E+01
 -0.1962490105054366E+01 -0.1962226506838255E+01 -0.1961962892218468E+01 -0.1961699261275174E+01 -0.1961435614088326E+01
 -0.1961171950737671E+01 -0.1960908271302744E+01 -0.1960644575862874E+01 -0.1960380864497177E+01 -0.1960117137284566E+01
 -0.1959853394303744E+01 -0.1959589635633209E+01 -0.1959325861351252E+01 -0.1959062071535960E+01 -0.1958798266265213E+01
 -0.1958534445616691E+01 -0.1958270609667867E+01 -0.1958006758496011E+01 -0.1957742892178196E+01 -0.1957479010791287E+01
 -0.1957215114411951E+01 -0.1956951203116655E+01 -0.1956687276981666E+01 -0.1956423336083049E+01 -0.1956159380496676E+01
 -0.1955895410298216E+01 -0.1955631425563142E+01 -0.1955367426366732E+01 -0.1955103412784065E+01 -0.1954839384890025E+01
 -0.1954575342759303E+01 -0.1954311286466394E+01 -0.1954047216085598E+01 -0.1953783131691024E+01 -0.1953519033356585E+01
 -0.1953254921156006E+01 -0.1952990795162816E+01 -0.1952726655450356E+01 -0.1952462502091776E+01 -0.1952198335160035E+01
 -0.1951934154727903E+01 -0.1951669960867961E+01 -0.1951405753652602E+01 -0.1951141533154032E+01 -0.1950877299444269E+01
 -0.1950613052595144E+01 -0.1950348792678302E+01 -0.1950084519765204E+01 -0.1949820233927124E+01 -0.1949555935235153E+01
 -0.1949291623760198E+01 -0.1949027299572981E+01 -0.1948762962744043E+01 -0.1948498613343743E+01 -0.1948234251442256E+01
 -0.1947969877109577E+01 -0.1947705490415522E+01 -0.1947441091429724E+01 -0.1947176680221638E+01 -0.1946912256860540E+01
 -0.1946647821415527E+01 -0.1946383373955517E+01 -0.1946118914549252E+01 -0.1945854443265297E+01 -0.1945589960172038E+01
 -0.1945325465337689E+01 -0.1945060958830284E+01 -0.1944796440717687E+01 -0.1944531911067582E+01 -0.1944267369947485E+01
 -0.1944002817424733E+01 -0.1943738253566494E+01 -0.1943473678439761E+01 -0.1943209092111357E+01 -0.1942944494647933E+01
 -0.1942679886115967E+01 -0.1942415266581771E+01 -0.1942150636111482E+01 -0.1941885994771070E+01 -0.1941621342626337E+01
 -0.1941356679742915E+01 -0.1941092006186268E+01 -0.1940827322021693E+01 -0.1940562627314319E+01 -0.1940297922129111E+01
 -0.1940033206530865E+01 -0.1939768480584212E+01 -0.1939503744353620E+01 -0.1939238997903389E+01 -0.1938974241297658E+01
 -0.1938709474600400E+01 -0.1938444697875426E+01 -0.1938179911186384E+01 -0.1937915114596759E+01 -0.1937650308169875E+01
 -0.1937385491968895E+01 -0.1937120666056820E+01 -0.1936855830496491E+01 -0.1936590985350589E+01 -0.1936326130681636E+01
 -0.1936061266551994E+01 -0.1935796393023867E+01 -0.1935531510159301E+01 -0.1935266618020183E+01 -0.1935001716668245E+01
 -0.1934736806165060E+01 -0.1934471886572045E+01 -0.1934206957950463E+01 -0.1933942020361419E+01 -0.1933677073865865E+01
 -0.1933412118524597E+01 -0.1933147154398257E+01 -0.1932882181547334E+01 -0.1932617200032164E+01 -0.1932352209912928E+01
 -0.1932087211249658E+01 -0.1931822204102230E+01 -0.1931557188530372E+01 -0.1931292164593660E+01 -0.1931027132351517E+01
 -0.1930762091863218E+01 -0.1930497043187889E+01 -0.1930231986384505E+01 -0.1929966921511891E+01 -0.1929701848628725E+01
 -0.1929436767793537E+01 -0.1929171679064710E+01 -0.1928906582500477E+01 -0.1928641478158925E+01 -0.1928376366097996E+01
 -0.1928111246375487E+01 -0.1927846119049044E+01 -0.1927580984176173E+01 -0.1927315841814233E+01 -0.1927050692020440E+01
 -0.1926785534851863E+01 -0.1926520370365430E+01 -0.1926255198617925E+01 -0.1925990019665990E+01 -0.1925724833566123E+01
 -0.1925459640374680E+01 -0.1925194440147878E+01 -0.1924929232941789E+01 -0.1924664018812348E+01 -0.1924398797815346E+01
 -0.1924133570006436E+01 -0.1923868335441132E+01 -0.1923603094174807E+01 -0.1923337846262695E+01 -0.1923072591759894E+01
 -0.1922807330721361E+01 -0.1922542063201917E+01 -0.1922276789256246E+01 -0.1922011508938894E+01 -0.1921746222304269E+01
 -0.1921480929406646E+01 -0.1921215630300163E+01 -0.1920950325038822E+01 -0.1920685013676490E+01 -0.1920419696266899E+01
 -0.1920154372863649E+01 -0.1919889043520203E+01 -0.1919623708289892E+01 -0.1919358367225914E+01 -0.1919093020381333E+01
 -0.1918827667809083E+01 -0.1918562309561963E+01 -0.1918296945692642E+01 -0.1918031576253656E+01 -0.1917766201297413E+01
 -0.1917500820876187E+01 -0.1917235435042125E+01 -0.1916970043847241E+01 -0.1916704647343422E+01 -0.1916439245582424E+01
 -0.1916173838615875E+01 -0.1915908426495273E+01 -0.1915643009271992E+01 -0.1915377586997274E+01 -0.1915112159722235E+01
 -0.1914846727497864E+01 -0.1914581290375023E+01 -0.1914315848404449E+01 -0.1914050401636750E+01 -0.1913784950122412E+01
 -0.1913519493911793E+01 -0.1913254033055127E+01 -0.1912988567602523E+01 -0.1912723097603967E+01 -0.1912457623109318E+01
 -0.1912192144168314E+01 -0.1911926660830571E+01 -0.1911661173145577E+01 -0.1911395681162703E+01 -0.1911130184931193E+01
 -0.1910864684500173E+01 -0.1910599179918646E+01 -0.1910333671235491E+01 -0.1910068158499471E+01 -0.1909802641759223E+01
 -0.1909537121063269E+01 -0.1909271596460007E+01 -0.1909006067997718E+01 -0.1908740535724561E+01 -0.1908474999688579E+01
 -0.1908209459937695E+01 -0.1907943916519713E+01 -0.1907678369482319E+01 -0.1907412818873083E+01 -0.1907147264739456E+01
 -0.1906881707128772E+01 -0.1906616146088249E+01 -0.1906350581664989E+01 -0.1906085013905976E+01 -0.1905819442858080E+01
 -0.1905553868568055E+01 -0.1905288291082538E+01 -0.1905022710448056E+01 -0.1904757126711015E+01 -0.1904491539917713E+01
 -0.1904225950114329E+01 -0.1903960357346931E+01 -0.1903694761661473E+01 -0.1903429163103798E+01 -0.1903163561719631E+01
 -0.1902897957554591E+01 -0.1902632350654180E+01 -0.1902366741063792E+01 -0.1902101128828707E+01 -0.1901835513994093E+01
 -0.1901569896605010E+01 -0.1901304276706406E+01 -0.1901038654343118E+01 -0.1900773029559874E+01 -0.1900507402401292E+01
 -0.1900241772911880E+01 -0.1899976141136038E+01 -0.1899710507118056E+01 -0.1899444870902116E+01 -0.1899179232532292E+01
 -0.1898913592052551E+01 -0.1898647949506749E+01 -0.1898382304938637E+01 -0.1898116658391860E+01 -0.1897851009909954E+01
 -0.1897585359536349E+01 -0.1897319707314370E+01 -0.1897054053287234E+01 -0.1896788397498055E+01 -0.1896522739989838E+01
 -0.1896257080805486E+01 -0.1895991419987797E+01 -0.1895725757579461E+01 -0.1895460093623069E+01 -0.1895194428161103E+01
 -0.1894928761235945E+01 -0.1894663092889871E+01 -0.1894397423165056E+01 -0.1894131752103571E+01 -0.1893866079747383E+01
 -0.1893600406138360E+01 -0.1893334731318264E+01 -0.1893069055328758E+01 -0.1892803378211403E+01 -0.1892537700007658E+01
 -0.1892272020758881E+01 -0.1892006340506330E+01 -0.1891740659291162E+01 -0.1891474977154433E+01 -0.1891209294137102E+01
 -0.1890943610280024E+01 -0.1890677925623959E+01 -0.1890412240209564E+01 -0.1890146554077400E+01 -0.1889880867267927E+01
 -0.1889615179821510E+01 -0.1889349491778411E+01 -0.1889083803178798E+01 -0.1888818114062742E+01 -0.1888552424470212E+01
 -0.1888286734441085E+01 -0.1888021044015138E+01 -0.1887755353232053E+01 -0.1887489662131414E+01 -0.1887223970752712E+01
 -0.1886958279135339E+01 -0.1886692587318593E+01 -0.1886426895341677E+01 -0.1886161203243697E+01 -0.1885895511063666E+01
 -0.1885629818840503E+01 -0.1885364126613030E+01 -0.1885098434419977E+01 -0.1884832742299981E+01 -0.1884567050291583E+01
 -0.1884301358433233E+01 -0.1884035666763285E+01 -0.1883769975320003E+01 -0.1883504284141556E+01 -0.1883238593266024E+01
 -0.1882972902731392E+01 -0.1882707212575554E+01 -0.1882441522836311E+01 -0.1882175833551375E+01 -0.1881910144758366E+01
 -0.1881644456494812E+01 -0.1881378768798151E+01 -0.1881113081705732E+01 -0.1880847395254810E+01 -0.1880581709482555E+01
 -0.1880316024426043E+01 -0.1880050340122263E+01 -0.1879784656608112E+01 -0.1879518973920403E+01 -0.1879253292095855E+01
 -0.1878987611171100E+01 -0.1878721931182683E+01 -0.1878456252167059E+01 -0.1878190574160596E+01 -0.1877924897199575E+01
 -0.1877659221320188E+01 -0.1877393546558542E+01 -0.1877127872950654E+01 -0.1876862200532456E+01 -0.1876596529339793E+01
 -0.1876330859408426E+01 -0.1876065190774025E+01 -0.1875799523472178E+01 -0.1875533857538388E+01 -0.1875268193008067E+01
 -0.1875002529916549E+01 -0.1874736868299078E+01 -0.1874471208190815E+01 -0.1874205549626836E+01 -0.1873939892642133E+01
 -0.1873674237271614E+01 -0.1873408583550102E+01 -0.1873142931512337E+01 -0.1872877281192977E+01 -0.1872611632626595E+01
 -0.1872345985847680E+01 -0.1872080340890639E+01 -0.1871814697789799E+01 -0.1871549056579401E+01 -0.1871283417293605E+01
 -0.1871017779966489E+01 -0.1870752144632051E+01 -0.1870486511324203E+01 -0.1870220880076780E+01 -0.1869955250923534E+01
 -0.1869689623898136E+01 -0.1869423999034176E+01 -0.1869158376365165E+01 -0.1868892755924533E+01 -0.1868627137745627E+01
 -0.1868361521861718E+01 -0.1868095908305996E+01 -0.1867830297111571E+01 -0.1867564688311474E+01 -0.1867299081938657E+01
 -0.1867033478025991E+01 -0.1866767876606273E+01 -0.1866502277712217E+01 -0.1866236681376459E+01 -0.1865971087631561E+01
 -0.1865705496510003E+01 -0.1865439908044188E+01 -0.1865174322266443E+01 -0.1864908739209015E+01 -0.1864643158904077E+01
 -0.1864377581383723E+01 -0.1864112006679972E+01 -0.1863846434824763E+01 -0.1863580865849962E+01 -0.1863315299787358E+01
 -0.1863049736668664E+01 -0.1862784176525516E+01 -0.1862518619389476E+01 -0.1862253065292030E+01 -0.1861987514264589E+01
 -0.1861721966338488E+01 -0.1861456421544989E+01 -0.1861190879915277E+01 -0.1860925341480465E+01 -0.1860659806271590E+01
 -0.1860394274319615E+01 -0.1860128745655431E+01 -0.1859863220309852E+01 -0.1859597698313622E+01 -0.1859332179697409E+01
 -0.1859066664491809E+01 -0.1858801152727346E+01 -0.1858535644434469E+01 -0.1858270139643555E+01 -0.1858004638384911E+01
 -0.1857739140688768E+01 -0.1857473646585287E+01 -0.1857208156104559E+01 -0.1856942669276598E+01 -0.1856677186131352E+01
 -0.1856411706698694E+01 -0.1856146231008429E+01 -0.1855880759090287E+01 -0.1855615290973931E+01 -0.1855349826688952E+01
 -0.1855084366264869E+01 -0.1854818909731132E+01 -0.1854553457117122E+01 -0.1854288008452149E+01 -0.1854022563765453E+01
 -0.1853757123086204E+01 -0.1853491686443505E+01 -0.1853226253866386E+01 -0.1852960825383811E+01 -0.1852695401024675E+01
 -0.1852429980817802E+01 -0.1852164564791949E+01 -0.1851899152975805E+01 -0.1851633745397991E+01 -0.1851368342087057E+01
 -0.1851102943071490E+01 -0.1850837548379705E+01 -0.1850572158040052E+01 -0.1850306772080812E+01 -0.1850041390530200E+01
 -0.1849776013416364E+01 -0.1849510640767384E+01 -0.1849245272611275E+01 -0.1848979908975984E+01 -0.1848714549889392E+01
 -0.1848449195379313E+01 -0.1848183845473497E+01 -0.1847918500199627E+01 -0.1847653159585320E+01 -0.1847387823658128E+01
 -0.1847122492445537E+01 -0.1846857165974969E+01 -0.1846591844273779E+01 -0.1846326527369259E+01 -0.1846061215288635E+01
 -0.1845795908059069E+01 -0.1845530605707658E+01 -0.1845265308261435E+01 -0.1845000015747370E+01 -0.1844734728192368E+01
 -0.1844469445623269E+01 -0.1844204168066852E+01 -0.1843938895549831E+01 -0.1843673628098856E+01 -0.1843408365740516E+01
 -0.1843143108501334E+01 -0.1842877856407773E+01 -0.1842612609486233E+01 -0.1842347367763048E+01 -0.1842082131264494E+01
 -0.1841816900016783E+01 -0.1841551674046063E+01 -0.1841286453378424E+01 -0.1841021238039892E+01 -0.1840756028056430E+01
 -0.1840490823453941E+01 -0.1840225624258269E+01 -0.1839960430495192E+01 -0.1839695242190430E+01 -0.1839430059369641E+01
 -0.1839164882058425E+01 -0.1838899710282317E+01 -0.1838634544066795E+01 -0.1838369383437275E+01 -0.1838104228419112E+01
 -0.1837839079037606E+01 -0.1837573935317989E+01 -0.1837308797285441E+01 -0.1837043664965077E+01 -0.1836778538381957E+01
 -0.1836513417561077E+01 -0.1836248302527379E+01 -0.1835983193305741E+01 -0.1835718089920986E+01 -0.1835452992397876E+01
 -0.1835187900761117E+01 -0.1834922815035352E+01 -0.1834657735245172E+01 -0.1834392661415103E+01 -0.1834127593569618E+01
  0.5080361252664051E+02  0.5080361252664051E+02  0.5080361252664051E+02  0.5080361252664051E+02  0.5080361252664051E+02
  0.5080361252664051E+02  0.5080361252664051E+02  0.5080361252664051E+02  0.5080361252664051E+02  0.5080361252664051E+02
  0.5080361252664051E+02  0.5080361252664051E+02  0.5080361252664051E+02  0.5080361252664051E+02  0.5080361252664051E+02
  0.5080361252664051E+02  0.5080361252664051E+02  0.5080361252664051E+02  0.5080361252664051E+02  0.5080361252664051E+02
  0.5080361252664051E+02  0.5080361252664051E+02  0.5080361252664051E+02  0.5080361252664051E+02  0.5080361252664051E+02
  0.5080361252664051E+02  0.5080361252664051E+02  0.5080361252664051E+02  0.5080361252664051E+02  0.5080361252664051E+02
  0.5080361252664051E+02  0.5080361252664051E+02  0.5080361252664051E+02  0.5080361252664051E+02  0.5080361252664051E+02
  0.5080361252664051E+02  0.5080361252664051E+02  0.5080361252664051E+02  0.5080361252664051E+02  0.5080361252664051E+02
  0.5080361252664051E+02  0.5080361252664051E+02  0.5080361252664051E+02  0.5080361252664051E+02  0.5080361252664051E+02
  0.5080361252664051E+02  0.5080361252664051E+02  0.5080361252664051E+02  0.5080361252664051E+02  0.5080361252664051E+02
  0.5080361252664051E+02  0.5080361252664051E+02  0.5080361252664051E+02  0.5080361252664051E+02  0.5080361252664051E+02
  0.5080361252664051E+02  0.5080361252664051E+02  0.5080361252664051E+02  0.5080361252664051E+02  0.5080361252664051E+02
  0.5080361252664051E+02  0.5080361252664051E+02  0.5080361252664051E+02  0.5080361252664051E+02  0.5080361252664051E+02
  0.5080361252664051E+02  0.5080361252664051E+02  0.5080361252664051E+02  0.5080361252664051E+02  0.5080361252664051E+02
  0.5080361252664051E+02  0.5080361252664051E+02  0.5080361252664051E+02  0.5080361252664051E+02  0.5080361252664051E+02
  0.5080361252664051E+02  0.5080361252664051E+02  0.5080361252664051E+02  0.5080361252664051E+02  0.5080361252664051E+02
  0.5080361252664051E+02  0.5080361252664051E+02  0.5080361252664051E+02  0.5080361252664051E+02  0.5080361252664051E+02
  0.5080361252664051E+02  0.5080361252664051E+02  0.5080361252664051E+02  0.5080361252664051E+02  0.5080361252664051E+02
  0.5080361252664051E+02  0.5080361252664051E+02  0.5080361252664051E+02  0.5080361252664051E+02  0.5080361252664051E+02
  0.5080361252664051E+02  0.5080361252664051E+02  0.5080361252664051E+02  0.5080361252664051E+02  0.5080361252664051E+02
  0.5080361252664051E+02  0.5080361252664051E+02  0.5080361252664051E+02  0.5080361252664051E+02  0.5080361252664051E+02
  0.5080361252664051E+02  0.5080361252664051E+02  0.5080361252664051E+02  0.5080361252664051E+02  0.5080361252664051E+02
  0.5080361252664051E+02  0.5080361252664051E+02  0.5080361252664051E+02  0.5080361252664051E+02  0.5080361252664051E+02
  0.5080361252664051E+02  0.5080361252664051E+02  0.5080361252664051E+02  0.5080361252664051E+02  0.5080361252664051E+02
  0.5080361252664051E+02  0.5080361252664051E+02  0.5080361252664051E+02  0.5080361252664051E+02  0.5080361252664051E+02
  0.5080361252664051E+02  0.5080361252664051E+02  0.5080361252664051E+02  0.5080361252664051E+02  0.5080361252664051E+02
  0.5080361252664051E+02  0.5080361252664051E+02  0.5080361252664051E+02  0.5080361252664051E+02  0.5080361252664051E+02
  0.5080361252664051E+02  0.5080361252664051E+02  0.5080361252664051E+02  0.5080361252664051E+02  0.5080361252664051E+02
  0.5080361252664051E+02  0.5080361252664051E+02  0.5080361252664051E+02  0.5080361252664051E+02  0.5080361252664051E+02
  0.5080361252664051E+02  0.5080361252664051E+02  0.5080361252664051E+02  0.5080361252664051E+02  0.5080361252664051E+02
  0.5080361252664051E+02  0.5080361252664051E+02  0.5080361252664051E+02  0.5080361252664051E+02  0.5080361252664051E+02
  0.5080361252664051E+02  0.5080361252664051E+02  0.5080361252664051E+02  0.5080361252664051E+02  0.5080361252664051E+02
  0.5080361252664051E+02  0.5080361252664051E+02  0.5080361252664051E+02  0.5080361252664051E+02  0.5080361252664051E+02
  0.5080361252664051E+02  0.5080361252664051E+02  0.5080361252664051E+02  0.5080361252664051E+02  0.5080361252664051E+02
  0.5080361252664051E+02  0.5080361252664051E+02  0.5080361252664051E+02  0.5080361252664051E+02  0.5080361252664051E+02
  0.5077101774745253E+02  0.5052545375558655E+02  0.5028107678879709E+02  0.5003788113691867E+02  0.4979586111618832E+02
  0.4955501106916284E+02  0.4931532536463521E+02  0.4907679839754915E+02  0.4883942458891332E+02  0.4860319838571411E+02
  0.4836811426082754E+02  0.4813416671293038E+02  0.4790135026641011E+02  0.4766965947127446E+02  0.4743908890305984E+02
  0.4720963316273915E+02  0.4698128687662913E+02  0.4675404469629666E+02  0.4652790129846488E+02  0.4630285138491837E+02
  0.4607888968240818E+02  0.4585601094255606E+02  0.4563420994175836E+02  0.4541348148108973E+02  0.4519382038620593E+02
  0.4497522150724690E+02  0.4475767971873888E+02  0.4454118991949689E+02  0.4432574703252634E+02  0.4411134600492481E+02
  0.4389798180778347E+02  0.4368564943608835E+02  0.4347434390862136E+02  0.4326406026786125E+02  0.4305479357988450E+02
  0.4284653893426606E+02  0.4263929144397990E+02  0.4243304624529980E+02  0.4222779849769972E+02  0.4202354338375459E+02
  0.4182027610904064E+02  0.4161799190203621E+02  0.4141668601402215E+02  0.4121635371898264E+02  0.4101699031350590E+02
  0.4081859111668496E+02  0.4062115147001862E+02  0.4042466673731238E+02  0.4022913230457976E+02  0.4003454357994335E+02
  0.3984089599353648E+02  0.3964818499740452E+02  0.3945640606540690E+02  0.3926555469311879E+02  0.3907562639773342E+02
  0.3888661671796429E+02  0.3869852121394766E+02  0.3851133546714531E+02  0.3832505508024758E+02  0.3813967567707644E+02
  0.3795519290248897E+02  0.3777160242228108E+02  0.3758889992309131E+02  0.3740708111230522E+02  0.3722614171795968E+02
  0.3704607748864771E+02  0.3686688419342335E+02  0.3668855762170718E+02  0.3651109358319164E+02  0.3633448790774725E+02
  0.3615873644532834E+02  0.3598383506587997E+02  0.3580977965924441E+02  0.3563656613506852E+02  0.3546419042271084E+02
  0.3529264847114960E+02  0.3512193624889065E+02  0.3495204974387590E+02  0.3478298496339200E+02  0.3461473793397939E+02
  0.3444730470134174E+02  0.3428068133025549E+02  0.3411486390448021E+02  0.3394984852666871E+02  0.3378563131827791E+02
  0.3362220841947987E+02  0.3345957598907333E+02  0.3329773020439537E+02  0.3313666726123360E+02  0.3297638337373861E+02
  0.3281687477433681E+02  0.3265813771364366E+02  0.3250016846037716E+02  0.3234296330127173E+02  0.3218651854099254E+02
  0.3203083050205000E+02  0.3187589552471483E+02  0.3172170996693337E+02  0.3156827020424317E+02  0.3141557262968914E+02
  0.3126361365373986E+02  0.3111238970420445E+02  0.3096189722614949E+02  0.3081213268181672E+02  0.3066309255054070E+02
  0.3051477332866709E+02  0.3036717152947116E+02  0.3022028368307679E+02  0.3007410633637554E+02  0.2992863605294648E+02
  0.2978386941297606E+02  0.2963980301317850E+02  0.2949643346671643E+02  0.2935375740312192E+02  0.2921177146821806E+02
  0.2907047232404054E+02  0.2892985664875979E+02  0.2878992113660349E+02  0.2865066249777940E+02  0.2851207745839850E+02
  0.2837416276039856E+02  0.2823691516146793E+02  0.2810033143496985E+02  0.2796440836986693E+02  0.2782914277064620E+02
  0.2769453145724423E+02  0.2756057126497287E+02  0.2742725904444506E+02  0.2729459166150130E+02  0.2716256599713615E+02
  0.2703117894742531E+02  0.2690042742345285E+02  0.2677030835123896E+02  0.2664081867166788E+02  0.2651195534041630E+02
  0.2638371532788204E+02  0.2625609561911294E+02  0.2612909321373635E+02  0.2600270512588871E+02  0.2587692838414563E+02
  0.2575176003145211E+02  0.2562719712505333E+02  0.2550323673642557E+02  0.2537987595120756E+02  0.2525711186913207E+02
  0.2513494160395797E+02  0.2501336228340243E+02  0.2489237104907354E+02  0.2477196505640332E+02  0.2465214147458092E+02
  0.2453289748648612E+02  0.2441423028862329E+02  0.2429613709105564E+02  0.2417861511733958E+02  0.2406166160445968E+02
  0.2394527380276370E+02  0.2382944897589815E+02  0.2371418440074391E+02  0.2359947736735243E+02  0.2348532517888193E+02
  0.2337172515153423E+02  0.2325867461449162E+02  0.2314617090985418E+02  0.2303421139257733E+02  0.2292279343040974E+02
  0.2281191440383142E+02  0.2270157170599229E+02  0.2259176274265089E+02  0.2248248493211342E+02  0.2237373570517314E+02
  0.2226551250504993E+02  0.2215781278733035E+02  0.2205063401990771E+02  0.2194397368292272E+02  0.2183782926870413E+02
  0.2173219828170992E+02  0.2162707823846866E+02  0.2152246666752108E+02  0.2141836110936206E+02  0.2131475911638277E+02
  0.2121165825281324E+02  0.2110905609466502E+02  0.2100695022967429E+02  0.2090533825724513E+02  0.2080421778839308E+02
  0.2070358644568907E+02  0.2060344186320350E+02  0.2050378168645057E+02  0.2040460357233306E+02  0.2030590518908718E+02
  0.2020768421622776E+02  0.2010993834449378E+02  0.2001266527579404E+02  0.1991586272315309E+02  0.1981952841065756E+02
  0.1972366007340267E+02  0.1962825545743893E+02  0.1953331231971914E+02  0.1943882842804577E+02  0.1934480156101839E+02
  0.1925122950798151E+02  0.1915811006897257E+02  0.1906544105467025E+02  0.1897322028634303E+02  0.1888144559579791E+02
  0.1879011482532948E+02  0.1869922582766921E+02  0.1860877646593495E+02  0.1851876461358068E+02  0.1842918815434656E+02
  0.1834004498220916E+02  0.1825133300133193E+02  0.1816305012601596E+02  0.1807519428065093E+02  0.1798776339966633E+02
  0.1790075542748290E+02  0.1781416831846425E+02  0.1772800003686887E+02  0.1764224855680216E+02  0.1755691186216894E+02
  0.1747198794662590E+02  0.1738747481353451E+02  0.1730337047591409E+02  0.1721967295639509E+02  0.1713638028717256E+02
  0.1705349050995995E+02  0.1697100167594301E+02  0.1688891184573404E+02  0.1680721908932622E+02  0.1672592148604829E+02
  0.1664501712451940E+02  0.1656450410260410E+02  0.1648438052736773E+02  0.1640464451503180E+02  0.1632529419092984E+02
  0.1624632768946315E+02  0.1616774315405713E+02  0.1608953873711746E+02  0.1601171259998679E+02  0.1593426291290144E+02
  0.1585718785494840E+02  0.1578048561402253E+02  0.1570415438678397E+02  0.1562819237861570E+02  0.1555259780358134E+02
  0.1547736888438326E+02  0.1540250385232064E+02  0.1532800094724808E+02  0.1525385841753402E+02  0.1518007452001968E+02
  0.1510664751997803E+02  0.1503357569107308E+02  0.1496085731531915E+02  0.1488849068304063E+02  0.1481647409283165E+02
  0.1474480585151623E+02  0.1467348427410831E+02  0.1460250768377228E+02  0.1453187441178342E+02  0.1446158279748878E+02
  0.1439163118826809E+02  0.1432201793949489E+02  0.1425274141449790E+02  0.1418379998452252E+02  0.1411519202869252E+02
  0.1404691593397197E+02  0.1397897009512731E+02  0.1391135291468955E+02  0.1384406280291681E+02  0.1377709817775684E+02
  0.1371045746480994E+02  0.1364413909729183E+02  0.1357814151599689E+02  0.1351246316926147E+02  0.1344710251292742E+02
  0.1338205801030577E+02  0.1331732813214063E+02  0.1325291135657322E+02  0.1318880616910605E+02  0.1312501106256742E+02
  0.1306152453707583E+02  0.1299834510000489E+02  0.1293547126594808E+02  0.1287290155668391E+02  0.1281063450114113E+02
  0.1274866863536417E+02  0.1268700250247870E+02  0.1262563465265740E+02  0.1256456364308582E+02  0.1250378803792853E+02
  0.1244330640829532E+02  0.1238311733220761E+02  0.1232321939456504E+02  0.1226361118711213E+02  0.1220429130840530E+02
  0.1214525836377976E+02  0.1208651096531689E+02  0.1202804773181144E+02  0.1196986728873918E+02  0.1191196826822455E+02
  0.1185434930900847E+02  0.1179700905641637E+02  0.1173994616232633E+02  0.1168315928513737E+02  0.1162664708973794E+02
  0.1157040824747448E+02  0.1151444143612025E+02  0.1145874533984418E+02  0.1140331864917997E+02  0.1134816006099529E+02
  0.1129326827846115E+02  0.1123864201102139E+02  0.1118427997436238E+02  0.1113018089038277E+02  0.1107634348716349E+02
  0.1102276649893781E+02  0.1096944866606160E+02  0.1091638873498372E+02  0.1086358545821652E+02  0.1081103759430654E+02
  0.1075874390780532E+02  0.1070670316924030E+02  0.1065491415508602E+02  0.1060337564773525E+02  0.1055208643547041E+02
  0.1050104531243510E+02  0.1045025107860569E+02  0.1039970253976316E+02  0.1034939850746501E+02  0.1029933779901730E+02
  0.1024951923744687E+02  0.1019994165147364E+02  0.1015060387548311E+02  0.1010150474949891E+02  0.1005264311915555E+02
  0.1000401783567131E+02  0.9955627755821153E+01  0.9907471741909950E+01  0.9859548661745636E+01  0.9811857388612642E+01
  0.9764396801245413E+01  0.9717165783801995E+01  0.9670163225837866E+01  0.9623388022279775E+01  0.9576839073399793E+01
  0.9530515284789438E+01  0.9484415567333956E+01  0.9438538837186712E+01  0.9392884015743709E+01  0.9347450029618216E+01
  0.9302235810615560E+01  0.9257240295707987E+01  0.9212462427009664E+01  0.9167901151751842E+01  0.9123555422258072E+01
  0.9079424195919573E+01  0.9035506435170754E+01  0.8991801107464779E+01  0.8948307185249302E+01  0.8905023645942336E+01
  0.8861949471908165E+01  0.8819083650433461E+01  0.8776425173703446E+01  0.8733973038778210E+01  0.8691726247569129E+01
  0.8649683806815389E+01  0.8607844728060662E+01  0.8566208027629829E+01  0.8524772726605878E+01  0.8483537850806879E+01
  0.8442502430763092E+01  0.8401665501694149E+01  0.8361026103486408E+01  0.8320583280670329E+01  0.8280336082398073E+01
  0.8240283562421086E+01  0.8200424779067900E+01  0.8160758795221955E+01  0.8121284678299602E+01  0.8082001500228145E+01
  0.8042908337424040E+01  0.8004004270771173E+01  0.7965288385599266E+01  0.7926759771662348E+01  0.7888417523117368E+01
  0.7850260738502904E+01  0.7812288520717948E+01  0.7774499977000845E+01  0.7736894218908266E+01  0.7699470362294361E+01
  0.7662227527289925E+01  0.7625164838281767E+01  0.7588281423892068E+01  0.7551576416957927E+01  0.7515048954510977E+01
  0.7478698177757070E+01  0.7442523232056110E+01  0.7406523266901945E+01  0.7370697435902381E+01  0.7335044896759271E+01
  0.7299564811248728E+01  0.7264256345201396E+01  0.7229118668482863E+01  0.7194150954974119E+01  0.7159352382552155E+01
  0.7124722133070616E+01  0.7090259392340576E+01  0.7055963350111397E+01  0.7021833200051675E+01  0.6987868139730272E+01
  0.6954067370597479E+01  0.6920430097966212E+01  0.6886955530993339E+01  0.6853642882661098E+01  0.6820491369758567E+01
  0.6787500212863280E+01  0.6754668636322877E+01  0.6721995868236890E+01  0.6689481140438573E+01  0.6657123688476854E+01
  0.6624922751598366E+01  0.6592877572729546E+01  0.6560987398458857E+01  0.6529251479019047E+01  0.6497669068269554E+01
  0.6466239423678926E+01  0.6434961806307405E+01  0.6403835480789513E+01  0.6372859715316796E+01  0.6342033781620596E+01
  0.6311356954954946E+01  0.6280828514079511E+01  0.6250447741242652E+01  0.6220213922164538E+01  0.6190126346020351E+01
  0.6160184305423583E+01  0.6130387096409403E+01  0.6100734018418096E+01  0.6071224374278603E+01  0.6041857470192131E+01
  0.6012632615715826E+01  0.5983549123746564E+01  0.5954606310504770E+01  0.5925803495518367E+01  0.5897140001606750E+01
  0.5868615154864901E+01  0.5840228284647505E+01  0.5811978723553209E+01  0.5783865807408929E+01  0.5755888875254218E+01
  0.5728047269325748E+01  0.5700340335041827E+01  0.5672767420987022E+01  0.5645327878896831E+01  0.5618021063642462E+01
  0.5590846333215638E+01  0.5563803048713530E+01  0.5536890574323713E+01  0.5510108277309237E+01  0.5483455527993734E+01
  0.5456931699746622E+01  0.5430536168968380E+01  0.5404268315075868E+01  0.5378127520487748E+01  0.5352113170609969E+01
  0.5326224653821306E+01  0.5300461361458986E+01  0.5274822687804380E+01  0.5249308030068753E+01  0.5223916788379107E+01
  0.5198648365764059E+01  0.5173502168139823E+01  0.5148477604296229E+01  0.5123574085882828E+01  0.5098791027395070E+01
  0.5074127846160512E+01  0.5049583962325154E+01  0.5025158798839770E+01  0.5000851781446371E+01  0.4976662338664680E+01
  0.4952589901778722E+01  0.4928633904823418E+01  0.4904793784571318E+01  0.4881068980519325E+01  0.4857458934875542E+01
  0.4833963092546139E+01  0.4810580901122318E+01  0.4787311810867313E+01  0.4764155274703469E+01  0.4741110748199390E+01
  0.4718177689557120E+01  0.4695355559599417E+01  0.4672643821757075E+01  0.4650041942056312E+01  0.4627549389106203E+01
  0.4605165634086204E+01  0.4582890150733704E+01  0.4560722415331663E+01  0.4538661906696286E+01  0.4516708106164789E+01
  0.4494860497583185E+01  0.4473118567294158E+01  0.4451481804124990E+01  0.4429949699375532E+01  0.4408521746806259E+01
  0.4387197442626349E+01  0.4365976285481859E+01  0.4344857776443918E+01  0.4323841418997015E+01  0.4302926719027307E+01
  0.4282113184811021E+01  0.4261400327002877E+01  0.4240787658624594E+01  0.4220274695053433E+01  0.4199860954010807E+01
  0.4179545955550942E+01  0.4159329222049596E+01  0.4139210278192820E+01  0.4119188650965796E+01  0.4099263869641704E+01
  0.4079435465770661E+01  0.4059702973168710E+01  0.4040065927906848E+01  0.4020523868300138E+01  0.4001076334896831E+01
  0.3981722870467586E+01  0.3962463019994701E+01  0.3943296330661432E+01  0.3924222351841329E+01  0.3905240635087661E+01
  0.3886350734122856E+01  0.3867552204828027E+01  0.3848844605232498E+01  0.3830227495503451E+01  0.3811700437935562E+01
  0.3793262996940720E+01  0.3774914739037771E+01  0.3756655232842348E+01  0.3738484049056717E+01  0.3720400760459678E+01
  0.3702404941896532E+01  0.3684496170269083E+01  0.3666674024525685E+01  0.3648938085651344E+01  0.3631287936657874E+01
  0.3613723162574084E+01  0.3596243350436029E+01  0.3578848089277292E+01  0.3561536970119328E+01  0.3544309585961852E+01
  0.3527165531773266E+01  0.3510104404481126E+01  0.3493125802962687E+01  0.3476229328035460E+01  0.3459414582447814E+01
  0.3442681170869664E+01  0.3426028699883158E+01  0.3409456777973433E+01  0.3392965015519402E+01  0.3376553024784607E+01
  0.3360220419908094E+01  0.3343966816895347E+01  0.3327791833609247E+01  0.3311695089761106E+01  0.3295676206901712E+01
  0.3279734808412442E+01  0.3263870519496392E+01  0.3248082967169585E+01  0.3232371780252183E+01  0.3216736589359774E+01
  0.3201177026894682E+01  0.3185692727037323E+01  0.3170283325737606E+01  0.3154948460706376E+01  0.3139687771406890E+01
  0.3124500899046347E+01  0.3109387486567454E+01  0.3094347178640017E+01  0.3079379621652606E+01  0.3064484463704228E+01
  0.3049661354596064E+01  0.3034909945823218E+01  0.3020229890566543E+01  0.3005620843684481E+01  0.2991082461704935E+01
  0.2976614402817215E+01  0.2962216326863987E+01  0.2947887895333283E+01  0.2933628771350533E+01  0.2919438619670657E+01
  0.2905317106670175E+01  0.2891263900339368E+01  0.2877278670274462E+01  0.2863361087669874E+01  0.2849510825310476E+01
  0.2835727557563893E+01  0.2822010960372861E+01  0.2808360711247603E+01  0.2794776489258241E+01  0.2781257975027259E+01
  0.2767804850721987E+01  0.2754416800047135E+01  0.2741093508237358E+01  0.2727834662049841E+01  0.2714639949756952E+01
  0.2701509061138905E+01  0.2688441687476468E+01  0.2675437521543697E+01  0.2662496257600727E+01  0.2649617591386578E+01
  0.2636801220111990E+01  0.2624046842452322E+01  0.2611354158540459E+01  0.2598722869959764E+01  0.2586152679737054E+01
  0.2573643292335630E+01  0.2561194413648323E+01  0.2548805750990578E+01  0.2536477013093573E+01  0.2524207910097372E+01
  0.2511998153544116E+01  0.2499847456371225E+01  0.2487755532904668E+01  0.2475722098852235E+01  0.2463746871296856E+01
  0.2451829568689946E+01  0.2439969910844793E+01  0.2428167618929964E+01  0.2416422415462753E+01  0.2404734024302654E+01
  0.2393102170644870E+01  0.2381526581013855E+01  0.2370006983256884E+01  0.2358543106537643E+01  0.2347134681329879E+01
  0.2335781439411056E+01  0.2324483113856040E+01  0.2313239439030836E+01  0.2302050150586338E+01  0.2290914985452114E+01
  0.2279833681830218E+01  0.2268805979189039E+01  0.2257831618257175E+01  0.2246910341017337E+01  0.2236041890700278E+01
  0.2225226011778765E+01  0.2214462449961566E+01  0.2203750952187472E+01  0.2193091266619343E+01  0.2182483142638199E+01
  0.2171926330837315E+01  0.2161420583016363E+01  0.2150965652175578E+01  0.2140561292509947E+01  0.2130207259403433E+01
  0.2119903309423222E+01  0.2109649200313997E+01  0.2099444690992252E+01  0.2089289541540616E+01  0.2079183513202207E+01
  0.2069126368375033E+01  0.2059117870606396E+01  0.2049157784587334E+01  0.2039245876147089E+01  0.2029381912247605E+01
  0.2019565660978045E+01  0.2009796891549337E+01  0.2000075374288753E+01  0.1990400880634506E+01  0.1980773183130382E+01
  0.1971192055420377E+01  0.1961657272243395E+01  0.1952168609427938E+01  0.1942725843886843E+01  0.1933328753612029E+01
  0.1923977117669287E+01  0.1914670716193081E+01  0.1905409330381374E+01  0.1896192742490495E+01  0.1887020735830007E+01
  0.1877893094757624E+01  0.1868809604674133E+01  0.1859770052018350E+01  0.1850774224262103E+01  0.1841821909905233E+01
  0.1832912898470616E+01  0.1824046980499224E+01  0.1815223947545193E+01  0.1806443592170931E+01  0.1797705707942226E+01
  0.1789010089423407E+01  0.1780356532172510E+01  0.1771744832736465E+01  0.1763174788646321E+01  0.1754646198412482E+01
  0.1746158861519972E+01  0.1737712578423713E+01  0.1729307150543845E+01  0.1720942380261050E+01  0.1712618070911908E+01
  0.1704334026784269E+01  0.1696090053112660E+01  0.1687885956073701E+01  0.1679721542781542E+01  0.1671596621283342E+01
  0.1663511000554744E+01  0.1655464490495390E+01  0.1647456901924447E+01  0.1639488046576166E+01  0.1631557737095446E+01
  0.1623665787033442E+01  0.1615812010843167E+01  0.1607996223875140E+01  0.1600218242373042E+01  0.1592477883469396E+01
  0.1584774965181262E+01  0.1577109306405967E+01  0.1569480726916845E+01  0.1561889047358992E+01  0.1554334089245062E+01
  0.1546815674951057E+01  0.1539333627712165E+01  0.1531887771618591E+01  0.1524477931611430E+01  0.1517103933478545E+01
  0.1509765603850481E+01  0.1502462770196372E+01  0.1495195260819905E+01  0.1487962904855267E+01  0.1480765532263136E+01
  0.1473602973826678E+01  0.1466475061147579E+01  0.1459381626642072E+01  0.1452322503537003E+01  0.1445297525865914E+01
  0.1438306528465138E+01  0.1431349346969911E+01  0.1424425817810514E+01  0.1417535778208426E+01  0.1410679066172496E+01
  0.1403855520495133E+01  0.1397064980748518E+01  0.1390307287280832E+01  0.1383582281212505E+01  0.1376889804432469E+01
  0.1370229699594459E+01  0.1363601810113297E+01  0.1357005980161222E+01  0.1350442054664218E+01  0.1343909879298374E+01
  0.1337409300486254E+01  0.1330940165393285E+01  0.1324502321924163E+01  0.1318095618719279E+01  0.1311719905151163E+01
  0.1305375031320937E+01  0.1299060848054792E+01  0.1292777206900482E+01  0.1286523960123841E+01  0.1280300960705289E+01
  0.1274108062336401E+01  0.1267945119416448E+01  0.1261811987048986E+01  0.1255708521038437E+01  0.1249634577886712E+01
  0.1243590014789827E+01  0.1237574689634554E+01  0.1231588460995068E+01  0.1225631188129638E+01  0.1219702730977302E+01
  0.1213802950154585E+01  0.1207931706952216E+01  0.1202088863331873E+01  0.1196274281922928E+01  0.1190487826019227E+01
  0.1184729359575868E+01  0.1178998747206008E+01  0.1173295854177680E+01  0.1167620546410620E+01  0.1161972690473118E+01
  0.1156352153578880E+01  0.1150758803583913E+01  0.1145192508983401E+01  0.1139653138908632E+01  0.1134140563123912E+01
  0.1128654652023501E+01  0.1123195276628568E+01  0.1117762308584166E+01  0.1112355620156201E+01  0.1106975084228436E+01
  0.1101620574299503E+01  0.1096291964479928E+01  0.1090989129489168E+01  0.1085711944652670E+01  0.1080460285898935E+01
  0.1075234029756605E+01  0.1070033053351560E+01  0.1064857234404023E+01  0.1059706451225693E+01  0.1054580582716878E+01
  0.1049479508363650E+01  0.1044403108235014E+01  0.1039351262980081E+01  0.1034323853825270E+01  0.1029320762571510E+01
  0.1024341871591461E+01  0.1019387063826755E+01  0.1014456222785231E+01  0.1009549232538211E+01  0.1004665977717758E+01
  0.9998063435139836E+00  0.9949702156723238E+00  0.9901574804908759E+00  0.9853680248177091E+00  0.9806017360482141E+00
  0.9758585021224448E+00  0.9711382115224958E+00  0.9664407532698694E+00  0.9617660169228752E+00  0.9571138925740220E+00
  0.9524842708474474E+00  0.9478770428963329E+00  0.9432921004003560E+00  0.9387293355631303E+00  0.9341886411096840E+00
  0.9296699102839282E+00  0.9251730368461502E+00  0.9206979150705142E+00  0.9162444397425756E+00  0.9118125061568085E+00
  0.9074020101141401E+00  0.9030128479195025E+00  0.8986449163793934E+00  0.8942981127994527E+00  0.8899723349820395E+00
  0.8856674812238390E+00  0.8813834503134630E+00  0.8771201415290730E+00  0.8728774546360107E+00  0.8686552898844421E+00
  0.8644535480070091E+00  0.8602721302164965E+00  0.8561109382035079E+00  0.8519698741341568E+00  0.8478488406477597E+00
  0.8437477408545505E+00  0.8396664783334004E+00  0.8356049571295523E+00  0.8315630817523587E+00  0.8275407571730411E+00
  0.8235378888224500E+00  0.8195543825888478E+00  0.8155901448156831E+00  0.8116450822994014E+00  0.8077191022872419E+00
  0.8038121124750607E+00  0.7999240210051587E+00  0.7960547364641192E+00  0.7922041678806601E+00  0.7883722247234910E+00
  0.7845588168991837E+00  0.7807638547500534E+00  0.7769872490520505E+00  0.7732289110126573E+00  0.7694887522688024E+00
  0.7657666848847791E+00  0.7620626213501801E+00  0.7583764745778302E+00  0.7547081579017479E+00  0.7510575850750953E+00
  0.7474246702681570E+00  0.7438093280663108E+00  0.7402114734680281E+00  0.7366310218828633E+00  0.7330678891294713E+00
  0.7295219914336160E+00  0.7259932454262089E+00  0.7224815681413381E+00  0.7189868770143198E+00  0.7155090898797508E+00
  0.7120481249695789E+00  0.7086039009111718E+00  0.7051763367254038E+00  0.7017653518247494E+00  0.6983708660113825E+00
  0.6949927994752925E+00  0.6916310727923983E+00  0.6882856069226811E+00  0.6849563232083213E+00  0.6816431433718479E+00
  0.6783459895142877E+00  0.6750647841133377E+00  0.6717994500215323E+00  0.6685499104644279E+00  0.6653160890387916E+00
  0.6620979097108036E+00  0.6588952968142607E+00  0.6557081750487942E+00  0.6525364694780941E+00  0.6493801055281440E+00
  0.6462390089854585E+00  0.6431131059953356E+00  0.6400023230601130E+00  0.6369065870374374E+00  0.6338258251385317E+00
  0.6307599649264862E+00  0.6277089343145417E+00  0.6246726615643913E+00  0.6216510752844863E+00  0.6186441044283514E+00
  0.6156516782929046E+00  0.6126737265167891E+00  0.6097101790787109E+00  0.6067609662957834E+00  0.6038260188218835E+00
  0.6009052676460086E+00  0.5979986440906485E+00  0.5951060798101593E+00  0.5922275067891510E+00  0.5893628573408713E+00
  0.5865120641056136E+00  0.5836750600491151E+00  0.5808517784609764E+00  0.5780421529530753E+00  0.5752461174580026E+00
  0.5724636062274907E+00  0.5696945538308612E+00  0.5669388951534678E+00  0.5641965653951615E+00  0.5614675000687451E+00
  0.5587516349984525E+00  0.5560489063184170E+00  0.5533592504711643E+00  0.5506826042060982E+00  0.5480189045780004E+00
  0.5453680889455356E+00  0.5427300949697615E+00  0.5401048606126505E+00  0.5374923241356095E+00  0.5348924240980151E+00
  0.5323050993557492E+00  0.5297302890597467E+00  0.5271679326545399E+00  0.5246179698768233E+00  0.5220803407540124E+00
  0.5195549856028139E+00  0.5170418450278024E+00  0.5145408599200046E+00  0.5120519714554841E+00  0.5095751210939380E+00
  0.5071102505772965E+00  0.5046573019283322E+00  0.5022162174492685E+00  0.4997869397204008E+00  0.4973694115987195E+00
  0.4949635762165424E+00  0.4925693769801472E+00  0.4901867575684155E+00  0.4878156619314792E+00  0.4854560342893751E+00
  0.4831078191306989E+00  0.4807709612112757E+00  0.4784454055528241E+00  0.4761310974416328E+00  0.4738279824272417E+00
  0.4715360063211277E+00  0.4692551151953933E+00  0.4669852553814647E+00  0.4647263734687926E+00  0.4624784163035580E+00
  0.4602413309873848E+00  0.4580150648760546E+00  0.4557995655782296E+00  0.4535947809541774E+00  0.4514006591145047E+00
  0.4492171484188886E+00  0.4470441974748233E+00  0.4448817551363601E+00  0.4427297705028621E+00  0.4405881929177524E+00
  0.4384569719672813E+00  0.4363360574792829E+00  0.4342253995219482E+00  0.4321249484025917E+00  0.4300346546664349E+00
  0.4279544690953819E+00  0.4258843427068064E+00  0.4238242267523406E+00  0.4217740727166692E+00  0.4197338323163252E+00
  0.4177034574984920E+00  0.4156829004398079E+00  0.4136721135451759E+00  0.4116710494465756E+00  0.4096796610018792E+00
  0.4076979012936723E+00  0.4057257236280765E+00  0.4037630815335784E+00  0.4018099287598560E+00  0.3998662192766182E+00
  0.3979319072724368E+00  0.3960069471535898E+00  0.3940912935429042E+00  0.3921849012786032E+00  0.3902877254131550E+00
  0.3883997212121260E+00  0.3865208441530365E+00  0.3846510499242198E+00  0.3827902944236821E+00  0.3809385337579672E+00
  0.3790957242410226E+00  0.3772618223930706E+00  0.3754367849394757E+00  0.3736205688096233E+00  0.3718131311357930E+00
  0.3700144292520377E+00  0.3682244206930648E+00  0.3664430631931198E+00  0.3646703146848692E+00  0.3629061332982884E+00
  0.3611504773595507E+00  0.3594033053899167E+00  0.3576645761046284E+00  0.3559342484118003E+00  0.3542122814113167E+00
  0.3524986343937273E+00  0.3507932668391469E+00  0.3490961384161519E+00  0.3474072089806847E+00  0.3457264385749517E+00
  0.3440537874263293E+00  0.3423892159462639E+00  0.3407326847291806E+00  0.3390841545513844E+00  0.3374435863699699E+00
  0.3358109413217229E+00  0.3341861807220333E+00  0.3325692660637968E+00  0.3309601590163271E+00  0.3293588214242588E+00
  0.3277652153064600E+00  0.3261793028549369E+00  0.3246010464337427E+00  0.3230304085778845E+00  0.3214673519922307E+00
  0.3199118395504185E+00  0.3183638342937582E+00  0.3168232994301400E+00  0.3152901983329381E+00  0.3137644945399160E+00
  0.3122461517521263E+00  0.3107351338328165E+00  0.3092314048063266E+00  0.3077349288569896E+00  0.3062456703280289E+00
  0.3047635937204559E+00  0.3032886636919631E+00  0.3018208450558176E+00  0.3003601027797526E+00  0.2989064019848561E+00
  0.2974597079444574E+00  0.2960199860830123E+00  0.2945872019749844E+00  0.2931613213437267E+00  0.2917423100603562E+00
  0.2903301341426300E+00  0.2889247597538158E+00  0.2875261532015615E+00  0.2861342809367576E+00  0.2847491095524030E+00
  0.2833706057824601E+00  0.2819987365007118E+00  0.2806334687196110E+00  0.2792747695891303E+00  0.2779226063956027E+00
  0.2765769465605624E+00  0.2752377576395795E+00  0.2739050073210901E+00  0.2725786634252235E+00  0.2712586939026215E+00
  0.2699450668332566E+00  0.2686377504252419E+00  0.2673367130136395E+00  0.2660419230592580E+00  0.2647533491474520E+00
  0.2634709599869086E+00  0.2621947244084340E+00  0.2609246113637289E+00  0.2596605899241640E+00  0.2584026292795426E+00
  0.2571506987368623E+00  0.2559047677190660E+00  0.2546648057637900E+00  0.2534307825221018E+00  0.2522026677572325E+00
  0.2509804313433023E+00  0.2497640432640382E+00  0.2485534736114829E+00  0.2473486925846985E+00  0.2461496704884601E+00
  0.2449563777319421E+00  0.2437687848273983E+00  0.2425868623888286E+00  0.2414105811306427E+00  0.2402399118663117E+00
  0.2390748255070125E+00  0.2379152930602604E+00  0.2367612856285381E+00  0.2356127744079077E+00  0.2344697306866197E+00
  0.2333321258437089E+00  0.2321999313475816E+00  0.2310731187545915E+00  0.2299516597076069E+00  0.2288355259345662E+00
  0.2277246892470247E+00  0.2266191215386876E+00  0.2255187947839350E+00  0.2244236810363345E+00  0.2233337524271438E+00
  0.2222489811637981E+00  0.2211693395283927E+00  0.2200947998761471E+00  0.2190253346338614E+00  0.2179609162983593E+00
  0.2169015174349198E+00  0.2158471106756951E+00  0.2147976687181175E+00  0.2137531643232934E+00  0.2127135703143844E+00
  0.2116788595749760E+00  0.2106490050474323E+00  0.2096239797312394E+00  0.2086037566813339E+00  0.2075883090064202E+00
  0.2065776098672709E+00  0.2055716324750186E+00  0.2045703500894297E+00  0.2035737360171676E+00  0.2025817636100398E+00
  0.2015944062632338E+00  0.2006116374135369E+00  0.1996334305375437E+00  0.1986597591498482E+00  0.1976905968012237E+00
  0.1967259170767873E+00  0.1957656935941515E+00  0.1948099000015602E+00  0.1938585099760133E+00  0.1929114972213752E+00
  0.1919688354664698E+00  0.1910304984631627E+00  0.1900964599844294E+00  0.1891666938224085E+00  0.1882411737864425E+00
  0.1873198737011056E+00  0.1864027674042173E+00  0.1854898287448437E+00  0.1845810315812841E+00  0.1836763497790477E+00
  0.1827757572088155E+00  0.1818792277443907E+00  0.1809867352606372E+00  0.1800982536314069E+00  0.1792137567274544E+00
  0.1783332184143414E+00  0.1774566125503311E+00  0.1765839129842715E+00  0.1757150935534693E+00  0.1748501280815540E+00
  0.1739889903763341E+00  0.1731316542276455E+00  0.1722780934051898E+00  0.1714282816563686E+00  0.1705821927041092E+00
  0.1697398002446870E+00  0.1689010779455397E+00  0.1680659994430814E+00  0.1672345383405098E+00  0.1664066682056140E+00
  0.1655823625685787E+00  0.1647615949197901E+00  0.1639443387076405E+00  0.1631305673363359E+00  0.1623202541637065E+00
  0.1615133724990210E+00  0.1607098956008077E+00  0.1599097966746795E+00  0.1591130488711716E+00  0.1583196252835849E+00
  0.1575294989458447E+00  0.1567426428303679E+00  0.1559590298459506E+00  0.1551786328356677E+00  0.1544014245747942E+00
  0.1536273777687443E+00  0.1528564650510374E+00  0.1520886589812841E+00  0.1513239320432041E+00  0.1505622566426691E+00
  0.1498036051057827E+00  0.1490479496769909E+00  0.1482952625172324E+00  0.1475455157021278E+00  0.1467986812202143E+00
  0.1460547309712230E+00  0.1453136367644090E+00  0.1445753703169333E+00  0.1438399032522993E+00  0.1431072070988528E+00
  0.1423772532883408E+00  0.1416500131545422E+00  0.1409254579319668E+00  0.1402035587546321E+00  0.1394842866549174E+00
  0.1387676125625061E+00  0.1380535073034127E+00  0.1373419415991070E+00  0.1366328860657348E+00  0.1359263112134450E+00
  0.1352221874458218E+00  0.1345204850594367E+00  0.1338211742435159E+00  0.1331242250797382E+00  0.1324296075421609E+00
  0.1317372914972873E+00  0.1310472467042774E+00  0.1303594428153108E+00  0.1296738493761057E+00  0.1289904358266059E+00
  0.1283091715018370E+00  0.1276300256329453E+00  0.1269529673484208E+00  0.1262779656755171E+00  0.1256049895418731E+00
  0.1249340077773456E+00  0.1242649891160626E+00  0.1235979021987024E+00  0.1229327155750096E+00  0.1222693977065589E+00
  0.1216079169697698E+00  0.1209482416591871E+00  0.1202903399910351E+00  0.1196341801070527E+00  0.1189797300786234E+00
  0.1183269579112051E+00  0.1176758315490753E+00  0.1170263188803977E+00  0.1163783877426216E+00  0.1157320059282258E+00
  0.1150871411908165E+00  0.1144437612515899E+00  0.1138018338061704E+00  0.1131613265318354E+00  0.1125222070951378E+00
  0.1118844431599358E+00  0.1112480023958426E+00  0.1106128524871056E+00  0.1099789611419261E+00  0.1093462961022323E+00
  0.1087148251539114E+00  0.1080845161375178E+00  0.1074553369594635E+00  0.1068272556037004E+00  0.1062002401439087E+00
  0.1055742587561973E+00  0.1049492797323274E+00  0.1043252714934682E+00  0.1037022026044934E+00  0.1030800417888281E+00
  0.1024587579438514E+00  0.1018383201568658E+00  0.1012186977216367E+00  0.1005998601555114E+00  0.9998177721712118E-01
  0.9936441892467256E-01  0.9874775557483199E-01  0.9813175776220698E-01  0.9751639639942522E-01  0.9690164273781642E-01
  0.9628746838869322E-01  0.9567384534523456E-01  0.9506074600496660E-01  0.9444814319284196E-01  0.9383601018490836E-01
  0.9322432073256655E-01  0.9261304908740566E-01  0.9200217002661142E-01  0.9139165887893529E-01  0.9078149155121261E-01
  0.9017164455541736E-01  0.8956209503623939E-01  0.8895282079916346E-01  0.8834380033903530E-01  0.8773501286909187E-01
  0.8712643835043164E-01  0.8651805752190277E-01  0.8590985193037801E-01  0.8530180396139116E-01  0.8469389687009855E-01
  0.8408611481253545E-01  0.8347844287712634E-01  0.8287086711641496E-01  0.8226337457896694E-01  0.8165595334140635E-01
  0.8104859254053307E-01  0.8044128240547972E-01  0.7983401428984721E-01  0.7922678070377219E-01  0.7861957534586350E-01
  0.7801239313495244E-01  0.7740523024159202E-01  0.7679808411924009E-01  0.7619095353506274E-01  0.7558383860028450E-01
  0.7497674080001561E-01  0.7436966302248207E-01  0.7376260958758353E-01  0.7315558627469744E-01  0.7254860034965512E-01
  0.7194166059080141E-01  0.7133477731406190E-01  0.7072796239692677E-01  0.7012122930127036E-01  0.6951459309491573E-01
  0.6890807047186119E-01  0.6830167977107623E-01  0.6769544099378176E-01  0.6708937581912601E-01  0.6648350761816703E-01
  0.6587786146607413E-01  0.6527246415246478E-01  0.6466734418978715E-01  0.6406253181966909E-01  0.6345805901714789E-01
  0.6285395949270352E-01  0.6225026869201814E-01  0.6164702379338666E-01  0.6104426370270769E-01  0.6044202904598973E-01
  0.5984036215930670E-01  0.5923930707614685E-01  0.5863890951209905E-01  0.5803921684683083E-01  0.5744027810331136E-01
  0.5684214392424539E-01  0.5624486654568673E-01  0.5564849976780489E-01  0.5505309892279118E-01  0.5445872083988976E-01
  0.5386542380755532E-01  0.5327326753273892E-01  0.5268231309731701E-01  0.5209262291168312E-01  0.5150426066553399E-01
  0.5091729127588505E-01  0.5033178083236530E-01  0.4974779653984193E-01  0.4916540665844552E-01  0.4858468044106052E-01
  0.4800568806836858E-01  0.4742850058153080E-01  0.4685318981260969E-01  0.4627982831283545E-01  0.4570848927883243E-01
  0.4513924647692936E-01  0.4457217416568169E-01  0.4400734701674412E-01  0.4344484003423982E-01  0.4288472847277381E-01
  0.4232708775425095E-01  0.4177199338365951E-01  0.4121952086398724E-01  0.4066974561044524E-01  0.4012274286417260E-01
  0.3957858760560401E-01  0.3903735446768083E-01  0.3849911764909245E-01  0.3796395082773160E-01  0.3743192707455235E-01
  0.3690311876801718E-01  0.3637759750931956E-01  0.3585543403856628E-01  0.3533669815210501E-01  0.3482145862117497E-01
  0.3430978311206064E-01  0.3380173810791950E-01  0.3329738883245385E-01  0.3279679917559053E-01  0.3230003162132530E-01
  0.3180714717788249E-01  0.3131820531033697E-01  0.3083326387583157E-01  0.3035237906152239E-01  0.2987560532536957E-01
  0.2940299533988815E-01  0.2893459993895855E-01  0.2847046806779296E-01  0.2801064673613896E-01  0.2755518097479534E-01
  0.2710411379550344E-01  0.2665748615426714E-01  0.2621533691814439E-01  0.2577770283554546E-01  0.2534461851005651E-01
  0.2491611637780511E-01  0.2449222668836748E-01  0.2407297748921064E-01  0.2365839461365309E-01  0.2324850167231499E-01
  0.2284332004802586E-01  0.2244286889414012E-01  0.2204716513621129E-01  0.2165622347696034E-01  0.2127005640447112E-01
  0.2088867420353400E-01  0.2051208497005546E-01  0.2014029462844377E-01  0.1977330695187324E-01  0.1941112358532640E-01
  0.1905374407130801E-01  0.1870116587811822E-01  0.1835338443057175E-01  0.1801039314304358E-01  0.1767218345471874E-01
  0.1733874486692475E-01  0.1701006498241843E-01  0.1668612954650078E-01  0.1636692248983148E-01  0.1605242597281432E-01
  0.1574262043142369E-01  0.1543748462434424E-01  0.1513699568129643E-01  0.1484112915241907E-01  0.1454985905858584E-01
  0.1426315794253151E-01  0.1398099692066596E-01  0.1370334573545914E-01  0.1343017280827895E-01  0.1316144529257068E-01
  0.1289712912726813E-01  0.1263718909032996E-01  0.1238158885229863E-01  0.1213029102978458E-01  0.1188325723877950E-01
  0.1164044814770930E-01  0.1140182353013979E-01  0.1116734231705397E-01  0.1093696264862177E-01  0.1071064192539046E-01
  0.1048833685882577E-01  0.1027000352113954E-01  0.1005559739434402E-01  0.9845073418476308E-02  0.9638386038941930E-02
  0.9435489252930685E-02  0.9236336654860336E-02  0.9040881480810604E-02  0.8849076651911815E-02  0.8660874816656726E-02
  0.8476228392109304E-02  0.8295089603985450E-02  0.8117410525587065E-02  0.7943143115571549E-02  0.7772239254544212E-02
  0.7604650780462762E-02  0.7440329522847480E-02  0.7279227335791809E-02  0.7121296129772625E-02  0.6966487902260630E-02
  0.6814754767134836E-02  0.6666048982906182E-02  0.6520322979759040E-02  0.6377529385419806E-02  0.6237621049864985E-02
  0.6100551068882075E-02  0.5966272806498102E-02  0.5834739916293361E-02  0.5705906361617532E-02  0.5579726434727691E-02
  0.5456154774868842E-02  0.5335146385318136E-02  0.5216656649414896E-02  0.5100641345599981E-02  0.4987056661487499E-02
  0.4875859206994087E-02  0.4767006026549728E-02  0.4660454610415939E-02  0.4556162905136361E-02  0.4454089323146095E-02
  0.4354192751565191E-02  0.4256432560202621E-02  0.4160768608796872E-02  0.4067161253519025E-02  0.3975571352764207E-02
  0.3885960272257585E-02  0.3798289889500097E-02  0.3712522597579686E-02  0.3628621308372714E-02  0.3546549455160956E-02
  0.3466270994687837E-02  0.3387750408678703E-02  0.3310952704848185E-02  0.3235843417418296E-02  0.3162388607169760E-02
  0.3090554861048813E-02  0.3020309291351403E-02  0.2951619534506044E-02  0.2884453749475781E-02  0.2818780615799790E-02
  0.2754569331294197E-02  0.2691789609430943E-02  0.2630411676413763E-02  0.2570406267968670E-02  0.2511744625866977E-02
  0.2454398494197305E-02  0.2398340115403119E-02  0.2343542226101464E-02  0.2289978052698303E-02  0.2237621306814851E-02
  0.2186446180539446E-02  0.2136427341518074E-02  0.2087539927897303E-02  0.2039759543131459E-02  0.1993062250666788E-02
  0.1947424568513686E-02  0.1902823463718480E-02  0.1859236346745043E-02  0.1816641065776641E-02  0.1775015900947623E-02
  0.1734339558514201E-02  0.1694591164973098E-02  0.1655750261136595E-02  0.1617796796171902E-02  0.1580711121612360E-02
  0.1544473985347929E-02  0.1509066525601482E-02  0.1474470264897714E-02  0.1440667104030532E-02  0.1407639316034898E-02
  0.1375369540168424E-02  0.1343840775908082E-02  0.1313036376966653E-02  0.1282940045333598E-02  0.1253535825344648E-02
  0.1224808097784003E-02  0.1196741574022916E-02  0.1169321290198265E-02  0.1142532601434136E-02  0.1116361176109711E-02
  0.1090792990175978E-02  0.1065814321524058E-02  0.1041411744407454E-02  0.1017572123920411E-02  0.9942826105343481E-03
  0.9715306346943120E-03  0.9493039014769746E-03  0.9275903853117829E-03  0.9063783247665184E-03  0.8856562173985768E-03
  0.8654128146728846E-03  0.8456371169475239E-03  0.8263183685278134E-03  0.8074460527894945E-03  0.7890098873717070E-03
  0.7709998194400925E-03  0.7534060210205368E-03  0.7362188844037132E-03  0.7194290176206913E-03  0.7030272399896587E-03
  0.6870045777338479E-03  0.6713522596705346E-03  0.6560617129711007E-03  0.6411245589918214E-03  0.6265326091753417E-03
  0.6122778610223125E-03  0.5983524941330132E-03  0.5847488663184385E-03  0.5714595097804831E-03  0.5584771273606456E-03
  0.5457945888567865E-03  0.5334049274073457E-03  0.5213013359424025E-03  0.5094771637009389E-03  0.4979259128136889E-03
  0.4866412349508072E-03  0.4756169280337132E-03  0.4648469330103484E-03  0.4543253306930513E-03  0.4440463386583670E-03
  0.4340043082079236E-03  0.4241937213895996E-03  0.4146091880781924E-03  0.4052454431147378E-03  0.3960973435036488E-03
  0.3871598656668506E-03  0.3784281027540676E-03  0.3698972620083917E-03  0.3615626621862873E-03  0.3534197310312100E-03
  0.3454640027999164E-03  0.3376911158406873E-03  0.3300968102225346E-03  0.3226769254145934E-03  0.3154273980148222E-03
  0.3083442595271638E-03  0.3014236341863212E-03  0.2946617368293256E-03  0.2880548708130316E-03  0.2815994259767425E-03
  0.2752918766491159E-03  0.2691287796985623E-03  0.2631067726262849E-03  0.2572225717012140E-03  0.2514729701359844E-03
  0.2458548363032321E-03  0.2403651119913734E-03  0.2350008106991458E-03  0.2297590159681220E-03  0.2246368797524660E-03
  0.2196316208251906E-03  0.2147405232201712E-03  0.2099609347092045E-03  0.2052902653134216E-03  0.2007259858483213E-03
  0.1962656265017531E-03  0.1919067754441752E-03  0.1876470774705146E-03  0.1834842326729555E-03  0.1794159951440347E-03
  0.1754401717093798E-03  0.1715546206894943E-03  0.1677572506899322E-03  0.1640460194193033E-03  0.1604189325344642E-03
  0.1568740425123563E-03  0.1534094475478785E-03  0.1500232904772534E-03  0.1467137577263134E-03  0.1434790782831920E-03
  0.1403175226948409E-03  0.1372274020868992E-03  0.1342070672063529E-03  0.1312549074865188E-03  0.1283693501338301E-03
  0.1255488592359472E-03  0.1227919348907311E-03  0.1200971123555822E-03  0.1174629612167215E-03  0.1148880845779342E-03
  0.1123711182683643E-03  0.1099107300689051E-03  0.1075056189567817E-03  0.1051545143678987E-03  0.1028561754765655E-03
  0.1006093904921787E-03  0.9841297597250047E-04  0.9626577615312726E-04  0.9416666229279966E-04  0.9211453203417165E-04
  0.9010830877969292E-04  0.8814694108225041E-04  0.8622940205023134E-04  0.8435468876667541E-04  0.8252182172217983E-04
  0.8072984426124603E-04  0.7897782204175792E-04  0.7726484250727647E-04  0.7559001437185504E-04  0.7395246711709218E-04
  0.7235135050111705E-04  0.7078583407924889E-04  0.6925510673603809E-04  0.6775837622843728E-04  0.6629486873982946E-04
  0.6486382844466395E-04  0.6346451708344679E-04  0.6209621354784568E-04  0.6075821347566866E-04  0.5944982885548095E-04
  0.5817038764063344E-04  0.5691923337248606E-04  0.5569572481259835E-04  0.5449923558368232E-04  0.5332915381910492E-04
  0.5218488182074214E-04  0.5106583572498343E-04  0.4997144517669155E-04  0.4890115301092989E-04  0.4785441494227639E-04
  0.4683069926153673E-04  0.4582948653968313E-04  0.4485026933885019E-04  0.4389255193021485E-04  0.4295585001859719E-04
  0.4203969047362363E-04  0.4114361106729227E-04  0.4026716021779369E-04  0.3940989673943024E-04  0.3857138959849194E-04
  0.3775121767494767E-04  0.3694896952981094E-04  0.3616424317804309E-04  0.3539664586686251E-04  0.3464579385933395E-04
  0.3391131222310481E-04  0.3319283462417055E-04  0.3249000312554422E-04  0.3180246799072020E-04  0.3112988749180685E-04
  0.3047192772222447E-04  0.2982826241385410E-04  0.2919857275853537E-04  0.2858254723380360E-04  0.2797988143276723E-04
  0.2739027789802748E-04  0.2681344595954144E-04  0.2624910157633356E-04  0.2569696718196495E-04  0.2515677153366849E-04
  0.2462824956506466E-04  0.2411114224236845E-04  0.2360519642400569E-04  0.2311016472355765E-04  0.2262580537595292E-04
  0.2215188210682839E-04  0.2168816400498340E-04  0.2123442539785519E-04  0.2079044572993945E-04  0.2035600944408724E-04
  0.1993090586561102E-04  0.1951492908912795E-04  0.1910787786808024E-04  0.1870955550686371E-04  0.1831976975550424E-04
  0.1793833270682208E-04  0.1756506069602177E-04  0.1719977420265100E-04  0.1684229775487227E-04  0.1649245983599104E-04
  0.1615009279318605E-04  0.1581503274839015E-04  0.1548711951126879E-04  0.1516619649424837E-04  0.1485211062954160E-04
  0.1454471228812664E-04  0.1424385520062875E-04  0.1394939638006316E-04  0.1366119604639144E-04  0.1337911755284918E-04
  0.1310302731400410E-04  0.1283279473550047E-04  0.1256829214545154E-04  0.1230939472744067E-04  0.1205598045509123E-04
  0.1180793002816985E-04  0.1156512681018480E-04  0.1132745676744434E-04  0.1109480840954138E-04  0.1086707273122820E-04
  0.1064414315565063E-04  0.1042591547890683E-04  0.1021228781590175E-04  0.1000316054746396E-04  0.9798436268696692E-05
  0.9598019738532220E-05  0.9401817830462957E-05  0.9209739484418699E-05  0.9021695659765477E-05  0.8837599289396979E-05
  0.8657365234894773E-05  0.8480910242730167E-05  0.8308152901483857E-05  0.8139013600059787E-05  0.7973414486868030E-05
  0.7811279429955611E-05  0.7652533978061338E-05  0.7497105322573456E-05  0.7344922260369008E-05  0.7195915157513364E-05
  0.7050015913799753E-05  0.6907157928109588E-05  0.6767276064573590E-05  0.6630306619514596E-05  0.6496187289154150E-05
  0.6364857138064810E-05  0.6236256568350193E-05  0.6110327289535839E-05  0.5987012289154102E-05  0.5866255804006923E-05
  0.5748003292090270E-05  0.5632201405164697E-05  0.5518797961956796E-05  0.5407741921977120E-05  0.5298983359939520E-05
  0.5192473440767937E-05  0.5088164395177169E-05  0.4986009495813942E-05  0.4885963033944739E-05  0.4787980296678427E-05
  0.4692017544710137E-05  0.4598031990575312E-05  0.4505981777400893E-05  0.4415825958142666E-05  0.4327524475297244E-05
  0.4241038141077648E-05  0.4156328618041463E-05  0.4073358400161001E-05  0.3992090794325587E-05  0.3912489902265325E-05
  0.3834520602886790E-05  0.3758148535010984E-05  0.3683340080504272E-05  0.3610062347793125E-05  0.3538283155753548E-05
  0.3467971017966604E-05  0.3399095127331764E-05  0.3331625341029302E-05  0.3265532165823978E-05  0.3200786743701776E-05
  0.3137360837832603E-05  0.3075226818850456E-05  0.3014357651444463E-05  0.2954726881253157E-05  0.2896308622055337E-05
  0.1280308779828199E+03  0.1280308779828199E+03  0.1280308779828199E+03  0.1280308779828199E+03  0.1280308779828199E+03
  0.1280308779828199E+03  0.1280308779828199E+03  0.1280308779828199E+03  0.1280308779828199E+03  0.1280308779828199E+03
  0.1280308779828199E+03  0.1280308779828199E+03  0.1280308779828199E+03  0.1280308779828199E+03  0.1280308779828199E+03
  0.1280308779828199E+03  0.1280308779828199E+03  0.1280308779828199E+03  0.1280308779828199E+03  0.1280308779828199E+03
  0.1280308779828199E+03  0.1280308779828199E+03  0.1280308779828199E+03  0.1280308779828199E+03  0.1280308779828199E+03
  0.1280308779828199E+03  0.1280308779828199E+03  0.1280308779828199E+03  0.1280308779828199E+03  0.1280308779828199E+03
  0.1280308779828199E+03  0.1280308779828199E+03  0.1280308779828199E+03  0.1280308779828199E+03  0.1280308779828199E+03
  0.1280308779828199E+03  0.1280308779828199E+03  0.1280308779828199E+03  0.1280308779828199E+03  0.1280308779828199E+03
  0.1280308779828199E+03  0.1280308779828199E+03  0.1280308779828199E+03  0.1280308779828199E+03  0.1280308779828199E+03
  0.1280308779828199E+03  0.1280308779828199E+03  0.1280308779828199E+03  0.1280308779828199E+03  0.1280308779828199E+03
  0.1280308779828199E+03  0.1280308779828199E+03  0.1280308779828199E+03  0.1280308779828199E+03  0.1280308779828199E+03
  0.1280308779828199E+03  0.1280308779828199E+03  0.1280308779828199E+03  0.1280308779828199E+03  0.1280308779828199E+03
  0.1280308779828199E+03  0.1280308779828199E+03  0.1280308779828199E+03  0.1280308779828199E+03  0.1280308779828199E+03
  0.1280308779828199E+03  0.1280308779828199E+03  0.1280308779828199E+03  0.1280308779828199E+03  0.1280308779828199E+03
  0.1280308779828199E+03  0.1280308779828199E+03  0.1280308779828199E+03  0.1280308779828199E+03  0.1280308779828199E+03
  0.1280308779828199E+03  0.1280308779828199E+03  0.1280308779828199E+03  0.1280308779828199E+03  0.1280308779828199E+03
  0.1280308779828199E+03  0.1280308779828199E+03  0.1280308779828199E+03  0.1280308779828199E+03  0.1280308779828199E+03
  0.1280308779828199E+03  0.1280308779828199E+03  0.1280308779828199E+03  0.1280308779828199E+03  0.1280308779828199E+03
  0.1280308779828199E+03  0.1280308779828199E+03  0.1280308779828199E+03  0.1280308779828199E+03  0.1280308779828199E+03
  0.1280308779828199E+03  0.1280308779828199E+03  0.1280308779828199E+03  0.1280308779828199E+03  0.1280308779828199E+03
  0.1280308779828199E+03  0.1280308779828199E+03  0.1280308779828199E+03  0.1280308779828199E+03  0.1280308779828199E+03
  0.1280308779828199E+03  0.1280308779828199E+03  0.1280308779828199E+03  0.1280308779828199E+03  0.1280308779828199E+03
